0
0.015175117
-0.7252203
-0.15725204
0.46199793
0.7383773
-0.5985915
0.5164362
0.5957138
-0.46043515
-1.0629579
0.42303452
0.47441718
0.5550474
0.51290375
0.478329
0.27436757
-2.0421088
-0.07653548
-0.30935675
0.053209238
0.48257515
0.5772154
0.86815333
0.5018308
0.20984462
0.19187723
0.5365994
0.37042323
0.34702682
-0.044579588
0.5322368
0.7657492
-0.56703264
0.5467591
0.5383723
0.6827911
-0.45515394
0.5736381
0.5757487
0.044032868
0.49173817
0.5745162
0.7860293
-0.10820517
0.5566639
0.30167785
-0.48946518
0.78544664
-0.10984311
0.48629415
-0.27693444
-0.111496136
-0.43257147
0.32502252
0.70558786
-0.122334704
0.56242967
-0.10975716
0.56926924
0.10953002
-2.0041995
0.38635877
0.3176125
0.5586393
-0.2928087
-0.11950722
0.6604854
0.6365727
0.5941661
0.5953334
0.49122918
0.41991407
0.41506466
-0.27938443
0.22011633
-0.391606
-0.058042224
-2.0492675
0.7032781
-0.3145102
-0.24019524
0.026470177
0.561969
0.5832798
0.5684433
0.4844799
-0.17184477
-0.12541905
0.37300962
0.4596617
0.36549026
0.38566348
0.3072662
-0.62577623
0.42517814
0.15334183
0.17264037
0.46683595
0.2994383
0.59175056
0.49244782
-0.18846932
0.38004416
0.5256408
0.51646864
0.68943834
0.47149086
-0.034649834
0.33339196
0.4589975
-0.9297919
-0.08606247
0.5907868
0.03875599
0.53471637
-0.44390142
0.6169487
0.22228026
0.35170358
0.34657118
0.26383233
-0.08038849
0.45856515
-0.787657
0.35295185
0.5720163
-0.135413
-0.108524755
