0
0.29456195
-0.040684253
0.05411379
-0.12983412
0.25951302
0.20927586
0.18889783
0.24337949
0.327919
-0.062370718
0.11041704
0.034799423
0.23384483
-0.37679628
-0.5185277
0.28532594
0.22934803
0.14177634
-0.28683212
0.105567135
-0.16598089
0.1040394
0.19544387
0.28159237
0.09647437
-0.14365473
-0.24417782
-0.92587423
-0.06285284
-0.9677236
0.12465465
-0.96331125
0.27061167
-0.067068264
-0.012978275
0.04085046
0.20880447
-0.11784323
0.16223896
0.30042142
-0.5179452
0.110318646
-0.16015805
-0.12166479
0.12590908
0.0856683
-0.0015771113
0.27136144
0.116575934
0.2576499
0.25366122
-0.2459395
0.017838838
0.18456866
0.02071262
-0.19365571
0.19711103
0.25732896
0.29766545
0.11162376
0.044185847
-0.0030730846
0.003144561
0.25187582
0.26842138
0.11681783
-0.2926822
0.22563742
-0.15379696
-0.052309748
0.20485343
0.31860614
0.17325318
0.22256781
0.11880641
0.23066705
0.21263225
0.20993729
0.16423747
-0.020921458
0.008938642
0.1568769
0.2331529
-0.72584426
0.265954
-0.22203149
0.22624399
0.12797144
0.25230628
0.2755884
0.0640475
0.14720051
-1.1826982
-0.011679764
0.06608031
0.039053213
0.18415533
0.043028373
-0.40460917
0.28716037
0.031826187
0.18421228
0.1788
0.21924269
-0.077917285
0.3591751
-0.6511668
0.19949438
0.059101664
0.08869315
-0.03969082
-0.0278292
0.055794816
0.1787357
0.12796806
-0.05677991
0.29098874
0.009775645
0.027300162
0.16121836
0.14030726
0.10140812
-0.0727629
0.23818846
-0.2519933
-0.3709643
0.24866828
0.19818935
