0
-0.03066266
-0.5328188
-0.059938513
-0.13291311
-0.031910136
0.8843082
0.4765894
0.52952445
-0.5659262
0.21480134
-0.3773095
-0.11452805
0.46735176
0.30186945
0.4485947
-0.53345966
0.12190688
-0.044206947
0.20878828
-0.04381231
-0.32051742
0.2175126
0.36490592
-0.10984204
-0.059398964
0.2722866
-0.17356755
0.24805905
0.61900777
0.58535665
-0.2274483
0.38042614
-0.048363335
0.35203823
-0.3922119
-0.04591071
-0.053438615
-0.22854614
-0.05492695
0.42561933
-0.5810527
0.50581264
-0.02743246
-0.42898133
0.53078586
-0.4935286
-0.06537137
-0.05429619
0.12503588
0.36931685
0.20812269
-0.33291245
0.07008763
-0.1082509
-1.5741776
-0.030641593
0.3799822
0.57251996
0.1808639
-0.9516343
-0.056708552
0.28162196
0.35411668
0.2586098
-0.08077407
0.047360193
-0.060334586
-0.15604743
0.39569798
0.12018945
0.3167273
-0.05941107
0.62295467
-0.49421963
0.11909149
0.58577037
-0.057981405
-0.055544294
-0.80065125
0.14787303
-0.051665943
-0.46514192
-0.31095612
0.4316412
-1.1903853
0.30376607
-1.3431484
-0.100623734
-0.049669534
-0.048132923
-0.0112083005
0.013329217
-0.08990854
0.46093056
-0.016782748
-0.049674213
-0.0748364
-0.07120879
-0.14934137
-0.2450053
0.279724
-0.09225327
0.0065733944
-0.10924009
-0.04570231
0.4564047
-0.038888156
0.10525338
-0.0895224
0.17473492
-1.1525433
-0.060985744
0.11186163
-0.21834028
-0.11479992
-0.06474285
-0.09358029
-1.722875
0.16617763
0.03206362
-0.47880077
-1.3130527
-0.073190935
0.075144544
-0.6950013
-0.07859513
-0.068742484
0.4315302
