0
0.34616137
0.3375799
-0.07984464
0.27505812
0.12531415
0.34981394
0.39425686
0.5683011
-0.03220769
0.39765185
0.22722106
-0.017850326
0.15609276
0.0
0.37103698
0.0
0.13123904
-0.012212503
0.54589933
-0.14767008
-0.01726179
0.05129142
-0.031838425
-0.030362904
0.66662616
-0.48788702
0.598631
0.63462937
0.04325399
-0.06242305
0.00116819
-0.242775
0.3957017
0.33502948
0.122187085
-0.22515205
0.31282422
-0.015006523
-0.2898837
0.0
0.34441468
0.3164559
0.27820754
-0.19836697
0.29850018
0.18467133
-0.47411063
-0.015404907
0.026731344
0.1457967
0.0
0.0
-0.26608154
-0.20695442
0.3293165
-0.13435946
-0.2894064
-0.7146324
0.34741253
-0.14004084
0.8113459
0.22631264
0.30447933
0.231545
0.17737094
-0.106441624
0.07694236
-0.15035461
-0.04325719
0.25634918
-0.18166874
-0.27301905
-0.50254583
-0.14124997
0.10256495
0.6198849
0.21795204
-0.5835565
0.21361494
-0.16504146
0.7771741
0.0
0.038074765
0.0
-0.1447458
0.24502206
0.0
-0.16588426
0.1443138
0.47822398
0.48829332
0.19611824
-0.06316092
0.4096427
0.39442647
0.14529744
0.3930466
-0.043711953
0.16830839
0.0
-0.118513
0.11400967
0.0
0.10593682
0.23676622
-0.15879668
-0.6091112
0.36004847
0.0
0.34483746
-0.2745857
-0.47695455
-0.2436669
-0.12832004
-0.14711069
0.61244273
0.30930695
-0.064904615
0.40730214
0.73806214
-0.4335399
0.7219527
0.058351733
-0.07640349
0.31009924
0.05328237
-0.0005066413
0.33594686
0.28812882
0.33414745
-0.5260978
-0.06983111
0.34109592
-0.09503885
0.0
-0.009825341
-0.29120263
0.6587414
0.3216106
-0.10371917
0.025744509
-0.051717438
0.16294831
0.07601952
-0.005159237
-0.3920078
0.24589261
-0.0055675902
0.24084747
-0.37887612
-0.28659177
-0.17282933
-0.015133086
0.77997136
0.25795797
-0.17632449
0.0
0.10527857
0.2773865
0.88047034
0.02397565
0.36612406
0.18030788
0.4382946
0.91098976
0.19472863
0.42938444
0.0
0.0
-0.33702168
0.18767633
-0.08227437
0.17637779
0.4636772
0.906874
-0.16006875
-0.36784992
-0.49478444
-0.14724085
-0.40312448
0.38384363
0.0
0.0
-0.004413268
0.1795952
-0.031018427
0.0
0.39375743
-0.15020175
0.3953224
0.0
0.39354044
0.06554723
0.26455322
0.40843445
0.019571654
0.40408185
0.56513387
0.3380788
-0.09024979
-0.16083583
0.33407414
0.0
0.20114562
0.58035606
-0.69888234
-0.25667894
0.3988141
-0.07760346
-0.022375118
-0.60401344
-0.59717697
0.19269305
-0.09510883
-0.027419455
0.0
0.027979044
0.0
-0.058149848
0.17699398
0.124822035
0.24305712
0.009978385
0.09591581
0.38115063
-0.0119575085
0.80082196
-0.21552841
-0.17427292
0.054807648
0.17040837
-0.12572284
-0.2690893
-0.38775116
-0.008686132
-0.13944794
0.3681609
-0.10576577
0.07265567
0.4622887
-0.19580524
-0.07870853
0.0838124
0.334009
0.6761226
-0.48165116
0.20856065
-0.070270285
0.05490291
-0.34493595
-0.20341486
-0.29093847
-0.050310995
0.63786304
0.04600208
-0.10322309
