0
-0.52187496
-0.20422432
-0.28638184
-0.0070949527
-0.5135728
-0.16220376
-0.51485056
-0.22701344
-0.08315403
0.008067508
-0.3859058
0.91107744
0.40692398
-0.06528186
-0.3888
-0.40428266
0.37338164
-0.046862897
0.0
-0.36881116
0.35114738
-0.33730617
-0.07332183
0.11560492
0.74626297
-0.43544078
-0.24810043
0.946357
0.4745243
0.056800656
-0.012874474
-0.103274405
-0.12577416
-0.7197288
0.38515577
-0.38337842
-0.070658274
0.5079583
0.9023066
-0.56792307
0.2588552
-0.15139984
0.22673008
0.008935404
-0.3704288
-0.05156784
0.32304567
-0.21935722
-0.17094554
0.2679551
0.0
-0.011174042
-0.15015231
-0.37908456
-0.09457603
0.12877333
-0.1417802
-0.09900828
0.2514415
-0.15747486
-0.031668216
0.0
0.0
0.43613568
0.41093287
0.32171732
0.30669925
0.63016284
0.38589203
-0.13416924
-0.121580176
0.38239875
0.3791824
-0.21299905
0.2766857
-0.022590537
0.11119467
-0.14621574
0.35918388
-0.30942822
0.57192624
0.3671154
0.89185566
0.025504762
-0.115527436
0.0
0.39175287
-0.12939379
0.8735657
-0.22389047
0.4999959
-0.59198356
0.22568375
0.38472068
0.045953646
-0.26733077
-0.008426186
-0.057655074
-0.026384654
-0.09961211
0.13935614
0.117890395
0.63115
-0.534477
-0.0032612188
0.0317127
-0.052694764
-0.088358045
0.30798092
0.41976643
-0.037876338
0.7768894
0.2799267
-0.0812392
-0.028123436
-0.012244247
0.015178902
-0.8554751
-0.45092055
0.98418003
-0.50892246
-0.09477699
0.18337299
-0.73221636
-0.3780123
-0.21867895
0.9959075
0.0
0.04982562
-0.059197534
0.9550334
-0.6118708
-0.3239516
0.67716527
-0.037626326
0.0
-0.06520222
-0.2651815
0.026363244
-0.628917
-0.18603165
-0.40318686
-0.11039179
-0.04835144
0.35491827
0.35796016
0.3749531
0.89222974
-0.042907085
-0.060721584
-0.34751806
-0.086280964
0.0
0.0
-0.72040987
0.20050205
0.33436298
-0.13267334
-0.37231743
-0.4603372
0.15718833
-0.31849888
-0.15772003
-0.01905295
-0.10351877
0.34623027
-0.25574234
0.018778078
0.28060037
-0.48724943
0.2761049
0.35587686
-0.070651345
-0.014799844
-0.0049137664
0.37605247
-0.09740391
0.2552719
0.38598555
0.4625797
0.9135135
-0.032995116
0.89182204
-0.016512286
0.98859984
-0.497333
-0.11630235
-0.21438943
-0.6005409
0.729714
0.18139023
-0.10676927
0.0
0.0
0.39025894
0.96133065
0.0
0.8534012
0.34462196
-0.028326673
-0.25846905
0.0014842307
0.33098748
-0.075266786
0.3348085
-0.23579606
0.5072944
0.83487195
0.2703605
-0.1900831
0.3116593
-0.4797994
-0.13410993
0.0
-0.6907157
-0.3018165
-0.09720726
0.051549796
-0.42907014
-0.02046275
0.0
0.9756598
0.25377825
-0.24876328
0.42835507
-0.13324608
-0.43773994
-0.1539884
-0.21788692
0.40576002
-0.40724412
0.23516305
-0.6076546
0.85475177
-0.13601574
-0.19767462
-0.077180095
-0.048956234
-0.09127028
0.7132576
0.13804913
-0.11321541
-0.2985517
-0.33838168
-0.117618494
0.37079406
0.6622237
0.30022642
0.0
0.93000233
0.42687374
0.021262418
-0.48278773
0.78712744
0.94427425
0.116404936
