0,1,2,3,4,5,6,7,8,9,10,11,12,13,14,15,16,17,18,19,20,21,22,23,24,25,26,27,28,29,30,31,32,33,34,35,36,37,38,39,40,41,42,43,44,45,46,47,48,49,50,51,52,53,54,55,56,57,58,59,60,61,62,63,64,65,66,67,68,69,70,71,72,73,74,75,76,77,78,79,80,81,82,83,84,85,86
0.00023024154,-0.00032050538,5.8829624e-05,-0.0002975202,-0.00026899908,-0.0003146694,-0.00022942026,-2.5210287e-05,0.0004079557,0.0010047454,0.00028893095,0.0010671559,-0.0004482589,0.0003935203,0.0011465405,0.0025663665,0.0027233246,0.0028810862,0.002779645,0.0021436738,0.0027993836,0.0023624052,0.0019117331,0.0014823475,0.0011210028,0.00017279247,-8.0623926e-05,-7.6370954e-05,-5.848553e-06,0.00012003516,-0.0012117365,-0.0005005164,7.016642e-05,0.0005428098,0.00089360133,0.0023966928,0.0029774245,0.0031775224,0.003214108,0.0031764673,0.006780346,0.006157385,0.0058095353,0.005672475,0.005673378,0.010455563,0.010364073,0.010604577,0.011027752,0.011425005,0.022806464,0.023127627,0.023217771,0.023170196,0.023045816,0.045272775,0.04486573,0.044292606,0.043742497,0.043239422,0.08304235,0.080628306,0.077652425,0.07409567,0.070302024,0.12831682,0.11385057,0.10035029,0.088025644,0.07715184,0.1268042,0.09856866,0.07722925,0.061066464,0.04889995,0.072622955,0.051128767,0.03771129,0.029059397,0.023393502,0.037289135,0.029725349,0.024023063,0.019925034,0.016650068,0.023752088,0.014187116
0.0014328575,0.00035581502,0.00022221012,-4.555795e-05,-0.00020363458,-0.00015505766,-0.00026073575,-0.00025099283,-0.00016507326,-1.9392668e-05,-0.00032215042,-0.00018629797,-0.0005826237,-0.0005138557,-0.00042010337,-0.00037810073,-0.0003643117,-0.00027459327,-0.00024243625,-0.0003812094,-0.00020207856,-3.0358948e-05,0.00012396269,0.0002474504,0.00034090964,0.0009336964,0.0011018559,0.0012214098,0.0012936579,0.0013347073,0.0022108585,0.0021380764,0.0020294604,0.001886085,0.0017177871,0.0026592943,0.0020178999,0.0014304143,0.0009014666,0.0004405019,-0.00047564413,-0.0015587356,-0.0024033783,-0.0030609728,-0.0035711566,-0.009089574,-0.0098806545,-0.010469659,-0.010916818,-0.011239771,-0.023918288,-0.024181165,-0.02442146,-0.024573436,-0.024612611,-0.04957217,-0.04847056,-0.04714644,-0.045598283,-0.043857146,-0.08323846,-0.07540675,-0.06787225,-0.060895946,-0.05453734,-0.09374142,-0.07472332,-0.05973003,-0.048024666,-0.038775716,-0.057154696,-0.037667733,-0.025124976,-0.016879816,-0.011299006,-0.010927807,-0.0041837366,-0.0009661438,0.0005223845,0.00119821,0.00572142,0.003608472,0.0026572826,0.0021541263,0.00188368,0.006141414,0.004366346
0.001076156,6.643082e-05,0.00010951611,0.00017775636,0.00024122093,0.00030332006,0.00024053121,0.0001148508,7.568684e-06,-3.5768535e-06,0.00010954621,1.1604498e-05,0.00030543722,0.00024943717,0.0002483935,0.0004004436,0.00054455176,0.0006395231,0.00078215194,0.00092989136,0.0017893163,0.0020181239,0.0022225652,0.0024082817,0.0025717,0.0055440417,0.0058325734,0.005891376,0.005765065,0.0055104936,0.0098539125,0.008198074,0.006589802,0.005177246,0.0040122364,0.004770672,0.0029100676,0.0023695114,0.0027204633,0.0036133546,0.0114114415,0.016729116,0.021627408,0.025678977,0.028779011,0.06385814,0.06681573,0.06590902,0.06263652,0.057956144,0.09955257,0.07668617,0.05572672,0.037604664,0.022364996,0.009176839,-0.023839923,-0.044365842,-0.056466997,-0.062868506,-0.13075136,-0.12481003,-0.11240319,-0.09819531,-0.08423202,-0.12911165,-0.08947777,-0.060906593,-0.040383358,-0.025808886,-0.020068852,-0.0015190418,0.0067958855,0.010295168,0.011254327,0.024934482,0.017976535,0.013544838,0.01067832,0.008744787,0.01604347,0.011341783,0.009098438,0.0073651727,0.005605519,0.0068198764,-0.0003337022
-0.0006696439,0.00015764026,-5.0016013e-05,-0.00016585071,-0.00025998533,-0.00025807592,-0.00034975805,-0.00033302698,-0.00027599253,-0.00025251243,-0.00031639158,-0.00026814308,-0.000517884,-0.00039004695,-0.00032611348,-0.00039353062,-0.00034612743,-0.0003057339,-0.00034529893,-0.00049782,-0.00016722784,-0.00011744157,-9.5523064e-05,-8.518238e-05,-7.2322655e-05,-0.00010257859,-1.0227835e-05,7.0319096e-05,0.00013139386,0.00017401128,0.00021103871,0.0002608542,0.0002542442,0.00022246435,0.00017721277,0.00020648523,-3.474534e-05,-0.0002446218,-0.00042643907,-0.00058200303,-0.0020738307,-0.0023763345,-0.0025753854,-0.0026946338,-0.0027472025,-0.005793421,-0.0056219744,-0.0054467875,-0.0052894754,-0.0051111053,-0.009987604,-0.009390177,-0.008968758,-0.008633929,-0.008357315,-0.016639255,-0.015673159,-0.014808297,-0.014051406,-0.013363099,-0.024896547,-0.022679156,-0.020921197,-0.019496858,-0.01832669,-0.03341718,-0.030453786,-0.028144434,-0.026214609,-0.024528835,-0.044553928,-0.039506212,-0.03531749,-0.031780023,-0.028781861,-0.050546218,-0.04287965,-0.037322987,-0.03313477,-0.02980246,-0.052127108,-0.044848558,-0.039489355,-0.03505314,-0.031155456,-0.05126727,-0.040917516
9.753399e-06,0.00062185945,0.00065741735,0.0007706978,0.0007563865,0.00089881563,0.0008394277,0.0007088974,0.0005810011,0.0006129586,0.0005988337,0.00024856057,-0.00021280075,-0.00042310136,-0.000724621,-0.0035747,-0.0048981993,-0.005802564,-0.006280224,-0.0064771487,-0.014020697,-0.012978121,-0.011434736,-0.009687053,-0.007901827,-0.011886957,-0.005844605,-0.0009494375,0.0029312377,0.0059798374,0.01833866,0.024255164,0.027622985,0.029454388,0.030310424,0.060400825,0.058872305,0.0562664,0.05329275,0.050267342,0.091759585,0.08141584,0.07264613,0.06515811,0.058717452,0.100384444,0.08349078,0.06993166,0.05896728,0.049959373,0.07801099,0.057535857,0.042224336,0.030951887,0.022518018,0.028101126,0.013683469,0.0047342116,-0.0006562709,-0.003866563,-0.012295489,-0.014689805,-0.015242283,-0.0148721365,-0.014156297,-0.025415443,-0.022074854,-0.01931869,-0.016818056,-0.014652717,-0.023887755,-0.017964844,-0.013380356,-0.009777999,-0.0070709707,-0.008930772,-0.004183112,-0.0018229942,-0.0006514646,-0.00023183346,7.633325e-05,-0.00064913114,-0.0013204216,-0.001508164,-0.0013518722,0.0003839185,0.002702946
0.00039375233,0.00045982213,0.00015785635,-0.00012976883,-0.00012707838,-0.00027413343,-0.00019007461,-0.00010936097,-7.672887e-05,-0.00017335775,-0.00019665332,-0.0001839812,-0.00035125497,-0.00025983996,-0.00020438978,-0.0001924568,-7.8670986e-05,9.921176e-06,5.6452016e-05,0.00010797889,0.0009798445,0.0014009587,0.0017431987,0.0019980238,0.0021706973,0.0045649023,0.0045451075,0.0043020835,0.0039460766,0.003570144,0.0059501785,0.004769627,0.003979624,0.0034873378,0.0032042426,0.005943418,0.006011338,0.006337781,0.006689916,0.0069909496,0.014501861,0.014944058,0.014936778,0.014677399,0.014316729,0.02736687,0.026285807,0.02545569,0.024904273,0.024596628,0.04806185,0.048298914,0.048548315,0.048573326,0.048288733,0.09279505,0.088393226,0.08232411,0.07529877,0.067899145,0.111419685,0.085411474,0.06275996,0.043805502,0.028316205,0.019227415,-0.011151367,-0.029402131,-0.03984458,-0.04511363,-0.09529113,-0.08845358,-0.07714049,-0.065326616,-0.054321952,-0.08078688,-0.052422173,-0.033518475,-0.020999424,-0.01272282,-0.010551034,-0.0022053884,0.00058255467,0.0012797787,0.0011365942,0.0013378989,-0.00016790126
8.825418e-05,0.0002685528,5.8198904e-05,9.181873e-06,-6.203453e-05,-0.00028953073,-0.0003406216,-0.00043570332,-0.0005648918,-0.00071642885,-0.0008288645,-0.000985589,-0.00080048933,-0.0011342819,-0.0012214313,-0.0015304403,-0.0014307997,-0.0013717136,-0.0012479395,-0.0010519867,-0.0018521665,-0.0016153959,-0.0014004285,-0.0012067682,-0.0010309478,-0.0015515354,-0.0013184357,-0.0011386203,-0.0009726124,-0.0008307787,-0.0009288916,-0.00054665294,-0.00022365064,3.822648e-05,0.00027186907,0.0010965203,0.0019070031,0.0024826045,0.002878119,0.0031259449,0.0060064257,0.0059797163,0.005628232,0.0051522213,0.004624467,0.006378212,0.004580895,0.003066208,0.001897084,0.0008928297,-0.00095584895,-0.0030649242,-0.0048074448,-0.0061541176,-0.0072708963,-0.01762187,-0.01989777,-0.02179919,-0.023309033,-0.024413746,-0.05151791,-0.052288122,-0.051866986,-0.050404903,-0.048214816,-0.08641077,-0.07460307,-0.06248685,-0.050936744,-0.040378876,-0.04980221,-0.023286562,-0.0029870353,0.011937788,0.022444021,0.0667816,0.076608635,0.078500465,0.075878926,0.07091812,0.12125231,0.0973566,0.07637576,0.05918251,0.04522379,0.056210294,0.030737532
0.0014244489,1.1457427e-05,-0.00011755282,-0.000155308,-0.00021556258,-0.00029519942,-0.00032602166,-0.00030618155,-0.0002643264,-0.00031843557,-0.00036556827,-0.0003085617,-0.00050100905,-0.00039104855,-0.0002968228,-0.0001349936,-2.8015798e-05,4.412068e-07,-6.286931e-05,-0.00022073551,0.00013344818,9.262423e-05,8.1942075e-05,9.857901e-05,0.00013915525,0.0005154057,0.00055907696,0.0005132997,0.00038068305,0.00017481431,-0.00017221157,-0.0012535338,-0.0022792642,-0.0031611186,-0.0038797255,-0.009058442,-0.010327463,-0.010966039,-0.011223732,-0.011266176,-0.022378527,-0.021772854,-0.021109149,-0.020501832,-0.019964626,-0.038498633,-0.036933884,-0.035524394,-0.034216724,-0.03295865,-0.062436964,-0.057801917,-0.053478006,-0.049518995,-0.045911286,-0.0824461,-0.0715547,-0.062588476,-0.05508804,-0.048750743,-0.08112727,-0.06489779,-0.052294303,-0.042231154,-0.034035124,-0.047117937,-0.02909719,-0.015965896,-0.006454643,0.00042919623,0.016313793,0.024827598,0.028600002,0.029455647,0.028683089,0.05255739,0.04301027,0.034689385,0.027940366,0.02266289,0.03355123,0.024799949,0.020563578,0.018642006,0.017907863,0.033940326,0.03485466
-0.00087644596,0.00015281914,0.0002811765,0.000115300056,-7.304111e-05,2.4351015e-05,-0.00018453115,-0.00025199624,-0.00021595042,-4.519807e-05,-0.0001777164,-9.6131946e-05,-0.00034641568,-0.00022669042,-0.00019835477,-9.65493e-05,-0.00017760442,-0.00019850404,-0.0002735572,-0.0005351783,-0.000851827,-0.0012003661,-0.001372687,-0.0013687131,-0.0012123223,-0.0010207673,0.000815517,0.002939861,0.005136997,0.0072666705,0.020574924,0.026706785,0.031008856,0.03375525,0.03523558,0.07181083,0.06850451,0.062401734,0.055096734,0.047459792,0.07279524,0.046721276,0.02556612,0.008895806,-0.0040339152,-0.035839118,-0.058463804,-0.070089996,-0.07504717,-0.07601376,-0.14609732,-0.13117275,-0.114344105,-0.09817146,-0.08361523,-0.12952346,-0.09247774,-0.066177264,-0.04726385,-0.033608694,-0.037980735,-0.017751552,-0.006291924,0.00044838942,0.004400076,0.016222585,0.017640159,0.018313007,0.018292785,0.017786447,0.033451986,0.029146928,0.02559036,0.022308186,0.019338455,0.031499557,0.024249965,0.018721998,0.0148245245,0.012104468,0.018985631,0.014383028,0.011322785,0.0092776865,0.0074962745,0.011051773,0.0053275847
0.00046393689,0.00035881944,0.00023426727,0.00011984557,-4.082838e-05,-2.7656526e-05,-0.00020164272,-0.00027276448,-0.0003100082,-0.00033136428,-0.0002580282,-0.00034691417,-0.00019118098,-0.00044347107,-0.0006195905,-0.000912754,-0.0013054798,-0.0017534753,-0.0022011325,-0.0026705882,-0.005800444,-0.0069043236,-0.007654222,-0.008120456,-0.00838234,-0.01688347,-0.016759057,-0.016342124,-0.015833512,-0.015320918,-0.029439555,-0.027936505,-0.026802301,-0.025901673,-0.025146572,-0.04819323,-0.045889154,-0.04375766,-0.0416814,-0.039645743,-0.07310576,-0.065705344,-0.05886642,-0.052664276,-0.04711529,-0.079721525,-0.064487845,-0.05267829,-0.04350531,-0.036338482,-0.05643529,-0.041696228,-0.03178907,-0.024761532,-0.01959171,-0.027806953,-0.017422555,-0.010106622,-0.0045739883,-0.00028035266,0.009434331,0.017969409,0.02304337,0.02581035,0.026994308,0.054066997,0.049631152,0.043269902,0.036635537,0.030359613,0.04521809,0.028190836,0.016446773,0.008622821,0.003565999,0.00020071532,-0.0042063845,-0.004212785,-0.0028005128,-0.0010167275,0.0038130698,0.0069227773,0.007348951,0.006205899,0.004166851,0.002732003,-0.007426478
0.00078053575,-0.00013247563,0.00035105261,0.0002271146,4.8132526e-05,4.3488446e-05,-6.848485e-05,-0.00015425961,-0.00022093896,-0.00019759097,-0.00017136321,-0.00023307152,-0.00038091047,-0.00025680067,-0.00016645067,-1.3587196e-05,6.3625135e-05,0.00014884096,0.0002260168,0.00016356981,0.0007907292,0.0009135378,0.0010041436,0.00106606,0.0011013218,0.0020946714,0.0019094541,0.00170312,0.0015092216,0.0013298662,0.0023555611,0.0018978609,0.0015513329,0.0012746413,0.0010553731,0.0017589439,0.0012563261,0.0009272446,0.0007097478,0.0005685431,0.0010080002,0.0009494437,0.0010752722,0.0012762,0.0014972391,0.004044321,0.004728934,0.00528288,0.005638912,0.0058270786,0.012366446,0.011774682,0.010900817,0.009846886,0.008684285,0.014290663,0.0094619,0.0053135944,0.0017726637,-0.0012364463,-0.008942603,-0.016316868,-0.021273945,-0.024636343,-0.026881197,-0.05676918,-0.05909534,-0.059102193,-0.05786822,-0.05596099,-0.10356053,-0.093628176,-0.083738364,-0.07433445,-0.06561503,-0.105796896,-0.080558084,-0.059778128,-0.042897973,-0.029340236,-0.026859254,-0.0007678054,0.015377803,0.024663396,0.02925315,0.05920631,0.051668167
-0.00016590611,-0.0003704261,-0.00020609883,-0.0004134667,-0.00041483395,-0.0004693039,-0.0003171895,-0.00014621785,6.510315e-05,0.00024111263,0.00011052213,0.00034298684,0.00019778729,8.806073e-05,7.391242e-05,0.0005016328,0.00044552385,0.00042956095,0.00035807755,0.0002678235,0.0008004352,0.0010047012,0.0012244093,0.0013969792,0.0015147529,0.0036917087,0.0036688854,0.0034270745,0.0030929358,0.0027346527,0.0045105144,0.003575617,0.002925887,0.0025045646,0.002248085,0.0040584393,0.0041025863,0.0043297554,0.004593518,0.004851643,0.009963825,0.0108699165,0.011534259,0.012039582,0.012443025,0.025288021,0.026190333,0.026591651,0.02670545,0.026669005,0.052216314,0.050804615,0.04883345,0.046559144,0.044192847,0.080871016,0.07181869,0.063606404,0.056217115,0.049609106,0.082565695,0.06392288,0.049591314,0.03838557,0.029540557,0.04037204,0.021727193,0.009761038,0.0018096952,-0.0035375918,-0.015928596,-0.02303105,-0.025942324,-0.02669327,-0.026391491,-0.04935391,-0.044286877,-0.03937358,-0.034771662,-0.030660398,-0.049489353,-0.038898513,-0.030934464,-0.024515169,-0.019387204,-0.024334088,-0.01404337
0.05209651,-0.037290625,-0.056667805,0.0059993644,0.11853502,-0.115182094,-0.10166989,0.14783603,-0.055683333,0.1592183,-0.025380846,-0.024987126,0.042211697,-0.144237,0.09188547,-0.048465993,0.04988067,0.14001644,0.024188533,0.11647244,-0.13732079,0.023495212,0.12636168,-0.091055,-0.11369181,0.015975296,0.06487876,0.029028183,-0.01237883,0.08783372,0.05353376,0.012787981,0.11492363,0.15592884,-0.0888076,-0.14103012,-0.045803126,-0.08717466,-0.015092195,0.13766865,-0.014362326,0.11589785,0.06989891,-0.074236065,0.019177368,-0.05989038,0.008691185,0.008601222,-0.11057846,0.11958179,-0.024258643,0.14007702,-0.1284507,0.10804554,-0.13207762,0.15099932,-0.16040649,-0.10545158,-0.06534046,-0.047246058,-0.051944543,-0.06162946,-0.05622347,0.0840374,-0.15122569,-0.02868906,0.09092379,-0.0019878407,0.03266634,0.16378845,-0.14128502,-0.11161402,-0.07268079,-0.09807947,-0.13022977,-0.12626012,-0.048154075,-0.13693267,-0.08177223,0.014505245,-0.116384216,0.12781191,-0.1504698,-0.15128228,-0.14015415,0.091885574,-0.10981535
0.0026576736,0.0005884723,0.00038069978,0.00035904688,0.0003050709,0.00042270828,0.00017985191,2.5456175e-05,-6.9411675e-05,-0.00015513766,-0.0003720104,-0.00039208538,-0.00038911964,-0.00027709437,-0.00021813263,-0.0004954033,-0.0003263632,-0.00023563523,-0.00021897984,-0.00026358367,-0.0004703231,-0.00059879175,-0.00072841684,-0.0008167309,-0.0008540496,-0.0018001522,-0.0015976201,-0.0013225457,-0.0010550802,-0.0008254956,-0.001500934,-0.001004583,-0.0006806207,-0.00045873717,-0.00029917486,-7.5901426e-06,0.00029438638,0.00047001988,0.0005957532,0.0006925597,0.0015463964,0.0018060964,0.0020252266,0.0022356063,0.0024454168,0.005600341,0.006356732,0.0069940407,0.0074974727,0.007894519,0.016740788,0.017457552,0.017748477,0.017792547,0.017672159,0.03434097,0.03322631,0.032029055,0.030881632,0.029807165,0.055960994,0.052845534,0.05005587,0.04758994,0.045370106,0.08308391,0.076825336,0.07113855,0.06602299,0.06142719,0.10741951,0.095326185,0.0847063,0.07564373,0.06798674,0.11190186,0.09571522,0.082610466,0.07227116,0.064053796,0.10273379,0.08802766,0.075507775,0.06496426,0.056029245,0.082511,0.061884724
-0.021655818,0.01963702,-0.08928106,0.048300624,0.06242309,-0.12306663,-0.07126198,0.12211977,0.087401904,0.11307691,-0.115836516,0.10847296,0.063805155,-0.045200486,-0.106927514,0.038051516,0.061167963,-0.02296998,-0.00703932,-0.16165623,-0.035267584,-0.0043444,0.15420704,-0.043915488,-0.06242703,-0.018241739,-0.01889996,-0.016258871,0.008702538,-0.14751768,-0.010116311,0.09717786,0.17578216,-0.017920185,0.09387259,0.090730086,0.04901967,-0.029805312,0.14727405,0.06310356,0.0021414685,-0.057212077,-0.08181159,0.14296503,-0.07967277,0.18423505,-0.045652565,0.034110975,0.1613743,0.16340333,0.06720447,-0.091671385,0.13198684,-0.1603943,-0.14552721,0.07287098,-0.019795232,0.05024435,-0.08629232,-0.13367528,-0.0046613836,0.07355709,-0.069331124,0.04294081,-0.0728181,-0.004197468,0.019424742,0.17624292,0.037075132,0.08588485,0.15328236,-0.04871428,-0.052298542,-0.0975066,0.15527311,0.14677136,-0.118579425,-0.10258684,0.0748493,0.07349063,0.049791154,-0.099516526,-0.06613929,0.07462067,0.13261043,-0.038712244,-0.1404003
-0.0012962129,-0.00065023464,-0.00033451203,-0.0001454545,-9.155635e-05,-0.00019528797,-0.00014263584,-0.00014335537,-0.0002077795,-0.00042696527,-0.000136249,-0.00020489976,3.5214925e-06,-6.040084e-05,-0.000108516564,0.00019373577,0.000296676,0.00027921304,0.00022405751,0.00024451074,0.0010881457,0.0010710492,0.0010399232,0.0009917706,0.00094032707,0.001924061,0.0016669023,0.0013982184,0.001176194,0.0009963873,0.0019895434,0.0017811512,0.001717554,0.00176697,0.0018764545,0.0045318417,0.0049911304,0.0052981726,0.005433744,0.0054003266,0.010499667,0.008909934,0.0071083913,0.005314902,0.0036589785,0.0038067258,-0.0005797275,-0.003348008,-0.0049067945,-0.005563054,-0.011278962,-0.008848561,-0.0052535026,-0.0014496561,0.0021369471,0.0121788895,0.021018071,0.02654811,0.029533627,0.03070282,0.059855152,0.054444954,0.046793107,0.038796265,0.031198837,0.041555643,0.020859463,0.005906199,-0.00463687,-0.011932565,-0.03855916,-0.046202358,-0.047903582,-0.046778116,-0.044243973,-0.08079975,-0.06647636,-0.054693203,-0.045107305,-0.03724385,-0.058256138,-0.04002426,-0.028165728,-0.020023832,-0.014256641,-0.017400322,-0.008448553
5.865946e-06,0.00019797462,9.771325e-05,-3.9340026e-05,-7.416472e-05,-6.104869e-05,-4.367948e-05,1.5822734e-06,4.601176e-05,2.955964e-05,6.548026e-05,7.909238e-05,-0.00010556458,-0.00023502884,-0.00026863662,-1.7744911e-05,-4.4007887e-05,-6.126202e-05,-0.000112628164,-0.0002045854,-1.2548713e-05,9.355559e-05,0.00019979848,0.0002875911,0.00035555393,0.0010114366,0.0010662735,0.0010734093,0.0010681775,0.0010739476,0.0022621783,0.0024515993,0.0026852933,0.0029189137,0.0031402055,0.006581304,0.0072954944,0.007828549,0.008208732,0.008475138,0.017570624,0.017877597,0.017922932,0.017827278,0.017657192,0.034785755,0.033762343,0.032723445,0.03170177,0.030715248,0.058799878,0.05526202,0.052206907,0.049483765,0.04702353,0.08779886,0.07998259,0.073462926,0.06785381,0.06293756,0.113586105,0.099364825,0.088026896,0.07875003,0.07099166,0.123258,0.103537306,0.08874372,0.077176034,0.06789584,0.11385252,0.09239842,0.07680575,0.06493287,0.05565906,0.09028646,0.07055053,0.056607623,0.046426397,0.038787473,0.061725512,0.047300883,0.037625507,0.030946717,0.026129313,0.043619253,0.034256287
-0.01092964,0.09524417,-0.04651092,-0.12883626,0.10226363,-0.067160055,0.15723833,-0.038921855,-0.14360346,0.011520761,0.063718185,0.06965799,0.010805521,-0.053368673,0.13222477,-0.13291581,-0.11603977,-0.008287607,0.14640214,-0.05590294,-0.010854762,-0.13179241,-0.024494493,0.15660334,0.04481611,0.10062642,-0.11119859,0.076068394,0.09929222,0.06634383,0.019261481,0.1519317,-0.0119211655,-0.13015486,0.10755652,0.0036508136,-0.05767247,-0.117097676,0.08800453,0.0031943258,0.14836195,-0.12556307,-0.039207917,0.05113053,0.09232736,-0.14334764,-0.13047478,-0.057990495,-0.036864564,-0.13396911,0.096924305,0.13367538,0.021870961,0.11038352,-0.059313294,0.08077052,0.12897062,0.065339155,0.14166923,0.013383885,0.07391175,0.12348789,0.13033313,-0.1248045,0.1631403,0.08020733,-0.044590082,-0.0059270076,-0.107701816,0.14017503,-0.012784202,-0.0024802561,-0.038566075,-0.06876625,0.033698052,-0.070467785,-0.15216012,0.04529881,-0.02865568,0.026459225,0.07351294,-0.12016699,-0.14608604,-0.15120205,-0.10777322,-0.12209512,0.12557016
0.1507168,0.069026105,-0.024632327,0.1533209,0.10729939,-0.0700709,0.0485595,0.045219615,-0.11142734,-0.02531801,0.014276982,-0.1469235,0.007395124,-0.0029853147,-0.073490135,-0.1617417,0.010753882,0.008480522,0.16007029,-0.064804725,0.0954634,-0.11003532,0.006554789,-0.039741334,-0.11144052,-0.13680829,0.08247163,0.030839732,-0.0008006676,-0.035133053,-0.14315891,0.14614372,0.0031605768,-0.11196232,-0.063996114,0.16663752,0.13725199,0.10429044,0.16806512,-0.16546658,0.11169689,0.00034634728,-0.06424026,0.037773743,0.016871786,-0.11703052,0.04683494,0.024733068,0.0490854,0.020470295,0.047881313,0.05821041,0.14688526,0.041528203,0.04948843,-0.056646697,-0.10953274,0.018397367,-0.008810263,-0.16185255,-0.14088394,-0.09487545,-0.10180122,-0.14345981,0.05568004,-0.024046114,0.026834404,0.10388918,0.011730686,0.065502405,-0.13359256,0.094164684,0.058805957,0.15106027,-0.04020233,0.16642958,-0.121611916,-0.08558786,-0.1119478,-0.09379607,0.05549622,0.15579832,0.07279508,-0.12537928,-0.10702328,-0.094054595,0.11119833
0.03431869,0.13040765,0.13084412,0.10003156,-0.050044805,-0.08527391,-0.084306344,-0.121531464,0.0643667,-0.09139989,0.11438351,0.12356223,0.09727239,-0.06597272,0.034777984,-0.09618536,-0.054893836,0.10783747,0.050372485,-0.078949414,0.044591263,0.110835165,-0.1413502,-0.14484517,-0.04293986,-0.12140645,0.08261623,0.09557426,0.113898315,0.1420933,0.13177569,0.010453788,0.04909888,-0.007849126,-0.11708199,-0.1211741,-0.025501769,-0.11090025,0.13092472,-0.1381179,0.061657455,0.012801449,0.099278085,-0.044689536,-0.13156065,-0.0595021,0.05948439,-0.1405613,-0.12740336,0.079987556,0.015949365,-0.1826474,-0.13862574,0.052091308,-0.12993355,0.087938,0.059958972,-0.15277928,0.08228744,-0.15117347,-0.07405414,0.11398189,-0.056196794,-0.018813364,0.1311615,0.07146209,0.054938655,0.058264613,-0.09140556,-0.08686735,0.1300742,-0.039539192,-0.124896556,-0.005744103,-0.10986229,0.12649664,-0.12728785,-0.016625093,-0.057442345,-0.048059534,0.08115922,0.03979919,0.054327644,0.05831364,0.08475799,0.14425132,0.023630949
-0.00024717074,0.00013251249,-0.00014092913,-0.00016147364,-0.00016331309,-0.00015283306,-0.00026010888,-0.00032014598,-0.00033606568,-0.0002928963,-0.00046133084,-0.00049198326,-0.00047628125,-0.00041550264,-0.00042943304,-0.0010309478,-0.0010055691,-0.00090921024,-0.00078767503,-0.00070954673,-0.00084618246,-0.0005874191,-0.0003987348,-0.0002627958,-0.00016597475,-6.488936e-05,7.354401e-05,0.00014067435,0.00015073447,0.00011840929,-0.00028894696,-0.0005952046,-0.0008839202,-0.0011310122,-0.0013271907,-0.0030576768,-0.0033564155,-0.003535682,-0.0036492168,-0.0037251003,-0.007873655,-0.007875826,-0.007910646,-0.007927506,-0.007912183,-0.015839148,-0.015230095,-0.0145836705,-0.0138676595,-0.013080339,-0.023592606,-0.020164508,-0.01706159,-0.0142372735,-0.011673393,-0.016819222,-0.009162459,-0.0030429983,0.001931631,0.0060136807,0.020856556,0.03030649,0.036704134,0.04106037,0.04395552,0.09118689,0.093697146,0.09307614,0.09070386,0.087409735,0.1603622,0.14567068,0.13155824,0.11863324,0.10713478,0.18042195,0.15124443,0.1283632,0.110174045,0.09570404,0.15404029,0.12480536,0.10358157,0.08749991,0.075059496,0.11880143,0.09270753
-0.0006111604,8.341081e-05,0.0001046643,-1.9091709e-05,-0.00025890744,-0.00015892106,-0.00036465315,-0.00041117414,-0.00041604505,-0.00040406268,-0.0004594854,-0.00044706246,-0.00020636026,6.796436e-05,4.2066553e-05,-0.00045154133,-0.00041109114,-0.00036922225,-0.00036927886,-0.00041320492,8.271131e-05,0.0001948128,0.00022374408,0.0001965994,0.00013218768,-1.9083956e-05,-0.00026384048,-0.00045155044,-0.00058288616,-0.0006661853,-0.0016072106,-0.0016442213,-0.0015706713,-0.0014657732,-0.0013630459,-0.0026979337,-0.0024169143,-0.0022100504,-0.0020724388,-0.0019813853,-0.003986448,-0.003722373,-0.0035810685,-0.003521695,-0.0034961235,-0.0065945834,-0.0064123413,-0.006281322,-0.0062487754,-0.006217918,-0.012548566,-0.01236003,-0.012107295,-0.011838209,-0.011586151,-0.023093667,-0.022154117,-0.021339178,-0.020516822,-0.019730758,-0.037516367,-0.034608297,-0.032020133,-0.029756313,-0.027809132,-0.05057786,-0.045326956,-0.040784486,-0.036927138,-0.033525266,-0.05730968,-0.047019772,-0.0375527,-0.029119926,-0.021675162,-0.022624755,-0.004000833,0.010211078,0.020613134,0.028127348,0.07490421,0.08393295,0.08836138,0.090470076,0.09146714,0.18928926,0.18733948
-1.923088e-05,-9.565821e-05,-0.00024516202,-0.00024224707,-0.00018921097,-0.00023906167,-0.00025575233,-0.00030214648,-0.0003252859,-0.00037111618,-0.00059207354,-0.0005348166,-0.0005805123,-0.0004043252,-0.0003198051,-0.00056216685,-0.00039861473,-0.00030946007,-0.00027940574,-0.00028538588,-6.8636364e-05,4.049387e-05,0.00010662842,0.00015067714,0.00018701356,0.00059909053,0.0005815197,0.0005210529,0.00044216219,0.00036436223,0.00081978325,0.00066091213,0.00057229504,0.000544863,0.0005652406,0.0013335249,0.0015433725,0.0016999156,0.001766568,0.0017475792,0.0030322392,0.0024291228,0.0016435024,0.0008196146,3.9549916e-05,-0.0018265747,-0.0037688017,-0.005102881,-0.005982927,-0.0065238727,-0.013722266,-0.013600418,-0.013054986,-0.012412263,-0.011787419,-0.02246113,-0.020945147,-0.020149903,-0.019788526,-0.0196729,-0.04011015,-0.039808474,-0.039271187,-0.03820378,-0.036683857,-0.06861434,-0.058833446,-0.048876602,-0.03930511,-0.030458832,-0.03890266,-0.013594851,0.0047038253,0.017692078,0.026590418,0.06751615,0.07562759,0.07430187,0.068337694,0.060100228,0.09038625,0.056210812,0.027093044,0.0035851425,-0.014887432,-0.07402214,-0.10381455
-0.001768071,-0.00060381077,-0.00052871107,-0.00036369156,-0.00017317492,-9.959142e-05,-2.9700328e-05,-6.7379486e-05,-0.00014032742,-0.0002054534,3.1229938e-05,-0.00011847183,0.00026544573,4.8702314e-05,-0.00010896215,-3.7703794e-05,-5.277236e-05,-2.6168593e-05,5.4267686e-05,0.0001838056,0.00063550903,0.0006591853,0.0006030294,0.000504105,0.00038360595,0.00079400634,0.00030729748,-5.1115825e-05,-0.00029467465,-0.00044056983,-0.0008376653,-0.00072956906,-0.0005067821,-0.00025681834,-2.4655576e-05,0.0002911329,0.0007927328,0.0010970164,0.0012776362,0.0013845392,0.0031380556,0.003171323,0.0032035566,0.0032375036,0.0032661394,0.0069426578,0.0067032464,0.0065529374,0.006415497,0.006235185,0.012698203,0.01186319,0.011388148,0.011099321,0.0108953575,0.02176176,0.020961026,0.020341218,0.01969788,0.018989375,0.035458717,0.03200633,0.028658284,0.025542751,0.022687912,0.03750638,0.029448658,0.02333953,0.018730663,0.015193782,0.021637207,0.014922476,0.010313344,0.0067366175,0.003692092,-0.001480929,-0.009766143,-0.017282419,-0.023785152,-0.029173782,-0.07054326,-0.07964485,-0.08376736,-0.084173925,-0.08208357,-0.15049034,-0.13246219
-0.00022416572,-0.0006109398,-0.00055203313,-0.00057902717,-0.0007062018,-0.0006748609,-0.0006717853,-0.0004898531,-0.00026505662,-7.6488344e-05,-0.0003188884,-1.573829e-05,-0.0002416812,-0.0002621921,-0.00021853912,0.00038946618,0.00057102524,0.0007387032,0.0007503888,0.00061535137,0.0022452888,0.0023980823,0.002494553,0.0025134294,0.0024626753,0.0047081374,0.0036745544,0.0024114754,0.0010378687,-0.000380056,-0.0048318855,-0.00974834,-0.013703593,-0.016737597,-0.018965961,-0.041864693,-0.044295866,-0.044245575,-0.042778715,-0.04055139,-0.07362215,-0.06290113,-0.053204827,-0.04488689,-0.037897352,-0.059324443,-0.043034673,-0.031914026,-0.024159748,-0.018618405,-0.025890801,-0.016931912,-0.011879081,-0.0088220835,-0.006878843,-0.010336641,-0.0073678214,-0.005393989,-0.0039799926,-0.0028700125,-0.003243782,-0.00066330563,0.0010079374,0.001940481,0.0024108577,0.0051852823,0.0047199763,0.003940926,0.0031212957,0.0024421734,0.0041436385,0.0029549776,0.0026389686,0.0026095684,0.0027130689,0.005986852,0.006035581,0.0056701386,0.004825986,0.003929176,0.005607289,0.0030596699,0.0009438443,-0.00029689225,-0.0007554573,-0.00037558857,0.0010665853
0.00089632376,0.000824402,0.0005960829,0.00056298653,0.0003351639,0.0006256338,0.00021937533,-2.0002757e-05,-0.00015799818,-9.8606164e-05,1.6905877e-05,-3.5283658e-05,0.00036828636,0.000498965,0.0005679467,0.0015154275,0.0020156212,0.0024263186,0.0027207658,0.0027939095,0.005857055,0.0054170988,0.004835538,0.0042735273,0.0037885092,0.006308996,0.0053846673,0.0048716953,0.0046470836,0.0046029575,0.0094075035,0.010116904,0.010983744,0.01184992,0.012657149,0.02712515,0.029406931,0.031019349,0.032103118,0.032769322,0.06633138,0.06589231,0.06446029,0.0624612,0.06015275,0.11297393,0.10298069,0.09375451,0.085383385,0.07785062,0.13548838,0.11381695,0.09639787,0.08219236,0.070494995,0.11211662,0.084961876,0.064981185,0.04994091,0.03847894,0.05059755,0.029579626,0.015709098,0.00648973,0.00030230262,-0.012619994,-0.019067403,-0.022169713,-0.023250626,-0.023175618,-0.046436597,-0.040665552,-0.035701454,-0.03121716,-0.027243162,-0.04647044,-0.035075847,-0.02693773,-0.020909866,-0.01637007,-0.023744978,-0.014951803,-0.009520976,-0.006123602,-0.0038420712,-0.0041195145,-0.0022255315
-0.00047467856,0.0006443104,0.00043754914,0.00015021685,3.878193e-05,0.0002415249,0.00015477001,0.00014541445,0.00017597363,0.00020796641,0.00017524986,0.00021785508,-0.00017911546,-0.00031297078,-0.000344956,9.010693e-05,4.096926e-05,-3.3326956e-05,-0.00022592022,-0.00055376446,-0.00078819104,-0.0009986033,-0.0011061279,-0.0011239453,-0.0010873158,-0.0016844501,-0.0013065625,-0.0010384168,-0.0009139819,-0.0009303902,-0.0021476892,-0.0033225475,-0.004943566,-0.0067210863,-0.008463822,-0.021339303,-0.026101358,-0.029161166,-0.030726282,-0.03113618,-0.06051809,-0.055076603,-0.048038382,-0.040684983,-0.033668205,-0.04896174,-0.029507816,-0.015170143,-0.00486179,0.0024380267,0.018868176,0.028206855,0.03159827,0.03191209,0.03063772,0.054995775,0.045343935,0.03661182,0.029309608,0.02334917,0.033209715,0.020650415,0.012476996,0.0069843777,0.0032138778,-0.0014343241,-0.006192696,-0.008636361,-0.009682617,-0.009847169,-0.019351449,-0.015667088,-0.012186481,-0.008887237,-0.0059371986,-0.0063066115,0.0009854172,0.0051162406,0.0073440373,0.0083812475,0.015928753,0.014989069,0.012427994,0.009761806,0.0073955334,0.008465464,0.0026332373
-0.00023099195,6.39293e-05,-0.00057221414,-0.00053196744,-0.0003432401,-0.00030546688,-8.718806e-05,-8.527772e-06,7.5326505e-05,0.00011329215,-4.5570123e-05,2.4102323e-05,-3.7640402e-05,-0.00028704447,-0.000371374,-0.00028711217,-0.00034175135,-0.0003868294,-0.0004550046,-0.0004848893,-0.0010152662,-0.0010824435,-0.0010627292,-0.0010086489,-0.00094471127,-0.0013727989,-0.001125733,-0.00089855795,-0.0007240288,-0.00058942265,-0.00076497573,-0.00057471264,-0.00047059922,-0.00040432066,-0.00036789948,-0.00046555026,-0.0005627512,-0.00066133577,-0.0007549697,-0.00084021746,-0.002059713,-0.0022485275,-0.0023402623,-0.0023920496,-0.0024298208,-0.0049896515,-0.00502944,-0.0050595924,-0.005083189,-0.00511079,-0.010376646,-0.010182309,-0.010025373,-0.00980604,-0.00953874,-0.018410886,-0.01724778,-0.016224353,-0.015319294,-0.014527659,-0.027003754,-0.02501403,-0.023401424,-0.021976933,-0.02069609,-0.037759755,-0.033622693,-0.029770125,-0.026133403,-0.022769902,-0.03590158,-0.02599826,-0.017444938,-0.010219846,-0.004158897,0.007837503,0.021662753,0.032297317,0.040341243,0.04631789,0.10550278,0.11191152,0.11357384,0.11165557,0.107204966,0.19256498,0.1630394
0.12877521,-0.0153498305,0.09469822,0.044449974,0.15561539,-0.02661068,0.13386002,-0.15563366,-0.11927037,-0.012283339,-0.0953645,-0.14375998,-0.02236013,0.049135994,-0.12131709,-0.0976191,-0.14423725,-0.16413252,0.007593481,0.15948749,0.112802364,0.10104465,0.043883987,0.013766944,-0.1057545,-0.13078646,-0.06988241,-0.15459986,0.16340515,0.017127432,-0.07716251,0.1611474,-0.04706252,-0.083053775,0.01838847,-0.13257904,-0.12726732,0.04146353,-0.085518435,0.10328821,0.033549313,-0.15273625,0.0642568,0.087788425,0.06925874,-0.10247161,-0.064278275,0.08583127,0.0958309,0.03587177,-0.11516073,-0.08215819,0.0948426,-0.0033120085,-0.07547625,-0.021118095,0.16252325,-0.10377853,-0.13270843,-0.09589014,-0.013094847,-0.015086759,-0.11792945,-0.12682326,-0.032766074,-0.005747172,-0.0946404,0.12685001,-0.059196554,-0.121064946,-0.036616266,0.10008836,0.12662785,0.10932844,-0.03863649,0.166486,-0.022944788,0.08173603,-0.13038366,0.022798156,0.04508932,0.010232485,-0.03976763,0.087613925,0.03860853,0.12617302,0.06965782
0.00076582446,-3.265377e-06,-4.0036743e-05,-9.9299796e-05,-0.00013792713,-0.00017236966,-0.00028474137,-0.00033152674,-0.0003870778,-0.0005070936,-0.0004332533,-0.0005296908,-9.187063e-05,-0.000286982,-0.00050029985,-0.00095441315,-0.0010121397,-0.0010858619,-0.001137905,-0.0010663447,-0.0013609863,-0.0013010646,-0.0011929843,-0.0010742118,-0.0009594684,-0.0009170103,-0.0007256688,-0.00061001716,-0.00052976125,-0.0004794232,-0.00082714827,-0.0007589861,-0.0007093484,-0.00064628094,-0.0005565888,-0.0005519946,8.609974e-05,0.00063803024,0.0010792983,0.0014067076,0.0034595001,0.0037755575,0.003721063,0.0034711482,0.003132881,0.0053707655,0.003994238,0.0029214318,0.0021590171,0.0016059211,0.002605919,0.0019383898,0.0018201366,0.002017731,0.002368142,0.006401945,0.007765245,0.009123469,0.010257009,0.011184718,0.024830982,0.026317544,0.027450241,0.028261775,0.028842011,0.058665227,0.058757216,0.058525216,0.057837803,0.056768492,0.10855644,0.101870775,0.09476375,0.0876022,0.08066495,0.14021376,0.11901512,0.10072339,0.08541487,0.07269771,0.111669004,0.0838467,0.06323131,0.048119076,0.03696325,0.047541246,0.031747177
9.653997e-05,-3.42935e-05,4.0396735e-06,0.00010876081,2.6984773e-05,0.00015637187,-1.0031978e-05,-0.00011962173,-0.00013612861,5.7162033e-05,-0.0001338298,-1.0772172e-05,-0.000102706006,7.71223e-05,0.00021153735,0.00029211622,0.00027795247,0.0002717087,0.00026269234,7.79734e-05,-2.6464542e-05,-0.00031079495,-0.0005208719,-0.0006451551,-0.0007053433,-0.001872943,-0.001566305,-0.001134129,-0.00065339124,-0.0001524247,0.0012654244,0.0030063575,0.0044332175,0.005585602,0.0065096323,0.015100277,0.016988171,0.01820945,0.019032344,0.019585585,0.04072258,0.041056495,0.040767886,0.04004771,0.039004643,0.074852884,0.06867417,0.062476985,0.05653144,0.050937895,0.087260604,0.07019272,0.056673083,0.045919344,0.037320822,0.055190608,0.036944285,0.024745274,0.016382353,0.010525112,0.009348198,0.0008333209,-0.0040450855,-0.0068949005,-0.008607872,-0.020458112,-0.02150251,-0.021897774,-0.021674288,-0.021106983,-0.03950158,-0.035266288,-0.03114512,-0.027158333,-0.023481494,-0.036598843,-0.026631068,-0.018991014,-0.0131674595,-0.008769405,-0.007447239,-0.00012385868,0.004050735,0.006514965,0.0077996477,0.0173223,0.016819699
-0.10476348,0.12842754,-0.11179604,0.062097587,0.13387701,-0.08603579,0.018162716,-0.1213304,-0.025675237,0.12273796,0.16035217,-0.089789204,-0.004318683,0.03968635,0.07223043,-0.10489568,0.045565452,-0.06978719,-0.012572828,-0.001670892,-0.15894282,0.082134545,-0.05513725,0.15381508,-0.07221575,-0.05711768,0.09845223,-0.14729646,0.13607053,0.1400485,-0.050044846,-0.11396492,-0.14719202,-0.12582715,-0.048062947,-0.11693161,0.020433525,-0.07662706,0.14591774,0.040659536,-0.064331494,0.13901655,-0.07310385,0.16272408,0.14352827,-0.02535175,-0.035667416,0.00049446675,0.07757916,-0.09937961,-0.16265403,0.09006992,-0.14891948,0.029439226,-0.0016425753,-0.082376465,0.014539862,0.09107421,-0.042658404,-0.10638685,-0.051103182,0.039449394,0.1366048,-0.16172674,-0.03764925,0.05707209,-0.13661239,0.14682658,-0.058587387,0.026539661,-2.5663085e-05,-0.12070403,-0.072959416,0.0390175,-0.032083977,0.13182724,-0.1360578,-0.1623913,-0.09735825,-0.08550959,-0.11783493,0.112141445,0.08108702,-0.12659433,-0.122365884,0.05824529,-0.13703537
0.020774439,-0.082901545,0.011814276,0.0010850537,0.088873796,-0.01708309,0.14976485,-0.15577053,0.11614987,0.038922325,-0.030548982,-0.004613843,0.10301467,0.0039943648,-0.1671596,0.12084206,-0.05879148,0.11101668,-0.021614753,-0.10311891,0.14305638,0.14005543,-0.08044772,0.033683114,0.07194235,0.07980661,-0.16362053,-0.12858512,-0.08905524,-0.12253633,0.08573135,-0.059626378,0.1468772,-0.14626846,0.1517936,-0.035028793,0.0458608,0.12941208,-0.10882962,-0.026515396,0.06151594,0.15102404,0.12682773,0.021485886,0.06552399,-0.0272533,0.11137345,0.06443537,-0.04124704,-0.02493832,0.090208836,-0.13169117,-0.0049859695,-0.12665649,-0.13922007,-0.14141424,-0.10430069,-0.054944415,-0.081930175,0.10030514,-0.090434425,0.03973635,0.11720826,0.13886803,-0.08463826,-0.12175438,0.16908528,-0.15054901,0.094152175,0.03307653,-0.012673316,0.0018994987,-0.0018969055,-0.08896123,0.04918727,-0.12392395,0.007953297,0.12978876,-0.04246967,0.08625953,0.056575447,-0.09507442,-0.12291121,0.015844755,-0.09170198,0.10877053,0.18240269
0.17137086,-0.117856085,-0.085545234,-0.0656454,-0.052664705,-0.080495104,-0.059126932,-0.045778967,-0.03680317,-0.03033967,-0.04684389,-0.035150018,-0.027846782,-0.022202076,-0.018186681,-0.028629534,-0.021818545,-0.017564997,-0.014604722,-0.012522466,-0.019760624,-0.015596203,-0.012660879,-0.01049439,-0.008835743,-0.014121477,-0.011075721,-0.009270452,-0.008103985,-0.0072805877,-0.011861116,-0.009754915,-0.007904558,-0.0062467977,-0.0048050927,-0.006649563,-0.0033785675,-0.0013124443,-0.00013969076,0.00045205973,0.0012183725,0.00092849205,0.00025957378,-0.00036316444,-0.0008193269,-0.002418036,-0.0027638988,-0.0026920466,-0.002451457,-0.002172447,-0.0036560115,-0.0030140725,-0.0025193046,-0.002204294,-0.0019906773,-0.0033606454,-0.00310657,-0.0027140263,-0.0023314455,-0.0020324658,-0.0029281175,-0.0030261835,-0.003031825,-0.002967819,-0.0029475377,-0.005250917,-0.0055252565,-0.0051788,-0.0046320353,-0.00408867,-0.0058647697,-0.0046193562,-0.0034693142,-0.002592105,-0.002051579,-0.0025321643,-0.0017250768,-0.001304459,-0.00094056193,-0.0008004095,-0.0009901614,-9.5795884e-05,0.00034323143,0.0006697812,0.00073412736,0.00060382317,-0.00033750368
0.00041794142,-0.0003826737,-0.00013119707,-5.6306322e-05,1.0676376e-06,0.00025188332,0.00018523242,0.000104198756,9.897207e-05,0.0001469904,-2.8584764e-06,2.4826848e-05,-0.0003165263,-0.0002851958,-0.00021095033,-0.00021538688,-0.00021873554,-0.00016165544,-0.00013300971,-0.00021837345,-0.00030116068,-0.0002129101,-0.00017160569,-0.0001546927,-0.00014958238,-0.00013933596,-7.724695e-05,-5.1416064e-05,-5.418365e-05,-7.241664e-05,-0.00039811642,-0.0005244484,-0.0006321523,-0.00069647125,-0.00071324484,-0.001091797,-0.0008006799,-0.000479521,-0.00018267882,6.683674e-05,0.00090102945,0.0012589156,0.0013416448,0.001285949,0.0011578298,0.0020657892,0.0013983868,0.00082005886,0.00033720635,-2.3959888e-05,-0.00023307305,-0.0007957275,-0.0011233744,-0.0013311756,-0.001459703,-0.0029087455,-0.003276516,-0.003655052,-0.003983121,-0.004315951,-0.009590814,-0.010975163,-0.0121678775,-0.013206344,-0.014128425,-0.030766036,-0.033473343,-0.0353828,-0.036851346,-0.03795308,-0.07834469,-0.07936554,-0.078881435,-0.07736717,-0.075048774,-0.1401043,-0.1258705,-0.110961236,-0.096344836,-0.082440615,-0.12512161,-0.08566912,-0.054653827,-0.030767044,-0.01275477,0.012163938,0.038764417
0.004049064,-0.08807077,0.11347861,0.05619453,-0.03441895,-0.11789694,-0.012510634,-0.06450397,0.09176768,-0.12393321,-0.07106285,-0.10520552,-0.06912642,-0.096024364,-0.016930059,0.06726898,0.055164594,-0.14515918,0.03526235,-0.051402885,0.02627793,0.073654175,-0.091878556,-0.09297076,0.12364673,-0.11950895,-0.0020825968,-0.08648873,0.09218841,-0.0791852,-0.05366777,-0.03969702,0.10515644,0.010515145,-0.07117742,0.14262053,-0.113995805,0.00030165713,0.060014974,-0.18526062,-0.09309181,-0.07515935,0.042802144,-0.08959673,-0.053368133,0.14435706,-0.018745895,0.16688907,-0.056127217,0.10413706,0.18448606,-0.13601488,-0.14226915,0.08353923,0.12952602,0.07552901,0.1444981,-0.056176543,-0.02086969,0.07914043,0.043227196,-0.08680463,0.08300902,0.06837792,-0.13080965,0.103517964,0.041421838,-0.011038724,0.058777288,0.10467293,-0.1217349,0.16461922,-0.07086067,-0.105737425,-0.10971429,0.13633147,-0.10727642,0.08601944,-0.02450664,-0.07950361,0.0048183296,0.0960868,0.010324484,-0.13392492,0.08822273,0.12108115,-0.017033447
0.001084207,0.0002136064,0.00013123504,-9.685419e-05,-0.00010685547,-6.794402e-05,9.513655e-05,0.00016839456,0.00021386605,0.0002821198,0.0004607323,0.00043641016,0.00047715148,0.00046686706,0.0004516104,0.00067184085,0.0005651435,0.00046792312,0.00039009523,0.00030688042,0.00043390418,0.0003067115,0.0002443436,0.00021654989,0.00020499935,0.00028053945,0.00025010237,0.00018927062,9.4642055e-05,-9.94101e-06,-0.0005023971,-0.00084022834,-0.0011216508,-0.0013482694,-0.0015240173,-0.0034350068,-0.0037510747,-0.0039081792,-0.0039406954,-0.0038865001,-0.0073113935,-0.0066434825,-0.0059299,-0.0052311737,-0.0045916014,-0.007184807,-0.005576702,-0.0043834797,-0.003505606,-0.0028672114,-0.0036851317,-0.0026619048,-0.0018768548,-0.0012108791,-0.0006266057,0.0010609302,0.0025117851,0.0039406437,0.0052041337,0.006262204,0.015805697,0.017604522,0.01867415,0.019237813,0.019399932,0.039607234,0.037793506,0.035896655,0.034236558,0.032754462,0.0633763,0.058668934,0.055304516,0.052754648,0.050599232,0.09738167,0.089651406,0.08313325,0.07728625,0.071892105,0.13147166,0.11352027,0.098977335,0.08710139,0.07728051,0.13367061,0.10923573
-0.04000832,0.06053262,-0.15261996,-0.08956839,0.09386463,0.10082863,-0.13578832,0.09079446,0.039128277,0.13818572,0.030152956,-0.09153304,-0.078554735,-0.085930884,-0.15863794,0.04338074,0.030878834,-0.1103171,-0.06448411,-0.036076542,-0.14490873,0.07290873,-0.13257904,-0.007844014,-0.079136066,0.05569484,0.1539113,-0.09466949,-0.021808965,-0.0071980148,0.011181717,0.029904447,-0.11603418,-0.12332636,-0.098207794,-0.12925065,-0.13046464,0.11019131,-0.15390901,-0.13683353,-0.042795308,-0.067383334,-0.017672108,-0.13812216,-0.008389179,-0.14890854,0.0065862047,0.0588389,-0.0032921766,-0.11630936,-0.013127304,-0.05408246,-0.07406621,0.024875637,0.065908365,0.005621043,-0.15571791,0.11373121,-0.0016330427,0.09392423,-0.115126796,-0.115393266,0.16221744,0.029246833,-0.028676007,0.05069732,-0.04719849,0.06288436,-0.08090219,-0.08717634,0.1571036,0.13296174,-0.066693135,-0.035140894,-0.09520083,0.06622618,-0.11887702,0.047461122,0.09569383,-0.16489808,0.16682218,0.081580386,0.06309004,-0.11272715,-0.12705293,-0.026990836,-0.06976422
0.03157429,0.066855595,0.13331182,0.06938275,-0.15706503,0.11312237,0.08422846,-0.019311987,0.14771555,-0.1007154,-0.10769271,0.08051529,-0.02960573,-0.06818062,-0.11709647,0.020094484,0.06796155,-0.012122783,0.0611883,-0.008278627,0.088185206,0.055583194,-0.08402698,0.11055403,0.09799265,-0.02964649,-0.13082904,0.1502516,-0.044962388,-0.0921071,0.1462756,-0.15228122,-0.08992739,-0.0048538144,0.06386423,0.09442003,-0.07618817,0.043820508,0.108291976,0.021316893,0.090138756,-0.01983981,0.1547652,-0.15310588,-0.101396605,-0.16203153,-0.12768134,0.05406151,-0.14865476,0.019410545,-0.12779467,-0.047723282,0.083625525,-0.10158438,-0.12922724,-0.025875304,-0.0759578,0.025774105,-0.038654573,0.105726555,-0.091102794,0.15413712,-0.11154383,-0.049805973,-0.008743693,-0.16253036,-0.099470705,0.09826398,0.025637042,-0.0733977,-0.07817302,-0.14493608,-0.14271973,-0.06831518,0.008867494,0.15737435,0.029648641,0.09446618,-0.0079276115,-0.10298619,-0.10971164,-0.055799823,-0.08844554,-0.0641509,-0.13855436,0.044914518,-0.16221622
9.896305e-05,-4.200307e-05,-0.00015945648,-4.494125e-05,6.325632e-05,0.00025073148,0.00022788462,0.00014016242,4.799451e-05,6.48517e-05,0.0001690235,6.753774e-05,0.00027643598,0.00027005217,0.0002544743,0.00021331607,0.00021286773,0.00027051516,0.00037986215,0.0004961303,0.00081849063,0.00075850834,0.0006971073,0.00064470794,0.00060181867,0.00107858,0.0010271971,0.001015232,0.0010333324,0.0010745735,0.0024894492,0.0027168603,0.0028768724,0.0029732566,0.003019836,0.006244238,0.0060124826,0.0056691845,0.0053121136,0.004972472,0.009230929,0.008146865,0.0072035175,0.0063919784,0.005677784,0.009950578,0.007827848,0.006167847,0.0048590945,0.0037472185,0.0050307726,0.0021694975,-2.5278172e-05,-0.0017293153,-0.003127317,-0.0096257785,-0.0131829735,-0.016037298,-0.018349519,-0.0202534,-0.04546222,-0.04945459,-0.052108627,-0.053559456,-0.05412103,-0.10759358,-0.10313487,-0.096936256,-0.08983822,-0.08248347,-0.14226636,-0.11609403,-0.09361569,-0.07487713,-0.059513386,-0.08167201,-0.049781576,-0.028661573,-0.014884162,-0.0059737586,0.003749755,0.010564532,0.011788473,0.01058513,0.008435804,0.0084123,0.00014323831
0.00031064413,0.00028709727,0.00025198798,0.00026373367,2.020545e-05,0.000110228066,-0.00018069355,-0.0003029306,-0.00035048317,-0.0003074737,-0.0004355912,-0.00041150744,-0.0005339689,-0.000720934,-0.0008236418,-0.0007461691,-0.0008096658,-0.000823055,-0.00085210777,-0.0009985099,-0.0013691203,-0.0015285267,-0.0016575793,-0.0017474004,-0.0018054089,-0.0035413804,-0.0036166986,-0.0034954855,-0.00325807,-0.002954225,-0.004804695,-0.0034430358,-0.0022413179,-0.0012390551,-0.0004452666,0.0014052935,0.002520475,0.0028091734,0.0026149682,0.002162039,0.0024802089,0.00026964245,-0.0014201859,-0.002479292,-0.0029665479,-0.0053342204,-0.003268724,-4.359225e-05,0.0034654364,0.006871951,0.023166005,0.031411596,0.036214914,0.038187485,0.038028985,0.06993688,0.0563595,0.040782038,0.025543205,0.011693862,-0.011649747,-0.044490207,-0.064871065,-0.07603742,-0.08077627,-0.16187626,-0.14396633,-0.12049543,-0.09698331,-0.07560516,-0.10118153,-0.04689763,-0.013381944,0.006948799,0.01878146,0.051203266,0.055756837,0.04952093,0.041056447,0.032824166,0.044593196,0.025212664,0.015004126,0.009776922,0.0073890407,0.012249362,0.013212447
-0.0006763198,0.0006758948,0.00032826036,0.000110790774,6.4868436e-05,0.0002733331,0.0002124959,0.00012432993,0.00010450093,0.00022696547,0.0002603967,0.00026348166,-0.0004103814,-0.00025823526,-6.963013e-05,0.0005006704,0.0005095372,0.00057866646,0.0006124612,0.00040935888,0.0010177386,0.0010748437,0.0010956313,0.001098699,0.0010922271,0.0016215546,0.0015337185,0.0014292628,0.0012932848,0.0011380462,0.0015639621,0.0009832243,0.0005090367,0.00013163149,-0.00015824476,-0.0006473353,-0.0011269015,-0.0013210622,-0.0013537097,-0.0013032515,-0.0024473742,-0.001967806,-0.0015408782,-0.0011946996,-0.000926753,-0.0008167166,-0.00046851306,-0.00033143203,-0.00031046022,-0.0003007163,0.0003203875,0.000117350966,-2.7173755e-05,-0.000115978575,-0.00017879573,7.137224e-05,-0.00019733398,-0.00032440072,-0.00043919648,-0.00056610804,-0.00078189094,-0.0017506077,-0.0025519372,-0.0033057583,-0.0039768443,-0.0088845715,-0.01133386,-0.012938564,-0.014010158,-0.014737472,-0.03064065,-0.031751588,-0.032032017,-0.032028586,-0.03190845,-0.0636139,-0.062528886,-0.061466575,-0.060246002,-0.058781933,-0.11003817,-0.10142318,-0.09168277,-0.08121639,-0.07053664,-0.10445976,-0.06950042
0.12323798,-0.121337265,-0.091157146,0.09503772,-0.026892234,-0.03922892,-0.1483862,-0.13434014,0.029321717,0.028381867,-0.0260849,-0.086231425,-0.075242974,0.15399794,-0.1431791,0.04762245,-0.04904507,-0.09472669,-0.065711945,0.09202602,0.09442677,-0.07396596,-0.046111874,0.1478286,-0.10594387,0.0076770904,0.07580761,-0.039188415,0.0524212,-0.12259562,0.10285291,0.1630943,0.10665482,0.16791981,-0.082919635,-0.13256311,0.15459457,-0.113886245,-0.15055849,0.05688333,0.00095488684,0.027737409,-0.010505809,0.060782127,-0.10558889,-0.062045068,0.12931576,-0.053318433,-0.07503005,-0.078949556,0.14770718,0.12845685,-0.028104806,0.0077247266,-0.02044463,-0.09144747,0.09193159,-0.09127348,-0.07029477,0.07429101,0.044523038,-0.012782944,-0.037428644,-0.034103733,-0.07149159,0.152554,-0.07274572,0.14953247,-0.009890607,0.11141198,-0.027582956,0.046516694,0.1603662,-0.0650845,0.051386416,0.06562063,-0.009573925,-0.053086,-0.032335103,0.085618645,-0.13123024,-0.14547504,0.150343,0.04705025,0.13539533,0.13664338,0.02988562
-0.080493785,-0.04983899,0.1453631,0.11313186,-0.17198995,-0.031333946,0.026632432,0.10550344,-0.0274692,0.1480401,0.14796634,-0.11183505,0.13538356,0.07902638,0.058907304,-0.072183535,-0.11941592,0.09316139,0.072190806,-0.01652674,-0.120611064,0.015544552,-0.10901187,-0.14874671,0.0382736,0.11568039,0.14870124,-0.10673343,-0.14952645,0.045057222,0.0018849724,-0.13078241,0.049658027,-0.035280935,-0.048759714,0.012542877,-0.073622726,0.098135486,-0.059824467,0.16597347,-0.08481052,0.090380915,0.061610494,0.13566855,-0.11349057,0.09624417,-0.12805013,0.118284866,0.08964742,-0.11896538,-0.094850495,0.06807619,0.14187483,0.1010932,0.12866381,0.02388476,-0.14587486,0.16199921,-0.07130577,-0.033318285,-0.13045385,0.08237124,0.12645856,-0.08206535,0.13901973,-0.007723532,-0.11826483,0.024393348,-0.14816226,-0.073716715,-0.11972232,0.1020536,-0.0642165,-0.02668503,0.0104421405,-0.13269867,0.15390274,-0.03140152,-0.0069961115,-0.14625172,-0.06718063,-0.03307304,-0.11001464,0.057765387,-0.023327136,0.023024337,0.021928849
0.00028299697,2.7515853e-05,-7.339228e-05,-0.000121126315,-0.00027469435,-0.0002488534,-0.00028234432,-0.00020992753,-0.0001254309,-9.046783e-05,-0.00015728,-7.204038e-05,-0.00019788429,-0.00012841934,-7.749116e-05,0.00018029117,0.00025358587,0.0002976648,0.00024786644,9.059136e-05,0.00043402374,-4.6002053e-05,-0.0005245289,-0.0009749401,-0.0013808297,-0.0039349073,-0.004908798,-0.00546569,-0.005642182,-0.0055186045,-0.00965382,-0.0071285837,-0.0041302093,-0.0010566,0.0018898346,0.011782898,0.020360675,0.026697114,0.031105693,0.033941846,0.071588576,0.071215175,0.066980556,0.06075345,0.053657625,0.085570216,0.058530018,0.035803754,0.017355392,0.0027710446,-0.026685543,-0.05256296,-0.06601572,-0.07182202,-0.072849065,-0.14064203,-0.12160739,-0.10123069,-0.082270354,-0.06565995,-0.09316264,-0.052590754,-0.026719917,-0.010133124,0.0003376514,0.016785596,0.025488589,0.02600338,0.0235213,0.02015607,0.031224104,0.020442028,0.014286287,0.010574366,0.008414072,0.014117164,0.011383042,0.010438928,0.009489308,0.008417978,0.013634026,0.00913379,0.005656401,0.0032126443,0.0016932166,0.00025054993,0.00022965253
-6.140058e-05,-0.0006465739,-0.00036217616,-0.0004280528,-0.0005829952,-0.0005315415,-0.0007228464,-0.00073300686,-0.0006599351,-0.0005611331,-0.00072495214,-0.0005560203,-0.0005597286,-0.00033417426,-0.00023581622,0.0002909997,0.0009105373,0.0015794034,0.0021599194,0.0025721565,0.008397057,0.010439288,0.012071581,0.013296386,0.014190144,0.030725908,0.031628817,0.031564802,0.030893825,0.029858507,0.055700466,0.04988915,0.044151787,0.03877175,0.033842858,0.054736372,0.040415276,0.029196586,0.020342411,0.013335819,0.010794975,-0.003452694,-0.01261708,-0.018521197,-0.02224697,-0.050655507,-0.052508615,-0.051367976,-0.04876843,-0.045495976,-0.08098651,-0.067656785,-0.056486074,-0.047220048,-0.039559864,-0.061108436,-0.043725055,-0.03147968,-0.022695085,-0.016296532,-0.018824868,-0.008197022,-0.0017565072,0.0021703949,0.004547165,0.012651732,0.013815421,0.013712622,0.01298432,0.012024218,0.020598765,0.016566575,0.013624721,0.011381725,0.009651178,0.014807669,0.01100045,0.008765996,0.0071915565,0.005985762,0.008866027,0.00669596,0.0053650658,0.00436807,0.0037209278,0.006169242,0.0053864373
0.0020473527,0.00092802994,0.0007199443,0.00057222677,0.00039685983,0.00055037526,0.00032333046,0.00016686147,3.7592094e-05,-1.4900397e-05,0.0001538561,-3.644017e-05,0.00028350684,0.00029229742,0.00024225833,5.1529307e-05,0.00014378298,0.00027109668,0.00044633253,0.0006253843,0.0016616693,0.0017631291,0.0017826038,0.001758327,0.0017032475,0.0030291392,0.0026347872,0.0021981096,0.0017814636,0.0013946925,0.0017421445,0.0007356457,3.654496e-05,-0.00042165795,-0.0007011534,-0.0017683918,-0.0016991445,-0.001362869,-0.00094785384,-0.0005452764,-0.00017882991,0.0006925973,0.0011851878,0.0014073084,0.0014670829,0.002739747,0.0024884974,0.0024491716,0.002645216,0.0030427694,0.0078980625,0.010531858,0.013352805,0.016035087,0.018433094,0.043238617,0.048496436,0.051664587,0.053132143,0.05332767,0.10394001,0.09625288,0.08677226,0.076759316,0.066885,0.10536512,0.07409879,0.0489347,0.029047031,0.013532069,-0.0077212374,-0.03462228,-0.0491621,-0.05617038,-0.058459166,-0.11427105,-0.10032707,-0.08457819,-0.069691174,-0.056513205,-0.08098874,-0.049498193,-0.02957339,-0.016838256,-0.00891448,-0.006389787,-0.0017267045
1.1898149,0.23125686,0.13073136,0.08832105,0.06515387,0.091733955,0.062626645,0.04610591,0.035654016,0.028513473,0.043155424,0.03126853,0.02412224,0.019018503,0.015386668,0.023593334,0.01742199,0.01353039,0.010870956,0.00900016,0.014129551,0.010627081,0.008289508,0.0066528786,0.0054571666,0.008632854,0.006527505,0.005250601,0.0044307336,0.0038660904,0.006393898,0.0052483943,0.0043638265,0.0036387143,0.0030472043,0.0051005953,0.0038357,0.003056944,0.0026076704,0.0023647633,0.0043124002,0.0042180037,0.0042400435,0.0042512133,0.0042167166,0.008160593,0.0076990337,0.0071754917,0.0066483924,0.006157944,0.011096158,0.009876427,0.00885538,0.008034114,0.0073392354,0.01298807,0.011134518,0.009589499,0.0082952045,0.007213608,0.012206027,0.009539999,0.0074901115,0.0059130727,0.004677263,0.007055983,0.004300234,0.0023987954,0.0010960691,0.0002090568,-0.0005871082,-0.0020176547,-0.0024375585,-0.0024004753,-0.0021321336,-0.0023403447,-0.0017891241,-0.001159137,-0.00075417606,-0.0006008036,-0.0003311244,-0.0019876242,-0.0032322477,-0.004194405,-0.0049214996,-0.01002219,-0.011497168
-0.0008358918,-0.00028514798,-0.00018152111,-8.084143e-05,-0.00013457816,5.3765907e-06,-0.000118950484,-0.00019077875,-0.0002333282,-0.00014096919,-0.0001375395,-7.0398935e-05,0.00035555966,0.00043768858,0.00055121124,0.0016535453,0.0028548865,0.0042232047,0.005679104,0.007113095,0.018629344,0.023074172,0.026655603,0.029396279,0.03139615,0.06674467,0.06835074,0.067484245,0.065068476,0.06171972,0.11199424,0.09528819,0.07933852,0.06487176,0.05210974,0.07196527,0.03900449,0.015414758,-0.0014229133,-0.013328966,-0.050432663,-0.06544996,-0.07061994,-0.07061477,-0.067847535,-0.123900115,-0.10351985,-0.08504587,-0.06929266,-0.056146704,-0.0815478,-0.052011196,-0.032547336,-0.019497793,-0.010671397,-0.0034068471,0.006598151,0.011235577,0.0130241355,0.013383789,0.028029505,0.0230025,0.01968049,0.01701552,0.014811066,0.027009683,0.019904671,0.015510217,0.012151539,0.009484833,0.015278813,0.008034179,0.0038464693,0.0013284935,-0.00021104727,-0.00028478546,-0.0023508673,-0.0021530828,-0.0013865909,-0.00056652294,0.00251073,0.0025074272,0.0020626916,0.0012207732,9.184818e-05,-0.0025486455,-0.0080120955
0.056095157,-0.0044938386,0.032090046,0.016803874,0.07160245,0.050858073,0.11883875,0.1141158,0.09256177,0.14718676,-0.06938966,-0.043302055,0.12965436,-0.010378575,-0.018049631,0.056581903,-0.014226572,0.046595342,-0.11365184,-0.105371304,0.12927589,-0.05203502,-0.097305,0.14038976,-0.06872844,-0.031295348,-0.0274548,-0.104538165,-0.07080095,-0.15023673,0.056405272,0.15431,0.16124538,0.057164993,0.03622025,0.09169873,0.027711013,-0.04000376,-0.09825994,-0.055081114,-0.0070679863,-0.1169369,0.08755295,-0.16051771,0.03926423,-0.1359682,-0.08775662,-0.12044771,0.0871977,-0.118636236,0.03366252,0.026194923,-0.11306042,0.14024433,0.050332732,-0.09124539,0.004098986,0.075448416,-0.02655425,-0.06611022,-0.10324034,0.07186994,-0.040443964,0.0109724635,-0.0765879,-0.12770557,-0.105346516,0.04978997,-0.08880067,0.14315848,0.12559319,-0.1106,0.04872259,0.14207174,-0.004169942,-0.017500747,0.10937766,0.07983153,-0.034739316,0.15953074,-0.15157558,-0.09592302,0.12589481,-0.059025154,-0.023045775,-0.06452942,-0.16011044
0.0017725948,0.045436606,-0.1105414,-0.06547179,-0.010687894,-0.030696237,0.10013846,-0.024559312,-0.09172662,-0.019915313,-0.050948624,-0.14138548,-0.06422859,0.1353059,-0.13959624,-0.00880985,-0.05318296,-0.11663191,0.057087716,0.020055287,-0.1510781,0.045882262,-0.08817482,0.08715143,0.12373089,-0.120802574,0.11860911,-0.10834104,0.055707294,0.048746556,0.0171552,-0.07040535,-0.0024469786,0.022643542,-0.042492397,-0.06910906,0.09467144,0.12064271,0.10028672,-0.044277508,0.042127535,-0.030045582,-0.06815672,-0.019593922,-0.020178394,0.080190904,-0.028039439,0.024162736,0.02324229,-0.037589647,-0.1430309,0.008054256,-0.15396772,0.057453927,0.11376162,-0.14726163,-0.0328429,0.07775069,0.094760686,0.097939216,-0.06306533,-0.1385243,0.116709694,0.14144354,0.031967316,-0.04613574,-0.05172561,-0.118894905,0.09805387,-0.13082425,0.051088583,-0.018281333,-0.089687295,0.0469679,-0.14553463,0.028620563,0.05081711,0.038342055,0.022048289,-0.09004263,0.0922492,-0.052807484,0.16418709,-0.15132216,0.09854953,-0.036883775,-0.13552132
-0.0012530952,-0.0008210166,-0.00061069743,-0.0005689815,-0.0006753511,-0.0006393529,-0.000692671,-0.000569017,-0.000368612,-0.00021040416,-0.00044186393,-0.00015967793,-0.0007155516,-0.00059069734,-0.00047495606,-6.954206e-05,-0.0001401909,-0.00021965391,-0.00046627695,-0.00096207357,-0.00082520506,-0.00094771496,-0.0009380995,-0.00085885805,-0.0007370003,-0.00093212916,-0.00039539675,5.177401e-05,0.0003540958,0.0005416487,0.000722514,0.0004887357,-9.105414e-05,-0.00083548354,-0.0016654346,-0.0056186384,-0.008877962,-0.011736634,-0.01410912,-0.016021777,-0.03606539,-0.039559014,-0.041118063,-0.041380886,-0.040791444,-0.07784738,-0.07139748,-0.064418584,-0.05765505,-0.0513256,-0.086524695,-0.06786219,-0.053384837,-0.042086113,-0.033222925,-0.0481294,-0.029660327,-0.018135464,-0.010767863,-0.0059838137,-0.004307387,0.0015827963,0.0037220987,0.0043048915,0.0042222315,0.00657861,0.0048708348,0.0036849915,0.0028786955,0.0023446798,0.0038046006,0.0032767167,0.003206782,0.0031197898,0.002986093,0.0059921667,0.005079727,0.004142621,0.0033451628,0.002774375,0.0041095354,0.0028423343,0.0023514857,0.0022637967,0.0023520004,0.004118069,0.0049912613
0.0028503689,0.0004570353,-9.25714e-05,0.00017701552,-0.00026552094,-0.00024614958,-0.0005849511,-0.0006385973,-0.0006455896,-0.00056874024,-0.00091071264,-0.0008073667,-0.0006739187,-0.0005551206,-0.0003582787,0.0003843091,0.0011829999,0.0019640164,0.0026775305,0.0032064032,0.008708846,0.009966329,0.010813193,0.01130669,0.011508135,0.022250524,0.020992983,0.01923143,0.017357238,0.015504795,0.02689181,0.021013876,0.016314084,0.012666569,0.009895082,0.014103158,0.009680704,0.0077382117,0.0071749226,0.007335427,0.01641429,0.018556606,0.01993474,0.020328572,0.019877208,0.037190538,0.029839093,0.021872655,0.014375469,0.007816538,0.0012392398,-0.014268836,-0.023271604,-0.027773375,-0.029299555,-0.055056576,-0.04690046,-0.03578155,-0.024708347,-0.0148692075,-0.0058218744,0.01441212,0.025563788,0.030559842,0.031564787,0.057508785,0.042997215,0.027873598,0.014901805,0.004685908,-0.012226705,-0.026956059,-0.03090988,-0.029592674,-0.02577851,-0.04033064,-0.021222025,-0.0074532046,0.0013484284,0.006510596,0.016961971,0.019751698,0.015546074,0.010314867,0.0056265057,0.00071044173,-0.006403358
0.04570472,-0.06943769,-0.07187813,0.067235336,0.09794794,-0.12924187,-0.0038915921,0.14979088,-0.09288525,0.055409674,0.07136871,-0.06950275,-0.09865407,0.00864375,-0.0037217883,0.11987766,0.0606676,0.016592747,-0.12578131,-0.027603382,0.094023235,-0.14847562,0.13804528,-0.12316267,-0.12227959,-0.044139966,-0.00048079944,-0.15590373,-0.04947383,0.08042076,-0.11619636,-0.14025456,-0.13330247,0.021054257,-0.09235387,-0.011278893,0.08836609,-0.015048005,0.11185414,0.15951893,-0.06298891,-0.034367867,-0.12067386,0.08274056,-0.012156487,0.08553101,-0.0775522,-0.09170685,-0.13391855,0.0054631527,-0.1599616,-0.09957538,0.14033678,-0.012513126,-0.15549704,0.036987484,-0.14462167,0.11245852,0.06700111,-0.041324917,-0.14729115,0.04884712,0.039254434,0.033695318,0.09337628,-0.04965313,-0.05918177,0.062218826,0.058175016,0.089518465,0.081500724,-0.13656121,0.017017333,-0.124721386,-0.113702856,-0.099482924,-0.030482292,0.04441327,-0.037277445,0.06820873,-0.04412632,0.08065055,-0.121292606,-0.078525625,-0.09210377,0.118004814,-0.07219766
0.00088177086,-0.0004474313,0.00020750724,0.00028570442,0.00039328853,0.0005754268,0.00034874972,0.00017333306,0.00013544374,0.0002631614,9.303512e-05,0.00019826373,-1.4720514e-05,7.808642e-05,0.00016336433,0.00030326803,0.00032499246,0.00042012846,0.00051921327,0.0005282385,0.0006499121,0.00068980025,0.0006374721,0.000554884,0.00045357225,0.00040719478,0.00017331087,4.1930565e-05,-2.7466813e-05,-5.565091e-05,5.300721e-05,0.0001175166,0.00018076318,0.00018930848,0.00015050499,-0.00016366722,-0.00041876239,-0.0006780549,-0.0009112378,-0.0011029285,-0.0027437143,-0.003052804,-0.0032075965,-0.003270249,-0.0032723972,-0.006690566,-0.006351057,-0.0059706233,-0.0056302804,-0.0053392076,-0.010322217,-0.009503347,-0.009012065,-0.008714189,-0.008526509,-0.017104367,-0.016807666,-0.016814968,-0.016908217,-0.016966343,-0.034064427,-0.033545654,-0.03276932,-0.031723045,-0.030448327,-0.05591281,-0.049936913,-0.044009652,-0.038436707,-0.03323732,-0.049858868,-0.03509316,-0.022630349,-0.012297387,-0.0037666215,0.01701126,0.033605676,0.045623302,0.053811345,0.05903695,0.12905775,0.1270329,0.12168946,0.11402749,0.10513656,0.18229003,0.14641896
0.0012136291,0.00047611576,0.00021001011,0.00010033485,2.5321475e-05,-2.4515302e-05,-0.000119462944,-0.00014002732,-8.853377e-05,-8.596789e-05,-0.00026398347,-0.0002711493,-0.0006050219,-0.00061153166,-0.00057097134,-0.0008226906,-0.0008543333,-0.0008690879,-0.00091479963,-0.0010649234,-0.0016966197,-0.001539242,-0.0014383582,-0.0014211491,-0.0015049912,-0.0037558922,-0.0051029813,-0.006873355,-0.008830348,-0.010789817,-0.027386356,-0.032951035,-0.036530547,-0.03833677,-0.03872819,-0.074872226,-0.06745318,-0.058062054,-0.048377544,-0.039232455,-0.055137366,-0.029977936,-0.011973544,0.00055327016,0.009065302,0.03275137,0.041774094,0.043364458,0.04147494,0.038039323,0.06434592,0.048864156,0.03599218,0.025814516,0.017894842,0.019098772,0.004581247,-0.0034409808,-0.007708626,-0.009745064,-0.02108729,-0.01885709,-0.015138023,-0.011275595,-0.007784751,-0.00800984,4.6199464e-05,0.0047235363,0.0073491437,0.00860959,0.016057568,0.014585419,0.011731813,0.00872491,0.005995374,0.0027222517,-0.0021676114,-0.0049903058,-0.0063350885,-0.0067077843,-0.015380317,-0.010422832,-0.006208973,-0.0028023175,-0.00020863167,0.0017236321,0.007827076
-0.00068173575,-0.0006383974,-0.00054273114,-0.00035285368,-0.00046466614,-0.0005565678,-0.0006387216,-0.0006077296,-0.00057967793,-0.0005935085,-0.0006243795,-0.00059153966,-0.0003879038,-0.00060033356,-0.0007246322,-0.0006033657,-0.0005988114,-0.0006389864,-0.00072369503,-0.00084179547,-0.0009178166,-0.0009737798,-0.0010046001,-0.0010131166,-0.0010158496,-0.0017713278,-0.0017584194,-0.0017338505,-0.0017105857,-0.0016835746,-0.0034257427,-0.0033764623,-0.0033475119,-0.0033539438,-0.0033938326,-0.007205924,-0.007501323,-0.0077663166,-0.007940792,-0.007998555,-0.01595623,-0.014792596,-0.013304891,-0.011626783,-0.009879,-0.014399878,-0.008131482,-0.0030310152,0.00091268326,0.003939786,0.014117648,0.018504657,0.020011019,0.01976418,0.018494597,0.031559683,0.022100138,0.013429183,0.0059435717,-0.0002591798,-0.0138682285,-0.026924614,-0.034036763,-0.037471026,-0.03860766,-0.07548601,-0.069054976,-0.06077822,-0.052559383,-0.045059044,-0.07223405,-0.052515596,-0.03871887,-0.028838422,-0.021755463,-0.03038877,-0.018367192,-0.011807615,-0.007814416,-0.0053708246,-0.00623573,-0.0038598576,-0.0026348003,-0.0019557048,-0.0015383622,-0.00028552988,-0.0005958275
0.31931108,0.04844426,0.023155354,0.013053731,0.0079720495,0.008136193,0.0032509894,0.0009120346,-0.0003454411,-0.0010395179,-0.0028062784,-0.003404387,-0.0033179948,-0.003456279,-0.0034524268,-0.0065495064,-0.006050341,-0.0056144805,-0.005129607,-0.0045276647,-0.0077998745,-0.0065797786,-0.0055919336,-0.004802554,-0.004182841,-0.0066995574,-0.005586998,-0.004882842,-0.004404087,-0.0040414715,-0.006740118,-0.0057032066,-0.0047372095,-0.003867939,-0.003115531,-0.0048825867,-0.0031068746,-0.001956438,-0.0012489004,-0.0008359105,-0.001118598,-0.00082161446,-0.00076112885,-0.00076713104,-0.00077497243,-0.0018842877,-0.0016588618,-0.0014108421,-0.0012076827,-0.0011052499,-0.0019503667,-0.0018065183,-0.0017044196,-0.0016418913,-0.0015891895,-0.0026237185,-0.002636467,-0.0024088735,-0.0021418887,-0.0018908503,-0.002893017,-0.0024968295,-0.0020410905,-0.0015905113,-0.0011982863,-0.0014475312,-0.0008208619,-0.00029216014,0.00012477247,0.0003333685,0.0014150764,0.0015237221,0.001416898,0.0012312133,0.00092977734,0.0019305069,0.0013969899,0.0010563805,0.0009292165,0.000975583,0.0026531292,0.0030051037,0.0031203625,0.0030987556,0.0029466378,0.0050549996,0.0033437512
-0.00032692862,-0.00010035273,-0.00013462336,-0.00023587228,-0.00028232072,-0.00054441794,-0.00052496797,-0.0005011656,-0.0004947672,-0.000522423,-0.0005434959,-0.0005340576,-0.00013446239,-0.000309286,-0.00042731766,-0.0005950089,-0.00060852885,-0.0006671915,-0.000691077,-0.00066992344,-0.0010904515,-0.0010393454,-0.00094436423,-0.00083187845,-0.0007243005,-0.0009613371,-0.000803191,-0.00070985855,-0.0006615876,-0.00062409067,-0.0013705717,-0.001236037,-0.0010432726,-0.00081699423,-0.0005808131,-0.00029621104,0.0003413912,0.000804853,0.0011138417,0.0013052719,0.0027182903,0.0028802373,0.0028190676,0.002669452,0.0024976807,0.004456606,0.004158673,0.0039134417,0.0037070464,0.0035333694,0.0070220246,0.0067096497,0.006407846,0.006163691,0.005950093,0.0115216,0.010764663,0.010174616,0.009683454,0.009245499,0.0172429,0.0155814085,0.014246323,0.013099399,0.012045715,0.020876978,0.017790899,0.0153708495,0.013442816,0.011865014,0.018174682,0.01488739,0.012315139,0.010158051,0.008198634,0.0076557114,0.0022575895,-0.0032198934,-0.008641567,-0.013752484,-0.04647303,-0.059035733,-0.069292285,-0.07696348,-0.0821673,-0.1766828,-0.1751275
0.00010605274,0.00015485325,2.9443752e-05,4.4896846e-05,-2.9710049e-05,0.00013269529,-2.321761e-05,-9.868773e-05,-9.9592755e-05,-0.00014579634,-2.7921604e-05,-4.4865454e-05,-0.0005065901,-0.00038340728,-0.00030681503,-4.0569867e-06,-7.64116e-06,-6.591242e-05,-0.0002470352,-0.00063728646,-0.00054606807,-0.00086688506,-0.0011194114,-0.0012980396,-0.0013975382,-0.003102291,-0.002946363,-0.0026917206,-0.0024089608,-0.0021308423,-0.0033630682,-0.0025179822,-0.0019901209,-0.0016490916,-0.001424646,-0.0021633415,-0.0017941835,-0.0015016929,-0.0012028806,-0.0008947316,-0.0008682931,0.0001382771,0.0009950583,0.0016212041,0.0020286466,0.0050709373,0.0048102476,0.0041976147,0.0034408877,0.0027277877,0.0036097358,0.0022180006,0.002038587,0.002671592,0.0037803752,0.011605172,0.017162975,0.022005534,0.025592554,0.027778327,0.05730307,0.053461537,0.045347746,0.035165355,0.024434807,0.018449282,-0.015102997,-0.039569102,-0.055769507,-0.065404564,-0.14208658,-0.1374561,-0.121578194,-0.10208844,-0.082538985,-0.1149669,-0.06014876,-0.023507766,-0.00011142061,0.014146287,0.047641672,0.05469986,0.049585007,0.041384675,0.033109885,0.045813803,0.02583604
-0.00012542757,-0.00058943336,-9.527813e-05,0.00015422089,9.843776e-05,0.00023144431,0.00010019826,1.8419669e-06,-5.72992e-05,-7.3229894e-05,5.807703e-05,1.3637509e-05,8.402867e-05,2.5741945e-05,-2.4588444e-06,0.00012692055,3.026705e-05,-3.7789607e-05,-6.390553e-05,-0.00010519005,-0.000109917644,-5.733106e-05,2.5902213e-05,0.00011409058,0.00019509843,0.0003934794,0.00037173426,0.00033770007,0.00029588465,0.00024574375,-0.00011747841,-0.00033161248,-0.00046357297,-0.0005343944,-0.00055847334,-0.0012580346,-0.0011491367,-0.0009962971,-0.0008593796,-0.0007488769,-0.0013902811,-0.0011465404,-0.0010937232,-0.0011326107,-0.0012072842,-0.002752086,-0.0029695537,-0.0031996472,-0.003442504,-0.0035741844,-0.00743624,-0.0072585563,-0.006955278,-0.0067028394,-0.0064571085,-0.012745552,-0.011834703,-0.011208231,-0.010775113,-0.010461028,-0.021165749,-0.019971255,-0.019163534,-0.018573008,-0.018039556,-0.036358602,-0.033928275,-0.03198828,-0.030419415,-0.028980777,-0.055331163,-0.050140183,-0.04604154,-0.042625412,-0.03955597,-0.07202113,-0.06294192,-0.055799324,-0.04993634,-0.044912077,-0.07774271,-0.06545675,-0.056097083,-0.048736002,-0.042885225,-0.07359996,-0.061261203
0.0010756761,-0.00027316232,-0.00026010306,-0.00014593398,-0.00016366942,-0.00016414441,-0.0003197004,-0.00040558857,-0.0004318494,-0.00045043754,-0.00048111554,-0.0004573185,-0.00046149438,-0.0003383009,-0.00031132955,-0.00045983645,-0.0004017512,-0.00037958068,-0.00039872061,-0.0005170033,-0.00026935682,-0.0003294117,-0.00036133785,-0.0003604946,-0.00033742315,-0.00029724714,-0.00034259702,-0.00044753408,-0.00062905933,-0.00088377844,-0.0027222806,-0.0039461064,-0.0050231037,-0.0058774645,-0.006502739,-0.0140022505,-0.014460663,-0.014280519,-0.013770505,-0.013138085,-0.02425868,-0.022311155,-0.02101343,-0.02025227,-0.019879354,-0.039054837,-0.039650552,-0.04031717,-0.04076571,-0.040912356,-0.08030626,-0.07801482,-0.074170604,-0.06957563,-0.06469772,-0.114313,-0.09662964,-0.080854066,-0.067305654,-0.055849586,-0.08400946,-0.05678723,-0.037704706,-0.024184264,-0.014599328,-0.010448521,0.0034210943,0.009965662,0.012857598,0.013775146,0.026612833,0.022961283,0.01906755,0.01570717,0.012922718,0.019166626,0.013674653,0.010187603,0.007837841,0.0061941817,0.008663127,0.0068782736,0.0054178988,0.0044275117,0.0037503536,0.005487533,0.004716056
-0.00024175004,5.329115e-06,0.00024907282,0.00031971573,0.0005667929,0.000550327,0.00071533024,0.0006940525,0.00073318905,0.0008716809,0.0006577931,0.0008004883,1.1896089e-05,0.0001120998,0.0004100695,0.0013961651,0.0014367306,0.0014996174,0.0015105199,0.0013600958,0.0006887263,0.00032962937,-2.5104611e-05,-0.00033214613,-0.0005748142,-0.0027438474,-0.0029504355,-0.0030205662,-0.0029954952,-0.0029248816,-0.005021334,-0.004256827,-0.0036685201,-0.0032637466,-0.002996849,-0.005629168,-0.0052284366,-0.0050597796,-0.0049366876,-0.004782633,-0.0092188185,-0.008349528,-0.0074782795,-0.006670974,-0.005985864,-0.010203916,-0.009736192,-0.009871939,-0.01043682,-0.011161719,-0.024181647,-0.02817049,-0.03064179,-0.031983208,-0.032379165,-0.063201785,-0.058457237,-0.051395234,-0.043274783,-0.03503079,-0.04814889,-0.021053245,-0.0001789929,0.015493861,0.0269372,0.0733706,0.088872135,0.09181123,0.088562824,0.08218418,0.13713919,0.10620142,0.07837496,0.05567094,0.037800964,0.03129184,0.00016662368,-0.016246581,-0.024688518,-0.028335249,-0.064054646,-0.05426775,-0.043273695,-0.033739056,-0.025665328,-0.036380637,-0.0148125235
0.09802545,-0.08915229,0.09108213,-0.11295853,0.03919048,-0.117841296,0.042000115,-0.05190791,0.054141905,0.12049361,-0.06914756,-0.09583846,-0.06427533,-0.045672912,0.111020364,0.05032923,-0.043814037,0.06900889,-0.061227378,0.117127374,0.12850739,-0.039176445,-0.08296916,0.050676927,-0.08994101,-0.10216807,0.038333226,-0.068474345,-0.041249853,0.03533109,-0.009562927,-0.07885266,0.035889164,0.11568806,-0.059613965,-0.014006142,0.02104631,-0.1398705,-0.019690236,-0.034303937,-0.12512898,0.033432826,0.07526446,-0.060055867,0.0051143006,0.05091511,0.065285474,0.15284497,0.0063314633,0.18047659,0.12311863,0.031656496,-0.06198245,-0.0026702725,0.12740053,-0.03809077,0.13573827,-0.09539528,0.1426976,-0.04685283,0.021341724,-0.008465859,-0.08633345,-0.07081031,0.018707827,0.045894675,0.042951826,0.08777839,0.15791702,-0.115667604,0.10515036,0.07445295,0.065176405,-0.036375675,0.044033736,-0.119410634,0.06415141,-0.12093355,0.029937329,-0.14810438,-0.04975925,-0.116151586,-0.30896658,-0.09917115,0.124752715,-0.13135937,0.06318816
-0.003084955,-0.0006624728,-0.0009963415,-0.001004471,-0.001327105,-0.0013736507,-0.0014060783,-0.0010020516,-0.00044015644,0.00023455432,-0.0005574942,0.00017887831,-0.00032820553,-0.00047744034,-0.00041961987,0.00058054266,0.00056422024,0.00063604594,0.00050449074,1.6599406e-06,5.693516e-05,-0.00015033806,-0.00022813602,-0.0002551825,-0.0002649989,-0.0006686546,-0.00034813653,-0.00024559262,-0.00024939317,-0.00028371072,-0.00013983055,-0.00016347379,-0.0003016455,-0.00043034885,-0.00052045507,-0.0011555711,-0.0015533598,-0.0018428618,-0.00202543,-0.0021413404,-0.005542893,-0.0052424707,-0.0049634003,-0.0047187456,-0.0045000953,-0.007785327,-0.007200326,-0.006745964,-0.006509782,-0.006392905,-0.012051303,-0.011767541,-0.011352185,-0.010977998,-0.01061086,-0.020366207,-0.019157713,-0.018089652,-0.017121663,-0.016292708,-0.03045003,-0.028466063,-0.026932511,-0.02566197,-0.024509972,-0.046365682,-0.04235486,-0.038851123,-0.03547786,-0.032276373,-0.055047374,-0.0439519,-0.034563895,-0.026541267,-0.019599726,-0.019811142,-0.0026585893,0.01021464,0.020056915,0.02760399,0.07651167,0.088094115,0.0947998,0.098093115,0.09901839,0.2008257,0.18677248
0.06931491,0.1698127,-0.00987069,0.14733855,0.011939928,-0.091460496,0.060711823,0.15559347,-0.07352727,0.1247361,-0.0005329618,-0.024610728,0.025278827,-0.115939826,0.12642433,0.14635408,0.025958844,-0.019362658,0.13798793,0.121014416,0.024328882,-0.12881799,-0.050394885,0.15389375,0.051982906,-0.1087759,-0.1026145,0.13066049,-0.012914069,-0.06438595,0.086271614,-0.034183785,-0.053419273,0.05650957,-0.017680474,-0.05568848,0.16187213,-0.14619057,0.17311318,-0.13165808,0.11683455,0.023097197,0.0054767625,-0.09761165,0.10381147,-0.14598586,-0.14162982,-0.08674136,0.014463494,0.16661763,-0.057333224,-0.12737525,0.08747715,0.07200251,0.04137498,0.105279505,0.0014523494,0.1467355,0.06923811,-0.15087546,0.06388539,-0.039401602,0.08647045,0.025694534,0.023199543,0.010066315,-0.008298166,0.06810106,-0.1015063,-0.02717309,-0.14020944,0.04314446,0.15824157,-0.13093053,-0.10497862,-0.08969783,0.04155473,0.16140953,-0.11666512,0.14815494,-0.08560987,-0.09439428,0.0043022493,-0.080258876,0.098158486,-0.00619773,-0.058022197
0.00010851234,-0.00060628867,-0.00019219785,-6.899833e-05,-7.627928e-05,-0.00020537394,-0.00029222004,-0.0002944366,-0.00027334644,-0.00025460738,-0.00037898766,-0.00037151965,-0.00034357002,-0.0005723669,-0.00077192206,-0.0016883358,-0.002585497,-0.003640634,-0.0047732964,-0.005937927,-0.015066185,-0.018800046,-0.021845207,-0.024183346,-0.025869057,-0.05485557,-0.056006797,-0.054896656,-0.052400623,-0.049107924,-0.08756888,-0.07222088,-0.058026955,-0.045569334,-0.03493127,-0.044037495,-0.019067882,-0.0022626992,0.009009142,0.016480291,0.04648397,0.053675704,0.054939773,0.053476647,0.050765716,0.09273342,0.079451315,0.06838819,0.059330598,0.05190666,0.086741425,0.06955701,0.057594214,0.048768904,0.04197229,0.06811886,0.05386902,0.0433453,0.03529317,0.028913528,0.042175632,0.028848974,0.018995544,0.011886104,0.0066881115,0.0017343536,-0.0059235897,-0.010360322,-0.012646766,-0.013670105,-0.028161053,-0.025550991,-0.022877406,-0.020225476,-0.017796738,-0.029084519,-0.022061799,-0.017360447,-0.013836129,-0.0111706555,-0.015650028,-0.010654331,-0.0072996477,-0.004842031,-0.003003159,-0.00078907993,0.0022628664
-0.12229975,-0.07114058,0.14372501,-0.155934,0.12911852,0.122522846,0.0953812,-0.067079656,0.018162074,-0.081081375,0.10930729,0.009793926,0.06547117,0.14769256,-0.027707802,0.02690603,-0.016550107,-0.029544989,0.11164586,-0.065360054,-0.1227535,0.04877816,-0.07634164,-0.11356808,0.07874146,0.12453199,0.026573401,-0.008150919,0.1012555,-0.09193353,-0.14959961,0.15234183,-0.10994517,-0.047855332,0.10884292,0.080102526,0.016862754,-0.14677592,-0.08092348,0.1288862,-0.030895047,0.12862015,0.16013706,-0.1550545,-0.16273247,-0.15208612,0.016617343,0.1469577,-0.13008776,-0.03784195,0.12303977,-0.117338724,0.08975575,0.038302094,0.038229946,0.046441074,0.05060915,-0.0017963212,-0.08076318,-0.15964583,0.13088273,-0.10113962,0.14819291,-0.08142213,-0.12948395,0.06654332,0.010512963,0.119630635,-0.0094102565,0.034260474,-0.1422264,-0.05460885,-0.1176941,-0.10237826,0.06604731,0.028861923,0.09654717,-0.15777938,0.10636002,-0.07682759,-0.14326715,0.06169557,-0.16079603,-0.0023996783,-0.16543847,-0.15519151,0.07861566
0.013772224,0.078529224,0.01861007,-0.033238318,-0.106667385,0.08246115,-0.09006718,0.030837623,0.12050204,0.07855093,-0.018219035,0.013690098,0.14813946,0.08033599,-0.08773498,-0.112136744,-0.11659533,-0.11256276,0.028881822,0.03164807,-0.13270041,0.08723849,-0.13670361,-0.16006067,-0.12630622,0.06352684,0.021581661,-0.1581469,0.10955345,-0.036515675,0.091779076,-0.1593739,-0.063373774,0.084125824,-0.0739483,0.06986231,-0.10820665,-0.13804463,-0.04802177,0.08994619,0.086266935,0.12450363,0.07767984,0.0024129746,-0.052882433,-0.033027038,0.08329512,0.16526978,0.016626574,-0.11154102,0.15205488,-0.14144103,-0.14162982,-0.0062158504,0.1053781,0.16607118,-0.047752175,-0.046502244,-0.0075114854,-0.05268341,-0.086500496,0.14846817,0.120008215,0.15799865,0.06366077,-0.08697329,0.10641682,-0.106716625,0.12831512,0.034535073,0.18433227,-0.070569344,0.13769673,-0.10270252,-0.1664244,-0.019447064,0.04221404,-0.07913532,-0.13697311,0.08245029,-0.072297044,-0.15480474,0.055926353,-0.14889313,-0.009679363,0.11704958,0.05517635
0.0009976903,0.0006016914,0.0005085841,0.00035521574,0.00024522052,0.00043408968,0.00029804997,0.0001688923,4.8582864e-05,-0.00013313547,0.00014182656,-1.6332953e-05,-0.00073220104,-0.0004353233,-0.0002500071,-3.9135353e-05,-8.5686115e-05,-0.00016720031,-0.0003174177,-0.0006296153,-0.00063184113,-0.00068426406,-0.0007387928,-0.0007843274,-0.00080745236,-0.0015727943,-0.0016463418,-0.0015750023,-0.0014423263,-0.0012955733,-0.002318832,-0.0018321741,-0.0013692458,-0.0010288464,-0.0007987118,-0.0017085309,-0.0014017273,-0.0013162959,-0.0013517978,-0.001429323,-0.003243452,-0.003293959,-0.003292083,-0.0031849584,-0.0029968803,-0.0053685275,-0.004214969,-0.0032909617,-0.0025664975,-0.001994736,-0.0029599962,-0.0017514972,-0.0010282544,-0.00061377464,-0.00035890713,-0.00021535877,0.0011448457,0.0025921513,0.0041891173,0.005855714,0.017132863,0.023078993,0.027623208,0.030603124,0.032191314,0.06519704,0.059123367,0.04943615,0.038120907,0.02655728,0.020917345,-0.014703507,-0.040109858,-0.056702927,-0.0664572,-0.1451076,-0.1397624,-0.12301192,-0.10288915,-0.08294854,-0.11653585,-0.06057664,-0.025020538,-0.003152995,0.009573614,0.033332795,0.037429307
-0.00073459453,1.44177175e-05,5.143832e-05,-7.4763593e-06,-8.2162354e-05,-1.9170802e-05,-1.4718244e-05,1.2691191e-05,4.7343085e-05,8.209192e-05,0.00022249731,0.0002569537,0.0002532445,0.000265925,0.0002801472,0.00076067925,0.00075048395,0.00072275725,0.00066851237,0.00055986346,0.0012012469,0.0011057348,0.0010488157,0.00101609,0.0010004214,0.0019979267,0.0020757727,0.002286541,0.002589529,0.0029561853,0.006968431,0.00858045,0.01009636,0.011416614,0.012521766,0.02761596,0.02992529,0.031314574,0.032067493,0.032392703,0.064585835,0.06349335,0.0617993,0.059847984,0.05781679,0.10949023,0.101955086,0.0951437,0.08897966,0.08341033,0.15196903,0.13556612,0.12205123,0.11074949,0.10121008,0.17861106,0.15452883,0.13619123,0.12183655,0.11038992,0.19373567,0.1680662,0.14932144,0.13497129,0.12357155,0.21984552,0.19318232,0.1725293,0.15577255,0.14177139,0.24842508,0.21220887,0.18356036,0.16038296,0.14130683,0.23615749,0.19040248,0.15652867,0.13069148,0.11059884,0.17470026,0.1331573,0.10457257,0.08415642,0.06916847,0.105874985,0.08028439
-0.0014453693,-0.000492375,4.348946e-05,0.0001248917,1.4979552e-05,-1.8398496e-05,-0.00015323074,-0.00018043649,-0.00016343355,-4.8679296e-05,-0.00020953422,-0.00012526957,-0.00018701784,-0.0001305245,-0.00011678308,-0.00015092953,-0.00017631488,-0.00016035419,-0.00014378843,-0.00020834911,-0.00061986415,-0.0006279248,-0.0006423677,-0.0006626911,-0.0006874285,-0.0017563971,-0.0018647802,-0.0019139327,-0.0019443359,-0.0019623246,-0.004125761,-0.004096571,-0.004010987,-0.003898487,-0.0037777547,-0.007060331,-0.006707079,-0.0063838866,-0.006093941,-0.0058356444,-0.011114603,-0.010216599,-0.009438434,-0.008758152,-0.008155453,-0.014799408,-0.012960938,-0.011531686,-0.010396563,-0.009476937,-0.01661322,-0.01431566,-0.012664068,-0.011362301,-0.010313777,-0.018081147,-0.015650675,-0.01379818,-0.012304301,-0.01106451,-0.01918361,-0.016056662,-0.013488271,-0.011289991,-0.009381255,-0.01423411,-0.0088735195,-0.0043518688,-0.0004964561,0.0028240639,0.013055023,0.02204061,0.02900051,0.034405123,0.038582366,0.08361333,0.09136782,0.095153786,0.096399926,0.09597977,0.18075688,0.1725769,0.16194388,0.15087822,0.14019881,0.24164987,0.21316622
-0.00039580459,0.00046139036,0.00089628156,0.00092472957,0.0010019091,0.0010561154,0.0009312231,0.0007016211,0.0005803859,0.00080904027,0.00079382886,0.00084589614,0.00035172253,0.0008192319,0.0011476325,0.001511504,0.0015630476,0.0017494239,0.0020289877,0.0021045487,0.0024572888,0.0026474087,0.0026340787,0.0025435279,0.0024134456,0.0032017336,0.0030079437,0.002862603,0.0027266114,0.0025849207,0.0035248979,0.0030989295,0.0027195155,0.0024009708,0.0021356149,0.0044903914,0.0038523981,0.003342539,0.0029395698,0.0026175613,0.0047411355,0.0040961476,0.003707949,0.0034725561,0.003320946,0.005943544,0.0056521073,0.0053680786,0.0050214133,0.0046097916,0.007333178,0.005863839,0.0045775115,0.00349396,0.002585982,0.0018143,0.0002324142,-0.00079577084,-0.0015104604,-0.0020445038,-0.007690317,-0.007982291,-0.008814689,-0.0098844925,-0.011160608,-0.029978218,-0.03309678,-0.037090793,-0.0406955,-0.043607842,-0.09461268,-0.09459154,-0.09233382,-0.08805143,-0.08240625,-0.14299417,-0.11631599,-0.09267276,-0.07254822,-0.055917192,-0.06900705,-0.036855124,-0.016466511,-0.004100944,0.002996184,0.01784472,0.015166856
-0.00016507547,9.06945e-05,-5.6281337e-05,0.00017270353,0.00036706383,0.00039939443,0.00021110891,3.738825e-05,-5.7994126e-05,-0.00014766131,-0.00017077712,-0.0002555881,-0.00063583895,-0.0008483478,-0.0009069807,-0.0009862686,-0.0009772773,-0.00091739476,-0.0008271832,-0.00078602583,-0.0012779988,-0.00095552835,-0.00074336136,-0.00059925584,-0.00048682615,-0.0008467304,-0.00067573646,-0.0005401934,-0.0004424752,-0.00037911657,-0.0010006292,-0.0010039879,-0.001051128,-0.0011148811,-0.0011786587,-0.0026623225,-0.0027822875,-0.0028083585,-0.0027768724,-0.0027144314,-0.00520804,-0.004728449,-0.0043265373,-0.0039820806,-0.0036809745,-0.0064467844,-0.0055752816,-0.005016445,-0.0046371943,-0.004343383,-0.007941983,-0.007347654,-0.007035591,-0.0068676947,-0.0067770933,-0.01317063,-0.013211195,-0.013142616,-0.0129889855,-0.012802366,-0.024370687,-0.023600964,-0.022662122,-0.021690318,-0.020756856,-0.038953755,-0.03632853,-0.03396243,-0.031845182,-0.02997029,-0.054969028,-0.049831796,-0.045516096,-0.04189713,-0.038880434,-0.07020602,-0.063021004,-0.057665884,-0.05348205,-0.05011957,-0.0906615,-0.08213854,-0.07452139,-0.06734476,-0.060526248,-0.09901741,-0.07843854
0.00077562337,-0.00029208872,-0.0003581022,-0.00033476044,-0.00032181683,-0.00054995745,-0.00048778334,-0.00043292137,-0.00038803395,-0.00036922647,-0.0005601307,-0.0005130421,-0.00042640985,-0.00039748137,-0.00037927506,-0.00074469787,-0.0007340601,-0.00075239845,-0.00078696705,-0.0008365511,-0.0015736423,-0.0015004913,-0.0013970198,-0.0012740195,-0.0011396542,-0.0018436782,-0.0013309788,-0.00092130573,-0.00058461755,-0.00030871193,-0.00030959438,0.00022540102,0.0005604132,0.0007714393,0.000901142,0.0019907732,0.0021031024,0.0021239743,0.0021208723,0.002112131,0.004064375,0.004146002,0.0041789743,0.004186168,0.004176341,0.008099524,0.007953951,0.0076581053,0.007268102,0.0068444717,0.012305227,0.010900918,0.009585161,0.008395801,0.0073448285,0.011802838,0.00902008,0.006868923,0.0051440317,0.0037334058,0.0036574788,0.00042257158,-0.0021437292,-0.0043135853,-0.006209045,-0.018880405,-0.02393902,-0.028406514,-0.032270283,-0.035545234,-0.08099554,-0.08702032,-0.09072958,-0.09246914,-0.09264478,-0.18287009,-0.17194101,-0.15892957,-0.14515114,-0.1314076,-0.22274794,-0.17632477,-0.13754043,-0.105658025,-0.07958668,-0.09590609,-0.04127946
-0.10368257,-0.023049315,0.05228113,0.025378123,-0.123612426,0.06962104,0.07778485,0.12208424,0.013523988,0.07129337,0.021293413,0.0007058799,0.0012887488,-0.014111661,-0.023000909,-0.004898735,0.019446593,0.10088044,-0.0343829,-0.08078972,0.024378233,-0.07356794,-0.018422892,-0.15743244,0.012403861,0.10919816,0.10583868,-0.11616687,-0.013696766,0.0681827,0.076713845,-0.035065547,-0.03437401,0.16860214,0.052908517,-0.09733181,-0.087849535,0.032993954,-0.02525991,-0.044201273,-0.14105928,-0.15151493,-0.107392594,0.030500032,-0.1239688,0.01486647,-0.033846617,0.1487819,-0.14679974,0.13158591,0.039952062,-0.01554047,-0.08918982,-0.010298392,-0.08616425,0.037535906,-0.09101952,-0.07784647,0.05315271,0.056766443,0.09032831,0.006831515,-0.009372727,0.028532838,0.08602675,-0.08012996,0.03232979,-0.080783375,-0.030309074,0.16349839,-0.08378699,0.08450679,-0.14281335,0.011302975,0.11210326,0.12988064,0.15065265,0.07301775,-0.10849236,-0.03062266,0.018853419,0.10632068,0.1283863,-0.13588892,0.015318325,0.1680046,0.11837089
0.00041571876,8.7926266e-05,-1.2328026e-05,0.00013342654,0.00014388293,3.1375566e-05,2.6640542e-05,-7.336832e-05,-0.0003847327,-0.0010132673,-0.0004079944,-0.000898195,-0.00013761464,-6.3009036e-05,-0.00026360294,-0.0013748981,-0.0013645024,-0.0015571789,-0.00170094,-0.0014594599,-0.0013828649,-0.0014803848,-0.00150565,-0.0014890868,-0.0014421778,-0.0020270087,-0.0019959107,-0.0018972335,-0.0016934163,-0.0014621126,-0.0012335475,-0.00024732875,0.00048634308,0.0010284485,0.0014265697,0.00392313,0.0045058695,0.0048389877,0.0050758817,0.005254212,0.010858877,0.011365839,0.0118174115,0.012232045,0.0125891995,0.026836302,0.027525546,0.02796141,0.028065046,0.027886111,0.05467527,0.05290853,0.050739236,0.048392944,0.04604297,0.08418629,0.07631468,0.069244586,0.06287012,0.05718354,0.09827677,0.08285933,0.070016675,0.059470955,0.05070997,0.07765066,0.05832994,0.043691486,0.03273126,0.024447652,0.028088588,0.0148599325,0.00614748,0.00057972636,-0.002956921,-0.014689245,-0.01586114,-0.015780693,-0.014867942,-0.013620652,-0.026194213,-0.019569615,-0.01484984,-0.011389108,-0.0088119935,-0.014327568,-0.008458456
-0.000109840716,-0.00011712746,-0.0002762772,-0.00017847904,-9.6885444e-05,-0.00011217112,-0.00011569596,-0.00017507211,-0.00026742078,-0.00038115587,-0.00029274786,-0.0004309258,-9.8089295e-05,-2.112778e-06,-7.4041294e-05,-0.00076352723,-0.00069159,-0.00067410525,-0.000628782,-0.000513867,-0.00049320346,-0.00048893905,-0.00048172317,-0.00048192232,-0.0004797644,-0.00059528183,-0.00082070276,-0.0010368576,-0.0012443012,-0.0014433285,-0.003232771,-0.0038299714,-0.0042336364,-0.0044507566,-0.0044902484,-0.008562097,-0.0074237916,-0.005855501,-0.0041074003,-0.0023354222,-8.946925e-06,0.00588503,0.010558639,0.014089652,0.016650518,0.037668787,0.040236127,0.039891716,0.037807617,0.03474428,0.058937628,0.044172056,0.030635014,0.018923761,0.009087917,-0.004198919,-0.025414167,-0.03834689,-0.04573185,-0.049366467,-0.10015458,-0.0941073,-0.08369921,-0.07226336,-0.061199933,-0.09259068,-0.06165827,-0.03932877,-0.023482425,-0.012365056,-0.0032341578,0.0103999665,0.015818156,0.017280152,0.016814947,0.030151272,0.022615504,0.01739985,0.0136628635,0.010981718,0.017119324,0.012442844,0.0099064335,0.007800821,0.00591169,0.006550176,0.0009867593
0.13472667,0.11476276,-0.028537016,-0.088741206,0.13629176,-0.030940732,-0.08905917,-0.00013504931,0.14597523,-0.14613813,0.10839494,0.108730614,0.0672736,0.124469034,0.013200379,0.109112814,-0.026384495,-0.026950506,0.078555495,-0.08426501,-0.097731076,-0.07009908,0.085496746,0.06892069,0.06882037,0.07781888,0.05445593,-0.045613,0.0054184943,0.021715071,-0.13822398,-0.10832909,-0.12044716,0.113327645,0.08110226,-0.08282209,-0.07092186,0.024118384,-0.014420724,0.00063894794,0.08162488,0.031328533,0.103837445,0.16069247,0.14737043,0.03195716,-0.0046509737,0.034340814,-0.13858254,-0.16074851,0.054898754,-0.08304008,0.048381913,-0.13598138,-0.1020678,-0.15920985,-0.13667539,-0.07525199,0.05049947,-0.024831055,0.002879438,-0.13990824,0.06232913,0.15153989,0.15382901,0.14072083,0.06774524,-0.011056165,0.14114653,-0.004073937,-0.10405562,0.054857943,0.100304194,0.048089392,0.11666964,-0.037261195,0.10138482,0.13801152,-0.12570207,-0.09981217,-0.07589023,-0.07030865,-0.04019233,-0.033245925,-0.061123613,-0.045584995,-0.17510629
-0.032533444,-0.002230506,0.12632632,-0.12461497,-0.075903066,0.12690742,0.11687507,-0.025061864,0.15220338,0.10028533,-0.152508,-0.014689684,-0.054478865,0.04700038,0.038891997,-0.0036531675,0.09237963,0.12514591,0.08986066,-0.12780105,0.1393275,-0.093215525,-0.026733669,-0.13722098,-0.1331052,0.065375485,0.0010635947,-0.05647624,-0.0042087785,-0.0015830406,0.12020558,0.12586805,-0.090573706,0.13010725,-0.018414322,-0.01490432,-0.15023068,-0.12906915,0.019970376,0.10549659,-0.16198857,-0.14987749,0.030220654,0.023277577,0.0626844,-0.065170474,0.06480043,-0.012666209,0.13246875,-0.16199218,0.05933822,0.06377561,0.13903567,-0.15715578,0.12087357,0.13774842,0.00084010663,0.047528774,0.10892232,0.013572161,-0.0129607,-0.15998301,0.08400162,-0.069266215,-0.06324284,0.14008467,0.09953769,-0.11199316,0.06388436,0.012947683,0.16423504,-0.102435805,-0.117652446,0.1477878,-0.09513346,0.0058461805,-0.12882663,0.11802253,-0.050361674,-0.038179312,0.08268648,-0.048537713,-0.06348471,0.028941704,-0.09148449,-0.11855188,0.110717796
0.16741438,0.02595565,0.054253336,-0.14885774,-0.04350234,0.09531034,0.045476675,0.06754348,0.10404015,-0.13135183,-0.15531263,-0.046981663,-0.14616627,-0.1138003,0.12461999,-0.011570978,0.14021978,-0.05795792,0.11847411,-0.07444141,-0.042583343,-0.09720692,0.022192478,-0.14222255,-0.041514866,-0.058745015,-0.051544387,0.113048255,-0.050021894,0.01213695,0.13335876,0.13657571,0.080050066,0.08016389,0.031069739,0.16499658,0.15980738,0.15681778,0.15973926,-0.13411215,-0.029776994,0.09982177,0.009798293,0.07399462,-0.010038704,0.039983455,-0.02551563,0.08433716,0.0028887147,0.1314244,-0.04558079,0.15099093,0.15383704,-0.02982933,-0.10319251,0.022909421,0.10034938,-0.11254126,0.013087749,0.1177066,-0.14947873,0.0683584,-0.046389382,-0.03674341,-0.14337653,-0.09135393,-0.07175503,-0.13905123,0.07460953,0.012895682,-0.12890843,0.08586847,-0.060779914,-0.13180083,-0.070846386,-0.009027245,-0.07402205,-0.06338301,-0.03884668,-0.12872414,-0.09943523,-0.066585824,0.0025741076,0.05634707,-0.09207805,0.1191908,-0.05944557
0.0008808732,5.6723366e-06,-0.0001665381,-6.790785e-05,-7.970938e-05,1.513472e-06,-0.00020309773,-0.00035349966,-0.00040798256,-0.0003423714,-0.0004884738,-0.0004890886,-0.00040443623,-0.0005315548,-0.0005915432,-0.0006488285,-0.0006467865,-0.0005893181,-0.000519912,-0.00052832987,-0.0003165261,-0.00018916704,-5.4772827e-05,7.662078e-05,0.00019938321,0.00090795034,0.0013155866,0.0016332677,0.0018802522,0.0020633058,0.004155013,0.004458059,0.004554342,0.0045459922,0.004474986,0.008558782,0.008198769,0.007836679,0.007505529,0.007214729,0.013778072,0.012926475,0.012257748,0.011700545,0.011222844,0.021465218,0.020341653,0.019610258,0.019072566,0.018607168,0.036725342,0.03545133,0.03436892,0.033386767,0.03239595,0.06298955,0.05841812,0.054256067,0.05044283,0.04697727,0.086015195,0.074939415,0.06638248,0.059533965,0.053864133,0.0961936,0.08107092,0.06986169,0.061063763,0.053805992,0.093087554,0.074023575,0.060037553,0.049355943,0.040975403,0.066901304,0.047722623,0.03526378,0.026848856,0.020923028,0.034395974,0.02271944,0.016347105,0.012568033,0.0101230545,0.019231673,0.013176397
0.027607203,-0.05951625,0.023918984,-0.008380417,0.13344625,-0.16304538,-0.015524598,0.00045810506,0.11956217,0.0654654,-0.09910786,0.1167559,-0.07038961,-0.0053588892,0.096332006,-0.12007328,0.095751114,0.06807212,-0.024838433,-0.1548838,0.060112897,-0.06941706,0.026101146,-0.15203482,-0.09788888,0.13666907,-0.021126112,0.07907182,0.16624238,0.07919258,-0.06391223,-0.12859175,0.16070075,0.00248179,-0.0137154935,0.05872002,0.0808048,0.12830205,-0.15284608,-0.1495495,0.06874181,0.11882722,0.07858418,0.14777505,0.030619357,0.11669575,-0.0426675,0.13167937,0.0061609773,0.02296177,-0.07832623,-0.16253723,0.019030282,0.04044074,-0.1399171,-0.10428168,0.00016733815,-0.044656612,-0.09000332,0.06148655,0.15806583,-0.051393256,0.10836947,0.093856774,0.092402406,-0.00022988416,0.010247459,-0.1359907,-0.03405862,-0.09259714,-0.08096507,0.09983586,-0.12364149,-0.0019948299,-0.059474908,0.02351037,-0.018947406,0.04599083,-0.090989746,-0.114050746,0.14691782,0.08606225,0.08671631,0.004710763,-0.0395485,-0.07440964,-0.002690833
-0.11950879,-0.13672182,-0.09081265,-0.02631666,0.14713393,0.01626566,0.027219266,0.020515202,-0.09218409,0.020149453,-0.1406691,0.008298998,-0.03556676,0.0038751184,-0.13445687,0.12911287,-0.06889518,-0.14613877,0.028004399,0.11831811,0.13604148,-0.13085896,0.15265417,-0.085365385,-0.03867018,0.020815436,0.020365737,-0.15389544,-0.047037717,0.05430598,0.04372691,0.09440066,0.032804903,0.15791531,0.13524806,-0.10838278,0.14733574,0.11083666,0.08153162,0.068999074,0.07923114,0.07406016,-0.072848976,0.027913328,-0.09042311,0.06967276,-0.06356014,0.06668525,0.094734065,0.15837419,-0.11925822,-0.004398065,-0.13116243,-0.095919944,0.030155038,-0.14923583,0.07325494,0.038728967,-0.04981023,0.10018994,0.030881088,-0.000990323,0.08290295,-0.04744666,-0.033882562,-0.030755859,0.14233479,-0.04499347,0.083632454,-0.023648724,0.050819036,0.03791511,0.0012811365,0.0031561465,0.1652517,-0.0865428,-0.06894094,0.02576436,0.17182852,-0.026531616,-0.13604417,0.017539615,-0.112076156,-0.13248193,-0.1351815,-0.07535532,0.017808313
0.00027614523,3.305329e-05,0.00039983977,0.00016498173,0.00019585251,0.00030587937,0.00020917735,5.954178e-05,1.9343744e-05,0.00023616351,0.00012466742,0.00017196876,-0.00019082995,-0.00036370807,-0.00030507677,0.0001555116,0.00016094472,0.00028230005,0.00044218148,0.00044067495,0.0006470251,0.00064440054,0.00059000356,0.00052387494,0.00044271757,0.0006324396,0.00025139775,1.6694234e-05,-0.00013984846,-0.00024339807,-0.0005887069,-0.0007760369,-0.0008546377,-0.00089293823,-0.00090217585,-0.001349164,-0.0011019538,-0.0008692002,-0.00067705754,-0.0005198026,-0.0006423052,-0.00036704767,-0.00023137973,-0.00015905456,-0.00013051706,-0.00024243706,-0.00038689305,-0.00051207055,-0.00056573946,-0.0005373979,-0.00029040815,-4.7325313e-05,0.00020348078,0.00042686486,0.0006054626,0.0014176037,0.0017774345,0.0019281867,0.0018886569,0.0017764353,0.00287627,0.0027540692,0.0028659313,0.0033043332,0.0040575294,0.010998806,0.015572308,0.019707533,0.023029683,0.025393384,0.053376153,0.05224245,0.04612476,0.037237734,0.027127573,0.022838103,-0.012699656,-0.040687505,-0.06050656,-0.07327966,-0.16274913,-0.16150205,-0.1443297,-0.120622255,-0.09520155,-0.117861666,-0.038420744
0.00065316446,0.0004205108,0.0003839884,0.00045470434,0.00047820417,0.00076181337,0.00061211985,0.0004510269,0.0003664152,0.00028305198,0.00053967943,0.00041147473,0.00023914757,9.017154e-05,4.3117165e-05,0.00037606538,0.0002483224,0.00012985946,3.6406956e-05,-8.570989e-05,-0.00041416072,-0.0005772942,-0.00069478963,-0.0007648873,-0.000804168,-0.0016555287,-0.0017016638,-0.0016666116,-0.0016205867,-0.0015843593,-0.0036215836,-0.003725606,-0.0037776139,-0.0037707707,-0.0037126252,-0.0066845366,-0.006212104,-0.0057011587,-0.005216926,-0.00478799,-0.0084744645,-0.0074545015,-0.0067306743,-0.006241468,-0.005921043,-0.011072699,-0.010678873,-0.010367758,-0.010109006,-0.009872923,-0.018526616,-0.017418709,-0.016252464,-0.015131163,-0.014118919,-0.025398143,-0.02258338,-0.020360203,-0.018568866,-0.017092511,-0.030242285,-0.026326558,-0.023055589,-0.02017877,-0.017601047,-0.027423305,-0.019917902,-0.013513269,-0.008039227,-0.0033729062,0.0065178545,0.017701756,0.026179628,0.032637775,0.037472922,0.087232664,0.09346957,0.096138254,0.09645371,0.09518146,0.18545437,0.1712461,0.15745181,0.14469892,0.13321479,0.23932397,0.2071417
0.11314697,0.149203,0.08892397,-0.12602735,0.065304525,0.005129007,-0.12031173,0.032925427,-0.09796101,-0.09211907,-0.14219879,0.032104295,-0.15320614,-0.016322708,0.055327866,-0.08665662,0.06086017,-0.14252728,0.12754299,-0.0991099,-0.102200724,0.12597404,0.027930416,0.17252077,0.017229646,-0.06873657,0.030033112,0.08177398,-0.058610763,0.14705628,-0.020184327,0.03472009,-0.049826637,-0.09584654,0.10597562,0.0389012,0.16744119,0.13670525,-0.15409616,0.10450781,0.13773377,0.05129026,-0.0076850364,-0.011748059,0.00494698,0.0061188196,-0.12596382,-0.097054735,-0.080734156,-0.13010687,-0.03710533,-0.059128374,-0.15097937,0.14067277,0.1681015,0.11346066,-0.15480098,0.04019801,0.050590143,0.019670201,-0.15278697,0.110315114,0.013167641,0.1477987,0.05043692,0.12372308,0.029277705,0.14895006,0.055390522,0.019928236,-0.07023791,-0.11059163,0.11929699,0.03912348,0.026079562,0.14475046,0.036256764,-0.116780214,-0.070315965,-0.10839664,-0.074052274,0.05563846,-0.12552594,-0.07734921,0.012540574,-0.079318255,-0.045725416
0.0005905639,0.00041379879,0.00018841356,0.00021215857,0.00013013436,0.00029083423,6.224835e-05,-4.209452e-05,-6.193841e-05,-2.8734394e-05,-0.00015669587,-0.00026349907,-0.00035745886,-0.00053041935,-0.0006721649,-0.001579404,-0.0019303027,-0.0021531936,-0.0022859334,-0.0024343962,-0.005393463,-0.00562647,-0.0058122193,-0.0059937835,-0.0061914907,-0.013059029,-0.013905907,-0.014809951,-0.015698304,-0.016508082,-0.034705605,-0.036759786,-0.037914522,-0.038324933,-0.038150277,-0.07441023,-0.069832966,-0.06434386,-0.05868312,-0.053206854,-0.09130749,-0.07397143,-0.059947513,-0.04868924,-0.039630104,-0.057929024,-0.03797926,-0.02451051,-0.015181704,-0.008610786,-0.004131688,0.0060857227,0.011620332,0.014611738,0.016142253,0.03350736,0.033302605,0.031864192,0.02997939,0.027996551,0.049100153,0.043229904,0.037872788,0.033173375,0.029140687,0.046218533,0.036967985,0.029299784,0.023297317,0.018648265,0.025319057,0.017720634,0.012610595,0.00934512,0.007263996,0.008943479,0.0076421713,0.0069776815,0.0065980405,0.00634834,0.00966666,0.009725727,0.009355116,0.008717726,0.008084363,0.0134517215,0.012503939
0.00097142044,-0.00019383627,0.00016376033,0.00011339105,1.5030702e-05,0.00012964937,-4.7639034e-05,-9.546071e-05,-5.9888465e-05,0.00011603828,-4.9455535e-05,4.4417655e-05,7.9314355e-05,0.00016078012,0.00011229978,-0.00029569544,-0.00033922074,-0.00034025672,-0.0003333476,-0.00037964183,-0.0005358186,-0.00065262103,-0.0007436807,-0.00083094666,-0.0009152345,-0.001862508,-0.0020466777,-0.0021252518,-0.0021154098,-0.0020287943,-0.0035947887,-0.002897457,-0.0022575634,-0.0017172011,-0.0012925204,-0.001688635,-0.0012899416,-0.0012135439,-0.0012979074,-0.0014398659,-0.003291119,-0.0035949945,-0.0035070092,-0.0031832934,-0.0027344115,-0.0041976795,-0.0024179353,-0.0010060095,-3.513568e-05,0.00051859143,0.0014679396,0.0011791053,0.0002488105,-0.00082945667,-0.0018476142,-0.005791622,-0.007555857,-0.008115483,-0.007835482,-0.0070666517,-0.011060925,-0.0070512122,-0.0038968208,-0.0017407726,-0.00041788863,0.00055548066,0.00028697698,-0.001503396,-0.0034003544,-0.004895965,-0.010494156,-0.009824162,-0.005922258,-0.00018651428,0.006183573,0.03309995,0.051199898,0.063380264,0.06954195,0.0707488,0.12974781,0.10155038,0.06607321,0.029950313,-0.004028417,-0.10261582,-0.18908155
-0.00030274616,-0.00036792358,-0.00028412603,-0.00028619752,-0.0002901029,-0.000262969,-0.00027803433,-0.00023791286,-0.00014670819,8.719816e-05,-0.00021734508,-6.2817635e-06,0.00015511306,0.00010342315,5.8480106e-05,0.00023364447,0.0003671529,0.0005521991,0.000701163,0.0007624995,0.0013823475,0.0013865151,0.0013099556,0.0012017388,0.0010877517,0.0018962651,0.0016832864,0.0015250413,0.0014143148,0.0013371794,0.0028765737,0.0029296922,0.0029745183,0.0029888595,0.0029749132,0.005192723,0.0050966763,0.0049401606,0.0047678947,0.0046052425,0.008539127,0.008271617,0.0080798585,0.007955624,0.007889244,0.01574851,0.016008338,0.016220406,0.016322998,0.01636196,0.03227609,0.031961605,0.031255383,0.030432517,0.029555831,0.056346864,0.052840754,0.04955219,0.046569027,0.043876253,0.08169419,0.073129214,0.06600944,0.06004135,0.054897077,0.098873116,0.084126055,0.07283685,0.06392014,0.056670856,0.09902525,0.08084782,0.067952394,0.058275312,0.0507327,0.08748871,0.06911551,0.05620089,0.04658456,0.039091475,0.06402628,0.046258528,0.03438911,0.026214873,0.020396577,0.030740988,0.019812994
