0,1,2,3,4,5,6,7,8,9,10,11,12,13,14,15,16,17,18,19,20,21,22,23,24,25,26,27,28,29,30,31,32,33,34,35,36,37,38,39,40,41,42,43,44,45,46,47,48,49,50,51,52,53,54,55,56,57,58,59,60,61,62,63,64,65,66,67,68,69,70,71,72,73,74,75,76,77,78,79,80,81,82,83,84,85,86,87,88,89,90,91,92,93,94,95,96,97,98,99,100,101,102,103,104,105,106,107,108,109,110,111,112,113,114,115,116,117,118,119,120,121,122,123,124,125,126,127,128,129,130,131,132,133,134,135,136,137,138,139,140,141,142,143,144,145,146,147,148,149,150,151,152,153,154,155,156,157,158,159,160,161,162,163,164,165,166,167,168,169,170,171,172,173,174,175,176,177,178,179,180,181,182,183,184,185,186,187,188,189,190,191,192,193,194,195,196,197,198,199,200,201,202,203,204,205,206,207,208,209,210,211,212,213,214,215,216,217,218,219,220,221,222,223,224,225,226,227,228,229,230,231,232,233,234,235,236,237,238,239,240,241,242,243,244,245,246,247,248,249,250,251,252,253,254,255
0.14445935,0.096938714,-0.26148185,-0.0005991812,-1.4941169,-0.12449556,-0.14253859,0.4528472,-3.0019515,-0.06674894,0.055702604,-0.08734454,-0.12194183,0.06999439,0.28711158,0.116186865,0.16096723,0.3401317,-0.18598776,0.09806577,0.20451136,0.16355333,0.009619602,0.033172704,0.13660428,0.55410355,0.26418334,0.22493224,0.23093952,-0.11701944,0.2821371,0.15812802,0.44101676,0.32676354,-0.016966283,-0.069491066,-0.00912483,0.5902799,-0.038961913,-0.056255456,0.64993125,0.57207483,0.109238446,-0.22059351,-1.3275945,0.38640353,0.0008936125,-3.8847587,0.1920276,0.23987968,0.3619613,-0.09331134,-0.073674396,0.4437406,0.48483634,-0.08819582,-0.10780066,-0.18644965,-0.044890437,-0.0076298313,0.4002709,0.1568705,0.947418,0.161242,0.48454946,-0.12670128,0.41962463,0.21448116,-0.4570601,0.06543954,0.015119497,0.0035077448,0.16058296,-0.08337039,0.3728738,0.3206377,0.019403435,-0.66703504,0.014958084,0.3228171,-1.6517701,-0.16070178,-0.035064515,-0.09701788,0.31814465,-4.0602074,0.42527246,-0.7920166,-0.20828715,0.0018811686,0.18051934,-0.04924334,0.42927098,0.08481659,-0.041832205,0.19022734,0.27443296,-0.096371114,0.0034553641,0.17846325,-0.020677222,0.12002825,0.44775108,0.18158872,0.20524761,0.71691906,0.012371605,0.36292478,-0.08224252,0.21139391,0.3097172,1.1906245,0.44094017,-0.048214093,0.07744251,0.18146512,-0.1323497,0.18286017,-0.0017684762,0.24299993,0.08947082,-0.101884514,0.2061863,0.26300433,0.83971125,0.14383176,0.3186384,0.7206384,-0.5494204,0.2556333,-0.3511959,0.24887097,0.0010426394,0.18802464,0.42031488,0.35869873,0.048048824,0.14892139,-0.544776,0.0018298146,0.39735037,-0.63060856,0.58338714,0.29212436,0.31422618,-0.24987464,0.08108175,-0.051125973,0.15456368,0.24470177,-0.12365104,0.19035521,-1.9229417,0.4398142,0.02276746,0.12695523,0.6230248,0.13781795,0.16728735,-0.08444592,-0.027024155,-2.217418,0.07886023,0.057785816,0.5730653,0.085857645,-0.8002764,0.5680678,0.4337699,0.5124685,0.25048894,-0.011154503,-0.12690844,0.23384224,-0.13911438,0.043067,-0.06488498,0.3981041,-0.23936838,-0.284666,-0.00712166,-0.14164846,0.4872202,-0.052576922,0.003544016,-0.76070327,0.16696385,-0.0019284344,-1.3611039,0.07197256,0.3738302,0.25936234,0.1631266,0.053129803,-0.009272404,0.66636276,0.38656616,-0.021569483,0.0040685395,0.2919741,0.26876217,0.04426341,0.053147614,-0.10072046,-2.9731382e-06,-0.41381934,0.09138542,-0.7624387,0.30746415,-0.0027082928,-7.8023043,0.17024082,-0.61192083,-0.0037138984,0.28169882,-0.02051141,0.2749468,-0.050882064,0.13298431,-0.03578193,-0.14605859,-0.7781586,0.15019003,0.053787038,0.09704375,0.262542,-0.12308875,0.56365705,-0.048248943,0.3326155,0.113783866,-0.0714033,-0.70265543,0.24630007,0.8219488,-0.06328254,0.18510388,0.2240719,-0.06969363,-1.9395802,0.22317386,0.04764634,0.85996926,0.2907525,0.14576274,-2.5876212,-0.10789158,0.01440572,-2.6333625,0.0028422216,0.18007219,0.7898651,-0.1332775,-0.027199756,-0.37693202,-0.023945672
0.1403044,0.064748734,-0.2646052,-0.0010226632,-1.4311404,-0.24317676,-0.06982647,0.4374504,-3.0667078,-0.14633602,0.0903568,-0.014197245,0.20738386,0.09400636,-2.2101424,0.10040544,0.18161365,-0.39338216,0.3138629,0.15328014,0.19465972,0.6615832,-0.0032885082,0.02777048,0.13662513,-0.6336501,0.23539612,0.1780095,0.22609174,-0.11663319,-0.022715123,0.14108963,0.40787935,-0.08475151,0.026856482,-0.047686882,0.011734292,0.58091015,-0.053514317,-0.06161666,0.08607641,-0.94634694,0.10921817,-0.24878044,0.06795282,0.40697765,0.0030131715,0.94123447,0.2084643,0.23331662,0.3884251,-0.0899968,-0.05780392,0.4233896,0.46182102,-0.08724087,0.018636882,-0.17064898,0.50497144,-0.008225857,0.41070193,-0.12924781,-7.7645807,0.3640512,0.38761088,0.30131117,-0.043039124,0.19719656,0.3246596,0.07453474,-0.009873348,0.0031932676,0.15838644,-0.07687604,0.069353476,0.2719967,0.026673736,-0.37149245,0.0488687,-1.1772434,0.21418254,-0.11135383,-0.0560651,0.640228,0.017817529,1.0984658,0.40728727,0.1559556,-0.20889805,0.35422847,0.14260566,0.02654567,-0.30905887,0.09077487,0.03131917,0.20449978,0.28507593,0.045941025,0.010416532,0.18189469,0.5285261,0.12876454,0.43753543,0.14183341,0.21855207,-1.9216826,0.00051872246,0.35724506,-0.085862726,0.47961634,-0.018062942,-4.5194016,-0.5899988,0.034540534,0.07889118,0.18062808,-0.04540055,-1.1767731,-0.0053661377,0.31821746,0.08813501,-0.1000039,0.20866871,0.23779887,-1.8645775,0.15589912,0.28589994,-2.4960217,0.55160147,0.005389925,0.9350559,0.24456903,0.00373367,0.19069393,0.43236092,-0.5061493,-0.11390185,0.13676688,0.90176743,0.2627532,0.5145777,0.14244208,0.21048442,-0.14529759,0.3097642,-0.2841296,0.07979149,-0.009534733,0.16424973,-0.37725222,-0.119897775,0.21263243,-2.0136678,0.4089234,0.013690592,0.12743595,-0.16718826,0.13574632,0.16565719,-0.06488803,0.6582564,0.4722954,0.096417546,-0.02547711,-0.1397943,-0.506363,0.5383886,-0.0115658855,0.5150296,-0.06857009,0.24524784,-0.1475761,-0.12838013,0.08608502,0.42738903,-0.060169708,0.0009379641,-1.1811616,0.12857544,0.016444005,-0.15217145,-0.1638509,0.47836018,-0.0341957,0.4002584,0.4425231,0.15917996,-0.0011079911,0.71219903,-0.112280324,-0.29142615,0.24527837,0.1571153,-0.09023499,-0.01665985,0.643811,0.43260953,-0.025285712,-0.69435316,0.2847477,0.25875622,0.06759048,0.5261787,-0.033531755,0.09332752,-0.35423225,-0.15095723,-0.78743166,0.31690806,0.003263395,1.1240375,0.1762901,-0.6325979,-0.054169472,-0.00676452,-0.044143155,-0.047232978,-0.059151053,0.104513206,0.49003017,-0.01426273,0.28183213,0.15147814,0.08692236,0.10105121,0.26938716,0.08227034,0.5981369,-0.055960383,0.3211951,0.096501045,0.03420791,-0.7493545,0.2470077,0.60002434,0.28462166,0.18558311,0.20594461,-0.04369582,0.6384596,0.21625146,0.045824107,-0.6492264,0.28920087,0.14678358,0.4022224,0.7065119,0.4460447,0.18309514,0.19689712,0.17621924,0.020470468,0.0140067935,-0.024382483,0.43125737,0.37496343
-0.005982552,-2.2919018,-0.039204694,0.001182186,-0.1323423,-0.05641199,-0.10743625,-0.26379547,-0.05062095,-0.14781594,-0.41635418,-0.108734876,-0.08558439,-0.37900355,0.13592444,-0.23571795,-0.3606279,0.32295048,0.038729988,-0.12626973,0.101293996,0.19852605,-0.002793208,-0.04702156,-0.010760234,0.08719529,0.12189749,-0.29129893,0.1058553,0.010470092,0.5774277,0.13474542,-1.1187693,0.53719646,-2.7844672,-0.03267082,-0.10528525,-0.47652912,0.24883115,0.011794532,-2.645573,-0.31390128,-0.25962412,-0.69913536,-0.22703812,-0.94376695,-0.35236108,0.45684788,-0.14021441,-0.28728658,-0.7695061,-0.26033396,-0.055296905,-1.9466377,-1.277472,0.10588664,-0.17281155,0.20436305,0.12590075,-0.5318879,0.26078248,0.10332236,-0.023880102,-2.6707447,-2.3770404,-1.063101,-0.63209987,0.09385272,-0.9053445,-0.43271077,0.044023626,0.0012891165,0.47013047,0.06942439,-0.053989608,0.122999154,-0.15424868,-0.018837359,-0.21678685,0.25799006,-0.7546279,-0.12016935,-0.1595664,0.056734588,-0.0038857246,-0.058326215,-0.08104525,-0.5090244,-0.11841815,0.07425982,-1.615571,-0.08711448,-0.31292444,0.093270525,-1.0974942,-0.4942789,-0.94542646,-0.10652211,-0.009491941,-0.6017131,-0.015180283,-0.13527237,-1.397372,-0.65869963,-0.01121766,0.29737,-0.0059883264,0.13509066,0.20822303,-0.33895016,0.40646797,-0.021129731,0.97843647,-0.08761411,-0.18534492,-0.041144017,-0.005556633,0.06458469,0.002391918,0.012055353,0.053557917,-0.10146733,-0.38494954,-0.92000127,0.029419962,-0.13431266,-0.7744885,0.54302025,-1.3295627,0.48332965,-2.7079666,0.115154885,-0.79213667,-0.31269324,0.1788035,0.22969495,-0.035435222,-0.30121547,-1.2350209,0.19272733,-0.28541636,-2.431774,-2.3397844,0.06326388,-0.60834867,-2.3449073,-0.45017478,-0.5702855,0.019030515,0.20844667,-0.043326713,-0.20753656,-0.114517465,-1.9368268,-0.008405384,-0.10934018,-2.2811694,0.073017366,-0.034735214,0.021744654,-0.28015086,-0.7609822,-0.32129732,0.30439195,-1.6350893,-0.009305539,0.4513955,-1.6265488,-0.75905424,-0.3612557,-0.52191556,-0.13612531,0.0068373885,-1.3355447,0.00882784,-0.0013550546,-0.56783044,-0.9993477,0.12558134,-0.15422703,0.04991759,0.031860463,0.060955897,-0.07757527,-0.03257904,-2.8035448,-0.36549914,-1.7854977,-0.58759886,0.096715644,0.18311518,-0.45810694,-0.1754437,0.0044159945,0.030251933,-1.9347305,0.24469416,0.009832634,-2.4619398,-0.538289,-0.94476724,-0.42557627,0.018799433,0.023448363,-0.30987567,0.014819691,-0.15230659,-0.13179345,0.11389011,-0.0012364478,-0.027682174,-0.054100104,-0.37460384,-0.93569344,-0.54092306,-0.79932034,0.02729319,-0.21822517,0.17914748,-0.020743018,-0.123074576,-0.2705562,-0.13953812,0.5342792,-0.088223465,-0.39760798,-0.106184684,-2.1658213,-0.21899003,-0.024919417,0.12750013,0.000665769,-0.43782085,-1.2628126,-1.6233546,0.06402867,-0.29675376,-0.12944502,0.31546888,-0.50998473,-0.38417697,-0.37240216,0.16735427,0.11111582,0.027346054,-0.2813874,0.122541286,0.022753969,-1.3513759,-0.004955745,-0.2162952,0.44353417,-0.036286063,-0.0019820447,-0.89689106,-0.066828236
-0.008326142,-2.2750723,-0.03899853,0.0016626955,-0.10327636,-0.1393809,0.08255788,-0.22046651,-0.05959159,-0.14026508,-0.33617195,-0.0111292,-0.65860254,-0.37625474,-1.5517522,-0.2494317,-0.6231694,0.14945394,-1.3200036,-0.6638363,0.100441396,-2.439672,-2.716921,-0.06101614,-0.016587619,-2.4771674,0.12616321,-0.28265014,0.09768511,0.0032286542,-1.0604048,0.11716371,-1.0951936,-0.90136766,-0.012963437,-0.08275876,-0.05348347,-0.46470234,0.2407176,-0.08201267,0.11739278,0.3223425,-0.2608565,-0.75973016,0.060367174,-0.9497126,-0.3285389,-0.6932407,-0.11728703,-0.27470607,-0.7638932,-0.26633877,-0.03239578,-1.9652891,-1.2206509,0.10950975,-0.06600023,0.17442147,-0.47355226,-0.52868515,0.24563281,-0.116141684,-0.021565799,-0.08987486,-0.15587327,0.66740257,0.07520159,0.12931176,0.28564256,-0.3233629,-1.1982006,-0.0017756305,0.4737238,0.05833326,-2.5597634,0.0694751,-0.14172216,-0.014975067,-0.21927783,-2.1962578,0.07136027,-0.053498972,-0.23661777,0.05782999,-0.017358541,0.0052507226,-0.054324843,0.032118887,-0.12040567,-1.2989542,-0.12594879,-0.14728644,0.15445697,0.098845914,0.061492294,-0.47998598,-1.0765775,-0.03314864,-0.006067111,-0.6027806,0.118664175,-0.14855966,-1.4498116,-0.6488252,-0.020323535,-0.3990231,-0.55843794,0.11903949,0.17105772,-0.12607345,-0.026040444,-0.069367416,-1.4831091,-0.033114426,-0.46572283,-0.048742477,-0.0711166,-0.6783017,-0.0035323636,-1.424303,0.037204217,-0.09426166,-0.5539948,-0.43713295,-0.16200747,-0.16420847,-0.79795104,-0.3493204,0.03376603,-0.009151018,-0.43889347,0.117979854,-0.7901001,-0.37214446,0.17801036,-1.351276,-0.08729491,-0.27302346,0.24010204,-2.499915,-0.67466235,-0.015850432,0.20342264,0.025643887,-0.60180104,-2.2066672,-0.4572141,-0.49658024,0.00812926,-0.7139255,-0.042718045,-0.18114966,-0.12829447,-2.027317,0.033382285,-0.100643575,-0.3026542,0.07025935,-0.020373458,0.03656112,-2.24802,-0.8605361,-0.3290732,-0.028356753,-0.19418655,-1.2963942,-0.50376093,0.036577243,-0.05326278,0.049391363,-0.48448128,-0.040101767,0.007946609,-0.015067838,0.21740295,-0.03611873,0.05800089,0.41431752,-0.3584558,-0.017121406,-0.04645718,0.004714877,0.069741,-0.08871289,-0.007519698,0.8357654,-0.36094242,-1.7803069,0.3918737,-0.31917772,-0.08393493,-0.4284078,-0.16614251,-0.12784556,0.0322484,-2.0852084,0.24060714,0.0042563956,-0.025920153,-0.5005345,-0.97045743,-0.3472629,-2.5676486,-0.08768413,-0.40928242,0.038866878,-0.021591574,-0.15572093,0.11175197,0.0026752807,-0.020435166,-0.055161174,-0.38384104,-0.99468505,0.09644738,-0.8044562,-0.033857472,-0.16385864,0.14280751,-2.0810192,0.016108287,-0.75393134,-0.13458815,-0.5728728,-0.080791935,-0.37130108,-0.12809484,-2.2557087,-0.21945211,-0.028729344,0.13336769,-0.0015161783,-0.40773314,0.09216801,-2.112618,-0.6307932,-0.31927773,-0.13416524,0.30109394,0.41363066,-0.35066274,-0.28725868,0.116298996,0.10956261,0.022153592,0.111329846,0.4468485,0.15660149,0.15396671,0.3987342,-0.20651168,-1.5474235,-0.09279051,-0.02838731,0.7938674,0.762288
-3.9344246,1.7049181,2.4530628,-0.00038795196,0.5828816,0.42893165,-0.12646194,-4.2530823,0.1974457,-0.023230895,0.2944572,-0.11409454,-0.073266946,1.2362484,0.040563535,-0.08948561,-1.450695,1.2607539,0.07822653,0.44228217,0.73691285,1.1611723,0.0052272286,0.18111831,-6.039289,1.2031521,-1.444894,1.3351512,0.6958593,-3.5435474,0.028932132,-0.6119163,1.3047961,0.5478165,0.020953145,-0.07320954,-0.024914503,-0.46045178,-0.009893329,0.13340253,0.20634264,0.09166335,0.015824592,2.2825246,0.90342,1.2115996,-0.06512389,0.47731295,1.9218876,-0.9433162,1.1526654,-0.1793336,-0.14226077,-1.9713992,1.0200568,0.7925858,0.061620157,1.6107678,0.76032645,-0.035797913,1.8251529,0.40240988,0.13114722,0.9635421,0.14378202,0.51279366,0.05777385,0.78498566,0.24319752,0.18814513,0.012312384,0.007678514,-3.3974886,0.15546222,0.663122,-0.89874613,0.16785485,0.23418583,0.9873134,0.81682765,0.008045261,-0.085589945,1.7034205,-0.8794259,-0.88768333,0.18590859,-1.9684099,-0.016651781,-0.70075953,0.41810367,-1.3082722,-0.245669,-1.2270494,1.4408726,0.052221484,-4.1901727,-0.1884035,-0.08488356,1.1062722,0.031515013,-1.2041488,-0.4362946,0.2343288,1.5173825,-0.757277,0.030324461,0.050600745,1.170302,2.894134,1.3732427,-0.18273282,0.22739601,0.028258992,-0.088468194,0.21983695,2.730209,-0.079226784,0.03169141,-0.009936135,0.6651296,1.3383439,1.078613,-1.4514567,-0.30146587,0.55254406,-0.6167282,0.21192487,0.58894986,0.8684804,0.010301711,0.72970265,0.77746624,-0.019101512,-1.2137762,1.5236318,0.3219891,-0.10997721,-0.6190365,-1.4689145,0.3042493,-0.5694458,0.95822966,1.3442731,0.7083201,0.9524296,1.0088563,0.28637943,-1.3321111,-0.2841214,0.21540742,-0.35340986,-0.17434502,0.42106038,1.9617214,0.32793894,-2.209006,0.5013527,0.580952,1.051895,-0.14126351,1.4749532,1.2985439,-6.2513113,-0.04593194,1.6437368,0.43075663,0.7469836,0.15283388,-0.22942297,0.2319535,-0.04866182,-0.016895339,-0.11108805,-0.9417344,0.11165024,-0.10386681,0.03383806,0.47366965,0.03544369,-0.042229783,-0.13457698,-1.5280894,-1.2283697,0.74918467,-0.95409584,1.1642783,0.014863114,-0.06567955,0.24867706,0.028532725,0.03758756,0.83912176,-2.9235682,-0.081910305,0.016529404,0.30591503,1.6595746,-0.1787401,0.9594714,0.8892653,0.07033392,0.19157843,-0.06844822,0.060409606,0.2198728,0.80765575,0.056977183,0.66658205,0.9063396,-0.003698733,0.13886832,-9.809903,1.0906624,2.2300644,0.35788673,-0.011042768,-0.9807562,0.4931392,-0.6175975,0.6249201,-0.0869801,-0.3411754,-2.5735915,0.07850765,-1.8942082,0.996473,-0.0917132,-6.149629,-0.2483535,1.3761646,0.9910575,-0.01643078,1.3912147,0.47437954,0.062532865,0.30482632,-1.0554149,-1.5497171,0.37545666,0.56271267,0.77895325,0.14644498,-0.49422672,1.2088904,-7.377023,0.44796622,0.13625476,-1.0611562,0.07585132,0.017660065,-3.4681427,-0.5142195,0.04712279,0.6407243,-0.012312107,-0.4314607
1.2713174,0.19451568,-0.8728112,0.0015203125,1.5859774,4.4753485,-0.09665842,-3.6535492,0.34294233,0.111708045,0.57157004,0.033351004,-0.57051307,6.9039216,-0.44168064,-0.083911575,-67.15452,0.6902326,0.0942805,2.2305174,2.241229,2.456067,-0.09582717,-44.897118,1.0076171,2.047694,8.541548,3.430422,2.6045012,-2.523653,0.50637823,-5.820024,3.116937,-0.3144741,-0.08969591,0.11799419,0.051933616,0.7145043,-0.044795588,0.016627245,1.1117129,0.85753304,0.08718161,6.2645464,3.6218133,4.130623,-0.35437837,0.46954042,-13.551304,-1.5057058,3.5853338,-1.0651987,0.069057375,-3.7569351,4.2713046,5.938545,-0.06212446,0.13896184,3.519461,-0.16638012,5.458568,0.7881875,0.41531748,1.3762443,1.095975,0.5658325,-0.058875572,-2.7741568,0.14179198,0.7663809,-0.21787623,0.00088474166,-4.6253247,10.517505,0.8964172,-5.083371,0.7060734,1.0984342,6.064085,2.144088,-0.21683076,0.019805755,6.790276,-0.4662663,-9.318903,0.44606227,-7.013562,-0.5242839,-2.2748103,2.2217615,-39.938572,0.30983526,-2.6268744,4.3607707,0.012214133,-9.79973,-0.6794124,0.12436047,0.018001908,0.1781514,-5.1887875,-20.414124,1.2957393,6.698695,-15.310665,-0.10983219,0.09375348,3.73056,6.767977,4.083662,2.9825108,0.8002262,0.6243508,-0.13483046,0.7862198,1.8827531,-0.10101873,-0.30893922,-0.1264059,2.5262551,3.2421155,1.7625072,-33.72555,-0.81355965,2.0291247,-34.34034,-15.71581,1.5338371,1.2174418,-0.043766744,0.54633826,2.525437,-0.04124975,-23.032284,4.5972404,0.2622597,0.1289576,-9.942134,1.442123,4.534064,-2.9262307,5.906925,3.0895236,2.428827,3.7468522,1.7310454,0.42099646,7.4821205,-8.239343,0.45421943,-1.0486,-13.164773,1.1687254,2.3117318,2.1463115,-4.9461393,-0.252021,1.5601325,-9.578613,0.014393886,3.578377,6.9182568,-22.255186,-0.52269435,2.6158988,10.849722,1.4220486,0.7359625,-6.930481,1.3385558,0.0407961,-0.109770894,-0.027790742,-17.130484,0.37279359,0.8263767,-0.31376594,1.7611313,-0.59043294,7.857851,-0.1351503,7.1024647,0.8174705,-0.94140804,-8.127855,1.0005997,0.25758222,-0.2327031,0.52257514,-0.5783273,0.19638252,3.407179,-6.2719107,0.012763446,0.07998063,2.0700045,5.857575,-0.98068756,3.513314,3.3776536,0.40461373,0.57402605,0.29824787,0.018929973,0.48828802,1.8844804,0.10506839,1.3560797,3.0079718,0.084252656,0.38735843,1.1882765,3.3965378,0.91466427,1.7831775,-0.49606046,-3.404914,4.978526,-1.8735316,1.8847382,-0.04713778,-0.3390754,-5.7472634,0.010481269,-4.069065,3.577637,-0.13333823,-16.032148,-1.180061,1.9347816,4.889833,-0.10617904,4.813059,1.4246429,0.8905353,1.590786,-16.661884,6.58704,3.3546324,1.7957988,3.0750334,0.6137025,-1.3275415,4.728628,2.7488863,1.6175939,-0.078361444,-3.8953745,-0.07627843,0.19682868,-7.991177,-0.10115484,-0.099444054,-6.06916,0.15039387,-2.8652875
-0.014248156,0.7411725,0.030670566,-0.7672078,-0.060320914,-0.118902706,-0.11002915,0.13024917,-0.018552685,0.12566954,-0.17772034,-0.12453306,-0.059821162,-0.10225798,-0.031960662,0.038052525,0.46180326,0.025615923,0.0155513305,0.018030057,-0.041131824,0.03836396,-0.03442218,0.34014523,-0.021730876,-0.04419222,-0.1935411,-0.123599194,-0.07514402,0.056605138,0.1092188,-0.05071528,0.0028133553,0.019249637,-0.051015537,0.026655331,0.10441658,0.02957772,-0.026751747,-0.0069131902,0.03030058,0.002791208,0.0016216979,-0.120487325,-0.14309216,-0.030120594,0.024546007,-0.037362494,0.10724165,-0.009740804,-0.06787789,0.018718865,0.056195363,-0.06949564,-0.053910356,-0.11266227,-0.124992184,0.004921622,0.0033091283,0.009901163,-0.16967563,-0.018385045,-0.009031985,0.22033879,-0.10858872,0.09316806,0.024156502,-2.1043508,-0.055210907,-0.006936192,-0.018604126,-2.1421793,0.17030096,-0.06191447,0.24397074,0.12921585,-0.044196166,-0.037598033,-0.17477897,-0.117389,0.0023271905,-0.031054277,-0.026942234,0.03584615,0.08827399,-0.015528512,0.06391421,0.0019984865,0.012202904,-0.01742981,0.19395095,0.01870049,0.034102004,-0.114014536,-0.028281713,0.21430261,0.029194959,-0.10943796,-0.031115104,-0.042041115,0.11569375,0.11400433,-0.06339214,-0.030379174,-2.4761922,-0.0035881118,-0.008155533,-0.07913297,-0.120639004,-0.14167464,-0.15797517,-0.027963564,-0.08648483,-0.10105412,-0.035317045,-0.05417386,0.071724,-0.0028834406,-2.3447793,-0.043776713,-0.08003859,-0.0501873,0.2585116,0.008012745,-0.10131799,0.18076636,0.024673946,-0.031904962,-0.033541255,0.0044383174,0.0045276596,-0.088472284,0.0026071905,0.19983265,-0.08692755,-0.042640325,0.07034978,0.17145745,-0.086433396,0.16173434,0.07615917,-0.22657362,0.056906953,-0.073149,-0.08078469,-0.019270405,0.06300483,-0.017067112,-1.535645,-0.050410353,0.012667175,-4.448553,-0.05337099,0.06812959,-0.036799934,0.08997321,0.15418476,-0.048980545,0.21195333,-0.14841542,-0.02515297,-0.18087201,0.45725825,-0.0018833377,-0.10633902,-0.0064566573,0.011734443,-0.02956495,-0.07369923,-0.02886317,0.0012950316,0.06984492,0.08397771,-0.10184631,-0.02484304,-0.08401398,-0.017877234,-0.07845165,-0.022536289,-0.056825116,-0.01472822,-0.15578747,-0.019047178,-0.039140474,0.13736203,-0.08003972,0.0066595282,-0.010606321,-0.04777799,-0.0066866823,-0.0021270178,-0.08412651,0.1181331,-0.016611803,-0.01365002,-0.03387231,-0.09477183,-0.026455062,-0.092086874,-0.06930962,-0.048467655,0.020532653,-0.15826146,-0.10566876,0.035618536,-0.09944792,-0.028837264,-0.06154518,-0.076179914,-0.8952711,-0.01263056,-0.033429377,-0.08867481,0.22441326,-0.053170063,-0.05785318,0.07463397,1.1277328,0.074910626,0.013988796,0.13452525,0.055220455,0.109153464,0.0051468336,0.08890179,-0.12339386,-0.047065202,0.39529106,0.07037925,-0.09766619,-0.048195016,0.038030162,-0.120509714,0.07278843,-0.05653974,-0.050036997,0.17844687,-0.10064734,-0.02151825,-0.026685905,-0.08921793,-0.04192768,0.065514036,-0.09602711,-0.09476892,-0.086170994,0.060019772,0.10441485,-0.024861792,-0.010197035,0.14151679,0.0444238,0.021617487,0.03951072,0.04384012,0.110662945
0.07838502,-0.021031605,0.039592844,-0.0025563247,0.06746823,-0.8696347,-0.09582717,0.14807491,0.012618249,-0.11683537,-0.019980684,-0.03513553,0.01677078,-0.043738034,0.1939185,0.050381277,0.07234473,-0.013969105,-0.31317028,-0.012777182,-0.31853375,-0.009127646,0.262304,-0.028353844,0.084938966,0.07063805,0.01025369,0.34415874,-0.56188405,-0.13259307,-0.00823145,-0.0017969086,-0.2507344,-0.79136246,0.26548603,-0.07935158,-0.07740603,0.16215204,0.25297529,-0.1451818,0.016826324,-0.04181201,-0.47920936,-0.713626,0.07023306,0.003145821,0.21281697,0.004521377,0.050084613,0.14965598,0.01661613,0.17191984,-0.10528622,0.20996104,-0.034035333,-0.43694612,0.024643797,0.005155773,0.023324948,0.20138049,-4.0854855,-0.01299009,0.0064579826,0.0053055664,0.05794504,-0.947733,0.0023550433,0.018854411,0.07501085,0.00499595,0.1366651,0.0071601355,-0.6779921,-0.028302114,0.0109699,-0.029417751,0.55818576,0.03912784,-0.023895374,-0.017099645,0.17212313,0.02975607,-0.055624876,-0.0085621355,-0.0007377667,0.009742878,-0.072091825,0.17834844,0.16273405,0.010857128,0.063582614,0.038103033,0.028896589,-0.49003226,0.12981714,0.22431444,-0.62146294,-0.040874578,-0.06822297,0.100964226,-0.026846547,0.052595545,0.08401157,-0.11438227,0.06776778,0.034366593,0.039329425,-1.4631363,-0.71701574,0.03949414,-0.00032424057,0.013677256,-0.031094724,-0.073328264,-0.009836355,0.09207265,-0.07768561,0.20084247,0.08357104,0.018840428,-0.2778065,-0.052442964,0.08850144,-2.3600953,0.0327807,0.04737531,0.23607896,-0.46598697,0.033469778,-0.05738613,0.15945844,-0.26854467,0.21580763,0.09778975,-2.382826,0.074358925,-0.10579011,0.12347703,0.0045606345,-0.0060620415,-2.810926,0.016991947,0.004321584,-0.08763087,0.023871291,-0.2335634,-0.0030197797,0.0035660032,0.05293928,0.070880406,0.34538653,0.05655742,0.061956905,-0.0010100756,0.35567436,0.26245958,-0.21731038,-0.20384662,-0.046615116,-0.12684537,-0.00026817166,0.09293731,0.1940348,0.027642962,-0.006305976,0.0134072015,-0.13358521,0.01146053,-0.22637618,-0.006949648,-1.4576943,-0.10077703,-0.12899393,0.037921656,-0.118244275,-0.008246073,0.09728128,-1.068543,0.12329173,0.048100457,-0.14637335,0.0958299,-0.007895662,-0.017682394,-0.0006098016,0.0034976513,-0.7886367,0.3472345,-0.0053692614,0.10650768,-0.06554547,0.030207222,0.2304382,-0.122719966,-1.7292022,-0.7961438,0.0058266586,-0.38203722,0.02008362,0.028758658,0.14599942,0.003042425,0.08196254,-0.078870125,0.006053432,-0.2004375,-0.09898033,0.06893744,-1.0029246,0.10394304,0.0056332103,0.09012765,0.060440034,0.0069928137,0.021745117,-0.5156866,-0.007913748,-0.0026012408,-0.044830613,0.010909809,-0.07296541,-0.015814494,0.25103566,0.012418886,0.26815295,0.09318238,-0.048950754,0.16997321,0.26940486,-0.06966491,-0.09692375,-0.14354408,0.09683103,-0.00490737,0.017867671,0.013388372,0.10078094,-0.15055978,0.08477537,-0.37003803,0.044493068,0.01805593,-0.060086478,-0.029883325,-0.3196125,0.021836594,-0.02703161,-0.030238358,0.16160506,-0.083332464,0.22429919,-0.09801154,-0.029328227,0.12635489,-0.0012140969,-0.014423021
