0
0.21740955
0.2574005
0.344374
-0.55523133
0.173399
-0.15346383
-0.022929259
0.4677008
0.0
0.18594263
0.41077983
0.30736938
0.068704784
0.27999607
0.3338413
0.5431181
0.61625457
-0.060097747
-0.24919616
0.3570379
-0.42772245
0.648809
0.74005723
0.0
-0.12134573
-0.21900685
0.031997416
0.42490602
0.729851
-0.01653047
-0.0042158184
-0.078046426
0.35505077
0.0
0.33925387
-0.04970647
0.36630806
-0.13639873
-0.029619865
0.3465402
0.19137399
0.21647808
0.17927797
0.35555315
0.018180039
0.752748
-0.4106242
0.43465626
-0.0037375623
0.3672705
0.7665735
-0.1167439
0.26071924
-0.33460325
0.4308061
-0.052675765
0.1284845
0.38316265
0.08989974
-0.037349112
0.21116374
0.61883557
0.55238265
0.0051580947
0.4130095
0.28170153
0.28627068
-0.29301903
-0.55011743
0.0
0.12710524
0.21593574
0.47245726
0.1733636
-0.017359786
0.19194673
-0.080213524
-0.6344352
-0.04427791
-0.18834646
0.36265898
0.21726508
-0.006009859
0.11235445
0.0
0.06829426
0.697489
0.18712425
-0.7316504
-0.04657729
0.33040148
-0.035497837
-0.20595329
-0.0020822438
0.79666424
0.17392503
-0.008955523
0.28111115
-0.05293941
0.006613753
0.37760368
0.32427397
0.3960985
-0.059727263
0.009728535
0.33575818
-0.1512227
0.2648357
-0.14567271
-0.18538336
-0.008027224
0.2918054
0.5914641
-0.07421853
-0.18261078
-0.58595675
0.0
0.1725198
0.19734336
0.15535685
0.013432174
-0.43290442
-0.62748736
0.6731269
0.087913536
0.7359363
0.6579651
-0.6684418
-0.349168
0.4277594
0.35128295
0.44033808
-0.46293628
-0.18072589
-0.1798585
-0.22885136
-0.5866486
-0.085501514
-0.062145717
0.38724795
-0.015534951
-0.5684012
-0.015184371
-0.0005489986
0.047462843
-0.052650817
-0.15364864
0.0
-0.3372198
-0.41602126
0.7024751
0.2904378
-0.27238438
-0.009826556
-0.16573517
-0.0075244536
-0.25435418
0.16681868
0.39276102
-0.012563982
-0.18885325
0.0818621
0.0
0.69235665
-0.02771462
0.37583497
0.11433379
-0.066214
-0.09031615
0.4471974
-0.01940421
0.8632399
-0.32236215
0.56112486
-0.12160268
0.7668132
0.15955105
-0.3473463
-0.30609876
0.18098456
-0.013145758
-0.30745852
-0.24024564
0.69107234
-0.23591885
-0.22910433
0.26781693
-0.47736302
0.4950111
0.44115317
-0.07850347
0.7069185
-0.041823063
-0.089395426
0.582978
0.1631599
0.4927
0.24942128
-0.15555054
0.6423688
0.0
0.1744611
-0.2997126
0.38276827
0.30378917
0.0
-0.07924388
-0.22169869
-0.5135846
0.33727935
0.029572729
0.26058546
0.036064867
-0.03603372
-0.2510319
0.0
0.44011793
-0.668068
-0.46411887
-0.39738807
0.3439621
0.6308661
-0.08821026
0.25859013
-0.0051790946
0.36955997
0.90784687
0.5452334
0.4921779
-0.07700817
-0.3028203
0.0
0.47756246
-0.11276541
-0.17115659
0.29976508
0.19968158
0.0
0.2530297
0.04505077
0.7334836
0.15845472
0.5649196
-0.17232397
-0.01999043
-0.09565171
-0.08364415
0.0
0.56831104
0.18503089
0.78296554
-0.15248111
-0.2066412
-0.60336316
0.46156302
0.1683084
