0
0.04284167
-0.20965888
-0.07210778
0.13209851
-0.03650303
0.2003913
0.12915584
-0.032889646
-0.038057934
-0.029126089
0.05652143
-0.009269837
-0.02048
-0.048770852
-0.07208589
-0.025871143
-0.055217236
-0.030810032
0.23985764
-0.050807435
-0.14218017
0.03437512
-0.11976974
-0.20859171
-0.063754015
-0.037897944
-0.037599724
-0.046510223
-0.01636673
0.2735692
-0.14038225
-0.0195154
-0.19109902
0.18419167
0.13098204
-0.071425326
-0.059399348
-0.04991103
0.43557033
-0.31054956
-0.25331983
-0.048762895
0.31432843
0.22106577
0.2723236
-0.092710584
-0.059966736
-0.031416114
-0.099137634
-0.06507106
0.074296474
-0.040822025
0.14476267
-0.06095678
-0.048407353
-0.04397528
0.10699739
0.1166699
0.42308706
0.13279857
0.25541475
-0.12024007
0.0981917
-0.071114816
0.17358798
0.27693146
-0.35605946
-0.06322751
0.09484279
0.1146866
0.32872954
-0.05794132
-0.076496474
-0.508031
-0.07314227
0.15293022
-0.1784305
-0.01976546
0.3763566
0.36660364
-0.06391198
-0.06935251
-0.0880064
-0.41717103
0.11166162
-0.01297074
-0.023267366
-0.050980613
-0.057765123
-0.048682585
-0.10784072
-0.01689092
0.32154548
0.28435317
-0.07790068
0.031575385
-0.07560873
0.13249461
-0.088461846
0.08575682
0.09923435
-0.008638746
0.17488402
0.122920886
-0.14515479
-0.11079392
0.19715461
-0.042987823
0.07382311
-0.027523506
0.048017506
-0.063299
-0.357055
-0.1026174
0.042973716
-0.11303085
-0.100361265
0.1626886
-0.2804386
0.09358
0.19903003
0.10074707
0.0792366
-0.07546705
-0.055293363
0.25280443
-0.01007336
-0.064669475
