0,1,2,3,4,5,6,7,8,9,10,11,12,13,14,15,16,17,18,19,20,21,22,23,24,25,26,27,28,29,30,31,32,33,34,35,36,37,38,39,40,41,42,43,44,45,46,47,48,49,50,51,52,53,54,55,56,57,58,59,60,61,62,63,64,65,66,67,68,69,70,71,72,73,74,75,76,77,78,79,80,81,82,83,84,85,86,87,88,89,90,91,92,93,94,95,96,97,98,99,100,101,102,103,104,105,106,107,108,109,110,111,112,113,114,115,116,117,118,119,120,121,122,123,124,125,126,127,128,129,130,131,132,133,134,135,136,137,138,139,140,141,142,143,144,145,146,147,148,149,150,151,152,153,154,155,156,157,158,159,160,161,162,163,164,165,166,167,168,169,170,171,172,173,174,175,176,177,178,179,180,181,182,183,184,185,186,187,188,189,190,191,192,193,194,195,196,197,198,199,200,201,202,203,204,205,206,207,208,209,210,211,212,213,214,215,216,217,218,219,220,221,222,223,224,225,226,227,228,229,230,231,232,233,234,235,236,237,238,239,240,241,242,243,244,245,246,247,248,249,250,251,252,253,254,255
0.09411447,-8.444045,-0.012727836,-0.13566118,0.06039687,-0.42241457,0.079410076,-0.16809961,-0.20475718,0.23041156,-0.1277593,0.1726064,-0.07978769,0.3625528,0.14455697,0.089287266,-3.600038,0.06483318,-0.04909976,0.0022188697,-0.06359134,-0.3668263,0.059841454,0.046254568,0.090175554,-0.09955096,0.113319576,0.054953195,0.047569014,-1.5209614,0.012596447,0.27528194,0.10759526,-0.15902252,-1.1765527,-0.00035136376,-0.11167644,0.3547134,0.85410124,-0.0779903,-0.10851458,0.07794497,-0.2042906,0.27544284,-0.033844855,0.66410625,0.12531479,-2.0185013,-0.19553418,0.531734,-0.15645978,0.10800946,0.10039038,0.06296997,-0.0100604445,-0.07850698,-0.0030321006,-0.17080644,0.03875329,0.054200023,0.044522602,0.003098971,0.03475296,0.5622831,0.015725855,0.067625575,0.05609625,1.2289072,0.40699005,0.0418366,0.09402355,-0.1493817,-0.02812806,0.024720872,-0.1596842,-1.7425721,-0.14006913,0.063161954,-0.2283375,0.33107284,0.23934513,-0.0019584592,-1.8443196,-0.007890964,-4.9962287,0.5322718,0.6824704,0.2951414,0.098746575,-0.06041653,0.00481054,0.04882097,-0.009458853,1.2249691,0.20752929,-0.20493852,0.18190047,0.053708613,-2.5040026,-0.07601005,0.024887504,0.04933946,0.025587227,-0.03218601,0.06263578,-14.742869,-3.2523985,0.041476846,0.00039945444,0.072956115,-0.24217927,-0.009400051,0.50826913,-0.08724422,-0.645134,-13.431527,0.05421003,-0.0090396525,-0.32192844,-0.43516642,0.14974745,0.006683289,0.14840545,0.21814643,0.8437081,-0.03385507,0.89549124,-0.24120755,-1.9520999,0.0043521593,-0.029482305,-0.98738587,0.3163319,0.07920424,-0.6333969,0.11603059,0.7066791,-7.9570823,-1.5007187,-0.10617839,0.12513565,1.0844203,-0.9831548,0.031335615,-0.07609429,0.04473537,0.2742377,0.051213425,0.07069514,0.09134387,0.18869674,0.058418006,0.05053726,-1.8414156,-1.0673486,0.6234436,-2.1770623,-0.07711033,-0.052329388,-0.107261404,-0.1180434,-3.771546,0.0244737,-0.5872723,-0.43485487,0.40785033,-0.039074574,0.064622626,-0.030127846,0.16867341,-0.035805393,0.0017316375,0.051715206,0.076050475,-0.034709796,0.06946014,-0.003106026,-1.2788326,0.581745,0.042679887,-0.0945182,-0.215229,-0.09466136,0.08425242,0.2416918,0.03599243,-0.0022679702,-0.000106913554,0.0071638427,0.04194749,-0.27464306,-0.11307868,0.18272936,0.17370063,0.069858976,0.05018743,0.1470028,-0.0715144,0.037661556,-0.0056992606,-0.12978397,0.2364036,0.070125066,0.021591507,-0.06720011,0.7273584,0.8139893,-0.019282568,-4.983755,-4.9229507,0.52007896,0.019586608,-0.047217187,0.12465605,0.067249246,-0.14352149,-0.7485208,-4.1982646,0.18146802,0.1062699,-17.376356,0.030055437,-0.074109875,-0.0801382,0.24970372,-0.020880826,0.020225175,0.5380156,-0.069421545,-0.10528169,-0.020480767,-0.104039885,-0.12150581,-0.75166786,0.06322947,0.06228231,-0.06275738,0.056394678,0.18000202,0.089245364,-3.601229,0.11746191,0.1293799,0.025417374,0.18149947,0.11588881,-2.2950008,0.085653156,1.1202708,-0.032073524,0.67751455,0.16169345,0.054792047,0.01551859,-0.54134035,-0.09382906
0.07167193,-3.5854068,-0.039352495,-0.08955359,0.07222345,-1.9334067,0.05734037,-0.2601772,-0.19341317,0.1234836,-0.13019001,0.15940017,-0.0069753677,-7.015887,0.0411463,-0.028503828,-18.136631,0.023836153,-0.021534123,0.018647294,-0.04231672,-0.34217954,0.028012697,0.0011523345,0.10233188,-1.8059775,0.045619607,0.080094956,0.03881598,-1.3919748,0.038905963,0.23805177,0.016595816,0.06145712,-1.1411697,0.007561077,-0.09546913,-0.0032773097,0.7984117,-0.03428611,-0.13792047,-0.21753189,-0.2134943,0.25393316,0.084907345,0.5656091,-0.02454619,-2.3831637,-0.15412179,-0.000826679,-0.13064519,0.0870638,0.108295895,0.06256702,0.08345977,-0.029397106,0.02906013,-0.14340742,-0.00214475,0.042453986,0.031078326,0.00065741845,0.012071078,0.46521538,-0.021890767,0.07359409,0.046389256,-4.971329,0.043495428,0.006050644,0.13569671,0.031724416,-0.044360183,0.5067987,-0.071108446,-14.215897,-0.07192939,-0.03808763,-0.23466672,-0.3956611,0.1980614,-0.023253158,-2.5886815,-0.038645964,-5.1092677,0.63300294,0.6857281,-0.8244457,0.06877365,-0.115053274,0.0278775,-0.051588636,-0.089353606,-4.2238154,0.36305672,-2.3740945,0.6902005,0.038439646,-0.26411825,-0.110506035,-0.012648575,0.079715595,0.058993813,-0.02910329,0.07496427,-1.441411,-3.2962418,0.036175046,0.05710274,0.04552144,-0.21826188,0.030293167,0.41306007,-0.13627802,-0.608735,-2.0208952,-0.0394237,0.00554985,-0.3696499,-0.406279,0.12471804,0.023858499,0.010055332,0.18356186,-1.0796187,0.013049717,0.11425121,-0.2088684,0.5604278,0.0056973225,0.0009816367,0.49548462,0.2946878,0.06181245,0.86111015,0.124624774,0.73739314,1.0278076,-1.4291544,-0.12753731,0.08189061,0.11984676,-0.8161484,-0.08225018,-0.10485022,0.0029428615,0.2597169,0.0470551,0.033906102,0.07452485,0.03530341,0.038309097,0.0016676165,-0.30790862,0.74770504,0.49816138,-0.10872118,-0.06461814,-0.06012545,-0.13215928,-0.12139212,-9.906451,0.0096641965,-0.5783541,-0.43098468,0.99195033,0.0842196,0.04434693,0.5377249,0.20554192,0.009789404,-0.0022125572,0.04214597,0.011339836,0.01963436,0.056566708,0.0063012457,0.975493,-2.1887784,0.06465671,-0.062310435,-1.530324,-0.041465186,0.039235767,0.21193592,0.18960261,0.050250374,-0.008619423,0.02650899,0.037084132,-2.1565316,-0.15187117,0.12764488,0.16485922,0.055970866,0.07188064,0.11204191,-0.046638135,0.021655617,0.042430703,0.011974512,0.23117056,0.0637115,-0.001780724,-0.03349251,0.77091104,0.0074765743,-0.0062012216,1.2400337,-4.7376523,0.7048095,0.009880307,0.0378818,0.08840846,0.078519695,-0.13429803,1.2286052,-4.192992,0.057278678,0.14842194,-3.3804271,0.06915888,0.2702287,-0.120426156,0.24325438,0.020967092,0.08231752,0.52904475,-0.05243125,-0.07459259,-0.05816268,-0.101899534,-0.11635681,-0.088581145,0.06291341,-0.15051755,-0.08414312,0.08125332,0.181525,0.092386276,-0.8092535,0.013857855,0.08501948,1.052714,0.16364586,0.2760593,-0.29043067,0.0388196,-0.7637979,-0.014969875,-0.3623892,0.16233848,0.04426484,0.33511734,-0.51888704,-0.12982638
1.6590054,-0.11254791,-0.37402382,-0.07679394,-0.23360352,0.52480274,-0.83118176,-1.7422897,1.0738784,1.3379785,0.8124832,-0.6735979,-0.1455061,0.42803508,-0.6756622,-3.30184,0.17809269,-0.2640485,0.2053501,-0.3598426,0.27803195,0.67897856,-0.28619197,-0.3162673,-0.42346212,0.73019147,-0.5460706,-0.4071634,-0.4701001,-0.061288003,-0.15857644,-0.049332622,-0.55875,-0.028874813,-0.48989263,-0.6044602,0.102606095,-2.6294656,1.476668,-0.07851365,0.17469443,0.36533505,0.99170905,-1.0899477,-0.08980884,-1.6411195,-1.3007829,-0.005727259,0.116638355,-2.913049,0.86541986,-0.40824816,-0.27240124,-0.4950116,-0.098335035,-1.0104964,-0.06137459,0.037061874,-0.21212596,-0.63826245,0.17126098,-0.2601923,-0.3328785,-1.6095724,-3.7771547,-0.28205895,-0.26375002,0.5550413,-1.360314,-0.29288355,-0.24760322,0.042831026,0.10363601,0.9444098,-0.47857162,0.18609041,-0.020424427,-0.2859947,-0.99284846,0.970911,-2.1667192,0.3415968,0.021360438,-0.30958045,0.13229424,-1.9655762,-2.9003024,0.81447184,-0.3688228,0.011553142,-0.3546421,-0.7175158,1.1984018,-1.4351577,-0.8695991,0.7772329,0.16073559,-0.29415157,-0.17838153,0.07466918,-0.22815657,-0.3665451,-0.47761667,0.28954375,0.44820672,-0.12767905,0.17799233,-0.38925317,0.39201617,-1.6799214,0.7761228,0.4901603,-2.301216,-0.085989594,0.39148384,-0.121245265,-0.1543073,-0.1290328,0.77163374,1.1361219,0.84564424,-0.2544218,-0.8508105,-0.78805184,-2.9112997,0.03314255,-1.4340689,-2.01374,0.45224032,-0.35039034,-0.20328799,-2.3652322,-0.08016217,-0.46105734,-0.4743295,-0.16468234,1.1348072,-0.5240171,-0.1368177,0.05379359,-0.59632605,-2.3359876,-0.98134565,0.9446171,-0.121938914,-0.43370333,-1.0088103,0.17237344,0.6045143,-0.3417094,-0.71987575,-0.5847378,-0.5113386,-0.058774754,0.047410466,-1.4491427,-0.23257674,0.120877065,1.3362912,0.116639376,0.78101575,0.2695259,0.57937044,0.05726178,1.0829252,-0.29113507,-0.33776316,-0.22630161,0.2659066,-1.1676117,0.33225164,0.65010685,0.8690038,-0.46723276,-0.27350378,-0.3172583,-0.3393905,0.1495657,-1.1695517,0.9552201,-0.18978506,0.2611134,0.10421152,-0.40035406,0.051888995,-0.17100182,-0.077175185,-0.14197262,-0.27098855,-0.19045705,0.65565366,0.25861582,-0.807149,-1.0204018,-0.56745845,0.57996374,-0.633751,1.002125,-0.04821876,-0.14681482,-0.14457534,-0.059635576,-0.15457748,0.011743194,1.6021091,0.020759305,-2.1550417,-0.15804099,0.42010587,0.09854377,0.39049643,-0.141834,-0.039088383,-0.78973144,1.5137799,0.77972364,-0.15790442,0.06573348,-0.8356969,-0.29494005,-0.07367143,-0.32985651,-0.074316956,0.17545952,-0.27327105,-0.12290234,-0.014729958,-0.21374336,0.09598637,0.22816777,-0.032553278,-0.74334085,0.90035385,-0.09379695,0.11904255,-0.37667286,0.14481024,0.8795025,-1.2646677,-0.43647054,0.1796154,-0.17239565,-0.30742806,-0.0019415498,0.75645876,-0.2724116,-0.10630866,-0.118112564,-1.8377293,-3.1379888,-4.352959,0.76078886,-0.31447735,-0.08628811,-0.059564825,0.86154705
1.6923115,0.28387934,-0.15135346,-0.12622584,-0.2250612,-0.04020893,-0.85951585,-0.8275991,1.0697489,1.3359025,0.839669,-0.78234714,-0.14884073,-0.21959142,-0.4885337,-0.46519983,-0.09122191,-0.16844068,0.15439965,-0.37219018,0.26253584,0.7103321,-0.20504951,-0.32123917,-0.5621054,-0.19227587,-0.3374331,-0.28881395,-0.6228498,-0.035788912,-0.16691262,0.0053638807,-0.4002557,-0.16174282,-0.5890321,-0.7144675,0.03652855,-0.04835729,1.6584227,-0.089330435,0.14521846,-1.2608485,0.90029514,-1.1695509,-0.5817313,-1.9697509,-0.29513657,-0.047582563,0.13318211,0.16803247,0.8599962,-0.33509606,-0.2301434,-0.4792886,-0.4046641,-1.3083533,-0.008390537,0.04411478,-0.18798588,-0.35081148,0.13572134,-0.22261912,-0.008464451,-1.38252,-3.7233553,-0.34750143,-0.2844117,-0.7489372,0.84080297,-0.047832284,-0.3965226,0.07835914,0.06798644,-1.4223642,-2.7072785,-0.08641625,-0.08177714,-0.26132974,-0.73276335,0.7568919,-2.1084704,0.29075992,0.047635168,-0.098877214,0.05463057,-1.8642502,-2.8645709,-2.2830994,-0.14547801,0.025211124,-0.4189125,-0.3832938,1.1367406,0.41600114,-0.9425994,-0.24482025,-1.2898345,-0.27628353,0.718131,0.032728646,-0.24685428,-0.3904158,-0.5713307,0.25118226,0.4243169,0.277205,0.14379117,-0.19348018,0.37939435,-1.9166813,0.7935189,0.44821036,-2.3532915,-0.046087578,0.35340723,0.14873934,-0.33159184,-0.156221,0.7541373,1.1175777,0.8512088,-0.45626688,-0.12848634,-0.88103396,0.11381803,0.052476287,0.13559043,-2.1386786,-0.80519944,-0.4423186,-0.20583378,0.93822515,-0.0013707172,-0.40960574,-5.0210967,-0.19732085,1.2673783,0.84053177,-0.17497905,0.101718456,-0.6011658,-0.021301035,-0.7648321,0.853503,-0.09912291,-0.22775203,-1.0532745,0.18351538,0.671031,-0.32069877,-0.37504318,-0.4924458,-0.11842609,0.60704464,-2.5329783,-1.2583376,0.8818753,0.13019316,1.3116919,0.123761296,0.7905173,-0.13287053,0.62986743,0.026270311,1.0647161,-1.2527869,-0.32749456,-0.21923865,-2.8284836,-1.1102655,0.31875095,0.7036075,0.8230862,-0.19369978,-3.4625788,-0.30465358,-0.28566593,-3.1930122,0.2295433,0.87307745,-0.17375986,-0.22261345,0.12651552,-0.2115052,-0.004084196,-0.9483417,-0.21856591,-0.09186564,-0.21414782,-0.19298065,-0.1657416,0.16283025,-0.8234756,-1.1369058,-0.525889,0.59909284,-0.74878466,0.97377235,-0.06151495,-0.12501669,-0.032813866,-0.032251753,-0.20640011,-0.10447248,1.5222528,-0.060745567,-0.18510327,-0.17683215,-1.414579,0.13750099,0.63201445,-0.16134869,-0.4291136,-0.67163557,1.4726105,0.7372875,-2.5607872,0.06704106,-0.28439677,-0.4457453,0.17036527,-0.5830979,-2.8301632,0.22664332,-0.19847393,-0.34970954,-0.5383465,-0.14456573,0.08042606,0.2438946,-0.06044475,-0.9292675,0.9134934,0.10651397,0.14657356,-0.43822291,0.15895563,0.9124585,-1.1558789,-0.3867851,0.11745588,-0.093514055,-0.15416187,-2.7463317,0.8268956,-0.72598135,0.785098,-0.049588583,0.1806774,-0.09323184,-0.82580084,0.7772303,-0.2861194,-2.2631016,-0.070060596,0.83140343
0.9773176,-0.44808045,0.18050273,0.1404577,0.13476573,-0.8825655,0.105323516,-2.7433376,-1.6772757,-2.50229,-0.5398436,1.0836542,0.01418227,-0.73190004,0.47774234,0.006452791,-0.49657747,0.3990782,-14.788658,0.40152907,-17.899857,-1.4398279,0.030067816,0.34760997,0.37169442,-0.27489385,0.13653514,0.23548014,0.3381843,-0.50069135,0.3073869,2.700585,0.5256415,-0.12341298,2.2824762,0.15811673,-3.116854,0.019511068,-1.9905419,-5.126142,-6.770808,-0.74291164,-0.82101995,0.81853133,0.2845857,1.5626514,0.18491624,-0.14103448,-8.866287,-0.022080725,-0.65196013,0.65522707,1.7105362,0.093232885,0.21141669,-0.63462484,-3.6292753,-3.4770794,0.15434246,0.05672747,0.08661726,0.22632489,0.18612613,2.4085064,-0.23690738,0.61385757,0.044245623,0.3200067,0.30831584,0.06995632,0.2631076,-0.029033612,-2.371878,0.3329359,-1.9025981,-0.2861509,-0.067041606,0.08537102,-1.3125298,-0.8478083,0.88458246,-0.12475691,-0.06561983,0.2146488,-0.28579482,1.650855,2.3650932,0.4477225,0.21963267,-3.7901287,0.5452864,0.35016552,0.62954205,0.21670695,3.5324478,-0.606659,1.420861,-0.004086992,-0.7314464,-1.4461615,0.25423694,0.276202,1.5001873,-12.114943,-5.0261817,-0.39025387,-0.9743259,0.07788973,0.97071034,0.27064636,-2.2957363,-1.2524648,1.654616,-0.077727266,-0.67791224,-0.24466766,0.2427848,-6.815559,-1.8409698,-2.4831402,-7.339099,0.31492063,0.18973559,0.7948558,0.16256304,-3.0138044,1.2442921,-0.116079055,-0.009147017,0.08488339,0.17879435,0.7364596,2.461507,-0.056611095,-0.06945661,0.94357073,-1.5471486,-0.56837934,-0.45118508,-9.699603,0.3839857,1.1767926,-0.82449114,-4.628026,0.016744219,0.073383115,1.168638,-0.9901413,0.5407557,0.40285444,0.5421586,0.27880234,0.0515826,-0.5375794,-0.039329104,1.79609,-0.7041812,-4.1223364,-0.6149974,-7.0917478,-3.1452177,-0.5749476,0.31116447,0.2631928,-2.8310096,1.8940191,0.2778079,-5.961168,-0.024267089,0.8417434,-2.2150128,0.68344563,0.8639198,0.10422134,-0.020678008,-6.7972064,-0.70643663,0.1710538,0.009267374,0.903914,-2.0726268,-0.4197442,-5.225923,0.19523434,2.5334208,0.1852088,0.21676971,0.18077008,0.18713495,0.2287093,-0.6092224,-5.7827215,0.13102183,0.71805006,0.39861915,1.0171134,0.49389106,0.04808211,-4.907849,0.34597564,-0.064610496,2.4154558,-0.042163577,-0.022419099,0.77339035,-1.986074,1.4570603,0.24353634,0.043439403,-0.8006864,0.19780491,0.23239495,0.0786104,0.5817578,1.1460142,-0.35825574,0.86193246,-0.6613561,0.16510287,0.55821764,-0.37016803,0.23891814,0.03134837,-13.862676,-2.123343,0.201233,-0.14616702,1.8058048,-2.974483,-8.328465,-0.3980027,-0.68627393,-1.0643796,-0.25656024,-0.95049864,-0.17313921,-17.972183,0.7662248,0.7232589,0.48133162,-0.2202937,0.43998143,0.61766976,1.4383571,1.2956113,0.6841363,-0.5949588,-0.0095751835,0.77258164,-0.018162139,0.11251557,0.925191,0.013616764,0.057102665,-0.3554106,-0.7832323
4.3400855,0.15754306,0.8960105,-0.02615244,0.31849653,-1.5614841,1.1273537,-11.196016,-5.2338386,-3.3714902,-2.2778823,4.348275,-0.012138903,-1.0752044,1.8185908,-0.67397845,-0.09276329,1.8476541,-10.062611,1.7795732,-7.3050323,-6.0730286,0.6909652,1.7485685,1.2101307,-0.87120456,0.7552178,0.9439285,1.473668,0.46623132,1.3207153,8.580627,1.8969325,-0.039575398,5.7325606,0.37909004,-5.4947634,0.56362504,-0.12280675,-25.98773,-6.994944,-5.505647,-3.5183923,3.6930778,0.98927164,5.8833604,1.2181344,1.3555478,-7.182193,1.0062053,-2.5122287,2.5447338,6.071215,0.7820349,0.9567209,-2.2658582,-39.0808,-5.171281,0.6399097,0.98506963,0.49473384,1.3731524,0.6498934,8.430848,-0.80767554,2.1275852,0.6210039,-0.48238853,0.8733859,0.34442338,1.5399059,0.049271226,-15.744139,1.009549,-7.594265,0.3262135,0.070982665,0.33458564,-5.8971653,1.1298487,3.9549868,-2.2414403,-0.6045876,1.152222,-0.5540868,6.4551516,9.135688,1.1890216,1.1983553,-16.826035,2.0656128,1.0648512,2.7785497,1.687252,3.400346,-1.356759,5.0774126,0.5105372,-1.6005765,-29.006575,1.0483439,1.1242788,5.476917,-4.924389,-1.5555009,-0.081867695,-1.5983961,0.5163308,3.9036367,2.087291,-7.889824,-17.228085,6.080871,-0.07636098,-3.37977,0.19309406,0.7594621,-41.655834,-6.8731613,-9.074532,-3.675637,1.3958732,0.7961994,3.2440574,0.62977344,-26.820948,5.2958355,1.6326993,1.997748,0.25773123,1.1280693,0.7463074,8.401447,0.7533723,0.54150134,3.5398827,-0.4582939,-1.9178624,-0.39137158,-9.084247,0.9997861,4.846607,0.5403456,-6.6264176,-0.14688322,0.64644575,4.8361263,-33.281227,2.5670688,1.2449969,2.2839186,0.9546767,0.4790514,-0.843706,-0.10255254,7.7704415,-1.9740541,-5.5195956,-1.2559605,-7.2021627,-7.448685,-0.21106353,1.5692904,-0.03831813,-9.568608,7.495123,0.805047,-59.7562,1.0715871,3.4041903,-27.00317,3.0480587,3.1006148,0.727686,-0.40088502,-69.6685,-1.4653826,0.97351885,2.334085,3.5802758,-6.952345,-1.2147188,-4.6744595,1.0835763,7.8261347,1.1734494,0.8320109,0.9317734,0.7956885,1.2560601,-1.6066178,-6.2907615,1.6147426,2.8175848,1.457809,3.4135158,1.6494823,0.68774796,-43.196293,1.3174324,0.039130457,8.963501,0.19088593,0.043830708,3.3995118,-8.259717,5.9377694,0.79816335,2.0030546,-1.5905379,-2.800271,0.8819895,0.56781286,2.538779,4.592954,-1.6916925,1.9768145,-0.21701336,0.9426979,2.6133382,0.09399326,1.2285273,0.6568159,-6.993176,-21.249113,0.87189263,0.26979902,6.9782796,-5.9218497,-6.7826805,-1.1292638,-2.7163074,-3.366528,-0.5046308,-2.1375272,-0.7578298,-7.1118293,2.9621463,3.373507,2.5105488,-0.66625047,1.7245234,2.3732617,5.844927,4.9338517,2.7660625,-1.8652927,-0.5225677,0.5523698,-0.47060204,1.4362057,2.0026302,0.3280896,0.94295657,-0.7938566,-3.8360806
-0.03161787,-0.041424252,0.0074712266,-0.06864941,-0.2208251,-0.028459657,-0.16456334,0.01992325,0.25344887,0.21154678,-0.0057261884,-0.07234963,0.06432377,0.0019775731,-0.048808623,0.06925694,-0.05860771,-0.042459983,0.34412634,0.07997271,0.15116383,0.23890503,0.07797386,-0.09246009,0.0097725075,0.011982493,-0.11863651,-0.12778386,-0.050357413,-0.18127246,-0.15756235,-0.19832973,-0.13120785,-0.010918857,0.03633632,-0.04278933,0.17547596,0.05115764,-0.16688979,0.5388485,0.2517185,0.14968123,0.050071094,-0.12214459,0.021405265,0.1177585,-0.03356664,-0.48594445,0.20440108,0.19329228,-0.016780779,-0.14947337,0.14274928,-0.008120507,0.03777061,-0.03175287,0.5906605,0.23037224,0.07919844,0.009518468,-7.6341643,0.056897696,-0.17021395,-0.12638263,-0.13487722,-0.023931427,-0.11235699,-0.011142813,-0.09849179,-0.046275493,-0.16980991,-0.16124967,0.38236615,-0.100456655,0.029746678,-0.0029784378,-0.14724588,-0.08444417,-0.09996119,-0.088368244,0.24773467,-3.921384,-0.11426218,-0.06966753,-0.0119556375,-0.050087348,-0.025977572,-0.048449647,-0.05061329,0.35375348,0.06368238,-0.07995384,-0.0107450215,-0.059316024,-0.74083036,0.012363017,-0.12492642,0.018149864,0.06291436,0.38495314,-0.037248917,-0.10268519,-0.09428017,0.17641616,-0.013157614,0.0135297505,0.028184654,0.02170404,-0.05862806,0.14577198,0.12406478,0.118106045,-0.29995626,-0.0470206,-0.030368358,0.019490296,-0.18491301,0.6302378,0.07514245,0.19026281,0.32390484,-0.0549541,-0.013030583,-0.09674317,-0.015718106,0.44756728,-0.11940703,0.11105127,-0.050049946,-0.019604089,-0.15652114,-0.08498577,-0.28949013,-0.013550891,-0.0016129097,-0.15315726,0.015813235,0.0088902,3.342954,0.2788897,0.0035295857,-0.030547999,0.07532132,0.43794367,0.10625628,-0.099319525,-0.3084407,0.19664827,-0.058191493,-0.14461398,-0.11198542,0.019514969,-0.040340416,-0.018627506,-0.087138265,-0.23541284,0.013161428,0.00550637,0.1017586,0.24673498,0.2554285,0.008556391,0.026529316,0.07108265,0.2259716,-0.18595129,-0.07231219,0.77668524,0.12712862,-0.10806781,0.6781315,-0.08526626,-0.061050236,0.013497477,0.13463858,0.97639865,0.12608317,0.065640695,-0.16184714,-0.07906044,0.12655528,-0.13266726,0.13939409,0.046999738,-0.27805102,0.005754821,-0.24423806,0.001477908,0.04476279,-0.03466372,0.09376555,0.1129561,-0.124640055,-0.069560066,-0.12531064,-0.01841533,-0.15178213,0.023806581,0.56376857,-0.09165224,-0.05229055,-0.010454339,0.008652958,0.05191684,0.051794346,0.14725877,0.021686284,0.03815304,-0.16668242,-0.03685809,-0.22405261,-0.19006237,-0.14476657,0.0050301934,-0.093399346,-0.054089066,0.012306089,-0.0019555108,0.024678119,-0.2968343,-0.026617438,-0.10010214,0.11362279,0.25814208,0.019269781,-0.16275303,0.009250846,-0.0640926,0.16916108,0.12447238,3.3627095,-0.15619071,0.16569242,0.039102767,0.055689525,0.003818322,0.26911655,-0.08983679,-0.19063506,0.02040342,0.010946455,-0.20289154,-0.24038032,-0.08507226,-0.11074532,-0.2078051,-0.010288946,-0.16807997,0.019255832,0.1127242,0.1379272,-0.43053132,-0.021483306,0.074629806,2.9380932,-0.04625042
-5.0684395,0.014314942,-0.09004744,-0.12649165,-0.10535203,0.028935384,-0.009240259,0.49727818,-0.44192782,-0.25941584,-0.043696158,-0.055542637,-0.092416115,-0.011637548,-0.0048789633,0.3310196,0.016655425,-0.0066889445,0.27205148,-0.015259694,0.2907787,-0.09333175,-0.028954096,-0.024192916,0.014352169,-0.006065781,-0.0023096227,0.0051804534,-0.027185783,0.07506484,-0.03280042,-0.22293033,0.002851089,-0.07392026,0.02872207,0.030333111,0.24345633,0.04481818,-0.79801434,0.35875136,0.31559452,0.1502029,-0.0897701,0.016117072,-0.032168623,0.14469214,0.026015548,0.13931702,0.3428177,-0.31703395,-0.062921606,-0.04545627,-0.39266685,0.013835814,-0.0049306615,0.35356346,0.2577428,0.28979588,-0.0056035314,0.0531898,0.32401973,-0.04512617,-0.0002086612,0.059334718,0.31886822,-0.059798665,-0.024911132,-0.034055777,0.027228903,-0.009168979,-6.8165806e-05,-0.023401769,0.25552776,-0.0069295727,0.38494435,0.018684821,-0.08225534,0.0005814197,0.4550954,-0.098938055,0.118875146,0.19283213,0.0009587218,-0.059360314,0.019684678,0.067774266,0.25071192,-0.037881643,0.025245015,0.31212798,-0.048380706,-0.05676143,-2.2967787,-0.00090856734,0.037658617,-0.03197206,0.060734823,-0.11103971,-0.0056628813,0.112255484,-0.030998865,0.0007539329,-0.4761263,0.22238746,-0.13782777,-0.01740128,0.0052724164,-0.003933831,-0.6485605,0.04240839,-0.09483821,-0.040722605,0.0390948,-0.06472447,0.063636914,-0.0024792321,0.0030490544,0.31093356,-0.08520304,-0.10742315,-0.2712874,-0.004743047,0.021951621,0.00051221,0.015974408,0.30258393,0.014315199,0.48800698,0.026021458,0.048931573,-0.019199982,-0.029791195,-0.2697131,0.021418987,0.086283244,-0.12651351,-0.423429,-0.071285434,-0.09651701,0.39631096,-0.006671729,0.14940278,0.4474457,-0.21598585,-0.15484142,-0.047748607,-0.10384304,-0.039587148,-0.35565424,-0.052657403,-0.014574193,-0.0018198928,-0.0080036335,0.024897384,-0.024542067,0.007338204,-0.06999027,0.25355798,-0.73157054,0.34313554,-0.0532236,-0.0076437,-0.40218624,0.013770283,-0.09688998,0.001445416,-0.023141209,0.22616073,-0.42335784,0.005677247,-0.1476283,-1.0617527,-1.388882,0.013887038,0.31687057,0.18454054,-0.78155494,0.019109981,0.051315527,-2.425485,0.23526385,-0.00017160665,0.2922174,-0.039697416,-0.3264387,-0.020138407,0.0150088975,-0.0072430545,-0.009030577,-0.019337807,-0.00030322763,0.25847924,0.016569909,0.0107977865,-0.00819378,-0.7836393,0.0033403463,-0.79766136,0.2469202,-0.057823665,-0.14781219,-0.71636045,-0.018771408,-0.1454681,-3.5575533,0.08191054,-0.024827784,-0.068613976,0.056921188,0.055167668,-0.14148141,-0.012728089,-0.035165153,0.026733631,-4.499236,-0.10735664,0.034794297,0.049518887,-0.054166853,-0.12105933,0.0017620914,-0.019175721,0.071384504,0.19895025,0.16346118,-0.010349212,0.0061046793,-0.088640496,0.24247874,0.24315341,-0.22971642,0.35048142,-0.17178956,-0.02545149,-2.4849696,0.055832032,0.2799783,-1.7594415,-0.08881249,-0.08804997,-0.030336706,-0.016268136,-0.03649233,0.10736919,-4.5098867,-0.04651308,-0.021088455,0.007576557,0.022705857,0.270926,0.070177555,-0.11179713,0.0028671178,0.06508083,-0.18359204,-0.09821071
-0.28214592,0.96324986,-0.00508762,-0.056495532,-0.14146157,0.3428518,-0.3625614,1.3677146,0.47149256,-1.0195833,-1.9031204,-0.35119572,0.062214643,0.7503131,-0.2202865,-0.629884,-0.2459622,-0.22632122,0.3687964,-0.2898118,-0.079865284,1.4386318,-0.16872998,-0.23234218,-0.41161197,-0.18543746,-0.28274098,-0.18846044,-0.23394872,-0.3560813,-0.18578467,-0.8928358,-0.28368407,-0.17734207,-0.19481593,-0.29554996,0.6787147,1.0789655,-1.4429559,-0.6780856,0.53403866,-0.83468384,1.4544961,-0.8556775,-0.34283134,1.3943478,-0.054184638,-2.6492956,0.4385729,-0.11431159,0.46296892,-0.4363081,-0.5746457,-0.35966855,-0.2590208,-0.8039623,0.2662377,0.53099775,-0.20900014,-0.27048397,0.24115719,-0.2900285,-0.22563344,-0.9415918,-0.40725553,-0.4365765,-0.10673821,0.44433147,-0.6512831,-0.16095415,-0.4373668,-0.1046467,-1.4912169,-0.84611475,-0.778934,-0.39703628,0.06372422,-0.28666854,0.8220157,0.6860206,1.5116949,1.5518223,0.7804636,-0.15396015,-0.9252759,-0.8156116,-1.5884732,0.42534435,-0.43686914,-0.54596704,-0.27404505,-0.2456633,0.110752515,0.20239523,-2.037493,-0.17158316,-1.5537448,-0.18532391,0.5981445,1.4715564,-0.19295819,-0.27897653,-0.7231706,0.49847257,0.10136506,0.042547144,0.6798577,-0.12543747,-1.4547929,1.6110417,1.0525281,0.0833342,1.452449,-0.005489722,0.91008544,-0.13477011,-0.27740097,-0.1357201,0.9586952,-2.9248276,0.20032518,-0.20272222,-0.30499396,-0.19181716,1.9051422,-1.4082744,-1.3678907,1.2101512,-0.3508462,-0.21656941,-0.09880966,0.53476715,-0.9569264,-0.27358612,0.6226585,-0.5236088,-1.7744051,0.43623146,1.325711,0.23015295,-0.08123858,-1.1824229,-0.88107115,0.91199744,-0.071166225,-0.14835691,-0.851177,-0.43877634,0.2571914,-0.28512534,-0.20562965,-0.05989633,-0.15211082,-2.7088668,0.6717781,-1.4415805,-0.5265188,0.61907095,0.6653175,0.55532795,0.6728643,0.6663579,0.29726848,-1.305934,-3.0195305,-1.4240748,-0.23657778,-0.15382963,0.6182175,-0.08317807,0.33019936,-1.7690318,0.3061286,-0.20798978,-0.46270478,-0.18591216,1.3564439,-0.3547114,-0.03273278,-2.3157141,-1.365679,-1.6378329,0.56187445,-0.23384619,-1.0072619,-0.37065428,-0.15945333,-0.14491034,-0.22404154,-0.23065993,1.2004373,0.7979096,-0.49083522,-0.4205713,-0.38623667,0.2213443,-0.09457887,0.40908128,-1.028171,-0.22824903,-0.0027703643,-1.2221301,-0.14553754,-0.042517126,0.10064531,-1.8043884,-0.92592704,-0.18475851,3.6297436,-0.0053488608,-2.2923706,-0.1417273,-0.067536585,-0.32322702,-0.90847635,-1.5943168,1.0381289,-0.19819918,-0.4174168,-0.57089347,0.45104235,-0.21845382,1.1040654,0.18606114,-1.1072905,-0.15352997,-0.11762337,0.8433426,0.41804954,0.33234498,-1.6047729,0.8876226,0.9294276,-1.3128194,0.9470414,0.01633083,0.41318345,-0.021072166,0.2767591,-0.10103895,-0.6538105,-0.38073602,-0.31080928,-1.0056648,-1.9942431,-0.55148333,1.4894793,-0.25085834,0.057637908,-0.5719176,0.376958,0.27906594,-0.111866206,-0.6513307,0.74692595,0.5945349
-0.3678765,0.08667061,-0.1385398,-0.043742836,-0.038154975,0.44550654,-0.44185832,0.96774006,0.5718084,-1.401849,-1.6412241,-0.35502338,0.022287562,0.6438132,-0.3044103,-0.46622896,0.2434365,-0.25428566,0.3317858,-0.2629738,-0.15855527,0.66309047,-0.21566081,-0.15991235,-0.38049307,-0.3209065,-0.25383094,-0.2561625,-0.33246896,-1.0609398,-0.19569857,-1.0971088,-0.3361764,-0.10498353,-0.20391071,-0.26895195,0.34190312,-0.45697105,-1.3583848,-0.9040461,0.3711315,0.532758,0.7847461,-0.7960175,-0.2646102,1.4168234,-0.09520517,-1.632754,0.2671979,-0.575223,0.34167668,-0.37459442,-0.53082997,-0.34358087,-0.2524131,-0.804952,0.20285548,0.39352435,-0.21143132,-0.24189898,0.20377485,-0.24777564,-0.23249583,0.20470569,2.978256,-0.3549674,-0.083834134,0.42145738,0.22855198,-0.2022788,-0.45171335,-0.10588298,-1.493945,0.5771086,-0.7583747,0.22559136,0.068483315,-0.26834178,0.6312294,0.23514289,0.82305163,1.5097513,0.540873,-0.12560229,-1.0847033,-0.80144733,-0.75694233,0.13229811,-0.31693354,-0.6317926,-0.24815196,-0.1501973,-0.00036745417,0.07390764,-1.5402256,-0.18980742,-1.5621506,-0.2779913,-0.41242695,-0.007109689,-0.23091376,-0.23784171,1.1985729,0.44265315,0.045318745,-0.21595411,-0.805058,-0.17455897,-1.4626327,1.6257273,0.7383214,-0.36139512,1.6597509,0.023069859,-1.4521813,-0.22721508,-0.21714449,-0.26950648,0.6876043,-3.061718,0.18517478,-0.26021078,-0.28069112,-0.36196855,1.2795141,-1.3400013,-0.5862996,-0.4855751,-0.008494959,-0.13204178,-0.17353533,-0.22943304,-0.19076547,-0.23109569,0.71912366,-0.493639,-1.8255796,-1.553564,1.1996844,0.14156091,-0.070483334,-1.2281895,-1.0089879,0.8087355,-0.120813474,-0.20450199,-0.56991804,-0.27426684,0.22433244,-0.26664007,-0.42368886,-0.1855529,-0.09370577,-1.416572,-0.3499802,-0.97567314,-1.5400851,0.44180512,0.5328949,0.4355681,0.7083061,0.80297714,0.3181462,-1.3042197,-2.7861936,-1.3602607,-0.12680793,-0.06830737,0.7564035,-0.6204923,0.31806687,-1.793722,0.12094898,-0.25851062,-0.5075965,-0.05333892,-0.18794319,1.6820811,-0.15491451,-2.363471,-1.3518329,0.30103847,0.4023329,-0.28727216,0.21686003,-0.41100258,-0.17603388,-0.1890242,-0.16680127,-0.16339618,0.97878647,0.66037166,-0.37833303,-0.4993412,-0.3457686,0.19569068,-0.26083213,0.34859055,-1.075107,-0.19649151,0.040307835,-1.1910871,-0.110717766,-0.014078363,-0.092200235,-1.8414032,-0.90790254,-0.021140594,3.6820247,-0.6508666,0.13453262,-0.13388647,-0.072601646,-0.0260247,-1.1090946,-1.1591676,1.2834454,-0.7869429,-0.37285632,-0.51804906,0.33023104,-0.24799277,1.3137425,0.24978858,-1.148327,-0.050429583,-0.24800944,0.90443826,0.18893255,0.2862469,-1.6630074,0.86068493,0.6538773,-1.4805925,1.0258508,-0.08264043,0.32215068,-0.14129524,0.1375266,-0.4379984,-0.38523525,-0.35358402,-0.4538023,-1.0451472,-1.9428676,-0.51936954,-0.20659499,-0.23486754,-0.46986082,-0.60761,0.3451791,0.17989273,-0.13885951,0.61890084,0.6735731,0.3420903
-0.6482034,0.5237847,0.016039966,-0.11219678,-0.20111321,-0.052067,-0.47621548,1.113574,0.31632462,-1.7521876,-1.6748708,-0.15767899,-0.0075959414,-0.598305,-0.44532764,-0.61005336,0.3869326,-0.2235113,0.27329326,-0.16514196,-0.19160588,0.52117085,-0.18466653,-0.1963791,-0.30427703,-1.3945798,-0.24150759,-0.22331908,-0.20787878,-1.1211671,-0.18546337,-1.155128,-0.31553435,-0.13838795,-0.1587849,-0.26732305,0.24480247,1.0616939,-1.4096851,-0.8069529,0.23448208,-0.8023426,0.63285875,-0.19387336,-0.09870092,1.5022552,0.01773686,-1.3446541,0.20049553,-0.5648236,0.17195812,-0.38544804,-0.5143192,-0.33902356,-0.31030616,0.7009733,0.17778742,0.31521407,-0.14912874,-0.29837948,0.21069518,-0.29795,-0.17202051,0.70646656,2.9530914,-0.15460473,-0.18511146,0.028824445,0.5779314,-0.22247486,-0.37353587,-0.15216103,-1.4429896,0.31872618,-0.80086946,0.051191166,-0.043518938,-0.03384699,0.6518513,-1.0488516,1.5302734,1.4705449,0.29594094,-0.17476745,-1.0524938,0.9792765,-0.3407731,-0.15271209,-0.39419726,-0.7067143,-0.29247388,0.14846472,-0.16415118,0.16535899,-1.1221741,-1.3519808,-1.5089072,-0.14960356,0.08588413,-0.050624914,0.098169304,-0.3329298,1.0861875,0.44570825,-0.06441564,-0.22720237,-0.57152134,-0.20458382,-1.4568841,1.629225,0.64091784,-0.5532273,1.7939671,-0.13899772,-0.19993713,-0.21244271,-0.22700515,-0.20204476,0.44306004,-3.0861232,0.09789907,-0.22277752,-0.29334533,-0.2923312,1.8835475,-1.3902727,-0.47620508,1.4157137,-0.23797159,-0.014230225,-0.18956138,-0.26155457,0.96304536,-0.25304088,0.63289106,-0.5273396,-1.9679068,-0.8984368,1.2660626,0.12520625,-0.077166066,-1.1821375,-0.8398903,0.5745425,0.023477249,-0.1083111,-0.09961882,-0.3312357,0.30046332,-0.19837642,-0.12708633,0.0804953,-0.11847435,-0.96083325,-0.34921622,-0.8701078,-1.5639256,0.30950022,0.30822453,0.41210705,0.502128,0.48050174,0.26375479,-1.3447914,-2.9622526,-1.3689027,-0.13495243,-0.06718287,0.11145187,-0.6007517,0.26328775,-1.726068,0.15882345,-0.28314072,-0.4704688,-0.11608117,1.266793,1.5758575,0.09529842,-0.13979842,-1.3577032,-0.031681422,0.32748038,-0.23871155,0.38911542,-0.2578109,-0.313011,-0.16819254,-0.21355158,-0.1984376,-0.12710191,0.5822454,-0.3948731,-0.17257857,-0.40064606,0.09850428,-0.098324955,0.3616398,-1.0827168,-0.27953678,0.028018743,-1.2270505,-0.10447898,-0.008738956,-0.32712758,-1.8821517,0.087265275,0.017218446,3.628379,-0.708402,0.28809398,-0.15132067,-0.0067406506,-0.2524438,-1.2637213,-0.9628836,1.0654968,-0.78897184,-0.41092297,-0.26769957,0.33438313,-0.23383349,1.0791852,0.110221475,-1.2779324,-0.014069607,-0.24402638,1.0030159,0.17679001,0.2416853,-1.668518,0.6790703,0.5020515,-1.0666121,0.90189826,-0.07496276,0.28161517,-0.09057688,0.2110161,-0.21669832,-1.300186,-0.32212532,-0.19344337,-0.056507565,-1.9312764,-0.20771216,-0.10819162,-0.27385578,0.101685524,-0.56764376,0.42372537,0.18132466,-0.19979724,-0.65551,0.6216962,0.111899495
-1.3389201,0.6158643,0.01700488,0.03118715,0.011783749,0.37081397,-0.055632293,1.2754295,-0.26535314,-4.5221186,-0.009367505,-0.16018872,0.0069375187,-1.028107,-0.036880728,0.5876256,0.41031152,-0.044785168,0.31799418,-0.028988073,-0.24477686,0.66191334,-0.06070855,-0.011187671,-0.1303953,-1.2183597,0.009777508,-0.038741358,-0.017411558,-1.04839,-0.00672371,-0.06176987,-0.020886712,-0.17555478,0.35345414,0.09446134,0.21521918,1.346913,-5.3756447,0.52957016,0.2456955,-0.8343525,0.38118872,-0.28151006,-0.08934935,0.0315838,0.02906885,-1.262831,0.19930254,0.26660702,0.0916647,-0.1305311,0.51298845,-0.04554375,-0.06537954,1.2028459,0.57809573,0.30109286,-0.03157793,0.014316826,-1.13882,-0.119873494,-0.006810317,0.5884061,2.9065206,-0.12484453,-0.025066266,0.3144398,0.82488525,-0.016529169,-0.18044491,-0.10738765,0.17105818,0.5056064,0.7900235,0.41902116,-0.087202206,-0.071954444,0.8410798,-1.9390072,1.6457546,1.3641965,1.5070338,0.013444183,-0.34518552,0.55352306,0.44409204,0.3959233,-0.1735388,0.52467936,-0.07171579,-0.08081916,-0.42009905,0.022941295,-3.062598,0.010459851,-0.49364242,-0.031275917,0.319114,0.09947998,-0.050982427,-0.04767664,1.0174807,0.2672776,-0.062587805,0.02041436,-1.0514786,0.052362558,0.13325517,1.6282064,0.58408475,0.25063485,1.1995965,-0.14465839,0.5568434,0.50696224,0.013154537,0.45945293,0.7350973,0.7081141,0.2014433,0.040625613,-0.01271797,-0.26328757,-0.31504142,0.39415646,-0.096287906,-0.46990988,-0.33563587,0.075935,-0.010455541,0.17190915,0.8510389,0.051862102,-0.8620792,-0.25887686,-5.382771,-0.9484372,1.3714901,0.09511504,-0.14112638,-0.3518861,-2.6920764,0.48105392,0.01107794,-0.004734019,-0.29487053,-0.14375572,0.038646758,-0.073903985,-0.19292988,0.023879187,0.07205041,-0.8327122,-0.3085437,-0.3549387,-0.31926647,0.28328454,-0.061910678,0.39522645,0.21095015,0.85428625,0.11715105,0.3566699,0.66112465,-0.4174574,-0.044159133,0.25805303,0.932325,-0.120924845,0.44293836,0.10434538,-0.25693116,-0.08802693,0.6677348,0.22082947,1.4158823,-0.31006518,-0.101610646,-0.27460325,0.22902538,0.07935272,0.26353365,-0.10618575,0.31900376,-0.04211716,-0.0675702,-0.0104266135,0.00031130755,-0.06137581,0.052314635,0.53838915,0.017407283,-0.043026235,-0.020056766,0.09907018,-0.08762445,0.17242998,0.4653753,-0.05892404,0.05917481,0.08089767,-0.027180728,0.007948353,-0.8320922,-0.62513447,0.055295132,-0.036591668,3.5483477,-0.83677316,-2.2697785,0.047638662,0.06217891,-0.0346179,-0.7516346,0.2453052,-0.3344211,-1.0037358,-0.09360529,-0.21676229,0.31704623,0.040413268,1.4678937,0.15668142,-0.070586465,0.07104822,0.0041360226,-0.66865724,0.21598755,0.13707471,-2.8967924,1.0866467,0.262447,-2.2176669,0.7881842,-0.005773427,0.18177049,-0.5128467,-0.11014278,-0.114013374,1.0385234,-0.14790995,-0.14774139,0.08143576,-0.30832115,-0.20602095,0.37991533,0.004377899,-1.7059015,0.5465142,-1.0815113,-0.23919153,0.08882988,0.88814664,0.80664176,0.017989011
-1.3122491,0.7943317,-0.004749275,-0.13729194,-0.05347071,0.41384515,0.060855325,1.290315,-0.20310599,-4.4234304,-0.052687734,-0.201842,0.0007633567,-0.9990211,-0.12541363,0.62544197,0.47023535,-0.085161135,0.36214176,-0.007876151,-0.26768348,0.73134214,0.025816217,0.022549521,-0.13233459,-1.1549982,-0.06338855,-0.07087011,-0.0240549,-0.9462348,-0.027215058,-0.07799935,-0.09694638,0.031050146,0.33124128,0.06444554,0.32460484,1.3376873,-5.201973,0.5389112,0.33207253,0.3275109,0.3876012,-0.1678515,-0.113231204,0.15981583,0.031603336,-1.1037554,0.18569946,0.24692257,0.19236161,-0.13666742,0.53540343,-0.06586312,-0.034370672,1.1841968,0.5428064,0.26038828,-0.020883976,0.029193953,-1.1072837,-0.096311264,0.0029254968,0.5985967,2.8514123,-0.12289094,0.01721504,0.25461137,0.8395895,-0.09362791,-0.12918502,-0.13515499,0.16919565,0.5223897,0.78500557,0.41021046,-0.14224671,0.024102882,0.8401026,-2.0539014,1.7022202,1.3502167,1.4789698,-0.002648309,-0.26124844,0.6304365,0.44523457,0.38423714,-0.16015409,0.5133746,-0.05435498,-0.09706381,-0.4412301,-0.00042873356,-3.0236468,0.05587434,-0.53005093,-0.046887975,0.42000893,0.0791316,-0.048663598,-0.05091124,1.0017661,0.26449317,-0.08111553,0.27493316,-1.0521138,0.02252494,0.090888985,1.5962479,0.60742176,0.24447608,1.0885488,-0.09785133,0.5420942,0.8289769,-0.03717194,0.44520652,0.67715365,0.73833066,0.17515798,0.007986002,-0.027304033,-0.22575772,-0.26650813,0.36367315,-0.077922136,-0.48016763,-0.42814678,0.0032270993,-0.014432346,0.18583381,0.8374373,0.073124155,-0.7954485,-0.2633123,-5.3299165,-0.7778092,1.421452,0.07464721,-0.16243342,-0.28948456,-2.7525468,0.5807103,-0.13882135,0.04032748,-0.28951064,-0.16621512,0.0011267829,-0.031070316,-0.15761225,0.014714214,0.018476402,-0.84267646,-0.21869542,-0.34936443,-0.29840508,0.29639006,-0.03359509,0.36151683,0.1338981,0.9110664,0.098981835,0.34824863,0.70416385,-0.40023744,-0.023981066,0.2653396,0.87097144,-0.090326115,0.45691866,0.06687642,-0.3042657,-0.03035657,0.6165802,0.19916002,1.5026717,-0.32979894,-0.071196534,-0.24188825,0.19320883,-1.6560031,0.25872028,-0.11007643,0.2824319,-0.06274583,-0.08709691,-0.010924632,0.020817576,-0.011651566,0.06415717,0.46981645,-0.07222519,-0.029385699,-0.020689156,0.027290817,-0.13766545,0.17161855,0.49829838,-0.074823916,-0.14349894,0.09504157,0.0013135382,-0.13271056,-0.8393855,-0.6434041,0.15349184,-0.019115275,3.6035702,-0.70570594,-2.2763271,0.03930514,0.06826402,-0.07569582,-0.8187133,0.21604818,-0.3679489,-0.91976,-0.112685405,-0.20066635,0.2969706,-0.0022039663,1.4470179,0.12982428,-0.12153544,0.06371007,-0.013401839,-0.65838766,0.1983764,0.20051247,-2.9141102,1.2030932,0.30855775,-2.1678042,0.8572016,-0.04608234,0.19361009,-0.4868927,-0.1139142,-0.13621214,1.079722,-0.13124454,-0.14448363,-0.0696832,-0.31559536,-0.20342706,0.39829302,-0.03753776,-1.7461026,0.50766087,-1.0763279,-0.23144175,0.033151902,0.904689,0.84036505,0.088266924
