0
0.17087574
0.21034937
0.20822306
-0.015432908
-0.06911783
-0.37282082
0.34960043
0.30346054
0.10238008
-0.0039497158
0.282914
0.124807455
0.0330533
0.3131632
0.03259807
0.083476216
0.08190857
-1.0332901
-0.14197549
0.12142544
0.081940785
0.1296233
-0.063818716
0.24612233
0.06376018
0.096964516
-0.0709642
0.26615873
0.19353662
0.24954964
-0.2182685
0.11198777
-0.12270285
0.3093829
-0.92252034
-0.14543748
0.013951985
0.15470818
0.20886627
-0.06161683
0.24028294
0.06715199
-0.65965515
0.11786536
0.2217161
0.33430743
0.17206876
-0.25660023
0.00075577147
0.24654162
-0.10861221
0.2054977
-0.06603529
-0.044531114
0.37394074
0.16483006
0.3187439
-0.6740688
0.10845432
-0.12676027
-0.021316176
0.21211676
0.020371346
0.25712556
0.37247384
0.26840484
-0.014142305
0.12630463
0.09349354
-0.080876164
0.050245255
0.11377443
0.27412367
0.10132786
0.19017564
0.24159151
0.113191016
0.028299244
0.33155638
0.068101935
-0.09020537
0.24806976
-1.3076869
0.10950203
0.23922451
0.35122624
0.3440228
0.10171635
0.22178851
0.2711815
0.042713024
0.25414887
0.22699946
-0.07623383
-0.7911397
0.16393077
-0.4526674
0.09627567
-0.13866457
0.13910475
-0.129335
0.067076065
-0.5232586
0.044440296
-0.20066068
-0.40448427
0.030590836
0.26420158
0.107265756
-0.411616
0.29293358
0.11625372
-0.16280347
0.33497098
0.1825584
0.18828619
-0.60488194
0.09698437
0.019416293
0.40149236
0.29867852
0.29170498
0.17125195
0.23633727
-0.27497065
0.15997794
-0.11975463
0.030924756
