0,1,2,3,4,5,6,7,8,9,10,11,12,13,14,15,16,17,18,19,20,21,22,23,24,25,26,27,28,29,30,31,32,33,34,35,36,37,38,39,40,41,42,43,44,45,46,47,48,49,50,51,52,53,54,55,56,57,58,59,60,61,62,63,64,65,66,67,68,69,70,71,72,73,74,75,76,77,78,79,80,81,82,83,84,85,86
-0.01804508,-0.0048306715,-0.0025198248,-0.0020861002,-0.001613492,-0.002200783,-0.0016322844,-0.0013475784,-0.0012061937,-0.001118193,-0.0013377813,-0.0011485618,-0.001081304,-0.0009803997,-0.0008338347,-0.00054663967,-9.076699e-06,0.00034728608,0.0005965127,0.000785091,0.0008432926,0.001193117,0.001457491,0.0016613785,0.0018331286,0.0025684198,0.0029733477,0.0032563861,0.0034380956,0.0035459779,0.0066060415,0.0059501934,0.0053354716,0.00488648,0.0045787646,0.008894342,0.007836834,0.0069516213,0.006245116,0.005692522,0.011005247,0.009601978,0.008635745,0.007994144,0.0075490195,0.016280202,0.015136564,0.014295839,0.0136017315,0.013002252,0.02688356,0.025136061,0.023699697,0.022505537,0.021493228,0.041604165,0.038267512,0.03554612,0.033234194,0.031239096,0.05861511,0.05308536,0.048667457,0.04498307,0.041851215,0.07754044,0.06900176,0.06193554,0.055995848,0.050835103,0.09079133,0.07693878,0.065858044,0.056787107,0.049295947,0.08199433,0.06412021,0.05086674,0.04089982,0.033238884,0.050688077,0.036016256,0.026362801,0.019867567,0.015533405,0.022953214,0.017168734
0.014384683,0.0031904143,0.0021504373,0.0016507941,0.000907665,0.0018435321,0.00093460083,0.0007329051,0.00057887327,0.00034326946,0.00077629124,0.0005492837,0.00020418644,0.00011557075,-5.98111e-05,0.00015086423,-5.883866e-05,-0.00022994398,-0.00033544906,-0.00039215927,-0.0013077916,-0.0012641666,-0.0011067624,-0.0009028546,-0.00068650796,-0.00030650577,0.0003436095,0.00091977825,0.0014270341,0.0018825104,0.0061409296,0.007046081,0.0077113034,0.008200142,0.008544487,0.019274373,0.01953508,0.01943413,0.019107543,0.018646158,0.03729385,0.034812678,0.03235734,0.030056013,0.027941037,0.051677067,0.044954613,0.03931008,0.03452689,0.030444447,0.05172366,0.041177608,0.033138126,0.026887074,0.021950552,0.03321166,0.022322997,0.014779863,0.009401882,0.0055241366,0.0038483243,-0.002912197,-0.0066779675,-0.008842525,-0.010015141,-0.020811392,-0.02103028,-0.019781742,-0.018424544,-0.016690293,-0.029531306,-0.024910863,-0.021696968,-0.018371401,-0.016137602,-0.026926167,-0.021509387,-0.017846262,-0.014799409,-0.012830662,-0.0205268,-0.016523223,-0.013347958,-0.011415323,-0.009591569,-0.015251298,-0.011281506
0.1008055,-0.07811917,-0.092738934,0.008543066,0.14791334,0.09776447,0.13697919,-0.0262763,-0.060096323,0.036225278,0.08989756,-0.097497724,-0.15723245,0.022313118,-0.043896478,-0.08309094,0.018528689,-0.024182327,0.08318069,0.053046077,-0.04108623,-0.025661925,0.1435046,-0.039632414,0.0062701465,0.070507444,-0.025266763,-0.11939062,0.057841767,-0.14857008,-0.047593262,0.13178782,-0.05376451,-0.10937673,0.15045391,-0.044237938,-0.036024075,-0.017977588,-0.0026742064,0.14236258,0.073910855,-0.016214486,-0.12663849,0.18469079,-0.045955136,-0.08315276,-0.09638921,0.16377555,0.13136594,-0.10919224,0.11670408,0.14215082,-0.17561236,-0.08365015,-0.04874411,-0.061192606,0.06598458,-0.083833255,0.026015349,0.1295144,0.0032855521,-0.10973735,0.022406638,-0.16063282,0.13884783,0.031165857,-0.009713019,-0.077743374,0.06995777,0.16763826,-0.15611963,0.080989785,-0.08789701,-0.04847806,-0.07348945,-0.16730477,0.03569246,0.16384284,-0.15925477,-0.1306717,0.07043826,0.14516433,-0.035113268,-0.113962196,0.14046626,-0.10876931,0.13204905
-0.0015690229,6.163004e-05,0.00082037976,0.0008238111,0.00046199455,0.0011019601,0.0005194763,0.0004381416,0.00048376925,0.00030279456,0.00047456688,0.00048762822,0.0002639361,0.00025513803,0.00022696076,0.00032154028,0.00017500324,7.494978e-05,8.529154e-06,-4.0737374e-05,0.00038084917,0.00019721802,-2.7460483e-05,-0.00024026589,-0.00038071026,-0.001230104,-0.0012187214,-0.0011141131,-0.00093646365,-0.00069540465,-0.0014009082,-0.0010365517,-0.00078430166,-0.0005620194,-0.0003264879,-5.1330455e-05,0.00034965988,0.0007092006,0.0010194151,0.0012745808,0.0027886236,0.003137339,0.0031685347,0.003073634,0.0029750154,0.005671675,0.005449736,0.005402916,0.0054104654,0.005372645,0.010143147,0.00944505,0.008875975,0.008399814,0.008032282,0.015994526,0.014403157,0.013164863,0.012148295,0.01129761,0.02217558,0.019668495,0.017801555,0.016406393,0.015321587,0.02952963,0.02707326,0.025348248,0.024206823,0.0231992,0.043656893,0.041319124,0.039572123,0.037939657,0.036367264,0.06617944,0.060629096,0.05543912,0.050577533,0.046013277,0.07687247,0.06262208,0.050648533,0.04061832,0.03227728,0.04253189,0.023773562
0.009195404,0.0021193533,0.00039271195,0.000937137,0.00081580516,0.0008436918,0.0008090847,0.00055378285,0.00026594428,0.0003698177,0.000568817,0.00024993333,0.00037856,0.00038849164,0.00033911574,0.000105320505,6.723965e-05,-9.163836e-06,-9.413212e-05,-0.0001710811,0.00014429436,7.5414144e-05,6.160453e-05,3.2132026e-05,-2.787964e-05,0.00027261034,0.00018176984,2.9689545e-05,-0.00015755292,-0.00035563527,-0.00039547484,-0.0005262092,-0.00055160397,-0.0005146172,-0.00049486686,-0.00083394145,-0.0008050789,-0.0007502473,-0.00071992277,-0.0007021692,-0.00077930314,-0.00049095147,-0.0003512635,-0.00023537337,-9.7136915e-05,0.000145062,0.000747452,0.0012546261,0.0016415961,0.0018918121,0.003837342,0.0043482003,0.0046661673,0.0048742373,0.0050279405,0.010632742,0.010766645,0.010752059,0.010628986,0.010440526,0.020837234,0.020025577,0.01914561,0.018297812,0.017481659,0.033335768,0.030815525,0.02852286,0.026567006,0.024758471,0.04619536,0.04128699,0.037188984,0.0336834,0.030692996,0.054673757,0.04682311,0.04048171,0.035310317,0.031090068,0.051663496,0.04163353,0.034020822,0.028133392,0.023573777,0.034961972,0.025825297
-0.0001915799,0.00073431636,0.00081634714,0.0007257749,0.0004067576,0.00079446804,0.00041748813,0.00038107714,0.00040597646,0.00040083798,0.00039736766,0.00044848595,0.0004452911,0.00043095657,0.0003421262,0.0008141616,0.0009809529,0.0010504932,0.0010868107,0.0011069927,0.0015066821,0.0015665386,0.0016106941,0.001647702,0.0016834046,0.0025669062,0.002758142,0.002938284,0.0031057228,0.0032646991,0.007071064,0.007310983,0.0073741633,0.007339877,0.0072748247,0.014273408,0.01412844,0.013826925,0.013435964,0.013021606,0.024785291,0.023290528,0.021853497,0.020546013,0.019371137,0.03583739,0.03259849,0.029810727,0.027365647,0.025194284,0.044343915,0.03870947,0.03423022,0.03056883,0.027527124,0.046941727,0.039295767,0.033439886,0.028856667,0.025171103,0.041881047,0.03347511,0.027238641,0.022428477,0.018659081,0.029335892,0.021410098,0.015751295,0.011490431,0.008399502,0.010945649,0.0049951407,0.0007942938,-0.0020494587,-0.0039631324,-0.010013931,-0.012771867,-0.013885835,-0.014128663,-0.013806311,-0.024888676,-0.022784643,-0.02040183,-0.018012,-0.01599923,-0.026065202,-0.020612368
-0.01704766,-0.003992056,-0.0032159376,-0.0014026749,-0.0012542587,-0.0014982938,-0.0012385929,-0.00088881183,-0.0005444454,-0.0006226521,-0.0008448971,-0.00042904133,-0.0005972864,-0.00037821927,-0.00025860866,2.4138637e-05,0.00022700866,0.0003767985,0.0005227112,0.00064118824,0.0012722033,0.0013751519,0.0013979716,0.0013566432,0.0013053217,0.0023477194,0.0022362568,0.002102735,0.0019877858,0.0019136267,0.0042540664,0.004196678,0.0041038347,0.003999446,0.0038868717,0.0068210694,0.0067706015,0.006649889,0.006503004,0.006367184,0.011525163,0.011094615,0.010629407,0.010199749,0.009819507,0.018346595,0.017337006,0.01649335,0.015738156,0.015024226,0.027549893,0.025493896,0.023760254,0.022243032,0.020914877,0.037686963,0.03396309,0.030848652,0.0282214,0.02596264,0.045475017,0.039673313,0.034980707,0.031093145,0.02785321,0.04672865,0.03893059,0.03287567,0.028026996,0.024118064,0.038911074,0.03057003,0.024507381,0.019881511,0.01632247,0.025515722,0.018734356,0.014079256,0.010847442,0.008477952,0.012734612,0.008670981,0.0061108675,0.004277809,0.0031744905,0.0040562185,0.0025156885
0.00036993096,4.0420604e-05,0.0001085278,-0.00021156097,-3.9887964e-06,-0.00033001334,-8.561238e-05,-0.00010614488,-1.4914658e-05,-0.00019775759,-0.000118577846,-2.7466886e-06,-0.00029934652,-0.00025239954,-0.00036366176,4.3186417e-05,3.953775e-05,3.7678758e-05,4.5114342e-05,4.3612825e-05,-0.00044042012,-0.00046857772,-0.0005025862,-0.0005023439,-0.00047638916,-0.00052903907,-0.00046335338,-0.0004044539,-0.00035612966,-0.00032120294,-0.0002107683,-0.00031572193,-0.0003879896,-0.00035591464,-0.00027131234,-0.00023502088,-0.00022558181,-0.00016912364,-0.00011206165,-7.001852e-05,-0.00034087218,-0.00035442456,-0.0004791156,-0.00056176604,-0.0005659991,-0.001426148,-0.001048788,-0.0007436311,-0.000555219,-0.00046653743,-0.0019368907,-0.0014064328,-0.000999298,-0.00063559064,-0.00027685068,-0.0009066814,-0.00028969033,0.00025949796,0.0006962435,0.0010896304,0.0028308104,0.0033261706,0.0036485011,0.0038808722,0.0040442,0.008869877,0.008649111,0.008384531,0.00817959,0.007934765,0.016345266,0.0152795175,0.014498574,0.01397475,0.013580055,0.028124372,0.027082715,0.02658151,0.02634584,0.026213353,0.054572172,0.05369318,0.05290158,0.05206902,0.05111942,0.101481535,0.09642489
0.000874429,-0.00010859785,-0.0010128634,-0.00026781554,0.0003454824,-0.00053054333,0.0002855308,0.00027577928,0.00026143558,0.0003065808,0.00025537264,0.0002657952,0.0002901509,0.00036272165,0.0002603257,0.00028215337,0.00033427638,0.00032825116,0.00030795348,0.00028509987,-0.0003584866,-0.00020014292,1.7929935e-05,0.00024491156,0.000407937,0.0007864248,0.0007947913,0.0007093876,0.00058268034,0.00044130353,0.00096563774,0.00073544774,0.00062566076,0.0006182953,0.00061405916,0.0005077907,0.0003844854,0.00029531485,0.00020304875,0.0001134357,-3.1234522e-05,-0.00051459944,-0.00082719204,-0.00096808426,-0.0009987445,-0.0009774077,-0.0013096395,-0.0016007997,-0.0018719388,-0.002097066,-0.0030392446,-0.003302401,-0.0034923174,-0.003566633,-0.003573668,-0.0059337905,-0.00578278,-0.005551189,-0.005325448,-0.005053229,-0.00806236,-0.007254951,-0.006421603,-0.0055737686,-0.0047472776,-0.0059539354,-0.0038145492,-0.0019869169,-0.00033472362,0.0009921334,0.006580375,0.009773605,0.012165934,0.013939951,0.015201567,0.033920985,0.035743285,0.036357537,0.036194507,0.0355281,0.06917215,0.06449834,0.059360188,0.054278206,0.049439684,0.08739935,0.073524855
-0.025852894,-0.0045646783,-0.002705577,-0.0015254227,-0.0014111646,-0.0016246812,-0.0015075647,-0.001182897,-0.0009308595,-0.00072762405,-0.0012512901,-0.0009282097,-0.000713481,-0.00066691474,-0.00058395416,-0.0010604734,-0.00091122254,-0.0008285147,-0.0007771484,-0.00073669036,-0.0006123928,-0.0004862832,-0.00045024796,-0.0004593104,-0.00044342474,-0.00049018534,-0.00018812597,3.8245314e-05,0.00023640107,0.0004369053,0.0011090017,0.0014701069,0.0017881475,0.0020644295,0.0022630042,0.004428849,0.004556149,0.004646684,0.0046887537,0.004696278,0.00915481,0.00879145,0.008365633,0.007972786,0.0076449923,0.014017758,0.013007693,0.012162937,0.011405079,0.010692637,0.018479865,0.01650108,0.014901854,0.013573808,0.012462597,0.021720858,0.018786414,0.016534084,0.014757525,0.013311745,0.023778168,0.020312246,0.01775503,0.015833193,0.01432424,0.026507339,0.022992285,0.020429188,0.018533975,0.017034229,0.032639127,0.028982112,0.026197786,0.023976337,0.022136271,0.04088448,0.035798326,0.03173293,0.02841001,0.025651092,0.04479681,0.037564583,0.03198171,0.02755367,0.023972604,0.03945682,0.031046793
-0.0003052987,-0.0020623275,-0.0019805897,-0.0009864046,-0.00049842265,-0.0011975983,-0.0005504511,-0.0003427613,-0.00014561639,4.4981705e-05,-0.0003952391,-0.00014378314,7.185769e-05,0.00014852948,0.00034741315,-6.424576e-05,4.285846e-05,8.2491744e-05,9.2933e-05,9.2205315e-05,-3.9202765e-05,-2.6152335e-05,-2.8848171e-05,-3.2281456e-05,-3.826661e-05,0.000493102,0.0003121871,0.00012547206,-4.1095118e-05,-0.00017740414,0.00010153804,0.00024992542,0.00030887857,0.00031545403,0.00029146342,-0.00058950996,-0.000306856,-0.00015750449,-8.180787e-05,4.79602e-06,-1.8283929e-05,-0.00018174635,-0.0003076617,-0.0003336902,-0.00028705777,0.00088346866,0.0005355601,0.00024025534,-1.0071337e-05,-0.00021993153,0.00039952662,-0.000112537644,-0.00044647284,-0.00066502695,-0.00080961385,-0.0011288295,-0.001331081,-0.0013167259,-0.0012178286,-0.0010346004,-0.0010847895,-0.0006213483,-0.00014793004,0.00037943435,0.0008787404,0.0034666494,0.0044431747,0.00513271,0.0057583638,0.0061601726,0.014456139,0.0152429715,0.015785918,0.016223015,0.016530853,0.03427215,0.034897305,0.03529663,0.03552323,0.035606127,0.06966707,0.0685326,0.066875026,0.064895116,0.06276786,0.115083374,0.10638229
-0.0020526391,0.00012781814,6.840011e-05,0.00061505515,0.0008391058,0.00066825736,0.00094911427,0.000758298,0.00062613183,0.0003584594,0.0008876903,0.0007360119,0.0003962126,0.00045915492,0.00035846487,0.0010067032,0.0009725647,0.0009499071,0.0009391203,0.00092290697,0.0008859664,0.0008876192,0.0009338568,0.000990505,0.0010133855,0.0012381815,0.0012402311,0.0011904187,0.0011177474,0.0010436894,0.0013609317,0.0012384392,0.0012240391,0.0012941858,0.0013454194,0.00223434,0.0021813035,0.0021451898,0.002104384,0.0020413632,0.0038878096,0.0035776433,0.0032891687,0.0030777133,0.0029375195,0.0059500495,0.0055611297,0.0052901474,0.005064718,0.004857395,0.00912176,0.008472967,0.0079862755,0.007589473,0.007261735,0.013175771,0.011961979,0.011054191,0.01032352,0.009741037,0.018018093,0.01629354,0.014959599,0.0139068,0.013047381,0.024523355,0.021985192,0.020071693,0.018590568,0.017360346,0.032180756,0.028680936,0.026080146,0.024061512,0.022459805,0.041235108,0.036855288,0.033561416,0.030943038,0.028779576,0.052878775,0.04694954,0.042177256,0.038241535,0.03493002,0.062884904,0.054284204
-0.08208171,0.09173133,0.09240967,-0.078637175,0.01847233,0.09806415,-0.033651754,-0.10419034,0.17765875,0.0835964,-0.15729529,0.059260342,-0.1567244,0.16796239,-0.031175626,-0.06708309,0.06161273,-0.14465855,-0.15774852,0.16959158,-0.14197986,-0.112950586,0.08807728,0.07888731,-0.089070775,0.09168343,-0.14184745,0.06616263,0.0139132,0.088143334,0.07737551,0.12508488,-0.05273724,0.11259255,0.17672512,-0.0022619064,-0.04299089,-0.14180008,-0.010893846,0.09544172,-0.09110719,-0.06197355,0.087032266,-0.17132631,-0.07130356,0.06661911,-0.17804822,-0.10853032,-0.09219262,0.14553666,-0.01740138,-0.1336118,-0.016089177,-0.07710329,0.18238857,-0.16820018,-0.16627993,-0.014853444,0.05815314,0.13406183,0.015640736,-0.04304311,-0.015405873,0.09789007,-0.16844271,0.16935182,-0.15887348,0.12315734,-0.10514192,0.124279976,-0.08032114,-0.10206939,-0.034133296,-0.079341546,0.19737022,0.13613953,0.0675276,-0.15718012,0.07663262,0.13844776,-0.03944675,0.11052347,-0.10202009,-0.13275984,0.098811656,-0.1720025,0.19214354
-0.0044735963,-0.00030997995,0.000592513,0.00045191834,0.0005950791,0.0005969516,0.00065869035,0.0005225922,0.00035602017,0.00042003332,0.000570226,0.00037161072,0.00048260728,0.0004572801,0.0004482865,0.0001972094,6.683156e-05,-2.1962733e-05,-0.00010662508,-0.0001757535,0.00013322002,6.0912524e-05,-1.8059234e-05,-6.535926e-05,-7.913539e-05,0.00014564552,0.00011121541,0.00010014514,0.00010340014,0.000116962416,0.00039983273,0.00024059419,8.045309e-05,9.015261e-06,1.1828466e-05,-0.0006329445,-0.00053637184,-0.00048144048,-0.0003992035,-0.0002744445,-0.0017591115,-0.0015941721,-0.0014099635,-0.0011815949,-0.00093904155,-0.002052634,-0.0015070967,-0.0010468175,-0.00067999633,-0.00038680286,-0.00041888462,0.00026109998,0.0007844815,0.0012155392,0.0015770791,0.0037529224,0.0043848893,0.004821527,0.0051237964,0.0053544054,0.010851966,0.011154227,0.011277054,0.011303133,0.011247778,0.02078307,0.020154187,0.019427428,0.018793264,0.018118506,0.03252378,0.030555705,0.02891307,0.027540505,0.02634306,0.046734292,0.043343656,0.040521424,0.03804046,0.035840202,0.06212911,0.055671003,0.05011827,0.045351036,0.041187048,0.06766542,0.05681588
0.0018773638,0.00093566644,-0.00020919283,-0.0003794955,-0.00020874006,-0.000218047,-0.00012908796,9.5305964e-05,0.00022220668,6.654476e-05,0.00017758337,0.00025303563,5.1470823e-05,0.0001883357,0.00022932359,0.0003031354,0.00024184329,0.00027016227,0.0003523343,0.0004458262,0.00045410014,0.00060328894,0.00068075454,0.0007823982,0.00091412594,0.00224241,0.0023630683,0.0024215311,0.0024510291,0.0024769441,0.0034462009,0.0034231106,0.0035071839,0.0036759535,0.0038125245,0.005185795,0.0052826735,0.00536838,0.0054294267,0.0054548597,0.007847386,0.007995605,0.007957379,0.007853204,0.007738507,0.011674745,0.011617007,0.011526536,0.011369473,0.011141073,0.017489504,0.016830616,0.016243609,0.015680294,0.01514563,0.02540224,0.023829727,0.0224011,0.021110505,0.019935507,0.034893267,0.031862535,0.029236497,0.026968176,0.025002226,0.044653468,0.039709426,0.03562925,0.032340415,0.029551389,0.052916043,0.046012744,0.040739328,0.036503445,0.03304967,0.05743464,0.049014855,0.042480946,0.03729025,0.033056572,0.05431517,0.04431006,0.036455292,0.030168498,0.025095807,0.036875393,0.026205624
0.0067766327,0.0017886916,0.001319045,0.0012817291,0.00090096093,0.0014898379,0.00093288353,0.0008079069,0.00045856088,0.0003798163,0.00081051356,0.00041979205,0.00042630342,0.00034890766,0.0003187353,0.00026326126,9.828874e-05,4.718636e-05,-2.6077323e-06,-4.0765924e-05,0.0004689779,0.00040933146,0.0003316666,0.00025147127,0.00019143257,0.000109954985,3.1038413e-05,-2.545843e-06,1.4116769e-05,8.1826074e-05,0.0011559437,0.0009824035,0.00079974177,0.0006710477,0.00061939016,0.0022655476,0.002383004,0.0025095248,0.0026092238,0.0026854428,0.0055212774,0.0056710993,0.0056878324,0.0056763296,0.0056799315,0.011204526,0.011199728,0.011235792,0.011257437,0.011216403,0.021229867,0.020860564,0.020428723,0.019952657,0.019481402,0.03648931,0.03484974,0.03325328,0.03173069,0.030251885,0.05466562,0.05034229,0.04648144,0.042974677,0.03979895,0.06872684,0.060298447,0.053146236,0.04706133,0.041808575,0.06798119,0.055669125,0.04608449,0.0384107,0.032235302,0.04764416,0.035358697,0.026652718,0.02036724,0.015726127,0.018737845,0.01176252,0.007331417,0.004572358,0.0028187355,-0.0008263693,-0.0016253791
0.007758305,0.0017079622,0.0016151405,0.0011335912,0.0013872501,0.0012235643,0.0014666878,0.0011968904,0.0009112655,0.0010189817,0.0012420744,0.0009091828,0.0010275723,0.0008074882,0.0006879665,0.0005240409,0.0003684626,0.00019808562,3.079199e-05,-0.00010884642,-0.00053764787,-0.00055182906,-0.0004909864,-0.0003788459,-0.00027541365,-0.0005258925,-0.00040958356,-0.00031107932,-0.00023990532,-0.00019728238,-0.00042798158,-0.0005677967,-0.0007320731,-0.00080239715,-0.0007799,-0.0019310353,-0.0018500581,-0.0017157276,-0.0015494039,-0.0013542043,-0.0027089813,-0.0025003005,-0.0022924752,-0.0020257118,-0.0017167464,-0.0022106727,-0.0015273731,-0.00097501115,-0.00056327996,-0.000264735,0.00022983093,0.0007604847,0.0012284287,0.0016155968,0.0019179613,0.0044025173,0.004610771,0.004671769,0.0046540056,0.0046539106,0.009732415,0.009282861,0.008799721,0.008364503,0.00798308,0.015423901,0.014187904,0.013236451,0.012517748,0.011961247,0.022811383,0.021465316,0.020455834,0.019736836,0.019140337,0.03634141,0.034704942,0.033309102,0.0319475,0.030650778,0.05706314,0.053005096,0.049262963,0.045886874,0.042820267,0.07657125,0.067930624
-0.007245132,-0.0019821394,-0.0016595676,-0.0009144648,-0.0004877267,-0.0012540891,-0.0006526752,-0.0005788732,-0.00042819144,-0.00027245516,-0.00070454343,-0.00047565973,-0.00029662217,-0.00024459453,-0.00012005724,-0.00034583177,-0.00015449556,-5.3864132e-05,7.69466e-06,4.4966582e-05,-0.0002580236,-0.000107994296,3.0063547e-05,0.00014078563,0.00020720401,-0.00013626889,-4.8653164e-05,-4.289957e-05,-7.955532e-05,-0.00013251271,-0.0009851481,-0.0011315956,-0.0011578305,-0.0010683469,-0.00096974097,-0.002423614,-0.0024556757,-0.0024150398,-0.0023605204,-0.0023123429,-0.004520593,-0.004327054,-0.0042151827,-0.004083823,-0.0039043797,-0.0072933193,-0.006639092,-0.0060149343,-0.0054719606,-0.0050320616,-0.00961277,-0.00832811,-0.0072737434,-0.0063982373,-0.005630426,-0.009768809,-0.007957487,-0.006501326,-0.005371123,-0.004418461,-0.006173954,-0.004184427,-0.0027754917,-0.0016603481,-0.0007648945,0.0016711014,0.0033002135,0.0044317637,0.005248924,0.00589207,0.0140510425,0.014698107,0.015004956,0.015271703,0.015425983,0.030965334,0.030200608,0.029493064,0.02876801,0.028132677,0.053735323,0.05068588,0.04797025,0.045510575,0.04318249,0.07874717,0.07131358
-0.005822412,-0.0014213249,-0.0014626177,-0.00039645616,-0.00022042147,-0.00043845503,-0.00022917955,-0.00019323034,-0.00027673255,-8.011093e-05,-0.00022941931,-0.00029635633,-5.9518683e-05,-9.1239745e-05,-8.1025464e-05,-0.00033654418,-0.00016421583,-9.664349e-05,-9.585536e-05,-0.00011697554,0.00017634567,0.0002500908,0.00028654595,0.00031403845,0.0003417307,0.00097463664,0.0009229735,0.00082483934,0.0007359651,0.0006842018,0.0013158189,0.0012545926,0.0012375661,0.0012259996,0.0011650501,0.0012342804,0.0012013386,0.0011050901,0.0010082431,0.00092727935,0.0007515365,0.00065968954,0.00062654424,0.00062765647,0.0006415364,0.0011377269,0.000972546,0.00089490594,0.00088362186,0.0009089018,0.002500785,0.0023108853,0.0022243576,0.0021676049,0.0021011096,0.0051842122,0.0048449947,0.004574806,0.004337945,0.004162036,0.009414773,0.008709658,0.008200895,0.00780708,0.0074988846,0.01602121,0.01477811,0.013802475,0.013063196,0.012403255,0.025308728,0.023190735,0.02153784,0.020265369,0.01918345,0.03714285,0.034022547,0.031733863,0.029931491,0.028446956,0.053659115,0.04928674,0.045735847,0.04275222,0.040130474,0.07263733,0.06495004
-0.1126477,0.031604186,0.073264465,-0.028636713,-0.015828915,-0.0722768,-0.16469239,-0.12415991,-0.0843516,-0.005926373,-0.052556824,-0.04131707,-0.12073122,0.014245557,-0.14275073,-0.12064285,-0.1878121,0.09589068,0.04509972,0.041372627,-0.03615245,0.18934065,-0.017524,0.031658176,-0.13985574,0.101103485,0.026053408,-0.11963801,-0.1372688,-0.082465746,0.014483632,0.05290867,-0.062120274,0.11119882,-0.0985727,0.050973255,-0.01095412,0.03536487,0.1050449,0.029199958,0.14202002,-0.047231033,-0.15920594,0.17341398,-0.17114045,-0.1856303,-0.15790218,0.06685636,0.017958308,-0.16324688,0.13377899,-0.09678104,0.040682573,0.1480008,0.019011598,-0.025798442,-0.19264673,-0.011935391,0.16224654,-0.1537527,-0.08073394,0.008154581,0.09224885,0.1495834,0.07590754,-0.075777546,-0.0052610654,-0.13268718,-0.16706674,-0.17715679,0.15028414,0.032125093,0.16665716,-0.18606934,-0.10256517,-0.16886891,-0.13656813,0.06381572,0.048136234,0.10178609,-0.19282177,-0.10048658,0.06469013,-0.16154441,-0.003874802,-0.0067104097,0.04709263
-0.0017772035,-0.001926537,-0.0018964583,-0.001435348,-0.0010864466,-0.0014501999,-0.0010367015,-0.00069867016,-0.00051900913,-0.0003386561,-0.0006334446,-0.00040650927,-0.00026060824,-0.00013567992,-4.6488996e-05,-0.00040725747,-0.00031038502,-0.0003077177,-0.00033850627,-0.00037903147,-0.00071431644,-0.0006880979,-0.00069540006,-0.0006885227,-0.00063978916,-0.00074824516,-0.00045938187,-0.00024914136,-8.451113e-05,6.0276732e-05,-0.00026306184,-1.5577592e-05,0.00023618356,0.00052264857,0.0007611912,0.00049615256,0.0010139936,0.0013669056,0.0016112117,0.0017835397,0.0021862125,0.0024158217,0.0025742168,0.0027244855,0.002860981,0.0049424963,0.0049159196,0.0047922647,0.0045928326,0.004364716,0.0074476157,0.0067210193,0.0060791303,0.005549352,0.0050861435,0.008360173,0.007160386,0.006222808,0.005462438,0.0048685386,0.008815826,0.0075740195,0.006769419,0.0062663765,0.005950503,0.012450734,0.011734954,0.011299177,0.011163649,0.011016679,0.021855256,0.021491522,0.021441834,0.021489726,0.021543501,0.04138977,0.04180327,0.042339552,0.042877223,0.04323069,0.08443696,0.08426332,0.08359884,0.08242127,0.08084711,0.15386271,0.14600442
0.19681473,0.033935454,0.019412687,0.013347685,0.0095376065,0.013749179,0.009068066,0.006502178,0.0050815614,0.003986912,0.006126748,0.0045466293,0.0033478348,0.0028838569,0.0024322297,0.003633558,0.0027409762,0.002158393,0.0017858266,0.0015274347,0.00258877,0.0020462645,0.0016663681,0.0013980232,0.0012201418,0.002020729,0.0017556368,0.0015789269,0.0014640059,0.0013990481,0.001820613,0.0016404407,0.001579258,0.001553443,0.0015081513,0.0019910967,0.0017717271,0.001637676,0.001534662,0.0014382182,0.0023251246,0.0019947954,0.0017125029,0.0014763192,0.0012857316,0.0021301464,0.0015985927,0.0012224619,0.00094456016,0.00072345603,0.0012634606,0.00063573517,0.00021499819,-7.168909e-05,-0.00026196457,0.00044169513,-9.154593e-05,-0.0005780464,-0.00084247696,-0.0009850411,0.00026865752,-0.0001497706,-0.0006323303,-0.00084909576,-0.0008659606,0.0009150176,0.00028622075,6.830838e-05,-4.5029774e-05,-2.3523084e-05,0.001727506,0.0014836808,0.0013479352,0.0012557025,0.0014008533,0.0031763655,0.0027763424,0.0027294424,0.0027927584,0.0027848245,0.004649052,0.0040967497,0.0039563887,0.0037034592,0.0036685523,0.004717032,0.0043201875
-0.0021278935,-0.001756099,-0.0009280419,-0.00012017871,4.0013234e-05,-0.0001495241,6.563722e-05,-3.5180412e-05,7.397757e-05,-8.316201e-06,-5.4329576e-06,9.6499854e-05,-0.00012448535,-0.00014745654,-0.00027681648,-0.00011116914,-0.00016953053,-0.00025994587,-0.0003219429,-0.00037069657,-0.00091322477,-0.0009117137,-0.00087288127,-0.0008245664,-0.0007719346,-0.0011264242,-0.001001163,-0.0008986422,-0.0008088797,-0.0007246167,-0.0012031783,-0.0009326679,-0.000775043,-0.00066190306,-0.00056228024,-0.0024334025,-0.002175929,-0.0018797311,-0.0016368704,-0.0014097155,-0.0027944616,-0.0025357686,-0.0024146643,-0.0022416115,-0.0019783268,-0.003214554,-0.0021441232,-0.0012682534,-0.00063867454,-0.00022727868,-0.00095662836,0.00016744567,0.001038454,0.0017190061,0.002268379,0.004629165,0.0053589167,0.005817823,0.0061064693,0.0063263546,0.013810651,0.013653737,0.013321441,0.012931633,0.012526144,0.025168568,0.023407701,0.02182602,0.020472096,0.019258706,0.036431804,0.03301234,0.030170674,0.027822554,0.025795192,0.04698755,0.04151132,0.037120376,0.033421967,0.030305358,0.053491354,0.04536156,0.038863935,0.03365193,0.029359331,0.04928857,0.039391484
0.0016662803,-0.00065071293,-0.00032214355,0.00020738131,-2.1411328e-05,0.00020019815,-7.896419e-05,2.3439588e-06,-0.000104058694,-4.5702294e-05,-8.176926e-05,-0.00017299228,-0.00010435276,-6.7115354e-05,-1.839408e-05,-0.00047228413,-0.0004984513,-0.0005430922,-0.00059148297,-0.0006314243,0.00025323182,0.00026462373,0.00020477944,0.00013525024,0.00010026947,0.00085213134,0.0007879225,0.000727826,0.00069223286,0.0006884423,0.0017127217,0.0013678967,0.0011050879,0.000933727,0.0008044164,0.00092987117,0.00049044756,0.00020807827,-1.809257e-05,-0.00022393325,-0.0016129024,-0.00234396,-0.0029112827,-0.0033055276,-0.0035475625,-0.0073509766,-0.0074780937,-0.007456756,-0.0073545096,-0.00719813,-0.0137113985,-0.0123671945,-0.011009993,-0.009711378,-0.008502135,-0.01353091,-0.009888004,-0.006804375,-0.0042269807,-0.0020307184,0.0022148513,0.007345011,0.011000409,0.0136863645,0.01562149,0.035894834,0.038383294,0.03901673,0.038598172,0.037492152,0.07008011,0.06341314,0.056575637,0.05006362,0.044096984,0.07153559,0.055363614,0.042621076,0.032533042,0.024655063,0.031793904,0.0164281,0.006434413,-0.00019533324,-0.004465991,-0.014893636,-0.019111682
0.0031283617,0.00015004817,-0.0004628653,-0.00032124284,-0.00016456383,-0.00033132778,-0.00015496902,-8.969538e-05,-0.0001963703,-0.00022000335,-8.416562e-05,-0.00020574374,-0.00015666806,-9.1813345e-06,-1.1626151e-05,-0.00020908585,-0.00026748254,-0.00024886886,-0.00021703728,-0.0001781516,0.0003334419,0.00040059217,0.00044399517,0.0004889923,0.0005453671,0.0011182869,0.0013488568,0.0014951862,0.0015832804,0.001641919,0.0032125777,0.0033376857,0.0034648632,0.0036984764,0.0039506154,0.0067101554,0.0074375593,0.007928078,0.008205699,0.008344742,0.014641119,0.014306351,0.013888604,0.013518894,0.013205774,0.024516294,0.0229734,0.021468073,0.020053862,0.01876461,0.032893773,0.029624503,0.026934078,0.02463295,0.022639269,0.038364124,0.03333129,0.02938167,0.02622499,0.023644332,0.039653014,0.033515494,0.028873866,0.025257643,0.022416601,0.037544772,0.03137913,0.026928525,0.023641514,0.021131326,0.036913138,0.03169563,0.028042452,0.02528358,0.02314046,0.041103277,0.035565056,0.031147078,0.027484467,0.024348041,0.04090645,0.032510504,0.02576748,0.020375822,0.01597313,0.023061933,0.013325241
-0.0049682045,-0.0013508947,-0.0016772754,-0.0014039234,-0.0009584725,-0.0015578035,-0.0010279793,-0.0007490035,-0.0006794097,-0.0006140017,-0.00077982165,-0.00067205983,-0.0006223976,-0.0007467105,-0.00078814395,-0.0007489595,-0.0006549968,-0.00060870964,-0.0005799526,-0.0005574545,8.456645e-05,0.00022589436,0.00029195653,0.00032043303,0.00032406085,0.001555412,0.001541692,0.001490072,0.0014238851,0.0013536698,0.0020488882,0.001809112,0.0016169632,0.0014493251,0.001274995,0.0010317987,0.0005863189,0.00025386538,-3.2142852e-05,-0.000292254,-0.0021187917,-0.0027402602,-0.0031902615,-0.003508077,-0.0037204803,-0.008371137,-0.008653314,-0.00868221,-0.008566782,-0.008383328,-0.016737722,-0.01590507,-0.015030414,-0.014158015,-0.013322019,-0.024850821,-0.02224895,-0.020222973,-0.018455753,-0.016987825,-0.030422566,-0.026505092,-0.023391144,-0.020833513,-0.018769378,-0.033012178,-0.028247533,-0.024352167,-0.021565713,-0.018916888,-0.031613544,-0.026526013,-0.022342011,-0.019281974,-0.016771704,-0.02895255,-0.023657018,-0.01981915,-0.016712232,-0.014582087,-0.025976965,-0.021264836,-0.017592419,-0.015100534,-0.0132074505,-0.022192687,-0.0180559
0.039913118,0.0073214243,0.0038064255,0.0029285382,0.002344118,0.0031667703,0.0024329748,0.0019493749,0.0015753523,0.0013594358,0.0019962087,0.0015573858,0.0012763323,0.0010725423,0.0009132306,0.0014376194,0.001201177,0.0010115744,0.0008766904,0.00078166655,0.0014521139,0.0013258501,0.0012387675,0.0011948915,0.0011817429,0.0023656182,0.002267938,0.0021725628,0.0020800468,0.002000106,0.0037105319,0.0034379931,0.003250732,0.0031536638,0.00309564,0.0053336667,0.005248076,0.005172526,0.005107084,0.0050502,0.009415506,0.008976564,0.00858051,0.008254532,0.007980853,0.015512931,0.014506861,0.013634834,0.012868442,0.012194493,0.022981286,0.021095736,0.019580875,0.01829824,0.017182935,0.03176209,0.028491551,0.025793754,0.023549892,0.02166209,0.039513897,0.03449823,0.030466527,0.027173784,0.024502864,0.043799236,0.037102245,0.031879988,0.027733602,0.024401775,0.04213417,0.033988968,0.027871758,0.023145666,0.019480925,0.031319328,0.02304235,0.01719206,0.012897432,0.009673719,0.013124505,0.007132387,0.0032068142,0.00054551056,-0.0012625607,-0.00447493,-0.0062910514
0.0006909703,-0.0006413312,-0.00045480183,-0.00062917697,-0.0004965484,-0.00083981757,-0.00064715766,-0.0005058981,-0.0004198444,-0.0005170154,-0.0006170149,-0.00045643156,-0.0006129351,-0.00051231415,-0.00048260926,-0.00023311852,2.6588677e-05,0.00015384943,0.00023045392,0.00026875257,-0.0003437188,-0.00032705886,-0.00032392656,-0.00032263595,-0.00033264467,9.099212e-05,5.0530893e-05,4.196442e-05,4.2913118e-05,3.8053753e-05,0.00085228373,0.00093987887,0.0009608774,0.0009686889,0.0010032735,0.0023172784,0.002652978,0.002819549,0.0029238393,0.0030210924,0.0059047793,0.006069133,0.006157461,0.00620213,0.0062141586,0.011972814,0.0118871555,0.011788146,0.01168883,0.011589578,0.022141242,0.021642823,0.021227887,0.020815812,0.020367539,0.037783798,0.03603975,0.03430566,0.03262551,0.031024339,0.05509989,0.05030717,0.04605238,0.04223117,0.03883863,0.06615,0.05719269,0.049790077,0.043653976,0.038485017,0.062842146,0.050663292,0.041564856,0.03451993,0.029014817,0.044383608,0.03343199,0.0260594,0.020942753,0.01729553,0.025466248,0.019854594,0.016309239,0.0141259385,0.012550639,0.019867469,0.017820697
0.008495835,0.0011076997,0.00022817205,3.402782e-05,-0.00018430775,0.000120470446,-0.00023211625,-9.278202e-05,8.121516e-05,2.4186473e-05,-0.0001279286,8.177378e-05,-1.2860892e-06,-2.543331e-05,-9.548931e-05,0.00016011929,0.00018213701,0.00017133896,0.00016194003,0.00014855024,0.00016953297,8.347763e-05,-2.227907e-05,-0.000112327485,-0.00016140033,5.4878634e-05,0.0002024153,0.0003620131,0.0005165936,0.000664699,0.0027699296,0.0027112036,0.0026691202,0.0027560452,0.0029174439,0.0073440494,0.0075823665,0.0077698175,0.007922275,0.00801859,0.015542099,0.015439092,0.015206196,0.014923356,0.014620778,0.02741537,0.026264926,0.025058312,0.023829484,0.022620462,0.040758196,0.037143957,0.0339503,0.031138966,0.028671024,0.050397575,0.043713503,0.038267933,0.03379701,0.030057931,0.05163376,0.042608686,0.03573002,0.030285643,0.025975952,0.043162424,0.033638675,0.026702322,0.021486996,0.01752312,0.0276188,0.019827407,0.01424321,0.010335654,0.007483747,0.010172055,0.0050663264,0.0018114857,-0.0002873795,-0.0016847602,-0.0047994875,-0.006282555,-0.006863048,-0.0070008314,-0.006854999,-0.012495838,-0.010938372
0.004348561,0.0011610152,0.0002656642,0.0008206109,0.00041992633,0.0008917162,0.0004708695,0.00030524013,0.00048265845,0.0004068847,0.00036686595,0.0006808822,0.0006644167,0.0009096745,0.0010273701,0.00279732,0.0037020408,0.004419766,0.0050280765,0.0055298517,0.011925714,0.012997042,0.0136379115,0.013951362,0.014050582,0.027506491,0.02695097,0.026034323,0.024964638,0.023861226,0.046204112,0.04210319,0.038420994,0.035199367,0.032385014,0.058833297,0.051449448,0.045515787,0.04065329,0.036591228,0.06282278,0.05314913,0.045733538,0.0398806,0.03516117,0.05816924,0.047787633,0.04011003,0.034233604,0.029623795,0.047560126,0.038010098,0.031176966,0.026136478,0.022293435,0.035151973,0.027666394,0.022415806,0.018545613,0.015638616,0.024683159,0.019374995,0.015707523,0.012958559,0.010908969,0.017753452,0.013933067,0.011131707,0.009048055,0.007528696,0.013209367,0.010192041,0.008100813,0.0065060533,0.0051563615,0.008699266,0.00661142,0.0050450596,0.003957119,0.003101703,0.0051048137,0.0037135547,0.0027190421,0.0018778285,0.0014895151,0.0041514006,0.0035726673
0.19585837,0.03447378,0.019631237,0.013253253,0.0093560405,0.013696516,0.008846605,0.0063569136,0.004875594,0.0039738673,0.005924118,0.004289727,0.003404764,0.0028709027,0.0024987645,0.0035170948,0.002850173,0.002433839,0.0021393788,0.0019177638,0.0031807942,0.002685535,0.0023132768,0.0020397548,0.0018427653,0.002270042,0.0019989412,0.0018368745,0.0017548285,0.0017370537,0.0013376428,0.0013737248,0.0015243485,0.0016922456,0.0018084624,0.0020947505,0.0021379727,0.0021997925,0.00224406,0.002263896,0.0036948302,0.0034984946,0.0033264356,0.0031836207,0.0030684099,0.005194879,0.004697797,0.0042915507,0.003957103,0.0036788937,0.0062951515,0.0054543484,0.0048149936,0.004320937,0.0039118715,0.007305289,0.0062364526,0.0053335372,0.0046659335,0.004094615,0.007746662,0.0063431067,0.0052988036,0.0044701556,0.003796998,0.006982175,0.0053754137,0.004311374,0.003334463,0.0025966468,0.0039207716,0.0023833243,0.001470711,0.00063693296,0.00012156703,-0.0007081812,-0.0016658453,-0.0020489874,-0.0020701818,-0.0024752743,-0.0047588004,-0.004465057,-0.004042271,-0.0037065952,-0.003322214,-0.004869728,-0.0041925428
0.00029781763,-0.00051605084,-0.0013479132,-0.000485628,-0.00034008815,-0.0005188701,-0.0003209186,-0.0003012126,-0.00028104364,-0.00032181287,-0.00026456235,-0.00022415137,-0.00038429204,-0.00035003686,-0.00042046618,-0.00012130579,-1.4827887e-05,9.067004e-06,5.8623846e-06,-1.6968599e-05,-0.0006304323,-0.00065680366,-0.0006524679,-0.0006406822,-0.00063673384,-0.0010558331,-0.0010307891,-0.0010554192,-0.0010875489,-0.0011067723,-0.0015098728,-0.0014662539,-0.001359313,-0.001214953,-0.0011169272,-0.0014463767,-0.0014093195,-0.0013429647,-0.0012814635,-0.0012380497,-0.001196881,-0.0011217421,-0.001131945,-0.0011179714,-0.0010570745,-0.000874834,-0.00064794184,-0.00041712052,-0.00024193405,-0.00013967919,0.0005176817,0.00071772153,0.000915151,0.0011011133,0.0012828913,0.0035724298,0.003760469,0.0039346614,0.0040592393,0.0041688913,0.009008848,0.009043817,0.009029026,0.008986413,0.008909379,0.017706025,0.017282397,0.016844379,0.016453132,0.015996842,0.03099152,0.029336376,0.02780481,0.026400963,0.025086297,0.04632337,0.042213332,0.03881171,0.03592452,0.03343087,0.059924603,0.05306235,0.04756465,0.043064456,0.03928368,0.06901479,0.059541035
-0.010882911,-0.0032040514,-0.0015519216,-0.0013628559,-0.0008393934,-0.0015915373,-0.00092568155,-0.0008067848,-0.0006823375,-0.00065027113,-0.00089116243,-0.0007178727,-0.0007036954,-0.000637901,-0.00051320286,-0.000787666,-0.0006861129,-0.0006251938,-0.0005813657,-0.0005495659,-0.0014120736,-0.001282767,-0.0011638327,-0.0010254093,-0.00089197897,-0.0012891412,-0.0011256216,-0.0009812369,-0.00086583954,-0.00077958684,-0.0009625933,-0.0009837429,-0.0010854013,-0.0011315065,-0.001098512,-0.0027187495,-0.0025557554,-0.002491071,-0.0024197137,-0.0022995502,-0.005511491,-0.005546402,-0.005467893,-0.0052917437,-0.0050706402,-0.009283736,-0.008939904,-0.008536668,-0.008094879,-0.00764324,-0.013560586,-0.012226438,-0.011005587,-0.009938403,-0.009016072,-0.01550112,-0.012924014,-0.010842607,-0.00915223,-0.0076896767,-0.011586285,-0.007886492,-0.0050937138,-0.0028654162,-0.001104711,0.0022907818,0.006223545,0.0088911895,0.010782542,0.012114698,0.028036283,0.029838387,0.030302947,0.030161291,0.02958602,0.05709277,0.052621327,0.048059296,0.043588858,0.039487075,0.06669134,0.05401351,0.04372418,0.03534235,0.02844384,0.038828775,0.023794502
-0.19955853,-0.051067915,-0.03238047,-0.023591641,-0.018489208,-0.027349018,-0.020129288,-0.015768599,-0.0128376465,-0.010805265,-0.016793167,-0.012950178,-0.010532054,-0.0087748645,-0.007423456,-0.01153148,-0.0088767465,-0.0071100425,-0.0058412757,-0.004896908,-0.0076192953,-0.0057654353,-0.004509263,-0.0036202904,-0.0029652065,-0.0048745493,-0.0035635368,-0.0026670317,-0.0020208124,-0.0015306917,-0.0028448487,-0.0019949852,-0.001437265,-0.0009915109,-0.00063648087,-0.0025614405,-0.0019285979,-0.0014953795,-0.0012260696,-0.0010403772,-0.0028307207,-0.002877697,-0.002983592,-0.0030174376,-0.0029585364,-0.0057504834,-0.0054732603,-0.005204889,-0.0049747904,-0.0047824634,-0.009928487,-0.008942587,-0.008060254,-0.007265809,-0.0065629547,-0.012454608,-0.0104082255,-0.008921408,-0.0077680983,-0.0068514976,-0.0115309935,-0.009016511,-0.007119325,-0.005839048,-0.004788332,-0.006757115,-0.00474135,-0.0032149318,-0.002297967,-0.0015124513,-0.0011923497,-5.04849e-05,0.00038127892,0.0008267393,0.0010489923,0.0014744737,0.0012396855,0.0011748212,0.00094052043,0.0005035645,-6.446603e-05,-0.00018455682,-0.00014936856,-6.149513e-05,0.00017051044,3.0875104e-05,0.00062335195
0.04862909,0.14690273,0.07213354,-0.02395074,0.10904133,-0.07566619,0.030183764,0.15557307,-0.1365498,-0.16152596,-0.08745413,-0.122546405,0.10615689,-0.0023886093,-0.12034125,-0.09013581,0.12639871,-0.10019073,0.13602383,0.12160987,0.15633282,0.13297756,0.010388494,-0.13312991,-0.107415035,-0.022062978,-0.017705644,0.097239636,0.007896195,0.03309206,0.08426788,0.019759038,0.13273887,-0.06189005,-0.050692398,-0.10121374,-0.15702358,-0.17587642,0.1526716,-0.13674179,-0.050386548,0.11880532,0.015621499,0.061616004,-0.0027195762,-0.05536613,0.037381805,-0.07313839,-0.07585373,0.17324634,0.17511341,0.17389534,0.07221421,-0.18815988,0.079549834,-0.15736683,-0.04722342,-0.17029348,0.054466,-0.21192291,-0.18807988,-0.010095725,0.13605401,0.06404161,0.06711945,-0.18881994,-0.11830712,0.0059886104,-0.021014951,-0.1342436,0.040638655,0.19918843,0.17573854,0.14037976,-0.013213292,0.10506288,-0.17952952,0.1578771,-0.03629213,-0.13594092,-0.06857018,0.1613592,-0.041775264,0.016840741,-0.13155699,0.023150649,-0.10180307
0.0053665764,0.00023615589,0.0014629923,0.00043184418,0.00055322854,0.00058071536,0.0005777497,0.00040399056,0.00029334505,0.000254482,0.0004152628,0.00028533573,0.00030835278,0.00027040494,0.00032549465,0.000363427,0.00031790824,0.0003023258,0.00027575402,0.00025272695,0.0003172768,0.00026763353,0.00020760359,0.00019120853,0.00019659135,-0.0001235361,-0.00013580117,-4.5981214e-05,8.8848465e-05,0.00023899718,-0.000184776,-0.00014923644,-0.00025215096,-0.00031594795,-0.0002546581,-0.0014358754,-0.000993982,-0.0005956978,-0.0002374723,0.00011223799,-6.318177e-05,0.00044616975,0.0007773269,0.0010586949,0.0013290343,0.0042408593,0.004618226,0.004851988,0.0049529234,0.004949523,0.0109319575,0.010311827,0.009773171,0.009317581,0.008932589,0.0182969,0.016522758,0.015093832,0.013926298,0.012978195,0.02584034,0.023051564,0.020878507,0.019159734,0.017766237,0.034414243,0.030613773,0.02762302,0.025201043,0.023159845,0.043471217,0.038040742,0.033677693,0.030066384,0.027016252,0.047407538,0.03941518,0.03313927,0.028095368,0.02404452,0.03801559,0.028591352,0.02173498,0.016682275,0.012890687,0.01622383,0.009072432
0.0016054852,-0.00036561047,-0.0009409988,0.00031534786,0.00060276536,0.00032991337,0.0006841088,0.00063253264,0.00056837674,0.000543989,0.0006851591,0.0005882672,0.00045051787,0.00035916752,0.00024017827,0.00039208148,0.0002991281,0.0001831672,8.3964405e-05,5.3019976e-06,-0.0002584513,-0.00022582155,-0.00014697493,-4.0654602e-05,5.710015e-05,0.00050258625,0.0005418074,0.00052777573,0.0005086904,0.0005095748,0.0014064613,0.0014559688,0.0015287993,0.0015905618,0.0015879133,0.0023659405,0.002345731,0.0023223215,0.0022932265,0.0022551573,0.0034987873,0.0033594873,0.0032532993,0.0031784084,0.003131038,0.005364633,0.005209513,0.0050693606,0.004949061,0.0048515233,0.008158221,0.007759648,0.007459939,0.007220105,0.0069887307,0.011524021,0.011049861,0.010594835,0.010169197,0.009812392,0.015935007,0.015321117,0.0148385605,0.0144477375,0.014101444,0.023719493,0.02299137,0.022343202,0.021832144,0.021255653,0.03793154,0.036310308,0.03469797,0.033094414,0.031546976,0.055886604,0.05102127,0.04656389,0.042551372,0.03894154,0.066212505,0.05618759,0.047798086,0.040818915,0.03499395,0.055742614,0.04260778
0.009728615,0.00244655,0.00083859754,0.0015559433,0.0012501923,0.0016704391,0.0013187523,0.0010583148,0.0007791909,0.00063696766,0.0010532802,0.0007283946,0.0005720889,0.00044624452,0.0004940519,0.00074839196,0.00064187136,0.00060300366,0.0005966322,0.00060639915,0.0009948373,0.0010498614,0.0011465143,0.0012225213,0.0012802588,0.0019125353,0.0021075977,0.0021809586,0.0021866364,0.0021763772,0.0039151777,0.003936405,0.003948654,0.004007645,0.004056208,0.006081127,0.0058976375,0.0056711803,0.005407655,0.005150522,0.007887746,0.006655175,0.0056165042,0.004806192,0.004188103,0.006635222,0.0049659573,0.0037097854,0.0027471941,0.0020013559,0.002766474,0.001514827,0.0008111568,0.00045323092,0.0003010228,0.0013817542,0.0018259849,0.002501887,0.0032358838,0.00397338,0.010684137,0.0128654055,0.01466048,0.016087987,0.017190475,0.03679828,0.038305193,0.038684268,0.0384261,0.037596382,0.07105847,0.065542124,0.05980907,0.054142036,0.048798516,0.08099805,0.06552796,0.05292269,0.0427224,0.034506913,0.047598064,0.030572891,0.018921692,0.010740992,0.0050981427,-0.0018118271,-0.009014257
-0.009259416,-0.0003922509,-0.0005157007,7.389106e-06,0.0004113429,-0.00013021874,0.0003651319,0.0003991869,0.00035870392,0.00025775784,0.0003963231,0.0003621282,0.00021837607,-1.9142957e-05,-8.713834e-05,0.00042178167,0.00041512633,0.00037649856,0.00034460178,0.00031692686,0.0010823885,0.0010621945,0.001009264,0.000955015,0.000897245,0.0020260105,0.0018034982,0.0015975897,0.0014284431,0.0012972812,0.00206307,0.0017231035,0.001477964,0.0012644927,0.001029901,0.000618113,-2.8636263e-05,-0.0005018029,-0.00088105234,-0.0011955744,-0.0037053148,-0.0045183576,-0.0050845006,-0.005457204,-0.00567907,-0.011810653,-0.012122758,-0.012090194,-0.011875922,-0.01157909,-0.022157913,-0.020971546,-0.019718936,-0.018483486,-0.017303746,-0.031317662,-0.027871052,-0.02508353,-0.022654975,-0.020588646,-0.035922725,-0.03055702,-0.026197439,-0.022753112,-0.019956527,-0.033637583,-0.027307963,-0.022281826,-0.018911615,-0.015983388,-0.026504226,-0.020420443,-0.01596212,-0.012532078,-0.009620121,-0.015230343,-0.009060312,-0.004693829,-0.0012968446,0.0011485312,0.006082609,0.011723661,0.015750479,0.018768504,0.020964934,0.046102457,0.0495797
-0.0027089892,-4.5150373e-06,-0.00061899016,-0.0004102796,-0.00077580323,-0.00040800252,-0.0008404653,-0.00073004625,-0.0005750922,-0.00064507406,-0.00081156596,-0.0005764579,-0.00065041304,-0.0005597216,-0.0005006774,-7.6171294e-05,0.00019906805,0.00037992783,0.00050495553,0.0005764809,0.0003682368,0.00024119986,6.0252598e-05,-0.00012567753,-0.0002875079,-0.0015137307,-0.00183296,-0.002049971,-0.0021786594,-0.0022273338,-0.0039203716,-0.0039730696,-0.0039214417,-0.0038109862,-0.003673513,-0.006538559,-0.005734286,-0.004933604,-0.004215175,-0.0035780247,-0.00553822,-0.0035159136,-0.0019259494,-0.0006154538,0.000495731,0.0029406361,0.0061019193,0.008397812,0.010026474,0.011156318,0.022888718,0.024928952,0.025844939,0.02605608,0.02582746,0.048542198,0.045693856,0.04233174,0.03891003,0.035548113,0.062003367,0.05185299,0.0433396,0.036095113,0.029997561,0.047081828,0.032851487,0.022555934,0.014927839,0.009158062,0.008798599,-0.0013993273,-0.0074420683,-0.0110028265,-0.013045708,-0.026685828,-0.027075663,-0.025952173,-0.024366315,-0.022561235,-0.03804938,-0.0315609,-0.026348438,-0.022505349,-0.019515345,-0.029096227,-0.022327593
0.009829453,0.0019722856,0.00086703664,0.0004542734,0.00035899424,0.00054317294,0.0004146678,0.0003797004,0.000273743,0.00030275952,0.0004106632,0.00024416245,0.0002657759,0.00020206082,0.00012524828,-9.439751e-06,-9.738728e-05,-0.00016868947,-0.00023359885,-0.00028658748,-0.0001594946,-0.00018761063,-0.00020622705,-0.00020912752,-0.00021443042,-1.1913042e-05,-9.195274e-05,-0.0001450062,-0.0001760229,-0.00019025152,-0.00028701435,-0.00029361932,-0.00029552454,-0.00028804326,-0.00027653103,-0.0006373188,-0.00046812382,-0.00033383124,-0.00024243002,-0.00018222029,-0.00054538494,-0.00039200753,-0.00032772112,-0.00030007205,-0.00028492557,-0.0011212137,-0.001080535,-0.0010810789,-0.0011074068,-0.0011589329,-0.0035067277,-0.0036122883,-0.0036919396,-0.0037455047,-0.003768392,-0.008628739,-0.008471467,-0.008384774,-0.008189084,-0.008018918,-0.016122492,-0.015171884,-0.014354807,-0.013575073,-0.012738504,-0.024390148,-0.022149883,-0.02037638,-0.018622331,-0.017278196,-0.03178287,-0.028484726,-0.025921538,-0.023772722,-0.022134386,-0.039939675,-0.03535069,-0.03188136,-0.028773401,-0.026234496,-0.04580873,-0.040068757,-0.035515975,-0.031699307,-0.02914983,-0.049408805,-0.042823754
0.017202167,0.004089646,0.0024058954,0.0019086056,0.001536043,0.0022524977,0.0016512804,0.0012637088,0.0009371782,0.00070249196,0.0013308271,0.0009171134,0.0006425176,0.00051585736,0.0003173696,0.0004836438,0.000111471454,-0.00011035249,-0.0002629076,-0.00036965657,0.00013514324,-1.8670646e-05,-0.00015585958,-0.00024432444,-0.00028650468,0.00067825476,0.0005464847,0.0004318019,0.0003459069,0.0002951403,0.0010607269,0.00094780826,0.00093710853,0.0009985181,0.0010679957,0.0019708688,0.0021249303,0.002266636,0.0023438276,0.0023841104,0.005034953,0.004765984,0.0043959543,0.004086549,0.0038600268,0.007781848,0.0070102946,0.0063272673,0.005666741,0.005019658,0.008810499,0.007145104,0.0058982363,0.0049719787,0.0042873416,0.0074174656,0.0056883106,0.004512388,0.0037286296,0.0032255994,0.006159119,0.0057424777,0.005781451,0.006060886,0.0064509646,0.013284564,0.01529809,0.017001972,0.018497016,0.019593393,0.04000661,0.04217326,0.043001667,0.04285443,0.042055562,0.07754871,0.07165211,0.06491365,0.058133017,0.051652785,0.08188623,0.063001424,0.04733183,0.034543574,0.024178449,0.021990838,0.0014746962
0.010705484,0.003132782,0.0017229712,0.0010774353,0.0008693403,0.0011558272,0.0008714295,0.00072698365,0.0005299441,0.00042651757,0.000718724,0.00045537576,0.00030221377,0.0001966493,0.00011042127,0.00017576193,0.00011080787,6.5176995e-05,3.1935087e-05,5.7398447e-06,-0.00015928556,-0.0001567785,-0.00013116145,-8.9994224e-05,-5.2332154e-05,-8.103438e-06,-7.5151183e-06,6.460614e-06,2.869108e-05,5.668994e-05,-4.2806467e-05,-1.8161518e-06,2.0877429e-05,4.1808322e-05,6.329655e-05,-0.00020617998,-2.6598034e-05,0.000109466055,0.00019887675,0.00025478966,2.4767447e-05,0.00015095391,0.00019505224,0.00020408793,0.00019933376,-0.0002173245,-0.00020439728,-0.00024098766,-0.0003051736,-0.00038900302,-0.0018280498,-0.0019779643,-0.002112381,-0.0022161016,-0.002285318,-0.0057609524,-0.0057520694,-0.005591321,-0.0055463156,-0.0054992274,-0.011844894,-0.011261175,-0.010845679,-0.010395927,-0.009883033,-0.019950924,-0.018524168,-0.017509712,-0.016369175,-0.015564832,-0.029833872,-0.027036458,-0.025040625,-0.023305018,-0.02190686,-0.04023645,-0.0356946,-0.032266483,-0.029734755,-0.027518507,-0.048978258,-0.042978715,-0.039005425,-0.035224173,-0.03256092,-0.056996655,-0.05013869
0.006983517,0.0023966916,0.0013275301,0.0010168372,0.00041656182,0.0012651052,0.00047018725,0.00024075108,0.00019306742,0.00020188864,0.0002497779,0.0001947724,0.00019564312,0.00017387542,0.00021020994,0.00026341557,0.00035022537,0.00035046053,0.00032250423,0.00028977048,-0.00071675505,-0.0008470483,-0.0008741581,-0.00085025723,-0.00079044397,-0.0024492303,-0.0020719133,-0.0016949389,-0.0013274051,-0.0009690074,-0.0015229189,-0.00048104848,0.00039468706,0.0011231864,0.0017370775,0.0038739673,0.00544742,0.0066596824,0.007577332,0.0082793245,0.016688729,0.017637156,0.018063383,0.01819533,0.018149082,0.033710327,0.03231527,0.030733237,0.029082654,0.027426248,0.04789685,0.04243239,0.0377482,0.0337006,0.0301931,0.050877355,0.04154647,0.03419137,0.028341945,0.023608418,0.037723243,0.027030574,0.019352194,0.013642279,0.009365404,0.011068607,0.0030363565,-0.0018960483,-0.005147372,-0.007003993,-0.016892754,-0.01858848,-0.019045861,-0.018614626,-0.017706264,-0.032132555,-0.02784109,-0.024348136,-0.021241272,-0.01871038,-0.029571904,-0.023665177,-0.019017039,-0.016197158,-0.013850195,-0.019628022,-0.01567048
-0.0013169955,-0.0020037694,-0.0014504773,-0.00074041984,-0.00045784953,-0.0007956006,-0.000526445,-0.0005021621,-0.0004954048,-0.00036375952,-0.00053966895,-0.0005027611,-0.00031902845,-0.00034385684,-0.0003044905,-0.00039582019,-0.000258183,-0.00018018244,-0.00014740387,-0.00013871094,0.000198429,0.00022572649,0.00021892053,0.00020335507,0.00019387914,0.0004049107,0.00033967412,0.00028333836,0.00026099285,0.00027976383,-0.00010800158,6.507934e-05,0.0002471577,0.00036010108,0.00038957858,-0.00050736126,-0.00034277095,-0.00024696742,-0.00022377155,-0.0002139307,-0.0008955109,-0.00071462535,-0.00059290224,-0.00047415312,-0.0003437726,-0.00078011054,-0.0004493661,-0.00020817781,-3.768422e-05,6.8143476e-05,-0.00018899137,-3.0743628e-05,0.00013483755,0.00026970438,0.00037365963,0.0006292888,0.00079382595,0.0009790503,0.0011345212,0.001334372,0.002887056,0.0034199299,0.0038051773,0.004158563,0.0044459547,0.008524792,0.008984535,0.009205919,0.009344983,0.009356858,0.017561918,0.017252272,0.01687408,0.016594758,0.016355373,0.03157554,0.03100005,0.030545047,0.030124407,0.029738525,0.058263566,0.05654139,0.05461738,0.052624483,0.050608933,0.09398812,0.08666734
-0.0039087534,-0.00017849111,-0.0002605957,-0.000176622,-0.00021833782,-0.00015456267,-0.00026747107,-0.00036004992,-0.00051536586,-0.00015096416,-0.00040968368,-0.00054780714,-0.0001133557,-0.00021747826,-0.00014612678,-0.00067517505,-0.00044921294,-0.00036008196,-0.00036019666,-0.00038392277,0.00028256344,0.00032929884,0.00032892457,0.0003195736,0.0003296882,0.0007569576,0.00083060306,0.00085192965,0.00085366576,0.0008569392,0.0013078,0.0011585392,0.0010333705,0.000986389,0.0009593076,0.0011332744,0.0010887809,0.0009845276,0.00089724385,0.00083730905,0.00035919034,0.0002944656,0.0002868058,0.00033186594,0.00039920202,0.00033553096,0.0003975,0.00047895167,0.0005618505,0.0006419288,0.0011780377,0.0013378903,0.0014888393,0.0016248125,0.0017364535,0.0029733651,0.0031419524,0.0032443157,0.003288371,0.0033546216,0.0057979515,0.0059358357,0.0060365773,0.0061435443,0.0062606107,0.011623048,0.011683115,0.011731862,0.011787953,0.011786933,0.022045234,0.021558117,0.021091582,0.02074233,0.020398866,0.037440162,0.036223505,0.035287946,0.0344695,0.03374035,0.062106732,0.059569694,0.057216763,0.05495926,0.05278406,0.0959537,0.08888361
0.010773744,0.0025343942,0.0013938437,0.0009118606,0.0007641605,0.0010265112,0.00078879256,0.0006679413,0.0005345374,0.00044848764,0.0006697634,0.00048507165,0.00039020338,0.00024661748,0.00014624241,0.00047350704,0.00050234096,0.0004948876,0.00047677007,0.00045786385,0.00088379637,0.00085240434,0.0007971978,0.00073633174,0.00067532214,0.0009156983,0.0008253791,0.00074682635,0.0006861093,0.00064405776,0.00073858385,0.00059671106,0.0004781186,0.00039005943,0.00031274976,0.00018631185,9.238062e-05,1.5672253e-05,-5.9107188e-05,-0.00013568728,-0.0009553869,-0.0010500806,-0.0011414832,-0.0012122496,-0.0012579504,-0.0030814842,-0.003030644,-0.0029626521,-0.0028889922,-0.0028186261,-0.006220886,-0.005874546,-0.005565373,-0.005280722,-0.005013704,-0.010439444,-0.009567916,-0.008972986,-0.008377059,-0.007892985,-0.015490887,-0.013958501,-0.01277109,-0.011843776,-0.011066974,-0.021192528,-0.019039275,-0.017599009,-0.016269637,-0.0153174205,-0.028778365,-0.025615217,-0.02358567,-0.021406803,-0.019580083,-0.03680741,-0.032139327,-0.028981633,-0.026569288,-0.024986176,-0.045087557,-0.04004442,-0.036160138,-0.033368904,-0.031211464,-0.054407317,-0.047988947
0.005024227,0.0023135636,0.0013741439,0.0009949523,0.0009143301,0.0010409456,0.00089913874,0.0008187786,0.0006540478,0.000502864,0.00080982456,0.0005865261,0.00036124996,0.000104891136,-1.3968383e-05,0.00046118425,0.00041384966,0.00035118792,0.00031000515,0.00027995897,0.00034932513,0.00029426505,0.00024724216,0.00021213613,0.00018119719,0.00022547848,0.0001759427,0.0001517769,0.00015019158,0.00016997967,-0.00029444663,-0.00030897878,-0.00030886472,-0.00029107026,-0.00027435375,-0.00096070976,-0.0008153223,-0.0007191582,-0.0006673583,-0.0006435748,-0.0015060604,-0.0013488473,-0.0012694013,-0.0012165201,-0.0011716541,-0.0022980866,-0.0020667238,-0.001919386,-0.0018295206,-0.0017814323,-0.0036863238,-0.003491298,-0.0033540893,-0.0032432885,-0.003144405,-0.0064227595,-0.0061449436,-0.006011759,-0.0058341958,-0.0056676217,-0.011308729,-0.010494991,-0.01001369,-0.009641495,-0.009278907,-0.01784137,-0.016682902,-0.01604291,-0.015170008,-0.014455118,-0.027429271,-0.025000364,-0.023532169,-0.022072865,-0.020946689,-0.03865878,-0.035080835,-0.032218397,-0.030377813,-0.02873423,-0.05129052,-0.046461046,-0.042431828,-0.039281078,-0.03779277,-0.06663146,-0.06024857
-0.007803851,-0.0015632275,-0.00033706674,-0.00058865,-0.00028462044,-0.00084304734,-0.0004335331,-0.00031162635,-0.0002725591,-0.00018678192,-0.00042148787,-0.0003485415,-0.00023886595,-0.00029270677,-0.00028551806,-0.00037796726,-0.00022893382,-0.00017389486,-0.00017158885,-0.00019454013,-0.0008798628,-0.0009333694,-0.0009986981,-0.0010045232,-0.00096671394,-0.0017777751,-0.0016606436,-0.00151412,-0.0013646157,-0.0012248415,-0.0024908292,-0.0022119957,-0.0019902117,-0.0017577675,-0.0015174311,-0.0021626942,-0.001731685,-0.0013211758,-0.0009984631,-0.00075908366,-0.00042962437,-0.00020736939,-0.00027227617,-0.0003840189,-0.00044787079,-0.0007934219,-0.0005544808,-0.00046871146,-0.00053205865,-0.00070465566,-0.0034517164,-0.003335143,-0.0032584155,-0.003195103,-0.003099421,-0.007663331,-0.0072170566,-0.0067443526,-0.006326761,-0.0058667837,-0.01110572,-0.009816784,-0.00885066,-0.008005406,-0.007270561,-0.01256099,-0.01049311,-0.008885741,-0.007511845,-0.006280941,-0.0094789015,-0.0055451933,-0.0022582782,0.000691392,0.003221372,0.012457949,0.019624202,0.025009299,0.029003644,0.03198495,0.07005852,0.074699715,0.07639222,0.07629842,0.07507053,0.14542843,0.13604285
0.000813324,0.00027043073,0.0005434266,-9.1271664e-05,5.0551433e-05,5.6645615e-05,3.9947263e-05,7.826208e-05,-2.3961184e-05,-3.0468116e-05,4.418318e-05,-6.982502e-05,-6.810897e-05,-0.00013071451,-0.00017811604,-0.0002509535,-0.00026163863,-0.00027326256,-0.000297349,-0.00032013602,-0.000577485,-0.00055457855,-0.0005853906,-0.000553376,-0.00045917268,-0.0003753917,-0.00026107577,-0.00014001815,-5.477079e-06,0.00014495556,-0.000406092,-0.00050906383,-0.0005111502,-0.000401336,-0.00026422707,-0.0004216535,-0.0005299825,-0.00056131877,-0.00052039116,-0.00047314918,-0.0016767002,-0.0015188428,-0.0014673856,-0.0014664241,-0.001470787,-0.0038811718,-0.0037700876,-0.003506762,-0.0031949482,-0.0029063788,-0.005937095,-0.005590718,-0.0051929024,-0.004758783,-0.004299888,-0.0072305566,-0.0062488825,-0.0053937356,-0.0046731625,-0.004009446,-0.005750954,-0.0039220327,-0.0024071473,-0.001091603,2.0368418e-05,0.0034760411,0.006303573,0.00839616,0.0100353435,0.0112190675,0.025863837,0.027775133,0.028511463,0.028545957,0.028154787,0.054214835,0.05055687,0.046436444,0.042312756,0.03841154,0.06582057,0.053981386,0.044127498,0.036003917,0.029313907,0.04353338,0.028868364
0.22166805,0.034235537,0.01792895,0.011652509,0.0082631735,0.011502192,0.0075479797,0.005264716,0.0040091677,0.0032333448,0.004743606,0.0033841836,0.0025957678,0.0021927212,0.0018673254,0.0023482682,0.001727814,0.0013095398,0.001024995,0.0008288561,0.0015184529,0.0011631579,0.0009412081,0.000792738,0.0006783357,0.000962423,0.0007546963,0.0005979506,0.00046550378,0.0003513171,0.00014433014,-4.658637e-05,-9.445395e-05,-4.2368658e-05,3.3061646e-05,-0.00021937222,-7.8218276e-05,6.26135e-05,0.000179456,0.0002600652,0.00048602704,0.00052415987,0.0005489183,0.0005764606,0.0006071979,0.0014697602,0.0012837518,0.0011328313,0.0010182015,0.0009317006,0.0021891652,0.0016937407,0.0013531769,0.0011035518,0.0009050841,0.002601372,0.0018912174,0.0014185839,0.0010367039,0.0007526974,0.0024371066,0.0015748318,0.0010312191,0.00083048985,0.0006612484,0.0016711389,0.0011917336,0.0009652369,0.00073386356,0.0008569566,0.0014303126,0.0008028838,0.00043905928,0.00047244917,0.0004940503,-6.055775e-05,-0.00059315097,-0.00061385037,-0.0008839748,-0.0012445833,-0.0025749179,-0.0031146947,-0.0033804018,-0.003679779,-0.0039360197,-0.0048439363,-0.0051747677
0.017924275,0.0042838496,0.0027068863,0.001819487,0.00096073176,0.001942779,0.0009631025,0.00055827014,0.0003962695,0.00016174538,0.0006021903,0.0005344058,0.00041753086,0.0005063285,0.0007762916,0.0027233672,0.0035085874,0.004125329,0.0046113143,0.0049869916,0.009092757,0.009832041,0.010312948,0.010606865,0.010754975,0.020869719,0.020711564,0.020321002,0.019804055,0.019219322,0.036346063,0.03416694,0.03209195,0.030152576,0.028359506,0.050967216,0.045647394,0.04118415,0.0373689,0.034087215,0.058698304,0.05003119,0.04320535,0.037735388,0.033289406,0.05433662,0.04398873,0.03635425,0.03053777,0.025977844,0.039042335,0.029483624,0.022872202,0.01811658,0.014601843,0.01936822,0.012975953,0.008721997,0.005923476,0.0039526303,0.0027356886,-9.1906964e-05,-0.0016682782,-0.0026613495,-0.0032921059,-0.0087349545,-0.00918916,-0.009261197,-0.009143003,-0.009004619,-0.017550508,-0.016392108,-0.015183893,-0.014268809,-0.013535776,-0.024653632,-0.021729134,-0.019306447,-0.017220382,-0.01551907,-0.026136331,-0.021468535,-0.017760588,-0.015122159,-0.012851682,-0.018845294,-0.014393124
0.03980884,0.11194238,-0.105557814,-0.08884042,-0.13706107,0.16289493,-0.124176696,0.053698353,-0.022981986,0.040469274,0.044760834,-0.08501516,0.13886583,-0.18361604,-0.19231829,-0.015956903,-0.020137679,-0.07514449,-0.09173398,0.10614775,-0.12887695,-0.0050309454,-0.059001874,-0.1871282,-0.044332944,0.14541991,-0.15754497,-0.07209632,-0.004122836,0.05593919,-0.09674558,-0.008610873,-0.17691617,0.055364467,-0.16824186,0.14589432,0.15444358,-0.1728252,0.14170402,0.08706717,0.071118936,0.11662066,-0.03460107,-0.16923296,0.08939043,-0.04198688,-0.12547818,-0.040497757,0.15475754,-0.17371541,-0.1236747,0.12103992,0.12406345,0.14702787,-0.04179253,0.1698934,-0.02058168,-0.09711858,-0.12469826,0.14455774,-0.119209416,-0.009673281,0.0056872535,-0.15252872,-0.11679115,-0.026826963,0.18732634,-0.03782822,-0.08349115,-0.11525863,0.19911173,-0.039943084,0.074025236,-0.17713337,-0.06870949,-0.16706641,-0.04562567,-0.121061906,-0.14810523,0.14722566,0.12138505,0.094132036,0.093477406,0.08983579,-0.1632003,-0.059397694,-0.041973773
0.0042576627,-0.00012878308,0.00022075723,0.0005155903,0.00036167662,0.00063169235,0.00038271004,0.00035465008,0.0002608978,0.00027593633,0.00035993007,0.00025098393,0.00031243076,0.00022476149,0.00020643712,0.00017156352,0.00011055197,8.8762616e-05,6.60869e-05,5.0655683e-05,0.00051821483,0.00050559756,0.00047054503,0.00044881864,0.00045831327,0.00065743306,0.00068922236,0.0007194068,0.0007616186,0.0008306262,0.0012199299,0.0010965163,0.0010094544,0.0009689571,0.0009550343,0.0013198995,0.0012046401,0.0011605076,0.0011773419,0.0012406595,0.0026267287,0.0026664687,0.002655448,0.0026511857,0.0026605607,0.0053726104,0.0055193356,0.0055556837,0.005485639,0.00533961,0.009786427,0.009364753,0.009057573,0.0088286465,0.008639281,0.016270788,0.015424033,0.014729629,0.014179389,0.013731862,0.026811764,0.02525015,0.023919245,0.022751864,0.021724159,0.041163657,0.03773637,0.03473505,0.032156095,0.029820714,0.052978437,0.046101928,0.040453877,0.035667796,0.03157627,0.05077588,0.040633533,0.032895237,0.02683075,0.022044333,0.03108812,0.021430137,0.014746633,0.010059104,0.00669166,0.0062426054,0.001181698
0.012730362,0.0028154915,0.0015726957,0.001132365,0.0008492622,0.001139755,0.0007649363,0.0006162505,0.0002790945,0.00032454563,0.0005348343,0.00020566091,0.00035099493,0.00011396344,0.00011173567,0.00019889741,0.00021047654,0.00019861937,0.0001334107,5.33637e-05,0.00089789793,0.00070744613,0.00050087273,0.00029401283,0.00012458168,0.0002222762,6.0210576e-05,-5.100807e-05,-0.00013103028,-0.0001871198,1.3943936e-06,-0.00022991675,-0.0003712995,-0.00037866196,-0.000313283,-4.308125e-05,-1.3674784e-05,0.00012181349,0.00026838653,0.00039626437,0.0019979165,0.0017755164,0.0015081088,0.0013035383,0.0011887896,0.0040243873,0.0037487817,0.003526269,0.0033203932,0.0031199467,0.0071135806,0.0068674027,0.006730597,0.006654999,0.0066218986,0.014713599,0.014622426,0.014488351,0.014329593,0.014152666,0.03007773,0.029146276,0.028076721,0.026928525,0.025781287,0.050529137,0.046293836,0.042305242,0.03871803,0.035425313,0.06383746,0.054370612,0.04668179,0.040295247,0.03500835,0.05748067,0.045172602,0.036123242,0.02935626,0.02422582,0.036121372,0.026467972,0.020037932,0.015556707,0.012424841,0.016765181,0.012231696
0.08116103,0.10754865,0.041521955,0.14488444,0.066615716,0.06983259,-0.13505717,-0.072339594,-0.07924668,0.14815286,-0.029579602,-0.1559041,-0.07958569,-0.120999314,0.057715956,0.10454304,-0.013341373,-0.033112753,0.16555466,-0.18578663,0.14944947,-0.15579408,-0.080324024,-0.14945965,-0.061301727,0.051889863,-0.052759845,0.16928597,0.09515274,-0.022641456,-0.06312687,-0.17993264,-0.1347936,0.14509107,-0.05685448,-0.11392048,0.13550729,-0.17666824,-0.041653432,-0.1591605,0.045369368,-0.01954757,-0.09418241,0.103359565,-0.053843785,0.124236,-0.1659615,0.00868294,-0.17064081,-0.007468287,-0.11890642,0.116295755,-0.1501516,-0.053202715,0.07796286,0.18324547,-0.031562876,0.046692323,0.053065393,0.055765405,0.12831233,0.16502337,-0.172843,-0.002567076,-0.15273106,-0.002382918,-0.09201005,0.069794305,0.08628396,-0.1399081,-0.19376259,0.16456325,0.16613455,0.13015512,-0.088806204,-0.05093591,-0.19847582,0.11445916,-0.19449826,0.06147528,0.105864845,-0.056469765,-0.08572,-0.0969293,-0.16838317,0.07285319,-0.086092874
0.0030532265,0.0006704413,-0.00048750342,-9.461428e-05,5.648097e-05,-0.0001417135,5.7304373e-05,0.00012724746,0.00016317939,3.3818284e-05,0.00010965206,0.00016218364,2.7669694e-05,0.000126956,0.0001460172,0.00022087024,0.00018662635,0.0002168159,0.0002691155,0.00032613648,0.00054204545,0.00065493846,0.0007597855,0.000836958,0.0008924055,0.0020047124,0.0021984503,0.0023122348,0.0023695463,0.002392276,0.0059384955,0.0059741125,0.0058816634,0.005794006,0.005728551,0.011164796,0.010924066,0.0106008435,0.010262177,0.00994969,0.018562015,0.017321518,0.016190523,0.015225342,0.01441117,0.027029382,0.024800962,0.022910334,0.02125013,0.019770464,0.035911083,0.031879924,0.028671902,0.026055016,0.023864783,0.042686857,0.036782302,0.03220095,0.02857874,0.025646577,0.045667984,0.038570974,0.033343576,0.029280154,0.026092218,0.04603489,0.038510486,0.03295196,0.028693525,0.025324015,0.043554395,0.03598016,0.030505715,0.026304988,0.023025932,0.03697083,0.029775385,0.024596332,0.02071612,0.017603578,0.025647724,0.019660015,0.015383121,0.012327164,0.010094156,0.013399659,0.009739176
0.0023087382,0.0024703073,0.002113416,0.0011237548,0.001094959,0.0014525215,0.0012717696,0.001026245,0.0007606189,0.00059228775,0.0011270709,0.00081374275,0.0006226368,0.0003858878,0.0003722497,0.00069597486,0.00049676053,0.00035824138,0.0002442882,0.00015245852,0.00044222106,0.0003510873,0.0002926266,0.00028332282,0.00029690418,0.00058675173,0.0006327875,0.0006976155,0.000759315,0.00080812955,0.00082769996,0.0007415569,0.00065596274,0.0006511727,0.00071226724,0.0008082621,0.0007995138,0.0009381757,0.0011149694,0.0012823829,0.002406121,0.0025072736,0.0024600087,0.0024061336,0.0024041485,0.0044127647,0.004651371,0.004865659,0.0049637705,0.004943468,0.008408214,0.008109196,0.007791365,0.007524944,0.007309171,0.01325545,0.012228735,0.0113255745,0.010486706,0.009742287,0.017997846,0.016125606,0.014637206,0.013458243,0.012517053,0.02402808,0.021681022,0.019888008,0.018556055,0.017448071,0.034193758,0.031254306,0.029003363,0.027179366,0.025663933,0.047769994,0.04314992,0.039308596,0.03603373,0.03322159,0.05844144,0.050489042,0.043998417,0.03866706,0.034220513,0.057063013,0.046468478
0.0026246787,-0.00065359764,-7.501317e-05,0.00020466669,0.0003705941,0.00040691657,0.0005321811,0.00049510115,0.00040819094,0.00043790415,0.000622416,0.00047973654,0.00047564472,0.00025978283,0.00028715143,0.00025844836,0.00016131593,3.2275668e-05,-8.819878e-05,-0.00018320295,-0.00045558697,-0.00048016993,-0.0004700662,-0.00041154175,-0.00031610933,5.6822464e-05,0.00029118895,0.00049714843,0.00068669545,0.00086435536,0.001935844,0.0023163534,0.0025671227,0.0027100209,0.002785284,0.0051164245,0.0053399797,0.005414309,0.0054143504,0.0053999918,0.010583953,0.010177847,0.009740858,0.009326765,0.008941917,0.017323636,0.015832048,0.014554334,0.013445799,0.012470049,0.023479538,0.02065893,0.018415289,0.01658218,0.015062991,0.02803428,0.023945268,0.020787572,0.01830376,0.016314933,0.029844359,0.02491559,0.02128321,0.018542565,0.016440116,0.029244963,0.024543243,0.021304062,0.019050058,0.017359894,0.031393398,0.028132083,0.025981821,0.024440838,0.023228241,0.042476848,0.03931767,0.036618967,0.03417286,0.031873647,0.0559784,0.048920095,0.04278,0.03750098,0.03293868,0.05350143,0.041798785
0.001975123,0.00042624344,-0.00068944047,-8.827167e-05,-8.063739e-05,-1.0909418e-05,-5.0812523e-06,-3.1435557e-06,0.0001196931,-0.00020455479,5.50025e-05,0.00022978173,-0.00019642508,-5.4661345e-05,-2.6656497e-05,0.0007783892,0.0008673804,0.0009331499,0.000997076,0.0010318813,0.0007886943,0.00071545877,0.00063270936,0.0005411841,0.00044527915,0.0005570908,0.0003229031,8.5288484e-05,-0.00013038816,-0.00030762274,0.00043239444,-0.00010479401,-0.0004628648,-0.0006289685,-0.00072040735,0.00025226304,3.495944e-05,-0.00018677341,-0.00031198666,-0.00038959354,-0.0008571768,-0.00055863895,-0.00026544512,-4.7817008e-05,8.444826e-05,-0.00012402642,-4.698795e-05,6.700169e-05,0.00023442289,0.00042423938,0.0014165,0.0012649971,0.0011598315,0.0010732847,0.0009783126,0.00290735,0.0026481473,0.0024045357,0.0021774452,0.0019869872,0.0049330113,0.0045589344,0.004285537,0.0040709265,0.003873267,0.0093699675,0.008934868,0.008584632,0.00838914,0.008129487,0.019303378,0.018675959,0.018250141,0.017890574,0.017583054,0.037795518,0.036837757,0.036100157,0.035524216,0.03496923,0.07033105,0.06791153,0.0655213,0.06315316,0.060795337,0.11484357,0.10622478
-0.13201647,0.025176555,0.008366271,-0.1419026,-0.14701708,0.124589555,-0.00053622684,0.017919283,-0.16762683,-0.07525778,0.052269965,0.042967416,0.08229181,0.12075425,0.06582511,0.1200961,-0.039889384,0.057817414,-0.07312306,-0.10124082,0.154465,-0.10737327,0.10814473,-0.0798112,0.017580727,0.0838092,0.12911403,0.01496437,0.097801596,0.11492117,0.14469305,-0.059429046,-0.12527724,-0.048241083,0.1522678,0.03314393,-0.11941883,-0.0016424506,0.041361894,-0.09545196,0.19995481,-0.12119174,-0.037721306,0.045012165,0.11724751,-0.016568616,0.16334413,0.120696165,-0.019499307,0.14076184,0.046369262,0.09432755,-0.19808884,-0.09441552,-0.15999341,0.04806344,0.09302951,-0.18865891,-0.077861406,0.09933532,-0.0724978,-0.07854839,-0.06800007,-0.13275415,-0.09711013,-0.04131453,0.123715974,0.051690444,0.11779738,-0.04449177,0.05461134,0.123692974,-0.020122355,-0.0029038116,0.09893659,0.117827386,0.029344466,0.110160835,0.041953802,0.012791151,-0.025978277,0.053103432,-0.15297988,-0.0016911768,-0.12370727,-0.10041443,0.078408904
-0.009424478,-0.0010575021,-0.0008037281,-0.0001935462,-0.00011577626,-0.00021862317,-0.000121869765,6.6242035e-05,9.8436634e-05,0.00014716113,1.6697508e-05,7.219972e-05,0.00013847246,5.0331793e-05,4.4031967e-05,0.00019527615,0.0003087425,0.00041094676,0.0005157211,0.00062639173,0.001853693,0.002304486,0.0026590433,0.0029316726,0.0031510186,0.0067581986,0.007378719,0.00777105,0.008002604,0.0081307525,0.015999554,0.015759727,0.015400591,0.015033741,0.014644819,0.027398393,0.025655864,0.023971604,0.02240463,0.020974975,0.037013195,0.033138268,0.02990152,0.027182039,0.024886793,0.042795498,0.037171256,0.032846846,0.02940745,0.02658052,0.045010496,0.038220666,0.033075515,0.02903716,0.025794307,0.043687746,0.036328577,0.030777976,0.026489865,0.02307807,0.039414167,0.032179207,0.026901852,0.022902552,0.019837543,0.034472503,0.028070921,0.023470988,0.019985514,0.017349647,0.030308655,0.024849063,0.02091177,0.017965697,0.015747998,0.025878629,0.021059552,0.017578354,0.014900699,0.012869255,0.019235324,0.01531649,0.012953236,0.011103685,0.009621827,0.013792954,0.011687862
-0.2061638,-0.053893663,-0.034902986,-0.025487782,-0.019864999,-0.029515663,-0.021638261,-0.016781775,-0.01359921,-0.011385386,-0.017865038,-0.013750877,-0.011097681,-0.009274269,-0.00783298,-0.012440404,-0.009820913,-0.008060665,-0.0067928014,-0.005837944,-0.009079426,-0.007077329,-0.005677484,-0.004627959,-0.0038188915,-0.0065104314,-0.0049017323,-0.0037763002,-0.0029497286,-0.0023048564,-0.004292715,-0.003152352,-0.0023932098,-0.0017998763,-0.0013369434,-0.0037386685,-0.0029602977,-0.0024348702,-0.002081276,-0.0018170436,-0.0034358478,-0.0033883827,-0.0034183273,-0.0033938035,-0.0032889987,-0.0049550724,-0.0047888346,-0.004570378,-0.0043534213,-0.0041591683,-0.0075064464,-0.0069157784,-0.0063002296,-0.005701695,-0.0051418175,-0.009478678,-0.008122528,-0.007138761,-0.006279619,-0.005506763,-0.010174202,-0.008360228,-0.0069294334,-0.0058994573,-0.0050211716,-0.008728862,-0.0069083814,-0.005278996,-0.004307455,-0.0032963634,-0.0054772063,-0.0034216768,-0.0024923678,-0.0017135704,-0.0009284454,-0.0028470303,-0.0016972212,-0.0011089079,-0.00041776142,5.8538368e-05,-0.0009671137,-7.4744195e-05,0.0007719692,0.0013755037,0.0019900093,0.0068772305,0.008523533
-0.0049718274,-0.00048263682,0.00017775569,-0.0001476342,-0.0001916801,-5.998401e-05,-0.0001992097,-0.00016857852,-0.00020701493,-8.403303e-05,-0.00018825052,-0.00022075989,-5.1515148e-05,6.613758e-06,-9.702737e-05,-0.00027201613,-0.00019317277,-0.00017600747,-0.0001893608,-0.00020922816,4.815071e-05,6.589785e-05,4.020957e-05,-5.5544224e-06,-6.877318e-05,0.00068299874,0.0004243655,0.00022003369,5.0786188e-05,-9.726857e-05,0.00025263088,-0.00039874556,-0.0009480767,-0.0013800865,-0.0016965481,-0.0029242283,-0.0036511628,-0.00411244,-0.0044092378,-0.0045834584,-0.0086740805,-0.008684554,-0.00853172,-0.008247653,-0.007854207,-0.014200303,-0.012285492,-0.010393102,-0.008649942,-0.007122957,-0.01104973,-0.0069169463,-0.0035595063,-0.0008246791,0.0014193825,0.0076404605,0.0126188565,0.015973223,0.018238375,0.01971648,0.041584104,0.042670835,0.04214638,0.04072814,0.038811576,0.07107851,0.062410783,0.054287095,0.046949606,0.040506378,0.06577953,0.048672818,0.03581699,0.025957676,0.018415155,0.020950187,0.006854386,-0.0017182804,-0.006865206,-0.009906076,-0.025246695,-0.026331432,-0.0252694,-0.023227882,-0.020819811,-0.035450187,-0.027013466
