0,1,2,3,4,5,6,7,8,9,10,11,12,13,14,15,16,17,18,19,20,21,22,23,24,25,26,27,28,29,30,31,32,33,34,35,36,37,38,39,40,41,42,43,44,45,46,47,48,49,50,51,52,53,54,55,56,57,58,59,60,61,62,63,64,65,66,67,68,69,70,71,72,73,74,75,76,77,78,79,80,81,82,83,84,85,86,87,88,89,90,91,92,93,94,95,96,97,98,99,100,101,102,103,104,105,106,107,108,109,110,111,112,113,114,115,116,117,118,119,120,121,122,123,124,125,126,127
-1.0660646,-0.6580634,-0.17657743,-6.4873567,-0.5256765,-4.6632867,-0.018166102,0.3287707,-0.26397702,0.53722775,-0.19849773,0.27522817,-0.20223442,-0.3630926,-13.121485,-3.6661394,-1.0404867,-0.51408213,-0.49824265,-6.158114,-0.9843201,-0.1966901,0.05058579,0.4049243,-0.5062717,-0.3006182,0.2865512,-0.056939393,-1.8954473,-0.1554457,-0.11161178,-3.86692,-3.1323879,-0.41072854,-0.20878206,0.6072337,-0.48044547,-3.9828362,-0.27670273,-0.021556552,-0.017546812,-5.814292,0.03075479,-1.3823485,-0.3332784,-0.35202718,-0.81399643,-1.8674628,-3.5832448,0.8275554,-16.174377,-5.612408,-3.7811482,-0.76023734,-5.197476,-0.07073047,-0.36061355,-0.22062342,-0.034288928,2.5533402,-0.6493859,-1.2217046,-2.7962823,0.011651345,-0.9926128,-11.347291,-0.03807264,-0.34628847,-0.45086473,-1.2155063,-2.9387627,-1.0304428,0.71985203,-6.0644455,-2.142404,-0.59545237,-0.8146781,-0.33209178,-0.39031044,-0.34146965,-0.6008512,-0.47004792,-0.050025403,0.3471405,-0.21790597,-1.2126584,-9.536077,-0.842671,-0.58866876,-0.024184113,-0.27214476,-0.3766362,1.479316,-0.0050005536,-1.8353463,-0.49461445,-0.5794482,-0.6469185,-0.043615703,-0.3017254,-0.7444335,-1.3744606,-0.06508216,-0.32803982,-0.75561047,-0.5146548,-3.0025136,1.7079576,-0.11867326,2.371485,-0.42177245,-0.14070773,-0.3132973,-3.2658632,0.24980025,0.06213592,-0.13313484,-0.2548066,-1.2068357,-1.2851648,-0.5792061,0.19238828,0.82399195,0.017535895,-0.4539246,-0.49969018,-11.807043,-0.18182209
-0.09512323,0.027685435,-0.015662016,0.2619007,-0.044749137,-0.07855865,-0.48135376,-3.3244827,0.36744836,-0.91279113,-0.12536183,-0.22639605,-0.16674006,-0.070111856,-0.090965696,-0.09634131,-0.15510361,-0.08308684,-0.6428183,-0.52469933,-1.6392521,0.1569968,-10.44464,-2.3045454,0.06979803,-0.1806498,-1.6490185,-2.0265434,-0.18337663,0.060909607,-0.68626714,-0.3800153,-0.28702778,-6.5887327,-0.039960038,20.089754,-1.193131,-0.09915917,-2.219243,-0.29997176,-13.112582,-0.23667625,-12.036494,-0.018536037,-5.771762e-05,-0.09363849,-0.6804653,-0.7190369,-0.41602165,-0.11707051,-0.017139196,-0.84456336,-0.12498927,-0.020786146,-0.075019404,-0.06760489,-1.5248879,-0.051513035,-0.34766242,0.5258382,-0.15704578,-0.0810868,-1.5780855,-0.84621316,-0.8687968,-0.32407445,0.08649254,-0.41721246,-0.39454314,-0.0551855,-0.3413092,-0.73326737,-49.682606,-0.22319774,-0.44704962,-2.6593428,-2.1279304,-0.13610834,-0.0713148,0.4457902,-0.16330127,-0.13756748,0.45644656,-0.06809104,-0.42616713,-6.7755923,0.44990113,-0.96733177,-1.5109385,-0.11098188,-0.08523708,-0.06019541,4.3772426,-1.1565465,-0.39200038,-0.3468641,-0.28797734,-0.02794477,-55.513187,-0.64643526,-0.18463245,-0.6688861,-0.095726155,-0.15480539,-0.22587703,-3.281659,-4.7784963,0.69643307,-0.061338674,0.4540055,-0.030028312,-7.554618,0.07724115,-0.13172916,-0.034425247,-0.10253566,-5.0342083,-0.40193892,-11.457734,-0.33271578,0.05100629,-0.23843534,1.1468482,0.086854525,-7.9767385,-0.52689475,-0.13303514,-0.5227249
0.12921178,-0.013359463,-0.017777214,-0.023685234,-0.1137782,0.086573966,-1.1560016e-05,-0.02446346,-0.09854637,0.07246851,0.08206082,-0.30638596,0.19402266,0.17775455,0.051665258,0.016858077,-0.011541231,-0.013593887,-0.17880525,-0.085632116,-0.10195821,-0.14426455,0.061527118,-0.11588809,0.004777666,0.024944877,-0.16993578,0.027220959,0.025698464,0.06123731,-0.019963473,0.10572656,0.044200484,-0.17449029,0.06414452,0.026790464,0.11513033,0.027855288,0.01307814,0.14696883,-0.028315103,-0.05390452,2.5336078e-05,-0.0874217,-0.038873743,0.12624723,0.009659728,0.047370795,-0.007947959,-0.106820315,-0.12745176,0.068420745,0.007093138,0.005568254,-0.03347738,0.094254486,0.07800651,0.1408979,-0.08843345,0.17282954,-0.116284646,-0.052743394,0.04069909,0.03678745,0.15255454,0.15048473,0.00047082207,-0.0650194,0.17029919,0.07694839,-0.047234274,-0.22790922,-0.23996381,0.0077057458,0.08046239,-0.064776115,-0.019014627,-0.028019896,0.016846182,-0.11429562,-0.015280759,0.10410919,-0.08642271,0.16569208,0.11986739,0.11299597,0.03467623,0.18770252,0.110526815,0.09820111,-0.037332036,0.076566115,0.07020111,-0.012572485,-0.11644829,0.0029835873,-0.01998754,0.036984973,0.035001826,-0.030334415,0.09431295,-0.105706364,0.009904985,0.030485388,0.115273334,-0.025160696,0.13972169,0.02938838,-0.08687839,0.19195543,0.05806693,0.047698326,0.2062946,-0.037472416,-0.29235035,-0.034614686,0.05454233,0.15793213,0.059780728,-0.0300344,0.12105129,-0.09628198,0.23260343,0.017749073,0.07639344,0.16458087,0.16671844,0.014919354
0.10918927,0.042105854,0.0135168135,0.03325954,-0.122600585,0.03734368,0.08103281,0.08229542,-0.03412342,0.031749457,-0.0261015,0.06466642,-0.050723046,-0.09744209,-0.011166543,0.05434969,-0.055284142,-0.02533546,0.069478184,-0.08554065,0.02784267,-0.041552484,0.12412149,0.045230955,0.11018619,-0.012345612,-0.04157245,-0.054886788,0.022714466,0.06328437,-0.12451324,0.038468033,0.09493828,-0.103197604,0.027337283,-0.0031948388,-0.086987644,0.11875707,0.036436517,-0.11232174,0.06090778,0.11194822,-0.07872932,-0.09689152,0.0071263015,-0.01299715,0.034236223,0.06096819,0.08744702,-0.07896214,-0.04490307,-0.061047047,-0.071415275,0.048342805,0.109174415,0.118858576,0.0534907,-0.021334648,-0.07467829,-0.0073084687,-0.11681938,-0.06839925,0.06371015,0.12392256,-0.021707773,-0.03491666,-0.09400377,0.03889054,-0.0001244545,0.058225036,0.124346375,-0.039806634,0.075825185,0.055867046,0.109981894,-0.0020721555,0.114873,0.058478683,0.08730695,-0.118971705,0.004163891,-0.1021539,0.033340394,-0.05854675,-0.06320682,0.010501772,-0.043721635,-0.07178986,0.08290538,-0.12489447,0.07538366,-0.029785424,-0.1104725,0.11930424,-0.03637442,-0.08466083,-0.07392797,0.0239681,0.016170992,0.029375613,-0.061932772,0.01749304,0.10465768,-0.027205497,0.06868258,0.07920119,0.09924093,0.0045208037,0.021916538,0.020680897,0.11909452,-0.11745107,0.11502069,0.00020778179,0.11791456,-0.034084916,0.09925005,0.052716356,-0.012916805,0.10088977,0.056175917,-0.004718244,0.07911888,-0.082645446,-0.060201228,0.064641714,0.02834028,-0.110281974
-0.0977434,0.06399511,-0.031252887,0.12826306,-0.080450125,-0.13539666,-0.021690391,-0.04805437,-0.013110411,-0.07843241,-0.02112066,-0.07221255,-0.023702167,-0.06355816,-0.00631892,0.06454684,-0.14045253,0.026528625,-0.17591459,-0.041995883,0.06828507,0.08504902,0.13739544,0.08479954,0.07815324,-0.0037752937,-0.067679375,0.08844471,0.026858473,0.021447778,0.05879179,-0.0403263,0.018656135,0.13317277,0.095599756,-0.014710967,0.041892797,-0.02275672,-0.1970362,-0.2078148,-0.112214796,-0.067388386,-0.11689619,-0.2166308,0.012595852,-0.09083412,-0.27670893,0.012452871,-0.048398796,-0.2622281,-0.17589746,0.08760118,-0.007250464,0.009847882,0.020096282,-0.10731404,0.18901297,0.023124008,0.15644841,0.08442109,-0.062202446,0.08804986,0.061516143,-0.11074255,-0.14161763,-0.011013504,0.20438364,0.004590317,-0.13361251,0.018687936,-0.17106846,-0.009062858,-0.08960514,0.06866843,-0.19353962,0.01691992,-0.057786673,0.03141745,0.099505626,-0.066630594,0.14046016,0.17453678,-0.07731046,0.036255553,-0.07591968,-0.016734565,-0.1478731,-0.06368831,0.030854108,0.055183478,0.0007705313,0.08218054,-0.007822722,0.118133105,0.04723669,0.024506718,-0.07298454,0.020276664,-0.16885233,-0.03583102,0.028775223,0.036887832,0.047596104,0.009849577,-0.13627045,-0.04050234,0.17226028,0.008712442,0.12532005,-0.02800874,0.026828876,0.09052705,0.10873196,-0.040946376,-0.1437464,0.07263896,0.023228357,-0.051087428,-0.15866107,-0.13941532,-0.06550792,0.086036354,-0.16955747,0.045233045,0.025328876,-0.17005426,-0.015257196,0.14486398
-2.4223518,-0.0008574469,-10.653509,0.0887133,-1.3956763,-2.7272089,-0.02256794,0.065847084,0.002802879,-0.0392502,-4.8404713,0.022921147,-9.563931,0.13210705,-5.849167,-1.2718999,-2.6252177,-1.4645963,0.19401336,0.029019142,-0.06286741,0.11468415,-0.05287829,0.11791832,-1.5058832,-6.7744265,0.4855197,-0.02522058,0.32172072,0.0056937863,-0.23232646,-0.027921494,-2.4258275,-0.001885359,-0.2663734,0.19249369,-0.07972092,-7.6007247,-0.64888173,0.075167954,-0.0044387267,-6.9876738,0.011801745,-4.541801,-0.57554257,-8.282648,0.033090845,-2.3201535,-0.1622899,0.0066610686,-10.413683,-0.7355817,-3.7939663,0.031685665,0.0021815565,-0.16606688,-0.13974756,-0.33328694,0.053677298,0.054332495,-7.5357165,-4.903646,-0.21666898,-0.08044249,-0.71016806,-0.17924522,-4.184617,-0.019207638,0.09631517,-1.7101929,-7.8862495,0.10239561,0.69513303,-1.547898,-0.38943437,-0.20433848,-0.04935739,0.43955287,-0.72920865,0.11876743,-0.20263411,-0.5778,0.108164035,0.034949377,0.19277312,0.028492808,0.013144337,-2.7500746,-0.07401146,-9.9610405,-6.0936475,-0.23425624,0.04823323,-0.084165,0.1454907,-0.4122245,-0.082824476,-5.0469975,-0.004688934,-0.0948858,-1.5470047,-0.7207443,0.11849975,0.0499038,-0.37697864,-0.022976747,0.01556316,0.09157933,-2.0890093,-0.059756022,-3.5691237,-0.030952951,-0.79125184,-0.0840908,-0.041782733,-0.3737493,-0.062109176,-0.4494657,-0.21248715,-0.10781151,-0.26485172,0.009702377,-0.11545449,0.021552552,-0.07925614,-0.03759061,-6.3118644,-7.2530055
0.19122526,0.27583435,0.17525713,0.35453984,0.025841383,0.055648968,-0.13867517,-0.062011525,0.23990996,-0.333293,0.092134655,-1.4187787,-0.03555442,-0.48926434,0.082581125,0.07429868,0.0578106,0.0005821165,0.43412617,-0.3908056,0.011628288,0.011606405,0.15926115,-0.03886922,0.0061958283,0.051883135,0.048599306,0.15795124,0.04867491,0.131802,0.065624245,0.053326935,0.34881628,0.32013935,0.08726077,-1.522901,0.033732306,0.21496361,-0.29702768,0.13438052,0.128973,0.12507543,0.1740614,0.046810687,0.08461866,0.018698843,0.2437204,0.1227832,-0.032181703,-1.0343149,0.22878006,0.09251726,0.17903966,0.108324304,-0.989358,0.06466592,0.07159505,-0.2258523,0.083492555,-0.3221053,-0.040366255,0.2596842,0.10988773,0.37084582,0.29388756,-0.08643356,0.027142491,0.41064516,0.2296635,0.1376168,0.052218713,-0.09748332,-0.48984754,0.033127945,0.18437845,0.107628174,-0.4575375,0.08515361,0.017377177,0.2628186,0.119964376,-0.10910871,-0.16833133,-0.9171271,0.15746488,0.12548417,0.14846477,0.26479852,-0.110037565,0.105451785,0.05941371,-0.034674276,-0.051318802,0.30259204,0.06455008,0.23783393,0.033959158,0.058267597,-0.080731116,-0.15754944,-0.120720826,-0.23122354,0.31979662,-0.012342334,0.04045538,0.29908097,0.18981795,0.18345559,-0.0033801196,-0.16405147,0.11341768,-0.07243083,0.18263079,0.17073527,-3.4666297,0.04858897,0.12964563,0.20938563,-0.15568762,-0.04627857,-0.23701382,-0.4900226,0.10287435,-0.08056225,-0.1796226,0.17437041,0.24415602,0.10609183
-0.36183068,0.27519563,-0.8107468,0.07283678,-0.08358688,-1.2075206,-0.2511853,-2.7504296,0.29097134,-0.009891616,-0.01996354,-5.035178,0.61857873,0.023241775,-0.6811862,-3.2680786,-1.08862,-1.6282847,-0.022021635,0.31874865,0.34836513,0.37326494,-0.1303402,0.04517469,-0.13006034,-3.7808383,-0.9807616,0.9790775,-0.15830176,0.09100898,0.339464,0.12837228,1.0069404,-0.30583853,-2.8988144,-0.6115785,-0.19958997,-0.9464062,-2.633911,0.010296484,0.57286817,-1.9427856,0.2539234,-0.09557012,-0.075419635,0.3262717,0.038876444,-0.104578786,-1.4896694,-0.3276902,-1.1193049,-0.48006636,-8.448712,0.09774475,-0.19283544,-0.096441954,-0.14509125,-1.2246882,0.046286903,0.2165527,0.023350088,-0.37645108,-1.331677,0.14042616,-0.19331515,-4.1745987,-0.57811433,0.022487003,-0.091349415,-0.32001674,0.32077116,0.1110499,-0.019463597,0.38804436,0.17306994,-0.040233113,0.03962471,0.10028866,0.5831535,0.06849548,-3.3740554,0.32478204,0.34961498,-0.31513003,-0.26684934,-0.02822,0.06277577,0.27123973,-6.2501802,0.0396134,-2.4214487,0.54968655,0.25836062,-0.6883916,0.0060294005,-0.6887369,0.28867206,0.21098994,-0.044064745,-1.9399327,-0.32832912,0.01589108,0.007068758,-4.077312,0.059729252,0.01727646,0.012058321,-0.07439345,-0.23493129,-0.18312685,0.040607236,-6.5508895,-0.34347323,-0.3639161,-0.01894979,-0.3761405,0.08963176,0.27568036,0.02410306,-1.4475461,0.466282,-0.44380113,-0.14150482,0.17897132,-2.2096224,0.010221891,-6.8961987,-1.387642
-1.9066037,-0.017666597,-0.08138245,0.072778404,-0.0026637567,-1.6156313,-0.023983715,0.4747989,-0.029032085,-0.59999955,-0.2808789,0.18480843,0.043172523,-0.03768713,-0.09637444,-4.8038535,-5.312671,-0.54192984,0.054913677,0.112527736,-0.12783898,0.20998435,-0.32249007,0.02617332,-0.10694398,-0.061186388,0.1928878,-0.44378093,-4.0033417,0.12341711,-0.11615955,-1.7959751,-0.80301243,-0.5934261,-0.05773272,0.09570981,-12.878726,-3.4535108,0.030782068,-0.085252784,-0.8868981,-0.673935,-0.103227995,-1.0030277,-0.46817094,-1.2649933,-2.4521003,-7.5403504,-4.749449,0.076032795,-0.40003106,0.09552381,0.02749597,-0.46930644,0.19191425,-0.5513151,-0.04671682,-0.10086898,0.012663771,0.09476463,-5.1215286,-0.3526954,-0.088449046,-0.033485126,-1.0220773,-0.08305718,-3.20574,0.036349334,-0.5866342,0.44282442,-4.8773346,0.04753968,0.23118621,-5.0878882,-3.3410614,-9.072867,0.23769403,-0.795664,-0.48020864,0.02547393,-0.5434871,-0.3179188,0.0062717237,0.07439897,-2.482228,-6.496664,0.017489802,-0.17930187,0.016577646,-0.44182083,-0.019519158,-0.35952473,0.02711657,-0.020160671,0.007902105,-1.6789665,-0.84369147,-0.4385218,-0.39846212,-0.100865394,-0.07492051,-0.12742391,-0.34653282,-0.17869851,-0.66120434,-0.15851042,-5.5361905,0.062763445,-0.017949197,0.07328762,-2.4723544,0.04220097,-0.47620973,-0.31972435,0.03541228,-0.014928482,-5.779641,-0.18113919,-0.051185988,-0.11097047,-0.21970214,0.17983897,-0.2482021,0.027821295,0.22025731,-1.3254293,-0.16788295,-0.08918078
-2.2946832,-0.04485834,-2.6492438,0.0037452462,-1.800313,-0.29942107,-0.14400764,0.13146847,0.027594702,-0.17173925,-2.4060097,0.014987919,-2.126831,-0.20126028,-2.7833235,-2.038203,-2.9198837,-2.6487737,0.053524535,0.08863655,-0.14678715,0.06669709,-3.8213935,-0.07202045,-2.0919802,-3.0157402,-0.057136815,-2.6687276,-2.7469072,0.036531102,-2.9348698,-3.9806592,0.041555192,-4.744978,-3.0061383,-0.07148934,-3.762587,-1.8714356,0.014155399,1.5272701,-5.1005177,-2.3905594,-3.8294113,-4.2620716,-1.5750647,-2.2584789,-3.0741227,-3.5278502,-3.9550664,-0.0019467426,-2.033164,0.009334899,-1.3279971,-0.13463505,0.049592037,-1.7305541,0.019850781,-1.0134716,-0.06399415,0.13614047,-2.2422383,-2.5943165,-0.068131454,-0.049025904,-3.1219125,-2.3082125,-2.4041507,-0.014371538,-2.9319391,-0.044289164,-3.2958164,-0.04602399,-2.3387144,-3.6041145,-0.5535901,-2.7153113,0.103543594,-2.4154348,-0.05805825,0.008079523,-2.724615,-1.6583437,-0.036418814,-0.051298425,-2.913163,-0.5452144,0.04384716,-0.05094033,-0.030266918,-2.407747,-0.38383242,-1.030941,-0.053975437,-0.52547455,-0.10505732,-3.969509,-3.5410998,-2.4477253,0.0078113647,0.035284594,-0.35124484,-0.6535846,-2.611731,-1.8485533,-2.0641036,-0.088896796,-5.0088024,-0.045567278,0.0009306467,0.040454015,-2.8457341,-2.5226004,-2.0583808,-2.5413518,-0.046935104,-3.5457523,-5.5536256,-4.696458,0.14659652,-0.6949317,-2.8025463,0.059805863,4.942624,0.06731387,-1.5008204,-2.6579957,0.09989288,0.03869916
-0.029179847,-0.061568096,-0.0175616,-0.054210667,-10.681466,-0.27380413,-17.599722,0.0030377712,-0.031598512,-0.15719034,0.27027,0.0023433585,-0.109371856,-19.384163,-0.04594757,-0.37797537,-0.14731547,-0.066347316,0.04952409,-0.18048815,0.07448731,0.020340236,-0.053254742,0.030018218,-4.480544,0.008172341,0.07303071,-0.23487647,-0.086565904,-0.09913914,-0.062998295,-0.4362316,-0.92268926,-0.05028643,0.0040507857,0.0001691375,-0.074356996,-0.14677215,-0.01346284,0.059739906,-0.17195769,-0.12798813,-0.028121466,-1.2507547,0.15145923,-0.62703365,-0.05934577,0.09581525,-0.03525642,-0.0014222127,0.013941108,-1.644413,-0.090787776,-0.03149571,-0.0060551814,-1.2751671,0.011085634,0.13782871,0.012334346,0.0026683758,0.046546716,-0.07709653,0.08160118,-0.023062555,-2.2069485,-0.009366836,0.053896423,-0.05004138,-0.109232835,-0.17388707,-0.34458503,-0.023325574,0.07940438,0.047494944,-1.9879469,0.01224213,0.029738005,-0.3881421,-0.14553244,-0.09184101,-0.055776626,-4.8625183,0.026050275,0.034196675,-0.99172544,-0.123592064,-0.21658227,0.06465479,0.082106635,-0.06573014,-0.03393841,-0.7834517,0.029154303,-0.031137548,0.043047592,0.045398653,-1.8106166,-0.16132535,-0.14322726,0.023583675,-0.038127944,0.061110217,-0.15698053,-0.0057320176,-8.224898,0.07643068,-1.0296555,-0.0015220424,-1.3130406,0.0077883457,-0.31501058,-0.033488005,-1.3377222,-0.00020318427,-0.022631565,-0.054428216,-1.8535936,-0.04247753,0.009748991,-0.053929888,-9.14792,0.025090149,-0.27812794,-0.11228102,0.040510386,-0.16633044,-0.12463317,0.07020365
0.03329966,-0.02223821,0.3229161,-1.3735523,0.34891424,0.38601148,-0.0030819017,0.43171382,-0.26527867,0.2687461,0.13611028,-0.4906186,0.43716016,-1.1241156,0.11693964,-0.07154453,-0.16321085,-0.05580757,0.2882795,-2.6304135,0.023666004,-0.47785214,0.26420632,0.092044756,0.4405141,0.5997446,-1.5490798,-2.6622167,0.039237875,-1.6361647,0.22790857,0.34849933,-0.08332944,-0.5175086,0.35296324,-2.3942623,0.22001012,-0.13757907,0.3983676,-0.019977577,0.3720477,0.17360452,-0.9021968,0.00805658,-0.081833415,0.04979836,0.19228531,0.2971107,0.44020793,-0.10812699,0.23620453,0.39150918,-0.048688695,0.3839746,0.20148228,-0.16884314,0.075557716,0.44960552,-0.43992177,-0.38741785,0.20513076,-0.23763484,0.35613188,-0.41843912,0.20677666,0.042207267,0.07878071,-1.4747425,0.48581478,0.2453493,0.059658464,-1.2728101,-0.32126004,-0.07701924,0.28056118,0.047845338,-0.009415188,0.27921984,-0.0719046,-2.0641446,0.28371897,0.18168077,-0.9968058,-0.041158795,-1.7588279,-0.014979591,-0.8022777,0.06862661,-0.026923228,0.30546144,0.49726972,-0.36319613,-0.09801434,-2.2580109,-0.037433226,0.3835775,0.25987396,0.24530323,-0.3387537,0.8154491,-0.08726544,0.015850155,0.19369724,0.2553716,0.421814,-0.58488876,0.28359732,0.6451081,0.37959233,0.64572746,-0.42164704,0.28704014,0.108184494,0.07194071,-3.4694018,0.14176702,0.1581905,0.19120331,-0.19491729,-0.33996058,0.28653303,-1.1418539,0.36143023,-0.061162967,0.066094786,0.07532037,0.006258711,0.22512473
0.03506434,0.037026495,-0.09930253,0.015613943,-0.045898914,-0.092276186,-0.06632483,0.016506672,0.067445874,0.10268277,-0.10890633,-0.0013222396,0.03908193,0.006952226,0.00155586,0.0136864185,0.094435126,-0.114764184,0.0028961003,0.05821204,0.12438658,-0.028917342,0.072461575,0.08749956,0.061809123,-0.09764817,-0.028562784,-0.03165269,0.094469815,0.06928757,-0.116579145,0.0055665076,-0.006783426,-0.07278675,-0.113539696,-0.026367754,0.012864441,0.09966269,-0.10865322,-0.102113634,0.1113143,0.048971564,-0.09818283,-0.08043328,-0.08988261,0.03197846,-0.11697778,0.021619141,0.024506241,0.0031882524,0.032721877,-0.04087925,-0.020693004,-0.014260113,-0.10845995,0.0437617,0.04683903,-0.042727858,-0.11854544,0.110099405,-0.07314587,0.07726282,0.055914134,-0.02467218,0.045372248,0.104710996,-0.028783858,0.06307194,0.07461652,-0.090099156,0.12014732,0.08194673,0.04022208,0.07445794,0.050833732,0.08723694,0.043465346,-0.123999655,-0.088241994,-0.058207035,0.034010738,-0.05251527,0.06524408,-0.09031406,0.090183616,-0.032540888,0.124468,-0.0059634745,-0.08092508,-0.05513206,0.038513035,-0.09819463,0.054861754,-0.054413885,-0.044219166,-0.10054678,-0.06753826,-0.11793429,0.117031336,-0.07961315,-0.058729053,-0.06324881,0.084280014,-0.04060945,-0.019415677,-0.0034858286,0.028023243,0.014692754,0.018057227,0.003433466,0.023949504,-0.095365494,-0.12111235,0.07329103,0.029960811,0.047568947,0.005977243,0.0019129813,0.013075501,-0.09323552,-0.10611048,0.011555225,-0.12043768,-0.07277447,-0.00796625,0.04923284,-0.07768786,0.064703226
-0.1621205,0.0036807912,-0.16495577,0.24600679,-0.07111876,-1.821742,-0.42325038,1.1559755,0.15580009,0.03643465,-0.23667845,0.028514482,-0.083888955,-0.37323985,-0.30896863,-0.181675,-0.13231313,-0.14626965,-0.17808124,-0.03978112,-0.72377735,0.12799077,-18.413275,-1.1446968,-0.028543847,-0.28361562,-2.2115722,-4.069036,-0.8285886,0.7132889,-0.6830536,-0.60998905,-3.3038318,-11.662778,-0.6165952,5.3884063,-2.5350277,-0.09836273,-0.18067329,0.47448343,-1.3791643,-0.32083112,-21.710556,-0.08517454,-0.01307685,-0.008472113,-0.470663,-1.0234777,-0.76850295,0.003324256,-0.15201175,-0.3859499,-0.25620523,-0.05403117,-0.058165297,-0.12135242,-0.3090345,-0.96177965,-0.32523793,0.20034327,-0.24446662,-0.1551676,-1.3609521,2.3227434,-0.36419326,-1.1567727,-0.10695694,-0.14416602,-1.9715014,-2.5963006,-0.119769596,-0.25375384,-4.1200676,-0.5141844,-0.6788363,-1.9313594,-0.44449523,-0.06449189,-1.5677189,0.054458145,-0.2882506,-0.19733939,0.046779238,-0.027516007,-1.192701,-10.673925,0.25570193,-5.077227,-0.812485,-0.13419256,-0.23774084,0.057954323,0.16119666,-6.4678755,-0.08010156,-0.27435055,-0.28173903,-0.04225809,-38.85901,-0.022281334,-1.0585461,-0.84799355,-0.60006225,-1.6398183,-0.24515484,-0.5565391,-8.030263,0.51488817,-0.28540242,0.23458533,-0.4386787,-15.011444,-0.21795294,-0.80564666,-0.03990634,-0.30936927,-1.9094878,-0.33153006,-4.0601716,-2.2227235,-0.16922855,-0.014754377,0.221753,0.7332655,-12.913229,-0.55696553,-5.88789,-4.7589593
0.126693,0.025306901,0.02372774,-0.17646097,0.14483802,0.0060743103,-0.06377049,0.06626894,0.20872448,-0.103507645,0.038735304,-0.49163043,0.22809373,-0.16938499,0.1501166,0.1550471,0.023930356,0.20771196,0.276343,-0.072370775,0.27645764,-0.13240217,0.1360452,0.020026289,0.017834231,-0.063654006,-0.1506776,-0.17213744,-0.007888248,-0.07232276,0.26317355,0.11616796,0.21922962,0.18286628,0.20791847,-0.7529773,0.16205655,0.09696088,0.04111147,0.2283832,0.14255847,0.1614989,-0.8093661,0.11144668,-0.10654168,0.23757064,0.33205205,0.07589219,0.2573363,-0.25863144,0.01942067,0.10595622,0.007667358,0.21143942,0.02387642,0.12482398,0.06692964,0.18781549,0.032933407,0.10409902,0.014661615,-0.05164886,0.1671032,0.02893203,0.17962146,0.026590811,0.10806773,-0.096265934,0.11084974,0.034089234,0.13958192,-0.23588894,-0.55801135,0.1508721,0.24447191,0.13144657,-0.086495854,0.07485111,0.07532096,0.2700234,0.24934424,-0.03254094,0.058691904,-0.110975966,-0.06284849,0.11220816,0.09601601,0.15204228,-0.10021426,-0.01439799,0.13444035,0.1718065,-0.08804609,0.022576256,0.13134721,0.23485959,0.043179344,0.36905718,-0.14839946,0.15409283,-0.09800927,-0.48552957,0.20575596,0.25254416,0.1702171,-0.043043233,0.20491216,0.21008416,-0.04912124,0.3701016,0.0620805,0.18473801,-0.0416892,0.08740295,-1.6126797,0.088802695,0.1440719,0.077841826,-0.23803484,-0.09059993,0.17847458,0.54750127,-0.45048705,-0.051835407,-0.04873102,0.10688872,0.2216264,0.3174715
0.013253373,0.27885008,0.28809813,-0.009141788,0.013086985,-0.0127497595,-7.524182,-1.8656454,-0.27542362,1.6625999,-0.007344176,-12.807088,0.42011443,-6.6707726,-0.21653786,0.19903886,0.008788985,-1.2820024,-0.23555706,-2.2133029,-0.07827585,0.3994209,0.011720118,-0.24200009,0.11463933,-0.04244755,-0.14702907,0.08926741,-0.060355898,0.10670936,0.180507,0.21390161,0.17753963,0.079166055,-0.032196626,-0.14130256,0.08334702,-0.07597779,-1.4750557,0.13973227,0.110170715,0.11721753,0.087557785,-0.13297938,-0.0064388043,0.07342375,0.15852174,0.2652344,-0.4089659,-10.2311535,0.19693229,-0.10060371,-0.7474229,0.08821826,-0.7419004,-0.29841506,0.042698335,-4.1655107,0.053514905,-0.31424963,0.18454751,-0.06759228,0.39631027,-0.029164366,-0.07619852,-1.9767363,-0.13036595,-0.19564177,0.39322123,0.07121059,0.0442716,-0.03316748,-0.09836611,0.1241387,-0.21128646,-0.048604112,-0.8521027,0.108778305,-0.30117708,-0.12391471,-0.17388165,0.13280074,-0.010587821,-4.5327783,0.16683356,-0.20303263,-0.019518744,0.07503806,-6.44275,0.14568798,-0.57622117,-0.41815206,0.03495542,-2.2178886,0.013513536,-0.035118338,-0.6788981,0.15828246,-0.009025612,-1.6836692,-0.04801065,0.005591394,-0.0794306,-0.57640946,0.31048566,0.1333754,0.046856638,0.075464286,0.0076070027,-1.0094206,0.063635886,-0.20276558,0.9195207,0.18434247,-0.28623313,0.30497798,-0.0447453,0.4349914,0.10533594,-0.70430446,0.622923,-4.121221,0.35543558,-0.10188115,-10.174509,-0.17671265,0.0015886799,0.24693665
-0.16561648,-0.6422425,-0.23312233,-1.551855,-0.12835188,-0.118698485,-11.641983,-13.463429,0.2158096,-5.2557716,-0.20898373,0.4435973,-0.082122035,7.446607,-0.24004833,-0.19289957,-0.24218184,-0.17476462,-0.35376912,-18.825642,0.95626247,2.7359035,-1.3127375,15.600592,0.015055952,-0.048726454,-71.38166,-0.08336585,-0.0659578,0.50057083,-0.26188353,-0.122088276,-0.19658221,-0.3501933,-0.21370485,-33.617947,-0.287349,-0.090183504,0.8917986,-1.2503221,-1.5661776,-0.24160998,-3.31797,-0.02636598,-0.055631436,-0.030557381,-11.836096,-0.22028986,-0.31090716,-0.34515297,-0.21109319,-0.32345808,-0.043577787,-1.2326825,0.36968732,-0.15673535,-0.42006853,-0.27114356,4.3976603,9.93707,-0.120773345,-0.29734215,-0.21294174,11.961159,-0.34421206,-0.2583194,-0.14280361,0.15764132,-0.21063004,-0.14983155,-0.12885156,0.18727906,-10.773951,-0.2231785,-0.11741106,-0.2707224,1.3425832,-0.23394231,-0.08957907,1.4595582,-0.18426268,-0.085374795,0.2122419,-0.043014806,-0.27165487,-0.7520096,1.2470632,-0.30674687,-0.19764055,-0.045074567,-0.20993198,9.951261e-05,1.9344653,-0.23837358,-1.7168282,-0.3105595,-0.22172718,-0.008352062,-13.155544,-0.21967448,0.15660757,-10.141102,-0.27121052,-0.3641536,-0.049732853,-5.550729,-0.61914665,7.569618,-0.21424082,4.417823,-0.04838754,-0.99268156,-0.05240766,-0.07103068,-0.08575792,-0.13304414,-0.35410044,-0.37211284,50.09548,-0.15124002,-0.12950605,3.1160913,11.29193,1.520493,0.0713629,-0.2866536,-0.2875693,-0.2696651
0.01341147,-0.07542696,0.07833774,-0.063020006,-0.07507312,-0.009951772,0.09207287,-0.038506895,0.04475546,0.069393694,-0.1310858,0.22187379,-0.041891936,-0.19680221,0.039571803,0.10009737,-0.016387774,0.23833835,-0.6262514,-0.35949,-0.4243421,-0.21114998,0.08595923,0.115043044,0.11534898,-0.028311616,-0.2737773,-0.49691483,-0.06896612,-0.18584056,0.13175613,0.102884755,0.11653947,-0.06755203,-0.119086154,-0.054408416,-0.022215037,0.0952925,0.124913156,0.13348116,0.018928953,-0.004246634,-0.2919554,0.13935468,0.02277963,-0.03068989,-0.06735738,0.15267298,0.028334452,-0.30141804,0.06516003,0.062224537,-0.01878156,0.14418282,-0.02017132,0.050192703,0.10918942,0.22561006,0.0021217386,0.021937022,0.04974234,0.10491172,0.07705379,-0.120582305,0.12398087,0.19863747,0.14652742,-0.38407576,0.12364459,-0.020936623,0.03415033,-0.41262996,-0.39669335,0.21750917,-0.014775396,-0.023644077,-0.015738769,0.11206838,-0.09854865,-0.055893622,0.15761933,0.04587688,-0.07565444,0.22918828,-0.033257537,-0.03319346,0.020476151,-0.040805705,0.19568963,0.045573086,0.22750002,-0.04192223,-0.029593645,-0.09445338,0.027676264,-0.06892825,0.06748962,0.0474573,-0.21860123,0.10636619,0.021127922,-0.04732178,0.14650701,0.19444361,0.0041359984,0.028738596,-0.02079129,0.047006704,0.21222527,0.22384849,0.039513562,0.009869744,-0.00984624,0.12000854,-0.3300757,0.2028196,0.025551204,0.16579436,0.05003036,-0.081137404,-0.07455152,0.11868135,0.041046195,-0.13801087,0.1847199,0.012529895,0.019979935,0.07360614
0.008266412,0.02178018,-3.0265818,1.2839352,0.18528871,-0.6260455,0.21880718,-2.2153265,0.8923379,-0.13787438,-0.8140502,-0.059045527,-0.3556546,0.18088122,-4.5888276,-0.76757133,-5.131834,-0.24306881,-0.17411411,-0.07645515,6.8540816,0.059858497,-7.487709,-3.231972,-0.46669865,-0.48895028,-0.06890781,0.21969275,-0.4593414,-0.034945186,0.12538722,-2.0034049,-2.2976367,0.03732254,-1.198883,0.09778616,-0.002642697,-0.14568537,-1.8151861,-0.22054945,-0.101080984,-0.9366877,-0.039950978,-0.26649058,-0.19401376,0.31495267,0.014736793,-1.6111594,-0.60775715,-0.04027416,-0.37067056,-2.2132993,-0.33926615,0.055935368,0.026946247,-0.13863839,-15.577742,-1.629835,0.45210004,-0.112274714,-6.124877,-9.737901,-4.3556685,-0.5750307,0.014395833,-13.79237,-0.19148776,0.9254287,-11.3076315,-0.346929,-5.0446167,2.071506,-0.28976262,-4.2165003,-0.62643653,-0.081684105,-0.024867238,-1.3585955,-3.0656564,1.1241126,-9.088755,0.18415532,0.98554593,0.19199136,0.096845575,-0.14442928,0.22779025,0.06571002,-0.19023833,-0.83365154,-12.588308,0.28571188,-0.81063855,0.051921796,-11.889122,-1.7607278,0.12576556,-0.024537306,0.044002544,-0.9781218,-0.38882756,4.9085174,-0.10437017,-2.542984,-0.11181281,-0.6269727,-0.069787435,-0.01465726,-3.9878957,-0.23100553,-0.3564764,-2.1882012,-0.49029005,-2.6570373,0.14571592,-0.08400949,0.17263666,0.114097,-0.9607605,-0.19983375,-0.96781033,-0.114784226,-0.17915715,-0.08443619,-0.42554668,-0.9975473,-2.3044126,-1.2843676
-0.013620184,0.08699512,-0.008539347,0.11117793,-0.04832942,0.054686386,0.052468706,-0.037984453,-0.13266146,-0.06314823,-0.086545005,-0.5568534,0.08717512,-0.32330203,0.019931542,0.1673029,-0.054183308,0.08169525,-0.23916684,-0.24143916,-0.2915288,-0.26906484,0.14237761,-0.16760015,0.07552893,0.019357182,-0.08983855,-0.27214262,0.16604334,-0.15844943,0.1220225,-0.03915903,0.015569347,-0.06607179,0.10030356,-0.21695386,0.13338117,0.0649492,0.048026934,0.2263545,0.19437774,-0.0126612475,-0.065616935,0.15925974,0.21716276,0.085974514,0.16744037,0.2953136,0.06183505,-0.7590448,0.13366522,0.05334832,-0.014748255,0.018884722,-0.17768428,0.17310633,0.041391946,0.109399326,0.028749146,0.17942888,0.19753474,-0.019922046,0.037054036,0.1404094,0.094256535,0.0793238,-0.13663565,-0.22720242,0.030031133,0.14801037,-0.031578355,-0.11903908,-0.14092742,0.08650823,0.16473079,-0.027429376,-0.02056898,-0.041028336,-0.1400838,-0.30093703,0.08601582,0.04807035,0.023983942,-0.05041326,0.027392471,0.09473365,0.16120327,0.11008962,-0.15153643,0.073083475,-0.15200555,-0.023000449,-0.08043395,-0.28386056,0.104684524,0.03632537,0.026557501,0.11477531,0.028686676,-0.022773739,-0.055184543,-0.01802049,0.10889241,0.026738467,0.15474439,-0.012960582,0.15187427,0.08647182,-0.06613095,0.094215505,0.16559249,0.006332827,-0.018968198,0.15455376,-0.3479188,0.049180154,0.29979908,0.07274284,0.3079288,-0.23531312,-0.007533928,-0.26882985,0.10089454,0.040511135,0.1591826,0.0849608,0.07346,0.023312112
-0.3247368,0.14445612,-1.2599252,1.9508126,0.53419816,-0.6733689,-0.067609765,-10.821196,1.0350058,-0.10201991,-0.32206258,-0.12350119,-4.400249,0.0056020794,-17.898706,-0.42738825,-2.1043956,-0.1229071,0.23848091,0.08693453,-0.9208899,0.83003116,-9.573492,29.499777,-0.90820944,-0.49931523,0.05662998,0.013374729,-0.3355535,0.17232798,0.1617372,-3.6763487,-1.3120905,-0.04677993,-0.7591114,0.1252946,-0.024924653,-1.4523048,-1.1676745,0.10831954,-0.0706611,-0.6167893,-0.04253632,0.03899686,-0.15001978,0.31132317,0.016848786,-1.037768,-0.4119105,-0.0010903383,-0.17173272,-1.6713485,-1.1335822,-0.08911876,0.06682955,-0.0929511,-9.063825,-0.8959894,2.6400883,-0.2029542,-3.5853775,-5.662828,-1.2400906,10.025839,0.022736467,-6.3155227,-0.31988934,1.5134465,-2.4498773,-2.3812873,-1.0401367,-0.3567275,0.9197129,-2.005306,-7.4518094,-0.61013496,-0.26719168,-3.5199237,-0.3883189,1.7822032,-5.330726,0.077222265,-0.49169904,0.2827322,-0.28383368,-0.06994404,1.2789211,-0.19795208,-0.30008444,-6.6921487,-3.1502771,-0.07839725,-1.7471294,-0.066087365,-29.865225,-1.2289219,0.4009971,-2.7588499,0.54574764,-0.6440639,-0.20478137,-4.665895,0.40780318,-1.2341005,0.3227764,-6.646245,0.04786484,-0.05444739,-0.873929,-0.22165234,-0.52225715,-1.0815026,-0.115072675,-1.4245527,-0.014693616,0.014263921,0.039046552,0.019592263,0.011071824,-0.2686442,-0.5136841,-0.025039276,0.08757643,-0.0101363165,-2.533165,-5.1241283,-1.0932422,-0.7800469
-0.066213354,0.019843541,-0.047516465,0.017381087,-2.8976424,-8.441095,-0.0011174369,0.050202172,0.0885774,-0.14931953,-8.367759,0.050205324,-0.203563,0.026436344,0.0022235594,-11.737542,-0.49638057,-0.3418401,0.09459268,0.042507954,-0.019332884,0.13837701,-0.051568754,0.02423725,-2.259308,-0.047366563,0.054021794,0.04885647,-0.03592706,0.077550516,-0.18717742,-1.7094507,-14.601916,0.011491101,-0.09421567,0.12681165,-0.08073611,-0.105344355,-0.034589235,-0.06896017,-0.118226245,0.05558471,0.056923114,-0.42174867,-4.928413,0.08533563,-0.010617101,-0.057291638,-0.28228202,-0.01690779,-0.094376795,-0.053412907,-0.054034524,-0.0054623657,0.004516574,-1.4823955,-0.06342141,0.09560479,0.0038688486,-0.0029175964,-0.060761925,-0.009184926,-0.035281844,-0.00838877,-0.13230257,-0.00926336,-1.3125292,-0.0018565211,-0.21928936,-0.33309665,-0.11080018,-0.039760087,0.11697613,-0.59434336,-0.16748732,-0.0505768,-0.050403535,-0.33679727,-1.2712042,0.08634344,-0.060733322,-3.6958191,-0.030421218,0.091563344,0.07678483,-0.0818542,0.03660462,-0.25326267,0.016770463,0.00892415,0.034379475,-0.5732397,0.081991285,0.046970062,0.09781522,-0.46317396,-0.3514623,-6.3035135,-0.28231707,-0.060524054,-0.68072844,-0.1093829,-0.119286455,-0.007425777,-1.6848379,-0.07138532,-0.04115881,0.120078556,-4.5716963,0.029896462,-0.06441392,-0.03292488,-4.3958364,-0.090740986,-0.023022639,-0.10012868,-0.13356824,-0.3429842,-0.0131431725,-0.00839943,-1.9947301,0.08594623,-0.55447906,-0.010963922,-0.016670955,-0.48124778,-0.19158047,-0.04122982
0.09814411,0.061980158,0.040006615,-0.028178042,0.06520531,0.019485656,-0.020523384,0.05705889,0.083411515,0.0065980023,-0.03403712,-0.262208,-0.085682765,-0.005914963,0.09247121,0.08836646,-0.045020618,-0.060157474,0.09680166,-0.11158413,0.15237258,0.07863509,0.13898537,0.07912921,0.1854453,0.002873772,-0.011653621,0.011413822,-0.034206036,0.21943432,0.08225148,0.096761525,0.1370033,0.026146997,0.067202784,-0.0077389632,-0.012990824,0.059476614,0.08351004,-0.07579631,0.030256102,-0.021723535,-0.17561233,-0.032389525,-0.102706276,0.053077534,-0.047367875,0.023947032,0.04197208,-0.2561704,0.061611895,-0.018349186,0.1247809,0.061469477,0.16755159,0.038478203,0.053580724,0.026374092,0.026158134,0.07773856,0.10018695,0.055013314,-0.008601541,-0.07904441,0.09243445,-0.035596196,0.033379376,0.024287356,0.0021092626,0.12725069,0.11158706,-0.09757304,0.13221982,0.032122444,-0.016727481,-0.047172707,0.15276444,0.031979036,0.05629932,0.00015515702,0.017957915,0.04029936,0.120153025,0.16579722,0.004643332,-0.05123522,-0.07544922,0.07942417,0.09359758,0.14188944,0.104105935,0.11670644,-0.12655102,0.116977625,0.047363307,0.021053642,0.13669579,-0.045466274,-0.1726837,0.076267,-0.0013758284,-0.12544204,0.06517528,0.04379956,0.11106586,0.03996663,0.051384836,-0.0037402827,0.16876045,0.013895373,0.046708692,-0.031144869,0.04725857,-0.0711413,-0.21947086,-0.03668899,0.07519909,0.0077491296,-0.18858245,0.066440456,-0.038466513,-0.009637634,0.0045059244,-0.049327683,0.0026458446,-0.07432362,0.09288361,0.056301
0.018179536,0.035814557,-0.02570566,-0.09602376,-0.040811203,-0.060911246,0.042169437,-0.11974411,0.005754481,0.037262093,-0.011085412,-0.17457439,0.037819926,-0.13725694,0.007992722,-0.048679654,0.07224045,0.081081875,-0.16965415,-0.1937954,-0.13873297,-0.32349378,0.12737527,0.070906445,0.102713816,-0.04115923,-0.3027551,-0.21445647,0.010468499,-0.2072588,-0.0894938,0.062026374,-0.022810582,-0.023133567,-0.0795631,-0.12636064,0.11052917,-0.043012932,-0.029621487,0.13345481,0.038885865,-0.0421819,-0.08967419,0.05308485,0.04794963,0.0066376845,0.056726977,0.067101836,0.038061447,-0.65812606,0.07472335,0.028092425,-0.038031776,0.024097066,0.011958989,0.07153769,-0.038721353,0.15777719,-0.18321043,0.16069481,0.057344522,0.032526392,0.028570013,0.056918416,-0.1175604,0.08384287,-0.07974364,-0.15546161,-0.07010952,0.08553911,-0.034187716,-0.20114826,-0.22076824,0.028455863,0.18870941,0.2021915,0.043695223,0.030595593,-0.19151554,-0.08829969,-0.0030450632,-0.08181795,-0.083054,-0.016459933,0.12672597,-0.009932328,-0.020634575,-0.060472693,0.018580763,0.11158123,0.10121294,0.09822728,-0.08956503,-0.027283521,-0.10444099,0.061187003,-0.14433542,0.14164971,0.08317571,-0.08155343,-0.04192193,-0.040656444,-0.04631702,0.08977616,0.0832198,0.222953,0.12318953,-0.08433272,-0.013878064,-0.009977435,-0.08281825,-0.042154156,0.13765575,-0.012797349,-0.6968934,0.09722201,-0.0003975653,0.03177282,0.16139874,-0.112763576,0.14502512,0.36528084,-0.067208335,0.06470957,0.061250433,-0.035314377,-0.039234165,0.12347552
-0.03214721,0.033195484,0.09808963,0.15589367,0.13261148,0.12091254,-0.05923712,-0.039173376,0.014062557,0.05471873,0.15071648,-0.18490405,0.15937282,0.28554976,0.06137124,0.082379945,0.05346139,0.087726936,0.4324493,0.38979506,0.1992222,0.347208,0.09613263,0.03323192,0.31170622,0.18826333,0.35562274,0.1255429,0.11994577,0.2716915,0.049685545,0.18941094,0.1878774,0.12365348,0.042224348,-0.21826003,0.043585815,0.13085416,0.16830191,-0.16241676,0.079120524,0.013669504,-0.004853138,0.26002678,0.1535636,0.22495908,0.14150813,0.17889681,0.13879463,-0.09493346,0.12450059,0.07007143,0.062431205,0.01945214,0.13702503,0.1409092,-0.026721956,0.45812646,-0.078670636,0.082594365,0.11617911,-0.12352795,-0.0062974957,0.13408431,-0.019621769,0.1500549,0.13239537,0.31151465,0.30553138,-0.027675373,0.21730365,0.23867677,-0.34039834,0.08808375,0.11521916,0.13368961,0.28347796,0.11015926,0.26667094,0.095098466,-0.011985508,0.36778092,0.28454578,0.3254969,0.2127664,0.201595,0.24838586,0.08199196,0.14145108,0.34993237,0.24403846,0.13721064,0.017206956,0.21573599,0.2807844,0.19166508,0.120615475,0.28004307,-0.041547384,0.25287032,0.060132515,0.10993112,0.011431405,0.22040008,0.30773234,0.094495185,0.10640423,-0.06036721,0.19273509,-0.03457078,0.1686645,-0.0890738,0.29452452,0.16873108,-0.0075203795,0.02289801,0.30262223,0.10763241,-0.16566615,0.114678495,0.2697594,0.03139119,-0.07689183,-0.06317279,0.33479813,0.06451518,0.10783882,0.08233151
-5.337375,0.04893462,-11.656321,0.04022704,-4.6924047,-0.7294048,-0.02274364,0.013846874,0.048729114,-0.15199469,-7.7757893,0.0015500427,-12.539704,-0.010122707,-10.199293,-6.311624,-5.6591253,-3.64959,0.42655116,-0.00037450547,0.02015708,0.017838689,-0.021441536,0.09855789,-4.4907374,-12.147368,0.5296251,-0.18523635,0.019405602,0.13032985,-0.43242353,-0.25803113,-0.5495892,-0.13457558,-0.0017977334,0.15181738,0.0019132325,-11.898725,-0.055338267,0.05179049,-0.049904484,-2.5355816,0.1119624,-8.824592,-3.257383,-11.056172,0.068731025,-1.103877,0.06843644,-0.018469026,-12.666376,-0.07804639,-5.789872,0.009193694,0.049126253,-2.3276813,0.013290618,-0.023839563,0.10116954,0.031244097,-10.321761,-9.481025,-0.16885473,-0.096793644,-0.9096297,-0.1466749,-7.4668975,-0.12968844,-0.072081655,-0.11661816,-14.815602,0.3094345,0.6182081,-0.68262297,-0.51456946,-0.46732932,0.18633759,-0.56715405,-0.0076874746,0.016505416,-0.5100525,-0.7378736,0.03936809,0.06327417,-0.33330438,-0.14505489,0.0064729806,-0.77171737,-0.050388634,-14.713155,-7.3261786,-1.2033048,0.00778783,-0.05207233,0.041667175,-0.32794598,-0.5845226,-8.062732,0.19410218,-0.068316504,-0.67458963,-0.8909815,-0.43300813,-0.09702501,-0.36748043,-0.038377464,-0.024923153,0.124111235,-6.8524046,0.071569346,-5.35453,-0.04901278,-3.5219245,-0.15169142,-0.05632077,-0.58820873,-0.14056388,-0.64576393,-0.3872033,-0.17990226,-2.5954475,0.06936302,0.010738502,0.06341996,-0.09817401,0.00037057555,-0.30351636,-0.6195777
0.04769176,0.10983569,0.0067797177,0.19236018,0.14832087,0.12877163,-0.046157613,-0.060348198,0.22497828,0.044300735,-0.10690131,-0.096385054,0.013102395,-0.29257062,0.18889296,0.04668546,0.1279534,0.12235753,0.13413271,-0.43537328,0.20060408,0.18645033,0.057123322,0.3347852,-0.08393234,-0.02267542,0.21039973,0.15060814,0.28632396,0.08578671,0.13846295,0.10171873,0.083170936,0.19947362,0.11138485,-0.27936998,0.04562452,0.13283415,-0.24331412,-0.18888538,0.042810805,0.10201747,-0.08659592,0.0032522567,0.15651116,0.059028007,0.0056925835,0.12275849,0.12139205,-0.85466665,0.030850215,0.14724247,0.051875968,0.076410905,-0.17680159,0.13071644,0.020529924,0.041183338,0.0754147,-0.06286817,-0.030975373,0.22348765,0.061632544,0.043267008,0.15825252,0.17005414,0.23423976,0.12652643,-0.012409204,0.058089774,0.029597275,0.117954485,0.1286261,0.10916407,0.13641359,0.21532694,0.12372615,0.12128374,-0.0003564954,0.23869102,0.11581736,0.013403166,0.26271906,0.15047798,0.16607428,-0.06344288,0.17935176,-0.002154486,0.0014814148,0.14592095,0.14498416,0.10040004,0.03382218,0.22569384,0.113724805,0.21586017,0.17915612,0.11167684,-0.20259579,-0.09725172,0.06873237,0.07934254,0.08580657,0.082276136,-0.05078263,0.15459771,0.07723542,-0.06264331,-0.036656413,-0.14849149,0.033004943,0.072842196,0.1263942,0.1415082,-1.0377065,0.18094723,0.027730359,-0.023367139,-0.258497,0.0544483,0.04736522,0.013791574,-0.11534843,0.07433011,-0.045102607,0.026907403,0.08574204,0.18363343
-0.029194139,-0.022327695,-0.014988843,-0.03159718,0.057771888,-0.16316758,-0.116176665,0.031211408,0.14453427,0.023146082,-0.043113198,-0.18765183,0.07345381,-0.05765119,-0.033796024,0.06664139,0.0431795,-0.022895824,-0.08028349,-0.18927893,0.11717289,0.08005406,0.05941981,0.11703248,0.13507819,-0.047162298,0.06865117,0.06783611,-0.11525183,-0.016224513,0.0894837,0.08876062,0.17037904,0.10930166,-0.019511163,0.10257386,0.080199234,0.060677204,0.21400788,-0.07716328,-0.07067553,0.103464834,-0.26681784,0.02483337,-0.09417092,0.1803114,-0.03391595,0.10793723,0.25587934,-0.39943343,0.029118594,0.036563367,0.1339292,0.14518271,0.066907965,0.12247187,-0.06873291,0.11026508,-0.034945447,0.03764872,-0.18203093,0.11259209,0.006869918,0.08161151,0.008842509,0.22630168,-0.11320982,-0.022633996,-0.0025908668,0.035614256,-0.04021939,-0.17427438,-0.142075,0.025720324,0.067695975,-0.027072124,0.120953634,-0.04845796,0.07937804,0.0069087707,-0.0070197536,0.10387984,-0.06725479,0.097813286,0.049207482,0.055798247,0.109484054,-0.012861001,-0.08210563,0.120864086,0.012420658,0.09701515,-0.07012727,0.07430929,0.093797415,-0.0018614393,0.0139100365,-0.025858598,-0.15146776,0.14024982,-0.06620253,-0.030768676,0.035284545,-0.01245951,0.17102797,0.12426801,-0.070837505,0.25389954,0.028489638,0.06669452,0.01118036,0.09890292,0.23781139,0.051980592,-0.5463019,0.108416736,0.07319117,0.14071974,-0.2699253,0.06080635,0.08966163,0.0059605534,-0.044070862,0.041612744,-0.19948596,0.111061096,0.11030053,0.0822824
0.032961875,0.15769374,0.13813604,0.23641153,0.10289,0.19164167,-0.10342291,0.039569475,0.14167212,-0.037163265,-0.051803406,-0.8436157,0.22501808,-0.15102491,-0.052999355,0.090612754,-0.057904515,-0.06853448,0.029167071,-0.18450715,0.18738213,-0.11515021,0.09966985,0.1331138,0.17175496,0.2063407,0.0033915064,-0.00093314034,-0.016949313,0.004744697,0.1964603,0.15304866,0.15810287,0.09671707,0.08266371,-0.47053465,0.14355192,0.056464963,-0.045773022,0.107405156,0.27773505,0.09149529,-0.05029793,-0.04035615,0.07078574,0.0636894,0.26323915,0.19604626,0.08982908,-1.0423294,0.07515171,0.020369515,0.14013235,0.10256491,-0.28387195,0.11752388,-0.017862473,-0.09784586,0.0605091,0.18155208,-0.0094340285,0.107204996,0.12054531,-0.11996316,0.18609309,0.33241957,0.15483588,-0.03588898,0.27827132,0.18791965,0.016261945,-0.0023231476,-0.5429353,0.24188203,0.23875809,0.064546905,0.07458365,0.063755035,0.07392953,-0.03062196,0.19995877,0.016516833,0.01647317,-0.2433361,0.34071288,0.3312675,0.2726586,0.110913746,0.06300763,0.1478846,0.2213344,-0.1352102,0.008257312,0.050739918,0.06918524,-0.019271769,0.13493885,0.13681196,-0.2790443,0.22998962,0.07385398,-0.04969767,0.16873746,0.01177989,0.11254417,0.24788307,0.16593331,-0.23074685,-0.0827632,-0.19022271,0.13002975,0.021629425,-0.011355416,-0.102981925,-1.6477638,0.13812122,0.15955967,0.17426586,0.028445741,0.12533951,0.08791375,-0.026617613,0.06324334,-0.07138022,0.052699298,0.08814128,0.13713926,0.02026679
-0.714643,0.025058853,-0.5088865,0.13628499,-0.33483198,-2.7706773,0.09206865,-0.36037815,0.10016248,-0.090572976,-2.2054627,0.005022741,-1.3336527,0.028539604,-0.5604541,-0.3087991,-0.8296467,-0.15582334,0.58497053,0.034272037,-0.11711863,0.14785479,0.04616449,1.6585872,-0.21076134,-5.648259,0.10232081,0.5202799,-4.7346454,0.06938585,-6.855693,-5.159967,-8.045362,0.05316941,-8.712905,-0.13757648,-0.39108396,-1.1520824,-7.9622927,0.14184918,0.021941599,-1.7006763,-0.17608133,-1.219698,-0.24049227,-0.31595275,0.05328172,-9.179616,-6.734183,0.007612864,-0.3120334,-1.5441056,-0.58122575,0.019488238,-0.049014557,-0.09579348,-0.5068455,-6.521395,0.037044924,0.061860174,-0.4094777,-0.37881565,-6.8769526,-0.111543186,-5.726536,-9.791426,-0.026895791,-0.10590999,-6.5018134,-6.8069134,-6.7929087,0.30888358,1.6186448,-4.733796,-4.4178967,-5.827052,-0.26064658,-1.9025135,-0.44214684,0.08918017,-3.01757,-0.08235478,0.044306718,-0.106287405,0.36260137,-0.0237992,0.11505483,-0.09381844,-0.7711943,-0.47792336,-0.688605,-0.22466889,0.021968154,-0.52947986,0.044634838,-5.180614,0.1339498,-0.3920193,0.8030213,-14.197686,-0.063749656,-1.4206278,-4.9008355,-5.231744,-2.205379,0.01025167,0.11091101,0.15596315,-1.0499326,0.077273205,-1.0400678,0.030223148,-0.17825912,-5.724968,-0.049661685,-10.430804,-0.02622816,-6.164646,-0.123192154,-5.28259,-0.026747346,-0.035370674,-0.26314253,0.13571583,-0.17049332,-4.939101,-6.934922,-4.644387
0.09237236,-0.039562423,0.05290121,-0.10049364,0.03805526,0.035819,-0.089836985,-0.112642854,-0.08920592,0.079765655,0.033542544,0.012231295,-0.04508957,-0.09910313,-0.03878349,0.0137105035,-0.114125885,0.07743685,-0.30463412,-0.2738183,-0.14776476,-0.22331202,-0.014822359,0.0731409,0.12552457,-0.0053602573,-0.1823313,-0.04940417,0.019502299,-0.18581942,0.026450653,0.00790868,0.21898456,0.008164589,0.14065926,-0.060503628,0.08088416,-0.014768998,0.027743913,0.1236888,-0.056610808,0.12872778,-0.0818376,0.026521862,0.054884676,-0.032774616,0.055803675,0.0662163,0.07215104,-0.15511522,0.082054,0.030244937,-0.03910798,0.10837768,-0.047163617,-0.015170106,0.09391074,0.07903412,-0.16892047,0.12643024,0.070868514,-0.049414262,-0.056972317,0.07154591,0.037111603,-0.032210995,-0.03648563,-0.21366085,-0.07893844,0.10294752,0.0060155457,-0.17981003,-0.09483632,0.037675425,0.0551438,0.13970397,0.06404328,0.17667791,0.071198754,-0.18797939,0.032431167,0.026448019,-0.08597522,0.07473388,0.012890518,-0.042111706,0.11945647,0.053582244,0.10153493,0.006354014,0.09346179,-0.041573603,0.07240464,0.08724647,0.022534711,0.13418302,0.053462204,0.12070571,0.009870559,0.08494164,0.05178246,0.031676516,-0.024300456,0.015409645,-0.04141487,-0.026295872,-0.03102924,0.18360306,0.09143367,0.16511151,-0.013609582,0.020427978,0.17996092,0.04742141,-0.64521354,-0.016607655,0.16759518,0.18620792,-0.022966554,0.02505551,-0.066679046,0.05557032,0.20216672,-0.10974624,0.17433071,-0.04802859,0.029465351,0.018741215
-0.15321758,-2.3041427,-0.052075945,-4.3789687,0.0768657,0.015791092,-5.630594,0.1958333,-1.0840173,-0.023475474,0.16574928,0.1303577,0.09572348,-5.4610596,0.04089911,-0.21259837,-0.09442543,0.016256936,-0.14494888,-4.5752807,-0.2689889,0.00938956,-0.33911908,-0.6982234,0.057654552,-0.045192156,-0.4486502,-11.352895,0.008462232,0.027970089,0.3145764,-0.034221698,0.154843,-3.0719235,-0.23675357,-0.5739192,-0.12259081,0.054490477,0.19309309,0.13808748,0.11297303,-0.1521579,-0.04241335,-0.2101699,0.06615209,0.16018057,-0.29414982,0.13925618,-0.1356916,0.028814642,-0.020002011,-0.08889084,-0.08777038,0.34547794,0.029111842,0.24967614,-0.68241477,0.18829207,-0.036890242,-0.018775344,0.053436596,-0.03557882,-0.4073467,0.116649434,-0.048807062,-0.0007571601,-0.08176312,0.17897108,0.183031,0.09732827,0.0036548409,-0.90292686,-0.13611555,-0.0076348158,0.16740748,-0.79647595,0.018871272,-0.05106948,-0.02198236,-0.21085215,-0.009346071,0.093675025,-0.943904,0.09280895,-2.711809,-0.123393066,-4.3328347,0.25065818,-0.0064650485,0.038301956,0.17500907,0.122380085,-0.36845568,-1.0305678,-1.8019822,-0.18706034,-0.3304159,0.04313937,0.20711572,0.26649746,-0.038226876,0.16485567,0.21133326,0.0702898,-0.1035461,-0.74900925,0.029695451,-0.18754612,0.033929907,-0.07912278,-1.5832629,0.119115904,0.021189122,0.06706198,-0.39359626,0.076108694,-0.06525631,0.0805671,0.08980847,-0.51359725,0.39710552,0.03678931,0.38628927,-0.25547463,0.1356674,0.20989825,0.1567675,-0.033539847
0.050166402,0.10656069,0.1868512,-0.08099642,0.022672363,0.16826604,0.015514498,0.035238273,-0.14636792,-0.07769251,-0.14685437,-0.16861814,0.062070467,-0.47059956,0.026446214,0.13056462,0.026275001,0.23530032,-0.20568095,-0.39607376,-0.387512,-0.4000984,0.20792107,0.0038872806,0.08185721,0.11490336,-0.2766277,-0.08028269,0.11152174,-0.32402572,0.3282657,0.12090321,0.2113741,0.12644064,0.0005941933,0.02788551,0.17987116,0.16047052,0.07448087,-0.0099520665,0.17283338,0.045873716,0.06646978,0.13390377,0.3126568,0.055367272,0.09855692,0.046252076,0.011296675,-0.531282,0.056081366,0.18802315,0.050343577,0.09832796,-0.3050529,-0.016495083,0.035268534,0.12073621,0.043872148,0.0010398518,0.18281351,0.08814079,0.15214336,0.20079687,0.1366972,0.037003085,0.09146416,-0.44581124,0.1244108,0.012315879,-0.08120002,-0.048047237,-0.37938786,0.12773499,0.26542944,0.16294436,0.010486581,0.17149678,0.01620418,-0.29754204,0.1075663,-0.06401992,0.02262727,-0.18340406,0.25985396,0.11175265,0.19628282,0.11894312,-0.2155119,0.18093789,0.040599786,0.20135206,-0.040162735,-0.2410327,-0.16046844,0.17511359,0.18669426,0.05252345,0.14566794,0.12937433,-0.088428065,-0.063737184,0.25881276,0.015095173,0.14418505,-0.011391043,0.32990426,-0.15464814,-0.033116676,-0.09300329,0.22427633,0.07248921,0.062074564,0.17498653,-0.7081695,0.0983977,0.056328755,0.34162322,0.18909569,-0.22304627,0.06356218,-0.1249979,0.18473418,-0.025661986,0.16540411,0.043229364,-0.000917551,0.25614336
0.013862393,0.062214933,-0.10572154,-0.011848055,0.029893586,-0.04922611,0.04035824,0.030243065,0.057405084,-0.033831805,0.026112769,0.06734615,0.033192147,-0.09687368,-0.072364576,0.09835663,0.10941284,-0.0148920035,0.1793874,-0.17635801,0.120017655,-0.15258066,-0.018539775,0.0066235373,0.056170903,0.061422892,0.06973349,0.18543877,0.014998148,-0.053083085,0.038955152,-0.036336977,-0.07056012,0.037623208,0.10598921,0.01497547,0.042192418,0.11293065,-0.0066965125,0.05885805,0.112077184,-0.024081886,0.028029544,-0.0002483111,0.048068393,-0.1339806,0.04162086,0.015611803,0.03702635,-0.10445201,-0.018598711,-0.07971366,0.076618366,0.0058467016,0.07838338,0.04094898,-0.07125893,0.060471904,-0.02215973,0.011452514,0.014117284,-0.0026789773,-0.006781564,0.0094959,0.06339564,0.124987245,0.094313174,-0.111100554,0.08768262,-0.008261176,-0.11053886,-0.07084023,0.0722974,-0.09845304,-0.031645775,-0.04416922,0.039964885,-0.12129438,-0.029465938,0.034647334,0.07105606,-0.06756044,0.055123754,0.06999607,0.08771875,-0.018123025,-0.007800454,0.0081586335,0.014022487,-0.11209302,-0.026030956,-0.13226946,-0.10063931,-0.06188068,-0.027602028,0.059780765,-0.067963846,-0.035671685,-0.09827938,-0.0059698313,-0.05256086,-0.10999825,-0.042747732,-0.095764905,-0.116647035,-0.04785456,0.07610682,0.05866417,-0.052812725,0.09290964,0.06812312,0.084059715,0.058247633,-0.09441068,0.032118797,0.098505855,-0.052401766,-0.06447086,-0.072763264,-0.11373765,-0.10123116,0.05440779,-0.15810104,-0.0011321126,-0.041368693,-0.09370371,-0.14237556,-0.097594954
-2.3416626,0.29574183,-3.150909,-0.13889213,-0.24230224,-1.466235,0.08983909,-1.7696842,-0.15252195,0.19812647,-0.67099345,-0.014758014,-2.9694052,0.40617487,-4.0448003,-0.7592195,-6.6134305,-2.6027226,0.16885974,-0.16709611,-0.10112455,-0.2711099,0.028595403,-0.5647747,-0.3524495,0.7164304,0.39213288,-0.009322215,0.057033505,0.16898383,-0.5031828,-0.25814533,-2.73228,0.16150218,-0.55692154,0.3375276,0.25323823,-2.8806233,-0.4006612,-0.027401917,0.053874258,-4.057036,0.122375585,-2.0479398,-0.9411075,-2.8547268,0.07622526,-0.19430383,-0.23426495,0.07005729,-2.3680305,0.26796567,-2.8510697,-0.018716646,-0.10130561,-4.3359222,-1.0169867,-1.5656053,-0.17862011,0.017218478,-1.9276899,-2.107378,-1.0932554,0.05587337,-0.35698467,-0.84667856,-0.18155186,-0.24340402,0.8602565,-4.2761636,1.2488163,0.5629937,0.5175087,-4.77024,-0.82615757,-1.0376188,-0.7579843,0.6663748,-0.047532547,-0.053097546,-0.2593208,0.19079235,-0.067952596,0.24311839,0.21808818,0.12445205,-0.29043034,-0.3237705,-0.7997992,-3.7015157,-9.465682,-1.8827881,-0.030575076,0.6113689,0.24950252,-0.059017263,0.23078848,-0.252194,0.78264,-1.1327229,0.043591097,-0.60031646,0.3479067,-0.34312654,-0.1519694,0.07699121,-0.0548405,0.24719642,-2.7299287,-0.048915252,-1.7635695,-0.07673104,0.81496495,1.0890363,0.06285127,-0.9974051,-0.061549574,-0.9820661,-0.2866342,-0.9325502,-4.176558,-0.08119675,0.39174,-0.023506725,0.052004945,-0.23919985,-5.8318396,-3.687068
-0.14200771,-0.07590652,-0.11860001,0.1748267,-0.00800257,0.18716384,0.0081844255,0.09437177,-0.19979124,0.050322384,0.028499817,-0.1890139,-0.01599347,-0.045415785,-0.1466068,-0.07432982,-0.095114574,0.05105372,0.25212666,-0.19667044,0.27467197,0.18017824,-0.021212995,-0.093178846,0.057657827,0.063695274,0.2567867,0.16517626,0.20209454,0.1517583,0.3619253,-0.24198985,0.043131616,0.09076982,-0.020857228,-0.28148043,-0.05986523,-0.070921436,-0.24377091,0.25604966,0.13653742,0.0858525,0.47745323,0.10922962,0.25057194,0.07972446,0.14938109,0.2777646,0.15956765,0.46434698,-0.09385513,0.10428266,-0.3541443,0.11808136,-0.41567153,0.15276513,-0.11243509,-0.22722512,0.094256416,-0.22458261,0.09455803,-0.10405139,-0.12281514,0.07161368,0.3164137,-0.2682071,-0.075465925,0.20571305,0.24358231,0.022603903,-0.033242427,0.35909617,-0.007229189,-0.017161168,0.26362342,0.04678178,-0.14910826,0.022579968,-0.0403002,-0.21542732,-0.26363805,0.013297944,0.00095674064,-0.48405582,0.13632523,0.057622563,0.27770606,0.08572724,-0.47165486,-0.04475637,-0.16535014,0.23575796,0.0102630695,-0.29663858,-0.09109371,-0.14463487,0.22986113,0.122015044,0.19226985,-0.080153935,0.041941267,0.06480291,-0.07676248,-0.22196607,0.1325619,-0.025755834,0.1398432,0.14427945,0.027587615,-0.18918248,0.0017787679,0.037273258,0.1779832,0.019602915,0.043098774,-0.2112152,0.25356194,-0.05116618,0.07114666,-0.16449465,0.20708734,0.68400544,0.261944,-0.05877327,-0.21822928,0.14158003,-0.13029757,0.14929107
-0.02054329,0.057743125,-0.34585416,0.0878061,0.29813755,-10.538512,0.10620385,-0.12204226,0.0919557,-0.0316275,-0.13066797,-0.027084108,-0.18115324,0.035173375,-0.14085944,-1.6199106,-0.008646938,-3.4229681,0.104300514,-0.04984202,-0.023894563,0.23968428,-0.029262176,0.25070947,0.29282036,-0.93424284,0.08245876,0.23783453,-0.61675143,-0.01188567,-0.0576807,0.054496165,-1.2432799,0.03990488,-14.633614,0.113789365,-0.0020085536,0.10331528,-0.24741735,-0.07290172,0.028487787,-0.35216457,-0.05091226,0.17917687,-7.3436832,0.17682402,0.061682783,0.054718684,-8.903161,-0.03473056,-0.8218692,-0.08223761,0.0025663497,0.049295243,-0.003497325,-2.5871778,0.06357793,-0.9077874,0.056055035,-0.03841852,-0.061862376,0.0657713,-0.015850991,0.07292447,0.065544195,0.05500445,-0.16776644,0.14940456,0.03411839,0.032841202,0.062007613,0.046191525,-0.00073065766,0.20434356,-0.04611174,0.03318015,0.016103046,0.13963379,0.03703912,0.18022212,0.065613784,-0.2748242,0.13948107,0.0061198603,0.29678038,0.0048145,0.21332698,-0.038378704,0.04730686,0.08475321,-0.061879594,-0.10178083,0.014254397,0.051047157,0.47130945,-2.3401146,-0.038077857,-0.032505542,-0.18056309,-0.9869,-0.17796558,-0.0033982487,0.03469182,-0.22827752,0.04113204,0.045913562,0.035346963,-0.0063642575,-0.08140842,0.011748461,0.20524935,-0.34689286,-2.5919747,0.0020409701,-0.020943156,-0.052591022,-0.0015571114,-0.04927713,-0.027333956,0.024132017,-0.3217822,-0.016202532,-0.20215297,-0.017370338,0.017705929,0.12845142,-0.09271815,-5.3470554
-0.02687666,0.41555828,0.12546565,0.028062759,0.1573849,0.06518389,-0.721628,-1.4750984,0.06562868,-4.0086155,0.03590166,-41.059814,-0.0056989477,-0.11431724,0.060376443,-0.0026777836,0.06009258,0.058405057,-0.55323964,0.18223378,0.18022154,0.27336094,0.7613616,0.05209736,0.05393115,-0.16722791,-0.9631925,0.100767225,0.19871014,0.024688048,0.10502939,0.0015735338,0.030942237,0.5696595,-0.08761075,-0.24894008,0.2760721,0.3526512,0.30052474,0.22965197,0.17064838,-0.03351606,-0.80669636,-0.19114383,-0.006971856,0.13019967,0.15636118,0.11535232,0.019488899,-28.179434,-0.0074444995,0.29697698,-0.18727963,0.13938628,-0.28540602,-0.04689074,0.049188774,-0.29695272,0.07206988,-9.330317,0.25579774,-0.120696664,0.27647382,0.20877124,-0.24778792,0.08811821,0.15445729,-0.027229313,-0.33516768,-0.0692606,0.35392722,-0.34750533,-0.060011547,0.06716489,-0.20113316,0.15319782,-0.4364085,-0.0721081,-0.046037015,0.047829423,0.24835715,0.20365311,0.15012407,0.0716475,0.5339354,0.5360243,0.5362735,0.1701593,-0.34284103,-0.070630714,0.22286396,-0.48791316,0.40671098,-0.35174438,0.0055908468,0.07239189,0.3177067,-0.112176746,-0.27947012,0.006713709,0.1068186,-0.0039509567,-0.88251275,0.107600786,0.09594513,0.31986535,-0.030964619,0.1641948,0.42409292,-19.5818,0.121851355,-0.1111389,0.30704114,-0.17075889,-0.58378136,0.32861486,-0.3130269,0.022678213,-0.24362065,0.22620022,0.44951075,-33.02446,0.13398914,-1.2862364,-0.96702945,0.16283941,0.16219628,0.08509227
-3.0676699,-1.8792951,-3.0277963,-0.66227186,-0.5068018,-0.4536357,0.09065418,-0.06716761,-0.105638415,-0.28230202,-4.6809273,-0.49735934,-1.7433882,0.0920675,-3.0588055,-2.7330642,-2.645906,-1.6469147,0.012771758,-0.14669462,3.4526014,-0.16630958,-2.6250932,0.052993108,-0.012468665,-3.6033149,0.17650843,-3.3165867,-1.2745897,-0.12817486,-3.1710486,-2.2692673,0.091856316,-4.285195,-3.1711557,0.09585382,-1.8569045,-2.4291036,-0.009232092,-0.13584363,-2.7370517,-2.2944458,-7.566195,-1.4869872,-0.83793706,-1.174683,-2.0241776,-2.6818173,-2.498333,-0.39019382,-1.958756,0.01595595,-3.2840824,-3.5934858,0.08630722,-1.3975805,-0.100589186,-3.4967258,0.07075644,0.8664736,-2.0191557,-2.8164043,-1.209354,0.4404679,-1.1646646,-4.0289483,-1.3402418,0.2287964,-2.765265,-4.865735,-1.842545,-0.36380506,-15.697682,-3.48326,-0.76231116,-2.7776487,0.4025125,-0.47772598,-0.19272996,-0.18256573,-2.9571936,-0.26253653,-0.05568393,-0.1273546,-2.217716,-7.1216965,0.6138633,-0.3241224,-0.04884242,-1.5943946,-2.863271,0.042567663,0.18527691,-7.19046,-0.13572039,-3.3854225,-1.0499964,-0.7136563,-3.112602,-0.08720214,-4.802928,-1.4553261,-2.3664052,-3.22676,-0.59923404,-13.609972,-1.93587,1.6055921,0.24334247,0.5390704,-1.9687794,-5.197207,-0.771729,-3.3628242,0.017489946,-3.6945198,-2.4131005,-3.2757835,-1.90748,-6.9787264,-0.44458458,-0.13496912,-1.2064179,0.2213481,-7.4510098,-1.1741571,-0.12814926,-0.111775786
0.06439413,-0.012359514,-16.929583,0.2176554,-0.27856508,-1.6798012,2.4524894,-0.20825148,0.4070272,0.14568332,-1.0671113,-0.008265811,0.12871434,10.4639635,-0.12950914,-1.1255138,-0.5332524,-0.4877888,0.0032994833,0.26407677,0.002324414,0.18079269,-0.0062433137,0.5348811,-0.20826548,-4.8083277,-0.054657727,0.012628678,-7.251491,-0.066655986,0.09372567,-0.64458287,-0.42203704,-0.025087383,-2.5966818,-0.029139964,0.01434978,-0.85865813,-11.781877,-0.030115193,-0.022919904,-1.3711493,0.0766735,0.088168636,-0.48195797,-0.11415597,-0.03838821,-0.39585537,-0.42330223,-0.0057062358,-6.602163,-3.8303645,-0.10405206,0.028784059,-0.055982456,-0.112852775,-0.36000732,-4.1749516,0.3160062,-0.053919364,-0.2392343,0.0044226516,-13.353113,0.092597,-0.14441966,-0.46784332,-1.3707218,0.24185272,0.11944974,-0.23108253,0.11907241,0.037928518,-0.08833041,-1.5441803,0.24071959,-0.045416303,-0.25138694,-0.06476102,0.21273999,0.08315304,-0.38878536,-0.067587204,0.560384,0.0694565,-0.082948,-0.01473529,0.3001874,0.13607366,-0.124154985,0.19660933,-0.66668683,0.21448998,0.0068361796,-0.053772945,0.94147664,-8.935932,0.22379369,-0.7326387,0.0029156865,-2.9783876,-1.0767839,-0.025815316,-0.030175151,-10.035226,-0.22064626,-0.005279645,0.09550043,-0.071163654,-0.6491805,-0.13705955,-0.06755771,-2.425132,-0.6061083,-0.36517692,0.021212844,-0.15900265,-0.04983187,-0.055234432,0.092918366,-0.020196145,-1.3593235,-0.03543303,-0.16070539,-0.117161185,-0.11623513,-0.21525297,-9.914834,-4.7074046
0.11648695,-0.02579662,-14.256959,0.22483401,0.3289046,-1.6640197,-0.051733386,0.034398146,0.4071106,-0.05454083,-0.71132547,-0.0557968,0.07100834,-0.00037366292,0.0030047537,-2.588951,-0.46101,-1.0407635,-0.08755057,0.024767557,0.11464475,0.13747028,0.016829237,1.1767656,-0.14798006,-6.5010977,-0.11466573,0.06719959,-5.4321313,0.015063762,0.052961715,-0.105294384,-7.082208,0.009611985,-3.01027,-0.094476044,-0.034949522,0.24598326,-9.429684,-0.09023474,-0.04401864,-4.0515532,0.020320835,0.1406214,-0.36876562,0.1250349,0.0136786075,-15.920455,-0.979395,0.0348763,-7.330057,-1.5883895,-0.0030553797,0.067278445,0.015347448,-0.28708568,-0.022086138,-2.4755282,0.30713326,-0.02529861,-0.09241837,-0.12973706,-1.4518365,0.044504818,-0.12983014,-0.16552666,-2.8572826,0.20271221,0.1282013,-0.01525222,-0.40687093,-0.065811016,0.06366064,-1.2797636,0.23412475,-0.0069367085,-0.08253615,0.02364819,-0.053390417,0.2101215,-0.13894768,0.17951302,0.682804,0.046636805,0.018577369,-0.058318503,0.31309116,-0.0015214675,-0.04417213,0.097533435,-0.41165623,-0.08964139,0.2729507,-0.02754823,0.6518207,-6.449534,-0.108682476,-0.09772641,-0.21689425,-6.024034,-4.0562305,0.050684147,0.005152872,-0.70370615,-0.23262113,0.0029135183,0.07574478,0.059175543,0.12732713,-0.037862305,-0.056268796,-3.06811,-0.26350904,-5.3433156,0.009523831,0.041443415,-0.036714926,0.0786198,-0.007927667,0.065348394,-2.4619865,-0.010255159,-0.052266233,0.00875987,-0.063950986,-0.017886948,-6.5418577,-3.88811
0.17949615,0.078538544,-0.37143543,0.061140787,0.029308219,-1.0646043,-0.18028285,-2.6922028,0.09027219,-0.60347635,-0.042489633,-0.44827485,-0.19946626,0.11726345,-0.26972297,-0.45484462,-0.2963358,-3.8218877,0.22217587,0.472042,0.0140158245,-0.29358408,0.08148394,0.11114119,0.2967315,-0.44477037,0.23398565,0.10574112,0.24716301,0.17198664,0.14076598,0.43951273,0.17124087,0.17927794,-0.16637439,-0.05091052,0.1480381,0.06959887,-1.2272418,0.14849092,0.055316966,0.3163842,-0.010484562,0.063746884,0.43997163,0.26671135,0.16758199,-0.1445475,0.22578746,-0.12113291,-0.6296889,-0.10692739,-0.4968606,0.060322214,-0.021825608,-2.4001594,-0.2428976,-5.5908685,-0.20981607,0.264333,0.17287472,0.08022758,0.10520659,0.06916209,-0.11606587,-0.6183189,0.20148057,0.06699574,0.11730156,-0.17625749,-0.11869166,0.1703417,0.31506827,-0.5292057,0.020026322,0.02901487,-0.17863935,0.15380295,-0.19464125,0.055087835,0.0071273507,-0.68795085,-0.025287751,0.021236759,0.14119865,0.1014995,0.21746518,-0.09373134,-0.6014301,0.1724111,-1.5415461,0.18749674,-0.107754275,-0.25531808,0.108198814,0.011134191,-0.06829972,-0.032235224,-0.01941159,-0.031602073,-0.11750148,0.057776384,0.19036192,0.0055570365,-0.24492964,-0.14697477,0.13459945,0.011944606,-0.19600488,0.3770451,0.055784773,-0.13804054,-2.2849088,0.010671545,0.045826774,0.07613648,0.10649296,-0.10479499,0.16923797,-0.10157471,-0.12595606,-0.8459265,0.0597085,0.02869445,-1.286355,0.18021594,-0.027895566,-0.76791334
-0.10822452,-0.022626441,-0.012623175,-0.0337256,-5.3587804,-0.9615428,0.0031239525,0.06176796,-0.010710336,-0.19629279,-1.5423579,0.03996897,-0.072252885,-0.030857217,-0.029089507,-0.4316286,-0.07485983,0.019573009,-0.011634859,-0.008799199,0.02905167,0.13258654,-0.06836535,0.022294967,-1.7360884,-0.02741198,0.027952207,-0.08124224,-0.25982335,0.046584353,-0.09819715,-0.75181895,-0.43969616,-0.05655986,-0.04372567,0.041118067,-0.1294688,-0.034245577,-0.031607833,-0.06197325,-0.3366528,-0.04675724,0.032681745,-13.771732,-0.77312744,-0.728976,-0.1389458,0.0035503977,-0.07032124,0.026039442,-0.0019879127,-0.012596937,-0.02593777,-0.16075088,0.05100418,-2.3638523,-0.049097855,0.08519233,0.00027682207,0.076539986,0.0282065,0.012734167,-0.042870045,0.07419873,-8.93486,-0.014052666,0.19637074,0.039691206,-0.19055592,-0.2931898,-0.64193106,-0.022285724,0.06324687,-0.17135784,-3.1043916,-0.015545722,0.020434977,-0.640187,-0.26142716,0.02016642,-0.06292372,-2.7892954,0.023681864,0.016161133,-0.619005,-0.25972658,-0.17668821,-0.12756494,0.015179065,-0.06420576,-0.0038484938,-0.6162298,0.0007324188,0.010127492,-0.0040686787,-0.24942757,-11.85214,-0.25514314,-0.20528094,-0.024715556,-0.20019548,0.042400643,-0.22304542,-0.057128686,-8.299823,-0.05013382,-0.81265676,0.057548493,-0.5108404,0.0987044,-0.2531413,0.00210405,-6.1780233,-0.018319136,0.022792395,-0.11563387,-2.7019553,-0.11904921,-0.042118825,-0.046667643,-2.1982167,0.04442303,-0.43114778,0.029269759,0.016563516,-0.34399688,-0.052256323,-0.04403301
0.4189837,0.25391784,0.2872926,0.034764502,-0.07042872,0.36939177,0.009960017,0.31480426,0.21495351,-0.06820041,0.11524442,-1.4631447,0.28400728,0.44318047,0.2631105,0.3792371,0.092960015,0.2734628,0.6429968,0.10470466,0.19601364,0.27964148,0.060684245,0.2107232,-0.19276312,0.05867948,0.52577794,0.21228202,0.036469113,0.26034504,0.29054043,0.6113175,0.2783014,1.0564184,0.30532476,-1.1377554,0.15869972,0.19910026,0.3467457,0.25446293,0.22230232,0.28258583,-1.6487215,0.39632002,-0.12636009,0.1213297,0.08946384,-0.0032418326,0.046042792,-1.6252575,0.016593039,0.49263158,0.10912398,0.22554699,-1.452781,0.23548485,0.47573093,0.30672187,-0.057712168,0.084919624,0.12984481,0.19748774,0.14391829,0.07560315,0.33639908,0.5418839,0.19289848,0.30221805,0.37345743,0.5297646,0.33158877,0.32829854,-0.5573788,0.32431006,0.5798412,0.4775372,-0.5060476,0.3269583,0.17534848,-0.28995362,0.14473428,-0.5226533,0.15003572,-0.99721277,0.95020264,0.33521104,0.20146862,0.53732616,0.38943812,-0.10942513,0.6076275,0.1625126,0.009440232,0.6524948,-0.40489587,0.18248886,0.03414641,0.16416332,-1.1297314,0.62407655,0.048472147,-0.46618348,0.37239468,0.26938182,0.08716367,0.41491404,0.33627933,0.41601598,0.17016597,-0.041811958,0.3620539,0.28935337,0.0022967525,0.2645906,-4.281459,0.08341201,0.39388654,0.23006123,-0.65329224,-0.20555739,-0.08212941,-0.49064252,-0.00065008376,0.0029517724,-0.12578966,0.2748279,0.25015706,0.63266826
0.15075281,0.15599796,0.12614284,0.075187124,-0.0050615426,0.17868936,-0.101293534,-0.10727066,0.07017927,0.0468789,0.08286088,-0.45408437,0.27244222,0.29513788,0.005458138,0.13338667,0.19834192,0.06316902,0.050026655,0.007158296,0.03328281,0.15525852,0.20489086,-0.062570184,0.07750077,0.0710704,-0.019044258,-0.11717484,0.024613135,0.03894893,0.11052319,0.11404048,0.069813505,0.06292511,0.10717836,-0.19030984,0.2674835,0.076607965,0.19379993,-0.12827834,0.055926174,0.08474479,-0.18626726,0.0031218207,0.077841744,0.01620682,0.17850195,0.17853746,-0.054120284,-0.75625414,0.0021482632,-0.054013412,0.14941749,0.040688314,0.047874466,-0.10549959,0.18861113,0.09427349,-0.061177917,0.14823459,0.049144685,-0.0658239,0.18708518,0.037420288,-0.0071669687,0.08928504,0.15083833,0.19010489,0.21243252,0.039493572,0.1703553,-0.14717813,-0.30211806,0.16396864,0.17128871,0.17070535,0.061903685,0.14546898,0.012032412,0.089501016,0.013175579,0.06724124,-0.06321104,0.12260207,0.1479047,0.16667554,-0.0250716,-0.04134611,0.1684387,-0.23577717,0.122335434,0.2146292,0.024399916,-0.021733608,0.12718737,0.15756744,0.09003817,-0.11444433,-0.026587775,0.08472473,0.07720991,0.07148565,0.113715716,0.1784958,0.06044499,0.01612516,-0.071965575,0.07946868,0.006977647,-0.065475665,0.104901895,0.12506816,0.21114309,0.068732955,-0.52134556,0.22388689,0.22389498,0.07174506,-0.13133223,0.13870569,0.024511663,-0.37351185,-0.24307887,0.089706205,0.05708497,-0.004503891,-0.009904345,0.23686092
-0.114952505,-0.40957326,0.21775572,-0.014532899,0.081982456,0.092531696,-0.04353221,-0.041513693,-0.026957117,0.37941915,0.031041283,-1.484821,0.41797128,-0.062871195,0.28481883,0.42039424,0.43776715,0.021143,0.72472906,0.48794794,-0.19763654,-4.259657,0.12692794,-0.047648698,0.46524796,0.18552756,0.17234951,0.57719713,0.39490741,-0.14250092,-0.0039817737,0.17249434,-0.012268377,0.7536089,-0.34030396,-1.5288603,-0.76651704,0.34625188,0.12672906,0.10055986,-0.9306162,-0.119473144,-4.275799,0.872031,0.25713843,-0.039547876,0.21372259,-0.016490927,-0.17112173,-0.13993679,0.72063667,0.11429219,-0.47616607,-0.04931569,-0.00068894797,0.56544733,-0.0024412666,0.8133095,0.023362901,-0.25268754,0.48091325,0.3355318,0.068139635,0.024938524,0.2114384,-2.6302855,0.6639404,0.036435023,0.5631708,-0.06782659,0.4695744,1.1289132,1.0288624,0.14802462,-0.055764314,0.2268545,-0.13110965,0.7217739,0.0225331,-0.10731738,0.30775622,0.66369843,0.024105504,0.5581637,0.3821497,-0.17274866,0.15474091,0.042380285,-0.002342429,0.20668699,0.2526062,-0.63082504,-1.1064656,-3.5355756,-0.04960846,-0.0832451,0.09219698,0.53510684,0.6885901,0.12630375,0.035890706,-0.20194049,0.08926422,0.17079142,-0.280242,-0.018779345,0.021121575,-0.58356047,-0.057143264,-0.3842098,0.9192002,-0.086277194,0.5241508,0.6061335,0.17105122,-0.038001057,0.16650343,-0.08124671,1.2278898,-1.3513017,0.82930636,-15.436915,-0.5141039,0.033797305,-3.656184,-0.25450185,-0.11299762,-0.041591786
0.0069359853,0.2727738,0.042546045,0.24085072,0.004340051,0.05105822,0.009808825,-0.1682834,0.07764209,-0.29273683,-0.14531825,-3.3497238,0.19537826,0.31172174,0.03750623,0.19864316,0.037853535,0.01198388,-0.11097964,0.62581056,-0.03315487,0.09464932,0.100879304,-0.13975163,0.09997124,0.32102063,0.12796433,0.38485688,0.025587177,0.07819617,-0.07024114,0.031214582,0.030998785,0.1611855,0.21804471,-1.6694195,0.23337561,0.14855094,-0.39323568,-0.10876428,0.1772936,0.07201913,-0.14968033,0.063318476,0.23566236,0.22611234,0.117215,-0.06609423,0.10912608,-1.7307333,0.33641347,-0.067607835,-0.20544796,-0.11244809,-0.12016889,0.065209575,0.15780222,-0.26093373,0.021906815,-0.2916364,0.09853377,0.21015058,0.18046018,0.095198214,0.17875156,-0.24305098,0.06589766,0.28886154,0.11065103,0.09468975,0.14562005,-0.035985142,-0.03493737,0.11823681,0.041956916,0.13115889,-0.5739843,0.06892451,-0.053692795,0.11093725,-0.030040866,0.14233097,-0.120763436,-0.9665206,0.21900898,0.19284861,0.26679325,0.15815806,-0.28895622,0.0698047,-0.1438154,-0.03268779,-0.04824679,-0.3422542,-0.051058233,-0.10449715,-0.029487848,-0.029833838,0.0132419905,-0.13302463,-0.01351262,-0.19663644,-0.034203183,-0.11248291,-0.10988803,0.22931229,0.1563869,-0.69872504,-0.175969,-0.7118362,0.065738425,-0.09420806,0.14540492,0.18225615,-1.2870241,0.017899383,0.090338804,0.23030463,-0.3830773,-0.009818406,0.10843217,-4.765759,0.06680614,0.046579096,-0.31113312,0.059179723,0.09982147,-0.016248547
-0.44250092,0.039269194,-0.10342015,0.16505612,0.0032664656,-0.79548067,0.07667636,-4.4991474,0.15163358,-0.3894225,-0.1139502,-0.06329509,-0.35294202,0.33661783,-0.26747793,-0.19589493,-0.4840838,-0.19531481,0.5910784,0.16858515,-0.19413398,-0.0039222757,0.11774791,-0.233479,-0.18440957,-1.1576347,-0.24995142,-5.7490797,-0.9410097,0.11970174,-1.8570229,-1.723644,-1.8110055,0.15993422,-1.1941622,-0.60501736,-1.9791492,-0.50386566,-3.804808,0.35771507,-0.024450576,-0.78306973,-0.4202489,-0.32814658,-0.21914232,-0.17010793,0.095868185,-3.2783146,-2.00716,-0.008779375,-0.18332817,-5.6416655,-0.5839442,-0.0075473776,0.015332212,-0.20314197,-4.339315,-1.6986585,-0.21067499,0.014752799,-0.045855843,-0.22992976,-3.0880446,0.011723609,-1.198911,-1.5892926,-0.17504145,-0.14902984,-2.006532,-0.9744344,-1.5293853,0.9415349,-0.1464951,-1.4156231,-1.5064194,-1.9755367,-0.5434729,-0.39245668,-1.3179638,0.1801153,-1.1866308,-0.106830694,0.011318931,-0.024040647,-1.3429197,0.055206664,0.175322,-3.0306697,-9.16216,-0.047515005,-0.30503324,-0.18380311,0.054711845,-3.9621272,0.47647366,-1.4215049,-1.9895531,-0.03754342,4.883541,-2.9635103,-1.3584712,-0.3434667,-1.2221942,-0.8958855,-0.5803178,0.041119613,0.03876569,0.18627745,-0.121759355,0.09203424,-0.44629514,-0.03551935,-0.11039067,-1.1009117,-0.029247189,-3.5248778,0.19755037,-1.2776401,4.031212,-2.3272572,-0.025957163,-0.16779049,-0.43195668,0.13563594,-0.034532115,-2.7395127,-1.0228587,-1.1906192
0.06714496,0.024688803,-6.1358876,0.65400213,-0.14547442,-1.0791235,-0.016489528,-0.9026923,1.7503043,-0.0881112,-0.88339627,-0.00575326,0.1397525,0.060262904,-0.22587073,-2.0624657,-4.539988,-1.2593437,-0.003957614,0.05240599,-0.10852506,0.23983264,-0.12095669,-3.4330232,0.4292475,-1.6624482,0.102758564,-0.13727875,-2.589878,0.049279574,0.21121962,-0.19228718,-3.0182126,-0.09518476,-2.1248298,-0.13239802,-0.046191934,0.05191143,-4.175559,-0.032346405,0.047676638,-1.4787288,0.0813152,0.33136225,-0.7758899,0.2506949,3.4556877e-05,-4.301394,-1.2358336,-0.004111414,-3.3575902,-4.9657063,-0.18664709,-0.00566305,0.0068353354,-0.93152,-0.14340965,-2.9692264,1.135327,0.04148917,-0.017679365,-7.242899,-15.6677,0.10802524,-0.31060344,-0.99403584,-1.1952722,0.5860506,-0.53191364,0.11210824,-4.402639,-0.09154361,0.18661804,-6.174724,0.106405176,-0.005780537,-0.08275236,-0.20559086,-0.8030412,0.9372214,-0.8966317,-0.26291868,2.1676898,-0.03270453,-0.03552102,-0.055619244,0.0810181,0.042992212,-0.045096822,0.21579465,-13.361744,-0.379841,0.111737326,-0.034255162,-2.6408997,-2.2197704,0.178926,-0.27143016,-0.015007513,-2.6048641,-1.2315054,-0.22597212,-0.022612708,-5.500837,-0.14069055,-0.054605745,0.089003354,0.124339186,-0.44376948,-0.008389288,-0.1014825,-8.5890255,-1.1491513,-10.008041,-0.06176015,0.036352903,0.054090783,0.07456096,-0.25984654,-0.07361587,-2.4983654,-0.029944278,-0.037366826,-0.008520333,-0.5071265,0.09543769,-4.815242,-1.2856038
0.44909883,0.122749254,0.17148839,-0.45532885,-0.2146578,0.18324646,1.5278448,-0.9004482,-0.07832903,-1.538727,-0.02044405,-10.626357,-0.14265199,0.77798915,0.11175244,0.26257506,0.1781254,0.43466306,-0.21962656,-3.288053,-0.2755608,-15.76016,-0.9347037,-0.10805194,-5.3414335,0.34154123,-0.09205437,0.25108045,0.27265793,0.050258186,-0.26196545,-0.29224464,-0.29842028,0.30719495,0.25602126,0.22426145,-0.110750124,-0.10367824,0.5324752,0.094789416,0.07770027,0.4886783,-0.68296385,0.01527072,-0.020372521,0.08997603,-1.5197757,0.0866527,0.40776953,-13.977794,0.28142008,-0.2322183,0.5287636,-0.32249996,-0.090213515,0.3115379,0.11784419,0.076330096,-0.1843158,-3.179935,0.097964644,0.42564282,0.08794253,-0.63600177,-0.19243535,0.8070147,0.026843617,-0.66406685,0.19854072,0.12828253,-0.70804155,-0.043156512,0.119344234,-0.0805421,-0.097966164,-0.38033485,-0.17294137,-0.54321826,-0.1817751,-0.30947047,0.7452392,0.4475819,-0.16196574,0.3107878,-3.427981,-0.5358675,-0.21146852,-0.23454824,0.27580726,-0.15006435,0.03321283,-0.13668637,0.042867236,0.46232158,-0.22565767,0.14115842,0.1662366,0.077448554,0.099378005,0.7954525,0.21589106,-0.12798443,1.0256706,0.29784146,0.22508,0.27748933,-0.15083931,-0.50384027,-0.46869123,-5.593113,0.17264976,0.7927059,0.7297201,-0.035839844,-0.1607188,-0.28637806,-0.16444132,-0.036152694,-0.09329617,0.5507514,0.58104,-9.189747,0.08901384,0.19788305,-0.18787712,0.03750333,0.27262312,-0.10137432
-0.08614269,-0.061844435,0.011908322,0.028091505,-7.5312767,-0.70140594,0.06638078,0.050131444,0.034655925,-0.22293837,-0.008924233,-0.025003323,-0.009532551,-0.05883921,-0.038602974,-0.12331975,-0.085985556,0.031359084,-0.013666885,-0.065427504,0.023343585,0.077629894,-0.0946997,0.097016506,-4.3645873,0.036171738,-0.041222602,-0.11420631,-0.15565154,0.0053476323,-0.022157244,-0.18926042,-0.51896363,-0.06269497,-0.03858755,0.0036670258,-0.08175784,-0.102897756,-0.022609947,-0.018792437,-0.19662324,-0.056605216,0.04681689,-1.2178972,0.16824622,-0.5068985,-0.110184275,-0.02792066,-0.043953266,0.02537398,0.03919773,-0.0025632882,-0.00015904802,-0.087265246,0.069526106,-1.5194631,-0.02752129,0.054665152,0.056399763,0.05817338,0.10964645,0.016653314,-0.008204444,-0.032860056,-1.9699047,-0.016705733,0.13457797,-0.0074192076,-0.013136199,-0.19104399,-0.4758592,-0.05955442,0.03394821,0.029968165,-1.4899448,-0.08094538,0.054346874,-0.18466046,-0.18547337,-0.028736988,-0.027151076,-7.050494,0.034067355,0.0072923936,-0.47627136,-0.033559166,-0.036673483,-0.082356766,0.07608647,-0.06536553,0.022886403,-3.9937592,0.08172022,0.019846966,0.013982459,-0.15323,-8.258004,0.024778703,-0.16779071,-0.021374075,-0.0011801335,-0.019831525,-0.048302285,-0.0017522128,-11.986908,-0.023521442,-0.5747897,-0.029923337,-0.7029479,0.11509775,-0.11835159,-0.06033202,-1.5767356,0.028598372,-0.0068765422,-0.09182475,-1.5092263,0.003424867,-0.019495826,-0.050422505,-8.505301,0.045668516,-0.25850907,0.008563387,0.006707023,-0.0408838,-0.09279644,-0.03031422
-0.016728407,-0.057055812,0.15930015,-0.5367796,0.17209058,0.0018718557,-0.18228889,0.0038330026,-0.019374065,0.1971561,0.032034263,-0.21526499,0.057520974,-0.3389827,-0.020808997,0.11529767,-0.041998506,0.008545205,-0.43046677,-0.3048968,0.023774859,0.24364461,-0.28886604,-0.049081463,0.24918342,0.04092035,-0.11732279,-0.5918845,0.009284833,-0.51051116,0.26558065,0.09909615,0.031911086,-0.5451735,0.27145365,-0.4679521,0.11259862,0.3049142,0.13409904,-0.0013270372,0.21293283,0.20787401,-0.8801724,0.14742637,-0.13539326,0.06676034,0.19397324,0.03222242,0.07533582,-0.24528119,0.10232184,0.022932028,-0.163995,0.34157118,0.02390816,0.003015319,0.072012626,0.43849382,-0.280291,0.23540862,-0.025402743,0.14865562,-0.011013203,0.086275786,-0.0010455484,0.025874974,0.037263807,-0.4883667,0.0025716098,-0.111946344,-0.0072497725,-0.19586016,-0.6256127,-0.123005755,-0.017144779,-0.028739108,0.22065674,0.22977215,-0.00250932,-0.27680144,-0.013928823,0.05816737,-0.14116123,0.22720134,0.14450774,0.17924613,0.32003757,-0.05478267,0.05701674,0.022852816,0.12535277,0.17543496,-0.0704178,-0.17776208,-0.081934854,-0.01562592,0.092304386,0.066591054,-0.3462102,0.14186871,0.059443366,-0.36197925,-0.11785632,0.0058072763,0.09373488,-0.25804985,0.19322713,0.2046027,0.12760626,0.29539555,0.18896139,0.32729375,0.07881541,-0.057690267,-0.69058186,0.046509977,0.2020248,0.09803867,0.17672084,-0.10927988,-0.060608346,0.25861987,-0.13706106,-0.05808481,0.4118008,-0.15911429,0.024857372,0.09944441
-0.5315212,-1.1274145,0.008851977,-9.92458,0.27444232,0.20412925,-18.440714,-0.05681932,-1.9136678,0.95649993,0.21417269,-0.20469561,0.16458108,-15.259369,-0.09968131,-0.19303459,-0.11913498,0.2467319,-0.0558394,-3.4598765,-0.15655255,-0.38889897,-0.035749413,-0.5233279,-1.073555,-0.033900686,-0.10713216,-14.127885,0.1813572,0.106397994,0.26358795,-0.043152623,0.050099947,-1.8250878,-0.12175111,-0.51716083,0.0567257,-0.016428467,0.23470128,0.006696562,-0.3025501,0.3000137,0.19736499,-0.07094174,0.050900113,0.14537314,-0.4930595,0.069269046,0.020313133,-0.095002316,0.12856676,-0.15055975,-0.029762084,0.2418429,-0.008971109,-0.048310798,-1.2974905,0.19576764,-0.776058,-0.02522729,-0.07745421,-0.1859536,-0.3227865,0.7102754,0.113433346,0.22667953,0.059069686,-4.029176,-0.002735988,0.15427789,0.080183946,-0.029429039,-0.06973871,-0.1381416,-0.2813786,-2.5351028,-0.0861803,-0.38834003,0.04380148,-2.6155553,0.03199518,0.159241,-0.75873196,0.16766478,-14.090432,-0.10230537,-16.51312,-0.10252565,-0.20585233,0.2197477,0.19003418,0.034984276,0.95144284,-1.0877069,-0.82345164,-0.062909305,-0.32460827,-0.032083493,0.3100945,0.51065636,0.026192293,0.26057708,-0.1700353,0.011264411,0.0029874975,-0.7613735,-0.30781323,0.09286414,-0.10499724,-0.14351737,-3.1705909,0.08893258,-0.06359886,0.07617627,-0.2532058,0.14586924,-0.08579676,0.058657978,0.045899693,-0.6433853,0.37659672,-0.40940744,0.62903935,-0.23490916,-0.010923882,0.2289685,-0.13479543,0.09496859
0.10171708,0.2263925,0.060943965,0.21604867,0.21070042,0.100760885,0.07618913,-0.107808776,0.04199694,0.120122306,0.057477035,-0.02149126,0.09600956,0.16413048,0.0008838694,0.014720848,-0.04081184,0.061079025,0.4423523,0.087341085,0.18109195,0.41203004,0.090505876,0.063717805,0.22895361,0.0030155727,0.26204795,0.23359042,0.28758356,0.19020909,0.1861707,0.0031938592,-0.04764843,0.04465868,0.036088355,-0.06638901,-0.15175992,-0.10731815,0.21245669,0.20395483,0.12741125,0.037500713,0.19794872,0.21330503,0.19080432,0.31910932,0.043363094,0.026522415,0.19726284,0.08761217,0.08644918,0.14639324,-0.10342098,0.15977907,0.17733787,0.1743083,0.12333084,0.04215831,0.15891865,0.14865036,0.17882226,0.024524456,-0.066997044,0.07840084,0.12803835,-0.024635537,0.21971364,0.09443939,0.20246641,0.10079254,0.15189295,0.38465858,0.32101396,-0.0681922,0.039160013,0.0524344,-0.1266774,0.19933063,0.22116922,0.19319522,-0.14695019,0.14906693,0.11651076,0.07565287,0.082532026,0.18678424,0.13936126,-0.06643049,-0.053398427,0.22134581,-0.08587396,0.26553074,-0.03797189,0.013253419,-0.038475253,-0.08761449,-0.0029268246,0.23734798,0.17359069,0.086284526,-0.057720564,0.07937442,-0.15787934,-0.0044355537,-0.011822766,0.20610885,0.20529266,-0.05960857,0.18990901,0.24311642,-0.0027863428,0.12586147,0.27217367,0.060732435,-0.1615487,0.0108834095,0.012532769,0.013338616,0.110531166,-0.056754854,0.15724504,-0.09375526,0.10797351,0.005840063,0.03748514,0.02300487,-0.081485376,0.020080637
0.14165688,0.026176954,-0.08598033,-0.055241857,0.033670187,-0.06692808,0.032361187,-0.03933456,0.022197869,-0.0010495948,-0.043647613,-0.49586394,-0.030248858,-0.24803439,-0.020536585,0.004772854,0.19699936,-0.0017173677,-0.074526675,-0.24427179,-0.08573182,-0.061693214,0.20570649,0.038346097,0.009023731,-0.06270731,0.0037851648,0.08450903,0.046610873,-0.030700156,0.18688966,0.1042707,0.12784342,0.16593343,-0.009994927,-0.045540158,0.033790197,0.046925142,-0.07936158,-0.112713,0.07446896,0.08789625,-0.00051443576,0.14620367,-0.12511888,0.009646293,0.13753304,0.14493391,0.0623118,-0.71850055,0.13397217,0.121501684,0.043172274,-0.042386882,-0.17494023,0.061947417,0.09336171,0.031030202,0.14489013,-0.04520922,0.028838076,0.08012689,0.07830038,0.05066357,0.1281964,-0.024207873,0.11352286,0.047497366,0.001629759,0.11053091,0.12331413,-0.0031285523,0.021605646,0.060831215,0.00680291,0.13975014,-0.07377305,-0.05891766,-0.08920982,-0.03874225,-0.002255098,0.09736257,0.021346886,-0.07947394,0.06885588,0.07016332,0.0045304806,0.04190982,-0.034926526,0.10607803,0.06104795,-0.0518247,-0.0003818958,0.09302223,-0.070421934,0.11855812,-0.09046107,0.12662393,-0.15004258,-0.031756178,-0.10453724,-0.06846421,-0.055720355,0.12558456,0.030469822,0.022113075,0.043810997,-0.13050215,0.004346572,-0.07506292,-0.079801545,0.06412054,0.06916231,0.06663515,-0.6737142,0.05146059,0.011447089,0.0861733,-0.07579561,-0.0051908824,0.07219434,-0.19875416,-0.0978704,-0.107222274,0.12888612,0.01433759,0.15426362,0.12719497
0.025679633,0.47820064,-0.08568588,0.1048606,0.101960994,-0.40649837,-1.4556568,-7.7608128,-0.13227177,0.008062088,0.23885697,-12.664993,0.18706052,0.12227747,-0.18350247,-0.025760094,0.18752055,-6.6855474,-0.094489165,-0.17263405,-0.15276565,0.14507422,0.047885478,0.069249734,-0.10331614,-0.120852806,-0.8040795,0.012809736,-0.06889994,0.09638903,0.08170103,-0.09576225,0.08310606,0.24537684,-0.10930747,0.0892967,-0.0924233,0.054451697,-5.78614,0.17813939,-0.044266246,-0.40625012,0.1869896,-0.2093122,-0.07923723,-0.012704263,0.20268786,0.08003468,-1.7289519,-3.1099393,0.07292419,0.08932802,-0.8381135,0.03675132,-1.3147731,-1.7241051,0.040692907,-9.863949,-0.036764093,-0.4940256,0.17260492,0.26528215,0.10988722,0.20975365,-0.014080226,-2.8027608,0.0689098,0.16314416,0.18782286,-0.098249346,0.16244175,0.018746963,-0.17084682,0.03071935,-0.057974562,0.07713974,-1.9705311,0.020968398,-0.13642605,-0.0021413397,-0.29694542,0.33944875,0.06713827,-2.1397078,0.038989995,0.014828435,-0.19509006,0.38513932,-3.0606906,0.31190524,-1.4149024,-0.43331438,0.26039737,-0.5882604,-0.023088625,0.19254279,-0.24937509,0.08251832,0.16308172,-12.100246,0.0046111736,-0.07933144,0.095750764,-1.0103819,0.023454756,0.33617288,-0.018529091,0.07402103,0.075806394,-1.6270531,0.19146971,-1.0733442,0.027890613,0.16031343,-0.06468706,0.292296,-0.1077698,0.15174572,-0.060320154,-0.8387565,0.51091045,-5.4117627,0.3702125,-0.14107391,-11.542334,0.03928893,-0.0995288,0.30525088
0.07019757,0.0476356,-1.3869079,0.2717105,0.12625411,-1.6481655,0.09200167,-0.2271897,0.4501295,-0.18719341,0.16324557,-0.01715321,0.20801808,-0.07163999,0.03349231,-0.3374861,-0.3619258,-1.0416805,0.044899005,0.060059194,0.2006322,0.17781056,0.04128799,0.5038757,-0.094184294,-14.386446,0.15069301,0.107255824,-0.42004,-0.12713742,0.09821273,-0.6217124,0.88471985,-0.067624174,-5.3777947,-0.025051983,0.012788519,-6.995025,-1.3740723,-0.17780124,-0.043389518,-11.783615,0.011738915,0.27940375,-2.1985633,-0.63882166,0.038722996,0.08437329,-5.8515477,-0.0204668,-1.0819999,-1.2718507,-0.07523747,0.0010037466,-0.00087206124,-1.7943487,-0.18128589,-1.2912141,0.09227426,0.15999185,-0.2872545,0.17203204,-1.3300923,0.20094526,-0.008111279,-0.037816748,-6.4103513,0.12168038,0.14492181,-0.10820427,0.18563186,0.006660573,-0.03329218,-1.1923118,0.21722108,-0.0076024705,0.089542754,-0.079336785,0.2048737,0.088861994,-0.15218048,0.6525006,0.2946119,0.12735103,0.09508881,-0.18097855,0.27727813,-0.18516243,-0.12062871,0.17725076,-0.076206446,0.16636215,0.05073992,-0.007900854,0.78050613,-0.23350707,-0.18765049,-0.28952911,-0.0125716925,-6.566076,0.043306496,0.1875911,0.06613906,-4.391903,0.06672636,-0.06874573,0.07126988,-0.062658355,-0.036018822,0.06561783,-0.053355254,-0.41832647,-3.5539043,0.27722523,0.06399947,-0.19887663,-0.090737574,0.022067877,-0.2575287,-0.010606476,-3.2227783,-0.014066547,-0.0231785,0.06345992,-0.035267785,-0.117000006,-1.6613274,-2.3274171
-0.05387081,0.037767224,-0.5032427,0.17838113,0.15292493,-7.777425,0.043698274,-0.11769769,0.16560137,-0.027073171,-0.43422252,0.012027467,-0.15730305,-0.018458433,-0.012619533,-1.9314013,-0.20450985,-7.0037336,0.024231011,-0.027246779,0.041997343,0.042624447,-0.01614465,0.6286448,0.08378966,-2.307641,0.04625216,0.14316729,-0.9995378,-0.015985651,-0.06114475,-0.038649794,-1.8407786,0.018593235,-15.404196,0.2037144,-0.015982943,0.16949847,-0.7190549,-0.047670156,0.08207627,-1.1100483,-0.052655086,0.2887196,-6.170979,0.03136091,0.0015569482,0.21348324,-13.992289,0.056918092,-1.5932214,-0.055027742,-0.07996504,0.022036314,-0.07438321,-5.1271744,0.04130668,-1.3965265,0.08795287,-0.00058272056,-0.013195782,0.040435486,-0.17013367,0.09170448,0.2513922,-0.11932807,-1.8274363,0.21245016,-0.0015798277,0.06483128,0.046643276,-0.011964532,-0.023941204,0.035958417,0.02753933,0.012304531,-0.083117515,0.04237162,-0.030376077,0.15541108,0.028947858,-0.20063324,0.31358483,0.029798249,0.21085668,0.015811572,0.12611951,0.038015917,0.010455768,0.0018939733,-0.23604089,0.11075119,0.22285078,0.02345411,0.6078141,-4.071315,0.03999217,0.11939967,-0.023217658,-2.2320483,-0.50714844,-0.017463328,-0.020624831,-0.17350689,0.055061273,0.08626182,0.0433206,-0.03184575,0.058355536,-0.033824258,0.1585199,-0.5547757,-2.660709,-0.150492,0.0257481,-0.016665408,-0.11448749,-0.03381002,0.050914682,0.03413294,-0.59811056,-0.015722034,-0.19604495,0.034661427,-0.19741268,0.10679375,-0.073808715,-10.818498
0.11494003,0.009241012,-0.09088895,0.11626925,0.12276525,0.0788414,-0.041247763,-0.0035131234,-0.027875641,0.052794736,0.019910298,-0.03083214,-0.012828314,-0.15565482,0.098165296,0.11327193,-0.06372614,0.056450825,-0.024137307,-0.14589961,-0.07983996,0.03190661,-0.07055436,0.03992601,0.03587824,-0.025553966,-0.0066613997,-0.034106478,0.14693733,0.06073807,0.07627973,0.19190186,0.15074262,-0.037773836,0.049869288,0.0577775,0.032154478,0.051025413,-0.09738146,-0.023634134,0.13578595,0.09925232,0.11090736,0.13752013,-0.05341923,0.07899729,0.14260475,0.04023186,-0.0031262664,-0.05247151,0.09371395,0.08796363,0.055283006,0.07138319,-0.028105816,0.12254354,0.10916153,0.032939624,-0.062175978,0.037809137,0.05721195,-0.048215993,-0.08283924,0.09083676,0.0063501424,-0.04777015,-0.030864289,-0.0390981,0.12497537,-0.095198855,0.06308757,0.057046365,0.12306896,0.17040452,0.17693867,-0.042468995,-0.008155946,0.18609366,0.01831847,-0.08777846,0.1266293,0.07291644,-0.0018502452,0.144425,0.15352263,0.056548923,-0.03489065,-0.07504182,0.05886133,0.019932803,-0.019528793,-0.026371699,0.01785272,0.020036105,-0.05896349,0.026251664,-0.04131402,0.020541286,0.10530549,-0.007910776,0.08444564,0.043498103,0.0847259,-0.02091509,0.042255532,0.08891567,0.018821025,0.15485004,0.13979107,0.11511046,-0.028197229,0.08652117,0.14621459,-0.099828504,-0.018495155,0.0013380696,0.056628976,-0.007392279,0.01806518,0.06327906,0.044736274,-0.09458793,0.1479022,-0.07321006,0.04882944,0.04020968,0.09579772,0.14790535
-0.052172124,0.18256168,0.076036975,0.10824026,0.023441732,0.07418866,0.04261568,0.05633148,0.12446572,0.041579306,0.08257073,-0.743807,0.0967995,-0.23390828,0.089339614,0.03336783,-0.09615426,-0.05453893,0.116921425,-0.2484468,0.09014628,0.079224445,0.15631281,-0.029196447,0.10144273,0.06626601,0.2467148,0.05108931,0.14216545,0.11167909,0.20517956,0.02784259,0.083702065,0.20652555,-0.14662404,-0.28140315,0.0037696029,-0.15404586,-0.20161645,0.23022278,0.015175394,0.08210768,0.2088955,-0.18131685,-0.009472655,-0.03506249,0.10052141,0.09419234,0.18172292,-0.3997408,-0.11010545,0.129312,0.1882403,0.14586736,-0.2864115,0.060558975,-0.006483475,-0.05730218,0.0441604,-0.14925285,0.03536125,0.1583566,0.081678115,-0.011463173,0.110348284,-0.08082314,-0.078652926,0.04975573,0.058781877,0.17280853,0.085511185,0.03699859,-0.118791945,0.011698389,0.31125793,-0.16509683,-0.1402154,0.21390249,-0.006267869,-0.11409942,-0.2244635,-0.0008649022,0.045508657,-0.20233013,0.08275567,0.12509443,0.27106756,-0.08834128,-0.06789091,0.20075394,-0.16995549,0.21002907,0.041795444,0.05509005,0.050998706,0.13185373,-0.10844251,0.020794678,0.050441243,-0.016921457,0.083955206,0.08109444,-0.06963309,-0.15591098,0.18963738,0.2453288,0.14104216,-0.0026516693,0.094470955,-0.38316742,-0.056249235,0.072767995,0.06345137,0.016404029,-0.7063072,-0.15209647,0.090048864,0.18363428,0.051666733,0.05778995,0.06449154,-0.2725756,0.07036338,-0.13391921,-0.16721301,0.1354833,-0.042259626,0.105384305
-2.0872924,0.055415556,-4.3305197,0.2092729,-1.3403516,0.15394548,-0.19937758,0.29243982,0.14545307,0.15316461,0.011320251,-0.05709965,-2.894453,-0.2624194,-4.6835895,-2.2607641,-2.8351257,-2.1939988,-4.5626097,-0.046769317,-0.18287592,0.04180831,-2.5518565,0.12217116,-1.3307304,-3.9019592,0.5419179,-4.4592566,-2.46767,0.06846593,-4.6394916,-3.6976044,0.03209897,-5.187328,-3.9277716,-0.14192232,-3.9986541,-2.6519847,0.026444282,0.010042398,-5.0813336,-2.1688793,-10.13469,-2.7802832,-1.3294685,-2.1210246,-3.7033951,-3.055104,-3.1637073,0.025143735,-1.890771,0.041719843,-3.7451608,0.061497647,0.06705698,-1.3604451,-0.11918896,-7.5443416,0.0026095826,0.10531646,-2.5473254,-2.5560484,-0.12121491,0.36563924,-2.9908676,-4.68265,-2.0569222,0.0020877654,-3.6755686,0.06215782,-3.18785,10.648527,-19.23919,-4.29795,0.21335316,-3.3168972,0.17619495,-1.5927165,0.20800313,0.069274396,-3.0991573,-1.102666,0.0503683,-35.651268,-2.0192058,-0.041586827,0.16335341,0.011919242,0.032013718,-2.13268,-5.222683,-0.11236885,-0.071362436,-10.458779,0.10491491,-4.105881,-2.6716027,-2.0514114,1.8590972,0.054104935,0.042796332,-0.2658189,-2.7561696,-4.247619,-1.787918,-0.01023797,-4.5708513,0.17037037,0.090016864,-0.015844531,-2.3663964,-5.7503877,-1.5646724,-3.412865,-33.057327,-4.0927687,-5.1481433,-4.488457,0.85064214,-5.4374948,-1.3021126,0.2934339,-0.55083287,0.13193339,-16.395906,-1.988258,-0.03165914,-0.06636503
0.086143054,0.068716966,0.0018630354,-0.05585544,0.10866431,0.057659663,-0.14673692,-0.10782052,-0.0017340572,0.08471624,-0.02789563,-0.1934246,-0.021199113,-0.09276904,0.0617707,0.095498204,0.13542928,0.12743385,-0.006481371,-0.30728853,-0.10638382,-0.106660895,0.005433077,-0.0688476,0.0861361,0.07715188,-0.12650675,-0.1792029,-0.01863655,0.0669842,0.13201554,0.14906935,-0.073330685,0.03802153,0.13647965,-0.14649305,0.030702094,-0.023177747,-0.0069383006,0.1458618,-0.012108346,0.04657302,-0.118241064,0.07077747,0.19896798,-0.016753241,-0.1021484,0.1364726,0.17066903,0.168222,0.08708823,0.09814078,0.07157614,0.11136117,0.0021979287,-0.041605413,-0.0819971,0.18390317,0.117198065,0.19441734,0.012944399,0.14488861,0.0602699,0.071753845,-0.0023976956,0.018395748,-0.13266681,-0.26075503,0.0626892,0.024196994,-0.094809316,-0.18353201,-0.3372554,0.09173048,0.02174276,-0.043639075,0.12376025,0.13741751,0.06528109,-0.07357242,0.12416564,-0.06798263,0.06252937,0.2612575,-0.046086006,-0.052098703,-0.011252585,0.12332835,0.06386556,0.13551839,-0.014468701,0.16909432,0.07833651,-0.17017558,-0.07723688,0.13409297,0.042079687,0.21448958,0.039140534,0.081863694,0.07627876,-0.060347434,-0.018400677,0.2186545,8.033654e-05,-0.09283209,0.061724648,0.200472,0.08386142,0.16071269,-0.045244787,0.21110722,0.058951024,0.13565388,-0.29248992,0.10159191,0.10942841,0.20547108,0.15705198,0.10626956,0.009864555,-0.08177556,0.26978984,-0.079664074,0.15821072,-0.017144691,0.025180493,0.19365023
-0.018070653,0.08989968,0.13780273,0.14083555,0.121488,-0.03058118,0.040790625,-0.036130056,-0.014794377,0.1181307,-0.0034609486,-0.30607766,0.03275153,-0.18580677,0.06961899,0.010508233,0.0014347645,0.16488744,0.028540686,-0.19559,-0.12995374,0.14519505,0.024627438,0.044812627,0.05559814,-0.012959059,-0.06641773,-0.0008931351,0.066232145,-0.008036258,0.03519436,0.098492324,0.12048602,0.16150261,-0.01783357,-0.0731305,0.018091647,0.13830036,0.10562688,0.2310085,0.18646055,0.078625254,0.01944372,0.14703414,0.1896217,0.046348684,0.19519818,0.12187249,-0.053078387,-0.17078629,0.15417586,-0.031959474,-0.040672474,0.2153663,-0.069083415,0.12732881,0.062118955,-0.02976156,0.07540706,0.030942984,-0.025863629,-0.028974973,0.03263721,0.03775915,-0.049487222,0.07106006,0.06496068,-0.15310842,5.431687e-05,0.122466914,0.07156609,0.04009111,-0.04103078,0.041174587,0.06070035,0.071798876,-0.066639915,0.15086344,0.06581842,0.046672978,0.07248229,0.04259758,-0.022432502,0.07874916,0.06622724,0.18626095,0.10543955,0.07726441,-0.04687391,0.1482923,0.03259474,0.13535067,-0.09990348,-0.027096657,0.07366789,0.076871715,-0.07500713,0.038047813,0.10607707,0.038284793,0.054061577,-0.075271875,-0.007369074,-0.010550413,-0.032652527,0.16348588,0.11916997,-0.13088918,0.087222986,0.09094979,-0.019580266,0.15959233,0.16523544,0.15006566,-0.24355133,0.06664848,0.18849607,-0.014428612,0.07596788,0.07760656,0.16037562,-0.19138168,0.17254601,-0.118171565,0.013062813,0.122920774,-0.081784844,0.15834908
0.1853223,0.04774903,0.18438163,-0.49710366,0.0076159653,0.13506739,-0.20950438,0.42037258,-0.24840291,1.5814674,0.23045659,-3.266899,0.40868,-1.5562325,0.49620116,0.4032013,0.117400065,0.6776802,-0.12874468,0.41804925,0.5284386,0.31375846,0.062131725,-0.0519853,0.33014184,0.066816315,-6.7454553,0.0762428,0.21370336,-2.7459533,0.04635331,0.5369042,0.2003899,-0.10536432,0.050240513,-3.3665786,0.97300863,-0.21242243,0.42818183,-0.051719576,1.6230236,0.23828627,-7.355723,0.38241953,0.0866251,0.93848807,0.1483579,-0.051220007,0.4111009,-0.6531039,-0.05948764,0.747416,0.11343765,0.09981621,0.10339221,0.19441794,0.16163687,0.9089078,-0.20253772,1.9469416,0.05457295,0.08842994,-0.16057348,-0.750538,0.38259485,-0.7910866,0.26570907,-1.2941132,0.40057316,0.107098535,0.46519262,-4.7419505,-1.3869978,0.015652964,0.48332745,0.52337074,0.08394195,0.5644003,0.28636962,-0.2912264,-0.42686552,0.21405129,-0.2213505,-1.260771,-0.046394467,0.15566635,-0.77908206,-0.21783811,0.72012794,0.34372896,0.13472225,-1.9033694,-1.6734736,-3.2628589,-0.16628014,0.19357355,0.6589755,0.78961927,-0.37141523,0.53381956,0.09147722,0.33743945,0.014493188,0.29225737,1.6772034,-0.060482338,0.14829989,1.2245955,-0.08652882,1.4061636,-0.011571362,0.7413535,-0.0643763,-0.29071492,-7.2430024,-0.0012353397,0.6900831,-0.21709967,-0.26811698,-0.6271198,-0.53445274,-2.038501,0.06416121,-2.7655334,-1.5163786,0.5789075,0.17994267,-0.29254672
-0.7709404,0.5576669,-0.11768997,0.2871799,0.33626866,0.268515,-1.1750735,-8.290082,0.14304869,-4.785268,0.47804672,-2.4011662,0.249473,0.090037905,-1.569452,-0.4965598,-0.44999087,-2.6671963,0.5195721,2.341807,0.9745499,0.6551859,0.03489788,0.5805426,0.63326377,-0.076473534,-3.0829937,0.11578326,0.19816034,0.18257976,-0.3165018,0.03860485,0.5371146,-0.6373766,-0.20506904,-1.5937103,-0.039696444,-0.50890315,-4.8678775,0.018639946,-0.15189326,-1.738418,0.8664627,1.1433924,0.6598853,0.19810943,0.16127989,0.083532326,-3.2119756,-8.378254,0.29483765,-0.11387893,-3.0340245,-0.14193584,-1.0259703,-1.2030023,-0.36491776,-4.99697,-0.06781805,0.27244246,-0.45420682,0.09780376,-0.51264846,-0.2843915,0.4290974,-5.9879236,-0.6500673,0.2370002,-0.22657308,-0.14198743,0.2915029,0.45694277,0.4125852,0.23526847,0.31842992,-0.5385917,-2.603177,-0.19465214,0.45435405,0.19008557,-1.8725379,0.16886836,0.27210724,-3.1540027,0.5922877,0.08969877,0.12798928,0.10342033,-1.366157,-0.24559881,-4.4480066,0.10513626,0.19989598,-9.157179,0.1379383,-0.044007704,0.8527513,0.1582354,0.38265473,-0.7689261,0.25634384,0.0139885,-0.0040713004,-3.915259,0.6289686,0.117406234,0.5872047,0.47493306,0.19648786,2.1882305,-0.51575524,-3.367232,0.49340773,0.3286163,0.0594564,-0.9358851,1.0249015,0.39925748,0.27949843,-4.5546036,0.26345795,0.7432072,0.6903456,0.29874563,-2.3138516,0.0050366977,-0.5616492,-0.9609771
0.10282178,-0.10364897,-0.07144827,-0.55844843,0.034334492,0.2671229,-0.068010345,0.040000018,-0.11458252,0.24912068,-0.08406971,0.15386257,-0.073092625,-0.23944102,-0.11711668,0.09293028,-0.09233307,0.088757925,-0.23973705,-0.45966542,-0.51114255,0.39061993,-0.10187464,-0.08730159,0.06479305,0.08371399,-0.12961695,-0.7228709,0.009225947,-0.54480314,-0.017155085,0.11210101,-0.07517018,-0.38415188,0.013181791,-0.39773306,0.034429457,0.19444397,0.23466519,0.33689925,-0.066095024,0.1868324,-0.5782199,-0.10349125,0.061494656,0.019740654,0.16706096,0.056143925,0.13756257,-0.19240364,0.045443356,0.12014703,-0.1291177,0.11846437,0.21379666,0.06961846,0.094615854,0.16337395,-0.19075386,0.042529035,0.16104633,0.012454506,0.09495353,-0.1890138,-0.018726232,0.099966906,-0.072279744,-0.5403024,0.19624414,0.095222704,-0.066129945,-0.3327502,-0.9480466,0.040634673,0.03886671,-0.22847085,0.10163029,-0.046689663,-0.046081413,-0.33326697,0.06658799,0.3429609,-0.31600252,0.12609158,0.05252085,0.08051344,0.13334605,0.10638851,0.36490625,-0.08169481,0.1520698,0.32964545,-0.1191573,-0.11451007,-0.13947195,0.2511015,0.14076751,0.10381207,-0.51091224,0.13333824,-0.14121151,-0.07870879,-0.009585794,-0.024502307,0.20344117,-0.41142973,0.084327325,0.35410106,-0.023709249,0.31535023,0.06049113,0.006854787,0.03440734,0.1918498,-0.58360195,0.14159131,-0.07108785,0.22650218,0.0356598,-0.09389834,0.10346728,0.15417685,-0.6122175,0.08891903,0.2598484,-0.026041143,0.128988,-0.010872176
-0.00020604912,-0.04022562,0.003539521,0.09738289,-0.030509206,-0.023498265,-0.058004197,-0.06123706,-0.02470634,0.052363552,0.036554273,-0.17934923,0.058566753,-0.010781406,-0.06566037,0.10123836,0.12737785,0.082090706,0.17102595,0.107953764,0.026030384,0.20402986,-0.063046634,0.030376641,-0.034200914,0.16792803,0.057727054,0.051583383,0.0353188,0.10246775,-0.00287708,0.07959823,-0.038444478,0.085344344,0.080373965,-0.0418088,0.021985441,0.04130125,0.055161793,-0.11621414,-0.040000845,0.010389964,0.020407557,0.08593572,0.0600617,-0.006712778,0.11988457,-0.07979595,0.114245966,-0.14524014,-0.021748101,0.0934722,0.09643555,-0.078215174,-0.03470988,-0.021417864,0.054617863,0.098501936,0.028677277,0.10725877,0.0683521,0.03364438,-0.080897,-0.1481307,-0.06686055,0.13087124,-0.030190075,0.01052201,0.094059385,-0.047364395,0.16273493,-0.06853077,0.15663391,-0.072625816,0.18078467,0.05064603,0.031531863,0.07497368,0.037429158,-0.0091384,0.028915914,0.1355234,0.005985419,0.015637765,-0.0020296604,0.21830931,0.069849,-0.080672756,0.074355714,0.060097996,0.18525246,0.010303217,-0.0052959276,0.102591746,0.035927612,0.12735648,0.009952708,-0.04405529,0.031363618,-0.045578353,0.1076668,-0.0056875474,-0.041466717,0.17057195,0.16534753,0.14209235,0.06079279,0.00017137658,0.100407846,0.12003324,0.091864474,0.107478485,0.096601896,0.11829479,-0.17273274,-0.06173783,0.15158208,0.082870685,-0.08451418,0.0071092066,0.15193132,-0.15896417,-0.10010423,0.026741,0.075653724,0.062672116,-0.057559993,0.086184725
