0
0.17083727
0.04038832
-0.07095347
0.20908949
-0.8066924
0.054941844
-0.03177605
0.03150202
-1.3916036
0.22618207
-0.72498655
0.09608258
0.029077355
0.143181
0.24711932
0.22923103
-0.5233696
0.073506735
0.27976206
0.3120376
0.22847109
-0.16745959
0.044867877
0.09483436
-0.53791636
0.34753132
0.18553124
0.3018726
0.024341786
-0.38750082
0.27607602
-0.7560962
-0.4969064
0.19692266
-0.13150506
-0.20993306
-0.0018456596
0.3872815
-0.040681582
-0.114634216
0.30127487
0.29717037
0.38724157
-0.36607322
0.22204721
0.12853633
-0.32668185
-0.33062515
-0.009467447
0.37090835
0.33079717
0.0516422
0.11268085
0.3354021
0.31415263
-0.07745658
0.14661343
0.10411798
0.31929466
0.385421
0.18669
-0.27731296
0.016245328
-0.036017753
0.07209093
0.19111335
0.044711787
0.5189343
0.044098
0.0492652
0.2544228
-0.38228044
0.18322113
0.10921283
-0.0070280917
-0.13529713
0.3104152
0.042301994
-0.11723766
0.056784045
0.29071775
0.43718547
-0.2932964
0.06827375
0.21705525
0.06655271
0.21135856
-1.8314662
-0.14100362
0.31136656
-0.035050485
0.31422973
0.30114368
0.37023175
-0.48335537
0.2747848
-0.0063288026
0.37784204
0.018978266
0.28412005
-0.44715986
-0.15337458
-0.10453305
0.20243916
0.38024467
0.24833433
0.02347444
0.21493202
-0.20752387
0.32541916
0.14878166
0.21025486
0.3320012
0.03111034
0.19674648
0.4566606
0.42205662
0.07545271
0.13919866
0.099516846
0.39832634
0.32538465
-0.7667314
-0.038354687
0.031454153
-1.0801439
-0.120886825
0.036920074
