0,1,2,3,4,5,6,7,8,9,10,11,12,13,14,15,16,17,18,19,20,21,22,23,24,25,26,27,28,29,30,31,32,33,34,35,36,37,38,39,40,41,42,43,44,45,46,47,48,49,50,51,52,53,54,55,56,57,58,59,60,61,62,63,64,65,66,67,68,69,70,71,72,73,74,75,76,77,78,79,80,81,82,83,84,85,86,87,88,89,90,91,92,93,94,95,96,97,98,99,100,101,102,103,104,105,106,107,108,109,110,111,112,113,114,115,116,117,118,119,120,121,122,123,124,125,126,127,128,129,130,131,132,133,134,135,136,137,138,139,140,141,142,143,144,145,146,147,148,149,150,151,152,153,154,155,156,157,158,159,160,161,162,163,164,165,166,167,168,169,170,171,172,173,174,175,176,177,178,179,180,181,182,183,184,185,186,187,188,189,190,191,192,193,194,195,196,197,198,199,200,201,202,203,204,205,206,207,208,209,210,211,212,213,214,215,216,217,218,219,220,221,222,223,224,225,226,227,228,229,230,231,232,233,234,235,236,237,238,239,240,241,242,243,244,245,246,247,248,249,250,251,252,253,254,255,256,257,258,259,260,261,262,263,264,265,266,267,268,269,270,271,272,273,274,275,276,277,278,279,280,281,282,283,284,285,286,287,288,289,290,291,292,293,294,295,296,297,298,299,300,301,302,303,304,305,306,307,308,309,310,311,312,313,314,315,316,317,318,319,320,321,322,323,324,325,326,327,328,329,330,331,332,333,334,335,336,337,338,339,340,341,342,343,344,345,346,347,348,349,350,351,352,353,354,355,356,357,358,359,360,361,362,363,364,365,366,367,368,369,370,371,372,373,374,375,376,377,378,379,380,381,382,383,384,385,386,387,388,389,390,391,392,393,394,395,396,397,398,399,400,401,402,403,404,405,406,407,408,409,410,411,412,413,414,415,416,417,418,419,420,421,422,423,424,425,426,427,428,429,430,431,432,433,434,435,436,437,438,439,440,441,442,443,444,445,446,447,448,449,450,451,452,453,454,455,456,457,458,459,460,461,462,463,464,465,466,467,468,469,470,471,472,473,474,475,476,477,478,479,480,481,482,483,484,485,486,487,488,489,490,491,492,493,494,495,496,497,498,499,500,501,502,503,504,505,506,507,508,509,510,511
0.0778279,-1.0868357,1.9266326,0.6273922,-1.2341733,0.15651888,0.20836806,0.11370026,0.290548,-0.15711415,0.4030209,-10.817457,-0.1102194,0.022240441,2.1377385,0.045690417,0.016810432,0.019337365,0.6250814,0.6147228,0.42012247,0.39480075,0.2000753,0.8898282,0.7702256,0.09592972,0.44838306,0.80557656,-0.031187553,0.21712112,-0.9587466,0.29979396,-5.69868,-0.18213387,0.18311295,-0.087882385,1.4888095,0.14942755,0.062594734,0.044906802,-0.34430584,-1.0440414,0.53007114,-0.029128294,0.5587857,1.1151236,0.009482832,-0.15121007,0.7897233,0.53920025,0.7527793,-0.80400753,0.05897286,1.0793866,0.046842348,-0.14164087,0.3220557,0.07775417,-1.7062072,0.011258267,-0.48537064,0.018379765,0.8089087,0.8806112,-0.19483714,-0.2809758,0.24657117,0.9123629,-1.178396,1.0172431,-0.05941035,0.4614092,-0.055669542,0.3335674,-0.25061542,0.06942401,0.7587853,0.56145173,-1.3520833,-0.55788255,-0.51788884,0.7864273,-0.4283609,1.5079069,-0.069345884,0.82163185,0.47123143,-0.10956673,1.9051951,0.07869348,-0.08830569,0.72322345,0.49525213,0.36373177,-0.016360873,1.0457886,1.199974,0.6645743,0.048235893,-0.47260913,0.070399456,0.066460304,0.7067485,0.031382132,0.42360693,0.86554587,0.044260725,0.05457942,-1.1498739,0.809718,-0.5422054,-0.64388037,0.3468673,0.49630868,0.12702662,-0.01116365,0.039725292,-0.17206416,0.09037113,0.020747928,-1.6400838,0.06886782,1.149291,-8.95977,-0.21679729,0.04423833,1.0500315,0.234881,0.05029418,-0.055449925,0.8317962,0.42341402,0.16445288,0.75670564,1.2820303,-0.51296544,-7.5475492,0.00030685414,0.08262942,0.033981934,-1.3172553,0.769992,-0.7335688,0.45481423,0.030192077,0.02740673,0.74142736,-1.0222194,0.096949466,0.050572008,0.00068812177,1.5357823,0.0154172,0.077264436,-2.2256365,-0.057413585,1.8460009,0.64563984,0.0051951227,0.004523478,0.072739266,0.48460853,-0.012674402,-0.034695596,0.065906726,0.12902206,-2.1162648,0.027769927,-3.5468783,-0.04781983,-2.2350695,0.52569044,-0.0009249157,0.38333803,-0.9359411,0.034669023,-1.7273986,-0.008225413,0.4339978,0.045487348,0.026143173,0.40059716,-0.0003084798,-0.48016304,-1.0269715,-0.09036186,0.2583547,0.045437817,-0.06297195,1.1649989,-0.4166066,-6.564237,0.34148753,-3.954028,-16.696522,0.052696254,-0.7371349,-1.1614208,0.5375666,0.8487758,0.092833616,0.10045532,0.028013015,0.82067406,-0.0660066,0.47408324,-0.9309302,0.83261156,-1.9303945,0.04629289,0.26915938,-3.5055254,-0.016931007,-1.8363296,0.24894674,0.03681587,0.018801002,-0.1063196,0.08200768,0.018363211,1.4398471,-0.55409575,0.03062254,1.7684708,-0.028371762,-0.4019969,-0.013150066,0.24549331,-0.118757516,-0.034751907,0.38462675,-1.4277015,0.23814146,0.43394735,-0.0013727648,1.449155,0.72432697,0.7457085,0.36001852,0.50421935,0.26951897,-12.705016,-6.0802245,-0.5427207,-0.022931714,-2.2096033,0.29392165,0.056589264,0.026033496,-0.24227484,-0.064901955,0.20458764,0.06960297,0.0029115758,0.022953771,-1.1296386,1.0386331,-0.3805758,0.49435568,0.9948198,1.3385631,0.43536907,0.95419395,-3.3359406,0.37078854,0.5708662,0.2636514,-6.9022818,0.123672344,0.35026273,-0.59417856,-0.33522335,0.046281748,0.5508207,-0.067073904,-0.6146808,-0.016148468,-2.0034149,-7.133977,-0.5306598,1.0762168,0.55617625,0.114980265,0.027513806,0.21702589,-12.4261265,0.036123987,-0.6860762,-4.428921,0.020106262,-2.699378,0.80991685,0.0643881,-0.2494972,1.1149137,1.1225909,0.0424752,0.0081695365,-0.0351349,0.27329063,-0.4121581,-0.38253117,0.24197891,0.36857718,0.484967,0.50117797,0.024384415,0.3273959,-0.051342644,0.16666237,-0.07282686,-4.3780155,-0.8344065,-0.009389934,0.03296763,-0.11578394,-0.1453011,-0.045482535,0.43273336,0.4926862,0.001237212,0.369877,-0.59485817,0.3240587,0.37448895,0.43559363,-0.008391246,0.02035344,0.1270361,0.085634954,0.54749817,0.0751384,-0.2556742,0.012309544,-7.602207,0.4216792,1.4247924,0.5728987,-5.107719,0.37374303,0.042316534,1.2041066,-0.007001376,0.12046802,0.63860214,-3.2403355,-0.053136185,-19.635483,0.16966075,-0.3318695,-0.006273359,-0.50676435,1.038867,0.18133494,-1.9369187,0.04779482,0.11767968,0.22531508,-2.0696132,0.7640038,0.06845928,-0.05238078,-0.110858716,1.0646489,-0.0016508189,-1.1063281,0.60110384,0.16407192,0.2906444,0.60940784,0.1446283,2.7664714,-0.002344924,0.020694735,2.0362766,-0.5281514,0.2748072,0.54311275,0.11158895,0.7548307,-1.3482147,0.06110783,0.28713065,-0.05068734,0.9099476,-8.297117,0.027510498,-6.1902127,-0.11260777,-0.7484696,2.214485,-2.669452,0.00089447945,0.23540127,-0.16593137,0.05217927,0.005150231,1.9893961,-0.021858446,0.3810644,-0.12385514,-0.2564902,-0.7555524,1.5307326,-2.996081,-0.023911983,0.08809375,0.29826638,-0.017473528,0.41024882,-0.11202624,-1.3148338,1.1889256,-0.008134037,-0.8602644,-1.9319118,0.7269622,-0.45841277,0.89901525,0.048668142,0.04520916,0.04346427,0.084561445,0.71468484,0.09156395,0.720174,0.53352267,0.68014556,1.2254359,-0.29611012,0.26639658,0.70616084,-0.10085894,0.31963933,-0.02751585,0.025409974,-1.69488,0.2849878,-0.064166434,-0.6589362,0.027088601,0.10294839,0.4088061,0.5334435,-0.44889814,-0.054908127,0.5777156,1.0361037,0.106137045,0.31709602,-1.1263212,0.79001766,0.064381585,2.1436872,0.723688,0.32236385,-0.53100544,-0.7053759,0.030801717,0.32023937,-2.1065185,0.1462912,0.050393716,0.49844778,-0.997146,0.005437235,0.037385706,0.16121036,-2.7163715,-0.22352599,0.7263381,1.7834578,-0.25245783,-0.15583864,0.37299842,0.2095329,0.6710278,0.016154025,0.8194985,-1.6110021,0.22805567,-0.051842976,0.046964645,1.0706961,0.48332915,-3.4671855,-0.029765354,-7.344568,0.30221292,0.4116986,1.3383602,0.52327305,-0.18475586,0.4431659,0.5243073,0.38607684,0.34813648,-0.06910842,0.9869854,-0.227548,-1.0548645,-0.14950772,-1.2760274,1.0437477,-0.11641323,0.01976607,0.6061254,0.59874326,0.44211036,0.42550287,0.043680545,-4.6704197
1.1474223,0.5277014,-0.59692824,-0.24077676,0.40296707,0.1474905,0.21719289,-0.024500262,0.29238954,-0.14673367,0.37182933,2.806229,-0.09152875,0.009977175,0.45192173,-0.055704016,0.24796613,0.0227392,-0.15425567,0.5889829,0.39086676,0.3028588,0.52469873,-1.0051972,-0.30459192,0.07574461,-0.95153993,-1.4341799,-0.05421108,0.7626829,-1.0003774,0.18326226,-5.7208204,0.49158067,0.18402083,-0.085018925,-1.8962306,0.26390785,0.031654432,-0.0022409433,-0.3414424,-0.43523234,-1.352768,-0.08607948,0.3798345,1.0828218,-0.0046533598,-0.1481482,-0.12254795,0.5538634,0.7629959,0.2644614,-0.004856768,0.99407226,0.03386754,-0.05530808,0.3471444,0.032084983,0.75400144,0.019441739,-0.46428347,0.037446074,-0.7051862,0.8821509,0.40608966,-0.2702181,0.22913614,1.030358,-1.356671,1.0672463,-0.029426392,0.43318877,-0.08102769,0.5043477,-0.1777346,0.04486209,-0.5895632,0.5129207,-10.753325,-0.5600951,-1.409135,0.739078,-0.334389,-5.723606,-0.067634135,0.09893827,0.45005313,-0.11035099,-1.6008658,0.031213483,-0.20356831,-1.0007727,0.1057229,0.24799635,0.036101636,-0.50670373,1.2849522,0.09794313,-0.015671404,1.0900248,0.033292063,-0.080805555,0.69967085,0.024570461,0.47068763,0.48206192,-0.3694967,0.014091315,-1.1047881,0.38592833,0.25304028,-10.922123,0.3692403,0.4566554,0.17158815,-0.010045925,0.03365683,-0.16315445,-0.12218554,-0.0054195826,-1.6889873,0.024198417,1.1314073,-1.5338644,0.65259314,0.05970173,1.0159588,0.22435883,0.04436421,0.040929403,0.80307287,0.40683475,0.16782574,-1.486813,1.0760616,0.38501337,2.332289,0.6838664,0.07056118,-0.019684147,0.3924319,0.735059,-0.7131182,0.4655782,0.01706484,0.049532525,-1.7574402,0.76907825,0.08557983,-0.05514535,-0.022987705,-7.506933,-0.062484402,0.07341387,-2.1301675,0.05410076,0.9491593,0.64461535,0.006464706,-0.048210874,0.016363563,0.49911812,-0.030593853,0.4795381,0.056292407,-1.683185,0.46453595,-0.05170916,-3.2810097,-0.013876669,-2.2496216,0.52191335,-0.0015195272,0.36082163,0.56057894,0.028204534,1.0683594,0.8856494,0.42459714,0.046995692,0.022261374,0.3884756,-1.4652032e-06,0.095280856,-1.1077495,-0.11639886,0.23696387,0.11636324,-5.9334064,-0.13204719,0.13927108,2.0791597,-0.074560106,-3.921431,1.110877,-0.02766464,-0.7442215,0.6521269,0.5657897,0.109885745,-0.082367875,0.016744982,0.023234092,-3.1953857,-0.0787135,-1.2838528,-0.73407364,-0.03198278,0.05722306,0.015505478,0.2749742,1.0928032,-0.103715025,1.2272677,1.1347642,0.12869547,0.031007826,-0.0006081462,0.08627773,0.67519456,1.3039694,0.50634795,0.03818145,0.04597265,-13.576978,1.0265344,0.068198726,0.23334455,-0.080544405,-0.18793452,0.3714071,-1.4816461,0.2254495,0.44210088,0.0023365,1.3213791,-0.78262967,0.9219976,0.43251544,0.49742952,0.24501455,-0.7126716,1.4117007,0.2420411,0.0034559458,1.081012,0.2724144,0.04249148,0.07896479,0.87045234,0.031062616,-0.707348,0.011082309,0.0023310208,-0.08316539,0.45675018,0.060644403,0.7650396,0.46985006,-5.1212,-0.83156765,0.6020251,-0.8191459,-3.0008051,0.4029302,0.55675435,0.24038398,-0.7626674,0.08381769,-2.660264,1.9580458,0.3368123,-0.012095816,-2.00546,0.48134273,-0.61186635,-0.010686456,0.6081318,-0.38419574,-0.57402486,-0.12767068,1.5772083,0.10680957,-0.009079142,0.21179952,3.946763,0.052603606,-0.58882254,-0.5960989,-0.12279198,-2.7049804,-0.99882156,0.07417627,-0.2637784,-0.9718028,-1.4461925,0.057409983,-0.009337849,-0.030175893,-0.056031737,-0.4102707,-0.36524194,0.78152835,0.34826812,0.47879386,-2.280288,0.009959864,0.308163,-0.0729737,0.13747229,0.050504945,0.9428725,1.2190154,-0.0026232407,0.011180037,-0.12639317,-0.12109469,0.041508093,0.022178674,0.40712914,-0.031267826,0.36862236,-0.54468435,0.27651444,0.38183245,1.3169097,-0.0035543838,-0.0143386405,0.061003678,-2.5634181,0.53982174,0.08235783,-0.20648274,-0.016431509,-7.111326,0.2616498,-1.9934164,0.53522176,-0.07874652,0.43502986,-0.022614459,-2.0002367,0.009093269,0.11931009,0.6172329,-3.1553202,0.053336617,1.0973799,0.15719523,-0.3246507,0.05277692,-0.46948737,-2.863547,0.1875041,0.89503276,0.06829608,0.11296622,0.08465689,-2.2083402,-0.33398554,0.69611955,0.07219329,-0.10433966,-0.89649004,-0.0030801627,0.68281883,0.85232365,0.15437649,0.33069694,0.6431439,0.1480332,-9.776538,0.06713925,0.04932205,-6.8472204,-0.005096364,0.2709094,0.47926453,-0.4099964,0.7696664,0.713384,-0.042975288,0.30967438,-0.09333794,0.8727047,2.3015676,0.020206003,0.10102588,-0.123789735,-0.659406,-7.0419297,0.42910895,-0.008954272,0.0554928,-7.7141433,0.05269319,0.21445148,-22.502691,0.6186212,0.36159453,0.031457473,-0.21147677,-0.27972862,1.4961227,0.23670119,0.23326714,0.1255938,0.83656055,-0.0035463625,0.38160828,-0.12267869,1.7155275,-0.86513513,0.06291272,0.79486835,-1.8063406,0.23848076,0.012928012,-0.8776327,0.013189748,0.005333058,-0.1171813,0.99875426,0.49646813,1.0621822,0.7142352,0.46879992,-0.28838795,-5.1163306,-0.31572035,0.2578751,0.6822085,0.033743057,0.31957108,-0.046886183,-0.23596436,0.17217757,0.27991402,-0.09079807,-0.62428606,0.053010963,0.20675021,0.38197017,-1.0879889,-0.4679803,-0.11593384,0.55735546,1.0439827,0.038514487,1.3270886,-1.0635675,-0.013383541,0.006091097,-7.117105,0.7174961,0.3183096,0.49170807,-0.67479146,-0.016733425,-0.67133677,-2.630601,-4.372828,0.013567053,0.41600206,-0.9413402,0.018009359,-0.06187763,0.16826114,0.81321204,-0.22410697,0.712465,0.34770477,-0.24860515,0.08873801,0.36177152,0.18536568,0.6807764,0.003492132,0.6250349,1.2264522,0.24300607,0.0549698,0.062810265,-1.0789038,0.4742649,0.3276545,-0.055319816,2.121961,0.30739975,0.40079692,1.3226779,0.48355734,-0.17653862,0.4239433,0.52550274,0.32728413,0.46290255,0.37287745,0.0035013307,0.70220095,0.642354,-0.16449694,1.2450311,1.0772284,-0.041495543,0.049554523,-0.46731487,0.5038316,0.47193816,-0.16722803,-0.061661936,1.3027217
-2.1018636,-3.521428,-7.145141,-2.4363256,-1.7081943,-0.315858,0.3436361,-4.3170495,-0.115078636,-0.6137121,-4.115691,-0.09018321,-0.06692122,-0.14546932,-4.8560534,-0.2029471,-1.2251726,-0.033650093,-0.9524589,-1.3128469,0.4871774,-3.610026,0.04338711,-3.1590943,-4.226304,-0.7004478,-0.4752789,0.095257364,-4.4180274,-0.80759,-0.72106826,-1.9168503,-0.11307873,-0.92323864,-0.06252591,0.007856452,-3.8711202,-1.3283163,-0.54973876,-0.15246065,-1.6829101,-0.08104508,0.7081271,-0.0359894,1.233518,0.25946948,-0.14415139,0.054829773,0.5977787,-2.8142211,-3.3323395,-1.7063835,-0.3060993,0.89552385,-0.42117292,-5.040993,-1.5257494,-0.2063953,-0.22626734,-0.46575353,-0.44934702,-0.079485334,-3.4960759,0.8203738,-0.07166036,0.0005506574,-0.11359048,-6.815534,-1.5973493,-0.66158444,-0.095513344,-0.015884118,-0.201003,-0.9204948,-0.10774465,-0.24932617,-0.24526945,-2.1068866,-0.10709711,-0.57447714,-0.31030712,-1.4937406,0.020464618,-0.6460123,-0.08889313,0.6791755,0.33273438,-1.5075524,0.60578847,-0.124336466,-4.3043456,1.0377394,0.7947708,-4.527111,-0.035067577,0.7256795,-0.073425926,-3.8430607,-0.336509,-0.13787903,-0.4565766,-0.098559014,0.19127399,-0.075085,-0.57417893,-1.6306585,-0.5357043,-0.44057932,-0.08575462,-2.5075521,-0.23447281,-0.19168717,-1.1067917,-1.3695041,-0.8474362,0.010972957,-0.40798828,-0.9732497,-0.118316405,-0.12661056,-3.1260872,-0.021532224,-0.13796282,-0.099046186,-0.08742244,-0.36895254,0.14682645,0.021485548,-0.45551196,-0.07880912,-3.2292464,0.18748783,0.013920326,0.007132438,-0.23668276,-1.0646026,-2.5572338,0.013651121,-0.48041618,-0.3602133,-2.3329592,0.15720335,-0.49508244,-0.32908973,-0.14787123,-0.23820065,0.5790665,-0.8879826,-0.40394,-0.25843439,-0.17457953,-0.0024134633,-0.12208227,-0.5611037,-0.060667172,-0.2600414,-2.632926,-1.4434763,-0.104069725,0.055146564,-2.936387,0.55618286,-0.04164992,-0.36937752,0.5153281,0.075403,-5.1137047,-0.11032945,-0.5103721,-0.08260058,-0.1338808,-0.99732673,0.001288049,0.1854524,-0.34088022,-0.24701284,-4.9231505,-0.046260804,-0.37671328,-0.29415235,-0.10192921,-0.855624,0.00042331315,1.1081585,-1.231714,-0.7302425,-0.28724253,-0.047277596,0.11413682,-5.3136573,-0.94305384,-0.16339931,0.43997526,-0.16800104,0.18402193,-0.06424811,-0.75304085,-2.0068119,-3.446306,0.69540054,-0.031968843,0.83719397,-0.2532096,-0.32765108,-0.052693855,0.4526424,-0.8307441,0.32195312,-4.754538,-0.3754371,-0.3114264,-5.577383,-0.06420976,0.39206293,-8.1841135,0.73072034,-0.028204434,-0.10124929,-0.48948926,0.056888252,-1.7189139,-0.8166717,-0.17828254,-6.606924,-0.05517621,-0.5763463,-0.4079056,-1.1225343,0.5604425,-0.09991738,-0.35448948,-0.018723074,-0.47085148,0.12363803,-0.49540144,-6.7856207,-2.7497487,-0.4821288,0.59019136,-1.1292171,0.0019361192,-2.8250642,-0.016032375,-1.6596663,-0.14787194,-1.035782,-0.15811187,-0.19759919,0.008236858,-0.45610052,-0.025911937,-1.2845703,-1.2471505,-0.0009475362,-0.06489126,0.612964,0.86583817,-0.48512515,0.32154435,0.022641527,-3.4226825,0.3247381,-6.3439307,0.1576539,0.30189344,-0.035349652,-1.029389,-1.5893308,-0.98391646,0.124793656,-0.46881038,-0.8154346,-0.09152616,-1.8898847,-3.4177995,-0.13625222,0.105502516,-0.10661775,-1.5206428,-1.0662607,-1.947676,0.0035963634,-0.0053621307,-0.119715385,0.79278636,-0.08113218,-0.048724618,-2.0494902,0.011054377,-0.020243876,-0.06435758,-0.19235592,-0.20067069,-0.7604318,-2.5465205,0.19594008,-2.2929642,-0.43106893,0.33767176,-1.2077513,0.10013447,-2.4379158,0.38094473,-3.3151665,0.119507596,0.08482413,-0.046841424,-0.07372433,-0.53635633,-0.044131,-0.13073342,-0.45091113,-3.3866856,-0.42152557,-0.22665343,-0.041090775,0.25147742,-4.3611226,-2.7452724,-4.811626,-0.019177588,-0.6404419,-0.81111556,-2.185747,-2.3809872,0.9504532,-0.06759322,0.06124211,-0.4849836,-0.009762595,-1.4633319,-0.036399625,-0.7485692,0.9834288,-0.0714339,-5.092581,-0.090202555,-1.8235097,-1.0950494,-0.0072275125,-0.17053965,0.5500537,-0.5324411,-0.027982201,-2.3309064,-0.13803403,-0.03921603,-0.020625876,-0.19753836,-1.4490312,-0.39462107,1.2313663,0.35498303,-0.047668155,0.21801117,-1.1236663,-0.28491843,-1.9399707,-0.10055658,0.92468715,0.26767862,-0.21574265,-0.10336962,-0.43894386,-0.00025835284,-2.6965563,-2.4010777,-0.013352185,0.16964568,0.10311563,0.012036743,-0.03419419,-0.23171926,-0.18799347,-0.9815487,1.0885166,-0.07798434,-1.5289077,0.04548577,-3.9829547,0.8713996,-0.04537949,-0.10867596,-1.1541839,0.34157136,-0.1752777,-0.40177292,-0.19775209,-0.05002676,-3.3716772,0.021979261,-0.66345745,-0.07132032,-0.24093734,0.0077068456,-0.26923054,-2.3997855,-0.029963765,-0.024315014,0.0877869,-0.08420489,-0.59645724,-0.57620144,-6.1014442,-0.594634,-2.4861503,-0.5532209,-5.622748,-0.033013947,-2.1132398,0.012851045,-2.8517015,0.09656258,-0.25205308,-2.4441428,-2.2474155,-5.646003,0.7587416,0.80872965,-0.41447186,-0.027774522,-0.102409154,-0.038997114,-1.3043351,-0.39745322,-2.1650968,-1.3249533,-0.41030422,0.027378075,-0.48180717,-0.5639427,-0.15259647,0.6087166,0.07315328,-2.787464,0.005659397,-2.180514,0.09277989,-0.07109588,1.2358952,-0.12649333,-1.1108783,-1.0185245,0.3069837,-0.46657604,-0.075855054,0.9344237,-2.631589,-0.34440914,0.24626063,-0.9373878,-4.349925,-0.44306874,-1.878434,1.0782315,-0.5719634,0.7957581,0.035141647,-0.39478296,-0.82668865,-7.1351967,0.1822634,-0.15312439,-6.247893,1.860508,-0.24623951,-0.35403764,0.09047959,-0.015272565,-1.4268509,-1.7431734,-7.712052,0.02212566,-0.033631284,-0.6498581,-0.014648467,-2.5606656,-0.25775072,0.11109238,-0.41144484,-0.4399687,-0.012185133,-0.3732624,0.9451464,-0.89301085,-0.853166,0.029659482,0.5326815,-0.5066684,-0.7648734,-0.19746332,0.1940582,0.41145086,-0.11668786,-0.3690608,0.7748369,0.26669496,0.4229229,-1.7298619,0.018954258,-0.034663282,0.38609415,-1.6631328,-0.49275726,-0.06733884,-0.06594918,-0.0018913979,-4.5348854,-0.080353245,0.6634488,-0.41060135,0.182826
0.89510393,0.26658252,-0.41067186,0.21013929,-0.021689428,-0.32339698,0.34382087,-0.036037702,-0.13355312,-0.6106723,-3.9475658,-0.08291788,0.010636335,-0.1604993,-0.038310576,-0.1771778,-0.47611862,-0.25699368,0.17211394,-1.3316764,0.47888875,-3.2751782,-4.444924,-0.9411851,0.04297129,-0.6073141,0.4340891,-1.6879961,-3.9981058,1.0142013,-0.6529645,0.40760687,-0.12349715,0.95798486,-0.08653141,-0.0012001797,-0.97995293,0.34337887,-0.4843363,-0.1423854,-1.8209237,-0.030033007,-2.48467,-0.061892014,-1.0849065,0.2635086,-0.01336459,0.056638885,-1.2795262,0.58321315,-3.3378615,-0.0007538435,-0.1567327,0.95048183,-0.16303115,-4.8164597,-1.4696226,-0.042429976,0.4648289,-0.2492457,-0.46410754,-0.18135397,0.005940265,0.79665375,0.88305396,0.008457407,-0.115083195,-6.4517946,-1.6239183,-0.78875077,-0.061281566,-0.07989565,-0.20749688,-1.3200622,-0.121185,-0.13382888,0.2634903,-2.278213,-0.12676285,-0.62169766,-3.199275,-1.5268804,0.051740117,-0.14437278,-0.07173411,0.0348732,0.3410687,-1.4561274,-3.1917639,-0.17275943,-4.3457336,-2.9567666,-2.028435,0.021369034,-0.31030136,-1.7052517,-0.09797651,0.00849247,-0.11848848,-2.5306115,-0.29331705,-0.049951985,0.24994792,-0.062787674,-0.54070956,0.6027681,1.6027342,-0.13044135,-0.09658216,-1.2844049,-1.5222006,-2.6789098,-1.1464268,-1.4143145,0.9089886,0.00975953,-0.38794363,-0.9722971,-0.23954102,-0.07214342,-3.0882645,-0.3217357,-0.1131138,-0.09229882,-4.7067103,-0.4163411,0.13058183,0.032801874,-0.4864753,-0.09362962,-3.2112782,0.20681912,0.01910819,-0.96629965,-0.32422262,0.11707532,-1.4714794,-3.96102,-0.28139573,-0.23980397,-0.32308683,0.14971066,-0.4879077,-0.40270862,-0.30257273,-0.34946668,-0.3487608,0.8682023,-0.3185513,-0.12884204,-0.16573218,0.036265593,-0.028352879,-0.56368726,-0.06789695,-0.38484213,-4.2271705,-1.4324955,-0.1321375,0.07127269,-2.7959938,0.59805715,-0.06584672,-3.8077257,-2.5712,-2.0186875,0.0766744,-0.004225841,-0.50304973,-0.05293168,-0.1145265,-1.0303602,-7.3956355e-05,0.17484258,-4.939864,-0.2617355,0.044817615,0.71067655,-0.3926167,-0.26642627,-0.06951416,-0.8711433,0.00034421755,-1.592369,-1.2633293,-0.69043463,-0.29296315,-0.025980191,-1.3374503,-0.1753633,0.217707,0.04848978,-0.051234722,-0.17293184,-0.82815164,-0.15868196,-0.75758785,0.33281687,-3.142559,-0.113024175,-4.822414,-1.3813846,-0.2246869,0.2848355,0.03139644,-3.1668227,-0.84103996,-0.036730867,0.11126374,-0.32470575,-0.3136626,0.13049841,-0.081204265,-0.2407715,0.56673235,-2.270206,-1.3265493,-0.07933944,-0.48086992,-3.879537,-1.6023816,-3.111273,-0.13444212,0.026880115,-0.15883094,-5.310001,-0.10667517,-1.1564925,0.6316583,0.04192945,-0.35609394,-0.04850497,-0.48091522,0.16915713,-0.35013893,-6.735507,-0.119640596,-4.6526074,-3.525496,-1.1220753,-0.0047236723,0.013652849,0.034155376,0.19300853,-0.3933762,-7.30018,-0.15450424,-0.191605,-0.45645398,0.81802696,-0.006357936,0.06850867,-1.2259281,-0.0012342981,-0.11481274,-0.15052798,-1.580326,0.45136333,0.2886978,-0.0050330698,-1.6213256,-5.4616756,0.1574024,0.062065758,0.27287638,-0.035673637,-1.1844887,0.17068684,-1.1094701,-0.7995063,-3.101047,0.71330905,-0.25024083,0.00755447,-0.040762812,-0.11898092,-0.21329373,-0.63951707,-0.0180412,-1.1053406,0.11389065,-5.160914,-0.025141872,-0.067026146,-3.1711025,-3.2867649,-0.046702765,-2.1222167,-0.074875414,0.0069054146,-0.08334733,-4.4522347,-0.19950978,-0.83864987,-0.996945,0.5512718,-2.1331463,-0.42983118,0.36005828,0.1635341,0.11732112,-2.2564144,-3.311872,-3.837067,0.12366728,-4.392915,-0.38660395,-0.046868842,-0.54836255,-0.036799487,-0.06363082,0.105940595,-3.773469,-0.15733868,-0.13151038,-0.009677338,0.25310513,7.037513e-05,-0.03045115,0.10242324,-0.05591407,-0.6761891,-0.839815,-2.2983913,-2.282092,-2.0179265,-0.09317258,-1.2030462,-0.65200657,-0.51301354,-1.5129507,-0.054374848,-0.7331848,1.0009061,-0.12878416,0.11179848,-0.03895452,-1.8549242,0.11955598,-0.020142496,-0.40198374,-0.76811206,-0.54207474,-0.034814466,-2.333191,-0.16220576,-0.026534954,-0.11074136,-0.19784707,-1.3192337,-0.40853083,1.2447493,-5.58945,-0.062106345,-0.97366184,-1.3054104,-0.25122178,0.50473434,-0.13432905,-0.77529967,-2.7575526,-0.33519247,-0.050776813,-2.7072623,0.00288197,1.0718279,-2.5140655,-0.012869114,0.19353591,0.057843506,-0.03626178,-0.050132204,-0.32073334,-0.53375995,0.48780677,-0.3806219,-0.089643285,-1.5892211,-1.0596228,-3.9386306,-1.9290552,-0.034102857,-0.13158263,-1.112594,0.36352387,0.00018118591,-0.36230093,-0.050856564,-0.023637213,-3.3511834,-0.19415577,0.13256995,-0.04554426,-3.855058,-1.9082752,-0.18479787,0.67946786,-0.092686385,-1.9534497,0.11663109,-0.12415148,-0.8303585,-0.6474796,-6.250961,0.00036840778,-4.9446244,-0.63013476,-0.49317962,0.0040695486,-2.1704004,-0.012781063,0.28434172,-0.9373864,-0.26315275,-4.8032365,-2.252193,0.10897815,-0.3128431,-0.8890332,-0.3061676,-0.476692,-0.04794706,-5.8604517,-1.6262184,-6.207819,-2.1719487,-1.3735834,-0.41598868,-0.42025915,-0.49766725,-0.61373454,-0.083840445,-0.81461984,0.09911552,-2.7590911,-0.585223,-0.009747485,0.11718406,-0.08758688,1.2100241,-0.204163,-1.0046068,-1.0341266,-1.4371325,-0.5045662,0.021078324,0.9656756,-2.629314,-0.2266338,-1.7713497,-0.8770102,-0.046210464,-0.27299523,0.037876587,1.1296995,-0.58414507,-0.964105,0.032131985,-0.28723803,0.035368506,-5.7803316,-0.9850119,-0.35183403,-4.0634356,1.909774,-0.22983824,-0.2674433,0.12188544,-1.145557,-1.4881972,-1.784356,0.17146778,0.039753165,-0.20242894,-0.664064,-0.47073695,-2.6222186,-0.18966033,0.08239882,-0.123786815,-0.45845816,-0.06951794,-0.3109047,-5.7323923,-0.92749274,0.18276978,-0.12979554,-0.8034039,-0.52327484,-0.7794017,-0.38834044,0.1869389,0.39830244,-0.13198769,-0.44525412,0.8254608,0.4109237,-1.4132308,0.043100923,-0.26750788,-3.632799,0.42660913,0.73610437,-0.42907757,-0.016579898,-0.42143825,-4.5846596,-4.730502,-0.081491575,-1.489848,-0.302668,-0.2778397
-2.2191064,-0.013969296,3.217761,0.75564986,0.5168799,-2.7318335,-1.2485162,-2.4298575,-18.757961,-0.2909516,0.38411933,0.3812093,-1.0598534,-27.922834,2.3328285,0.06112935,-2.1107173,0.118201956,0.03848261,-8.40658,-14.676559,-0.01972606,0.24476546,0.56452054,-3.956808,-0.6929052,0.35468334,-3.3580394,-0.1050031,2.4410632,2.9453447,0.21730892,0.5195352,0.75096893,4.373452,-0.14095488,0.008739256,0.42846122,0.5675562,0.24051318,0.09700848,0.8826265,0.5765459,0.0490388,1.2885166,3.2857244,0.14650573,-7.559608,0.7900765,0.76634204,1.995933,0.08002603,0.24603285,2.25512,0.11838817,-0.22647297,0.99478483,0.055082865,0.29819027,0.2813278,0.04665334,0.12641191,0.1638506,-4.594584,-0.27564234,3.3628342,-2.827526,2.3906415,0.16824019,3.9420476,-0.054089587,2.5843244,-0.6584031,0.0044843243,1.7921947,0.16964778,1.6484016,-2.9245355,0.2855649,-3.272422,0.18002942,4.466215,1.6241852,-0.03753769,-0.012472439,0.37639412,2.0798059,-0.095831394,3.052501,0.1173441,-0.01767923,2.105911,-0.16010736,-1.4126905,0.10051004,0.6396583,0.83113307,0.72427386,0.23283133,2.2755494,0.28936696,-0.11404048,2.9021175,-0.09419606,-1.4792738,0.70240337,0.17335959,0.06484808,-11.426654,3.9463034,0.07108832,0.08955367,1.0250727,1.5757246,0.030250737,-0.032487698,0.22175494,-0.19119696,-0.42107582,0.19305068,0.15586635,-0.31716233,-3.0457284,0.23368451,-3.236022,0.22934145,-1.6527855,-2.5300813,-0.03416109,0.040739316,-12.568299,1.6583062,0.7090591,0.66220576,-1.5794616,0.07049466,0.3594943,0.42606694,-0.3995881,0.22424532,0.31132394,3.3382428,1.3638588,-1.6163805,0.17284499,0.14596342,0.44822106,0.28305393,0.13689415,0.21198139,-2.777575,0.011083162,0.019380856,-0.010669517,-3.671707,0.19819409,0.057973053,0.051867336,0.21232952,-0.049916893,-0.050224237,0.98288447,-0.20835939,0.5012694,0.04371716,-0.020985378,-0.15877187,-0.13340817,-0.59833235,-0.062909655,0.36202013,-6.8141236,0.0029026365,0.119642034,0.020195482,-0.53495926,0.35413364,-0.003723293,-24.957865,0.15313144,0.11719004,0.09282405,0.0060971784,0.6208281,0.4443007,-0.09644475,-0.14804664,2.2301433,0.20075563,0.7904382,-0.008970838,-2.1539927,-0.052451413,1.0662259,0.19518733,0.21073936,0.6058549,0.84888965,1.9065803,0.11164519,0.113233685,0.3607115,0.22911166,0.46037617,-0.10342217,0.02031084,2.6992745,0.08219606,-0.03932725,0.075137146,-0.92220056,2.3617046,-0.10407001,0.6038842,3.1231537,0.02241933,-0.0019855392,-0.048469547,0.23901972,0.24019323,-2.2986877,7.103275,0.121485904,1.2142792,0.1464574,-4.3152184,0.1469556,-17.338194,4.633938,0.06492673,-14.96937,0.7541252,-3.8318865,1.9198359,0.299604,-5.838031,0.19192903,2.4345903,-1.0107322,-3.7593787,-4.2322206,0.011524783,0.0063780346,0.17223144,0.13486832,-0.05649819,-6.916161,-0.007927979,0.15391344,0.67746824,-0.06914032,0.083178036,-0.9221972,0.016448012,0.06165262,0.5231841,-1.6657517,-0.016496295,-7.6067443,0.5510422,0.78795433,-1.6244645,-1.2583364,0.48989454,-1.1506115,-10.906534,-0.08011259,0.36472738,0.82548153,-0.041804336,1.7473464,0.08184594,0.12977955,0.09514639,2.0282874,0.5884243,-0.27798048,0.16597684,0.11989877,-0.21301724,1.3899474,2.3196018,-1.9977396,-0.13083702,0.48825976,0.03112003,1.3831278,4.601666,0.12884639,-0.13383223,0.27478495,0.95045835,-0.20719141,0.02893584,6.8695164,0.7909089,-10.152814,-0.3542666,4.1967025,0.06785543,-7.7181067,-15.544157,0.99561596,-0.32247776,1.8146878,-0.024590036,0.13872898,-5.8547654,0.9413891,3.268167,-0.042697273,2.3092954,0.86010766,-0.29714167,0.13782287,-0.5477299,2.4152398,0.05120047,0.3371855,-0.09520717,-0.10334484,-2.4051497,-4.1714597,-17.46103,-9.634842,-0.6834256,0.03713342,0.009109361,0.007645214,0.83724254,-4.2623997,-0.4355567,-3.0197742,0.8629539,-7.7915664,0.24550481,0.25987613,1.6856439,0.085973054,1.2910362,0.21747698,0.19033268,0.14052421,-7.2118635,1.9125518,0.78982383,-0.035495944,0.42672628,-4.93301,0.4782757,0.07674346,-2.070801,2.2004626,-12.119303,-4.8417225,2.1605148,-3.6068907,0.25434908,0.40081307,0.32524765,0.44711342,0.17803293,-0.016081188,2.8224585,-0.001311722,0.7374952,3.1994033,-3.1298788,-1.3034501,0.27473393,-2.6020193,0.42877522,0.17686686,-0.6858424,0.44501778,0.5558473,-10.0117445,1.5985272,0.045830127,-10.888947,0.66223246,-0.020421255,-1.8816658,0.0322358,3.279333,0.66396666,0.06760687,0.030301344,-0.6548273,5.2556458,-2.4004397,-0.121232636,-0.0065991506,-2.2649477,0.09210186,0.22676349,-0.41133258,0.37629703,2.650243,1.6788856,-0.08703473,-0.062484052,-0.04305024,2.9088116,0.8637087,1.9948499,-1.4161798,0.42490548,-0.0843157,1.5374124,-0.39988846,1.6773274,0.21765241,0.17887694,1.326595,0.08213533,0.61297804,0.2823773,0.19350608,0.26133722,0.11610576,-0.04128541,0.6272206,0.31657296,0.64685154,-10.745285,1.6302794,-1.5411952,2.1442814,-0.083767585,0.16144598,3.0152638,0.1538902,1.5603868,-0.032999765,-0.05911724,0.04383576,1.5436847,0.023867771,-3.2809014,-0.012582271,-1.0952375,1.3848106,1.4171112,0.19361325,-0.023470407,1.3206487,-0.27790985,0.3020928,1.0157359,-6.1983314,-6.375953,0.32641193,0.30742332,2.4762254,-4.3424344,0.53220993,2.010298,0.2505458,0.09878128,-0.03499568,0.10752041,0.13882561,1.3345267,-5.734334,0.5164395,0.08877122,0.98190576,0.014054918,-8.008766,-10.328373,1.060269,-5.6857195,0.18612127,-26.118525,0.033453032,2.0231285,0.17399643,-0.0036961143,0.1324156,1.4189408,-0.017971704,0.07880435,-0.201003,-3.3789246,-0.043970317,0.054031014,0.30666268,-1.5807564,-5.456181,0.33605403,2.1577315,4.0010056,2.3368113,-27.400127,0.7456445,-0.72318065,0.15621413,2.5293283,0.07885592,0.09764165,0.03720913,1.2255186,3.363808,-0.05061454,0.12139164,0.33985096,1.7878063,2.4233081,0.3058279,0.19219545,0.40698472
-2.8871377,-0.9267044,6.672083,3.1525807,2.0563254,-7.352702,-17.675732,7.087186,-0.28753594,-1.8855577,1.4073298,1.0287942,-1.4924556,-4.1887817,8.490243,0.7781219,15.257573,0.5289905,0.28874916,-20.124428,-4.585518,-12.693867,0.58911186,2.6814253,-28.40662,-3.7653885,1.3290999,-10.842891,0.32396,3.785318,10.15863,2.1738446,1.4088308,1.2459711,-0.4468055,-0.27225193,-0.44109565,2.2945611,2.2291145,0.73301095,0.072092555,1.7211037,1.7606955,0.038154177,2.5210376,9.140023,0.62837636,-12.925194,1.3542987,2.8726134,5.606664,0.43623012,0.6730208,5.9094524,0.44846657,-1.082664,2.6699905,0.60192573,1.0570116,0.5750893,0.58591706,0.718514,0.13631351,0.7512606,-0.5389921,6.833544,-0.49565306,6.499196,0.55228615,13.282455,0.09226972,6.1117973,-1.75848,-0.605257,3.951877,0.73776275,3.904926,-79.320786,1.0385312,-13.806309,0.90637386,13.07446,4.9712677,-0.17542809,0.090778984,1.2179724,7.862903,-0.6337494,8.027663,0.49506822,-0.6846365,5.777845,-0.48219714,-31.597904,0.3560968,0.45936313,2.9138057,2.195503,0.39639485,5.254448,0.8846596,-0.18078448,8.431936,-5.2023416,-19.62501,4.1201005,-0.2851693,0.5677917,-1.2888718,4.2048745,0.65957516,0.55779314,3.3239036,4.0603986,1.1589009,-0.14959015,0.39660907,-0.8130359,0.93058985,1.1325313,0.6742874,-2.4533594,-6.526233,0.97429967,-28.838951,0.44606107,-5.177012,-2.1571007,1.640428,0.48709688,-36.915257,6.4396477,1.8792226,2.7922518,3.6210716,0.07911545,0.8185316,2.1527247,-4.7878666,0.49134862,1.1727834,9.698481,4.6834984,-42.450413,0.7450766,0.3854947,0.8499165,1.7379186,0.3277622,0.8036894,-41.715237,-0.0012020143,0.06522454,0.12128469,-4.298289,0.9808625,0.8684842,-0.368101,0.6805644,-4.121579,0.5159338,3.61182,17.303707,1.0992194,0.2840443,0.08751052,-0.47392258,-0.071784735,-1.4817114,-0.07021753,1.1585408,-17.618465,-0.0146794,-5.0258765,1.0607067,-9.777194,-1.5502183,0.5123335,1.010478,0.39683458,1.0016865,0.11677321,0.014569026,-0.29416195,1.3954512,-0.57907176,-43.657158,1.7428993,0.39936417,1.9271219,-0.59791714,-4.439086,0.28646252,2.1309302,-0.2037748,0.4135711,1.4563167,1.632162,4.849457,0.7753603,0.3130168,0.5789361,0.54045177,1.4394724,0.037058733,0.61084795,8.633442,0.29054627,-0.40865624,0.26156235,-36.885826,10.418296,0.022416981,1.8437493,1.7284429,-0.07735743,-0.51159185,-0.028722018,0.49917617,1.6716378,-12.070335,2.0628653,0.505942,5.341707,0.5093878,5.842736,0.58585936,-64.43238,14.728141,0.037370734,-23.915398,2.0112002,-10.494727,5.5247006,0.60175854,-27.350613,-0.06870394,6.864689,-20.743876,-90.22761,-10.200052,-0.027624348,0.32481593,-0.52841383,0.5536346,0.20798345,-21.07068,0.68470013,0.49270973,2.311013,-0.10628063,0.10049823,-36.517048,-0.024898138,0.50032777,0.7824045,0.462258,1.3273015,1.3557194,0.87606025,1.949523,-30.582443,-0.8673882,0.7446848,-26.719635,0.04574604,4.3173532,1.4355565,2.8591511,-0.0693979,7.896052,0.03311288,0.6433044,0.17084824,1.4659742,1.3025521,-1.0897068,0.7570215,0.103999645,-0.17736387,4.4204655,7.717328,-5.449626,0.26038945,-7.133321,0.10258826,13.017893,13.412113,0.6490632,-0.5022178,0.40976557,-5.0843763,-4.4374857,-0.33358845,0.72551894,1.5005004,7.55348,-15.943836,13.135481,0.52907974,0.92742944,-54.424896,4.8352313,2.5820312,8.600858,-0.6150906,0.4499007,0.7282416,10.72769,8.509055,-0.02529322,4.9681478,2.7086492,-3.4921043,0.5184001,0.2915532,5.9371543,0.2651793,1.415997,0.68247145,0.02754094,-60.930153,-19.281202,-87.75327,-44.238026,0.6046787,-0.014310255,0.019742303,-0.19234784,2.0140636,-118.96331,-96.14867,8.84164,3.206838,-4.5435653,1.2955883,0.80213004,5.0798736,0.34428596,2.6772728,0.6036484,0.6508134,0.5717339,-0.21441908,4.5243554,2.114657,-0.005916144,1.1033756,-126.62861,2.4641309,0.54138803,-6.191427,9.325526,-0.13897663,-7.7762566,-1.0628287,-147.62903,1.2401534,1.2582545,0.95162964,2.9104016,1.0341145,0.09271581,10.076163,-0.014075746,2.3734295,3.0581977,-0.36692488,-4.6521583,1.5811851,2.375954,1.0662317,0.5138632,-3.466135,1.046064,1.2227361,-7.0172434,4.7678475,-0.8256227,-70.605484,-0.16710904,-0.09469185,-23.71321,-0.27928972,8.745894,1.6281592,0.21037655,0.11946492,-1.5022954,14.502892,-3.1917255,0.045771297,0.08529543,16.471706,0.53785616,0.5073106,-1.4479847,1.2977983,2.079354,5.299338,-0.07890632,-0.5827096,0.4677617,8.078427,2.3240573,7.174963,-5.21475,2.170286,-0.092258975,4.251447,-1.4789845,2.4618654,0.4798346,0.41626197,-0.16649775,0.34352466,1.737592,0.1093891,0.5494288,0.5333767,-0.04952704,0.048619334,1.2198142,0.6225368,2.0256581,-26.938545,5.265611,-6.6891747,4.5071726,-0.030083805,1.0514166,11.715453,0.3344585,4.3535104,-0.3153408,-0.7604065,0.16266976,4.812208,0.046604916,-9.374125,0.32404813,-54.44143,4.3592176,3.2142239,0.962161,-0.051853623,4.918681,-0.49313578,0.8611942,4.85227,-23.401506,5.376278,1.3537362,0.5092234,6.769503,-11.915232,1.8877361,5.486964,0.83145297,0.9722777,0.34215125,0.4395054,0.42666438,3.6237638,-16.902819,1.6629387,0.6233316,2.6191657,0.3160353,-45.273785,-25.536251,4.166437,1.1874063,0.5810127,-22.372074,1.3903121,4.8810716,0.52661985,0.48996717,0.2923977,3.8567233,0.54286116,0.36138725,-0.95528865,-78.281334,0.18094274,0.069211036,0.7380362,-48.370457,-14.464528,-31.234701,7.99998,11.449244,4.210845,1.996193,4.3649535,0.93152255,1.4232022,6.213645,0.18979307,-0.10511062,-0.7786624,2.8729064,12.449462,0.05862145,0.4303462,-1.709973,5.2862525,5.7190175,0.4928313,0.9033893,1.0254363
0.049423307,0.0017924822,-0.01479973,-0.03344338,-0.12714633,0.17977078,-2.6025927,-0.45820647,-0.0362284,0.036367197,0.011965411,-0.048697814,0.108743586,0.10971958,0.0100833345,-0.2142381,-0.2625698,0.04185968,-0.015129043,0.3871421,0.238212,3.8096972,-0.018740192,-0.027838303,0.66412383,0.07201473,-0.030262852,0.13075645,-0.067544855,-0.07466483,-0.17492785,-0.031126479,-0.07059783,-0.08943001,0.02935816,0.010781762,-0.030266799,0.01246917,-0.061191384,-0.028813588,-0.05571601,-0.06490611,-0.20248087,0.05794016,0.044573825,-0.18945517,-0.09403786,0.46385688,-0.10212268,0.03452573,-0.023086598,0.06695898,0.014125093,-0.24831082,-0.054413307,0.04741189,-0.07512526,-0.10370921,-0.028767,-0.12936336,0.03685293,-0.11533761,-0.06833641,0.2254976,0.06473866,-0.21828745,0.13085906,0.11031126,-0.03756182,0.031502966,-0.08112325,-0.25450307,-0.030290067,-0.16948675,-0.09667296,-0.17512791,-0.16616507,0.4077587,-0.052106388,0.25215334,-0.13346268,-0.49182576,-0.12871385,0.02685557,0.011266917,-0.02691666,-0.22014253,-0.018312907,0.027869463,-0.13531731,0.07013587,-0.06031915,0.4427438,-1.0174865,-0.08408425,-0.06226493,-0.09886546,-0.21569525,-0.07790048,-0.0574008,-0.24453312,0.006103516,-0.22646302,0.008839165,0.14180614,-0.10855544,0.039146345,0.031403586,0.04181778,-0.027809663,-0.10063703,-0.05883893,-0.13081029,-0.13973191,-0.016635017,-2.8591247,0.087966695,-0.03149238,-0.053293493,-0.029728128,-0.011883588,-0.033252098,0.16371079,-0.03181662,0.5669885,-0.123574406,0.16383325,0.034441344,-0.024972951,-0.083510384,0.7478872,-0.17368469,-0.03954526,-0.1268878,-0.13365006,0.035427134,-0.08704287,-0.18787238,0.044311907,-0.10714704,-0.13214765,-0.3108645,-0.14945622,-6.832289,-0.046431478,-0.04255472,-0.014376797,-0.20831394,-0.038795747,0.005793362,0.4228128,-0.0073977476,-0.11332256,-0.04979456,0.15534896,-0.15626125,-0.04657807,-0.059524912,-0.025675038,-0.069625,-0.04799654,-0.22396459,-0.27511606,-0.093416646,0.025285507,-0.05921571,-0.00241893,-0.018802524,0.06332239,-0.10356829,-0.043736044,0.3482022,-1.8001066,0.06573809,-0.11472821,0.10585319,0.025655016,0.042361565,-0.11953576,0.03794761,-0.092100635,-0.044149954,-0.97836316,-0.056028843,-0.046334557,0.056626175,0.66170675,-0.1428345,-0.06058483,0.016796298,-0.058435645,0.08777696,0.03723305,-0.13528189,-0.012861701,-0.09160367,-0.13024755,-0.01470294,-0.026113326,-0.021080844,-0.16093864,-0.21131311,-0.06285004,-0.03826404,-0.063458845,-0.13192327,-0.32172757,-0.04664891,-0.057298716,-0.010445759,0.3174956,-0.23189671,-0.029095503,-0.093589455,-0.105922826,0.18418258,-0.008729257,-0.09894115,0.01864862,0.08876145,0.28214362,0.15066649,-0.09662385,-0.06669283,-0.018897427,-0.16787697,-0.15279402,1.1395918,-0.31223238,0.03790665,0.52202624,-0.07044222,0.25605583,-0.1599108,-0.03460778,0.38833815,-0.07346734,0.022695748,0.080725074,0.60765636,0.34329307,-0.03583266,-0.004662781,-0.030268852,-0.030991806,-0.01966369,0.4523273,-0.122587584,-0.059620064,0.06431807,-0.118014164,-0.043218493,0.8341043,-0.9233788,0.0006825075,0.010201397,-0.066834755,-0.023832705,-0.028552003,-0.04400177,-0.110499084,-0.59665644,0.081692874,-0.0974003,-5.192079,0.033036318,-0.020902295,-0.085967764,2.3862073,-0.021706255,-0.14792173,0.05501079,-0.103003554,-0.060882203,0.3960047,-0.06654494,-0.18480155,-0.075855635,-0.052702434,-0.06323837,-0.22293864,0.043569297,0.09296024,-0.022590665,1.5855924,-0.032058872,-0.080665596,-0.054996748,-0.019684374,-0.0039086575,-0.0039205723,0.17862275,0.038036607,-0.047738943,0.1772298,-0.15787327,-0.0635576,0.43769398,-0.26544255,-0.026425853,0.009624677,0.91456246,0.004817754,-0.050660178,-0.20672776,0.006392781,0.025352107,0.048293274,1.8767195,-0.22897106,-0.0910156,-0.16098505,-0.11487706,-3.9155373e-05,0.0031437748,0.0061809234,-0.15990071,-0.112411484,-0.0018691609,0.042365707,-0.106603615,0.597917,0.3773791,1.4485332,0.79576075,0.46079764,-0.018444674,0.029145675,-0.08169925,-0.09146809,0.709271,0.60497683,-0.17056072,-0.30499202,0.15398169,-0.06778207,-0.045455504,-0.12474537,-0.06475148,-0.1182481,0.11073246,-0.022429485,-0.06603695,-0.025911912,-0.07971292,-0.11256486,0.07728901,-0.02564258,0.9195788,0.02546146,-0.12577134,0.28295457,-0.16583875,-0.03192594,0.24628554,0.4793987,0.87591404,0.09680873,-0.06397339,-0.004507483,-0.023767559,-0.12700048,-0.047289096,0.010991196,-4.031935,-0.15660213,-0.07191828,0.007966391,0.065382764,0.006696408,-0.1078674,-0.05374099,0.023388196,0.096301086,-0.11169937,-0.010905827,0.26159596,-0.1369959,-0.0045491443,1.1768006,-0.08218591,-0.008856078,-3.4367125,0.024195077,-0.31444496,-0.047517885,-0.12995885,0.0117258495,0.13692601,-0.03842262,0.040062364,-0.036934126,-0.094053924,-0.413268,-0.016638933,-0.012592901,1.1245141,-0.029067459,0.3645456,-0.13482395,-0.039125346,-0.08085485,-0.10994489,-0.048328824,-0.08308163,0.0024539959,-0.014661014,0.10191599,-0.09107721,-0.0758144,0.04638142,-0.050034355,0.046113547,-0.13496093,-0.036033686,-0.025846533,-0.022484578,-0.047480725,-0.018815102,0.0023734907,-0.11312161,0.017909061,-0.026325822,-0.021358658,0.097852916,0.5468998,-0.19443999,0.049277246,-0.103032835,0.018318463,-0.066509746,-0.12158978,0.096964344,-0.11051511,-0.060896363,0.026163455,0.010077923,-0.10685352,-0.01958217,0.4588722,0.036709096,0.5240498,-0.14739771,-0.055796355,-0.018930731,0.013899148,-0.18698156,-0.036165062,-0.17579664,-0.104735546,0.5517175,0.035699278,-0.022940291,-0.012452549,-0.2720678,0.26930165,-0.14229958,-0.1647558,-0.1640555,-0.08647121,-0.055968255,-0.05574462,-0.13653247,-0.09772583,0.63003457,-0.23856099,0.021790266,-0.09327434,-0.043089576,0.5680356,0.50047994,-0.069636114,-0.052086778,-0.08140135,0.41373336,-0.0545193,-0.06708121,0.025729781,-0.049168043,-0.006634976,-0.15747148,-0.10893438,-0.113391615,0.21464933,0.7014963,-0.05542613,-0.13311695,-0.07098573,0.51476294,0.2880488,0.14786786,-0.19061053,-0.32098258,-0.17275988,-0.06346797,-0.17627221,0.052471716,-0.058786,0.05225335,-0.01624306,0.10410681,0.04098216,-0.22995695,-0.30475625,-0.08649291,-0.14860338,0.21556732,-0.1158202,-0.20633464,0.03875394,-0.17615704,0.004767062
-0.0105989035,0.231201,0.007992785,0.06125397,0.00019740456,0.5922153,0.08519211,0.22651154,0.31259593,0.33308393,-0.5548166,0.00561096,0.12102472,0.57065463,0.03647742,-0.007795516,0.1583395,-0.01773338,-0.044764955,0.5754638,0.059831273,0.23510602,0.06946512,-0.15463886,0.11078164,0.049155567,-0.5342323,0.20407003,0.48921475,-1.0476091,0.21166618,0.005730992,0.0109494105,-0.23242271,0.1509263,-1.8557694,0.23089886,-0.013471655,-0.145732,-0.07974657,-0.9662311,-0.042370547,0.08904446,-0.060365997,-1.9545245,-8.52988,0.016254233,0.33457878,-0.0022659341,0.0079345405,0.15112308,0.1548441,-0.16007262,-0.59125483,-0.028259687,0.47669646,0.08066845,-0.010155877,-0.36576965,-0.025454672,0.24367358,-0.008206024,-0.020124199,-4.7936826,-0.02069252,-0.21011047,0.23308787,0.23913391,0.3044158,-1.5417398,-0.027361736,-0.18854238,0.7928894,0.32843265,-0.055212643,0.004742338,-0.043554142,0.11746654,0.043393176,0.42778945,0.043413583,0.37117648,-0.95951855,0.21593153,-0.08793032,-0.4152896,-0.3145539,0.33130753,-2.410359,-0.022164587,0.3285554,-0.0053289956,0.11884347,0.048661284,-0.024830183,-0.277354,0.14613748,-0.87007856,0.0030524302,-0.009467849,-0.05270957,-0.051714603,-4.9743433,0.005547175,0.41607207,-3.7709641,-0.03850541,0.003942385,0.29551983,0.009858388,0.21074751,0.3569206,0.09573459,0.1367301,-1.2797714,-0.51103014,-0.05475209,0.31637046,0.018257715,0.03834865,0.46440592,-0.011857033,-0.1688867,0.039771125,0.09081522,0.009998032,-0.13269103,0.079360165,-0.7559284,-0.06536349,0.5004488,-0.25251165,-0.5868688,-0.019095443,0.18212989,0.1437456,0.32895142,-0.9219175,0.004125753,-0.052900273,-0.057230297,-8.297799,0.17413627,0.1774915,-0.045540333,-0.022099642,-0.45240292,0.025064176,-0.21740831,-0.070034735,0.08185803,-0.0038706923,-0.04379623,0.060066644,0.22888327,-0.012548139,0.007119856,-2.4075847,-0.04226975,-0.17019622,0.47324258,-0.37054032,0.14812008,0.059043672,-0.69021064,0.2106357,0.36229718,-0.11148261,0.3433848,-0.08579935,0.063676015,0.57539564,0.052428294,-0.4754924,0.035670947,0.0033139887,0.22188959,-0.1452257,0.20658515,-0.0606829,0.029953457,-1.4890282,0.028542599,-0.035033185,0.24379916,0.228398,-0.5102016,-0.20221293,0.1929007,0.0008589495,0.16926207,0.14547959,-0.15276803,0.034261186,-0.0048079076,-0.050798774,0.20698762,-1.2157586,0.11925576,-0.21189964,0.38514864,-0.17109929,-0.030114584,-0.1395678,-0.095193215,0.23302686,0.11358262,-0.09599256,0.2653798,-0.019279368,0.11722189,-0.006090869,-0.051514078,-0.016136384,-0.008244855,-0.06281092,0.10266609,-0.03061723,-0.003446034,-0.5924208,-0.100393385,-0.023738258,-0.035416543,-1.1235446,0.06914514,0.09455551,0.011544932,0.5351718,-1.9688064,-0.121727675,0.371564,-0.008273723,0.632952,-2.491589,-0.04492361,0.64740676,-0.1307029,-0.604725,0.09954983,0.25523666,0.1227818,0.3313043,0.0047344556,0.1911311,0.0021305305,0.3032793,0.2092576,-0.017595476,-0.011011723,-0.2755091,-0.09647487,0.07688316,0.21935445,-0.14036378,-0.07934549,-0.1932964,0.039139092,-0.112251826,-0.857983,-0.04275478,-0.09179332,0.12458517,0.022970902,-2.0063946,0.12877081,-1.884735,-1.9436249,0.18034302,0.030587088,0.21581507,-0.024668867,-0.0009908086,0.005752112,0.1386245,0.025177833,0.04938964,-0.13993408,0.21474345,0.24440727,0.369745,-0.10468803,0.012450036,0.027941544,-0.0129205985,0.23889208,0.17631857,-0.31063718,0.07040477,0.02186145,-0.052460488,0.02513423,0.31553164,-0.011742708,-0.41273037,0.019867701,-0.369035,0.53764254,0.16717876,-2.290684,0.014716476,-0.49617255,0.76952285,0.0058933976,-3.7123516,-0.29433215,0.3687345,-0.018225035,-0.6534857,-0.005233986,-0.1284256,-0.09758937,-0.03894982,0.06796638,0.01783057,-0.010744561,-0.65113044,-0.5252499,0.36652884,0.045714848,0.18315418,-0.07829927,0.22390892,0.44882768,0.46670717,0.68600667,0.12930499,-0.009476852,0.135965,0.03506193,0.12054137,0.24882108,-0.04015606,0.22101784,-2.169416,0.36493167,0.16466129,0.017234057,0.1448782,0.21290174,-0.077657156,0.05204884,0.026904782,0.061048143,0.14667562,0.16778955,0.057336688,-0.09827683,-0.014893977,0.15116233,-0.06320443,-0.019025482,-0.18870726,0.0050953375,0.19558369,0.15662709,-0.015984436,0.06339416,-0.34665805,0.10804508,-0.24770978,0.011891117,-0.06997973,-0.092541724,-0.0054614455,0.049258485,0.032907,0.029479414,-0.28544217,-0.18715753,0.02635851,-4.5595655,-0.0138181895,-0.03879961,0.028659038,-0.2902797,-0.29726753,0.36830935,0.14470626,0.19559751,0.5683017,0.013267888,-0.0072518634,0.15255772,0.22559206,-5.204305,-0.008983293,0.013668021,0.16097338,-0.36128584,0.14401628,0.16663128,0.19933134,-0.00059358776,0.18393344,0.23826197,0.0063519496,0.249083,-0.025059624,-0.062257413,-1.6580824,-0.10316505,-0.35662463,-0.2125291,0.21057414,0.118592866,0.08334081,0.026847212,0.037963767,-0.053665783,0.11405867,0.38304856,-1.7561779,0.27904367,-0.039588574,0.064837925,0.30202696,-0.10963239,-0.29385683,-0.011826921,-0.030706337,0.015632007,0.0039051743,-0.478343,-0.0012595446,0.008327871,0.5561721,0.15397863,0.0048011313,-0.046872508,0.2463347,-0.8363744,-1.3851348,0.024088854,-1.3319468,0.5129662,0.18857545,0.19958147,-1.0701061,-0.026220078,-0.29393977,-0.02582744,0.1500182,0.13399653,-1.2440232,0.2383262,-0.012930641,-1.425614,-4.0447545,0.011073907,-2.7680233,0.53090763,0.22778417,-0.06929131,0.09108906,-3.2308862,0.5609766,-0.5554337,-1.3361025,-0.060300823,0.046567474,0.7472667,0.20879759,0.0020898655,0.12595718,-0.4880076,-0.14084576,-0.10750801,-0.67277837,0.14341019,0.5074505,0.5995515,-1.4439597,-0.30990404,-0.0019577665,0.43595693,0.095466696,0.13891341,0.0147317685,-0.024547674,0.088834606,0.121534966,-0.07910651,0.006702082,0.06731405,0.26124677,0.21983923,-0.0013346177,-0.25027555,0.2014448,0.55907524,-0.11277039,-0.346642,-1.2157718,0.22038127,0.2954776,-0.85141814,-0.009418658,0.016771853,-0.40660104,-0.005833047,-0.39272237,0.38481864,0.022623835,0.2664712,-0.08647805,0.014624369,0.20181495,0.17625158,-0.12863515,0.025437735,-0.03341644,-0.099160776
1.1759467,-0.7099445,1.1562243,-1.0294467,-0.057045754,0.064902574,-0.45915177,0.56029755,0.54147786,-0.81047684,-0.17952976,-0.47853363,1.3853317,0.42155495,-2.4350896,-0.33685023,-0.581749,-0.099566035,0.5506335,-2.2162173,-0.12830172,-1.2024833,-0.52372575,0.15031943,1.279414,-0.20272873,2.4535675,-0.06633385,-0.31295094,1.0664403,-1.2485045,-1.0917039,0.5409499,-0.44320974,4.792112,0.74642336,-0.6339557,0.9176031,-0.5285565,-0.27661356,0.14710617,-0.43573067,0.09315886,-0.05912438,1.3950049,-1.3138986,-0.12942834,0.50189096,3.1620126,-1.6560901,-1.9291536,-0.33935678,-0.23574108,0.13698214,-0.16754603,-0.15835935,7.833969,-0.16886316,-0.030670697,-0.17712434,-1.0419291,-0.05614003,0.81639886,-0.7636613,0.67685276,-1.1621646,3.221228,-0.23578641,0.29556516,0.67125213,-0.017521717,-0.9914525,-0.13244677,0.63855296,1.220665,-0.2567427,-0.5646357,-0.31896523,0.021591628,0.26785448,0.97005814,-0.2880939,-0.73367375,0.58266646,-0.0882293,1.9552339,-1.1919365,0.2742293,-2.695439,-0.26146057,1.1394508,-0.18221264,4.689966,-0.4549519,-0.117020026,1.9440875,-0.24897616,-0.96802825,-0.23057178,-0.31843942,-0.38150668,-0.12817445,-0.17242727,-0.13770469,-1.0703648,-0.7452461,0.05091306,-0.2670256,1.043592,-0.33134264,2.4371023,0.7739545,0.9721411,-2.1792274,0.6404312,1.7375523,0.015876168,-0.48782623,-0.17094083,-0.13135856,0.15466474,-0.1965735,1.829722,-0.17303233,1.4047219,-0.2864595,-1.5936038,0.5884561,-0.30190203,-0.22013983,-0.29951474,-1.1242818,0.9598015,0.2706397,-1.3441619,-0.4309191,0.96002024,-0.22405706,-0.20628996,-0.32164404,0.8981995,-0.43084374,0.600628,0.118019365,-0.23269151,-0.21253036,0.28703418,0.22025846,-0.19443206,-0.2511655,3.361257,-0.5194457,-0.09644289,-0.19997165,0.62377495,-0.21222629,-1.7205715,-1.1070722,0.014238226,-0.2932317,-0.4119901,2.1374032,0.3379309,0.82189345,0.96015704,-0.5577843,1.1919768,-0.052184597,-0.6079174,0.020612665,0.17280298,-1.3576158,0.2308646,1.2724075,0.98640627,-0.12277447,0.6919169,0.13686731,0.21466485,-0.1561604,-0.21169166,-0.7161831,0.16654186,0.16183242,0.8812566,-0.30091578,0.26658127,-0.5935381,0.61771464,-1.090609,-0.42265236,0.8345969,0.9973824,-0.6707212,-0.32929277,-0.02941436,0.753109,-0.37144208,7.318185,-0.057388254,0.08713807,-0.76279366,-0.23177505,0.9986962,-0.096904606,-0.9733017,1.4996068,2.2937653,0.9094604,-0.44380915,-1.4535084,-0.7114425,0.081582256,1.3632976,4.7501054,0.4195655,0.26955578,-0.0704865,-0.19125585,-0.3749368,-1.3157603,-0.5135853,-0.2020005,1.0113184,-0.45068094,-0.0035589605,-0.15472287,-0.25550273,-1.0828573,0.015367759,-0.39611956,0.18461323,-2.1702423,0.32637265,-0.2538236,1.0696176,0.7158933,-1.3642286,-1.091125,-1.2715794,0.015300703,-0.3202332,-0.66713387,0.8912018,-0.20128411,-0.3117551,0.15293898,-0.27779302,-0.11866455,4.116653,0.048287194,0.466037,-0.53746915,0.8616575,-0.19103155,1.0968051,0.020136692,1.6896235,3.1798065,-0.41655663,-0.24216723,0.104567535,-0.26448667,1.115594,-0.806398,0.15513876,4.322543,-0.19710381,-0.9753658,0.5399373,2.5223703,-0.40555698,-0.1029062,0.7735873,-0.7462621,-0.82132536,0.024937455,-0.2858669,0.4826116,-1.0589591,4.9846425,-0.45796278,-0.22285967,-0.18046726,-0.5020794,-0.9992014,0.33547917,0.9101649,-0.051152226,-0.044425733,-1.2313306,0.75404716,-0.20002683,-0.14320679,-1.7732213,0.7118944,0.82097703,-0.78858924,2.0826902,0.14818132,0.61557466,0.24655522,-1.6807636,2.7744112,0.20771407,1.0369312,-0.1649873,0.87311226,-0.62602097,-1.3153522,-0.08078122,-0.7910059,-0.17390865,-0.09339037,-0.20724289,-0.20439036,0.11369781,0.49459136,-0.16134131,5.7652507,0.053390495,0.5087753,0.16160178,-0.9228226,-1.2931111,-1.9879507,-0.068846375,0.5111017,-0.14337777,0.6524955,-1.4419914,0.38097215,-0.70996195,0.12066571,0.6807528,0.8236624,0.4567551,1.6148553,0.6721177,1.7030766,-0.21281828,2.6833866,-0.17001311,0.66582954,-2.0619404,0.9261144,-0.045529183,-0.103141695,1.1680144,0.020554328,-0.104329236,-1.4929631,-1.0346909,0.6845219,0.37854004,0.12203846,1.8795127,-0.7507934,0.8834144,2.0282063,-1.1694479,-0.13060896,0.01166036,-0.2123188,0.41381314,0.8052545,0.1400258,-0.6023664,-0.69305444,-1.5823448,1.2963897,-0.9884429,-0.122056864,-0.23568104,0.77987695,2.4714668,-1.4711728,-1.6529249,0.4583495,-0.9089618,3.328986,-0.047856573,0.66742885,1.567954,0.7100239,-0.02449884,-0.31543142,-0.042571247,0.829809,-0.33495945,-0.49708214,-0.88055944,0.002527848,-0.5764012,-0.33602718,-0.3098598,2.2592144,-0.4123683,-0.7431364,-1.8950579,0.061815754,0.83290815,0.4439942,-0.6723236,0.8518563,-0.243082,-0.2774762,-0.8640371,-0.029950969,-0.4129177,2.5600436,-0.62687606,1.6233832,-0.069051124,-0.2394044,0.5895407,-1.0315006,0.6861332,0.8743557,-0.18379262,-0.080112316,-0.10283409,-0.2847562,-1.5887325,0.27592134,0.5009948,-2.4328032,-0.7298219,-1.142932,1.1488332,-0.059445575,-1.9993589,-0.69447047,0.24203295,-0.598323,0.26871973,-0.21245758,-1.69841,-0.084168114,-0.58424604,-0.14395526,5.544349,-2.281132,0.4197878,-0.8977427,-0.06337175,-0.1304361,-1.0860893,-0.33767232,1.9393849,0.40405628,2.4270616,-0.4847674,-0.8049359,0.7709173,0.10774299,4.3322206,1.3734956,-0.4849504,0.5731886,0.8347591,0.60424227,-0.33425346,1.5604188,0.73734486,-0.509275,-0.13526481,-0.44240755,1.5353215,0.07743798,-2.6007013,-0.8820035,1.7935921,-0.20980196,0.30652457,-0.69613385,-1.7528275,-0.10600053,0.5728342,-0.7933013,-2.7322676,-0.24629523,0.042042293,2.3209736,-1.2126064,0.66778684,-0.012269254,1.1249717,-1.365784,-0.28163308,-1.985205,-0.49517196,-1.4475604,-1.7817324,-0.3030601,-1.3617319,-0.14845818,-3.1723597e-05,-0.38053194,0.4060278,2.2549956,-1.4830762,0.4161195,-1.7534817,0.07351601,-0.17212225,-0.64709884,-0.84816843,-1.5266414,-0.321281,-0.27616385,0.84434474
-0.77559483,0.019160956,-0.4314713,-1.0427496,0.23317388,-0.016868873,-0.9355448,-0.03491008,0.5963011,-0.8339201,-0.12434149,-0.52016973,1.4280345,0.3770428,-2.474946,-0.31759813,-0.59671545,-0.14351584,0.45800796,-2.5040472,-0.18572305,-0.8556024,-0.49229556,-0.12499257,1.2290293,-0.15189436,2.5263972,0.7015673,-0.38884443,1.0626116,-0.94923854,0.33360702,0.11976881,3.812037,4.7883763,0.7417609,2.1994543,-1.2554152,-0.53813237,-0.23006351,-0.15875219,-0.021243008,0.6962942,-0.011348853,0.5146696,1.6947001,-0.22848925,0.45056188,4.249791,-1.6606648,1.4688437,2.4471004,-0.24012785,0.26561823,-0.17765026,1.3851938,-0.45624974,-0.22325662,-0.728271,-0.18420257,0.32484353,-0.061096165,-0.3122813,-0.316239,0.7210464,-1.109559,3.2288547,7.63507,0.51777077,0.263959,-0.011302255,-0.9822371,-0.083357,0.6814185,1.2206413,-0.31405178,2.1687407,-0.39062664,0.59919935,-1.2280114,0.7916445,-5.1343393,0.0737468,0.64432037,-0.10567906,2.1692672,-1.1154218,0.6046507,-2.583256,-0.21957563,-0.4934109,-0.5427789,4.682681,-0.12992099,-0.10284621,1.0662386,-0.4538212,-1.0368822,-0.03509066,3.453914,-0.35818902,-0.06961458,0.009498609,-0.12714781,-1.0207579,-1.1716475,-0.061731484,0.03457088,1.0011219,0.16377923,2.6349347,0.57941514,1.1902478,-2.16359,0.5818472,1.7353225,-0.1470172,-0.38975695,-0.15629962,-0.08867175,0.2924396,-0.24222456,-0.7652351,0.33653215,1.517511,-0.23669396,-1.5506754,-1.0065731,0.8057478,0.06673932,-0.018627716,-0.29158786,0.9475745,0.14966992,-0.09860041,3.1608074,-0.3128383,-0.16204634,-0.19617595,-0.315356,-0.40756875,-0.7485774,-1.2146819,0.9113726,-0.15751825,-0.19694327,0.25325283,1.5891476,-0.2027209,-0.25561455,3.3315964,0.02381705,-0.0008593276,-0.17914198,-0.012011657,0.092023365,-1.6832371,-0.9702447,-0.27559587,-0.0945856,-0.39958712,2.31701,0.32777452,1.4232445,1.0772201,-0.5245868,1.1286511,-0.041987717,0.57297355,0.035228334,-0.084995955,-2.3887143,0.23181745,1.2937783,1.108504,-0.13758649,-0.58291906,0.13081945,0.3084017,-0.029661493,-0.15863265,-0.90681124,0.16701186,0.36741516,1.1461821,1.9712127,0.29591578,1.8244355,0.6050207,-0.7502223,-0.3441356,0.20753118,1.089419,1.2698702,-0.17719138,-0.23045737,0.91944826,-0.014497338,-0.2574318,0.046693787,0.40076613,-0.7570628,-0.23260899,0.8901269,-0.029103294,-0.8969434,1.1990323,2.3290005,0.6317959,0.15822557,-1.4611173,-0.8661553,0.07966318,1.2614994,-0.94813585,0.29312307,0.37472,0.025669955,-0.24424423,0.93314713,-1.4993141,-0.8578216,-0.2003502,1.9592487,0.33628076,1.2978418,-0.2232423,-0.91125,-1.0534154,-0.119175166,-0.7651576,-0.8291524,-2.2772288,0.3849873,-0.24061298,-0.63569325,-0.2392974,-1.3570421,-1.1107135,-1.2492994,0.043502852,0.6402706,0.28852355,-0.13890974,-0.21222547,5.370295,0.15581514,-0.27135083,-0.15264839,4.153743,0.04321181,0.4360572,-0.9220734,0.8626808,-0.17530672,1.330896,1.2819839,1.7242997,2.7804387,0.40590757,2.7795749,-0.81462383,-0.2384715,0.94315976,-0.828503,0.18976863,3.623134,0.82550025,-0.9888314,0.48298022,1.1826952,-0.76236516,-0.017992372,-0.2361252,0.12147384,0.765043,-0.20157051,1.1683757,-0.48498625,-0.8787538,4.9187703,-0.36436313,-0.24926001,-0.15737285,-0.53925884,-0.94383603,0.47075346,0.74763495,0.3164382,-0.014633904,-0.76231235,0.9325605,-0.26102033,0.3884333,-0.65528065,0.8403256,1.3635131,-0.800048,1.9378393,-0.6836685,0.17585517,-0.42513332,0.5891211,2.8190157,0.4598154,1.0472629,-0.16468862,0.8012405,-0.72026503,-1.577201,0.004184491,-0.9336919,1.6094184,-0.030550733,-0.2389735,-0.20215237,0.19775003,0.4717698,0.02709659,-0.4539693,-0.035900205,0.53051424,-0.9086718,-1.1915127,-1.4093528,-2.0009928,0.03877893,0.5071861,-0.22690716,0.6906206,-0.55531687,0.40465313,-0.7445574,0.19652541,1.1333301,1.6588683,0.039584264,0.57507604,0.5898261,-0.5214177,-0.20013991,2.4221303,-0.22360638,0.6793199,-2.0306232,0.35389125,-0.061676875,0.765462,1.1731125,0.6761427,-0.0041846,-0.6140471,1.1534747,0.7065368,2.847676,-1.0923111,-0.2370531,0.029554158,0.7255195,2.0275629,-0.22436672,-0.01210043,-0.031575143,1.9942262,0.41259605,-1.5060846,0.02517038,0.67141736,0.1715817,2.718356,1.3033562,-0.51879907,-0.11229684,-0.2936421,1.2826074,-0.25434992,-1.3901489,-2.1887312,-0.2924818,-1.3932801,2.2298093,-0.08624022,0.7269151,1.2139161,0.8611552,0.4113414,-0.24507833,0.5812019,0.8524058,-0.3163725,-0.44638643,0.18207623,-0.09598783,-0.45236737,1.1075906,-0.18887532,2.3802252,-0.12516308,-0.4941058,-1.9027501,-0.019232236,0.7502537,-0.233648,-2.6807282,-1.5633467,3.6641233,-0.3064949,-1.0469705,-0.049505737,1.314459,2.5592377,1.6318382,-0.3539544,-0.22085226,1.9240429,0.8460969,1.6224896,1.0702182,0.75525075,-0.10010632,-0.016939187,-0.027448744,-0.21018736,-1.5872551,0.05344702,0.71890515,-2.3969946,-0.74684215,1.0350673,-0.060967136,-0.5118502,0.19199379,0.018856207,0.26680818,-0.64630514,0.2554556,1.383247,-1.6949921,-0.06191692,-1.2982801,-0.09655339,5.6677804,0.60159534,0.08393233,-0.9384319,-0.09017113,-0.17554592,-1.2508631,-0.25447592,2.0928814,0.61317635,2.931664,-0.46966296,0.06947,0.86990505,0.058868673,4.283188,1.1680242,-0.45874947,0.97223896,0.10124266,0.53686255,-0.16110905,0.6372629,0.3421277,-0.4783129,0.09990801,-0.42865795,0.37720653,0.48087466,-2.3811898,-0.88537,1.7565219,-0.003883355,0.18279563,-0.7040813,-2.1477108,-0.07587391,0.58349186,1.3733511,-0.2814607,-0.17124501,-0.37035066,1.9525367,-1.5574499,-1.0159158,-0.100433625,1.2722744,-1.2597471,-0.2912156,-1.9470992,-1.1516972,0.3919009,-1.7433718,-0.046785932,-1.3675252,-0.29190174,0.19230653,-1.4739071,0.49533486,2.2147691,-1.5031918,-1.4064755,-1.4118038,0.010290198,-0.1420156,-0.49460703,3.206785,1.0070713,-0.3212545,-0.25087172,0.7241895
1.6647528,-0.6950224,2.2020216,2.7133205,0.7189966,-0.008698085,-1.1508598,-0.0074237795,0.6696026,-0.6536922,-0.42422974,-0.45254326,0.8632495,0.3967727,-2.4701757,-0.33759126,-0.63547087,-0.10413749,0.44756308,0.52158624,-0.17093937,-1.1272609,1.4710994,1.3507868,1.3625597,-0.22292408,2.48501,-0.6967977,-0.4209235,1.1352926,-0.99544686,-1.0973125,0.3250581,-0.36675218,4.8183174,0.6959739,3.007086,-1.2392386,-0.54442245,-0.27911836,1.3688234,-0.023276856,-1.0508792,0.0119092725,1.2626661,2.0928047,-0.20659474,0.543907,2.578965,-1.6547246,-1.9830768,2.3984513,-0.29928237,0.55619,-0.19438446,1.4035071,7.6810412,-0.09500256,-0.7337326,-0.17936394,0.50019014,-0.071035534,-0.29072002,-0.29926518,0.6898759,-1.1553626,3.3076572,9.106842,0.6583894,0.011424873,-0.082979076,2.2090974,-0.054086525,0.6926552,1.2899805,-0.30695498,-0.55190885,-0.28453717,0.66415596,-1.1821545,0.86039406,0.7316213,0.1722047,0.64909095,0.05754208,2.1104434,-1.002154,0.7025714,-0.24518216,-0.27480286,-0.0694602,-1.1207731,4.667194,-0.1511533,-0.16016202,-0.768162,-0.3410243,-0.97191036,-0.16174155,3.4144883,-0.3898671,-0.06994916,0.344899,-0.14570335,-1.1350284,-1.1892654,0.038851116,-0.29842126,1.0432903,-0.08101646,2.6612546,0.8250321,1.2336711,-2.0071912,0.5348258,1.7359855,-0.06991449,-0.22383337,-0.11570474,-0.08668266,0.6068124,-0.17653005,-0.76536644,0.5077227,1.4875633,-0.32135394,-1.4028563,0.09891708,0.83920217,-0.22806586,0.26398095,-0.26406315,0.98284507,-0.17564802,-0.27608806,3.1759968,-0.30021048,-0.4634863,-0.20064148,-0.3630088,-0.42589152,-0.40372294,0.556969,1.0355783,-0.1607261,-0.19489568,0.25253654,1.5618459,-0.20461267,-0.24361624,3.3319252,0.5441778,0.023068942,-0.201595,0.14128561,-0.3090722,-1.7201681,-1.1259416,-0.27963752,-0.20682971,2.3418097,2.425346,0.33615616,0.25293437,1.0756987,1.4431951,1.0478572,-0.044957,0.6514513,0.02988509,0.17845754,-1.3110867,0.23002134,1.3479517,1.1851915,-0.1490197,-0.77971226,0.0982434,0.44837856,-0.17603669,-0.032249395,-0.8648997,0.1661694,0.89943385,1.2357042,1.9831623,0.2698927,1.8268603,0.5575521,-0.7911397,0.3092247,0.19475785,0.12507857,0.63511777,-0.07370753,-0.2156595,0.90997803,0.11836603,7.288595,0.010215668,0.3475732,-0.7193806,-0.21297894,0.88958895,-0.029646233,-0.50460863,1.3407278,2.296461,0.72063285,0.14130943,-1.4449494,0.8284026,-0.042098127,1.0278938,-0.8831634,0.28963768,0.15453197,0.04877522,-0.24089673,-0.66972584,1.6642439,-1.2154926,-0.20788318,-0.39598787,0.86584365,1.5276105,-0.22066034,0.053345192,-1.0582951,-0.015220457,-0.5922415,-0.38339227,-2.2090285,-1.7441242,-0.2618648,-1.1652704,-0.26457503,-1.3389904,-1.0916568,-1.4195744,0.054776493,0.64402896,-0.087433144,-0.19396235,-0.16241884,5.4280996,0.13182323,-0.28313679,-0.1511718,4.1150913,-0.055904835,0.4825483,0.48094505,0.861625,-0.18963782,1.1948625,1.3825467,1.6999056,2.8045468,0.465486,-0.23635805,-0.8360879,3.7780983,1.003149,-0.8043195,0.22783631,3.7581725,-0.46416968,-0.5754382,0.46258405,1.2136497,-0.62531006,-0.1603532,0.88903236,0.332005,0.9511163,-0.161793,-0.21223499,0.5006787,-0.76706445,4.13574,0.27635184,-0.24653633,-0.16138615,-0.38589746,-0.90854007,0.5874233,0.93204796,0.05929899,-0.028718503,-0.54684526,-0.73233646,-0.26612693,0.47240794,-1.4284676,1.2741024,1.5460119,-0.8064624,1.9926336,0.32629853,0.23040712,0.9872126,0.35908595,3.0546668,0.48926783,1.1061244,-0.13892576,0.8646088,-1.075234,-1.2738934,0.027470144,-0.9744233,-0.18884845,-0.09930613,-0.23376437,0.67991006,0.18209864,0.5135025,0.031066347,6.30235,0.03250847,0.7411763,0.9686298,-1.1047516,-1.4719226,-1.791957,-0.059924167,0.5085968,-0.075249255,-0.3970389,-0.97133934,0.40891168,-0.7046386,0.08651734,1.2071272,0.76852345,0.3805607,0.7549032,0.5876637,0.24457632,-0.26067355,-0.60799897,-0.21934462,0.69855726,-2.0609248,1.0713232,-0.05699872,0.6466139,1.2521287,-1.1926054,-0.07971866,-1.0368624,1.1605917,0.7399447,2.7598796,-1.1028433,1.8960345,-0.0052345083,0.96212894,2.4336421,-1.2634441,-0.05604912,0.0045035034,-0.20029338,0.41190475,-1.5051132,-1.6559666,0.68935335,0.30010754,2.6666665,1.3373442,-0.4769678,-0.18034233,-0.27552712,1.3431305,2.443692,-1.0904832,-0.06739398,0.18561049,-1.2800997,2.1531045,-0.08174454,0.85308415,0.7906277,1.512809,0.5187023,-0.18637149,0.5854511,0.8301655,0.05226015,0.73335934,-0.99755335,-0.059219398,-0.5787627,0.575904,-0.10249134,2.2462656,0.7561821,-0.6459826,0.6123472,-0.06381978,0.46625018,0.77830595,-0.9761967,-0.31376475,3.7427328,-0.33496955,-1.0657756,-0.022367395,0.5571029,2.5377772,2.0923421,2.4046433,-0.22333272,-0.25474912,1.0423515,1.6303203,0.87670654,0.99654746,-0.09293472,-0.06782719,0.029565053,2.6419096,-1.1150382,0.27900875,0.7794913,-2.3821466,-0.5655547,-0.25697806,-0.04796786,-0.4627362,0.1662462,-0.6905632,0.088019565,-0.59355855,0.18143663,1.3798596,-1.7015531,0.017894411,-1.3725911,-0.023630241,5.7943497,0.5989536,-1.2107182,0.19229059,0.015857866,-0.23433413,-1.2407917,-0.24063234,2.2584443,-1.2172462,3.2948568,-0.47814977,-0.38375258,0.9430786,-2.1268485,4.2753,1.2426778,0.14898403,-0.013639697,0.6359821,0.48472747,-0.19738773,1.2000437,-0.5315518,-0.47711164,0.050083607,-0.4562552,1.6956676,0.6194998,-2.2582183,1.9954139,1.7252928,0.00054584397,0.08419885,-0.6661709,1.0379992,-0.08569608,0.5745025,1.3013049,-2.8513298,-0.013021009,-0.38527757,2.079163,-1.703132,0.51894176,-0.02826812,1.2102733,-1.3909192,0.38415998,-2.0888116,-0.8722598,0.49651673,-1.6655461,0.07939318,0.035339918,-0.3599554,0.115036204,0.12713185,0.50330704,2.2145681,-1.49501,-1.7445842,-0.84358674,-0.029097654,-0.1960515,-0.48138133,-0.21742626,-1.5268369,-1.1878783,0.009821695,0.8305248
0.9053939,0.91315717,0.13281049,0.2748243,0.6574535,0.22895385,0.55598766,0.7202702,0.6347078,0.49958885,0.24544045,0.7349363,0.4903032,0.47372338,-1.1668761,0.056471348,1.2705039,0.025341036,-0.78788793,0.4379824,0.31004,0.7693391,-0.48478672,1.3138661,1.3218099,0.01210376,2.426446,0.86179644,0.94234234,0.8257297,0.617155,0.22901283,1.4965547,3.0394623,4.1693935,0.7476174,1.7652555,0.19697616,-0.13619104,-0.014972921,2.0264864,0.588188,0.66456103,-0.0925079,0.99885666,1.0546476,-0.03148434,0.57734716,2.8481512,-0.24443555,-0.09984705,-0.3724572,-0.005276967,-0.41786316,-0.058188748,-0.14669432,6.3875747,-0.0698109,0.38765353,0.053423353,0.6149293,-0.0016522298,-0.26607358,0.17616051,-0.17228264,0.060344454,0.366625,6.728588,0.63215476,-0.8604062,0.0668991,0.21123008,-0.15892883,-0.53288114,0.51212204,-0.0393276,0.934813,1.8283803,1.2052068,0.82489514,-0.18874873,0.35028625,0.81130874,-0.42129043,-0.0422298,1.2147754,-0.41140246,0.683845,-1.2737956,-0.07391307,-0.056584697,-0.647794,3.9301486,0.67296517,0.0003769779,1.2641495,-1.1370897,-0.0703964,-0.0879508,2.4246767,-0.061544787,-0.04478649,0.18911502,-0.0135397855,0.3200469,0.06173591,-0.012899061,0.03691588,1.0521809,0.3138572,-0.23606353,0.66416967,-0.9727979,0.19039202,0.5868188,1.7093989,-0.1490206,0.5809273,0.03526705,-0.085269056,1.0921509,0.018390175,0.8039514,1.0255461,1.398815,-0.019139806,-0.68874973,0.28904545,-0.37986428,0.042827073,0.5413081,-0.3839194,-0.40982997,0.95996505,0.33819544,2.5742621,1.258907,0.5032845,0.03882955,-0.07338524,-0.04568179,0.1905755,0.6228548,1.4003768,0.029813167,-0.057463624,0.7993738,1.3171707,-0.0821989,-0.04566843,-0.16464816,0.60386723,0.058068596,-0.036851287,1.1097294,0.001329728,-0.23538233,0.4150825,-0.022657903,-0.10394627,1.5264261,1.7515715,0.4475877,-0.29771575,1.1960593,0.80737936,1.0144783,-0.0051472518,0.66300607,-0.10485424,0.93985075,0.3510392,0.22832596,0.448755,0.83716315,0.063256525,0.9862555,-1.0910984,0.41311952,-0.037217252,-0.08085868,0.43169942,0.16801096,-0.55289376,1.208244,0.95980483,0.66956484,0.6462525,0.65056854,0.31654078,0.47966728,1.0384694,0.86507964,0.4063731,0.70373017,-0.03453922,0.9017417,0.63408464,5.4140882,-1.4310513,0.53363526,-0.71949655,0.03565763,0.9799178,-0.05762734,0.45453092,1.3205831,1.1713018,0.8255058,-0.053854354,0.23002288,0.87478656,-0.01910676,0.17276417,3.7173762,0.28017354,0.37080488,-0.07817407,-0.010968143,-0.72782713,-0.20208852,-0.55866677,0.0015653594,0.728269,0.8023232,0.61459094,-0.031249091,1.0883121,0.45177138,-0.074584186,0.7236854,0.79416907,0.395832,0.09421533,-0.10506077,0.6144975,-0.2446888,-0.20929591,-0.5637619,0.47488686,0.09533651,0.76699346,-0.5670002,0.52703273,-0.0060306913,4.5666084,0.4106262,0.0049658655,-0.023181995,3.337642,0.012740597,-0.24703945,0.8725805,0.8641841,0.052458867,-0.72833776,0.71896535,1.1515304,1.5191675,-0.4209832,1.9395384,1.0616417,2.6654341,0.9637873,0.80360764,0.97009754,0.52809125,-0.14088175,0.38841918,0.49922493,-0.5453724,0.39413252,-0.039596237,-0.22214249,0.27204895,1.1208591,-0.10774088,0.17009827,0.61359143,0.50778615,-0.5191625,-0.7167883,0.28182018,-0.0066941227,-0.17601041,-1.2607472,0.50454813,1.0702555,0.892224,-0.088591136,-0.23694661,1.0140053,-0.013358923,1.00293,-0.77195066,-1.0322798,1.4649833,0.50516707,1.5686029,0.39839774,1.1085476,1.7453475,-0.19257767,1.9614742,-0.5596688,0.91353345,-0.042811316,1.1622171,0.10656098,-0.26218957,0.0680633,0.46435505,1.1185647,0.06845329,-0.016668772,-0.045488548,-1.2480079,0.54676586,0.44268376,5.274259,-0.0785136,0.2929289,1.1724743,-0.039764427,0.7747858,-1.8932185,-0.063547365,0.53047353,-0.0047282893,0.92738414,0.1252454,0.40074572,1.4722195,0.30520162,1.2522843,-0.23701294,-1.0314387,0.037962016,0.65345776,-0.7789827,-0.069638446,1.3935018,0.035977278,0.64871514,0.22868367,0.44272983,-0.047473427,0.54838073,1.2278945,0.9346135,-0.067348234,0.32409394,0.81431997,0.7596652,2.7728362,0.072637945,1.9789034,0.5844222,0.41792312,1.5509957,0.24934192,-0.024128815,-0.01825437,-0.16319998,0.4073388,0.46929553,-0.24357393,0.6811763,0.14214486,1.6992943,1.3376424,0.5915305,-0.0054310085,-0.044506654,1.4982512,2.099749,0.2761625,0.20213257,0.39008045,0.7846216,1.869755,-0.06325563,0.63386315,-0.1680129,-1.5769591,0.72487164,-0.088684626,-0.48648944,0.81509304,0.11779586,1.1893545,0.50172216,0.015679315,1.1405159,1.1350545,-0.10272846,1.883999,0.6973547,0.37274688,-0.07465103,-0.091425754,-0.13596539,-0.07562368,-0.75270844,0.9913689,2.3532298,0.030649606,0.26703617,-0.04244043,-0.41841236,1.8716702,0.7848514,1.5084054,0.06713649,-0.086249,-0.6185602,-0.2835219,1.062342,0.36840603,-0.069146655,0.04237447,-0.020199222,-0.25107542,0.046574704,0.55706406,0.6440458,0.24616018,0.48175237,0.58587927,-0.400236,0.45914266,-0.7848584,0.10333758,0.09343358,0.79447186,0.29943022,0.8033684,0.15275967,-0.08660711,0.062100936,0.0013770434,-0.12610568,0.24663748,0.21238826,0.5534235,-0.02465535,-0.6954458,0.26102313,-0.13892381,1.1828634,0.6332362,2.756497,-0.06641896,0.08939283,0.08684101,0.3649906,3.7362826,1.0132786,0.052607723,-0.15940362,1.7482163,0.56885654,0.060262628,-0.36924312,-0.071985506,-0.014796444,0.033812925,0.28484225,-0.30818582,1.0376827,0.085474186,0.4465873,0.9200165,-0.07717275,0.28349456,-0.32510668,-0.15690555,0.0116589675,-1.6040701,-0.6666845,0.43345305,0.035008747,-0.07468818,1.8145481,0.3067145,0.50371504,-0.092098385,1.4085455,0.45051444,0.37258065,-1.2488855,-0.6333819,0.33208862,-0.35336602,-0.029688265,-0.28307045,-0.2384597,0.16314031,-0.4913174,-0.7978608,2.1055715,-0.1448807,-0.72700506,-1.2114561,0.04557813,-0.082957596,0.47861907,1.4581567,-0.42327857,-0.003178026,0.05978637,0.7403658
1.2024405,0.9247053,0.5838571,1.7643546,0.64577895,0.22576316,0.5722422,0.7350363,0.6314993,0.5030082,0.16587703,0.7767251,0.39359838,0.48114452,-1.123313,0.07617755,1.268169,-0.067876354,-0.77685475,0.4184475,0.2723201,0.7461135,0.28233278,1.3393828,1.282454,0.047988866,2.3887937,0.8346724,0.9161813,0.77817863,0.6978343,0.23092769,1.4936063,2.9935298,-0.3633883,0.74219793,1.6701348,-0.13356413,-0.065608636,-0.019764287,2.0508194,-0.47541487,0.6740117,-0.051110104,1.0237563,1.0001972,-0.09491831,0.5828731,2.3773737,-0.12776786,-0.11392205,1.605996,-0.028032321,-0.5006876,0.010938671,-0.11108228,-0.27092648,-0.07196961,0.41077608,-0.0038169809,0.6264533,-0.08980742,-0.19380112,0.139881,-0.03861017,0.08527099,2.307396,-0.11532683,0.6771962,-0.9342114,-0.03207203,0.20617342,-0.15071075,-0.5346226,0.54667914,-0.037678726,-0.5482322,1.7935858,0.8161291,0.85939205,-0.21366161,0.32182226,0.80781645,-0.42144516,0.008156933,-0.2897501,-0.42415157,0.68975437,-1.3240113,-0.10698551,0.0010844492,-0.8449282,-0.7530872,0.6595029,-0.026548248,1.2905172,-1.146494,-0.052918863,0.028529877,2.2319086,-0.03370203,0.022676528,0.15631157,-0.014496875,0.32682446,0.0642923,0.017299624,-0.073637955,1.0501012,-0.29470587,2.0429165,0.934372,-0.9571391,0.17169286,0.58394426,1.7406468,-0.1213241,0.57767504,-0.059304025,-0.06687519,1.1349702,0.03147824,0.740813,0.98386836,1.4127676,0.0031264406,-0.7469707,0.2892393,-0.4342489,0.012731502,0.5031576,-0.40047768,-0.26272,0.9256272,0.33082995,1.6983908,1.3755987,0.49313495,-0.034789,-0.012715833,-0.16728857,0.19527361,0.6334405,1.3791811,0.016695138,0.0031910625,0.79182863,1.3443927,-0.017710155,-0.048275195,2.9181614,-0.5278852,0.044371594,-0.008991967,1.1356409,-0.020402411,-0.27780956,0.3719501,0.01770791,-0.10488291,1.5350626,1.7317877,0.45679045,-0.2583266,-0.29781336,0.8310789,1.040018,0.023334032,0.66435754,0.06822985,0.94004524,0.32995385,0.23289217,-1.1896548,0.8189588,0.07008782,0.99263066,-1.1063346,0.3990946,-0.010785014,-0.07430869,0.3976419,0.1655149,0.23484913,1.2278825,-0.34548542,0.6386364,-0.6509567,0.6116968,0.3191826,0.4938477,1.1253065,0.86645925,0.42063224,0.9937764,0.005792343,0.9311187,0.6453449,-0.26874974,-1.4263548,0.5384174,0.004544788,-0.03765568,0.97968155,-0.039323144,0.43232435,1.37325,1.2715187,0.8704059,-0.16036452,0.23142926,0.87224334,-0.057534616,-0.7857843,3.4173143,-0.6801693,0.37222663,0.055631854,-0.09302506,-0.6702655,-0.20980951,-0.2376684,0.01475694,0.7090208,0.8210133,1.1847186,-0.09084297,1.1058651,0.44079238,-0.053127993,0.7129936,0.80674374,0.38708967,0.080051295,0.025322458,0.5601433,-0.265272,-0.16522898,0.43610996,0.4520983,0.096778244,0.8196807,-0.35714817,0.54811996,-0.08808791,2.1077328,0.385277,0.025578309,-0.03232056,3.3564935,0.04739651,-0.24895152,0.82782775,0.86228526,0.057182997,0.8055514,0.90750706,1.1931635,1.4772911,0.68187916,-0.058214355,0.96244055,2.7902617,0.9812479,0.84067506,0.9558669,2.7342448,-0.5458385,0.41103622,0.4953235,0.9018517,0.39991784,0.01774961,-0.14216428,0.25976133,1.1533833,0.015441536,-0.29845038,0.7359481,0.5339935,4.003494,-0.70456636,0.26499194,0.023672309,-1.2279516,-1.290193,0.50099975,1.0724047,-0.2959446,0.068496615,-0.24069,0.98927945,-0.07842799,-0.16357048,-1.9019611,0.41563576,1.4911513,0.50975835,1.5927885,0.37732315,1.1382189,1.6629093,-0.19776063,-0.052721974,-0.5383791,0.9139824,0.03462717,1.1367435,0.098314814,-0.27162293,0.024010422,0.41398332,-0.13630778,-0.09476945,-0.040254947,0.118452094,-1.2464236,0.54709435,0.44418073,-0.4610405,0.053726796,0.2866868,1.1653761,-0.10738112,0.774779,-0.8357487,-0.08986454,-0.25218123,-0.07102522,0.91846985,0.1030594,0.39309728,1.512247,0.31991526,1.3394235,-0.45509258,-1.0373406,0.018795373,0.7319636,-0.771088,-0.09406949,1.3921818,0.05328151,0.64658284,0.2119406,0.47899494,-0.10260495,-0.24688655,1.2197247,0.9835786,0.08025116,0.33457825,0.7202311,0.7424818,2.627519,0.115434974,1.9623569,0.58925927,0.41783,1.5336282,0.19232573,-0.020749124,0.07727387,1.0676054,0.41273218,0.54636115,-0.08977324,0.694211,0.13159063,-1.6032494,1.3273329,0.6057063,0.034434337,-0.03466799,1.4855245,2.0738919,0.2686513,0.1874158,0.39518902,0.71192175,0.8021882,-0.04630361,0.65598255,-0.19718832,-1.6474727,1.3257415,0.013570201,-0.47911373,0.8007712,0.14078866,1.174213,0.5617509,-0.04692696,1.1133083,0.55641985,-0.15262964,1.9337549,0.21024251,0.27640823,-0.085877694,-0.10426957,1.089518,-0.043946538,-0.72865045,1.0634265,-0.42516434,0.07744856,0.19761845,0.0030371097,-0.39561546,-0.73973644,0.8824092,-0.38624302,0.047217537,1.5773106,-0.6083696,0.3710519,0.6040436,0.31592458,0.025091806,-0.06666728,-0.010584444,1.4458078,0.08861771,0.4725023,0.6246661,0.23707591,0.49385148,0.5317765,-0.5436687,0.45022348,-0.80994135,-0.69576824,0.08827548,0.8027861,0.29569575,0.8299871,0.15067022,-0.0016500998,0.09370316,-0.011832494,5.155261,0.22031604,0.21910559,0.5649449,-0.09497381,-0.692092,0.2430273,-0.11989616,1.1926731,0.7084571,2.817318,-0.08772761,0.010246399,0.04707645,0.34899744,0.3257926,1.0470701,-0.16286239,-0.18439849,1.8298528,0.55368996,0.056611784,-0.2623031,-0.040102363,-0.06876758,-0.0044434597,0.2792744,1.3866591,0.99210733,0.057958312,0.4221588,-0.16970961,-0.048878778,0.2830141,-0.3522652,-0.17610572,0.0050627575,-1.5923405,0.2723058,0.41123375,-0.015319649,0.055874746,1.6518855,0.2821233,0.5933894,-0.05405753,1.4090354,0.44481844,0.35586828,-1.2629557,-0.6676228,0.34393752,-0.38149118,-0.014171213,-0.2852901,-0.31188327,0.14381889,-0.47353593,-0.79265183,2.1474295,-0.13044034,-0.3753709,-1.1849197,0.043158866,-0.016925562,0.49197435,-0.12975025,-0.45491445,0.05435179,0.045244362,0.8439125
