0,1,2,3,4,5,6,7,8,9,10,11,12,13,14,15,16,17,18,19,20,21,22,23,24,25,26,27,28,29,30,31,32,33,34,35,36,37,38,39,40,41,42,43,44,45,46,47,48,49,50,51,52,53,54,55,56,57,58,59,60,61,62,63
0.2537119,0.02677622,0.14327994,0.23910008,-0.17293137,-0.00022507079,-0.061367963,0.011592836,-0.042176947,-0.20358856,-0.36443755,-0.42636153,0.35844243,-0.14619188,0.18430117,0.010574696,-0.13583356,-0.049517527,0.17283046,-0.4295654,-0.19077878,-0.17380376,-0.38541824,-2.00632,0.02225079,0.09369541,0.1809722,-0.30127564,-3.4643664,0.036634207,-0.06999534,0.1847048,-0.11131228,-0.15645307,0.2599352,-0.54981136,-0.09861918,-0.79690635,0.2975825,-0.30921373,-0.5792204,-0.17188887,0.26916993,-0.17960185,-0.025638528,0.16117913,0.037792057,-0.085702695,-0.08044662,-0.36526105,-0.24649811,0.034156624,0.5762729,0.024248658,-0.44627225,0.5603811,0.025568048,0.030671038,0.2986485,0.34412298,-0.1254415,0.7378359,0.2009741,0.016914498
0.20143872,0.04558347,0.047271714,0.20209977,0.081617944,-0.07323558,-0.019929266,1.1152959,0.059169736,-0.1302482,0.074521735,-0.20833242,0.11750052,0.28017816,0.016869377,-0.116321556,0.18508665,-0.10663563,0.2528045,0.092987865,0.011596066,-0.29703355,-0.08942677,-0.055384632,0.0742341,0.28422314,0.1197715,0.19028598,0.47973403,-0.063682415,0.1374027,0.23106314,0.090804085,-0.014707967,0.2291573,-0.20117012,-0.23686913,-0.11554822,0.09334682,0.25131607,0.051757712,0.06889202,0.06626691,0.0043037785,-0.071960546,0.09103441,-0.06757688,0.013292679,0.10761479,-0.0038933689,0.009904835,0.011639077,0.28620422,0.15509178,0.32494134,-0.026417002,0.24169634,0.23659588,0.36564827,0.22655402,0.0887909,0.31869107,0.018377354,0.07591021
-0.16438437,-0.07103903,-0.25338602,-0.02543503,-7.6100483,-2.5540893,-0.23167467,0.0081487335,-0.046011038,-1.4625663,-0.021092078,-0.008420089,-0.92950904,-0.2828782,-1.1373476,-3.0200005,-0.9838543,-0.66741866,-0.7698104,-0.007172658,-1.558942,-0.022624964,-0.053166367,-1.1012572,-3.8841126,-0.7062775,-0.020542547,-5.6098576,0.00067526964,-1.880768,-10.634483,-3.0900228,-0.17819943,-0.56263655,-1.0499166,0.009036957,-4.4720483,0.001120148,-2.0153182,-0.14689668,-0.0039836424,-7.6212893,-0.7068764,-3.18353,-2.3951101,-0.2721613,-4.6746755,-0.20796199,-1.486661,0.0031492012,-0.025812026,-6.1567626,-0.9773652,-6.578076,-3.148617,0.0070665535,-2.2731762,-0.8462431,-0.032230765,-0.28830904,-0.035487656,-0.3506305,-0.26838735,0.036177445
-0.12666471,-0.003952527,-0.4135124,-0.023273472,-0.04109752,-0.030156594,-0.03598242,0.006730918,-0.018067405,-0.02217701,-0.006403206,-0.007502902,-0.18372622,-0.25710332,-0.9854741,-0.0013451616,-0.05164198,-0.1045093,-0.6605919,-0.010528701,-0.06908367,0.00083567813,-0.02728513,0.03518302,-0.30948263,-0.47423968,-0.012387911,-0.029362805,0.0022161934,-1.0384904,-0.21490367,-1.7431535,-0.15472569,-0.08946895,-1.4752241,0.009472853,0.039468724,-0.0014012526,-1.963116,-0.027179075,-0.0026908352,-0.19782275,-0.28429154,-0.096563295,0.05810622,-0.094078854,-0.16061091,-0.07588435,-0.033171777,-0.0007807395,-0.01860777,0.016449522,-0.4830266,-0.036927637,0.06559138,0.0037666475,-0.13188739,-1.9511528,-0.014120986,-0.2116948,-0.019541694,-0.18886079,-0.027717983,0.04208143
-0.07739952,0.025956826,0.08100743,-0.068322055,0.07817239,0.075025946,-0.004393712,0.58530515,0.048862547,0.0037624598,0.028074753,0.33628064,0.05209286,-0.1691815,0.3373482,0.055560295,0.04293524,0.002176661,0.031464994,-0.045004126,0.100582555,-0.053863205,0.28163865,0.18794122,-0.026823064,0.080357544,-0.046594284,0.17408295,0.2125522,0.03836744,-0.02973658,0.1252644,-0.0013193642,0.06519838,0.03105381,0.9278711,-0.06406294,0.6685719,0.046948258,0.11888523,0.7007537,-0.0084882025,-0.12998797,0.0021841472,0.18585627,0.2605439,0.020587653,-0.017784746,0.031009808,-0.09234721,-0.10478819,0.03286959,-0.0652382,-0.0035343438,0.2856984,0.38729742,-0.012302883,0.07294311,-0.005210226,-0.11509719,-0.07319157,0.031716056,0.22024037,0.08863575
-0.04437076,-0.12521257,-0.035343695,0.23413353,0.070664875,-0.18750866,-0.12255955,-0.044802513,0.044711474,-0.08358824,0.24602932,0.2472159,0.05221745,-0.019094964,0.07551685,0.080939926,0.16175325,0.068796046,0.14468832,0.37004253,-0.06397222,0.0054130103,-0.30061588,0.02876677,0.18470545,0.08960371,0.21471444,0.14975831,0.0875927,0.2006853,0.25105226,0.113868184,-0.18068482,0.20044732,0.114806555,-0.6166946,0.05238049,0.1319966,0.073252544,-0.08442511,0.61266035,0.04748265,0.19682632,0.25007322,0.0081158,-0.10960849,0.07701907,0.039248664,-0.037760645,0.16865127,0.3476995,-0.033110242,0.04791141,-0.094955936,0.064849146,-0.55475557,-0.010671825,0.28828555,0.32922247,0.060894385,0.14714347,-0.21753538,0.24711579,0.08949572
-0.10248983,0.038897827,0.102208845,0.090562776,-0.06192924,-0.0009702657,0.073687375,0.1368969,0.3089321,-0.06406795,0.034738593,0.0954789,-0.06736927,-0.029731981,0.13934411,-0.1153717,0.050116897,-0.13226147,0.012689782,0.0007478197,-0.016161548,0.02292791,0.40162084,0.21807005,-0.11040734,-0.03286881,-0.014449998,-0.072837986,0.31779253,0.06729403,-2.9898765e-05,0.23752853,-0.06760219,0.011486715,-0.0020445292,0.51627123,-0.0039624586,1.1770846,0.029158317,0.32161406,0.38194728,-0.056651745,0.015042473,0.023190156,0.15606989,-0.026569705,0.013009689,-0.10509016,-0.0009939728,-0.14661431,-0.29904768,-0.04083424,-0.037872776,-0.08913503,-0.01873227,0.03092959,0.05482684,0.21541212,0.05328761,0.0853842,-0.0525123,-0.07060746,0.112843394,0.15440948
-0.31473982,-0.21458891,-0.2359544,0.35891995,0.26921657,-0.06756912,-0.10385577,-2.7333982,0.22035393,-0.059941906,0.17126618,-0.04706068,0.29947767,-0.14412117,-0.04782441,-0.12704563,0.19784203,-0.05340669,-0.056772355,0.17871132,-0.061708726,-0.09007561,0.11945386,-0.36830255,0.3451418,0.21315417,0.026861181,0.1084272,-0.5442426,0.15384416,0.3738059,-0.17979848,-0.08372281,0.37770462,-0.016109738,-0.99778163,-0.14713325,-0.17280625,0.10292923,0.009873878,-0.54625326,0.3350353,0.3379628,0.34928676,-0.074348375,-0.36450413,0.3375709,0.45004982,-0.06847428,0.19153273,-0.23628685,-0.12397001,0.17842078,-0.1301754,-0.0042272652,-1.4695066,0.11818828,-0.20211923,0.356242,0.35934362,0.07337352,0.03874541,-0.08030993,-0.08352842
-0.3270669,0.29058394,0.3253466,0.25876984,0.6889975,0.043495998,-0.00402886,0.16045557,0.26021808,0.1767489,0.3850551,0.19743392,-0.32394838,0.3328333,-0.076443896,0.21789345,0.06540817,0.38839254,0.17109357,0.08875714,0.27750677,0.14357719,0.5306389,0.5510564,0.31014544,0.16042624,0.21791482,0.34744802,0.23293553,0.4615401,0.087875955,0.15647939,0.0960837,0.46296966,-0.23996677,0.01602016,-0.060075168,-0.71129286,-0.13291514,0.1282078,-1.5124329,0.1590126,-0.037009835,-0.035536036,-0.058005333,0.04766886,-0.010771258,0.008452776,0.033930495,0.3296286,0.71256196,0.43987718,-0.14877307,0.55135196,-0.06574867,0.12834963,0.34869623,0.50342304,0.4197271,0.18637678,0.16977336,-0.37675717,0.27876285,0.09926406
0.0741155,-0.12751654,-0.006006532,0.054910738,0.05083647,-0.13010228,0.0600987,-1.3512249,0.24100707,-0.1406212,-0.16444726,-0.25965434,0.17740865,-0.11249969,0.17354523,0.034940418,0.0048731817,-0.030462014,0.14347097,0.047019735,-0.24997643,-0.19407079,-0.11937693,-0.31252998,0.26761466,0.04610114,-0.07357219,0.015921045,-0.15923594,0.1194064,0.076348364,0.15436316,-0.12719928,-0.09973765,0.27763924,-1.5934283,0.12244551,0.015658373,0.38048148,0.11328798,-0.39272594,0.14935157,0.25949425,0.007267002,0.07116356,-0.17296588,0.15539627,0.11930923,0.05987954,-0.13047586,-0.18410842,-0.10631308,0.34348348,-0.09372116,0.18238968,-2.0055542,0.22964029,0.07910008,0.23646526,0.3433822,-0.14291313,0.23401621,0.15850237,0.0065665
0.34735036,0.115003735,-0.15050651,0.28612193,0.00790395,-0.07700858,0.09772704,0.01222888,0.127092,0.046955854,0.033091314,0.19777644,0.22620928,-0.023750355,-0.017858434,0.08719793,0.08767618,-0.07609706,0.106202796,0.2679605,0.10232719,0.1273959,-0.019233573,0.34666023,0.016003588,0.12157634,0.2889158,0.11479833,0.5241012,-0.05426983,0.059104566,-0.17868978,0.19245015,0.06717569,0.042147804,-0.49150166,-0.01733629,-0.15636204,0.02872307,0.026745714,0.20776689,0.011933702,0.017250407,0.06035226,0.093093105,-0.112957165,-0.081955604,-0.022831563,-0.04298138,0.08285799,0.54715496,0.067746565,0.09929143,0.055446465,0.3019475,-0.18876559,0.05441987,-0.22133324,0.28066787,0.17009182,0.01417609,0.20666055,0.08625531,0.10699747
-1.4677846,0.007816241,0.014654039,-0.11527365,0.010226845,0.025911422,0.0057153767,0.021063145,-0.13099296,0.038232997,-0.026669338,-0.05128529,-0.114064574,-5.9118342,-6.0175977,-0.0017788669,-0.057333887,0.09119653,-1.1643618,-0.043671414,0.013744273,0.018246086,-6.522994,-0.0045884126,-0.0337614,-0.186932,-0.2786848,0.008316459,0.0137074,-0.11603213,-0.031106412,-4.168503,-9.239384,-0.03634968,-2.3331506,0.03377929,-0.01456472,-0.04869188,-0.6325781,-0.030110585,-0.02615111,-0.03825396,-0.06705905,-0.030234447,0.004590471,0.0056775473,-0.011336338,-0.06638939,-0.015501501,-0.041121315,-14.8392515,0.041436747,-0.5220954,0.03892851,0.017882846,0.021048775,-0.004180901,-0.29333076,-0.12753741,-0.2723633,-0.023964552,-0.45691445,-0.34562522,0.01452766
-0.13195856,0.0011593599,-0.011727858,-0.006236362,-0.019334069,0.026984211,-0.028633112,-0.12507346,-0.04284412,0.014212338,-0.013105518,-0.4932268,0.019746972,-0.542963,-6.3040266,-0.010392174,0.026385669,-0.03500248,-0.12598078,0.024503622,0.027085684,-0.023654534,-5.691502,-0.01165261,-0.025853422,-0.031032138,-0.06133652,-0.00058198074,0.008633432,-0.016611893,0.016539529,-0.3857038,-1.4499441,0.014780983,-0.2598906,-0.14229046,0.015540329,-18.362915,-0.115922116,0.015327186,-2.477008,0.014718756,-0.026093885,0.0094753485,-0.010469915,0.004339819,-0.0044112345,0.04816168,-0.015398094,-0.051705662,-0.073593035,0.032758594,-0.098391026,-0.015107882,0.009811094,-0.17136122,-0.005701399,0.034684084,-0.0024541994,-0.033116374,-0.01109679,-0.06837205,-16.323427,-0.022199333
-0.06733022,0.3526746,0.09984281,0.07950264,0.13036133,0.33483517,0.20881611,-0.7900356,0.29170567,0.34237084,0.3388012,-0.03376308,-0.22489078,-0.16106012,-0.10656709,0.12093417,0.02538195,0.19267935,-0.05197329,0.31758064,0.12924625,0.1710794,-0.102254435,-0.23056835,-0.010073055,0.05400455,0.17450008,0.0879297,-0.51174855,0.005323669,0.113728695,-0.3030237,0.04993844,0.14861594,-0.17822504,-0.21833201,0.29837918,0.076906174,-0.14191478,-0.36085007,-0.85426486,0.16100867,-0.07763737,0.13339376,0.055713244,0.17056686,0.18223394,0.16654241,0.10284972,0.38754123,-0.13570182,0.21020354,-0.008444911,0.18406129,-0.18808588,-0.49392685,0.14395681,-0.107983865,-0.025213553,0.07566648,0.23763889,-0.13798402,0.06553601,0.027676882
-0.4767422,-0.086791776,0.022277681,0.24929668,0.35885435,0.10958199,-0.15557423,-0.30464426,0.2121135,0.018699775,0.08904107,0.031305876,0.3658836,-0.2460019,-0.050375436,-0.19698302,0.23050432,0.16015774,-0.06583431,0.12873933,0.039141815,0.0037858728,-0.29846382,-0.101368174,0.296331,0.07911884,-0.036300413,0.2730939,0.37864017,0.21184227,0.21536888,0.059426535,-0.2315584,0.37537348,-0.040938396,-0.2074556,-0.08283177,0.2189552,0.04723831,-0.061462205,0.090370245,0.25092837,0.20354867,0.30338156,-0.16737108,-0.022389775,0.30128953,0.47386986,-0.18377934,0.1558086,0.087123975,-0.12945066,0.08165092,0.025412465,-0.15853263,-1.1035697,0.2243983,0.3139644,0.08523756,0.20754266,0.22780927,0.13036525,0.0025960733,-0.10617888
0.17088021,-0.005397812,0.020956442,0.20863226,0.04858446,0.07150427,-0.056836285,0.18205707,-0.10054171,-0.110882044,-0.044089604,-0.039418772,0.20116876,0.120025,0.11410631,0.046301506,-2.3852917e-05,0.16467424,0.020566711,0.02070206,-0.016701024,0.09873951,0.1093273,0.57084405,0.034477185,0.11542208,0.22420312,-0.18250313,0.6297555,0.007790439,0.054179184,0.037019264,0.12313616,0.036910847,-0.00875871,-1.2855519,0.0067982315,-0.296311,0.13902614,0.31407002,0.0042807395,-0.02384909,-0.023793142,-0.095709085,0.1385752,-0.022603054,0.102281526,-0.011892104,0.019243186,0.051040784,0.6073906,0.09674692,0.1609435,0.09181502,0.12631647,-0.50951576,0.020917198,-0.030815154,0.06593625,0.24905223,0.19121741,0.17055625,0.18818766,0.22025265
0.43286788,-0.1177194,0.27538952,0.27083656,-0.12389166,0.046380065,0.042107236,0.7048041,-0.004919789,0.015674574,-0.19956121,0.028010592,0.17288208,-0.14171626,-0.28100684,-0.03127989,-0.15320511,0.17819385,0.2316385,-0.40006012,-0.019411037,-0.14941849,-0.41707203,-0.31214792,0.03871466,0.16250825,0.43391648,-0.17727101,-1.2719837,0.14287601,-0.11823986,-0.22895578,-0.05827392,-0.2746686,0.14656527,-1.3026699,-0.07062216,-1.4405497,0.14366171,0.11201358,-0.47309676,-0.046454072,0.14474353,-0.15320267,0.1565848,0.20324923,-0.17063954,-0.09844934,-0.051444754,-0.25242338,0.62033314,-0.098560125,0.284953,0.043733366,-0.21124876,0.78642917,0.11931003,0.1756638,0.1282932,0.35408252,-0.16986038,0.53893477,-0.030038022,0.16546822
0.18170649,-0.065769866,0.090847895,0.047701515,-0.14574397,-0.015072997,0.12067227,0.19970052,0.025851713,0.037908845,-0.07861421,0.59606963,-0.17391826,0.2990195,-0.18159755,-0.045324825,-0.112796225,0.07272099,0.13896275,-0.12097443,-0.17237087,0.008802396,0.115579315,-3.2389505,0.041812226,0.09197751,0.530872,-0.04108791,-8.316883,0.16329256,-0.010802381,0.094159454,0.3176443,-0.13694184,0.03370303,0.024608433,0.05924706,0.6594533,0.06461214,-0.2244809,0.4689348,-0.14157262,-0.05783617,-0.0418929,0.04355742,-0.00031839398,-0.013034217,-0.113274276,0.11674231,-0.008562043,0.20525192,-0.078373976,0.11949491,-0.26206648,-1.119831,0.08215844,0.023022028,0.13558176,-0.012424059,-0.0030831732,0.06361912,0.19117187,-0.40630075,-0.061800946
-0.30114698,0.3471178,-0.28978264,-0.050151657,0.14343233,0.15694116,0.22321808,0.13257489,0.11507038,0.18360999,0.32477853,-2.2646716,-0.20535055,0.13818091,-0.60495543,0.2249963,0.026427839,-0.159077,0.18273409,0.19169153,0.28185213,0.38480458,-0.306616,-0.18473747,-0.12664211,-0.010362889,-0.1582541,0.030690905,0.07581965,-0.03099721,-0.1514712,-0.13771877,-0.137232,0.11640971,0.013617966,-0.94876087,0.1683738,-4.417081,0.060727138,-0.28467202,-3.133106,-0.13069443,-0.061727624,-0.046240665,-0.0807169,-0.018773243,-0.040869173,0.057986517,0.18472563,0.30891818,-5.0593977,0.30597794,0.040076643,0.19232136,0.10229399,0.20857488,-0.17478928,-0.1622275,-0.08556377,-0.17352098,0.2785671,-0.16165309,-5.000947,-0.24589382
-0.30344293,0.27109298,0.027822437,-0.010083589,-0.14645459,0.09040964,0.3644056,-0.40787065,-0.13993329,0.11080073,0.023558328,-1.0823414,-0.18071267,0.08353583,-0.35834116,0.34306058,-0.21377671,-0.034671932,-0.0179606,-0.08648936,-0.049062718,0.19901024,-0.3777759,-0.20178474,-0.04452501,-0.06848023,-0.15276764,-0.1160753,-0.3344564,0.05036272,-0.22958314,-0.040223043,-0.059028137,-0.081296176,0.06517679,0.6824175,0.49070993,-0.76957333,0.016049294,0.18558973,-0.2347,-0.20281082,-0.072703354,-0.19193456,0.38254413,0.024761356,-0.12186006,-0.34530556,0.48924267,0.097394735,-4.009127,0.32477227,0.049884282,-0.09742919,0.26655343,0.54039836,0.003371231,0.026766423,-0.21625999,-0.12450134,0.0056248764,-0.043938044,-2.3482661,0.42978024
0.0059656124,-0.15969253,-0.88960767,-0.017689187,-0.00815531,-0.043540355,-0.7278254,0.047738682,-0.019738723,-0.32933366,-0.0391239,0.0024760088,0.025802903,-0.006016576,-4.0337e-06,-0.36741772,-0.008846776,-0.09772078,-0.0035911237,-0.039007373,-0.027711172,-0.11154133,0.008372241,-11.331278,0.014971933,0.014982318,-0.009718153,0.020374225,-0.03182018,-0.041733842,-0.003729327,-0.010478237,0.0098547535,-0.006202542,-0.008979286,0.03957819,-1.400211,-0.008784315,0.008544283,-9.841987,0.0036532122,-0.004876978,0.020110767,0.01259236,-6.32045,-0.40687883,-0.025417518,-0.008711061,-2.4957361,-0.07140301,0.00789091,-0.20073971,0.00020115753,-0.052467983,-0.6887025,0.047156855,0.00086899207,-0.121107966,-0.0039025082,0.011288839,-0.052244842,0.0058882,0.014087557,-7.9140882
-0.1798894,0.033840768,0.2639752,-0.12022269,-0.037017923,0.05894889,-0.14535484,-0.15946035,0.29641026,0.21150821,0.11916548,0.40646002,-1.2114404,0.04907947,0.26007876,0.049084,-0.17863971,0.20684774,0.10059621,0.22473118,-0.3295374,-0.1230622,0.14942715,-3.416146,-0.09910327,0.044516716,-0.008725196,0.034464527,-6.8022494,-0.060905695,-0.017462313,0.15793541,-0.009879765,-0.026127158,0.1008188,0.26946008,0.111154206,0.16467115,-0.040502556,-3.8691292,0.3795951,0.037753373,-0.2314158,-0.12970388,-0.81783545,-0.41135785,-0.07294059,-0.24257062,-0.344198,0.35728157,-0.15579993,0.038542632,-0.27251196,-1.171796,-4.311915,-0.0096727675,0.003611226,0.20209315,-0.12038053,-0.21802807,0.028578963,-0.39164615,0.07104686,-0.38219506
-0.009436159,-0.0032350728,-1.738623,0.0039059783,-0.056870863,-0.089868344,-0.004360813,0.002289863,0.00012703481,-0.012295091,0.0015205623,0.0019022819,-0.09220321,-0.022239733,-0.70419306,-0.09419284,-0.1514375,-0.14784054,-0.03078058,-0.004301073,-0.17822146,-0.0006377112,-0.0053726467,-0.09063253,-0.04642217,-0.24938229,-0.00068651774,-0.0794653,-0.0008271108,-0.6783637,-0.014377644,-2.2691758,-0.37141618,-0.008234207,-0.35153148,0.003871193,-0.25298607,-0.000754855,-0.33980924,-0.7397011,-0.0004119423,-0.1676847,-0.17611362,-0.13856131,-0.21642305,-0.33041316,-0.056144197,-0.0060951435,-0.023473617,-0.00033738394,-0.0015702416,-0.2234884,-0.06641242,-0.090480834,-0.09660941,0.0063626436,-0.26919943,-8.775653,-0.0010390892,-0.018609552,-0.0035127187,-0.1887641,-0.6338599,-0.36786124
-0.07468718,-0.11799447,-0.29397705,-0.029412799,0.18630026,-0.06758301,-0.10926556,-4.084187,0.0147651285,0.021633929,0.18443069,-0.08551972,0.28165045,-0.17676882,0.20228547,0.0008347663,0.2649624,-0.03980258,-0.14646442,0.16767035,0.027327407,0.05232306,-0.05550084,0.2166268,0.08008371,-0.06402393,-0.2475124,0.18947047,0.5141728,0.006890952,0.2504813,0.04400114,-0.25664213,0.3503718,0.10479406,-3.3519473,0.01943144,-0.44057417,-0.005123974,-0.021348082,-1.1014493,0.21591295,0.122375436,0.31313118,0.12718922,-0.15115365,0.19620806,0.30043072,0.033409238,0.046384737,0.15046401,-0.18090862,0.016163213,0.011120457,0.021836523,-0.90100455,-0.024231853,-0.14584874,0.09196469,0.07994174,0.16953032,0.049532767,0.008243162,-0.036129866
0.22709294,0.10115035,-0.32778338,0.3944955,0.10207801,-0.0550127,0.030174943,0.19894871,0.19885921,-0.10084823,0.14271124,-0.00820291,0.20381367,0.45076266,-0.07563532,-0.07512472,0.1630432,-0.2285348,0.3501282,0.35920826,0.0036118673,-0.009271032,0.20464887,-0.9582681,0.011480943,0.30870208,0.4597803,-0.117473744,-2.4643588,-0.20281535,0.2288936,-0.1325865,0.16763805,0.18616381,0.2584653,-0.38463798,-0.15655807,0.11986664,0.066865444,-0.15803158,-0.050912473,0.15205039,0.1789798,0.09828687,-0.09237366,-0.1441315,0.114697665,0.12768166,-0.11390531,0.20368749,-0.22348851,0.04675116,0.1998887,0.011537784,-0.08410512,-1.6504519,-0.060479756,-0.30842325,0.35429883,0.30861542,0.13701594,0.2596106,-0.33710438,-0.06437435
-0.89401984,0.3277305,0.04471151,-0.19164638,-0.09439817,0.14851868,0.36322027,0.22107372,0.103023104,0.23460801,0.22645997,-5.4970026,-0.24711716,-0.023600215,-3.4393764,0.13509136,-0.2286231,0.0016998055,-0.06438417,0.24550271,0.009805512,0.3336283,-1.0308951,-0.21273053,0.054508645,0.07641363,-0.3941312,0.042664424,0.43468013,0.012420438,-0.146935,0.060608506,-0.67803025,-0.22950368,0.055552825,0.78604156,0.25832406,-1.8222755,-0.031219617,-0.2602521,-1.8386313,-0.07931398,-0.12391321,-0.31125626,0.049373563,-0.0407029,0.13702197,-0.25833282,0.1126083,0.33445504,-7.1457434,0.19317843,-0.061366647,-0.07667273,0.13754898,0.5787196,-0.030853871,0.007858847,-0.1859594,-0.19258651,0.07765101,-0.45407322,-2.1076152,-0.07343312
-0.053256582,0.25929165,0.29332402,0.008585772,0.2069637,0.28708422,0.25359413,0.048044242,-0.100776,0.1758885,0.12477844,-0.5101207,-0.12832229,0.016699694,0.019984063,0.26576468,0.10341261,0.2467855,-0.1837538,0.1207423,0.32857993,0.23948573,0.11523598,-0.121058375,-0.057807848,-0.26402658,-0.09704555,0.13701992,-0.6482622,0.093562566,0.11283669,0.16532743,-0.0053233756,0.10574657,-0.15615663,-0.08755008,0.11130537,0.1105773,-0.1310269,-0.030767018,-3.0396762,0.006268127,-0.08186514,0.017884165,-0.019729003,0.30641904,0.05236495,0.031966824,0.15650013,0.10329069,-0.92730296,0.2660512,-0.20220913,0.24885331,-0.0480351,0.052880306,-0.003932076,0.036686637,-0.18463019,-0.22415814,0.12598592,-0.17934562,-0.94501567,0.04225604
0.5494837,0.10996026,-0.004095,0.4741838,-0.13015202,-0.118005544,0.087529354,-0.037547335,0.49558076,0.077641115,0.11506444,0.46470737,0.04774519,0.35063866,-0.42516,-0.10528827,-0.08836475,-0.025164887,0.28992248,0.17894968,0.029421603,0.121298574,0.08142301,-0.784632,-0.1550509,0.19002043,0.81505036,-0.017542465,-1.2729897,-0.11590901,0.13853721,-0.23955783,0.090023085,0.06669744,-0.08430695,-0.70182794,-0.024681242,-0.26691875,-0.24632576,-0.08684246,0.39306897,-0.038381983,0.17069888,-0.050101116,0.032349795,0.009457846,-0.1626522,0.16566807,0.097537294,0.08283599,0.51106435,-0.011249222,0.006023217,0.047218256,-0.12260439,-0.3040166,-0.25239083,-0.012678515,0.4742706,0.3235776,0.21910274,0.20932163,-0.4709298,0.035633754
-0.17330068,0.004459755,-4.034483,-0.14313897,-0.12345674,-0.08324659,-0.0118407095,0.019783337,-1.6466283,-0.08721299,-0.040541127,-0.04548546,0.032144595,-0.6270357,-2.4198794,-0.00096168334,-0.053540464,-1.7539277,-1.8583374,-0.044848256,0.019292345,-0.0066977367,-0.2990996,-0.030975422,-6.388438,-5.28646,-0.17481409,-0.19795729,0.01035532,-2.081121,-0.1757576,-1.3788857,-0.10824933,-0.050525725,-1.2209285,0.027946817,-0.05267725,-0.0081673525,-1.6637485,-0.10181586,-0.011143546,-0.47236532,-0.25009173,-0.10026781,-0.030953234,-0.27698722,-7.8293223,-0.009661183,0.034462366,-0.04203348,-0.095088094,0.0022127472,-4.472605,0.028597368,0.039277405,0.02852893,-1.2142501,0.10948045,-0.15301746,-0.16894189,-0.031015757,0.06035334,-1.030442,-0.040931407
0.10301393,0.08156397,-0.05262858,-0.116781324,-0.010070348,0.12862557,0.1327859,0.5482091,-0.016367083,0.05460857,0.07750417,0.3314504,0.0804961,0.12292501,0.059022464,0.15924042,-0.05208149,0.015862307,0.05311369,-0.037250843,-0.10454555,0.109738745,0.22645658,0.2941395,-0.03306714,0.06732209,-0.008016189,0.11711947,0.37018332,0.05924128,0.012264763,0.15203904,0.08156852,-0.13737473,0.1664305,0.7923937,0.05541731,0.065489724,0.08206116,0.007439182,0.7786005,-0.03298539,0.016467022,0.017872943,0.21118625,0.0888119,0.020382024,0.043152288,0.1627636,0.17240185,0.12884821,0.04112632,0.12913272,-0.01084629,0.17536883,0.64983916,-0.013582287,-0.008954733,0.006699272,-0.001148019,-0.024919843,-0.06198905,0.1617817,0.0412996
0.24620123,-0.07639611,0.20917402,-0.15270753,0.07580722,0.012015465,-0.008150344,0.18098064,0.09259734,0.02369402,-0.13797818,0.34348464,0.12807333,0.07219798,0.0834497,0.03565731,-0.2035622,0.071549155,-0.011019811,-0.0135019375,-0.019881096,-0.074086726,0.04822945,0.33715084,-0.052171152,-0.02105059,-0.09031183,-0.091118835,0.19993019,0.21081404,-0.03425421,0.0008563824,0.3247808,-0.08659434,0.06502351,-0.194563,0.034459252,-0.13386503,0.033276577,0.13876988,0.25849605,-0.11220486,0.059044614,-0.09637209,0.119188264,0.16474347,-0.10495091,-0.002799983,0.17173034,-0.12798525,0.4816285,0.032303765,0.13674054,0.066068105,0.06714618,0.345164,-0.06693253,0.18462308,-0.12315063,0.00509267,-0.025389282,0.19827507,0.279323,0.15575927
-0.053613573,0.023721844,0.0618933,0.0012700245,0.006974007,-0.00455647,-0.022185126,0.015045117,-0.15667966,0.036423393,0.007148188,-0.09785313,0.045930486,-0.14614944,-2.093767,-0.0101738265,0.02736311,0.008561653,-0.058311496,0.024957351,0.01203277,8.5946434e-05,-1.1394606,-0.05497263,-0.043946948,-0.08142658,-0.063390516,0.016229754,-0.09301058,-0.0058766655,-0.009016003,-0.14828075,-0.4326644,0.0102459015,-0.08585579,-0.12537605,-0.015171971,-9.640748,-0.043470453,-0.007910721,-0.50950366,0.025714304,0.03832894,0.0025620817,0.045813758,0.018168166,-0.021680737,0.04851503,-0.009544809,-0.008339852,0.07737617,-0.026990097,0.034965273,0.034091942,-0.000797449,-0.00091777544,-0.04459005,-0.024049945,-0.009101713,-0.008902127,0.019401237,0.009466828,-2.7829354,-0.00242088
0.01520277,-0.35948193,-1.7082754,-0.018618563,0.0020897705,-0.1951006,-1.4327836,0.048254676,-0.026188022,-0.7334641,-0.07499435,-0.0040460844,0.009772685,0.0016766794,-0.0029342861,-1.0774494,-0.038978137,-0.22199017,0.004806759,-0.047648296,-0.19833052,-0.18955545,-0.0057491283,-3.0994074,-0.009347393,0.00069903006,-0.010074426,-0.01187504,-0.10586964,-0.015083296,-0.026735496,-0.0214709,0.0048569627,-0.031365152,0.003228642,0.0268993,-3.0276644,-0.0018428594,-0.0039637447,-3.828876,0.010982113,-0.00028401113,0.02379413,-0.012337733,-8.330949,-0.998634,0.01585538,-0.02588962,-6.2338614,-0.06604237,0.0060365316,-0.5411505,0.0098945405,-0.28565016,-11.676127,0.046717197,0.014124881,-0.06041883,-0.012359655,0.011746754,-0.09470162,0.020510873,0.0044125672,-3.7646391
0.017377274,0.0057783294,-0.51430595,0.033093266,0.006965709,-0.014925496,0.012195129,0.030751258,0.014686512,0.011309992,-0.012674782,-0.014682962,-0.066810384,0.0005251807,-0.5755524,-0.036180187,-0.018978367,-0.0023261332,-0.0061866683,0.012955018,-0.027971262,-0.003442735,0.039287314,-0.100761905,-0.046743095,-0.015174102,0.019046945,0.009599577,0.002156431,-0.24163468,0.024121469,-0.84511423,-0.059465263,0.014796431,-0.010465913,0.035821766,-0.028996892,-0.027807036,-0.09341967,-1.1551659,-0.017706983,-0.051984884,-0.03264665,-0.021855356,-0.026126571,-0.1184223,-0.046392567,0.01906583,-0.014790841,0.008434156,0.0045161443,-0.020807825,-0.064539805,-0.056681715,-0.057241783,0.032644667,-0.07755824,-3.4646528,0.028344562,0.032389972,0.027637979,-0.004377972,-0.13130988,-0.18822542
0.010047697,-0.010655177,-0.89905536,-0.020437233,0.020185454,-0.039404888,0.011226047,-0.01590279,-0.039697044,-0.014146503,0.011202549,-0.0014853908,-0.007053639,-0.07764174,-4.354002,-0.022251861,-0.004334475,-0.22696564,-0.08003783,-0.0069478573,-0.008584214,0.0019344373,-0.14818387,0.032413557,-0.23237354,0.024405252,-0.0001658295,0.010936007,0.027993316,-1.9132627,-0.035272308,-6.0230584,-0.05523242,-0.009487097,-0.10562942,0.051171795,-0.037059624,-0.26479235,-0.3831762,-0.038111895,-0.025029115,-0.07907573,0.0009907614,-0.015210372,0.015823338,-0.20331323,-0.049747474,0.021630825,-0.0058576274,-0.030806497,0.011961863,0.014975395,0.02477727,-0.00426269,0.0023019023,0.011369723,-0.5761974,-3.2979357,0.020531608,0.001453801,0.0075435396,0.02378708,-1.3024307,0.0003682503
-0.25960296,-0.11718456,-0.03834217,0.15741798,0.22574201,0.109974444,-0.22984816,-0.35612652,-0.0090693915,0.04531152,0.014316348,-0.2895899,0.16961692,-0.24912696,0.008284959,-0.086744495,0.27922195,0.23075856,-0.0051251356,0.12996088,0.069081664,0.005149251,-0.08246234,-0.16369717,0.29552814,0.2639596,-0.10264396,0.21258034,0.25650197,0.26912716,0.2560869,-0.0288725,-0.23417349,0.23881245,-0.1412638,-0.48131964,-0.1820816,0.5604072,0.1085568,-0.024883691,0.07156365,0.22819552,0.21041536,0.35872376,-0.20196939,0.010516627,0.2403535,0.19422744,-0.26401287,-0.025222678,-0.17164902,-0.05636178,0.01642626,0.108251914,-0.0014157391,-1.6564609,0.3461544,0.15203305,0.17334633,0.16926135,0.04023464,-0.104679346,-0.23052259,0.0062379655
0.041333146,0.19985735,0.090705045,-0.21938786,0.11496541,0.12922274,0.0899324,-1.0510755,-0.05792311,0.1039983,0.17918386,-0.405433,0.043407124,0.031715,0.03572531,0.24307573,0.025188183,0.12413712,-0.021546287,0.011322787,0.12206874,0.13478675,0.124976225,0.122078784,-0.08210058,-0.16822931,-0.113585256,0.14649494,0.52885073,0.08568729,-0.14343284,0.11974022,-0.051296536,-0.016461708,0.09640575,-1.1079017,0.0774339,0.0476311,0.14906076,-0.30725783,-0.7687018,-0.05027173,-0.15122682,0.1249518,0.009834836,0.25646245,0.07776907,-0.07844365,0.031211067,0.045686334,-0.338835,0.21899946,-0.07663508,0.1228342,0.17881012,0.015838567,-0.08720566,0.084102996,-0.090126775,-0.15822025,0.062395837,-0.09807209,-0.1623081,-0.059793983
0.36889148,0.019016407,0.11636248,0.13453631,-0.08620918,0.0036119046,-0.07692643,0.789086,-0.041032884,-0.1385377,-0.2911159,-0.1980025,0.2850198,0.38376418,-0.08770249,-0.122680865,-0.00094741496,-0.08848273,0.33039063,-0.22714663,0.051574737,-0.11362618,0.014959524,-0.61685556,0.12814079,0.1829914,0.18107297,-0.012897568,-1.5586011,0.06171235,-0.029377194,0.1629115,0.46615487,-0.15009767,0.4115137,0.44386026,-0.066297255,-0.25740764,0.20761901,-0.030755885,0.28821868,-0.22924931,0.07904496,-0.039754756,0.081852116,-0.026541252,-0.10262344,-0.13929442,0.1458152,-0.25982082,0.07441664,0.108539835,0.29665175,0.04696277,-0.19388291,1.4964606,0.035102017,0.0631564,0.0463072,0.13419785,-0.031077817,0.35519552,-0.022439007,0.09428113
-0.12796506,0.066562675,0.22429992,0.07585107,-0.11865545,0.10753477,0.21434823,0.16891055,0.2549596,0.043562684,0.024366055,0.30464506,0.06206322,0.13092002,0.070153534,-0.1503564,0.05731224,0.07197726,0.12684576,0.056292776,0.014594085,-0.03993492,0.5711795,-0.21389124,-0.0054067345,0.022179052,-0.13773894,-0.03521918,-0.3556805,0.08007335,0.1121285,0.048723474,-0.03521498,-0.057333,0.18536383,0.62484586,0.10703366,1.2325201,0.08589314,0.102827996,0.3547605,0.051057443,0.16956614,0.04868091,0.013809368,0.084287286,-0.12849788,0.036118004,-0.041387167,0.2524303,-0.34368813,0.12180584,-0.08265252,0.08485505,-0.003302735,-0.39392126,0.20194837,-0.0011150753,-0.023044882,-0.02472043,0.11555643,-0.058277626,-0.012615072,0.08998647
0.31896988,0.058182966,0.091089346,0.06963513,-0.05259943,-0.09686359,0.11925343,-0.4054019,0.05646005,-0.027220733,-0.08658146,0.44192892,0.05532164,0.21348943,-0.0656525,0.06836027,-0.024273697,0.015706923,0.025390139,0.009416553,-0.032531716,-0.03278024,-0.034241296,0.44668356,-0.0204665,-0.08461867,0.23881926,-0.009980216,0.24710843,0.017270373,-0.06563371,0.030257149,0.36145958,-0.058615558,0.01904292,-0.9293755,0.043813303,-0.2048016,-0.012768394,0.07933588,0.12600894,-0.117916405,-0.12553574,-0.080924176,0.14185327,0.12481983,-0.07289928,-0.024999186,0.12294927,-0.034209527,0.7877536,0.060360674,-0.01636057,-0.006743404,0.21678917,0.28980154,-0.09706293,0.14133814,-0.14712366,0.07521,-0.03163731,0.060628403,0.10869693,0.21390833
0.27601603,0.117591225,-0.2119901,0.4352705,-0.0802319,-0.25021926,0.15147923,1.3589801,0.42638266,-0.0030475354,-0.07032662,-0.43897593,0.30960312,0.3585488,0.09887682,-0.030145306,-0.013484106,-0.14878815,0.30539265,0.028572472,-0.04346214,-0.10384046,0.12396639,-1.265167,0.12884079,0.3405563,0.48655882,-0.08378616,-2.6497312,-0.010221304,0.08593964,0.5187796,0.1704468,0.07215344,0.51922756,0.048220765,3.6304606e-05,-0.30882686,0.27937478,-0.06924258,-0.1762147,0.15855862,0.40497404,-0.018352503,0.08303185,-0.22784534,0.12891555,-0.060680993,-0.09264501,0.04318067,-0.5238157,-0.03452697,0.5761621,-0.12363422,-0.3935792,-0.22949205,0.23944978,0.019275276,0.3287389,0.44965717,0.08969322,0.35418662,-0.3893175,0.0545866
-0.106511384,0.22418945,0.16912052,0.08533722,0.23311387,0.120663576,0.14832027,-0.71867096,0.11561994,0.16115236,0.15343308,0.069947965,0.036675982,0.080364466,-0.08961448,0.18000399,0.019612275,0.23825936,-0.13032706,0.28552473,0.018832901,0.18676303,0.08604895,0.32590088,0.13987161,0.059903577,-0.005100257,0.06991751,0.27241322,0.13097009,0.035449892,0.09245271,-0.096141666,0.06980125,-0.0042574643,-0.102698125,0.14186354,0.08095776,0.12032623,-0.15513045,0.0018226352,0.0674445,0.19621907,0.12710693,-0.10242834,0.04203634,0.14069414,0.21570277,0.17705186,0.11731101,-0.0084339725,0.27286354,0.0057852883,0.038372487,-0.22205839,-0.14582765,0.11633471,0.15262242,0.007233413,0.03426579,0.17050734,0.0552235,0.15418394,-0.033065543
-0.19436467,0.15104419,-0.09411094,0.2180718,0.319163,0.19061106,0.12569529,-1.1005048,-0.015965862,0.11957023,0.36504433,-0.093905434,-0.006300716,0.16439858,-0.023713691,0.038009364,0.4081541,0.10109155,-0.06564666,0.29113722,0.20593497,0.17333983,-0.013705775,-0.17194293,0.050922733,-0.024651838,-0.01937753,0.26526022,0.12778383,0.008212376,0.39507717,-0.023432823,-0.08069227,0.3564215,-0.06484596,-0.256536,-0.13217704,-0.052633557,-0.15253721,-0.25931877,-0.42948171,0.18768375,0.25406274,0.39443824,-0.2142832,0.06502749,0.23855801,0.23524046,-0.20762342,0.25767097,-0.025953026,0.19748549,-0.30471042,0.2803184,-0.22407839,-1.0539838,-0.027209792,0.04141516,0.20379578,0.05081342,0.19848087,-0.17346102,0.028963154,-0.44232753
-0.0014221116,-0.011408149,-12.130424,-0.0041758125,-0.15320812,-0.24688296,-0.009257984,0.009595159,-0.0048151887,-0.012284706,0.00031809037,-0.006589667,-0.03155105,-0.008766162,-0.057611093,-0.28134373,0.008667543,-0.3764455,-0.0021399045,0.001597592,-0.0048278235,-0.006052333,0.0018828338,-0.31184736,-0.15602568,-0.014827622,-0.0044000433,-0.20132256,-0.0023660334,-1.1505662,-0.007809432,-0.45322305,0.0147674205,-0.0033619925,-0.0234935,0.0064608874,-0.022167122,-0.003152176,-0.062992446,-9.596717,0.00083022215,-0.03688732,-0.012673432,-0.0071420474,-0.046848968,-1.2260374,-0.16452833,-0.007167654,-0.019545652,-0.0014889699,-0.005497804,-0.03226875,-0.040824667,-0.1623708,-0.23362824,0.011495495,-0.25919104,-3.1199124,0.0003868339,-0.0030394401,-0.014072893,0.0022465442,0.03044547,-3.9595523
-0.23736854,-0.095285274,-0.8842584,-0.35947272,-0.71065193,-0.8192682,0.0026336855,0.02670464,-1.2914579,-0.63447225,-0.14686395,-0.032901496,0.06484965,-0.5221394,-4.215095,-0.29353544,0.05783306,-2.4383807,-1.6226362,-0.088409975,0.03291665,-0.09053621,-0.15096486,0.35276106,0.08069836,-1.7851819,-0.12896883,-3.4057043,0.006762505,-1.4436609,-3.9322894,-0.56693625,-0.24969009,-0.22948599,-3.059238,0.026163222,-0.29009828,-0.00088431395,-5.3475113,-0.4852377,-0.012881397,-0.34679714,-0.4337875,0.009549192,-0.07549534,-2.577974,-2.7945364,-0.24354395,-0.13809502,-0.018382655,-0.09214459,-0.14353949,-6.5095167,-0.25135314,0.04536654,0.017174385,0.1257974,-0.030177437,-0.35700053,-0.72990036,-0.14954007,-0.16836308,-0.59323305,-0.21678144
0.15078604,0.0151249245,-0.030852214,0.25774425,-0.046891958,-0.16220441,-0.064106524,-0.33252966,0.2750444,-0.07822315,0.17349358,-0.17981012,0.13019161,0.16481815,-0.101665325,-0.06683246,-0.043034595,0.015156749,0.19271664,-0.104511075,-0.10615304,-0.111309476,-0.20005111,-0.13214608,0.22546694,0.23799534,-0.03655826,-0.1290834,-0.90887326,0.001048431,0.24463858,0.14460033,-0.00011940216,0.110853374,0.38779098,-1.195852,-0.16942209,-0.20462681,0.2440224,-0.0343732,-0.078667365,0.0026415347,0.15433119,0.26440647,0.09717583,-0.08456522,0.16406219,0.07334953,0.015613161,0.1610034,0.039179917,0.05440904,0.30171284,0.0148860635,0.16110957,-1.4953133,0.31513765,-0.016161712,0.4834756,0.3395397,-0.023931822,0.19312806,-0.10975171,-0.04535659
-0.0846085,0.47068402,0.19405362,-0.09595337,-0.037130576,0.065887496,0.56079173,0.36004618,0.14573264,0.22019006,0.23340338,-0.11619357,-0.32045737,-0.054778416,0.17550103,0.42917067,-0.11623579,0.008765206,-0.055346426,-0.17491736,-0.027738344,0.36182073,-0.026327426,-0.26998994,-0.10916565,-0.057264477,-0.09475607,0.0759708,-0.76852506,0.011851233,-0.19041246,0.123404026,-0.056590628,0.01664573,0.10793967,-0.12325612,0.5132903,0.18577582,-0.20491865,0.37638736,-1.6273199,-0.019328916,-0.25907332,-0.09437436,0.4500392,0.10242052,-0.19858357,-0.23534322,0.36485577,0.34069434,-0.6110979,0.34729522,0.113004565,-0.019476553,0.18230775,1.0631077,0.0816639,0.16428241,-0.20561591,-0.23360594,0.10250632,-0.08300196,-0.8049413,0.52015954
-0.06435682,0.14518525,0.25854906,0.03990452,0.2772663,0.22327182,0.09058504,-0.18898474,-0.008362531,0.25857136,0.23875915,0.0038118465,-0.0787182,-0.035204083,0.10348197,0.18173514,0.21738914,0.24291907,-0.034699168,0.21809484,0.36212987,0.1834731,-0.17195742,-0.20263317,0.09918247,-0.20066002,-0.058095258,0.34153396,-0.454934,-0.006518703,0.12397546,-0.047515877,0.14089648,0.12273661,-0.13779314,-0.07215125,0.12473338,0.4948755,-0.13485608,-0.26517516,-0.40640926,0.0030875911,0.05859257,0.047573213,-0.06576737,0.3319847,-0.03762985,0.3760079,0.07408876,0.0090293335,0.0027461648,0.14421257,-0.18883349,0.3182006,-0.06933727,-0.4713182,-0.034102626,0.018241128,-0.019956753,-0.06527647,0.17622156,-0.15642715,0.025095815,-0.122240126
-0.20563066,0.009027117,-0.09816138,0.116032615,-0.035300802,0.21918388,0.15790516,0.014140098,0.40258524,0.044696543,0.17210197,0.53891855,-0.2854889,0.13087387,-0.008769188,-0.09272211,-0.04880012,0.0016208256,0.15403327,0.32846525,0.057066508,-0.018291151,0.5279088,0.031725157,-0.040519703,0.15194863,0.04307649,0.06732879,-0.30308563,-0.10568563,0.10710689,-0.0253639,-0.113310724,0.014676823,-0.0029909904,0.36052886,0.10078403,0.574601,-0.056153018,0.102906205,0.7821225,-0.022177653,-0.057019517,-0.057800546,0.08090486,0.00090739626,0.11571197,-0.06591864,0.05541512,0.29777417,-0.3865433,-0.054186564,-0.04762288,0.18938819,-0.020309635,-0.24847232,0.075859845,0.07327769,0.049704857,-0.018805651,0.12124487,-0.21355672,-0.117167346,0.11120161
-0.012335741,0.3705905,-0.23202612,0.06603268,0.033826884,0.12609302,0.35020572,-0.8462499,0.07903829,0.38594827,0.5031797,0.20935746,-0.16656287,0.065994896,-0.13673884,0.24296968,0.0848117,-0.1672795,0.029466596,0.5738853,0.17952128,0.506873,0.006523596,-0.08672758,-0.24732181,-0.022665514,0.06685689,0.013888164,0.35250843,-0.12362822,0.022366522,0.019085025,-0.050299883,0.20235826,0.09044056,-3.583091,0.17494899,0.15670313,-0.09990099,-0.459198,-2.4149036,-0.070247166,-0.111795016,0.02565772,-0.16114205,-0.21718976,-0.052360397,0.09184806,0.18977174,0.5995424,-0.7193036,0.38491493,-0.033905666,0.030666327,0.021961225,0.0061475886,-0.0957234,-0.02616869,0.050335996,-0.016499786,0.5568171,-0.056758296,-0.24408787,-0.38158655
0.00479292,-0.07405288,-0.26195177,-0.009916234,0.01668742,-0.021082798,-0.1905694,0.025314724,-0.0239908,-0.10324298,-0.032871153,-0.0052060983,0.028314931,0.0043986044,0.018807482,-0.016253619,0.028574454,-0.033209324,-0.009317575,-0.024840554,0.023601353,-0.06746393,-0.0027375112,-0.86390007,-0.0055174413,-0.01351112,-0.004992751,-0.0020909286,-0.0048386334,-0.019449478,-0.014639822,-0.0063474677,0.008381307,0.0013698994,-0.012774926,0.014978587,-0.22785366,-0.0042576874,0.010526767,-8.115057,-0.0039333897,-0.0056116567,-0.00884563,0.00034782605,-0.6615024,-0.080975704,-0.018452335,0.009944216,-0.39520577,-0.03586515,0.0061255,-0.010018118,0.007314027,0.049586974,0.057481557,0.02728368,-0.009635461,-0.06526651,-0.0067270696,0.016339855,-0.02871068,-0.004295404,-0.008695535,-1.953755
-2.4956193,-0.015218957,0.17236829,-0.18225545,-0.27303848,0.050464835,0.26832506,-0.11157129,0.0014209803,0.015665518,-0.103018425,-2.2051303,-0.352128,-0.19075784,-3.3303952,0.1377886,-0.41848016,0.012537478,-0.042277746,0.18709008,-0.47336745,0.07266971,-1.4955518,0.34138316,-0.074133225,0.30181533,-0.3549694,-0.027053965,-0.039227802,-0.09597068,-0.16860475,0.2020763,-1.1108322,-0.33373135,0.08218862,1.3339496,0.6012647,-0.058628056,-0.22387572,0.34649646,-0.29932266,0.015537854,0.011249511,-0.28227812,0.2651273,-0.044697747,0.18912758,-0.37868685,0.36062223,0.2243891,-1.1919426,0.05628377,-0.28636855,-0.40097073,0.20748207,0.8683443,0.16699795,0.24767323,-0.18243891,-0.21623123,-0.14119834,-0.75544727,-0.2097005,0.4560001
-0.0068585575,-0.0011790236,-3.9527256,-0.002941373,-0.08490831,-0.08264055,-0.0028958311,0.006305734,-0.0043797134,-0.013949162,0.0014672043,-0.0023175247,-0.03583699,-0.018652905,-1.2782466,-0.017179962,-0.10289285,-1.1023316,-0.03174173,-0.0008055768,-0.09603564,-1.3789322e-05,-0.0049158772,0.012154623,-8.689532,-0.29422024,-0.00041879693,-0.15764655,0.00043742594,-10.264417,-0.022719719,-2.2053535,-0.21273333,-0.009927264,-0.6329486,0.0055273604,-0.114289984,-0.0033174,-6.1667027,-0.13234517,-0.0015878319,-0.21929199,-0.14942674,-0.1276046,-0.03456748,-0.31383288,-0.5634812,-0.0041268333,-0.03429385,-0.002280931,-0.0027647594,-0.09841707,-0.48245233,0.0029066647,0.025928486,0.0060777394,-2.5706277,-1.4379863,0.0033404185,-0.006781394,-0.006891071,-0.13257618,-0.31111625,0.019505996
-0.011375513,-0.008960349,-0.19004431,-0.0025865575,-4.719388,-3.5363822,-0.022154877,8.6290725e-05,0.00059491704,-0.05465436,-0.0056688436,-0.0012440018,-0.4847001,-0.034565993,-0.48488888,-4.4277306,-1.9905677,-1.1483612,-0.0944137,-0.0034807236,-5.723389,-0.009039266,-0.012045565,-3.1328144,-2.2089028,-0.76767343,-0.0047845347,-4.483645,-0.0008023069,-1.1009833,-0.07918953,-1.2056818,-0.22705917,-0.029442681,-0.97563833,0.0070749186,-6.1508403,-0.0014548771,-2.1475465,-1.028114,-0.00087822427,-2.89599,-0.7450075,-6.1937523,-5.323479,-1.0854807,-2.9977412,-0.025154833,-0.13669096,0.0015278122,-0.0046942807,-6.6307197,-0.74155027,-5.7752953,-4.316635,0.005032567,-1.0436362,0.23432526,-0.0012487092,-0.043835223,-0.008519972,-0.36465874,-0.27535826,-1.335109
-0.23453553,-0.17981623,-0.030526081,0.21400818,0.2566355,-0.1385454,-0.18815406,-1.4157118,-0.03707256,-0.2939299,0.028295966,-0.105160594,0.3713056,-0.27290553,0.2093586,-0.03094467,0.32589018,0.043951586,-0.10831861,-0.071672365,0.03365976,-0.2567709,-0.12717994,-0.4805968,0.30539945,0.041094515,-0.30188602,0.15623283,-0.039491817,0.106903516,0.28182694,0.06832698,-0.17455526,0.12216644,-0.019134955,-0.7234464,-0.13854915,-0.4677093,-0.029155659,0.07404108,-0.94095975,0.32219484,0.32258248,0.34922367,-0.024619112,0.020023368,0.24888697,0.1900341,-0.11511617,-0.17448425,-0.12856172,-0.26723725,0.09956043,0.11989514,0.017074425,-2.2071452,0.21826676,-0.11575798,0.27329895,0.2182125,-0.16408001,-0.0009248734,0.18942332,-0.00023702785
-0.12214374,0.11691715,-0.08423108,0.17166185,0.23984182,0.2939468,0.065109365,-1.6181661,0.25466576,-0.0041370923,0.3086394,-0.0031189886,-0.073284574,0.013261221,-0.13565058,0.14869216,0.17243178,0.21840112,0.01948089,0.17655522,0.028822152,0.08820665,-0.16999625,-0.14997567,0.17516741,0.11141786,0.116425805,0.14746422,-0.23548144,0.24815767,0.20408851,0.03183519,-0.17319535,0.26941317,0.11023935,-0.02095468,0.1582591,-0.08322148,0.1386849,-0.20647383,-0.19432169,0.1519479,0.19001473,0.21636021,-0.13725412,-0.0898962,0.26735488,0.17910734,-0.009896075,0.18936186,-0.18082553,0.099708416,0.15415815,0.0029444473,-0.3327608,-1.3653333,0.23638123,0.02973333,0.09964587,0.09761736,0.06884394,-0.0538259,-0.13243099,-0.22007032
0.2073147,0.07362448,-0.053270187,0.34358403,0.045684136,0.05450086,0.030180678,0.33219802,0.3207794,-0.16057222,0.24237338,0.4736513,0.15632635,0.17132425,-0.11326232,0.026091987,-0.0023272773,0.039352987,-0.041681614,0.15309055,0.008484564,0.012055634,0.19453038,-0.08915019,0.04977974,0.09653429,0.4490506,-0.028863933,0.7227953,-0.064564094,0.12202899,-0.12594974,0.07187832,0.08387716,-0.13359006,0.47482035,-0.01248618,0.53547794,-0.06717496,0.06929741,0.4839352,0.05807067,0.122194044,0.12555939,0.08615034,-0.061280936,0.018711686,0.16882575,0.048407227,0.12734915,0.23277056,0.026308805,-0.028875759,-0.034051042,0.08547697,-0.22328149,0.017825218,-0.025812428,0.33405438,0.29757473,0.18468171,0.15799879,-0.12380746,0.08307573
-0.24500787,0.14150943,-0.05713201,-0.34263682,0.3544894,0.16099195,-0.23770164,-0.3473268,-0.0002880711,0.13651706,0.26472458,-3.336063,-0.3001697,-0.12347892,-0.32772446,-0.15611655,0.5076755,0.15205581,0.04882928,0.16168441,0.5256052,0.09011507,-0.18801282,-0.10292882,-0.02828886,-0.14890589,-0.2632046,0.23138687,0.2767167,0.19993293,0.17350265,0.040208567,-0.2568391,0.36451235,0.10055551,-2.3150227,-0.28855595,-2.2533293,0.16088235,-0.09874908,-3.6466494,0.087372586,-0.2750701,0.25213957,-0.19820218,-0.007871209,-0.042195622,0.32667643,-0.15107322,0.0950015,-1.4550177,0.0016202191,-0.11635188,0.492571,-0.09633954,-0.7260012,0.117973864,0.017348712,-0.4685156,-0.54602015,0.2732757,-0.3617476,-5.820204,-0.16259
-0.20030612,0.3244205,0.19384971,0.1276988,-0.18249603,0.3121591,0.038388126,-0.049169965,0.18528157,0.08165741,0.25036526,0.09833953,0.02834372,0.08182529,-0.04380332,0.07366184,0.27783543,0.190711,-0.019604301,0.14698847,0.09215569,0.30018714,-0.020049838,0.21730728,0.07580211,0.029781468,0.17348598,0.29353532,0.1618463,0.16069616,0.2364008,-0.14467786,-0.22114202,0.1381688,0.23802851,-0.008522063,0.11715201,0.20637473,0.0427256,-0.2222171,0.38327196,0.25452584,0.06606023,0.139182,-0.06094829,0.1042661,0.1043102,0.097882114,0.13600166,0.280986,0.034356587,0.12959234,0.031645987,-0.06866195,-0.24319474,-0.2293628,0.17595989,0.18144538,0.049202822,0.054361608,0.15176426,-0.0454797,-0.0435375,-0.21978104
-0.18999115,0.06780214,-0.463763,0.17541099,0.4127802,0.15515412,-0.17339751,-1.723759,0.038422342,-0.056021407,0.34674755,0.021972045,0.058509883,-0.04532696,0.13758267,-0.07509544,0.41445592,-0.046777528,-0.10610372,0.4150226,0.25647026,0.13271524,0.07629111,-0.16774398,0.00063851476,-0.035326656,-0.116797045,0.2759648,0.4752636,-0.20122018,0.32632476,0.00969391,0.0341978,0.46750063,-0.043621138,-1.4430012,-0.251776,0.0995491,-0.088427976,-0.03169392,-0.34653366,0.27615654,0.21687782,0.3560365,-0.1938538,-0.3329361,0.20262946,0.5102274,-0.21618123,0.30829647,0.081059776,0.039385162,-0.12847276,0.15515275,-0.044961523,-1.1479517,-0.07195181,-0.1737563,0.17506401,0.06412288,0.24753267,-0.16454464,0.14282459,-0.26548678
0.23515576,0.0033722038,0.05147084,-0.010737721,0.07572759,-0.05804842,-0.056969993,-1.0808347,0.0032877515,-0.0019845446,0.04012439,-0.20413971,0.23010151,-0.12601912,0.22334899,-0.05857443,0.087912485,-0.029232599,-0.027230108,0.07415557,0.035672493,-0.15022127,-0.25000727,0.25027877,0.2590812,0.062636495,-0.09868546,0.015214875,0.541514,-0.0106575955,0.09822548,-0.0191407,-0.11074562,0.018605867,0.055533655,-1.1216395,-0.10093143,-0.22691803,0.19490214,0.19237742,0.1375161,0.09208087,0.28590018,0.18574524,0.19145237,0.0036088366,0.12046012,0.07803122,0.040523976,0.050189033,0.338225,-0.14880462,0.22088592,0.061176125,0.2003715,-0.2710838,0.10328351,-0.15200791,0.18751916,0.1013289,-0.015381621,0.27174875,-0.05028724,0.14054531
-0.25733426,-0.1683533,0.09311649,0.026041217,0.21683705,-0.0014467514,-0.23296784,-3.4558918,0.22824264,-0.04755023,-0.02497367,-0.15657167,0.28533468,-0.2695563,-0.15717927,-0.056640767,0.15900193,0.17821012,0.0076142815,0.033180535,-0.0024772335,-0.03158365,-0.09252578,-0.28384325,0.340404,0.17788145,0.02470283,0.15756734,-0.33442694,0.23829745,0.37283012,-0.11916412,-0.2444099,0.16214411,-0.09788629,-0.7159136,-0.014663857,-0.89532226,-0.075816765,-0.007884791,-3.2541046,0.21168691,0.26348528,0.16101085,-0.13289507,-0.15703279,0.23107786,0.32263914,-0.085853174,0.04769296,-0.048049808,-0.14360434,0.049742598,-0.054732874,-0.16453983,-1.2515426,0.27441356,-0.013682843,0.19211313,0.11265538,0.06423547,-0.06573617,-0.33556938,-0.021439087
-0.43086818,0.010726078,-0.32142377,-0.09218363,-0.008092466,0.0005659692,0.020830305,0.06921495,-0.41766208,0.00950898,-0.021242341,-0.083831415,-0.048124462,-0.74482816,-1.5280238,-0.0024286765,-0.02275111,-0.1790411,-5.3470397,-0.039946955,-0.0027824068,0.018312952,-0.27808362,0.003267768,-0.5136732,-0.53569704,-0.13560651,-0.012594061,0.026968598,-1.0846704,-0.056276776,-3.9359338,0.23171349,-0.034354154,-7.9117284,0.093729384,-0.0048651556,-0.041570995,-7.9435363,-0.018475955,-0.02463067,-0.07239154,-0.11935997,-0.024558239,-0.00508674,-0.047874033,-0.2010587,-0.008683612,-7.423587e-06,-0.054326773,-0.07874306,0.007144173,-2.1739054,-0.0007032978,0.022163648,0.06278718,-8.263636,-3.5823283,-0.08899378,-0.18922955,-0.0073760557,-0.16363886,-0.0035903107,-0.014839965
0.042291142,0.07159924,0.11828423,0.44837192,-0.31229407,-0.1511917,0.090849854,0.25264055,0.0068866345,0.13337107,-0.0070406348,-0.27320403,0.18072338,-0.29609635,-0.13598455,-0.10009572,-0.18586397,-0.11045357,-0.03340974,-0.10942387,-0.17030309,0.09073864,-0.13196607,-5.126924,-0.06257035,0.038533147,0.21923421,-0.19727078,-0.5477563,0.07709865,0.040927675,-0.0040781475,-0.2506959,-0.019297937,-0.15382907,-4.5808654,-0.042980015,-5.9610543,-0.0045457063,-0.54259574,-0.9671205,-0.019700212,0.17330308,-0.18132952,-0.24922375,-0.04204309,-0.12140493,0.11124499,-0.05483046,0.0134698665,0.062700026,-0.053503238,0.09709436,-0.03908504,-0.42368633,0.21113712,-0.09830233,-0.027388472,0.5309663,0.40437606,0.16539238,0.37855336,-0.5568222,-0.24626632
0.21727733,-0.05110656,-0.015244359,0.11898928,0.13412893,0.22924002,-0.038644575,-0.083877675,0.09590422,-0.07851213,-0.06289798,0.15548609,0.21755348,0.23388332,-0.17300703,0.10190475,-0.10288302,0.13512078,0.20382558,-0.12336216,0.0083153695,-0.009296437,-0.024165783,-0.21113248,0.099364094,0.14831898,0.22544168,0.077976935,0.18686023,0.055767465,0.04722646,0.030799117,0.07852147,0.07756025,0.19156288,-1.8560462,-0.007931932,-0.061738096,0.13035055,-0.046219554,0.433757,0.039400812,0.049702104,0.122967966,-0.067903295,0.051026534,0.155611,0.04411721,-0.17893982,-0.10088295,-0.05736005,0.018903233,0.17059702,0.018352348,-0.04433724,-1.520772,0.03793263,0.0035426987,0.32463247,-0.057214744,0.054694798,0.13015905,0.2222086,-0.015568055
-0.30941892,-0.027971335,-0.011164814,-0.035368264,-0.0090823155,0.00074305956,-0.015298892,-0.037856076,-0.092131995,0.019355536,0.0071076173,-0.47078928,-0.042167626,-1.7521228,-2.9727778,-0.005565864,-0.0018006212,-0.041301854,-0.5746442,0.0058276574,-0.025134467,0.006044167,-7.000966,0.017772796,-0.036818396,-0.12276636,-0.09368843,-0.012044627,0.05541269,-0.15508245,-0.0016468926,-7.1214466,-7.173711,0.000108272405,-2.3505816,0.10277774,0.009649901,-4.658943,-0.60883784,-0.026429512,-0.536258,-0.043804456,-0.03787351,-0.0009945479,-0.034011427,-0.014968884,-0.010762032,0.014763298,-0.00853652,-0.0345073,-0.19464977,0.015249412,-0.22273183,-0.0020579721,0.008371756,0.012131195,-0.123819545,-0.4166949,-0.0125603685,-0.044863123,0.0069566085,-0.11455168,-1.8784211,-0.0065262234
0.2399413,0.08953426,-0.1833685,0.25383472,-0.07975217,-0.031919267,0.080861546,0.45692784,-0.14131212,0.12777643,0.0025676657,-0.35784155,0.38771674,-0.049849696,-0.29461238,-0.0402722,0.09263014,-0.04314782,-0.103452764,0.005379104,0.125719,0.09308949,-0.083781466,0.036341064,-0.17209095,-0.15697522,-0.035399947,0.0041663037,0.23719351,-0.18562073,0.06347817,-0.18010029,-0.022095853,0.13224845,-0.13024251,-8.205891,0.07149954,-7.560468,0.062103488,0.04885412,-1.2249904,0.09021886,0.106068514,0.1321505,0.09933634,-0.011239357,-0.07790681,0.2901064,0.13908987,-0.21821985,0.42334327,-0.0009896401,0.096880555,0.074369855,-0.0016363665,-0.11625328,-0.2065882,-0.1622511,0.19129859,0.2556501,0.017872982,0.28598875,-1.0881591,0.07879288
0.035928857,0.28195053,0.18226106,-0.07901388,0.006450617,-0.031180242,0.2572629,-0.1686761,0.039353956,0.19813024,0.27012265,0.27343675,0.04270734,-0.10569848,-0.08227754,0.21213816,0.19090663,0.14194211,0.037740316,0.11195896,0.11186737,0.04631995,-0.051908508,0.071408205,0.086959615,-0.16255769,-0.19439359,0.11190999,0.077346966,0.020233078,-0.039249327,0.04126696,-0.18399882,-0.06611968,-0.015700206,-0.018075475,0.46233118,0.4531543,-0.114338964,0.057588253,-1.2190856,-0.006967722,0.09155877,-0.047099143,0.110767454,0.13005725,0.27845538,0.03695338,0.2769374,0.1946722,-0.12408057,0.3626112,-0.073133744,-0.02207418,0.014124403,0.5738514,0.093680695,0.014862227,0.053937297,-0.1827318,0.45766684,-0.19527471,-0.28893656,0.24044241
-0.0053723417,-0.008062238,-2.6809466,-0.002445446,-0.6304169,-0.9736186,-0.0092806695,0.0020352663,0.006720081,-0.003985146,-0.0035120538,0.0028684102,-0.08658521,-0.0052704206,-0.04876314,-0.6411352,-0.057292916,-1.2515405,-0.0035291188,-0.0003694382,-0.049555257,0.00023921375,0.00041357218,-0.034169897,-0.24281505,-0.040634017,-0.0042070043,-0.98973596,-0.0040937536,-0.94400877,-0.018105319,-0.24508189,-0.023180204,-0.0048304396,-0.048036043,0.006661017,-0.015695598,-0.0026397118,-0.13284609,0.011807869,-0.004298102,-0.041328788,-0.052929748,-0.046357553,-0.035400942,-2.4459138,-0.37288895,-0.0074369446,-0.012758903,-0.0013024103,-0.0058039776,-0.08051079,-0.110049926,-0.54320025,-0.31348646,0.008059615,-0.2913487,-1.4724581,-0.004673323,-0.0048219515,-0.003698431,-0.021234157,-0.007387335,-0.1482085
0.19120282,0.19992208,-0.08872336,0.26481393,0.13316503,0.05696756,0.20536125,-0.2595313,0.045424797,0.084834024,0.19652277,0.06485272,-0.06296632,0.13415328,0.1765822,0.05727434,0.07264433,-0.088689715,0.16082478,0.1831072,0.023598956,-0.023820292,0.00336896,0.10386092,-0.086100176,0.22161193,0.1509717,-0.04838416,0.7128288,-0.017451914,0.09788854,-0.050703697,0.15919405,0.08511963,0.07411088,-0.42389128,0.13237847,-0.33554497,0.1432793,0.06187461,0.11202991,0.038159538,0.085575685,-0.027800456,0.092617914,-0.018134413,0.033649325,0.04074063,0.10314279,0.26116052,0.36403695,0.069471106,0.18286748,0.11315733,0.28904113,0.03758852,0.13516265,-0.055435553,0.18149054,0.10973132,0.121214524,0.18558294,-0.00073679857,0.036003895
-0.15960166,-0.08398351,-0.08856617,0.12651905,0.047902837,0.026074972,-0.0068173776,-0.49927518,0.019379599,-0.0056401347,-0.019223556,-0.07105457,0.033545226,-0.02503308,-0.45667776,-0.0074746134,0.051220626,0.02882969,-0.067515165,0.07194818,-0.18389809,-0.024922576,-0.23669314,-0.55957955,0.049845424,-0.032747123,-0.032356746,0.01226922,-0.28037232,-0.02206844,0.041853733,-0.036904693,-0.3208773,0.06011638,-0.049329404,-1.2547748,-0.0010297417,-0.86461097,-0.00048078233,-0.7463196,-0.090753466,0.22319503,0.04013663,0.1265013,-0.05904545,-0.0029106492,0.07518905,0.09241046,-0.10222114,0.051232096,-0.21162301,-0.057503678,-0.10403817,-0.10543614,-0.12167362,-0.6363998,-0.020096416,-0.45645446,0.081685185,0.007925636,-0.005789128,-0.29516366,-2.0768266,-0.12486878
0.0024690845,0.294314,-0.037168533,0.23828608,0.15093558,0.16043137,0.32009667,-0.46225268,0.14299309,0.12893388,0.24988693,-0.14739639,-0.010723789,-0.042182524,0.14056803,0.22564293,0.14158031,0.08334883,-0.01044786,0.24468933,0.055869382,0.28102803,0.14376932,0.1645944,-0.036407024,0.07621242,-0.11504408,0.16747263,0.17979312,-0.07589396,0.16679151,0.0847571,-0.001173517,0.13580577,0.06027853,0.30658272,0.19464013,-0.053916156,-0.13140576,-0.10459891,-0.1426429,0.15925682,-0.031506512,0.07193492,0.056392435,-0.008861875,0.037786465,-0.10762064,0.15403122,0.37216553,0.008029333,0.35401478,0.023705827,-0.033829622,-0.11923252,0.1815124,0.02062234,-0.10646591,-0.051147122,0.062077943,0.309557,-0.00906899,0.17097205,0.037292268
0.15217419,-0.10329543,0.22544318,-0.016630314,0.07420215,0.13665055,0.12006306,0.4887169,-0.008200394,-0.14433463,-0.05996411,0.2306922,0.27510372,0.051090755,0.06184391,-0.10559956,0.030653618,0.13880019,0.0212157,-0.17482792,0.18128675,-0.10187789,-0.21412794,-0.026865954,0.04620428,0.017880332,0.15325496,0.051488105,0.3641911,-0.038324118,-0.050706364,0.03726771,0.19139637,-0.21802358,-0.02221924,0.2565346,0.021306802,0.04125633,0.05690895,0.10416106,0.53025967,0.090146735,0.22142333,0.19460118,0.1493272,0.38005763,-0.085831605,0.14586234,0.07496679,-0.1289895,0.46523443,-0.041330922,0.09159464,0.33078364,0.17049019,0.15088509,0.0039810184,0.06416454,0.014168934,0.010585945,-0.17505194,0.282449,0.43124864,0.18821514
-0.042174734,-0.022575703,-0.762988,-0.009427383,0.008056195,0.0140310945,-0.032643966,0.00068935775,-0.021395102,-0.024126787,-0.0077989534,-0.005138728,-0.0131978085,-0.06463536,-0.75905466,0.026346304,-0.015480528,-0.101940975,-0.11176123,-0.0084946565,-0.013155597,-0.0068918834,-0.047563706,-0.057148486,-0.07827208,0.040732265,-0.007569655,0.030300912,0.00039535892,-0.43273568,-0.02986048,-1.4944257,0.041306138,-0.03303499,-0.06848343,0.010092369,0.018907832,-0.004096544,-0.100969225,-0.5479933,-0.002795704,-0.035787635,0.010800724,-0.019030795,-0.0234193,-0.102596276,-0.008065339,-0.03068538,-0.05722168,-0.003162497,-0.012860804,-0.002440308,0.030739048,-0.0274992,-0.04238687,0.011056992,-0.15980618,-10.291218,-0.003447993,-0.0313748,-0.0137829445,0.03892832,-0.19675808,-0.07094795
-0.51940566,-0.0045712953,0.42117587,0.01708532,0.06875767,0.2833885,0.09516562,-0.06304717,0.3309627,0.04265394,0.19633885,-0.2077585,-0.030479979,0.14194176,-0.09884827,-0.1673162,0.37295902,0.16728897,0.02407031,-0.04400852,-0.10797251,-0.19618152,-0.032031104,-0.1179591,0.1815575,0.25032172,-0.06110685,0.26342884,-0.044957362,0.35627058,0.16421923,0.12548575,-0.07856917,0.22969158,0.13289082,0.18143226,-0.036193125,0.053746123,0.17825282,-0.07884261,-0.976755,0.14888313,-0.11123616,0.16969956,-0.059074577,-0.028929656,0.18954888,-0.14321004,-0.21962722,0.16460524,-0.14299218,-0.03362002,0.070190124,0.2840356,-0.16849987,-0.0010336406,0.12306891,0.38079473,0.25803024,0.13642214,0.23450099,-0.23140581,0.033661705,0.031590253
-0.55819356,0.20893651,0.06081187,-0.08194127,0.035658713,0.12098424,0.22948144,-0.46761662,-0.0460768,0.007193761,0.18632439,-2.116011,-0.054218154,-0.03198254,-0.72275406,0.29837042,-0.1231217,-0.072668225,0.016149187,0.056685902,0.12870418,0.24901424,-0.4590044,-0.16381788,-0.13663718,0.08796675,-0.051393606,-0.006700382,-0.56890756,-0.06394572,-0.097534545,-0.0666771,-0.25742263,-0.103436835,-0.07960527,-0.29095656,0.32009792,-2.8614302,0.052063707,0.13114443,-0.9675969,-0.16236682,-0.054896273,-0.15153907,0.2395338,0.19004352,0.06718783,-0.09507791,0.30334556,0.010018712,-6.8588243,0.21063277,0.056621917,0.016138708,0.18442188,0.74284965,-0.09719934,-0.1355961,0.007120666,0.0243394,0.04537799,0.00047199996,-3.1546226,0.33392483
-0.0511226,-0.012474918,0.00133225,-0.010097217,-0.022174364,0.005909375,-0.015163705,0.0034138148,-0.051283732,0.00043823323,-0.02799951,-0.20933631,0.011538281,-0.3781448,-8.43217,-0.0055441833,0.03105793,-0.015514351,-0.16532466,-0.019568292,-0.01141096,0.007697722,-2.24365,-0.018237917,-0.0622649,-0.011467999,-0.034413435,-0.015694352,0.01753959,-0.07750137,-0.017506571,-1.9582812,-0.67279124,0.01044368,-0.6911559,0.086681515,0.013990247,-14.885764,-0.29496604,0.0076450063,-0.46750492,-0.041006062,0.0059628515,0.019490961,0.026361195,-0.0034516307,-0.0058706235,0.032394085,-0.01455427,-0.037856277,-0.06199247,0.02970503,-0.12349746,0.006905541,0.0017792105,-0.036352884,-0.010323243,-0.1003561,-0.012154208,-0.0401517,0.033087995,-0.013769373,-14.183499,0.025068784
0.0052461135,-0.010072058,-1.2409538,0.010004075,-0.014088431,-0.019445403,-0.0027142728,0.016576746,0.015690723,1.3518249e-05,-0.00042584506,-0.006264145,-0.05701309,-0.011790512,-0.34819138,-0.049105518,-0.011749666,-0.04792176,-0.0003181191,-0.0046598045,-0.00063776236,0.0016025444,-0.0019998595,-0.1427393,-0.058742933,0.014578027,-0.0108300075,0.0017436568,-0.00142602,-0.36689857,0.008831008,-1.1570148,-0.017676521,0.00014912785,-0.0138252145,0.012596179,-0.0017350543,-0.0029022314,-0.11312261,-4.2098384,-0.0061511775,-0.025830962,0.013472246,-0.00018894517,-0.045862876,-0.20506603,-0.043569945,0.012081528,-0.0018402728,-0.009237348,-0.008664263,0.023894504,-0.07993425,-0.026282758,-0.054527916,0.0091724275,-0.13230826,-8.639128,0.016375883,0.014917194,-0.00053831894,0.006078518,-0.07065682,-0.59040767
0.24171796,0.0056291395,-0.0719756,0.25378647,-0.029493595,0.06589321,0.019584727,-0.46614438,0.10271912,-0.036274336,-0.0047474965,0.09264756,0.18088783,-0.016003344,0.063508354,-0.09676777,0.10637061,0.06457224,0.060612205,-0.0093796775,0.09738036,0.027732266,0.0066963835,0.31186536,0.076221846,-0.035819087,0.20844296,0.04375943,0.81889063,-0.045572057,0.18122679,-0.056345068,-0.017223021,0.12645741,0.020221649,-3.8481092,-0.08412,-0.248527,0.07011705,0.10398534,-0.09373106,0.07042582,0.10246425,0.14591113,0.09106707,-0.102581955,0.025889503,0.22848143,0.061482444,-0.06447546,0.3266134,-0.0096438,0.10058347,0.084423155,0.21989459,-0.98537934,-0.022742344,-0.13955072,0.19862944,0.04591133,0.12961052,0.1942068,0.019894253,0.109072976
-0.16356266,-0.0820013,0.11149518,0.26927385,-0.0060261963,0.006808342,-0.053207144,-1.7534162,0.06594795,-0.050134692,-0.089037746,-0.89143616,0.50459903,0.02509747,-0.24527375,-0.0657646,0.18076158,0.072886884,-0.120210245,0.03968197,0.070567876,-0.23676069,-0.111652724,-0.16019185,0.047648128,0.061505705,-0.09596383,0.054310527,-0.23413686,-0.12151183,0.3871058,-0.30723625,-0.105166435,0.21991794,-0.18944925,-2.991053,0.002138577,-8.439668,-0.1685741,0.2178229,-11.590655,0.22828488,0.40116656,0.19742194,0.0819829,0.0899646,0.15413487,0.3633784,0.045994688,-0.3216894,-0.41779757,-0.15635689,-0.031137854,0.009710613,-0.13802263,-0.7375759,-0.14306961,-0.2173299,0.3750134,0.3349047,-0.09683462,0.13470326,-2.0492172,0.22227898
0.0060525243,-0.03602678,-0.74873805,-0.01600975,0.0089175785,-0.00086343684,-0.09194303,0.008155442,-0.01684541,-0.09185877,-0.0054145264,-0.0029316533,0.023537,-0.005413035,-0.023719594,-0.018275008,-0.008930027,-0.0591407,-0.0108106425,-0.00981735,-0.00016408626,-0.008384974,-0.007928108,-0.44006225,-0.025178874,-0.0070399707,-0.008195274,-0.008644097,-0.0007567573,-0.03986137,-0.041791707,-0.034406867,0.014038417,-0.026131785,-0.03883107,0.012167967,-0.15623654,-0.00031976542,0.009380756,-11.93662,-0.0010604445,-0.022403127,0.0013895925,-0.0058524264,-0.43355,-0.20699172,-0.02416287,-0.012027641,-0.29054245,-0.0050818445,-4.050054e-05,-0.06492148,0.014534825,0.010874183,0.0026923548,0.012125439,-0.059203163,-0.32563666,-0.004536608,-0.0047549726,-0.01444695,0.0018491981,-0.0010730117,-1.9222597
0.31187156,0.14241062,0.07063242,-0.07737411,-0.069695204,-0.024816824,-0.0030988208,0.96728295,0.18726248,0.021361152,-0.06310659,0.19107324,0.2811518,0.514117,-0.0012423518,0.024889287,0.14819628,-0.011208068,0.48347634,0.055579998,0.29734015,-0.07918762,0.27785164,-0.3087119,-0.014201833,-0.012797432,0.2996924,0.014794948,-1.4810429,0.13850848,-0.033357576,0.04928702,0.5712311,-0.11195737,0.2778722,-0.10985055,0.06592996,-0.024480728,0.16271703,0.12789059,0.33410853,-0.054097455,0.093251616,0.093554996,0.19023061,0.123117514,-0.06948116,0.14197168,0.03811121,0.04211221,-0.04731931,0.10629129,0.20954062,0.14641233,0.15281163,-0.16782543,0.025797231,0.0092367325,0.0019161587,0.0824434,-0.0540475,0.338044,0.19130349,0.095428795
0.2792831,-0.13499585,0.1409382,0.17016713,0.010727847,-0.06013145,-0.09646914,-0.54901826,-0.033653844,0.009226487,0.07181889,0.069598414,0.09566901,0.106459156,0.12456678,0.08229901,-0.03195653,-0.039767798,-0.017725535,0.122351475,-0.14558686,-0.08303404,-0.14916933,0.12759787,0.07010518,0.21389633,0.33552137,0.08890061,0.24110796,-0.035020113,0.02573189,-0.068600334,0.2455578,0.012610619,0.12275265,-1.3796633,-0.010803559,-0.010795431,0.0668487,0.064376175,0.31254455,0.20053327,0.18394582,0.10965942,0.11840288,0.083679736,0.06521187,0.022247696,0.009752035,0.075006075,0.34405687,0.10296351,0.11045535,0.08526552,0.14112416,-1.2899799,0.115059,-0.017142896,0.08370461,0.2684185,0.02746285,0.22159936,0.2576577,0.065390766
0.13388206,0.3890681,-0.08574708,-0.025264995,0.11834979,0.18722005,0.33993238,-0.9526706,0.17116271,0.22235516,0.3192773,-0.10755407,-0.08166905,0.060110554,0.0102275275,0.24804004,0.06054434,-0.11719758,0.011604467,0.10083154,0.23983815,0.40682837,0.11381945,0.030310525,-0.12725599,-0.12657748,-0.09107124,-0.00090841,0.39961764,-0.17093739,0.11129032,0.06737326,-0.1262895,0.074938476,0.11487221,-1.6080467,0.19355285,0.24303396,-0.010727938,-0.37300482,-0.46318224,-0.039769437,-0.10947653,-0.0078123026,-0.00052072405,-0.04163615,-0.05522073,0.016851641,0.26846734,0.4831474,-0.029908674,0.25029284,0.098635316,0.06836417,0.11519695,0.2096954,-0.025816038,-0.013848117,0.04560768,-0.034200467,0.36849272,0.04944514,-0.114007175,-0.16369708
0.0065524816,0.055173546,-0.15501046,0.31974462,0.18878874,0.040577304,0.04652514,-0.047085576,0.3275718,-0.0062760278,0.18091081,-0.06270415,0.12438057,0.20808573,-0.067937106,0.04290173,0.07398133,-0.016328411,0.17849426,0.15535255,-0.15694097,0.15465432,-0.14518133,0.04691575,0.16126436,0.23298165,0.37242293,0.022934195,-0.3261793,0.014139171,0.19198056,-0.019156711,0.08012897,0.15466659,0.30606914,-1.05755,0.0072601475,-0.08667072,0.23696446,0.027994229,-0.018391183,0.067343585,0.28238446,0.055323225,-0.0030747196,-0.029055865,0.09203711,0.09218308,-0.010847196,0.16148818,-0.083496295,-0.07959615,0.2351881,-0.13069895,0.20102282,-1.4099549,0.26247087,-0.10579487,0.20587517,0.38612586,-0.0854196,0.18426736,-0.06089608,0.04574088
-1.3028152,0.01545505,0.1089804,-0.061603934,-0.041183904,0.011456428,-0.008791684,-0.036505587,-0.020555163,0.028062342,-0.008653764,-0.18271607,-0.10500377,-1.0556417,-3.870965,-0.00040436885,-0.03802002,-0.01674312,-1.102891,-0.018864587,-0.028696133,0.035684925,-0.6934453,0.021734253,-0.17293376,-0.25922522,-0.1668834,-0.0002783134,0.062221497,-0.34373704,-0.057471104,-0.35093236,-0.98738354,-0.01672284,-0.5931117,0.12742174,0.007887488,-0.31141382,-1.4657571,0.006571416,-0.18660514,-0.08893428,-0.13370287,-0.015278628,-0.017255988,0.06702058,-0.046288125,-0.022153271,0.0058964575,-0.023631476,-0.23858784,0.030982796,-1.1606094,-0.013867584,0.0470561,0.002004915,0.06453175,-0.24956629,-0.054932497,-0.30626175,-0.002339117,-0.61112547,-6.498323,0.00336882
0.041629802,0.26374045,-0.3720497,0.19951169,0.3155526,0.12955914,0.069286734,-1.2279391,0.035130046,0.15313151,0.43125543,0.017194614,0.08669383,0.031756666,0.068146,0.025024358,0.31434637,-0.05229383,-0.0383125,0.38801906,0.40153915,0.36771855,0.07848626,0.055496924,-0.042412035,0.043133903,-0.029258257,0.28209606,0.5318217,-0.30810645,0.29956403,-0.05508108,-0.070830725,0.4491507,0.03663856,-2.1745956,-0.15265484,0.032489397,-0.15536313,-0.21600701,-0.26535285,0.14820778,0.1309794,0.37209246,-0.28865248,-0.23876463,0.15791784,0.32034126,-0.16925007,0.44362277,0.29756886,0.1739136,-0.10697095,0.22479863,-0.0047322926,-0.6878414,-0.18790095,-0.20165303,0.19177689,0.06307974,0.47433007,-0.15685506,-0.04443572,-0.3238738
0.17672822,0.39900425,0.19204673,-0.13608348,0.043500166,0.2785053,0.33194843,-0.74587023,-0.011082563,0.17439516,0.2609196,0.14546059,-0.13524891,-0.037075166,0.071197346,0.266613,-0.25284111,0.18445782,-0.090502046,0.21508265,0.086164445,0.20196263,-0.08689011,0.12144638,-0.06515771,0.0837071,0.17172647,0.0029507626,-0.2631131,-0.10477125,0.011819966,-0.17064987,0.08429473,0.011112434,0.028243769,-0.316656,0.42643723,-0.13882086,-0.10162943,0.040384248,-0.5457912,0.08189258,-0.120551445,0.0013087469,0.11347135,0.08662855,-0.033082496,0.003769885,0.35213402,0.44859082,0.07072579,0.36062932,-0.14667052,0.0710706,-0.1838316,0.2746595,0.055104572,0.04577072,0.011616081,-0.1909887,0.2851804,3.454456e-05,0.04835647,0.17615604
-0.0006733716,-0.088718645,-1.1870251,-0.007792813,-0.0033544616,-0.033474267,-0.55587363,0.025558418,-0.028718863,-0.24722353,-0.03910167,0.00026426514,0.026755586,0.0073384326,0.0005316437,-0.19171861,0.017771982,-0.14774261,0.001089613,-0.03430909,-0.019304588,-0.08581922,0.012075097,-13.746867,-0.021406615,-0.0018215096,-0.010925519,-0.017510535,-0.0072548706,-0.07811418,-0.0077999793,-0.010545587,0.0092322305,-0.008970657,-0.027980741,0.016730554,-1.1231349,-0.0045330087,-0.010866097,-8.323976,0.0015484553,-0.015772227,0.0027450272,0.018100835,-10.975089,-0.3856783,-0.03649191,-0.0014708671,-2.4122648,-0.041992664,0.0038188722,-0.09402438,0.0040282365,0.030510014,-0.2428789,0.024005791,-0.014699346,-0.104377925,-0.0029239198,-0.007426574,-0.050078236,0.0013559641,-0.0002660911,-9.569275
-0.02443512,-0.015240993,-0.67855376,-0.0029208548,0.001763949,-0.017954843,0.011916729,0.00829853,-0.023478264,-0.014375702,-0.01679419,-0.0064288354,-0.0070876637,-0.054111104,-4.803105,0.034549896,-0.025924847,-0.08107725,-0.08334986,0.0019016247,-0.0060447506,-0.0040179933,-0.074434645,0.007104442,-0.124064416,0.0018926751,-0.009541795,-0.012451129,0.0004062305,-0.778235,-0.017045144,-7.4138083,-0.07805208,-0.0048942524,-0.2129177,0.00870333,-4.5299865e-05,-0.002920232,-0.36122376,-0.06294458,-0.001614243,-0.061799973,0.004013869,-0.019897733,-0.0195193,-0.1564198,-0.020589976,-0.0028979024,-0.016304303,-0.011962594,-0.011635242,0.014374495,-0.024415988,-0.011791494,0.00789282,0.009427152,-0.26926428,-3.7465887,0.00029858397,-0.006412409,-0.011164394,-0.0022411915,-0.5786307,-0.021561112
-0.18473288,-0.04258584,-0.21413489,0.02071986,-0.04140883,-0.25683644,0.008661406,-0.0632215,0.20963378,-0.018679947,-0.026062246,-0.07327233,-1.6978465,0.0051511233,0.17155603,-0.13829435,0.005183776,0.23159775,0.091244444,0.08090085,-0.2968292,0.02427899,0.29195613,-3.6185882,-0.15618755,-0.0078349225,-0.052538984,0.111051604,-3.6005054,-0.027263382,0.09444769,-0.07329887,-0.15894306,0.1302556,0.08381802,0.18454136,-0.046711408,0.5729751,-0.20792602,-2.2223036,0.023065535,0.1776875,-0.072119825,0.08683785,-0.2197725,-0.32624513,-0.028870583,-0.25835404,0.042543903,0.04691595,-0.29605958,-0.048187852,-0.49252748,-1.7701697,-2.06975,0.22244638,0.2307515,-0.029420622,-0.0075853085,-0.13103738,-0.10395286,-0.42483905,0.27004442,-0.26726052
0.070810296,0.065606795,0.0014398233,0.04918927,-0.05493505,0.122801974,0.08731054,-0.38500473,0.12964277,-0.062901154,0.12755865,0.4898343,0.10404677,0.2485332,-0.0076110368,0.184258,-0.10829442,0.030997418,0.13397586,0.049544383,0.024595508,0.10451486,0.30960134,0.16904941,0.05954237,0.06256525,0.042011287,-0.04220612,0.4556983,0.057179987,-0.011656904,-0.05864999,0.2935202,-0.045962784,-0.05693464,-0.22651896,0.033848323,0.06044094,0.05868467,0.10264744,0.3240754,-0.032055262,-0.016755447,0.027020501,0.25959352,0.076334424,0.03773905,-0.05144021,0.017577374,-0.21533634,0.2809578,-0.02640457,-0.04571206,0.18846144,0.17688757,0.037323754,-0.040252056,-0.005960939,0.05297149,-0.035149854,-0.027366739,0.107894816,0.022243831,0.07988946
0.07717029,0.29641294,-0.15956138,-0.028967153,0.024733374,0.21794654,0.21895435,-0.29333794,-0.0067497185,0.35209674,0.2881052,0.058583524,-0.10484814,-0.055153903,-0.03623564,0.37024486,0.03469263,0.018644435,-0.08532616,0.21444952,0.1490545,0.34426233,-0.20895328,-0.15572463,-0.18796468,0.12714006,-0.0025789794,0.032313496,-0.28307962,-0.19178994,-0.05512216,-0.12461734,-0.06624484,0.018888023,-0.027501842,-1.4439539,0.4085731,-0.8878948,-0.13838078,-0.20793718,-3.7361512,-0.0420332,-0.049296513,-0.07055342,0.28938356,0.013364861,0.01139399,0.16460049,0.3661868,0.38684863,-1.7569808,0.25956857,-0.0719217,0.09100552,0.15050995,0.30431223,-0.16597116,-0.117965914,0.0891002,0.0026721128,0.2476433,0.07548825,-0.26119974,0.13537244
0.24735653,-0.013414735,-0.06608715,0.3663732,-0.0067457426,-0.12290713,0.06609577,-0.48490137,0.25089687,-0.019997869,-0.20258863,0.1480396,0.38559717,0.029184971,-0.32091188,-0.02435794,0.05851574,-0.095038295,0.14896989,0.10730769,-0.10564276,-0.077856444,-0.17298941,-0.68814445,0.08221924,0.37510198,0.41707838,-0.11876649,-0.48797315,-0.16308728,0.16778822,-0.46290985,-0.04838168,0.110450156,0.009484526,-1.0598288,-0.0896658,0.0091283135,0.10665276,0.0055483007,0.13303277,0.23384993,0.39317745,0.14919867,0.066034734,-0.09988678,0.20907927,0.13443696,0.04213776,0.019261202,0.1615576,-0.03317337,0.30227193,-0.036917705,-0.121428885,-0.97146297,0.021338975,-0.2956685,0.4269956,0.47511488,-0.01329389,0.38436323,0.11069645,0.01897739
-0.0032335606,-1.8323008,-1.9692166,0.0050657806,-0.053393476,-0.6504829,-4.647305,-0.07467782,0.0006747293,-2.7642107,-0.082747966,0.022929417,-0.07411229,-0.026415318,-0.05521938,-8.174494,-0.12763624,-1.2707025,0.02995057,-0.02242663,-0.3898074,-0.29004237,-0.009304653,-0.9219283,-0.0008208788,-0.02157131,0.06192679,-0.15399331,-4.199813,-0.14530857,0.035685312,-0.059528552,-0.051649857,-0.03760069,-0.021127392,-0.09560791,-1.4659588,0.01031346,0.010037155,-1.1309189,0.027963545,-0.010571106,-0.037984725,-0.04549634,-4.0616927,-6.3717813,-0.015688233,-0.04055805,-3.4687433,-0.049339492,0.05598854,-2.196802,0.034462754,-0.76165384,-6.5029674,-0.07320031,-0.01323429,-0.33364245,-0.011229371,-0.0077194413,-0.10846686,-0.060930394,-0.015952624,-1.9467643
-0.29852277,-0.11255066,0.051664803,0.15060757,0.080228694,-0.3450513,-0.00010504642,-2.1863253,0.03142671,0.046260163,0.052412692,-1.1575772,0.48978174,-0.051478773,-0.5352646,-0.34226426,0.3503978,-0.09416996,-0.14277497,0.13743839,-0.033375956,-0.19407842,-0.21657437,-1.6892117,-0.024327252,-0.11332515,-0.2535036,-0.12822574,-0.11286322,-0.10107121,0.3790184,-0.0777989,-0.19110335,0.45756975,-0.0009476388,-1.0002301,-0.16936824,-6.4699745,-0.07733522,-0.43402356,-6.9320054,0.27169818,0.26180583,0.41849327,-0.13225703,-0.1333547,0.10986247,0.6777566,0.010532757,-0.029666288,-0.3871762,-0.24783023,-0.13749321,-0.0780281,-0.27967814,-1.4120373,-0.05198743,-0.12174202,0.2218415,0.19774769,0.07420056,-0.22467892,-5.1811843,-0.2494033
0.094682135,0.06260376,-0.040861208,0.19366977,0.17305824,0.17131178,0.056301,-0.57244945,0.09827481,0.062781334,0.0782695,0.008571297,0.18287094,-0.0033033718,0.098371804,0.0805193,0.13907789,-0.007946777,-0.06812742,0.20629676,-0.025349509,0.1226534,-0.041846562,0.42126188,0.23564762,0.04883186,-0.11414886,0.15417649,0.6848579,0.080794975,0.18848358,0.16685587,-0.06759236,0.1668047,0.023747267,-0.23377468,-0.00431492,0.24917632,0.15226674,0.17068723,-0.2405505,-0.012023563,0.24645819,0.22028913,-0.052522458,-0.12282437,0.045874633,0.074310996,0.038263816,0.10242607,-0.0019733445,0.036598843,0.025100356,-0.1356558,0.0029102908,-0.11011827,0.116280854,0.09193203,0.07429988,-0.0517319,0.30105883,0.13367622,0.14268519,-0.16923699
0.019225804,-4.4519844,-0.39002773,-0.032839376,-0.17143148,-3.4592464,-5.000166,0.0705439,-0.022690598,-2.58822,-0.2053943,-0.0036550318,0.0035547891,-0.0038060925,-0.015508538,-3.375498,-0.12297818,-2.2890515,0.008459539,-0.10817846,-1.7591678,-0.56029755,0.0025528483,-0.331124,-0.051236324,0.020127706,-0.012265622,-0.41840547,-0.11463425,-0.46108237,-0.021928968,-0.1568966,0.017100606,-0.0660344,-0.027622826,0.043159124,-1.0980781,-0.0016784412,-0.026327275,0.0679473,0.0047283857,-0.042053856,0.0074325046,-0.039507307,-0.4980506,-2.5329733,-0.086945,-0.050647154,-3.341706,-0.15366317,0.004483566,-6.276642,0.013636365,-11.075392,-1.7871623,0.05092651,-0.09450651,-0.3272967,-0.032807544,0.010532255,-0.40647647,0.025094453,0.012525096,-0.12454062
0.16427931,0.075078554,0.07371404,0.18711095,-0.048623033,-0.28718433,0.007214258,0.1545187,0.08147391,-0.01831041,-0.011394681,0.44950178,0.121257916,0.057455175,-0.04299319,-0.016878564,0.06337015,0.055070642,0.076456875,0.062800065,0.016813986,0.08632387,0.17408249,-0.07511111,0.017356765,0.11817788,0.438422,0.016281849,-0.021152887,0.03827283,0.06602918,-0.16686966,0.052023713,0.17891873,-0.17836715,0.052979257,0.03611254,0.5608622,0.015797282,0.07908145,0.5154375,-0.10564624,0.13285083,0.009156888,0.0074853506,0.10898069,-0.040254455,0.092752665,0.1351455,-0.016413597,0.25643647,0.035109937,0.048767943,0.043581963,0.0945443,-0.63051724,-0.088599086,-0.04346932,0.2461159,0.2323837,0.07131599,0.13853215,0.055207014,0.036315657
-0.48771423,-0.011405759,-0.012578977,0.006989941,-0.016080506,-0.036459252,-0.054923654,-10.100424,0.0013842665,0.0041595884,0.038499966,-9.546987,-0.042007226,-1.6320887,-10.093944,-0.046514433,-1.0096126e-05,0.008846414,-0.38836774,0.11086249,-0.016166674,0.061368797,-10.961755,0.001957485,0.025848465,-0.11292389,-0.2014048,-0.041095823,0.152037,-0.019497517,0.0064894427,-1.3577024,-3.8480544,-0.008044769,-0.80016226,-0.044334386,-0.03607971,-5.0541115,-0.13829316,-0.025948914,-13.799969,0.01668507,-0.038181867,-0.017479837,-0.016956447,-0.0036693416,0.0020080183,-0.00066485105,-0.05939031,0.0771985,-0.76409066,-0.068915814,-0.17822716,-0.03711762,0.009341128,-0.38957927,0.010830115,-0.092762016,-0.024894118,-0.11903965,0.0066201244,-0.1746326,-4.4457965,-0.021186361
-0.006977933,-0.0024977657,-6.4574327,0.001677591,-0.17786792,-0.26856402,-0.004722962,-0.0033344505,-0.006680124,0.0060515096,-9.610702e-05,0.0008538404,-0.10784612,-0.010611007,-0.40429348,-0.33100834,0.0046550347,-0.9254949,-0.0037555958,-0.01616399,0.0017567994,-0.02352433,-0.015316173,-0.12487157,-0.4280898,-0.008904124,0.009339952,-0.21481897,-0.008940328,-7.0848513,0.011721844,-2.022096,-0.044120867,0.014412727,0.0009920116,-0.046282616,0.000653349,-0.0017601894,-0.3545476,-0.6949044,0.017421437,0.0063614994,-0.008292698,-0.010882422,-0.04234253,-9.884367,-0.24629359,-0.005124653,0.015548183,-0.0049175364,-0.000396729,0.0025012721,-0.18247637,-0.15383139,-0.17112151,-0.009915862,-1.0381536,-2.4236734,0.0011826194,0.008131632,-0.007479113,-0.008375061,-0.06843878,-0.5168165
0.36643177,-0.08508171,-0.2641973,0.51760036,-0.16531667,-0.29784063,0.15205003,-0.2429004,0.3553135,-0.035982642,0.18774416,-0.1366253,0.08592188,0.10953825,-0.098713964,-0.10530542,0.13098621,-0.2959224,0.3034516,0.3053243,-0.22340056,-0.006234967,-0.032639258,-2.4135284,-0.018801711,0.25107983,0.38413468,-0.2417398,-7.0249233,-0.5315438,0.23397322,-0.2531818,-0.10482193,0.2029222,0.07483298,-1.9419595,-0.010039904,-0.17516196,0.016920548,-0.52324396,-0.22874764,0.032052293,0.27932176,-0.036336944,0.002679322,-0.2194896,0.030652948,0.16615804,0.11247417,0.37164888,-0.092053756,0.010014761,0.19637121,-0.25933376,-0.6641933,-1.188279,-0.18538807,-0.2652202,0.48973686,0.5148667,-0.0057667266,0.305818,-0.33970797,-0.10202798
-0.42387673,-0.07787891,0.34729823,-0.031774,0.15452555,0.24424465,-0.2608112,0.009333745,-0.025953416,-0.09365782,-0.010923283,-0.009032901,-0.0887722,-0.18666697,0.11490328,0.15157457,-0.039530817,0.48135155,-0.2934056,-0.0049482123,0.03808007,-0.02290515,-0.05726092,-0.0473686,0.29382968,-0.10206062,-0.020946085,0.34926033,0.002741988,0.40324748,-0.10185337,0.0805716,-0.011551968,-0.23416239,0.035796423,0.020523509,0.048341032,-0.009013029,0.02474982,-0.14465968,-0.008958519,0.15050982,-0.060009465,-0.010706081,-0.013462987,0.4198352,0.32462496,-0.33812168,0.09306753,0.008191738,-0.02961801,-0.005341036,-0.09496237,0.24388477,-0.07640249,0.014368023,0.12085232,0.23111512,-0.033898868,-0.38816518,-0.026073163,-0.08876458,0.09408476,-0.0078053484
0.16189769,0.4509342,0.2516869,-0.027482059,-0.020606713,0.2086054,0.319997,-0.027951652,0.3839937,0.31696683,0.22561827,0.43582106,-0.08978003,-0.05762701,0.30095795,0.41923404,0.16947515,0.19590282,0.011918773,0.15115812,0.15170915,0.046378046,0.31614268,0.28804368,-0.10726321,-0.058619883,-0.2370964,0.25008807,0.20209801,0.00080923084,-0.16474748,-0.116015,0.23514068,0.17393154,-0.104991354,0.03349374,0.42411286,0.4373581,-0.006490879,0.34534204,-1.1845113,-0.19620788,-0.1471019,0.035457943,0.62930137,0.27010864,-0.045727342,0.12651284,0.32396495,0.14042966,0.5086768,0.2729115,-0.16825168,0.14829218,0.24363793,1.0732774,-0.007800566,0.037918705,-0.20434499,-0.06982449,0.15460494,-0.26022542,-0.21293692,0.2910876
-0.14123893,0.013594437,-0.31506532,-0.10100993,-0.029939972,-0.00418304,0.01847835,0.0576927,-0.25919402,-0.015129814,-0.015277139,-0.07340632,-0.008428404,-0.5656719,-5.347464,0.0042707864,-0.0005396887,-0.17675668,-1.6724113,-0.041420244,0.0062835473,-0.001282508,-0.2612975,0.024326108,-0.33642477,-0.37713048,-0.12183902,-0.01593393,0.021151446,-0.63682103,-0.100738965,-8.877023,0.21996614,-0.025933446,-9.041427,0.03609029,0.012711678,-0.019361,-1.9944389,-0.034480777,-0.015928365,-0.11626516,-0.078344695,-0.03312831,-0.012981962,-0.045121856,-0.17175122,0.00598896,-0.0039676465,-0.057768162,-0.06138264,0.018416194,-0.47630224,-0.00045991482,0.030250821,0.061365265,-2.677283,-7.4209127,-0.0831536,-0.12465803,-0.010168219,-0.021150712,-0.35702634,-0.028415345
0.30661312,0.06222651,-0.07415454,0.2113899,0.09300359,0.00051159004,0.018682055,0.41973802,0.19538967,0.019828668,0.0059917346,0.31781223,0.15177386,0.21659453,-0.31452155,-0.051811393,0.04329563,0.07298046,0.16742031,0.099613875,-0.00681379,0.13548721,-0.03663075,-0.27285358,0.12606677,0.15141702,0.46246713,0.087776124,0.37472016,-0.06904287,0.16954803,-0.34205022,0.06752374,0.13100049,-0.015767604,-1.717933,-0.17945704,-0.010504975,0.05710647,-0.09396152,0.5200597,0.2334604,0.11363959,0.21839908,0.003986009,0.019692402,0.102141306,0.10394905,0.16046655,0.012844068,0.7714245,0.00062945765,0.07338826,0.22399038,0.07095818,-1.5130453,0.10390766,-0.16678946,0.18604062,0.17500234,0.091041476,0.21251707,0.06907521,-0.08451042
0.061617177,0.09763426,-0.10733921,0.16433345,0.059109457,-0.0020422945,0.07689679,0.035380878,0.3362713,0.13231206,0.059080258,0.3200143,0.1383775,0.44220638,-0.20412725,0.14952472,-0.038264893,0.032267697,-0.041220434,0.29480168,-0.045374367,0.2341588,0.59251213,0.23779833,0.010022213,-0.0022406352,0.3423483,0.13482413,0.07018954,0.00080075016,0.073863104,-0.08026286,0.27818358,0.085384525,-0.08358032,-0.40726575,0.11146198,0.17096622,-0.1303308,0.122373216,0.3985266,0.06524264,-0.106973834,0.025485963,-0.018991198,-0.0301287,0.18303233,0.023470027,0.1329612,0.3134425,0.12205672,-0.057904996,-0.08473226,0.045820963,0.1993104,-0.28819165,-0.16880637,-0.09768979,0.16386981,-0.012644613,0.06954699,0.00835225,0.258255,0.16996883
0.026645113,0.31496552,-0.021050505,0.39388406,-0.2246798,0.12301795,0.19560999,-2.0605183,0.17899388,0.22896163,0.3868249,-0.035632562,-0.29515195,-0.016848762,-0.42625853,0.23038065,-0.16166116,-0.08006432,0.026070165,0.62521344,-0.08130519,0.39183888,-0.12242225,-0.13710845,-0.16397859,0.044076,0.29680553,-0.06435905,-0.10186351,-0.18636815,-0.0005784488,-0.087449275,-0.4329682,0.12333151,-0.05827413,-2.7228162,0.34494388,-1.8205185,-0.13941187,-0.030609637,-0.7421938,-0.15721847,-0.10714006,-0.15380354,0.06077526,-0.24471693,-0.14664452,-0.08321177,0.08698845,0.57766104,-0.34423235,0.3061115,-0.07174276,-0.26812863,0.16152258,0.4990186,-0.12008121,-0.15265374,0.3838702,0.112240806,0.34384137,-0.11679873,-1.8543478,0.063566715
0.03573914,-5.5409927,-0.3520851,-0.03835676,-0.5288791,-3.8659627,-4.129298,0.08858861,-0.032025997,-2.4998503,-0.51137733,0.0052402704,-0.04836866,-0.02382002,-0.029624619,-2.1485271,-0.3841746,-1.6539818,0.003471238,-0.13178007,-9.221369,-0.7152304,-0.0080033615,-0.34071112,-0.073369145,0.015843324,-0.012089433,-2.9248817,-0.3144499,-0.8544138,-0.08886338,-0.22836761,0.018606413,-0.15149029,-0.011840162,0.033994798,-0.4753078,0.00075132394,-0.004670274,-0.50452447,-2.1034328e-05,-0.087667726,-0.017639661,-0.10391074,-1.1869019,-1.5532771,-0.13251476,-0.11775219,-1.1391964,-0.18855491,0.007352181,-3.6172025,0.008448182,-7.410114,-1.5366211,0.07423829,-0.14562719,-0.5116129,-0.04177942,-0.0002097618,-4.196363,0.0035979701,0.009061557,-0.5267459
0.33408105,-0.06434415,0.068355,0.2398059,0.123067655,-0.058534943,-0.031011561,-0.48256615,0.032862544,-0.047549933,0.16157256,-0.035755392,-0.032661162,0.13706765,0.024243407,-0.025259988,0.12868083,-0.07128654,0.20215072,-0.10492827,-0.049981993,0.11301832,-0.030606993,0.13861108,0.16327912,0.29946616,0.19496267,0.055098403,0.18691804,-0.06819358,0.033511665,-0.19683397,0.28534353,0.16681819,0.16260156,-2.5306196,0.010139351,-0.24106729,-0.093920134,0.15582202,-0.25407076,-0.09183115,0.17492996,0.01854645,0.09086028,0.07787533,0.12010297,-0.020616315,0.0861246,0.009023952,0.54945815,0.089935765,0.03125528,0.07715196,0.2612928,-0.5974775,0.05365102,-0.15891203,0.10402778,0.2331804,-0.0416233,0.2971917,0.26802015,0.11490007
0.005611434,0.008097135,0.14159885,-0.14479797,0.0023694732,0.008880767,0.17537613,0.16132669,0.18792227,0.02678586,0.03597411,0.43561488,-0.14917113,0.0049142106,0.18320808,-0.017758878,-0.12562129,0.055358067,0.03478988,-0.051517423,-0.16160841,-0.06748003,0.45113364,0.38870916,0.017154157,-0.04786876,-0.09847607,-0.120089784,0.27362597,0.14775966,-0.093733266,0.2336169,-0.02498091,-0.13386777,0.09847599,0.2836219,0.036408175,0.30032098,0.09783478,0.19407076,0.78165823,-0.11672367,-0.042211298,-0.024471274,0.18832394,-0.091255024,0.043076776,-0.17923033,0.07420277,0.32626384,-0.1524161,0.11270598,-0.09813004,-0.112025216,0.08865551,0.4031822,0.07377397,0.24887821,-0.13947818,-0.2066083,-0.050394952,-0.19349772,-0.025122382,0.08317004
-0.10436619,0.07728619,0.2709297,-0.16411474,0.26431003,0.088636085,0.07391969,-0.84951806,-0.032741588,0.08921572,-0.018340413,0.011241752,-0.0135454405,0.10452221,0.09971035,0.09535312,0.055414725,0.2847242,-0.08690974,0.014338729,0.2331175,0.19834025,0.019833112,0.1753204,-0.017777566,-0.17896736,-0.17641841,0.05917952,-0.005079804,0.113234185,0.10483174,0.13687237,0.09099947,0.1502288,0.047903944,-1.2386444,0.028600689,0.2163419,0.0032296386,-0.018480875,-1.8021884,0.038095757,-0.16985263,0.078336805,-6.315336e-05,0.32438505,0.03401888,0.0176334,0.031341996,-0.0073972535,-0.52935654,0.13608848,-0.055193376,0.29229793,-0.061414223,0.09438024,-0.06799304,0.16130987,-0.29733554,-0.12533954,0.21743567,-0.14056736,-0.12550403,-0.023652073
0.15536056,-0.05331034,-0.044368837,0.03196371,0.048420053,0.09070996,0.17391624,-0.21582092,0.09165091,0.040294785,-0.02561896,0.16103831,0.0839553,0.14315604,0.06341075,-0.064748295,0.044850517,0.05409526,0.0008491953,-0.046998788,0.038842678,0.017137805,0.16996863,0.35537928,0.07037309,-0.060435403,0.10443406,0.0021001548,0.33792746,0.011369004,0.09035186,0.105261505,0.19956298,0.10457118,0.024551488,-1.3121113,0.18783736,0.007186003,0.060501758,0.03780467,0.23409621,-0.0002915418,-0.03671139,0.10303743,0.0102423215,0.08691029,0.18591477,-0.07501461,0.046485778,-0.049062166,0.5618228,0.070207216,0.07430978,0.11094691,0.23717444,-0.24289395,0.006124066,-0.13276218,-0.06603074,0.0707482,0.05955922,0.16359782,0.19378579,0.13105257
0.0025364328,-0.09828132,0.14829285,-0.11239485,-0.3240776,-0.015423911,-0.18014684,0.25991088,0.018777637,0.12537934,-0.086834356,0.041913904,-0.3961548,0.13813692,0.23834957,-0.20921771,-0.58565915,0.17058428,0.14464481,-0.115754165,-0.37233248,0.12346528,0.0084647,-4.305937,0.13690986,0.012435298,-0.010812292,-0.14837007,-9.648286,0.2957474,-0.21879242,0.540079,0.14355546,-0.33537945,0.18666029,0.010890001,0.084216565,-0.0011365681,0.1676448,-1.0409728,0.03827226,-0.2601997,-0.24051301,-0.3280549,-0.25899553,-0.024868937,-0.08615388,-0.3710407,0.06070976,0.18808222,-0.034941692,-0.14500561,-0.026600543,-0.40297207,-2.9187973,0.25695398,0.09356727,0.39195505,-0.14659627,-0.13389292,-0.19347301,-0.0959482,-0.05538614,-0.055160236
-0.20186289,-0.06499147,-0.21664344,0.20181602,0.19374228,0.17785767,-0.1086862,-1.2205071,0.18402407,0.121244386,0.26210693,-0.08749418,0.042669,-0.0554574,-0.16760907,-0.053844538,0.16709028,0.17062093,0.06782651,0.18663919,0.04539423,0.1579265,-0.080195464,0.15327051,0.12141372,0.27560818,0.016822731,0.16733755,-0.35505813,0.13089037,0.26992774,-0.06318216,-0.22855033,0.20650601,0.09180805,-0.7515712,-0.04247943,-0.079968706,0.141905,-0.003366454,-0.513654,0.24493946,0.14137784,0.28552046,-0.16728526,-0.35204852,0.20352985,0.40295285,-0.19916354,0.26687863,-0.31477284,0.0031806906,0.12903629,-0.11430562,-0.0006601187,-1.2916136,0.17415442,-0.040801086,0.1926137,0.22459856,0.18659635,-0.0893126,-0.29557702,-0.13621834
-0.0010004842,-0.0024885403,-1.1418923,-0.0012692806,-0.058285512,-0.07864778,-0.0014431009,0.00024155338,0.0029630652,-0.00074591034,-0.0011468194,0.0016584523,-0.073606,-0.010846484,-0.6828496,-0.12023435,-0.16730289,-0.052878767,-0.018206779,-0.00057339575,-0.16800886,0.0036810774,-0.0054039955,-0.173126,-0.0022109488,-0.19646543,-0.0010644415,-0.04572493,-0.0018452591,-0.48137116,-0.009321796,-1.0955952,-0.36303133,-0.0037762488,-0.32951108,0.0056583663,-0.1976825,0.00209945,-0.18989359,-0.6922337,-0.0034277414,-0.11430842,-0.14478287,-0.12957564,-0.25101233,-0.18642686,-0.062342755,-0.0020329482,-0.024038704,0.0012779712,-0.0027685475,-0.19871107,-0.08690582,-0.10193502,-0.116199486,0.0006112368,-0.14760266,-3.051194,0.0008904812,-0.014397855,-0.0024594371,-0.17470787,-0.5092885,-0.36070868
0.052689828,-0.12449111,0.25156516,0.11990073,0.033281855,0.0259908,-0.04462309,0.24865161,0.017945545,-0.034443434,-0.03389963,-0.02192258,0.18588652,0.13482781,0.04782611,0.031226506,0.1922124,0.1325731,0.14125723,0.04177736,0.1421421,-0.10090244,0.20376167,-0.38463026,-0.029066972,-0.013827071,0.08204129,-0.05966593,-0.05086493,0.072609305,0.06943844,0.024947714,0.30839017,0.036947694,0.09170981,-0.626683,-0.10458731,-0.043325916,0.0422027,-0.02284565,0.27829167,0.0026055186,0.100462735,0.08514013,0.101416275,0.28108296,0.101072565,0.016118066,-0.19473921,-0.14812483,0.34524703,-0.14074358,0.14582033,0.21717167,0.005781062,-1.0522164,0.06095795,0.12645139,0.15894035,0.1056922,-0.19309327,0.038688168,0.31078956,-0.008556797
-0.21467808,0.43675432,0.13832372,-0.018889375,-0.026351947,0.193817,0.4378257,0.079061456,0.048892837,0.4754806,0.23565266,0.0139072165,-0.3728634,-0.021571761,0.14819044,0.39735818,-0.13277411,0.10248744,0.037499033,0.14244747,0.033359066,0.3360991,-0.06529174,-0.00046685644,-0.17192169,0.16373159,0.19342116,0.043547116,-0.6528516,-0.2812949,-0.06142056,-0.17678697,0.09854375,0.09874858,0.024161587,-0.44083443,0.47536677,-0.57620364,-0.264153,0.18063474,-2.392398,-0.21158959,-0.0028775951,-0.2481275,0.5155324,0.1576141,-0.04556245,-0.20975357,0.52546597,0.44710562,-1.3298241,0.34305945,0.059422027,0.04110817,0.29613033,1.3148485,0.023805033,-0.1401867,0.0829547,-0.11409402,-0.0429558,0.034284905,-0.004159083,0.54359925
0.0010513711,-0.071181506,-0.4516279,-0.0025086612,0.013237372,-0.004273285,-0.30218494,0.025717765,-0.027992874,-0.1436961,-0.0055983085,-0.00075011136,0.014216397,0.0056703296,0.009365006,-0.07767679,0.015956268,-0.10795888,-0.004059217,-0.027452908,-0.0033299443,-0.058808047,0.0032859577,-11.606834,0.008901648,-0.007926612,0.0028474699,-0.008502474,-0.032112632,-0.036610164,-0.01450468,0.0008729152,-0.0024237058,-0.007878425,-0.0054001277,0.029176937,-0.4786425,-0.00680726,0.0058875126,-13.259698,0.004091176,-0.017383827,0.010450204,0.0056403293,-1.6923655,-0.13563615,-0.02039633,0.013433668,-0.825037,-0.041483864,0.003712585,-0.04707788,0.010821428,0.03892494,-0.07197973,0.03547357,-0.015560459,-0.12156,0.008150988,0.015495763,-0.021702465,0.012469329,0.035405662,-3.8458462
0.39217153,0.1104111,-0.08295662,0.065407045,-0.29967266,-0.028165454,0.04720302,0.23456986,0.19872518,0.27271616,0.119029805,0.5863465,-0.2953409,0.33555928,-0.12515892,-0.06070576,-0.26270097,-0.0062870337,0.118562065,0.14780009,-0.31887162,0.13077605,0.057971112,-4.1083765,-0.05858962,0.01992504,0.61282253,-0.13492608,-7.19566,0.013022203,-0.041326158,0.021023108,0.051775295,-0.062305834,-0.02968261,-0.1156937,0.13924003,0.033944957,-0.07245701,-1.7972453,0.0389129,-0.18208192,-0.28587365,-0.09201321,-0.38452792,-0.32747623,0.0030814125,-0.19257174,0.14860272,0.33102322,0.8716299,-0.15423396,-0.10214228,-0.7349326,-2.1808596,0.8852155,0.009208172,0.08186161,0.007691036,0.02480768,0.12560347,-0.010357443,-0.25680655,-0.36096054
-0.24663351,0.008188163,-0.13871306,0.18737201,0.35894704,0.13529564,-0.12256232,-1.5479039,0.21636552,0.051819105,0.28604093,-0.57413316,0.021304429,-0.044230837,-0.14305945,-0.049872253,0.3741451,0.13422212,-0.107287794,0.3833438,0.16692607,0.1660534,-0.039320294,-0.17149292,0.02096258,0.09438155,0.038886562,0.23881364,-0.1291681,-0.1493916,0.3528094,-0.30030656,-0.03683333,0.39311928,-0.18660441,-0.40455058,-0.08436929,-0.9713075,-0.31876162,-0.15608098,-6.510023,0.2738047,0.18231206,0.16937533,-0.3528311,-0.11371633,0.2673482,0.30719516,-0.18800919,0.35964364,-0.81774753,-0.01683644,-0.17755793,0.180915,-0.1690075,-1.2754076,-0.056651995,-0.23246895,0.1354117,0.08805474,0.14713573,-0.17706715,-0.5685979,-0.25281247
0.6799584,-0.013545482,-0.0405825,0.066093564,0.032744814,-0.044224195,-0.031671375,0.5107605,0.30292448,0.13065217,-0.023362724,0.34618032,0.17238271,0.6892337,-0.044081952,0.04850062,-0.07085894,-0.085594155,0.25010017,-0.13918158,-0.027355151,-0.051396973,0.4757031,-4.3842454,-0.22913712,0.22904007,0.5673126,0.044852898,-4.5000696,-0.15797079,-0.032368463,-0.21551979,0.6140797,-0.019483898,0.23149031,0.037116926,0.013564706,-0.1061784,-0.06389956,-0.7764531,-0.27101284,-0.037653223,-0.10496903,-0.03351755,-0.10872234,-0.1579819,-0.13408569,0.11752227,-0.023802564,0.060424518,0.28611788,0.050099153,0.12745294,-0.20891388,-2.1511276,0.72650796,-0.23751785,-0.20173329,0.14788143,0.022895243,0.04969242,0.22440243,-0.04506026,-0.06811983
-0.009656578,0.00089129887,-2.485501,0.0015118555,-0.36879247,-0.35668638,-0.0024542522,0.0019023718,0.00067035866,0.0043283515,0.0028956733,-0.004329801,-0.2548088,-0.011712172,-0.5242976,-0.23633245,-0.03982603,-0.5325278,-0.00034110257,-0.0012087092,-0.037135847,-0.0001694736,-0.009936584,-0.09664327,-0.44254395,-0.04157092,-0.0023125294,-0.4920523,-0.0029980612,-1.4474698,-0.0037809836,-2.228859,-0.087862045,0.0034959659,-0.039396442,0.0046854527,-0.038386557,-0.0025387707,-0.61295855,-0.51768637,0.0016092998,-0.022013513,-0.028463306,-0.044322856,-0.034764078,-1.1645759,-0.47165465,-0.009343197,-0.0076126377,-0.0027107855,-0.0053101024,-0.0484863,-0.36958486,-0.22228631,-0.1970088,0.009133315,-0.5639571,-3.9969597,0.001040956,-0.0046997415,-0.004732579,-0.04739615,-0.1052775,-0.19335045
0.06595156,0.30818388,0.17943998,-0.2364489,0.16522583,0.16288945,0.09376929,-0.30884764,-0.105104074,0.38042563,0.14894375,0.38676044,0.04266859,0.08321471,0.122833416,0.09130542,0.034581974,0.16754279,0.05635086,0.103042446,0.29511428,0.100793004,-0.03421505,0.12812291,0.12048063,-0.10004395,-0.107424855,0.07745164,0.16631408,0.17059256,-0.058908094,0.116753936,0.0021109565,-0.048032712,0.1532222,-0.08999966,0.28497964,0.1998047,-0.04376957,0.06437254,-0.9929528,0.04648638,0.012896921,-0.017473908,0.11984053,0.3156754,-0.0019769918,0.10652626,0.22233894,0.12747842,-0.25680646,0.1664582,-0.14595821,0.068428986,-0.08519346,0.12478511,0.09580158,0.14833845,-0.18255024,-0.016366325,0.15092373,-0.12270749,-0.07301621,0.23280068
0.004538258,0.21862924,-0.19196525,0.14142379,0.20970722,0.13010575,0.06750321,-0.634644,0.024420133,0.17823292,0.32217953,-0.16843422,-0.10007951,-0.14336443,0.19955632,0.09772227,0.23221262,0.004533193,-0.11914868,0.08224453,0.030768484,0.039918195,0.2245629,0.14274544,0.097174056,0.11809091,-0.020726614,0.13634141,0.6616065,-0.06882904,0.34499407,0.08974371,0.00024235003,0.25304615,0.03803117,-0.57906187,0.035515226,0.2037093,0.033276938,0.08009711,-0.17521441,1.7038203e-05,0.11357376,0.17374173,0.06534708,-0.010946761,0.23978393,0.13807987,-0.027611427,0.21380162,0.2553975,0.1953151,0.010914812,0.08742095,0.21823616,0.22017787,0.07559689,-0.04822016,0.26585335,0.026021592,0.3322352,0.103659414,-0.08980014,0.01630352
0.035570975,0.083963096,0.061900895,0.31963885,0.1594238,0.096524216,0.0038588268,0.5644502,0.15735088,0.25959712,0.30387697,0.17571072,0.16189672,0.14394225,0.10635564,-0.056496713,-0.04545834,0.043302465,0.1821682,0.04408503,0.1257071,0.118634604,-0.11373175,0.13947122,0.17221904,0.11253459,0.19536124,0.17322245,0.5218835,0.10816645,0.12865447,0.21184771,0.14199689,0.23006532,-0.054780893,0.25530818,0.14629754,-0.3770269,0.18068734,0.02683332,0.26050714,0.10254153,0.011508928,0.035844125,-0.11651312,0.13218576,0.08754075,0.4165936,-0.026551804,0.18671744,0.19899082,0.052807175,0.08520302,0.18033269,-0.14135632,-0.27608395,0.3011173,0.27571574,0.19137853,0.2259951,0.20093322,0.14532295,0.088345975,-0.23969117
0.07299024,0.007731171,-0.079808295,-0.105823725,-0.030678622,-0.031999048,-0.012765159,0.17810503,-0.16362078,0.029653307,-0.028899182,-0.11442255,0.05019259,-0.38701627,-6.9045486,-0.024888411,0.03140265,-0.049971227,-0.19092566,-0.022785662,0.047328398,-0.009680774,-2.3174164,0.010312906,-0.0003354575,-0.04699973,-0.114394814,-0.016584832,0.05060216,-0.20965797,0.0014706757,-3.4403985,-0.7289518,0.07081274,-1.0644305,0.25367573,-0.01531224,-0.12097304,-0.31488183,-0.041522313,-0.08574407,0.0014091057,-0.026273958,-0.035115983,-0.045367837,-0.0026757745,-0.051320817,0.06726198,-0.043431405,-0.079488985,-0.2343529,0.019123886,-0.00186686,0.04075548,0.03296425,0.20116365,-0.6722889,-0.96012586,-0.10510672,0.15138422,-0.0209535,0.0904186,-10.523907,-0.040755607
0.0021956472,-0.5100561,-3.0396633,-0.009125617,-0.00626565,-0.28419572,-10.695303,0.032740187,-0.03453503,-1.1822358,-0.063691005,-0.0044818614,0.03519384,0.005118521,-0.013907875,-2.6059074,-0.017373584,-0.48194894,-0.010801341,-0.041573934,-0.10888395,-0.24466598,0.0011879246,-1.7559885,-0.0164632,-0.0009853386,-0.009149782,-0.018722357,-0.046289578,-0.14390881,-0.030086096,-0.0329394,0.006314268,-0.026703298,-0.034304548,0.04553565,-7.4515934,-0.0053097457,-0.0111720385,-1.0362256,0.0041432586,-0.00727982,0.012109568,-0.0020906837,-6.825883,-3.0982935,-0.023559086,-0.020453857,-9.985409,-0.09141384,0.008166112,-0.6683743,0.003707387,-0.27943614,-13.408831,0.051797695,-0.010080554,-0.21104139,-0.013699296,-0.0069207205,-0.1103866,0.0049696644,0.0075093983,-2.8391378
