0,1,2,3,4,5,6,7,8,9,10,11,12,13,14,15,16,17,18,19,20,21,22,23,24,25,26,27,28,29,30,31,32,33,34,35,36,37,38,39,40,41,42,43,44,45,46,47,48,49,50,51,52,53,54,55,56,57,58,59,60,61,62,63,64,65,66,67,68,69,70,71,72,73,74,75,76,77,78,79,80,81,82,83,84,85,86,87,88,89,90,91,92,93,94,95,96,97,98,99,100,101,102,103,104,105,106,107,108,109,110,111,112,113,114,115,116,117,118,119,120,121,122,123,124,125,126,127,128,129,130,131,132,133,134,135,136,137,138,139,140,141,142,143,144,145,146,147,148,149,150,151,152,153,154,155,156,157,158,159,160,161,162,163,164,165,166,167,168,169,170,171,172,173,174,175,176,177,178,179,180,181,182,183,184,185,186,187,188,189,190,191,192,193,194,195,196,197,198,199,200,201,202,203,204,205,206,207,208,209,210,211,212,213,214,215,216,217,218,219,220,221,222,223,224,225,226,227,228,229,230,231,232,233,234,235,236,237,238,239,240,241,242,243,244,245,246,247,248,249,250,251,252,253,254,255
0.07167104,0.064693086,0.031643204,-0.15199076,0.029062867,0.022632152,0.05377995,0.06904982,0.107926905,0.03001361,0.018304095,-3.9262414,-0.05289762,0.03282626,0.20626394,0.18932976,-1.0013069,0.021239635,-0.08167282,0.24640483,-0.050942175,0.07373899,-0.022177542,0.021057356,-0.108090974,0.04047282,0.20892651,-0.8589825,0.016553441,-0.45903978,0.023412935,0.0058678174,0.07517788,0.06020839,-0.056216724,0.0807438,0.14233413,0.0028413357,-5.4745736,0.40235415,-0.0138025815,0.05023421,0.012567397,0.004805218,0.058767397,-0.007910854,-0.021742534,0.009310562,0.005365268,-0.12285108,-0.088403344,-0.010482625,0.15970528,0.07709232,0.055594005,0.042213753,0.025382731,0.047359537,-0.01904451,0.035439324,0.09546591,-0.05260154,-0.086921565,-0.027534494,-0.061605416,0.024088124,-0.0328774,-0.19864064,-0.16412246,0.011153369,0.04909102,-0.057891693,-0.039711375,-0.027617607,0.051061884,-0.098152906,0.21806532,0.031856794,-0.051818516,0.060289845,-0.21797426,-0.042622887,-1.5487535,0.1395215,0.04168942,-0.12934834,-0.022774817,0.022535667,-3.382076,0.047483586,-0.3698063,0.17687917,-0.024121728,-0.014684975,-0.09692709,-0.001261228,-0.0049099345,0.027294822,-0.008837332,0.04454039,-0.10132591,0.0142642595,-0.3590545,0.10137868,-0.039108656,-0.0046803663,0.030278252,-0.055633873,-0.046681773,-0.22453435,-0.14668676,-0.929487,-0.01975595,0.051162712,0.10537747,0.013872435,0.07456663,0.059621356,0.18829305,-1.6740141,0.14931986,0.027225932,0.28057468,0.2177531,0.19533992,0.07251119,-1.5749075,-0.1501739,0.07020135,0.017712768,-1.1093715,0.032356776,0.25332105,-0.1393558,-0.0005333193,-0.13869199,0.04398049,0.08148395,0.003953595,0.32403472,0.07672123,0.080721505,0.0559615,-0.004870906,-1.6376452,0.30606666,-0.03551816,-0.76159346,-0.019228062,-0.052111603,0.0071671223,0.021550657,-0.063248746,-0.14268461,0.23458154,-0.13722785,-0.025873533,0.07654543,0.0513715,0.2297193,-0.00686185,-0.0063840477,0.13059644,0.1336022,0.026465248,0.003667441,0.23077013,0.26650238,-0.019654272,0.24497889,-0.09040265,-0.050653372,0.050839517,-0.11018214,0.013330945,-0.031676743,0.054991286,-0.0054841614,-0.045134358,-0.20049754,-6.6852756,-0.04918524,-0.8508854,-0.14051947,-1.6682403,0.33740038,-0.020115089,0.1328763,0.4170453,-0.09831948,0.016057044,0.048952978,0.006750226,-0.14645036,-0.11903416,-1.0063839,-0.0072804242,-1.104281,-0.047884002,0.03588919,0.030283397,0.063288,0.32300046,0.007279504,-0.04476489,-0.059013113,-0.97984,-0.63760537,-0.014657808,0.052948482,-0.012146719,0.20298114,0.09750863,-0.12662634,0.09379273,0.13923089,0.044965878,-0.056504667,0.10265851,0.0019894533,-0.025479853,-1.0340242,-0.02189997,0.0789114,-0.06299466,0.039598882,0.122563146,0.08163398,-0.0056396127,-0.08252158,0.047342148,-0.120810114,0.19765303,-0.1293555,0.07229342,0.084841564,0.027292024,-0.018488351,-0.016007038,-1.0483257,0.09468596,-0.008818003,0.044818595,0.0705727,0.0066219014,-0.009569831,-0.114754036,-0.024934929,-0.09901993,-1.1980628,-0.07622394,0.243647,0.10139925,-1.0082179,-0.9887083,0.027108414
0.10098436,0.04715491,0.041592013,-0.09925983,0.32246917,0.013125145,0.3584817,0.027176272,0.022167237,-0.005606202,0.15736616,-0.9934521,-0.043858554,0.010710211,0.16419783,0.20124474,0.27210128,-0.09715364,0.037910357,0.26082614,-0.038245104,0.071845874,0.012829301,0.02383716,-0.9886685,0.0466478,0.20645525,-0.79746175,0.15393142,0.1446165,0.05784503,0.061771866,0.029763993,0.3907023,-0.04921335,0.046745803,0.062335793,0.04124031,-0.86482924,0.07697024,0.000530586,0.03540023,0.00038887712,0.0089390315,0.068897925,0.0038382134,-0.030969592,0.106859796,0.10984588,-0.14943777,-0.014483362,0.008401449,0.16218108,0.10214421,0.0472485,0.033851735,0.016569907,0.031611826,-0.009855379,0.089850426,-0.14768378,-0.09742187,-0.01445058,-0.03439909,-0.08086672,-0.019015953,-0.017555842,-0.20543557,-0.17553413,0.06212718,0.08064065,-0.0480046,-0.036623508,-0.019253671,0.075388186,0.08796224,-0.52703184,0.06784514,-0.037382618,0.14392734,-0.21406007,-0.014692648,-1.5515743,0.10877404,-0.0047628,0.0082309395,-0.047525354,0.040131584,-0.6848466,0.15553683,-0.40809664,0.11688785,-0.027443556,-0.018231591,-0.09870199,0.025360484,-0.023250425,0.1870278,0.0025575324,0.059555132,-0.13770072,0.02010954,-0.35011694,0.123683624,-0.03783564,0.254058,0.049114816,0.0055190288,-0.073002666,-0.21571329,0.028809996,-0.11988193,0.04245442,-0.00040796396,-0.06687263,-0.048683528,0.072187096,0.06648856,0.25300947,-1.672676,0.24821338,0.02512208,-0.03186918,0.21631469,0.18601096,0.052419856,-1.5259923,0.012890905,0.047811504,0.033879425,-1.1013305,0.44182315,0.011578747,-1.0377076,0.042309545,0.049772367,-0.0041718925,0.106272474,0.23349738,0.09034581,0.0819419,0.06794302,0.07531659,-0.031105498,0.32165894,-1.0142361,-0.014321469,-3.2041435,-0.008280052,0.01610199,0.16608578,-0.0098727085,-0.114573345,-0.1441948,0.24351336,-0.14501362,-0.123332344,0.07467435,0.07664894,0.04827957,-0.017581975,-0.026248887,0.15793735,0.13521181,0.06704716,0.027850792,0.23691386,0.0035004974,-0.01954429,0.2288836,-0.020672904,-0.05333373,0.028786073,0.04053407,-0.074960075,-0.043396547,-0.010201178,-0.020288458,-0.048200045,-0.1997637,-1.193191,0.09092914,-5.2549405,0.054628942,-1.6720284,0.07603855,0.05888448,-0.012838206,0.063371666,-0.87283665,0.013511764,0.011193567,-0.11186076,-0.08390796,-0.14717677,-1.2372094,-0.12984766,-0.10713938,-0.028988685,0.025240002,0.069002315,0.070150666,-1.5666592,0.031209452,-0.05087847,-0.08116827,0.015320256,-0.7007644,-0.024296362,0.063196994,-0.026587043,0.22364046,0.14457838,0.04244198,0.1374804,0.084089406,0.021798192,-0.083105735,0.080443725,0.032247745,-0.0883884,-1.0737382,0.005619404,0.027013488,-0.034543008,0.026125016,0.21919838,0.07524485,0.023366017,-0.059575923,0.20729546,-0.1430126,0.1256361,-1.0911376,-0.015259123,0.051448062,0.031213034,0.01781548,0.080492325,-0.11786127,0.08672523,0.009141114,0.03183256,0.0890612,0.012462254,-0.0116242375,-0.9451783,-0.031934477,0.004593253,-6.740161,-0.07105405,0.03109602,0.11481996,-0.16243006,-4.115691,0.012547949
-0.29732898,-0.15235595,0.4924495,-0.10693216,0.19510423,-0.13282457,-0.0555413,-0.3563397,-0.574458,-0.2713906,0.3741395,-0.017382678,0.062996335,-0.35451093,-0.68291605,-0.7913716,0.09097881,-0.1133869,-0.10822359,-0.52667785,-0.40215537,0.14254162,-0.039442305,-0.05101998,0.30667165,0.66982245,-0.035943147,0.015533835,-0.11178164,-1.2225074,-0.32145515,-0.105820544,-0.36528516,-0.010096233,0.058369912,-0.1320327,-0.74745214,-0.13753992,-0.071841195,-1.0139792,-0.02872556,-0.308891,-0.069400564,0.42399773,0.28561488,-0.2171433,-0.5134781,-0.00017436434,-0.5859296,0.50384307,-0.087581836,0.02361721,-0.8494941,-0.40183133,-0.35015768,-0.07250931,-0.26739192,-0.4106495,-0.04301284,-0.20100518,-0.12083947,-0.1171263,0.03662856,-1.0401896,0.11398908,-1.322317,0.033646643,0.5591931,0.49490634,-0.10128834,-0.4554055,0.08527989,0.06841672,0.48681852,-0.90982527,-0.16971898,0.56537837,-0.4506704,0.030307483,-0.7493194,0.5268491,-0.32546946,0.019301957,0.1769301,-0.36012536,-0.05425535,0.12840052,-0.11425662,-0.08975244,-0.2592322,-0.18597098,-0.41550076,-0.0049773054,0.057871643,0.73709536,-0.1924834,0.04887904,0.36040074,-0.3710579,-0.40033653,0.47764692,-0.08563817,0.31093508,-0.44374385,0.46929955,0.00047107064,0.25528842,-0.27806324,0.2066112,0.42620575,-0.014253788,-0.052595392,-0.08323888,-0.30777222,-0.15350974,-0.028790422,-0.96323746,0.25307494,-0.45840386,0.027413,-0.6219513,-0.35938796,-1.3528348,-0.11851979,-0.58523405,-0.3580518,0.0705889,-0.093374364,0.36727542,-0.13219894,0.027248828,0.0018559666,-0.76715237,0.48906904,-0.044735704,-0.009077102,-0.30783278,-0.39497542,-0.0052847946,-0.45482945,-0.26948717,0.0005875033,-0.67817754,0.56140506,-0.638771,-0.9810717,0.036283594,0.20310596,-0.35529408,-0.30099988,-0.05596343,0.484301,-0.042067096,-0.02065605,-0.353204,0.4980571,0.11354306,-0.6133416,-0.17060345,-0.50962126,0.10386284,0.599682,-0.7584433,-0.80742985,-0.39054304,-0.53118515,-0.044401877,-1.132465,0.003422656,-0.7286351,-1.2488922,0.06111399,-0.27304086,-0.023604026,0.031191729,0.07972078,-0.47725132,-0.00088631496,-0.5896391,0.40187067,-0.053208407,-0.14710952,0.13385665,-0.043630928,0.049676456,-0.8164524,-0.050902206,-0.6204894,-0.8761019,0.15524134,0.09040645,-0.34077534,-0.06476033,-0.12880348,0.2949937,0.06742094,-0.12537955,-0.039540216,0.0583209,-0.28238237,0.4213506,0.4470833,0.24858585,-0.121932216,0.15196458,0.61684895,-0.091894716,0.04283046,0.09847029,-0.27410334,-1.4431611,-0.754768,0.27671802,0.016246438,0.2112223,-0.6281269,-0.28013548,0.56630355,-0.21583815,0.21457024,-0.0031820685,0.005965278,-0.1921472,-0.13846268,-0.92096704,-0.21891156,-0.6093073,-0.5229931,0.5821858,0.025690997,-0.6840088,0.5035848,-0.081387274,0.3462617,-0.38466173,-0.60460204,0.3548012,-0.27738035,-0.03118773,-0.07900087,-0.9301614,0.5756292,0.35575914,-0.27116218,-0.22892492,0.11715464,0.28798163,0.03815889,-0.054044433,0.09966438,0.08807896,-1.146489,-0.044990096,-0.072392404,0.17629081,-0.34784606
-0.29620093,-0.14574149,0.51151234,0.045238458,-0.8567804,-0.11851574,-0.8422832,-0.22531815,-0.19228555,-0.16282694,-0.58512384,0.17320196,0.052727535,-0.30206698,-0.7873021,-0.6531775,-0.88039833,0.08000179,-0.06823687,-0.7203005,-0.38867044,0.14657557,-0.2534234,-0.0059738257,-0.12417187,0.6613127,-0.0385907,-0.017917836,-0.55653894,0.7006031,-0.50513303,-0.35983366,-0.4089981,-0.42397174,0.07402496,-0.14886288,0.3138689,-0.20163614,0.14617366,0.0006383739,-0.03712497,-0.26178476,-0.04128539,0.44954383,0.2982944,-0.3753096,-0.50376385,-0.3454487,-0.53253675,0.46284345,-0.12135717,-0.11411516,-0.84854454,-0.4438885,-0.24855913,-0.10028006,-0.28153035,-0.20192201,-0.040012777,-0.5238189,-0.016978752,-0.029636115,-0.09295976,-0.6970961,0.111585036,-0.31303817,0.056352522,0.56756395,0.491711,-0.30077156,-0.4886851,0.100551166,0.053271655,0.45752865,-0.8365226,0.0059772497,-1.176119,-0.5330871,0.017334806,-0.6935139,0.52490014,-0.43895888,0.010534213,0.2030922,-0.2055232,-0.08637706,0.10584159,-0.17614545,0.23362069,-0.61698633,-0.22075512,-0.46230012,-0.030613346,0.02781207,0.7710349,-0.3229005,-0.14751814,-0.8559255,-0.5510568,-0.5751784,0.5471203,-0.06626952,0.28015393,-0.46934405,0.57009614,-1.215355,0.27819264,-0.19761306,0.21429561,0.4707534,-0.05981751,0.2422132,-1.3579758,-0.061590903,-0.13186613,-0.062837124,-0.9508165,0.2869046,-0.608663,0.01650933,-0.5756685,-0.32993233,0.11877773,-0.10518666,-0.66392386,-0.26595914,0.090312846,-0.031915687,0.37725064,-0.19183545,0.020105975,-1.0951524,0.32310572,-0.07568169,-0.31647947,-0.13945891,-0.184123,-0.5408978,-1.2410315,-0.17256725,-0.3265184,-0.042185884,-0.75924766,0.59051484,0.23893231,0.031162418,0.03715689,-0.07056552,-0.19513442,-0.36598143,-0.5429821,0.44776616,-0.110174425,-0.027557932,-0.36119464,0.5209168,-1.2868154,-0.46294904,-0.15122248,0.16570067,0.10982747,0.65142184,-0.87624645,-0.8281778,-0.49745208,-1.2683679,-0.06360932,-0.029281354,-0.023753654,-0.7250395,0.005708367,0.07288715,-0.29670003,-0.12372133,-0.06462119,0.07621587,-0.329574,0.022651024,-0.5804717,0.40050638,0.10319204,-0.14756995,-0.07708068,-0.12344248,0.046855547,-0.012324498,-0.5104534,0.017068503,-0.047886815,-0.04985831,0.105412796,-0.34737697,-0.13078372,-0.09113731,0.32309052,0.006580932,-0.1388733,0.34628433,0.06202832,-0.33343336,0.44373775,0.4934487,-0.54162,-0.36033934,0.16890737,0.63788694,0.3238215,0.013868889,0.10045888,-0.33755302,-0.046873312,-0.71620643,0.3326828,-0.09196271,0.1918802,-0.44185522,-0.2478175,0.53904474,-0.17754194,0.24263136,0.0035623014,0.000957172,-1.3529359,-0.11096275,-1.1002896,-0.11028505,-0.6451325,-0.5144617,0.63642204,0.011097887,-0.93728834,0.5274234,-0.05784281,-0.070446596,-0.06539876,-0.5971254,0.30928794,-0.21735662,-0.42487475,0.48342517,-0.80660397,0.6072439,0.38832146,-0.28208777,-0.2725544,0.12627444,-0.081148095,0.043255355,-0.0024484396,-0.046865422,0.09922377,-0.011201151,-0.010837829,0.34222552,-0.0451502,-0.37435776
0.7201529,0.22773318,0.6421357,-0.015690826,0.42933628,0.274187,0.57559687,0.41700533,0.014068752,0.07385045,0.28778404,-0.2644884,-1.7238111,0.2854534,0.7673603,0.8100832,0.09091883,-0.045952227,-0.03703346,0.21749169,-0.35398299,1.0776186,0.20167044,-0.99755955,-0.12675706,0.41056523,-1.0258757,-0.14652036,-0.36086485,0.06376525,0.07091576,0.17890933,0.22092776,0.66947967,-1.4719373,0.47391906,0.29507136,-0.37278566,-0.2420609,0.5895989,-1.4488646,0.2913797,-1.8150809,-1.4151772,0.6608743,0.26887146,-0.24229808,0.21758631,0.3250316,-1.4892137,-0.014527246,0.0436757,0.40752515,0.5588412,0.12837341,-1.717084,0.2860761,0.15975226,-2.1720104,0.16480349,-0.119315855,0.061145037,-0.022410497,-0.20500137,-2.3618686,-0.083124906,-1.1285746,-1.0702897,-0.92130744,0.19054769,0.17981641,-2.2807996,-2.5800204,0.14359213,0.15227199,-0.08440927,0.12051586,0.30270645,-2.7278552,0.33898005,-1.0766507,-0.84168124,-0.059163474,-2.1749504,-0.11282388,-0.08688731,-2.2495549,0.20163597,-0.25192383,0.16687639,0.7570978,0.56557983,-0.75523645,-4.637357,-0.5630674,0.5489435,-0.055712402,0.26127857,0.34360906,-0.0045203166,-0.40520108,-1.7297628,-0.385873,0.7118876,-0.50187194,0.0083943205,0.54546815,0.30074975,-0.9726586,-0.4664487,-0.13115822,-0.16475677,-0.031750787,0.11252166,-0.15707663,0.047064226,0.67554444,0.4270584,0.6315301,-0.15268698,0.8788216,0.2031419,0.068681814,0.9953827,0.66339517,0.32476014,-0.21032959,-0.12116805,0.30207404,0.12884867,-0.21041282,0.5302089,0.10770808,-0.28624615,0.09723977,0.015467942,0.22594438,0.3831438,0.029350433,0.7009146,1.1028898,1.153972,0.43406683,0.33128244,0.39469755,0.042022698,-1.3330032,-0.2636745,0.23237558,0.25578344,0.35864025,0.42926887,0.005168453,-0.066025734,0.6941348,-0.39675513,0.025891235,-0.023967128,0.27861822,0.6601743,-0.50416523,0.4581688,0.7651531,0.32144868,0.32282326,0.11082496,-1.3889875,0.012145798,-1.5914905,0.47486824,0.0801637,-4.031331,-0.060750633,-0.14552787,-0.01906078,-3.0763912,0.3154327,-0.99667853,-0.51370966,-0.8981486,-0.13862716,0.03518506,-0.19980823,0.088175446,-0.1621704,0.53784496,0.013146744,0.22572917,0.5653625,-0.21186852,-0.6316724,0.3096063,-0.06755615,0.11220071,-1.4381468,-0.2063227,0.030353755,-0.26063406,-3.3875382,-0.08602442,0.6124517,0.51342237,0.38339424,0.16598155,-3.0504572,-0.026680725,0.09388446,-0.18527105,-6.079489,0.2790382,0.035413753,0.51732445,-1.1058921,-0.10676825,0.93827343,0.30114534,0.13099982,-0.4122483,0.526385,0.5500141,-0.090510145,-0.19994703,0.08243647,0.27386305,-0.28662068,0.14475954,0.78340876,0.1666112,0.47844023,-1.6110169,0.52621317,-1.0219642,1.1086315,-0.23865405,0.20976812,0.35495895,-0.53218657,0.30125225,0.15687451,-0.42854273,-1.1584797,0.332661,0.34034562,0.44684574,0.3462448,-4.62994,-0.038550697,-5.587838,-0.032587357,-0.17281012,-1.5809457,0.07050987,1.2093883,-0.2067075,-0.28456187,0.6581679
2.836982,1.0586914,2.6720223,0.076693736,1.7021453,1.1564119,2.256063,1.5052918,0.3327498,0.7300131,1.3987198,-0.018784733,-3.1903903,0.98544383,2.775727,2.725017,1.9098357,-0.09718693,0.09510441,1.3302003,-1.9779516,4.1120114,0.5784109,-20.290396,-0.094243445,1.9650215,-4.4774175,0.014104262,0.51482314,0.27824825,0.8531585,0.71414876,1.1638092,2.718348,-2.0826468,1.7558868,1.5234799,-0.69846773,-0.022733709,2.1317952,-12.03959,0.86765957,-11.65603,-1.1131285,3.033615,1.1435403,-1.0072776,0.9848741,0.75031877,-3.4954324,0.14290163,0.05250962,1.6321776,2.0386589,0.7870986,-14.772107,1.118746,0.85354793,-13.483175,1.0230846,-0.07868132,-0.114483595,-0.11513513,-0.5599107,-3.8218784,-0.33416146,-12.284095,-3.9290156,-3.0088265,0.7105685,0.68290097,-1.7076212,-3.0514622,0.9007161,1.1593213,-0.03470612,0.78943723,1.2994653,-4.277615,1.531717,-3.798249,-4.167066,-0.027291335,-0.78117245,0.7608067,-0.11387084,-2.1217608,0.75717837,-0.42976627,1.003679,2.3053417,2.4399233,-11.179196,-4.0319614,-1.42106,2.099558,0.07586614,0.998923,1.6338072,0.83073384,-1.818087,-20.597372,-1.5235175,2.7268686,-1.3640952,0.6058265,1.9137995,1.3070703,-5.804277,-1.5789677,-0.03992515,-0.18317021,-0.7744807,0.74764603,0.059521914,-0.07145057,2.368468,0.41012955,2.6196,-0.15072425,2.9316294,0.639922,1.0846717,3.0512216,2.2895114,1.1540639,-0.42200536,-0.07430077,1.4062772,0.54624295,-0.046968024,2.3487487,0.30713424,-1.7576722,0.51667804,-0.049106345,0.43157837,1.3719254,0.6752837,2.8592503,3.5574121,3.6722105,1.319473,1.381835,0.26909783,1.6320589,-3.2720559,-0.4004729,1.4157798,0.95898205,1.4475682,1.5795952,-0.06323983,-0.11275017,2.9079692,-1.9927685,-0.6165118,0.49212533,1.522347,2.6266205,-12.346464,2.0482752,2.4718406,1.3280985,0.8379192,0.3874888,-4.7218394,0.38944438,-8.6957445,1.7014774,0.12366526,-1.6838907,0.8316386,-0.1487385,0.14033632,-1.6942252,0.941509,-10.1931715,-1.8017887,-3.8832786,0.06850093,0.13040116,-0.1281658,0.087216176,0.22374222,1.9873925,0.7240375,0.82600915,2.1894443,-0.26324388,-14.654346,1.2207389,-0.12005392,0.045760736,-5.9303613,0.07364773,0.059884876,-0.42449898,-2.1286907,0.13596104,2.4028296,2.1182363,-0.04418066,0.6846656,-2.2584496,0.21585152,0.7132968,0.5255915,-2.144082,1.0500364,-0.14302191,2.3896115,-3.7906115,0.045181945,2.6939538,1.4270272,0.63290894,-1.1019671,1.5681484,1.9745792,-0.14699848,0.08044028,0.89265174,0.75993276,-1.6404169,0.52353024,2.613926,1.092932,1.731797,-3.7856154,2.096274,-2.9105923,3.8088431,-0.67166966,0.9150358,1.2488682,-6.7332387,0.90229857,0.68537784,-1.0365803,-5.603333,1.3945656,2.001498,1.5055304,1.0716672,-2.7293618,-0.092378214,-2.8544214,-0.13738076,0.09410186,-1.924478,0.7426616,3.9702706,-0.6948803,-0.123699255,2.6439877
-0.17655684,-0.19270833,0.008525516,-0.14326748,-0.026300376,0.0113561265,-0.045697004,-0.03229855,-0.12488389,-0.083970934,-0.12970823,0.010888411,0.05557091,-0.05345781,-0.12277189,0.082569644,-0.108571105,0.039600983,-0.1430086,-0.057774592,-0.045346294,-0.023923354,-0.12083447,0.2718593,-0.024780018,-0.0018732513,0.0665671,0.05165637,0.16643627,-0.09112297,0.0072128503,-0.08735767,-0.12854266,-0.08897423,0.0660679,-0.14794032,-0.03915785,0.00067936187,0.0064926706,0.057872806,0.19284353,-0.032509483,0.188624,0.093010604,-0.08787622,0.051913522,-0.014005096,-0.06283179,0.15689288,0.24176964,0.108902216,-0.1074164,0.037463356,-0.044119786,-0.13214004,0.17286374,0.0652531,-0.070270635,0.26185468,0.04310982,0.051324535,0.0022405088,-0.122657806,-0.043482486,0.1433369,0.05795688,0.20060292,0.107651934,0.03371208,0.01195023,0.03966026,0.070983306,0.11023677,0.016092885,0.09674047,-0.12829222,-0.06873125,-0.004302454,0.1363324,0.14622663,0.1295044,-0.058100626,0.013979486,-0.014635337,-0.16956641,0.13988373,0.033741888,-0.08473756,0.05059338,-0.1789443,-0.13579789,-0.15535748,0.18688282,0.15134497,0.056919053,-0.0065028067,-0.029549466,-0.00937349,0.07640996,-0.04002282,0.050157823,0.263512,0.07663961,0.007536859,0.0063305553,0.099169426,-0.0440929,0.08104068,0.09754623,0.036444113,-0.16964428,-0.010319143,0.0066949194,0.040504877,-0.1752238,-0.098760314,0.14767136,-0.24945317,-0.029900067,0.011048775,-0.068917714,0.0692905,0.068062834,-0.15317973,-0.12037388,0.004894557,0.07838407,-0.04847288,-0.03823434,-0.10756332,-0.030427093,0.05793349,-0.16212422,-0.0026237299,-0.028652184,-0.0156575,-0.11519819,-0.23531269,0.10090931,0.021078816,0.15626585,-0.1364344,0.0067804386,-0.01582961,0.002117106,-0.0682287,0.10970816,0.023953376,0.030880464,0.03825397,-0.053406537,-0.020681834,0.0496718,-0.0448898,-0.016689956,0.036526103,-0.04079498,-0.040312167,-0.054334648,-0.031931363,0.21679547,-0.01051187,0.21075222,0.033279236,-0.08923883,-0.09527914,0.03280592,0.02599032,0.16062924,-0.0052111605,0.010833225,0.040236037,-0.048066743,0.12302672,-0.008096094,0.075434975,-0.08779412,0.16356215,-0.03272008,0.09715949,0.0039189165,-0.13009955,0.02546659,0.0049833287,-0.0014458236,-0.0068367617,-0.0869846,-0.054552455,0.0014162043,0.066502504,0.20323181,-0.08197704,0.023007005,0.02989225,0.13675421,0.001996472,0.054043964,0.00026109855,0.045391608,-0.11170302,-0.051738244,-0.011717611,0.042120572,0.064002715,0.12837446,0.053541884,0.006697162,-0.05406418,0.055043608,-0.098763436,0.03603596,-0.10863024,0.029099554,0.0021271408,-0.3956805,-0.023074426,0.0062566,-0.0061099185,-0.21168178,-0.00027750948,-0.10957734,-0.050414108,0.11278093,-0.05221062,0.018876446,0.034167066,0.0033970512,-0.11421861,0.0067589884,0.15063089,0.028959213,0.06683769,-0.06500993,0.018995276,0.046205882,0.018600969,-0.00042352994,-0.043811902,-0.09456024,-0.025197469,-0.25246,0.07254244,0.0737159,-0.15291695,0.021740155,0.101276614,0.004790393,0.11279573,-0.06666742,0.015714142,0.10568886,0.16197878,-0.09479263,0.022403438,0.009258128,0.21784347
-0.05985244,-0.053197794,-2.022672,0.0011854925,0.042513564,-0.04070409,0.035334516,-0.044707675,0.006177272,-0.01443059,0.024319464,-0.0058977394,0.12175501,-0.010882567,0.06584433,0.049489085,0.039158862,-0.1498099,-0.088446304,0.03114956,0.19525845,-0.4311413,-0.029927129,0.028963426,-0.003907269,-1.8829098,0.10631321,0.036610734,-0.90842104,0.027259208,-0.026161183,-0.016493244,0.0055126348,0.015992088,0.107615486,-0.034374777,-0.18557738,-0.51694584,-0.008006609,0.054997467,0.10618487,-0.019511303,0.09762771,-0.20492208,-0.2261107,-0.019357085,0.18012936,-0.004190266,-0.007200402,-0.22934635,-0.13783954,-0.109804876,0.081653036,-0.052650597,-0.012916728,0.074923635,-0.009652319,0.010952011,0.09606683,0.0014847954,-0.17949997,-0.13051124,-0.11277853,0.1796972,0.12303106,0.1499702,0.1029177,-0.05057097,-0.058079816,-0.008328302,0.0028082496,0.107964545,0.12401343,-0.22196081,0.06521094,-0.0952711,0.0057157762,0.009130053,0.11504629,0.010854747,-0.07052857,0.18656681,0.0017913929,-0.09877445,-0.008425903,-0.11154288,0.11605761,-0.01076459,-0.01339134,0.009204796,0.07925166,0.014767676,0.1263605,0.08524919,-0.40023863,-0.09101887,-0.041101146,-0.24935494,-0.004406297,0.049476463,-0.06440914,0.053512454,0.0048789866,-0.012900696,-0.07141401,-0.0037073104,-0.44246724,-0.054416195,0.05874298,-0.029831205,-0.04157275,-0.00441157,0.1244505,-0.016653895,-0.12300342,-0.045729347,0.07421584,0.20269196,-0.014998451,0.017812824,0.014574167,0.009670134,-0.48413408,-0.025952278,0.05864441,-0.039932907,-0.026592577,-0.0846275,-1.2982422,-0.04123758,0.021693265,0.025712222,0.046338376,-0.050338276,-0.008732687,-0.14440744,0.0018426647,-0.041681595,0.00925934,0.013141469,-0.08672251,-0.12343398,-0.031636987,-0.8804644,0.0039120107,0.062214456,0.109816454,-0.001222476,-0.037050586,0.018912578,-0.02125153,-0.6014009,-0.034923106,-0.04210958,0.027056437,-0.028911542,0.13784927,0.03178599,-0.010218281,0.0064221155,0.03638127,-1.4005737,0.03376495,0.07129741,-0.0048128306,0.1385937,0.05667945,0.03710117,0.13820833,0.09252779,0.13709997,0.08734868,0.017605742,-0.00921101,-0.119570725,0.09201882,-0.0024716898,0.08523473,0.20149687,-0.028744156,-0.009547983,-0.18045115,-0.0012064883,-0.003808476,0.0056083556,0.018755313,-0.031441163,0.0045327004,0.03685049,-0.0027553919,-0.0141967945,-0.039101914,-0.12863922,-0.06346731,0.00660471,0.012418126,-0.10102324,0.021039156,0.11808919,0.015876181,-0.7423456,-2.1669056,-0.03101722,-0.005904821,0.05755792,-0.34197983,0.0018817363,0.00884486,0.07207502,-0.0113336155,0.1513067,0.048771188,-0.107831515,-0.08795266,-0.07329122,0.00443583,0.0005920455,-0.17021923,-0.030611802,-0.36099088,-0.030071706,0.004203811,0.14104348,0.0036110822,0.18953656,-0.003925965,0.00923759,0.01304448,-1.1820703,0.13271414,0.009301029,-0.11749191,-0.08768479,-0.0038970797,-0.022996802,0.012285169,-0.004709353,-0.05807417,-0.0043338253,-0.029103821,0.16951889,-1.0392665,-0.21638611,-0.008489807,-0.020110818,0.065121725,-0.0033997034,0.11142756,-0.0056105554,-0.0012272184,0.09554196,0.018956909,-0.09578675,-0.016895885,-0.006196395,-0.2112919
