0,1,2,3,4,5,6,7,8,9,10,11,12,13,14,15,16,17,18,19,20,21,22,23,24,25,26,27,28,29,30,31,32,33,34,35,36,37,38,39,40,41,42,43,44,45,46,47,48,49,50,51,52,53,54,55,56,57,58,59,60,61,62,63,64,65,66,67,68,69,70,71,72,73,74,75,76,77,78,79,80,81,82,83,84,85,86
0.0023170563,0.0013122332,0.00072645105,0.0008368038,0.00082554185,0.000867728,0.0009012873,0.00088722946,0.00071015954,0.00054611545,0.0009864571,0.00070180243,0.000507238,0.0005178225,0.00039125863,-0.00016905232,-0.0006721584,-0.0010303621,-0.0013012039,-0.0015004253,-0.0026865895,-0.0028571298,-0.002885989,-0.0028369322,-0.002743993,-0.0045305756,-0.004027414,-0.0035302674,-0.0030923723,-0.0027316576,-0.003658736,-0.0024805851,-0.0014774832,-0.0006099654,0.00015452174,0.003111972,0.0047911815,0.0060277665,0.0069850516,0.007742216,0.018090703,0.018949851,0.019341202,0.019438189,0.019337736,0.039226737,0.036804095,0.034343243,0.031944703,0.029675528,0.055705793,0.047763094,0.041112594,0.035537466,0.030837255,0.05262416,0.040597983,0.031592757,0.024650672,0.019226253,0.027317632,0.016603256,0.009552444,0.0048077498,0.001580447,-0.0038343053,-0.008031513,-0.009862008,-0.010355972,-0.010246996,-0.020971501,-0.01842329,-0.015999068,-0.013778255,-0.011774126,-0.021494916,-0.017087588,-0.01359157,-0.010886411,-0.008870918,-0.017057637,-0.013414938,-0.0106544085,-0.008357712,-0.006664242,-0.012725864,-0.008630448
0.22031331,0.03640321,0.019346679,0.013012784,0.009223005,0.012466306,0.008245703,0.0058228048,0.0042921584,0.0032894814,0.0050902986,0.0034755138,0.0025789097,0.0024380134,0.0021509482,0.00232981,0.0016523291,0.001209762,0.0008723575,0.00061114685,0.0011601336,0.0006899334,0.00039577094,0.000206505,8.3620274e-05,-9.445225e-05,-0.00030267108,-0.00040168554,-0.0004344649,-0.0004506829,0.0006886056,0.00064180454,0.0005697504,0.00047595083,0.00038824131,0.0017348224,0.0015905083,0.0014312757,0.0012879281,0.001190352,0.0029126632,0.0026381742,0.002392827,0.0021834844,0.0020134095,0.0037351921,0.003247672,0.0028914828,0.0026135105,0.0023818333,0.0046478137,0.0037482958,0.0030604568,0.0025545373,0.0021981099,0.0052906154,0.0042386334,0.0034128544,0.002717477,0.0021374174,0.004970389,0.0040242216,0.0033061185,0.0027494954,0.0020376903,0.0036136855,0.0024709196,0.0018250953,0.0011432943,0.00078583043,0.0010542581,0.00020054454,-0.00052912545,-0.00083126046,-0.0010177201,-0.0020355966,-0.00244224,-0.0026936675,-0.0022655835,-0.001719107,-0.0035952951,-0.0031913144,-0.002413792,-0.0019774446,-0.0012712136,-0.004136334,-0.0026742618
-0.007515763,-0.0003414275,-7.326687e-05,-0.00035395246,-0.0002514075,-0.00025623894,-0.00022819132,-0.00012747271,-9.399559e-05,-0.00014433416,-7.3245465e-05,-1.8259294e-05,-3.4591845e-05,-4.4375956e-06,-5.0732935e-05,0.00017440977,0.00027206546,0.00034886613,0.00041763412,0.0004830772,0.0013357654,0.0016201425,0.0018693035,0.0020793183,0.002253064,0.00432832,0.004834576,0.0051434375,0.005275661,0.00527781,0.010489261,0.010527665,0.010410329,0.010206572,0.009956226,0.01923521,0.018069709,0.016909791,0.015839923,0.01489982,0.02748442,0.025001647,0.022966137,0.021249168,0.019776972,0.03511826,0.031241331,0.028116018,0.02556401,0.02346935,0.04134683,0.03603356,0.031909183,0.028603973,0.02588773,0.044479594,0.038046673,0.03311856,0.029201848,0.026031593,0.043523666,0.036257427,0.03080204,0.026593063,0.023221556,0.037857004,0.030680971,0.025395295,0.02154359,0.018537482,0.031108558,0.025489239,0.021411251,0.018485067,0.016312923,0.029160853,0.024412934,0.02090106,0.018119976,0.015941333,0.027185494,0.022017201,0.017969275,0.0150594665,0.012684311,0.018681798,0.013691378
-0.0056868745,-0.0023414143,-0.00082893966,-0.0006580196,-0.00071699946,-0.00069875,-0.00083471526,-0.00056006823,-0.00043746055,-0.00029449788,-0.00061826286,-0.00044327532,-0.00024039109,-6.2136714e-05,-3.134641e-05,-0.00048252003,-0.0003765379,-0.00035186182,-0.0003508019,-0.0003525567,-0.00069245975,-0.0005971022,-0.0005220296,-0.00046179828,-0.00041710713,-0.0007324732,-0.0005495785,-0.00038213533,-0.000251129,-0.00016711988,-0.0009942618,-0.00060401566,-0.00036839102,-0.00022403777,-0.00011161767,-0.000109051936,-4.4805933e-05,-0.00013726072,-0.00016172173,-9.665362e-05,-0.00033570526,-9.336637e-05,0.00012177945,0.0002970798,0.00042291573,-0.0008961193,-0.00076439464,-0.00063356094,-0.0005064286,-0.00037389458,-0.0016938657,-0.0013172205,-0.0009511673,-0.00061008945,-0.00030783127,-0.0014469296,-0.0003037936,0.00063884456,0.0013626264,0.0019201328,0.003115225,0.004448012,0.005421464,0.006135426,0.006655092,0.012389977,0.012908713,0.013018329,0.012927497,0.012708939,0.023537021,0.022150526,0.020851495,0.019645847,0.018557481,0.034866806,0.032085285,0.029988483,0.02839048,0.02719901,0.053737514,0.050859842,0.04882137,0.04723522,0.045913093,0.09094207,0.0861001
0.017767532,0.003440803,0.0015107475,0.0009949813,0.0007742448,0.001060738,0.00086142775,0.00065654813,0.0004897031,0.00034405073,0.00069604325,0.00047390405,0.0004052305,0.00015046696,9.4355026e-05,0.0002921631,0.00011898148,3.7759586e-05,-1.7609826e-05,-5.944848e-05,-5.5565615e-05,-0.0001355402,-0.00018049192,-0.00020446439,-0.00022288537,-0.0002959949,-0.00031774442,-0.00032528193,-0.00034278794,-0.00036114542,-0.00021112226,-0.00030009824,-0.00028452775,-0.00022507954,-0.00015880214,-0.000780646,-0.00032121828,1.5828704e-05,0.00015147714,0.00019379602,-0.00092095917,-0.000602306,-0.00034111761,-0.0001020163,0.00014712,0.00032473268,0.0007361149,0.0010379519,0.0012679824,0.0014532465,0.003679722,0.0038935994,0.004067123,0.004225115,0.0043780003,0.009796972,0.010156107,0.010379174,0.010518342,0.01061638,0.021052498,0.021064034,0.020966241,0.02074912,0.020450242,0.037782814,0.035889037,0.03400724,0.032221418,0.030577356,0.054806914,0.049030323,0.04399393,0.03958376,0.03565258,0.05997488,0.048846755,0.039855797,0.03260299,0.02674288,0.039146163,0.02595459,0.016580576,0.009880286,0.004962917,0.0020298252,-0.0054065357
0.004223469,0.00064736296,0.00020249959,-2.8277971e-05,-0.000106245454,4.8016736e-06,-0.00012610057,-0.0001200106,-0.00024401535,-0.00034329272,-0.00013120896,-0.00026157312,-0.00020122636,-0.0001737258,-0.00020518579,-0.000550828,-0.0006216966,-0.00066175626,-0.00071063585,-0.0007676802,-0.00059182895,-0.00067835377,-0.0007571344,-0.00082817837,-0.00089507457,-0.0007312296,-0.00085975835,-0.00090803177,-0.00090918445,-0.00090444484,-0.0005692196,-0.000496564,-0.00041583955,-0.00031760748,-0.00019891933,0.0006979819,0.0010800179,0.001417229,0.001640657,0.0017783609,0.0048326263,0.0049338224,0.004949272,0.0049256845,0.004898931,0.0105685685,0.010113055,0.009682906,0.009260091,0.008851961,0.01771339,0.015800584,0.014254006,0.012978546,0.011925511,0.024061155,0.021027396,0.01846651,0.016313374,0.014540063,0.028098285,0.024252912,0.021366177,0.019110657,0.017223407,0.031472676,0.027134288,0.023912126,0.021490104,0.019591264,0.035279095,0.030694656,0.027253842,0.02466217,0.022634577,0.04038523,0.034990948,0.030785643,0.02740742,0.024716908,0.042363733,0.035394054,0.030004146,0.025719622,0.022247056,0.035620943,0.027534883
0.0052823275,0.0019247626,0.0011467941,0.0007920947,0.00088627974,0.0009889441,0.0009981573,0.00081613846,0.0006796404,0.00058225536,0.0008862213,0.0006697289,0.00051828934,0.00036014718,0.00030259875,0.0006082072,0.0004510851,0.00036503343,0.00031393458,0.00028217872,0.00056637515,0.0005390294,0.000501127,0.00045305758,0.00039056572,0.0011924064,0.0011943142,0.001147279,0.0010639409,0.0009768549,0.00077397487,0.0009121229,0.0010083464,0.0010417952,0.0010479935,0.0015935651,0.0014881172,0.001358269,0.0012820414,0.0012787266,0.002407916,0.0025751637,0.0026734157,0.0027237805,0.0027433105,0.0036423686,0.0038510705,0.0039920285,0.004094321,0.004167062,0.0058847717,0.0057438905,0.00564287,0.0055529033,0.005468992,0.009270423,0.008695534,0.008218619,0.007816173,0.0074903434,0.014095149,0.01300525,0.012118183,0.011377726,0.010747997,0.020440063,0.018495845,0.016960481,0.015768835,0.014793099,0.027866874,0.025092375,0.023066299,0.02147339,0.020170212,0.038683243,0.03514274,0.03244968,0.030255584,0.028415497,0.05534366,0.049626607,0.044948798,0.040994737,0.037546318,0.07059151,0.060602807
0.00036150188,0.00070634735,0.0009604386,0.00085735845,0.0006026537,0.000848372,0.00057052844,0.000613833,0.0007981265,0.0009246817,0.0005674069,0.00080080057,0.00084065425,0.0008443316,0.00082889,0.00086527795,0.0008539449,0.0007937419,0.0007481425,0.0007228671,0.00030048355,0.0002596507,0.00024083638,0.00023912388,0.00025012484,-6.321448e-05,1.4491445e-05,0.00013399169,0.00025546987,0.0003345231,-0.00018864419,1.8766204e-06,0.00017282303,0.00032069779,0.00045630833,0.00043561027,0.0007234077,0.00088317285,0.00095818884,0.0010172911,0.0025329827,0.0026126741,0.0026767177,0.0027433715,0.0028295012,0.0073396247,0.007221231,0.007231277,0.007327896,0.007473887,0.018007845,0.017708944,0.017506598,0.017312074,0.017111547,0.035517223,0.03394225,0.032358114,0.03077013,0.02923261,0.054545734,0.049171213,0.04455268,0.040559042,0.036986522,0.06494781,0.05477893,0.046617683,0.039930724,0.034437753,0.057542417,0.04464737,0.034963187,0.027612614,0.021915596,0.03433663,0.023297256,0.015632115,0.010295087,0.0065764524,0.009276137,0.0039013762,0.0008123367,-0.0009687619,-0.0018401059,-0.0021856125,-0.0023759142
0.00660234,8.363309e-05,0.00016592955,-0.00017279752,1.8997962e-06,-0.00038703182,3.863359e-05,-4.7858135e-05,-0.00021669305,-0.00055420276,-0.00013598846,-0.00037527183,-0.00075312395,-0.00095972745,-0.0011089412,-0.0010689893,-0.0013702494,-0.0015360636,-0.001621843,-0.0016649258,-0.0015461454,-0.0015055961,-0.001477281,-0.0014668893,-0.0014808141,0.0009302372,0.0009592617,0.00090634404,0.00081218255,0.0006773296,0.0030649393,0.0030453117,0.0029121565,0.0026950247,0.0024551577,0.00598111,0.0052136355,0.004418211,0.0037551692,0.0032641562,0.007127806,0.0060547367,0.005225608,0.004565008,0.0040135095,0.0064576785,0.004943524,0.0038340038,0.003021095,0.0024398204,0.004904881,0.0036370526,0.0029659783,0.0026277804,0.0025259,0.007140201,0.0077544856,0.008386066,0.008933211,0.009428322,0.021227915,0.023014061,0.024283674,0.025164424,0.025665345,0.051657062,0.051394172,0.050349943,0.048882797,0.047237135,0.08899108,0.081473134,0.07433014,0.06769726,0.061695144,0.10606068,0.088527,0.074140586,0.06228301,0.052543458,0.078844056,0.05726853,0.041740134,0.030405333,0.021970827,0.022809843,0.010473912
-0.0028831693,-0.00024971407,5.5959004e-05,-0.00011216035,9.2152746e-05,0.000113934286,0.00017879807,0.00022257616,8.561762e-05,-8.6961816e-05,0.00029154384,7.432107e-05,7.4231048e-06,-2.7755526e-05,-0.00013146203,-0.0002840464,-0.00047240427,-0.00056799134,-0.0006492802,-0.0007181931,-0.0011347391,-0.0011792887,-0.0011930095,-0.0011923979,-0.001191926,-0.0010548485,-0.00091983436,-0.0007681904,-0.0006172868,-0.00049639103,-0.00014900733,-8.989421e-05,-8.19017e-05,-8.241969e-05,-7.8521996e-05,0.0005704603,0.00050880155,0.00044085953,0.0003336503,0.00021201003,0.0010283744,0.0009932974,0.00092935836,0.00084943336,0.0007712077,0.0012884806,0.0012305831,0.0012034164,0.0011969829,0.0012147764,0.0026634415,0.0021580574,0.0018526257,0.0016855276,0.0015915424,0.0051547573,0.004416083,0.0037790292,0.0032877133,0.0029065306,0.008338849,0.0074792164,0.0067707635,0.006202512,0.0057189157,0.0129891215,0.01177367,0.010853623,0.010239535,0.009774308,0.021458657,0.02003565,0.01907549,0.018351374,0.017807104,0.036888637,0.03451586,0.03267838,0.03108851,0.029683404,0.056822237,0.05189856,0.047837052,0.044342626,0.041306306,0.075115785,0.06634856
0.011833252,0.0009452114,-0.0005923265,-0.0003101451,-0.0003783527,-0.00037837238,-0.0003128586,-0.0003593547,-0.00025352897,-0.0002602736,-0.00036613567,-0.00023580341,-0.00023834454,-7.2989176e-05,-6.369864e-05,-0.000219497,-0.00018458336,-0.00018758912,-0.00020518184,-0.0002250944,-5.157941e-06,9.599229e-06,1.1802273e-05,7.4656564e-06,-6.664428e-06,0.0013675874,0.0012810441,0.0011767675,0.0010911277,0.0010358137,0.003045641,0.0029625488,0.0029208516,0.0028674928,0.002814289,0.0064599183,0.006342227,0.006175437,0.0059354343,0.0056861276,0.011699872,0.011081261,0.010484831,0.009935449,0.009450125,0.017985838,0.01657098,0.015410051,0.014441846,0.013622113,0.025427962,0.02302352,0.021120321,0.019608302,0.018368788,0.033757366,0.030675726,0.028194292,0.02614875,0.024415137,0.0433159,0.039052777,0.035558116,0.032665584,0.03017765,0.051719014,0.045322157,0.039873704,0.035263292,0.031324722,0.051444,0.041802905,0.033938363,0.027578777,0.022423703,0.03307269,0.022478903,0.014813662,0.009260369,0.00523756,0.003664417,-0.0021754107,-0.005480051,-0.007294771,-0.008236185,-0.015108033,-0.014633966
0.0056243995,0.002184695,0.0012390432,0.00077253644,0.0005009997,0.000759072,0.00050120207,0.0002799217,0.00034491584,0.00030637326,0.00023989133,0.00037614556,0.00029811135,0.0004471017,0.00047162437,0.000742303,0.00086531864,0.0008934097,0.0008946841,0.0008865604,0.0011184015,0.0011119336,0.0011009953,0.0010912126,0.0010871241,0.0017177823,0.0016955493,0.0017042168,0.001710812,0.0016673366,0.002385941,0.002196928,0.002139805,0.0021153383,0.0020922886,0.0029507508,0.0028661168,0.0028003592,0.0026657518,0.0025243447,0.0045775482,0.0044114213,0.004204417,0.0040027127,0.0038423762,0.007563936,0.007479208,0.0073947273,0.0072784238,0.007134752,0.015075189,0.014400111,0.0138658285,0.013455425,0.0131239705,0.028796885,0.027260713,0.02576388,0.024369085,0.023087602,0.04680677,0.042759456,0.03915293,0.035934422,0.032979902,0.060856603,0.05224919,0.04496794,0.03881077,0.03362637,0.056562904,0.043413542,0.03335291,0.025649888,0.019703344,0.027414722,0.015724111,0.008211888,0.0033632794,0.00028963582,-0.0054476955,-0.008259522,-0.0088709155,-0.008270818,-0.0072731213,-0.0125292875,-0.008259717
0.003974373,0.0015131274,0.00082361465,0.0004914803,-6.816088e-06,0.00047186075,3.0662948e-05,-9.474524e-05,-3.7774444e-06,3.6720496e-05,-0.000108182365,-2.0518943e-05,1.356213e-05,-0.00025410845,-0.00027761978,-6.164384e-05,-9.998921e-05,-0.0001022601,-9.803657e-05,-9.09507e-05,0.0002565324,0.00024971768,0.00026041787,0.00028032594,0.00030347297,0.0010534273,0.0008921812,0.0006696646,0.00040189875,0.00013269861,0.00088788744,0.00038851105,-8.334973e-07,-0.0003578874,-0.00069647946,-0.0014854526,-0.0023873216,-0.0030238635,-0.0035162196,-0.0038875951,-0.0070565166,-0.0073520276,-0.0074379123,-0.0073925457,-0.007251524,-0.012829827,-0.0112799965,-0.00970142,-0.008194146,-0.006792714,-0.009138144,-0.005384872,-0.0022094923,0.00046055595,0.002717217,0.012431716,0.017222788,0.02038155,0.02241204,0.02368172,0.050938196,0.051401664,0.05024606,0.048202734,0.045644347,0.08336494,0.07277804,0.063072264,0.054424882,0.046948873,0.07384893,0.054918345,0.0409645,0.03058737,0.022744806,0.026207104,0.013345188,0.005746769,0.0012709656,-0.0013674056,-0.009400093,-0.009574759,-0.008595957,-0.0071542044,-0.0057148347,-0.010838951,-0.0063557625
-0.013534755,-0.0033213063,-0.00228194,-0.0016655928,-0.0013468752,-0.0017650891,-0.0013522101,-0.0011735647,-0.0010353841,-0.0009328908,-0.0011879628,-0.0010289105,-0.00075992,-0.00064399757,-0.0005174728,-0.0008619167,-0.0006495883,-0.0005018989,-0.0004154438,-0.00037070652,-0.00042291352,-0.0003734775,-0.00034696277,-0.0003275613,-0.00031053822,-0.00015702371,-0.00014363801,-0.0001637962,-0.00019125156,-0.00020307372,-0.00024925277,5.9198093e-05,0.00035165416,0.00056830415,0.0007357207,0.0019236646,0.0020816044,0.0021145863,0.0021408484,0.0022107752,0.005161796,0.005440003,0.00556121,0.00557539,0.005516217,0.008929462,0.008651401,0.008328646,0.007992618,0.0076790135,0.012937289,0.011661061,0.010688041,0.009959407,0.009378411,0.017840257,0.016261026,0.015026433,0.014050133,0.013283381,0.026561726,0.025020247,0.023767643,0.022681559,0.02170559,0.04125603,0.03836225,0.035685163,0.033246856,0.030984478,0.054112524,0.046893165,0.040727332,0.03549992,0.03099807,0.047719553,0.036532503,0.028237367,0.021998543,0.017291183,0.021454833,0.01330993,0.008262636,0.005212095,0.0032614751,0.0010201163,-0.000377134
0.0010547341,-0.00021340654,0.00028261307,0.00031706863,0.00018409296,0.00031680858,0.00021290052,0.00014013679,0.00013060683,0.00014062779,0.00014306961,0.00011548266,9.548277e-05,0.00020413949,0.00016000352,7.949609e-05,5.2652686e-05,8.6840737e-07,-4.459647e-05,-7.685031e-05,0.00018410748,0.00020852721,0.00023110147,0.00024793975,0.00025199133,0.0001889097,0.00035600195,0.0005151242,0.0006273042,0.0006762421,0.0008210115,0.0009455195,0.0009820852,0.0009813197,0.00097264856,0.0013432817,0.0013179337,0.0012842685,0.0012343056,0.0011863206,0.0019203401,0.0017893248,0.0016361208,0.0015026527,0.0014110085,0.0019246115,0.0020063769,0.00210247,0.002181448,0.0022307534,0.0029491065,0.0029263399,0.0029653343,0.0030477608,0.0031487895,0.005753391,0.005764421,0.005700732,0.005601524,0.005492192,0.010626331,0.010306353,0.009963265,0.009625384,0.009289012,0.01698307,0.015924906,0.014999849,0.014281859,0.013686911,0.025202518,0.023274377,0.021814289,0.020649964,0.01970014,0.036866557,0.03402601,0.031887345,0.030148065,0.028703865,0.05379327,0.049308185,0.045710567,0.042634126,0.039933592,0.0732026,0.06506996
0.005600435,0.0022082506,0.002558231,0.0015606664,0.0010771926,0.0019249696,0.0010626974,0.00080240675,0.00078300457,0.00078384846,0.00079679093,0.00076777505,0.00072505354,0.00034706836,0.00029279446,0.0008789602,0.0007705875,0.0006922908,0.00065051625,0.0006220194,0.0014638053,0.0013850447,0.0013056305,0.0012338306,0.0011688018,0.0015968317,0.0014700914,0.0013942865,0.0013105172,0.001230802,0.0021089946,0.0023023807,0.0023614243,0.0023878051,0.0024174757,0.0036324896,0.0037141135,0.0037270146,0.0037584852,0.0037954105,0.006278773,0.006114817,0.005913017,0.0057178657,0.0055406545,0.009155522,0.008600641,0.0082523385,0.0080014095,0.0077834534,0.013624316,0.0128591,0.012273388,0.011783069,0.01138825,0.019996468,0.019287791,0.01856453,0.017800624,0.017046457,0.028306846,0.026671654,0.02527937,0.024085954,0.022974066,0.036755618,0.03349395,0.030811222,0.028614582,0.026827272,0.04378412,0.03897839,0.035260987,0.03228059,0.02987406,0.0506998,0.044663932,0.0399437,0.036130607,0.03302212,0.05613956,0.04809766,0.041693475,0.03650866,0.032218885,0.05189058,0.041520346
0.0078111617,0.0008626362,0.00059069716,2.8266513e-06,0.00022528275,0.00033385417,0.00030683842,0.0002491793,0.00020197303,1.4484407e-05,0.0003246814,0.0002439105,-2.5063744e-06,6.7204073e-06,-1.9652505e-05,0.00021033904,0.00011491823,8.101301e-05,6.8904876e-05,5.9789578e-05,0.0007041967,0.0007178205,0.0006946822,0.0006484507,0.00058734603,0.0013855979,0.0012060034,0.0010292777,0.0008669613,0.0007402962,0.0015058767,0.001279658,0.0011149637,0.00096943177,0.0008333244,0.0011555147,0.0007216874,0.00041324954,0.00017726702,-5.5669298e-06,2.2404558e-05,-0.00023099713,-0.00046097714,-0.0006654541,-0.0008404061,-0.002338949,-0.0022629595,-0.002168337,-0.0020872934,-0.0020078148,-0.003979616,-0.0038620094,-0.0036039355,-0.0032779297,-0.0029190339,-0.002773413,-0.0018749641,-0.0011674414,-0.0005622653,-3.901616e-06,0.004887252,0.006937978,0.008503157,0.009724642,0.010670385,0.02456672,0.026412897,0.027316038,0.027637213,0.02758143,0.05280358,0.050195135,0.04711456,0.04385392,0.04061195,0.06980788,0.05972707,0.05119573,0.044041116,0.038051497,0.058079965,0.044230394,0.034125507,0.026634425,0.020894274,0.02493417,0.015039254
-0.17741941,-0.045011736,-0.11208105,0.059583474,-0.11413355,0.14069065,0.09721289,-0.16303293,-0.18849058,-0.04195162,0.08987072,-0.11762095,-0.01614585,0.012490607,0.020860624,0.15764399,-0.1147413,0.07751906,-0.12763588,0.17200425,-0.080968834,0.17306028,-0.16453665,0.021882687,-0.030353999,-0.1058411,0.10896319,-0.117479555,-0.0742419,0.07276602,-0.053350788,-0.117967576,-0.030465402,0.11752783,-0.019697256,0.16924478,0.012332964,-0.058059264,-0.08518926,0.10481007,-0.12344531,-0.0067797177,0.13631925,0.15880932,0.18436849,-0.14671738,-0.18106481,-0.07142829,0.08890876,0.08882421,-0.19619313,0.00027158947,0.013220602,-0.11950913,-0.116197675,-0.0977161,0.12748866,-0.14753512,0.1456128,-0.069420874,0.14443693,0.14588793,0.10008688,-0.035993755,-0.07298108,0.099072866,0.12291973,-0.09544245,-0.120419845,-0.0023898357,-0.16718358,-0.17107591,0.18739311,-0.10109748,0.037915297,-0.07896069,0.19735177,0.19111171,-0.1571769,-0.0720027,-0.0795319,-0.11960508,-0.03186773,-0.08723298,-0.13365538,-0.039748505,0.09262815
0.04537856,0.010622635,0.005645556,0.003735879,0.002550201,0.004241527,0.0027083724,0.0020852913,0.0016556517,0.0013725675,0.0021577731,0.0016226461,0.0012822159,0.0009561711,0.00082739367,0.0011863383,0.00081884133,0.0005432725,0.00033911032,0.0001829084,0.0002955599,-9.989453e-06,-0.00020323088,-0.00032758847,-0.00040736317,-8.8439265e-05,-0.0002868324,-0.0004562696,-0.00061358395,-0.00074909563,-9.691371e-05,-0.00022126031,-0.00019328753,-0.00012357911,-5.454925e-05,0.0007950813,0.00084416656,0.0010130156,0.0011310568,0.0012060484,0.0036536467,0.0038140905,0.0037899108,0.0036598523,0.003495524,0.007134564,0.0069431886,0.0067007104,0.006461508,0.00623837,0.011401393,0.010442834,0.009745005,0.00923844,0.008832392,0.017119762,0.015915865,0.014960465,0.014228326,0.013652971,0.026603527,0.025038473,0.023792155,0.022785665,0.021910045,0.041243978,0.03847396,0.035897646,0.03360157,0.031522132,0.056344606,0.049928006,0.044311993,0.039409515,0.035067175,0.05740348,0.046401944,0.03775384,0.030929355,0.02553132,0.035892483,0.0250894,0.01770912,0.012447597,0.008605415,0.0067036953,0.0013886367
-0.0075760153,0.0009745365,-0.0007181649,-0.0005269647,2.3152177e-05,-0.0003575008,0.00017984578,9.18318e-05,-0.00012233923,-7.393224e-05,0.00020946944,-0.000106812724,6.1544364e-05,2.470133e-06,-3.3072225e-05,-0.00025690935,-0.0002611622,-0.00023505645,-0.00020435793,-0.0001684425,0.00039086601,0.0006010711,0.00078618457,0.0009383661,0.0010575235,0.0030879576,0.003164227,0.0031021861,0.0030255269,0.0030029002,0.0063091847,0.006049345,0.005920262,0.005776171,0.0056023235,0.0102881,0.009606431,0.009092002,0.008577108,0.008107572,0.014586372,0.013648423,0.012853904,0.012183417,0.011638442,0.02051517,0.019602712,0.018854469,0.018191209,0.017570853,0.031749826,0.029475922,0.02752986,0.025833959,0.02435731,0.045785997,0.04128191,0.03740023,0.03405745,0.031217437,0.057702746,0.050843325,0.04539501,0.040963087,0.03720408,0.066128165,0.05710848,0.050141398,0.0446021,0.040078588,0.06898723,0.05798015,0.04956412,0.043031335,0.037876453,0.06138533,0.04920293,0.04020531,0.033445954,0.02831118,0.04120526,0.030949444,0.023922278,0.019030845,0.015568535,0.02018016,0.014783839
-0.020478794,-0.0063177776,-0.0035539302,-0.0025283953,-0.0020556664,-0.0031105569,-0.00227031,-0.0019202388,-0.0016246123,-0.0013301761,-0.0020890113,-0.0017053772,-0.0012509597,-0.0011159991,-0.00091352494,-0.001475191,-0.0010771753,-0.0008059551,-0.0006195362,-0.0004915047,-0.0004771402,-0.00030364032,-0.0002171922,-0.0001749219,-0.00015893616,-0.0012145492,-0.0010869431,-0.0009369166,-0.00081213226,-0.00074378104,-0.0018384311,-0.001699458,-0.001612577,-0.0015674329,-0.001542474,-0.0029073728,-0.0027981964,-0.0028072689,-0.0028526546,-0.0028572439,-0.0051881718,-0.005098689,-0.0050017363,-0.004880613,-0.0047283797,-0.009310879,-0.008719748,-0.008183358,-0.0077052256,-0.00727292,-0.014787751,-0.013232576,-0.011850941,-0.010613012,-0.009537288,-0.017975748,-0.015189442,-0.012929463,-0.011083229,-0.009562957,-0.015876327,-0.012338886,-0.009771893,-0.007823761,-0.0062604127,-0.008032266,-0.0049387924,-0.0028611338,-0.001379532,-0.00033119155,0.003705767,0.005486076,0.0067712935,0.007639524,0.008261321,0.02071062,0.021773726,0.022619765,0.023252558,0.023694774,0.051314723,0.05075121,0.04990672,0.04877361,0.047525786,0.09346848,0.08654037
0.020370267,0.006052451,0.0020258275,0.0019648443,0.0015389067,0.0018001064,0.0015190446,0.0010599046,0.0009577901,0.0008965163,0.0010372136,0.0009314001,0.000822904,0.00097490987,0.0010346421,0.001257838,0.0013567535,0.0014851437,0.0016251699,0.0017614106,0.0036321701,0.0040550316,0.0043806024,0.0046277097,0.0048122797,0.009997483,0.01036345,0.010588229,0.010722316,0.010787404,0.021784775,0.021291692,0.0207469,0.02017753,0.019592209,0.03734472,0.03498561,0.032814097,0.030760806,0.028827786,0.051951755,0.04586265,0.040701274,0.036297355,0.03251859,0.056374,0.046238743,0.038317665,0.032011766,0.026908845,0.0442239,0.032404948,0.023893684,0.017611895,0.012938335,0.01934009,0.010564523,0.0048785177,0.0010174286,-0.0016775359,-0.00594391,-0.009082688,-0.010566642,-0.011110929,-0.011299407,-0.021971637,-0.02039437,-0.018496212,-0.01677446,-0.014946015,-0.027810365,-0.023299877,-0.019541508,-0.016488818,-0.014047511,-0.026395313,-0.02072276,-0.016596457,-0.013341469,-0.010933246,-0.020030597,-0.014992965,-0.011514579,-0.008085836,-0.0055655097,-0.012270565,-0.008878303
-0.009722658,-0.0037434206,-0.0019822929,-0.0010413546,-0.000918651,-0.0013947813,-0.0010946242,-0.0008076561,-0.0007073966,-0.0005423678,-0.00092725916,-0.0007601346,-0.0005145351,-0.00041866384,-0.00028408426,-0.00064632995,-0.0004370382,-0.0003173025,-0.00024279172,-0.00019528702,5.5198616e-06,4.4044253e-05,4.080248e-05,1.9734085e-05,-1.0183547e-05,-0.0005737236,-0.00057511585,-0.0005562655,-0.00055406085,-0.00058923475,-0.0014739588,-0.0014246859,-0.0014366042,-0.0014876822,-0.0015386695,-0.0029728173,-0.0030083973,-0.0031218596,-0.0032271962,-0.003273835,-0.0060902536,-0.006006781,-0.005938406,-0.00585823,-0.00575597,-0.011341844,-0.010771974,-0.010212991,-0.009693221,-0.009214833,-0.017507164,-0.016069679,-0.014782907,-0.013598064,-0.012540665,-0.022022327,-0.018843124,-0.016316863,-0.014270751,-0.012579368,-0.020033494,-0.015269749,-0.011666816,-0.008796922,-0.0064520016,-0.0066696308,-0.0011942572,0.002726582,0.0056233723,0.007792234,0.020832116,0.024558388,0.026663369,0.027565666,0.027714206,0.054226093,0.051241584,0.047501925,0.0434829,0.039503083,0.06676131,0.05412632,0.043643195,0.034964018,0.027808554,0.03714056,0.021484183
0.0054750484,0.0008271687,-0.0001742505,7.83712e-05,0.00015131515,-1.9611907e-05,5.9100927e-05,0.0002395529,0.0001436113,-7.572674e-05,0.00019125469,7.734724e-05,-0.00014086741,-9.667144e-05,-3.9474937e-05,7.4522395e-05,5.6232813e-05,0.00013440185,0.00020005899,0.00024260246,0.0006404598,0.00063138467,0.0005853647,0.0005237359,0.0004560321,-2.5134383e-05,-6.2422674e-05,-3.1618263e-05,2.5176592e-05,6.809472e-05,-0.00015444393,-0.00029135888,-0.00041707893,-0.0005292414,-0.000619553,-0.00068683765,-0.0006429866,-0.00059836113,-0.00058027543,-0.0005800504,-0.0014334617,-0.0013357981,-0.0012076343,-0.0010878115,-0.0009916014,-0.0022843278,-0.0022043136,-0.0021061022,-0.0020038509,-0.0019043016,-0.0037884328,-0.0038593812,-0.003930173,-0.003879551,-0.003906829,-0.006880582,-0.006620809,-0.0065360717,-0.0065736533,-0.0065454436,-0.01172746,-0.011366816,-0.010862304,-0.010555247,-0.0104726,-0.019210435,-0.018076172,-0.016947301,-0.016300261,-0.015806928,-0.028889475,-0.026297042,-0.024758117,-0.022949655,-0.02155125,-0.03918663,-0.03526816,-0.032265496,-0.029570483,-0.026966473,-0.047735143,-0.042452063,-0.038029186,-0.035191216,-0.032205157,-0.05984923,-0.05307291
-0.0042307484,0.00018304853,0.00052029954,0.00026943535,0.00037794263,0.00029236928,0.00032850486,0.0001068835,-7.22431e-05,6.678922e-05,9.428052e-05,-0.00011925504,0.000113208065,4.1546966e-05,6.367348e-05,-3.5941823e-05,0.000100070756,0.00018752941,0.00024301306,0.00028066273,0.0009331885,0.001032742,0.0011136631,0.0011837218,0.0012494167,0.0023496072,0.002454071,0.0024896169,0.002476557,0.0024439644,0.0048480323,0.004929419,0.004970249,0.004976246,0.0049484186,0.008438434,0.008132449,0.007905034,0.007678459,0.0074370396,0.013398023,0.012503894,0.011698852,0.010983455,0.010360115,0.018874675,0.017271647,0.016010605,0.014963029,0.014068667,0.025895908,0.022948494,0.020628927,0.01879509,0.0173076,0.032283474,0.02820468,0.024920318,0.022244232,0.02002512,0.036311176,0.031282756,0.027450142,0.024444683,0.021980504,0.038670354,0.032880224,0.028386468,0.024882507,0.022034897,0.037803434,0.030864526,0.025439115,0.021219838,0.017902473,0.028723909,0.02122705,0.015823577,0.011845706,0.008952618,0.011975765,0.006395667,0.00275013,0.0004522875,-0.0010337298,-0.0041899094,-0.006075366
-0.09690194,-0.07909843,0.07502027,-0.007330279,0.09680453,0.14916563,0.04203956,0.11191196,-0.104557276,0.06492172,-0.050301403,0.10932999,-0.0036285757,-0.0022645066,0.05165177,-0.14375514,0.038769636,0.036306053,0.044981018,-0.0884599,-0.09988193,0.08383244,-0.093808815,0.06916437,0.035565227,0.04983239,0.0315765,0.13015303,-0.15544085,-0.13087615,-0.07850036,-0.13708511,-0.101345666,0.13266775,-0.1190945,-0.11822218,-0.0005691845,0.16791503,0.054437768,-0.125734,0.04918519,0.052023135,-0.14282233,0.0038428977,-0.079953015,-0.11264312,0.036509488,0.18097083,-0.1897494,-0.15826838,0.17573074,-0.06049675,-0.06578009,0.16516337,-0.07144788,0.017539654,-0.05807641,-0.1287023,0.054818016,0.13649318,-0.11246313,0.05310642,-0.06953261,-0.10733077,0.10143715,-0.08616643,0.054686658,-0.11661694,-0.18272413,0.12212977,0.13486212,0.099098906,0.118268885,0.07696907,-0.17972583,-0.09679775,-0.0058652735,-0.20760348,-0.18154253,-0.10569041,-0.07123646,0.039244313,-0.15566316,0.04608177,-0.08146903,-0.13368548,-0.10340847
0.008840135,0.0024059291,0.0010899943,0.0008950624,0.0004995687,0.0008709491,0.00054096454,0.00029266457,0.00020781823,9.385471e-05,0.00029248197,0.0002029191,0.00015990314,7.7195706e-05,7.3628464e-05,0.00017356686,8.2052895e-05,4.9920753e-05,2.7615835e-05,7.4018535e-06,0.00032178685,0.00031851468,0.00033078197,0.00034942914,0.00036910461,0.0006458487,0.0008500766,0.0010478114,0.001213728,0.0013411345,0.0027303868,0.0031911114,0.0035859358,0.0039239135,0.004210728,0.008195139,0.008820629,0.009236118,0.009471045,0.009580159,0.017928496,0.017654385,0.01722903,0.01674333,0.016249936,0.030073514,0.0280237,0.026202938,0.024574613,0.023106162,0.042079017,0.03740246,0.033546604,0.030347403,0.027665967,0.049102847,0.042145018,0.036662273,0.03223666,0.028595403,0.048245754,0.039991356,0.033684235,0.028728083,0.02476997,0.039274685,0.030652469,0.024222406,0.01937766,0.015646785,0.022569396,0.014982667,0.0097254235,0.005996267,0.003352985,0.0009225031,-0.0035160966,-0.0060476568,-0.007312988,-0.0076001324,-0.016823782,-0.016113784,-0.014430633,-0.01266847,-0.01106637,-0.020080684,-0.015620951
-0.02185084,-0.0044863764,-0.0027319742,-0.0019289154,-0.0013814911,-0.0021486618,-0.0014683437,-0.0010591242,-0.000916175,-0.00079901615,-0.0011089613,-0.0009268156,-0.0006995282,-0.00054311357,-0.00039108327,-0.00087461487,-0.00070155226,-0.00055720826,-0.00045513705,-0.00038211985,-0.0003248315,-0.00014762841,-2.5031055e-05,6.2869774e-05,0.00012718939,0.00095570745,0.0011641618,0.0012868799,0.0013399388,0.0013489217,0.0026067651,0.0027956835,0.0029962459,0.0031500696,0.0032525759,0.0058457465,0.005947226,0.0059570633,0.005870535,0.0057530208,0.009868083,0.009537183,0.009132805,0.008721152,0.0083415955,0.013586445,0.012740316,0.012005986,0.011341577,0.010738901,0.018310457,0.016286924,0.014729346,0.013511002,0.0125146685,0.023479154,0.02065011,0.0183161,0.016392393,0.014816116,0.027826104,0.0244729,0.021863658,0.019777022,0.018044613,0.032566275,0.028778628,0.02584827,0.023588927,0.021749135,0.039042126,0.034596678,0.031102125,0.02832193,0.026017815,0.045652557,0.039511867,0.03470381,0.030780744,0.027559696,0.04606732,0.038265325,0.03225759,0.027589085,0.023797946,0.03709013,0.028922642
-0.033656616,-0.070214495,0.03655755,-0.06694814,-0.0055349367,0.065861516,-0.002897753,0.035323262,-0.048081376,0.043252587,0.020694135,-0.017004825,-0.009656636,-0.02676776,0.067537345,-0.052768473,-0.009652913,-0.036116242,0.020052701,0.101592824,0.0003592226,0.13653864,0.04020117,-0.008212178,0.01897277,0.039983843,0.07320117,0.07238596,-0.07558308,0.089618415,0.03544396,0.16313107,0.09766145,0.053006746,0.025785074,-0.051683273,0.028612537,0.078206904,0.1580992,-0.1004475,0.08656681,0.030873116,0.09380012,3.622865e-05,-0.10010559,-0.019096456,0.014868666,-0.008212688,-0.113902085,0.045603853,0.12760542,0.0050343485,0.049711987,0.0039617596,0.11951841,-0.14219324,0.17136812,0.094313495,0.13538285,-0.11637083,0.12788878,0.0952764,0.038989548,0.17047858,0.08760325,0.09832174,0.21373129,0.16466965,0.026806518,-0.031687208,0.0013027459,-0.059059784,0.046029925,0.03909524,-0.029604217,0.038444914,0.14429565,-0.12074586,0.14482974,-0.030314343,-0.018058725,0.13642806,-0.121307336,0.1655682,-0.0007677971,-0.026060306,-0.02238137
0.005515394,0.0003218975,0.000771402,0.000587949,0.00043084644,0.00071124337,0.00038120014,0.00034128263,0.00043999997,0.00019426888,0.00030107267,0.00045904092,0.00019993447,0.0003825504,0.0003781721,0.0007612988,0.0006981499,0.00064304296,0.000578228,0.00051155145,0.0011109211,0.0010036319,0.00087047875,0.00073334674,0.0005950549,0.000638745,0.00037834243,0.00018141963,8.675466e-06,-0.0001320901,-0.0010874615,-0.0010460356,-0.00092999963,-0.0007744652,-0.0005910364,-0.002053226,-0.0014664433,-0.000881749,-0.00027119997,0.0003474525,0.0004966879,0.0022159447,0.0036937236,0.0049617444,0.006039846,0.012499236,0.014887746,0.016619645,0.017864488,0.01875011,0.037381608,0.037947368,0.037716813,0.037014455,0.03602095,0.06644779,0.060885888,0.05547459,0.05038357,0.045702763,0.07695588,0.063187994,0.052023217,0.04298105,0.035607502,0.052237462,0.035988472,0.02459575,0.016467819,0.010620921,0.008840098,-2.0321371e-05,-0.004968197,-0.007859585,-0.009324483,-0.018287027,-0.017638495,-0.016365672,-0.01502682,-0.013565157,-0.01972423,-0.016497297,-0.013785484,-0.011815727,-0.010272146,-0.014756246,-0.012890726
0.17473914,0.031051543,0.016420972,0.010405492,0.0075116325,0.010735902,0.007059081,0.0051520886,0.003981012,0.003014758,0.0047886744,0.0034850796,0.002535583,0.0023255597,0.0019914922,0.0028277512,0.0020976928,0.0016533431,0.0013257018,0.0010691088,0.0020731345,0.0015856016,0.0011961607,0.00087625923,0.00060407683,0.0012556652,0.0007316702,0.00037569465,0.00011940271,-6.4398104e-05,0.00012355164,-0.00029992155,-0.00050124014,-0.00058546267,-0.0005989906,-0.000102278835,-6.0732833e-05,6.652268e-05,0.00019956173,0.000332813,0.0021082652,0.0024631738,0.0027155993,0.0028839698,0.0029920712,0.0066520497,0.0066190665,0.0064899353,0.006303328,0.0061011924,0.011827934,0.010590937,0.009534979,0.008690497,0.0080019925,0.015048385,0.012904935,0.011079709,0.009593047,0.008360997,0.014868862,0.012040229,0.010013319,0.008315973,0.0070148585,0.011689267,0.008945031,0.007136305,0.0056378436,0.0045594038,0.0073823067,0.0051947013,0.0035270306,0.002521497,0.0018643985,0.0034399237,0.0016851246,0.0005927129,0.00014988692,-8.363442e-05,-2.8634277e-06,-0.0005307704,-0.0008273276,-0.00088703935,-0.0005732352,-0.0015053907,-0.0011017186
-0.000592522,-0.0001933277,-0.00012917504,-8.910312e-05,-0.00019536963,-0.0001338798,-0.00021587605,-0.00029240124,-0.00048162145,-0.0004374624,-0.00032610213,-0.0005149103,-0.00046294476,-0.00028479047,-8.596749e-05,-0.0005451818,-0.00034983078,-0.0002580658,-0.00020855344,-0.0001755109,-0.0002480293,-0.00020833987,-0.0001429071,-6.403489e-05,2.8170165e-05,-0.00059058284,-0.00042277126,-0.00026145912,-0.00012244625,-2.9141804e-05,-0.00031610494,-5.5588098e-05,0.00014644739,0.00027228755,0.0003558086,0.0008552883,0.00092708453,0.0008455877,0.0007611603,0.00074843585,0.0014226708,0.0013976143,0.0013912482,0.001410057,0.0014544334,0.0017447919,0.0016963363,0.001672138,0.0016411074,0.0016007127,0.0021568506,0.0019046788,0.0017610671,0.0016751483,0.0016323364,0.0035142002,0.0032337434,0.0029897213,0.0027859716,0.0026261169,0.006302368,0.0060099713,0.0057607316,0.005507714,0.005284462,0.012084946,0.011323677,0.010756238,0.010379033,0.0100878505,0.02195488,0.02063966,0.0198199,0.019291548,0.018897174,0.03801725,0.0363169,0.035141185,0.034236472,0.033490278,0.06443832,0.061272908,0.05854025,0.056004323,0.05360479,0.10001169,0.091755226
0.0039263987,0.0008654626,0.0005914059,0.00011812115,0.00037100748,0.00033334817,0.00039716685,0.0004910971,0.00043178585,0.00033745426,0.0005457187,0.00045865244,0.00026958474,0.00023734078,0.00020633676,0.00018974836,-1.4871846e-05,-0.00015223393,-0.0002392069,-0.00029037095,-0.00019392045,-0.00018339914,-0.00016939598,-0.0001602785,-0.00015888608,0.00021228954,0.0002863764,0.00029227842,0.0002190908,9.782349e-05,-3.899914e-05,-2.1075033e-05,4.0596227e-05,9.007959e-05,0.00011581156,-0.0002390781,-0.00018584305,-0.00012793406,-9.451249e-05,-4.3361993e-05,0.00033645058,0.00055691693,0.00072075345,0.0008558694,0.0009852384,0.0027395522,0.003072738,0.0033536148,0.003573552,0.0037345972,0.008554907,0.008305607,0.008116419,0.007946979,0.0078102075,0.016803227,0.015871784,0.014958647,0.014088073,0.013300296,0.025987735,0.02375495,0.021912685,0.020406343,0.019060932,0.035313535,0.031679068,0.028768979,0.02640055,0.024468524,0.045250818,0.040203247,0.036149997,0.03280035,0.02995701,0.053691585,0.046010673,0.03967708,0.03441685,0.030007407,0.049229503,0.03826159,0.029817183,0.023218693,0.017944587,0.023941502,0.013385867
-0.007798617,-0.002287457,-0.001318796,-0.0009802401,-0.0007350503,-0.001138297,-0.000849365,-0.0006734043,-0.0006727212,-0.00051966595,-0.0007709293,-0.0007307715,-0.00055806566,-0.00030394952,-0.00022609276,-0.0008704215,-0.0007210759,-0.00066060515,-0.0006291602,-0.0006071582,-0.0010614784,-0.0009839714,-0.0009175503,-0.0008558681,-0.00079632737,-0.0008608976,-0.00076198415,-0.0007122227,-0.00068224024,-0.00065981364,-0.0007162095,-0.00048876123,-0.00037425518,-0.00035052164,-0.00036845292,-0.00096332945,-0.0010379266,-0.0011589113,-0.0013050581,-0.0014375257,-0.0030143706,-0.0032711194,-0.0035033403,-0.0036945145,-0.003837554,-0.00810179,-0.008166185,-0.008073498,-0.007891173,-0.007654494,-0.014159907,-0.013097104,-0.011931542,-0.010736594,-0.009566293,-0.014856268,-0.010898109,-0.007591791,-0.0048096525,-0.0024592327,0.0007052884,0.0069170967,0.011410652,0.014676529,0.017052535,0.03674068,0.039987784,0.041003793,0.040694486,0.039661195,0.07223257,0.06456351,0.05687748,0.049563132,0.04289315,0.06677264,0.048666734,0.03500077,0.024666067,0.016844677,0.016538812,0.00310109,-0.0045209676,-0.008608822,-0.01066231,-0.021509964,-0.020173749
-9.6598036e-05,0.00027799828,0.00030890235,-0.00013557682,-0.00014214063,0.00013551553,2.0923244e-06,7.374828e-05,3.165705e-05,-7.953705e-05,0.00017074958,9.007726e-05,4.64575e-05,-3.67409e-05,-2.2786342e-05,-7.4743046e-05,-0.00020749439,-0.0002944126,-0.00036382224,-0.00042095644,-0.0003646162,-0.00041030155,-0.00043293045,-0.00044620418,-0.00045446865,-0.00017820226,-0.0001088137,-2.8470044e-05,2.963395e-05,3.594396e-05,4.6849163e-07,8.772375e-06,1.158486e-05,6.4451815e-06,-2.1913147e-06,-0.00021363379,-0.00025652017,-0.00025937462,-0.00027881068,-0.0002967139,-0.0002033668,-3.0563242e-05,4.8440852e-05,8.646908e-05,0.00012051202,-0.00014568784,0.0004087373,0.00084004784,0.0011529517,0.0013663861,0.0015662413,0.0017691816,0.001960275,0.0021382184,0.0022877175,0.0051549613,0.004886451,0.004559889,0.0042669713,0.004026186,0.009565867,0.008849131,0.008239018,0.007686918,0.007187314,0.014463709,0.01325652,0.012331518,0.011693853,0.011212658,0.021580743,0.020201333,0.01927649,0.018657075,0.018224966,0.0352062,0.0337022,0.03260876,0.0317458,0.03099984,0.059250716,0.05616541,0.05351646,0.051064927,0.048772365,0.0901377,0.08222129
0.006841669,0.0017002512,0.00092529703,0.00047111238,0.0003439127,0.00083758077,0.0004258675,0.00033492496,0.00030514348,9.992387e-05,0.00039271393,0.00035456655,9.666472e-05,1.1593544e-05,-6.8149646e-05,0.0006636387,0.00064153096,0.0006503285,0.0006619532,0.0006650421,0.0017198884,0.0016896856,0.0016252939,0.0015458334,0.0014551221,0.002012463,0.0018702667,0.0017422742,0.0016223809,0.0015172334,0.0023818454,0.0020303826,0.0017203633,0.0014521484,0.0012311615,0.0019936038,0.0015913758,0.0013110108,0.0010832755,0.000893475,0.0009770221,0.0007733292,0.0006157479,0.0005065304,0.0004442421,-0.00013623784,6.596255e-05,0.0003690946,0.00066453026,0.00091892295,0.0022898575,0.0024028735,0.0026035877,0.002855493,0.0031331596,0.00872218,0.008984139,0.008970462,0.008825858,0.008615554,0.017760469,0.017428081,0.016884407,0.016222468,0.015524329,0.028557915,0.026722252,0.024985887,0.02345767,0.022152219,0.040762607,0.036963116,0.03380751,0.031167993,0.028909707,0.051628474,0.045203652,0.039975513,0.035699125,0.032134026,0.053792927,0.04462994,0.037482858,0.031814404,0.027211571,0.041496105,0.031590763
0.0066164653,0.001560854,-0.00018334421,6.6707486e-05,5.587932e-05,-3.4235723e-05,4.7156856e-05,4.6466823e-05,0.00025077787,0.0001043339,-1.9616113e-05,0.00022164536,-4.0530103e-06,9.054188e-05,0.00012767623,-4.340691e-06,-0.00020100772,-0.00031254967,-0.0003782175,-0.0004175555,-0.000738547,-0.00063331187,-0.0005284738,-0.00043292082,-0.00035559663,-0.00036270215,-8.7595305e-05,0.00017614322,0.0004268392,0.0006471707,0.0014164171,0.00191251,0.0022951919,0.0025861093,0.0028247356,0.0060313037,0.0066046966,0.006962224,0.007189833,0.007342638,0.014417625,0.0145744,0.014517182,0.014341095,0.014098882,0.026577737,0.025396764,0.024173018,0.022977557,0.021845168,0.04007495,0.03615719,0.032759417,0.029796645,0.027227256,0.047846287,0.04027058,0.034138557,0.02906058,0.024827138,0.039351664,0.029439952,0.02208087,0.016434766,0.012046032,0.013793423,0.0058206823,0.00075786567,-0.0026571683,-0.004831635,-0.014104093,-0.01622604,-0.016776636,-0.016390499,-0.015955696,-0.029168487,-0.02626727,-0.023505617,-0.020791218,-0.018543739,-0.030166784,-0.025817208,-0.021986553,-0.018767172,-0.016076546,-0.025545837,-0.020467404
0.022536797,0.0051935827,0.00442413,0.0034816593,0.0024103862,0.0037391428,0.0026820633,0.0019147572,0.0016513857,0.0014624421,0.0019965402,0.0016016507,0.0012932935,0.0008778997,0.0006833274,0.0010589891,0.0006017541,0.00028370813,7.548457e-05,-6.736094e-05,0.00019253773,-4.480916e-05,-0.00019365312,-0.00029475192,-0.00037742953,-0.00035381728,-0.00031847786,-0.00021703771,-0.00012392482,-9.4657036e-05,0.00015720598,0.00031779427,0.00038138469,0.00042041947,0.000455105,0.0015099818,0.0015507557,0.0014754779,0.0014148924,0.0013868664,0.0029766627,0.003016368,0.002973576,0.0028759432,0.002739227,0.004159742,0.0035718686,0.0030457224,0.002555613,0.0021120326,0.0037846018,0.0021678528,0.00088973774,-9.048253e-05,-0.0008137126,-0.0009820212,-0.0021081292,-0.002975203,-0.0035976113,-0.003979265,-0.0067803375,-0.0056583793,-0.004324153,-0.0029867457,-0.0016644943,-0.0005040638,0.0043270905,0.008265794,0.011525112,0.014159838,0.032379873,0.03759572,0.040480606,0.04176068,0.04204261,0.07967016,0.07467614,0.06835197,0.06161741,0.055086676,0.087659165,0.067297086,0.050879683,0.03760868,0.026916144,0.02493537,0.0039919047
-0.0053274827,-0.0005315936,0.00015179237,0.00024214554,0.00018024488,0.00022900975,0.00013377296,8.1506354e-05,-0.00017467613,-0.0003658725,0.00010591581,-0.0002376156,-0.00041818852,-0.00030839405,-0.00018887829,-0.0005273359,-0.00060630613,-0.0005595327,-0.0005214378,-0.0004923675,-0.0008989597,-0.0009092681,-0.0008958137,-0.0008717004,-0.00084383227,-0.00074176496,-0.000610318,-0.0004815562,-0.0004028338,-0.00038699651,-0.000331492,-0.00028601446,-0.00029598697,-0.00032719338,-0.00036161774,-0.0008621061,-0.0008286388,-0.00086111814,-0.0009268583,-0.0009995945,-0.0030597206,-0.0031139767,-0.0031396358,-0.0031447806,-0.003139271,-0.007280269,-0.0071442397,-0.0069540837,-0.006741841,-0.0065260893,-0.013281073,-0.01258451,-0.011932351,-0.011302908,-0.01077375,-0.02032095,-0.018541416,-0.017095136,-0.015960995,-0.014921543,-0.027209047,-0.024398005,-0.021975823,-0.02002599,-0.018454058,-0.03253599,-0.028089292,-0.024444355,-0.021970313,-0.019820554,-0.034198433,-0.028503604,-0.024781173,-0.021663528,-0.019091072,-0.032223154,-0.02680395,-0.022519978,-0.019153332,-0.01684299,-0.028091349,-0.022332298,-0.018781092,-0.015470602,-0.013356396,-0.024028763,-0.018436272
0.01620481,0.002345833,0.0008228317,0.00060131727,0.00064578233,0.00086945866,0.0008439986,0.0006811727,0.0005849062,0.00042602347,0.0007792682,0.000587991,0.00034065862,0.0003960906,0.00025223067,0.00016108416,-0.0001673444,-0.00038568434,-0.0005390433,-0.00064747524,-0.00042148808,-0.0005177938,-0.0005981425,-0.00067501806,-0.0007639174,-0.0005134637,-0.0005791637,-0.00064182625,-0.0006902165,-0.00071781623,-0.0011259796,-0.0010603687,-0.0009949055,-0.00097281777,-0.00096263667,-0.0011400086,-0.0010147864,-0.000932483,-0.0008587175,-0.0007488804,-3.9801642e-05,0.00036947423,0.0006564586,0.00086916663,0.0010438211,0.002385138,0.0028363133,0.0031291754,0.003303524,0.0033916961,0.0060028215,0.005742088,0.0054809824,0.005248963,0.0050256774,0.009702705,0.00858014,0.0076164803,0.006847676,0.006222496,0.012935064,0.011280774,0.009997332,0.0090536745,0.0083319,0.017333413,0.015608703,0.014392133,0.013580441,0.012988251,0.02638146,0.024611618,0.023337563,0.022330157,0.0214149,0.041468654,0.03787539,0.0347545,0.03198348,0.029486466,0.053063232,0.04468251,0.037810877,0.03205566,0.027216738,0.04386097,0.031803865
-0.06255528,0.17950149,-0.123965606,0.0072089485,0.064811215,0.026086593,0.1530935,-0.16018575,-0.13475937,-0.026496816,-0.18730916,-0.0027026848,0.039170086,0.14377014,0.08530027,0.027460793,0.0067731095,0.015618227,0.020513935,-0.19164738,-0.058945563,-0.031743165,-0.12842733,-0.18868004,-0.048500944,0.0141247185,-0.035070647,0.16246161,0.040013306,0.017353011,0.15782282,0.13411374,0.19223228,0.06188527,0.19038048,0.061714288,0.11226918,-0.019087013,0.04581678,-0.045900997,0.20539713,-0.13193627,0.02318191,-0.030853493,0.17354003,0.009900967,-0.15694156,0.07802944,0.081808664,0.14676802,0.18496737,-0.1110908,0.09242569,0.13544783,0.04913004,0.15455438,0.053427182,-0.084552154,0.14391328,0.029333126,-0.13693048,-0.03757455,0.14665143,0.2009365,-0.11294345,-0.13307491,-0.0643966,0.09005416,0.14866333,-0.145645,-0.0023544745,0.045191344,-0.08735819,-0.12537779,-0.036538344,-0.10183823,0.05712075,0.18690473,0.012707652,0.1637942,0.17131364,-0.15561704,0.10806626,-0.12755655,0.12396616,-0.10834504,-0.07556307
-0.0044089286,-0.0005945973,-0.00056134525,-0.0004183484,-8.746485e-05,-0.0004130524,-8.891552e-05,5.8221754e-05,7.450815e-05,1.2034441e-05,7.913775e-05,8.9781126e-05,7.987721e-05,0.00012138599,7.2216266e-05,7.2991774e-05,2.6531823e-05,-2.9095609e-06,-3.9725244e-05,-7.7327495e-05,-0.0005281398,-0.000583275,-0.00062272704,-0.00065122393,-0.0006731795,-0.0010732883,-0.0009375093,-0.0008296151,-0.00077066745,-0.00075458037,-0.001105872,-0.001012378,-0.00086358155,-0.0007123534,-0.0005786837,-0.00047256792,-0.00018954146,9.3387505e-05,0.00025285094,0.00034353038,0.0012492775,0.0015122559,0.0016333605,0.0016904292,0.0017424985,0.0027078062,0.0031610925,0.0034628168,0.0036509086,0.0037605274,0.004721239,0.004775173,0.004848447,0.0049304543,0.0049905255,0.008294682,0.007802264,0.0073588863,0.007002016,0.0067210114,0.012741707,0.011781163,0.0109987175,0.010339861,0.00979415,0.018213894,0.016874546,0.015819548,0.015031702,0.014384753,0.027002573,0.025174804,0.023765163,0.022636954,0.021658624,0.040397033,0.03730364,0.03480712,0.032692425,0.030888626,0.054933466,0.049264174,0.044702798,0.0408895,0.03764427,0.06194779,0.05311583
0.020596998,0.0049247025,0.0025328943,0.0018227103,0.0012532382,0.0020161043,0.0012913126,0.0008982521,0.0005528515,0.00022689247,0.0009338926,0.00048730147,0.00014503376,0.00014528348,0.00021226233,0.00021391218,2.5185618e-06,-4.113921e-05,-6.204069e-05,-7.902042e-05,0.00016895455,6.139366e-05,-3.0349765e-05,-0.0001110319,-0.00018729866,0.00030666185,0.00015523977,5.8675243e-05,-1.0825475e-05,-7.199937e-05,0.000600348,0.00046506093,0.00035142602,0.00024889552,0.00016231765,0.0008163132,0.00089725,0.000938979,0.000935261,0.0009041359,0.0010930652,0.0011288876,0.0011280536,0.0010964968,0.0010408413,0.00094244606,0.00072375184,0.0005343809,0.00037304978,0.00023625794,-0.00043937544,-0.0010053149,-0.0014592352,-0.0017268443,-0.0020258836,-0.0040562632,-0.0045067486,-0.004822811,-0.005137184,-0.0052822325,-0.010006445,-0.01000163,-0.009787066,-0.00978168,-0.009637939,-0.018295053,-0.01722588,-0.016382325,-0.01591026,-0.015200712,-0.028407108,-0.026157424,-0.024626546,-0.022879416,-0.021608839,-0.039860964,-0.035884168,-0.032187857,-0.029878724,-0.027592395,-0.048891906,-0.04300844,-0.038126197,-0.034744505,-0.0314789,-0.05821471,-0.05109764
0.0015334436,-0.00093332306,-4.7853864e-05,-0.00061538233,-0.00064773846,-0.0005967701,-0.0007402904,-0.0006119236,-0.0005269216,-0.00033115767,-0.0007009298,-0.0005691842,-0.00024997498,-0.0005924108,-0.0004266364,-0.0005640682,-0.00042826805,-0.00032099738,-0.00023359407,-0.00016657045,1.67002e-05,9.238697e-05,0.00011758521,0.00011676623,0.00010295372,-0.00041168864,-0.00041428782,-0.0003483043,-0.00028317844,-0.000231938,-0.00013109302,-3.8880215e-05,-7.985276e-06,5.188032e-05,0.0001253573,1.7692502e-05,0.00022992076,0.00044302858,0.0006229758,0.0007364274,0.0003830731,0.00054640236,0.0005852349,0.00055338466,0.00048448442,-0.00069566886,-0.0007156051,-0.0006963927,-0.00066060515,-0.0006288174,-0.003193657,-0.003071819,-0.0028974772,-0.0027141185,-0.0025264951,-0.005478095,-0.0047070193,-0.004079912,-0.0035827223,-0.0031722724,-0.005403489,-0.0038577584,-0.0027139988,-0.0018410687,-0.0011261293,-0.00031338376,0.001505689,0.0027002268,0.0035792955,0.0041859187,0.01128386,0.012392368,0.013032116,0.013333265,0.013463943,0.029499307,0.029500239,0.029253675,0.028902499,0.02848678,0.057665434,0.05543574,0.05322537,0.05092857,0.04871101,0.0915228,0.08333289
0.015006517,0.0047968826,0.00085752184,-0.00025400752,-0.00017517792,-0.00024351288,-0.000149113,-0.0004322938,-0.00046493197,-0.00051893946,-0.00041171664,-0.0003951124,-0.00033081113,7.481177e-05,0.00024719635,0.0015042069,0.002379944,0.0031704854,0.003818039,0.0043233396,0.010832645,0.011617422,0.011984638,0.012102096,0.012063284,0.024011912,0.023060294,0.021978328,0.02088771,0.019875485,0.039237436,0.03564246,0.032603696,0.030019358,0.027777372,0.050875276,0.044753734,0.03992811,0.035927814,0.032523368,0.056099527,0.047716,0.04127069,0.036177717,0.03207542,0.054062005,0.044747967,0.03792978,0.032741223,0.028681766,0.047717083,0.038593188,0.03200746,0.02711323,0.023356607,0.038906544,0.031128386,0.025472771,0.021197094,0.017894687,0.029218428,0.023257628,0.01897789,0.015784012,0.013276807,0.020959858,0.0167582,0.013588065,0.011148221,0.009316268,0.0145482095,0.011394875,0.008932698,0.007071248,0.0056377654,0.007988196,0.004991505,0.0031111783,0.002066858,0.0014350465,0.0002790305,-0.0012809957,-0.0018454074,-0.0020100796,-0.0017814767,-0.0055387826,-0.0051952205
0.0057162717,0.0026182036,0.0028410987,0.00074431486,0.0008127304,0.0015754702,0.00090612576,0.0010286288,0.0010619884,0.0007775059,0.0011180057,0.0011582706,0.0008641891,0.000662397,0.00060506875,0.0012407146,0.0009846269,0.0008567106,0.00078255584,0.000737335,0.0012921278,0.0013620103,0.0013992005,0.0014059565,0.0013810984,0.0021859175,0.002212506,0.0021927513,0.0021036693,0.0020076723,0.0029710901,0.0028543875,0.0026667037,0.002517501,0.0023864207,0.0031533302,0.0029452215,0.0028612574,0.0028366097,0.0027746279,0.004025713,0.0038126511,0.0035516745,0.003267189,0.002973551,0.004794954,0.0041868286,0.0038197325,0.003565033,0.0033638987,0.0074214973,0.0063040378,0.0055404217,0.0050155222,0.0046644607,0.011541699,0.010781929,0.010063991,0.009383431,0.008784263,0.017672181,0.016980276,0.0165132,0.01609529,0.015683357,0.028651537,0.027808417,0.027090963,0.026505876,0.0259905,0.048223734,0.046467647,0.044819366,0.04324412,0.04175906,0.07748866,0.07219858,0.06735205,0.062914826,0.058940865,0.104472436,0.09180753,0.08115902,0.072033376,0.06418634,0.10600189,0.085726984
-0.010785631,-0.0026190341,-0.001121281,-0.0008863652,-0.0006829726,-0.0009303314,-0.00075782696,-0.00051990163,-0.00040483606,-0.0004543373,-0.0005396102,-0.00038256997,-0.00044953616,-0.00036550977,-0.00035668456,-0.00037867884,-0.00030454743,-0.00026822666,-0.00024474904,-0.00022728535,3.9803752e-05,0.00013452733,0.00019841331,0.00024415166,0.00027793308,-7.527699e-05,1.5617636e-05,8.665738e-05,0.00012266883,0.00012625486,0.00014178056,0.00023206235,0.0002554352,0.0002482097,0.0002382806,3.5729267e-05,4.4434557e-05,-8.951694e-06,-6.950642e-05,-9.269954e-05,-0.00063687394,-0.0005933632,-0.0005475054,-0.00048369504,-0.00039366487,-0.0011692971,-0.0007320699,-0.00038895974,-0.00011379583,0.00010865237,-0.00037418742,0.00033738432,0.0008667022,0.0012513209,0.0015302203,0.0024122526,0.0031701885,0.0036327646,0.0038817083,0.0039993958,0.007478328,0.0076841265,0.0076777837,0.0075723277,0.007415138,0.01512601,0.014448017,0.013734858,0.01309287,0.012537608,0.026620638,0.024843918,0.023316786,0.02200368,0.020786252,0.04257931,0.038580023,0.035154097,0.032206517,0.029637067,0.056229953,0.04823612,0.041813675,0.036561158,0.03213798,0.05645205,0.045222413
-0.0024836033,-0.0010146422,5.6153818e-05,0.0002820341,0.000186078,0.00013212292,0.00018994557,0.00010727776,0.00022144588,0.00031852044,0.00012436335,0.00023229778,0.00029505763,0.00032331634,0.00029552705,0.00026339263,0.00025180264,0.00021480316,0.0001867961,0.00016944653,0.00019887205,0.00018893872,0.000168253,0.00014135802,0.00010347209,0.00030770383,0.00033482775,0.00038716357,0.00042783617,0.0004356742,0.0005438521,0.00056745636,0.00050397083,0.00041744215,0.00033931498,0.00010745095,-7.685575e-05,-0.00023835336,-0.00035124732,-0.00041668408,-0.0010300284,-0.0010787275,-0.0011503015,-0.0012229919,-0.0012838729,-0.003181743,-0.0030553285,-0.00289083,-0.0027023214,-0.0025104864,-0.0057332832,-0.0052679046,-0.0047804047,-0.0042935247,-0.0038220626,-0.007262919,-0.0058731576,-0.004712996,-0.0037380983,-0.0029143416,-0.0041885893,-0.0018891038,-0.00016376286,0.0011623643,0.002229433,0.0061914977,0.008599729,0.0102228755,0.011411252,0.012293859,0.025703916,0.027039522,0.027621346,0.02762864,0.027328908,0.052873787,0.050091844,0.046870463,0.04353765,0.04030838,0.071833834,0.061399844,0.052547105,0.0451016,0.038845476,0.06264124,0.047832504
-0.004200776,-0.0018282745,-0.00035614555,-0.00045102587,-0.00021046933,-0.0005518632,-0.00032113865,-0.00032084488,-0.000403184,-0.00035761498,-0.00038465598,-0.00047088187,-0.0003323831,-0.00048404714,-0.000499284,-0.00046755525,-0.00037663098,-0.0003022109,-0.00024860562,-0.00021393564,9.195438e-05,0.00015395514,0.00017588693,0.00017775106,0.0001666563,0.00053611636,0.00048962375,0.00045375235,0.0003990899,0.00031350765,0.00039803132,0.0005559349,0.0005918382,0.0005757488,0.00055519457,0.0002394188,0.000112396985,-2.5074929e-05,-0.00011207116,-0.00014143373,-0.0004490495,-0.00047906087,-0.0005277839,-0.0005642248,-0.00057805673,-0.0020153318,-0.001673639,-0.0013663676,-0.0011093768,-0.00090465945,-0.0028150044,-0.002498687,-0.00216221,-0.0018138655,-0.001489873,-0.0021230052,-0.0017245624,-0.0013915868,-0.001073858,-0.0007561243,0.00075979775,0.0015972974,0.0023047335,0.0028781758,0.0033603222,0.008532777,0.009426791,0.010020957,0.010463034,0.010733852,0.021899423,0.021587392,0.021195842,0.020715516,0.020176342,0.038830522,0.036412757,0.03443035,0.032705322,0.031189302,0.059012577,0.054085735,0.05014177,0.04680273,0.04390036,0.082036294,0.073326275
0.0052746157,0.0019176662,0.0012936743,0.0013788678,0.001022929,0.0012170683,0.0010081499,0.0006576897,0.0005384834,0.00048916903,0.000607246,0.00046593085,0.00034201084,0.00035002202,0.0004046075,0.00040397182,0.00040916412,0.00046737253,0.00056082255,0.00066330313,0.0020074174,0.002241126,0.0024178955,0.002551263,0.0026516684,0.0049004247,0.005146277,0.005312826,0.0054133614,0.0054581785,0.00989419,0.009968997,0.00993517,0.009816074,0.009646079,0.017435858,0.016598782,0.01581025,0.015071827,0.01438299,0.025762303,0.023696402,0.021877494,0.020262174,0.018828062,0.03279733,0.029220177,0.026329724,0.023927921,0.021900387,0.03767355,0.03236647,0.02823734,0.024970049,0.022326922,0.03861982,0.032148663,0.027214598,0.023377953,0.020336412,0.035299096,0.028720802,0.023855912,0.020220058,0.017410534,0.02932021,0.023871982,0.019975122,0.017279478,0.015268323,0.025350785,0.021749785,0.019278245,0.017468447,0.016208127,0.02707544,0.024298059,0.022142336,0.020441366,0.019017149,0.03044336,0.026246238,0.022896916,0.020061158,0.01758487,0.025110286,0.019596504
0.17021449,0.031145375,0.017479943,0.011658491,0.008618625,0.012617633,0.008598826,0.006446618,0.0050815814,0.0041627944,0.0064147036,0.0047984277,0.0037361286,0.0034694383,0.0030552156,0.004118812,0.0032475733,0.002629865,0.0021704428,0.0018182001,0.0026593022,0.0020511032,0.0016407145,0.0013474167,0.0011286039,0.0010668731,0.00087819435,0.0008098249,0.00077445316,0.00073732185,0.000609458,0.0005690088,0.000559735,0.00055581494,0.0005590439,0.0006957103,0.00052670634,0.00035484406,0.000224607,0.00015073265,-6.3796906e-05,-0.00041088913,-0.0006273114,-0.0007541198,-0.00082038064,-0.0018817156,-0.0021797146,-0.0023268538,-0.0023857495,-0.0023905179,-0.004411629,-0.0044321795,-0.00436668,-0.004218554,-0.004030452,-0.0072435616,-0.0066853077,-0.0059556547,-0.005422118,-0.0050365226,-0.00984422,-0.008671806,-0.007655612,-0.006839169,-0.0062198476,-0.011921316,-0.010016787,-0.008082839,-0.006945041,-0.0059767887,-0.0112888515,-0.008839728,-0.0070090317,-0.005711854,-0.0047226446,-0.008206283,-0.005726357,-0.0040514767,-0.002795622,-0.0017903278,-0.0029484862,-0.001190216,0.00012970564,0.0012247955,0.0017605415,0.0016706475,0.0025267485
0.002045398,0.00056370837,0.00020424658,-0.00017137197,-2.5517787e-05,0.0002082375,8.4436004e-05,0.00018035687,3.1739273e-05,-0.00016239325,0.00022111465,2.2410386e-05,-8.649153e-05,1.0571178e-05,-9.4720664e-05,-0.00018222118,-0.00029064942,-0.00032517556,-0.00035485136,-0.00038993292,-0.00034856625,-0.00040341602,-0.000480458,-0.0005716515,-0.000671463,-0.0004286698,-0.000558964,-0.00066421635,-0.00073181523,-0.0007610576,-0.0013524175,-0.0012182947,-0.0011043596,-0.0010207903,-0.00094177446,-0.00080519624,-0.0006015787,-0.00049732084,-0.00039085106,-0.00025193993,0.00019962603,0.00057353836,0.0008034287,0.00094289676,0.0010234981,0.00044827163,0.000626418,0.0007405336,0.00079446594,0.00081598014,-0.00014057453,-0.0005587615,-0.0007997725,-0.00090779556,-0.0009351749,-0.0018552877,-0.0022488183,-0.002614263,-0.0029020153,-0.0031061424,-0.004894432,-0.004746395,-0.0046065426,-0.0044662394,-0.00433864,-0.0058683446,-0.004732478,-0.00377303,-0.002825085,-0.0019987407,0.0009919283,0.0036818439,0.0059003825,0.007695652,0.009274647,0.023526413,0.027273573,0.029914027,0.031666026,0.03287018,0.06724353,0.0679724,0.06731232,0.065672226,0.06360095,0.12002867,0.11071997
0.0011023479,0.0012983681,0.00088770804,0.00070672965,0.00070066506,0.00089182594,0.00083976774,0.00048525629,0.0002046217,0.00016466796,0.0005928186,0.00018294429,0.00020755682,5.0675335e-05,3.9545102e-05,9.390329e-05,4.0185987e-05,4.057093e-05,4.0708685e-05,3.8970866e-05,0.00031050324,0.0002381226,0.00018807834,0.00015113094,0.000118687094,0.0002815434,0.00011748531,-3.9775034e-05,-0.00018396735,-0.0002953988,-0.000118464755,-0.00013599505,-0.00015973189,-0.00018523024,-0.000195484,-0.0003230106,-0.00024860987,-0.000110252586,1.8295064e-05,0.00013123742,0.00072422373,0.0010344132,0.0012362404,0.001380014,0.0015017767,0.0030517776,0.0035959324,0.0040310426,0.004361164,0.004592267,0.008671667,0.008745884,0.008704188,0.008609732,0.008492892,0.015535694,0.015188452,0.014666209,0.014065439,0.013454655,0.022860495,0.021509495,0.02037477,0.01941207,0.018534735,0.030921528,0.028565474,0.026612585,0.025044745,0.023722028,0.04053663,0.037060343,0.034239653,0.03185431,0.029755384,0.05121051,0.045459777,0.04066863,0.036580104,0.03304798,0.054385502,0.045173235,0.03786558,0.031956512,0.027081922,0.041416634,0.03085714
0.020288464,0.005162267,0.001644538,0.0015838251,0.0013007721,0.0012718902,0.0013259484,0.0007359571,0.0006179786,0.00052036357,0.0007466946,0.0006876803,0.00074741343,0.0010885881,0.0012131097,0.0023094015,0.0029645425,0.0035436787,0.0040274654,0.004415753,0.009154914,0.009818326,0.01023042,0.0104727,0.010598192,0.018144554,0.018038742,0.017744398,0.01736441,0.016951274,0.029998794,0.028246569,0.026574165,0.025018277,0.023573996,0.04105409,0.036911584,0.033430427,0.030417612,0.027782844,0.048166104,0.041294202,0.035870086,0.031494856,0.027910482,0.048382454,0.039698586,0.033160444,0.028095948,0.024090495,0.041184984,0.032016948,0.02539668,0.020529304,0.01687099,0.02812224,0.020808648,0.015794361,0.012193555,0.009551359,0.013824195,0.009615596,0.006892862,0.004957846,0.003485982,0.0017932479,0.00012155669,-0.00083793415,-0.0016975187,-0.0021373213,-0.008125011,-0.0083181225,-0.008231426,-0.007814302,-0.0074023744,-0.016855072,-0.015402149,-0.013985403,-0.012278522,-0.010858441,-0.021319222,-0.017969431,-0.014495315,-0.011920231,-0.00941289,-0.018234003,-0.013677456
-0.002063544,-6.0917955e-05,-0.00015483037,-0.00029048914,-2.3193687e-05,-0.00019870629,3.4806882e-05,8.910564e-05,0.00015703031,0.00020761644,0.00012596473,0.00017364684,0.00012989368,0.00021548233,0.00026366272,9.8804754e-05,3.5077537e-05,-5.858128e-05,-0.00013116974,-0.00018152306,-0.00019757343,-0.00018759817,-0.00021530678,-0.00026504454,-0.00033380574,-0.00022905276,-0.0003111724,-0.00033514056,-0.0003318328,-0.00032199384,-0.00096598367,-0.0010134489,-0.0010068507,-0.0009777981,-0.00092981115,-0.0019759918,-0.0014778855,-0.0012192493,-0.0011030299,-0.0009944184,-0.0031804969,-0.0025421823,-0.0020080078,-0.0015296214,-0.0010797188,-0.0038453306,-0.0029637858,-0.0023081433,-0.001795925,-0.0013878001,-0.0047946926,-0.003906457,-0.0032146154,-0.0026638494,-0.0022110045,-0.005976335,-0.0053043095,-0.004758694,-0.0042668935,-0.00384449,-0.008233176,-0.007504488,-0.0069341385,-0.00642856,-0.0059883986,-0.011920127,-0.010723491,-0.009795025,-0.008896033,-0.008089176,-0.01442679,-0.011463285,-0.00884698,-0.006514456,-0.0042696046,-0.0029603038,0.0045618513,0.010953165,0.016354602,0.020959903,0.052406676,0.06345768,0.07136959,0.07672051,0.08029101,0.16422683,0.16523564
-0.0061377576,-0.0012763395,-0.0007456509,-0.00097527757,-0.00037324743,-0.00092236133,-0.00038878765,-0.00021375986,-0.00016100689,-0.00016078097,-0.00021955051,-0.00016140728,-7.690569e-05,-0.00022605067,-0.00017049946,-0.00032750043,-0.00037714507,-0.00036554702,-0.0003481956,-0.00033084484,-0.00042817649,-0.00032264146,-0.00024463848,-0.00018638454,-0.00014756955,0.00017209264,0.00034516788,0.00046665443,0.00052529573,0.0005446711,0.0013726444,0.0013451598,0.0013587526,0.0014091035,0.0014582293,0.002650449,0.0027284569,0.0029001604,0.0030136611,0.0030409568,0.0053105797,0.005285599,0.005147403,0.0049509807,0.004739563,0.008077182,0.007807065,0.0075479853,0.007278586,0.007005052,0.01178633,0.01051916,0.009564914,0.008838247,0.008277142,0.015380902,0.013593749,0.012125057,0.010905934,0.009907266,0.018820062,0.016627701,0.014984117,0.013738275,0.012728168,0.023541182,0.021284638,0.019592408,0.018386997,0.017427338,0.031936143,0.029540844,0.027653554,0.026076106,0.024728937,0.044522487,0.04062226,0.037349533,0.034487795,0.03197154,0.055725817,0.048988264,0.04347711,0.038856827,0.03495962,0.058748633,0.04932618
-0.007070237,-0.000895208,0.00011049902,0.000118945616,-0.00018201262,0.00017891404,-0.00017923834,-0.00037917192,-1.9686282e-05,0.0002493494,-0.00041510022,-4.3971086e-06,0.00026102932,0.0001235893,0.00013894236,7.131488e-05,0.00013312229,0.00012966689,0.00014147948,0.00016578677,0.0007661678,0.0008926424,0.0009854938,0.0010593083,0.0011164796,0.0012535875,0.0012714005,0.0013164909,0.001357426,0.0013802291,0.002048657,0.0021150645,0.0021666759,0.0022259103,0.0022924005,0.0024790445,0.0026922757,0.0029096399,0.0030821501,0.0032161672,0.0035781057,0.0039921915,0.004338359,0.0046397024,0.004908606,0.007652979,0.008547674,0.00928306,0.009874785,0.010345185,0.020535726,0.0210957,0.021365257,0.021429205,0.02137191,0.043449763,0.04178318,0.039684594,0.037428293,0.0351682,0.06541889,0.05796281,0.051185545,0.045139603,0.039795995,0.06528832,0.051333718,0.040440865,0.03189902,0.025192918,0.033541117,0.020342998,0.011482348,0.0055228216,0.0016604865,-0.005802265,-0.009720896,-0.011259138,-0.011606323,-0.011263732,-0.022571815,-0.018685592,-0.015377047,-0.012773197,-0.010768065,-0.020173555,-0.015568638
-0.14765656,-0.10017612,-0.057940207,0.20731291,-0.034471434,0.20329894,0.17474803,-0.051654994,-0.10551787,-0.05272043,0.18676159,-0.17135482,-0.044869862,-0.11798742,0.050097484,0.1694768,0.02216156,0.12554556,-0.16143063,0.03327253,0.10190672,0.13890158,0.120072775,-0.041348793,-0.0849145,0.10315158,0.024162373,0.01193981,-0.11716755,0.0996802,0.075469196,0.04130223,0.09655341,0.040204298,-0.024412092,0.1777667,0.096025534,0.010665434,0.102341264,0.1638265,0.012033229,0.1326862,-0.06261018,0.08381371,0.035574205,0.11512436,-0.15093769,0.10531067,-0.06686269,0.0779267,0.13726272,0.074379526,0.008522901,-0.04297888,-0.1318672,0.04431747,0.077808306,-0.123557866,0.14434627,0.054123763,-0.015715092,0.13265567,-0.1545484,0.059523646,0.06284643,0.17780623,-0.037917696,0.018689623,0.016034577,0.082132705,-0.058826342,-0.05251701,-0.031157346,-0.10185543,-0.17781022,0.0891939,0.007832915,-0.18272254,-0.01840367,0.13491268,0.15033445,-0.0076475465,0.037494842,0.11652601,0.12617548,-0.1857872,-0.109081596
0.008336496,0.0016670498,0.00042674298,0.00039294476,0.00022063311,0.00030820572,0.0001248318,6.25753e-05,-9.3429815e-05,-0.00026640657,7.749564e-06,-0.0001876173,-0.00035364152,-0.00012182856,-6.462252e-05,-0.00040565786,-0.00044092233,-0.0003900817,-0.00035286217,-0.00032997155,-0.00052218843,-0.000517079,-0.0005154953,-0.0005162344,-0.0005229479,-0.00072803313,-0.0006654039,-0.000586388,-0.00052407663,-0.00049386633,-0.00056250265,-0.00059728435,-0.000657379,-0.0007265262,-0.0007879641,-0.0009388041,-0.0009078613,-0.00089808373,-0.0009106137,-0.00093027734,-0.002134146,-0.0020455658,-0.0019495193,-0.0018664352,-0.0018039531,-0.0041225688,-0.004017313,-0.0038950215,-0.003770846,-0.0036517163,-0.007288933,-0.007179756,-0.0070660096,-0.006851336,-0.0067240614,-0.011929309,-0.011295848,-0.010839723,-0.0104920985,-0.01010051,-0.01731033,-0.016143883,-0.01504766,-0.014258659,-0.013270543,-0.02319559,-0.020901486,-0.019069074,-0.017592045,-0.016339462,-0.029042648,-0.025776457,-0.02341377,-0.02118865,-0.019614035,-0.03580572,-0.031340763,-0.028264543,-0.025658311,-0.02366552,-0.041930627,-0.03652575,-0.0323868,-0.028917829,-0.026456809,-0.049186427,-0.04198269
0.0070320377,0.0012550411,0.0007059086,0.00010163455,0.00035321628,0.00030249805,0.0003660493,0.00018173647,0.0001943302,0.00021836828,0.00019346242,0.00017382484,0.00016650227,0.0002113112,0.00027237568,0.0002550248,0.00025088087,0.0002372169,0.00022175202,0.00020816605,0.0004410939,0.0004516465,0.0004290348,0.00039149568,0.00033948172,0.0007833994,0.0007892037,0.00078393053,0.00076552574,0.0007659822,0.0008360084,0.0010217634,0.0011684877,0.0013002153,0.0014204317,0.002067544,0.0023988518,0.0026788742,0.0029009779,0.003057354,0.005545248,0.005779148,0.005863084,0.005860913,0.0058100233,0.011120916,0.010858384,0.010603356,0.010331846,0.010045324,0.019728247,0.01833521,0.017127842,0.016084177,0.015168384,0.029288443,0.026449922,0.024029901,0.021936543,0.020114752,0.036699805,0.03220957,0.028671198,0.025845196,0.023496803,0.04180893,0.036412917,0.03223528,0.028928041,0.026259886,0.04751886,0.04116071,0.03602921,0.031840716,0.028299954,0.04969604,0.040773574,0.0336113,0.027844062,0.023197912,0.03655911,0.02626917,0.0187846,0.013315053,0.00926092,0.00958178,0.002831062
-0.22322851,-0.060544636,-0.037718773,-0.02709753,-0.021134991,-0.03198676,-0.023399426,-0.018241465,-0.014905732,-0.012484272,-0.019688638,-0.015264697,-0.012347858,-0.010377421,-0.008850605,-0.013836156,-0.01089797,-0.008898521,-0.007459093,-0.0063824905,-0.009815916,-0.0077687735,-0.0063946387,-0.005418148,-0.004697733,-0.0076431604,-0.00594443,-0.0047086924,-0.00380617,-0.003177852,-0.0059695654,-0.00442893,-0.003387191,-0.002691396,-0.002212682,-0.003999975,-0.0030192067,-0.0025051115,-0.0022589583,-0.0021254825,-0.0033949509,-0.0031490086,-0.0030834554,-0.0030828402,-0.0030912457,-0.0056354534,-0.0054787346,-0.0053140176,-0.0051390836,-0.0049648765,-0.009315633,-0.008728777,-0.008123085,-0.0075005842,-0.006904892,-0.011640057,-0.009960271,-0.008781861,-0.007863363,-0.0070289206,-0.01102917,-0.008994054,-0.0074173072,-0.0061628423,-0.0053018737,-0.008337251,-0.006257958,-0.004599213,-0.0036341937,-0.0029979274,-0.0051243138,-0.003725832,-0.0026519431,-0.0021148971,-0.0017458522,-0.0026781587,-0.0019214039,-0.0013565896,-0.0010069782,-0.0005976781,-0.000943737,-0.0003920639,-9.9393554e-05,0.0005154412,0.0012100881,0.002523802,0.0029542777
-0.017559877,-0.005663501,-0.0031452528,-0.0019997717,-0.0014757988,-0.0024322618,-0.0016547992,-0.001438835,-0.0014127933,-0.0015177142,-0.0015295336,-0.001475357,-0.0015051733,-0.0010745268,-0.0009386693,-0.0013367215,-0.0011116423,-0.0008640355,-0.0006761429,-0.000537106,-0.0003675734,-0.00013501715,-2.904897e-06,6.367579e-05,8.511629e-05,0.0009069805,0.0009659415,0.0009915415,0.0009767516,0.00091707066,0.0008819433,0.00092128926,0.0008545907,0.0007271731,0.0005893094,0.00015265007,-8.413915e-05,-0.0003761866,-0.00061149517,-0.0007709746,-0.002894612,-0.003093455,-0.0032236723,-0.0033015634,-0.0033455295,-0.008685914,-0.008468706,-0.00815045,-0.007794965,-0.007443847,-0.01660144,-0.015286258,-0.014136072,-0.01308868,-0.012173542,-0.02498036,-0.022239277,-0.02002834,-0.01814023,-0.016515633,-0.032045197,-0.027677262,-0.024212413,-0.021448426,-0.019245103,-0.0354583,-0.02951358,-0.02462888,-0.021216061,-0.01831247,-0.03127704,-0.024598934,-0.019886233,-0.016032755,-0.01320722,-0.018818878,-0.012422506,-0.0077789878,-0.003930538,-0.0008731487,0.005101156,0.0113899335,0.015602756,0.019155912,0.021699201,0.04660302,0.05024552
-0.00032481208,-0.00211259,-0.0015327557,-0.0012425615,-0.0009724342,-0.0011815033,-0.0009725081,-0.0007319682,-0.0006451431,-0.0005481996,-0.0006963078,-0.0005942107,-0.0004206292,-0.00027565574,-0.00013094717,-0.0006840257,-0.00064926216,-0.00063717086,-0.0006380121,-0.0006480601,-0.00043025328,-0.00038587503,-0.00037585758,-0.00038505666,-0.00040805084,-0.0002471371,-0.000303111,-0.00039394767,-0.000500174,-0.0005817836,-0.0004003574,-0.00017035505,6.896571e-06,0.00011597182,0.00019096228,0.0008239923,0.0008343002,0.00083796866,0.00086984655,0.00094275235,0.0022727426,0.002341638,0.0022900128,0.0021790909,0.0020529283,0.002144628,0.0021635802,0.0021456692,0.002102273,0.002043207,0.00044617453,0.0003028814,0.00025855057,0.00028486864,0.00033648187,-0.002173297,-0.002050623,-0.0019406265,-0.0018116201,-0.0016700726,-0.0049277386,-0.0041162656,-0.0034031032,-0.002786632,-0.002190585,-0.0046621193,-0.0023947381,-0.0005104278,0.0011798231,0.002630126,0.0072582746,0.011475999,0.014632387,0.016940355,0.018695451,0.039113455,0.042115953,0.043372396,0.043488365,0.042948395,0.08009147,0.07505259,0.0696268,0.06417414,0.059075546,0.100268394,0.08527775
0.0106208045,0.0028972544,0.0015609874,0.0012974796,0.00094171584,0.0013886649,0.0009886199,0.00065173063,0.00043599118,0.00023946271,0.0007069858,0.0004387532,0.00023803064,0.00035737746,0.00039646367,0.0003961029,0.00029708524,0.00026756787,0.00024181482,0.00021640566,0.0005578258,0.00047530886,0.0004034207,0.00033854833,0.00028014655,0.0005255459,0.00045101694,0.00041676013,0.0003971965,0.0003751887,0.00093730446,0.0008060739,0.00068876264,0.0005732496,0.0004671784,0.0014605875,0.001314193,0.0011630191,0.0009978176,0.00083595986,0.0012487955,0.00092131103,0.00065805385,0.00044075737,0.0002581207,-0.00025188635,-0.0006539137,-0.00094313663,-0.0011509554,-0.0013013771,-0.003107965,-0.0034952369,-0.0035568501,-0.0036768108,-0.0036599902,-0.006915938,-0.006934272,-0.0067488407,-0.006771331,-0.0067023695,-0.012186433,-0.011745918,-0.011253712,-0.01076181,-0.010531067,-0.019299472,-0.017827634,-0.016862128,-0.015772646,-0.015080507,-0.02741216,-0.024863165,-0.022760086,-0.020687135,-0.019129349,-0.0348832,-0.031239081,-0.028169867,-0.02538632,-0.0236148,-0.043410663,-0.038431145,-0.034668807,-0.032343995,-0.02964922,-0.055531796,-0.049793623
