0,1,2,3,4,5,6,7,8,9,10,11,12,13,14,15,16,17,18,19,20,21,22,23,24,25,26,27,28,29,30,31,32,33,34,35,36,37,38,39,40,41,42,43,44,45,46,47,48,49,50,51,52,53,54,55,56,57,58,59,60,61,62,63,64,65,66,67,68,69,70,71,72,73,74,75,76,77,78,79,80,81,82,83,84,85,86
-0.009594043,-0.002933881,-0.000976688,-0.0002263932,-0.00020835685,-0.00034577557,-0.00017941979,-0.00019813188,-0.00032994145,-0.00047738067,-0.00018316295,-0.00027536685,-0.0007167061,-0.00068220345,-0.00045169774,2.5055257e-05,-6.949004e-05,0.0001411219,0.0003274628,0.0005432825,0.00018318984,0.00019531089,0.0001755845,0.00019532524,0.0002052397,0.00016476504,0.00014387097,0.00010355777,5.7151396e-05,8.61859e-06,0.0005314616,0.00037521415,0.00021163667,7.7612094e-05,-4.1896434e-05,-0.0002567919,-0.000531745,-0.00071951485,-0.00084377354,-0.000921297,-0.00012646141,-0.0002715898,-0.00033090718,-0.00033733284,-0.00031012783,-0.000268031,0.00010513436,0.00048423046,0.0008609426,0.0012177113,0.003199268,0.004372455,0.0053628106,0.00621382,0.0069472482,0.015499122,0.01761418,0.01919259,0.020364217,0.021208232,0.041921545,0.042861845,0.043033917,0.042683583,0.041972704,0.07819641,0.07306137,0.06783584,0.06274937,0.057933204,0.099305786,0.0843845,0.072068185,0.061770096,0.053174123,0.08139861,0.062136266,0.04836103,0.038135797,0.03040572,0.039418474,0.026628671,0.018920086,0.01385692,0.010459775,0.0103807915,0.006839956
0.0038251863,-6.6509296e-05,-4.606186e-05,-0.0006836701,-0.00048197538,-0.0007595275,-0.0005712548,-0.00044542365,-0.0002964838,-0.00020622359,-0.00048951723,-0.00039229455,-0.00010838124,-0.00023583253,-0.00025807825,-0.00040843445,-0.00020957696,-0.00019397258,-0.00028978416,-0.00016246628,-0.00025647465,-0.00014415926,-6.0044218e-05,-1.7224804e-05,1.2461987e-05,0.00023672888,0.00020968978,0.00017732396,0.00013232008,9.180481e-05,0.0005986784,0.00064527174,0.0006661953,0.0006715067,0.00067082245,0.00048049845,0.00056127895,0.00063055096,0.00068734697,0.0007220079,8.8268775e-05,0.00015822267,0.00019895902,0.00023876847,0.00027299047,-0.0009876875,-0.0008403945,-0.0007014198,-0.0005702786,-0.0004508007,-0.00088279264,-0.0006351737,-0.0005047897,-0.00045105204,-0.00044164388,-0.0006256613,-0.00018362826,0.00011246025,0.00029913124,0.00040332717,0.001248877,0.0016465973,0.0019486287,0.0021986302,0.0024127574,0.005743705,0.006604682,0.00739869,0.008112864,0.008772717,0.019516671,0.021519898,0.02331469,0.024845146,0.026131636,0.054851163,0.056747027,0.057920963,0.0584287,0.058405172,0.11317325,0.108458586,0.10330152,0.09795857,0.09262349,0.16491114,0.14646766
0.004738139,-0.0006552069,-0.0003531645,-0.0006683774,-0.00045485728,-0.0007599767,-0.00051743374,-0.00032817468,-0.00010976633,-4.7723675e-05,-0.00032884095,-6.318082e-05,-0.00012585719,-0.00017918223,-0.00011644424,-0.00011081763,1.1849617e-05,9.9270634e-05,-8.828133e-05,0.0002720318,1.3199886e-05,4.310911e-05,-0.00011890293,-7.237798e-05,-9.006368e-05,0.0009134625,0.0007686662,0.0006496383,0.0005301763,0.00043679605,0.001985066,0.0019070848,0.0018322095,0.0017797606,0.0017402072,0.0031708605,0.0031265519,0.0030974771,0.0030584466,0.0030175685,0.0055039097,0.005262927,0.005068315,0.004880827,0.004710885,0.008542972,0.008272876,0.008032564,0.0078018853,0.007588979,0.01255468,0.012035641,0.011503733,0.010986415,0.010497039,0.018650966,0.017921701,0.01721752,0.016533438,0.015868489,0.026563542,0.025804618,0.025146475,0.024577824,0.024051845,0.041391592,0.04087578,0.040316716,0.03970359,0.039046183,0.069960974,0.06782591,0.065445565,0.06294934,0.060379658,0.105243266,0.09661709,0.0884457,0.08092799,0.07406601,0.120330215,0.10260061,0.087621585,0.07518458,0.06485874,0.0970144,0.07594936
0.0050115623,0.0013852244,0.0007225208,0.00039798336,0.00037607204,0.0004227609,0.00042764423,0.00032926476,0.00040781425,0.00041660763,0.00036035903,0.00054507423,0.00023130406,-9.1844777e-07,5.0893454e-05,0.0004682839,0.00037640167,0.00037481237,0.00016392903,0.00045034944,8.186938e-05,-1.06140205e-05,-8.489008e-05,-0.00011596312,-0.00012317339,0.00032075375,0.00015455333,2.9289917e-05,-9.348966e-05,-0.0001862752,0.0008096345,0.0008132571,0.00084337767,0.00086071226,0.0008881946,0.0005408125,0.00049327075,0.0004522903,0.00042921552,0.00040843443,0.00051625597,0.0005855464,0.0006416679,0.0006958049,0.0007336175,0.002016773,0.002198893,0.0022646452,0.0022568465,0.0022230342,0.0043377196,0.00435051,0.004252931,0.004097464,0.0039160284,0.007163663,0.007119187,0.007079062,0.007022698,0.006934439,0.011027966,0.011096369,0.011294638,0.0115576,0.011833513,0.02175303,0.022718884,0.023645923,0.024447612,0.025126126,0.050611664,0.051607855,0.052091904,0.052149016,0.051816348,0.09975439,0.09496504,0.089915276,0.08478587,0.07966531,0.1379536,0.12018725,0.10482136,0.09161584,0.08027502,0.12060307,0.09391676
0.020159448,0.0071363454,0.0038393477,0.0026122446,0.0020517036,0.0029214867,0.0022242237,0.0016918267,0.0016120215,0.0016450398,0.0018158122,0.0015571627,0.0018652523,0.0013810088,0.0010412203,0.0009829499,0.00083868625,0.00039347663,-1.791137e-06,-0.0002284923,0.00029083836,0.00015096771,0.00016413217,9.2501374e-05,6.830778e-05,0.00035363474,0.0003835947,0.00040963106,0.000416585,0.00041777233,0.00013160662,0.00032632312,0.0005054291,0.00060159067,0.00068369065,0.00027553266,0.00044071523,0.00049790414,0.00052318815,0.00049695413,-0.002060818,-0.0016006317,-0.0012294998,-0.00089034904,-0.00063277653,-0.0043125125,-0.0035078214,-0.002926868,-0.002474951,-0.0021515838,-0.006283206,-0.0055639516,-0.005052656,-0.0046572057,-0.004324485,-0.009293038,-0.008329076,-0.0075283507,-0.006855876,-0.0062850355,-0.009892526,-0.008646289,-0.007570737,-0.00662836,-0.00575155,-0.0071690157,-0.0041127047,-0.0014448719,0.000846852,0.0028634805,0.011727395,0.018646179,0.024471482,0.029250387,0.033181872,0.07790598,0.08630572,0.092406735,0.096242785,0.09842811,0.20469894,0.19966434,0.19335255,0.18554167,0.17702816,0.3324663,0.29652616
-0.0032371716,0.00012537712,0.00053792447,0.00077189563,0.0005610869,0.00072210166,0.00058386364,0.00047780163,0.00036668874,0.00028058008,0.0004932361,0.000415694,0.00018299885,0.00013526094,0.00017852054,0.00041836113,0.00030663935,0.0003132432,0.00031379663,0.00038827345,0.00026494716,0.00021160068,0.00012987688,0.00013718198,0.00013308466,0.00018022243,0.00019732594,0.00021050556,0.00022432963,0.00023465621,0.00038927142,0.00041720754,0.00043193527,0.0004286593,0.00042320092,0.00047684714,0.0005487601,0.00059271976,0.0006114407,0.0006251493,0.0006930454,0.0009208749,0.0011258855,0.0013131344,0.001482573,0.0015061363,0.002192718,0.0027503874,0.0031993715,0.0035613093,0.0055096415,0.006277387,0.0067839986,0.0071218815,0.007347124,0.013352025,0.014047093,0.0144602815,0.014703526,0.014824811,0.028264187,0.028165586,0.027872564,0.027417796,0.026901044,0.051672757,0.04919547,0.046715982,0.044265077,0.04189738,0.076572,0.06870307,0.061856896,0.05579225,0.05037361,0.0852996,0.0708391,0.059502747,0.05037264,0.04290321,0.065905616,0.049676955,0.03802393,0.029359443,0.022809373,0.030751672,0.019295873
0.003937301,-0.00055579294,-0.0002476728,-0.00041828063,-0.00034064899,-0.0003524499,-0.0003115274,-0.00025650437,-0.00023006667,-0.00020263715,-0.00022068992,-0.00022736692,-0.0001497491,-8.735637e-05,-1.6212824e-05,-6.34775e-05,0.00010456443,0.00020661397,0.00014245449,0.0003487391,0.0003298607,0.00040677097,0.00048016192,0.00050258473,0.0005160766,0.00090475235,0.00085692666,0.0008142105,0.0007749339,0.0007406554,0.00144327,0.0013784064,0.001306003,0.0012409368,0.0011846895,0.0031845057,0.0031021764,0.0030030797,0.0029051162,0.0028098752,0.0060283095,0.0059194514,0.0058264574,0.005748513,0.0056746947,0.010110683,0.009689548,0.009325953,0.009001652,0.008710612,0.015011292,0.014103024,0.013314997,0.01262667,0.012017042,0.021317724,0.019809686,0.018606942,0.017624648,0.016787449,0.030786939,0.028412146,0.026563698,0.025037525,0.023753203,0.044891424,0.04096257,0.037702408,0.034946144,0.032557387,0.060775194,0.053940255,0.04825521,0.04351281,0.039457012,0.07046903,0.06011779,0.051868953,0.045328937,0.040005784,0.06770291,0.05607612,0.047256738,0.040600833,0.03542429,0.057701446,0.04778083
0.0025987762,0.00021689395,0.0001322093,0.00042001784,0.0002491488,0.00032792753,0.00018266047,6.55966e-05,8.6749526e-05,0.00011962189,4.8550006e-05,-6.295588e-05,0.00014655417,5.823563e-05,2.6630012e-05,-0.00037252047,-0.00025058354,-0.00032584518,-0.0005867404,-0.00042221937,-0.00017555687,-0.00023203056,-0.00044122152,-0.00037339545,-0.00036212534,0.00022982864,0.00034461103,0.00044493005,0.0005317802,0.0006143419,0.0020632814,0.002366928,0.0026356925,0.0028573219,0.0030456334,0.005942377,0.006173935,0.0063093817,0.006357076,0.0063684527,0.012120343,0.011922097,0.011710586,0.011509808,0.01132637,0.020964077,0.020263843,0.019704305,0.019240767,0.018841654,0.035679918,0.03431449,0.03314208,0.032109547,0.031183794,0.05986723,0.056547187,0.053572893,0.050877098,0.04839515,0.091872774,0.08383431,0.07667177,0.07029542,0.06459947,0.11591701,0.09965409,0.08606733,0.07468711,0.065059535,0.10792827,0.084661536,0.06696073,0.053389613,0.04290072,0.06439044,0.04420432,0.030652339,0.021425188,0.015124816,0.02018133,0.011552358,0.006845957,0.0042627286,0.0028669785,0.0053547816,0.00455156
0.0008868078,0.0009647967,0.0013150121,0.0011265986,0.00091945956,0.0011206117,0.0009042506,0.0007027982,0.00061377545,0.00046491905,0.00068238087,0.0005575327,0.00036206323,0.00028261731,0.00023872397,0.00041414629,0.00029006397,0.00022933152,0.00011093899,0.00015568672,-0.00013467579,-0.00024060156,-0.00034930572,-0.0003839758,-0.00041414538,-0.00037077453,-0.000352932,-0.00032075265,-0.0002885955,-0.00025066757,-0.0005249416,-0.00036790577,-0.0002123634,-8.247145e-05,3.923801e-05,4.532977e-05,0.00028324145,0.0004883945,0.0006749962,0.00083055836,0.0030569995,0.0034210682,0.0037101144,0.0039352323,0.004111709,0.008528182,0.008887015,0.009141491,0.009324481,0.009461075,0.019308692,0.019296313,0.019136567,0.018883787,0.018574845,0.03723035,0.035996553,0.0346836,0.033351384,0.032027494,0.060612645,0.05612814,0.0519969,0.04820577,0.04474782,0.0794155,0.06945473,0.06105051,0.05393285,0.04785323,0.078831255,0.063969485,0.052486114,0.043500308,0.036372468,0.055067796,0.040593382,0.030410673,0.023042142,0.017648399,0.02454965,0.015614388,0.010066472,0.006482838,0.004152934,0.006318162,0.0032351776
-0.003837895,-0.0011413532,-0.00045037273,-0.0004399184,-0.0003581898,-0.00040644174,-0.0003801265,-0.00017861064,-5.7099023e-06,-7.4816526e-06,-0.00017741151,4.2386277e-05,-0.00022271066,-0.00040914182,-0.0003064292,5.432294e-05,8.502083e-05,0.00019127876,7.227906e-05,0.00040304058,0.000124032,0.0002139894,0.00022532919,0.00027040322,0.00026796522,0.00031389054,0.00041885203,0.00048295956,0.00053220434,0.00056065,0.00011786501,8.990434e-05,7.6272074e-05,6.6473935e-05,5.9326398e-05,0.001999869,0.001823278,0.001613415,0.0014050213,0.0011976555,0.0030046422,0.002817311,0.0026530155,0.0025279575,0.0024220622,0.002030067,0.0020338094,0.0020829726,0.002158399,0.002229253,0.0030177026,0.0029629578,0.002852102,0.002714833,0.0025705786,0.0067555513,0.0067012035,0.006549986,0.0063403244,0.006094045,0.012396134,0.011944116,0.011438457,0.010940739,0.010476439,0.019058762,0.0182599,0.017500537,0.016809475,0.016203215,0.029001653,0.02836947,0.027846577,0.027408862,0.027020108,0.05118371,0.05068026,0.05002428,0.049239345,0.048334926,0.09263587,0.08841987,0.084035255,0.07973393,0.07556983,0.13748546,0.12326006
0.005957062,-0.00036525796,-0.0007890267,-0.000114851224,-0.00021786956,-0.00022522066,-0.00013686757,-0.00025902232,-0.000299408,-0.00030199182,-0.00024146578,-0.00033014247,-0.00035408558,-0.0003550336,-0.0003224783,-0.00038865578,-0.00031982636,-0.00026288858,-0.00026989734,-0.00018943395,6.97991e-05,-4.5639084e-05,-0.00017593786,-0.00018568017,-0.00017801768,-0.00016781063,-3.52059e-05,0.00012093184,0.00028619004,0.00045152713,0.002170765,0.0026125424,0.0029677502,0.0032621585,0.0035024455,0.0072313887,0.007813335,0.0082086325,0.008468291,0.008637836,0.017092058,0.017029433,0.016798483,0.016486093,0.01613414,0.030580213,0.029177165,0.027861703,0.026631497,0.025489828,0.047697905,0.043749824,0.040346596,0.037380856,0.034777567,0.06498141,0.057231013,0.050819412,0.045423795,0.04084404,0.07310123,0.060794264,0.051181998,0.043487135,0.037266098,0.06294752,0.04813206,0.037397746,0.029419228,0.023376776,0.03710528,0.024782762,0.016758032,0.011390689,0.0077383723,0.011706849,0.0054561337,0.002063624,0.00030825223,-0.0005646811,-0.0006347899,-0.0015881567,-0.0017497835,-0.0015319632,-0.0012519102,-0.0015338099,-0.0005965323
0.0060915127,0.0009233237,0.0004685044,0.0005220914,0.00039539428,0.0004673457,0.00045461027,0.00029473618,-0.000101882055,-0.00028999275,0.00034438263,-0.00010697935,-0.00043478588,-0.00032317534,-0.0002511534,-2.1053616e-05,-0.0002547184,-0.00021819695,2.3730725e-05,-0.00012700821,-0.0001024432,-0.00021802912,-0.00034310512,-0.00037084258,-0.00039349025,-0.00048331547,-0.00055866566,-0.0006105126,-0.00065141043,-0.00067906134,-0.0012925633,-0.0013169108,-0.0013034607,-0.0012799818,-0.0012412228,-0.0024530238,-0.0024105953,-0.0023364802,-0.0022365993,-0.0021264704,-0.0021049296,-0.0016725509,-0.0013075684,-0.0009994741,-0.00073463353,1.5404075e-05,0.0006008805,0.0010671564,0.0014437804,0.0017495537,0.0054346793,0.0059918533,0.006374466,0.0066529573,0.006864882,0.015501441,0.016003208,0.016345032,0.016570851,0.016696665,0.035077702,0.03462967,0.03403108,0.03331548,0.03251484,0.06449514,0.060565658,0.05681442,0.05325212,0.049883816,0.09171871,0.08074553,0.071367085,0.063285656,0.056256846,0.09443802,0.076456085,0.06255574,0.051596865,0.04283805,0.0634001,0.045453392,0.033020157,0.024088055,0.017578743,0.01936749,0.009265947
0.0030085014,0.00020127914,2.0055739e-05,0.00019308932,7.573938e-05,0.0004037354,0.00024377817,3.0189352e-05,-7.136686e-05,-4.8677488e-05,9.61947e-05,5.0111434e-05,-0.0001695299,-0.00021546532,-0.00010678969,-4.215206e-05,-0.00014583845,-0.0001344811,-0.00026081956,-0.00010123778,-0.00051463005,-0.00049855164,-0.00021969857,-0.000223787,-0.00014153864,-0.0010484734,-0.000878936,-0.0007321854,-0.00059259264,-0.00047411473,-0.0014625932,-0.001370681,-0.0012777242,-0.001192668,-0.0011255872,-0.00091783475,-0.00092364725,-0.00095035206,-0.0009817585,-0.0010245712,-0.0001369564,-0.00023250995,-0.0003135275,-0.00039385512,-0.00048286753,0.0014294113,0.0012936775,0.0011476689,0.0010125658,0.0008670177,0.0036997537,0.0034009775,0.003136556,0.002898715,0.002687567,0.007897515,0.007454811,0.007120367,0.0068698563,0.006667332,0.015693404,0.0149084935,0.014321466,0.013877149,0.013548894,0.029254092,0.02816389,0.02729131,0.026557012,0.025896331,0.05161376,0.04934087,0.04727004,0.04535061,0.043449562,0.08071748,0.07401811,0.068010494,0.06257848,0.057598658,0.10014858,0.08595402,0.07412212,0.064259395,0.055957843,0.09277099,0.0737295
0.0034788975,0.00014963563,-0.00020563649,0.00012339752,0.0002780078,-5.426466e-05,0.00022433876,0.00014976977,-0.00023905683,-0.00048019676,0.00015789812,-0.00024328465,-0.0006775177,-0.0004731019,-0.00035442325,0.00010049191,-8.230725e-05,7.86388e-05,0.0004945893,0.00033672067,0.0004975101,0.0004548796,0.00033445633,0.00034158066,0.0003599707,0.0010735355,0.0009293445,0.0008087779,0.00070928154,0.00063816464,0.0009663105,0.0009156607,0.00093826366,0.0009814727,0.0010481952,0.0016016915,0.0017848528,0.0019259446,0.0020303451,0.0021107623,0.0045243553,0.0046291156,0.0046458845,0.0046228194,0.004574038,0.008409919,0.008246404,0.008184643,0.008186656,0.008229143,0.015067014,0.014965828,0.015010638,0.015134784,0.015299566,0.02993638,0.030087432,0.030262966,0.030401062,0.030462038,0.06053527,0.05912099,0.057482913,0.055726085,0.053879015,0.10238324,0.09410364,0.08623038,0.0789137,0.07213102,0.12552193,0.10530793,0.088525884,0.07458027,0.06297395,0.09690624,0.0713871,0.05271074,0.038935542,0.028711244,0.035970867,0.020216143,0.01054776,0.0045536994,0.00090493716,-0.0012672234,-0.0041716895
0.009651131,0.003377642,0.0016931405,0.0012285521,0.00085828203,0.0012868788,0.0008775813,0.0006532205,0.00079565065,0.00079177594,0.0006452771,0.0008855809,0.00043144985,-0.0002403803,-0.00018615685,0.00045236637,0.00032335395,0.00021456699,-0.0003213533,0.00014664262,7.0764218e-06,-0.00012913383,-0.00022590338,-0.00029264667,-0.00035696587,-0.0004977558,-0.00054563326,-0.00055021525,-0.0005390303,-0.0005166506,-0.0012272102,-0.001047092,-0.00084014353,-0.0006577274,-0.00048608036,-0.000251704,4.107543e-05,0.00027766766,0.00046852825,0.0006094176,0.0027811027,0.0031012308,0.0033047916,0.0034276529,0.003518312,0.0067439703,0.006896518,0.0070264093,0.007157473,0.007290288,0.014622292,0.014954585,0.015231064,0.015447799,0.015609639,0.03057306,0.030963928,0.03117097,0.031193063,0.031047165,0.058324452,0.056828458,0.055121977,0.05327151,0.05133795,0.09226007,0.084677264,0.077674754,0.07124447,0.065393046,0.10962101,0.09291307,0.079239264,0.06791271,0.058507,0.08918656,0.06838753,0.05335245,0.0421477,0.03373789,0.04587931,0.03149856,0.02278213,0.01710511,0.013420866,0.01765753,0.013173539
0.0021095593,0.00060955057,0.00042219835,0.00067919446,0.0006124556,0.0006489647,0.00062418036,0.00041464443,0.0003704173,0.00030775493,0.0004405298,0.00033045505,9.1501155e-05,-0.00023387345,-0.00018631,9.475943e-05,-4.019688e-05,-8.472079e-05,-0.00021675325,-3.7743703e-05,-0.0005852391,-0.0007565652,-0.0009258888,-0.0009066636,-0.00086201326,-0.001220658,-0.0012445668,-0.001226198,-0.0012013145,-0.0011638665,-0.0006219976,-0.00073614065,-0.0007981162,-0.0007959934,-0.00077221845,0.0016059455,0.0015408256,0.0014511829,0.0013527893,0.0012395364,0.0029739193,0.0030702676,0.0031364013,0.0031770705,0.0032035168,0.005462471,0.0053683277,0.005273429,0.005177803,0.005085948,0.0087656155,0.008476586,0.008177501,0.0078783445,0.007586982,0.013225814,0.012401608,0.011721456,0.011130885,0.010596568,0.018517608,0.017157327,0.01606867,0.015217252,0.0145098325,0.02648326,0.024776002,0.02351021,0.022553585,0.021768497,0.043038573,0.040415253,0.038503617,0.037013408,0.035743296,0.071720086,0.0667234,0.06271229,0.059364486,0.0564071,0.10814148,0.0983906,0.08996182,0.082877345,0.07672222,0.1383617,0.12194268
-0.0024669438,-0.002238003,-0.0017606337,-0.0007132769,-0.0004348649,-0.0009815375,-0.0006011241,-0.00035013727,-0.00018140429,-0.0001270869,-0.00036512266,-0.00036641987,2.1831922e-05,-2.4692723e-05,-4.972572e-05,-0.00034564285,-0.00011236305,-0.0001351404,-0.0002513267,-0.00023319345,0.00023937217,0.00015280981,-0.00015396849,-0.00015509731,-0.00022362353,-1.0434189e-05,-5.953887e-05,-9.7563934e-05,-0.00011830388,-0.00012668234,0.000280057,0.0003311464,0.00039794244,0.00048041792,0.00056973944,0.0013044617,0.0018086489,0.002286586,0.0027231486,0.0031222298,0.0056113056,0.0067075184,0.0076502417,0.0084693525,0.009183484,0.016834848,0.018729176,0.020194374,0.0213428,0.022232523,0.041369166,0.04292131,0.043726057,0.044025287,0.043969646,0.08035534,0.07785917,0.07482781,0.07154643,0.0681862,0.118438385,0.10617021,0.09521381,0.08544906,0.07681624,0.122293405,0.09919715,0.08112746,0.06673305,0.055230495,0.07458453,0.05121589,0.03561209,0.024805024,0.01729234,0.0123331295,0.0028294844,-0.0011765996,-0.002672043,-0.002890291,-0.009538912,-0.0062566637,-0.002459111,0.00041639057,0.0025237459,0.005300939,0.007971071
-0.007222434,-0.00143753,-0.0007388925,-0.0011703713,-0.0006758099,-0.0011819765,-0.000875558,-0.00054147944,-0.00029917512,-0.00017210025,-0.00057480915,-0.000289057,-0.00035481036,-0.0006347442,-0.00059356523,-0.00046813232,-0.00036258047,-0.00032301064,-0.0006007114,-0.000230868,-0.00070614275,-0.000640044,-0.0008576317,-0.00074918946,-0.00074443,0.0005511054,0.00058821024,0.0005866263,0.0005431277,0.0004948832,-0.00027394883,-0.00015031507,-9.791285e-06,9.123878e-05,0.00019498187,-0.00076474313,-0.000737077,-0.00069919723,-0.00066791393,-0.0006360777,0.0002767426,0.00027637056,0.00024052171,0.00020032565,0.00016575707,0.0010560851,0.0010762839,0.0011019281,0.0011151753,0.0011138461,0.00027790677,0.0003981428,0.0005236414,0.00066484325,0.000824035,0.0020013463,0.00221584,0.0023753778,0.0025036642,0.002612346,0.007676925,0.007871927,0.008033717,0.008158924,0.008251254,0.019758932,0.019576922,0.019396288,0.019195363,0.018969923,0.04104813,0.039256413,0.03764477,0.036154456,0.034734204,0.06915195,0.06348643,0.058607228,0.054349165,0.05055496,0.093495935,0.082348794,0.073142506,0.065540776,0.059162866,0.10292273,0.08732662
0.0048834635,-0.00062092906,0.00022461778,0.00044996908,0.00042699184,0.00031280308,0.00049954804,0.00030907328,0.0002235346,0.00015709612,0.0003142785,0.000365002,-3.6958358e-05,-9.841081e-05,-3.9136292e-05,0.00031981803,8.630278e-05,7.76129e-05,0.00010809993,0.00012867499,-2.8250628e-05,-9.247366e-05,-5.182095e-05,-6.535879e-05,-2.146832e-05,0.00036056477,0.0002296684,0.00012610373,3.5919e-05,-3.120724e-05,0.00048603167,0.00026815914,0.00012451832,4.2721396e-05,2.4773472e-06,0.0013104767,0.0010849568,0.00090621604,0.0007866131,0.0006934556,0.00353289,0.0035838243,0.0036331809,0.003669554,0.0036910912,0.0073491256,0.0073511014,0.007316217,0.0072578033,0.0071829185,0.012976017,0.012706642,0.012437443,0.012188622,0.011959957,0.022620395,0.02220252,0.021818522,0.02143679,0.02103869,0.040096898,0.03881,0.03758454,0.036430154,0.0353214,0.06752422,0.06348688,0.05972248,0.05625092,0.0530393,0.09717705,0.08714784,0.0784397,0.07088653,0.06428329,0.10918643,0.09206595,0.07815176,0.06684496,0.057592828,0.087577716,0.067974865,0.053231854,0.04209036,0.03365513,0.041843563,0.02762992
0.0038274957,0.00019061913,0.00026690145,3.748401e-05,-0.000112139,4.4838842e-05,-2.1026399e-05,-0.00020618092,-0.0003557865,-0.00035684684,-0.00019341064,-0.00028192645,-0.0005528855,-0.00063217233,-0.00047671716,-0.00021101019,-0.00028394096,-0.00019675156,-0.00016055765,-6.524659e-05,9.989506e-05,7.082459e-05,0.00014302462,9.925813e-05,9.4328316e-05,7.487666e-05,1.7751736e-05,-2.9152012e-05,-7.797162e-05,-0.00012170259,-0.00038698438,-0.00043979665,-0.00047126177,-0.0004924101,-0.000495004,-0.0010828566,-0.0009953969,-0.0008981455,-0.000794896,-0.00069721794,0.0006029166,0.00085915305,0.001056648,0.0012112865,0.0013280984,0.0050896592,0.005325958,0.0054847808,0.0056019095,0.0056832456,0.014268969,0.014093463,0.013889706,0.013667241,0.013433401,0.029868864,0.028663011,0.027570115,0.026562007,0.02560689,0.051932704,0.04798054,0.044498254,0.041404158,0.038634166,0.072537,0.063568115,0.056081474,0.049793635,0.044485573,0.077113554,0.06324162,0.052586652,0.044325136,0.03784104,0.060590006,0.046589606,0.036906328,0.030031832,0.025110938,0.03722764,0.028160742,0.02266161,0.019156206,0.016862918,0.023908084,0.01986158
-0.0013788391,-0.0027315847,-0.0015131724,-0.00066799455,-0.00014110804,-0.0010353695,-0.00022460798,0.00011023297,8.696715e-05,9.104115e-07,0.00011934291,0.00029488612,-0.00019891515,-0.00017980998,-0.00014976446,0.000347585,-2.3454471e-05,-3.733358e-05,0.00019202154,1.0869774e-05,-0.0002507756,-0.00030295248,-0.0004738036,-0.00043909976,-0.00042115618,0.00038409774,0.000342381,0.00031413397,0.00027870748,0.00026003068,0.00045071277,0.00061764097,0.0007886198,0.0009446866,0.0011004114,0.001706864,0.0023524794,0.0029102536,0.0034128688,0.0038669538,0.00887549,0.010280682,0.0114499265,0.012435774,0.013264401,0.029861387,0.03145447,0.03248222,0.03310701,0.033426993,0.07017314,0.06903896,0.06728115,0.06516231,0.06284875,0.12186335,0.112058945,0.10277934,0.09413706,0.086195506,0.15236677,0.12867466,0.10899063,0.0924594,0.0785994,0.12058599,0.08858497,0.065192424,0.047620483,0.03439296,0.03485221,0.0139363855,0.0018896469,-0.0054702717,-0.009737695,-0.029477967,-0.028825352,-0.025410388,-0.021872032,-0.018551737,-0.030341337,-0.022425296,-0.015977755,-0.011930103,-0.00926317,-0.015377311,-0.013736833
-0.038102914,0.17397887,-0.023417838,0.1452072,-0.08770553,0.15781078,0.18756437,0.06877802,0.051126875,-0.1674903,-0.108238235,-0.033011694,-0.14050727,0.025369914,0.08860014,-0.03109343,-0.15616983,-0.07913886,0.07504413,0.033786006,-0.1453311,0.07700622,0.114780694,-0.0511424,-0.008302108,0.063956216,-0.11709765,0.14487937,-0.013955421,0.09182006,-0.055790003,0.100337334,0.17853343,0.1801246,0.0393477,-0.008663795,0.039772157,0.11175533,-0.07596416,-0.012889928,0.024082657,0.089447245,-0.13674325,0.1291552,0.15253632,-0.08801648,0.06265707,0.16015679,0.10637307,0.15585124,0.06567708,-0.14779094,0.06052174,-0.051341865,0.116148405,-0.111925416,-0.09456034,0.1148575,0.12839893,0.07770934,-0.13582747,0.07249057,-0.060475476,-0.08922073,0.07167194,0.09478395,0.00409474,0.14762829,-0.13309082,-0.14784643,-0.08555018,0.06264681,0.08398029,0.057346776,0.09878668,0.041243054,0.0962189,-0.05393184,-0.039602034,0.1576101,0.026092997,-0.049842037,0.08023066,-0.12727103,-0.009553215,0.006655453,-0.11170098
-0.0008228662,0.00023226437,0.00073610235,0.0008700894,0.00090770394,0.0005780408,0.0009148552,0.00066415424,0.000743868,0.000830605,0.0006416806,0.00072410173,0.0008767826,0.00050318614,0.0003688311,0.00047901063,0.0004907293,0.00033116408,8.110857e-05,0.0001458978,-0.000279411,-0.00041087228,-0.00040302053,-0.00046414684,-0.00044892356,-0.0011094998,-0.0012590517,-0.0013643485,-0.0014553745,-0.0015171003,-0.0008530132,-0.0009715396,-0.0010858437,-0.0011341219,-0.0011619853,-5.37562e-05,2.3449727e-05,4.552632e-05,5.1292416e-05,3.650492e-05,0.0004308183,0.0005609053,0.0006686732,0.0007522446,0.00081396796,-0.0014599365,-0.0011945682,-0.0009390302,-0.0007086098,-0.0005065835,-0.001554603,-0.0013028078,-0.0011594403,-0.0010923811,-0.0010711201,-0.0019128055,-0.0014951951,-0.0012300654,-0.0010703886,-0.0009891156,-0.001615649,-0.0012938979,-0.0011022276,-0.00097298366,-0.0008746702,-0.00046076125,0.0006223426,0.0015265609,0.0022790406,0.0029354712,0.010161593,0.013150141,0.015664307,0.01770589,0.019352915,0.047574744,0.050870635,0.053173322,0.054470874,0.055045236,0.117084205,0.11279881,0.10845149,0.103699096,0.0988163,0.18946882,0.16940027
0.009724979,0.0018300796,0.0019398275,0.0012470396,0.000940795,0.0012239187,0.00096084765,0.0005715396,0.000510081,0.00046554234,0.0005487683,0.0005155679,0.00029452983,-0.00014172285,-9.2454036e-05,0.0004918586,0.00046466495,0.00048017173,0.0003330393,0.0005962247,0.00078411336,0.000774901,0.0008448572,0.00079874066,0.00079100655,0.0014103045,0.001303462,0.0012046944,0.0011129518,0.0010396164,0.0012011968,0.0013234372,0.0014465854,0.0015482969,0.001650536,0.0009974244,0.0013087105,0.0015759831,0.0018008823,0.001983774,0.0041895546,0.0044993865,0.004699512,0.004820546,0.0049000564,0.007843237,0.007868671,0.007898577,0.007950291,0.008014628,0.013539159,0.013507008,0.013479588,0.013454497,0.013437838,0.022961902,0.023353575,0.023681317,0.02390415,0.024021234,0.04284122,0.043316193,0.043437555,0.043298244,0.042949833,0.07899879,0.07715921,0.07477863,0.07202536,0.06906679,0.12382481,0.11300811,0.10300054,0.09372439,0.08522469,0.14165361,0.11772412,0.0985963,0.08304243,0.07035372,0.10185591,0.07410443,0.054856222,0.041028332,0.031039184,0.030314699,0.013898323
0.0025384354,-0.00068635715,-0.0001846948,8.5674794e-05,2.8926253e-05,2.6090798e-05,5.3540105e-05,-9.9564e-06,0.00010341391,0.0001684474,6.398792e-06,-3.1521056e-05,0.0004768356,0.00054413866,0.0004360238,-4.929435e-05,0.00017027874,6.134409e-05,-0.00012455822,-0.00018041895,0.00029686058,0.00020623827,7.2498515e-05,4.4637065e-05,1.043655e-05,0.00044010876,0.00041589455,0.00039980194,0.0003809526,0.00036310407,0.00040399452,0.00037551555,0.00034441435,0.00030210413,0.00026659385,4.3039363e-05,2.1523432e-05,-2.0344844e-05,-7.206034e-05,-0.00012776902,-0.00089424127,-0.00076614274,-0.000619714,-0.0004766057,-0.000332307,-0.0013284067,-0.0007349239,-0.00022725965,0.00019772048,0.0005572911,0.001987285,0.002633705,0.003065912,0.0033593264,0.0035677683,0.009160395,0.009923459,0.010450928,0.010801531,0.011017417,0.021858834,0.022359936,0.022645157,0.022789963,0.022822354,0.04355411,0.04317804,0.042496756,0.04161027,0.0406267,0.07507581,0.07119756,0.06730295,0.06342158,0.059661582,0.104210325,0.09257074,0.08251955,0.07367747,0.06589107,0.10604834,0.086685635,0.071575195,0.059422467,0.049587384,0.07023073,0.050591204
0.0011727872,0.001366202,0.0012430841,0.0010883977,0.00079513865,0.0011965988,0.00084436743,0.00073495565,0.00075212936,0.0007410755,0.0007801173,0.0007342512,0.00092540856,0.0010114338,0.00091750245,0.00058283395,0.0006679159,0.0005425198,0.00022358393,0.00032373433,0.0006875429,0.0006176933,0.000557666,0.00052241323,0.00048309698,0.0009522564,0.0009087398,0.00088482094,0.00086676935,0.000853025,0.0008459179,0.0010485336,0.0012219594,0.0013342757,0.0014198766,0.000754779,0.0010678169,0.0012934722,0.0014341008,0.0015215984,0.00076887803,0.0009217555,0.0010360857,0.0011326002,0.0012187185,0.002617937,0.0026735752,0.002669827,0.0026414695,0.0026001446,0.006477842,0.0064888396,0.006450041,0.0063856672,0.0063075214,0.015164354,0.015230543,0.0152710695,0.015258711,0.015188134,0.031995717,0.031871084,0.03157915,0.031171236,0.03066472,0.060510296,0.058499664,0.056189716,0.05372097,0.051207796,0.09560613,0.08712781,0.07924463,0.071947105,0.06528082,0.1130456,0.09485394,0.08001917,0.06767802,0.057368983,0.089875154,0.06765717,0.051426154,0.0390606,0.029584078,0.039661035,0.023848547
-0.008239398,-0.0026837764,-0.0014956314,-0.0004739171,-0.00037351548,-0.00065672316,-0.0003133575,-0.00041209313,-0.00043631287,-0.00036435033,-0.00044498802,-0.00043569598,-0.00028850287,1.1759477e-05,6.2947176e-05,-0.00033055551,-0.00026117108,-0.00021054705,-7.5254415e-05,-0.00017464338,-0.00028727806,-0.00025978833,2.394594e-06,-7.1869817e-06,8.331411e-05,-0.0004940235,-0.00046843526,-0.0004594325,-0.00045509776,-0.0004575523,-0.0016859174,-0.0017452447,-0.0017727074,-0.0017990274,-0.0018118753,-0.004312267,-0.004356114,-0.004342561,-0.0042902334,-0.004229562,-0.007535239,-0.007167521,-0.006813771,-0.006483046,-0.0061757592,-0.0105222985,-0.009516077,-0.0086273365,-0.007850394,-0.007156569,-0.011342693,-0.009592913,-0.008181092,-0.0070242593,-0.0060618534,-0.008521959,-0.0060788104,-0.004161781,-0.0026136597,-0.001345595,0.0012621232,0.0041529443,0.0063801236,0.008102198,0.009483087,0.023334123,0.026199343,0.028078653,0.029198097,0.029782021,0.06106775,0.060092185,0.058235843,0.055744674,0.052892838,0.09637938,0.08502365,0.075169295,0.06637604,0.058601875,0.093868904,0.07374265,0.058729686,0.04695307,0.037701953,0.04975862,0.03172493
0.009806971,0.003739944,0.002403223,0.0016747764,0.0011109384,0.00192496,0.0012688944,0.00082318304,0.00037604413,0.00015647263,0.00085727294,0.00040705968,-6.1159124e-05,-0.0003094347,-0.00020843546,0.0005802112,0.0002990748,0.00037563714,0.00064681144,0.0006240585,0.000871487,0.0009493667,0.0012295516,0.0012288014,0.0012777013,0.0014956952,0.001617483,0.0016950658,0.0017562931,0.0017879335,0.001364221,0.0014700759,0.0015606597,0.0015863684,0.0015971555,0.0019807213,0.0018993198,0.0018030423,0.0016931483,0.0015805601,0.0011907624,0.0009141952,0.0007083135,0.0005432891,0.00043015595,-0.0004288601,-0.00066733384,-0.00084081176,-0.00091797806,-0.00097436795,-0.0018236809,-0.0015919401,-0.0014301126,-0.0013186821,-0.0012459422,-0.0020691035,-0.0011534902,-0.0004509621,7.033028e-05,0.00044009014,0.00064894,0.0019337232,0.0028817481,0.0036004337,0.004153184,0.008180575,0.010094456,0.011452269,0.012423525,0.0131306825,0.027194709,0.029393855,0.030784568,0.03158716,0.031950533,0.06536518,0.06478929,0.063443765,0.061537195,0.059302792,0.11350729,0.10414551,0.095422745,0.08737518,0.08003429,0.14073591,0.12015252
0.004516108,0.00029635878,0.0006158806,0.0008774585,0.00059836206,0.00083384645,0.00068389694,0.00037922582,0.0002539892,0.0002537466,0.00039735978,0.0002386434,0.00019379411,-5.4262764e-06,-3.632986e-05,2.0364607e-05,-4.8798218e-05,-0.00010917179,-0.00016726827,-0.00015666595,0.00018938872,0.00012452563,0.00014875716,0.00014111784,0.00017901571,0.00027511737,0.000292279,0.0003297734,0.000371495,0.00042252196,0.002038108,0.002163247,0.0022657802,0.0023506472,0.0024194228,0.0047667683,0.0048543913,0.0049193893,0.004964154,0.0049901926,0.010104038,0.009948063,0.009783699,0.009609847,0.00942989,0.016872482,0.016182268,0.0155598475,0.014993959,0.014475387,0.025137424,0.023450533,0.021992434,0.020721415,0.019600336,0.03442748,0.031756423,0.029537879,0.02766296,0.026041636,0.046373956,0.04223758,0.03886547,0.0360109,0.033565477,0.060131285,0.053414263,0.04790782,0.04328689,0.0393449,0.068125874,0.057886217,0.049698643,0.04306363,0.037584346,0.061460797,0.04888814,0.039528575,0.032445263,0.026977435,0.041686587,0.031115567,0.02394821,0.018984767,0.0154258385,0.024042968,0.01808036
-0.00096696545,-0.0020436686,-0.0014590517,-0.0014932582,-0.0012257905,-0.0015238248,-0.0011923857,-0.00087865064,-0.00072857697,-0.00055787165,-0.00085072196,-0.00067271036,-0.00039252377,-7.057963e-05,-4.116524e-05,-0.0006944041,-0.00046804128,-0.0003980068,-0.0005192492,-0.00040750444,-0.0005526334,-0.00039110208,-0.0002345828,-0.00014621406,-7.5127624e-05,6.5072374e-05,0.00028772175,0.0004832747,0.00064321404,0.00078836165,0.0017425898,0.002335499,0.00283149,0.0032308765,0.0035642022,0.006025248,0.0068668164,0.007518407,0.008025467,0.00842553,0.016325,0.016905295,0.017287305,0.017515708,0.01764725,0.034776445,0.034354404,0.03375478,0.033041846,0.032263894,0.0602439,0.0567616,0.053497836,0.050451826,0.04761858,0.08577295,0.076546915,0.068720445,0.061993185,0.056165922,0.096296534,0.08034088,0.06779563,0.057755448,0.049630158,0.07928119,0.06086472,0.047564235,0.037744403,0.030378746,0.044625036,0.031365015,0.022852838,0.017186364,0.013253723,0.019873861,0.014666245,0.011520393,0.009601212,0.008281667,0.0156137105,0.013542403,0.011778117,0.0104235355,0.009217344,0.01705236,0.01465491
0.0050313915,0.0009049979,0.00028454795,0.00016625525,2.0001375e-05,0.00019764023,0.0001141347,-5.8698817e-05,-0.000105004634,-3.5653833e-05,-6.625144e-05,7.2968964e-05,-0.00023818981,-0.00012809652,-3.9886887e-05,6.446656e-05,3.2867563e-05,0.00014436085,0.00011943768,0.00031280526,-6.3191364e-05,-4.7168567e-05,9.201764e-05,0.000119466196,0.00020138058,0.00018144237,0.00024105146,0.00028643082,0.00031567758,0.00033551583,0.00015963458,0.00021528825,0.00029716434,0.00033831917,0.00037923112,0.00026325247,0.00010963947,-1.5482423e-05,-0.00012261329,-0.00021368252,0.0009437093,0.0007548333,0.0006124298,0.00048650923,0.00037877573,0.0012157997,0.00090800354,0.0006512339,0.00043772388,0.00026340637,0.0024064686,0.0021393597,0.0018355706,0.0015218728,0.0012138666,0.0033016738,0.0030283295,0.002767314,0.0025105663,0.0022520479,0.0050023682,0.0044966564,0.0040943073,0.0037873285,0.0035562615,0.009076202,0.008784003,0.008626247,0.008558945,0.008555737,0.02119921,0.021526664,0.021986412,0.022515794,0.02301387,0.05137735,0.052141026,0.052731957,0.053149574,0.05332766,0.10815825,0.10555063,0.10244112,0.09909661,0.095581524,0.1776901,0.16307522
0.0025910304,0.00023504153,-0.0005404588,-0.00014256808,-0.00014087255,-0.00020924065,-7.662967e-05,-0.00019038745,-0.00030707038,-0.00023233057,-0.00015918535,-0.00032648272,-6.971277e-06,0.00015488557,0.00016220922,-0.00013028544,1.7136517e-05,6.713722e-05,0.00018601895,0.00011090424,-9.749667e-06,-1.45534505e-05,7.5901924e-05,3.9094957e-05,4.786915e-05,-0.00048231758,-0.00053541514,-0.00057853316,-0.00059746124,-0.0006103,-0.0011120363,-0.0012270892,-0.0013268626,-0.0013772962,-0.0014151414,-0.0009909122,-0.0009494813,-0.0009275777,-0.0009232477,-0.0009380486,-0.0015252475,-0.0016364623,-0.0017052074,-0.0017623849,-0.0018064668,-0.0014785352,-0.0013917738,-0.001355638,-0.001365548,-0.0014115458,-0.003343927,-0.0032839957,-0.003243425,-0.0032060095,-0.0031488845,-0.0018131161,-0.0021335513,-0.0022956724,-0.0023698052,-0.0023821786,0.0032127174,0.0028291652,0.0026357886,0.0025994827,0.0026528842,0.013434986,0.013468531,0.013632583,0.013897906,0.014190733,0.035281822,0.035716992,0.036134727,0.036481835,0.036684867,0.078184366,0.07754686,0.07653827,0.075227305,0.07366666,0.14684322,0.1392616,0.13169606,0.12447664,0.11758498,0.21950167,0.19714479
0.0042510694,0.0011205511,0.0001623696,-0.0004243533,-0.00049419084,-0.00037635962,-0.00045402997,-0.00047769357,-0.0005071109,-0.00039142353,-0.00050208485,-0.00053828926,-0.00022941541,9.1317925e-05,0.00012383383,-0.0005859641,-0.0004294275,-0.000421229,-0.0004937579,-0.000489281,-0.00043208298,-0.00028738013,-7.8463665e-05,-1.6856698e-05,4.634865e-05,0.00033897697,0.00041460976,0.00045871083,0.00046319002,0.00045754676,0.0005084536,0.00066242204,0.00079618924,0.00086477085,0.0009156732,0.0002973073,0.00033038593,0.00036204688,0.0003847103,0.00040432785,2.790317e-05,2.8766186e-05,6.054778e-05,0.00011289033,0.00018231408,0.0011408193,0.0015737115,0.0020181444,0.002460495,0.0028876816,0.006733772,0.008088396,0.0092602465,0.010276343,0.0111587625,0.024411274,0.026329177,0.027695348,0.028639335,0.02924638,0.059141412,0.058749706,0.0575351,0.055829402,0.053834014,0.09898685,0.090463564,0.08229394,0.07464824,0.06761344,0.111390404,0.0919449,0.07634896,0.06362248,0.05322568,0.075523786,0.054324865,0.039888363,0.02963552,0.02230752,0.02352487,0.013777352,0.009059068,0.0065879407,0.0054147425,0.0042900206,0.0052160886
0.0012390539,0.00042681827,0.00083241647,0.0007509932,0.0004476557,0.00085065054,0.00055695325,0.0003007222,0.00019926304,0.0001932065,0.00031908468,0.000120471974,0.00041294954,0.0005547599,0.00047814712,0.0001769175,0.00018893126,0.00010985736,0.00024914645,-3.862987e-05,0.0007112784,0.00080194,0.0011133321,0.0011121101,0.0011789441,0.0014997132,0.0016758847,0.0018306236,0.0019655514,0.002077631,0.0034532396,0.0037712045,0.0040028556,0.0041472386,0.004246335,0.006637778,0.006854293,0.0069987294,0.0070745745,0.0071097016,0.0125032,0.012331392,0.012083642,0.011788085,0.011487984,0.019810013,0.01896908,0.018166697,0.017421162,0.016733978,0.028080171,0.026445013,0.0250593,0.02386881,0.022831986,0.039568942,0.036724225,0.034453712,0.032575194,0.03097291,0.056242697,0.051474005,0.047599614,0.044393554,0.04166936,0.075434856,0.06773307,0.061384562,0.056073893,0.05152624,0.09020136,0.078158304,0.068374135,0.06037442,0.053677067,0.08936479,0.07327181,0.060812153,0.051073585,0.04335548,0.067286216,0.05130767,0.03983451,0.031596202,0.02554845,0.036392085,0.02602325
0.0035529947,0.0013956528,0.0012410044,0.00037415064,0.00042702488,0.0004333868,0.0004220966,0.0003269319,9.05991e-05,3.573316e-05,0.00035489982,0.00016298132,-0.00013017445,-0.00032214218,-0.0002624366,0.00020652423,4.7151858e-05,0.00010121945,0.0002311926,0.00026271626,0.0003577797,0.00041264045,0.00039169542,0.0004224916,0.00043543096,0.0018513805,0.001827704,0.0017878975,0.0017156013,0.0016496012,0.0029245012,0.0030369991,0.0031297696,0.003169495,0.003196503,0.0050615133,0.00489083,0.0047482243,0.0046167155,0.004497951,0.009237941,0.008792009,0.0083835935,0.00801374,0.0076781786,0.013414037,0.012610481,0.011919965,0.011320547,0.010782507,0.019095967,0.017371189,0.015903935,0.014638621,0.013536859,0.024593988,0.021848949,0.019606164,0.017759647,0.016204901,0.028754545,0.02495537,0.022020461,0.019673802,0.01777288,0.03161601,0.027084187,0.02369696,0.02113447,0.01914904,0.035172638,0.030903518,0.027749324,0.025501309,0.023812048,0.044878807,0.04120404,0.0381974,0.035921913,0.03409223,0.06287596,0.058100976,0.053695466,0.05004146,0.046870023,0.083426215,0.074993
0.0017750408,-0.0018928132,-0.0003825354,0.00063220976,0.0005723572,0.00043487153,0.00061041175,0.0005511893,0.0005042755,0.00044999848,0.0005924307,0.00047254193,0.0006729257,0.00074245164,0.00070308166,0.00095741375,0.001223042,0.0013138345,0.0013525847,0.0014364824,0.0030826298,0.0033187415,0.0034242035,0.0036329585,0.0037833836,0.008354032,0.008758714,0.009016939,0.00917225,0.0092547685,0.019463524,0.019180946,0.018731164,0.018214002,0.017668428,0.034605335,0.032603964,0.030728685,0.029006358,0.027438344,0.0513368,0.046808127,0.04299298,0.03973225,0.036912657,0.06511603,0.05765263,0.051653672,0.04672223,0.042603616,0.07363673,0.06313303,0.05494998,0.048406154,0.043083403,0.07424805,0.06193968,0.05269544,0.04553966,0.039886683,0.06665375,0.054225776,0.045212563,0.03846813,0.033276547,0.05361868,0.04244188,0.034612603,0.02889182,0.024505295,0.0367518,0.028028484,0.021895818,0.01780776,0.014900146,0.020615323,0.015700623,0.012296955,0.010006125,0.0082970075,0.012529871,0.011246929,0.009596383,0.008557972,0.00781302,0.014390086,0.014318572
0.006660429,0.0029206506,0.0013973712,0.0002965131,0.00024625447,0.00036708012,0.00033725408,0.00020490478,9.1267844e-05,5.5455825e-05,0.00018948494,0.00016501853,-0.00013252611,-0.0001731859,-0.00014048567,-2.098704e-05,-0.00023335105,-0.0002383793,-0.00020442906,-0.00019566613,-0.00023032971,-0.00014957711,3.3908975e-05,6.381776e-05,0.00012971635,0.0013040198,0.0014286027,0.0015187408,0.0015524889,0.001572909,0.001307938,0.00180725,0.0022548966,0.0025661648,0.0028230064,0.0026977845,0.0029966498,0.0031343237,0.0031567924,0.0031364602,0.005348842,0.005165691,0.00493952,0.004719762,0.0045169424,0.009338944,0.008650397,0.008093397,0.00764006,0.0072725527,0.0151092475,0.014292242,0.01370669,0.01326529,0.012924969,0.025290353,0.024881208,0.024737934,0.0247164,0.024746165,0.04856638,0.04879424,0.049006183,0.04914765,0.04916064,0.095708184,0.093882345,0.09150324,0.08866939,0.08554742,0.15554567,0.14215079,0.1294988,0.117678836,0.10669881,0.17453636,0.14365888,0.118547,0.098083,0.08131534,0.11409078,0.08043072,0.05673652,0.039932597,0.027989462,0.02616904,0.010023481
-0.00671547,-0.0034377081,-0.0011326189,-0.0015919596,-0.0013253614,-0.0014806965,-0.0012301351,-0.0010372299,-0.00096284796,-0.0008524011,-0.00097288535,-0.0008426779,-0.0010489912,-0.0011040587,-0.00079905964,-0.00069355837,-0.00065556896,-0.0004807036,-0.000464399,-0.00025348223,0.00041027874,0.0006343974,0.0008146065,0.0009170604,0.0009891457,0.0028448654,0.0029154797,0.0029133246,0.0028390107,0.0027480999,0.0057178014,0.005727548,0.0056424825,0.005483368,0.0053182226,0.00902873,0.008437197,0.007905674,0.0074525527,0.0070462804,0.014364616,0.01346511,0.01279759,0.012292337,0.011917505,0.022230156,0.021645524,0.021352962,0.021206293,0.021151423,0.03944314,0.03891723,0.038516678,0.038193867,0.03791447,0.0738335,0.07258528,0.07118166,0.069661595,0.06804066,0.12864713,0.12210588,0.11558498,0.10932528,0.103342175,0.18853389,0.16926882,0.15210792,0.13700083,0.12367509,0.21398762,0.17875318,0.1501901,0.12701845,0.10815391,0.17478177,0.13426244,0.10415644,0.081769206,0.06506824,0.09732599,0.06956457,0.05047099,0.03765379,0.029002808,0.043615203,0.0339597
-0.0031652143,-0.0030244768,-0.0017948728,-0.0008692978,-0.0009545282,-0.0009840421,-0.0009179485,-0.00089109543,-0.00084722595,-0.0007134074,-0.00095505797,-0.0010694189,-0.00054536504,-0.0007784362,-0.0007648733,-0.00094986655,-0.00079448,-0.00077450403,-0.00043200038,-0.0007414366,0.00010567953,0.00014903923,0.00025443098,0.00024676547,0.00025181862,-0.0005851634,-0.0004883403,-0.000406539,-0.000319955,-0.00025121844,-0.0007970407,-0.0008565276,-0.0009241544,-0.0009682602,-0.00101179,-0.00012262905,-0.00026449023,-0.0004092126,-0.00055371795,-0.0006877919,-0.0018616787,-0.0018950737,-0.0019015508,-0.0018707063,-0.0018225389,-0.005528491,-0.0052785445,-0.005041851,-0.004779839,-0.0045016967,-0.009385951,-0.008276855,-0.0073631606,-0.0066058347,-0.005971902,-0.011628183,-0.009585766,-0.0079195835,-0.006560848,-0.0054505114,-0.010817303,-0.008288902,-0.006157777,-0.0043478445,-0.002784979,-0.0054386426,-0.0016663611,0.0014855949,0.0041461447,0.006448681,0.015448076,0.021162745,0.025619347,0.029051773,0.03171153,0.0670503,0.07034909,0.0720256,0.07235968,0.07181284,0.13562104,0.12646772,0.11787758,0.10959843,0.101819344,0.1730971,0.1485255
0.006915598,0.0023185308,0.0015659746,0.0010194514,0.0005389944,0.0011931774,0.0006262639,0.00032035905,0.00025820945,0.00031193433,0.00031715704,0.00022812956,0.0003108069,0.00026643238,0.00022830226,3.8080834e-05,4.4263383e-05,-3.195818e-05,-0.00018755026,-0.00014917343,0.00026827783,0.0002546864,0.00030983685,0.00030098925,0.0002982889,0.00063789246,0.0006787479,0.00071749894,0.0007381866,0.00075627863,0.0013732032,0.0016787637,0.001917965,0.002069452,0.0021833444,0.0023776218,0.002516648,0.002617024,0.00266183,0.002690468,0.0041270223,0.004009959,0.0038739268,0.0037234281,0.003563935,0.006331484,0.0059235157,0.0055214046,0.005126823,0.004748915,0.009619564,0.008613062,0.007741522,0.006979729,0.006318638,0.012773278,0.011438181,0.010427041,0.009629378,0.008982984,0.019204747,0.01753209,0.016382493,0.015621062,0.015097839,0.033987153,0.032085218,0.030732002,0.02976268,0.0290228,0.06106853,0.057313018,0.0541945,0.05155532,0.049203772,0.094122045,0.0845964,0.07644823,0.06947164,0.06336237,0.10979348,0.09226714,0.07791975,0.06637957,0.05693851,0.08905083,0.06894293
-0.03977651,-0.007404471,-0.0043888227,-0.0034270755,-0.0022736858,-0.0038661745,-0.002531612,-0.0014811148,-0.0011139918,-0.00094072236,-0.0014956294,-0.00097303366,-0.00072571,-2.7834554e-05,9.77933e-05,-0.0004168987,2.7418559e-05,0.0003958773,0.00063146115,0.0009031213,0.0008556651,0.0013988619,0.0016322373,0.0019434891,0.0021279184,0.005184157,0.005568171,0.0057726125,0.005829966,0.0058189244,0.011447545,0.011294735,0.011050252,0.010793469,0.0105588,0.019114316,0.01852675,0.018175926,0.017962134,0.017862063,0.034776915,0.03442887,0.034263726,0.034194596,0.034151647,0.06720973,0.06664971,0.0659555,0.06511501,0.06417254,0.120956115,0.11677152,0.11246154,0.10813564,0.103876464,0.18661697,0.17110755,0.15686011,0.14386669,0.13207765,0.22225173,0.18822601,0.15997358,0.1364623,0.11685209,0.17667878,0.13248757,0.09999358,0.07582144,0.05772397,0.07170823,0.04334596,0.025729572,0.014794594,0.007978787,0.0048771487,0.0013785477,0.00027201843,0.00019947582,0.00072410377,0.006270047,0.009509231,0.010238299,0.01028007,0.010075771,0.021138936,0.02018033
0.0077346857,0.0013148389,0.0005822606,0.00014952774,0.00018874434,0.00012256869,9.309508e-05,0.00017782845,0.0001872907,0.00024887855,0.00017306689,8.3455176e-05,0.0004325151,0.0004634951,0.00033449527,-0.00014133657,-1.5957263e-05,-0.0001460859,-0.0003935429,-0.0003851789,-0.00029489724,-0.00040785738,-0.00076730637,-0.0007749613,-0.00086922286,-0.0004280249,-0.0006410822,-0.0008156881,-0.0009776668,-0.0011035171,-0.002118272,-0.0021248227,-0.0020805518,-0.0020201416,-0.0019397826,-0.004043365,-0.0037253518,-0.0034122446,-0.003110533,-0.0028271717,-0.003362799,-0.0025573364,-0.0018720895,-0.0012861935,-0.00078283815,0.00036590942,0.0016159519,0.0025880549,0.0033692692,0.0039944155,0.00912154,0.010535024,0.01153529,0.012249715,0.012758144,0.025046442,0.02587834,0.026250266,0.026323529,0.02617921,0.048777424,0.0472048,0.0453372,0.043310348,0.041258097,0.073190615,0.06618466,0.059857436,0.054150853,0.049026012,0.08149127,0.067668974,0.056705657,0.04783127,0.04057145,0.06139324,0.045352392,0.03411102,0.025984153,0.019987158,0.025335316,0.0147869615,0.008590391,0.004803883,0.0025233484,0.00023089885,-0.0024626972
0.01164953,0.0025286584,0.0023810768,0.0012278005,0.00066208804,0.0015790412,0.000873323,0.0005597121,-0.00017717738,-0.0005132325,0.0006262447,-0.00017165166,-0.00079268374,-0.00088201213,-0.0007053936,2.8171242e-05,-0.00053583644,-0.00043979308,0.00017635764,-0.0001989352,-5.7905745e-05,-0.00023207621,-0.0003814141,-0.00047400375,-0.00057478313,-0.000773245,-0.0008620392,-0.0008869771,-0.00089864124,-0.0008843304,-0.0006612719,-0.00041343988,-0.00015088607,8.589223e-05,0.0002972174,0.002150407,0.0024002648,0.0025504958,0.0026506232,0.0027154072,0.0053209485,0.005519909,0.0055926824,0.0055817845,0.005539996,0.009699327,0.0092285015,0.008791924,0.008426746,0.008099804,0.01483253,0.013787325,0.012901741,0.012135057,0.011453934,0.021245226,0.019683631,0.018422795,0.017352067,0.016420923,0.030943664,0.029378237,0.02822588,0.027393956,0.026732497,0.05513142,0.053955995,0.05309163,0.05242629,0.05184417,0.10986221,0.1063426,0.10285033,0.099376746,0.09592972,0.18898034,0.17324223,0.15884145,0.14580873,0.13392897,0.23593175,0.1999014,0.170057,0.14558275,0.12523142,0.19322646,0.14906442
-0.018039418,-0.0030994331,-0.002225597,-0.0016574764,-0.0015697888,-0.0016417821,-0.0015235755,-0.0014925108,-0.0016688694,-0.0016483995,-0.001462311,-0.0016051315,-0.0015726908,-0.0009746231,-0.0006554061,-0.000778508,-0.0003283929,0.0001731238,0.0005662684,0.00073597475,0.0026754246,0.0031534687,0.0036011348,0.003906836,0.004197497,0.008558018,0.009154507,0.009572259,0.009878254,0.010095178,0.020074848,0.02012727,0.020040346,0.019892918,0.01970764,0.0385599,0.037826244,0.03705591,0.03626847,0.03547596,0.066504836,0.06401032,0.061607566,0.059294354,0.057072576,0.10346768,0.09647085,0.09007883,0.08419855,0.07879367,0.13744146,0.12170035,0.10819756,0.09650124,0.08632978,0.14185777,0.11610514,0.095715284,0.07930732,0.06603534,0.096587405,0.06907534,0.049723238,0.035814818,0.025785295,0.026673451,0.012609151,0.0050851307,0.0010916879,-0.0007941015,-0.008362805,-0.00679823,-0.0044087726,-0.0020953747,-0.0002853528,-0.0003859934,0.0025639404,0.0042246543,0.0048633157,0.0049277106,0.0077297823,0.0054687364,0.0031892965,0.0012194877,-0.00041244866,-0.0014203698,-0.0045278836
0.04195609,0.008949948,0.005482672,0.0034626874,0.0025161575,0.003896236,0.0025512234,0.0018158043,0.0011713866,0.0008297776,0.0018573267,0.0012031404,0.00075097696,0.00087163114,0.0009922263,0.0018768205,0.0020595023,0.0023064862,0.0023233844,0.002610054,0.0042793574,0.0046198196,0.004836876,0.005015956,0.005131555,0.011437544,0.011550537,0.011561755,0.011510447,0.01142147,0.023774201,0.023164101,0.02249572,0.021818183,0.02114739,0.041803002,0.03952475,0.03740423,0.03544201,0.033627152,0.062394977,0.0568469,0.052082375,0.047944553,0.04432518,0.0771467,0.067203276,0.05912838,0.052445207,0.04683282,0.07679604,0.06287324,0.05214909,0.04368485,0.036894098,0.05445211,0.039882902,0.029530507,0.021950956,0.016316162,0.017450692,0.008172406,0.0025273522,-0.00093295664,-0.0030196977,-0.011768579,-0.012190428,-0.0116087645,-0.010617267,-0.009558641,-0.017482532,-0.013340714,-0.010474629,-0.008699775,-0.0075157518,-0.012029564,-0.009707642,-0.008697623,-0.008299609,-0.008274405,-0.013832154,-0.0135747595,-0.013433806,-0.013224713,-0.012770229,-0.020421954,-0.019104002
-0.07029186,-0.015215452,-0.008147637,-0.005667387,-0.004311717,-0.0064400313,-0.0045584277,-0.0034677053,-0.0026838684,-0.0021366032,-0.0036171752,-0.0026479503,-0.0018516537,-0.0012000089,-0.0009276516,-0.0020801495,-0.001287136,-0.00087722944,-0.00072490465,-0.0004412061,-0.0014608515,-0.0010914544,-0.0007107594,-0.0006040771,-0.0004967096,-0.0019849609,-0.0018078068,-0.0016955807,-0.0016225125,-0.0015710414,-0.0020814429,-0.0020715743,-0.00210912,-0.0021457113,-0.0021925792,-0.002993984,-0.003201529,-0.003418508,-0.0036147113,-0.0037947835,-0.008487764,-0.008708231,-0.008785785,-0.008764267,-0.008682292,-0.01812963,-0.017429277,-0.01667235,-0.015908344,-0.015172973,-0.028167745,-0.025745293,-0.02374557,-0.022073444,-0.020657806,-0.035231672,-0.030862276,-0.027415039,-0.024678312,-0.022470187,-0.036625806,-0.031098634,-0.026830701,-0.02345826,-0.020705853,-0.03143184,-0.024714846,-0.019689098,-0.015744174,-0.012555566,-0.013708416,-0.006066631,-0.00038212864,0.0038497844,0.007122593,0.026177617,0.031793945,0.03537294,0.037399225,0.03841006,0.0832204,0.07949367,0.075465314,0.07114301,0.06677347,0.12805238,0.11155172
-0.0077699223,-0.00070820376,-0.00026299944,-0.000371202,-0.00017768392,-0.0004618473,-0.00019689956,-0.00019348755,-4.0005834e-06,0.00015670848,-0.00020069297,1.7772763e-05,0.00025072385,0.0003011075,0.00024468874,-0.0002123869,-1.668914e-05,-6.74312e-05,-0.00043345036,-0.00021201393,-0.00059171754,-0.0006302671,-0.0006769315,-0.0006556724,-0.000612713,-0.00028470924,-0.00027677693,-0.00023916112,-0.00021924241,-0.00018821344,0.0010718665,0.0012900083,0.0014556051,0.0015571988,0.0016229941,0.003454407,0.0031453792,0.0028684638,0.0026630932,0.0025021012,0.0070061903,0.006566753,0.0063140234,0.0061907307,0.006154114,0.013500023,0.01386328,0.014316775,0.0147979595,0.015264729,0.032453407,0.033801276,0.034849964,0.03562377,0.036159612,0.072358474,0.072526425,0.0720134,0.071009904,0.06964373,0.13235612,0.12504785,0.11735159,0.10968911,0.102246895,0.17879672,0.15562241,0.13519378,0.11738815,0.10200283,0.15869051,0.12294142,0.09582532,0.07495686,0.05892862,0.07702729,0.05085386,0.03464565,0.024127774,0.017354071,0.01923077,0.013455721,0.012020037,0.011600276,0.011626619,0.020354494,0.020593094
0.0029420715,0.0002181328,0.00020264369,5.559226e-05,0.0003090537,-6.855329e-05,0.00026157207,0.00029984105,0.00021548754,0.0002926584,0.00029934285,2.7891587e-05,0.0006874405,0.001025038,0.0008042207,-0.00014373296,2.827512e-05,-0.00015736093,-0.0002231259,-0.00053896644,-0.00035925928,-0.0004435136,-0.00058214815,-0.0006156536,-0.00064349954,-0.0006117786,-0.0007225262,-0.000804789,-0.0008869487,-0.00094377587,-0.0015538116,-0.0013518606,-0.0011476246,-0.0009892578,-0.00084748934,-0.0021556255,-0.0020737667,-0.001978076,-0.001901861,-0.0018097335,-0.0011071096,-0.0009031172,-0.0007491041,-0.0006473068,-0.00057616684,0.00015985506,0.00014022994,7.829663e-05,-1.1352997e-05,-0.00012846425,0.001402274,0.00064285536,7.4570426e-06,-0.00051207136,-0.0009198009,0.0032751583,0.0021486531,0.0013107788,0.0006721756,0.0001749585,0.0074997125,0.006588936,0.006033986,0.0057600774,0.0056819124,0.021361582,0.021754328,0.022337234,0.022996403,0.023656137,0.058586113,0.058950398,0.058920056,0.058493994,0.05773161,0.118164115,0.11018957,0.10228081,0.094541855,0.08708642,0.15472059,0.12947744,0.10819915,0.09024776,0.07511382,0.11464783,0.08070633
0.00046906312,0.001049533,0.0007558888,0.00079087506,0.00079339,0.00060164486,0.0008006525,0.0005994043,0.00051078165,0.00046885165,0.00056039984,0.000521208,0.00039332855,0.00011534904,4.9535618e-05,0.00041164682,0.00027007988,0.00018776837,0.00020341946,0.00013438326,-6.742544e-05,-0.00014229774,-0.00010504618,-0.00012247066,-6.501668e-05,-0.00015529805,-0.00017005124,-0.00017437284,-0.00018245865,-0.00017922485,-0.0001778282,-1.0884927e-05,0.00015823093,0.00028719404,0.00040235528,0.0012138012,0.0012213199,0.001183697,0.0011223678,0.0010563603,0.0019800246,0.0019992692,0.0020004383,0.0020032828,0.0020105036,0.0026917567,0.0026614147,0.0026232281,0.0025770077,0.002530833,0.004445449,0.004379125,0.004253951,0.0040979558,0.003927095,0.0076875193,0.0076993597,0.007627877,0.0074919537,0.007299508,0.012895788,0.012491874,0.012164107,0.011890488,0.011642847,0.02169619,0.020820027,0.020136664,0.019604268,0.01918784,0.03740005,0.03611838,0.03503043,0.034094498,0.033253767,0.0646574,0.061407752,0.058419723,0.055663362,0.053043094,0.098866984,0.09011851,0.0823814,0.07558922,0.06956416,0.122720815,0.10645185
0.0014320557,-0.0002502415,-0.0005535849,-0.0007243727,-0.00064757204,-0.000762452,-0.0006383716,-0.00079011684,-0.00068150176,-0.00046574755,-0.0007926961,-0.0006509648,-0.00036749308,-0.00014421142,-7.692066e-05,-0.000543846,-0.00028594988,-0.00016861256,-9.723907e-05,-0.00014970083,-0.00067475473,-0.00062591495,-0.00059374276,-0.0005701133,-0.00054950867,-0.00073372485,-0.0007352622,-0.0007362659,-0.0007352055,-0.0007303953,-0.00012943588,-0.00018838921,-0.00025034932,-0.00032136627,-0.00039888173,0.00012290679,-6.5286644e-05,-0.00020483584,-0.00031058685,-0.00039418513,1.633307e-07,-0.00025869109,-0.00048547296,-0.0006774249,-0.000836488,-0.0018914071,-0.0019560338,-0.0020114663,-0.002048565,-0.0020696293,-0.0053001763,-0.0051350337,-0.0049755396,-0.0048028477,-0.0045965593,-0.010047924,-0.009477232,-0.00888699,-0.008501462,-0.008108828,-0.016152268,-0.014977319,-0.013797965,-0.012678854,-0.0117062805,-0.022494683,-0.019967275,-0.01831128,-0.016903678,-0.015532993,-0.02745018,-0.023782173,-0.020732528,-0.018781489,-0.017109685,-0.030073741,-0.025980415,-0.02230089,-0.019329732,-0.017148929,-0.030547138,-0.024770772,-0.020524172,-0.017241,-0.01471982,-0.02513435,-0.019382095
0.009572531,0.0020454035,0.0019946154,0.0009664501,0.0008330832,0.0012229837,0.00087290345,0.00070160365,0.0004836428,0.00034992344,0.000771732,0.00042382188,0.00040975728,0.00052142516,0.00046612133,0.00039987263,0.00034304813,0.00027907232,0.00020696616,0.00015258587,0.00057314645,0.0005544913,0.00049773237,0.00046602078,0.00041106108,0.0014379338,0.0013404206,0.0012473853,0.0011511447,0.0010655165,0.0011739008,0.0010924727,0.0010526939,0.0010196259,0.0010093298,0.0013258082,0.0013321069,0.0013635576,0.0014029916,0.0014436783,0.0037326373,0.0038953226,0.004032746,0.0041387863,0.0042247353,0.008638361,0.008558633,0.008434806,0.008298547,0.008160309,0.016128961,0.015645126,0.015150685,0.014667819,0.014199266,0.025375817,0.024163341,0.023149023,0.0222755,0.021491509,0.038188517,0.03577408,0.033771273,0.03206115,0.030566826,0.05429535,0.049935397,0.04625333,0.043090142,0.04029372,0.07064047,0.0630324,0.056648128,0.051283352,0.046647873,0.07962785,0.06790775,0.05849561,0.05088979,0.04463965,0.07267296,0.058544498,0.04783369,0.039619014,0.033212822,0.050624486,0.03804162
0.004876438,0.0009328226,0.00035838404,0.0003076521,0.0003484773,0.00026011182,0.00034698963,0.00027757615,0.00031766415,0.00034091348,0.0002898003,0.000314056,0.00033248044,0.00016294145,8.1609585e-05,0.00011407248,7.857112e-05,-3.356564e-05,-0.0001955778,-0.00019116639,-0.00012941503,-0.00019654207,-0.000328062,-0.00033173,-0.00034457055,1.2200253e-06,-3.849549e-06,-2.9149887e-05,-6.928528e-05,-0.00011266784,-0.0004168154,-0.00049169885,-0.000553371,-0.0006097087,-0.0006495326,-0.0011451944,-0.0012007109,-0.0012102078,-0.0011947437,-0.0011618427,-0.0011004139,-0.00094958965,-0.0007764644,-0.0005897488,-0.00041127572,0.00012076661,0.00054360466,0.00089704036,0.0011942949,0.0014448374,0.0037578975,0.004370798,0.0048562074,0.0052526332,0.0055822562,0.012221936,0.013050664,0.0137126865,0.014238913,0.014635198,0.02926859,0.02971577,0.029958652,0.03003872,0.02997852,0.05835467,0.056243766,0.05404025,0.051817324,0.049607087,0.09058303,0.081851415,0.07416933,0.067393556,0.061384313,0.10236828,0.085552074,0.07227354,0.0616352,0.052986104,0.07879956,0.06002611,0.04659208,0.036745235,0.029370038,0.036317326,0.024003461
-0.0035610278,-0.001345171,-0.0013012068,-0.0008765699,-0.0006485341,-0.0010929415,-0.00067684066,-0.0004859962,-0.0003850467,-0.0003328112,-0.0004887239,-0.00036881526,-0.00035764457,-0.00038527948,-0.0003506071,-0.00031533744,-0.00030541312,-0.0002639636,-0.00017863544,-0.00019236279,-0.00013970438,-0.0001997634,-0.00039906448,-0.00039968416,-0.0004350033,-0.00024709545,-0.00033490208,-0.00040077668,-0.00047223124,-0.00052314886,-0.0006306728,-0.0005720198,-0.0004996915,-0.00044294487,-0.00038195425,-0.00095758797,-0.0010222008,-0.001090334,-0.0011407024,-0.0011776672,-0.0012728568,-0.0010549264,-0.0008634302,-0.00069888483,-0.0005515693,-0.00072572683,-0.00033393948,-2.3374865e-05,0.00023648434,0.00045079022,0.0011591684,0.0018678041,0.0024153185,0.0028408207,0.003169004,0.0063332645,0.0070767766,0.0076120426,0.0080048395,0.0082817,0.016033558,0.01627939,0.016377006,0.016355589,0.016269026,0.030454144,0.029719744,0.028929869,0.02810202,0.027253482,0.049717326,0.046950728,0.044406794,0.042024605,0.03976711,0.07054158,0.064184256,0.05873574,0.054006193,0.049837038,0.085709594,0.07545727,0.067027174,0.060049806,0.05420277,0.09115409,0.07812594
0.0055124452,0.00094026834,0.0005301585,0.00018874856,0.00020433527,0.00019096628,0.00021795595,-2.1696484e-05,-1.083373e-05,7.8013756e-05,-2.218195e-05,-2.1373908e-06,7.84368e-05,0.00016335641,0.0002150287,1.5755159e-06,0.00011859427,0.0002029046,0.00024078194,0.00025624209,-0.00024067026,-0.00021871888,-0.00022218507,-0.00019122365,-0.0001720073,-0.0003430978,-0.00033312873,-0.00031856546,-0.00029783745,-0.00027535352,-0.0002491929,-0.00030340665,-0.00035866225,-0.00042065524,-0.0004874516,-0.00024639722,-0.00034527353,-0.000415047,-0.0004646457,-0.00050349446,-9.917906e-05,-0.00022272975,-0.00034735166,-0.00046278635,-0.0005638973,-0.0010058418,-0.0009975043,-0.0010246601,-0.0010581774,-0.0010917844,-0.002967971,-0.0029603948,-0.0029759193,-0.002975396,-0.0029373053,-0.0063287327,-0.0062753153,-0.006180889,-0.0062198425,-0.006225631,-0.0120372735,-0.011834328,-0.0115058925,-0.011114989,-0.0107361395,-0.019940892,-0.018893143,-0.018053874,-0.017189309,-0.016183043,-0.027432349,-0.024466,-0.02177916,-0.019904101,-0.018190082,-0.030751998,-0.026858367,-0.023081018,-0.019925108,-0.017585745,-0.03061241,-0.024943829,-0.02063868,-0.017278895,-0.014739638,-0.025204875,-0.01973689
-0.0038093529,-0.0014621165,-0.00036766325,-0.00024007811,-0.00023457041,-0.00027978985,-0.00018680774,-0.00019983125,-0.00018148108,-0.00015582543,-0.00020798304,-7.56221e-05,-0.00013805197,0.00023176518,0.00032954954,0.00019826663,0.00034448007,0.00052678084,0.0005118533,0.00075237,0.00055207196,0.0007154761,0.0010204349,0.0010234287,0.0010774928,0.0011673614,0.0012236908,0.0012462258,0.0012513597,0.0012522313,0.0007688963,0.0009301838,0.0011001943,0.0012343399,0.0013654493,0.0012726281,0.0016690579,0.0019979521,0.0022812728,0.0025111209,0.006380857,0.006755024,0.007032075,0.0072440864,0.007413363,0.016630974,0.016785068,0.016854154,0.016860517,0.016819816,0.03443786,0.033480473,0.03249471,0.031504937,0.030529054,0.060317893,0.05633139,0.05267281,0.049319513,0.046257492,0.08601639,0.07678223,0.06890863,0.06213088,0.05625734,0.09856489,0.08334284,0.07121131,0.061377294,0.05330067,0.08896803,0.07065476,0.05694075,0.04649015,0.038361635,0.06202722,0.045592774,0.03410705,0.025844272,0.019887311,0.032347877,0.021428805,0.0144695705,0.009947676,0.006990572,0.01392192,0.0093887495
-0.006441348,0.0004259836,0.0016910469,0.0005570694,0.00063218153,0.000648397,0.00049053,0.0005594067,0.00035672425,0.00014284835,0.0005328477,0.00031018304,0.00020032012,0.00034279938,0.00023133232,0.00051207433,0.0004021981,0.00044306007,0.0007516291,0.000475007,0.00034175284,0.00044881017,0.00051634887,0.00048341314,0.0004225654,0.0012188731,0.0012629051,0.0012518194,0.0012031082,0.0011419913,0.00016222731,0.0001726994,0.00024017078,0.0002947977,0.0003648863,0.00052548456,0.0004768591,0.00040159194,0.00035594462,0.000272727,-0.0017689732,-0.0020523053,-0.0023200216,-0.0025319231,-0.0026907828,-0.0056408662,-0.0059041674,-0.006068893,-0.0062100566,-0.0062923604,-0.013890188,-0.01348033,-0.013027835,-0.012561271,-0.012083178,-0.019915048,-0.018145598,-0.016607523,-0.015290927,-0.014181537,-0.022015156,-0.01930375,-0.017201997,-0.015546723,-0.014233691,-0.023866486,-0.020922737,-0.01891792,-0.017416477,-0.016189288,-0.03154468,-0.026066514,-0.021460542,-0.017235855,-0.013174376,-0.019873764,-0.0028888804,0.011728991,0.024281245,0.035146233,0.09387413,0.12165687,0.14203821,0.156153,0.16568165,0.3457448,0.34707397
0.02187136,0.002701976,0.0015890887,0.0010928685,0.000890179,0.0012235637,0.00089069,0.0008868459,0.00095635134,0.0008328088,0.0009089946,0.00095642457,0.00077061873,0.0006569674,0.00059560617,0.0009105611,0.00086084986,0.0007847894,0.00053719775,0.00064695074,0.00075561163,0.0007213848,0.00073182106,0.0007358635,0.0007541301,0.00087361643,0.0009613202,0.0010616446,0.0011618779,0.0012649428,0.0021870323,0.0026376084,0.0030520367,0.0034117685,0.0037270843,0.008864388,0.009605924,0.010145138,0.010530743,0.010797182,0.024434686,0.024606694,0.024469608,0.024141148,0.02369913,0.048122447,0.045962676,0.04372746,0.041518923,0.039384644,0.074116044,0.06734522,0.06130417,0.055898387,0.051062457,0.090021536,0.07670303,0.06570639,0.056481835,0.048695378,0.078483805,0.059916195,0.045759186,0.034729615,0.026080357,0.032822944,0.016772728,0.006197982,-0.000868296,-0.005481792,-0.018673088,-0.022204937,-0.022441873,-0.02147085,-0.019734854,-0.03351909,-0.027128315,-0.021393806,-0.0168292,-0.013315071,-0.02140191,-0.016545705,-0.012882365,-0.010663872,-0.00935965,-0.020769607,-0.019470574
0.018908462,0.0039839214,0.002247687,0.0017748078,0.0012700136,0.0019554987,0.0013227612,0.000977263,0.000730617,0.0006364708,0.0009960885,0.0006710479,0.0006197116,0.00044091744,0.00034355826,0.00039743158,0.00028332003,0.00011498016,-0.00011070334,-0.00013171713,-3.679417e-05,-0.00020545894,-0.00030067534,-0.0003565539,-0.0003967954,-0.00052786403,-0.0004812013,-0.00040507814,-0.00031948576,-0.00023370193,0.00022279382,0.0003707149,0.000510233,0.00062592706,0.00072820816,0.0027392951,0.0029468476,0.0031256813,0.0032691464,0.0033821852,0.009802412,0.009719775,0.009571876,0.009380503,0.009164052,0.020705814,0.019803967,0.018914236,0.018058559,0.017248457,0.034062862,0.031623647,0.029494978,0.027620038,0.025952237,0.049928807,0.045039576,0.040920246,0.037411496,0.034383334,0.06488383,0.056344673,0.049379017,0.043530423,0.038624458,0.06889176,0.05615908,0.04629121,0.038479492,0.032218613,0.051164687,0.037327435,0.027582051,0.020589564,0.015579705,0.018949954,0.010470417,0.005557455,0.0026707186,0.0010233907,-0.0026721894,-0.0034755352,-0.0031639833,-0.002542474,-0.0017778464,-0.0026277592,-0.00098651
-0.0027696036,-0.0023732989,-0.00085097924,-0.00038510823,-0.0003221038,-0.0005354871,-0.00025316115,-0.0002981122,-0.00017936494,-0.00012569812,-0.0003188575,-0.00017811058,-6.423211e-05,-9.098536e-05,-8.70348e-05,-0.000107087355,-8.226871e-06,1.04063765e-05,-2.5858446e-05,1.550256e-05,3.680092e-05,6.351222e-05,0.00020596,0.0001812117,0.0002089155,0.00012913013,0.00012049181,0.00011080512,9.570069e-05,8.1127575e-05,-4.380473e-05,-3.096764e-05,-4.5919733e-05,-8.1867765e-05,-0.00012171385,-0.00071056123,-0.0008600701,-0.0010188178,-0.0011608532,-0.0012870153,-0.002153292,-0.0022047716,-0.0022242386,-0.0022145626,-0.0021863815,-0.003656384,-0.003444821,-0.0032030505,-0.0029527668,-0.0027015072,-0.0033998454,-0.0023173224,-0.0013475332,-0.00047689633,0.00030249602,0.0029643544,0.00526003,0.0071701673,0.00876872,0.0100931525,0.023025934,0.025478592,0.027161881,0.028283376,0.029000685,0.0579777,0.05727268,0.055735186,0.0536707,0.05132374,0.09272596,0.083290935,0.07460686,0.06662863,0.05941044,0.09753808,0.07861769,0.06384175,0.052012853,0.042531647,0.06175736,0.042421643,0.0292904,0.019947024,0.0132879075,0.01223863,0.0014325411
-0.012648344,-0.0022086645,-0.0012377342,-0.00082360115,-0.0005922859,-0.0009706493,-0.00062558317,-0.0005007055,-0.0003156655,-0.0001967109,-0.0005193142,-0.00032949873,-0.00017821792,-0.00029478286,-0.00028449568,-0.00041549816,-0.0002968226,-0.0003166785,-0.00047419648,-0.0003571359,-0.0007107354,-0.000722011,-0.00075124204,-0.00074015,-0.00073307136,-0.0011387628,-0.0010636968,-0.0009915119,-0.00092891406,-0.00087326334,-0.0017348571,-0.0016200226,-0.0015018015,-0.0014034847,-0.0013149565,-0.0017790145,-0.0017238322,-0.00170209,-0.001694114,-0.0016974929,-0.0023985468,-0.0023544438,-0.0022715342,-0.002173724,-0.0020692106,-0.003348681,-0.003046501,-0.002759942,-0.0024924953,-0.002236361,-0.0023878403,-0.0017960474,-0.0013570957,-0.0010295839,-0.00078132487,0.0006823942,0.0014730182,0.0020806899,0.0025723807,0.0029615695,0.00784311,0.008349559,0.008811444,0.009194208,0.009535252,0.021745991,0.02163084,0.021531446,0.02138487,0.021211991,0.043745805,0.041557755,0.03958446,0.037760455,0.036025073,0.06738016,0.06076571,0.055247504,0.05064623,0.04668096,0.0797723,0.06904524,0.060622744,0.053974256,0.048574127,0.077035464,0.06495366
0.0038658397,0.0006957844,0.00061689905,0.00077706546,0.0008174711,0.0006066444,0.00077684235,0.0006784012,0.0005514998,0.0003986145,0.0006589981,0.0004359098,0.0003941106,0.00035729003,0.0002780454,0.000268119,7.2856914e-05,-5.968098e-05,9.4243005e-06,-0.00021960284,-0.00050410425,-0.0006315246,-0.0007092599,-0.0007573797,-0.0007726974,-0.0014191156,-0.001410257,-0.0013805109,-0.0013427819,-0.0013038462,-0.0024955992,-0.0025248334,-0.0025201067,-0.002479413,-0.0024298339,-0.0017992437,-0.0017935331,-0.0018396667,-0.0019027598,-0.0019889565,-0.0011398422,-0.0010882284,-0.0010275237,-0.0009512049,-0.0008801089,3.710114e-05,8.9509995e-06,9.654992e-06,2.0810025e-05,3.2711425e-05,0.0023833818,0.0022091758,0.0020407448,0.0018873427,0.0017537868,0.005680968,0.0052891946,0.0050128982,0.0048111025,0.004655541,0.012437748,0.01199747,0.011754814,0.011658477,0.0116455285,0.02779061,0.027631057,0.027511863,0.027390597,0.027218787,0.05823236,0.05644318,0.05447426,0.05240468,0.05024766,0.097085245,0.0881313,0.0798086,0.072241046,0.06539891,0.11361686,0.0943768,0.07849509,0.06561725,0.055132322,0.083823666,0.061961967
0.0005150663,-0.0006404674,-0.00011069793,-0.00027939366,-0.00022833204,-0.00042654545,-0.00025215605,-0.00027920998,-0.000112840615,-2.6714268e-05,-0.0003213755,-0.00012994584,-8.2177794e-05,-0.00022855683,-0.0001662633,-0.00016508909,-6.2264284e-05,-4.5319888e-05,-0.00018742148,-3.283663e-05,0.00010934488,0.00013356525,0.00024056058,0.0002007272,0.0001909561,8.8090426e-05,-6.572911e-05,-0.00018125771,-0.00027780217,-0.00035441513,-0.000582053,-0.00062888506,-0.00065953855,-0.0006878377,-0.0007007486,-0.0013610697,-0.0013204523,-0.0012831908,-0.0012544243,-0.001227096,-0.0029229403,-0.0026351425,-0.002401494,-0.002202592,-0.002027757,-0.005832222,-0.005343098,-0.004903099,-0.004520395,-0.004170177,-0.007843389,-0.0069775707,-0.0062928204,-0.0057478687,-0.0053030755,-0.008905924,-0.007196102,-0.0057730265,-0.004583733,-0.0035925228,-0.0042317333,-0.0015145782,0.00083052105,0.0028677648,0.0046355985,0.015783222,0.020084983,0.023361549,0.025792597,0.027603358,0.062396456,0.06454708,0.06483189,0.06378607,0.06187252,0.11926337,0.10786381,0.09673645,0.08604055,0.076122925,0.12559183,0.097655416,0.07605987,0.058823753,0.04513865,0.055152208,0.028941076
0.0065497053,-0.00030718406,-0.0006344655,-0.00017335566,-0.00019386996,-0.00022600996,-6.142506e-05,-0.00020915378,-0.0004136865,-0.000472292,-0.00018174697,-0.00036990418,-0.00057590945,-0.00048843666,-0.0003930322,-0.00021396519,-0.00032982745,-0.00023991242,5.6104356e-05,-7.142301e-05,0.00018433764,0.00021037675,0.0003886063,0.000358378,0.00039230406,0.00011819034,4.1733627e-05,-1.7524217e-05,-6.1578416e-05,-9.121616e-05,-0.0012493111,-0.0012325505,-0.0011709396,-0.0010983162,-0.0010084619,-0.0028848643,-0.0024269535,-0.0019959172,-0.0016018722,-0.001249709,-0.00015557907,0.0007244982,0.0014057846,0.0019460343,0.0023808472,0.007817762,0.008663045,0.0092337765,0.00962074,0.009881379,0.02274196,0.022717275,0.022469632,0.022086216,0.021613736,0.044424776,0.04181061,0.039284583,0.036888536,0.034642152,0.06678904,0.058850534,0.052033417,0.04610848,0.040979963,0.07323677,0.058918808,0.04760126,0.03854354,0.031231163,0.04932713,0.033288226,0.02200544,0.0139341,0.008078275,0.007644991,-0.0013437432,-0.006234373,-0.008851673,-0.01007689,-0.01836617,-0.01747133,-0.015561163,-0.013585504,-0.011812517,-0.01654807,-0.0127250245
0.0018401967,4.300372e-05,0.00033297564,-4.647162e-05,-0.00013348248,4.5693272e-05,-4.922751e-05,-0.00010379749,6.6405235e-05,0.00016609531,-0.00012136412,0.00018003603,2.1380794e-05,-0.00018031543,-0.0001243021,4.086533e-05,6.47477e-05,9.34343e-05,-9.928606e-05,0.00016714622,0.00012582426,0.000265253,0.00058484,0.0006054226,0.0006730876,0.00076954014,0.0008341752,0.0008498966,0.00083518564,0.00080411625,0.000641789,0.00057645055,0.00051789585,0.0004574472,0.00040734763,0.0017648163,0.0015509636,0.0013157481,0.0010780562,0.0008480392,0.0024661818,0.0023579183,0.0022891767,0.002241198,0.0022033534,0.0039479365,0.0038147697,0.0037147163,0.0036174876,0.003544488,0.006066551,0.005760163,0.005493499,0.0052639423,0.005065711,0.009612405,0.00905301,0.008628597,0.008285512,0.007994217,0.016344383,0.015356462,0.014641293,0.014133338,0.013774908,0.02913388,0.027947295,0.027017787,0.02627376,0.025644092,0.051739573,0.049506582,0.04747229,0.04562467,0.043882392,0.0831475,0.07711085,0.071600094,0.06669027,0.062268276,0.11090928,0.098374754,0.08755223,0.07855955,0.07099208,0.11887952,0.100862026
