0,1,2,3,4,5,6,7,8,9,10,11,12,13,14,15,16,17,18,19,20,21,22,23,24,25,26,27,28,29,30,31,32,33,34,35,36,37,38,39,40,41,42,43,44,45,46,47,48,49,50,51,52,53,54,55,56,57,58,59,60,61,62,63,64,65,66,67,68,69,70,71,72,73,74,75,76,77,78,79,80,81,82,83,84,85,86,87,88,89,90,91,92,93,94,95,96,97,98,99,100,101,102,103,104,105,106,107,108,109,110,111,112,113,114,115,116,117,118,119,120,121,122,123,124,125,126,127
-1.5180032,-0.5558481,-0.0057748035,-0.07668334,-0.27459082,0.028872406,0.10980956,-0.16542245,0.039753042,-0.16905776,-1.6564974,0.07792619,1.4308071,0.09646741,0.011990542,0.15489915,-3.6334808,-0.06850134,0.00039916782,0.024603417,0.24605457,-0.1310126,0.10423781,-1.234539,-0.002758623,0.15419781,0.060846213,-0.7760526,-0.023315547,-1.1893874,0.014624503,-0.10241752,-0.13361165,-1.1226386,0.45360604,-0.07379307,-0.0042086192,-2.9816136,0.1462569,-0.1406758,0.029932516,0.020193567,0.69299716,-0.037439436,-0.6952409,-1.0331684,0.15621416,0.09451978,0.17724514,-2.0205343,0.29844242,0.06632179,0.061794724,-0.039693672,-0.94095314,0.053398933,0.1718723,0.03720468,0.087975726,-0.2453719,0.7859924,0.29507956,0.16386458,-2.2719133,-1.1649392,-2.1839366,2.9055078,0.34151483,0.12145049,-0.10936623,0.5545295,-0.011522474,-0.5236184,0.24320571,-1.1389521,-1.1285462,-0.021645023,-0.020389022,0.12288795,0.2250282,0.08412304,-2.0031807,0.3091889,-2.7780685,-2.4025455,-1.3036194,-0.6831064,-0.029044291,-0.6470597,0.24924031,-0.07443438,-1.0328326,1.1854783,-0.33796492,-0.13714248,-0.0012559432,0.0493146,-0.7134817,-0.11130558,-0.25820056,0.12084922,0.21261398,0.30616844,0.009158615,0.39805788,1.264614,0.002638756,0.013859864,-0.037709042,-0.73165137,-0.15936692,-2.00535,0.16902186,-0.14895478,-0.09679099,-0.83947027,0.14574721,0.28683037,0.0025946905,-1.1701348,-2.566858,-1.0756941,0.24349968,-0.9705937,-0.03975394,-1.8877343,0.049238965,0.0023296042
-1.2878152,-1.1611187,0.20407794,-1.2979208,0.20794392,-0.3421882,0.57778543,0.26442933,-0.0050776466,0.19030464,0.31134808,0.88706684,-0.7142699,-0.21813102,0.016197871,-0.75491554,0.12556076,3.2691262,-0.06567169,-0.0054852683,-0.4402166,0.021290582,0.6260209,-0.4373516,-0.007908493,-2.475261,0.062174063,-0.992807,0.17129226,-0.62044156,-0.51722187,-0.70766723,-0.10892854,0.33215046,0.062229466,0.9309855,-0.0072840173,0.46274507,-1.3961979,-0.14842255,-0.47146365,0.7522617,-0.43345314,-2.7788348,-0.29682672,-0.063900135,-2.2713337,0.3413157,0.13461232,0.029364936,-0.41558793,-0.5230846,0.009361602,0.6533923,-0.04499129,-0.0137329865,-0.07921261,-0.13679652,-0.9436588,0.0525283,-1.123804,0.7809444,-0.22174124,0.500169,-0.2479755,0.7902492,-0.025321744,-2.9722378,-0.87777656,-0.14532119,-0.013613422,0.3051867,-0.44136217,-0.67517155,-0.95444566,0.11007506,-0.11134827,0.055633564,-0.23960908,-0.0984329,0.2661856,-1.0119596,-0.49229413,-0.0685738,0.07479003,-1.1697776,-0.04631782,-0.34978658,0.51778096,-1.8012137,0.027154597,-0.28569475,-2.162838,0.065075554,-0.3553096,0.035550114,0.77844524,-0.7448784,-0.04952483,-1.4975884,0.06866588,0.66525984,-0.015603341,0.01681719,-0.4619791,-0.7554448,0.047695443,-1.5519042,0.20792235,0.15509771,0.13257384,0.30083087,0.24202037,-6.361256,-4.713158,-0.80722815,-0.12403385,-0.8346395,0.013820238,-0.17059985,-0.10628139,0.0576225,-0.118990794,-0.48219433,-0.12108395,-1.7267966,0.14613414,1.0588638
-0.9667964,-1.3073575,0.052267354,-1.3592421,0.59413475,0.0041826875,0.08569623,0.1973472,0.20189448,-0.116599716,-0.9079308,-0.29930922,-0.16690654,-0.85259646,-1.0291038,-0.25874785,0.48567694,0.43110573,0.0074256365,0.29117015,0.07648154,0.28512946,0.16919123,-0.11776154,-0.018081475,-0.8443095,0.012420885,0.4090486,0.0061475653,0.15547405,-0.09584622,-1.5344058,-0.05056991,-0.14891846,-0.09602648,-0.0132392,0.02425379,0.02647231,-0.11624168,-0.030930268,-0.064928964,-0.95383084,-4.3068004,0.0069925883,-0.31930342,-0.1532524,0.1446597,0.024123963,0.19998747,-0.1687435,-0.087505326,0.36918738,0.013018088,-0.008015616,-0.56675535,0.95657486,-0.073257394,-0.011384876,0.16149783,-0.9400274,-0.40460894,0.3224643,0.58754444,-0.44705585,0.15941097,0.14662229,-0.01788945,0.11102646,0.10316422,-0.0036028798,-0.043361433,0.0066855457,-1.0548424,0.3872365,0.12111212,-0.13958028,0.1737909,0.08932844,-0.96959,0.30223694,0.0668444,-0.053907387,0.090803295,-2.0404258,-2.2100556,-0.027885482,0.4414485,-0.3727876,-0.10730671,-0.23131077,-2.1549335,-0.57581353,-0.048678033,0.0679037,-0.17162982,-2.0455263,-0.13605924,-0.050055496,0.06830964,-0.8605258,-0.15470709,0.29733342,-0.10589633,0.20096375,-0.017940417,-2.0989873,0.005300456,0.08766523,0.185934,-5.0148582,0.038163986,-1.4393107,-0.11009582,-0.0001383521,-2.3969724,-1.9349418,0.17996979,0.049234286,0.031563118,-0.363305,0.47541255,-0.07458356,-0.11135647,-0.26850867,-0.0559454,-2.2860408,-0.022228898,0.18196075
-0.09474062,0.128646,-0.52213264,0.395447,0.18034299,-1.1181558,-0.14918719,-0.53510267,-0.055241473,-0.29701516,0.045572363,0.84927154,-0.120191805,0.045329344,-0.34191212,-0.048438277,0.34091502,-0.388581,0.035723805,0.06215127,-0.25904363,-2.1947021,0.18098485,0.16872786,0.008240376,0.15672028,-0.49538288,-0.05001452,-0.016147204,0.1637191,0.06331328,0.14794163,-0.17769143,0.011583048,0.070021436,-0.44151184,0.052385442,0.07211772,-0.10341142,-0.36431214,-0.12411729,-0.036558297,-0.960502,-0.3835554,0.15896605,-0.039755024,0.13925685,0.097873285,-0.7159849,-0.105947845,-0.6372821,-0.66087675,-0.045074016,-0.35287032,0.3103532,-0.50060433,-1.4751954,-0.30131096,0.06713574,-0.38865635,-0.55554014,0.09191201,-0.06505366,-0.20038486,0.17994235,-0.15441257,-0.09809322,-0.088259175,0.2572033,-0.8019863,-0.47771132,-0.06653452,0.17241347,0.1317423,0.30430597,-0.12643866,0.48996037,0.20097962,0.33877084,0.2403658,0.3306873,0.07728693,-0.3954671,-0.06282576,0.19854628,0.07845431,0.112206675,0.10043385,0.1359546,-0.40613297,0.15669324,-0.11846041,-1.3781942,-0.2423643,-0.5991317,-0.38700613,-0.49537772,0.19231988,-0.09710302,0.07281225,-0.20189853,-0.9529944,-0.19719616,-0.3581255,-0.5822719,-0.33988446,-0.6371141,0.02829373,0.36145866,-0.26798204,0.00066824857,0.12018773,-0.5347945,-0.08438716,-0.07886428,0.1614116,-0.6255783,-0.07364842,0.46668777,0.3180703,-0.42884302,0.13284817,-0.07356166,0.13617724,-0.46421647,0.008681442,-0.6200755,-0.19758448
0.22444874,-0.020479776,-0.016533716,0.118814915,0.08633612,-0.014598391,-1.7024289,-0.2344336,0.021335311,0.31020808,-1.1300325,-0.04003413,0.24313188,-0.60812134,-0.0052815396,-0.17067517,0.15367752,1.3821378,0.044631567,-0.002191961,-0.9398409,-0.21635182,-0.0431079,-0.3492093,-0.0129994545,0.14724651,0.22104757,-0.43313593,-0.6390827,-0.005728896,-0.8278638,-0.048097827,0.8491596,-2.665088,0.10838033,0.49478984,0.0033284037,-0.10513617,-1.6679336,1.2596608,-1.2241483,-0.0976851,-0.023857534,-0.24887727,-1.8499151,-0.43944597,-0.0017346262,0.25460088,0.036603205,-0.5089387,0.27297723,-0.05755878,0.07026994,0.3724051,-3.1922824,0.04848456,-0.04015187,1.1453034,1.3583326,0.99749416,-0.29521352,-1.3728651,-0.26296598,-0.087618895,-2.2205217,-0.7361194,-0.81680787,-0.13685292,-0.09645275,0.7682414,0.11918433,-2.217696,-1.1892685,-0.09657341,-0.33287397,-1.810243,-0.06950528,0.06748834,-1.5472857,-0.035652086,0.011024352,-0.9240952,0.35797632,-0.2095458,-0.19060756,-2.0135303,-0.6641224,0.10833679,-0.92012274,-0.26239443,0.026527265,-1.3423506,-0.103819504,1.4766061,1.4284554,-0.35675234,-0.08124404,0.026536068,-0.13614514,0.1824724,0.24615124,0.075099394,0.0057375776,0.081170194,-0.0062949867,-0.3223756,-0.04363422,-1.343511,-0.021519162,0.20423898,-0.022774117,0.366421,0.22445601,0.009534971,-0.12513827,0.7393626,0.67891604,-0.094710246,0.0029009893,-2.1036384,-0.93900186,-0.30904213,-0.9303962,-0.99982846,0.7654549,0.115935914,0.11343165,-0.018291667
0.09882791,-0.010097512,-0.7454158,0.010188395,-0.30631027,0.08106699,0.2208871,0.22989371,0.0102482345,0.31280112,0.258307,-0.3866784,0.28915504,0.2990121,0.5403797,0.25683406,0.17409632,0.03309158,-0.032451753,0.040126406,0.013726716,-1.3222768,-0.8856235,0.2960736,-0.55370396,-0.007891932,-0.23576644,0.10588596,-0.10629861,0.21790384,-0.54153025,-0.12551706,0.11334135,-0.011077321,-0.10442623,-0.07894079,0.06154877,0.1911783,0.13819918,-0.016833771,0.038624935,0.058594726,-0.22047755,0.3985854,0.09467436,0.26047522,0.26225936,-0.90702546,0.112816095,0.23507649,-0.07438095,-0.7354467,0.0566788,-0.2276257,0.12465699,-1.7626203,-0.6178271,-0.6272178,0.0525213,0.15414064,0.41387108,0.01290661,0.29330224,0.059660766,-0.020832703,0.2019547,0.2442437,-0.069197044,0.3876248,0.08904911,-0.47869748,-0.07076772,0.18506233,0.18035066,0.13483705,0.10227187,-0.33201155,0.46423066,0.4264088,-0.16919318,-0.18358776,0.063392505,0.09171658,0.24933986,0.5328033,-0.011643612,0.262211,0.16816148,0.03511174,0.006276927,0.36478096,0.29117694,-0.2902583,-0.0018385253,-0.27769804,-0.08216819,-0.073895365,0.2322862,-0.026719527,-0.1170029,0.2571191,-0.115651764,-0.0026059207,-0.7711229,-0.051299583,-0.07886305,-0.6681736,0.03177455,0.3314579,-0.07643445,0.18173286,0.005813944,-0.1071505,0.04619823,0.3438987,0.1314341,0.013603988,0.0070217997,0.14982337,0.3517449,0.013529121,0.10422205,0.063036926,0.12643076,0.23033981,-0.11291366,-0.19527587,-0.79916567
-3.0661752,-0.078904904,0.04029166,-0.1987839,0.19742359,0.121427834,0.1040626,0.03544056,0.016651709,0.07150271,-0.22383988,0.054700065,0.020420123,-2.1045692,0.03787331,-0.20761766,-0.10880307,0.05824727,0.04310934,-0.015322091,0.13083176,0.055064235,0.24035662,-0.5835228,-0.0031180046,-0.27349183,0.032486565,-0.4791181,-0.12368965,-3.0030055,-0.24366978,-1.652103,0.015014214,0.03822517,-0.004295122,0.051728483,0.024660198,0.062707275,-0.27762768,0.05271424,0.07176519,0.07884432,0.1298722,0.5284846,-1.1031315,-1.9036316,-0.04413347,-0.09866323,0.090068445,-0.08247272,0.040610224,0.0445954,0.047356773,0.042833414,-0.40033054,-0.007707102,-0.02409916,-0.10088596,-0.09404944,0.042060338,0.055192966,-0.06602905,0.0817353,0.09195244,-2.724084,-0.037464082,-0.06683939,-0.1781529,0.06739668,-0.015323529,0.112658024,-0.07998696,-3.2159367,0.030155608,-0.047347024,-0.037677173,-0.0024037412,-0.012267296,-2.672546,0.25381064,0.13570486,-0.4326541,0.010247837,-0.19067773,-2.4587073,-0.37390482,-1.8589952,-0.39672646,-0.053845648,-0.23290625,0.008371534,-2.9444203,-0.16121629,-0.09926128,0.048163705,0.12097394,-0.048180543,-1.4008307,-0.09879617,-0.047495093,0.04057627,0.12367508,-0.026230453,0.0015489779,0.13183378,-0.04465161,0.066938795,-0.024811605,-0.009855132,0.059275802,-0.16455601,-0.33373147,-0.035489593,-0.6121254,-0.12829746,-0.43490708,0.021324331,0.07011682,-0.0077663073,-1.3614013,-0.04304251,-4.0237346,-0.012458102,-0.23773217,-0.0025662626,-0.26601648,0.009746696,0.10825857
-1.0826117,0.33806053,-0.03932482,-0.06566674,1.3340043,0.061063554,-0.281287,0.28803268,5.9896292e-06,-0.0960571,0.004974436,-0.047876406,-1.5219611,-0.108384416,-0.43711302,0.1453287,-0.21169361,0.050830387,0.0912148,0.0026481962,-0.42628303,-0.01993051,-0.041336633,-1.437033,-0.003180099,-0.010273287,2.3607814,-1.9917908,-0.27422243,0.120835796,0.1848415,0.15326837,-1.3007576,-0.14071569,-0.37031853,0.2222995,0.007873385,-2.3583095,-0.009892482,-0.108564846,-0.16083996,-0.26000446,0.15429908,0.30717933,-0.12848133,0.010081673,-0.83989507,-2.1930695,0.116102345,-1.4694961,-0.09650484,0.12684855,-0.11700081,0.9178781,-0.030126616,0.007236753,-0.06475259,-0.14242633,-1.772471,-0.51237977,-0.76155305,-0.0075481734,-2.0993476,-0.32814547,0.017444104,-1.3690255,-4.3294144,0.13236827,-0.21285082,-0.36562055,-7.857567,-2.6134222,-1.2032682,0.1325761,-0.05022296,-0.005904139,-0.090880804,-0.023662249,-0.18612461,-0.056448903,0.23558538,-0.03415329,-0.1015582,-0.67978805,-0.4791043,-0.0025673066,-1.4447907,-0.014223472,-0.12847593,-0.48789886,-0.026470488,-0.17716749,-1.076617,2.0498853,0.2902468,-0.68026257,-0.44240224,-1.439882,-0.14130676,-0.009367629,0.08194898,-0.5622623,1.691235,0.011539416,0.124853544,-0.7017765,-0.05882763,-0.038326833,0.024858534,1.1925399,-0.10148256,-1.1552213,1.9482636,0.03669828,0.08988804,-0.103103176,1.5314637,-1.252938,-0.06725601,-0.012074476,-0.58234763,-1.3336264,-0.13207588,-0.10694593,0.92960536,0.032010015,0.5015884,-0.48722538
-0.0113039315,-0.07122922,0.06533897,-0.10393372,0.022930235,-0.038097262,-0.004112631,-0.004395604,-0.042798102,0.11814153,0.02884227,-0.00016495585,0.102366954,-0.03297016,-0.06581566,0.09601703,0.047679156,0.035320222,0.049839497,0.011390209,-0.07581335,-0.05234468,-0.021822304,-0.027635932,-0.036124825,-0.090049714,0.034815162,-0.078752875,-0.031401515,0.09900585,-0.033905834,-0.11353025,-0.06511834,0.049855173,-0.054947972,-0.00034868717,0.031150013,-0.012527257,0.0611974,0.064507425,0.04400897,-0.080922484,-0.09774846,0.005307406,0.012101948,-0.11331305,-0.124435425,0.08734009,-0.047504365,-0.05986923,0.0906325,0.09801674,0.040637136,-0.00050732493,-0.013043344,-0.11578402,-0.102562904,0.07415864,0.018272638,0.070784,-0.008131057,0.025498569,-0.04745543,-0.03860253,-0.10971111,0.09896338,-0.10380554,-0.04475373,-0.029370934,-0.009564638,-0.074916124,0.060821027,0.1053879,-0.11370763,0.016219884,0.08772132,-0.031104386,0.060204536,-0.01830542,-0.015780032,0.07478005,-0.10488635,-0.055652767,-0.08010027,0.05954194,0.0042046607,-0.060895413,-0.01364392,0.10479894,-0.09310761,0.06112367,-0.039641112,-0.021764785,-0.06351763,0.10705462,-0.064223826,0.11633414,0.061329573,0.03322813,-0.10747528,-0.04177296,0.04101011,0.10216364,-0.05325955,0.12359494,0.005551249,-0.08751762,0.08729866,-0.07270235,-0.009660512,0.006012976,-0.08469954,-0.083577365,-0.05160001,0.10294825,0.012108922,0.088127255,-0.10849348,-0.04179567,0.00062412024,0.11713916,-0.0841842,0.06808317,-0.05216986,-0.08832079,0.038098246,0.04389766,0.117972225
0.1220328,-0.15623213,-0.12938951,0.022994088,-0.3876993,0.012410756,0.17891973,0.07417443,0.09247792,0.003009552,0.09490471,-0.20205963,0.032375347,0.03959699,0.04184,0.057032686,-0.12638696,-0.104566686,-0.11979792,-0.013783105,0.2254192,-0.004596904,-0.32392973,-0.076413475,0.025627133,0.050323933,0.036980838,0.09342938,0.21557267,0.09984002,-0.06340264,0.07386155,0.05510444,0.20568548,0.02359233,-0.1187495,0.009225497,0.031159244,-0.11404397,0.059610207,0.19042292,-0.012295868,0.0908223,0.17605059,0.031870775,0.020566465,-0.015465562,-0.08295981,-0.8239047,0.0212146,-0.12949401,0.049508434,-0.1463619,-0.32168046,-0.102038294,0.06658605,-0.15834373,0.12121747,0.045079775,-0.012747298,0.024888724,0.044743396,-0.47899008,0.11980842,-0.065758444,-0.013623045,-0.05864179,0.3316108,0.083636,0.013373848,-0.13248275,0.018861307,-0.054930985,0.008899767,-0.09876076,-0.035701483,0.011231007,0.004385779,-0.29552022,-1.4272754,-0.06974648,-0.032443095,0.14293227,0.09022988,0.03663224,0.25272283,-0.048415154,0.0864652,-0.1829111,0.1228695,0.014560138,-0.014342825,-0.3102428,0.07360501,-0.007922359,0.14833595,0.05395301,-0.058792878,0.063584976,0.09674601,-0.120646395,-0.73232955,0.04258527,0.084152706,-0.047041006,0.1958396,-0.11574841,-0.05984266,-0.3536788,-0.017329851,-0.07023998,-0.055012207,0.07953728,-0.038482875,0.087487966,0.08954792,-0.039217252,0.17100699,-0.07947946,-0.17320171,-0.03328964,-0.07607154,0.0874786,0.043451168,0.03841546,-0.010089427,0.009988878,-3.0999887
-0.012941372,-0.038017713,0.043464012,0.04996186,-0.33496222,-0.06621797,-0.04946172,-0.04483351,-0.02470955,0.18100429,-1.4102573,0.024504807,-0.036525145,0.10148069,0.18423168,0.02033936,-1.0666037,0.0067087826,0.03460716,0.008269005,0.058131248,-0.1629631,-0.03187207,0.13936199,0.0018746101,0.11323423,0.03508642,0.27962592,0.09815139,0.012336177,-0.018907882,-0.045202356,0.39354447,-0.85830265,0.04831742,-0.040142536,-0.005815889,-0.21179536,0.113459595,0.48256233,-3.347985,0.029325077,0.21071735,-0.08570305,-1.155782,-1.4966828,0.09157937,-0.13705036,-0.03894863,-0.1869698,0.18347636,0.05160727,0.028870277,-0.08790862,-0.029896244,-0.0108135985,-0.002628057,-0.081040636,0.09230905,0.23262481,0.04820318,-2.0363617,0.059487537,-0.080159195,0.11104606,-0.04897913,-0.6270964,0.03516727,0.1734816,0.16082816,-0.27142283,0.13259679,-0.34370115,0.11888934,-1.213677,-4.6612406,0.0043464527,0.012591536,-0.027969955,0.062906034,-0.033964973,-0.247656,0.12333088,-0.18103214,0.048524413,-0.36772937,0.18860346,0.0020652306,-3.2750502,-0.042826466,-0.017426603,-3.7631712,-0.013886667,0.4536495,-0.024004323,-0.01170251,0.0015129661,0.43315798,-0.028899007,0.023983961,0.23518717,-0.013477688,-0.16898312,-0.0008169555,0.16176529,0.10371216,-0.029748628,-1.4082612,0.049902804,0.13339685,0.058639795,-0.10763628,-0.0108000925,0.033019613,-0.06192178,0.70131683,0.15820004,0.19643262,0.002771963,-0.43376473,-0.36257637,-0.13177742,-3.297464,-2.1845636,0.09290152,-0.105842456,-0.10283783,-0.03020982
-0.0023905681,0.015989289,-0.012656749,-0.008854967,-0.023089457,0.028521162,0.055011213,0.026328437,-0.0146905575,0.17154251,-0.07130696,0.039273623,0.0143335005,-0.00045799802,-0.034132365,0.0020360793,0.04257105,0.020460166,0.039808255,0.005350598,-0.04179347,0.003416203,-0.0013252584,0.037873253,0.0025384808,-0.030146124,-0.031047821,-0.034862507,-0.03004958,0.0077505503,-0.021100217,-0.007053713,0.10137147,-0.1921481,0.00088598015,-0.044165332,0.016229382,-0.002014746,-0.701516,0.077561915,-0.355782,-0.0060363994,0.009828032,0.039643615,-0.5345163,-7.2077403,0.0022687109,-0.081970125,0.011748898,6.8865425e-05,-0.0070766932,-0.026695281,-0.13528754,0.06514301,-0.08801463,-0.004497339,-0.010361793,-0.008805635,-0.14007132,0.07985314,-0.04891198,-0.32177797,-0.009372144,0.033464823,-0.23033518,0.04493158,0.19615309,-0.0017988035,0.010305364,0.037388023,0.1288051,0.04357945,0.10464986,0.062105533,-0.80140644,-0.020647872,0.006369077,0.0042913114,-0.021144537,-0.022040427,0.00034117087,-0.0028528487,-0.003040784,0.039112214,0.016333008,0.008364265,0.03253669,0.02471197,-0.34121186,0.0058935164,0.0061840992,0.0056370143,0.01984424,0.14671391,0.08401263,-0.016085003,0.012490065,-0.015958486,0.062080134,-0.005768551,-0.020797377,-0.02693388,-0.09472337,0.009779649,-0.01563381,0.051669136,-0.0043589487,-0.026002724,-0.019923482,0.06421948,0.036917843,0.032638803,-0.09533784,-0.07128404,0.06214276,-0.045384057,0.05659587,-0.07303116,-0.015394219,-0.57855624,0.035555184,-0.06627974,-2.2017622,-5.477295,0.066260956,-0.031232143,0.01748411,-0.022755316
0.105549544,0.106434114,-0.09696824,0.07406069,0.009054197,-0.32577974,0.09150407,0.15105271,0.062401205,0.027901579,0.14618407,-0.44152275,-0.014116964,0.07084853,0.13041432,0.14064582,0.0047333078,-0.2860704,0.053293884,0.036964227,0.0014933526,-0.030227281,-0.1372534,0.08458367,0.033772927,0.075649366,-0.038211387,0.23503345,0.10762807,0.01706557,-0.02743423,0.08934757,0.01912494,0.22938596,-0.03653644,-0.23811047,-0.0014533601,0.08685786,0.09303061,0.04153386,-0.04046113,-0.049535606,0.19323212,0.12610316,0.14464901,-0.03537168,0.083167225,-0.02651516,-3.9867861,0.13310033,0.105176345,0.07448621,0.07696678,-0.26983425,0.104408026,-0.042754095,-0.03078763,0.131793,-0.030355712,-0.0037160125,0.0024289067,0.034011845,-0.056178577,0.18254595,-0.05389485,-0.05027033,0.004586851,0.3430964,0.15585433,0.008430168,-0.09537084,0.103341594,0.12439796,-0.027671574,0.06585384,0.02492504,0.3382736,0.017267095,-0.16840558,-2.163577,-0.33289492,0.030450508,0.3062078,0.17793909,0.13688026,0.088541664,-0.2740205,-0.09246626,0.1135705,0.097499125,0.038860485,-0.16289137,-0.22715743,-0.0064143427,0.011499445,0.064281784,0.00048363628,0.1606755,-0.068115205,0.06444113,0.13303854,-0.24567613,0.043728385,-0.041662477,0.22134987,0.16350506,-0.042771492,-0.006721402,-0.080580555,-0.033120178,0.03328898,-0.14018856,-0.017002227,0.06431813,0.12498391,0.10762067,0.14724839,-0.09108767,0.024848929,-0.018926065,0.0013528129,0.046961624,0.048748042,0.22297768,0.007981761,-0.0126918405,-0.04266797,-0.36541343
-0.1738395,-0.119450286,-0.37580565,-0.062840305,-0.011695176,0.21130982,0.04643955,-0.027771205,0.012741285,0.01523714,-0.13838072,-1.8269432,0.006562679,-2.4035861,-0.39340395,-0.39509246,0.46717563,0.13366732,-0.00858073,-0.0067710318,-0.035151396,-0.029526854,0.10201366,-0.08513461,0.054115914,-0.06517363,0.014504805,0.087589,0.034557752,-0.11039057,-0.09356703,-3.0024471,-0.0028960856,0.117252216,0.0014986482,0.23645705,-0.0116461795,-0.023524988,-0.0118855825,-0.039109282,-0.2742328,-0.00038122616,-0.11272434,-0.0966844,0.09316458,-0.803003,-0.14690244,0.029916197,-0.4200921,-2.5326529,-0.034851316,-0.6320329,0.03992669,-0.027845819,-1.5406092,-0.029401274,-0.014975254,0.043775722,-0.40018588,-0.043002933,-0.046030473,0.08767229,0.10510501,0.012987928,0.45906344,-0.016847357,0.055034112,-0.06905124,0.046490222,0.00022566601,0.008645277,-0.10376168,-0.45675364,-0.2338778,0.24492735,0.05312927,-0.030941688,0.015681887,-0.6511966,-1.1611378,0.18534447,-0.20229995,0.07924595,-0.016448727,-2.8406777,-0.03450078,-2.8708951,-0.26484957,0.023807665,-0.1882946,-0.0103777675,-0.1944151,0.12921885,-0.00064930046,0.2596664,-0.11046451,-0.0316511,-0.2406351,-0.07476683,0.0035905149,-0.0058477595,0.21136369,0.0067251567,-0.022596523,-0.26760224,0.12400132,0.0965492,-0.023545457,-2.9206913,-0.11679784,-0.0008496777,-0.07976124,-0.040017292,-0.15896294,-0.27277637,0.3464221,0.026596207,0.04043747,-0.005520532,-0.4207464,-0.014058172,-2.700056,-0.03396154,0.111896046,0.05416175,0.11196166,0.014484744,0.13643914
-0.06967328,0.026036149,0.009219908,-0.019746775,0.0076546436,6.610959e-05,-0.78548753,-0.13934082,0.001010979,0.29203466,-0.9243259,-0.025510352,0.17745513,0.018702224,0.020100828,-0.029210007,-0.034266442,0.016514517,-0.023780597,0.00473266,-0.14022936,0.0020389664,-0.026339313,-0.06826187,0.0003102651,0.035783604,-0.04321039,0.03564373,0.007096337,0.033034116,0.028574906,-0.023478191,0.26136574,-5.275947,-0.05319286,0.0669128,-0.010840524,0.0041816696,-4.189475,0.44942856,-3.9881787,0.020401247,0.13937774,-0.04810505,-3.48994,-0.7722128,0.01368723,-0.02629691,0.00013294895,-0.11733994,-0.02141755,0.0058290707,-0.07981952,-0.030684121,-0.35261348,-0.02049877,0.0041775675,0.0748563,-0.05947023,0.0048753577,0.13301368,-4.0293803,0.038095597,0.018827368,-3.5137975,-0.03988368,0.6484634,-0.002128958,0.04306967,0.31124467,0.094623156,-0.79525805,-0.08335208,-0.046132896,-1.1331911,-4.903042,0.016362235,0.01564863,-0.05235812,0.01880677,-0.052880496,-2.6805735,0.06199075,0.024658136,0.01909514,-1.7251915,0.19370584,-0.0073499526,-2.6575882,-0.07006625,0.017554354,-4.2956657,0.017714372,0.7672329,0.053257793,-0.012346491,-0.026075078,-0.006723077,-0.11563624,-0.0079788035,-0.058979467,0.022306297,-0.2243313,-0.0071897963,-0.056119464,0.15899487,0.028214129,-0.5131582,-0.017220799,0.23891644,-0.010415579,0.022658046,-0.458132,-0.014675594,0.037386768,-0.22489473,0.19949488,-0.18917027,0.017897127,-2.4395888,-0.23735335,-0.029319594,-1.9682107,-0.9869315,0.21325581,-0.024963265,-0.1181607,0.019914374
-0.007192447,0.01703295,-0.035716645,0.07984991,-10.352879,-0.6218312,0.010530143,0.049292944,-0.003279543,0.06770527,-0.71857244,-0.014619652,0.13248318,-1.7964319,0.041254546,0.02073673,-10.60946,0.054375816,-0.09351917,-0.011265681,-0.058448233,0.09027807,-0.038492218,0.2998537,0.009363065,-0.05591246,-0.012639897,-0.5687417,0.035603136,0.62197065,0.03472986,0.054628137,0.010604227,-0.06860631,0.035749987,0.0026426322,0.012109423,-7.427573,0.03652772,-0.032156225,-0.3122508,-0.111985594,0.091577925,-0.16566858,-0.3765935,-0.31506997,-0.19479804,-0.048587695,-0.07575372,-1.6660055,0.069277875,-0.16099168,0.013242378,0.2703028,-0.12302647,0.009328753,-0.0041698064,0.041187644,0.22865564,-0.0057807835,0.1608478,0.029572029,-3.4875364,-0.2468036,-0.09868417,-0.19629985,0.16662677,-0.09657581,-0.26168507,-0.03521502,0.17727087,-0.08603276,-0.273298,-0.2592956,-3.1272967,-0.12948054,-0.8559853,0.014902151,-0.02094184,-0.047009125,-0.08970596,-0.091230996,0.12574072,-0.08297294,-0.2196851,0.6400261,-0.19427185,0.028532345,-0.64887995,0.045633543,0.0032501877,-5.6623693,-0.19671738,0.043773077,0.043243412,-0.012775644,0.018713279,-0.0091014225,-0.06466361,0.023804106,0.21904287,0.03249386,-0.012239033,0.011418805,0.33022925,0.07165902,-0.21852557,-0.35235342,-0.033417154,0.06790585,-0.098385446,0.12178661,0.07204549,0.036809508,0.036220364,0.026967546,0.020268548,-0.02905001,0.0041252812,-0.0012952478,0.01002565,-0.35592902,-0.06090434,-0.598517,-0.01351758,0.6721291,0.02407747,-0.04054667
0.17854202,0.061655384,-0.10326242,0.036333628,-0.50741583,0.06274855,-0.013553526,-0.10482026,-0.01347505,0.213749,-0.93034995,-1.0871031,0.10069811,-1.6136018,0.31700346,0.07434838,-1.9610953,0.164051,0.009672045,-0.011031156,-0.059139654,0.13545339,-0.058473967,0.29690394,0.0015073994,0.22679149,-0.070853844,-0.7568654,-0.1536025,0.009138955,0.062362608,0.008503562,-0.04756122,-0.068677805,0.10124009,-0.04448339,0.0047424613,-2.3795974,0.0046576103,0.0049849707,-1.9221689,0.05126278,0.09001926,-0.013745679,0.04035117,-0.089038394,-2.1996787,-0.06937305,-0.12569454,-3.6106484,0.11320348,-0.4103579,-0.11442199,0.08993908,0.4020156,0.010714477,-0.09833373,0.01728202,-0.18435559,0.07914284,0.4325693,-0.18446764,-1.8191974,-0.3193653,-0.29895863,-0.4997373,-0.89864206,-0.056869064,-0.3467209,-0.037055016,-0.12812977,-0.088072546,-0.08589391,-0.134166,-1.7570155,-3.7260866,-0.20184644,-0.026988769,-0.024782484,-0.67179716,0.102285355,0.041891944,0.11165374,-0.18308763,-0.30609173,-1.011024,0.42073986,0.03310923,-1.8004191,-0.08348765,0.012528548,-3.1132352,-0.38245478,-0.14076349,0.071746856,0.0001528048,-0.0051118317,0.18813471,-0.06772509,0.0555609,0.2781497,-0.2769398,0.032698277,0.037845425,0.27712035,0.15266259,0.005636712,-2.1157353,-2.2049453,-0.013291897,0.14975457,0.39023513,-0.019517956,0.061000664,0.051299643,0.43418086,0.13963765,-0.12635323,0.02735003,0.17619048,-2.291108,-0.48457548,-0.07537382,-1.4340343,0.011962957,0.15144132,0.035675813,-1.3070796
0.035681237,-0.0042803627,0.10000756,-0.023831436,-0.020278838,0.12575887,-0.047368582,-0.0038241288,-0.01863331,-0.03178245,-0.040199675,0.028681682,0.020058395,0.064414084,0.116414435,0.14836846,0.046051044,0.108450904,0.04419437,0.06043511,0.011083384,-0.024113083,-0.026777955,0.08080073,0.016543608,0.0035690558,0.013149968,0.045746792,0.107028164,0.09700431,-0.12252285,-0.005289874,0.07487769,0.10288817,0.05114489,0.062489484,0.0020373473,-0.09934121,0.104800306,-0.09911667,0.062337,0.098219074,0.0796111,0.16393928,0.10766468,0.03790988,0.09079181,-0.031232601,0.035409693,-0.099730164,0.11289412,-0.015833098,0.023864765,0.08963959,-0.049625874,-0.09916572,0.11122407,0.0052762646,-0.0055298004,0.08495562,0.022234127,0.019110536,0.035270598,0.012506322,0.048935857,0.018782482,0.042297263,0.16411941,-0.04399255,-0.07454028,-0.091401905,-0.009375838,-0.053746704,0.048680536,0.08440675,0.08269335,-0.120323755,-0.098807104,0.03997806,-0.0007781782,0.036208637,0.03161049,0.021552473,0.050508454,-0.00067200605,0.099921584,-0.08454032,0.08203103,-0.013577007,0.058221754,0.048399847,-0.14509828,0.035206284,-0.012312987,0.046070103,0.018158158,-0.07952368,0.05124973,0.07369394,-0.04417404,0.07396833,-0.07810894,0.10567311,0.018356033,0.12713543,0.07879706,0.017162891,0.07785299,-0.13548832,0.024135284,-0.045515843,-0.01770683,0.054223087,0.048777953,0.16515914,-0.11563634,0.16671057,0.0863789,0.05904838,0.1557771,-0.03137604,-0.1290814,0.04854569,-0.003523838,0.04724483,-0.048472892,0.18888146,0.02467269
-0.11649794,-0.019818692,-0.083526276,0.044368286,0.011082845,-4.6293626,-0.023806032,0.31971925,0.0044600777,-0.0914921,0.24958257,-0.26874524,-0.057010364,-0.1510554,-0.21352315,0.41571173,-0.09543937,-4.0685945,-0.0120446775,-0.006586844,0.6851274,-0.05165986,-0.12121792,-0.078967504,0.026584987,0.006642958,-0.055632796,-0.10641992,0.06728661,-0.21971877,-0.10593411,0.26488885,0.0013173363,-0.0019564324,-0.064443864,-1.0115397,0.0070428653,-0.04020479,0.18990782,0.046036363,-0.016132,0.044341147,-0.13277929,0.040231828,-0.006220635,-0.029390853,-0.17319684,0.07360089,-6.516262,-0.21601535,-0.28071558,0.17435743,-0.031736586,-0.15255608,-0.0057995697,0.047995526,-0.19994038,-0.6411642,0.41325384,-0.047819182,-0.040136416,0.11192916,-0.013050419,0.02780818,-0.16343431,-0.10077832,-0.06671092,0.061205573,-0.008038154,-0.039885193,-0.08809251,0.06185195,-0.22644083,0.0153303165,-0.019369774,0.23110399,-0.1237942,0.014081299,0.14045611,-0.32645205,-0.5439796,-0.044262204,-0.2603059,-0.076599486,-0.13094872,-0.1965922,-0.09582252,0.086006194,-0.01230848,-0.08602946,-0.08727775,-0.09313911,-0.08670136,0.01880865,-0.084977925,0.08723521,-0.17267713,-0.069803976,-0.070894636,0.14026357,-1.7862957,-0.09517939,-0.052623685,0.0032924518,-1.1913594,0.0022072722,-0.35400936,0.0030192889,-0.14756389,-0.039462704,-0.16256595,-0.04898294,-0.009715215,-0.056731433,-0.04170458,-0.2254006,-0.061897818,0.25383505,-0.034669425,-0.057187688,0.036536552,0.1352867,0.3381576,-0.011225738,-0.067443885,-0.08980165,-0.113286,-0.11754891
-0.24681465,-0.039092395,0.006619856,0.00640325,-0.013693606,0.013625215,-3.6531081,-0.000984707,0.03581876,-0.03462407,-4.078387,-0.015842477,0.03969296,-0.2581737,-0.036613304,0.011235223,-0.35456857,0.012549626,0.03076175,-0.00018132603,-0.5140166,0.011215105,0.03815491,-0.019241244,0.0022275231,0.03795302,-0.15402545,-0.11385095,-0.05150995,0.03160153,-0.0021158976,-0.03572815,1.2613434,-1.1054972,-0.10177223,0.017763527,-0.00046900165,-0.06851819,-0.9229814,0.9016673,-0.41424412,0.02090305,0.23626018,-0.07783714,-1.0566163,-0.2731633,0.0020715839,0.086180896,-0.06342351,-0.19632165,0.116897225,-0.0008289728,0.09140377,0.24330634,-0.5512777,0.0040926784,-0.06965958,0.2792132,-2.5751731,0.8058541,0.12937681,-0.87034774,-0.103948325,-0.06588125,-1.0096947,-0.21319556,-1.9898998,-0.0029764608,0.0024451816,1.2746243,-0.97828746,-4.649951,-0.06598876,-0.077555664,-0.2782813,-0.728361,0.008042911,0.003672288,0.077531144,0.040282704,0.057897653,-3.401033,0.11538681,-0.106153905,-0.015144145,-2.7201655,-0.016617635,0.05775871,-0.9445936,-0.06198148,-0.015371951,-0.7715642,-0.0064077373,-0.50228465,0.10232148,-0.21879654,-0.156559,0.11782289,0.0013447329,0.017277975,-0.1923652,0.021658463,-0.48131603,-0.0035548985,-0.12683491,0.14730412,0.0044855643,-4.182497,-0.024947109,-0.0053245854,-0.00864281,0.03266098,-0.2798302,-0.035250384,0.020537486,-1.255229,0.3526831,-1.0865068,0.0014198545,-0.45934713,-6.599154,0.019115826,-0.5714153,-0.18543383,0.6302983,0.038653888,-0.24327612,-0.0062511493
-1.7494695,-0.35891703,0.01416309,-1.0071435,0.14648907,0.22807255,-0.1389855,-1.8022212,0.00933572,0.00886742,-1.6382672,-1.0827005,-2.9829183,-2.098243,-1.3686901,-1.7197744,0.14057338,0.099233925,-0.11109803,-0.029035533,-0.0073624123,-0.0010983462,0.17791203,-0.83572054,-0.008893424,-0.44008434,-0.031643465,-0.8658036,-0.075894244,0.04729771,0.15642129,-0.5521686,-0.026893176,0.052631997,0.04345701,0.20620868,-0.008302114,-0.30938876,0.051441748,-0.024575075,-0.039321773,-2.133883,-1.0187554,-0.047856584,0.0137845,0.014120399,-0.025972309,-0.01323755,0.22259325,-0.15080906,-0.7940801,-0.10960498,0.06566161,0.01315956,-0.84556425,-0.052868843,-0.044895135,-0.0077141915,0.022507308,0.0050834245,-0.75601244,-3.3779185,0.1115886,-0.24706292,-2.6655006,-0.9578173,-0.012690136,0.011014941,-0.40069988,-0.025746278,-0.027200298,0.040489253,-0.41668943,-0.064982906,-0.061381705,-1.8575052,-0.06838828,-0.020471295,-1.6776088,-0.14726049,0.12673512,-1.4833483,-0.20927294,-0.42357883,-0.08806102,0.050273027,-0.279355,-0.7398723,-0.21651185,-1.2066768,-0.005240613,-0.04733096,-0.020612951,0.1039484,-0.14838104,-0.33087578,-0.1223599,0.017427234,0.0665709,-3.3370185,-0.062763564,-0.096807234,-0.13432412,0.032664258,-0.054280665,-0.19762038,0.24623108,-0.061996974,0.12769246,-0.5104282,-3.8478239,-1.1602727,-0.04662603,-0.08221567,-0.23316176,-2.9474823,0.06241941,-0.85500205,0.0007333174,-2.448427,-4.4542584,-0.29359406,-0.015249582,-0.2507993,0.014078428,-4.006432,-0.032326467,0.30964842
-0.11600012,-0.11754014,-0.04644527,-0.13132451,2.841774,0.38065612,-0.05110577,-1.4216129,0.04244966,-0.34327942,-0.014447679,-0.21336968,-3.0893657,-0.05883115,-0.5953833,0.08180571,0.02119218,0.22766116,0.06687763,0.030215608,-1.1986039,0.024202831,-0.0338929,-0.9828478,-0.021695891,0.6095967,3.8322515,-1.1825091,-0.07161452,-0.49200165,1.5454508,0.13575198,0.99321157,-0.08859526,-0.57888746,0.52744603,-0.057089925,-0.14241973,-0.056752894,2.410102,-0.0629184,-0.7157847,1.315071,0.5013625,-0.13266194,0.084139444,-2.9068685,-4.2408667,0.2159669,-0.23252836,0.029885951,0.04422438,-0.0070020147,1.059572,0.11880742,0.0019256447,0.15087359,0.032438785,-0.20752957,0.4787508,-1.4522088,-0.037701398,-3.3471894,-1.029271,0.022014868,-0.14940004,-0.7587494,-0.19691539,-2.081562,2.0705073,-4.522002,0.5981534,-0.31920198,0.43702242,-0.14124833,-0.09448009,-0.4536166,0.04834877,0.4961068,-0.05604663,0.05720379,-0.15471011,-0.3097119,-0.6780329,-0.66311604,-0.0562471,-0.10467799,-0.16845216,-0.016157,-1.5653534,-0.01037127,-0.042731434,-0.18904717,4.1655054,-0.29774052,-1.1388727,0.11992767,-0.1933212,0.05252361,-0.079446174,-0.32620966,-4.0515003,1.6170896,-0.008813252,0.93792546,-2.4470963,-0.27910423,-0.12615062,-0.27450126,1.82583,-1.0587065,-1.0627557,3.326359,0.02542916,0.45555356,0.09912225,2.9183724,-1.0984514,-0.04026807,-0.023171637,-0.010977703,-0.49353907,-0.1179061,-0.0062924256,1.7093,-0.5727237,1.6609577,0.32261235
-0.193114,-3.581389,0.06746247,0.002277701,-2.8259988,-0.41913015,-1.385312,-3.8810258,-0.02000304,0.06816552,-0.057520784,0.23588881,-6.0558777,-0.08518685,-2.5792453,-4.743029,-0.2634847,-0.24072118,0.013276891,0.02201105,-3.773871,0.22641541,-0.41662815,-0.17880216,-0.013114071,-4.858138,0.75247455,-0.34406674,-4.3172817,-0.22962818,-1.1170928,-2.634253,-0.20637432,-0.45249015,0.21323496,1.0669863,0.022395587,-0.11109942,-2.043801,-0.82660156,-1.6559904,0.288818,-0.62178665,-5.0763946,-0.15271114,-0.121495545,-2.4983091,1.2554975,0.24891153,-0.083945945,-4.413307,-0.7715414,-0.10535678,1.5863652,-0.119968764,0.011587432,-0.14763501,0.7776114,0.20989415,0.10856533,-7.3942547,-1.8555449,-1.235697,-0.036790233,-0.069271736,-0.18339531,-5.4473534,-5.827683,-3.1086988,0.6350249,-0.15741453,-6.2274294,-0.075578526,0.60675555,-0.04997868,-0.05137274,-1.3490214,0.016756983,-2.1362958,0.15371223,0.052109096,-0.13887833,-0.26853582,-0.07510613,-0.01588128,-0.011758986,-0.35323784,-2.592889,-0.020062525,-3.9558742,0.0054593096,-0.14018387,-0.61862016,-0.30585024,7.7780304,-0.01315666,0.7587766,-0.3318006,0.009699925,-4.13212,-0.8896442,-0.0021011124,1.3366205,-0.031378772,-2.334714,-5.9589415,-0.46826798,-0.030250913,0.0070896163,0.07231608,-2.2148254,-0.14219207,-0.011527793,-3.867254,-0.15092476,-0.046966992,-0.30765605,-0.043067608,0.03327234,-0.23921792,-0.15625784,-0.12151118,-2.4088726,-0.010215169,-0.46594524,-0.34085372,1.716908,0.10568787
-0.08257985,0.08007789,-0.059031427,0.105092615,0.07433677,-0.037514925,-0.105698675,-0.10562381,0.11936772,0.06256634,-0.019057095,0.017985553,-0.082558215,-0.07062751,-0.051497698,0.08712137,-0.02423051,-0.019807845,0.06356561,0.10357988,0.0052178204,-0.007295966,-0.10613495,0.006934583,0.05611658,-0.018586755,0.058699787,0.03554949,0.057618946,0.120135665,-0.04326698,0.08525041,0.047148854,-0.0695796,-0.11101434,0.11610827,-0.06597546,-0.06409946,0.04635015,-0.06790033,0.06833479,-0.018982708,0.11762345,-0.10791212,0.004807204,0.07247269,-0.002050519,-0.04428345,0.047178328,-0.08906856,0.024605483,-0.034985334,-0.110456556,0.036378175,0.10926005,-0.10755366,-0.09742579,-0.01265493,0.022551626,0.024892688,0.040678978,-0.089696765,-0.040754437,0.02998507,-0.05025384,-0.10548738,-0.09498119,-0.034417093,0.03645861,-0.02137813,0.028220654,0.035867125,0.0834434,-0.042506844,0.10777742,-0.105390966,0.10156232,-0.043907642,0.082529664,0.004408151,0.06298047,0.08590704,-0.0647662,0.09645885,0.010897338,0.102675855,-0.119125724,-0.081134856,-0.10737234,-0.10633534,-0.04061526,-0.115493804,-0.0019230247,0.024996042,0.10019854,0.10566181,0.044541985,-0.06305879,-0.035814255,0.03533718,-0.013019472,0.018842429,0.03915468,-0.108184695,0.05790159,0.012315184,-0.11801916,-0.026943505,-0.06802887,-0.02715087,0.07728663,0.11579427,0.060602665,-0.04515463,0.06713429,-0.12176657,-0.020325065,-0.04469824,0.058883786,0.11283758,0.005286157,-0.07285935,-0.07132158,0.063789666,0.019718707,-0.015270591,-0.03290099,0.031056702
-0.05721159,-2.3792312,0.02196943,-0.2847123,0.012914384,0.061792895,-0.14466412,-0.28800276,0.01187708,-0.019005954,-0.056805186,0.2232446,-0.04925171,-0.103144914,-0.16660365,-1.2193679,0.052841168,0.1264261,-0.022825848,-0.0121563785,0.008387566,0.07370816,0.032127615,0.1564318,-0.0078244945,0.014252223,-0.028067552,-0.16461931,-0.017075377,0.046195965,0.0710946,-5.468608,-0.02780884,-0.030477583,0.060420122,0.12752824,0.022970334,0.0987295,-0.017041694,-0.011477377,0.011447232,-0.118769445,-0.38082626,-0.026900066,0.01130425,0.112244576,0.026706615,-0.10595592,-0.013933929,0.034299746,0.011621997,0.010196706,-0.13408832,-0.0067962566,-0.52919257,0.028210865,0.05260672,-0.018601066,0.034781627,-0.08077873,-0.73431796,0.022047209,0.0908944,-0.8176878,-0.07326065,-0.5533151,-0.016097564,0.002361135,-0.0775311,0.007117178,0.0021280232,-0.049257092,-2.2733085,-0.13455786,0.052146234,0.0063443906,0.12889202,-0.014613853,-0.14767681,0.071323454,0.042012133,-0.22060569,0.10171085,-5.810004,-0.17119709,0.03964473,-0.015949111,0.011927023,0.03910502,-0.78081656,0.020002803,0.019496452,0.014712771,-0.015999207,0.039575554,-0.13867494,0.12240429,0.034031622,-0.0009188628,0.039594002,-0.034472354,0.09906195,0.070290856,0.0016255317,0.034825396,-2.0967553,0.069543675,0.031777296,0.19276634,-0.13042518,-0.029459722,-0.13048938,-0.0040293694,0.0024840876,-4.244085,0.013775193,-0.01982836,-0.061309747,-0.01876098,-0.15336804,-0.054916304,0.062448144,0.0007028639,0.06306489,-0.008130092,0.100773826,0.019553011,0.06464196
0.054045994,-0.25827006,-0.04112241,0.15486118,-0.005277774,0.023414304,0.026305057,-0.113942064,0.015227815,-0.052328154,-0.34904674,-0.09092992,-0.045532893,-0.5928623,-0.40834722,-0.13758586,-0.14202335,-0.019191284,-0.103305995,0.0032054887,-0.09064589,0.009825751,0.044317417,0.066774145,-0.0067561837,0.1006836,-0.028897215,-0.087257534,0.02762799,0.0603244,-0.07314816,-0.07781487,-0.008607342,-0.05688699,0.007292565,-0.00766674,0.0015067653,-0.0983804,0.017720927,0.011039953,0.0016482587,-0.07374545,-0.17226505,-0.4460885,-0.13996369,-0.1605055,-0.035954744,-0.05388003,-0.01715503,-0.44062343,-0.07170948,-0.35507765,-0.11914062,0.0631868,-1.1457741,0.00058790337,-0.002288591,0.13428906,-0.35126776,-0.016779723,-0.058928683,-0.0028902618,-0.00074968283,-0.0765481,-0.07065712,0.009051567,0.007865514,0.048273236,-0.054319117,-0.0021178776,0.0041215625,-0.18284316,0.042027526,0.0678884,-0.05553111,0.05306076,-0.124776505,0.004802651,-0.36166203,0.03781229,0.055061545,-0.055802487,-0.23986293,-0.0047016917,-2.594296,0.093029104,-0.065906495,0.031628713,-0.042369056,-0.011673196,-0.0050244154,-0.26294488,0.026450513,0.048281677,0.010518694,-0.23596394,-0.03678287,-0.019275755,-0.03912716,-0.038520955,-0.13873653,0.037859563,-0.042351253,0.017757216,-0.21200788,-0.1283934,0.033286165,-0.09436857,-0.03452045,-0.03561965,-0.042529173,0.014378367,-0.03473767,0.11155606,-0.123494424,-0.10519544,-0.031308156,-0.03192773,0.0007158669,-0.18008603,-0.05635161,-6.116597,0.073245235,-0.0539344,0.036440685,0.103999205,0.0025283515,0.02671273
0.03997956,-0.03823895,-0.24149929,0.08244572,-0.04758433,0.22782323,0.120925605,-0.04341225,0.0011824892,0.038893,0.09963469,-0.1304077,-0.011341483,0.1246403,-0.09353526,0.14849572,-0.116700955,-0.2593246,0.05147689,0.013636711,0.07665233,-0.19287245,-0.46743587,0.11333714,0.01736631,0.14084773,-0.01823564,0.2336752,0.07325721,0.19320253,-0.051230762,0.034829937,0.030248914,0.0721304,-0.020164162,-0.034544915,0.06095227,-0.0400161,0.048023283,-0.10811723,0.29826662,0.3418454,0.083609864,0.14807402,0.13351628,0.016203891,0.12826012,-0.14875676,-0.9704715,0.25006878,-0.15261015,-0.014867368,-0.07366712,-0.4158065,-0.1149841,-0.055211034,-0.33679393,0.08798127,0.254392,-0.029189596,0.011695006,0.0430983,-0.31253728,0.20651212,0.065740444,0.24396785,-0.090910904,0.23595475,0.18020032,-0.011063495,-0.6080951,0.10869951,0.0054007773,0.061450455,0.03196451,0.04280134,-0.019186487,0.18843971,-0.022215107,-1.5826529,0.24259725,0.118731625,0.1778926,0.10929656,0.014708945,0.15997264,-0.017327057,0.23977445,-0.033514287,0.050985284,0.09330965,0.077741824,-0.53622013,0.037659865,0.105769925,0.20915699,-0.093382634,0.1041293,0.051828988,0.20898505,-0.10650364,-2.243266,-0.010071652,-0.10318383,-0.18103895,0.18875955,-0.8764003,-0.055787254,-0.26502296,-0.10242854,0.034472693,0.16050836,0.023078876,0.06363109,0.027839942,0.019311907,-0.1544924,0.19828467,-0.026249506,-0.06549551,-0.118722096,0.112881824,0.09015146,0.11755133,-0.15761414,-0.028502258,-0.088337354,-1.1526074
0.14276709,-0.03173566,-0.07727681,0.0095611075,0.5880732,0.014686801,-0.1408472,0.07856387,-0.03354594,0.07330585,-0.04878965,-0.20963942,-0.048624177,-0.49099448,0.082872,0.11277803,-3.1465743,0.03626881,-0.07522477,0.009306931,-0.03086167,0.15670651,0.03228854,-0.15281403,0.0025235412,0.04797836,-0.05817985,-0.30594733,0.021078847,0.09221242,-0.029203631,0.07635594,-0.026597718,0.13555366,0.027669992,0.011724476,0.024897808,-0.98789746,0.12832116,-0.083496235,-0.38656592,0.09591994,0.08919144,-0.021664003,0.09089691,-0.50348365,-1.2413106,0.005811087,-0.46455187,-2.7674718,-0.051239785,-0.32028368,0.023992293,-0.12827086,0.2646842,0.03998235,-0.08727929,0.03325306,-0.5830507,0.008966472,0.030692147,-0.17128763,-2.4788404,-0.019264484,-0.10045525,0.06726179,-0.11052928,0.08546764,-0.24494335,0.01524546,0.060625535,-0.03065231,0.06335715,-0.07458157,-4.773497,-0.46997204,-0.13584258,-0.01914078,0.027609177,-0.5595271,-0.002682258,0.031919993,0.13568662,0.12899417,-0.10508634,-0.33563927,0.16647047,0.0077329916,-5.099373,0.05273633,-0.041983474,-0.61817646,-0.005624186,-0.02271165,-0.03484676,-0.024817934,0.096013986,0.15072948,-0.06578085,0.10867434,0.018473776,-0.17581768,0.099612065,0.020614695,-0.109670796,0.10861326,0.028298585,-3.6535344,-4.459898,0.035006862,0.02202712,0.06095164,0.024383396,-0.0378488,0.048072718,0.14870076,-0.012122451,0.010484972,-0.009581278,-0.0037804744,-0.4141723,-0.2133936,-0.11531864,-0.15355267,-0.012781633,0.055805117,0.023597097,-0.17721866
-0.07208187,-0.4185974,-0.046375945,-0.47112358,1.5484966,0.16904886,-0.4078554,-0.703777,0.0015696199,0.04160947,-0.081441425,-0.04657662,-0.70383495,0.052880522,-0.07442136,-0.06250649,-0.14642428,1.5114578,-0.02631655,0.0015018934,-0.7774563,-0.2984588,0.06781872,-0.052715898,0.017885646,-0.7222935,-0.673575,-0.058567006,-0.37599692,-0.20668563,-1.3437414,0.079676546,0.4645809,-0.099514514,0.75781304,1.2711071,0.010609185,-0.18240686,-0.32197315,0.4608718,-0.15845536,-1.8205175,0.30766273,-0.90710837,-0.06013373,-0.03311526,-0.28114894,-4.2693605,-0.040457144,-0.16385229,-1.5919393,-0.013363991,-0.019235956,1.805574,-0.14486992,-0.016015396,-0.08148334,-0.015791304,-3.241572,0.15140234,-5.8993545,-0.32949185,-0.42737406,-0.19479941,0.071212426,-0.18139419,-1.4745904,-0.47185692,-0.54958415,0.30023637,-0.3412549,0.5379453,-0.07997132,-0.32319355,-0.17714642,-0.14727566,-0.22309074,-0.01563186,-0.41363233,-0.10992988,0.1046245,0.015278566,0.029175006,-0.092498474,-0.13017036,0.028563006,0.0024628467,0.01173299,-0.17725763,-4.9782267,0.0015383478,0.0463172,-0.12049655,0.0636232,-0.91420746,-0.09329357,1.9724281,-0.1270953,0.022068584,-0.38767305,-0.19217743,-0.9028505,2.6768587,0.00707829,0.09687756,-0.6632247,-0.1768343,-0.115683936,-0.16369388,-0.04011798,-0.49818605,-0.21679482,-3.1880732,-2.8883827,-4.9648046,-0.04554288,-0.42073396,-2.4397702,-0.0038648257,-0.15494245,-0.14375927,-0.026647232,-0.3971054,-0.032623734,0.49847084,-0.15919769,0.70747197,-0.11837297
0.11457119,0.020350613,-0.026403146,-0.06982605,-0.109112695,0.09859132,0.009525593,-0.11054659,-0.060191203,-0.06969603,0.009096329,0.10420391,0.105664946,0.031179134,-0.023534818,0.013611034,-0.048273098,0.05706513,0.080114186,-0.083678246,-0.08917056,-0.0970929,0.010581498,0.0022002764,-0.09168496,0.1257369,-0.106698245,-0.09096475,0.07563292,0.11436674,0.082788855,-0.06848784,0.067708485,-0.11611539,-0.027846174,-0.09077297,0.0021394324,-0.0518419,-0.011532147,0.036909886,0.1039248,0.017321318,0.06436316,0.036920346,-0.083001465,-0.10272305,-0.060746845,0.021936756,-0.07549152,0.078176975,0.046763614,-0.032940462,0.039518118,-0.014889536,0.043012977,-0.0485434,0.018328123,0.052073378,0.028223297,-0.06927469,-0.05127238,0.04401124,-0.1098158,-0.03247385,0.108642474,-0.052126545,0.109916426,0.08753716,-0.062388808,-0.022532642,-0.039935645,-0.016507206,0.022156525,-0.06582573,0.082567446,-0.09451469,-0.06936614,0.02214733,0.059055306,0.10551389,0.049597885,0.05125679,0.09674464,-0.07627801,0.024516005,-0.030574339,0.09668153,0.026719464,0.059366465,-0.063784264,-0.04094084,0.027709251,0.11322551,-0.030017799,-0.116297334,0.033860065,0.08000326,0.0038733808,-0.04666593,-0.0025411928,0.003660021,0.11279908,0.0453658,-0.061232656,-0.06427825,0.07258766,0.09454882,-0.030373028,0.06332592,0.12171238,-0.023633689,0.104404785,0.090435214,0.0770577,0.117215216,0.06516173,-0.093807824,0.08559152,-0.04594567,-0.0014051703,-0.040939778,-0.036458712,0.017493892,-0.047156803,-0.029799834,-0.038960956,-0.08344564,-0.035003435
-0.10135487,0.05488321,0.06341314,0.041910082,-0.009997666,0.059238177,-0.031001816,0.015999472,-0.07891482,-0.030854695,-0.004357308,0.09642529,-0.025028944,-0.06860882,-0.002705747,0.105917424,-0.007494509,-0.09157498,-0.11453116,-0.09300166,0.0863692,0.12015126,-0.124418825,0.08483228,-0.025463045,0.023245126,0.014770418,0.032086805,-0.04282406,-0.01865298,-0.08915856,0.10985577,-0.03901356,-0.11328114,0.07688895,-0.10787016,-0.026420325,0.11002152,-0.033495188,-0.06304008,-0.04277356,-0.108439416,-0.042097926,-0.0688248,0.013611883,0.099295795,0.03600975,-0.06549853,0.021339655,0.076125175,0.11721304,-0.113711745,0.10044494,0.04542634,-0.07755098,0.027522743,0.049782753,0.07641104,0.0027921111,0.10648307,-0.123201706,0.0855878,-0.092633605,0.04128027,-0.09807604,-0.0022323267,-0.11000326,-0.10828853,0.09766318,-0.0435431,0.044451714,-0.12213711,-0.049629718,0.10426766,0.063384674,-0.08061695,0.0018735826,-0.044558655,-0.0003131628,-0.020374596,0.08964076,-0.09108047,-0.055998307,0.113469325,0.057744473,-0.03769851,0.10922685,0.10564464,0.025653243,0.021126658,-0.056973588,0.05761966,-0.11337009,-0.008332998,0.124475986,-0.12037425,0.103186905,-0.117572516,0.04676322,-0.06595435,0.07720383,-0.12291515,-0.033098698,-0.10344886,0.08652088,-0.029806256,-0.11012039,0.0652813,0.1122829,-0.04306829,0.021456122,-0.062464565,0.083482385,0.089148015,-0.017561346,0.019432962,-0.008527726,0.07140687,-0.0557757,0.037548605,-0.10223671,-0.08108875,0.02019748,0.03532913,0.073801756,-0.04838696,0.10148978,0.0079758465
0.03479665,0.040733177,-0.42712262,0.14626865,0.09242877,0.09816074,0.06297152,0.022501515,0.09262238,-0.046947725,0.05014213,0.14380269,-0.060132314,0.0008583291,0.18788199,0.16826318,0.08477767,-0.18180826,-0.076430306,-0.003401411,0.017010435,-0.14711352,-0.57102495,0.019568212,0.056843378,0.04852249,-0.04226756,0.07866325,0.123356216,0.086329445,-0.099193394,0.068873,-0.0025581922,0.03249697,-0.018693926,0.04273963,0.039603073,0.041326214,0.10067177,-0.014617246,0.0694357,-0.0076340865,0.1350934,0.013083304,0.04001278,0.031788714,0.11530414,0.012842753,-0.45205832,0.08052155,-0.06779586,-0.070579365,0.0029555669,0.06446337,-0.0446103,-0.35706067,-0.07068768,-0.19135487,0.026523156,0.08622125,0.044196673,0.080517784,-0.0132765975,0.04049951,0.034916475,0.062087283,0.02609307,0.031325046,0.1317462,-0.34631613,-0.2141959,0.06639285,0.11767766,0.015035292,0.04606733,-0.05194361,0.05270789,-0.0020593905,0.029684624,-0.5462833,-0.12873897,0.07051315,0.039755456,0.04123338,0.015706459,0.12099414,-0.0059858295,0.1294624,0.055007853,-0.025461137,-0.008957981,0.026190864,0.037010174,0.016487084,-0.008569597,0.11847866,-0.008001046,0.028643446,0.04445101,-0.0033666813,0.020297872,-0.43256506,-0.023795411,0.003528935,-0.053416096,0.061944548,-0.51760906,0.0107839145,-0.11840989,-0.0047890865,0.102643155,-0.031508885,-0.035438582,-0.0010141579,-0.020375956,0.06815173,-0.0999656,0.10636303,0.01194654,-0.015650667,-0.02072431,-0.043082498,0.13677241,0.063698,0.122803286,0.047940463,-0.123855114,-0.44098717
-0.032592166,-0.019580735,0.018482408,-0.015817508,-0.0052688546,0.038646687,-0.6702036,-0.046452552,0.015762065,0.2715825,-0.49837255,0.027876465,0.17612006,0.04499291,0.038626898,0.006037402,0.020258524,-0.01647054,-0.058156762,-0.016149515,-0.06254381,9.302315e-05,0.015010737,0.102949575,0.0004791424,-0.00052340963,-0.05223606,0.060660087,-0.024447316,-0.015901616,0.03458211,-0.011939056,0.22084662,-4.89013,-0.0018343275,-0.008270793,0.0062940186,0.010211672,-4.5162563,0.43474722,-4.1797214,0.0072613065,0.0702841,-0.015951918,-3.1447587,-1.6707877,0.008800473,-0.07025568,-0.024610529,-0.008913999,-0.018284747,-0.015166431,-0.10107408,-0.023855321,-0.23557954,-0.014531391,0.0065133166,0.0038286222,0.04322742,0.082490616,0.1429799,-4.7140303,0.048694525,-0.0023696087,-2.4381232,-0.09622912,0.4548272,0.0023970348,0.047441356,0.15189359,0.0953424,-0.22109638,-0.07594018,-0.040035665,-1.9868388,-4.867339,0.007864202,0.011377887,0.013872977,-0.003941398,0.029965162,-1.911621,0.077573024,0.05662481,-0.04397053,-1.3866316,0.056892104,-0.0016183321,-2.7829785,-0.044774603,0.007340832,-2.7903426,-0.015727343,0.6198977,-0.0036669073,-0.019502165,-0.018331168,-0.0006101137,-0.091426834,0.01291709,-0.02500087,0.04537992,-0.20899825,0.0024985617,-0.0018892555,0.18113106,-0.018358832,-0.22368397,0.016709227,0.1794486,-0.005365358,-0.021436868,-0.3891402,0.008798681,0.04355038,-0.11904279,0.18265331,-0.049559586,0.009285454,-2.3675056,-0.13036534,-0.032306947,-3.1011975,-2.2906427,0.19364084,-0.037325975,-0.09453021,0.019490851
-0.115748525,0.06722093,-0.113743484,0.0035856664,-0.08199674,-0.07565236,0.056071967,-0.025278568,0.01883015,-0.08603203,0.010563999,-0.028017253,0.04408464,-0.08532074,-0.013322949,-0.04910788,-0.10121831,-0.062594205,-0.12363079,-0.026324302,0.12394887,0.07790965,-0.048259526,0.0884155,0.07604331,-0.106853485,-0.019288093,-0.057520747,0.11228371,0.10826418,0.10854736,-0.06586024,-0.09025955,0.019833684,0.11841458,0.013988495,0.05561763,0.06494793,0.019255966,-0.008576006,-0.07426527,0.03332165,0.0255557,0.077379495,0.05503702,0.07474774,-0.038012564,0.0944103,0.090654135,0.11773744,-0.023597151,0.11200613,0.07220608,0.11777541,-0.10714924,0.106298625,-0.020414442,0.02057156,0.11179811,0.089485765,-0.073320866,-0.069877,0.045082986,-0.06787875,-0.09108746,0.06991097,-0.118414015,0.04758504,-0.09888476,-0.010990292,0.05199042,-0.10534522,0.036639422,0.03363341,0.06204045,-0.017612755,0.118257016,-0.058300674,0.019797951,0.10157105,-0.09166774,-0.08358279,0.040804684,-0.074175686,-0.08790162,0.043927312,-0.0151845515,0.07558951,0.087293714,-0.11206615,0.040611535,0.030402333,0.016958058,-0.06585577,-0.024455518,-0.042989135,0.04324928,0.048541784,0.039030373,-0.0010383725,0.12309271,0.09683716,0.118510395,0.07177913,0.025504857,-0.07253873,-0.12152922,-0.081879675,-0.07421222,0.12483704,-0.027057946,0.033264607,-0.112718225,-0.11228132,-0.052514613,0.014811367,-0.09429628,0.040555626,-0.11733979,-0.0990186,-0.120477974,0.09177822,0.055013925,0.05134234,0.06634572,0.08448109,0.094946176,0.10460454
-0.02892997,0.0041434206,-0.00062626717,-0.026664432,-0.085175,0.0064319386,-0.113067515,-0.0578896,-0.006018743,0.3482649,-0.21250612,-0.005767064,0.19911917,0.009709654,0.05007721,-0.036537874,0.010115407,0.039997574,-0.101009585,-0.0021481353,-0.027862284,-0.0017858371,0.02027275,0.09280255,0.0018139656,0.007344182,-0.025675118,0.048368856,-0.0074755135,-0.032598924,0.007614706,-0.0042501832,0.045503017,-1.3949827,-0.0058183065,0.011632984,-0.003127342,-0.015147295,-5.5587335,0.2344668,-5.4039545,-0.0013069025,0.0067391596,-0.002069653,-2.8166602,-2.996288,-0.007856398,-0.10636583,-0.00855654,-0.0199396,-0.03037873,-0.0052945022,0.066723086,0.037866317,-0.08472425,-0.027809951,-0.0076581077,-0.025463488,-0.030270912,0.10422866,0.07767141,-3.773939,-0.0018658324,-0.009404939,-1.1912743,-0.027279222,0.6848875,-0.016207088,-0.0011045395,0.096407466,0.13471542,-0.12586294,-0.09600483,-0.044042267,-3.3303401,-0.56393206,0.00402067,0.009334683,-0.08472195,-0.020514281,-0.028974237,-0.2852767,0.025389526,0.01740411,0.007984997,-0.30761945,0.07230874,0.030431982,-1.8741584,-0.039541714,0.023355588,-0.50932705,-0.007846145,0.43753952,-0.011092569,0.0037465405,-0.02941618,0.03149041,0.07269974,0.008347333,-0.038942736,-0.012538811,-0.10182474,-0.010234494,-0.10760293,0.119266026,0.015046295,-0.043137517,0.027655667,0.09979094,-0.0047656065,0.020868557,-0.27676156,0.02963646,0.03541877,0.09643926,0.103931226,-0.037841905,-0.0038338332,-1.8862616,-0.10798683,-0.026880587,-5.750047,-4.5940194,0.08133725,-0.014369537,-0.04512579,-0.009944266
-0.017080033,-0.26416692,0.024141772,-0.087376684,0.006051652,0.052337017,-0.2835834,-0.032013826,0.008575434,0.041984785,-0.028523203,0.0034790272,-0.023432538,-0.035504077,0.0061574997,-0.049322084,-0.0031746353,0.05560731,-0.058697425,-0.013182804,-0.053339373,0.04458884,0.0221515,-0.61873573,0.0028933603,-0.044062253,0.005434687,-0.05081226,-0.10505913,-0.10732018,0.013408707,-0.254411,0.0074766465,-0.044887006,-0.042765662,0.02779903,-0.0026662778,-0.009954332,-0.031318594,0.021697573,0.0039984407,-0.02410736,-0.057239216,-0.004705485,-0.008895053,-0.23040777,-0.021012766,-0.09590769,0.008686906,0.020936068,0.01545117,0.0039423644,-0.090777,0.021008233,-4.9709826,0.004931598,-0.00083161274,-0.02921202,-0.07642822,-0.0069878134,-0.021092068,-0.038964808,0.0038579723,-0.011275246,-0.09761775,0.029634705,0.020791152,-0.036590002,-0.033246476,-3.5311634e-05,0.024177745,-0.064897,-0.086459294,-0.07662397,0.037752185,-0.04665563,0.020398207,0.009592252,-5.9952035,0.06272104,0.08515056,-0.34971723,0.032035742,-0.009381076,-0.07077227,-0.0940628,-0.9219447,-0.13316527,-0.021095647,-0.07591894,-0.015169542,-0.019601496,0.0030932957,0.0010709865,0.004200403,-0.0027543118,-0.001348984,-0.05333544,-0.03487711,-0.064306274,-0.020740427,0.026404925,-0.07001057,0.0010807627,-0.03212499,-0.07895857,0.023005445,-0.010563007,0.016890222,-0.006364012,-0.08863531,-0.061215006,-0.041501176,-0.5399871,-0.004705427,0.021458369,-0.017661152,-0.15124892,0.0012660954,-1.4005746,0.0043280576,-0.019148974,-0.062234253,-0.1280955,0.028188884,-0.0017647853,0.0139593845,0.012279649
-0.043112557,-0.04404371,0.0034891278,-0.02809875,0.026404522,0.02757839,-1.3162035,-0.0794186,-0.007888366,0.1951613,-3.2619154,-0.022020806,0.17390361,-0.1030001,0.13375962,-0.01957591,-0.1408915,0.05636428,-0.07855409,-0.001928161,-0.03789497,0.010111029,-0.0008302891,-0.049246717,0.001042457,0.01691652,-0.09997613,0.03268301,-0.01656954,0.06200279,0.0013762054,-0.028313177,0.49494165,-4.5928497,-0.03153477,0.017497707,-0.024321385,-0.0043242634,-2.7724757,0.622561,-1.5937527,-0.014530388,0.12916054,-0.02030168,-2.4200504,-0.41793787,0.037427016,0.04073463,0.0065390565,-0.10176527,0.009983415,-0.05539303,0.014879793,-0.059191346,-0.21113713,-0.011962012,0.0029168085,0.1185487,0.10419547,0.2788082,0.13262607,-2.3222222,0.015965305,-0.013694691,-3.3702013,-0.08594803,0.28603998,0.007859371,0.034056738,0.4383187,-0.06407427,-1.1886214,-0.075765274,-0.012989934,-0.37188005,-4.0497932,-0.0070491536,0.020502001,-0.012650914,0.021996692,-0.042165417,-4.453107,0.056391127,-0.004477597,-0.013490625,-4.3523912,0.052390482,0.0108216945,-3.6959372,-0.045019917,0.012298628,-3.4142222,0.011065221,0.7479,0.053320207,-0.050294556,-0.045720093,0.027533313,-0.10757043,-0.0146135455,-0.0712189,0.024225457,-0.2707866,0.010124618,-0.08531942,0.07911607,0.005163336,-1.1635451,-0.019741768,0.34462816,-0.0038107538,0.03825063,-0.43532178,0.07875699,0.009673002,-0.22040519,0.22724153,-0.18437502,0.019467592,-1.3082427,-0.4682213,0.009226974,-0.91048926,-0.56389016,0.10352762,0.008027776,-0.18664104,0.027629573
-1.2762744,-0.2521068,-0.1051207,-0.7230105,0.09958327,0.22998405,-1.6652447,-0.40545416,0.0047572283,-0.019432632,-0.17096743,0.19949566,0.12118934,-1.2241877,-0.010354551,-0.64476424,-0.036679737,0.07980942,-0.051163144,-0.033120673,0.016316313,0.19298027,0.28790295,-0.88569695,0.014174219,-1.3618752,-0.01401653,-0.5715173,-0.63563216,-0.13854507,0.03055233,-0.09147637,-0.014409232,-0.34624168,-0.037094243,0.16685481,0.01246977,0.04567736,-0.29072544,0.0013693032,0.03816202,0.08487672,-0.15525751,-0.08888513,-0.06645915,-2.996652,0.013010943,-0.04729199,0.25808498,0.003491705,0.0832599,0.044464212,-0.060422454,-0.06269426,-0.092222616,-0.022825902,0.011027741,-0.03196539,0.01573546,-0.074499495,0.28529543,-3.08868,0.13838871,-0.6253142,-0.35426694,-2.5306263,0.04650972,0.037281737,0.057011347,-0.008935231,0.039224114,0.1033418,-0.17388703,0.032089204,-0.39731622,-0.73224556,0.027887776,0.00023634222,-0.04079548,0.35522068,0.2961477,-0.3091813,-0.4198608,-0.8457516,-0.24208066,0.020458821,-0.25607654,-0.85559696,-0.08695141,-1.161826,-0.011904895,-0.10332971,-0.08231835,-0.0385883,-0.009969227,0.18431127,-0.039022658,-1.8674994,0.09688673,-0.27474865,0.03998444,0.038232367,-0.069901876,-0.006186193,0.008896972,0.2376175,0.18679708,-0.07564984,0.08181925,-0.08258537,-1.1340592,-0.33232245,-0.07938678,-1.1424037,-0.83904415,-3.0997148,-0.11000155,0.5663922,0.02135188,0.031332623,-0.17663118,-0.06447412,-0.03658883,-1.0629658,-0.019654106,-2.9827402,-0.04258333,0.15799035
-0.025313476,0.062040187,-0.11435367,-0.060562328,-0.02025148,-0.046817806,-0.04211334,0.123845056,-0.105367556,0.03542754,-0.066842794,0.10706717,-0.054507345,-0.06379485,-0.016410403,0.06496797,-0.13320021,-0.051672183,0.028934227,-0.13931869,0.021714158,0.06935662,-0.13266456,-0.11522937,0.07357165,-0.10599939,0.046458114,0.03818593,-0.041609872,-0.105464354,-0.02288681,-0.105647914,0.041995455,-0.010400053,-0.11099087,0.10000266,0.110215865,0.089463435,0.0639082,-0.025657102,0.031565458,0.06403984,-0.058362436,0.056731444,0.07536204,-0.10900288,-0.046427287,-0.066416144,-0.09540936,-0.0041919206,-0.035887066,-0.06172897,-0.123045534,-0.06920681,-0.016476829,-0.011599977,-0.054882932,0.055671405,-0.028992634,-0.08784434,0.10995472,0.022438768,0.08289429,-0.13169894,-0.0041836575,0.08567379,-6.790053e-05,0.10539726,-0.063846745,0.052868456,0.10849084,-0.11164493,-0.12236666,0.10835202,-0.030364102,-0.009941126,-0.06639679,-0.07507085,0.013880715,0.07424101,0.06985516,0.06266919,-0.0972556,-0.101118535,-0.02956919,0.064066924,0.08118005,0.07370057,-0.061158657,0.07959294,-0.11953658,0.120647125,0.057603225,-0.07111699,0.06342954,-0.058127537,0.095466554,0.124110915,-0.0015040827,-0.07145038,0.07064382,-0.077376455,0.051776346,-0.017286029,0.00089224754,-0.048134215,0.041918166,0.010100075,-0.08311674,-0.11649095,-0.09702827,-0.12755436,0.0277605,-0.07695896,0.04985349,0.054157685,-0.058473505,-0.10615869,0.046474446,-0.051450513,0.036559124,-0.018889623,-0.11762585,-0.039605744,-0.012697033,0.010219673,-0.07139471,0.031439647
-0.0038908182,0.08497252,-0.017826492,0.0056818104,-8.000563,-0.5221698,0.017946878,-0.019967252,0.008588555,0.040900122,-0.23523211,-0.02968113,0.19688307,-0.1641029,0.052418623,0.02194618,-6.694771,-0.15488844,0.08408478,-0.00476831,-0.044251762,-0.10142651,-0.05762011,0.07029363,0.013292989,-0.15521093,0.020538272,-0.10751619,0.018015593,0.22236837,-0.0025184073,-0.017941538,0.07021786,0.1817703,0.042904172,0.013326818,0.011412176,-1.2727321,0.023358118,-0.020838875,-0.14678074,-0.1342427,0.33076507,0.017681258,-0.29362643,0.086864606,0.22431354,0.24537027,-0.020315692,-0.3790649,0.09248185,0.024031319,-0.077758074,0.0064712847,0.23821937,-0.0047105197,0.02936163,0.004871437,0.013711501,-0.042005166,0.27768815,-0.045437023,-0.98778886,0.1312362,0.057259258,0.08118768,0.28194824,-0.09431937,0.105452105,-0.021691607,0.13937725,-0.118539385,-0.14647284,-0.2351049,-1.7893574,-0.052354507,-0.18882926,0.014053033,0.11517575,-0.09814356,-0.051787592,-0.13395514,0.16443157,0.30753118,0.24419318,0.5034982,0.1952944,0.020430395,-0.16575201,0.08436042,0.0048549185,-2.6091611,0.029883107,0.10448317,-0.062489197,0.057815507,0.047033414,-0.01765797,0.04855022,-0.08226299,0.1578767,0.045938585,0.14406383,0.027704613,0.16435602,0.37659827,-0.07656107,0.0054467074,0.0050852597,0.050955273,0.034534663,-0.035376366,0.09383435,0.033165526,0.10985255,-0.013717666,0.041001476,0.045530975,-0.012044941,0.0012139091,0.13442571,0.10678858,-0.16281222,-0.5403139,0.0648163,0.04597721,0.014651267,-0.030166019
0.04104572,0.008196865,-0.2435214,-1.2582655,-3.2941399,-4.8066916,-0.1148921,-0.08267407,0.08974667,1.1684058,-0.037483957,-0.8002058,-0.009014621,-0.010893098,-0.5684124,-0.83733076,0.015430576,-0.91547364,0.05785808,0.033415724,-0.050450895,-2.2486002,-0.9409763,0.1690496,-0.012473063,-0.018780114,-0.9088266,-0.06612819,-0.07996846,0.11122566,-0.14372092,-4.2550044,-0.46469763,0.15490611,1.4669943,0.43235394,-0.0030539539,0.088367485,0.11483276,-0.4111335,-0.06969679,-0.059721917,2.250989,0.02274106,0.05855026,0.0020460724,-0.05171037,-3.0109177,-0.6633607,0.01970597,-1.1243771,-0.6253413,0.017010733,1.3142751,0.19107303,-0.0992706,-0.23452903,0.83993584,-0.23148657,0.32368502,-1.4080784,-0.007160754,-1.8492528,0.18094786,-0.032164566,0.1304642,-0.0070698587,-0.08192018,-0.06240461,-0.16809203,-0.00470578,-0.07051336,-0.037923954,-0.8640096,0.09413623,0.012279246,-3.1467338,0.06860886,0.032426883,-0.6948626,-1.0957401,-0.048566516,1.9282824,0.13805473,-0.10693842,0.11438572,0.0844375,0.93471813,-0.0038061647,-0.16720125,0.074225836,0.054370586,-0.089077935,-0.40324658,-0.51159936,0.17451428,3.0258222,0.063295566,-0.099505335,0.03200364,0.36650223,-0.7026322,-0.94440156,0.011907568,1.2464272,0.09012006,-5.8993855,0.0931095,-1.8423556,0.38434315,0.054922413,0.19252044,-0.4208886,-0.29955038,-0.5340142,-0.0758151,-0.30335093,-0.48112056,-0.053057402,0.031600382,0.14948288,-0.016402995,-0.007832848,-9.93614e-05,-0.19466205,0.16401565,-0.09846255,-6.416554
-0.6722062,-0.101693444,-0.07927019,0.1759912,0.7019621,0.3475759,-0.21973883,-4.997972,0.038127482,-0.4040784,-0.025654662,-0.26697513,-5.8208036,-0.19884524,-6.18949,0.015424082,-0.8249435,-0.53739643,-0.047611207,0.043233767,-0.8023021,-0.37560835,-0.037462775,-0.33887753,0.0076635983,0.26642957,7.1828675,-5.3781085,-0.5569213,0.014301648,5.991519,0.23086177,-0.9848077,-0.27480307,-0.55175257,-1.0491103,0.018182399,-3.6432128,-0.120500945,-0.67485005,-0.1982176,-0.21179336,0.3678561,0.21076846,-0.23647767,-0.11132666,-0.15570249,1.2236147,0.5384571,-2.6642694,-1.2524573,-0.016180543,-0.1269833,2.3141327,-0.28620532,0.01584117,-1.1974177,-1.1371505,-0.09510929,-1.0868392,-2.9255307,-0.049729627,-3.1875503,-4.189794,-0.20322977,-1.1132696,-3.2647643,-0.054185107,-0.111285985,-0.8907104,-5.268076,-0.41715878,-2.1500757,-3.2569458,-0.21290186,-0.17723332,-0.26598838,-0.033391297,-0.7884185,-0.11443319,0.94412434,-0.32919794,-0.85611075,-6.0432296,-0.34062868,-0.19836256,-2.899995,-3.441068,-0.19148053,-0.3345764,-0.071163125,-0.009542471,-0.8699294,0.669847,-0.4330753,-3.0711944,0.34751752,-3.0743074,-0.10701397,-0.10818957,-4.68402,-8.054798,4.37338,-0.034703374,0.2746273,-0.22834396,-0.30830142,0.0042848196,0.026922444,0.17973879,0.1951327,-4.482289,2.4565248,0.020863619,-0.12020555,-0.033085804,1.4901395,-0.3102616,0.010836894,-0.17432697,-0.46414924,-1.5276893,-0.0068674693,-0.010606416,0.12997758,-0.05170394,5.0280223,-0.7029465
0.030065477,0.09590064,-3.9794343,0.0016904287,-0.08651919,-0.5352852,0.0057013934,-0.057641435,0.12127889,-0.019314378,0.05064172,-4.204632,0.04149598,-0.053854626,0.033848636,0.023376776,-0.041918274,-0.56553113,0.0013768441,0.075610995,0.21584204,-0.27712515,-0.3698381,0.022295866,0.041691925,0.024949957,-0.15221919,0.05064242,0.09528912,0.0022007986,-0.05315909,0.1516603,0.054446835,-0.10031347,0.00683161,-0.941851,-0.035569564,-0.00038471966,0.067780964,0.02991979,0.1709019,0.2179617,0.0021913627,0.092282094,0.0833156,0.04514247,0.06014392,-0.18742435,-1.1528943,-0.072434865,-0.068755634,-1.1057599,-0.10762226,-0.91970766,-0.08401119,-0.24856938,-0.42283404,0.07086255,0.091957726,-0.018879628,-0.017682409,0.050591465,-0.14663367,0.06664185,-0.005522247,0.046214506,0.0936844,0.20380506,0.12747411,-0.0020153336,-0.32617405,0.07437487,-0.08861491,0.09993046,0.006590535,-0.014855704,-2.5703096,0.06552063,0.1379805,-3.9866424,-1.7330624,0.1489586,0.06751578,0.07928664,0.07746862,0.09133144,-0.073782,0.031292442,-0.009545078,0.0062183714,0.15618001,0.0094514005,-0.22293048,0.0284748,0.11826815,0.049757738,-0.038961325,-0.021742232,-0.0145140765,0.121313795,-0.4875774,-0.35856256,0.0040928936,-0.031228673,-0.44401416,0.2257689,-3.116401,0.122950666,-2.5796678,0.05109823,0.012520193,0.060603302,0.07938154,0.0602834,0.0044734064,-0.061079673,0.17279959,0.09837784,0.008881307,0.027814804,0.0049443175,0.00633131,0.229134,0.14766729,0.03412418,-0.015326447,-0.08864095,-0.20103309
0.3425108,-0.119601324,-0.6978392,0.37621796,-2.1775355,-0.92711014,0.1675939,-0.04002963,-0.011490309,0.015395496,-0.18450327,-1.4105116,0.02460007,-0.039116196,-0.018215751,-0.46188697,-0.14716876,1.5820134,0.07510777,0.006737966,0.34674588,-3.5565991,-0.33484867,-0.111223176,-0.011905492,-0.10706851,-0.20726685,-0.15039128,0.18869951,1.031543,-0.08528995,0.3476652,-0.01778973,0.36490843,0.013337174,-0.06401419,0.026050951,0.0067457166,0.060375426,0.016575174,-0.11376311,0.22779784,0.06292461,-0.104179434,0.41005898,-4.246486,0.07297333,-0.040639978,-1.3484597,-0.09953278,0.06490661,-1.3575455,0.04140109,-0.10969202,-3.3675325,-0.040322144,-0.27890074,0.05312502,0.056987904,-0.050509658,-0.02408559,0.06066305,-0.019452773,-0.038666632,-4.588838,-0.049750097,0.044119775,-0.6955094,-0.037984826,0.04562077,-0.88800454,0.02962265,-0.052039634,-0.61082727,-0.33357862,-0.12247859,-1.1100621,0.0036067283,0.22264771,-0.997881,-1.0198659,0.20075421,0.046887875,-0.0072805053,0.0026105847,-1.6665761,-4.420776,-0.07531825,-0.23227808,0.063320845,0.08986031,-4.375786,0.009176568,0.08982997,0.008705693,-0.021846596,0.12665594,0.32922223,-0.03788984,0.15783174,0.11758939,-0.03500754,-0.042429823,0.027136771,1.1741244,0.11367873,-9.247688,-0.15761006,-5.2583966,-0.11520688,-0.09143447,0.18897577,0.032328855,0.035884682,0.049860965,-2.9086509,-0.05279046,-0.17836045,-0.03407509,-3.8835492,-0.10962651,-0.14805672,0.13854718,-0.008980986,-0.10121136,-0.08278051,-0.06187615,-0.23059814
-0.05986124,0.19073167,-0.11234356,0.17054404,-0.062319748,-0.0899002,0.09490611,0.026730532,0.119916596,0.11405001,0.003540085,-0.29477808,0.091588184,0.042383093,0.18795346,0.07075993,0.037178516,0.21804567,-0.05063784,-0.04132078,0.10641132,-0.04704518,-0.0760894,-0.06566467,0.04525042,0.15050924,0.044303298,0.026581889,0.13076283,-0.03444018,-0.27705896,0.13905627,0.1344841,-0.015037419,-0.0013875265,-0.13138391,0.1260539,0.03886434,0.12470531,0.14577258,0.08383949,0.0073734424,0.015588324,0.040274106,0.058987133,0.032542467,0.04369764,-0.012112111,0.053167403,-0.002524928,0.2751342,0.12230854,0.10928287,-0.01688788,0.14065118,-0.4851427,-0.023085598,-0.03967792,0.02378304,0.069510005,0.22847988,0.05867926,-0.18060079,-0.029899465,0.036189627,-0.054181408,0.13002576,0.10123795,0.021182857,0.066522315,-0.01427166,0.14220147,-0.013410004,0.14725061,0.06075353,-0.17168146,0.051066592,0.08207666,0.03523162,-0.14410993,-0.062194865,0.037412234,0.055618115,-0.015971709,-0.116579585,-0.05256765,0.088306606,0.19737871,-0.10180795,0.12177955,0.10206708,-0.0049618254,0.036681317,0.19981374,0.12665962,-0.007057865,-0.21839298,-0.005165288,0.02675088,0.06568181,-0.08890544,-0.26946387,0.04742378,0.14905152,-0.078705296,0.1633269,-0.098166324,0.023189796,-0.4915737,0.14572677,0.1470402,-0.1309779,-0.017735938,0.17927623,0.26766694,-0.011888846,0.124300554,0.21655932,0.04463602,0.069967,0.040590588,-0.064537786,-0.002960843,-0.041332126,0.1265333,-0.045150854,0.04863091,-0.6063608
-0.11023754,-3.6661456,0.035786726,0.02586308,-3.6015122,-0.26556543,-1.1658549,-3.9339743,-0.0335045,-0.078192286,-0.12999813,0.06395418,-6.110966,-0.039546587,-1.7780224,-4.32521,-0.08152244,0.19659255,-0.051048186,0.018677734,-3.7848501,0.28970167,-0.3566616,-0.07848673,-0.009894945,-4.99542,0.79489005,-0.3890785,-4.3524995,-0.31887853,8.228021,-2.3008368,2.4213438,-0.46738294,0.40092582,0.2464678,-0.009062479,-0.2014209,-2.1045103,-1.0994664,-1.4421953,0.30826974,-0.48185888,-5.029489,-0.25175387,-0.0433379,-2.4822793,1.0575821,0.41176093,-0.062470764,-4.638778,-0.19437021,0.064530455,1.1835458,-0.12489875,0.0109877605,-0.13230778,0.6672708,0.097964115,-0.12893534,-7.371049,-1.9866247,-1.5370145,-0.1309043,-0.061074708,-0.16262199,-5.380629,-6.0549507,-3.153487,-0.24256375,-0.23281121,-5.4945607,-0.01754755,0.7647029,-0.22045153,-0.05573439,-1.4967444,0.01585531,-2.2238798,0.16859916,0.03268201,-0.18214163,-0.17445062,-0.25795114,-0.14212051,-0.13532902,-0.5643056,-2.1096182,-0.13907288,-4.1517577,0.0036264209,-0.09482919,-0.5950892,-0.5856532,-2.0109062,-0.05594596,0.8066664,-0.32161638,0.069987684,-4.449526,-1.286174,-0.036199823,1.3019619,-0.0006374163,-2.6132572,-5.8095756,-0.49531606,-0.1194401,-0.0401879,-0.34504554,-2.2081356,-0.014234426,0.79142547,-3.9630659,-0.39423764,-0.12136329,3.0672555,0.36708647,0.009819099,-0.042985447,-0.05179958,-0.08210576,-2.384226,-0.031796105,-0.71841866,-0.26148382,1.6393882,0.16145226
-0.66915286,-0.54563224,-0.08669073,-0.42532942,0.20446543,0.26644996,0.5156261,-1.825375,-0.06473256,0.090287074,0.19658045,-0.74663943,-0.63348365,-1.2145187,0.07007078,-0.971674,-0.14497256,-0.13765565,-0.041004073,0.04385462,0.063817084,-0.16745554,0.24138989,-0.5943332,0.017903503,-2.563554,0.0029773898,-3.3815408,-2.7174194,-0.3885765,0.24842025,-0.51703286,-0.066891216,0.0035962316,-0.01646718,0.3761788,0.04963125,-0.100961044,-0.1831723,0.048269317,-0.10748857,-2.0063596,0.11642747,0.0039818767,0.08924864,-0.29105347,-0.03211385,0.08612024,0.5623311,0.054638132,-0.022588393,-0.08625749,-0.06849862,0.0057953238,-0.3384643,-0.045210022,-0.014717145,0.01710557,0.02451083,-0.0046142126,-1.9432709,-1.4810137,-0.086208835,-0.58765495,-0.844095,-0.12268877,-0.03264469,-0.09061509,-0.8355281,0.0011856956,0.06735571,0.32706422,-0.29150346,-0.2889136,-0.4240904,-0.7866253,-0.040945727,-0.037507538,-0.35177174,-0.08625005,0.4997976,-0.35050425,-0.6452728,-0.3876247,-0.38395974,-0.12584846,-0.7356474,-1.5706961,-0.29108077,-1.0233186,-0.03215044,0.08930455,-0.14722985,-0.11244201,-0.08979394,-0.12772334,-0.03764805,-0.51206684,-0.12141093,-0.9574689,-0.015137435,-0.14887628,0.013701331,-0.034333248,-0.0044549783,-1.1957642,0.49197987,-0.16481405,-0.14133658,-0.1089216,-1.2424525,-0.6028982,-0.057184473,-0.8024831,-0.99897027,-2.7269776,-0.08276733,-2.1662924,0.053379912,-0.72212064,-1.0439893,0.41086823,-0.05249924,-0.33349094,-0.0771556,-2.2424722,-0.10323369,0.2786251
0.035025466,-0.021090252,0.006836336,-0.03467509,-0.53901684,-0.023019753,-0.1299282,0.15643527,0.021223543,0.042745266,-0.048401967,-0.028266137,0.033671305,-0.7998439,0.1632737,-0.019985337,-3.8347788,0.047240585,-0.062021885,-0.01627671,-0.027940173,-0.056167156,0.000991446,-0.04331791,-0.0021035988,-0.0057787634,0.09681582,-0.020359516,0.0089352885,-0.07399588,0.02174048,-0.056307737,0.038934708,0.3020001,0.11312606,0.0052137105,0.021944163,-0.5726568,0.11465362,-0.00010389158,-0.21753544,0.0036159584,0.21483935,-0.0005516898,-0.6076055,-5.6703887,-0.14050327,0.11059618,-0.04306962,-0.58675784,0.15543361,-0.06353219,-0.06356169,-0.04299905,-3.3217282,0.001266096,-0.010500688,-0.025344213,-0.18223727,0.060529422,0.0948133,0.06485853,-0.26327965,0.16631381,-5.8414817,0.11936999,0.4058333,0.034308832,0.13128623,-0.066618025,0.21728764,-0.11996917,-0.58047867,-0.30191648,-2.6092484,-0.2857378,-0.03836692,0.033197667,0.042686302,-0.01870421,-0.0017306678,-0.21503086,0.14946827,0.082538314,-0.05117438,-3.8939397,-4.5705943,0.031722546,-0.9025118,0.068616904,-0.0036235515,-7.2046223,-0.35356218,0.014753482,-0.071472175,0.047779042,0.023026548,-0.060063966,-0.12516023,-0.006509156,0.20053902,0.0058741313,0.20320381,0.023771388,0.13188143,0.2980511,0.012510018,-0.61441094,0.009053214,0.049286168,-0.17987482,-0.083947055,0.072929636,0.0069941077,-0.018383812,-4.082606,0.013346677,0.11176388,0.0301322,-4.6262946,-0.08788282,-0.15310672,-0.08057407,-0.10644064,0.079581544,0.4063007,0.0965137,-0.049900267
-0.12256812,-0.10506612,-0.08291561,-0.11096007,-0.11810091,-0.0908615,-0.100152954,-0.101288125,0.011516094,-0.10340479,-0.11819959,0.029091924,0.02542128,0.11519797,0.033154935,-0.120918475,-0.11264217,-0.09099585,0.12432805,0.094049364,-0.00034098316,0.124474764,-0.102474906,0.02766648,0.008580714,0.021945342,-0.051096346,0.11029782,0.10020761,-0.07310606,0.081002235,0.029892832,-0.015558159,-0.04750786,0.08512682,-0.09174693,-0.002393484,0.098426476,0.047887836,-0.0898352,0.10365336,-0.07359413,-0.08507478,0.009792829,0.10424773,-0.09465396,0.07440019,0.07332811,-0.105350524,-0.09619457,0.09764647,0.053148184,0.007839143,-0.009259677,-0.107044786,0.07718253,-0.10411369,-0.098822266,-0.054862294,0.088906586,-0.024865277,0.121539734,-0.1115363,0.07999713,-0.09915209,-0.09980476,-0.055288088,0.07253066,0.06708359,-0.115752876,0.0771094,-0.09410269,-0.008798242,0.1200855,0.03732581,-0.069824345,-0.097235136,-0.01511858,-0.088205904,0.09014666,-0.016705677,-0.073151015,-0.10354105,-0.07830278,0.106943786,-0.0032799647,-0.08313683,0.02006945,0.04248644,-0.03645578,-0.08633905,-0.10080689,0.024667341,-0.07435626,0.10114068,0.042792052,0.112181276,-0.020369181,0.013936968,0.06979482,-0.09709579,0.09065634,0.03187993,0.08013079,-0.014615893,0.0803068,-0.042367667,-0.03306945,0.013068259,-0.020485938,0.099054605,0.0015766467,0.101981014,0.109026186,-0.07240879,0.042304903,0.07428616,0.07796377,-0.0076492643,-0.07709919,0.01011036,0.041315857,-0.0113520445,0.08625533,-0.08559263,-0.072921425,-0.117708355,0.07878263
-0.16991404,0.089058176,-0.13669735,0.055347275,0.1373426,0.25507376,-0.031397466,-0.019988962,-0.018867249,-0.1066254,-0.11740201,-0.2526304,-0.030784564,-1.8936781,0.17892292,-0.09722993,-0.5585996,-0.10731371,-0.021701515,0.021391455,0.07461206,0.24551293,0.11633281,-0.35192984,0.015599203,-0.053365875,0.03405396,-1.300504,0.25511527,-0.7115822,-0.035901684,0.06695821,-0.06572063,-0.022793636,0.15002774,-0.008369249,0.019032922,-0.18462011,-0.11168406,0.014093707,-0.17657761,0.17378783,0.030457545,-0.08907896,-0.29192212,-1.5087706,-0.40475962,0.28714097,-0.49685615,-3.740151,0.12383633,-0.2658771,-0.061868314,0.13255253,-3.2781913,0.024079207,0.08105413,0.00071669836,-0.6677,-0.0096630715,-0.0985158,0.10856946,0.19529252,-0.19447617,-1.3509043,-0.10658037,-0.18353799,-0.0094479015,-0.16650523,0.008928637,0.14428657,-0.10655007,-0.7859018,-0.25880447,-1.6493165,0.013411015,0.034988534,-0.008905005,0.18874513,-0.26195404,0.025546784,-0.045037832,0.16847146,-0.18318564,-0.900353,-1.6068009,-3.48584,-0.03354197,-0.0067668264,-0.019117536,-0.0023658695,-1.1345359,0.52925575,-0.04688747,-0.014159163,-0.038263373,-0.043727174,-0.2259,0.0017906718,0.11204939,0.12004654,0.09064905,0.08218977,0.007126831,-0.025672765,-0.052612823,0.07626803,-0.15056974,-0.22362049,-0.06243012,-0.14429992,-0.1528341,-0.082099915,0.09531771,0.04034413,-2.1080925,0.008685859,0.0018741385,0.031013876,-2.2459316,0.024093118,-1.816016,0.015623451,0.3876689,-0.025092224,-0.5875997,0.028438998,0.09646881
-0.104600534,-0.10972555,0.16796845,-2.013535,4.813856,2.0437822,-0.27069274,-0.06118524,0.013331355,-0.059513107,-0.13240564,-0.30132338,-0.22352472,-0.27591127,-0.94490737,-3.381771,-0.15555267,-0.41898438,-0.13699025,-0.011384727,-0.18937208,-1.1136609,2.1193612,-0.080623806,-0.011849191,-0.11238663,0.24593814,0.014008722,-0.097303286,-0.13494006,1.5558869,-2.5045195,0.8900975,-0.09099147,1.3408322,0.83899677,-0.004635486,-0.02603509,-0.05019329,0.179552,-0.18629162,-0.12005815,-1.4806887,-0.19489478,-0.19054762,-0.03106663,-0.07639479,1.7840667,1.0530078,-0.081467256,-5.0460734,-1.9011177,-0.066164136,-3.8489256,-0.19616598,0.021134334,-0.4103119,0.4018912,-0.35780343,0.28493404,-0.5284416,-0.00541955,0.16035387,0.027548363,-0.18323529,-0.09328761,-0.1129549,-0.004030685,-0.009315185,0.8698475,-7.903112,-1.9361206,-0.0077148774,-8.062434,-0.2552747,-0.1664317,0.39679122,0.022219617,-0.037391882,-1.2633193,1.9541278,-0.021918872,6.965413,-0.094564036,-0.06429242,-0.08135273,-0.13288565,-7.1586757,-0.138932,-0.20828052,-0.07370911,-0.1588248,-0.14401257,0.7072819,-1.8633037,-4.436631,-2.7034793,-0.16354303,-0.026850348,-0.199921,-10.863746,-5.469171,-2.1305556,0.049638543,0.7439923,-0.15574971,0.042715844,-0.09066658,-3.4482105,0.7221494,-0.23228149,-0.17653212,2.3157682,-0.5376436,-0.23798358,-0.006348526,-0.33421293,-1.4109863,-0.0047898646,-0.08379661,-0.22872327,0.022119556,-0.22882642,-0.090497054,1.2339747,-0.18352105,-2.1855655,-0.29310358
-0.82470083,-3.4804018,0.0048409556,-1.188481,0.15912853,0.12215174,0.114567176,-0.16680352,-0.029064957,0.02609188,-3.84867e-05,0.23340091,-0.052038487,-0.09587207,0.061493162,0.13495855,-0.118846595,0.20043258,0.061511807,0.007704193,-0.31740424,-0.09091156,0.2605309,-0.48675084,-0.004630771,-0.5001465,0.035978135,-0.21918476,-0.28671005,-0.028683817,-0.050285753,-1.0729805,-0.030583499,0.03641674,-0.003366894,0.05949883,-0.00796921,-0.017418569,-0.22100133,0.022230247,-0.14460474,-0.36662853,-0.10246553,-0.019711059,-0.021985829,-1.5740321,0.008207097,-0.09723971,0.06917475,0.019086374,-0.104738615,0.019038144,-0.07522783,0.15803586,0.55749947,4.3714856e-05,-0.0071352078,0.0018138469,0.07341449,-0.035106108,-0.012419776,-0.17361155,0.14958073,0.20184878,-0.4183297,-0.060330003,0.08744897,-0.054670412,-0.14856967,0.04924958,0.09999392,0.12918755,-0.2533645,-0.91744417,-0.44057062,-0.07720149,0.019355984,0.0022600633,-1.8767419,0.17149448,0.09593059,-0.6885659,-0.16243069,-0.04042144,0.15296446,-0.31951058,-0.29309708,-2.3028703,-0.113313206,-0.13023628,-0.003416953,0.14826845,0.07592163,-0.034199104,0.14942558,0.009499599,-0.09963138,-0.112165235,0.028448217,-0.6240652,-0.01809701,0.1292306,-0.054117598,0.0001956706,-0.015920939,0.20037952,0.03657143,-0.011770848,-0.037319545,0.02022618,-0.22470906,-0.17956065,-0.108581714,0.089225285,-0.30541146,-0.35220194,0.013632185,-3.863938,-0.010369492,-1.7435277,-0.0013901843,0.1059857,-0.21874608,-0.70017785,0.02919396,-0.17834237,-0.03423904,0.013630516
0.1826577,0.053507864,-0.5052253,0.13148125,-1.0938699,-0.1831349,0.10189659,-0.053715356,0.13687088,0.12348009,-0.10265132,-1.1217052,-0.082266584,-0.06583846,0.082923934,0.04910098,-0.51895547,-0.011920686,0.04851265,-0.0048105996,0.06367676,0.10976863,-0.36063275,0.022771994,-0.021620467,0.17413263,0.0016076898,0.09212211,0.11845445,0.22621237,0.009297004,0.09763517,0.037046008,0.018927552,0.034282353,-0.046925656,-0.040449705,-0.21897464,0.17448886,-0.033286974,0.3058756,0.049211692,0.25479713,-0.007098126,0.11021086,-0.12564936,-0.16671258,-0.040927745,-0.08307805,-0.14725901,0.05420346,-0.030917639,-0.07395332,-0.10808072,-0.030314399,-0.2696852,-0.6461604,-0.015333141,0.03862879,-0.080350384,0.12313923,0.054547388,-1.9829634,0.11057577,-0.07437603,-0.038709216,0.08282754,0.08689601,0.09505104,-0.011811027,-0.28423157,0.06915937,0.05503722,0.16548985,-0.3349617,-0.055313207,-0.8349619,0.0011223792,0.029224385,-0.73315907,-0.01590399,0.18781766,0.2887031,0.23750041,-0.07427711,0.02111083,0.18313552,0.20731972,-0.35818523,0.047470145,0.06578958,-0.14126971,-1.0609342,0.034952972,-0.010961829,0.106386505,0.10808427,0.20182587,0.029581292,0.014233445,0.038726665,-1.9058295,0.06727285,0.095018476,0.3358011,0.24018349,-0.027691219,-0.13191621,-1.4156247,0.034007866,0.04482662,0.15691666,0.003881157,0.0635291,0.14243825,0.079225935,0.049681142,0.10318038,0.017363794,0.020509686,-0.17233025,-0.14238656,0.14054757,-0.036529772,0.037293255,0.066547416,-0.031153131,-2.643986
-0.014490569,0.20612518,0.030689703,0.04057154,0.07158294,0.05531013,-0.02873418,-0.21167511,0.07860564,-1.8550907,-0.014136239,0.013891318,-0.98195904,0.026906192,-2.1653504,0.08421741,0.08885166,-0.07180825,-0.0005527782,-0.034838572,0.18103756,-0.059341863,0.018375074,-0.10945639,-0.0055133477,-0.002433089,0.016288046,0.09733771,-0.01919771,0.0029576903,0.021482825,0.08424912,-0.3707759,0.0024689,0.26432678,-0.033157833,0.017583303,0.14984953,0.030379822,-0.28330535,0.011809728,-0.007082605,-0.11442159,-1.0190752,0.016130818,-0.18473281,0.008204037,0.14447619,0.028857812,-0.03137523,-0.09747056,0.002319589,-0.030788489,-0.37623397,0.07370825,0.011505535,-0.23593992,0.2738823,0.060180854,-2.0217178,-0.59157574,-0.042932313,0.012766068,-0.18287583,0.0031585628,0.021133903,-0.054099414,0.10356597,0.053894345,-0.13679892,-0.3087349,-0.026193254,-0.068560876,-0.082824074,0.06796233,0.08704539,-0.031739473,0.0273051,0.0323225,-0.008557005,-0.039673008,0.052896038,-0.18897401,-0.23961487,0.004283632,0.009179288,-0.0621268,-0.050864976,0.03869662,-0.075877465,-0.028820587,0.11287719,0.033897847,-0.22758463,0.08550797,-0.22973366,0.04148691,0.07540447,0.023692902,0.09276684,-0.13274641,-0.09346969,-0.28444925,-0.006748372,-0.016797205,-0.41229463,0.009373041,0.15346496,-0.030271601,-1.9249983,-0.049592607,0.026202694,-0.04167945,-0.023179226,-0.27642998,0.07975257,-0.015975313,0.10021312,-0.077500604,-0.027521254,-0.15039471,0.030446475,-0.045800555,-0.047578443,-0.32674393,0.14852694,-0.041808866,-0.048517782
-1.1781807,0.062537976,0.01901439,0.11636845,-0.95322204,-0.066863194,-1.2347407,0.02633163,0.016899839,-0.21518165,-0.43824834,0.009312807,-0.9456432,-0.37997124,0.057489943,0.072875805,-1.5407645,0.1208555,-0.10389662,-0.009084204,0.21947248,0.034411747,-0.014677487,-1.3839705,0.008601943,0.17696318,-0.032830503,-0.60577977,-0.052093104,-1.3107657,-0.016043318,0.12108704,1.1023499,-0.41763625,0.05817854,-0.087800734,-0.0071418313,-2.643698,-0.19817862,0.18477495,-0.36426947,0.017826896,-0.10460301,0.006658608,-0.26784998,-0.23581785,0.012940669,-0.061374784,-0.053102415,-2.1993454,0.13279018,0.011047587,-0.033241134,-0.06771406,-0.36729243,0.014726241,0.026653424,-0.15103702,-0.37883702,0.9674399,-0.20309383,-0.55994487,-1.2341411,-2.358357,-0.3366109,-1.5688297,-3.1343327,0.31240347,0.13963708,0.8642061,-0.89775175,-0.16871743,-0.4227078,0.1433868,-0.34470946,-0.28842393,-0.044646267,0.01992677,-0.29760057,0.0053387806,-0.031808257,-0.15018915,0.07517494,-2.0397053,-2.2356594,-0.3168188,-0.013423763,0.03460575,-0.6558823,0.026825149,-0.0076082065,-0.1794596,-1.0944972,-0.47649482,0.08360122,-0.048324738,0.11251247,-1.7143385,-0.035701714,0.091565594,0.13757455,-0.10056988,-0.645002,0.004149295,-0.014475236,-0.26368558,-0.024237866,-0.44074902,0.011068803,0.28904065,-0.5860785,-1.9486548,-0.06725337,0.043180466,-0.015264093,-0.13189664,0.21446946,0.116420075,-0.0023617104,-0.12480584,-0.86846155,-1.6515558,-0.4618049,-0.18435009,0.680641,-1.3791133,0.24227473,-0.30670205
0.061510798,-0.13985845,0.20587508,0.072142534,0.055488087,-0.040520556,-0.012974225,0.08732362,0.029020537,0.062003676,-0.0074348566,-0.11089394,0.13916492,0.054129373,-0.09520594,0.024093322,-0.036949094,-0.06839842,-0.07423622,0.07705437,0.008461443,-0.0878457,0.22719541,-0.027785975,0.019080702,0.05338377,0.01147067,0.058101166,0.020681925,0.016769957,0.13026364,-0.00016244745,-0.058867104,-0.075668566,-0.014276713,-0.04734218,-0.080288805,0.03737557,7.5991746e-05,-0.12659068,0.080151565,0.089163944,-0.05973139,-0.1593823,0.0721221,0.048406027,0.10776241,-0.10770725,0.1653585,-0.083563335,0.035001308,-0.07322455,-0.04815847,-0.072371975,0.052992966,-0.13433805,0.0032322062,0.10312966,-0.121706635,-0.103253186,0.025603548,-0.05458254,0.044026278,0.16195755,0.08310147,-0.09867005,0.0643808,0.03626179,-0.053423293,-0.4038718,-0.30368423,-0.01553959,0.056051712,-0.0072229644,0.02497726,0.029642124,-0.08328793,-0.051816486,0.007008478,-0.10614307,0.17007418,-0.015373671,0.08155382,-0.04755017,0.027963664,-0.11549117,-0.027765037,0.18340981,0.026736436,-0.023221329,-0.0404783,0.030621791,-0.041900426,-0.20181736,0.032580417,0.0041927365,-0.060010724,0.0075949193,-0.121146634,0.063560344,0.13138454,-0.10687245,-0.04377174,-0.04867171,0.14830656,0.09225845,0.1559326,0.116639666,0.1092182,-0.04124716,0.05537867,0.06125359,-0.011090014,0.047732316,0.02430215,-0.14254701,-0.033227336,0.051522903,0.068669595,0.0059894947,0.027444124,-0.020425627,0.0655909,0.0799735,-0.14529169,-0.0663908,-0.101025894,-0.4441699
0.046523754,0.041699417,0.014247201,-0.05700735,-0.004140971,-0.0028831137,-0.30096096,0.020080611,0.004116285,0.06492735,-0.17848481,0.011051414,0.0017808343,-0.045668878,0.09170234,-0.027553005,-0.03183254,0.11152263,0.024107609,0.0008489223,-0.13179316,0.0070182593,0.048258886,-0.37349817,-0.0024206098,0.035192247,0.014463183,-0.099230535,-0.21123807,-0.097283766,0.028651062,0.016193975,0.024411095,-0.05864254,-0.033777278,0.028451614,0.018643597,0.008984464,-0.17481482,-0.024723306,-0.16906498,-0.042180963,0.21572134,-0.049599476,-0.018280623,-1.8052369,-0.08248563,-0.16447827,0.02371914,0.06840941,0.04662803,0.060928684,-0.05835815,0.084791094,-1.2596326,0.02204301,-0.012213585,0.056938373,-0.1828095,-0.017374998,0.09359518,-0.17246348,0.041821912,-0.011107501,0.10745774,-0.04919551,-0.0064606643,-0.047234137,-0.09083694,0.016193625,0.007118882,0.026952308,-0.08931969,-0.059619434,-0.36117718,-0.18632942,0.027295932,0.004927908,-1.1015413,-0.0069051157,-0.02414923,-0.12121635,0.23543397,-0.014921046,0.004412496,-0.07966932,-0.19439152,-0.102997676,-0.10473801,-0.042908896,-0.013683261,-0.10305051,0.002222498,0.022809256,0.00808874,-0.0037403987,0.07067522,-0.11220324,-0.15668899,-0.016730998,-0.0042779525,-0.022179818,-0.07923139,0.016908726,-0.07528773,0.058616113,-0.028300602,-0.1049116,0.009169383,-0.05708125,-0.0612788,0.11765727,-0.03568992,-0.14019673,0.01449214,-0.023782013,-0.016347732,-0.2525493,0.0009776935,-0.62466174,-0.0564097,-0.093704,-0.33209768,-0.5871765,-0.011309405,-0.031030646,0.007968183,0.023351248
0.026442809,-0.041028846,-0.011785238,0.030101143,-1.1685648,-0.12820983,-0.05823068,-0.039456762,0.00076664274,0.15205698,-0.07854754,-0.07055774,0.1097446,-0.18687785,0.0784723,-0.0076404125,-3.0609822,-0.0066117314,0.015104021,0.00039358472,-0.050396044,0.05396062,-0.009489654,-0.06862561,0.00017898192,0.0059929634,-0.045812722,-0.010125683,0.10707424,-0.0022172632,-0.11138809,-0.026665859,0.054329574,0.021808133,0.026786003,0.0026938855,0.026012516,-0.27931383,0.110526465,0.008659218,-0.2890279,-0.0440952,0.13548927,0.06143116,0.17067738,-0.9403435,-0.49053574,0.4161249,-0.29750714,-0.82424384,0.0023801045,-0.13563825,-0.12081417,-0.061606303,0.07809399,0.029684393,-0.08603752,0.070034474,-0.4986436,0.055114057,-0.0178083,-0.31509295,-0.6895904,0.08657103,-0.011985259,0.012414951,0.07077516,0.15120079,-0.049016006,0.07927667,-0.021575583,-0.11075992,0.13785192,0.02454837,-5.606088,-0.27550414,-0.05149798,-0.012859206,0.1035886,-0.1369536,-0.06127563,-0.057315815,0.09348096,0.019590825,-0.026232176,-0.03397592,0.028119948,0.05902766,-5.7604733,0.03966424,0.005074109,-0.28320566,-0.14098205,-0.05288301,-0.07437242,0.022351291,0.023092758,0.013217664,-0.0529889,0.018564329,-0.09186338,-0.07448622,0.0802891,-0.0337907,-0.09983457,0.049649183,0.018956799,-1.2970157,-0.3115469,0.085750304,-0.037550498,0.04500348,0.057663612,0.071320035,-0.051388368,0.13394333,-0.019598285,0.06612004,0.053392477,-0.07012079,-0.13837464,-0.06583186,-0.1932578,-0.458825,0.05841474,0.09548842,0.010224924,-0.13160902
0.057096448,-0.13363843,-0.059351254,0.14900105,-0.046816815,-1.0097097,-0.009034868,0.3427613,0.033381388,-0.015576749,0.16980024,-0.1149739,-0.012644971,0.053446285,-0.0029764017,0.10374943,0.054348167,-0.71210563,-0.01076374,0.0071926517,0.5722467,-0.3386806,-0.13609526,-0.0027699121,-0.00414544,-0.14932966,-0.06683534,-0.19805618,-0.02357374,-0.08571788,-0.031033348,0.21645108,0.029057154,0.06329506,-0.03309444,-0.42858306,0.040738985,-0.04595603,0.051695906,0.03423175,0.014909465,-0.042889427,0.028471418,-0.0011463006,-0.039157197,0.013656452,0.042268332,-0.016367253,-2.778411,0.007285751,-0.042363673,-0.089107804,-0.01701541,-0.26890692,-0.04766211,0.092757784,-0.121699415,-0.02895981,-0.13064228,-0.0162121,0.06743064,0.063835286,0.017069373,0.015542867,0.0449285,-0.121088475,0.022114223,0.18213625,0.23044692,-0.046452634,-0.076125205,-0.11797615,-0.03673279,0.12899265,-0.01008104,-0.001228575,0.07875425,-0.042965546,0.04837181,-0.18266435,-0.5278203,-0.03242111,0.12747568,0.009113813,-0.004204336,0.13728808,-0.15637991,0.042530622,-0.10130601,0.04044171,-0.041433573,0.18902257,-0.099688955,0.021979477,0.11241564,-0.032415234,-0.12078786,-0.08277911,0.043853503,-0.07761507,-0.32913354,-0.19009636,-0.04109477,0.0716827,-0.21746089,0.13560268,-0.17759475,0.024958992,-0.1539299,-0.044559218,-0.054327164,-0.039185937,-0.0110476455,-0.21428722,0.012386816,-0.010767699,-0.029337903,-0.0841646,0.021095695,0.04081913,0.037193947,-0.1695556,0.10687832,0.19934866,-0.064713284,-0.10313149,-0.062184356,-0.101404
0.024027634,0.064732656,-0.027827378,-0.10838122,-0.19221625,0.06975284,0.01793441,0.066150956,-0.012586586,-0.12917487,-0.093095854,-0.02017215,0.023680462,-0.039914325,-0.021649603,-0.11584492,-0.027374292,0.09853072,-0.070994645,-0.07861285,-0.08552063,0.04344241,0.06578842,-0.03793492,-0.0057691173,0.06518606,0.03585322,0.014043063,0.014378418,-0.021832716,-0.050805893,-0.025774434,0.09983687,0.076956384,0.04659918,-0.049691472,-0.09086385,0.09567289,-0.038633805,-0.06300706,-0.021401122,-0.023856873,0.066401176,-0.056924894,0.11614903,0.02874042,-0.02815566,-0.057223637,-0.10964907,-0.108546294,-0.12174415,-0.046889793,0.005378525,0.10619471,-0.015369546,0.010318991,0.06379411,0.08628305,-0.004644956,-0.043131266,-0.026848925,-0.04079487,0.042827405,0.084247254,0.00934987,-0.04983718,-0.034740083,0.07496829,-0.06648903,0.012991607,-0.017729968,-0.048945405,-0.10816724,-0.096527494,-0.13037719,-0.017816572,-0.07469706,-0.13068707,-0.015711293,-0.08533712,-0.120369755,-0.11376265,0.0805013,0.07665619,-0.07956447,0.021171374,-0.033246104,0.0011956136,-0.0654293,0.09439063,0.03298673,0.0067493375,-0.008169336,0.05719062,0.100315355,0.084462725,-0.12460223,0.08951201,-0.06651572,-0.0847586,-0.02127696,-0.09678787,-0.06491776,-0.057491876,-0.021840729,-0.02839702,-0.06987675,0.055208147,0.047015876,-0.0004152832,-0.033637244,-0.09006315,-0.058996238,-0.030153552,0.037421346,0.07092025,-0.07085898,-0.16271542,0.011170057,-0.015600621,0.05861484,-0.062039126,-0.0051943716,-0.06320303,0.061814282,0.052880406,0.061462235,-0.050562326
0.067026876,0.10480164,0.15569828,0.06797846,0.111266084,0.0053586746,0.09049411,-0.045604885,-5.1293435,-8.578413,0.023851411,-0.067251086,0.07212858,0.044344902,-0.07367116,-0.07182972,0.008710339,-0.23395967,-0.03571713,-3.8876495,-0.025282212,0.025525982,0.06633082,-0.058546767,1.0877587,0.05729,-0.09844078,0.022764431,0.020866115,0.017115643,-0.030747268,-0.03829532,-0.07507296,0.06852907,-0.021324867,-0.052589763,0.9603208,-0.0037970426,-0.07421781,0.040321477,-0.22586474,0.05022378,0.07012303,-0.0020697534,-0.09309273,0.062497973,-0.5516178,-0.018258754,-0.004133955,-0.013460307,-0.050560657,0.09646763,0.00568389,0.045307837,-0.0070951968,-5.2408485,-1.336504,-0.048507668,0.025863038,-0.048357874,-0.0757108,-0.042939883,0.004650826,0.03360484,0.054333817,-0.046696123,0.0039786138,-0.10412842,0.02852263,-0.1041124,0.07130114,-0.08639704,-0.027660027,0.06277099,-0.04582799,-0.03713697,-0.024613565,-2.5522115,-0.0126587255,-0.026442317,-0.042697784,-0.16371357,0.042678323,-0.049506184,-0.015108243,0.04296733,0.08196469,0.0344164,0.02351877,-0.00252203,0.6507888,-0.022770714,-0.09042695,-0.11047425,-0.11381806,-0.074123845,0.019995632,-0.09124627,-0.1348976,-0.10458365,-0.027809402,0.041712154,-0.07956596,-3.0442266,0.041674268,0.009887909,0.0042597516,0.033830803,0.08619294,-0.008599717,0.056222312,0.16443479,0.047724843,-0.00300878,0.05511119,0.08496786,-0.11379861,0.16024661,0.90081465,-0.0042477166,-0.12407385,-0.0025490744,-0.16156423,-0.02187441,0.029709307,-0.0295149,0.011487716,-0.035450034
-0.10732298,-0.8625848,-0.034617383,-0.39574555,0.3868268,0.59810644,-0.6235795,-0.97656626,-0.020820798,0.18908189,-0.22109912,-0.075200595,-1.2797227,-0.027325064,0.08974777,-0.12225,-0.09014554,-0.202647,-0.075595476,0.019029198,-1.1797594,-0.549435,0.38834894,-0.15939201,0.0051160874,-0.74241316,0.6342086,-0.22516875,-0.6494527,-0.27562985,-0.75202173,0.09811753,-0.18661553,-0.0864244,0.34852985,0.11493808,0.007906434,-0.19531518,-0.41234127,-0.044048022,-0.6632373,-1.0770439,0.62744015,-1.3249042,0.0026921518,-0.11948774,-0.65806955,-0.48032448,0.1466198,-0.05840755,-0.37263155,-0.09220696,0.07991582,1.525002,-0.116155714,-0.0069661317,-0.05860402,-0.5992059,-3.2178364,-0.031310357,-2.1328747,-0.52522826,0.07063415,-0.2195312,-0.15140179,-0.18066035,-4.7085423,-0.62145686,-0.9119331,-0.10518253,0.020882376,0.7362972,-0.12904632,-0.99916285,-0.124893166,-0.1391913,-0.0007274868,-0.0047011077,-0.38076505,-0.036171384,0.24346635,-0.20407228,0.07442223,-0.18208323,-0.12558565,0.009907519,-0.3314203,-0.07959884,-0.20232993,-7.887278,-0.013511374,-0.16549046,-0.9159806,0.3655228,-0.4741628,-0.023780925,0.3975634,-0.21852869,-0.040662263,-0.64487344,-0.032837797,-0.0996977,1.4317319,0.00096305873,0.04873128,-0.8138636,-0.039961573,-0.059156355,-0.052959748,-0.023223631,-0.56092286,-0.23807012,-2.6417434,-5.6238165,-2.653437,-0.15984643,-0.23041649,-3.0140529,-0.0029539692,-0.09353441,-0.12441725,0.0051485756,-0.6758651,-0.1585569,1.210059,-0.36543953,1.0144156,-0.26637647
-0.08604886,-0.057977352,0.22986205,-3.4528883,0.2288721,0.10124531,-0.15183851,0.17551672,0.248665,-0.057708714,0.010770695,0.5538563,-0.06619381,0.63611925,-0.2434558,0.13418794,0.09987209,0.0009748717,-0.08740123,0.118261404,-0.03805995,-0.08614965,-0.10139072,0.027480308,-0.0122676045,-0.8478509,-0.07238943,0.103766955,-0.0111078145,-0.26470062,0.00016857016,-0.046055824,-0.22366336,-0.5045673,-0.14394055,0.099861264,0.054890163,0.41144145,0.32344937,-0.13171734,0.24858385,-0.5578361,-1.7429665,-0.12717144,0.0023851935,-0.0062509994,0.34312606,-0.0022996697,0.22049077,0.18033126,0.08099835,0.23590648,0.08495422,-0.046683777,0.976991,0.41820168,0.3298618,-0.039423056,0.4051647,-0.34125972,-0.008858509,0.08940434,0.20380245,0.23870824,0.1394216,0.22675493,-0.24053189,0.04715048,0.19199066,-0.14483066,0.12904562,-0.13922119,0.021147728,0.23271976,0.89213246,0.41420698,0.06591526,0.1982498,-0.28112185,-0.11839795,0.10713969,-0.15702331,-0.26271483,-0.44076777,-0.0668399,-0.15107319,-0.16352737,0.1669707,0.4641856,0.049879618,-1.8807195,0.28279543,0.7245692,-0.17798762,0.06733371,-0.8388866,0.06694116,-0.28380322,-0.09353227,0.121387705,0.1676389,0.08582291,-0.1231089,0.43356878,-0.14060105,-0.18273811,0.016891161,0.72636855,0.32480344,-0.9677424,0.21944296,-2.0565217,-0.015544969,-0.12439014,-0.34599903,-0.098462485,-0.124971256,0.19377546,0.023429971,0.098850004,0.08617426,0.1613618,0.0904875,-0.1744997,-0.24756539,-0.37217444,-0.13099065,0.12168172
-0.058581077,-0.027557878,-2.5280962,0.16312334,0.08649384,0.42949274,0.13706297,-0.2325398,0.099759266,-0.055948842,0.069731325,-1.9480922,-0.02024114,0.034056537,0.029433765,-0.06442958,-0.26529992,0.39333966,-0.08404509,0.028137648,-0.0625831,-0.04038975,-1.1036065,0.15829515,-0.16130887,0.07685937,-0.18104333,0.024370868,-0.02869671,0.15636517,-0.05801639,-0.021737147,-0.0055723684,0.057266567,-0.058627233,-0.58142155,-0.1121138,-0.23521546,-0.16819124,0.08161196,0.32849622,0.17753096,0.145446,0.18687281,0.19367355,0.12042976,-0.0004442656,-0.06772819,0.51599693,0.10694392,-0.6427057,0.17442505,-0.12273037,-0.045757692,0.1749748,-0.34639445,-0.9766256,-0.020443343,0.18970442,0.013917279,0.011452456,0.027983963,-0.32368842,0.2591416,0.1938169,0.12821607,0.03150491,0.17798357,-0.07609103,-0.13977294,-1.4124956,0.29555485,0.018068813,-0.06580041,-0.12268589,-0.11954307,0.33569574,0.17642884,0.029072512,-0.4250161,0.8965442,-0.13546723,0.23938014,0.21766196,0.13299742,0.30673578,0.0051137446,0.2504718,0.015692106,0.09225666,0.31541523,-0.063254334,-1.6847687,-0.0467643,-0.19433178,0.29431877,-0.22609763,-0.0124982,-0.035947863,0.10969272,-0.117124625,-2.7198403,0.14917901,-0.10359966,-0.81174463,0.030732041,-1.4135671,-0.21149151,0.09964101,-0.15012689,0.046828546,0.06806383,-0.01318145,0.15005802,0.121209525,0.019713333,-0.2982493,0.2591252,0.07972453,-0.020069476,-0.17139612,-0.050581045,0.009374322,0.06803755,-0.06137906,-0.030548,0.03289768,-0.6819932
-0.13760957,0.010422459,0.009064498,-0.0013813111,-0.16963859,-0.030610856,-1.8766994,-0.037319604,-0.014284696,-0.12004657,-4.3764873,0.01752739,0.01710981,-1.0377986,0.12700614,0.016576283,-0.36648697,-0.063447624,0.012520543,-0.00014031384,0.26710886,0.009979654,0.0011960223,0.16789089,-0.008090962,-1.9640574e-05,0.057422217,-0.14046246,0.011874614,0.0067234114,-0.11648604,-0.007689991,0.847127,-1.4990989,0.017658431,-0.042186506,0.018217051,-0.059934165,-1.7687563,0.7206675,-0.86870426,0.0067697293,0.036757156,0.027933579,-0.9327135,-0.12110547,-0.056915108,0.016344216,0.006254696,-0.35515922,-0.013762546,-0.023919689,-0.051935717,-0.08995413,-1.6774111,0.020124225,-0.0022696527,-0.09974517,-0.15518747,0.5065785,0.051700998,-1.0959331,-0.14381437,-0.09419089,-0.22605343,-0.01420746,-1.3133413,-0.037649117,0.021537827,0.5399121,-0.38643152,-0.31919995,-0.5989258,0.0014289393,-0.0866602,-0.87678707,0.012248637,0.0001035366,-0.010584698,0.009676052,-0.013957693,-1.4234283,0.08739361,-0.10475459,-0.051433556,-1.2767516,-0.46509343,0.048380066,-1.172934,-0.04300931,0.015665242,-0.42415857,-0.0073246243,-0.36346275,0.058989022,-0.020951979,0.023133965,0.25520402,-0.12199526,0.058312178,0.09393946,-0.017359616,-0.3220205,-0.01918395,0.055144086,-0.059422106,0.0197244,-3.3587048,0.069159605,0.13572468,-0.026186628,-0.2065824,-0.15890281,0.058115084,-0.015824474,-2.0110557,0.21001135,0.14045604,-0.032811455,-0.33193737,-0.3506938,-0.0050880327,-0.8033559,-0.112843126,0.2031132,0.02009223,0.015211222,-0.0003004275
