0,1,2,3,4,5,6,7,8,9,10,11,12,13,14,15,16,17,18,19,20,21,22,23,24,25,26,27,28,29,30,31,32,33,34,35,36,37,38,39,40,41,42,43,44,45,46,47,48,49,50,51,52,53,54,55,56,57,58,59,60,61,62,63
0.03494237,0.0015385651,-0.031440016,0.032311466,-0.42965555,-0.15099181,0.067750834,0.07069975,0.1148922,0.022023063,-0.11732895,-0.07471943,0.11743591,0.0843333,-0.58920777,0.0043858886,0.016988551,-0.09284686,0.11122915,0.078219555,0.03250139,-1.0919743,-0.056869224,0.056238845,0.050626844,-0.06446264,-0.054563843,0.015721375,-0.10888918,0.09683975,0.019947331,0.052598964,-0.039446563,-0.14474712,-0.14639828,0.05029021,-0.08454797,0.015335523,0.026713213,0.089179836,-0.055872973,0.007990938,-0.067504734,0.090173066,0.0106913345,-0.1265767,-0.040810186,-0.042682152,0.06797032,-0.5606789,0.010107124,0.083612405,0.063741796,-0.018929673,0.042170476,0.044379067,-0.04574349,0.09298415,0.0013141617,0.09352277,-0.1827091,0.08893847,-0.12026034,0.084028564
-0.017169198,-0.09476775,-0.03660735,0.011645574,-0.03987186,-0.0062074033,-0.012350431,-0.017635826,0.020141138,0.014033815,-0.038636975,0.034479864,0.0063771065,0.07597514,-0.13887039,-0.038766377,-0.03193773,-5.4815907,0.013761024,0.007678492,0.005970335,0.006112849,-1.2918078,-0.0092225075,0.0068927784,-0.042727403,0.002697502,-0.04404874,0.03180003,-0.0020255893,-0.023287417,0.023842193,-0.0050929193,-0.08730818,-3.9777539,0.01524077,-0.029001044,-0.03863815,0.0140296975,-0.1207733,-0.08085302,0.005389361,-0.014369153,-0.019064115,0.006257759,-0.041672688,-0.13579439,-0.11510506,0.003998898,-0.007978777,-0.012748608,-0.11680396,0.017043069,-0.02700003,-0.082311824,-0.015852107,-3.6951454,-0.036360558,-0.3898654,-0.044808086,-0.08944323,0.08457408,-3.023066,-0.044076897
-0.116124734,-0.0039737727,-0.8169372,-0.03699772,0.0014469172,-0.23936458,-0.0018013858,-0.0046752263,0.01119694,0.0055567413,-0.016672496,-0.1543217,0.0052354257,-0.01929792,0.029938534,0.0118985865,0.008238386,-0.015611016,0.05338022,-0.004333632,-0.014161205,-8.375204,-0.051236585,0.0006227674,-0.012406598,-0.002373248,-0.026410788,-0.013354147,-0.03584111,0.0015357195,-0.067471236,0.0605745,-0.049421456,-0.029742097,-0.5628237,0.010824252,-0.038463395,-0.0017220062,-0.35203725,0.06584976,-0.03762038,-0.022744088,-0.0032311175,0.002907876,-0.29315537,-0.0102114845,0.05737367,0.009055874,-0.07409221,-0.58435565,0.0011199717,0.002762942,0.00549059,-0.13431314,-0.0028675229,0.030998077,-0.02122657,-0.012876198,0.0027688933,-0.0070234686,-0.08162735,-0.18535449,-0.008452649,-0.027081382
0.0037203645,-3.7436082,-0.00433898,0.002002795,0.022423802,-0.0059935353,-0.5149411,-4.948183,-0.04638317,-0.00018510636,-0.05486519,-0.17589559,-0.032953195,-0.10041909,-0.013439724,-0.012473127,-0.07576864,-3.643353,0.07908838,-0.11255942,0.026920643,-0.0080847,-0.22751218,-2.3291187,0.0042673787,0.03346773,-0.007187737,-0.025837127,0.047607422,0.0034025917,0.006496857,-0.0006251606,0.012205318,-0.041050922,-0.26481757,-0.20563367,0.021231305,-0.16701904,0.013390182,-0.18819574,-0.012411626,-0.6948761,-0.0014207067,-0.3147363,-0.004408316,0.010459086,0.058221705,-0.1133928,0.00093774643,-0.0011504004,-0.007602762,0.011025282,-4.652165,-0.0093082795,-0.019926706,-0.014618956,-3.2832572,-0.018481566,-2.3113925,-0.3800326,0.069672264,-0.11962974,0.00370825,0.0114391735
0.026073726,-0.13579038,0.074938126,-0.044818457,-1.8188927,0.019745015,0.17348029,0.08824976,0.13484088,-0.042868413,-0.055641286,-0.056594737,0.060056116,0.024147607,0.14342345,0.026568202,0.05780469,-0.3865878,-0.114332594,0.14615858,0.015888322,-0.05662112,-0.07832503,0.12289638,0.0290932,-0.9937099,-0.051607653,0.043693714,-0.030764801,0.00775813,0.03855794,-0.0022872123,-0.005625602,-0.11856137,-0.12297166,0.20652044,0.03677193,0.16323128,0.041005604,-0.09605524,0.05445371,0.17296064,0.024025975,0.20012397,0.013108635,-1.104859,-0.10093267,-0.005069396,-0.010327185,0.07764895,0.031451106,-1.7004346,0.010302618,-0.08418704,0.000815407,0.03150447,-0.34216455,0.054359477,0.05133658,0.25669175,0.04434592,-0.03722567,0.35362926,-0.015760822
0.1607048,0.060037598,-0.00040595583,0.03307473,-0.12853229,0.0910471,-0.03013412,0.044050045,-0.048570953,0.016107988,0.11629545,-0.128377,0.049890984,-0.14737736,-0.6149098,-0.0699951,0.048698492,0.039254274,-0.014517711,0.03807729,0.05044759,-0.16321228,-0.015912747,0.08597245,0.1256705,0.10282258,-0.038123213,0.059136752,0.046937626,0.0862538,0.20002286,-0.119756676,0.10254798,-0.1150516,-0.19135468,0.024445515,-0.007408285,0.10067307,-0.0658413,0.097751565,0.046565525,0.035669416,0.0030363933,-0.01671357,0.011328334,0.027337587,-0.071526594,0.011718966,0.0565924,-0.07281449,-0.019829666,-0.067956604,0.08539018,0.06606455,0.07935092,0.03603414,0.01187822,0.009451084,0.104375094,0.02421526,0.016865673,0.043486375,-0.07674637,0.15956393
0.07207508,-0.039416928,-0.05620073,0.07442066,0.009666846,0.04031408,0.047152743,0.012458546,-0.027748045,-0.4386637,-0.081825495,0.06850948,0.0022521627,-0.21294281,-0.3732978,-3.2418668,-0.10325437,-0.1894263,0.0017770872,0.004063167,0.070568144,-0.015041085,0.026230019,-0.021090852,0.037838984,-0.0013319075,0.07363681,0.0902062,-0.052036222,0.057207506,0.094855964,0.0507768,-0.02996619,0.017835565,0.049880065,-0.030280547,-0.004633984,-0.08419006,0.13806257,0.078596815,0.035651747,0.033481997,0.07688114,0.023057245,-0.007155273,0.023412677,-0.15141544,0.038567577,0.061183963,0.033259276,0.09115451,-0.011031924,-0.0646773,-0.00075580983,-0.02114126,-0.0076073613,-0.09213874,0.01663845,-0.14742257,-4.100361,-0.189383,0.074503824,-0.0046898616,0.075002946
-0.05068089,-0.0615872,-0.022250222,-0.033115443,-0.07983392,0.006354991,0.0029449405,-0.021930147,0.016471565,0.020055536,-0.17012164,-0.060850136,0.002739856,-0.11497747,-0.09447197,-0.05088708,-0.009180792,-0.9107506,0.020233387,0.008677657,-0.009529239,0.016712468,0.03077092,-0.025911616,0.026751729,-0.06283148,-0.1794129,-0.004514552,0.09302105,0.010562821,-0.056640297,-0.0032874583,-0.012083247,0.08846259,-0.21689552,0.005302403,-0.017338,0.030206893,-0.0466453,0.13582064,-0.024138898,-0.0076993224,-0.009203072,-0.057730436,0.016140888,-0.061794087,-0.14594363,-0.09929211,0.008411885,0.0027626995,-0.042283695,-0.10416012,-0.041050937,-0.031607725,-0.0093147,0.013313653,-0.14322172,-0.042274676,0.008886919,-0.034452766,0.14213197,-0.1752537,-0.6377489,-0.07484521
-0.059133828,-0.0067724376,-0.109805286,-0.0043337066,-0.8768662,-0.45157495,0.008389109,0.069866955,0.059850983,0.02155954,0.13137017,0.10679195,0.12740484,0.13134745,-1.8080567,0.012005892,0.06619517,0.045049746,-0.14044836,0.10907606,0.13193932,-4.843636,0.046393834,-0.0059452374,0.10075703,0.05540255,0.0011899283,0.093808055,0.059427913,0.09827836,-0.027872758,0.0493564,0.016110532,0.0049816817,-0.2848969,0.0018474765,-0.027194988,0.009118637,-0.017128715,0.03979987,0.033478647,0.039350234,-0.04028128,-0.023360841,-0.019360721,0.04873019,-0.13015819,-0.12029603,-0.012253427,-1.3047891,-0.02178362,0.041070163,0.030377751,-0.036707234,0.15361363,0.14563917,-0.025623256,0.1346708,-0.04539893,0.057198916,-0.15226834,-0.061775442,-0.21097586,0.0042189634
0.011761427,-1.5177509,-0.009223362,-0.001706948,0.015332304,-0.0015641209,-0.10466084,-0.30394068,-0.01257408,0.002456605,0.028408272,-0.08482773,-0.016096763,-0.019399287,0.0066605997,0.007595843,-0.010560693,-8.202772,-0.13614465,-0.042222913,0.011133782,0.00858103,-0.046653427,-0.19095421,0.009388714,0.008228184,0.001964098,-0.010088444,0.055576622,0.0020616674,0.006530252,-0.002177949,-0.0030694057,-0.10015477,-0.119410954,-0.034554187,-0.005995401,-0.0075425394,-0.006767142,-0.07773253,0.0020673545,-0.10898795,-0.0031744344,-0.08120919,0.003675555,0.012766453,0.011708038,-0.05375376,-0.0081595415,0.005634516,0.0052810917,0.006386713,-0.5816832,-0.037696917,0.014720458,-0.002120483,-8.486436,-0.0038004972,-0.11130924,-0.033976886,-0.11419094,-0.13214402,-0.006038822,0.0083868075
-0.12073197,-0.0022636866,-0.15055512,-0.28250688,0.005011055,0.0017403016,0.0069529274,-0.009193636,-0.0164631,0.021035794,-0.024499696,-0.044815093,0.020024853,-0.10239059,0.019792184,0.013308761,0.01661298,-0.022961179,-0.1086586,-0.013019117,0.0009973116,-0.44437367,-0.047010425,0.000978025,0.015108125,-0.014666144,-1.0339397,-0.04292909,-0.027241386,0.021540271,0.014677248,-0.017637996,0.0069439984,-0.10805623,-0.2661974,0.007685817,-0.05560241,0.009467902,-0.65951335,-0.05620296,-0.006813288,0.005415804,-0.05406508,-0.0048040976,-0.042325243,-0.053866897,-0.042442355,0.029024633,0.004863773,-0.14583221,-0.048303343,-0.027540784,0.0055855038,-0.08850351,-0.049817458,0.008159869,-0.033010885,-0.033220034,0.01803963,0.008287216,0.03368633,-0.19979012,-0.012195497,-0.04141289
0.04047917,0.04626893,0.01138184,0.08732636,-0.01522195,-0.029175458,-0.0061328043,0.014317288,0.016689816,-8.493524,-0.072786696,-0.15312235,-0.008843977,-0.04132415,-0.09589519,-1.4595544,-0.1097567,0.12888435,-0.051171694,-0.023457425,0.027112663,-0.048094433,-0.004621107,0.016234297,0.04867954,0.008682949,-0.015294375,0.010221396,-0.22319165,-0.010364753,-0.18017116,0.07981707,-0.050790105,-0.027131924,0.046792325,-0.03617571,-0.02702616,-0.051385153,0.073299095,-0.04483925,0.022908527,-0.01667985,0.14280832,0.004022042,-0.0011164589,0.043375324,-0.10193739,-0.05503851,0.007932478,0.0009945243,0.06739269,0.04827257,0.004983722,-0.13068338,0.0052338317,-0.04204019,0.04189923,0.11291834,0.020804407,-0.17948343,-0.12220943,-0.1930381,0.0065085134,-0.028324673
0.022734798,-0.029779544,0.03584278,-0.00012568315,-0.28346342,0.045375492,0.18459149,0.1040875,0.12103761,-0.01660109,0.09423603,0.021180203,0.10498486,0.11977841,-0.24654457,0.016555162,0.07997394,-0.24552606,0.10416893,0.16758156,-0.00893545,-0.09649204,-0.018235013,0.13568151,0.00022597521,0.050702944,-0.016987488,0.045769513,-0.16013819,0.01578373,0.0842685,0.010572884,-0.04040713,0.10686921,-0.1254233,0.16663042,-0.12214905,0.04298874,0.060558815,-0.11086027,-0.043302827,0.10183391,0.026758296,0.17737173,0.010412149,-0.83576006,0.033568595,-0.19838667,0.008680233,-0.0914883,0.017132983,0.12095701,0.05129086,-0.13463835,0.0016684951,0.025321899,-0.09476627,0.062093373,-0.010337235,0.02122181,-0.053324524,-0.08845025,1.2887728,0.03334875
-0.026901089,-0.20911795,-0.15677339,-0.008486812,0.012723109,-0.00973513,-0.0029965267,-0.05267766,-0.0054013073,0.004097971,-0.03312412,-0.10968066,-0.023547338,-0.004275279,0.008256175,-0.0067923847,-0.0026731398,-0.33443403,0.0027459739,0.013958106,-0.09847924,0.00020285518,-0.17177701,-0.007990393,-0.13897064,0.007604516,0.0052031954,0.038413547,-0.050638564,-0.0015751149,-0.013372754,0.011511205,-0.3053551,0.00018663419,-1.5190011,-0.022730492,-0.5292984,-0.019824566,-0.0211698,0.05235331,-0.12920664,-0.03457221,0.0011510932,0.014962948,-0.017887928,-0.0042154375,-0.029849015,0.07576186,-0.041043364,0.0050301887,0.0048260456,0.0066841776,-0.05417039,0.042353604,-0.014021441,-0.017087564,-0.23682566,0.011200667,-0.0145495385,-0.0030229127,-0.10654479,0.019295614,0.0026601972,-0.057204183
-0.001807155,-4.5956817,-0.04028297,0.004932497,0.0033750192,-0.0034710763,0.024162486,-0.065268666,-0.13513972,0.008852717,0.110014565,0.041072153,-0.122025244,-0.03511233,-0.007486231,-0.0036360768,-0.040327474,-0.6422469,-0.13413455,-0.015448537,-0.12569156,-0.0040241806,-6.276823,-0.017448422,-0.06181965,0.025573421,-0.0005485228,-0.23347196,-0.10014044,-0.030020861,0.00051363424,0.0041865753,-0.07743587,-0.06160146,-6.1397786,-0.07206814,-0.30858192,-0.19942296,-0.0031130528,0.06421513,-0.4930115,-0.18953036,0.0016847469,0.0212108,-0.0055425935,0.0129637355,-0.12237343,-0.041472256,-0.011963824,0.0020897547,0.003259642,0.013490514,-0.30069435,-0.053460393,-0.07713243,-0.05245889,-5.123543,-0.044821046,-0.44369626,-0.016131843,0.023777414,0.07762725,0.0060423813,-0.02251459
-0.07699107,-0.23394373,-0.061139446,-0.010318829,-1.4135582,-0.20644508,0.16605432,0.044947814,0.0964614,-0.008876099,-0.030015472,0.0787095,0.070544384,-0.011676252,0.08727355,-0.010606828,0.013196205,-0.49700344,-0.009077672,0.10161033,0.028578667,-1.6651068,-0.16361965,0.12351593,0.05283421,0.10369211,-0.041176375,-0.035331346,-0.09055705,-0.030991636,-0.18641774,0.06371507,-0.043976776,-0.14549868,-0.17402785,0.15643385,0.018459914,0.14502712,-0.07502093,0.10516597,-0.040749077,0.06775221,0.033365663,0.17134574,-0.0016512307,-0.9623441,0.031002028,-0.04241375,-0.016577503,-0.3825227,0.027609382,0.11037097,-0.053045217,0.013446396,-0.008118356,0.078181796,-0.258547,0.051836543,-0.09235868,0.08841973,-0.010163362,-0.058901317,0.45908523,-0.050547034
-0.01728833,0.065043725,0.120055,0.05035957,-0.11403635,0.2547531,0.015469704,0.08457613,0.019198794,0.020681951,-0.1729068,-0.15960714,0.09159798,-0.18807973,-0.3193899,-0.72972053,0.13425568,-0.14810586,0.06335879,0.052845526,0.052796066,0.2530903,-0.1210732,0.07948037,0.20770206,-0.08498259,0.030295473,-0.012474031,-0.16951181,0.09089524,0.08337875,0.026386198,0.09270477,-0.1873774,0.110835776,0.04915956,0.023127645,0.076109245,0.07028888,0.059899982,0.040373947,0.047602493,-0.026458425,-0.07484298,0.10123715,0.10350362,0.04478471,-0.05904925,0.14857364,0.38097242,-0.008088991,-0.059463747,0.024310503,-0.13425933,0.03398781,0.11351662,0.009731133,0.007176127,-0.1234337,-0.5175127,-0.081282824,-0.12854588,0.19543527,0.12398278
0.15507895,0.10110803,0.26471695,-0.020825237,-1.3587554,-0.051953733,0.037244573,0.01817335,-0.008969706,-0.028921122,-0.066133626,0.0072969985,-0.060687404,0.04276568,-0.75942314,-0.49594086,-0.032455336,-0.016585916,-0.16137493,0.072119266,-0.04115973,-0.008439757,-0.101982445,0.044950634,0.04816184,0.0022526016,-0.011864415,0.014889436,0.08295776,0.13933957,0.19232734,-0.12702681,0.1316368,-0.15484302,-0.100771144,0.032390233,0.08773086,-0.4578214,-0.0010847381,0.0023463448,-0.008398697,0.026899016,0.007660381,0.077990085,0.27546784,0.073092215,-0.12684377,0.12489617,0.21560597,0.0032150224,-0.017164506,0.008668648,0.047363263,-0.12948686,-0.13361041,0.023738213,-0.06783598,-0.056713838,-1.4358975,-3.909904,0.13094944,-0.012850596,0.14576238,0.031536233
0.016570052,-5.901679,-0.01116948,0.008120795,0.04331133,0.0033380268,-0.064306304,-0.22796082,-0.114091836,0.00035408998,-0.1318638,-0.013051056,-0.06503735,-0.1464474,0.008824788,0.004654303,-0.053853944,-0.8436971,0.028159011,-0.07720167,0.018507091,-0.008913923,-0.15131064,-0.10474324,0.0073287133,0.0558068,-0.017847952,-0.10550382,-0.011695343,-0.009230298,0.011323918,0.019023485,0.021938937,-0.052175783,-0.34263015,-0.092694044,-0.027845917,-0.13166271,-0.006677584,-0.034363735,-0.08720874,-0.21108484,-0.0024544774,-0.11842721,0.016814405,0.03830187,-0.16351083,0.00044901058,0.01184571,0.008185142,0.0005058377,0.05263096,-3.749887,-0.0030272654,-0.034548204,-0.04116789,-3.2516682,-0.015324231,-0.10811115,-0.045782603,-0.007968139,0.08758771,0.0044085216,0.012085722
-0.0117859,-0.1391536,0.0176435,0.007407272,0.062078126,-0.010180135,0.05173551,-0.032849237,0.122731306,0.0020783842,-0.13572288,-0.16545276,0.078324646,-0.050517317,-0.025105659,0.0068261945,0.063565776,-7.4048433,-0.09545509,0.089119755,0.05550191,-0.0040143183,-0.15188074,0.015298472,-0.024526296,0.10058782,0.003200009,0.053154487,-0.18262824,-0.07666833,-0.018675648,0.029510522,-0.003994259,-0.025688889,-0.11327663,0.026284978,0.06936896,0.0011334734,0.004236946,-0.017785009,0.05610669,-0.0066311304,0.011087646,0.065406784,0.009197971,0.09954615,-0.09627579,-0.2112357,-0.06486287,-0.007370207,-0.0038951465,0.097860076,-0.08697157,-0.12046528,0.09552638,-0.042744063,-0.5786629,0.06724794,-0.15610908,-0.006854887,-0.10693695,-0.06023659,0.11256041,-0.09743205
0.019507235,-0.059515975,-0.012225822,0.09497112,0.021067088,-0.018040895,-0.039767947,-0.010062737,-0.016146814,-0.053843517,0.1094348,0.03633071,-0.015484352,-0.16667289,0.16509575,0.1359044,-0.5341527,-0.19291343,-0.1421907,-0.03491664,-0.0073660435,0.017863434,0.017773783,0.0060296194,0.025666745,0.0019041337,0.03614998,0.0017796156,-0.16545573,-0.0023886762,-0.30948618,-0.041455727,0.02355354,0.16314103,-0.15936884,-0.019583914,0.0065443744,0.040488567,-0.030778853,0.07535328,0.030657666,-0.03939501,0.07332961,0.0120977955,0.024365837,0.017285274,-0.06392027,-0.06710892,0.011118099,-0.020897008,0.08431531,0.0031136954,-0.06668658,0.110011786,-0.037424263,0.006514576,-0.011435592,0.033563163,0.02195383,0.020218898,-0.08772054,0.06414715,0.021232776,-0.0037648075
0.13930322,0.09032469,0.078069374,0.0013766319,-0.69597155,0.1441464,0.077551976,0.082505874,-0.030583441,0.032163545,-0.021444952,0.03922308,0.015738206,0.012473913,-0.20917386,0.036334176,-0.0049465923,-0.023313018,-0.06666644,0.009916816,-0.018261665,-0.024287006,0.011045324,0.1087328,0.040601756,-0.14201242,-0.028813282,0.006836186,0.028236208,-0.009979329,0.12673824,-0.02651579,0.06882873,-0.030342069,-0.029801488,0.058402628,-0.0015582208,-0.005115663,0.043285012,-0.17571016,0.02143561,0.06529207,-0.0073736724,0.02653647,0.104692176,0.029339414,-0.0287918,0.10288004,-0.01938794,0.08078325,-0.0056565106,-0.066686295,-0.009813964,0.10281787,-0.07375115,0.04858747,0.079732284,0.048446078,0.104262434,0.26402003,-0.14050819,0.102626696,0.13702174,0.045899425
0.18101232,0.002800376,-0.028366424,0.04091857,-0.37254578,0.20879258,0.0791464,0.11370551,0.058424503,0.022306148,-0.16585337,0.08071625,0.052313413,-0.037544314,-1.5913423,0.08866827,0.08129439,-0.036772814,-0.14777528,0.08036451,0.0920183,0.04296902,-0.021048145,0.04330286,0.056067664,-0.047853585,0.0133924065,0.050646022,-0.062364563,0.055638038,0.19853714,-0.071653426,0.012326847,-0.18219759,-0.2298476,0.05634792,-0.016333763,-0.0076126168,-0.02189578,-0.17803648,0.06563389,0.07077061,-0.053318013,0.07647899,0.08614989,0.010843374,0.025295561,-0.017460605,0.1261002,0.135653,0.010848578,-0.058727864,0.10070354,-0.15937823,0.08251463,0.06426676,-0.014497153,-0.007925202,0.04342263,0.12231029,0.08320945,0.07730248,0.020482667,0.1029253
0.00946543,-0.008591656,-0.004408135,0.03248917,-0.11753649,-0.04348291,0.0055332826,0.0955208,0.011839429,0.06285681,0.06102843,0.0077905366,0.031739842,0.08630063,-2.112257,-0.13044931,0.058938343,-0.75520265,-0.16652744,0.04385549,0.08105379,-0.6491992,-0.18996876,0.027605956,0.09326102,0.07385372,-0.015313747,0.008559096,0.03068527,0.091371335,0.0020078793,0.077478014,0.012025977,-0.1507607,-0.23354514,0.007868432,-0.05110313,-0.026345149,-0.086229384,0.054454334,0.018372595,0.054678276,-0.052829415,-0.06354894,0.0036636037,0.0667256,0.06931934,-0.16142313,0.12215621,-0.28979382,0.0062886043,0.071971595,0.046072282,-0.00078279583,0.092272036,-0.023694115,-0.20182122,0.08090201,-0.13390282,-0.45269912,-0.13692011,-0.18928309,0.031610478,0.2997862
0.032517903,0.03148112,-0.051070824,-0.028319448,-0.10884038,0.13020746,0.06201944,0.08175975,-0.028078528,0.06015169,0.092892975,0.039968684,-0.003382371,-0.08034224,-0.82699114,-0.12947106,0.015476173,0.0016536189,0.021235118,0.08374367,0.022754313,0.040459882,0.013866811,0.046580553,-0.017236685,-0.048901606,-0.6007113,0.021003082,0.050583303,0.13047627,0.10130592,0.08035859,-0.040542804,0.092796735,-0.009891762,0.050060853,-0.10949058,0.014191598,0.021200921,-0.09717434,-0.01264907,-0.0008969939,-0.1612131,0.050701372,0.08136824,-0.039281327,-0.17003332,-0.028070077,0.07147244,0.06392022,-0.14890477,-0.030597761,-0.0054525654,-0.07361518,0.021354342,0.077689834,0.007779321,-0.035826933,0.08376129,0.0056655277,0.009237422,0.0011794731,-0.061446223,0.05421911
0.002852994,-8.132484,0.001664248,0.0028743148,0.017611923,0.0047737407,-0.14898688,-0.6800337,-0.04125147,0.002209858,-0.05421056,-0.19204167,-0.0074237734,-0.05553582,-0.00038941493,-0.001992934,-0.022800963,-2.5874648,0.0020846927,-0.053232163,0.021016527,-0.0039782324,-0.09946014,-0.37045392,0.0009870635,0.01345288,0.0034446937,0.0076127397,-0.1513995,0.0026742725,0.0039289426,0.008282962,-0.0008721069,0.018366372,-0.13532493,-0.07700487,0.007442496,-0.04071876,-0.0058797514,-0.10679295,0.026702117,-0.27515855,0.0029537582,-0.10041141,0.0046445886,-0.0004770846,-0.03752136,-0.028986502,0.00871041,0.0005641746,-0.0018305683,0.0055969153,-1.7528518,-0.16357711,0.022072509,-0.004141772,-7.2213316,-0.019318163,-0.19265597,-0.019877557,0.019582529,-0.113766834,-0.0077387206,0.0077501573
0.019464877,-0.16674984,0.17428587,0.015645012,0.05249897,-0.001239528,0.08520845,-0.026913412,-0.16777472,-0.011336852,-0.075412974,0.04155022,-0.19051503,-0.121152066,-0.056033045,-0.019094104,-0.10504815,-2.0332658,-0.10330254,0.05622739,0.042367253,-0.026270779,-0.011326673,-0.0007708061,-0.088036746,0.10324713,0.019520491,-0.08839976,0.07284414,-0.10974782,0.0022967604,-0.00524765,0.123455524,0.020768281,0.20652425,-0.28110296,0.36162746,-4.459854,0.0402138,-0.18909954,0.084874,0.08263451,-0.021931026,-0.00562877,0.0117206955,0.092256196,-0.17060469,0.002439446,-0.02785425,-0.028718995,0.00920579,0.08317978,-0.02849919,-0.012690125,-0.7048535,0.0067412113,-0.4405163,-0.21385832,-1.7831086,-0.1840868,-0.14165418,-0.12105841,0.12955265,-0.074263476
-0.021814639,-0.11610672,-0.20290992,0.0116707,0.016941339,-0.00016850799,-0.008784605,-0.11813599,-5.5155425,0.003043879,-0.18382238,0.068221405,-2.8360002,0.014011296,0.006140316,0.016127847,-0.03764775,-0.38075987,-0.16049094,-0.07023093,-2.4440281,0.0042326623,-2.415204,-0.03689755,-0.8028009,0.04027672,-0.005102563,-0.5667007,-0.15395612,-0.079572305,-0.016335977,0.011546308,-2.5759504,-0.15186973,-0.42719784,-0.07706406,-2.3989038,-0.08615039,-0.014666066,0.05058531,-2.5382795,-4.414379,-0.0017686061,-0.037099402,-0.041982446,0.02287991,-0.12273918,-0.044619896,-0.09126619,0.009007773,0.009902673,0.02370769,-0.116580725,0.07705068,-0.23873636,-0.06344337,-0.029046008,-0.09850467,-0.088022426,0.039107174,0.011678195,-0.18398546,0.022754008,-0.110769115
-0.022487838,-0.27442902,-0.043525994,-0.009293875,-0.0622563,0.0038792104,-0.020975068,-0.012317466,0.021323545,-0.0059460974,-0.047023002,-0.12376007,0.02522012,-0.03694764,0.0004962452,0.010916628,0.0007440322,-6.1767654,-0.043986477,0.027162706,-0.009406587,-0.008964333,-1.8975235,-0.02333781,0.018141078,-0.04366452,0.0017964505,-0.04870382,-0.029424576,-0.012585982,-0.023597946,-2.863551e-05,-0.00454679,-0.008313717,-4.747323,0.012929384,-0.012215771,0.017293433,-0.004762674,-0.062328234,-0.059298158,0.0020610595,0.0053183,-0.053551927,-0.018113485,-0.05568889,-0.015895756,-0.1319151,0.003238069,-0.0067493753,0.0080812555,-0.14655627,-0.046752226,-0.13856287,-0.030753875,0.012929402,-4.2747245,-0.015220678,-0.13164344,-0.03054051,-0.05868285,-0.012371304,-5.274678,-0.04546752
-0.0688558,0.019262807,-2.5972087,-0.0027592443,0.011826383,-0.030230802,-0.06538102,-0.040045682,-0.15760505,0.0009337291,-0.19432127,0.06013214,-3.385311,-0.04758381,0.04739321,0.023354331,-0.21024223,0.056821033,-0.066016726,-0.6465263,-1.8252412,0.00823944,-0.807292,-0.04737255,-1.7889376,0.029398546,0.001805761,-0.18162458,0.04124968,-0.2620905,-0.08633507,-0.024590721,-1.01412,0.039922465,-1.1110237,-0.071662575,-1.2163622,-0.04259592,-0.08637242,-0.16211587,-3.9572113,-0.119393505,-0.008634149,-0.054288715,-0.27566785,0.03429034,0.08345014,-0.19146632,-4.473363,0.012869418,0.0016978948,0.043320555,0.007738364,-0.095708326,-0.1461602,-4.738416,0.018596072,-0.19101769,0.02805408,0.03635265,-0.11092302,-0.0013998804,-0.0015571198,-0.30605698
-2.2250254,0.013882079,-0.07382182,-0.015933825,-1.956184,-3.7179637,0.18613335,0.1536488,0.046484135,-0.029308714,-0.13833076,-0.06159708,-0.035764694,-0.12313111,0.035008147,-0.04912793,0.012682195,-0.16512297,-0.08384415,0.089043796,-0.050280027,-0.18130511,-0.07894312,0.14335209,-0.02655672,-0.952048,-0.01600462,-0.08957843,-0.1726106,-0.058424894,-5.3111,0.010061646,0.06619856,0.031931482,-0.12005788,0.15755555,0.07546426,0.13261212,-0.018356062,-0.13075274,0.023496635,0.060691148,0.012449256,0.1873801,-0.22137752,-1.0755678,-0.12525082,0.02734954,-0.041229434,-0.76738745,-0.0009237424,-1.9447234,0.08772435,-0.09650324,-0.1429179,-0.0023511078,-0.17636031,-0.019115563,0.05868136,-0.016219757,0.0008942537,-0.1059947,-2.4497793,-0.3698312
-0.058003336,-0.044702746,-0.17075269,-0.007861123,0.04691801,-0.014100792,-0.07986863,-0.14091332,-5.066093,-0.0129929455,-0.026685448,-0.1351018,-3.517773,-0.12974152,0.025856523,0.018640239,-0.12784326,-0.1614823,-0.118352495,-0.083946414,-4.4484735,0.030803045,-0.76464957,-0.012296905,-0.39446372,0.056999367,0.025601648,-2.889364,-0.061614174,-0.10172282,-0.03750556,0.012339596,-1.6773235,-0.002737034,0.27284002,-0.10114112,-2.9533956,-0.10536662,-0.013839867,-0.020264534,-1.5341448,-3.4028492,0.013847543,-0.07572486,-0.045604795,0.05216584,-0.18393795,-0.14336848,-0.10002407,0.012863413,0.0058646654,0.030265601,-0.07324038,0.0369472,-0.6389033,-0.031940423,-0.0070605115,-0.12114184,-0.004271216,0.054483134,-0.17941125,-0.14267133,0.027910557,-0.20354576
0.04049801,0.03384292,0.07765648,-0.04223124,-0.66890424,-0.03152877,0.15570745,0.12707269,0.10789692,-0.086739905,0.07143226,-0.120602265,0.020066025,-0.14517984,0.07977806,-0.07024349,-0.0056266855,-0.26066023,-0.15511505,0.0611155,0.0072529246,-0.65195644,-0.019784842,0.15581042,-0.022049947,-0.64684796,-0.0037666576,0.0049312743,-0.19312505,-0.076276265,0.036383033,-0.11985595,-0.021683691,-0.16466498,0.09675507,0.15238136,0.11164143,0.08152921,0.08102846,-0.19663873,0.026695592,0.081598505,0.012420462,0.126303,0.026482897,-0.17022397,-0.05752848,-0.2137127,-0.0383774,-0.16737129,0.030018844,-0.41807377,0.10881182,0.069136254,-0.0057462626,0.0041873576,-0.08742237,0.0037033828,0.04968709,0.27903754,-0.078503005,-0.08625159,-1.6342175,-0.031958133
-0.008671556,-5.236068,-0.036624435,-0.0014117971,0.0037239655,-0.002850394,0.0011539763,-0.033633288,-0.0292637,0.004684168,-0.004230866,-0.079425454,-0.04949508,-0.033393513,-0.0075485646,0.0010086395,0.0025908207,-1.9277958,-0.17684917,-0.0060099126,-0.18278177,0.0017469969,-7.397335,0.016251272,-0.032918762,0.00483298,-0.002532333,-0.6264663,-0.16400525,-0.0044611692,0.0004292742,-0.0007963964,-0.06083916,-0.14286825,-5.327134,-0.0034727566,-0.34286502,-0.112188175,-0.0064141373,-0.09936078,-1.2921813,-0.10701468,-0.0027149294,0.022283506,0.00032453611,0.011196959,-0.1072953,-0.03689196,-0.0017840553,-0.001273277,-0.002162253,0.008909345,-0.31505454,-0.05269653,-0.086535186,-0.009642518,-3.373051,-0.0016484777,-2.181441,-0.039221205,-0.21513194,-0.09284717,0.022489008,-0.0040314207
0.096561536,0.025335575,0.017577566,0.03600618,-0.15682995,0.12380007,0.071018666,0.04688294,0.035633784,0.016380478,-0.058677517,-0.13352741,0.038709853,-0.16499871,-0.9477592,-0.1629519,0.06369518,0.017698687,-0.04638489,0.04776022,0.006337648,0.09835292,0.026651252,-0.004353844,0.055818953,-0.03561087,-0.023478584,0.0399818,-0.11143173,0.03905553,0.103939585,0.13544746,-0.04580259,-0.17865874,-0.06420327,-0.009448434,-0.09604493,0.03218884,0.01616319,0.048228886,-0.053421505,0.03417885,-0.041631915,-0.02188611,0.07681207,0.008050994,0.015820347,-0.00730094,0.097341135,0.12064864,-0.015174032,-0.03922648,-0.01216342,-0.13788529,0.019170117,0.058830258,0.05561172,0.030533127,0.0687659,0.04872944,0.048208237,-0.19285923,-0.008325673,0.10112561
0.007838152,-0.17601524,-0.17757648,0.0058779335,0.0047939313,-0.04724399,0.009651563,-0.00038116088,0.007803447,-0.010848884,-0.13433906,-0.14721696,0.0060026324,-0.11087882,0.049301356,0.007591847,-0.025432546,-5.142823,-0.1493409,-0.011894041,0.005245983,-0.27452537,-0.0736191,0.0093790945,-0.021157902,0.004297345,0.0106220255,-0.00866679,-0.15391897,0.008667718,-0.004559931,0.007286584,-0.047081042,-0.06689728,-2.226514,-0.0019900466,-0.22332042,-0.008053368,-0.56068903,-0.062107813,-0.0956901,-0.023206638,0.00999259,0.008587188,-0.0122734895,0.0038869083,-0.010789664,-0.0826188,-0.007827842,-0.030514468,-0.003541923,-0.0021916318,-0.03685906,-0.106945336,0.02065781,-0.040410515,-0.2605632,0.009411322,-0.017691627,-0.00027857296,0.023677992,0.060947683,-0.008101142,0.011127355
-0.1694197,-0.09369537,-0.09320712,0.011249876,-3.0647833,-0.76321733,0.08486077,0.039359115,0.07559891,0.014181358,0.089875795,0.07785034,0.07788604,0.078686446,-0.046526648,-0.053456202,0.05527679,-0.1706962,0.050703105,0.07487077,0.024245275,-2.790438,-0.25373507,0.101051964,0.0046310276,-0.39806223,0.0120245945,-0.026355136,-0.13141006,-0.037636925,-0.2532617,0.08241327,0.0069338214,-0.15236853,-0.41855678,0.117929466,0.05118758,0.1114651,-0.08609776,0.017165659,-0.06933411,-0.0040496658,-0.03017372,0.10835145,0.0075142356,-0.6335968,-0.13252898,-0.075669095,-0.038078666,-4.4627357,0.040021785,-3.5451488,0.023446826,0.079199046,0.003910358,0.041877136,-0.24683492,0.04267055,-0.042460732,0.12907569,-0.00931498,-0.045362946,-0.2965858,-0.12869915
0.120341904,-0.05092221,-0.04002252,0.10498432,0.023041248,-0.10850018,-0.004210806,-0.04324271,-0.17708927,-0.08068536,-0.17478247,0.01252563,0.14829971,0.0012898613,-0.15259343,-0.026403228,0.009670828,-0.031852044,-0.021231817,-0.043925505,-0.0959807,0.14061137,0.16440104,0.0025138292,0.14995217,0.09625421,-0.13787062,-0.02272,-0.16470863,0.16692097,0.0032173991,0.11924855,-0.051757604,-0.12087101,0.16224004,-0.06474756,-0.017356977,0.015970696,0.08377826,-0.0048165764,-0.1227332,-0.056164492,0.08761874,0.086752325,0.038206287,0.14984743,-0.033427928,-0.1815982,0.09310446,-0.18823312,0.16729006,0.055679314,0.112238765,0.017771859,0.096782066,0.123981886,0.10330383,-0.10669414,0.16632423,-0.059673145,0.14761832,0.15658018,-0.18502201,0.027850032
-0.013298097,0.03222061,0.022312388,0.046546243,0.060522344,0.17045344,0.020313451,-0.024262125,-0.055247318,0.044354435,-0.15893145,-0.0671051,-0.0030867518,0.04931119,-0.01651423,-0.04912319,-0.009125655,0.06714569,0.06933984,0.010989014,0.08164465,0.23180944,0.059662506,-0.047614593,0.054873843,0.031711854,0.01975671,0.021389773,-0.16835697,0.09957194,0.0060212375,0.063695244,0.09324739,0.10908624,0.14332747,-0.10955719,0.07458595,-0.118998215,-0.1491337,0.10049624,0.06716956,-0.035161365,-0.04150406,-0.08585968,0.049321998,0.025974091,-0.0050993063,-0.028014334,0.07396417,0.3000036,0.03170871,0.0053426996,0.058847502,-0.055531103,-0.034622226,0.085299164,0.033984315,-0.0033515554,-0.10686238,-0.17587902,-0.084144436,-0.040886167,-0.030340012,0.027841955
0.07688808,0.047172133,0.007080045,-0.0032237747,-0.7570764,0.24054913,-0.0024702018,-0.039200146,0.03775395,0.011881783,0.103460245,-0.17319317,0.043469537,-0.15205571,-0.7590819,-0.3117903,0.028750967,-0.050968748,0.05274327,0.04134433,0.10932532,0.1847924,0.031562865,-0.057482433,0.056714773,0.088295236,-0.00047403897,0.06635334,-0.14078431,0.04518971,0.14931259,0.07271439,0.0784259,-0.12051268,-0.04886427,0.021502214,0.060577102,0.03611492,0.01786709,-0.18111315,0.07889294,0.04534871,-0.036151227,-0.030174077,0.022603039,0.045699697,0.0073619816,-0.20571679,0.025862278,0.28526172,-0.009991105,-0.17130862,0.0027253858,-0.14063147,0.08492732,0.1341934,0.03939624,0.006961425,0.07281088,0.13428181,0.0334153,-0.17610095,-0.09233915,0.022164276
0.006441686,-0.64456636,-0.0048351344,0.0028705688,0.018917207,-0.0005271364,-4.484589,-2.557502,-0.29532203,-0.003998772,0.10657575,-0.026441455,-0.14672825,0.12502344,-0.008168584,0.0071029356,-0.105327524,-0.2885322,-0.18821949,-1.2312844,-0.11744826,0.0045164176,-3.743647,-2.4942725,-0.021735197,0.025044058,-0.0009483229,-0.35729313,-0.0050283284,-0.03354372,0.0018274799,0.0032126612,-0.045731116,0.029572716,-2.632992,-0.36523637,-0.25835708,-0.17080954,0.00041200148,0.13847676,-2.0106974,-3.802795,0.011773852,-0.20887047,-0.0024491323,0.013943266,-0.07206744,-0.11384118,0.008763715,0.0029597776,-0.008817024,0.029675156,-1.1638906,0.04324002,-0.091056615,-0.13159838,-0.46306834,-0.0886588,-0.3728766,-0.017889362,0.14431125,-0.16151604,0.013352373,0.00218014
-0.14288566,-0.006351032,-0.014551567,-0.3487676,0.0014567885,0.021369131,-0.0024817972,0.0142462235,0.0060446076,0.048010517,0.026881082,0.013938641,-0.010255721,0.061377358,-0.025347004,0.051848006,0.011914475,-0.12408199,0.02821387,-0.005133092,0.009116566,-0.017542887,0.009514698,0.00927856,-0.019008987,0.011784856,-10.96554,-0.0154758785,-0.11380328,0.003911302,0.032159477,-0.0022758427,0.008122894,-0.11566603,-0.15534888,-0.0010626764,-0.018823698,-0.005000303,-0.01062676,-0.11491218,-0.0043996195,0.014259294,-0.27973837,-0.01687164,0.023683034,-0.00602435,-0.115665816,0.05733861,-0.01062243,-0.0048850714,-0.5530246,-0.017650258,-0.015865255,-0.026654271,-0.007816191,0.009761935,-0.0058855,-0.1060911,-0.023174841,0.002159504,-0.0870262,0.09732711,0.005664689,0.0065665287
0.0033872742,-2.621709,-0.007899045,0.0029958053,0.027295027,-0.0023050406,-0.17338203,-0.5000164,-0.2006118,0.002254089,-0.16310099,-0.0071228324,-0.07079761,-0.011742504,0.0012675356,0.002095259,-0.032930803,-0.62318945,-0.16277055,-0.14941998,-0.018964095,0.004118036,-0.9769431,-0.15930754,0.0037387055,0.01904875,0.008352425,-0.15514499,-0.012917419,0.0007781955,-0.0023906669,0.0038533027,0.008709313,-0.17806023,-2.4752927,-0.15978049,-0.06132839,-0.104377955,-0.0035796773,-0.09308627,-0.24473819,-8.272455,0.0013754786,-0.11590208,0.004030082,0.013340208,-0.06558142,0.007920137,-0.014560967,-0.0046830834,0.0004313685,0.010768831,-5.055313,0.028322965,-0.0415317,-0.024667092,-3.267124,-0.040029276,-0.8189811,-0.031218044,-0.17105086,-0.16192058,0.010289295,0.001732934
-0.010049918,-0.2489246,-0.07754519,0.00071679195,0.014199231,0.0016453875,-0.020133376,-0.05457513,-0.07566337,-0.0010639988,-0.08323969,-0.09223345,-0.07973112,-0.083469905,0.0075039817,-0.002469429,-0.0038870072,-0.21485668,-0.10009966,-0.0084118685,-0.29526824,0.0052156625,-2.1612635,-0.0035497723,-0.05210616,-0.0016832281,0.0036687832,-1.4292309,-0.10368772,-0.0054147406,-0.006834925,0.010890513,-0.1001104,-0.095699385,-3.4119976,-0.01792172,-0.40420005,-0.062949896,-0.0037978485,-0.11314193,-3.1486356,-0.17175174,4.5339475e-05,0.004141648,-0.0115181785,0.0020715115,-0.024865627,-0.15364642,-0.0012497196,0.007466213,0.00408998,0.009767442,-0.19118802,-0.16340943,-0.10456669,0.0021109337,0.014859851,-0.015929397,-0.065835655,-0.00024869773,-0.0903562,-0.17042488,0.011816803,-0.03137339
0.08146958,0.035402697,0.0019012627,0.013932344,-4.3586845,-0.00547295,-0.016526094,0.06701325,0.038845792,-0.029983023,-0.011149242,0.12668861,0.041790172,-0.027271643,-1.7161593,-0.8896922,0.042178888,-0.016335404,-0.012108498,-0.016649941,0.025295801,-0.2677077,-0.08406814,0.09837545,0.07396938,0.09269552,0.020839736,0.028749745,0.08660879,0.15171656,0.18653467,0.009685124,0.044373937,0.039571594,-0.27448088,-0.018041618,-0.056716945,0.07596532,0.047839854,0.10098349,-0.007610336,0.07641394,0.02573571,-0.01242685,0.05294436,0.00937576,0.06686079,0.07720398,0.13755052,-0.1864363,0.037592433,-0.008333364,0.07871438,0.07381578,0.083193965,0.072180554,0.027505597,0.10239377,-0.0441835,-0.12366664,-0.07598979,-0.155505,-0.6788418,0.18900563
-0.15151991,-0.005483521,0.011792229,-0.73929834,-0.0040831557,0.012231691,-0.0016524385,0.0011052106,-0.026591256,0.037168738,-0.109856255,0.05386654,-0.023044989,-0.16672608,-0.031410262,0.09996769,0.048799958,0.06299802,-0.14518976,0.0065655056,0.016662167,-0.02404254,-0.0073792525,0.0027372595,-0.014284599,0.00011047644,-9.102088,-0.018200712,0.017965931,0.0034190067,0.07046973,-0.03520153,0.027373832,0.040370274,0.039201338,0.020310957,0.029172184,-0.016351547,-0.016383646,0.08620123,-0.0064224144,0.005113867,-0.5491556,-0.023454113,0.029937722,0.0086730085,0.10286176,-0.14127263,-0.023233648,-0.01629645,-11.535799,-0.014899244,-0.0031023242,-0.10251189,-0.014551435,-0.016192487,-0.012965055,-0.15446874,-0.02388263,-0.0037039043,-0.036985356,-0.027264826,-0.000104283274,-0.0096331965
-0.031825285,-0.004844873,-5.1566734,-0.025941355,0.019320901,-0.14010052,-0.01754869,-0.017432371,0.007292445,-0.014081306,-0.07352988,-0.14753266,0.009064097,-0.09936314,0.058907486,0.021456897,-0.04123515,-0.10153981,0.029925494,-0.03564764,-0.020661706,-0.36043376,-0.018167663,0.00602257,-0.019732157,-0.0064576054,-0.0040638796,-0.021873433,-0.05849542,-0.10452161,-0.06430655,-6.6818686,-0.17860197,-0.12358249,-2.3046732,0.0076662027,-0.76312304,0.028142486,-5.8714957,-0.0072636185,-0.03885798,-0.0008580782,0.014311627,-0.009415875,-0.59643507,0.0033861273,-0.11672086,-0.06741216,-0.060162824,-0.13153863,0.0009893327,0.0048043407,-0.020908726,-0.1056326,0.04540618,-0.23136638,-0.05511242,0.0077977646,-0.000861739,-0.0067915814,-0.17433652,0.10118679,0.0020583263,0.04604939
0.091761604,0.0734773,-0.036906097,0.0032165057,-0.1187962,0.019663906,0.019562375,-0.03411855,0.038274687,-0.0003168909,0.08831452,-0.057012483,0.032624878,0.026064616,-0.079191774,0.009191646,0.114036255,0.022811614,-0.05182075,0.040196348,0.12900308,-0.050001174,-0.045961827,-0.008442095,0.09879584,0.12424317,-0.044148266,0.08064733,0.014601004,0.099855326,0.072237805,-0.31795242,0.11344895,0.07681903,-0.17162503,-0.01025125,0.011867618,-0.0073606586,-0.07260299,0.06515685,0.06319008,0.009288131,-0.027282642,-0.050209627,0.036304124,0.05185035,0.054324508,-0.13372049,0.09227771,0.031781133,0.00139896,-0.42682084,0.039852235,-0.10685884,0.0818767,0.045514155,0.016677026,0.06542859,0.102264985,0.29811078,0.026994029,-0.09926253,-1.4900703,0.18682843
0.11832249,-0.033451915,-0.07657494,0.04675217,0.006227435,-0.014954389,-0.048114207,-0.021294639,0.018998552,-6.925534,0.041595444,-0.040670503,0.003713138,-0.12976386,0.12699857,-0.2579749,-0.25274602,0.023360718,0.02811626,0.05001923,-0.028002866,0.007636664,0.06499007,0.004464613,0.03524455,0.017870871,0.018234396,0.037968557,-0.16895598,-0.03581234,-0.17522085,-0.18863927,-0.03508538,-0.11570326,-0.23476566,0.0045375475,-0.040985204,0.007016819,-0.5498778,0.02023153,-0.03933323,0.015182325,0.087242715,0.004720426,-0.028107997,0.009620453,-0.031526864,-0.06444668,0.0417485,0.0475384,0.0018249729,0.040222555,-0.013995395,-0.19251905,0.014736231,0.019345952,0.015778808,0.1630169,0.041908957,0.023082325,-0.16671762,-0.09693115,-0.0070970813,-0.03327777
0.06437143,-0.010344786,0.13061084,-0.007814544,-0.12540382,-0.09606541,0.024210447,0.07171005,-0.062523045,0.0063501624,-0.13323565,-0.19306082,-0.039465494,-0.04578742,-2.3210166,-0.17612436,0.0064308057,-0.12100697,-0.09185177,0.035374444,-0.035292014,-0.36104926,-0.024135616,-0.009419107,0.055228204,0.0013277492,0.020182094,-0.115067124,-0.17092836,0.12614663,-0.010077676,-0.12984906,0.052391224,-0.148479,-0.0035507085,-0.005542698,-0.031993687,-0.13592057,0.026359335,-0.03079674,-0.07099038,0.016861675,-0.03514558,-0.057054557,0.03798266,-0.0033445205,-0.09712189,-0.18826559,0.1818851,-0.17470737,-0.030282607,0.10331392,0.023314897,-0.040149044,-0.13653167,0.051208723,-0.0450948,0.031832054,-0.51279205,-3.8529031,-0.17130466,-0.088324666,0.08466148,0.18104087
-0.07220102,0.06234606,0.048380423,-0.019776382,0.14735095,-0.13006206,0.046307992,0.018197035,0.09816385,-0.023290845,-0.17845169,0.10728038,0.079379484,-0.059480116,-0.09816201,-0.0070440634,0.17224482,-0.04139831,0.12995006,0.12855223,0.1391195,-1.0401571,-0.012440499,0.05493296,0.12507527,-0.53699106,0.042937387,0.12950209,-0.111220255,0.12561631,-0.055517465,-1.0955809,0.0056575066,0.07791752,0.06783656,-0.00315975,0.15695016,-0.083772175,0.077848166,0.027673865,0.08967637,0.13695806,-0.07044935,-0.037885655,-0.009954697,-0.42013565,0.07430961,0.1224447,0.09108704,-0.09628315,0.02177203,-0.17162393,-0.025446841,0.12406662,0.1582282,0.051276498,0.05619314,0.16611193,-0.019574452,0.13092458,-0.07424041,0.0521021,-0.0005879147,0.08784848
-2.3889155,0.025488663,-0.5581372,-0.02764059,0.11312825,-1.151078,-0.0015045159,0.01326576,-0.045606334,-0.0024898595,0.11698249,-0.17547308,-0.059140492,0.12134864,-0.0038974087,-0.03698492,0.0019215097,-0.019291198,-0.15084991,0.03376087,-0.05055625,-0.07304559,0.024522107,0.032592755,-0.07965837,-0.6378865,-0.07794776,-0.02644085,-0.098250166,-0.036901843,-1.0124058,0.07940744,-0.0063930694,0.016317444,-0.28062367,0.0051977127,0.102475524,-0.035349943,-0.008621477,-0.13256936,-0.116421245,0.026283558,0.018603396,0.04456014,-1.2239615,-0.9032507,-0.03232879,0.09553648,-0.1661376,-0.7445286,0.02718646,-0.07316607,0.017243784,-0.09419667,-0.1253748,0.06724902,-0.06263493,-0.07815801,0.0017316294,0.12436436,-0.15433462,-0.17753887,-0.14817624,-3.4784665
-0.0053227674,-0.05054766,0.013945194,0.014851774,-0.120717235,0.0012565353,-0.00890336,-0.023566993,-0.015758848,-0.013320147,-0.14124379,0.009080314,-0.021173619,0.101839915,-0.0036070524,-0.000906475,0.014881462,-1.8812776,-0.09413092,0.014824921,0.006133963,-0.013596363,-0.28501394,-0.0021940956,-0.013385506,-0.07313548,-0.005208684,-0.027193341,-0.12917066,0.014266601,-0.020679656,-0.024426986,-0.027547184,0.015343639,-1.4796147,-0.007701527,-0.040563118,0.0129765,0.021746662,-0.17903708,-0.034018185,0.0019212612,-0.0005524766,-0.008035856,0.018449271,-0.07188071,-0.17365956,0.0660141,0.0029356221,-0.012171993,-0.0075085647,-0.113685496,-0.030329512,0.0033713987,-0.03013534,0.004597433,-0.6085315,-0.0037625267,-0.036026612,0.010889872,-0.0072055813,0.0015634836,-1.5531412,-0.0161263
-0.08259434,0.029679801,-0.19674303,-0.0013541232,-0.12720929,-0.16065158,0.0012251392,-0.00089489995,0.010283671,-0.036276497,-0.12259264,0.086631835,-0.0056167226,0.017019821,-0.11921306,-0.10158377,-0.027575275,-0.27455074,0.062406063,-0.005914059,-0.0425462,-0.7299616,-0.051397607,-0.0036836776,-0.0462527,-0.020424783,0.020758612,0.031225976,-0.10030392,0.0037688317,-0.06810447,0.1387903,-0.010434204,-0.03831832,-0.43329862,0.0097663235,-0.044392955,-0.02391464,-0.24952303,-0.10370034,-0.016376914,0.016261306,-0.030432867,0.010989548,0.028663546,-0.06033164,-0.09261236,-0.16107012,0.006795882,-0.2503321,0.00668517,-0.002754441,-0.023042832,0.060209695,0.071475305,-0.029019777,-0.059115876,-0.007074271,-0.037019644,-0.103589736,0.015954476,-0.1798274,-0.19308537,-0.037928943
-0.14488167,0.006131889,-6.212476,-0.0366891,0.009734039,-0.43741906,-0.008936715,-0.007997459,-0.005061466,0.0062506143,-0.05181049,-0.16740929,-0.0038961533,-0.0029567357,0.041331362,0.025064403,-0.00016200004,-0.042152938,-0.00050691166,-0.009143225,-0.011216845,-2.618967,-0.044682026,0.0016472376,-0.037310675,-0.01663831,-0.013198831,-0.004142089,0.050583925,-0.032765858,-0.11234107,-0.0068171653,-0.1385955,-0.17296351,-1.3930701,-0.004995366,-0.29098988,0.0090884855,-2.8656957,-0.04330652,-0.06035626,-0.008531779,0.0040947446,0.005721348,-0.62241733,-0.0403558,-0.0562914,-0.042067535,-0.096993335,-6.7419763,0.007447286,-0.0002768364,0.008450568,-0.06620395,-0.0005165864,-0.037380774,-0.0235976,-0.006858057,-0.0072038537,-0.009567439,-0.13374437,-0.13567533,0.0075214184,-0.028437264
-0.0774588,-0.015123035,-1.7199925,-0.0068932204,0.022340203,-0.019776708,-0.0077918353,-0.005027255,-0.019431587,0.0012024062,-0.0477203,-0.091084875,-0.016711779,-0.011014151,0.022118738,0.0031765297,-0.055509962,-0.031706795,0.0023917058,-0.044398446,-0.1131811,0.008895417,-0.46164572,0.013438132,-0.10104404,-0.002115853,0.016720606,-0.07401192,0.014025261,-0.06669827,-0.0555937,0.0030993978,-0.29630825,-0.1350632,-0.68538374,0.0015690089,-0.5542616,0.014870625,-0.0071469597,-0.17233305,-0.20877911,-0.048647676,0.008567812,-0.018207313,-0.1665279,0.004304326,-0.07048882,-0.05312238,-0.2460651,-0.016779544,0.0035047017,0.017471988,-0.016394567,-0.05424737,-0.0095404815,-0.12534004,-0.040169027,-0.036223445,0.0046313843,0.0059306435,0.03904195,-0.015383728,-0.0102987215,-0.062696084
-0.58159745,0.055671107,0.043119002,0.006588905,-0.08740516,-5.2206855,0.17183799,0.11395235,0.05782206,-0.013721425,-0.09117022,0.028825507,-0.004119314,-0.0074048624,-0.23400585,-0.032695983,0.08694168,-0.20398158,-0.01023955,0.049734253,-0.02178661,-0.24248354,0.026212595,0.15486638,-0.050859515,-1.0700434,0.045836832,0.007913516,0.054157462,0.001563465,-0.8135505,0.08196798,-0.06906442,-0.07770882,-0.07558997,0.1396428,-0.05664806,0.085539624,-0.05376261,-0.1658778,-0.029224357,0.10633518,0.044970114,0.16317482,-0.03262757,-0.22366816,-0.17057805,0.05712155,-0.03476732,-1.6572343,0.050164416,-0.40666318,0.10261647,0.10071059,-0.008278766,-0.00022699464,-0.08663826,0.016492162,0.017711446,-0.04090208,0.005364942,-0.17683502,-1.7496616,-0.12935692
-0.06865484,-0.093182586,-0.093546316,-0.028700868,-0.101070195,-0.15409821,-0.045468424,-0.018536307,0.080141805,0.03773905,0.09016876,0.098696,0.120234855,-0.14736874,-0.32827875,-0.5706586,0.017133106,-0.09825407,0.12903327,0.056244597,0.07639792,-1.7157551,0.19118312,-0.0182902,0.025942601,-1.2147391,0.0009646865,0.15301959,0.100041084,0.0018935301,-0.060093142,-0.08148335,0.081334606,-0.11027969,0.123776376,0.021998161,0.07334755,0.024402505,0.024623835,0.011485237,0.15773268,0.0092441095,-0.026306411,-0.017722255,-0.038451042,-1.027277,-0.07921686,0.00057628145,0.008327164,-1.0383731,0.004789548,-0.25717777,-0.14660256,-0.12544389,0.17003638,0.118727736,-0.111180514,0.028790347,-0.09647825,-0.117904805,0.04319682,0.04010919,-0.75592697,-0.1447989
0.14584692,-0.02584506,0.076741055,0.004185942,-0.94884324,0.1492558,0.026838634,-0.004684445,0.013713406,-0.008192758,-0.09922123,-0.14447573,0.041778963,-0.1391069,-1.2588365,-0.054378625,0.0063856943,0.028189773,-0.18628828,-0.049835514,0.058111347,-0.03320006,0.047526225,0.043039653,0.027683923,-0.109300114,0.03080348,0.09074404,-0.117877655,0.08880145,0.081686504,-0.11186397,-0.03135727,-0.08931536,-0.008604808,0.11685551,-0.025081377,0.092350796,0.0051243873,-0.17311877,0.089367,0.025627946,0.011729296,0.009001257,0.009347665,-0.05688389,0.12939504,-0.12768711,-0.009879729,0.034093704,-0.032661095,-0.15731041,0.0063521797,-0.13454397,0.07639381,-0.031437594,-0.041449185,0.043847267,0.09466113,0.27852172,-0.096834816,-0.07743706,-0.013806859,0.10677048
-0.5722188,-0.0036614956,0.002966267,-0.026937915,-3.7934508,-2.9144762,0.05823589,0.042412642,0.13418652,-0.0069352896,-0.19346078,-0.10751038,0.12069541,-0.039041124,-0.13491307,-0.07268747,0.12042938,0.058069326,-0.19544856,0.070222564,0.008064569,-2.4379356,-0.1679865,0.07285636,-0.04388419,-0.24032563,0.007819584,0.015123877,-0.08676831,-0.020997,-0.54877514,0.05927536,-0.028878326,-0.12108466,-0.112910554,0.09832047,-0.015380589,0.06663397,-0.041977357,-0.023132827,-0.0023137648,0.056670465,0.046951856,0.09738293,-0.0022804006,-0.39278513,0.081362374,-0.17221324,-0.105614595,-5.953778,0.049904764,-0.8315028,0.04974252,0.0063887774,0.068813965,0.06679662,-0.0063911956,0.05529297,-0.04536423,-0.15297286,0.022886822,-0.016808476,-0.1267545,-0.14976263
-0.26502725,0.004898175,0.03699725,-6.7876472,-0.006407803,0.0463259,0.018909315,0.03426413,-0.041374657,0.030540535,-0.070546575,-0.08610595,0.029532839,-0.1338951,-0.022240724,0.25093505,0.16511479,0.09897467,-0.060717557,-0.03488389,-0.0063350545,0.017628964,0.052018985,-0.007186122,-0.041916225,-0.012022326,-4.5489583,-0.017107427,-0.11981497,0.00959987,0.2381753,-0.033725973,0.047446538,-0.08652607,0.1631034,-0.018038405,0.051592965,-0.0048083253,0.030155916,-0.06167865,-0.011459518,-0.04155396,-1.6260756,-0.028219586,0.03368392,0.016704218,-0.054461826,-0.0013331082,-0.07382777,-0.029844286,-10.301492,0.014503585,0.054732524,-0.067036755,-0.03583855,0.008516685,-0.003291806,-0.2762196,-0.025886288,0.012077184,-0.07106651,-0.18948676,-0.0006414911,0.005292915
-0.06102166,0.0029998226,0.037931006,-0.03783048,0.05708455,-0.012487352,-0.02197031,-0.022826672,-0.06486216,0.022028849,-0.08940635,-0.08265055,-0.024883974,0.011419544,0.07430664,-0.17486463,0.005476425,0.078190774,-0.20351583,0.04717042,-0.0795346,0.26154003,0.08144823,-0.061795678,0.0155795505,-0.02207587,-0.0507554,0.057416335,-0.04719786,0.093690865,-0.057698313,0.20616007,-0.012983921,0.0050961114,0.120792575,0.025144447,0.0027997347,0.034329213,0.12956926,0.04850913,0.051797006,0.033513367,0.001965267,0.050956734,0.03203954,0.024713498,-0.03772568,0.013173225,-0.0023121056,0.21697795,0.014039073,0.018306982,-0.0005957277,-0.058169644,-0.08803716,0.09075728,0.08224569,0.049931154,0.08034762,0.26774418,-0.17292666,-0.112373196,0.04501167,-0.14126605
0.029875372,-0.14035684,-0.06554304,0.04036193,-0.060820118,0.0019506458,0.054033697,0.011938356,0.014315673,0.029199926,-0.025681898,0.122403145,-0.019462395,-0.11234569,-0.49733028,-0.1133123,-0.025861997,-0.013663545,-0.14449291,0.018738681,-0.006421435,0.006197414,-0.60525906,0.0004004332,-2.6181937e-05,-0.013684913,-0.018833572,-0.18183203,0.059898447,-0.007476234,0.004658598,0.059651867,0.019135118,-0.18595216,0.080167376,0.010127618,-0.02159002,-0.25634074,0.0011227054,-0.074223906,-0.021037603,0.03267207,-0.04002659,0.016707322,0.007220013,-0.040557686,-0.13798234,-0.002715205,0.011550401,0.0077669104,0.006328002,-0.032230496,0.0023830072,0.08616482,-0.25344008,-0.027145315,-0.25500637,-0.047468774,-2.4687152,-0.05174689,-0.054534514,0.086656936,-0.07617214,-0.058962673
0.094942704,0.063071825,-0.025662461,0.06241174,-0.42129883,0.11578212,-0.038782295,0.073760435,0.0472233,0.046228394,-0.007991712,-0.04262968,0.109107606,-0.18678121,-0.5534257,0.04071203,0.07554658,0.027760945,-0.012645193,0.056684706,0.030989308,-0.09727858,-0.0022225745,0.0016149471,0.078297816,0.100234605,-0.020031542,0.025395459,-0.079350464,0.13886352,0.19466023,-0.2611375,0.08632512,0.03690914,-0.18650638,0.010031931,0.026947396,0.060317494,-0.1787988,-0.09226056,0.068335004,0.038498573,-0.05475714,0.010773738,0.035496015,0.17251043,-0.008206793,0.07779838,0.12799685,0.040713158,-0.015427092,0.10559034,0.050508622,0.1452941,0.06863111,0.08559322,-0.005957081,0.05148802,0.04387779,0.109532185,-0.06978653,0.10730704,-0.058551338,0.14672475
-0.060745165,-0.017127248,-0.07302319,-0.01138947,-0.040908325,0.032736633,0.07666023,0.07305765,0.029729636,0.06575434,-0.18386437,0.10116298,0.038831133,-0.1784348,-0.0009750828,-0.10150513,0.047549427,-0.2092373,-0.16801167,0.071332805,0.12158087,-0.020014826,0.16399947,-0.011737643,0.09920241,-0.76408684,-0.01700788,0.07950625,-0.22125939,0.100705355,-0.04619533,-0.02278868,0.041296322,-0.17107907,-0.021705758,0.038271282,0.07746241,-0.05227207,-0.030320797,-0.01577048,0.105429694,0.12335072,-0.034815773,0.10568028,-0.08751334,-0.5062067,0.053937536,-0.144213,0.01143921,-0.05480854,0.016445518,-0.66559875,0.006762227,0.104397275,0.06877508,0.08448465,-0.021922503,0.06344269,-0.04220053,-0.011103786,-0.062285375,0.008875952,0.10113146,-0.077093296
-0.1240359,-0.0074466593,0.028302614,-0.33529007,-0.008904978,0.022099169,-0.011153014,0.008227601,0.0026535727,0.058566645,0.007251651,-0.04617328,0.0004154754,0.07598216,-0.028820165,0.065511756,0.027119257,0.05400539,0.03715511,0.0036377686,0.010456963,-0.029221663,0.037853938,-0.0039839824,0.0028633876,0.008851805,-13.749985,-0.00042451103,0.010902802,-0.019621748,0.026504656,-0.01824126,-0.02093087,-0.018537022,0.08255595,0.010391541,-0.0026521909,-0.0037922373,0.0076874355,-0.14896445,0.0016137626,0.0129662,-0.38354483,-0.02078985,0.009168095,0.00428555,-0.068796135,-0.03192465,-0.019799689,-0.015964191,-1.3941467,-0.010933382,-0.0103174085,0.07438536,0.0021418743,0.009866052,-0.0066044778,-0.11179547,-0.01832516,-0.0006838159,-0.06852795,0.0080219805,0.0053121014,0.014544627
0.0007156977,-0.5763329,-0.008867215,0.0040284647,0.027438419,-0.0018552331,-1.5948359,-1.420478,-0.3445324,-0.0034536056,-0.078246474,-0.14712454,-0.07770125,-0.18565778,-0.008012368,-0.025864458,-0.17767918,-2.2735662,-0.09694828,-0.47027543,0.001491099,-0.0028752654,-1.0780821,-2.601834,0.008539858,0.038148053,0.009621964,-0.14310655,-0.029342925,-0.019213537,0.0028241437,-0.0044245343,0.022472113,-0.089201696,-0.29894766,-3.4005105,0.03645998,-4.5295367,0.0051063118,-0.07807371,-0.26303664,-1.6063963,-0.0077036847,-0.6885343,0.010306659,0.03423179,0.05612446,-0.141327,0.003370654,-0.010605854,0.0018043098,0.029175073,-0.25256154,-0.10755398,-0.09843354,-0.08856339,-0.45456442,-0.039900538,-3.9561,-0.26926717,-0.11247409,-0.06018042,0.025980445,-0.003851531
0.056977276,-0.05562003,0.16117136,-0.055855654,-2.7451687,0.15360044,0.025198013,-0.00764326,0.08277381,-0.07952724,-0.16672286,-0.021700872,0.051803753,0.055914268,0.34975734,0.12016577,-0.010491885,-0.044874303,-0.18240798,0.016371923,0.051414248,0.3570788,-0.12820493,0.05028742,-0.016208975,-0.20821887,0.014247019,0.054717097,-0.06529797,-0.14154972,0.13411805,-1.190239,0.025416017,0.041273415,0.0858993,0.08826293,0.058411848,0.07678661,0.05432192,-0.102711774,0.02492261,-0.010297858,0.042135436,0.009353566,-0.048491895,-0.1356042,-0.18385178,-0.07523025,-0.08495707,0.092165865,0.025330957,-1.3442178,-0.013659789,-0.15572888,0.11627912,-0.076126195,-0.14132553,0.04150569,0.017015934,0.25758123,-0.03683129,-0.068474375,-3.6900365,0.13451125
-0.02816251,-0.0052802647,-6.3772244,-0.026060458,0.010228741,0.009559235,-0.009083888,-0.0010497175,-0.0035859575,-0.00064859056,-0.04134289,-0.04755738,-0.012320279,-0.11342358,0.021667635,0.0052712252,-0.022192659,-0.058125038,-0.13343811,-0.019345932,-0.090882145,-0.017758278,-0.16563654,-0.0003204745,-0.09614895,0.012161289,-0.12893225,-0.064286515,-0.062783845,-0.031147772,-0.025569117,-0.04789964,-0.5497959,-0.14417265,-4.6701856,-0.009937752,-4.3434362,0.028498959,-0.32042247,-0.1387846,-0.3956588,-0.00038702664,-0.009150003,-0.008075187,-0.13533942,0.024426298,-0.082459874,0.03365028,-0.043452654,0.018193252,-0.026414748,-0.0039160335,-0.013723851,-0.06751503,0.0014065045,-0.15590931,-0.019182941,-0.0352137,0.02318292,0.013335343,-0.02605529,-0.07343842,0.011011306,0.0059216754
-0.35448042,0.0018789015,-1.709581,0.0032544562,-0.002254599,-3.9081125,-0.027511317,-0.013135008,-0.0058951452,-0.01312163,-0.02430263,0.10080827,-0.010166128,-0.17972796,0.027408926,-0.0037656003,-0.0013100028,-0.051396832,-0.017784541,-0.00440293,-0.023487223,-0.5573609,-0.032539155,-0.0041923393,-0.053132452,-0.14746471,-0.005787371,-0.006860896,-0.12559848,-0.0704909,-0.397285,-0.0046371324,-0.19173117,0.057068937,-0.7003759,0.0064466186,-0.122008406,0.032634728,0.34589657,-0.13677825,-0.033372488,-0.0056400434,0.01907863,0.018540682,-3.2644877,-4.0958247,0.015227412,-0.07219079,-0.22377476,-2.5686061,0.012315677,-0.0520752,-0.0053234,0.011684081,-0.014284568,-0.034036,-0.04231025,-0.013880142,-0.0144128,0.054008715,-0.01531484,0.033987332,-0.05051957,-0.12780201
-0.027474875,0.050042152,0.053611863,0.0007912881,0.012593201,0.1193723,0.013790531,-0.00085419347,-0.03721722,0.010890273,-0.07166692,-0.111065455,0.025908526,0.012665893,0.06516156,-0.013155826,0.051422916,0.0019243843,0.0064076292,0.007959034,0.050502896,0.2101861,0.07677165,-0.00893534,0.022064572,-0.031432714,-0.009349045,-0.047403254,-0.11286323,0.09762554,0.022091605,0.36136228,0.08137822,-0.17445101,0.17420603,-0.01112501,0.0044766976,0.0052883914,0.046805225,-0.035354655,0.018449854,-0.004033163,-0.026942063,-0.03823978,0.05007892,-0.021771528,-0.12821853,-0.06094248,-0.010876217,0.16569296,0.06497852,-0.0036193803,-0.066987425,-0.12075436,0.03718767,0.027681135,-4.3730946e-05,0.051171448,-0.091639996,-0.14656977,0.09648226,-0.035282798,-0.0017037306,-0.014776028
-0.026567632,0.0014389522,0.06116994,-0.02346168,-1.0361406,-0.0077821556,0.14196993,0.17788504,0.1310465,-0.03596999,-0.1188703,-0.16682494,0.06158152,-0.16994132,-0.034602437,0.09931819,0.045890123,-0.41153604,-0.050342742,0.10609035,0.019162094,-0.12210581,-0.07101256,0.21251231,0.01092716,-0.74189067,-0.01931504,0.03585638,-0.1282292,-0.024114665,0.0012725934,-0.03589116,0.006723595,-8.344894e-05,-0.06990225,0.17736283,0.047916792,0.09832685,0.03301574,0.11549741,-0.008966881,0.102693036,0.028917177,0.19672178,-0.046037823,-0.61522686,-0.13726708,-0.058474347,0.0036553638,-0.08037285,0.012436763,-1.0587409,0.10206351,-0.08759901,-0.010289637,0.07559428,-0.23827069,0.046755247,0.066060945,0.16575351,-0.17689988,0.028812302,-1.7458633,0.025521463
-0.029243967,-0.04939276,-0.12947184,-0.016880276,-0.0015352782,0.011292192,0.0060600606,-0.008422666,-0.029560545,0.009785685,-0.075575106,-0.06957451,0.0336403,0.011834115,-0.15881512,-0.13134879,0.011933058,-0.06192582,-0.08174912,0.023729224,-0.022087492,-0.09369168,0.019936586,-0.026632821,-0.0023632776,0.013760046,0.06536138,0.034223754,0.13173637,-0.07043635,0.02726424,-0.7004333,-0.023173561,-0.12052292,-0.32368928,-0.015122489,-0.052982386,-0.0044734944,-2.598455,-0.18007427,-0.01823745,0.02143818,-0.012611392,-0.04436412,-0.025305813,0.014253214,-0.1453787,-0.14592446,-0.023598462,-0.08347837,-0.014854653,0.026285358,-0.023585128,-0.16008703,0.05485302,-0.015959727,-0.023362765,0.020886233,-0.0002345634,-0.11735821,-0.1593437,0.045075662,0.052306652,0.075482845
-0.05656852,-0.18735124,0.061731137,-0.014331534,-0.39283913,0.029632164,0.046853136,-0.049610924,0.045457937,0.0481861,0.10995291,-0.19447637,0.16249068,-0.09958404,-0.34666097,0.097297005,0.15059598,-0.08519181,0.021748671,0.11406284,0.12086853,-0.07167871,-0.014085899,0.016600175,0.19360545,-0.9632979,-0.015798792,0.099873096,-0.19167615,0.11891442,-0.116971046,-0.06383068,0.17122354,0.04042108,-0.11158905,0.078647286,0.05735586,-0.026966484,-0.09927277,-0.13062093,0.09349684,-0.007661725,-0.028279804,0.093043454,0.073362775,-1.8882651,0.05022432,-0.0010068864,0.1382854,0.07120131,0.055943534,0.05789717,-0.10162082,-0.17495112,-0.06810372,0.13478449,-0.1257731,0.09369814,0.041505434,-0.45601037,0.066440366,0.08907594,0.52369934,0.053568948
0.17048806,-0.09981779,-0.07025769,0.04550893,0.06134338,0.15654737,0.05164278,-0.009565797,-0.013225259,0.0306111,-0.16937631,-0.018986488,-0.05173245,-0.15549049,-0.8908227,-1.1374104,0.007644641,-1.1546963,-0.08377032,0.05104193,-0.013895959,-0.0048569757,-0.12090088,0.004659592,-0.056905966,-0.058511205,0.026715433,-0.020300724,-0.18984371,0.067479454,0.14711227,-0.06763171,-0.074291624,0.1108337,0.06571214,0.0008256859,-0.09848123,-0.523747,0.05094271,0.05274414,-0.013958565,0.0014050067,-0.011593502,0.0063261217,0.11739564,-0.043521374,-0.12034007,0.06852011,0.068579525,0.008235383,0.028047033,-0.020939859,-0.044503354,-0.14098655,-0.18364272,0.08082226,-0.18380226,0.05446609,-5.2214565,-3.3079984,0.06904023,0.070103996,0.0006717379,-0.05486303
0.119767904,0.0021825389,-0.030993091,0.036552474,-0.0224793,0.18229978,0.0069012432,0.07091862,0.017938409,0.09293475,-0.023870382,0.012079856,0.015677264,-0.06870987,-2.7804358,-1.0684171,0.01360411,-0.001052591,-0.15196164,0.056862865,0.03937981,-0.13137442,-0.00688365,-0.023701759,0.054886024,-0.044202894,0.002655722,0.017394833,0.06685365,0.09206089,0.121026926,-0.09886611,0.048319362,-0.12058854,-0.014989559,0.08095607,-0.031927194,-0.17477421,-0.023322001,0.061211422,0.007775032,0.017246997,-0.051384773,0.009169269,0.11182136,0.044682343,-0.15684195,0.0125397695,0.17973393,0.093947925,-0.013496392,0.036366284,-0.0144573245,-0.0293123,-0.03238021,0.009153876,-0.07508556,-0.025483394,-0.28199932,-1.7006925,-0.12411476,-0.0053587067,0.08461589,0.06513975
-0.20317587,0.12646076,0.0057300916,0.0038308345,-0.12443257,-1.0945891,0.06598091,0.14981225,0.025972722,-0.014012287,-0.012158657,-0.09313149,0.04444719,0.0064952024,0.39656168,0.066678196,0.006332959,-0.00822571,0.014733519,0.046758708,-0.025780817,-0.9994211,0.051074635,0.14077035,-0.050249998,-0.22147255,-0.2597595,-0.053557552,-0.004881184,-0.024425728,-0.094203085,-0.014225472,-0.028185964,-0.030507382,0.022146652,0.14346492,-0.030169686,0.023220124,-0.019939486,-0.025742019,0.032448057,0.088675134,-0.046397872,0.080384575,-0.020709934,-0.37561744,0.043560497,-0.04755022,-0.037342235,-2.1415217,-0.0737957,-0.13891114,0.08023707,-0.010111304,0.0013702804,0.00621029,0.12188595,0.018199874,0.044028025,0.0082328515,-0.099571526,-0.16298856,-0.1363002,0.0082083065
-0.11772222,0.015997335,0.13793579,-0.014020146,-1.1473516,0.0015512574,-0.014929446,-0.004383873,0.06816389,-0.0015105193,0.014789579,-0.19751811,0.14429337,0.07259641,-1.6723206,-1.6724316,0.041694906,-0.019027118,-0.10711555,0.13663384,0.18375969,-0.09774809,-0.17877604,-0.048889454,0.14566435,-0.34662616,-0.033233386,0.09419647,-0.10432734,0.14050807,-0.06617435,0.02299273,0.055927385,0.05558738,-0.17156295,0.0071583637,-0.012366069,0.0183763,0.056669563,-0.18480653,0.04294364,0.027959924,0.019786179,-0.06509575,-0.026846817,-1.9473107,0.044131927,-0.10158434,0.08198079,-0.07316867,-0.002045628,-2.3501759,-0.04977639,-0.19603387,0.22712578,0.05778881,-0.074116394,0.17652823,-0.103473864,-0.5559405,-0.06486428,-0.0089158015,0.315307,0.1166983
0.006595522,0.09067846,0.12184192,0.029589301,-0.17503427,0.015068303,0.12689233,0.12654284,0.1476064,-0.03465144,-0.18042901,-0.06245144,-0.010546291,-0.04144005,-0.09149931,-0.074742794,0.10902686,-0.1769344,-0.18290463,0.13496275,0.010319376,-0.08090955,-0.10648741,0.18101542,0.00093436113,-0.55955225,0.07093074,-0.0028225246,0.0900388,-0.049560357,0.021791873,0.096952334,-0.07251329,-0.17300479,-0.09269938,0.19465004,0.037142213,0.14047247,0.10131334,-0.04124825,-0.027604982,0.097337686,0.017594438,0.11617558,0.0019654157,0.072321735,-0.06256974,-0.14431848,0.021059655,0.032021068,-0.019371627,-0.093802445,0.1614513,-0.054232307,-0.032758154,0.021338657,-0.13385887,0.028267086,0.04582084,0.09437801,-0.074119695,-0.06112937,-1.410042,0.0072972965
0.006148818,-0.8832774,-0.0012362459,-0.00532115,0.01842442,0.004476634,-0.035099093,-0.115333706,-0.0038059861,0.0052036135,-0.07731888,-0.056547966,-0.0030730625,-0.19354965,0.009880088,-0.0010527071,-0.00094440626,-10.696006,-0.03915016,-0.012661136,0.0012166151,0.0010940711,0.009665817,-0.08185495,-0.0025624377,0.014606122,0.0058007194,-0.009505945,-0.19857864,0.008170114,-0.005945972,-0.0012739565,-0.0016887058,-0.028720303,-0.06828055,-0.011706586,0.005627429,-0.008494141,-0.0042534173,-0.07836317,0.0069604344,-0.045918833,0.0002960647,-0.054875005,-0.004124071,0.010092898,-0.17078196,-0.015904432,-0.0037456974,0.0017111752,-0.002750607,0.007981542,-0.32319656,-0.009492715,0.015158395,-0.016319325,-3.4594657,0.0032883256,-0.04614031,-0.021266665,-0.061015673,-0.18189937,-0.005938993,0.004722364
0.049934458,0.016308336,0.0271593,0.10403084,0.0196662,-0.03563804,0.0014959694,0.011426175,-0.0021999297,-10.413453,0.008101707,-0.09742703,-0.0054521738,0.014572905,0.053907122,-0.43160743,-0.22982854,0.03257213,-0.14078484,-6.0051956e-05,-0.02099734,-0.012486561,0.012026156,0.0048572267,-0.019272625,-0.006803939,-0.04181415,-0.023835596,-0.0075918837,-0.017208962,-0.16823207,0.058993876,0.00019279306,-0.005415192,0.022136943,-0.020044023,-0.008297879,0.0034954702,0.0236762,0.017734881,0.027991492,0.017327322,0.12325417,0.018366387,0.002512417,0.006852405,0.018063439,-0.20804773,0.03248747,-0.022194933,0.072601356,0.028102238,0.002611295,-0.12975734,0.00053756294,0.0092667015,0.031402037,0.06680018,0.0145681985,-0.039760873,-0.18280512,-0.17011322,-0.016397178,-0.016710509
-0.1313449,0.041707523,-0.021926457,-0.13457838,-0.29943162,-0.21652023,0.0036978757,0.018482735,0.010403301,0.058519445,-0.17119175,-0.13633627,0.0076261503,-0.14744535,-0.023113407,-0.016893517,0.008394375,0.17176968,-0.15955456,0.022265013,-0.038596265,-0.8551031,0.023785092,0.029914556,-0.0068771658,-0.0068740714,-0.28355473,-0.058468726,0.06330048,-0.021143688,-0.09858956,-0.42178875,-0.0069864104,-0.08270733,0.03691931,0.027270012,-0.019333538,0.009759799,-0.17519748,0.06134991,-0.025776673,-0.014632781,-0.025722286,0.02743088,-0.03176864,-0.08506521,0.08549512,0.11363552,0.038667105,-0.30458945,-0.112763464,-0.024695111,0.010006181,-0.075159736,0.081702314,0.0015237476,0.08960636,-0.011281392,-0.022207554,-0.10399374,0.077035025,-0.009842231,-0.12648575,0.097083434
-0.1461358,-0.14871565,-0.021002699,-0.045769315,-0.20657785,-0.039101142,-0.037635352,-0.14736429,0.09617158,0.06266614,-0.060986396,-0.13523199,0.01223324,-0.17286782,-0.35641697,-0.38734505,0.07120792,-0.061905984,-0.12127158,-0.01684058,0.14726795,-1.1327925,0.08649614,-0.14501731,0.06916449,-1.6996236,-0.06530976,0.1266709,0.076847434,0.07094189,-0.30774653,0.033870075,0.118868455,-0.046962745,0.03716568,-0.0146671515,0.16775574,-0.004915219,-0.037710074,-0.16008909,0.15189764,0.005848651,-0.06288796,-0.011753741,-0.024384022,-2.0869808,-0.0022062839,0.004865203,0.007376102,-0.28912982,-0.039458264,-1.3399134,-0.15241183,-0.15982252,0.064858586,0.07878169,-0.08787816,0.10949109,-0.05867244,-0.30704135,-0.17519622,-0.1863201,-1.4566178,-0.04217042
-0.002312902,0.1935105,-0.07344484,-0.0045274002,0.019904675,-0.0018246645,-0.34792674,-0.3115824,-0.5400076,-0.017599244,-0.037967432,-0.14941949,-0.42962128,0.012481524,-0.012192562,0.0019597146,-1.5905379,0.2916825,0.052316044,-1.7584949,-3.6573377,-0.0055607473,0.3461924,-0.40540272,-0.095273726,0.037078965,-0.011516438,-1.3603156,0.0356701,-0.13003747,-0.014784805,0.0044105034,-0.21725012,-0.16188952,0.09922096,-0.5018106,-1.1524539,-0.5343702,-0.014623379,-0.18493198,-0.6978501,-0.34062067,0.012085535,-0.18423188,-0.039588623,0.0494277,-0.04556175,-0.027666567,-0.039217047,-0.011933502,0.007284574,0.045485634,0.16696177,-0.04419771,-0.21872364,-1.5900086,0.5229401,-0.254913,-0.9847272,-0.0071574114,0.007051626,-0.03653072,0.03833915,-0.047836233
0.04917495,0.048730686,-0.04707866,-0.0033646752,0.19234167,0.022353524,0.16343266,0.117583804,0.07210902,0.01838624,3.728549e-05,0.10838705,0.08306594,0.12258501,0.099792734,-0.22858621,0.08483472,-0.090034254,-0.07940338,0.10710462,0.025637954,-0.14586638,0.020068532,0.07714659,0.09716002,-0.35931462,-0.0050325664,0.055066727,0.057689663,0.049237207,-0.02726477,-0.21989729,0.05877456,0.013510694,-0.0815269,0.058939237,0.052145466,-0.13591996,-0.058248173,-0.117485374,0.11019287,0.070828795,0.058562275,0.13868421,-0.03770616,-0.4933808,0.11062598,0.047985137,0.04679931,0.20574701,0.0051080273,-0.004687972,0.12415151,0.112947255,-0.045537643,0.16776876,-0.04185249,0.06814953,-0.16989446,-0.037536364,-0.10853793,0.054447066,-0.15237854,-0.08504914
-0.018269513,0.014940562,-0.123398215,0.002100215,0.008077481,-0.004486612,-0.022778116,-0.031371705,-0.07821229,0.005192125,-0.18477172,0.056262504,-0.13915485,0.06642511,0.007071519,-0.0013654896,-0.004579735,-0.102353975,0.0019371373,-0.019790681,-0.6597221,0.006072618,-0.23747076,-0.02167349,-0.17111877,0.0059770676,0.0013053946,-0.37395668,0.021239173,-0.012511027,-0.010465467,0.008040187,-0.2855364,-0.05658313,-3.8675156,-0.03682102,-1.9098454,-0.01229909,-0.013138887,-0.13561536,-6.651848,-0.1033879,-0.0019602012,0.009079044,-0.010227151,-0.0015299525,0.0004123655,-0.14722532,-0.019430442,0.003150549,0.0014235674,0.006003474,-0.010194132,-0.044502303,-0.0727344,-0.0053172978,-0.049701042,-0.019824436,0.021820668,0.0065789465,-0.06723521,0.04238411,0.0043405173,-0.06402378
0.018990416,-0.06370928,0.051715266,-0.005319601,-2.315582,0.055803433,0.010717016,0.01192834,0.060945302,0.0028320877,0.07965927,0.00790763,0.15245843,-0.03351895,-1.7044024,0.02090068,0.13573846,-0.4865979,0.07683461,0.09723807,0.094565205,0.010846866,-0.1574663,0.022918439,0.11032296,-0.12441035,0.01639092,0.022177855,0.06268394,0.1469221,0.008297965,-0.03395804,0.049769413,-0.14458875,-0.2298724,-0.013352892,-0.023442587,0.074429184,0.093614854,-0.13054352,-0.07269166,-0.05409189,0.015123046,-0.0039028719,-0.024176128,-0.20163746,0.06634652,-0.07889268,0.048938595,-0.0754015,0.011841059,0.07571363,-0.024826864,-0.14807515,0.13257606,0.10029604,-0.19291723,0.14139722,-0.13321234,-0.2292957,-0.13786417,-0.1738371,-0.05142985,0.08048507
0.058563907,0.053025927,0.021318574,0.057052363,-0.48056525,0.14919329,-0.03807438,0.07131647,-0.012235098,0.041414816,-0.089326605,0.06931395,0.0039011787,-0.010231645,-1.2534522,-2.456684,-0.012593005,0.06344798,-0.111754216,-0.025923913,-0.01087846,-0.095092595,0.083370544,-0.020461703,0.06855248,0.02981899,0.018938255,0.102572866,-0.087401986,0.06860233,0.10706702,0.014484872,0.09984332,0.07737788,-0.025954684,-0.011619112,0.1144831,0.040229492,-0.0097550135,-0.1558593,0.084670514,-0.023220537,-0.03850395,-0.042316876,0.13896264,0.027008258,-0.042100724,0.054789636,0.13979425,0.11618435,-0.051753677,-0.04863741,0.018388368,0.0059477356,0.01040522,-0.037792347,0.108037926,0.01754258,0.020268068,-0.037740428,0.059846103,-0.18982409,0.00065889285,0.04861417
-0.05098566,0.07594778,-0.076258846,0.056162167,-0.25363073,-0.2150365,0.06872024,0.055921834,0.1339008,0.022809612,-0.15031658,0.018612223,0.07046977,0.03657257,-0.31747878,0.12797299,0.08823042,-0.1375206,0.00871003,0.09012297,0.031123033,-0.8707373,0.17794548,0.040133096,0.008631388,-1.3910087,0.014173498,0.09115572,-0.08976915,0.07178791,0.03630516,-0.004633943,-0.03276687,0.04520597,-0.045540288,0.03800273,0.0512994,-0.022592144,-0.0072515416,0.082068585,0.051891744,0.014377824,-0.017982332,0.036403615,-0.0417046,-0.09008423,0.062325034,0.005044619,0.019690113,-0.74363947,0.0013923116,-0.22274245,0.033891007,0.106727324,0.119103365,0.029709207,0.034346763,0.05454769,-0.015180783,0.082993574,0.09139186,0.025976917,-0.20017648,-0.03923339
-0.03321616,-0.03419383,-0.115567096,0.015032629,-0.70663035,-0.2736616,0.039561197,-0.02747973,0.11406618,0.042494986,-0.14384048,-0.13521358,0.17182839,0.032212455,-1.1102611,0.06859521,0.11749692,0.0033789612,-0.071294814,0.09893225,0.16994837,-2.7338762,-0.0041106655,0.017185269,0.08736393,-0.21652153,0.024241079,0.17578362,0.009585326,0.14721367,-0.03647839,0.09354528,0.019364992,-0.1911442,-0.38576582,-0.029364005,-0.10201535,-0.040567964,-0.061983038,-0.060794204,0.07574979,0.038959254,-0.026175682,0.0014787972,-0.033284355,-1.4081143,-0.16941349,-0.19904755,0.021260947,-0.90838283,0.0015619692,-3.284152,-0.015958332,-0.021651044,0.21469893,0.10712249,-0.065626346,0.1752723,-0.03778786,0.0008106685,-0.08103508,0.04983345,0.37707126,-0.0057494463
0.053655718,-0.007122142,-0.0150162075,0.07354568,-0.0012484487,-0.008945152,-0.011921439,-0.031317733,0.01578873,-1.7269642,0.023860898,-0.05050369,-0.0039372873,-0.014326634,0.059821486,-0.32323897,-0.25368065,-0.060892984,0.031606324,0.025862029,0.013768472,0.021348875,0.048872534,0.024810577,0.009861549,-0.011072756,-0.021060308,0.026739512,0.028186398,0.006163734,-0.1412393,0.032204866,0.0017485853,-0.13232906,-0.06434437,-0.03189357,0.044652514,0.06370692,-0.046797372,-0.08792953,-0.006225974,0.0050000604,0.09706288,0.025903892,0.011717207,0.008330607,0.01683065,0.040021043,0.0056037675,0.015447858,0.053665273,0.0027211935,0.000110458,-0.008010846,-0.0025201342,-0.004562193,0.025922723,0.019066637,0.030452155,-0.03986372,0.037446346,-0.08562686,-0.009160503,-0.0015237969
-1.1273568,0.02718154,-0.079535626,0.013552322,-0.5279763,-3.6928582,0.10291592,0.16331784,0.04421801,-0.04386268,-0.011869122,-0.103768095,0.013378398,-0.18637837,0.011741817,-0.0839293,-0.008671778,-0.26381058,-0.060414977,0.08077995,-0.07884583,-0.14744194,-0.13450697,0.18397458,-0.064439654,-0.7349769,0.03100037,-0.08134772,-0.046774294,-0.08503623,-3.5985603,0.044629887,-0.0030615607,-0.10133633,-0.06610958,0.15772924,0.022915214,0.13849507,-0.0374121,0.08393094,-0.060900617,0.08012242,0.037233952,0.17255494,-0.23603876,-0.33944958,-0.10436403,0.021123152,-0.023108056,-0.7854638,0.030673964,-0.6985629,0.16479236,-0.029548788,-0.09706586,0.032378994,-0.1516365,-0.031447675,0.13754599,0.045522705,-0.0012480196,-0.093561955,-2.1755908,-0.3797838
-0.059993427,-0.04468327,0.12373522,-0.02186078,0.017825563,-0.075193375,-0.0030322317,0.052260716,0.022842001,-0.033857305,0.012237009,0.012976142,-0.032214966,-0.16137284,0.06536888,0.04179712,-0.06211488,0.33729747,0.056615084,-0.06535825,-0.036880486,0.026202677,-0.108700015,-0.015945943,-0.07966175,0.030156756,-0.0031534906,-0.1984343,0.036892436,-0.01012041,-0.09719201,0.11063379,0.034929793,0.052491087,-0.06833782,-0.05626721,0.046788853,-1.6962397,0.09775163,-0.087966375,0.0024986337,0.049193416,0.046783812,0.046931215,-0.013118746,0.034758683,-0.0649284,0.02474218,-0.11124093,-0.04903959,0.026936322,0.041738603,-0.002344956,0.04183498,-0.6261533,0.017216343,0.0466701,-0.025912669,-3.2937346,0.06975135,0.016747704,-0.0037868337,0.040741462,-0.40392238
-0.0352213,-0.018973928,-8.838736,-0.016709791,0.013393717,-0.057992607,-0.009914699,-0.0006913424,0.0053587975,-0.0019489795,-0.19574912,-0.10094704,0.0032500327,-0.061046354,0.032875817,0.013734699,-0.05026776,-0.09514091,-0.0809679,-0.017011864,-0.0033170956,-0.0896406,-0.05374036,0.013145258,-0.017163314,0.000928358,0.015996072,-0.012082103,-0.06298513,-0.05005609,-0.05786418,-0.1495634,-0.22366731,-0.1029207,-4.6087704,-0.006445506,-0.97537357,-0.0003294291,-8.041121,-0.13573883,-0.064058274,-0.003674578,0.009786394,-0.009308905,-0.387905,0.0090767555,-0.16777657,-0.16969109,-0.028149726,-0.02690229,-0.0009641462,0.011324669,-0.006252013,0.040862285,0.010493997,-0.15701473,-0.063158676,0.0034736504,-0.002873009,0.0173344,-0.06899334,-0.19040637,0.0041160523,0.013341647
-0.072084956,-0.0030476856,-0.22731644,-0.20715456,0.019883486,0.021520466,-0.028451063,-0.001944817,0.0068674656,0.024963977,-0.083195515,-0.10640549,-0.027704755,-0.109774195,0.009320026,0.030696027,0.032571256,-0.04576119,-0.17244235,-0.020496618,0.0071285414,-0.0062155933,-0.075989395,-0.008494847,-0.020887062,0.0077755107,-7.8498735,-0.011200603,-0.099921376,0.022737486,0.017496187,0.00038437324,0.018495247,0.025710082,-0.5788596,0.014631856,-0.11440974,0.0073122256,-0.25615495,-0.020631006,-0.075092465,0.006505209,-0.06207307,0.0068651987,-0.022645988,0.0070974743,-0.15370175,-0.029870149,-0.04985272,-0.0068613626,-0.09381053,-0.006635884,-0.010807511,-0.17751785,-0.021140315,0.02772665,-0.04799058,-0.08339237,0.013701858,0.0097918855,-0.17806797,-0.104702674,0.0034283819,-0.04155034
-0.010328049,-0.028052194,-0.9254126,-0.009697076,0.003489722,-0.07547364,-0.00615288,-0.007815722,0.0067830905,-0.005901533,-0.16219066,-0.11209143,0.00012854663,-0.1723092,0.034323435,0.018240213,-0.010704545,-0.10027612,-0.05169616,-0.010000227,-0.015956758,-0.64385545,-0.035614632,0.011710012,-0.007187014,0.0006753112,0.0018292016,0.00335022,-0.04184387,-0.017846223,-0.0051669674,0.011617964,-0.06338014,-0.08324099,-1.5040921,-0.007059757,-0.31126273,-0.0027444707,-11.524037,-0.035558637,-0.05830265,-0.008182467,0.0071221525,0.0072559253,-0.1211816,-0.011240073,-0.06563735,-0.204945,-0.022408659,-0.13424815,-0.0019422551,-0.0006693526,-0.014982101,-0.022220429,0.015511392,-0.043127313,-0.020997414,0.012406595,0.0068079242,-0.009798734,-0.18229717,-0.02782442,-0.0085499035,0.01228926
0.13257769,0.03208154,-0.032621756,0.027433457,0.006341491,0.27863833,0.033169176,0.011017075,0.029017493,0.036736395,-0.049548343,-0.19435626,0.025116663,-0.13700026,-1.029068,-0.14806426,0.06645494,0.0206728,-0.19016044,-0.0037405535,-0.0031355226,0.13435283,0.038933035,0.024375616,0.05732988,-0.07085139,-0.049545072,-0.000765376,0.0404493,0.06727152,0.18963206,-0.11426753,0.03791917,0.07953371,-0.05626244,0.02251154,0.03476867,-0.016326984,-0.13624927,0.08059428,-0.0041842274,0.01924519,-0.05840427,0.08104429,0.06901423,0.016157761,-0.042063907,0.10648199,0.08558605,0.20518506,-0.037314903,0.018072331,0.028845007,-0.08020251,-0.08349357,0.033952735,0.090717666,0.011810732,0.03213672,0.07144003,-0.14538635,0.046023805,-0.022248926,-0.0014679647
-0.08105233,-0.0013574933,-1.4340969,-0.036268234,-0.013727372,-0.17887974,-0.015060432,0.0032004456,0.0068373387,-0.0072204284,0.06306826,-0.14540806,-0.00942189,0.11481144,0.025455471,0.01050958,0.028553655,-0.044227775,-0.11954494,-0.0007279437,-0.0039998884,-4.0212984,-0.05921614,0.0052762,-0.018505692,-0.045726083,0.008682248,-0.008978017,-0.11546282,-0.0025819652,-0.051425643,0.03440132,-0.080248676,0.09122969,-1.1976011,0.006641295,-0.1999319,0.005161969,-8.373261,-0.19878016,-0.068164185,-0.0012173831,0.008730939,-0.0038801325,-0.12525043,-0.21704236,-0.029070951,-0.082380764,-0.036322586,-0.52689815,0.0105581675,-0.008146641,-0.0023307214,0.089605376,-0.0028882595,-0.017421963,-0.01873341,0.0024846054,-0.014895903,0.010158094,-0.10052287,-0.060106754,-0.050070237,-0.033891063
-0.031359088,-0.08592631,-0.07184816,-0.0031914066,0.14363423,-0.018212304,-0.12743226,-0.011551627,-0.17061652,0.013009992,-0.23758212,-0.17600611,-3.5669382,-0.09152691,0.055624656,0.036247775,-0.21263415,-0.053502373,-0.1594472,-0.6702875,-0.6258876,0.009452224,-0.32573473,-0.040136788,-0.15904002,0.15611881,0.0012073419,-1.2171783,-0.16435571,-0.11397464,-0.0325606,0.02610014,-0.097542696,-0.08912765,0.88877046,-0.21147816,-0.15268621,-0.024705792,0.012346512,-0.15741296,-0.7926066,-0.19616325,0.0024908762,-0.08263699,-0.027376935,0.15766382,-0.062315296,-0.048796047,-0.07510621,0.03275577,0.0037483918,0.12303412,-0.0079055345,-0.17868488,-0.36938632,-1.6722103,-0.09889557,-0.52812076,0.11026944,0.23277235,-0.16532296,-0.23079057,0.11480042,-0.17174384
0.12246442,0.051010136,0.040746775,0.011450038,-0.6322205,-0.12714581,-0.04550622,-0.013070595,0.10640356,-0.02147566,-0.0645452,0.02592056,0.13290188,-0.12838694,-0.049195625,-0.18876123,0.039935376,0.10994582,0.035288893,0.05819762,0.054113228,0.00197795,0.18793853,-0.104794204,0.053657606,0.1107995,-0.042738944,0.17887107,0.015789125,0.068376906,0.15972969,-0.18541037,0.0204254,-0.053846948,0.15590261,0.02541294,0.07263131,0.17930353,-0.016127415,-0.20033135,0.07449994,0.030451803,0.07798213,-0.063110344,-0.0044099265,0.19353223,0.07072788,0.052194044,-0.07197146,-0.18986404,-0.058177456,-0.03303403,-0.00026818973,-0.12907837,0.2052394,0.01705544,0.07936107,0.10952148,0.3047958,0.41432807,0.0692658,-0.03556702,-0.9442869,0.18193763
0.09702243,-0.14063263,-0.04962702,0.043667447,-0.015077717,0.013861404,0.060893264,-0.0092488425,-0.041260563,-0.025560789,-0.08786973,-0.051006556,-0.043489113,0.072787404,-3.3402696,-0.23790447,-0.07019257,-0.35610342,0.08420202,0.0156803,0.008520504,-0.018809527,0.04316686,-0.026544767,-0.039377287,-0.034312855,0.018097023,-0.0074952682,-0.09309482,0.013331749,0.06462495,0.027663626,-0.024142215,-0.14778568,0.04063851,-0.06784306,-0.04213259,-0.493251,0.1524957,0.12854537,0.05363409,0.003682457,-0.04034585,-0.026303465,0.044263158,-0.046862025,-0.013344968,-0.07790316,0.062072616,-0.08358989,0.009780065,0.0064324825,-0.023925176,0.057683103,-0.13440706,0.0032287836,-0.18217549,-0.031322625,-1.3379488,-4.6337447,0.07175299,0.035278592,-0.021232946,-0.016935542
-0.10712996,0.05501216,-0.018682685,-0.0014010267,-0.05493118,-0.053183384,-0.057198107,-0.08456201,0.08277954,-0.06414857,0.06374077,-0.12336582,0.14537342,-0.060003217,-0.22574963,-1.1133331,0.030693848,-0.054021873,-0.016233157,0.008118062,0.109937355,-0.13529502,-0.085221246,-0.027583849,0.12649107,-0.20940314,-0.02447273,0.07042243,-0.03615375,0.12749077,-0.07579536,-0.013346696,0.14153135,-0.15464649,-0.18269886,-0.0406364,0.04923849,0.016648293,0.05865716,-0.02375319,0.064012,-0.006884234,-0.0017627903,-0.03076015,0.056393716,-1.9452682,-0.16359584,-0.024688452,0.15273938,-0.06933792,-0.0036787153,-2.6481023,-0.03164172,0.069173254,0.14069824,0.111742005,-0.025447203,0.14209062,-0.013754319,-0.36122057,0.009506649,-0.03534813,-1.9359994,0.18613726
-0.087383166,-0.04757801,0.20711595,-0.007430205,-1.7282209,-0.16747281,-0.021411471,0.021328583,-0.10612278,-0.014539965,-0.08510564,-0.1594058,0.050706126,0.05713415,0.066326514,-0.63510513,0.052043915,0.06881545,-0.15701357,-0.07618989,0.061191373,-0.11144295,-0.15300962,0.00010630303,0.18327817,0.29235062,-0.04039197,-0.09694969,0.06319988,0.13209555,-0.119874194,-0.036214255,0.20158179,-0.13489313,-0.12082904,-0.067348905,0.10519404,-0.06913616,0.036577944,-0.00026402302,-0.05359593,0.0068918015,0.0015485174,-0.13396195,0.21944152,0.18824852,0.016450007,-0.056803297,0.16780421,-0.103813544,0.002143444,-0.14910074,0.055089775,-0.022535978,0.06686911,-0.016512351,-0.03444111,0.0025752569,-0.37473875,-2.661767,-0.046662465,-0.09912269,-1.972416,0.28406477
0.18814318,0.029824931,-0.018906953,0.027060699,-0.2520199,0.20290571,0.034237105,0.017195666,0.0895572,0.021793028,-0.15230909,-0.04236054,0.04907762,-0.021076065,-1.1848466,-0.083582185,0.10146456,0.0056411023,-0.04062262,0.105395555,0.028323065,0.05635852,0.0016132512,0.08188692,0.05094994,-0.04282427,0.009666028,0.06459332,-0.19371991,0.07367574,0.21656099,-0.06149006,0.08969659,-0.06922651,-0.20141149,0.06523168,-0.021125987,0.05372445,0.027123727,-0.15254965,0.008066451,0.045082644,0.0016714812,0.035920296,0.08236345,-0.029879972,0.018909413,-0.179961,0.106179476,0.10468135,-0.025027776,0.035123046,0.026231848,-0.046079826,0.084435485,0.051257115,0.034073137,0.0015068452,0.13354427,0.09886285,-0.009904759,-0.18394467,0.01247292,0.08935577
-0.11589952,-0.017987596,-3.335296,-0.021987598,0.007911966,-0.089283355,-0.023430502,-0.009394832,-0.0018836716,0.0077401125,0.10405519,-0.15251753,-0.036821302,-0.14029297,0.050432395,0.0051363427,-0.077496864,-0.091599554,0.08995964,-0.07253218,-0.0801081,-0.068082,-0.088095285,0.0010170768,-0.12157178,-0.0010069472,0.009561634,-0.053285465,0.072991125,-0.16195944,-0.12955432,-0.40011775,-0.7971669,0.12089512,-2.8706477,-0.01767299,-6.5090456,0.016727326,-4.4665527,-0.058419336,-0.19856383,-0.04608795,0.00570233,-0.011413186,-5.950858,-0.0051355804,-0.18441725,0.059615705,-0.19705215,-0.0061371583,-0.0052797017,0.019980533,-0.014463665,0.011419433,0.014698339,-0.60427,-0.05776195,-0.015791198,0.007510319,0.0093395,-0.08801419,-0.07050781,0.0006427098,-0.055750914
0.013650197,-0.04279156,-0.06146088,-0.0036195465,-0.06043717,-0.005486599,0.015973296,0.0014994747,-0.013269861,0.01635034,0.11654515,0.034431793,-0.005349925,-0.11116324,-0.68807685,-0.2933576,-0.06880595,-0.17940304,0.018282568,0.022070285,0.026290234,-0.105762154,0.041093763,-0.0062142094,0.00841199,-0.029831769,-0.24876323,0.036909584,-0.16584177,0.023027776,-0.021505095,-0.16145241,-0.06477924,-0.111607805,-0.2779033,-0.053465538,-0.10007985,-0.12424721,-0.40546182,0.034519624,0.019153595,0.034875765,-0.10494921,-0.0070582256,-0.019233475,0.0022454897,-0.18813227,0.0609859,0.03487184,-0.032902457,-0.1263325,0.015886342,-0.015795544,-0.11356981,-0.0668108,-0.0064645163,-0.0033284756,-0.016966023,-0.08104462,-0.25796098,-0.20378882,-0.0059285355,-0.0037107721,0.043486807
-0.07986455,-0.014504725,-1.6461297,-0.012125663,0.019875025,-0.054801214,-0.018304128,-0.009767588,-0.012534274,-0.0033738927,-0.0932993,-0.12719657,-0.07544264,-0.13044313,0.04572631,0.026655132,-0.075406834,-0.01753193,-0.03104323,-0.12044727,-0.20664701,-0.012543537,-0.15054412,0.009334717,-0.44692743,0.0054377383,0.014158367,-0.07386922,-0.118112326,-0.14835586,-0.11648226,-0.12578285,-4.9534554,-0.12828285,-1.7428521,-0.009135716,-4.541392,0.013932953,-0.43025655,-0.0031046628,-1.3916948,-0.024607323,0.02311041,-0.010910242,-4.762268,0.013071131,-0.08292939,-0.10493446,-0.15717946,-0.011105395,0.0032202639,0.0067520686,-0.0030093945,-0.1170253,0.018381665,-4.387507,-0.00037483033,-0.055534676,0.0074765957,0.012476854,-0.19443928,-0.12024281,0.011647414,-0.10059991
-0.39239186,0.063254744,-0.010308448,-0.014665553,-0.119749546,-3.033656,0.14673407,0.12280525,0.15368888,-0.05691826,-0.1315533,0.0015175682,0.075045295,-0.0895649,-0.67049474,0.02895337,0.06472974,-0.25692576,0.10955749,0.12760134,0.009395487,-0.17965625,-0.06515316,0.11176869,0.004419393,-0.8803914,0.05243734,0.06821371,0.10286343,-0.0050614644,-0.5215872,0.0021472303,-0.06695946,-0.11378172,-0.12501186,0.18458149,-0.12425762,0.1613414,0.014565172,-0.120523594,-0.045860853,0.10370974,0.043815486,0.22808558,-0.05358629,-0.18348028,-0.18396394,-0.11842078,-0.08715647,-1.8556077,0.043146633,-0.13764271,0.13195238,0.077928014,0.043590333,0.040842045,-0.09174133,0.074265234,0.055804867,-0.1242935,-0.12482482,0.043884113,-1.1069964,-0.13449928
-0.30062675,-0.026893334,0.016606672,-5.381916,0.0076755267,0.04330014,0.024234515,-0.007139818,-0.035172444,0.05608457,-0.009906495,-0.103895634,0.0066515165,-0.04310809,-0.02441025,0.10075912,0.04558662,0.006913131,0.02069441,-0.0077312756,-0.0069396878,-0.02191563,-0.015751377,-0.0043971627,-0.006318676,0.0066237645,-5.9649878,-0.040028993,-0.046251524,-0.0065170787,0.06505686,-0.017985353,0.00413515,-0.008873464,-0.0099674305,0.022350866,0.019910203,0.0048033153,-0.12817772,-0.16092469,0.014478823,0.027135113,-1.0092528,-0.019152826,0.012589793,0.007252482,-0.020432977,-0.11653179,-0.027092138,-0.003786413,-12.39715,-0.009269832,-0.005595368,-0.14700373,-0.014417295,-0.008168601,0.025152726,-0.22783943,-0.01193665,0.004720168,-0.06984403,-0.11384517,-0.018261008,-0.011285136
0.0070077116,-0.0068061026,0.18388477,-0.037409417,0.024685465,-0.13229689,-0.023610339,-0.009789111,0.011849991,-0.11932014,0.05476892,0.007763151,-0.038687073,0.0653704,0.3364306,0.08705138,-0.021117017,0.18475807,-0.013925686,-0.035926208,0.009514451,0.16430192,0.003413932,-0.05808146,0.032334138,0.00031192496,-0.050968397,0.003946022,0.029121438,0.033828482,-0.1455146,0.48134753,0.0798257,0.00799666,0.19866839,-0.054137994,0.08672592,-0.24068017,0.28546453,-0.17840113,0.069931924,-0.022583492,-0.032879733,-0.034980472,0.16250676,0.005467193,0.009626397,0.099448584,0.041050915,0.07627141,0.011068178,-0.04807574,-0.062494267,-0.09204631,-0.007960849,-0.06778696,-0.05251807,-0.044856094,-0.28076583,-3.4226797,0.010283294,-0.13635963,-0.011549856,0.05207631
-0.018168708,0.011629388,0.100785434,-0.011277665,0.02338807,-0.05977763,-0.0028863654,-0.013780922,-0.034985296,-0.022281185,-0.02584447,-0.03808196,-0.0010045941,0.064647004,0.34378088,-0.0899295,-0.04419853,0.18901633,0.000488785,-0.054075748,-0.018583227,0.09318005,0.07918537,0.011888037,0.044309665,0.01426134,-0.020880722,0.012294595,-0.21774687,-0.009587651,-0.06779229,0.5322732,0.14247009,-0.16077211,0.22843294,-0.07702511,0.12374518,-0.10096939,0.10118508,-0.17341954,0.06080905,0.034122996,0.062023196,0.0033206262,0.09860465,0.003481472,-0.12855762,-0.07795019,0.026615681,0.0127055,0.048017215,0.021962196,-0.0026277734,-0.03956442,0.0032853212,-0.010329364,0.07827538,-0.04807329,0.0515553,-0.12616026,0.019282673,-0.0053226943,-0.013579131,-0.049341206
0.004517758,0.06383695,-0.106117964,0.044738222,-0.01790724,0.10035462,0.030511145,0.063740306,-0.01759382,0.045713972,-0.16302621,-0.19716801,-0.049576186,-0.029476037,-0.077790976,-0.092892796,0.04101478,-1.2015122,-0.058341935,0.058114316,-0.0342133,0.029820608,-0.5814055,0.006820821,0.014295818,0.018179992,-0.0075066476,-0.15328987,-0.07650998,0.0596329,0.032578036,-0.036797073,-0.0062589943,-0.16032378,-0.93813115,0.0039472487,-0.02583079,-0.21132736,-0.040569782,-0.065468475,-0.024625257,-0.0055200956,-0.018977381,0.02673834,-0.026664063,-0.0022918074,0.07688021,-0.2227561,0.007486683,0.13127805,0.017695086,-0.032856435,0.06906906,0.022858743,-0.4808256,0.08148365,-0.8342144,-0.026905019,-0.39574254,-0.106998146,-0.17129044,-0.12505476,0.024422925,-0.13842197
-0.019266035,-0.3195795,0.027162742,-0.014309594,0.04459758,-0.004334518,0.006463374,-0.0858043,-0.003386016,0.006083535,0.025721809,-0.015894735,-0.026318384,-0.10043998,-0.003296856,-0.032647394,-0.021808406,-7.536061,-0.06994555,-0.03015915,-0.0083594695,-0.0073102363,-0.04211329,-0.024106855,3.270313e-05,0.01545069,-0.2172423,-0.016925326,-0.052835774,0.02545721,-0.0036255196,0.020709148,0.0019034769,0.0061699008,-0.37518966,-0.020781202,-0.035611194,-0.10349844,-0.008389071,0.0459173,-0.026892805,-0.008005538,-0.019208224,-0.0023455143,0.009712423,0.005501966,-0.03525758,-0.051047757,-0.026268996,0.0034010164,-0.046911493,0.005797451,-0.05594889,-0.031196468,-0.023516575,0.005454608,-1.2762849,-0.036534853,-0.24846655,-0.11922504,-0.09168271,-0.20910114,0.02110516,-0.0034925984
-0.08818006,-0.08865354,0.036379285,0.027392982,-0.03712289,-0.10830305,0.084918015,-0.09610354,0.06308033,-0.051249105,-0.19419676,-0.095011435,0.12143668,0.119683005,-0.5741087,-0.16788225,0.08296377,-0.033125665,0.056694463,0.080303036,0.08067361,-0.8250358,0.06611025,-0.053660408,0.063321054,-1.2114735,-0.011690518,0.12214234,-0.07665018,0.059827372,-0.0564825,-0.1596959,0.04848491,-0.0898964,-0.001435555,0.09773424,0.12973359,0.054944213,0.061773583,-0.14909874,0.0906986,-0.006324738,-0.019091127,-0.026336253,0.039501525,-0.8535628,-0.17882694,0.12959836,0.043718595,-0.17396522,0.0153158335,-0.44149333,-0.054828744,-0.013637579,0.13361828,0.066070326,-0.11494169,0.14162366,0.060263075,0.15574433,0.07270452,-0.01945252,-0.74345964,0.006656466
-0.009544405,-0.04106577,-0.9832504,-0.04204209,-0.024273198,-0.024649285,-0.043351483,-0.036751263,0.020351188,-0.0046180296,-0.096582025,-0.12873971,0.028360123,-0.04600644,0.027832303,0.02811251,-0.02430552,-0.048465993,-0.12061448,-0.0064070993,-0.030677138,-0.38464767,0.021786762,-0.0022788302,0.0071290866,-0.003786641,-0.004895259,0.02596231,-0.12056503,-0.092675,-0.0098751215,-7.1363306,-0.039731305,-0.12834743,-0.17458738,0.0056440705,-0.090820156,0.076913066,-8.442623,-0.03730011,-0.0115606235,0.018161962,0.019694066,-0.015574363,-0.18066058,0.002800952,-0.023981677,-0.16464846,-0.041639093,-0.16092125,0.036437858,0.017427972,-0.018484611,-0.12983023,0.13244739,-0.117847696,-0.03259231,-0.0041101766,0.031293835,-0.049350865,-0.04460228,-0.035178218,0.00649846,0.087609366
0.0029074617,-7.4862247,0.009055934,-0.007759943,0.021938786,0.003950329,-0.21349764,-1.1850107,-0.021527681,0.002188748,-0.14252014,0.02387275,-0.019181574,-0.03072364,-0.005449423,0.001406044,-0.019798607,-2.2790127,-0.10057943,-0.04460457,0.02468047,-0.0027345503,-0.09353309,-0.57960683,0.0038564897,0.0074198516,-0.0033915618,-0.00010681103,-0.19337195,-0.007337825,-0.0013152723,0.0020830547,0.011463903,-0.19540732,-0.22499393,-0.089007095,0.0057281083,-0.033274297,0.0012828192,-0.031038325,0.006377854,-0.34899974,0.0011515594,-0.14931098,0.0028935608,0.009680261,-0.15520273,0.012773795,0.012157476,-0.0038093305,-0.0068948017,0.021751858,-3.0900383,-0.099795856,0.007222391,-0.0039990987,-7.0825157,-0.0137130525,-0.44218463,-0.116091065,-0.07851666,0.07421989,0.008607118,0.015494197
0.080378,-0.009822879,0.08350324,0.023324449,0.14346808,-0.024269454,0.035581816,-0.058261327,0.02870044,0.08189116,-0.14664598,-0.09939598,0.086563535,-0.044355016,-0.117893726,-0.39093617,0.025999326,0.05802519,-0.09341683,-0.021367691,0.14250964,-0.7769279,0.07274761,-0.09980935,0.081725396,-0.28684443,-0.01611873,0.06604123,0.00041423077,0.048953205,-0.02813627,-0.52039665,0.105128184,-0.18656547,0.08135981,-0.019859735,0.061635647,0.031239092,-0.05778697,-0.12449977,0.09473954,-0.019676946,-0.06844039,0.006878442,0.02275766,-0.20914578,0.056802865,-0.0036646847,0.014796907,-0.0878294,0.029835312,-0.93522507,0.034347016,0.044145122,0.035195958,-0.0027153594,0.028026214,0.04453445,-0.046898447,-0.06261561,-0.09165727,-0.03488127,-0.10302698,0.16963464
-0.042481586,-0.062015798,0.049180333,-0.008032983,-0.18926854,-0.09414459,0.016902998,-0.0050296495,0.0096103195,-0.011361222,-0.022508461,-0.1510988,0.0069070724,-0.059481006,0.019817857,0.006906694,0.015073411,-2.852766,-0.1135641,0.012950862,-0.00092553254,-0.25626615,-0.10470024,0.0048527922,0.021447629,-0.052651264,0.009800786,-0.01274651,-0.17535584,0.019987494,-0.052990522,0.02749118,0.030222993,-0.09284183,-0.19475642,0.0134007335,-0.058552183,0.0006005944,0.022832053,-0.02493292,-0.057694167,0.011214417,-0.0053146966,0.00025993038,0.016194057,0.010546778,-0.025629604,0.12452164,0.022363689,-0.07336627,0.013731815,-0.007569648,-0.016799474,-0.059046198,0.031111108,0.012733655,-0.5012766,0.028650802,-0.06433929,0.03347315,0.025620459,-0.13876596,-0.04378984,-0.009678379
-0.014482792,0.07035295,-0.020390123,0.13071541,-0.073552355,-0.0021368323,0.018736038,0.05079145,-0.007836454,-0.26149282,0.052059237,0.087943144,0.034574594,0.021782555,-0.19770396,-0.4746482,-0.11885184,0.24974176,-0.09557429,0.017344493,-0.039184242,0.0108552575,0.09280972,-0.013721041,0.014243353,-0.015178352,0.06873247,0.009363923,-0.07103262,-0.0020678455,-0.15139182,-0.08529365,-0.03191362,0.0049677473,0.21517622,0.00890926,0.051534608,-0.07791879,-0.038832717,-0.014778515,-0.00756466,-0.054467972,0.09398353,0.0059087104,-0.025414772,-0.03304713,-0.05926294,0.056305178,0.013738502,0.023835264,0.11335431,-0.050637633,0.021595871,-0.1891271,-0.04412412,0.0014419812,0.16581565,-0.08701328,-0.07036498,-0.07173996,-0.1842095,-0.065755375,-0.14929564,0.029171588
-0.07164972,0.11376816,-0.01736838,0.03839068,0.15338996,-0.5949872,0.1569021,0.048540376,-0.08772202,-0.0059917606,0.033902384,0.08548774,0.029257897,-0.08022619,0.16547617,0.0041069896,-0.02791469,0.20435147,0.004603205,0.01122697,0.041453835,-0.5283353,0.08837222,-0.0016519174,0.018459795,-0.77542275,-0.011778906,-0.03521953,-0.08664873,-0.07599955,-0.014962266,-0.01235587,-0.026012603,0.14438257,0.09387248,-0.076742046,0.052497603,-0.0007163086,-0.023699375,0.0693735,0.08498099,0.043178197,0.038882244,0.07501499,-0.04307094,0.024737068,-0.15835702,-0.0937858,-0.06650666,-1.9376234,-0.053272158,0.0659035,0.21242744,-0.13604765,-0.101433724,0.026496023,0.22470374,0.057407513,0.030130882,0.032735664,0.05311634,-0.12212248,-0.14160448,-0.03817124
0.11029037,0.039172266,0.023324523,0.008090022,-4.242781,0.07414213,0.023566667,0.0477687,0.071041346,-0.019157136,-0.050656606,0.079634145,0.084653944,0.11797007,-2.690461,-0.31344873,0.017666051,0.010384815,-0.00954453,-0.0068977363,0.04409498,-0.23533204,-0.038829975,0.05575377,0.11685562,-0.017923703,0.014675504,0.027208764,0.006548298,0.12792546,0.1314421,-0.02252915,0.023072489,0.12156959,-0.17489341,-0.0180131,-0.012834546,0.10494867,0.094294146,-0.0018527715,-0.029815212,0.0098166745,-0.030855253,-0.012654056,0.049652435,0.02747811,0.023327708,-0.16579221,0.09541475,-0.032662217,-0.014097337,-0.06324484,0.092702106,-0.1625823,0.091222994,0.02677798,0.046699196,0.12979527,0.08190486,0.035426643,0.039522476,-0.01984729,-1.1540633,0.13109663
-1.5118433,0.19158356,-0.01699885,0.008377584,-0.047391225,-1.8977432,0.14700355,0.19294707,-0.008691709,-0.014662967,0.13181901,-0.04517517,-0.006870802,-0.10348028,0.38721532,-0.030144682,-0.033282246,0.11893692,-0.18390904,-0.009634177,-0.075234585,0.001430325,0.0146185355,0.13690884,-0.08534952,-0.56216115,0.011830639,-0.051900387,0.03512039,-0.07923649,-3.579605,0.058745727,-0.07865135,0.009617439,0.036788594,0.13140556,-0.051370893,0.05368073,-0.08180336,-0.029183568,-0.007967559,0.027428815,0.08083348,0.15505832,-0.17639363,-0.07125491,-0.17597696,-0.13763757,-0.03901193,-0.30982846,0.100909226,-0.19343518,0.2094339,0.04944505,-0.12769404,-0.03163658,0.19366083,-0.018740125,0.11148571,-0.2499174,0.046997942,0.003994454,-1.1632494,-0.39635882
-0.009001306,-0.3848166,-0.019464424,0.0069367755,0.0006449223,0.0091122985,0.018641204,-0.010402253,0.014526023,0.0033660904,-0.009605129,0.026776234,-0.009731161,-0.03713118,0.001363151,-0.0062521016,-0.017811637,-5.8020945,0.033957154,0.0073395795,-0.039392263,0.000628135,-1.1310253,0.015686207,-0.00171114,0.018856945,-0.0061876047,-0.117683396,-0.16074027,-0.005163435,-0.0018446707,0.00074510585,-0.010387099,-0.13651408,-3.8178656,0.0042897123,-0.07444531,-0.034746643,-0.013648731,-0.077529825,-0.16361713,-0.019770145,0.0079257265,-0.0017953012,0.010951262,0.008887786,0.026135402,-0.05081362,0.005695121,0.0013705117,-0.00970024,0.018532518,-0.06663847,-0.01779372,-0.01841594,-0.008950953,-5.2371655,-0.009344718,-0.2789869,-0.006385566,-0.043573003,-0.13645461,0.014880359,0.008632109
-0.1572197,-0.14057007,-0.052932844,0.0032170035,-0.2774443,-0.52798086,0.069599174,0.0253103,0.1566384,0.032618593,-0.11586526,-0.14319617,0.15504551,0.010144822,-1.6722019,-0.06581225,0.16723059,-0.12323146,0.10241869,0.094981246,0.13175729,-2.366267,-0.020125335,0.0716421,0.10182677,-1.5397351,0.050842978,0.13483778,0.010311913,0.043279625,-0.13399272,0.005698112,0.044039898,0.08579815,-0.16358948,0.104013234,-0.0027189923,0.049416076,0.061203055,0.023947395,0.07042771,0.07225251,0.020845557,0.10809416,-0.115059905,-0.9017488,-0.042429503,-0.09597736,-0.0898981,-1.8288475,0.06148475,-0.882052,-0.06507324,-0.06869616,0.19800332,0.060816552,-0.22074275,0.14628685,-0.023707211,-0.09675161,-0.20322296,-0.095177524,-1.8086338,-0.14607567
-0.03134959,-0.00375932,-4.1458144,-0.0069118673,0.010113043,-0.011828634,-0.02562589,-0.01627376,0.0037332075,-0.0009158031,-0.005909706,-0.09362366,-0.050126445,-0.048648532,0.015424759,0.004471477,-0.04295354,-0.017572183,-0.018075215,-0.078230694,-0.10245445,0.008215276,-0.08639009,-0.008167092,-0.35468677,0.0038934862,0.0033908156,-0.052870024,-0.03492674,-0.0520213,-0.031570442,0.004797917,-7.369542,-0.047111303,-2.1350353,-0.009274252,-1.7362891,0.006100678,-0.03980588,-0.08600105,-0.48089576,-0.00810478,0.016979892,-0.00012030365,-0.10581541,0.0027320255,0.019348051,-0.08702466,-0.21591513,0.009422762,-0.0038290515,-0.0022660645,0.012484146,-0.047275856,-0.0059839655,-0.24374016,-0.017229626,-0.030133693,0.00022291567,0.012423582,-0.13762522,-0.099859424,-0.006163414,-0.11362749
-0.008749269,-0.7037787,-0.021739569,-0.0074831997,0.008599602,0.005763513,0.010384161,-0.04072395,-0.016306387,0.0025092862,-0.16515641,-0.1675008,-0.030675309,-0.06098682,0.0034028739,-0.0014437039,-0.010282215,-5.8652296,-0.06903322,0.0054440624,-0.08020148,-0.002897866,-0.8031548,0.0037750164,-0.017408283,0.011260935,0.0013073112,-0.13701022,-0.0724867,-0.00524256,-0.0027153792,0.0062089595,-0.036822025,0.022243677,-5.428823,-0.0055510043,-0.24853113,-0.044053234,0.00043851984,-0.014988739,-0.31819588,-0.05001293,0.0032046482,0.007540231,0.0032108638,0.013083997,-0.05189829,-0.10273835,-0.005333582,0.004422326,0.00069688004,0.008157443,-0.19349496,-0.13639122,-0.029241715,-0.013121454,-3.9212084,-0.014357132,-0.15191714,-0.01686968,-0.12980275,-0.10018127,0.022290858,0.0038063824
-0.246208,-0.10631112,-0.021496726,-0.0065916935,-0.52398175,-1.4566236,0.028896915,0.0017233299,0.15613128,0.037295785,-0.08452299,-0.11751912,0.15767908,-0.1763787,-2.9806237,0.0035931473,0.18669395,0.030813374,0.080783166,0.10224394,0.065494575,-1.2071086,-0.014962753,-0.056262862,0.0033004042,-2.4909132,0.071937844,0.1354775,0.013777745,-0.011139056,-0.294287,0.007474793,-0.032584995,0.051073417,-0.08896996,0.08690626,0.01645844,0.017684586,0.027729312,0.080013655,0.023770068,0.11806524,0.04853908,0.051412303,-0.07229426,-2.9351938,-0.020117234,-0.085267834,-0.11314541,-4.8926806,0.06885617,-2.88077,-0.06838949,0.05167437,0.18197626,0.16014318,-0.109036535,0.10675194,-0.14579476,-0.1175157,0.07645135,0.08295621,-2.655526,-0.11366922
0.121220544,0.0044364487,0.08691052,0.023149118,-0.6536087,0.048942152,0.11684365,0.06596393,0.06768069,-0.013154632,-0.0627137,-0.099050306,0.010032164,-0.12708989,-0.06733805,0.01709252,0.07387603,-0.07544733,0.053290628,0.015738113,0.03825747,0.016787915,0.0064902613,0.041756183,0.0069223763,-0.04172976,-0.023597972,0.031788588,0.09262714,0.020062417,0.11205175,-0.123110786,0.0004505448,-0.012845095,-0.10258382,0.026861906,0.040394112,0.12028304,-0.0055504413,0.012997269,0.00961486,0.06413195,-0.017834172,0.07675404,0.07516281,-0.040082827,-0.09842056,-0.18462437,0.10663371,0.108440995,-0.00643467,-0.06682555,0.054346748,-0.09462375,0.073189944,-0.013619696,-0.05661494,-0.016016064,0.113306716,0.23756567,-0.11046486,0.10880993,-0.25688696,0.07895526
