0,1,2,3,4,5,6,7,8,9,10,11,12,13,14,15,16,17,18,19,20,21,22,23,24,25,26,27,28,29,30,31,32,33,34,35,36,37,38,39,40,41,42,43,44,45,46,47,48,49,50,51,52,53,54,55,56,57,58,59,60,61,62,63,64,65,66,67,68,69,70,71,72,73,74,75,76,77,78,79,80,81,82,83,84,85,86,87,88,89,90,91,92,93,94,95,96,97,98,99,100,101,102,103,104,105,106,107,108,109,110,111,112,113,114,115,116,117,118,119,120,121,122,123,124,125,126,127,128,129,130,131,132,133,134,135,136,137,138,139,140,141,142,143,144,145,146,147,148,149,150,151,152,153,154,155,156,157,158,159,160,161,162,163,164,165,166,167,168,169,170,171,172,173,174,175,176,177,178,179,180,181,182,183,184,185,186,187,188,189,190,191,192,193,194,195,196,197,198,199,200,201,202,203,204,205,206,207,208,209,210,211,212,213,214,215,216,217,218,219,220,221,222,223,224,225,226,227,228,229,230,231,232,233,234,235,236,237,238,239,240,241,242,243,244,245,246,247,248,249,250,251,252,253,254,255
-0.70651937,-0.27939385,0.045748953,-0.118368275,0.41910186,-0.041619424,-0.07893907,-0.21838823,-0.124560535,-0.16992289,0.0017120222,-0.10980326,-0.0079533355,-0.1442508,-0.07309834,0.06743355,0.066596374,-0.03179684,-0.0899455,0.06267417,0.22541173,-0.36247465,0.033434138,0.053110372,-0.7003278,0.383467,-0.9736392,-1.0156827,0.017867522,0.04005704,0.22478501,0.040515102,-0.46754596,0.24697298,-0.5208921,0.17954084,0.35726473,0.1264788,0.028015085,-0.10358515,-0.074404106,-0.039556053,0.21653983,-0.084204584,-0.5662066,-0.12781808,0.018117247,-0.13978174,0.08691704,0.4583887,0.022366658,-0.05619131,0.072960384,0.050763693,-0.029251747,0.06355564,-0.29017597,0.18221638,-0.05267648,0.053815912,-2.2533517,-0.11084822,-0.013429227,-0.48772505,0.00991256,-0.17058888,-0.035134654,0.18847622,-0.03020188,-0.005224906,0.06760252,0.115117565,0.31684676,-0.2774754,0.0031121888,-0.9575362,0.018397659,0.114726275,-0.0040172352,0.053282,-2.5301013,-0.09897475,0.068933405,-0.10832484,0.1883375,-0.022193149,-0.092990994,0.041259374,-0.60635376,-0.2885305,-1.3413998,0.004184511,0.1800477,-0.45459864,-0.07551011,0.1976873,-0.036461305,0.056160636,0.47315368,-0.08209306,-0.024107303,0.011153332,-0.0028377622,-0.19140382,-0.17239866,-0.015447515,0.1546418,-0.03845384,-0.13376191,-0.035636254,0.09000596,-0.046520036,0.056644544,0.2762117,0.08410881,-0.9440521,-0.070642695,-0.59214735,-0.097807854,-2.2053516,-0.093774065,-1.6329937,-2.3365858,-0.098357394,-0.050545175,0.18368235,-0.11633682,-0.10207107,-0.0006800204,-0.053966224,0.08987497,0.0189649,-0.21186976,0.025025304,-0.011737466,0.035348702,0.021285417,-1.4477799,0.0053330455,0.4221451,-0.013072393,-0.0015636527,0.046858426,0.603625,0.03704298,0.12748864,-0.0014286898,0.03233869,0.05777905,0.2817698,0.15599531,0.052955624,-0.1609254,-2.9186008,-1.4333051,0.08072425,-0.14342205,0.2757634,0.43706816,-2.0652885,0.34122598,-0.03989986,0.52371776,0.036453597,-1.7357427,0.051177867,-0.10954968,0.009540334,-0.11713748,0.09856984,-1.95556,-0.031436764,0.029930076,0.23413265,-1.1689712,0.28048807,0.05813924,0.14680624,0.11737249,0.072990336,-0.04173732,0.03250447,-0.13593535,-0.021753246,0.008917909,-0.025463035,-0.036124356,-0.11504326,-0.008249534,-0.02430428,-0.101935074,-0.31874844,0.096858494,-0.016920317,-0.10545212,0.2631508,-0.26893023,-0.015330941,-0.21445283,-0.005768161,-0.013988735,0.23112725,0.035299033,-0.0055280956,-0.56450766,0.0321023,0.23332419,-0.07153164,-0.50089186,0.043818623,0.17140605,0.17964897,0.0151894,0.042577058,0.037077233,-0.07926971,0.35525158,-0.0020671487,-0.14852831,-2.7741697,0.16620314,-0.009272463,0.056232713,-1.4267292,0.16886482,0.22781612,-3.0199275,0.077174,-0.0037720534,0.15050799,-1.49777,-0.90936077,0.0741236,0.1970162,0.05083392,0.16797537,-0.03974441,-0.021683613,0.10567444,-0.5346046,-0.01664804,0.007419801,-1.9057865,-0.29339474,-1.6511301,0.46240547,-2.2763538,0.577559,0.25777903,0.32711434,0.07850144,0.093439735,-0.22184391,-1.0799506,0.030170996,-0.40030137
0.4283701,-0.32125145,-0.014647086,0.27216932,-1.6375027,-0.049961656,0.1498209,-0.14773493,0.08291482,-0.15597895,-0.0121658975,0.08470574,-0.0010458173,0.041278794,-0.069586575,-0.1362106,0.06882444,0.020762471,-0.09840728,-0.027489288,-0.27271354,0.22625461,0.09656897,0.008715657,-0.7252159,-0.05104737,-1.0023082,-1.0170912,-0.013632845,-0.01739782,-0.05884382,0.25905386,-0.4097729,-0.21606798,-0.4522538,0.1751298,-1.3630657,0.12431086,0.06264762,0.03700733,-0.08140912,-0.024415536,-0.16694047,0.1566441,-3.9574854,0.1787,0.09052006,-0.03983392,0.07797411,-2.4445782,-0.0024657995,-0.060736835,0.073001795,0.08189608,-0.03832871,0.20424007,0.44794172,0.16766705,-0.070057385,0.032841854,-2.2356503,0.21141714,0.017532662,0.16911708,0.007115187,0.19559535,-0.04944345,0.17413977,-0.040254656,0.0041753557,0.25183088,0.06831039,0.0009553926,0.25083327,0.0070801773,-0.97694033,0.016766684,0.11805002,-0.034400128,0.052651066,-2.4761736,-0.11545926,0.07053449,-0.1285522,0.11347382,-0.018602293,-0.07954265,0.07648372,0.2278315,-0.31254178,-1.6353029,0.001449908,-0.396238,-0.43703777,-0.08655723,-0.3278976,-0.028726682,0.04249966,-2.04995,-0.022378042,-0.029358989,0.0075494656,-0.027221285,0.265364,-0.121865205,-0.013836042,0.20457211,-0.04623495,0.060922652,-0.026982613,0.050574623,0.35502753,0.065678,-0.015422067,0.22892,-0.9862071,-0.108884305,0.25212634,-0.084154874,-2.1990638,0.39086604,-1.6122572,0.56426346,0.247513,-0.023107857,-0.1390141,0.023239687,-0.08761963,-0.0116336215,-0.040880878,0.104107015,0.06619998,0.22778955,0.024095811,-0.14430046,0.083296515,0.082764745,-1.4240133,-0.006290117,-1.3354913,-0.0040856097,0.010363075,0.027311265,-1.8631482,-0.11444823,0.12488726,0.025858425,0.042165503,0.05052901,0.007521235,0.19896813,0.03170121,-0.08767069,-3.1454191,0.3989955,0.084907755,-0.08254727,-1.0102175,-0.7189252,-2.095045,-1.2054516,-0.054792095,-1.8154402,0.023634925,-1.7756431,0.03688053,-0.117113784,-0.09438278,-0.11345972,0.061403017,0.5369906,0.019349197,0.07445558,-0.1485417,-1.1842422,-0.25371096,0.05942828,0.1814887,-0.20827445,0.23773296,0.0051756506,-0.047619775,-0.13774058,0.018582787,0.018593177,-0.037614148,-0.036287397,-0.13618521,0.018298462,-0.026881842,0.03196454,-0.34088683,0.096863836,-0.00402044,-0.10036319,-0.5176508,-0.29800978,-0.02962784,0.26054448,-0.05992539,0.00092516275,-0.15792954,-0.070571974,-0.012868943,-0.30726314,0.047125164,0.06515887,-0.087386176,0.2167264,0.03153269,0.15618694,0.14301723,0.0136400685,0.06616121,0.06731696,-0.0338514,-1.1105028,-0.07045337,0.05725964,0.61382043,0.17468674,-0.02225261,0.0012654141,0.42140874,-0.09025222,-0.60645884,-3.1109169,0.075079784,-0.0095733,0.19926184,0.3594456,0.35740066,0.12577169,0.32759148,-0.123774126,-0.39164317,-0.037174806,-0.04087412,0.10375675,-0.5277662,-0.016367368,0.007951858,0.6047021,-0.29604962,-1.6437006,-0.21871214,0.5451649,-2.1473315,-0.11465116,0.046296146,0.08205568,0.08118136,0.107903816,-1.1358458,0.021412332,0.16234809
0.054156598,0.00036786508,-0.2794378,-0.033851612,0.4492566,0.059191503,-0.44409877,-1.036328,0.033589944,-0.35878536,0.048482664,-0.0040478823,0.010843279,-0.049139947,0.06346793,-0.10846559,-0.5929115,-0.0489189,0.121746615,-0.25681067,-0.49071977,-0.5184331,-0.5839328,-0.34678856,0.031671766,-0.63176316,0.055100467,-0.00040614692,-0.32729444,-0.21100809,-0.38830903,0.2315736,-0.0234343,-1.450789,-0.086835526,0.2677204,-0.9077259,0.08355807,-0.33998728,-0.122510806,0.11922041,0.08241293,-1.5494623,-0.31058222,0.60415393,-1.5637399,0.49304986,-0.12495814,-0.4572544,0.4855242,-0.114968605,0.049050093,0.27787954,-0.11321129,0.17097828,-0.31347793,0.048047516,0.33812562,0.05661486,0.34568673,0.012482355,-0.3446216,0.06259555,-1.4560832,0.03220885,-0.8720635,0.52223057,-0.03310296,0.3765315,0.034646843,-0.3659695,0.5683918,-0.3157043,0.3011823,-0.049122844,-0.026195776,0.0381433,0.23800564,0.06279383,0.43657264,0.03935531,-0.11558136,-0.5918486,-0.13567623,-0.5878805,0.08542714,-0.020397991,-0.3674231,0.17084017,-0.6711809,-0.22354299,0.04490423,0.57490975,-0.018466786,0.068886586,0.53223425,0.07734276,0.3958346,0.49605364,-0.12235075,-0.03149393,0.15851067,-0.10619421,0.033610616,0.028097028,-0.018986529,-0.080876105,0.06008784,-0.06803771,0.039163336,0.499398,-0.123090334,0.27897334,-0.5315182,-0.56618613,-0.015018524,-0.42076954,-0.02288521,-0.6536578,-0.01170951,-0.16169177,0.048197825,-0.21549188,-0.013966469,0.012447745,0.54015094,-0.09819376,-0.3587945,0.031876184,-0.5276374,0.63112503,-0.37022,-0.14504234,-0.15135656,0.014379948,-0.60582244,-0.5820769,0.025134932,0.055532277,-0.24489363,-0.106021464,-0.17051055,-0.49376237,-1.463791,0.033154678,-0.17931098,0.039792784,0.27004912,-0.7633323,-0.61267304,0.25393006,-0.4903583,0.050396662,0.03393754,0.04142784,-0.13915189,-0.03981451,0.66232556,-1.5438839,-0.010171085,0.60322756,0.03701022,-0.70048153,0.13000932,0.027257944,-0.15214849,0.101990275,0.005370274,-0.14192748,0.31190488,0.25784096,-0.18186057,-0.61150545,-0.38384393,0.032678746,-0.3837946,0.45773777,-0.122429915,0.58978933,-0.1518805,0.03966124,-0.045195818,-0.13759732,0.011056502,0.024644444,0.38707116,-0.05035989,0.07419494,-0.39111108,-0.012475344,-0.09555179,0.03391227,-0.6205151,0.06397998,0.0698683,-0.33731508,-0.056838665,-1.3759501,-0.14039256,-0.03874328,-0.025879236,-1.4218526,-0.023145646,0.04862463,-0.042953387,0.09977368,-0.7110051,0.0902629,-0.02885147,-0.10755977,-0.05223736,-0.1717842,0.041925594,0.29648662,-0.4609626,-0.12331787,-0.5026836,-0.109037906,0.0010454768,-0.29107836,-1.2233526,0.0039802855,-0.44638667,-0.21551049,-1.2915057,0.5688202,0.018535944,0.38415524,0.4170767,-1.0942137,-0.23909466,0.42504683,-0.14700314,0.0024961545,-0.10167102,0.62794703,0.08389257,0.40055615,0.24871223,-0.022914272,-0.03736244,-0.26699704,0.17655466,-0.0106995925,0.04347893,-0.7487355,-0.28174686,0.6453333,-1.5077676,0.31407577,0.5805941,0.5956865,0.012937234,0.027374648,0.21455394,-0.045447897
-1.6913295,-0.006973014,-0.17852694,-0.47627798,-0.30362043,0.0801812,-1.4164001,-1.1489255,-0.14749883,-0.39640704,0.0506423,-0.11086411,0.027740765,-0.012264237,0.06330164,-0.044605203,-0.60869664,-0.03307211,0.10567902,-0.09752411,0.17410365,0.51481986,-0.7489225,-0.26197147,0.024052707,-0.14271782,0.046410054,0.01949817,-0.27464962,-0.16243404,-0.03441243,0.4519075,0.0011284738,-0.08298531,-0.07097785,0.25391367,-0.031585753,0.09807014,-0.44387564,-0.014168382,0.09961092,0.07438445,-0.25263467,-1.0598446,-0.3098348,0.45074758,0.55775297,0.047308456,-0.43026587,-0.355215,-0.15006939,-0.08246316,0.27706334,-0.13192967,0.16664791,-0.4956735,-0.8689097,0.343915,0.029985158,0.3077551,0.0025043043,-1.58467,0.061237764,0.35287195,0.04354145,0.5782309,0.5161234,-0.01250838,0.3650995,0.0347176,-0.7293697,0.56974417,-0.080404304,-0.36390424,-0.045968868,-0.009296623,0.024807896,0.25727043,0.06093103,0.4423429,0.03746577,-0.014847204,-0.5847286,-0.06960414,-0.5171089,0.07884971,0.02725041,-0.4364611,-0.4647174,-0.5615159,-1.0421233,0.054718543,-0.13186939,-0.023085201,0.0858095,-1.2521826,0.072641365,0.36366722,-0.34504443,-0.046305448,-0.027575208,0.1622235,-0.10828315,-0.60909975,0.030403782,-0.018973742,-0.13333562,0.042349957,-0.067439154,0.04998971,0.48456207,-0.5587661,0.29578993,-0.10204639,-0.8427365,-0.0055032866,-0.379424,0.6309158,-0.65730435,0.006656441,-1.0153681,0.033884287,0.48830518,-0.43031624,-0.0003404104,-1.4987495,-0.08260183,-0.33838195,0.019505553,-0.51919657,0.65461034,-0.4251754,-1.498469,-0.1663395,-0.12134905,-0.62283057,-0.622248,0.026971146,0.062197752,0.46992403,-0.10799094,-0.2225634,-0.45388806,0.25444466,-0.07806977,-0.19948375,0.02656741,0.2869363,-0.8161824,-0.22633152,0.24968693,-0.42967188,-0.045148216,-0.024987785,-0.7471004,-0.07308726,-0.13151157,-0.16643848,0.05381559,-0.005422677,-0.12411808,0.055304483,0.24689963,0.12161966,0.019247178,-0.12341791,0.11217441,-0.09251198,-0.057526916,0.3208593,-0.32678205,-0.2303755,-0.6815014,-0.04802641,0.04143925,0.25863683,0.48122358,-0.10374498,0.1545853,-0.30977288,0.054731082,-0.07791009,-0.15002683,-0.019836064,0.024974413,0.36981013,0.011216536,0.12128394,-0.41682994,0.0032190254,-0.007992059,0.04337982,-0.61146843,0.059515864,0.081113376,0.21802765,-0.09089003,-1.1766127,-1.4675864,-0.05045935,-0.024513813,-0.1526441,-0.071438886,0.04584064,0.12189616,0.078442,-0.4398076,0.081586055,0.5891963,-0.14836209,-0.062145706,-0.16010472,0.0403292,0.2773319,-0.48355466,-0.025643975,0.36422154,0.00462766,0.0014307632,0.492773,-1.20879,-0.0032211812,-0.2685166,0.40000898,-0.4171635,-0.16428716,0.013141676,0.3848747,0.42558795,-1.3774697,0.6758869,-0.26132104,-0.16776444,0.08556627,0.0043233517,0.089667514,0.085676774,0.44142154,0.23677896,-0.0011568619,-0.03201698,-0.25795886,-0.97643924,-0.005872542,0.021729754,-0.053805206,0.43076426,-0.20334366,-0.3415095,0.042447243,0.58434016,0.6057486,0.5224257,0.017149359,0.22693136,0.5612993
0.0057308157,-0.020176046,0.19379951,-0.16738266,-0.052953355,-3.4277532,0.068658195,-0.47296092,-0.11244013,-0.38378912,0.026250841,0.01800546,0.036525752,0.024087563,-3.14426,-0.09988931,0.2528969,-0.013620065,-3.3989325,0.28217876,0.060785457,-0.16048323,0.18066305,0.08580624,-4.8155894,1.1244819,-2.4451778,-0.2590771,0.12658916,0.15873295,0.07955932,-1.5346562,-0.11693748,-0.0036247561,1.2437536,-3.6965508,-0.055308223,-1.7799006,0.47134742,-0.0088579655,-1.5342842,-1.5694193,0.14004013,0.5060746,-0.24751556,0.058988687,-0.6585924,0.069159836,0.27178112,-0.073580936,0.09575185,-0.029608011,0.34335747,1.2021238,-1.9219435,0.45520303,0.587605,0.06324081,-4.5081444,0.065170206,-0.209001,0.2848204,-6.818434,0.284903,0.056156136,0.05921632,-0.8193855,-1.5463426,-0.43789002,0.022931024,0.7719103,0.44409105,1.24625,0.088065594,-1.4634019,-0.14780295,0.0068040467,0.8565889,-0.7592329,0.18565299,-0.37225273,-0.01822488,0.37551162,0.14653331,0.46291927,-6.760965,0.007549852,0.3419959,0.009375042,0.60834074,0.25747073,0.035736028,-0.12484041,-0.13908921,-1.9546239,0.038162753,-6.885896,0.18034217,0.026855048,-0.13341367,-0.050099324,0.061898034,0.027891159,0.037453506,0.022524497,-0.07553483,1.4395919,-2.8528957,-0.009057984,-4.1900706,0.3373543,1.1838619,0.19262204,0.30489308,0.68549687,-0.17595106,-0.30831313,-0.16190618,-0.36190632,-0.19446789,1.0296122,-0.18857694,-0.15251699,0.16620429,0.051007684,0.02022392,0.07013501,-0.3672682,-3.4278927,-0.101687774,0.4831333,0.25957805,0.035535384,0.19293201,0.06312697,0.1279214,0.7006625,-0.11235941,-4.2084928,-0.008280984,0.124601826,0.22745211,0.16510288,0.0321102,-0.006757336,1.2374767,0.020936249,0.19755423,0.052225113,0.94597894,-1.4955178,0.44072336,-0.013613112,-0.3642035,-0.045724224,1.2098033,0.03321755,-0.109642416,0.054840155,-0.24108648,-0.03947697,-4.487764,-0.047868326,0.061203957,-0.3357169,0.2561006,-1.6369388,0.11439812,-0.08940659,0.38822258,-0.0985362,0.24225627,0.15908639,-0.43193462,-0.46392086,0.0741388,0.4170624,1.4748219,-0.33203974,1.0911546,-0.084660254,-0.11061401,-0.10579388,-0.08227603,0.03725138,-0.3520203,-0.0373365,-1.9370605,0.6051325,-0.1683726,-0.0080290735,-1.8535565,0.31050098,-6.5278482,-2.5557306,0.04407166,0.28629735,-0.44539636,0.04900576,-0.23307322,-0.089364514,0.011724359,0.012628987,-5.9975877,-0.07260464,0.1278484,0.8005682,-2.311025,-0.18048163,-0.0915527,1.4423648,1.3891909,0.03379411,0.22786929,0.15914959,0.03657569,0.00639548,-0.1441641,-0.04855677,-0.10198236,0.18870455,-1.4256102,0.0946206,-0.05207794,0.08733482,-0.032508023,-0.052409597,0.2974697,-0.4595919,0.32453847,-0.16249715,0.033234864,1.190433,-2.2644553,0.094583526,-0.2858601,-4.4181824,-0.49327105,-3.4998472,-0.23708686,-0.10272176,0.3740215,0.09351566,-0.014958156,-0.23972584,0.861986,-0.06575779,-0.13421017,0.45997775,-1.0699751,0.17803356,0.17883995,-0.22302821,-0.40357053,0.15893175,-0.13515624
0.044044945,0.02754869,0.46122298,0.32851246,0.059134893,-2.317563,0.7050555,-3.216257,0.055483263,-1.163784,0.057396617,-0.06887056,-0.0013960729,-0.024324507,-1.6479127,0.005050093,0.7533679,0.14047652,-2.341091,0.61068857,0.2524652,-0.63215077,0.91037214,0.34474802,-1.6740999,1.7724525,-1.5915086,-0.5621137,0.12253566,0.536464,0.3879012,-1.5370625,0.052181892,0.13963316,1.1799845,-1.6842289,-0.10885561,-0.83401585,1.1695937,-0.09828025,-0.8133865,-0.842254,0.668103,1.515307,-0.5429354,0.23978493,-1.7674683,0.04899943,0.73317033,-0.11181452,0.067734495,0.13087466,0.87803805,1.1932205,-0.36870638,1.2211608,1.4024137,-0.60301536,-4.3092337,0.24046583,-0.52821153,1.075877,-1.3860962,1.2921196,0.048555963,-0.76706594,-1.6654339,-1.054483,-1.2216492,0.00865723,1.8271959,0.48606563,1.3466234,0.19302846,-22.775013,-0.28950816,0.02856998,1.4785249,-14.2754545,0.34715065,-0.5424639,-0.07202109,1.2978054,0.024726957,1.6443539,-2.4631293,-0.09966956,0.8409019,0.34530944,0.75505453,0.34693554,0.044899423,-0.82230574,-0.11115171,-1.4674896,0.061411668,-2.3227413,0.23566857,-0.03349544,0.024598211,-0.13764818,0.01712465,-0.14869344,0.16422518,0.03918482,-0.15106992,1.8960197,-1.214317,-0.032906346,-0.54452354,0.40324524,1.6447158,0.61851096,0.89328325,2.004405,-0.23680125,-0.8298405,-0.555692,-1.4535398,-0.19126777,2.3099718,-0.38201833,-0.4345821,0.44316792,-0.12614973,-0.6218798,0.07266369,-1.130225,-0.41347155,-0.47497237,0.37128615,0.61761624,0.25342786,0.3492892,0.03569743,1.0161941,2.3423276,-0.36174577,-0.6605706,0.17982644,0.19647598,0.48216808,0.6413793,0.51546794,0.14062302,1.5087328,-0.06399916,0.16170426,0.77275497,1.5480534,-1.515242,1.3681705,0.05439798,-0.22370161,-0.067721635,1.503636,0.10925451,-0.40566546,-0.008648601,-0.39989883,-0.18955559,-1.0129992,-0.053064756,0.4833953,-0.42646515,1.1128339,-1.8382754,0.13978288,-0.12972865,0.7756093,0.11508499,0.4443222,0.63188076,0.030852906,-0.6453358,0.41699666,0.5739386,1.4252102,-0.96777314,1.8660675,-0.2777452,-0.06623136,-0.0674756,0.14171867,-0.00866859,-1.2368507,0.03248751,-2.3652143,1.6357765,-0.3282797,-0.03532222,-0.8384374,0.80358803,-0.8764206,-2.6893108,0.22563802,0.0064533665,-1.641834,0.12160036,-0.31038952,-0.051813696,0.04053052,0.07374707,-8.016311,-0.13344009,0.43339065,1.8334869,-1.194453,-0.75834954,-0.047486607,1.428285,2.3030477,0.013983511,0.49867302,0.56469977,-0.113663085,0.2922312,0.0700379,-0.034281906,-0.13140678,1.161745,-18.21532,0.5310181,-0.2074457,0.58865535,-0.26975727,-0.12396779,0.7070533,-1.5441203,1.7123063,-0.38145378,0.40569097,1.8199836,-2.320174,-0.045348626,-0.83494925,-2.8288229,-1.1423167,-2.0039234,-0.5847772,-0.17829809,0.72316235,0.6032076,0.08914692,-0.44668323,2.3244119,-0.021601416,-0.50292784,1.7116642,-2.8610291,0.0818496,0.22063707,-0.95897907,-0.67381066,-0.11081375,-0.7670276
0.035617925,0.014258942,0.075387694,-0.1571269,-0.064004794,0.094053544,0.02023839,0.06708835,-0.07140097,0.046055034,-3.1638677,-0.17203125,-1.2717195,-0.12553278,0.07662749,-0.021377757,0.014717974,-0.028781746,0.08317857,-0.06482094,0.0299575,0.034032606,-0.11505429,0.01592454,0.043495156,-0.17095238,0.13013856,0.031238364,-0.021943277,-0.049195282,0.030291965,-0.00618518,-0.004858721,0.03943541,-0.101193994,0.0035776389,-0.012782522,-0.045405857,-0.13705876,-0.065816686,0.06302921,0.019391986,-0.0040625753,-0.09258539,-0.14482106,-0.021614287,-0.09072601,-0.15408497,0.025561217,-0.072195396,-0.13091305,-0.04518701,-0.044010628,-0.12106095,-0.023498578,-0.0058806413,-0.029956529,0.057280954,0.17328365,-0.013717787,0.02555953,0.04828957,0.06368266,-0.06946206,-1.5356984,0.0049001076,0.019834422,-0.014537975,-0.00015560718,-2.9720252,-0.09765551,-0.017098859,-0.09530328,0.043698464,0.2805408,0.009900851,-2.645897,-0.041758716,0.2523461,0.14214033,0.021127475,-0.00019322336,-0.034867752,-0.07441859,0.007228878,0.0943338,-0.040432878,0.0007260307,0.035460208,-0.09312809,-0.09441659,-2.31995,0.011861626,0.019076834,0.05656472,-0.037401456,0.063418575,0.02389807,-0.08020422,0.14601767,1.3990356,-0.06092688,-0.060415648,0.020899942,-1.4337636,1.3287803,-0.17249945,0.04655263,-0.10195452,0.025959326,0.04873656,-0.124576904,-0.07592879,-0.061462566,-0.1100874,0.0166829,0.03013813,-0.17499967,0.06362163,-0.015981466,-0.15071857,0.015221468,-0.07618908,0.031968538,-0.086893834,-0.054756574,0.085082255,0.07190996,0.016598646,0.041543636,-0.024651092,-0.15364826,0.027439903,-0.14159422,-0.06627784,0.007922577,-0.01541872,-0.037233677,0.017856808,-0.09027972,-0.2586427,0.051036645,0.027299467,0.07789082,-0.12763414,-0.067872114,-2.9682436,0.020599853,0.08249902,-0.10189078,-0.0024746764,-0.18541485,-0.124153934,-0.018424323,0.016122822,-0.06870489,0.08297546,-0.0530464,0.036207315,0.022969471,-0.13948284,0.0034678057,0.0069584744,0.11265969,0.013234821,-0.007455133,0.06455737,-0.078804426,-0.14220715,-0.036090747,-0.007271033,-0.2987833,0.025871422,-0.21086954,0.02820027,0.036323257,-0.03504801,-0.085227735,-0.023671122,-0.14761364,0.24364993,-0.083617434,0.10824835,-0.028405083,-1.4311416,0.058306597,0.07826719,0.1302889,-0.11618846,-0.058377534,0.037147,0.074442916,-0.034473665,0.029209292,0.0817662,0.06645944,-0.022359073,0.024723304,0.044096936,1.3448595,1.268488,0.034447927,-0.08380136,0.2223293,0.021600446,0.14779723,-0.013161355,0.020181848,-0.01892934,0.011095165,-0.117739536,-0.1239901,-2.1392698,-0.014508735,-0.068747744,0.00093084574,0.04232797,-0.13759483,-0.04670678,-0.10249609,-0.023527427,0.26216945,-0.03365888,-0.030129474,0.022028666,0.033982698,-0.009027924,-0.013558293,-0.0035409657,-0.077317275,-0.10329999,-0.008387477,-0.13931534,0.020240793,-0.0035444354,-0.11911815,0.0960121,-0.0061674993,0.042416856,0.015689734,1.3893111,-0.08112632,0.07100048,0.013972618,-0.0037548884,-0.028576816,-0.064072706,-0.07647256,-0.09221073,0.13664505,0.06257697,-0.060696602,0.0516475,0.03435984,-0.022132952,-0.03132285
0.026770644,0.020854527,-0.025736626,-0.2959166,-0.026671473,0.11520582,0.042979814,0.24981733,-0.12587427,0.17206836,0.10200325,-0.066587165,0.08451682,-0.00025217235,0.107923076,-0.060831614,0.100116685,-0.076032,0.13218084,-0.034409773,0.040249184,-0.01837959,-0.005447547,0.0043631927,0.13038425,-0.07866898,0.101839095,0.040080354,0.006088144,0.0030506132,0.02657189,-0.05567679,0.01634231,0.029668355,-0.060874745,-0.032883774,0.13489582,0.03872275,-0.042392384,0.0039729476,0.09307164,0.055723093,0.077088475,-0.06130322,-0.092645206,-0.1920584,-0.1605164,-0.10059829,0.062272124,-0.05844842,-0.056088544,-0.14094256,-0.13765325,-0.051903907,-0.15586492,0.055758275,0.06591427,-0.016472636,0.10680076,-0.21181296,0.024946786,0.07588217,0.104560524,-0.015144739,0.08511198,-0.007322132,-0.11830528,0.11306834,-0.091493845,0.1090094,0.04008864,-1.9384078,-0.022186419,0.02504564,0.045978658,0.017482392,0.12677422,-0.19150504,0.035539325,-0.9916721,0.02571171,-0.09404686,0.0819151,-0.008693844,0.04150613,0.09935514,-0.089213,-0.034259252,0.03575513,0.06109664,0.2182879,0.10869993,-0.021938078,0.020721912,0.09924327,-0.026627876,0.14373693,-0.8037342,-0.04824706,-0.014602467,-0.2257128,-0.20497493,-0.04164049,0.015940476,0.108742826,-0.1536646,-0.087873966,0.09797286,-0.12044969,0.09622423,-1.2318877,-0.0008537632,-0.1409795,0.044935573,0.03308474,0.030698745,0.15327193,-0.28806657,0.18835856,0.025501445,0.017374331,0.014985865,-0.20125812,0.033221558,-0.27546337,-0.020998431,-0.07964943,0.13961308,0.14207615,0.16259561,-2.2272089,-0.0066373227,0.04075937,-0.0055086534,-0.06393651,-0.0073855966,0.030696763,0.006482897,0.07977373,-0.16028142,-0.00671376,-0.022978963,0.08517578,0.044454444,-0.06254151,-0.07000774,0.102889016,-0.5032963,0.104336604,-0.011838269,0.02220039,0.0037197503,-0.0017911711,0.010148756,0.099957,-0.081589654,-0.043847457,-0.09899331,0.031137794,0.034498874,-0.11867955,0.07294296,-0.01191177,-1.9954915,0.034011774,-0.27564308,0.09767421,-0.10534804,-0.07130597,-0.15905133,-0.042702056,-0.042110793,0.09311466,-0.34439132,0.046839245,0.0188115,-0.7552112,-0.060176972,-0.103543766,-0.059319414,-1.0813766,-0.14643687,-0.006743729,-0.116292335,0.102257036,-0.07179788,-0.12631436,0.10400531,-0.05864058,-0.48159155,-0.007153228,0.11563968,0.09671522,0.09417344,0.09150216,0.005849406,0.024562383,0.18019532,0.051091693,-0.28396466,-0.10966846,0.053719312,-0.10440314,0.08779057,-0.0010123677,0.22833522,0.024691602,0.0949534,-0.11832026,-0.12059444,-0.08004724,-0.09641537,0.11505238,-0.3515726,-0.013268919,-0.098163545,-0.015009218,0.0038642585,0.018691339,-0.06920944,0.08203731,0.016031194,-0.005748873,-0.013189161,0.031949732,-0.040691674,0.00653091,-0.49347702,-0.12120707,0.050243687,-0.109918065,-0.084920324,-0.06704087,0.05248031,-0.11645872,-0.2854964,0.11115267,-0.09767899,0.0448936,0.03290938,-0.20756184,-0.033459123,0.05963066,0.01181524,0.01524491,0.043824613,-0.028012995,-0.38870487,0.062097717,-0.03290972,-1.8253593,-0.8383178,-0.05572392,0.036463954,-0.3036507,-0.05628819
