0
-0.32827458
-0.0845246
0.0
0.35138467
-0.5040658
-0.44650942
0.14135697
-0.22034296
-0.27055165
-0.02585218
1.2648803
0.018527145
-0.19445643
-0.5250279
-0.8031044
-0.1458267
0.45301905
0.7986059
-0.9769856
-0.7245061
0.37367153
1.4054139
0.24672474
0.41951433
0.40024087
0.49749666
-0.2419487
0.38339782
0.41699418
0.06923671
-0.1231437
-0.013438612
0.42187607
-0.56460935
0.0
0.53659964
0.25488025
0.36737502
-0.605756
-0.018341182
-0.0048310095
0.4775971
-0.08789585
-0.2164364
0.05067458
-0.86984843
-0.48055968
-0.8665169
0.3118113
-0.41328338
-0.75299764
0.11782306
-0.07226573
0.5038073
0.039365057
-0.014661724
-0.40889096
-0.13472787
-0.28155923
-0.74561465
0.0
-0.21342571
1.3078917
-0.004660424
-0.211007
0.18285887
0.0
0.0
0.0
-0.36373147
0.4675969
-0.5912983
0.48476028
0.56351405
0.47099885
-0.26066464
-0.26327568
-0.25598657
0.0
-0.6899126
-0.2007815
-0.07490428
0.4536768
0.2278702
-0.093753204
1.3073109
-0.04402535
-0.30775586
-0.13932765
0.4284932
1.0372117
-0.15715413
-0.1102904
-0.18924356
1.1185161
-0.5905876
-0.13964549
0.0
-0.45573798
-0.23455232
0.27300575
-0.13417517
0.9260333
0.58432007
0.0
-0.04582239
-0.14233853
0.0
0.18884729
-0.3524072
-0.10599761
1.0525448
-0.14252669
-0.22841667
-0.3344745
-0.03195244
-0.13624117
0.5150949
-0.12804608
-0.020335268
0.34704456
-0.25761524
0.0
-0.12815735
1.0487528
-0.13097604
-0.013423733
-0.084063284
0.41119185
-0.4244151
0.29228875
-0.097053334
-0.9073901
0.15971136
0.43372643
-0.094726354
-0.17118323
-0.3992093
0.340386
-0.16484153
0.26058272
0.50010765
0.5278272
0.33002856
-0.8010522
0.0
0.6166135
-0.22392063
0.45777032
-0.12174077
1.0705125
-0.009643937
-0.13951094
0.4219894
0.0074317744
0.3454967
0.0
0.4849268
0.12951931
-0.12753223
-0.18793614
-0.04362931
-0.68861836
-0.027474461
0.6380093
0.22338039
-0.07494288
-0.6704828
0.9646915
-0.31910798
1.0008758
0.4392373
1.045132
0.028453063
0.49038112
-0.0007583555
0.37785035
-0.1689663
-0.10047845
-0.14162
-0.0073166345
0.42361104
0.00026701187
1.1097426
0.37060487
-0.8917852
0.24938081
0.520959
1.2016158
-0.0053188712
0.2884521
0.0
-0.7529056
-0.34227312
-0.39671347
-0.10793191
0.4456718
1.0447083
0.035847627
-0.9725857
-0.7828978
-0.8711264
0.0
1.2197193
-0.67738247
-0.20901868
0.3276113
-0.10063318
-0.19494599
1.2347232
-0.05675268
-0.030075038
0.3752916
-0.1097772
-0.29968604
-0.23428984
0.0
-0.9355451
0.37075305
0.44886926
-0.015749289
-0.47084308
-0.036629427
-0.582097
-0.18559234
0.23723605
1.2671763
-0.19826366
-0.044581972
1.1934465
0.0708823
-0.19473946
-0.16423482
1.166024
0.038482107
1.2873858
0.0
-0.020218803
-0.03302567
-0.12565044
-0.30043185
0.4984054
0.5204893
1.1716627
0.043585632
1.1230803
-0.011541465
0.002602802
-0.015643151
-0.41933474
-0.16862935
-0.12120273
-0.18202366
0.0
0.0
0.4058909
