0,1,2,3,4,5,6,7,8,9,10,11,12,13,14,15,16,17,18,19,20,21,22,23,24,25,26,27,28,29,30,31,32,33,34,35,36,37,38,39,40,41,42,43,44,45,46,47,48,49,50,51,52,53,54,55,56,57,58,59,60,61,62,63
0.005693478,-0.5255616,-0.041774027,-0.03906171,0.09791803,-0.07979713,0.13901056,-0.04667136,0.04005856,0.06673813,-0.15469986,0.02666444,-0.18053012,0.00576797,0.14969069,0.100399934,-0.09063773,-0.11673868,-0.120233834,-0.031279497,0.018499319,-0.013484618,-0.01221103,-0.0111319255,0.09167641,-0.34182268,0.15021007,0.16387661,0.03908982,-0.08734079,-0.01788762,-0.11662111,0.06478706,0.03373499,0.07594453,0.09950023,0.04686805,-0.14166875,-1.3427153,0.00029837355,-0.08797671,-0.032359056,-1.4739548,-0.13580504,-0.06370375,-0.06548939,-0.01859854,-2.2141154,-0.13591644,0.08797603,-0.049058106,-0.08252076,0.03943914,0.12501109,0.13392282,0.104950115,0.18694179,0.041757684,0.09386293,-0.07324057,0.05651403,0.09913402,0.01737153,-0.03612077
-0.004914137,0.6989295,0.13078724,-0.02384131,-0.07572549,-0.069097206,0.1291753,0.051001202,-0.028524254,0.103751615,-0.050009377,0.15966919,-0.11620354,0.03975816,-0.07756524,0.17201248,0.024321897,0.06355616,0.14964603,-0.11992546,-0.1348192,0.025916137,-0.037475128,0.024491832,0.05682187,-0.8816242,0.09619669,0.15053248,0.2641778,-0.0925007,-0.012581583,-0.024212992,0.021761447,-0.009576897,-0.05106709,0.012339443,-0.013491378,0.13560441,-2.2779949,0.02613918,0.26830626,-0.072992355,0.23185779,0.44966644,-0.037542764,0.055350125,0.18790999,0.17624855,-0.40280804,-0.023834584,-0.0033408739,-0.1071647,-0.03593797,-0.0031198047,0.031332955,-0.038774125,0.17680001,0.022665242,0.0047534006,0.015136977,0.043514244,0.13184258,0.05355825,-0.011209394
-0.5533184,-0.013882273,-0.13172822,-0.16508259,0.036627866,0.0045210295,-0.09481858,-0.002269029,-0.0123954415,-0.08818116,-0.027420921,-0.028242776,-0.124314144,0.035749704,0.006381955,-0.016174337,0.043050505,0.021177629,-0.010224925,-0.14244567,-0.051448103,0.026868057,0.025509784,0.0037882014,0.009565591,0.009309703,0.08757182,-0.007975257,0.0130942855,-1.062037,0.0245204,0.010145903,0.03363417,-0.25864142,-0.16766126,0.0007081239,0.007263302,-0.060017154,0.05125993,0.013467241,0.033029325,-0.059647195,0.0014807218,0.07238723,0.0052981633,0.029773915,0.008368158,0.0150775,-0.00018569316,0.008362877,0.033038575,-0.29043937,-0.008735665,0.0038515925,0.0139215235,-0.16653368,-0.06497158,0.0032425793,-0.056518752,-0.04067515,0.081855245,-0.13998003,-0.26475585,-0.017288672
0.0955222,0.14374556,-0.15307166,0.15926385,-0.052609257,0.008023547,-0.009943306,-0.030629765,0.012177838,0.063967384,0.018732617,-0.04095457,-0.09201561,-0.07364184,0.10654478,-0.045467015,0.04221469,-0.047944844,0.0137712695,-0.15461747,0.06603872,-0.03794013,-0.036674455,-0.07165866,0.04922762,0.22858252,-0.015694149,-0.030397175,-0.029874396,0.28108296,-0.023818241,-0.06761822,0.042993773,0.011405991,-0.12205906,0.014019391,-0.080717295,0.18267393,-0.18512881,-0.09799582,-0.002417007,0.13042279,-0.035670083,-0.05850632,-0.019318856,-0.011494654,0.031481985,-0.010594617,-0.022530891,0.08849491,0.0025117001,0.47894207,-0.15687418,0.052587338,-0.011891895,-0.03141016,0.0962186,-0.027473243,0.013350516,0.12477892,0.113724574,0.19242877,0.018848129,-0.14462294
-0.8337439,-0.03593282,-0.024730047,0.0424287,-0.02976215,-4.6629705,-0.014773367,0.0020805055,-0.011587702,-0.036914248,-0.00316273,-0.0077445433,-0.10627753,-0.011188618,-0.060030337,-0.48456186,0.0003123103,0.011894863,0.016070949,0.022905536,0.010903032,-0.0059133815,-0.011669257,-0.157182,0.00087490655,0.010977695,-0.3135884,0.10189076,-3.3962984,-0.07740997,-0.0017289167,-0.0059863813,-0.02736344,-0.009002203,-0.007068519,-0.007726823,0.0037843226,-0.594715,0.019773109,-4.314808,-0.009385273,-0.10731623,-0.0063118762,-0.0041064387,-0.0153924795,0.018358571,0.027745515,-0.010523058,0.026582135,-0.039182723,0.00048764984,-2.1704233,0.102560624,-0.11895358,-0.024284804,0.05742785,0.14457025,-0.0026832612,-0.03250001,-0.01687726,-0.1258613,-0.007932338,0.016143866,-9.130651
-0.7172512,-0.029461773,-0.046024352,-4.4666677,-0.07254321,-0.18917511,-0.44124633,0.018032692,-0.0061984425,-0.069803685,-0.0010342959,-0.018292565,-0.06573717,-0.015823586,-0.8371386,-0.13392924,0.002276208,0.0044561615,-0.0024659631,0.040976427,-0.07314834,-0.006884044,-0.009675633,-0.009614742,-8.076849,0.016171407,-0.066787384,-6.167642,-4.686665,-0.597147,-0.0013346245,0.01837951,0.038187295,0.00029539104,-0.07242943,-0.14730307,-0.03600877,-5.563837,0.016651222,-0.0424785,0.01266326,-0.19773391,0.0109121995,-0.0440657,-0.005039407,0.0077691986,-0.001191195,0.013236791,-0.00105582,0.0031415406,0.009849269,-0.12901892,-0.07437706,-0.053254675,-0.10801329,-0.07347283,-2.5613167,-0.040100656,-0.24594,-0.044885617,0.06693892,-0.27440998,0.005015131,-0.040632688
-0.16145338,-0.22597504,-0.0019235078,-0.09311846,0.15002127,0.029067274,0.088895544,-0.14169027,-0.01144772,0.086141065,-0.11157695,0.13972934,-0.068958975,0.17191502,0.1180702,-0.011936667,0.15061843,0.02001042,0.062140606,0.095497854,-0.08962776,0.010178631,0.16460389,0.08026072,0.0931783,-0.12212029,0.10147258,0.08732847,-0.04665912,-0.12496987,-0.039362203,-0.0031848503,-0.0026777782,0.013479917,0.07801263,0.08784231,0.11991899,0.06842645,0.4211033,0.06440331,0.18286967,-0.0013393009,-0.021234982,0.028359685,-0.02603217,-0.11710448,-0.17097183,-0.70790493,0.12879016,0.03505762,-0.029106641,-0.2564085,0.010615621,0.09318191,0.076929376,-0.06937957,-0.018293686,0.12633806,0.1099674,-0.13338947,-0.11721134,0.0014547582,0.058920957,-0.0016717012
-0.4542877,-0.11237123,-0.04762808,-0.30298835,0.09593539,0.029579531,0.19895306,-0.05209203,-0.1304156,0.13780293,0.024685102,0.0030789368,-0.08588241,0.02152144,-0.17751387,0.17788881,0.021570344,-0.017240584,0.0020419315,0.04150787,-0.49478474,0.0052125948,0.056357156,0.15469508,0.1350274,-2.2025492,0.16322377,0.028210199,-0.02540664,-0.053857245,0.0028205314,0.02813061,0.042207245,0.02433342,-0.07820138,0.17486395,-0.10496931,-0.026812091,-1.1885251,0.22056451,-5.898397,0.11427612,0.18947567,-0.0027081391,-0.07515561,-0.040355776,-3.8841498,-0.12708978,-0.11084443,0.028337264,0.01124657,-0.16030061,0.011303899,0.21553962,0.05282491,0.06859674,-0.1462972,0.03351773,0.07101021,-0.009035347,0.056619454,-0.022496324,-0.011700892,0.09079339
0.052011304,-0.0035217456,0.026312606,0.05378791,0.0046819667,0.0058214464,0.0067799403,-0.010527604,-0.013920236,0.035071205,0.0023622876,-0.002788504,-0.053679086,0.0011106146,0.0141947605,0.004933608,-0.01975778,-0.0036565664,0.0075484994,0.0068656094,0.041366253,-0.56721765,-0.004650296,-0.022055335,0.022751808,0.016872952,-0.07593744,0.02462872,-0.020129362,-0.035582703,-0.6239336,-0.0013020565,0.008592395,0.047726486,-0.039431673,-0.00010849103,0.0102862185,-0.09979594,-0.0134222135,-0.0062778993,-0.013581229,-0.011590064,-0.010248726,0.0016962858,0.006109364,0.016556306,-0.01130362,0.0013650322,-0.01813438,0.014415778,-16.53783,-0.02148858,0.046549223,0.010772786,-0.02083675,0.04607256,0.0018047818,0.0005739699,-0.015622101,0.00054854125,-0.23984955,0.019215278,0.07303441,-0.008199062
0.012772493,-0.0075311256,0.0068320013,-0.05387919,-0.03133982,0.016410865,0.009755406,-0.63962924,-0.004418765,0.0154538965,-0.115884654,-0.030219534,-0.009219583,-0.009077599,-0.00510622,0.011206292,-0.067734756,-0.031141762,-0.05148002,-0.118164636,-9.625954,-0.049710862,-0.0027739129,0.019852897,-0.01762439,0.03037871,-0.003187221,-0.019133892,0.00028562505,0.020327788,-0.035598375,-0.12053481,0.0021392135,0.009178658,-0.021940371,-0.0042411475,0.0031902795,0.035839897,-0.045111626,0.008022196,0.011142601,0.012512612,0.024012633,0.0016164324,-0.045510653,-0.2616617,0.022348512,0.023068726,0.008675979,-0.0074776984,-0.14483364,0.010041431,0.079586774,0.0007703414,0.0075884913,0.02030493,0.01914448,-0.025403084,-0.028746873,-1.4421575,-0.10693153,0.00252712,-0.005140924,0.002362611
0.023741081,-1.0280646,-0.08637985,-0.03853289,0.17686048,0.11167523,-0.084282555,-0.17916718,0.1183836,0.08809468,-0.23609057,0.07662714,-0.0001620497,0.14109287,0.03646787,-0.1159077,0.07917876,0.066351876,0.062116537,-0.015798457,-0.20855638,0.030137917,0.18064551,0.09633534,0.10375652,-1.1612537,-0.049272485,-0.11348325,-0.04768001,0.17103718,-0.036970478,0.02249318,0.35880515,0.033157736,-0.19603725,0.11799314,0.19471052,-0.15736149,0.15886052,-0.34002104,-0.42234534,0.23234788,-1.189141,-4.315327,-0.024713958,-0.05660392,-0.32910502,-0.6211123,-0.076659165,0.39999655,0.013221576,-0.048446007,-0.094849646,0.037613217,0.04581968,-0.15982433,-0.021644833,0.11490088,0.097046435,-0.31247747,-0.13243875,0.09329163,-0.048703354,-0.016318746
-1.7470648,-0.2866126,-0.07664543,-0.22173151,0.067178406,-0.055384904,0.0151080955,-0.007062267,-0.010083461,-0.009283194,-0.0055723824,0.011443402,-0.012261192,0.0066749854,-0.0018195597,0.024479704,0.014961334,0.011936153,-0.010368559,0.038967777,-0.0071442053,0.020092245,0.027665226,-0.003116087,-0.031387564,-0.072016045,-0.049135216,-0.04075286,-0.06172224,-11.111327,0.020252706,-0.002986738,-0.030942393,-0.031195978,-0.061035827,0.01007171,0.020812191,-0.13273281,-0.20166564,0.02342866,0.059541106,-0.024777751,0.030458497,-0.06374299,0.01774361,-0.008663861,0.010841224,0.03794118,-0.004978836,-0.02528911,0.016159223,-0.4125687,-0.1425712,0.03139766,0.022196075,0.054903004,-0.32167163,-0.0067875558,-0.03932602,-0.01555688,0.03795876,-0.20392981,-0.040070273,0.040653024
-0.14840214,-0.04709715,0.10598733,-0.1938299,0.006281966,-0.03839611,0.06804073,-0.04660799,-0.26560125,0.04171929,-0.4924429,0.004888008,-0.077659175,0.016651638,-0.17498736,0.07137013,0.016883586,0.05841986,0.05922834,-0.14762573,-5.3488836,0.010520396,0.035449065,0.061136317,0.054921586,-3.4775374,0.08551291,-0.028306864,0.00725483,0.06486883,-0.014768876,0.00041880505,-0.10338018,-0.026757345,0.018629529,0.07742379,-0.13118501,-0.1456581,-4.8814006,-0.027074674,-5.186653,-0.042125795,0.041445166,-0.006435883,-0.10655986,0.00846157,-0.47757483,-0.013609595,-0.24172564,0.006476165,0.009743556,-0.023776775,0.041599937,0.06948145,-0.08260428,-0.15140831,0.07558208,0.07664098,0.07993635,-0.8414881,-0.12079661,0.043621477,-0.009999282,0.049792413
-0.1106031,-1.4798293,-0.018446608,0.11994878,0.14122102,0.15396042,-0.111416586,-0.08936122,-0.009183173,0.009380221,-0.05690683,-0.21841347,-0.052187238,-0.0015193154,0.061791286,-0.09980926,-0.14653595,-0.049162295,-0.1785343,0.104000285,0.10598708,-0.027210975,0.024213335,0.34094188,0.05571536,-0.30877677,-0.1166946,-0.17499541,-0.09712482,-0.005208601,-0.050555468,-0.09338792,0.40410325,-0.0024930197,-0.18818718,0.11866875,0.15314035,0.20020223,-0.35283872,-0.8875719,-0.3064535,0.42592758,-1.0610505,-4.8097,-0.07988434,-0.14270717,-0.3295818,-1.546209,-0.084371515,0.34650388,-0.014448159,-0.54376274,0.080637455,0.10561563,0.10407399,-0.057277605,-0.10705615,0.0027630997,-0.0060742316,0.023047185,0.083901,0.047902983,0.0042630187,-0.23725165
-0.018073281,0.012756528,0.09063269,0.039059985,0.0026899027,0.032347254,0.026254088,-0.36724716,-2.1457927,0.004814763,-0.38272372,-0.004205069,-0.17699398,-0.061290756,0.07951984,0.012296536,0.019517854,-0.04749984,0.025122875,-0.1385734,-5.085166,-0.01350928,-0.050434705,-0.097217605,0.02364048,-0.3296846,0.017164972,0.02101377,0.03207669,0.018257914,0.011523456,-0.058993354,-0.39539817,-0.04437443,-0.061600395,-0.008563274,-0.11353708,0.11840576,-0.30398008,0.0015600629,-0.03328052,-0.28243226,-0.007691065,0.0036379113,-0.10557111,-0.095340334,0.00010132332,0.0029911036,-4.641824,-0.32191932,0.023656068,-0.0024456747,0.069826335,-0.039010122,-0.06757694,0.03851459,0.004907601,-0.009638963,0.02829523,-0.7947578,-0.19814013,0.008496946,0.004277226,-0.050182678
0.10268947,0.42591062,-0.20564775,0.11612162,-0.026310343,0.18424128,0.04289005,0.041937627,-0.093122266,0.113311194,0.00053445087,0.09096831,-0.09117519,0.005760245,0.08827795,-0.013154934,-0.0205578,-0.064287566,0.024027158,-0.11303463,0.009843022,-0.016371904,-0.022983588,-0.07335281,0.11067302,-0.11806285,0.014709835,0.11262022,0.09145784,-0.2361978,-0.047897782,0.006430435,-0.054615576,0.016405528,-0.16290055,0.022597529,-0.033136588,0.3804751,-1.0391792,-0.11170925,-0.035763424,0.19586693,0.021125712,0.43972817,-0.11058523,0.033888478,-0.08181939,2.619707e-05,-0.102928855,-0.099954195,-0.023394722,-0.11330412,-0.17371401,0.0031244766,0.08184561,-0.044032812,-0.005938018,0.017186813,0.055268764,0.1060159,-0.19336884,0.11711443,0.0656865,-0.24493279
-0.2737267,-0.6670432,-0.096838415,0.21621743,-0.05185068,-4.9423313,-0.041129448,0.009962526,0.0074518393,-0.000855502,-0.0016645191,0.047890123,-0.10052532,-0.009897234,0.05852312,-0.42051184,0.10479799,0.068883434,0.027530687,-0.11918713,0.033481564,0.021994052,-0.02350848,-0.23496388,0.035318285,-0.0126697505,-0.14594117,-0.111493096,-1.0452334,-0.16032004,-0.022813614,-0.0026314093,-0.15351638,-0.011726933,-0.16079468,-0.039460912,-0.015320405,-0.20268537,0.11542993,-2.9846382,0.16874416,0.052187566,-0.62530917,-0.99788463,-0.0074009155,0.033923335,-0.1413809,-0.038900625,0.015962236,-0.111435555,-0.027599586,-0.38545188,-0.061935183,-0.10582396,-0.07239989,0.011138386,-0.015086615,0.06779832,0.14628184,-0.020928822,-0.027442448,0.0394967,0.031890057,-8.110707
-0.70822304,-0.013425397,-0.02994671,-1.8043414,-0.15174381,-0.08413647,-1.797253,-0.06568513,0.0010335345,-0.21234706,0.013873876,-0.045433465,-0.15599301,-0.041470993,-5.8624816,-0.27057266,-0.038659137,-0.028979525,-0.04148796,-0.016674394,-0.11112431,0.0006229365,-0.060662165,-0.044666745,-5.937844,0.012948607,-0.2416644,-1.856474,-0.25438306,-0.07057134,-0.00698868,0.0011226529,0.017232047,-0.00026036156,-0.1420508,-5.4900336,-0.07667209,-1.1006583,0.0247053,-0.031502064,0.0166965,-0.27434984,0.025007287,-0.018341452,-0.06272754,0.008388488,0.016523587,0.025403576,0.0114788385,-0.01781491,-0.0024041526,-0.03244865,0.0727323,-0.15484399,-0.3167333,-0.12149224,-0.6962882,-0.11284362,-6.7736297,-0.05719518,-0.12576112,-0.21266575,0.0038066518,-0.06472053
-0.041269768,-0.064728156,-0.10858226,0.13634935,0.05019193,0.0629196,0.07339574,-0.089378506,-0.15676409,-0.06823094,-0.07424759,0.1377926,-0.0023220375,-0.107268,-0.051284794,0.10026785,-0.10012942,0.05564362,0.08532864,0.13709843,-0.12099821,0.04711476,0.03981794,-0.111485794,-0.13904437,-0.022725148,-0.08693,-0.07414756,-0.03364733,-0.120344974,0.08120367,0.13004301,0.040375978,0.0068478994,-0.033708572,-0.11470055,0.03008455,-0.18142603,-0.16567677,-0.14134733,-0.06044671,-0.063595444,0.14728677,0.10030525,0.13799168,0.13043039,-0.059792977,-0.09278813,-0.15934305,-0.13992988,0.0016918442,0.10893905,-0.10219787,0.12134877,0.14720987,-0.08425075,0.14547415,0.11736727,-0.028918793,-0.07441658,-0.10597044,0.007990213,0.06734813,0.08913431
0.05463365,-0.0107084,-0.09563107,0.016154889,-0.00056058617,-4.3460168e-05,0.0062048957,-0.015971884,-0.012737559,0.0325648,-0.0015117042,-0.011944726,-0.069305204,0.00057315,0.02729032,0.008756986,-0.029067168,0.014886738,0.009018028,-0.122058615,-0.0035116102,-0.8606877,-0.0023979805,-0.0041057393,0.03469046,0.0047367085,-0.0698107,0.004516067,-0.014109438,-0.05481704,-0.9586212,-0.003341983,0.01159158,0.071244,-0.0593888,0.007438224,0.0006305427,-0.04141203,-0.01661907,-0.0011691733,-0.0045337714,-0.03066252,-0.028490132,0.024126036,0.0152544025,0.006340525,-0.015531603,0.007115387,-0.016107937,0.003407048,-19.516603,-0.030451665,-0.106414646,-0.011931204,-0.008405863,-0.06492279,-0.00901224,-0.0033025695,-0.007243219,-0.035995282,0.046540715,0.015455019,0.05951059,-0.003653706
-0.22110374,-0.07265732,-0.07442761,-0.1981886,0.17039004,-0.014295223,0.06260149,-0.0135496715,0.13546808,0.11780443,-0.07009303,0.0433702,-0.14781454,0.08703421,-0.0023464914,0.100365005,0.06808243,-0.022529868,0.005825388,0.029650686,-0.021387944,-0.04533602,0.08229037,0.091068536,0.062415656,-0.18481342,0.016243337,0.14172474,0.05829396,0.034231585,-7.4387484e-05,0.005273967,0.12200646,0.025826424,-0.09166963,0.10816352,0.079042315,-0.049304593,0.28565124,0.026151558,0.17866562,0.03112581,-0.026189303,-0.12868437,-0.04803118,-0.03194451,-1.9476522,-3.8999808,0.19122232,0.122582234,0.017413095,-0.09457603,-0.016039208,0.107093625,0.06831866,-0.09306987,0.11140692,0.09270902,0.104177475,-0.04777689,0.003957074,0.029030386,-0.0030777494,0.061466537
-0.1673822,0.024845809,-0.069295354,-0.15739745,0.006484041,0.05221409,0.08819856,-0.044050623,-0.032065846,0.053670593,-0.10924959,0.0028635461,-0.05815668,0.059502583,-0.023422822,0.026515728,0.015839068,-0.01867455,0.053907175,-0.1416278,-0.7116932,-0.00032409333,-0.023853704,-0.091153026,0.077916056,-0.10452905,0.014310797,-0.023038711,0.018643387,0.10741588,-0.0007984389,0.012023606,-0.12762083,-0.016967734,-0.05350207,0.02283558,0.029754927,-0.16217296,-0.36387596,-0.039370492,-0.053313654,-0.054333087,-0.041408017,-0.06836464,-0.04906427,0.008762279,0.031627845,0.008499062,-0.07786074,-0.011974353,-0.028079411,0.20876794,0.015659766,-0.023091592,-0.019544411,-0.071436994,-0.055100467,0.034490682,0.03918703,-0.11468693,0.057542734,0.10955033,0.016463188,-0.09438266
-12.109169,-0.021131206,-0.058732968,-0.86534953,-0.011760346,-0.029487845,-0.031661663,-0.022452556,-0.001708647,-0.013190354,-0.028350707,-0.018041031,-0.014219509,0.0009813239,-0.09951121,-0.0033696718,-0.009863444,0.027348045,-0.0010199472,-0.1483157,-0.08289385,0.0062963604,-0.008805308,0.01674699,-0.07210549,0.014839759,-0.012389705,-0.23186944,-0.16633464,-0.19752283,0.0047939215,-0.007865649,0.0032714293,0.00020355725,0.014377513,-0.013504848,0.008960168,-0.2274636,0.011469149,-0.027477887,0.002522322,-0.046097066,0.005869221,-0.02925818,-0.0022228141,-0.0077624633,0.0032233763,0.009076097,-0.011751777,-0.0014745691,0.00033507444,-0.030344296,0.09363941,-0.0056811683,-0.04212404,-0.09251998,-1.1524938,0.0043740002,-0.03872201,-0.01603732,-0.074085765,-0.034496114,-0.0037636007,0.008755361
0.09028597,0.14433916,-0.026157059,0.18993598,0.11296367,0.08591403,-0.013538199,0.05218236,-0.009482386,-0.004900347,0.049400862,0.017297339,0.031764627,0.055789344,0.093654715,0.028927581,0.029689975,0.012216019,-0.019465644,0.06225839,0.18483296,-0.078019574,0.11987937,0.035128657,0.04711048,-0.13054484,-0.028333139,0.12937617,0.10291088,-0.05627936,0.056374684,0.036028676,0.0962903,0.011978903,-0.030964367,0.011359282,0.047577616,-0.05203681,0.17838363,0.37009642,-2.4598413,-0.05717075,-0.026159696,0.19912982,0.024602195,-0.00045685703,-0.24060233,-0.16163634,0.17463258,0.06740986,-0.022369394,-0.03834495,0.08470584,-0.04764422,0.024702316,0.024073806,0.076046444,0.021586655,-0.019190358,0.014314772,-0.15427667,-0.039488874,-0.06017719,0.13931741
-0.06774031,0.01339646,0.07087645,0.017019585,-0.024990395,-0.007981532,-0.021408232,-0.011781691,-0.02016121,-0.074948244,0.059010852,0.015403859,0.00499225,-0.017767468,0.06261085,0.004114399,0.030611834,-0.0036410312,-0.015827835,-0.10223685,-0.060806893,0.13975573,0.012931559,-0.0029396827,0.018212028,0.021318346,0.021796843,0.039781142,-0.007910394,-0.0031074139,0.15379082,-0.013516562,-0.017616067,-1.5075228,0.14595638,0.02077029,0.016875751,0.017016886,0.028284762,-0.0011039417,-0.017269341,0.025121791,0.01610515,-0.01639657,-0.013865315,-0.016023321,0.02201393,-0.023806486,0.007288008,-0.007954913,0.06043271,0.015857587,-0.015324431,0.02168108,0.0317326,0.072213925,0.026459234,-0.0069631054,-0.012585969,0.018311968,0.0029080831,-0.008102673,-1.5898263,-0.0101152295
-0.056224275,0.2724369,-0.18845022,0.043872986,0.0045157876,0.1427114,0.08894277,0.042869635,0.037496828,0.006486189,0.09915948,-0.052196577,0.0670451,-0.042061336,-0.029583523,-0.0044444143,0.00043900794,-0.0048315944,0.014528906,-0.08289736,0.11944579,0.0184211,0.0070588747,0.058108333,0.09294009,-3.3583622,0.013209787,0.09012661,0.030578524,0.10091508,-0.02754848,-0.01685774,-0.029626708,-0.0068942504,0.028470188,0.048782557,0.012625096,0.069297954,-0.026886739,-0.054464865,0.091827616,0.04980504,0.0790319,0.12969467,-0.04947555,0.027016943,0.10658949,-0.042397015,0.06911439,-0.0069845063,0.01621193,0.24781254,-0.15676625,-0.031182395,0.04201317,-0.17871036,0.1008545,0.020791546,0.04344277,0.07171524,-0.20304357,0.24786624,-0.044683274,-0.05259139
-4.053572,0.0027107152,-0.056970075,-8.649555,-0.077954486,-0.0014060022,0.0034872554,-0.08818382,-7.196704,-0.008817826,-4.9630384,0.0018347726,-0.12340605,-0.006343541,-7.60275,-0.009055583,0.012161358,-0.001118063,-0.017689075,-0.14614294,-3.022613,0.0037393307,-0.0020592231,-0.017711537,-0.036895834,0.0016223834,-0.0094016595,-0.02526897,0.011395967,-0.0077028284,0.0035558976,-0.0034627006,-0.02271634,-0.0031527088,-0.091214895,-0.027488906,-3.4876812,-0.6801686,-0.0017821764,0.00637894,0.008723701,-1.2965015,0.019514339,0.002184256,-6.9158797,-0.027983235,0.017763004,0.023958972,-1.0747732,-0.2006085,-0.0018521602,0.004692658,-0.013720451,-0.013990661,-0.24079981,-0.0018247954,-0.03626746,0.028668942,0.005686179,-4.1974363,-0.06522534,-0.018985882,0.0029922202,-0.0036989588
-0.31076613,-4.9340143,0.0067375125,0.006029202,0.16042021,0.14372106,-0.025330946,-0.028858818,0.015561659,0.094307154,-0.005091201,-0.021581624,0.055186924,-0.055303674,0.047853418,0.05158185,-0.0674917,-0.0523862,-0.047818147,-0.104882814,0.12056901,0.0020883123,0.019215569,0.23567207,0.1036656,-1.2893652,0.0824873,-0.0327839,-0.0851292,-0.015568346,-0.026779696,-0.042317804,0.049624078,0.056919917,0.049929418,0.19092721,0.06376766,-0.011578189,0.23225743,-0.29763266,-1.9078127,0.12738985,-0.8729555,-0.73019916,0.04923872,0.05497362,-0.26440755,-0.086702,0.0022625672,0.058648564,0.029030524,0.022030063,0.027909985,0.16777815,0.12915859,0.008529787,-0.12079797,0.04814913,0.030059354,0.04984467,-0.089641355,0.14654845,0.01670816,0.10142781
-0.34677356,-0.0023475122,-0.12605084,-0.26922473,0.09144358,0.16515559,0.16760154,0.03280146,0.081358366,0.046482205,-0.006866216,0.061255474,-0.04676371,0.06222146,-0.055296313,0.1823615,0.06870474,0.017845009,0.07236214,0.08638531,0.00079322705,-0.034687027,0.035655215,-0.0006174278,0.10259197,-1.3929784,0.16450252,0.04177927,0.11133758,-0.062226225,0.00088870374,0.02464926,0.096789345,0.04808443,-0.01707154,0.12038122,0.03804889,-0.070982724,0.13049401,0.16073309,-0.16304013,0.054097503,0.05789259,0.13182637,0.047805917,0.045904297,-0.26859057,-0.08281832,0.025500787,0.024467375,-0.07342077,-0.08062543,-0.058305193,0.13365388,0.03728483,-0.0701793,-0.019639065,0.11966194,0.095604375,0.018427938,0.04168079,0.07953072,0.053106345,0.09795112
-0.10797973,-0.011198618,-0.038680974,-0.031485047,0.11086575,0.15286218,0.092072144,0.07370437,-0.04390419,0.024997052,0.0080770375,0.017354252,0.09245329,0.036161643,0.04296713,0.099760145,0.078778975,0.0039706114,0.120882474,0.027461769,-0.018951273,-0.023760803,0.09060122,0.04392376,-0.019357793,-4.7033443,0.055522513,0.06663818,0.10856669,-0.0383587,0.0037766518,0.03694507,-0.00032312018,0.04263884,-0.12058138,0.057395667,0.06995131,-0.1482132,0.11256043,0.23954172,-1.1770672,-0.14728042,-0.020526718,0.21438532,0.043507844,0.024084082,0.012028417,-0.05021535,0.098777704,0.04225995,-0.021718724,-0.012322166,-0.054051563,0.035855867,0.11299853,-0.12617971,-0.044875696,0.056938786,0.033061568,-0.006464309,0.015820952,-0.034789134,0.031343237,0.11257929
-3.1781678,-0.0040481193,-0.069814436,-1.0488282,-0.053124297,-0.022525417,-0.18396549,0.031545963,0.009721301,-0.03386177,-0.018529825,-0.017727327,-0.061175518,0.00087780727,-0.3185461,-0.12255391,-0.0012623615,-0.013618102,-0.007189825,-0.07892811,-0.07198099,0.0019621528,-0.039104115,-0.09492818,-0.38733453,0.011605217,-0.08475319,-3.1275618,-0.10725274,-0.011370646,-0.010505373,0.005405338,-0.026422283,0.0044261636,-0.21429679,-0.1460082,-0.033450145,-0.3824323,0.023343435,-0.035677265,0.007790125,-0.18803905,0.007825641,-0.014713672,0.0005177342,-0.0048666457,0.013515603,0.02241688,0.025625473,0.02799723,-0.002168287,0.002004462,-0.16108899,-0.102395415,-0.09168105,-0.107230864,-0.41171363,-0.07387803,-0.01868997,-0.0066423854,0.0295955,-0.028755227,-0.001862376,-0.085020036
0.29256964,0.20690565,0.052502777,0.08127177,-0.0381843,-0.09238468,-0.009563675,-0.030670637,0.05489334,0.029724555,0.019390384,0.03893433,0.10201827,-0.001884835,0.0055305352,0.033516403,-0.04529421,-0.033819653,0.051261816,0.05708814,-0.00039962603,-0.0018115686,-0.04978418,0.08060848,-0.021782275,0.2626739,0.021251185,0.20673594,0.06416831,0.27472767,-0.015930867,0.015730567,0.026067883,0.0007178042,0.11632283,-0.07797885,-0.081881985,0.17518497,-3.0019054,-0.24872525,0.09189538,0.03029157,-0.002289223,-0.12954971,-0.023270395,-0.014630161,0.0034829525,0.0029809722,-0.6183161,0.06627463,-0.056999695,0.42968687,0.02926872,-0.08032548,0.119634956,0.032760326,0.11330462,-0.060130063,0.02914262,0.047274668,-0.16513905,0.28047976,0.0027983617,-0.052024864
-0.050600376,0.003162307,-0.16694458,-0.2148432,-0.013320839,0.0026586996,-0.002015421,-11.107789,-0.07744024,-0.014206007,-1.8764546,-0.09124342,-0.057640225,-0.03479642,-0.0009940882,-0.0010332993,-0.090485364,-0.14982472,-0.2343123,-0.104667254,-4.2324214,-0.0049592243,-0.021294788,0.016052047,-0.021789761,0.009365863,-0.0070322533,0.0033863015,0.010475126,-0.0062848236,0.008955889,-0.5475279,-0.0076239267,0.005475732,-0.07270051,0.0035151318,-0.018406283,-0.009059716,-0.014251107,0.0068757483,0.019748485,0.017392611,0.0020145292,0.002131303,-0.5066488,-1.620642,0.01703241,0.012859514,-0.18611,-0.001414851,-0.0011215648,0.0077218837,-0.16176961,0.00060536474,-0.0015876775,-0.012757914,-0.011229344,-0.046214677,-0.03797147,-9.299218,-0.18699574,-0.004759293,-0.0052722916,0.005432777
-0.12995929,-0.6266489,0.017434793,-0.1372997,0.13768719,-0.05869181,0.06488272,-0.01884684,0.021362623,0.07719827,-0.14400873,0.17719927,-0.19402805,0.14188045,-0.012205063,0.017048704,0.16144265,0.18047695,0.117269725,0.07340081,-0.34773546,0.03156368,0.1599966,0.0009098195,0.012382884,-1.0907793,0.04225497,-0.05015423,0.031963944,0.04424978,0.023519931,0.15689763,0.07271845,-0.031843558,0.06969284,0.07446034,0.17152664,-0.09800573,0.34510845,0.041508008,-1.3803158,-0.03395389,-0.50204945,-0.1176607,0.07219896,0.075431935,-0.4356922,-0.5972783,0.11151942,0.07176656,0.04464239,-0.18326788,-0.037356313,-0.0069024274,0.018595077,-0.18036224,-0.01935287,0.12879154,0.16923012,-0.27026966,-0.20328462,-0.0081398515,-0.012236185,0.08275067
-2.3467274,-0.006623504,-0.07362076,-0.42549413,-5.976387,-0.02077435,-0.26654467,-1.0822798,-2.2652006,-0.033794634,-1.3300043,-0.032362446,-0.114816636,-3.9019065,-2.493545,-0.29680383,-0.029068619,-0.5994573,-0.06390637,-0.005351374,-0.29319862,0.0017447483,-4.6470084,-0.33898345,-0.675261,0.013804008,-0.24221349,-0.7985198,-0.18380027,0.00044074416,0.0009792148,-0.6199013,-0.14923704,-0.0036283513,-0.022004679,-2.1003003,-3.3951976,-2.3597527,0.008672219,-0.04518079,0.0021541875,-2.7510426,0.00020591918,-0.022714173,-1.3400862,-0.72451645,0.0023506843,0.0048030782,-2.1050372,-1.4680007,-0.0012737549,0.0022457165,-0.17020774,-0.52803594,-4.2760715,-0.2376453,-0.2563817,-0.4499223,-0.024181705,-0.33708334,0.005051149,-0.02970759,-0.00040847313,-0.10113211
-2.1553545,0.0026359733,-0.15905073,-5.9918966,-0.021945832,-0.02076395,-0.24635434,0.022482807,0.0026340305,-0.011544898,-0.010720867,-0.0037134823,-0.018477306,0.015429655,-0.33718854,-0.11166953,0.0018556551,-0.0024325335,0.019239366,-0.015234488,-0.05724331,0.002388434,-0.0025991318,0.0029376931,-0.88216966,0.0049069794,-0.12419338,-11.3196745,-0.30429134,-0.022512274,-0.003792156,0.0066452343,0.0034137277,0.003121043,-0.09358623,-0.073982924,0.00080638076,-0.9925531,0.011506224,-0.02693182,0.0016355562,-0.20558539,0.0042591,-0.017907681,-0.017098932,0.0029815088,0.012476793,0.010137676,0.00032315153,0.014443645,-0.0045807012,0.005079754,-0.110852696,-0.064151354,-0.02992265,-0.19607785,-8.195268,-0.03043725,-0.034307893,-0.017001275,-0.08211684,-0.020177059,0.0044688093,-0.041332055
-0.040197905,0.018024066,-0.1401487,0.013745769,-0.018546646,-0.025837181,-0.044226818,0.018472616,0.04711254,-0.06251188,0.035144582,0.008164425,-0.03315878,0.043543957,0.0078852065,-0.0062477333,0.024720825,-0.033420302,-0.025482519,0.04406149,0.07434959,0.1750785,-0.028545883,0.005546783,0.023033421,0.04877024,0.087518364,0.036960766,0.03281702,-0.004351824,0.16664845,-0.023932328,0.008977638,-6.52031,-0.15554166,0.03540465,0.02660545,-0.009582491,0.041679006,-0.0013992961,0.009232682,-0.026270265,-0.017545624,0.0017447188,-0.03845846,-0.012717789,0.021551492,-0.0016487353,0.03287575,-0.013137989,0.08407629,0.019981094,-0.0023271053,0.018967165,0.026806945,-0.072305925,-0.02469843,-0.026962927,-0.0071698283,0.004201972,-0.15446146,-0.012863778,-12.626364,-0.04076635
-0.07772925,-3.1718297,-0.101224355,0.048239592,-0.03769396,-0.36135516,-0.08767569,0.055599537,-0.09129553,0.10031159,-0.11520971,0.119071014,0.038073808,0.16669258,-0.08415758,-0.12915897,0.15424742,0.13422921,0.12438052,-0.10996301,-0.012062869,0.018671881,0.13085975,-0.16284925,0.11196504,-4.546062,-0.12821011,-0.07560536,-0.03569901,-0.027102673,-0.008150948,0.09038562,0.04065913,-0.047534887,-0.045105934,0.00083287095,0.004588751,-0.14251341,-0.0803904,-2.068543,-2.9540482,-0.1035429,-4.0867662,-6.332697,-0.022057824,0.11592634,-2.2458148,-1.7165552,-0.13031167,0.07429853,0.03103523,-0.68451655,-0.045359522,-0.045866586,-0.18561332,0.06504912,0.02523364,0.17385693,0.17004558,-0.0421175,0.07668195,0.071784474,-0.050969273,-0.85139096
-0.09793709,-0.21371612,0.006923659,-0.17353757,-0.010805168,0.01513557,0.010476153,0.052735236,-0.02549913,0.13757947,0.075280875,0.112041846,-0.043105457,0.1342301,-0.046741065,0.057269704,0.14561649,0.09854307,0.082183614,-0.14719774,-0.20781882,0.03551947,0.14695598,0.0013066647,0.020977553,-2.440869,0.0060426015,-0.022706518,0.031943526,0.063319705,0.008660073,0.06501668,-0.07015166,-0.013100444,0.034055572,0.055851676,0.082130976,-0.07326577,0.42522728,-0.103192076,-1.6685354,-0.030953284,-1.0712225,-0.18227585,-0.006169054,0.096016936,-1.1541808,-0.7561617,0.056218073,0.03459421,-0.04255332,0.29884952,0.092242956,0.05664158,0.03695267,-0.085867174,-0.030091027,0.08213651,0.076289244,0.04146602,-0.18738186,0.05367633,-0.0036650617,0.08871577
-0.06748389,-0.00030123437,-0.12897506,-0.16083099,-0.01670595,0.0075595276,0.0050979373,-3.1138685,-0.021983605,-0.014358024,-0.84132665,-0.06990368,-0.0463641,-0.021504197,-0.03348053,0.0024636756,-0.07161919,-0.08174484,-0.11474674,-0.16064845,-9.592328,-0.0027428335,-0.020072252,0.016617658,-0.010528437,-0.002588753,0.007234253,0.002168664,0.008498812,-0.007836898,-0.00076945755,-0.26397747,0.0067335693,0.002648977,-0.07548408,-0.013588809,-0.005017663,0.004573649,-0.02097988,0.0021759006,0.012984218,0.008765705,0.013827039,-0.0019683598,-0.2876162,-0.60211295,0.019777043,0.008544953,-0.06755029,0.012526828,0.0036548022,-0.0009262993,-0.072441116,-0.0067620575,0.0025204306,-0.09678718,0.0009185449,-0.035703525,-0.041352786,-10.655962,-0.02726465,0.0016423366,-0.0027335526,0.00528187
0.17047074,-1.4157668,-0.17769563,0.018337756,-0.046589997,-0.24142893,-0.06837185,-0.013145497,0.09881875,0.008140702,-0.06086861,0.13745348,0.06889684,0.13665637,0.005483223,-0.09807346,0.21068826,0.20460822,0.13479696,-0.12326421,-0.31576893,0.009647293,0.1107513,-0.06028222,0.024065217,-0.29955703,-0.018520052,0.03859644,-0.16950065,-0.029591542,0.015475712,0.15909402,0.027921757,-0.024337728,0.052237406,-0.018633006,0.035317708,0.0046110596,0.33479238,-0.17501998,-0.7117821,-0.0776828,-0.51874876,-0.63916487,0.054920264,0.0756066,-1.3838141,-0.86916447,0.076076865,0.025868313,0.04497198,-3.2157676,-0.16868395,-0.04858012,-0.014903228,-0.14686413,0.09024844,0.086423844,-0.014298975,-0.23174489,0.07321061,-0.16897663,-0.012186583,0.09638452
-0.061884034,0.028463753,-0.01708698,0.16740444,-0.06867577,0.14400335,0.09718664,0.009461481,-0.011651586,0.03533735,0.002563557,0.029300446,-0.18186589,-0.10623495,0.087317,0.09728923,-0.08740232,-0.06622983,0.06032618,-0.17341778,0.07200329,-0.066385046,0.011349709,0.08966916,-0.046571363,-1.2086678,0.14960542,0.02749582,0.085206315,0.12097768,-0.0016055009,0.011406211,0.0602766,-0.026889374,-0.15856221,-0.015671996,0.008072568,-0.037823237,-0.88617396,0.107776076,-0.039209742,0.039993662,-0.065003574,0.08625608,-0.011194502,0.00046235332,-0.08470683,-0.040868625,0.024061257,0.04571376,-0.04153059,0.14941935,-0.14974318,0.032463387,0.018749049,-0.096317746,0.021860156,-0.009138082,0.0565958,0.111669645,0.006046898,0.17381209,-0.023318363,0.038394704
0.20202084,0.0022863555,-0.14862315,0.09063591,-0.07468124,-0.0034507685,-0.0045330604,-0.026374115,-2.7984364,-0.016554475,-0.0360955,0.0053838734,-0.1372661,-0.020671535,-0.026175026,-0.06609873,-0.01351441,-0.005084143,-0.0065085096,0.1317097,-1.0456023,0.016613703,-0.05163742,-1.1461269,0.09188008,0.009957398,-0.0246853,-0.07960746,0.030040612,0.025999507,-0.00068172585,0.013683859,-4.6585765,-0.01997904,0.03187205,-0.0235548,-0.077875905,-0.4496124,0.052865155,-0.018455518,0.032531742,-0.9689809,0.01256444,0.0020637482,-0.0097585255,0.011773404,0.030507801,0.025648903,-1.9565346,-3.5073724,0.003507704,0.02609759,0.061330326,-0.0835261,-0.24988998,0.12643765,0.039864622,-0.035675287,0.05707447,-0.085482806,-0.108226046,-0.00636093,-0.020777706,-0.11369575
0.034326054,0.12073097,-0.15571567,-0.24496579,0.069493555,0.06470425,-0.02176054,-0.027234819,-0.17043173,-0.024446025,-0.13229209,-0.027661482,-0.12115056,0.03754986,-0.07534238,0.039197855,-0.009097662,0.037490174,-0.0024335212,-0.087529495,-1.0160426,0.004855956,0.115468726,0.2220438,-0.033568233,-1.0003798,-0.0006684174,0.067593254,0.02520643,0.14428157,0.002348531,0.08549402,0.2850168,0.029075941,-0.07754371,0.029537497,-0.06393348,-0.0059165554,0.09426335,0.111281976,-0.087580234,-0.11932543,-0.0179221,0.11971989,-0.10643743,-0.025565024,-0.010038204,-0.0010928778,-0.24270709,0.052642845,0.00080041273,0.014377568,0.012071781,0.08327227,0.04543699,0.05818658,0.058009394,0.018962432,-0.08240178,-0.14517416,0.108756974,0.04211644,0.006113524,0.17615396
0.18210466,-0.5352073,-0.062409326,0.14988524,0.011677974,0.046302248,0.016945586,0.041082114,-0.0028148424,-0.04772832,0.09036339,0.014478229,0.052020818,0.06518165,-0.0421227,-0.027483964,0.08764711,0.060815927,0.114817485,0.08435593,-0.09395486,0.018766936,-0.0077924086,0.008613782,-0.03282843,-0.1294057,-0.015862346,-0.018083122,0.0053484957,0.10886908,-0.004925304,0.06963054,-0.06920221,-0.007577344,-0.23807202,-0.08030692,0.0061547062,0.11086332,0.65135264,-0.04222622,-0.40972295,0.05155896,-0.26579705,-0.15755565,0.058390066,0.14131568,-0.3139397,-0.0995815,0.26601517,-0.111944295,0.029898524,-0.3724892,-0.086701185,-0.025631785,-0.02523907,-0.1500737,0.083180755,0.045648787,0.02987707,-0.03482359,-0.124632075,-0.10970104,0.008983283,0.09677235
0.036001932,-0.072548084,0.12290007,0.12644011,0.032911934,-0.076226965,-0.19891784,0.25079262,0.044616785,-0.036493976,0.11610927,0.09814208,-0.13156168,0.09369471,0.01208038,-0.0634655,0.12898937,0.052285846,0.09309635,0.036549695,0.1356972,0.012937744,0.020420333,-0.000115101255,-0.02990896,-0.0028873123,-0.04582443,-0.013605594,0.039540116,-0.071304485,-0.009320353,0.11411608,-0.05674911,-0.034348328,0.09508666,-0.053388506,0.15114248,-0.010169806,-0.1050667,0.14975975,-0.060137894,0.021251528,-0.23645796,-0.21363638,0.12725715,0.2087394,-0.14423664,-0.22558784,-0.14858927,0.014348603,0.006106256,-1.2802352,-0.18665461,-0.16142885,-0.0036635143,0.15730454,0.0022230176,-0.036445033,0.020993363,0.2780336,0.07063074,-0.054928206,0.008517725,0.0470099
-0.115769185,-1.6356821,0.06933994,-0.08787893,0.07703674,-0.2882178,0.016906276,0.086603716,0.03523307,0.0109106265,0.09265199,0.082023196,-0.05747609,0.03817022,-0.15034477,0.024402045,0.08035884,0.04059526,0.09729758,-0.073458254,0.07448076,-0.040374443,0.01957704,0.16292134,-0.024962585,-1.8018893,0.032187156,0.029497398,-0.057061967,-0.1971519,-0.06869748,0.04109154,0.10631944,0.033260655,0.013605827,0.08517695,-0.0031516817,-0.056613587,0.0003180027,-0.17025441,-0.3951298,-0.08132898,-0.16227037,-0.24913584,-0.031593952,0.08306218,0.0013152127,-0.0930865,-0.036801178,-0.039670788,-0.21351583,-0.2922052,-0.014689136,0.14259385,0.004906987,-0.17513293,-0.038988195,0.07123597,-0.054686237,0.08507102,-0.19024087,-0.092934534,0.0007381694,0.10995965
-3.42406,-0.004223633,-0.1086929,-1.9497354,-0.019903865,0.0036987152,0.0018099261,-0.058187827,-0.17396177,-0.0074265595,-0.16482173,0.0004161451,-0.15290922,0.01066579,-0.6984771,-0.006091455,-0.013114036,-0.0014573353,-0.0020481525,-0.10055217,-0.65776,0.002826518,0.007924945,-0.0027367538,0.015412994,0.014894536,0.0036278476,-0.0075026173,-0.0026804656,-0.0013380314,-0.0022177696,0.0008284593,0.0016417126,-0.00070308696,-0.047777474,0.0053489218,-0.29341277,-0.45126474,0.0129147135,-0.013465329,0.0019089656,-0.17816684,-0.009947073,0.0043716943,-0.32833397,-0.01593972,0.0019040937,-0.009095373,-0.030608013,-0.011780323,0.00015675745,-0.009864587,-0.14717199,0.011774452,-0.083432965,-0.16265632,5.6093995e-06,0.0026976503,0.0020191588,-0.3233669,0.0065502157,0.007945409,0.0012222672,-0.009467792
-5.0830755,-0.018665984,0.017270682,-2.4709604,-0.010264392,-0.13930902,-0.15595001,0.0021657369,-0.0025432867,-0.06849635,-0.017947292,-0.017704336,-0.052521687,0.0076088826,-0.27381557,-0.05597603,-0.01229413,0.015179992,0.0067818463,-0.015310038,-0.18088579,0.0059964145,0.005959303,0.03494505,-0.36993325,0.018844986,-0.047636032,-0.33186513,-0.33729404,-8.206879,-0.0022043888,0.004215631,0.034659512,0.008184374,-0.189466,-0.038605824,-0.034160268,-0.3792671,0.02016489,-0.016496655,0.020727495,-0.114542365,0.027502337,-0.01898011,-0.031421572,0.0072314176,0.022976572,0.015196988,-0.012464328,0.014608292,-0.002900558,-0.116533734,-0.0556325,-0.016833983,-0.043621026,0.0609961,-6.488673,-0.0045521064,-0.14377712,-0.022754371,-0.1671634,-1.5122453,-0.0058124987,0.014225985
-0.02807908,-2.2055929,0.039267357,0.065386415,0.023588916,-0.40242055,-0.107803844,-0.07115214,0.019183379,0.03986154,-0.04599711,-0.056611888,-0.17993394,0.0711338,-0.047307506,-0.14257649,-0.025361765,0.009017872,-0.02710505,-0.13231,-0.021456854,0.003661094,0.10177924,-0.10995334,0.04484686,-0.44987822,-0.07604174,-0.1677694,-0.13505994,-0.16829094,0.009431233,-0.014096926,0.33095294,0.010324574,0.089345135,-0.026551317,0.11759572,0.16961373,0.14280045,-3.598999,-0.099605486,0.23475368,-3.1189024,-5.610543,-0.07337517,-0.039919607,-1.2590045,-0.8320871,-0.016485652,0.3324143,0.01945642,-2.8226907,0.033724356,-0.14304137,-0.17955886,-0.07489757,0.006506713,0.108993635,0.060658146,-0.07979123,0.031113116,-0.03904979,-0.025362618,-0.40692168
-0.067394845,0.028879033,0.08376424,-0.054951303,-0.0034271749,0.02360291,0.0031617342,0.010808979,-0.6003423,0.041733265,-3.7634954,0.010297275,-0.018233076,0.01626212,0.07868398,-0.016742982,0.009271625,-0.03531069,0.03250427,-0.045907293,-3.9115586,-0.018122695,0.013260147,-0.11758364,0.013477873,-0.04244177,-0.024168273,-0.04701709,-0.044646945,0.043918658,0.015671657,-0.027156364,-0.24209237,-0.007873576,-0.12948202,0.050463058,0.027105149,-1.6701537,-2.28355,0.0562333,-0.036159445,-3.3526843,-0.041210324,0.054358833,-0.004898688,0.0031813472,-0.024286717,-0.020464893,-5.57819,-0.21677066,0.0125116855,0.03934665,-0.06425363,0.013020142,-0.025712488,-0.17974244,-0.06028982,0.008134174,0.030643398,-4.098759,-0.035789017,0.007137014,0.009996511,-0.016570278
-0.25021893,-0.16884947,-0.13639036,-0.01926693,0.05152143,-0.22880524,-0.08841714,-0.07784606,-0.026992068,-0.037702847,-0.010313006,-0.03142832,0.07999824,-0.023548022,-0.03226626,-0.021386776,-0.02562769,-0.021786101,-0.031295817,-0.15706371,-0.08398978,0.005889613,0.062076457,0.12919872,-0.048092827,-0.2828279,-0.06846733,0.034982115,-0.03899848,-1.6949499,-0.007377702,-0.03938955,0.04054722,0.03352001,0.0390564,0.03389536,-0.015855026,0.1558147,-0.28691772,0.25323853,-0.03392938,0.29737577,-0.066097856,0.101588815,-0.04918591,-0.08468488,-0.011090762,-0.0036634372,-0.0683322,-0.051894948,0.020325873,-0.6466942,-0.17105474,0.019699475,0.037845954,-0.14662713,-0.0864614,0.0458563,-0.0790096,0.0092646815,0.069472246,-0.33323598,0.0006015842,0.14230847
0.0070709824,-0.02952891,-0.07225007,-0.00080243166,0.066081874,0.085402936,-0.061243523,0.04447182,0.09908559,-0.06637143,-0.10642913,-0.14678246,0.16660173,0.09023605,0.10297606,0.038453586,0.13833085,0.08889945,-0.18663847,0.08276747,0.10688405,0.13545689,-0.095105454,0.12605557,-0.1649508,0.13409616,0.03191021,-0.05067898,0.11994666,0.13926062,-0.14303583,0.044616636,-0.16602847,0.09995799,-0.11138965,-0.06236403,-0.2212966,-0.12957539,0.1584518,-0.009742633,0.13882576,-0.048399642,0.08157861,-0.030299483,0.0148630915,-0.07582966,0.16670045,-0.09788438,0.085999295,-0.14884333,0.12430615,-0.13144718,0.052093253,-0.14773172,-0.05856478,0.14509942,0.09329788,0.12231404,0.14256558,-0.012786444,-0.053741194,0.10077944,-0.11276494,-0.089019805
-8.941042,-0.0018483171,0.03171997,-2.1088061,-0.1920946,-0.0033765857,-0.030259931,-0.36065924,0.014954625,-0.0037435188,0.024735756,-0.004063597,0.024452975,-0.13221195,-0.34180185,-0.008032144,0.0008905725,-0.018799482,-0.011202865,-0.035396304,-4.693375,0.00015985005,-0.013916307,-0.05457257,-0.04616579,0.007914897,-0.003815476,-0.32250038,-0.02270565,0.0012848773,0.004261145,-0.02439079,-0.00827965,-0.0027076623,-0.021482281,-0.003293175,0.027810575,-0.23384842,0.007691377,-0.002137432,0.0034124483,0.083064586,0.0012795855,0.001274221,-0.0073812767,-0.051057994,0.0044319998,0.004179778,-0.058187965,-0.07527804,-0.0036554162,0.0016985096,-0.16252176,-0.0007703798,-0.30844143,-0.06349729,-0.13749461,-0.011110235,-0.0032302975,-0.27109146,-0.058793765,8.064574e-05,-0.00076412293,-0.0141818905
0.12532881,-0.82095665,-0.0776016,0.056189563,0.10018823,-0.049127962,0.051604476,-0.02503913,0.04236798,0.011474981,-0.02893692,-0.0037496109,-0.18050003,0.03905997,0.08143548,0.07139111,0.013680014,0.031537883,0.013917502,0.09488851,-0.09600723,0.003996189,0.08839729,0.24662149,-0.061912883,0.1206705,0.047077857,0.090114236,-0.059727754,0.0584579,0.014460726,-0.0073613804,0.14758265,0.052894764,0.0109538995,0.019027973,0.03644789,0.1179451,0.20913903,0.14777325,0.016330259,0.09379168,0.048931807,0.24564466,-0.018598288,0.0017711571,-0.07358503,-0.5433165,-0.060905356,-0.032907758,0.024334162,-0.19863437,-0.14096853,0.20810296,0.17329134,-0.009768048,0.15953097,0.046588954,-0.05071585,-0.068057165,0.08051514,-0.14375482,-0.0019209547,0.22553304
-0.5050772,-0.014915625,0.015977575,-0.057245485,-0.021121092,0.011834133,0.023094524,0.017955583,-0.013880304,0.018389685,-0.018876985,-0.009719608,0.008135498,-0.016135765,0.031260822,-0.028042266,-0.028968213,0.015378032,-0.017428095,-0.13757905,-0.07206065,-0.27151987,-0.008636029,-0.0070778113,0.012302085,0.033421215,-0.0825467,0.07963952,-0.041881613,-0.24455678,-0.27574125,0.006542124,0.0029698897,0.03735691,-0.0045787897,0.01969318,-0.02058625,-0.16369052,0.021574562,0.001819778,-0.017800378,-0.07688859,-0.026826998,0.001356136,0.018273452,0.025797324,-0.008922617,-0.015892912,-0.007497065,0.0046413913,-1.7929505,-0.11146035,-0.07823406,-0.011935206,0.0026934517,-0.08993779,-0.07591896,-0.0024922895,0.0127322525,-0.04335197,-0.010084598,0.028982062,0.04060523,-0.034981072
-0.37366104,-0.29895303,0.056091744,-0.107029706,0.009889567,-0.06672162,0.024615979,-0.007371379,0.01126161,-0.009875427,-0.058545005,-0.0151690375,-0.050620742,0.019724429,0.015926775,-0.003053119,-0.039092068,0.007131192,-0.0491482,0.11370394,-0.26619738,-0.0708741,-0.032350544,0.0022342952,0.015290155,-0.8601899,-0.035980057,0.02319246,0.020356273,-0.31063232,-0.09536554,-0.0010487842,-0.048027493,0.0158781,-0.053557586,-0.015263226,0.057853587,-0.0876735,-0.25953072,0.0028395958,-0.3891836,0.02577084,-0.06896191,-0.02938239,0.018317863,0.011093438,-0.117538914,-0.070581965,-0.01528833,0.018580418,-0.2769174,-0.26088536,0.0137373125,-0.04092706,0.03697584,0.011850661,-0.048125442,0.0062000095,0.035373706,-0.06396556,-0.03945198,0.015468616,0.001751752,-0.032136906
-5.14234,-0.005623932,-0.02731062,-4.140332,-0.1917097,-0.010534715,-0.10498684,-0.56285965,-4.2200246,-0.018263068,-1.8746272,-0.014413622,-0.13108113,-0.15360895,-7.060497,-0.101375915,-0.0131293135,-0.13929039,-0.03397559,-0.005403861,-0.9372709,0.0018256805,-0.1410639,-0.13291019,-0.15864551,0.010890444,-0.088719405,-0.20962612,-0.09599808,0.0021106221,-0.002745253,-0.14224799,-0.098215386,0.0005486432,-0.11487736,-0.126338,-6.667638,-3.2057202,0.0106709665,-0.029018775,0.002420994,-2.9456832,0.005743027,-0.006162646,-4.6543207,-0.23525912,0.005971045,0.00505473,-3.7689261,-0.3488167,-0.0035249495,0.00251268,-0.106623486,-0.11971906,-9.9714575,-0.016150119,-0.16969705,-0.1360465,0.0009921717,-1.7119082,-0.03148354,0.0028154226,0.0014866283,-0.0758631
0.11251064,-0.49922293,0.016575413,0.17680931,-0.03030642,-0.18305053,-0.057646517,0.021613413,0.1002645,-0.0028618511,0.09722122,-0.025028974,0.061916813,0.029955052,0.0048797545,-0.014536284,-0.053029846,-0.0039704577,-0.008594307,-0.15335643,0.0953556,0.0056014727,0.0037084678,-0.091914125,-0.035129394,0.05925126,0.04242328,-0.07908615,-0.01979296,-0.12314662,0.0029284288,-0.011418989,0.06984557,0.036464177,-0.13664615,-0.045741376,0.081791036,0.13387987,0.17951803,-0.37117696,-2.3781388,0.0851171,-0.34645644,-0.16923083,0.060165342,0.0040172623,-0.08874511,-2.3857527,-0.013459805,0.09231296,-0.0062429192,-0.43679535,0.100611836,0.043306515,-0.04371267,0.13518718,-0.020684622,0.010692633,-0.0134419855,0.13424522,-0.07252447,-0.053397045,0.00546905,-0.16465437
-0.05354051,0.00019617856,-0.0004161615,-0.61914814,-0.024737652,0.012504501,0.0018565991,-5.2521076,-0.38362843,-0.03542875,-4.9893613,-0.19962482,-0.159272,-0.11556993,-0.0038604143,0.003971327,-0.20645888,-0.5686093,-0.8289735,0.07441338,-0.8354032,-0.0025672626,-0.05847882,0.0020857078,-0.013063823,0.008931382,-0.0061100037,0.0028157597,0.00095523417,-0.0009084749,-0.0005318464,-4.3639607,-0.11389242,-0.0027577667,0.01824173,0.0030408618,-0.061629895,-0.020792695,-0.012056451,0.0057465765,0.010056449,0.0029529138,0.022555068,-0.0034649053,-2.169927,-7.611656,0.01722943,0.028887285,-5.821338,-0.011739858,0.0009223104,0.0017787887,-0.013024867,-0.015284719,0.02422001,-0.14135969,-0.0017649522,-0.064633735,-0.06472137,-3.304085,-0.19399594,0.0011399466,-0.0030247094,0.004901799
-0.06896568,-0.039600857,-0.15127714,-0.0013611622,-0.07329616,0.105992846,-0.0035047322,0.012996476,-1.5084176,0.042900644,-0.24455728,0.020368658,0.042173333,-0.03244837,-0.011459363,0.031879213,0.01828896,-0.014240276,0.04344103,-0.00051377056,-5.0864015,0.020640576,-0.014089245,-0.117994115,0.037235387,-0.1755437,0.050617583,-0.11154676,0.071554035,0.030032968,0.0034839741,0.013797467,-0.810697,-0.0056817783,-0.037406523,0.026760017,-0.047903366,-0.09293487,-3.7093441,0.081548356,-0.05044021,-0.2085155,-0.05318888,0.06275349,-0.009533655,0.019316243,-0.003335662,-0.019106438,-6.1601906,-0.20689455,0.0114946235,-0.03323247,-0.153944,0.017640695,-0.05759302,-0.056285754,-0.05714865,0.035894077,0.06970153,-0.22352676,-0.07051286,0.077176325,0.015760917,0.023288442
-0.09740864,-0.21419078,-0.110673316,-0.025652884,0.09133348,-0.17651083,0.034375627,0.041808084,-0.019883735,0.16832493,0.11765927,0.17628634,-0.0016220283,0.11754268,0.07958274,-0.042948138,0.13671817,0.1256824,0.16154748,-0.14089929,-0.16604054,0.06595442,0.05256096,-0.07622216,0.056465253,-0.3335628,0.02540471,-0.007454705,-0.119751036,0.0027713438,-2.8007096e-05,0.13239683,0.0022929688,-0.044258423,-0.049746033,0.08923505,0.1044638,-0.097543694,-0.095706955,0.16848713,-0.25745556,-0.0052537657,-1.7606282,0.25609887,0.09057078,0.1486924,-0.14356843,-0.3943786,-0.17665666,0.050262976,0.04433672,-0.88425964,-0.16025048,-0.018197775,0.053653292,-0.185329,-0.10098087,0.13868111,0.13422471,0.045180913,-0.1293935,0.040211614,0.01763684,0.06619798
-2.1414702,-4.907415,-0.029168693,-0.16736175,-0.007833778,-0.20058781,-0.016333127,0.008485524,-0.021259276,0.015504649,-0.025370209,0.0032298623,-0.01589033,0.00856632,-0.039440837,-0.12705016,0.026890123,0.030133702,-0.0035232212,-0.13139157,-0.030824654,0.026770635,0.0066050887,-0.058578454,0.045647856,0.033775624,-0.07824995,-0.10898903,-0.42780432,0.14325608,-0.018364288,-0.0057776277,0.005374724,-0.0074703027,-0.026529094,-0.0059506423,-0.02853428,-0.29655677,0.049249824,-5.873592,-0.020221438,-0.006612796,-0.19880994,-7.371568,-0.009904036,0.008129926,-0.015250196,0.01854201,-0.009038722,0.0023774048,-0.03159956,-0.08769559,-0.1018539,-0.019467523,-0.016778804,-0.12823594,-0.27819863,0.02516095,0.0185142,-0.0267702,-0.21036743,0.07620914,0.0052035996,-0.24207695
0.03879184,-4.548379,0.01944588,-0.032471795,0.09220862,-0.11244092,0.1318811,-0.0025232444,-0.09935611,0.109463975,-0.13500705,0.02835295,-0.03358936,-0.113819465,0.0011857853,0.24679679,-0.074912116,-0.023398755,0.04399468,0.051346328,-0.025177302,-0.013827799,-0.06590953,0.24940434,0.049135704,-3.8385592,0.18799888,0.017547052,-0.055415824,0.014824171,0.016805442,0.13297617,-0.0427279,-0.01186558,0.0447621,0.16458753,-0.05542595,-0.16523641,-6.1616745,-0.2147157,-5.2428703,-0.24014784,-0.49131307,-0.28073382,0.023448346,0.05799652,-5.0537214,0.03381983,-0.44167286,-0.046961755,0.0070983316,-0.019684264,0.10584914,0.3228267,0.09747395,0.012708936,0.019129958,-0.052311167,0.03192089,-0.19024856,-0.1801305,0.08027097,-0.04639335,0.04158796
-0.11560103,-0.2909765,-0.14010349,0.022792565,0.044203676,-0.014954411,0.006903346,0.01016257,0.071708575,0.087808326,0.052154984,0.102336325,0.009136101,0.08774814,0.03674107,-0.044603508,0.011768079,0.08162234,0.130009,-0.13694502,-0.14977957,-0.015423551,0.15008408,0.059520364,0.043391716,-0.17559823,-0.025381513,-0.019259958,-0.005293503,0.15413573,-0.0066081583,0.12358026,0.16497952,0.020511057,0.042103965,0.016030032,0.11702446,0.055911604,-0.054042604,-0.19414565,-0.24392395,0.22320427,-0.4409427,-0.14557491,0.072594665,0.00436078,0.053484708,-0.06831312,-0.12863362,0.19826183,-0.043758776,-0.5426897,-0.06415581,-0.009436768,0.04186531,-0.024271736,-0.06001942,0.1610819,0.063417226,-0.04778401,0.10911179,-0.00030458777,-0.017931284,-0.005135053
-0.06740465,-5.337889,-0.14696698,-0.10161879,0.21091574,-0.19729236,0.059755594,0.0054243905,-0.094791465,0.083266884,-0.22947818,0.07490042,-0.19033796,0.0656705,0.11920725,0.06265835,-0.074321404,-0.040850624,-0.07691366,-0.00602746,-0.025283411,-0.033726122,0.1176551,0.30083817,0.11347908,-0.7983407,0.14377177,0.058036298,-0.15769655,0.063936554,0.031117158,-0.046202265,-0.1787554,0.027015658,-0.055319212,0.17612141,0.041845843,-0.09238914,-4.4564643,-0.20049356,-0.074496515,-0.11869213,-3.051492,-0.8460285,-0.07240073,-0.09901269,-0.69923764,-2.58817,-0.25285688,0.08114956,-0.025587304,-0.068533696,-0.06251435,0.24098565,0.18123545,-0.073556736,0.009558497,0.16994318,0.07527267,-0.070530444,0.09526779,0.07442923,-0.10281504,-0.060328394
-0.04661419,-0.14555572,0.03719136,-0.09278752,-0.0052187014,-0.050712556,0.005268018,-0.056865163,-0.036831707,0.0017166461,-0.25238356,0.03404849,0.07874665,0.013727755,-0.02742735,-0.0079472605,0.040790517,0.0092571,0.008330065,-0.03087693,-2.2764018,0.01635803,0.044692114,0.011472247,0.009947129,-0.04732606,-0.0012072661,0.011352281,0.0039781206,0.045414697,-0.013383264,0.0068174195,0.025758347,0.0013731675,-0.15719531,0.034924746,-0.054720923,-0.031107534,0.07469512,-0.009580022,-0.2867748,-0.050021697,-0.01862725,-0.06921235,-0.06902048,-0.006369596,-2.6404333,-0.94979733,-0.085398026,0.019460851,0.027699243,-0.09845563,-0.0065468103,0.0037390413,-0.010194314,0.03461036,0.074019365,0.047822185,0.051413167,-0.5527445,-0.10403316,0.0055336365,0.0059146625,-0.0019702988
-0.18158834,0.1547748,-0.111547105,-0.16909152,0.060958616,0.16737068,0.07190871,-0.006859285,0.05353365,0.11703235,0.0276408,0.10152814,0.073445685,0.026941387,-0.07345268,0.055162042,0.046036676,0.08234307,0.06495582,-0.115351714,0.046762347,-0.018974481,0.05789523,0.046131447,0.043988355,-4.2541428,0.047546897,0.0818361,0.09728024,0.030250626,-0.004989972,0.10751827,0.04700083,-0.016337616,0.028174488,0.09305251,0.029349165,-0.032830406,-0.0068741855,0.08217784,-0.1661442,0.05179297,0.018566558,0.12693977,-0.010839409,0.048204843,-0.17288144,-0.013749368,0.09721269,0.050625075,-0.068113,0.074866645,-0.0881331,0.08455239,0.07283636,-0.11645354,-0.030310426,0.01568517,0.092789926,-0.008579721,-0.18451041,0.09292861,0.029079957,0.08823568
-0.15467396,-0.30389562,-0.16647674,-0.025819901,0.07591958,0.004077922,0.041182093,0.09077362,-0.028881421,0.0047559366,0.14369369,-0.012548342,0.058140274,0.033828672,0.028317763,0.13125524,-0.04671812,0.014516327,0.020881196,-0.17459022,0.09345067,-0.02596341,0.05824713,0.07308543,-0.054263327,-4.6336675,0.08717839,0.025832068,0.004515773,-0.15956649,-0.01702741,-0.03627308,-0.043360908,-0.009098845,-0.10344781,-0.028058195,0.019048227,0.0059915567,-0.041075423,0.43741593,-0.13065355,0.0041001625,0.013508044,0.02873913,0.04158986,0.040717755,-0.0025587324,0.10647086,0.024515199,-0.058213606,-0.018068545,-0.22097953,0.060098045,0.08187396,0.020424683,-0.022494638,-0.16479966,-0.0103622535,-0.06470056,0.14032859,0.05544613,-0.11069845,0.01774508,0.3053226
-0.041236065,0.0035651342,-0.14806253,-0.43564156,-0.009579009,0.003946658,-0.0071691074,-8.979992,-0.060730737,-0.025042225,-3.983365,-0.13054326,-0.04011348,-0.05505966,-0.05604724,-0.009875853,-0.10927599,-0.20754066,-0.3354562,-0.08561889,-5.549872,-0.002861011,-0.035349954,0.021647211,-0.01745118,0.007940281,-0.011327725,-0.0016456837,0.009314186,0.003188953,0.004544897,-0.82365304,-0.013959712,-0.0056433575,-0.030851236,-0.008025828,-0.046789967,-0.0011235754,-0.015477359,0.0039897803,0.009966397,0.008587396,0.013847554,0.0044551506,-1.0567116,-2.736491,0.018123882,0.014901826,-0.27336827,-0.0034368744,-0.0053324103,-0.0034187306,-0.15761778,-0.005551885,0.013566054,0.05702235,-0.005964932,-0.059586752,-0.0483058,-7.2886634,0.061780997,-0.0010832536,0.0015899952,-0.002378063
-0.2803379,-0.06910345,-0.08092998,-0.17360985,0.01089735,-0.05709108,0.037949808,-0.09422616,-0.011350816,-0.007865804,-0.16197753,-0.048578013,-0.005854999,0.01609491,0.0023035265,-0.017625077,-0.072614096,-0.012129913,-0.021050433,0.01129766,-1.9318155,0.013809728,-0.0074675204,-0.002556143,0.026589029,-0.15909743,0.0017519983,0.00094059017,0.014845362,-0.056737658,0.0045479815,-0.003381843,-0.016812209,-0.0034556917,-0.07426681,0.01989993,0.06323643,-0.17436846,0.017043091,-0.028351603,-0.43078098,-0.037201405,-0.10163578,-0.023095384,-0.043974444,-0.016351596,-0.124095686,-0.12546961,-0.055410028,0.037984107,0.00014492351,-0.11799227,-0.038818546,-0.0054795938,0.021680215,0.0024140074,0.0003822621,-0.024672912,0.021398379,-0.44080314,-0.14973663,0.031814564,-0.014417844,-0.04648512
0.3905822,-0.035717603,-0.13304062,0.3623623,-0.07448856,0.008848683,0.007387458,-0.19209486,0.03282579,-0.034034595,0.08774375,-0.0051348666,-0.033777047,-0.10229172,0.21665986,-0.0069226054,-0.06595839,-0.02283472,-0.0031524335,0.04999195,0.0778525,0.007843989,-0.021704385,-0.006056211,0.0031381212,-0.078491494,-0.024593838,-0.09210653,-0.07610416,0.0007551928,0.013399785,-0.05013092,-0.060882952,-0.017196706,0.05270869,0.01067634,0.05600722,0.5174421,-0.06665202,-0.060309555,-0.08339265,0.3835981,-0.0795867,0.0055722184,-0.1357998,-0.14269195,-0.035419464,-0.03290734,0.029157884,-0.19455448,-0.005933881,-0.03851365,-0.18224213,0.0036930705,-0.23193562,0.031885482,-0.05982051,0.015526455,-0.019183323,0.02529178,-0.22630498,0.04041754,0.0049983365,-0.07591648
0.11061468,-1.9425267,0.01304241,-0.032049816,0.14844379,-0.23632798,0.091531485,-0.004492428,0.022069111,0.034236595,-0.04736299,-0.03321848,-0.010910554,0.04730761,0.04546804,0.24468276,-0.07142026,-0.1684431,-0.09425294,0.025593027,0.01781661,0.023295077,-0.045014355,0.22314882,0.06688148,-0.2430491,0.14441942,0.15843754,0.052376136,-0.052611597,-0.03450126,-0.04011633,0.03875576,0.046537586,-0.07642648,0.0991145,-0.026372802,0.07729995,-3.1820242,-0.22564782,0.08174572,0.044093803,-1.6456542,-0.21916015,-0.08322842,-0.06298344,-0.46073118,-0.47719717,-0.25395086,0.13807659,-0.010461367,-0.11761894,0.02715643,0.23493029,0.13579468,0.022702165,0.24088807,-0.024765559,-0.041092444,-0.024491731,-0.13855234,0.04531797,-0.031247206,-0.011699234
0.3681892,0.008410723,-0.16677628,0.33714086,-0.080064684,0.053845376,-0.009806091,-0.13274473,-0.03643024,-0.05349238,-0.02567906,-0.0041295486,-0.109398164,-0.26073784,0.318317,0.017969744,-0.028579209,0.017431108,0.0379809,0.18384829,0.25245965,-0.014907888,0.035557266,-0.08886022,-0.02453748,-0.23987567,0.034787744,-0.21881944,-0.018385792,0.009576062,0.022058947,0.02158485,-0.015943749,-0.0085502,0.07467134,-0.03547627,0.046921816,0.24506816,-0.1963052,-0.17994349,-0.036197416,0.107448965,-0.050749835,0.03180544,-0.10522683,0.022888254,-0.03221784,-0.027823256,-0.10783869,-0.05038135,0.011268597,0.01030963,0.08059897,0.0059331064,0.040176906,-0.16396952,0.0072001563,-0.018598553,-0.051972225,0.042855326,-0.102294385,0.054845273,0.0047222394,0.009413801
-0.07398309,-0.1325365,-0.13324183,-0.19571652,-0.09492493,-5.269983,0.015053706,0.19459936,0.17492267,-0.019104749,0.20924129,0.03667828,0.006387284,-0.027463848,-0.057089422,-0.09329311,0.0140138315,0.07946172,0.10206516,0.113299996,0.13362925,-0.0015842763,-0.07832894,-0.21738191,-0.05007738,-1.1753179,0.01087621,-0.042107467,-0.2024701,-0.032660343,0.0120678665,0.09628081,-0.04278,-0.01743456,0.04213425,-0.03650534,-0.032920234,-0.015222627,-0.5805596,-3.2794425,-0.7685975,-0.09240863,-0.38196713,-0.6784521,0.15618515,0.14064407,-0.40429112,-0.23963435,0.18533222,-0.034661297,-0.046427347,-0.6889424,-0.020594757,-0.0032748827,-0.036576726,-0.17533174,-0.02937817,0.009353807,-0.020482454,0.25310212,-0.09915104,0.1555896,0.010421129,-4.548744
-0.10809794,-0.33273637,-0.12376608,-0.19078635,0.056767955,-0.4176682,0.04097066,0.060685348,0.08695396,0.18822385,-0.019718833,0.10004594,0.014659502,0.1984812,-0.058753807,0.041452434,0.17255133,0.20218784,0.17922916,0.0012394076,-0.31037945,0.04140295,0.17205559,-0.014613708,0.010986591,-1.3744909,-0.019328918,-0.0916199,-0.119382046,0.10286554,0.014817792,0.17629248,0.096185215,-0.006009552,-0.19865096,0.11093294,0.14001979,-0.27626067,-0.075465195,-1.8175313,-0.26574117,-0.020436656,-0.6866932,-4.241525,0.13190645,0.13030206,-0.49319497,-0.24980356,-0.16812402,0.15674485,0.021753734,0.021129109,-0.15200065,-0.003466345,-0.060023762,0.1001734,1.4585719e-05,0.20092605,0.15770563,-0.14580958,0.09345758,0.0060398313,-0.030227711,-0.17859502
-0.2618781,-8.470587,-0.04050793,-0.02008499,-0.022543969,-0.1300946,-0.09925249,0.0044383304,0.09165798,-0.07909626,-0.010102867,-0.059999432,-0.17316663,0.002245682,0.0018723356,-0.043404225,-0.009568991,0.023042992,-0.025401076,0.03511217,0.02395545,0.0020377408,0.011256974,0.15511489,-0.047801934,0.06464871,-0.010570671,-0.12263201,-0.32360005,-0.26388988,0.031269535,-0.0031410789,0.11125743,0.009556543,0.07650416,-0.05083049,-0.0009416886,0.1664568,0.08027088,-0.42124104,0.00034868467,0.09802865,-0.07684534,-0.81539756,0.022552188,0.004781356,-0.011213522,-0.0027361868,0.109497674,0.1293912,-0.0034710604,0.25171125,-0.15240373,0.025995918,-0.0148787815,-0.1168123,-0.1832757,-0.025045775,-0.03288994,0.025550315,0.0708294,0.058340453,-0.013159975,0.08403926
0.17554225,-0.02053661,-0.18336968,0.14465448,0.0002661505,0.029301748,0.046452552,0.018612914,-0.042260904,0.04612233,-0.008255543,0.0036075038,-0.075635426,0.036542606,0.015460861,-0.0069794967,-0.038469374,0.016643498,0.025869623,-0.13528992,0.10074076,-6.6252675,0.008997341,-0.0088209035,0.04643666,0.010205468,-0.23447211,-0.016375205,-0.022974096,-0.07745533,-15.276783,-0.014177275,-0.019220663,0.1485103,-0.08875187,-0.011933141,0.019479709,0.00791094,-0.09516203,0.028939182,-0.0075105974,-0.1064027,-0.020297952,0.035091605,0.048215557,-0.0028271414,0.02619857,0.03510071,-0.009540177,0.000982594,-10.512414,-0.06169385,2.7392064e-06,0.011341668,-0.044843305,0.043736197,0.03661064,-0.058228336,-0.06325867,0.03845272,-0.036357578,0.021473214,0.109350055,0.01966828
0.061745375,0.37070733,-0.062992245,-0.09853581,0.07539761,0.079225264,0.06134554,-0.07281319,0.020201745,0.041354526,-0.025567025,0.08473046,-0.14024685,0.030192666,0.018110022,0.06345842,0.06926695,0.089400105,-0.033444293,-0.1574382,0.1339326,-0.03012616,0.11345609,0.031044029,0.05727072,0.12241362,0.06616173,0.12176886,0.09647601,-0.007288621,-0.0150679955,0.015288818,0.060870096,-0.011678914,0.1345982,0.119531065,0.0720929,-0.018955404,0.093481444,0.06041374,0.29152748,-0.04330254,0.18432307,0.17425813,0.025670325,0.029975114,-0.40149608,-0.16505097,0.090580635,0.044777993,-0.032465063,0.06846445,-0.009713483,0.124366395,-0.011795598,0.08519008,0.17677125,0.089550875,0.11189621,0.035911944,-0.17575024,0.031552598,-0.0084986575,0.090720765
-6.9572,-0.11943234,-0.17876832,-0.74037784,0.021208078,-0.04823768,-0.029526616,-0.01378667,-0.00669745,-0.03831994,-0.07884466,-0.025471246,-0.16285925,0.0068275854,-0.046842124,0.0025555037,-0.0062209726,0.005618881,-0.023122538,0.06599447,-0.2723114,0.0020677892,0.009564194,0.040111523,-0.04612315,0.028229695,0.011425916,0.010895231,-0.027431905,-9.847975,-0.00651496,-0.009674877,0.033919025,0.008808197,0.09022448,0.003618417,-0.015007232,-0.23609635,0.037059154,-0.003429327,0.0011456925,-0.015810708,0.010302403,-0.021821927,-0.012835008,-0.006644084,0.018401867,0.025857687,-0.03045788,0.0140590565,-0.010074387,-0.31139287,-0.06190838,-0.011576163,-0.022576347,-0.2163803,-0.44375297,-0.014778579,-0.07362674,-0.029367914,-0.083466165,-0.3002072,0.004162955,0.02831732
-5.103535,-0.0149376085,-0.17812635,-2.148245,0.0020936728,-0.042628933,-0.0636953,-0.0054677296,-0.018110333,-0.019653002,-0.036786415,-0.010107734,0.041174967,0.0047701523,-0.1116799,-0.017103573,-0.0025864295,0.005773901,-0.019037751,-0.04463011,-0.10097883,0.0044063237,-0.00015682494,0.021469325,-0.20321825,0.011027108,-0.037412904,-0.34520006,-0.2521375,-0.22557306,0.002465371,-0.0119450735,0.009959376,0.0023140225,-0.035219323,-0.02282287,-0.005392288,-0.40590566,0.015102085,-0.029700646,0.005484139,-0.097225554,0.011433625,-0.031859964,-0.0049240063,-0.007960789,0.013159798,0.013546177,-0.004970725,0.022847183,0.0004037916,-0.027844716,-0.05611436,-0.021867193,-0.020020945,-0.10507866,-13.42513,-0.013979962,-0.062603064,-0.03801848,-0.030664757,-0.16024357,-0.00010499471,0.015948389
-0.009642216,-0.94093007,-0.051937222,0.026521128,0.10976398,-0.2544583,0.022312922,-0.07479375,-0.01910917,0.16636635,-0.15517917,0.15007597,-0.1880405,0.088541806,0.12140366,0.16304095,0.10837644,0.12813474,0.12149933,-0.18990871,-0.22877556,-0.037892662,0.15815255,0.16808552,-0.005647219,-0.012781603,0.05778386,0.11278013,-0.035214394,-0.002777176,0.0066609033,0.06724846,-0.025638733,0.03481389,-0.09309247,0.13955097,0.15301381,-0.04937087,-0.59587926,0.07317451,0.08019122,-0.056138538,-0.09983909,-0.04446013,0.027827207,0.030631736,0.17606394,-0.5622863,-0.010139439,-0.00083648454,0.008140046,-0.11189038,0.040571082,0.21714012,0.09172187,0.002252353,0.033893194,0.118451,0.064184114,-0.2886771,0.0302442,0.046736997,-0.00729063,-0.2095443
0.27016804,-0.062555425,-0.036546525,-0.06687049,-0.14653079,-0.089770555,-0.0069553275,-0.114958905,-0.33220598,-0.04452095,-0.1096754,-0.006977731,-0.19947354,0.06536105,-0.14392346,-0.14178635,-0.017912017,0.016812714,0.045575626,-0.1863872,0.1827487,0.0026675055,-0.093849346,-2.0909278,-0.01068357,0.11385476,-0.012938609,-0.22967394,-0.055303164,0.1778192,-0.017410116,-0.0508313,-0.3875356,0.012364454,-0.1068353,-0.09312569,0.024348725,-0.14831224,0.14089695,-0.2961386,0.11057151,-0.17285115,0.07706978,-0.11350944,-0.067767516,0.087865286,0.103457436,0.039677195,0.1979144,-0.45555392,-0.0035246997,0.04763615,-0.047372345,-0.070375405,-0.1956188,-0.037983086,0.14526877,-0.08858652,-0.049324457,0.086187586,-0.14037931,0.020703344,-0.0063923723,-0.93397963
0.060204204,-1.2612034,-0.019593671,0.080949254,-0.021225171,-0.04442308,0.21646865,0.04239463,-0.32187787,0.015740022,-0.031950247,0.016602436,0.009046401,-0.052562732,0.104924776,0.37550515,0.006036285,-0.0056160167,0.10505047,0.0040437053,-0.2172457,0.020615228,-0.003215721,-0.012597952,0.04719838,-1.2433798,0.20566162,0.23555201,0.16193743,-0.016564544,0.0048748464,0.021913039,-0.075894795,-0.013490337,-0.053459495,0.03449818,0.03455684,-0.4108333,-1.3167603,-0.20249057,-2.9151022,-0.3115344,-0.4953106,-0.30386972,0.0918993,0.08421054,-3.5928547,0.19433115,-2.0446744,-0.1044446,0.014063161,0.0042702863,-0.02550837,0.08794315,0.0321164,0.077302314,0.11683618,0.012208695,-0.044967525,-0.04119977,-0.14938363,0.20583445,-0.026759924,0.41129875
0.123977244,-1.1924051,-0.060325008,0.06915986,0.037418015,-0.03348131,0.09948124,0.07107698,-0.10858937,-0.13975495,0.0044084513,0.0064440053,0.15079671,-0.03830112,0.020004744,0.29644087,-0.0875631,0.0105652325,0.03469991,0.007932883,0.0031165057,-0.008650254,0.05054694,0.5403819,-0.15196922,-1.2845321,0.1815654,0.14374621,-0.15653434,0.09375439,0.009121265,0.06729661,0.047712166,0.0152375875,-0.031067215,-0.041172747,-0.022408849,0.14063662,-1.8043532,0.087436624,-0.003960045,-0.28457877,0.123352185,-0.17923161,-0.028241662,0.038127266,0.19587277,0.40763056,-0.31055665,-0.09179963,-0.005186895,0.11694142,0.10026126,0.23263527,0.30709225,0.11329941,-0.09909085,-0.12309443,-0.27096105,0.074798375,0.09221247,-0.073495395,-0.0043676654,0.4951689
-0.038562577,-0.5228489,-0.15191117,-0.07493824,0.116306484,-0.13539028,0.0064378893,-0.02788158,0.012462857,0.17327908,-0.13464239,0.18912849,-0.21516556,0.11589708,0.018229155,-0.013911851,0.18852827,0.12231534,0.22778817,-0.064199515,-0.23930915,-0.036920182,0.15604053,-0.08235429,0.072951585,-1.4723492,0.04948796,-0.05327212,-0.08401435,0.028549787,0.0057921326,0.046598658,-0.01316063,-0.021636553,-0.057784334,0.106883526,0.06311144,-0.07053662,0.16672756,-0.16209586,-0.9291633,-0.054329056,-1.3526073,-0.54801214,0.017906489,0.024409732,-0.59068006,-0.28772336,0.038685985,0.030028522,-0.0012437279,0.016020022,-0.0018809768,0.034430914,0.013497012,0.06835141,-0.030495038,0.20741002,0.14479925,-0.19600946,-0.14808941,0.07532923,0.021077404,0.0055217133
0.1381111,-0.19263051,-0.006149854,0.089194335,-0.010644102,0.081656545,0.08847665,-0.046218436,0.07158388,-0.04633333,0.04622536,-0.010606436,-0.14615676,0.008426148,0.0695418,0.10719671,-0.007301641,-0.011638413,0.012118703,-0.03989183,0.22751328,-0.0018302024,-0.027095895,0.094311975,0.021760492,-0.12876,-0.00039262048,0.14169182,0.10698635,-0.07641041,0.013225718,0.057110388,0.10679867,0.013354813,0.088685594,0.016822102,0.012975702,-0.004770478,0.34083015,0.25119424,-0.6431916,0.0039743553,-0.08670718,-0.02804528,0.06961831,-0.03214571,-0.49924913,-0.07060574,0.2570398,0.05541257,-0.011778757,-0.020693611,0.09753987,0.08410139,0.08461102,-0.13687617,0.05132324,-0.021993877,-0.08110392,0.1423261,-0.18232594,0.0058924127,-0.022488888,0.2616264
-0.07169578,0.27205878,0.022686526,-0.0040099793,0.061711468,0.16698277,0.05123558,-0.048914894,0.016558088,0.027200181,0.07049694,0.024070248,-0.09320878,0.05850451,0.02462063,-0.03376022,0.037350807,-0.017698612,-0.03478323,-0.20611647,0.19866236,-0.027053386,-0.069544554,0.024316456,0.070461005,-5.503057,-0.009149567,0.05410657,0.03842476,0.07865529,-0.03721871,0.016796539,0.019723168,0.034396086,-0.11774148,-0.029007582,-0.0026041241,0.100977965,0.05482418,-0.014372545,-0.13748251,0.011058616,-0.040291738,-0.015138784,-0.026191393,0.025165489,-0.0033835424,-0.093728445,0.14049333,0.027021948,-0.0712077,0.29423696,-0.18354143,-0.04226776,0.026737215,-0.18329762,0.040067773,0.020327466,0.04548592,0.09603154,0.018442545,0.21697856,0.051830754,0.0047449693
-0.1022051,-0.27772564,0.10420136,-0.16607076,-0.014035422,-5.0193105,-0.0726525,0.116720386,0.089562766,0.024659228,0.03826287,0.15819907,-0.09064493,0.10762539,-0.07417839,-0.08322748,0.09467581,0.1227537,0.17662582,-0.12235213,-0.18292746,-0.01936388,0.06784458,-0.046032045,-0.08074392,-4.0136366,-0.057301674,-0.050073948,-0.18443272,0.041111317,0.0052993605,0.1057987,0.06620339,-0.050582,-0.15382887,-0.051831245,0.068419375,-0.12968369,-0.30790734,-6.11483,-1.2074612,-0.1401779,-0.8081461,-1.1351507,0.16192535,0.12933238,-0.40944225,-0.40043923,0.019487966,0.12918884,-0.0074469284,0.12413484,0.085609965,-0.051958077,-0.02128207,0.036441885,-0.0343478,0.06324575,0.0871671,-0.014595941,0.0094666295,0.013326629,-0.003992234,-0.7755349
-0.24475023,-0.103658766,-0.089457236,-0.16937658,-0.055219714,0.022871708,0.27756807,0.004457906,-0.04489093,0.07565553,0.023332823,0.021296654,0.08424086,-0.034069356,-0.11750546,0.29061693,-0.0038979026,-0.033647507,0.022960117,-0.22501768,-0.10568437,-0.024116622,-0.031306498,0.029733578,0.10682583,-1.3028755,0.16315551,0.072937526,0.18105283,-0.028978124,0.008117634,0.04140648,0.07574599,-0.013364439,-0.059924204,0.10340824,-0.0418205,0.10350742,-4.2531834,0.10405648,-0.44258365,0.10332828,-0.011169611,0.12209308,-0.009260785,-0.01659519,-0.05470823,0.03336707,-0.5188859,-0.026107073,-0.017665211,-0.17793639,-0.16567622,0.114461556,-0.091863655,-0.14779463,0.059022322,0.049684886,0.056761056,9.447713e-05,0.0623495,0.1092683,0.0055438005,-0.061264813
0.1581036,-0.0367785,-0.13994236,0.06334177,0.05085445,-0.0564985,-0.033826627,0.06234881,-0.03256797,-0.11288496,-0.002938018,0.017592771,0.05478359,-0.062002447,-0.004390435,0.03769525,0.024621101,-0.014214585,-0.033311196,-0.054716762,0.042993475,0.21011229,-0.0106864795,0.029787542,-0.043152295,0.007720265,0.06259953,0.003948693,0.024976484,0.088445224,0.20106037,0.0010489194,-0.034566216,-3.9513917,-0.013887059,-0.058048468,-0.010947263,0.0020715836,-0.14173642,0.0090996465,0.0629704,0.008953429,0.055526245,-0.0051664794,0.0022787512,-0.041431446,0.024612786,-0.007907283,-0.026160087,0.013050205,0.11217817,0.026958017,-0.16270396,0.032451276,-0.016539315,0.01935653,0.03179488,0.023762824,0.014922953,-0.0020386756,-0.21127367,-0.030809319,-10.3787775,-0.016483339
0.23855653,-0.41210902,-0.15685488,0.20313855,-0.12950984,-0.114137575,-0.0726036,0.07914125,0.23085791,-0.006939717,0.12160099,0.04148999,0.03909066,0.0737369,-0.027002601,-0.12104643,0.15897417,0.13006525,0.11355816,0.054237925,-0.15590535,0.06620785,-0.10468341,-0.29392764,0.08017563,0.13259995,-0.074499846,-0.10836591,0.10030112,-0.010337019,0.03067287,0.17255767,-0.06544368,-0.056717884,-0.037352577,-0.098059826,-0.01798321,0.031781882,0.26004684,-4.67309,-0.49990484,-0.011676773,-0.26462665,-1.0641564,0.0972583,0.12178679,-0.5507474,-0.4308867,0.15785247,0.0044480776,-0.02998857,-1.0046365,-0.105321646,-0.13202684,-0.22589622,0.0038216438,0.17332688,0.02500733,0.15547349,0.018186672,0.07549468,-0.03799458,0.018757464,-1.1096644
-0.6417848,-4.0132947,-0.062610984,-0.20074919,-0.0019490975,0.039201964,0.008999019,0.017294435,-0.1476565,0.11005661,-0.14111054,0.10470307,-0.051734146,0.066802055,-0.19820367,-0.02586664,0.11005585,0.13024916,0.1392552,-0.0595189,-0.21139976,0.0025762944,0.10597217,0.014897122,0.090982616,-1.2051494,0.019377189,-0.06628474,-0.026428884,0.044652913,-0.012493006,0.12716377,-0.0076378654,0.0062084524,0.0010835798,0.10101934,-0.112869106,-0.08191704,-0.06778117,-0.3569079,-0.18931916,-0.15871854,-0.06595389,-0.502943,-0.0983638,0.11104889,0.056305278,-0.028155895,-0.094222054,-0.009557424,0.029156849,0.002682224,0.118579805,0.07224846,-0.081597134,0.025343506,-0.027132835,0.113309115,0.13169709,-0.14380772,-0.13238831,0.057011556,0.004375599,-0.03763755
-0.066371664,-0.0032598965,-0.105742924,-0.058278643,-0.00091812655,0.008894489,0.0099843275,-0.6037514,0.041584417,-0.020802166,-0.1402641,-0.031643223,-0.08685932,-0.024445647,-0.009178318,-0.009632636,-0.052654456,-0.037565377,-0.02028486,-0.16146824,-12.025205,-0.0045665787,-0.016696064,0.007677019,-0.029768601,0.0018954388,-0.00596388,-0.016532538,0.0088225575,-0.0060977302,-0.0008768108,-0.09093762,-0.007002389,0.0003884132,-0.043927383,-0.0059680585,0.05164016,0.0034016094,-0.018505843,-0.0077122576,0.006600909,0.029949453,0.0173825,0.008194569,-0.066341765,-0.20220603,0.022408172,0.040636703,0.008643302,0.001735692,0.005523999,-0.0036895573,-0.08685409,-0.00507044,0.01617511,-0.101071484,-0.005993906,-0.03617246,-0.039018225,-1.5575868,-0.028694984,-0.005244811,0.0031507537,0.0014867096
-0.10329581,-0.028883057,-0.08434618,-0.37200454,-0.45403445,-0.076944135,-0.278357,-0.08353598,0.041651394,-0.083750814,0.015465576,-0.07690311,0.045492068,-0.16748126,-3.1851861,-0.15950924,-0.03336001,-0.0893305,-0.089613065,-0.0432575,-0.27469167,-0.0070704254,-0.1274872,-0.14979686,-0.94160396,0.024398223,-0.07129364,-1.0593897,-0.107942514,-0.011871538,0.014868466,-0.031294357,0.010591484,-0.0017562526,0.038201183,-3.3360207,-0.17807218,-3.659108,0.055525683,-0.05231234,0.058241464,-2.5291982,0.043074656,-0.037815418,-0.086672455,-0.06975338,0.06246109,0.05467854,0.06519124,-0.0481763,-0.0029338708,-0.0040122163,-0.08434966,-0.20319022,-0.38202634,-0.13655382,-0.20486182,-8.682952,-0.09900652,-0.1329805,-0.1739207,-0.08637758,0.014699273,-0.122214116
0.08574693,0.008147373,0.0071630934,-0.08360717,0.023122031,-0.020099033,0.097926445,-0.08712547,-0.13171835,-0.04706874,-0.0030569527,-0.03392989,-0.15617907,-0.06604466,0.10122591,0.158463,-0.13025317,-0.13959679,-0.04874659,-0.048439797,-0.1409764,-0.007579287,-0.15024589,-0.014076748,0.015540907,-0.84831244,0.12787625,0.06600901,-0.006699885,0.14829914,-0.010924845,-0.05324423,-0.30262634,-0.078881845,0.086452946,0.010751678,-0.036626335,0.32679874,-2.1682057,-0.06949344,-0.591959,0.22062176,-0.12474256,-0.09828494,-0.07699658,-0.09318953,-0.13768484,-0.11920436,-0.6531792,-0.0951086,0.019406948,0.040800463,0.1003362,0.021868171,0.13873516,-0.001933108,-0.019002529,0.015690561,-0.017439436,0.041972324,0.039255362,0.037933663,-0.056128193,-0.05586714
-2.6739311,-0.002070911,-0.052046616,-1.980784,-5.0915236,-0.0048509412,-0.05263095,-0.08867826,-0.074808605,-0.00271265,0.06278663,-0.0011894914,-0.12173615,-0.8482268,-4.142115,-0.032350365,0.0045276494,-0.03775165,-0.007715475,-0.15633911,-0.20567419,0.002461868,-0.037208617,-0.24070822,-0.07398667,0.0044882223,-0.04561826,-0.58346003,-0.06950601,0.009944513,-0.0010010297,-0.026257066,-0.03485534,0.0005704509,-0.11647061,-0.0315292,-3.6624682,-0.65505284,0.011696262,-0.011108571,0.0045150877,-4.031635,0.0016603658,-0.008061649,-0.021951424,-0.023129946,0.0077624116,0.0077303615,0.08931009,-0.23449616,0.00022358136,0.007019811,-0.10890783,-0.035105277,-0.41790864,-0.18442969,-0.14379044,-0.026988402,0.005708579,-0.020167686,-0.028458538,-0.0077658384,0.0019353211,-0.025934732
0.1426604,-0.19546756,-0.07271986,0.04868459,0.043213192,0.1712297,0.017703313,0.14774042,0.07983837,-0.057096586,0.03201585,0.025959909,0.06234511,-0.02107266,0.008712731,0.025017716,0.04035319,0.026560636,0.043676358,-0.081053756,0.059770614,-0.037413247,0.0133851385,0.034007832,-0.069831386,-0.58825326,0.043957517,0.049745314,0.15770318,0.031077811,-0.026683956,0.08010336,-0.045844812,0.0034846985,-0.18278323,-0.015626358,-0.0076610157,-0.029416928,0.12830578,0.38197306,-0.6412196,-0.099255726,-0.32943085,0.12322725,0.105849,0.14927997,0.10361081,-0.11116921,0.15052573,-0.013659473,-0.06590909,-0.008310929,-0.118877366,-0.024449177,-0.024737222,-0.06461485,0.04939412,0.12132709,0.07702073,0.050417293,0.06700758,-0.0851724,0.016593952,0.2903544
-0.013166945,-0.09935705,0.1395748,0.14477588,0.1644184,0.09901585,0.086156964,-0.1267849,-0.13832049,-0.15632828,0.020969443,0.09033395,0.0067185457,0.15622509,-0.15224412,0.12097402,0.063786775,-0.08805534,0.13915586,0.015957924,-0.0135331685,-0.15616071,-0.043928545,-0.08796529,0.015685275,-0.08568924,0.05005361,-0.07527294,-0.049865693,-0.087420255,-0.032301456,0.06705025,0.050423525,0.062138457,-0.09627174,0.12743036,-0.04497115,-0.07483087,-0.025889946,-0.11545839,-0.13091476,0.06794236,-0.18011308,-0.13637164,-0.1193315,-0.032984298,-0.18536189,0.07899712,-0.01720127,-0.12919934,0.09473655,0.08811247,-0.00092654076,-0.05619318,0.10872574,0.09170333,-0.14241803,0.071405604,-0.14215685,-0.13382341,-0.069228746,-0.089676484,-0.08061183,0.066289
-0.17011985,0.28773686,-0.023236306,0.054888602,0.041249026,0.22863492,0.06375109,0.052542944,0.06135938,0.014781868,0.02322196,-0.014372249,0.1153372,0.014215746,-0.0016148648,0.08558739,-0.014300874,0.017287226,-0.0052639437,0.07054152,0.053907514,-0.03616634,0.008050787,0.02136149,0.1624621,-2.2843251,0.077744775,0.13236542,0.10964685,-0.10890996,0.03401279,0.025763007,0.12149513,0.0089147035,-0.09411635,0.003992455,0.008423225,0.03717042,-0.070095174,0.15470575,0.13306308,0.11285567,0.12713301,0.30507725,0.0374554,0.064212374,0.0333028,0.082866885,0.04871812,0.051712368,0.038176212,0.09658872,-0.080113254,0.032394774,0.042300716,0.04155491,0.056538675,0.0015738492,-0.010251789,0.06547019,-0.1280545,0.08826763,0.06476968,0.049060035
-0.10156972,-0.052421294,-0.16839436,-0.048693858,0.0139397625,0.052168444,0.0192537,0.046078492,-0.28140098,0.0030025688,-6.199176,-0.007403488,-0.062401846,0.0044278507,0.10457644,-0.0291288,-0.0025468739,-0.023279514,0.0020675405,0.03039363,-5.013172,0.004332129,-0.014172038,-0.08225369,0.0078982515,-1.3037163,0.0022611485,-0.0031879328,0.0034012436,0.009663192,0.00471939,-0.02577068,-0.1242204,0.01007384,0.05807688,-0.03019664,0.033724144,-6.2315044,-0.43066403,-0.036235835,-0.099388964,-6.0739827,-0.06469904,0.009441153,-0.0052227704,-0.013411847,-0.06261643,-0.014889424,-2.6921983,-0.10678968,0.003926613,0.040266745,-0.023729548,-0.007986633,-0.04862941,0.0084290095,-0.018728778,-0.015160107,0.011404529,-5.3469553,-0.042051464,0.045438256,-0.0050303615,-0.071132936
-2.7154984,-1.2624308,-0.043701638,-0.3766598,-0.01887129,-0.10169627,0.012209508,-0.043378986,-0.0034791655,0.016538993,-0.04855492,-0.005752641,-2.984381e-05,-0.022523632,-0.04892558,-0.028753102,-0.009735821,0.02741589,-0.008537547,-0.15993416,-0.33455414,0.020566266,0.016460022,0.0058137435,-0.013049818,-0.021895522,0.005031149,-0.054753467,-0.08001004,0.102160014,0.010940372,-0.0229117,0.022850534,0.0007665247,0.10021965,-0.031862143,-0.022910902,-0.06910123,0.08045223,-0.11472524,-0.50726026,-0.008838216,-0.08806828,-0.5797807,-0.011155089,-0.020764578,-0.06903767,-0.10195973,-0.03573674,-0.005133194,0.02397953,-0.10740614,-0.091418594,0.002257098,-0.008044978,-0.048146613,-0.31477976,-0.0060750744,-0.01815582,-0.10722084,0.09343419,0.020814547,-0.020481499,-0.0047794464
-0.34866464,-0.004360642,-0.20421834,-5.324187,-0.22725074,-0.0039882096,-0.01846727,-1.8487805,-0.38228297,0.0018774354,-7.4049873,-0.0060343747,-0.041664787,-0.22279467,-0.27947676,-0.006121005,0.007759918,-0.014802695,-0.012040472,-0.16506466,-2.0816064,0.00029191005,-0.016694242,-0.069340535,-0.023216698,0.006335996,-0.00631641,-0.15504262,-0.004459175,-0.0060958937,0.0013209372,0.0012560239,-0.0063640783,0.0017759209,-0.057990603,-0.015005376,-0.23414473,-0.09598057,0.008276953,-0.003532952,0.0018510348,-0.094780155,0.0028227256,0.006057772,-11.261614,-0.018783193,0.011844133,0.0027589868,-0.5122941,-0.36017606,0.00239654,0.00096213917,-0.029065501,-0.0031497215,-0.18876904,-0.013673947,-0.035249524,-0.0012998447,-0.0038217497,-3.3647423,-0.17177485,-0.0073606316,-0.0018009236,-0.0044152765
-0.18741824,-0.0010562879,0.0058775027,-0.06761059,-0.020349385,0.01952449,0.034474682,0.0059996075,-0.0050799805,0.046956334,0.0066717016,-0.015066752,0.089399144,0.037764307,-0.007918291,0.028028328,-0.02613275,0.008820224,0.02098388,-0.1744222,-0.08976947,-3.525816,0.014524539,-0.002264136,0.033293,-0.021904334,-0.1316566,0.058998425,0.01537625,-0.10332661,-13.816969,-0.0042477436,-0.027952518,0.11516932,-0.16140197,0.0014710306,0.008121245,-0.107249595,-0.064252965,-0.029779587,-0.046592977,-0.037419606,0.011290145,0.0034219935,0.031640533,0.018260673,0.011349895,-0.003109476,0.00057102356,-0.0012686506,-11.954522,-0.08516662,-0.04864728,0.00014590424,0.0046868497,-0.16646774,0.015648413,0.0048261476,0.0028775516,-0.050554052,-0.1580026,0.0076393127,0.119696684,-0.024649885
-0.093787655,0.03204904,0.01822074,-0.13106664,0.048221484,-0.016568419,0.04746953,-0.013803584,-0.054619573,0.06591967,-4.4814744,0.014906376,-0.071458586,0.05199556,-0.0073763337,-0.019341283,-0.01576512,-0.018725058,-0.016167749,-0.008935617,-3.4377217,0.012172603,0.037389047,-0.012186126,0.019339519,-0.0237496,-0.01117699,0.011948479,-0.005423159,0.03804034,-0.009658472,-0.01625209,-0.10099988,0.0027915025,0.056847155,0.0039054053,0.058537595,-7.68091,-0.013381222,-0.09816073,-0.05261291,-6.6173677,-0.028628137,-0.07451611,0.02811244,-0.033963546,-0.023259662,-0.020097718,-1.3503196,0.060247924,-0.011079892,0.16583866,-0.06266558,0.036040515,0.03377225,-0.017991524,0.02905408,-0.0032706023,-0.0014674363,-3.2894578,0.071811944,0.05365141,-0.0051771863,-0.04688236
-0.010073128,-0.102019906,-0.10302969,0.025460653,-0.026677331,0.12500678,-0.0025281713,0.062143672,-2.134695,0.027854368,-0.041520167,-0.032783344,-0.17038651,-0.040977877,-0.019722259,-0.04710947,0.0065561202,-0.06288588,0.0057972907,-0.13618906,-3.412528,-0.0014996509,-0.09795889,-0.28937277,0.02362711,-1.1463369,-0.024335936,0.03335849,0.10039992,0.051601425,0.023475004,0.0044604247,-1.3383005,-0.021681253,-0.09350357,-0.050882034,0.057991054,-0.18733628,-2.293781,0.123706244,0.034282956,-0.41094285,-0.0312482,0.1047609,0.021232376,0.029596718,0.015926536,0.023065671,-4.6110115,-0.59143436,0.010197687,0.009714955,-0.11895307,-0.13116811,-0.013698835,-0.19315977,0.048374824,-0.041666105,0.11770507,-0.017084906,-0.079410024,0.06995595,0.015395635,-0.05526267
-2.7274668,-1.7555519,0.013598363,-0.40903252,-0.0059826574,-0.10859846,-0.042040166,-0.0072559468,-0.0068678507,-0.016017346,-0.041650828,-0.0003675805,-0.0029448122,0.0032229596,-0.03922717,-0.029931454,-0.00544465,0.02709476,0.011884445,-0.123804286,-0.037924852,-0.021032248,0.016022505,0.011747611,-0.112124346,0.022504495,-0.050693274,-0.037899055,-0.27538413,0.048344143,-0.00012719323,0.0018150259,0.009298307,0.0077706506,-0.07634178,-0.012898823,-0.0059445305,-0.33479574,0.012875876,-0.05426041,-0.016708476,-0.08442498,-0.029448038,-0.23611085,0.0008255737,0.0025566528,-0.010073607,0.0061128675,0.00078651996,-0.0004923108,-0.041070566,-0.094593786,0.0058921305,0.0016858889,-0.025382292,0.06399238,-0.7766736,-0.0061189076,-0.0369883,-0.025601469,-0.18470664,-0.11494287,-0.00552298,0.023653556
-0.010621606,-0.64009786,-0.050891235,-0.07160406,-0.061263725,-1.103757,-0.0049332213,0.008898125,0.068177514,0.09640598,-0.009404167,0.20510952,-0.016738797,0.18633871,-0.0761695,-0.035637073,0.25793806,0.21658401,0.2138531,-0.18826264,-0.2279516,-0.010902018,0.0839561,-0.12432559,0.017354755,-2.764421,-0.0060331984,-0.01264581,-0.08897679,-0.06311789,0.012249513,0.17239302,-0.039845258,-0.014488809,-0.12290943,-0.035254814,0.09682815,-0.054267563,0.038627643,-5.1564775,-0.7698951,-0.107689366,-0.7237735,-3.4493632,0.12014088,0.16217797,-0.8711551,-0.97865725,-0.03642584,0.012258301,0.008502202,-0.14773625,0.005753586,-0.036915045,-0.06450092,0.014045567,-0.025239052,0.12581854,0.12981327,-0.1476995,-0.10183899,-0.069269694,0.013234036,-0.5090351
-1.8192073,-1.1234148,-0.054757964,-0.05449975,0.023055727,-0.12998864,-0.02183633,-1.5418656e-05,-0.008070251,-0.05324424,-0.035301957,-0.00015221129,-0.06798769,0.013586925,5.0833194e-05,-0.018264826,0.016633205,0.019327678,-0.014970855,-0.070427775,-0.0018751508,-0.017563518,0.0009966849,0.026082268,-0.026801096,0.038757313,-0.07440512,-0.016713541,-0.17481002,-12.531251,-0.009004943,-0.018240457,0.012766909,0.00815865,-0.011616013,0.019044898,-0.008199082,-0.16765776,0.013175547,-0.036490645,-0.09497036,-0.07033957,-0.06760885,-0.42401445,0.010050802,0.0019320354,-0.008696973,-0.018468726,-0.02072603,0.004371169,-0.028079413,-9.398859,-0.10503872,-0.026200335,-0.022715038,-0.13280411,-0.40981656,0.007866262,-0.016268974,-0.04576351,-0.12942617,-0.2523083,0.0016281471,0.035979558
-0.052903827,-0.0073989425,-0.007487872,-1.6120315,-0.07035247,0.0061679548,-0.008323247,-1.2851385,-4.0606675,-0.1633286,-0.71336657,-1.5832655,-0.1820284,-1.3934518,-0.10815905,-0.012424416,-3.9669883,-3.5408092,-2.9482827,-0.1558386,-0.49918696,0.0009558924,-0.45182046,-0.05403115,-0.023749273,0.0018039962,0.0048667905,0.039436594,0.0082300855,-0.0013472711,-0.0045373156,-1.4736013,-6.703591,-0.0054307203,-0.0810798,-0.06930985,-0.46345404,0.056781624,-0.019143816,0.013288986,0.020170905,-0.2754717,0.041936245,0.0027611128,-1.0288998,-0.99050075,0.04254264,0.042245824,-2.431348,-0.1310621,-0.012867382,-0.0030989149,-0.1628293,-0.028239492,-0.022323122,-0.13438028,0.0010722145,-0.37583807,-0.21907094,-2.3165233,-0.19298713,-0.0018353465,-0.0024854804,0.0039454442
-0.17696531,0.048325434,-0.00568103,-0.01710254,0.12238074,0.12575166,0.08867178,0.016803944,-0.024128962,0.02355007,0.044021226,0.020476473,-0.06949759,-0.0096683735,0.04047696,0.15604517,-0.019811478,-0.05558777,-0.0021583603,0.1620564,0.002098974,-0.022344785,0.06401161,0.09699706,0.08690062,-1.5659404,0.059118073,0.13660906,0.055712316,-0.049230877,-0.012621781,-0.007845944,0.10806261,0.022772182,-0.17359576,0.008593363,-0.0095768,0.05466815,-0.25575623,0.2545615,-1.7100191,-0.0038982644,0.020933904,0.2747625,-0.06374289,-0.010148435,-0.18011618,4.294011e-05,0.00023072415,0.040886454,-0.032410864,-0.10218108,-0.13583174,0.10782774,0.15489095,0.02234553,0.019101638,0.020248258,-0.000697066,0.06198934,-0.09449905,-0.04590738,-0.013456311,0.0528192
-0.077609934,-0.22462653,-0.14440688,0.0064221052,0.0916739,0.15156095,0.1981901,0.09003529,0.020452922,0.10405253,-0.057967935,0.038692422,-0.08892934,0.044632714,0.004882288,0.15342513,0.036311742,-0.06243021,-0.014735916,-0.013524726,-0.026680695,0.05835013,0.04026746,0.097924165,0.096812464,-0.09445367,0.1539716,0.05585629,0.124349564,0.06744497,0.009993959,0.11505864,0.09783044,-0.07879363,0.097297296,0.05880461,0.004740006,-0.2233032,-0.11233395,0.28720114,-1.002931,-0.014978223,-2.4305854,0.13790624,-0.023944903,0.04724503,-1.1982988,-0.08953326,0.06917617,0.03483298,0.090797134,0.0064483914,-0.031842235,0.10119009,0.055099927,0.042256452,0.09805966,0.094219826,-0.014869894,0.00044974138,-0.15660545,0.06832455,-0.049281266,0.16547278
-0.67852086,-0.004132911,-0.09094836,-1.5960926,0.007987751,-0.0010061791,-0.00434265,-0.037752584,-0.37566873,-0.013842162,-1.6848187,-0.0061823777,-0.0835399,0.023299327,-0.52496874,-0.0034046676,-0.009376014,-0.009246099,-0.0033680797,-0.17151453,-5.5134597,-0.00012827295,-0.00068162696,0.008316697,-0.008852128,-0.00228226,-0.00825264,-0.00993985,0.007033405,-0.004034147,-0.00087378547,0.0051744953,-0.015262991,0.0021961879,-0.022396749,0.014064267,-0.43944997,-0.15948288,-0.0006167557,0.0072202496,0.013488444,-0.1413754,0.018678583,0.00069306063,-1.087949,0.00074862083,0.005639448,0.012534406,-0.21102709,-0.020169165,-0.0038993522,0.0030292454,-0.041813616,-0.0068758037,-0.07354759,-0.027344756,-0.0023667107,0.005431366,0.0022949015,-9.127623,-0.112869345,-0.002371227,0.0011092206,0.0023642268
-0.18057525,0.35413536,-0.13571742,-0.1550407,0.066875584,0.15042742,0.056683406,-0.0083170645,0.0042375512,0.071434826,0.022027897,0.055933844,0.0045687016,0.052430343,-0.007308778,0.0414195,0.04063276,0.042910006,0.043503363,-0.049357403,0.06314007,-0.025302373,0.15094376,0.059373353,0.06668294,0.12642382,0.10032722,-0.0069123823,0.12040779,0.010527173,0.008756396,0.09007325,0.037306614,0.019546604,-0.080175534,0.037591077,0.00043477613,0.044887636,0.32722408,0.069116406,0.0044335932,0.069048755,-0.08484516,0.1973166,-0.016085546,0.05016196,-0.012187012,-0.01695501,0.11992065,-0.0014727158,-0.05248546,0.1598262,-0.04553884,0.062511764,0.09187283,-0.069794744,0.028555948,0.0916202,0.060007285,-0.064216755,-0.08839959,0.16409323,0.054257523,0.078342736
-0.003255666,0.25981483,-0.032262947,0.026397856,0.024664057,0.22162539,0.05447017,-0.14421602,-0.25420654,0.020590844,0.018202532,0.004143247,0.05181384,-0.053165037,-0.062042516,0.008374937,-0.010113454,-0.021719722,0.042751856,-0.08497822,-0.40901643,-0.018801099,-0.039748654,-0.07989055,0.012181938,-0.05009539,-0.0018395823,0.016462313,0.089942865,0.0067841844,-0.012852154,0.02537156,-0.21307544,-0.049770813,-0.010162027,0.008591299,-0.08760881,0.22232169,-3.3513577,0.017585857,0.015854502,0.026197275,0.029099984,0.20014675,-0.05888915,-0.025754908,-0.032319434,-0.035164617,-2.8435595,-0.20949852,0.0066053225,0.06364976,-0.029306963,-0.0024326018,-0.038926307,-0.118567005,-0.08024966,0.0028940972,0.08867092,0.006582902,0.022485087,0.19375183,0.028564928,0.090060785
0.10103738,-1.2283134,0.15925804,-0.11409367,0.094874,0.062436894,0.014695909,-0.04247083,0.15024404,0.113009766,0.010430865,0.09496317,-0.11071163,0.110301726,-0.0085256845,0.085323766,0.08791935,-0.034797035,-0.00024236144,-0.14462061,0.07950295,0.018260427,0.14594854,0.058032792,0.045614924,0.045198373,0.016892377,-0.03937649,0.073364116,0.05801305,-0.02914706,-0.034592405,0.113193356,-0.015165285,0.010182431,0.1116361,0.12002582,-0.050218664,0.22204258,0.13945897,0.040096425,0.049271513,-0.05280735,-0.17217614,-0.015669914,-0.08332637,0.19603132,-0.7446027,0.2719102,0.184285,-0.033294212,-0.09275004,0.14753602,0.15049025,0.07434321,-0.116314426,-0.029541718,0.028710414,0.09395251,0.02688812,0.07812687,-0.013178744,-0.028543746,0.26016974
-0.057513934,0.0017551081,0.042470515,-1.7694982,-0.23277463,0.008177899,-0.001425985,-1.5055871,-2.5507627,-0.21458574,-0.43171114,-0.36938304,0.07863839,-7.068731,-0.24504003,-0.0019039857,-0.16674487,-6.144235,-0.9736599,-0.106823355,-0.049397312,0.002150036,-0.5468164,-0.058795653,-0.059455767,-0.012196736,0.0055384026,-0.008163068,0.02164147,0.0018713406,0.0023476607,-2.4286015,-0.34465182,-0.0021609913,-0.059700172,-0.091450594,-1.5069957,-0.18442026,-0.005743163,0.00271156,0.020835405,-0.86567724,0.039263647,0.0026991884,-1.6283858,-2.9383287,0.029811455,0.032601077,-1.528885,-0.1677044,0.005067113,0.005061688,-0.07619077,-0.05316424,-0.06902832,-0.060012724,0.009427388,-4.184727,-0.3443767,-0.23035564,-0.11695991,-0.011012221,0.002072038,-0.002690917
-0.052343547,-0.081492946,-0.085051104,0.047364112,0.06247936,0.06976724,0.12562583,-0.07500017,-0.011693749,0.114506945,0.1115307,-0.020193355,-0.10494625,-0.025834627,0.029454743,0.050022062,-0.08485225,0.012851392,-0.03663876,0.09215429,0.06873765,0.027961412,0.021026494,-0.103770494,0.12554447,-7.0660954,0.068389475,0.033504255,-0.0185154,0.008000916,0.027251927,-0.011753103,-0.13380352,-0.010718018,0.01395893,0.13177696,0.029906495,0.09644288,-0.32793254,-0.03632121,-0.5792104,0.12705082,-0.14552511,0.06327294,-0.042112064,-0.050969705,-0.016941864,-0.18046433,0.12947597,-0.0013067666,-0.018779326,-0.045026526,-0.08468362,0.031796772,0.06746468,0.06247741,-0.02903731,0.034809414,0.09972452,0.08216341,0.075801946,0.060570218,0.0351578,-0.05936845
0.05305393,0.008067823,0.0837979,-0.0005867486,0.009242822,-0.036093887,-0.038568012,0.03950956,0.013953668,-0.051633224,0.040658932,-0.020511782,-0.08624808,-0.013448789,-0.0024652926,0.01152952,0.0064599547,-0.019566655,0.010993461,-0.02071643,0.10574419,0.19910882,0.0045409272,0.00943639,-0.019135166,0.022486648,0.069039434,0.02759327,0.02981918,0.018441927,0.17190348,-0.06865117,0.021132907,-6.7977376,-0.19184989,-0.015221761,0.013760959,-0.014542443,0.096592784,4.1216073e-05,0.015035432,0.0054661776,-0.03998813,0.02714192,-0.02105889,0.013182705,0.0122115025,-0.007136563,0.038136773,-0.002154168,0.08883168,0.018382313,0.04660712,0.01921381,0.022485992,0.02399404,-0.0050043706,-0.0020614504,0.020432495,0.049285617,0.011838797,-0.0045816572,-12.399625,-0.01298933
0.043566376,0.06363093,-0.14707525,0.102683805,0.10052368,-0.056874674,0.0027695694,0.044994086,-0.024392081,0.068200834,0.0790996,0.16552833,-0.056352615,0.12535304,0.10605424,0.0014966062,0.115212515,0.008843069,0.09557538,-0.12267257,-0.1225885,-0.00428633,0.14524972,0.052350834,0.013091373,0.031266153,0.005053193,-0.012270121,-0.0441944,0.04697961,-0.013420715,0.11639821,0.05529377,-0.010866787,-0.11905668,0.0973785,0.17634284,0.0892337,0.061036896,0.09161016,0.10244695,0.07979927,-0.070209846,0.14973797,0.07196818,0.05124806,-0.033455268,0.051611677,-0.21759494,0.08228303,0.0048843203,-2.0469077,-0.078748986,0.013772122,0.06590914,-0.025368193,-0.06000921,0.107400715,0.027795233,-0.050562307,-0.1500648,0.04420266,-0.0004992273,-0.03400237
-0.20258969,-2.6873567,-0.019000825,-0.15589389,0.20153514,-0.28314194,-0.0039432785,-0.16303992,-0.14217469,0.20435165,-0.42828786,0.2266323,-0.16916001,0.20574355,-0.04830773,-0.121718116,0.14536628,0.085292675,0.054982178,0.08773112,-0.34413955,0.016990928,0.24715303,0.091822274,0.053864162,-1.4304804,-0.09260106,-0.12298497,-0.1722391,-0.004718664,-0.016769044,0.012751091,0.18089667,-0.029197462,0.04887225,0.22050484,0.11578217,-0.16068704,-0.2984828,-0.55010617,0.60190177,-0.04321598,-1.6530142,-4.0754414,-0.14140828,-0.12270924,-0.4867149,-1.6478842,-0.1831774,0.23954016,0.01529351,0.068508044,-0.17224388,0.11549671,0.05105813,-0.18550077,-0.03701984,0.29179507,0.21564052,-0.31971645,0.017561525,-0.021482466,-0.061013285,-0.20000994
0.0798043,-2.9216,0.11458761,-0.04727833,0.17906193,-0.17232552,-0.12790836,-0.09126861,-0.026074527,0.016595073,-0.07954293,-0.053002365,-0.059544615,0.017359098,0.03714813,-0.0654216,-0.2516236,-0.037234586,-0.111731835,-0.0055250274,-0.0203466,-0.018536353,0.10662689,0.6171697,-0.13511086,-1.390575,-0.06054018,-0.12563966,-0.27071774,-0.19599524,-0.0003245984,0.008368793,0.46833962,0.041619387,0.0899034,0.07714552,-0.008143472,0.3410085,-0.04896977,-0.19706395,0.38829285,0.14748003,-2.3011065,-1.8687192,-0.094660155,-0.005221723,-0.49233407,0.18031968,-0.12508014,0.202666,0.007093615,-0.60690755,-0.04894702,0.15823358,0.19485724,-0.15392847,-0.07827143,-0.044082757,-0.15470484,-0.003826823,-0.115919925,-0.11187697,0.0018950141,0.20456266
0.07610411,-0.1140826,-0.17100532,-0.02165746,0.045636605,-0.01916822,0.014917526,0.04855801,0.02041238,0.07438995,0.0020219793,0.19597913,0.07022389,0.07309573,0.002981945,-0.0063726064,0.18092142,0.14192273,0.16493098,0.0847901,-0.16983688,0.06688143,0.120642506,0.01753469,-0.04404937,-0.57124376,-0.018939566,-0.032424975,-0.031205652,0.0575019,-0.0033409682,0.06594795,-0.0025473563,-0.023151707,0.10756591,0.010625981,0.039028816,-0.106912605,0.27582845,0.06249362,-1.5964528,-0.16823052,-1.7383467,0.17620039,0.06908619,0.13133988,-0.8354959,-0.5824686,0.111440584,0.01697524,-0.04885108,-0.37400866,0.12519957,0.02244382,-0.035640202,-0.042195775,0.016203506,0.13049059,0.09674155,-0.043994002,-0.15412924,-0.011804089,-0.047403663,-0.011392356
-0.08140871,-0.37838888,0.12797424,0.091407195,-0.0032851389,-0.12362581,-0.065537654,0.13355435,0.10075534,-0.052406795,0.17872854,0.052046638,-0.011989819,0.07858545,0.025292281,0.0023828242,0.10845146,0.11199799,0.028266245,-0.05619303,0.077848434,-0.01754763,0.0032780154,-0.012548457,0.029538415,-0.17428869,-0.009180353,-0.014022663,-0.06618004,0.027263356,0.020768605,0.10753473,0.01185661,-0.028003793,0.09538947,-0.02383721,0.091451116,-0.050294667,0.057814993,-0.663392,0.023970494,-0.042177055,-0.7084999,-2.245202,0.14974345,0.062103648,-0.35384604,-0.25684077,-0.1084472,0.062435657,-0.016796052,-1.289314,-0.17053463,-0.017798673,0.01139976,0.02478024,0.0005798672,-0.007352797,0.087965906,0.1135861,-0.16794434,0.05189476,-0.0058047883,-0.10312268
-0.09756223,-0.005404674,-0.06413506,-1.6341261,-0.045553602,0.0047913343,0.0004916239,-4.929544,-0.69669336,-0.07394866,-5.4487867,-0.44124287,0.0042602047,-0.24735788,-0.09773963,-0.0048240772,-0.3089285,-2.0480232,-5.495987,-0.05759112,-0.5473856,-0.0051990966,-0.10915855,0.0066011185,-0.020268708,-0.00651713,-0.004697147,0.00862336,0.00069453265,0.0004852052,-0.0011781551,-7.7196836,-0.07435438,0.003579832,-0.17143077,-0.023900064,-0.17311516,-0.036001526,-0.00089340744,0.0018266344,0.013051563,-0.014977458,0.020946268,0.0015037577,-5.1147685,-7.8467627,0.018453425,0.027366292,-2.8923619,-0.0025421234,0.002752651,-0.0011600442,-0.0141934715,-0.02244222,0.002379119,-0.11994331,0.0034435175,-0.1399223,-0.11702475,-1.8636295,-0.09706258,-0.006369327,0.00014446271,0.0041904035
-0.15255167,-0.23195417,0.07755708,-0.08501684,0.09081242,0.25084883,0.07130305,0.018858528,0.03327536,0.037115056,-0.034564584,0.041091863,-0.16384658,0.042195495,0.026566302,0.05253678,0.009784441,0.047236834,0.08750207,-0.051395323,-0.04637286,0.008021347,0.07021019,-0.024026994,0.10177973,-3.4925244,0.034459602,0.002694352,0.057797756,0.07030746,0.041192684,0.045641545,0.12336809,-0.06627746,-0.22705127,0.07182188,0.05510548,-0.1788151,-0.069431186,0.36683023,-0.774127,-0.060897283,-0.07099727,0.17064565,-0.034660954,0.052586176,0.21921372,-0.0023619581,-0.020382572,0.07194887,0.06491933,0.14503554,0.07618532,0.1030258,0.07582451,0.07105697,-0.1205775,0.08070911,0.06939453,-0.0651821,-0.14370243,0.022912355,-0.080395095,0.1485357
-3.9861655,0.0008919398,-0.17680447,-8.596135,-0.10754643,0.0019758686,-0.0015806496,-0.19471985,-7.9603906,-0.0029531543,-3.6063473,-0.002154757,-0.07534824,-0.04922977,-7.35132,-0.012733977,-0.00045257225,-0.015375791,-0.007301276,-0.122425,-1.5148966,-9.1123686e-05,-0.012965318,-0.04772594,-0.022166144,0.009124754,-0.0052316654,-0.09178247,-0.008724599,-0.0020785402,0.00293577,-0.00246773,-0.010048265,0.00013625201,0.006902451,-0.003220254,-3.4486957,-0.8487042,0.0058378302,-0.004144068,0.0039898185,-0.9400834,0.0052956888,-0.0010514244,-7.3627357,-0.025209777,0.0022016221,0.0072299945,-1.9267659,-0.22315484,-0.0041942573,-0.0026216912,-0.06922056,-0.0027349836,-0.31385466,-0.14906807,-0.03903858,0.0057491614,-2.297337e-05,-2.3256774,-0.011762952,-0.01460702,0.0035581235,-0.0053811753
-5.3841233,-0.4082697,-0.14791116,-0.35513476,-0.021017186,-0.10956904,-0.03996553,0.0068704155,-0.003827074,-0.007188592,-0.016826872,0.0007676289,-0.06268147,-0.005983413,-0.04969247,-0.06168124,0.010386081,0.02685958,0.010482248,-0.018907735,-0.05562158,0.00078296475,0.012900089,0.0119130965,-0.019638421,0.03076246,-0.07212052,-0.22353205,-0.42040515,0.0634109,-0.034640398,-0.013413554,0.0041609015,0.00052681717,-0.057445046,-0.012581462,-0.01610248,-0.22954188,0.03809727,-0.26242203,-0.039193265,-0.059147533,-0.051612165,-4.8967953,0.0007621838,-0.0079485,0.005601491,-0.03304403,-0.009539641,-0.005245462,-0.07743714,-0.054063786,-0.1263437,-0.010456273,-0.041159596,-0.055986114,-0.8303812,0.0033356454,-0.005247843,-0.017499406,0.0022700017,0.03974877,0.007111934,-0.047339883
