0,1,2,3,4,5,6,7,8,9,10,11,12,13,14,15,16,17,18,19,20,21,22,23,24,25,26,27,28,29,30,31,32,33,34,35,36,37,38,39,40,41,42,43,44,45,46,47,48,49,50,51,52,53,54,55,56,57,58,59,60,61,62,63,64,65,66,67,68,69,70,71,72,73,74,75,76,77,78,79,80,81,82,83,84,85,86,87,88,89,90,91,92,93,94,95,96,97,98,99,100,101,102,103,104,105,106,107,108,109,110,111,112,113,114,115,116,117,118,119,120,121,122,123,124,125,126,127
-0.04209679,-0.2999671,0.07026009,0.103163,-0.117707655,-0.28621107,0.1538168,0.095790215,-1.6212205,-0.70104235,-1.8034196,0.06862427,0.4084149,-0.23914053,0.15178667,-0.574605,-0.0619644,-0.06837395,-0.29521075,-0.011137361,-0.20088308,0.17837411,0.087486446,-0.030062314,-0.08213295,0.5564293,0.783796,-0.8608665,-0.013086925,-0.3591294,-0.27829137,0.051325284,-0.08725474,-0.066987894,-0.07476702,0.06322757,0.060158398,-0.8803537,-0.055916954,0.12716375,0.33387205,-0.73521215,-0.122292414,-1.659293,-0.02653904,-0.012454262,-0.012868546,-0.0160989,-1.5675408,-0.12935345,0.06540177,-0.028194342,0.0011739541,0.036092367,-1.5117176,0.10711279,0.26496616,0.048475258,0.09925138,-1.117202,0.08391622,0.07328466,-0.47795296,0.26936123,0.03321202,0.30754632,-0.062328335,-0.27517986,-0.19482234,0.22697377,0.031040441,-0.057038374,-0.11800362,0.20297214,-0.0581177,-0.10364966,-0.06667483,-0.021037366,0.42231086,-0.70527273,0.020969251,0.13119471,-1.4500219,-0.79067427,-0.8849963,0.20653528,-3.111906,-0.5929709,-1.6774374,0.063845776,0.0447521,0.19109611,-0.0077349762,-0.061853964,-0.042556584,0.0033664305,-0.12138401,-0.10309461,0.029404463,1.0201794,0.99662226,-0.0039390214,-0.090005554,-0.08718603,0.09424278,-0.9566935,-0.09892758,-0.07973929,0.074302964,-0.8679213,0.4826206,0.041711472,0.066321515,0.19239442,0.0866309,0.02352574,-0.082516044,-0.6749688,-0.40674582,-0.28903988,0.50797653,0.6254801,-0.06509103,0.057182252,-1.9117109,-0.03193291,-0.12876923,-0.7031252
-0.07591263,0.40047854,-0.015060594,-0.26747867,-0.040222775,-0.047379512,-0.1865694,-0.15509,0.3879911,0.05184083,0.33099633,-0.0973051,-1.4166003,0.10822108,-0.39522412,-0.18312873,-0.3359038,-0.037928674,0.0614618,0.051588356,-0.21013504,-0.083408765,0.07962468,-0.113416046,-0.033622805,-2.2596045,-1.4259765,0.019703047,-0.015669981,-0.07602576,0.028825494,0.33438635,-0.009515103,0.48350668,0.23697966,0.056988016,-0.02872176,0.68506104,0.056558073,0.15609552,0.0018901603,-0.18788867,0.08214629,0.12098789,-0.050740194,-0.037496198,0.05161178,-0.12675093,-0.03290522,0.014417142,0.09677664,-0.046393692,0.000641235,0.07027351,1.2836834,0.004083611,0.335765,-0.009003053,0.016986223,-1.0890222,0.0021034009,-0.23057973,0.03130665,-0.22679083,-0.009585489,0.24819294,-0.0132226795,0.12512682,0.31253448,-3.780534,0.03917198,-0.07924014,0.09265519,0.02012063,0.25080514,0.6760915,-0.030829176,0.11447221,-1.0426271,-0.5639013,-0.06978327,0.16506444,-0.10155436,-0.40236557,-0.25596932,-0.014080333,-0.9758573,-0.1134102,-0.50025773,0.10480073,0.06575287,0.110652626,-0.03978638,-0.12334129,-0.09626172,-0.013818694,0.02014175,0.04962576,0.35841897,1.5779606,-0.90678805,-0.11591327,-0.45621258,-0.069605306,0.06171454,-0.07515162,-0.11302927,-0.08883322,-0.0055893087,0.35773483,-0.8429404,0.041922312,0.24962139,-0.73953474,-0.021701781,0.09106735,0.08030769,-0.534521,-0.06090969,0.51967233,0.7223061,0.3926315,-0.073459506,0.56112957,0.13955118,0.031888593,-0.06358739,-0.021197198
0.09114611,-0.4787971,-0.11596639,0.070939295,0.05781121,-0.13444924,-0.039565574,0.093914345,-0.8796922,-0.64540297,0.10773129,-0.095293105,-0.10378663,-0.23829637,0.011124243,-1.488847,-0.43822625,0.014326169,-0.12302571,0.041899867,0.37874898,-0.09447594,0.085440084,-0.094836675,-0.08725529,-0.22432105,-4.4619637,0.38532445,0.08558024,-0.17803212,-0.08053861,0.44029614,0.08195181,-0.0071408087,-0.047916323,-0.0067636753,-0.070834555,0.04929822,-0.0775506,-0.09301855,2.448742,-0.34293282,0.07802522,-0.8404159,0.021347314,-3.141179,0.052153043,-0.048203688,-0.42123464,-0.34857118,-0.4656336,-0.27455258,0.008329534,-0.087390244,-3.295193,-0.11894055,0.52390987,0.2266879,-0.044589657,-1.9071095,-0.053000275,0.076025285,-0.1956987,-0.28276005,0.04704263,0.26073974,0.025124792,-0.06787873,-0.10355664,0.17615885,0.05703247,-0.067312315,0.20565946,-0.41611764,-0.1051174,-0.31299654,0.013864844,-0.02149046,0.7951364,-0.27678367,-0.021450259,-0.93065757,-1.307493,-0.33470428,-1.0059344,0.06196203,1.2470703,-0.21822509,-1.7071774,-0.043426305,-0.020479707,-0.028048629,-0.119276635,0.15382592,0.100486316,-0.0044023935,0.03764257,0.09149557,-0.3309582,-3.58948,-0.86108387,-0.098156445,0.019094702,0.0047230045,0.02419901,-0.27087888,-0.09101921,0.071259566,-0.024274161,-0.18192022,3.9143598,0.076582566,0.0009297696,-0.18096223,-0.122654386,-0.021620095,-0.02152962,-3.419283,-0.32413486,0.06962297,0.07893839,2.6735642,-0.0040867124,-0.048712138,0.7811238,-0.03151472,0.018768782,-0.68894833
-0.04392924,0.26117042,-0.05048116,-0.17213932,0.07860506,-0.022429569,-0.09296779,-0.18880327,0.19689086,0.50827813,0.68561244,-0.058268666,-0.14025803,0.08314592,0.0044649034,0.0783153,0.46326938,0.07209629,0.103061974,-0.04638701,-0.015416435,0.00076161243,-0.059662726,0.10370873,-0.06993807,0.09096381,0.4890565,0.055214457,-0.010817855,0.0001953041,-0.37292144,0.002198646,0.0102050835,-0.06115768,0.01556194,-0.11214748,-0.011652947,-0.2071348,0.011809069,0.017863624,-0.43963015,0.0055684894,-0.03900727,0.39723188,0.30149156,0.30838734,-0.055655498,-0.024469975,0.327822,0.014425571,-0.39215583,-0.138728,1.2884581,0.054983076,0.32002908,-0.01470554,0.3812228,0.078011975,-0.13246149,-0.15508361,-0.025033772,-0.05328211,0.112175785,-0.2711027,-0.10915859,-0.18321858,-0.014617138,0.02220315,0.15902227,-0.14743267,-0.029041678,0.08073544,0.073968984,-0.026432507,0.2187481,-0.017842483,-0.12476341,0.075795285,0.14068696,-0.23652005,-0.06721081,0.11288914,0.03464387,0.24189126,-0.6112515,0.09863151,-0.6483181,0.36494943,0.08617539,0.08875308,-0.10812627,-0.017591106,0.07995163,0.085781604,0.08513668,0.86012214,-0.045087796,0.0031852187,0.14505437,0.44254085,0.044822216,-0.063195735,0.27088943,0.10238848,-0.014204494,0.027010515,-0.071469195,0.026898667,-0.00961256,0.45884767,-0.39888147,0.06089464,-0.14837001,0.1061775,-0.054140195,-0.022606201,-0.1047943,-0.38865095,-0.2581875,0.14976633,0.24228244,-0.18732971,-0.103759125,0.041192386,-0.017214185,0.032622375,0.016866514,0.10293411
-0.1014736,-0.8728669,-0.077603325,-4.1699147,-0.07087755,-0.86253536,-0.44281888,-0.7240439,-0.38670465,0.9849796,-0.68039215,0.02956933,-0.84865993,0.6462343,-0.22696872,-0.29944173,-1.4619068,-0.10347748,-3.454369,-0.05136987,-0.44404927,-0.13097897,-0.23656309,-0.112465456,-0.011926276,0.2955133,-0.5597112,-0.49433938,-0.17998263,-0.54273504,1.0233977,-0.41839272,-0.088386126,0.569507,-5.709654,-0.05600258,0.09116408,-5.534863,0.040998306,-0.5164322,-0.45839107,-0.51302195,0.011794285,-0.46189094,-0.637696,-1.9136827,-0.04464664,0.086799525,-2.1572766,-2.1995556,-1.3526103,-3.4209297,0.0014010733,0.04019957,-0.25396812,-0.06037959,-0.7431564,-0.31093743,0.069553465,-0.23677711,0.036493804,-0.11814841,-2.742999,-0.04524601,0.01798125,-0.52580935,0.03426367,-0.24080922,-1.8804278,0.17963216,-0.40197638,-0.0410846,-0.2172347,0.44246256,-3.7137537,0.28170663,-0.123793215,-0.04027579,-2.6492546,-0.38818967,0.048685193,-0.23932528,-0.45638642,-4.028768,2.5035682,-1.3891524,-0.3925281,-1.8602751,0.891178,0.079695165,0.017146096,-0.09504154,-0.063966654,-0.5084956,-0.047071762,0.01136968,0.039453078,0.11671219,-3.776379,0.8553539,-0.13537376,0.092682816,0.22350107,-0.018609554,0.0143737765,-1.0701342,-0.063532546,-0.28622556,-0.025660124,-1.2489626,-0.33075252,0.07272045,0.24774985,0.119442426,-0.10738894,0.06668354,-0.027161157,-0.40737268,1.6921461,-0.45383796,-0.21032193,-0.33722603,-0.02280423,-0.12502016,-0.28445914,0.083752215,-0.029985618,-0.3471848
-0.005756648,0.3024977,-0.06885987,-0.09520612,-0.06455082,0.018881813,0.10661474,0.49876556,-1.7588651,-0.1907136,-2.3100939,0.020443765,-0.8685669,0.313669,-0.14272848,-0.034633297,-0.046101466,0.071280785,-0.2569423,-0.094514266,-0.14319733,0.21184589,0.27299902,-0.10705714,0.09898577,-0.025806734,-0.5986515,-0.0054370663,0.04511597,0.15102941,-0.3413159,0.13982189,-0.010173539,0.12395132,-0.85529613,0.034825765,-0.031044725,-0.4267738,-0.066493206,0.08929948,2.0336244,-0.04084422,0.10914306,-0.53940445,0.038178,0.006698936,-0.023465471,-0.042247873,-0.98130333,0.685277,0.008645671,-0.635979,0.00773405,-0.07896458,0.0050584767,0.0064986814,-0.20774621,0.21120979,-0.17281328,-0.017809406,-0.048704274,-0.0888414,-0.43202212,0.052388947,0.07134531,0.4096594,-0.14599061,0.3463429,0.06786174,0.21481693,0.4524726,-0.049629256,0.026486015,0.071961954,0.5459367,0.007971233,-0.07240347,0.07268768,0.39013082,0.7948365,-0.020333352,-0.15615307,0.46737748,-0.17054452,-0.1265768,-0.11587013,0.071907714,0.0344538,-0.8574999,0.09515004,-0.028665978,-0.10494887,0.05019065,0.2120546,-0.07121934,0.00822761,-0.13799721,-0.07005459,-0.051601913,-0.22804332,0.016100481,0.07541616,-0.08822714,-0.06428152,-0.067648545,-0.20772737,-0.034581568,0.19554095,0.08350026,-0.17561312,0.19673076,0.024045924,-0.18679284,-0.2481962,-0.10785988,0.04491395,-0.02647591,-0.27873474,0.080790795,-0.15943389,0.1214624,0.30765086,-0.13152024,0.16019787,0.4936167,-0.03698238,-0.08890964,0.1659085
-0.11857473,0.014908816,-0.07905331,-0.070840925,-0.09795973,0.10503338,-0.029105647,0.12482766,0.03383646,0.079896644,0.05466038,0.022939593,-0.07134465,0.0772632,0.11665338,0.07333017,-0.049518187,0.036819175,-0.07214013,-0.053434342,-0.08995148,0.06303496,0.04650756,0.041906536,-0.013676066,-0.006888915,-0.054980498,-0.0016298032,-0.0048829424,0.009625704,0.03043872,-0.0679493,-0.0314878,0.0126589,0.10025557,0.021104783,0.07816306,0.04117886,0.09720018,0.024455642,0.032251935,-0.04015473,0.03400006,0.07902131,0.047395248,0.079207286,-0.056907743,0.06853194,-0.05424334,-0.10566039,0.08591808,0.055835374,0.10606459,-0.0962334,-0.08037279,-0.11337421,0.10138647,0.11181461,0.083223544,-0.10157105,0.12428725,-0.079301745,0.017804347,-0.06446574,-0.060541034,0.025028454,-0.03185174,-0.028075479,-0.10887594,0.10421512,0.08315026,0.08190091,0.05943587,-0.10228378,-0.047776956,0.10896877,-0.11777422,0.11129907,0.03900374,-0.103422776,0.007178527,-0.060422216,-0.09476559,-0.025166102,0.11098102,-0.015250396,-0.06046034,0.043423764,0.08481445,-0.093204886,0.020902721,0.026077028,0.006961504,-0.0894177,0.101601765,0.052895524,0.013239252,0.04073785,0.08426954,0.0055946726,0.10483548,0.06052217,-0.0137009015,-0.10565111,-0.054008722,0.053390965,-0.038900763,-0.12600276,-0.037494212,0.09173289,0.055852283,0.03335769,0.10089502,0.016348729,-0.093024164,-0.06735687,-0.0018231273,0.088521935,-0.1088417,0.10292935,0.018425805,0.07424691,-0.027229726,-0.08938498,-0.022563988,-0.048091706,-0.11073586,-0.091505155
0.106361106,-0.84816796,-0.0997436,-0.9625847,-0.026129952,-1.6765774,-0.04564041,0.47481877,1.6764402,-0.25801033,-2.223975,-0.1456603,-1.045475,0.5808068,-0.509175,1.5589017,-0.964439,-0.12438049,-0.3940762,-0.003319472,-0.11288858,0.05375055,0.04647073,0.018678972,0.033786662,-1.4612837,2.0545363,0.65974444,-0.327765,0.047134954,0.47581407,-0.31769904,0.050459303,-0.3991367,-0.3446826,-0.058751818,0.11643705,0.50067586,-0.13630323,-1.3126957,-3.689434,-0.18084863,-0.10116629,-0.79267067,0.42472082,-0.46674085,-0.059822932,-0.09119347,-0.61959016,0.073306575,-0.40636894,0.7733104,0.004000904,-0.053233296,-2.3465421,-0.13032864,0.1378374,-0.5898023,0.12498405,1.7184011,0.029242098,0.31669447,-0.037399042,0.3293,0.044594735,0.6578743,-0.104970045,-0.6032503,-0.29502198,-0.59305894,0.09823081,0.11176866,-0.5030712,-0.62094563,0.017211152,0.23214652,-0.07563389,-0.050572906,-0.5073116,0.53532475,-0.020497346,0.42417362,-0.04757776,-0.032469656,0.18533927,-0.21344033,-1.2351604,1.1767997,0.22542243,-0.09669409,0.03470057,0.078528516,-0.08160961,-0.5278208,-0.123670556,-0.007919851,0.018915877,0.0711162,-0.74137235,-0.24133897,-1.64615,0.01781609,-0.47418928,-0.06412036,-0.12359742,0.3150624,-0.09024662,-0.1946213,-0.0101991985,-0.08350306,0.31384012,0.014897436,-0.10470272,-0.46108684,0.016053291,-0.11391218,0.056671023,0.10209345,-0.35903788,-0.6448146,-0.62118393,-1.6800894,-0.110388234,-0.19156814,-0.94591945,-0.061028246,0.009464681,-0.44252768
0.108272,-0.28271106,-0.04281505,-0.2751482,0.040865645,0.3236486,-2.523183,-0.5299294,-0.21931961,-0.17003833,-0.5217626,0.07346244,-0.023296373,-1.2606665,-0.06191576,-0.1137475,-0.042511176,-0.019202495,-0.16151445,-0.11619893,1.3167558,-1.203312,-0.07538263,0.04137645,-0.029023984,-0.4376129,-0.05352472,-0.5751302,-0.36028934,-0.90528667,-0.006095606,-0.54723877,0.027629606,-1.4257251,-0.13196993,0.0016645415,-0.11768821,-0.13066319,0.04274304,0.44248655,-0.12488413,-0.42142063,-0.09190303,-0.60321224,-2.394519,-0.34966552,-0.011595571,-0.103739895,-0.02458681,-2.199481,-1.1022493,-0.041928664,0.0003825568,-0.09565009,-0.04444948,-0.1154188,1.9001861,-0.12406737,-0.46117184,-0.04459232,0.066722825,-0.5158801,-1.8050684,-0.5093444,0.0018181882,0.38645732,0.005437364,1.941347,1.6576355,-1.6805784,-0.079101235,0.07347103,-0.17766042,1.4003241,-0.63047737,-0.311497,0.038050476,0.074564725,-0.06005568,-0.113661766,0.09036198,-0.117191024,-0.10985056,-0.48673823,0.00057974964,0.02317786,0.012713841,0.010548952,-1.0613298,0.10218611,-0.28592914,-0.0072767665,0.037975203,-0.098712675,-0.04109551,-0.0016165595,-0.037078083,-0.050294083,-0.24297015,-0.39194462,-0.13536702,0.047562018,-1.1159395,0.026928991,-0.07409567,-0.2606243,-0.097536944,-0.11487051,-0.08713748,-0.112409726,-0.03550709,0.04765843,-0.48316348,-0.16501571,-0.07193447,-0.013126138,0.020836541,0.029510232,-0.11468607,0.042397864,1.068812,0.047303524,-0.1158531,-1.0761114,-0.08973149,-0.12766196,-0.020150904,-0.0742622
-0.026508093,-0.075521976,0.022453278,-0.038621336,-0.04409495,-0.10555571,-0.06183508,0.037439197,0.09504667,0.12238091,-0.110676765,0.042515397,0.11216396,-0.049598724,-0.035133272,0.10402304,0.057749093,0.010950059,0.083091974,0.051173985,-0.029746711,-0.07633752,-0.05655831,0.033510745,-0.06663245,0.075122535,0.0534786,0.03972432,0.11260244,0.06714341,-0.029773653,0.080368936,0.10316777,0.046646,-0.027555943,0.0999254,0.043964744,-0.10544959,-0.030618697,0.05922684,0.036245316,0.06899637,-0.07303423,0.079699874,0.072246194,-0.04790917,-0.052307844,-0.010487497,-0.11732277,-0.062131047,-0.018341243,0.04759696,-0.054905236,-0.02360773,0.008084476,0.033886075,0.049150854,-0.03260508,-0.09532201,0.045282334,-0.059642762,-0.09659463,0.057392627,0.06873807,-0.0748007,-0.05864501,0.08454445,0.06085649,0.06087333,0.11105159,0.015421718,0.035401285,-0.10002339,-0.07220277,-0.1050466,-0.017537534,-0.055275798,-0.04135436,0.123767436,0.060923874,-0.07152808,-0.045850843,0.07367298,-0.04409638,-0.012201399,0.050533414,-0.09149891,0.017888337,-0.0005619526,0.09485653,-0.007596284,-0.07145724,0.038511455,-0.09040704,-0.11208105,-0.01661709,0.12205067,0.07077387,0.07050571,0.074223906,-0.05749759,0.030561388,-0.043432266,-0.03773892,0.09709555,-0.1099447,0.11057925,-0.054401666,0.017635643,-0.08401185,0.028071553,-0.1247859,0.1186021,-0.05990693,0.10472238,0.122065485,-0.04351613,0.09607357,-0.04374525,0.035807997,-0.020084888,0.08385879,0.04245174,-0.10472545,-0.075995445,-0.023532182,-0.0637767,0.018401116
0.05966757,0.04647321,-0.09810823,0.02110562,0.082106024,-0.04470336,0.035066653,0.50467944,-0.075157255,0.0022298158,-0.11472131,-0.00687474,0.23165016,0.07335809,0.41760802,0.14001887,0.05675087,0.043921847,0.10168551,0.048177987,-0.64899373,0.019511094,0.17045058,-0.121940434,-0.082965076,0.33114636,0.072245784,0.3817822,-0.32772395,0.18827613,0.23994042,0.041272536,0.10969368,-0.06561921,0.10124561,0.02250567,0.1193015,0.084588215,-0.024803786,0.15067166,0.39510718,-0.025648607,-0.0794731,-0.13417362,-2.541155e-05,0.098177336,0.113754034,-0.12366879,0.10016133,0.044459973,-0.051852193,0.10467843,0.049277887,-0.08568004,-0.012904986,-0.06474504,0.24944875,-0.007926675,-0.09184655,0.10641034,0.10246869,0.07779055,0.113190375,-0.016106008,0.07680169,0.23853122,0.028882302,-0.21482335,0.07120534,0.22204149,0.20584297,-0.12454605,0.06582208,-0.4811409,0.10563272,-0.20026158,0.0757288,0.073832266,0.16618223,0.10412694,-0.027459707,0.22294956,-0.1471799,0.07694259,0.20808375,-0.12429352,0.11762102,-0.15131992,0.11015581,-0.12194291,-0.12805316,-0.024963826,0.04909269,-0.12197162,0.08913339,-0.45793998,0.008066058,-0.052596033,-0.13415655,0.52254987,0.34766433,-0.0011714182,-0.052553073,0.11713296,0.06564381,-0.05368844,-0.021123767,-0.058768217,0.08737997,0.27351996,0.36578244,0.06910066,0.06970588,-0.20048663,-0.09694414,-0.015699847,-0.09944028,0.32978135,0.026657168,0.0931946,-0.084558845,0.13510336,-0.073227495,0.05330815,-0.025862556,-0.12133749,-0.051731315,0.17264637
0.060298204,-0.04892528,0.027596623,-0.018112838,-0.0711737,-0.0026169717,0.10696566,0.10336107,-0.059865654,-0.08973962,0.018498182,0.11829111,-0.11260849,-0.08798492,0.0058317482,0.08097768,0.043535084,-0.077046454,-0.0661886,0.01013422,0.01220873,0.103713006,0.0053195655,0.08362916,-0.029661417,0.10685289,0.033507645,-0.08773455,0.01409775,-0.10231328,-0.03292793,-0.036055595,-0.087414026,-0.016098857,-0.0907045,0.08929464,0.06407371,-0.032104015,0.11118063,0.07206842,0.088057965,0.025793254,0.12309575,-0.013131022,0.013191938,-0.008544743,-0.05905375,0.11038494,-0.08848223,-0.050050616,0.034326166,-0.10493976,0.0039866865,-0.087213516,-0.07305837,0.1081408,-0.009612471,-0.10378057,-0.032972753,0.122993916,-0.005149156,-0.080519855,-0.08085808,-0.08346033,-0.0012582839,0.10585034,0.10136321,0.05397895,-0.0015524328,0.03288129,0.05456561,0.002238959,-0.041851938,-0.0031963587,0.0036160052,0.08813968,0.11479291,-0.06644547,0.015853316,0.0436382,-0.062494844,-0.12436718,-0.029972494,-0.122142434,-0.103088915,0.030176997,0.030104518,-0.053994983,-0.033337146,0.06524497,-0.03998217,-0.12080836,-0.109852046,-0.07241389,-0.04643053,-0.05662453,0.0049099624,0.10800254,-0.04072556,-0.08444983,0.022812694,-0.01734081,0.003998667,-0.12256837,-0.03663984,0.09776291,-0.013512701,0.037525892,0.07601386,-0.07062176,-0.11591509,0.10562754,-0.06764647,-0.015623689,0.039705813,-0.12326011,0.090636134,0.078921914,0.108765244,-0.020433992,0.09277931,0.011514306,0.112892926,-0.008422434,-0.099354744,0.09336406,-0.118985385,0.11635715
0.06504595,-0.006197131,-0.10143433,0.11105815,0.06970895,-0.14048879,-0.103846684,-0.022106038,0.43172908,0.08662222,0.1445064,-0.0893746,0.17054176,-0.008036785,-0.04791383,-0.3722244,-0.26140907,-0.06786782,0.1542635,0.0022299262,0.79058754,0.40423298,-0.015749993,-0.039829772,-0.060822055,0.3706834,0.06892423,-0.29178774,-0.16065042,-0.06547657,0.28901002,0.2045696,-0.1267836,-0.1773569,-0.049290646,-0.0853106,-0.071010694,0.15951814,-0.13311929,-0.28078893,0.08437788,-0.082834214,-0.0937401,-0.7601243,-0.16375859,0.5638343,0.07878485,-0.043749116,-0.23161998,0.09725501,0.16283008,0.2531011,-0.009468203,-0.0693992,-0.2344187,0.012477745,0.62359124,0.42467856,0.2785516,0.09965911,0.006824487,0.40369737,0.048932858,0.079739235,-0.038884647,0.51527023,0.0040068007,-0.24428213,0.29936916,0.55326295,0.2630754,-0.095207594,0.110987335,-0.32289478,0.02640341,-0.11750481,-0.10331465,0.011272987,0.10184974,0.23056489,0.0092865275,0.022227773,0.5811654,-0.18679716,-0.14291295,-0.15172966,0.49708888,0.04100195,0.3088108,0.08885303,0.092525505,-0.068069495,-0.108822085,0.8208534,-0.12606658,0.017925544,0.11291601,-0.12787306,-0.2645278,-0.58797944,-0.024945144,-0.078142054,0.46605802,-0.032754824,0.03902753,-0.11424602,-0.07967981,0.3795062,-0.12089625,-0.1140387,0.15007691,-0.115890704,0.17392704,0.51547897,0.048824582,-0.08827143,0.08174427,0.011353288,-0.038006917,-0.39224,-0.7579892,-0.51976174,-0.011757665,0.23681536,0.13983798,0.07678237,-0.041934524,-0.027075484
0.04316664,-0.4616911,-0.043925352,-0.2968358,0.084718525,-0.05957495,-0.10424835,0.09672783,0.1908875,-0.08799611,0.4201997,0.0076276627,0.45139652,-0.2239526,0.25862008,-0.09096942,0.22004184,0.09619102,-0.08046034,0.012531245,0.20425375,-0.14246488,-0.09446102,0.029196063,0.0101775415,-0.5822397,-0.17149375,0.5886286,-0.31340697,-0.33767456,-1.0717937,-0.037084486,0.094254404,0.1736772,0.14815651,-0.106316395,0.07109587,0.28626204,0.016535401,0.047544565,0.295602,0.057656147,0.0026058175,0.9016225,-0.07699923,-0.04862294,0.1209524,-0.02607381,0.4440651,-0.17028879,0.46067205,0.10473538,0.007982278,0.024096651,0.2565694,-0.010366036,0.89278543,-0.024260826,-0.12772419,0.31898916,0.0054525863,0.13553669,0.100821875,-0.26355475,0.11563632,0.2679256,-0.13805461,-0.2836147,-0.24769518,-1.076056,-0.2780836,0.090057045,0.50965995,-0.0810035,0.36199355,0.49106008,0.026480556,-0.12500161,0.045992944,0.055265345,-0.007878946,0.34121805,0.50324625,0.25636205,0.23697117,0.15601139,0.13983576,-0.23310031,-0.40302646,-0.103799,-0.057048973,-0.1183107,0.015833296,0.1069141,-0.037565816,-0.012612975,-0.011898493,-0.06294401,-0.26743615,-1.0116512,-0.7952719,0.002424877,-0.4807227,0.016432345,-0.098167405,0.20550554,0.053699285,0.23242731,0.09561287,0.22741632,0.33349806,-0.10395099,0.21616046,-3.965001,-0.07650063,-0.054056227,-0.04229645,0.15080732,0.08303498,0.53491473,0.21594837,0.08919384,0.07462051,-0.043816924,0.4393799,-0.068662494,-0.0050255344,0.32243678
0.0059518316,0.0332484,-0.03931049,0.24433556,-0.059692364,0.0906529,-0.12975289,-0.6471954,0.015563815,-0.35915405,0.050032295,0.057572003,0.24563645,0.29589608,0.469255,-0.22296323,1.5146643,0.00761063,0.49274737,-0.12258868,-1.2942785,-1.148756,-0.19924317,0.08694742,0.062455244,-0.001545131,-0.12793265,-0.43830457,0.61124915,-0.1882351,-0.71029395,-0.043802194,0.034185495,-0.050388947,1.6077232,0.10490768,-0.016913876,-0.829815,0.0951131,0.03433014,-0.034500275,-0.026578378,0.046979234,-0.80982625,0.12698677,2.2260678,-0.10868252,-0.11102607,0.80497754,-0.6360348,-0.28440118,0.34864554,-0.0020110048,-0.07714912,0.17984802,0.09716432,-0.111849524,-0.027978538,-0.5486822,-0.10905417,-0.006960375,-0.20082794,-0.12737384,0.34724528,-0.10276989,0.06145847,0.061711185,-1.8919518,0.025410231,-0.15615954,-0.55693835,-0.03737016,-0.05257874,0.044827964,0.5382225,0.02230761,-0.08017026,-0.10360635,-0.8084229,-0.5633687,0.04580414,-0.8047152,3.2154996,0.37042573,-5.1338,0.5790466,-1.4221278,-2.9756286,0.17658548,0.027608298,-0.26997766,-0.11180829,-0.14286381,-1.10409,0.081448056,0.0027327463,-0.06452339,0.058252748,0.17149945,0.8017191,-0.16885643,-0.12648684,-0.11210663,0.07122761,-0.007085505,-0.009803837,-0.08688343,-0.8522884,-0.049243532,1.3568876,0.012337305,-0.05542771,-0.3133039,-0.25537774,0.008275906,0.015843758,0.006128378,0.039153654,-0.11702694,0.45084554,-0.29155022,-0.54720527,-0.041266087,0.7582078,-8.395949,0.07376861,0.07357594,0.5664032
-0.090102635,-0.07017955,0.05257453,0.004575638,-0.10755425,-0.04285592,0.5893569,-0.7453335,0.00042290788,-0.07251396,0.1889208,0.06851586,0.23716514,-0.17531876,0.28561825,-0.06959469,0.0327659,-0.07393533,-0.16824098,-0.0121189365,-0.23451526,-0.023004845,0.63936883,0.02205347,0.01450373,0.12328388,0.03996408,-0.8899739,0.2324617,0.17375503,-0.21114643,-0.03126702,0.071276195,-0.20885468,0.44968313,-0.13437183,-0.12735702,-0.06873746,0.060760997,0.28897205,0.1848219,0.25502223,-0.036743812,-0.8458585,-0.33305305,0.14588445,0.12135965,-0.14349446,-0.3696379,-0.054953583,-0.23537414,-0.27324313,-0.0079328315,0.10206525,-0.19921649,0.095958784,-0.091045335,0.18231261,-0.41776523,0.10282178,0.0005421745,-0.50449246,-0.2809811,0.025690444,-0.091257945,0.068915635,-0.12674944,-0.24276313,-0.24886471,0.59240216,0.61544824,-0.051041123,0.4036769,0.21899202,0.20341535,-0.30934146,-0.048373826,0.09582335,-0.02351397,-0.106317446,-0.08686432,-0.14773357,-0.13608463,0.16209945,0.063069895,0.028531116,-0.018027885,-0.12672408,0.088555455,0.11453244,-0.020589368,0.07786731,-0.09623236,0.42410994,-0.014217698,-0.0059653237,0.08238001,0.08639303,-0.30443266,0.093885496,0.5205308,0.028698862,-0.41007468,-0.05182286,-0.08226184,0.09884833,0.029868027,0.56397367,-0.07125567,0.19338664,-0.16199946,0.0019940056,0.26044008,1.0618459,0.07308856,-0.025669437,-0.03372311,0.10441453,-0.011446567,0.14050123,-0.26902524,-0.011813794,-0.03299139,0.21860644,0.07178728,0.06620196,-0.034820087,-0.30072102
0.097521074,-5.7016463,0.11111827,1.0439414,-0.07775214,0.552525,-1.9485544,0.55987924,0.044843003,-0.029680913,-1.9032243,0.103481494,-0.3103677,1.5873098,-3.4660318,-0.2739689,-0.45129713,0.013988872,-0.432955,0.104667574,5.5378113,-2.2576442,-3.070578,0.0007521808,-0.10450315,0.505679,-3.2254972,-2.0277317,0.61354643,-0.59797084,1.3543749,-0.97580147,-0.043425843,1.9598011,-0.17777048,-0.007733529,0.023459703,-2.2029705,0.05372195,-2.2996097,-0.89318985,-0.32061863,-0.07393563,-0.5588304,-0.8642629,0.46080536,0.011015981,0.033769265,1.3939683,-0.677115,-0.6241008,-1.8029314,0.00595188,-0.12151,4.1699915,-0.10029236,-0.63633204,-0.46255568,-0.2648891,0.38327917,0.014752844,3.5198565,-0.7807016,1.6405232,-0.0038094441,-3.7890234,-0.0770302,-0.660411,-0.59040827,0.14319485,-4.213273,0.064207956,-0.82260185,3.1904898,-0.64505893,0.07496298,0.11501932,0.011953447,5.2943377,0.38299495,-0.12486299,0.097294636,0.5646453,-1.8022033,-1.1815628,-0.57868665,0.2467688,1.2359902,2.6009545,0.08043128,-0.36436844,-0.13148622,-0.06864999,-2.063968,-0.026961606,0.01683123,0.10507237,0.022036055,-2.24202,0.43019816,0.3910529,-0.07254357,0.19577272,-0.018670518,-0.08511143,-1.543695,-0.12008089,-1.4737427,0.031480543,-0.13607626,0.80847836,-0.12188864,-1.4268651,-1.1374626,-0.0019793173,-0.042417318,-0.023738379,-0.4664411,0.26771602,-0.68051,-1.9564878,-1.9361272,0.026163496,-2.0064807,-1.7203196,-0.10452156,0.10740039,-1.2051969
-0.018288841,0.092493474,0.018678129,-0.21544662,-0.097009346,-0.04298295,-0.0069344803,0.12815945,0.42784223,-0.53570426,0.22917804,-0.021797359,0.1474405,0.028946817,0.19869576,-2.2763906,-1.177796,0.05401722,-0.03059292,0.014456453,0.1276844,0.10942703,-0.062126957,-0.096346825,-0.07609782,-0.060203355,-2.479472,-0.047003303,0.022545366,0.085000046,-0.12228802,-0.0017382089,-0.06118524,0.11390289,0.020989202,-0.1263431,-0.05273262,-0.37529367,0.0012067017,-0.02917525,-1.0235516,0.044057645,0.07809646,-0.10263145,0.08280466,-1.4195803,0.03647831,-0.117295496,-0.06798004,0.29505557,-0.20506178,0.11194346,-0.0019704166,-0.021268835,-1.9149567,-0.114225365,0.06246028,0.030626994,-0.030375604,-0.51640874,-0.025723085,0.087020434,-0.14956677,0.049211323,-0.06445724,0.2999427,-0.08281672,0.072227135,0.03153702,0.475593,-0.0121558225,-0.080144085,-0.09549309,-0.188441,-0.42633092,-0.09372946,-0.032095455,0.0022572558,0.4617746,-0.5930883,-0.09325614,1.8576677,0.12725234,-0.11407708,-0.61143655,-0.07198781,1.668862,-0.0975956,0.15367688,-0.11516938,-0.01576684,-0.07961286,-0.009860527,0.06625183,0.02078325,-0.0022991018,-0.12903371,0.044023033,-0.05740986,0.27632493,-0.08895228,-0.08776419,-0.025934894,-0.13284875,-0.049631335,-0.029720249,-0.007849055,0.037576087,-0.13514854,0.057884995,0.64211303,0.017380323,-0.059573486,0.10984899,0.027049575,0.08885951,-0.03510634,-4.8445597,-0.34196377,-0.040533483,-0.075505674,1.2369899,-0.07350699,0.118359946,-0.48629144,-0.04362145,-0.0557765,-0.06231124
-0.03852053,-0.6447984,0.05334753,-0.45226178,-0.0252356,0.09769135,-0.39400116,-0.09351892,0.2848017,0.12483388,0.90559924,0.055648435,0.61947995,-0.089202225,0.69418234,-0.1104585,-0.6963533,-0.061353914,0.049248632,-0.023849458,-1.0185666,-0.31711015,-0.14660941,0.039221875,0.112942286,1.1029363,-0.40962648,0.29613602,-0.4878587,0.37326124,-0.82101953,0.61593616,-0.12365699,0.040537164,0.22314024,-0.10390388,-0.05344865,0.22800021,-0.055830922,0.9630117,0.45459536,-0.17790411,0.05724827,0.8398889,0.96447206,-0.2942248,0.02084586,-0.10410536,0.060910545,0.49964076,-0.13330913,-0.7831824,0.0029655264,0.11013081,0.30141506,0.012207055,-0.73972327,-0.2869537,-0.87045556,0.11352208,-0.032696486,-0.32684287,-0.035637606,-0.19289675,-0.007156389,0.42486182,-0.050793346,-0.28552186,0.16931951,-0.35491195,-0.3699286,-0.011613577,0.14762451,0.5472153,0.09530079,0.5573942,0.08441681,0.037953686,-0.63033867,0.14974481,-0.0426705,1.5822946,-0.024278134,0.23643877,0.24631278,-0.7023924,-0.17862482,-0.25134462,0.13028826,0.04960698,-0.39464033,0.06098334,-0.045418233,-0.40471312,0.024072642,0.00037490833,-0.084018275,-0.09938608,-0.65694255,-0.56704754,0.13674816,0.051661335,0.26391283,0.06617718,0.006217227,0.23949313,0.012308627,0.3947168,0.015321011,0.28156596,0.91550756,-0.11812576,-0.3623795,-0.28034952,-0.08598044,-0.03727154,0.10501285,0.096852675,-0.423938,0.08782027,0.11108363,1.0287634,0.09483388,-0.8985579,-0.40567306,0.06634465,-0.13371757,0.27020076
0.10886073,0.9329882,0.06751321,0.14941572,-0.007094828,-0.03386115,0.16899584,-0.5816357,0.039813578,-0.57146245,0.93211156,0.04730019,-0.7438633,0.022951258,0.05112738,-0.3991107,-0.32655615,-0.12571172,-0.036613677,0.049278647,-0.561229,0.070780836,0.17087175,-0.08330336,0.048136886,-0.46770743,0.12381634,-0.13939956,-0.7055207,-0.058655385,-0.27276784,0.079944886,-0.13051769,-0.13842002,0.06946873,0.045550633,-0.07876125,0.07285163,-0.08498079,0.19093566,0.62175894,-0.15972036,0.018100334,0.79260087,-0.113937326,-0.011778825,0.017686516,-0.06347295,-0.23030631,0.07352,-0.09789274,0.00424317,0.008140183,0.100079834,0.12631361,-0.08883071,0.16312021,0.011877139,-0.017399317,0.30891085,-0.095638566,-0.014803042,0.1234722,-0.3663978,0.0706135,-0.36885786,0.009945024,0.89687115,-0.13721398,-0.67092973,0.21883295,0.08990268,-0.04246614,0.284156,0.047827505,-0.031776063,-0.044959456,-0.06791562,0.1502127,-0.05821859,-0.07951446,-0.0012492819,-0.1806137,0.012445064,0.17722419,0.14675228,0.22666396,0.042307295,-0.017555118,-0.10761067,-0.041074954,0.005980618,-0.039869998,-0.17252633,-0.12902103,-0.4094173,0.024631413,0.064468846,0.04060526,0.6339578,0.86519414,-0.082540356,-0.0054470487,-0.022304388,-0.047730044,-0.078876324,-0.05307421,-0.21882871,-0.0023517103,-0.030360525,0.14352925,-0.023931503,0.0105052795,-1.1332575,-0.10665223,-0.05401794,-0.015573467,0.5093052,0.12019044,0.51878643,0.3264921,0.15887365,-0.014351375,0.22022292,0.012702075,0.027282778,0.016641593,-0.15616015
0.025885405,0.15419966,0.08018061,0.60056996,-0.10019568,0.11243317,-0.46856534,-0.34227628,0.08592083,-0.57314783,0.63223195,-0.009970925,0.59563786,0.089239985,0.19220957,-0.28625527,-0.551558,-0.05931097,-0.33973974,0.08045899,0.29354358,-0.26363695,-0.2401833,-0.024723439,-0.14048845,0.09369309,0.11719463,0.46543473,-0.017972091,-0.07630676,0.7152741,0.006787208,0.045812815,-0.088977955,0.009448544,0.02964088,0.08525443,-0.20943272,0.0075402604,-0.112221986,0.2309495,0.28428218,-0.13042225,0.8295032,-0.45470786,0.3662513,-0.058822453,0.07918888,0.22587255,-0.25767675,-0.37840074,-0.2561074,0.018459916,-0.048157692,-0.0061677787,-0.13794352,-0.5596921,0.024749937,-0.16005129,-0.3637205,0.022013495,-0.07539658,-0.27736372,-0.47254932,0.032187086,-0.14133576,-0.049671236,0.09098292,-0.03709266,-1.428509,-0.5689202,-0.04572215,0.24416542,-0.4015968,-1.0538436,0.08745046,-0.0096718,0.06698772,-0.14694896,-0.44386655,-0.09735199,-2.4899414,0.18120684,-0.00094858225,0.055652477,-0.17602485,-0.21518494,0.20391138,-0.61023605,0.066169485,-0.071126044,-0.08440817,-0.09543837,-0.41431466,-0.087317586,0.0023102767,0.059595857,-0.0074486663,0.08793195,-0.29150623,-0.6968497,-0.03956213,-0.40247232,0.09534475,-0.066426314,0.23444387,0.091657475,-0.18074797,-0.015916908,0.26635098,-0.058470555,-0.005419003,0.38008437,-1.3946261,0.07990346,-0.162073,-0.0001844806,-0.39812177,-0.32648516,0.42478076,0.075291745,-0.6229453,-0.106425874,0.21999604,0.176944,0.032544576,-0.085335225,0.08558699
-0.061213505,0.26239708,0.047716364,0.0042658043,0.10484003,0.6728978,0.7412509,-0.3747649,0.85105103,-0.35875517,0.18334626,-0.019172804,0.7340155,1.0822952,0.16435133,0.5251198,-0.24358344,-0.07015736,-0.1317497,-0.020244181,0.32062137,-0.34197628,-0.5055167,0.0634245,0.0057134368,0.13078071,1.0058117,-0.6238612,-0.27544087,0.23274875,-0.18851502,0.07363718,0.00069121347,-0.25958812,-0.22391354,0.09574182,0.11641587,0.3052341,0.013971982,0.056042638,1.2251699,0.19148055,0.09900849,0.1098731,-1.3846769,-0.28910664,0.023484886,0.0750055,0.4633758,-0.23007847,0.474672,-0.0046262452,-0.0016041768,-0.107610546,0.60003704,-0.029974785,-2.4669945,-0.012531611,0.026730781,-0.67013043,0.097314075,0.78919464,-0.24841353,1.2144014,-0.06099024,1.4506443,-0.12401266,-0.2318511,-0.22686587,0.5415211,-0.47789174,-0.031148693,-0.07086972,-0.6419371,0.0333408,-0.76398665,-0.10247868,-0.09641373,0.8440449,0.59465575,0.095248155,-0.0010141439,0.29430738,-0.018355926,-0.17020144,0.33797643,0.1181541,0.6563152,-0.6986577,-0.11140528,-0.039347727,0.11303823,-0.09358023,-0.008714258,0.081105374,0.02188377,-0.0020262746,-0.13630672,0.46276456,-0.61879146,-0.19124755,-0.08694254,0.660833,-0.042088125,0.07166373,0.43720788,-0.08958408,-0.13804752,0.052064285,0.5344536,0.118217066,0.0802904,0.31418413,-1.2987881,-0.03187576,0.046012126,0.030377148,1.4911662,0.29828745,0.33044118,0.12520672,-0.029962279,0.07835426,-0.36334342,1.191574,-0.124141,-0.12942955,-0.04823852
0.044968095,-3.5975764,-0.065360166,-0.28108695,0.10265445,0.061365437,0.10243249,0.4661036,-0.6169122,0.014988023,-0.71067685,-0.11521731,-0.32548863,-0.2317257,-0.17959557,-0.36785433,0.8755064,0.011471416,-0.6558242,-0.06283462,0.038049284,-1.0799574,-0.11426654,0.083845735,-0.043600358,0.1203282,0.12716706,0.24143076,0.2974126,0.06914173,1.5221539,0.030502342,0.08229577,0.07349467,0.015316512,0.0847873,0.01564558,0.12605882,0.08332739,0.11904271,-0.6474843,0.09105166,-0.059473705,0.82558715,-0.0032975161,0.011324881,0.11564314,0.040584367,-0.34481496,0.11058477,0.41694012,-2.5702362,0.021957336,0.094045036,-0.15189907,-0.11989337,-0.13995412,-0.3522811,0.015679277,-0.4775659,-0.0046251845,0.53607523,0.1850412,-0.07903478,-0.118741155,-0.28915572,0.06677616,-2.5964339,-0.040281888,-0.17760363,-1.3519105,0.09971012,0.04095187,0.19659537,0.030652931,0.05861568,-0.071276575,0.027380837,0.60285425,-0.03566585,-0.12833007,1.0292989,-0.71416503,-0.19876075,-0.7480288,-0.24369371,0.8588889,-0.54242504,0.12322316,-0.04818681,0.6424252,-0.08804747,0.048032794,-0.22701316,0.0001958184,-0.035832867,-0.12778269,-0.035444368,-2.6348393,0.43780258,0.11635988,-0.016859185,-0.123449646,0.083391085,-0.12835178,-0.055443708,0.0651634,-0.5248157,0.06853388,-0.49291086,0.6672576,-0.052277762,0.07672174,-0.10568428,0.0561809,-0.003147488,0.045133375,-0.072730556,-0.2407733,-0.15236625,0.2985318,0.8349971,0.057617873,-1.7027974,0.16303027,-0.118132025,0.1067445,-0.19320735
0.00042103266,0.04121449,0.06339213,-0.15346944,0.046965297,-0.026728269,-0.042896137,0.09009329,0.62168354,0.28244826,0.19737796,-0.05890458,-0.010661408,-0.00017670637,-0.20101105,0.5661858,-0.20405708,-0.030625781,-0.12729225,-0.1044014,-0.2888581,-0.09915956,0.008028381,0.094579525,0.029241122,0.75568414,-0.5450547,-0.5120601,-0.021280093,0.04156192,-0.1657496,-0.21947898,0.023613023,-0.25947016,0.52029896,-0.081105955,-0.058774866,0.39821845,0.019366113,-0.045493267,0.8229137,-0.027716037,0.07982362,0.0856205,-0.19947796,0.60806566,-0.065493755,-0.056748886,0.26358256,0.3903115,0.3345272,0.63274133,0.0008730688,-0.110097185,1.5920509,0.08885359,-0.07300849,-0.0027617894,-0.0625361,0.6152317,-0.0693332,0.02494922,-0.058624394,0.11310298,0.0037392282,-0.31339496,0.012595107,-0.248668,-0.08930616,1.4036866,-0.09474689,-0.09870334,0.05858093,0.6912514,-0.30478126,-0.00047983672,0.02289307,-0.052570023,-0.49313396,0.07624501,-0.119425684,0.7217069,0.8334181,-0.22435178,-0.30043536,0.10113355,-1.5206988,-0.3084566,-0.112884164,0.10719654,-0.031183034,0.025323685,-0.020796115,0.044794112,0.02169982,0.0021802841,0.07230195,-0.051049683,0.03304058,2.8196259,0.80766916,-0.07658095,-0.08473069,0.019720923,0.055322032,-0.10930574,0.06227059,0.033807267,-0.07468259,0.26044947,-0.50173885,-0.047039676,-0.06604804,2.3083036,0.017794026,-0.06685677,-0.0678409,-0.6393726,-0.1693464,-0.052167516,-0.3297984,0.7391539,-0.027089557,-0.20256479,-0.17643395,-0.0022462045,-0.057205252,0.39339647
0.005291532,-0.52193344,-0.02372837,-0.3513903,-0.032593053,-0.29675248,-0.05356007,-0.09124956,-5.5369687,-0.5765522,-1.9808781,-0.008960443,0.17997085,0.34274533,-1.7772764,-0.34521502,-0.03286433,-0.074430406,-0.31274667,-0.10561377,0.46357253,-0.03593183,0.0055008167,0.06405696,0.014746044,-0.29574576,-1.6049709,-1.766623,-0.0598201,-0.951508,-0.30879557,-0.40214884,-0.080511376,-0.60465175,-0.80363524,-0.1076722,-0.017426461,-1.2605809,0.020864464,-0.5038946,-2.0702763,-0.96080923,-0.040990658,-0.57692474,-0.6005429,-0.6162663,-0.052776847,0.044849303,-2.500944,-0.7040147,-1.0481602,-0.18434264,-0.0015960566,0.005570793,-2.4304695,-0.05504372,-1.084572,0.02401889,-0.006819264,-1.8526492,-0.13314028,-0.0700936,-0.45826983,-0.9841972,0.05504072,-0.017179964,-0.024266781,0.14234506,-0.32074565,1.1342381,-0.045675986,-0.0028641769,-0.45392707,-0.2373482,-0.08623868,-0.6379698,0.08058983,-0.039262876,-2.2252822,-0.42767832,0.021031816,-0.7017701,-3.9737582,-1.144385,-3.0658743,-0.5488606,2.037155,-0.56554264,-0.20364231,0.06733829,-0.019946331,-0.1260131,0.03811593,-0.037535936,-0.007951704,0.0039621536,-0.02632014,0.08636335,-0.585174,1.4497646,1.426858,-0.0762137,-0.15443379,0.06305006,-0.021850197,-0.47417256,-0.0897014,-0.018240565,0.022987442,-2.1141157,-3.8831208,0.007412764,0.0041505056,1.0547662,-0.09787855,-0.06755944,0.109934464,-0.14185189,-0.5079804,-1.0879984,0.76512194,-0.7541451,-0.10500269,-0.29867294,-0.623905,0.032410283,-0.11231041,-1.1703117
-0.12285976,-0.09596945,-0.107335985,-2.0886316,0.00033767597,-0.17100632,-0.110322036,0.11615469,0.1877295,-0.4069718,-3.079506,0.08752506,-1.2177324,0.164497,0.061866086,-0.9199583,0.92732453,0.04821776,-0.21278648,-0.08053872,0.17741929,-0.7717901,-0.09324976,-0.11507189,0.1109712,-0.5978928,-1.1972785,0.35642532,0.05791433,-0.14918894,-0.14678062,0.15740374,0.017802516,-0.111995846,-0.33185917,-0.06132649,-0.011065781,0.554149,0.098984644,0.11374299,-0.8373952,0.081333466,0.002659977,0.17890263,-0.08273174,-0.58904076,-0.09199938,-0.040034343,0.09825315,-0.55615973,-0.20036384,-0.8089596,0.0001211912,0.034930456,-2.5075748,0.07503523,0.42057556,0.037630577,0.13557374,-1.3681324,-0.010540872,0.15219119,-0.10012972,-0.30190367,-0.04121897,-0.046605308,0.080393106,-0.92843217,-0.23554134,-1.1182647,-0.19807367,0.020767692,0.21872453,-0.20597513,-0.19295369,0.07628062,-0.12122628,-0.13331553,0.46223053,0.012334397,0.06573495,0.252546,0.42522535,-0.079036914,0.29702246,-0.28568482,0.20497812,0.35520032,-0.06661162,-0.025741547,0.10952374,0.08470085,-0.013504072,-0.078493014,-0.08345754,0.0017095233,-0.007201786,-0.09506529,-0.7363883,0.42866808,-0.4970989,0.02414865,0.20432255,-0.12805256,0.06337779,0.12600555,0.0125442445,0.040437628,0.06333398,0.19563502,-1.019891,0.00043852645,0.17990084,-1.0013095,-0.013294764,0.053333044,-0.12098214,2.8450341,-0.31093916,0.29102367,0.18702571,0.18200305,0.033360124,-0.83087146,0.39535218,-0.047923516,0.0841294,-0.27897966
-0.07092958,0.17403063,-0.085892774,0.21655151,0.107199594,0.3135273,-0.133939,-0.07281161,-0.8500637,-0.07777625,0.049542587,-0.018089008,-0.13240255,0.18856212,0.73424864,0.87715703,0.69422823,-0.08796528,-0.09502516,-0.05736856,-0.30165854,-0.120901935,-0.07367152,-0.09728742,-0.09309014,0.91995215,-0.45443252,-0.38032553,-0.011042734,-0.15419674,0.22288321,-0.59002644,0.018165093,0.26070324,-0.0075965016,-0.04803627,0.10769585,0.3908344,-0.05097964,0.66748846,1.6515797,-0.19984917,0.033083703,-0.5066061,-0.2674304,0.06457365,0.063233964,-0.09536647,0.10691673,-0.14954752,-0.13931358,-0.23291357,0.0030918631,0.016242066,0.0069086016,0.10939319,-0.25631127,-0.28488445,-0.01682202,0.6151492,-0.11919706,-0.018821755,-0.1612807,0.40684536,-0.10432863,-0.9441582,-0.010073331,-0.15249111,-0.037743058,0.9787016,-0.13414122,0.079510525,-0.61119545,0.4997849,-0.055239752,0.08563227,0.0072897226,-0.0302883,1.1294191,-0.17090806,0.047537323,1.1044718,-0.58605915,0.143536,0.7900506,-0.13580804,-2.1166246,-1.5524772,-1.7569199,0.008756158,-0.0216627,0.06293952,0.0034004718,-0.3508287,0.009980587,0.0074901804,0.08630269,0.034846283,-0.0039900984,-0.6669016,-0.8019679,-0.033323225,0.056193314,-0.07150277,0.061840594,-0.31515914,0.009988887,-0.31943053,-0.11517119,-0.11479748,-1.232165,-0.14085616,0.0366342,0.6408851,-0.048748493,-0.11683024,0.0018411136,-1.3010018,0.25271744,-0.3385288,-0.42042485,-1.9646053,-0.070424296,0.035210017,0.094351836,-0.023292726,-0.08700086,-0.4134065
0.07319282,-0.24013911,0.0039679003,-0.3117927,0.0999898,0.53157175,0.6102217,-0.085946016,0.241692,-0.07571561,-0.43054152,-0.14413089,-0.12717763,-0.13378353,-0.08841945,-0.26588324,-0.18059304,-0.08055019,0.15712942,0.030782938,-0.608103,-0.045929104,0.4654271,0.0029556418,-0.12665746,0.17121173,-0.33592445,-0.4122888,0.17617983,0.5288091,-0.29754865,0.07188192,-0.077237464,0.6381171,-0.015340106,-0.035350025,0.080383986,0.12690811,-0.15534197,0.29258764,-0.058622986,0.60142887,-0.04099775,-0.58463156,0.4058226,-0.14396146,0.0069341976,-0.013530736,0.12877259,0.24320097,0.18447049,0.40434137,0.09589995,0.021437034,-0.24078952,-0.13625203,-0.17461556,0.18031487,0.012742952,0.15669075,-0.13383673,0.0020439879,0.4797594,0.53341717,-0.03042029,0.44156337,0.05990989,-0.14880514,0.66983676,-0.3574836,0.24136929,0.022710096,0.18563788,0.01545282,0.09926233,0.24798042,0.089588374,-0.13546148,-0.3162517,0.2377829,-0.028145388,-0.4552374,0.12725823,0.51544327,-0.25496718,0.48782432,-0.47233275,0.13433827,0.49355564,0.07845846,0.13224976,0.027196392,-0.06510475,0.28272718,-0.11637935,0.15577126,0.06931324,-0.1328451,0.0933821,-0.14932129,0.10003386,0.078601204,0.32165375,0.05221956,-0.09446583,0.56842136,0.015579948,0.13743375,0.027385496,0.19263524,-0.42636934,-0.14335853,0.107002825,-0.3970119,0.014672756,-0.037002105,0.08713174,-0.37975055,0.24446698,-0.21862693,-0.021733489,-0.28351617,-0.12237859,-0.19780962,0.06645151,-0.10245915,-0.068431236,0.2583786
-0.032736316,0.7019149,0.005349913,0.31473988,0.099099785,0.014042751,-0.5660547,0.019126607,0.17321898,-1.1830935,0.60966253,0.041411914,-0.09757697,0.01995752,0.35023484,-0.81172585,-0.7339142,0.04615144,-0.11335303,0.06626316,0.4098404,-0.24168149,-0.37680018,-0.030357856,0.07301838,-0.025604758,1.0248595,0.57697904,-0.32876974,0.107101455,-0.18297412,0.05637836,0.050838247,-0.27075678,-0.4867708,-0.08146326,-0.114585236,-0.31770197,-0.023901505,-0.27977222,0.19558646,0.21936171,-0.09365808,0.928245,-0.16805418,-0.09860599,0.07086736,0.08612661,0.17112437,-0.556053,-0.000678989,-0.45266816,-0.0638523,0.008422249,-1.072452,-0.015452418,-0.40467328,-0.30113,0.05470981,-0.39121637,0.087491594,-0.03886777,-0.0846291,-0.041867115,-0.0028556047,-0.33631796,0.01393568,0.13146366,-0.2153187,-1.0252273,-0.50809985,0.07455862,0.2693534,-0.14312886,-0.6381328,-0.052871972,-0.11976688,-0.031715993,-0.4219255,-0.08826756,-0.11318527,0.14873593,0.33230054,0.14709601,0.00018229234,-0.22125812,-0.34775338,-0.09840012,0.6699352,0.05456014,0.0292906,-0.043820787,-0.15524456,-0.20389701,-0.12883383,-0.019680442,-0.0123110935,-0.1424639,-0.1065861,-0.083903514,-0.5880795,-0.08736524,-0.5190475,-0.041118074,-0.039527193,0.37550703,-0.049803514,-0.11337838,0.052392285,-0.12083443,-0.83591014,-0.09522179,0.14016187,-1.221569,-0.05356981,0.05761205,-0.08383255,-1.223355,-0.07202964,0.41279566,-0.2100965,-0.59146875,0.017477991,-0.07536789,-0.57195073,-0.021518558,-0.040215876,-0.05329505
0.080708005,0.70706296,0.025053352,-0.24518968,-0.10315964,0.13630505,-0.33034638,-0.034727186,0.33498394,-0.32960737,-0.3216382,0.07969135,-0.30940363,0.080595516,-0.3897434,-1.283008,-0.15327999,0.052378617,-0.06435555,0.028977377,-0.003909651,-0.22764371,-0.15074746,-0.023231413,-0.019729326,0.8422873,-1.3976645,-0.012478312,-0.0324943,-0.07249919,0.755301,-0.53860784,-0.037530117,-0.062148042,0.2450978,0.04496212,-0.01950632,1.6507467,-0.074275024,-0.045620136,0.23627555,0.40482295,0.105184644,1.2498229,-0.1361322,-3.281368,0.025428085,-0.110079005,2.8970327,-0.23450477,0.028858393,0.024924176,-0.0016438148,-0.008158352,0.011495625,0.09242001,-0.50293446,-0.21207473,-0.07691257,-0.3983774,-0.1277886,-0.063478455,0.3936506,0.03453956,0.06448152,-0.42338362,-0.1312834,0.227218,-0.16106513,-0.7794351,-0.13973252,-0.10969095,0.30962878,0.2854194,-0.535055,0.029919079,0.046949588,0.09512875,0.3786736,0.7241048,-0.06234766,-0.1247714,1.3130345,0.768861,-0.047545668,-0.31220305,-0.34530514,2.174431,-0.72526234,-0.09961042,-0.023924284,-0.13192482,0.055760853,-0.055231974,0.086694926,0.013128353,0.003963468,0.043449197,-0.0083026225,0.3826566,-0.20552039,-0.009204381,-0.16499765,-0.060839895,0.09895963,0.60864574,0.09892144,0.062388122,-0.13860491,0.17856139,-0.07912802,-0.09585888,0.035581063,-0.4981385,-0.005405189,-0.12556563,0.019694528,-0.19045027,0.57410675,-0.022483252,-0.22105244,-2.2795453,-0.11123437,-0.10929,-0.14352149,-0.033018563,0.0017489659,1.0209162
0.10395453,-0.066600844,-0.010952905,0.38543764,-0.079533055,0.102311105,0.09319371,-0.51793545,-0.19198793,0.17668948,0.5072478,0.021836376,0.08199902,0.45566794,0.34540102,-0.33070293,-0.80372584,0.046854306,0.10506489,-0.10114288,0.054157905,-0.04862539,-0.06359263,0.028149216,0.09346156,0.36696458,0.38825586,0.07669903,-0.10974118,0.044879768,-0.41987452,0.18981233,-0.05429566,0.017920595,0.47848594,0.054124516,-0.0523678,-0.4698335,-0.0143586295,-0.11010797,0.3870585,0.10976613,-0.084469154,-0.63268757,0.35603198,0.5800673,0.06880659,0.06551069,0.11075713,0.42853194,-0.7137408,0.83259195,-0.0037285096,-0.08477519,-0.033359397,-0.09309695,-0.3690901,-0.08871981,-0.13560759,0.51554054,-0.06425413,0.0957025,0.25573015,0.30876744,-0.042056393,0.3146487,-0.03845497,-0.24034771,0.105791785,0.54703736,0.13053569,0.039045162,-0.078923985,-0.49605247,-0.13607399,-0.0710398,-0.009572148,-0.006193217,-0.8023627,0.79534996,-0.04570235,-0.51284146,0.12137399,0.18030237,-0.45577395,0.08726367,0.2733667,0.6648671,0.22509365,-0.07447335,-0.035629615,-0.058728505,-0.025981065,-0.038865898,0.08953496,0.011687515,-0.0025392289,0.019673428,-0.15122686,-0.096830465,-0.039023966,-0.11736197,-0.16807044,-0.050936036,0.036216687,0.08438984,0.11464322,-0.06456827,-0.08846635,0.31434873,0.08215664,0.03956571,-0.05854732,-0.08781636,0.0023162165,0.089618154,-0.11332834,0.25560755,0.23109405,-0.37342194,0.062196538,-0.53949076,-0.056780823,-0.28559867,-0.5224429,0.07138362,0.109553196,0.33472764
-0.08319534,0.11490828,-0.13506699,0.10840405,-0.12134296,0.018908957,0.15138629,0.431841,-0.44471273,-0.69206977,0.72187805,-0.117091164,0.29511693,-0.2273017,0.09949295,0.25063,0.06929149,-0.05377678,-0.08408178,-0.04126318,-0.03047463,0.06388496,0.10244394,0.02683152,0.05449828,-0.007412548,-0.8833225,-0.12043921,-0.14790273,0.027878614,0.21971624,-0.08912722,0.086056694,0.031850677,-0.064136736,-0.13503891,-0.08817367,-0.36633262,-0.062408686,-0.047143023,-1.6165708,0.043518297,0.0687304,-0.3184241,-0.5624877,-1.1771418,0.017997572,-0.08083952,-0.7006414,-0.2061388,-0.11316711,0.2313274,0.014975828,-0.09108377,0.073937744,-0.12746435,-0.6236732,-0.22124693,0.20607784,-0.33880433,-0.13088843,0.08173001,0.026492113,0.6519503,-0.11999899,0.37398666,0.029349478,0.23758462,-0.24778965,0.65180653,0.08816645,0.018981362,-0.50325125,0.16511819,-0.38117823,0.005706257,-0.0741259,-0.06579091,-2.059059,0.4050775,-0.055252448,-1.6438637,-0.64510596,-0.18034044,0.5604458,-0.014215683,-2.442713,-0.2049862,0.15343413,-0.06669903,0.09365837,-0.11596022,-0.04112452,-0.17536438,0.01605282,-0.001038657,0.04699604,0.03912087,0.043523204,-0.8325741,0.30284223,0.014071395,-0.4796248,0.061553832,-0.061096605,-0.034024276,-0.1270649,-0.10051294,0.07551974,-0.5739377,-1.0207472,-0.044145238,0.13371211,0.12859091,0.013706727,-0.04899658,0.07322605,-1.504228,-0.04389576,-0.1855514,-0.62623626,0.23203066,0.016207088,0.06388018,-0.62221754,0.062091287,0.053001285,-0.37535006
-0.06970289,0.5422694,-0.10055536,-0.6966424,-0.10457987,0.4362424,0.41797948,-0.056462415,0.12942158,-0.52365,1.172283,0.015000248,1.074437,0.580495,1.3545756,0.936323,0.14388035,-0.031218946,0.23019233,0.10220149,-0.648011,-0.7585951,-0.6687453,-0.12358719,0.029154241,0.98911154,-0.14293556,0.71668917,0.6298,0.24347053,-0.5834582,0.7410999,-0.063063435,-0.22525397,0.091216646,-0.03660497,0.013862351,0.6209924,-0.020482117,0.92753726,-0.5373446,0.2152591,0.025376193,0.58940756,-0.62077516,-0.87658966,0.06431341,-0.023084551,0.25498575,0.5175162,-0.49423718,-0.8367514,-0.009221227,-0.03435187,-0.30672804,-0.03221813,-0.015673809,-0.8568588,-0.2351609,0.40656838,0.11518076,-1.9031584,0.053511743,-0.4728033,-0.1086953,1.5615226,0.034263443,-0.23876251,-0.2731669,-1.4287521,-0.3172494,-0.12954593,-0.27635074,-1.2969456,1.1456913,0.40332344,-0.035420418,0.045648523,-0.9110641,-0.808739,0.04418753,-0.3852684,0.5044893,0.24519455,-0.25392872,0.15409787,0.43112573,0.75147814,2.2998712,0.10809954,-0.06585126,-0.08395494,-0.091883376,-0.86490023,-0.0011205048,0.013183038,-0.09364519,-0.07354779,0.20690407,-0.86831135,-0.0077634915,-0.058862306,0.08400868,0.11214119,-0.07572496,0.3264227,0.088514835,-0.42905372,0.05985298,0.22907244,0.27307934,0.07530656,0.11974933,-0.48063064,0.028163252,-0.115126826,-0.06839582,0.46378094,-0.45229214,0.6564309,0.61843455,0.21918951,0.010838695,-0.6055979,-0.30343604,0.103690624,-0.084252745,0.22501007
-0.10590695,1.2063727,-0.12148294,-0.08385194,-0.1067764,-0.03463913,-0.15851778,0.11391956,0.050197896,0.7242424,0.36366874,0.024516052,1.6323379,-0.3404406,-0.5430919,0.5602717,-0.008404125,-0.09590461,-0.03762699,0.09593179,-0.9215539,0.18272151,-0.037090458,0.09437624,-0.008117168,-0.39616972,-0.59051263,0.073787786,-1.0239786,0.13394937,-0.09949093,0.039726518,-4.569817e-06,0.48633987,0.7065929,0.050078444,-0.06899653,-0.5146321,0.010057652,-0.20745935,0.23963676,0.016108619,-0.12448821,-0.14508004,-0.08134662,1.5170984,-0.03460907,-0.06956923,0.22109878,1.2410363,-0.3254295,0.8766219,0.010935314,-0.022146078,1.679316,-0.063578546,-0.10865101,-0.66411877,-0.37762928,1.9076172,0.019046286,-0.11204105,-0.29824153,0.34116122,-0.0642613,-0.27789232,0.06267673,0.44178438,0.13733204,0.5412722,0.039748687,-0.13278411,-0.7097491,-0.44148657,-1.0671659,-0.42217118,-0.02045878,0.022865037,1.7078451,0.55382437,-0.10186795,-0.063063994,0.14843103,0.005273558,-2.6552734,0.092331424,-1.1969881,0.6718253,-0.7572375,-0.035800744,-0.047768682,0.10579006,-0.09730109,-0.1987437,-0.09275673,-0.015463925,-0.049997624,0.012278029,0.31978962,-0.37829882,0.174495,-0.09123505,-1.0618399,-0.11248365,-0.036305502,0.0038293041,-0.0026314978,0.43793994,-0.03990707,0.19849035,-1.3660614,-0.11356036,-0.24578154,0.4967476,0.08427356,-0.08903659,-0.09531854,-1.3360553,0.2771374,-0.19235745,0.09596806,0.42778653,-0.015459578,0.049734224,-1.07765,0.011730455,-0.029330324,0.17483109
-0.07971819,-3.1347067,0.09229361,-0.89433736,-0.07919698,0.037488244,0.05845143,0.54595387,-0.456982,0.09603795,-2.402776,-0.019244568,-0.4054882,-0.39315256,-0.2970684,-0.9910975,0.79140395,-0.05493008,-0.8344046,-0.080274135,0.062009346,-1.027055,-0.05047512,-0.016709713,-0.033799563,-0.0044828313,0.57841074,0.3479168,0.3792183,0.047147233,1.2829312,0.15834829,-0.076679915,0.0011933148,-0.13887113,-0.11567726,0.1120455,0.6315533,-0.12859254,0.095293805,-1.4085702,0.024311401,-0.10909179,0.4418803,-0.22669914,-0.26009017,-0.042954236,0.10935639,-0.6866522,0.032030117,0.5456118,-1.9474634,0.021829627,0.10856201,-0.12938184,-0.08584132,0.059425436,-0.1944072,0.06221836,-0.26201823,-0.052651577,0.83478165,0.2102347,-0.08161946,-0.0656879,-0.216822,-0.09816853,-2.4500768,0.075064786,-0.20387836,-1.2739357,-0.13206694,0.04413933,0.20731248,0.22094946,0.028176403,0.09527855,-0.03108419,1.1996132,0.15265097,0.033409826,1.0997678,-0.8883712,-0.23623064,-0.65942055,-0.2616491,0.35746717,-0.81304264,-0.0432732,0.008864552,0.6438041,0.0977134,-0.09375894,-0.18301095,0.106722794,-0.028731624,0.05157939,0.040387914,-3.047875,0.44176826,-0.015233021,-0.12385995,-0.0893457,-0.010697931,0.009854766,-0.023661694,0.082297236,-0.54677194,-0.052750126,-0.6389179,1.2262405,0.047521204,0.078405224,-0.23862155,0.06841758,-0.04382468,-0.10878777,1.1810757,-0.4100991,0.11671831,0.18613477,0.6210996,0.013528279,-1.5689173,-0.1231878,0.08562848,-0.010962825,-0.1960496
0.121610224,-0.12104806,0.059093386,0.04029879,0.08657876,0.03989747,-0.07431662,0.102692455,-0.06758052,0.07559526,0.057136834,0.10147813,-0.07674679,0.0020412803,-0.039022,-0.04670778,-0.04905796,-0.053476572,-0.07856575,0.0746797,0.088321775,-0.12323779,-0.07936132,-0.101852626,-0.06594479,0.098659456,0.090967596,-0.03417793,-0.035829484,-0.0017952323,0.1008603,0.04583013,0.045570493,0.038824767,0.09482476,0.011879146,0.07740608,-0.03368631,-0.093384326,-0.024024278,0.05213672,0.0035316348,-0.05708787,0.049078345,-0.0055609047,-0.06102246,-0.0066145957,0.06679499,0.05598253,-0.075056195,-0.026822269,0.050071537,0.09733093,0.118905514,0.07344994,0.088977754,0.087852925,0.057860434,-0.08113381,0.025678366,-0.10345617,0.099725395,0.10361305,-0.11866811,-0.016985267,-0.040415525,-0.08602157,-0.11867058,-0.005290121,-0.016984701,0.059334487,0.10968438,-0.08930257,-0.016314447,-0.1239458,-0.11724299,0.10024005,0.010526776,0.010561645,0.046874613,-0.042962074,-0.05807799,-0.045287788,0.11295733,0.009528279,-0.089954734,-0.006670743,0.02275157,-0.042954713,-0.039472967,0.057425797,0.04305941,-0.1209957,0.018709421,0.017069101,-0.021933287,0.00276196,0.055425316,-0.014689654,-0.11201188,-0.08638623,-0.048058122,-0.038206846,0.11958197,-0.12142256,0.028656274,-0.0145531,0.028266698,-0.00765121,0.04376325,0.067186266,0.067372054,-0.115615845,-0.095855534,0.09349325,-0.10658121,-0.048698246,0.07572344,0.07231775,0.07282856,0.0783636,0.09417713,-0.121644825,0.12349841,0.022405416,-0.116170466,-0.09141675,0.11397222
0.013277262,0.0859589,0.051392555,0.030149698,-0.08449811,0.021954566,-0.022370905,-0.03470725,-0.0032309294,-0.08060831,0.06272185,0.006370902,-0.08188531,0.013403654,-0.07108101,0.07417148,-0.10140306,0.069483936,0.09549263,-0.047073215,0.085909635,-0.09829977,0.10631955,0.08349046,-0.023403734,0.031146973,-0.05224645,0.09045452,0.02865094,-0.09977242,0.07994372,-0.0037947,0.027002662,0.036732018,0.005591899,0.01505059,0.05109042,-0.02800554,0.12309575,-0.06071669,-0.04257065,-0.019281417,0.11257112,0.020531148,0.08630192,-0.013018101,0.056761414,-0.07064542,0.020221978,-0.08904663,0.03245905,-0.07349086,0.031814277,-0.11807427,-0.094774544,0.10455337,0.04959309,-0.08333394,-0.07063496,0.011708438,-0.034354985,0.030374587,0.06246665,-0.05680126,0.024537295,0.06254274,-0.07776958,0.0743396,-0.050718725,-0.12200096,-0.05260855,-0.030287385,-0.12013605,0.0012066066,-0.062871665,0.11470917,0.124251634,-0.010177255,-0.08411044,-0.054944336,0.021929353,0.08009693,0.03226307,0.09090611,-0.050958246,0.124406755,-0.12488374,-0.0012941658,-0.005969316,-0.013635069,-0.089904875,-7.635355e-05,0.040605783,-0.012482733,-0.0750255,0.074236274,0.054020137,0.06795722,0.056491435,-0.112255245,0.0765506,-0.034219444,0.11223835,0.07554388,0.060948968,0.024159133,-0.074522346,0.04184383,0.025904655,-0.01805973,0.014500797,-0.09675774,0.11342847,0.007093519,0.020715237,-0.043500602,0.027915925,-0.052057743,0.05180928,-0.0029098392,-0.06973305,-0.03416857,0.09011155,0.10816467,0.0034823716,0.0419133,0.032347172,-0.083441705
0.030297706,0.6239874,-0.09506934,0.33076343,-0.03060322,-0.3944664,0.30616024,-0.28136185,0.51649153,0.44069573,-3.060231,-0.106967315,0.31010514,0.90769243,0.14951849,-0.4264403,0.47516066,0.0609618,0.3707862,-0.10581526,-1.0750592,0.05444892,-1.0581511,-0.08211315,0.10840617,0.057520576,-0.5285096,-0.6131383,-0.30551228,-0.38876626,0.5853834,-0.10726225,0.09765772,0.45107225,-0.08539343,0.08308413,0.12178745,-0.6300837,0.04604623,-0.61174375,-0.4356396,-0.014199232,0.08904447,-0.6553353,-0.17010191,0.70865124,-0.12079194,-0.010217172,0.21266954,-0.5256975,-0.17739964,-0.18310556,-0.0025172113,-0.108265825,0.40129292,-0.09182012,1.2268153,0.0716916,-0.066602275,-0.040046774,-0.13046327,-1.5295653,-0.38932917,-0.49941778,-0.050060615,0.29992548,-0.05867121,-0.1707547,0.25621945,-0.19049813,-0.92994136,-0.00049046916,-0.6212689,-0.32910284,0.41383308,-0.029130751,0.06413252,-0.13996248,-0.43322262,0.40541777,0.06651487,-0.46415088,0.087541245,-0.36822242,0.15342161,0.031825673,0.75747156,0.6829161,0.2633908,-0.08471006,-0.0011176764,0.02826183,-0.078722686,-0.047722045,0.10574424,-0.021068824,0.029420478,-0.021351289,-0.12967803,0.8418991,-0.7957849,-0.12428926,0.5887605,0.057056203,0.06445897,-0.19907495,-0.122142226,0.016815318,-0.122439764,-0.35441807,0.5547672,0.059218064,0.029631767,0.4089887,-0.09424257,-0.07208884,-0.08802388,0.0021594586,0.9194986,-0.3519115,-0.039127763,0.06806122,0.023810836,-0.037809554,0.7162981,0.07717324,0.0507845,-0.10753891
-0.016158286,0.38679287,0.08802446,0.39111468,-0.09234966,-0.015171468,-0.14431189,0.41207886,1.3369883,0.16592868,0.43845603,-0.14231636,0.00083721144,-0.08031097,0.032677613,0.08980998,-1.3605239,-0.12234335,0.07435593,0.010084832,0.08532106,-0.031771667,-0.025608454,0.0017813611,-0.012017197,0.028478805,-1.2480354,0.55513287,0.17795444,0.3357186,-1.8647381,-0.0046069142,-0.050497346,-0.028212516,0.5680982,0.028892256,-0.009344817,0.21545625,-0.08412651,0.016028374,0.10345899,0.13300048,0.029327558,0.33641043,0.008219187,0.7062647,-0.12865663,-0.008364975,0.3623775,-0.2141883,-0.019120794,0.28976277,-0.006938176,0.08770147,0.9926852,0.06212563,-0.23076262,0.018542029,0.058334008,1.0845371,-0.077067174,0.18699992,-0.53053254,-0.054921146,-0.096783474,-0.25631428,-0.13925691,0.3616655,0.0398994,-0.72873116,-0.008310968,-0.02308185,0.21534711,-0.121918716,0.10560305,0.019605681,-0.11673564,-0.07446352,-0.104697704,-0.46204454,-0.093413115,1.486081,-1.211076,0.17178643,-0.73000014,0.15208657,2.672055,-0.011026195,-0.20118569,0.053037375,-0.07376201,-0.011328904,-0.023606824,-0.13952608,0.10715579,0.003403249,0.09146174,0.016479224,0.31954688,0.34786457,-0.16511618,-0.037534848,-0.22305705,-0.072635934,-0.07758066,0.09225512,0.059382107,-0.03216325,0.043048665,-0.16634804,-0.48007146,0.020454591,0.027647495,-0.08234939,0.05699183,-0.05032883,-0.060756244,-3.144163,-0.17431416,-0.02207234,0.097115375,0.49693948,-0.07589577,-0.054200746,-0.72925884,-0.08467995,0.0014434288,0.21645187
0.09251528,0.079084635,-0.08340883,-0.078788035,0.053305414,0.00062776665,0.04273791,-0.118503906,0.07147781,0.062515035,0.011583656,0.1004619,0.0031660497,-0.07010159,0.118302,-0.022442652,0.029314738,-0.052906156,-0.010255525,-0.01658389,-0.032378674,-0.10160601,0.0979664,0.054506212,0.040403455,-0.015945936,-0.025361346,-0.114857435,-0.042572744,0.0651527,-0.010364117,0.059351698,-0.10668461,-0.02318546,-0.08055586,0.09511343,-0.061161816,0.09598258,0.06259029,0.059591997,0.051989265,-0.03290768,-0.085405976,0.07910535,0.07076583,0.094933905,0.06282526,0.09822592,0.1095622,0.1032316,-0.0931485,0.013396482,-0.07329899,0.043319583,0.053031605,-0.090236574,-0.032112755,0.08020604,0.038371153,-0.0057240175,0.01879856,0.0027111804,0.037250783,-0.032437027,0.08062056,0.041167613,0.021539534,0.06845205,0.06552533,-0.10773427,-0.05256304,-0.068655916,-0.028479673,-0.020302266,-0.07549063,0.039151717,-0.1102688,-0.10688758,-0.12079081,-0.1069851,0.0379164,-0.058296587,0.016492125,-0.01576466,0.08713759,-0.11665961,-0.05898228,-0.08722254,0.08977486,0.119345784,0.074828945,0.118875325,0.0027076602,-0.05497711,0.09641295,-0.09150711,-0.07682119,0.010923414,-0.013724762,-0.08659249,0.10049385,0.09332317,-0.109894216,-0.12156123,-0.05583342,-0.011398124,-0.061613172,0.082926355,-0.11129007,0.089010805,-0.08390465,0.06146053,0.095457524,-0.11945498,-0.026786178,-0.016299546,0.036806196,0.02984906,0.052556664,-0.012292387,-0.11844179,-0.12010678,0.117859125,-0.00983974,0.059774004,0.0117429765,-0.08191079,0.10536166
0.05585958,0.7533618,0.10199697,0.9264762,0.0998345,0.5436034,0.5994814,0.5767421,0.32780707,0.5209569,0.27778444,-0.06382159,1.2037138,0.72122926,0.012402909,0.5175292,1.0661045,0.012615102,0.7626803,-0.050350845,1.6059294,0.3867039,-0.027805435,0.022994995,0.054245237,-0.00018279772,0.43774214,-0.38034165,-0.0735602,0.08003752,0.08385952,-0.08948881,-0.10427422,0.19759883,0.40465084,-0.11716014,0.019846201,0.37517035,-0.0962066,-0.2674188,0.62905437,0.17541987,0.074065305,-0.50455225,0.32459965,0.54288447,0.016284823,-0.055296477,0.13852435,0.35679653,0.06015649,0.89595485,0.0030518125,-0.11614976,1.2864249,-0.11304062,1.006651,0.049111612,-0.166966,0.23202671,-0.047405757,0.20472609,0.5798528,0.71678156,0.033309843,1.8568906,0.09236238,0.45519316,0.6477932,0.22108965,0.15575373,0.013696407,0.34366068,0.0234168,0.7465969,0.3751146,-0.0998714,0.034715116,0.8891441,-0.009283026,-0.05715684,1.0378021,0.09063095,0.40094557,-0.40321198,0.514671,1.2856809,0.6796754,-0.52593994,-0.027825061,-0.08695245,-0.044848774,-0.06475326,0.10792797,0.03751003,-0.002726109,-0.054286513,0.015547033,0.6460681,0.17640081,0.19939893,-0.09238505,0.033490397,0.062331475,-0.10342463,0.19298205,0.05377075,-0.07661565,-0.03239603,0.50628275,0.8551962,0.04817795,0.010609738,-0.105837114,0.120192595,0.07246521,0.04592082,1.3319132,0.7011037,-0.17079614,0.08801208,1.1944243,0.031075304,0.7786935,-0.5551433,-0.058405135,0.09117886,0.36437097
-0.07206505,0.28033158,-0.10195953,-0.1269507,-0.07272331,-0.024932193,-0.036536764,0.057892013,-0.41279066,1.0768241,0.49871498,0.05795341,0.09602916,-0.052652374,-0.12344372,-1.3377303,0.8421059,0.08925278,0.2548173,-0.09968403,0.033312254,0.12398445,0.13446715,0.043089073,-0.09984417,0.052057996,1.8716284,0.17434935,0.14809333,0.08057846,3.3210745,0.18275894,-0.12516458,0.21170004,0.35217348,-0.051705334,0.011842352,-0.32914177,-0.11371503,0.07862158,2.7110934,0.052473385,0.034831386,0.003222472,0.0381849,1.2088015,-0.055621203,0.0503806,0.594683,-0.046773624,0.37354988,0.121747166,0.0017091278,0.05093317,-0.8443092,0.077317886,-0.11979029,0.29178628,-0.046443097,0.34197578,-0.13054654,0.11595916,0.3607246,-0.0588747,0.004848511,0.2531091,-0.1117686,0.19222017,0.05742771,-0.04080112,0.073939025,-0.006265436,0.03622113,-0.4832857,-0.5269195,0.03627689,0.083591245,-0.05584232,-0.7911172,0.42017114,-0.03711271,-0.16421387,0.36356536,-0.017846335,3.0884292,-0.101887435,-0.8658564,0.7674203,0.25927824,-0.10832891,-0.0451489,-0.061638754,0.059228163,0.2491314,-0.06815448,0.0012616934,0.016153898,-0.09282652,0.015877135,0.48170456,-0.27355233,0.06389123,-0.012951584,0.03063209,0.086913764,0.04800942,0.093197055,0.16079867,-0.02049669,0.57188386,-0.6561472,-0.0022376857,-0.045575313,0.017437557,-0.07054638,-0.110892974,-0.12739651,-1.3669748,0.42174226,0.121326864,0.23010512,-3.603348,0.08085567,0.07165243,0.163355,-0.12013472,0.04426446,0.15939824
-0.07628617,0.71847874,-0.0143664535,0.04894451,0.016667295,0.016741209,-0.31132442,-0.5987811,0.0012064378,0.1325673,1.5919411,-0.09534717,-0.022205532,-0.14515156,0.15447357,0.2494996,-0.52028173,-0.018207742,0.21991631,-0.045121334,0.122354895,-0.14044406,-0.24540949,-0.038816594,-0.10832557,-0.14351004,0.4337168,0.32871598,0.07951963,0.18640645,1.0182958,0.0448415,-0.09839481,0.20099396,0.015694465,-0.12144455,-0.04071276,-0.15648508,-0.052070178,-0.017750058,0.07918454,0.13509691,0.102265924,0.51407707,0.1210203,0.1961036,-0.07517615,0.1002188,-0.008138076,-0.54690176,-0.39946342,0.09263225,-0.020844478,-0.07704407,-0.5582718,-0.12903883,-0.34265116,0.06506728,0.10399034,0.22147341,-0.10341814,0.40383345,0.026970686,0.12613337,-0.12213281,-0.5091121,0.03546809,0.31002074,0.081511386,-0.51976883,-0.07293552,0.02095053,0.085172884,-0.19139361,-0.08317776,-0.058667284,-0.07320115,0.04180865,0.37216115,-0.45047194,-0.03650758,2.2609558,0.20662712,0.025163287,0.054042943,0.19675528,-0.20704235,0.062706396,0.0051095486,0.099737756,0.011568678,0.014037413,-0.04334024,-0.23665889,-0.040498976,-0.0305316,-0.04202743,0.10171977,0.7339388,0.3880235,-0.3444395,0.10441287,-0.120671585,-0.088512115,-0.07447433,0.23009406,-0.0053143105,0.120949626,0.018257521,0.063238956,-0.45328006,0.06502168,-0.10055139,-0.38286626,-0.047115292,0.10038137,-0.03170998,-0.95704734,0.2143516,0.5267917,0.10886322,0.44680616,-0.12929918,0.07849043,-0.015181491,-0.042376123,0.06511879,0.49991933
-0.020151218,0.16356908,-0.13287336,0.35989317,0.03730816,-0.015601342,-0.057719424,-0.32766327,0.66500545,1.7031908,-0.68387,-0.12958717,0.196667,0.4024546,-0.10055962,3.2436953,0.29435077,0.0071462966,-0.34662345,-0.033262275,-0.19063278,-0.04343565,0.04779895,-0.087246165,-0.1276665,-0.8824637,0.31451154,-0.2988345,0.03438259,0.09058216,-0.09852677,-0.13055386,-0.056896,-0.004953635,0.40612218,0.029462565,0.10256007,-0.59911394,0.074306265,0.1095554,1.4797875,-0.04666495,-0.11720718,-0.82942295,0.33644855,0.15319154,0.049359657,-0.08815649,0.2766742,-0.25936195,-0.71247023,2.1189108,0.003821903,0.0387546,-0.8801459,0.07717275,-0.21893777,0.060044914,0.25409922,2.5468462,0.049437545,-0.23295818,-0.10004146,-0.2046559,-0.029941408,0.07689776,0.050148528,-0.8019849,0.22691241,0.04708607,0.14240402,-0.04818015,-0.028099375,-0.012695301,0.543038,-0.2006449,-0.11885527,0.031100541,-1.0839175,0.14111464,-0.034941267,-0.77268285,-0.10231568,0.60877234,-2.7407165,-0.06547555,-3.1621187,0.4777485,-2.5550153,-0.11122235,0.17998347,-0.0055398596,0.067610584,0.08165112,-0.050352067,-0.006164356,-0.06819889,-0.13357885,-0.28795406,-0.31009448,-0.26602465,-0.09484646,-0.18140635,0.0051552267,-0.12328211,-0.105323546,-0.071060956,0.027814966,-0.12110084,-0.92070085,-3.6713111,0.025397161,0.074868806,-0.13355824,0.09039783,-0.008425314,-0.011658854,-2.6171381,0.8649572,0.19327743,0.19371553,-0.14162163,-0.110232666,-0.26979485,1.6474887,0.020865185,-0.11587662,0.040709138
-0.115367964,-0.24362601,-0.038359802,-0.13342862,-0.059073493,-0.27683887,-0.0003543113,0.5474027,-3.0431097,-0.6275864,-2.3674486,0.0393142,-0.0024442328,-0.11661709,-0.08871272,-2.012569,-2.3837988,-0.114176914,-0.605056,-0.009473054,-0.34548616,0.11841702,-0.013653891,0.051797878,-0.10711142,-0.15441254,-2.1260724,-0.1844051,0.24933127,-0.012800097,-0.11786525,-0.18704732,-0.057295654,0.058037065,-0.36372903,-0.070316814,-0.03919479,-2.5753255,0.08386589,0.009831033,-1.943733,-0.16612385,-0.0030359924,-0.35014948,-0.22701922,-0.96822715,0.038145553,-0.029013308,-0.88766265,0.1946276,-0.98097825,-0.60357416,0.008582712,0.082908265,0.13053979,0.007793193,-0.30418235,0.055727072,-0.024551976,-0.14622715,-0.06628634,0.23442595,-0.29551345,0.15593621,0.029133782,0.40587422,-0.053967513,-0.0761719,-0.37538892,0.07835469,0.031563103,-0.121846005,-0.004271318,0.23881006,-0.19821033,-0.05634215,0.024767213,0.06800025,-0.55498797,-0.52809864,-0.07535369,-0.82099116,-2.3594074,-0.42703107,-5.4097853,-0.09375238,-0.61055773,-1.2668747,0.010027909,-0.066217184,-0.0150298355,-0.1338036,0.025938539,-0.03902701,-0.10614041,0.004902027,0.05005639,0.054062627,-0.22747655,-1.0808638,-0.3418449,0.09425845,-0.15705557,-0.04041312,-0.028257487,-0.22081481,-0.106959574,-0.13500291,0.03152961,-0.40339056,-0.095646486,0.02191961,-0.08967272,0.08522507,0.070313334,0.03367039,-0.017060887,-1.1303157,-0.6676398,-0.039847154,0.10381629,1.4044095,-0.05974833,0.18659051,-8.088566,0.029984009,0.069215246,-0.3656421
-0.06621994,0.5190272,-0.05649531,-0.057678755,0.10207364,0.20978405,0.66384816,-0.55095357,0.283164,0.38828892,0.53990793,-0.10429058,-0.08726169,-0.42031887,-0.025165549,0.4520019,0.53204364,-0.05385348,0.5484481,0.07018477,-0.46322757,0.42462087,-0.28858867,-0.10574177,0.107376024,0.29013932,-0.0009769653,-0.5482637,-0.046310075,0.020183722,-0.26965284,-0.6491086,-0.115504645,-0.33185577,0.29736134,0.07263178,2.0944586e-05,1.0370951,-0.04331142,-0.016419783,0.2203467,0.13377331,0.009681211,-0.11902345,-0.4026916,0.76522917,-0.111563385,0.03183304,0.068631835,0.38545346,0.9194155,-0.098051876,0.0013462437,0.061878912,0.47286445,-0.106049575,-0.214148,-0.31185892,0.14129268,-0.39934978,0.03807392,-0.6330781,0.4222499,0.51823753,-0.04232125,0.1923814,-0.10660882,0.388921,0.03867877,0.21832384,-0.17270933,0.08374773,0.39052197,0.9643872,0.33179772,0.16567259,-0.020943552,-0.049247075,0.93045914,0.03484858,-0.13792716,0.42554063,0.7041117,0.29526517,0.9883324,0.23715596,0.5316311,-0.51731247,0.75935334,0.08726243,0.098413736,-0.015915493,0.089216836,-0.050420947,0.10754165,0.010439522,-0.117846526,-0.058627073,0.43522185,-0.25384343,-0.20394076,-0.011370931,0.15372556,-0.07936906,-0.06994518,0.3307676,0.063973665,-0.14514275,0.09403775,0.83997154,0.48437962,0.0017938481,-0.02565942,0.4005845,-0.038899735,-0.061279934,0.11047386,0.2564818,0.37571985,0.044773605,0.089380376,0.8398112,0.051218327,0.68068063,0.93329877,-0.12721989,0.10724816,0.5299188
-0.053460263,-1.7303275,-0.036373448,-0.36167207,-0.13224393,0.013671976,0.41117817,0.2515918,0.39562595,0.15248781,-0.9704163,-0.039516572,0.38888437,0.32393405,-0.21042556,0.16285567,-0.08779609,0.08450913,-0.35028294,-0.12095262,-0.32743415,-0.21520062,-0.056100518,0.057185918,0.01886724,0.26773056,0.5610622,0.026757486,0.15548548,-0.024645159,-0.021881267,-0.24746849,-0.106481686,-0.08452945,-0.53934026,0.093612775,0.06729504,0.11247433,-0.011747254,-0.019294992,-0.047950465,-0.08373608,-0.0414801,-0.8956418,-0.052922312,0.08005297,0.034757722,-0.11499514,-0.46587625,-0.058375504,-0.21239217,0.06635387,-0.0053173546,-0.07086843,-0.22838162,-0.023932682,-0.11899631,0.42028278,-0.053586695,0.3052907,-0.08153011,-0.0839207,0.28245613,0.3455931,-0.04110396,0.1817444,0.08615171,-0.6899793,0.05264096,0.7057005,-0.9162949,0.022783302,-0.046127703,0.18191595,0.13787965,0.014050297,0.088006906,-0.016510779,0.007440557,0.16234528,0.048159298,-0.10266043,-0.53498083,0.0439245,0.2772773,-0.01527426,-0.18339637,0.34849802,0.3121448,-0.066676475,-0.19819055,-0.07589077,-0.1229151,0.2711611,-0.042869292,0.011699994,-0.05144501,-0.050001804,-1.6399944,0.024948806,0.024107013,-0.0075545423,-0.24930556,0.042525,0.024059426,-0.0119122155,0.0940965,-0.3693789,-0.109781235,0.228623,-0.28838056,0.06241483,-0.33106124,0.5291043,-0.10522141,-0.08065431,0.0025351578,-0.3714736,-0.14809968,-0.48938122,-0.20762746,0.01974209,-0.011797265,0.10016151,0.2759933,0.101130076,0.028446091,-0.3079059
0.016695196,-0.36545822,0.026377065,-0.6352301,0.012638216,-0.06076872,-0.06443622,0.14552973,0.09611189,0.12424067,-2.21496,0.0041127303,-0.019190796,-0.17623569,-0.015121025,0.021666573,-0.0108926445,-0.07847836,0.24797317,0.058488008,0.1217486,0.20852369,0.11086229,-0.04501927,-0.083892554,-0.024118293,2.119042,-0.14002296,-0.20746194,0.03349014,0.10749214,-0.029167965,0.03780201,-0.16541289,-1.2635858,-0.02590436,-0.014309261,-11.019067,-0.1358112,0.030649744,0.026427073,0.014063644,-0.12009858,-0.5689285,-0.030532517,2.4921968,-0.046103343,-0.020955859,-0.5209786,-0.20033957,2.3220801,1.1494998,0.0017719156,-0.11030005,0.08167803,-0.008233063,-0.13547824,0.08998624,0.943185,-1.2387928,-0.05861069,0.023356058,-1.7120422,0.018187348,0.04849039,0.10200503,-0.065427914,0.39726767,-0.18041019,0.064583465,0.062285762,0.10248352,0.038296796,-0.27217767,-0.84513396,0.004738218,-0.10350356,-0.056658857,4.3710666,0.7426028,0.030715682,-0.0018717352,0.21342984,-0.56254745,0.033368476,-1.4689198,-0.102096744,3.339089,0.086506344,-0.0014876723,0.51407003,0.03426818,-0.13495156,0.17148496,-0.026018012,-0.004192828,0.07812575,-0.09643106,-0.10540543,-2.5932105,-0.013060356,-0.022934819,0.64011365,0.014805785,-0.033826467,-0.011272256,-0.077004865,0.19834408,-0.015098357,-0.747086,-0.024222612,0.029193692,0.9475944,-0.09268411,0.08285423,-0.14950794,0.07054016,0.045056727,0.727572,0.18617207,0.18146516,-0.14948088,0.038828418,0.2112583,0.15715383,0.02547509,-0.11026951,-0.11843173
-0.12810473,0.025737297,0.0284201,0.09017227,0.05483885,0.20617938,-0.19189769,0.066291235,-0.9866801,0.003058831,0.00520863,0.020193912,0.3139919,-0.01195363,0.12334412,1.4291672,-0.2578891,-0.09845726,-0.1827889,0.11463176,0.21301772,-0.007805656,-0.026864754,-0.08364602,-0.05793428,1.7327186,1.066169,-0.44320953,0.15410495,0.64324445,-0.16817392,-0.37530807,-0.10169487,-0.4391933,-0.093326755,-0.046831377,-0.029999496,0.3113207,-0.026468283,-0.010446738,-0.10674477,-0.0068849353,-0.12551887,-0.3029169,0.19815774,0.33421463,-0.048147097,-0.12664822,-0.14442077,-0.24153684,0.16506265,0.2819294,0.002650033,-0.08987064,0.5909901,-0.0349429,-1.644835,0.0027801013,-0.12116142,0.37252674,0.0486593,-0.2354574,-0.15147375,0.68339455,0.036738046,0.8325816,-0.08470033,0.08631162,0.05463496,2.7818365,-0.004686101,0.07681357,-0.44642714,0.5017234,-0.2974242,-0.45779085,0.04505675,-0.12193648,-0.01828127,0.019196829,-0.112166785,1.3392178,-0.5008779,0.06682956,-0.02048573,0.025637923,0.6947755,-0.08506549,-0.87892675,0.117490485,-0.035373718,0.0063554337,0.04719724,0.13524756,-0.04541408,-0.006970615,-0.10139081,-0.025558222,0.038930707,1.7876806,0.96065396,-0.046450164,-0.17491743,-0.030625511,0.071159735,0.037310492,0.047103018,0.10690988,0.010281953,-0.2684019,-0.9255335,0.06978791,-0.0073852316,5.3944526,-0.055143982,-0.04510129,0.09846432,0.20042795,0.09534507,-0.13512564,-0.29841596,-1.1480973,0.051542107,0.11329426,0.52850366,0.10770387,0.06523657,-0.3575501
0.07861889,-1.2882371,-0.0977572,-0.035394643,-0.052270737,-0.16069554,0.62322974,0.09706738,-1.2777876,-0.08215146,-1.090534,-0.037291896,-0.3576143,-0.68152946,-0.63784313,-0.40542844,-0.37781364,-0.08711457,-0.07360592,-0.1112846,-0.16402303,0.30722892,0.8468195,-0.090063766,-0.06916329,-0.21634825,0.4215942,-0.3808799,0.15647742,0.08654466,-0.47185117,0.11587868,-0.06050906,-0.20398608,0.32227993,-0.071795225,-0.04981372,0.14358038,0.087277986,0.8132209,-0.19046341,0.064328045,-0.023396624,0.15918842,0.18573064,-0.060789187,0.11252988,-0.12095694,0.11098711,-0.12889205,-0.28466174,-0.113347724,0.0011075053,-0.11465308,0.32061103,-0.015596299,0.5993456,0.27183172,0.34945136,0.29969606,-0.0645161,-0.39367214,-0.4064249,-0.7038032,-0.08956947,-0.7597547,-0.07297428,-0.501497,0.16141285,0.7594331,1.2219437,-0.13294657,0.6163204,0.30685377,0.33389962,-0.14450566,0.005038748,-0.0834487,-0.29629055,-0.5901642,0.004180008,-0.008920454,-0.39191842,-0.20035386,-0.34014702,-0.28867716,0.0706182,-0.58073616,0.5740879,0.059301935,0.28153184,0.024877189,-0.012195896,0.18181242,-0.13814114,-0.013744573,-0.08631949,0.008561976,0.21651334,0.4783789,0.65728337,0.03793236,0.05611723,-0.08881629,0.06968473,-0.07294832,-0.03683443,-0.05728126,-0.0587488,-0.3781028,0.3372572,0.055519912,-0.009044994,1.0290334,0.04167845,-0.029505048,0.008464917,-0.2088726,-0.026116636,0.53239995,0.39284036,0.131938,-0.008661482,0.11953644,0.7516472,0.04724603,-0.04148435,0.076448455
-0.11522186,0.6398033,-0.05962062,-0.17743206,0.056630164,0.24792655,0.57112575,-0.17854019,0.25413278,0.2951935,0.68064374,0.076816894,-0.54602873,-0.020748878,-0.055992708,0.3569743,0.23044465,0.018067688,0.17131513,-0.047389865,-0.29409027,0.24468417,-0.048848365,-0.046618726,0.05774085,0.35904157,0.30292445,-0.037113175,0.27029762,-0.068885304,0.11648801,-0.09926496,-0.08590208,-0.1602687,0.19365183,-0.034807056,-0.12409906,0.6423633,-0.11800192,0.19662626,0.29438457,0.2689824,0.070138946,-0.45906565,-0.31196055,0.68175954,-0.08532965,-0.116615914,0.7428842,0.5012024,0.68247414,0.06825271,-0.0023417305,0.04850019,0.18043788,-0.029762216,0.010634305,0.032212906,0.028298093,0.53852636,-0.0968084,-0.17289105,0.29850212,0.038802404,-0.0025242146,0.6285573,0.042004224,0.4606677,0.033723183,-0.26362717,0.0146791,-0.083037674,-0.017562598,-0.0050785933,0.78562987,0.23751801,0.04991272,0.075913675,0.64073026,0.5225943,-0.041664857,0.25618944,0.61752063,0.42699996,0.7238013,0.13860503,0.3567277,0.8581051,0.8345306,-0.08821493,-0.010503334,-0.08797881,0.105521865,-0.052686125,-0.060427133,0.013120051,-0.11055565,0.018600885,0.35417062,-0.12080051,0.2928352,-0.011105306,0.26194873,-0.12256196,-0.082695134,0.24023259,-0.070682436,-0.17063846,0.05495784,0.18932934,0.28795165,0.06333902,-0.30569446,-0.4146685,0.0027528051,-0.10481719,-0.0055291937,0.2129656,0.8165391,-0.11538575,0.4433338,0.60803264,0.005614474,0.30071485,0.58959377,0.090654634,-0.0172498,0.40808415
-0.047664974,3.0118558,0.04760155,-0.35820308,0.090320304,-0.054508645,0.06335351,0.12369231,-1.8055733,-0.10374609,-0.6543708,-0.17246121,0.052024897,-0.30911186,0.26001912,-0.3469316,0.009185948,0.091789745,-0.08173985,-0.0021575245,-0.11120115,-0.012215878,-0.18908034,-0.10142398,0.068932034,0.10372422,-1.59565,-0.06635276,0.12727152,-0.01166642,0.07115883,0.3807513,0.0031103422,0.6066766,-0.069850326,0.07607379,0.106357686,0.08153324,-0.004690113,-0.062316846,-0.8153177,-0.45409325,-0.0018017761,0.15652916,0.25477302,0.29401115,-0.0005930941,0.071184956,0.2741579,-0.6976065,-0.14104383,0.21315227,0.0016282331,-0.12108706,0.18637636,0.107892014,0.0017612411,-0.15997748,0.17613098,-1.0436898,-0.12668097,-0.20120667,0.62464416,-0.5637038,0.054248262,0.08915415,-0.11256305,0.26277736,0.27947834,1.6466625,0.08033318,-0.049953006,0.3168214,-0.30325252,-0.13207808,0.04101403,0.011315757,0.028947124,-0.09410501,0.6872482,-0.045825616,0.1599687,-0.68201184,-0.026609823,0.71173054,-0.023819156,0.06658943,-0.11631799,-0.22459869,-0.07132846,-0.082524225,0.040776525,0.052720618,0.10024215,-0.105390206,-0.0005000652,-0.04984134,0.053224478,-0.7346083,-0.56538874,-0.020860083,-0.042820424,-0.29382235,-0.07085239,-0.0013406698,-0.22598442,-0.11227158,-0.10855186,-0.080794945,-0.37507892,-0.3089235,-0.020244664,-0.21630867,0.6567662,-0.0689089,0.024298903,0.110849954,-0.4043143,0.36506504,-0.13793379,0.06424351,-0.19798799,-0.11427428,-0.4787355,-0.24871194,0.047987975,0.029287377,-0.05893547
0.08995053,0.052421093,0.057569653,0.1124711,0.109692186,0.023524761,-0.032112867,0.06419408,0.027244419,0.029442906,-0.085534066,0.07935482,0.07970098,-0.095623076,0.07620576,0.006171316,0.05418992,0.04843253,0.06711888,0.102413535,-0.09964779,0.05628258,-0.08881837,0.04355979,-0.11103523,-0.078029275,-0.06148106,-0.021936834,0.09679437,0.048771232,0.01957196,0.0058064163,-0.057932556,0.08778864,-0.10659024,-0.040860236,0.024151534,-0.10708749,0.10693404,0.036098838,-0.06680259,-0.10899767,-0.005644411,0.058265448,0.045483023,0.09482947,-0.050399303,0.040917903,0.08785066,-0.0972752,-0.08682701,0.103667974,0.049335986,0.02849695,0.042300552,-0.07467738,0.12320396,-0.09947336,0.048760593,-0.013448,-0.07222974,0.0081575215,-0.060174406,-0.075663775,-0.004312098,-0.062479973,0.122789145,0.096764475,0.10496184,-0.077598095,0.053346455,0.03278479,0.112519056,0.050246686,-0.009139121,-0.08868003,-0.065101385,-0.026111335,0.077727586,0.07895842,0.02539438,0.049440384,0.09508741,-0.0483163,0.0405657,-0.037219346,0.0019693673,0.035435915,0.018499762,0.021452427,0.06578967,-0.03042233,0.10762969,-0.07756981,0.00043782592,0.089068025,0.09126812,0.07023534,-0.09341034,-0.07830486,-0.07975295,0.057184815,0.041757762,0.023182571,-0.07380852,0.05320078,-0.031986862,0.010786712,-0.11279023,0.09462193,0.045684755,-0.042200655,-0.07790792,0.030182183,0.08055854,-0.020464033,-0.08770472,0.10642037,0.10715452,-0.03106615,0.0444369,0.0054689646,-0.05843851,-0.116268575,-0.006909102,0.040798843,-0.11800942,0.04377857
0.013237722,-1.5944561,-0.00548923,-0.23894921,-0.011011663,-0.5743082,-0.642027,0.6490588,0.66549134,0.023158228,-2.1881084,0.027751086,0.002709512,-0.20942129,-0.72373396,0.2783764,0.30393493,-0.07894504,-0.43020332,0.11424914,-0.27562317,-0.7356475,1.5554063,-0.07978538,-0.06983881,-1.2291529,-1.2899781,1.8736787,0.2986395,-0.5257424,-0.91279036,-0.54645807,0.0128549,-0.2704454,0.8130307,-0.110838495,-0.09489736,0.69359785,0.027412707,0.92156136,-1.3870803,0.09072691,-0.011581748,-1.9004458,-0.4707661,-0.14829637,-0.059557885,0.07772332,-0.29802415,-1.3892689,0.590424,-0.40329096,-0.0015700996,0.0723231,0.20458569,-0.05659915,1.8370651,0.15194464,0.7426172,0.86131924,0.0937199,3.0270946,-0.3224359,-0.26482075,-0.12527841,0.84644485,0.056802053,-0.8190743,-0.07213664,-0.50483114,1.8175141,-0.10715748,0.49111077,-1.4097931,0.6102384,-0.39975,-0.06724486,0.028714014,-0.39824858,-0.6479732,0.081426606,0.41822705,0.52478653,-0.19695672,0.5714486,-0.087343596,-0.49168932,-0.69180965,2.6268857,-0.1104303,0.35839754,-0.073192485,0.0717505,0.8539596,0.04693392,-0.0034715768,-0.052811857,-0.007086681,-1.0606878,-0.3255817,-0.72711456,-0.01618513,0.0058214897,-0.0784449,-0.11134161,-0.34678108,-0.03801295,0.3821393,0.062017985,0.039892998,0.49006337,0.04677967,1.1762414,0.69124293,0.050982237,-0.11075145,-0.0052177142,0.39783934,0.31768507,-0.8901824,-0.20825769,0.23451889,0.09851849,-1.0610209,0.47858408,0.05834628,-0.10421885,-0.18833287
0.1181432,0.47480196,-0.1186474,0.93313473,-0.06696304,0.24260382,0.91602653,-0.48333272,0.39676538,1.1449727,-0.19150202,0.10439022,-0.24346103,-0.32338983,0.089050196,0.67731243,0.5599581,0.09446809,-0.05687193,-0.0002706647,-0.43559498,0.75143087,-0.26874557,0.022755533,-0.06900236,0.27426046,-0.11145373,0.06937384,-0.35973552,-0.07681205,0.31337172,0.6288534,0.08035351,-0.23007046,0.27383724,-0.021262169,-0.04417507,0.1968026,0.06966761,-0.055203218,0.5033,-0.13414958,-0.10984231,0.47729564,0.03350461,0.98608553,0.062655985,-0.03465643,0.72929454,-0.42703187,-0.1220619,0.31686383,-0.00017391169,0.07064151,0.5263838,0.091150135,1.5098088,-0.13287546,0.14123556,0.893176,-0.1292874,-8.946022,0.400521,-0.38178557,-0.07212485,-0.06920917,-0.12612528,0.13207465,-0.03924538,0.46256235,-0.194197,0.01780977,-0.35827264,-0.5167359,0.0067924233,0.82444847,0.09156069,-0.050582547,0.353312,0.72906476,-0.016222874,0.8057294,0.043035887,0.11264617,1.3044983,0.24340262,0.834388,0.7929905,-0.2966706,0.11085296,-0.054613557,-0.0026795021,-0.07304056,-0.32068485,-0.004316299,0.01122221,0.0016818345,0.009313704,0.19762541,0.798006,0.51318884,0.10975047,-0.27746367,-0.081071734,-0.049108926,0.052182782,-0.117040634,-0.49816367,-0.08746332,0.43660486,0.8971659,-0.13306199,-0.59316844,-0.27503136,0.06214744,-0.08929945,-0.083651185,0.62851053,0.143656,0.2612056,1.0482078,0.88959986,-0.0061077774,0.620854,0.21726687,0.04331693,-0.07374053,0.4348469
-0.08835529,-0.11228852,-0.12408525,0.877454,0.08819552,-0.08196445,0.10425877,0.12320817,-0.26954052,0.7587987,-0.91903234,0.003686555,0.0014339443,0.25135142,0.30332157,-2.2658083,-1.0610687,0.013983239,-0.4248469,-0.01729254,-0.1816254,0.2485307,0.075215116,0.045117725,0.08853509,-0.6525182,-0.1188513,-0.24752744,-0.023180565,0.50837046,0.0038104234,-0.100922726,-0.13428289,-0.07876563,-0.051378217,-0.07005052,0.08241293,-0.41286862,-0.1507762,0.03304096,-0.60102427,-0.13563131,-0.11550088,0.43393114,-0.21606676,0.24443848,-0.03768263,-0.08704107,-0.6626766,0.5605411,-0.47797367,1.0831017,-0.01988385,0.08085084,-2.892099,0.05031169,-0.08632854,0.031738184,-0.05300306,-1.0852792,-0.04809736,0.03585788,0.026763618,0.28689554,-0.035383757,0.12706567,-0.08302771,-0.40446007,-0.29237494,0.39723614,0.17567605,0.084177986,-0.20233366,0.26640454,-0.7174551,-0.13599819,-0.10964825,-0.09051594,0.95399266,0.36707053,0.034220252,1.4426064,-0.8555392,-0.23530482,-0.9102641,-0.043536305,3.452284,0.029109208,0.56637156,0.041723423,-0.012539437,0.039437946,-0.03461883,0.15778299,-0.030699236,-0.03327477,0.09694601,0.032950178,-0.034528434,-0.005154232,0.034788333,-0.07968254,0.28474465,-0.124885865,-0.020997217,0.041956645,-0.07857505,0.1131869,-0.004597278,-0.4120014,1.3989238,-0.05107144,-0.15435664,0.8913713,0.010633802,0.010094291,-0.02608847,-4.1705074,0.20389879,-0.47303802,-0.2249735,-0.18780674,-0.053111758,-0.07966711,-1.2431257,0.04423724,-0.10490493,0.05253165
-0.024564154,0.09422641,-0.0012717247,0.03987498,-0.06963428,0.08368905,-0.106469996,0.06497347,0.049425375,0.09762107,-0.074638546,0.027946621,0.068598285,0.011595964,0.12424609,0.0045144176,-0.033505328,-0.089143194,0.0626761,-0.02950719,-0.12252321,0.08151999,-0.027635995,0.1139507,0.10941974,0.048916288,0.01638188,-0.11010513,-0.066616885,-0.11623505,-0.05566408,-0.10812067,-0.07508711,0.05397155,0.030391352,0.01686567,-0.07158041,0.09159245,-0.021770088,0.11520581,0.06855249,-0.028380902,-0.024815796,-0.0384371,-0.043235887,0.025577856,-0.08712453,-0.11401894,-0.08616321,-0.09629059,-0.0049304673,0.11810096,0.00023665579,-0.10201129,-0.037859246,-0.10147011,-0.05658731,0.011490616,-0.02634321,-0.06599292,-0.12436196,-0.034896765,0.017697114,0.108810514,0.06315929,-0.015752371,0.08507318,0.05454972,-0.07177393,0.111325406,-0.0017369308,-0.065048605,-0.0177884,-0.037924904,-0.09505621,-0.057294097,-0.04358688,-0.11160046,0.03644854,-0.017904747,0.092010595,-0.039780527,0.10613504,-0.12326648,-0.07701957,0.050431106,0.066052385,0.026715513,-0.0617884,0.07847357,0.039721098,-0.121139556,0.08527659,-0.015573718,0.050538927,-0.046122864,-0.08946702,-0.012865743,-0.04053677,-0.08106863,0.03168425,0.112688534,-0.12151104,-0.119813055,-0.07660908,0.08770226,0.117622316,0.08973671,0.112894356,-0.08571476,0.0575741,-0.0383678,0.110749036,-0.09262756,0.021873057,-0.11868873,-0.01273948,0.04454658,-0.04997002,-0.07613216,-0.08879862,0.091550775,0.067801826,0.08260833,0.1106337,-0.09386066,-0.06765315,-0.0061850795
0.04750463,0.25137988,0.10289146,0.09155241,0.09560913,-0.23423283,0.096940555,0.31582183,-0.8672748,-0.37505308,-1.9707361,-0.06384114,0.1628633,0.76844406,0.45870978,-5.391128,0.68216115,-0.1301051,-0.059773933,-0.095071,0.02378569,0.107756406,0.2344838,-0.12791945,-0.038582567,-0.8950045,-2.0464044,-0.16692956,-0.25318062,-0.020476758,-0.12368378,-0.08127764,-0.106904656,-0.097467154,0.18196757,0.057341702,0.08281183,-0.92963296,0.01037981,0.1580028,-3.3389637,-0.08316391,-0.047042213,0.49636865,0.17415653,-1.3818835,0.05431085,0.018614804,-0.4299717,-0.11216946,-0.8409459,0.04123962,0.037374698,0.06204005,-1.1059191,0.014251075,-0.011762296,0.42660004,0.17883402,0.44824308,0.06370595,-0.12836444,0.052675333,0.009219433,-0.12859754,0.42630407,0.08710348,-0.12289241,0.049322616,0.5217107,0.17735462,0.05894624,0.40322575,-0.016037025,-0.09741385,0.09333431,-0.021669602,0.016264707,0.52671176,0.27719077,0.08672386,-1.2597499,0.23964766,-0.43105215,0.616183,0.24986559,1.1069695,1.0664973,-1.2241848,-0.07802446,-0.0011804805,-0.19917664,0.057712007,0.26172101,0.07689926,0.026046509,-0.1536833,-0.0128747905,0.040570315,0.849098,-0.3794294,-0.13094628,0.14364317,-0.04844365,-0.06640489,-0.3098579,-0.04110553,-0.13739637,0.03158589,0.12805197,-0.4934018,-0.05164413,-0.2865428,0.7175376,0.02742361,-0.049794327,-0.0981351,1.2712082,-0.2833266,0.18795854,0.027085533,-3.7501342,0.057196613,0.2409599,0.80407995,0.03147529,0.0029503724,0.34100476
-0.10191437,0.22297521,0.07472128,-0.5297367,-0.069723055,0.7023949,-0.19846131,0.1955811,-0.015331358,-0.6165003,1.4802477,0.033793263,0.34338588,-0.31037283,0.44565275,-0.3673653,-0.016738404,-0.044270717,0.24082844,-0.113458425,-0.41317672,-0.2203472,0.07216463,0.051187605,-0.110415734,-0.052809156,0.45259792,-0.45509744,0.37684134,-0.15527287,-0.32192054,0.062282,0.007817278,0.20419143,0.0032397106,0.023560941,-0.07833657,-0.27824408,0.07334486,-0.08589621,0.7038708,0.37783924,0.0052599227,0.5960583,-0.5423636,0.45402715,0.0022761822,0.04827779,-0.66353315,0.096811734,-0.7034916,-0.017029662,0.0009895847,-0.064975224,0.19261725,0.08281716,0.3987646,-0.85831374,-0.16926813,0.076380506,0.036581825,-0.036111843,0.13267766,0.31076252,-0.041577764,-0.77386683,0.05432782,-0.19694366,0.5912704,-0.17361023,0.20226137,-0.11904327,0.55108637,0.33679566,0.18904762,-0.06933816,-0.008887321,-0.016876519,0.6600982,-0.3637346,0.04597435,0.6995803,0.2445182,0.23048282,-0.36611348,0.1416942,-0.49177915,-0.24513607,1.07093,-0.093289524,0.0033271778,-0.054971203,-0.03090681,-0.8639967,-0.06970206,-0.011691608,-0.041517105,0.08115188,-0.052679073,0.2696463,0.5441221,-0.13025147,0.17716369,0.045491282,-0.1260388,0.15212056,-0.004448265,-0.21793857,0.06677124,0.0362014,-0.011704386,0.057139996,0.07759805,0.37001637,0.057794668,-0.003281474,-0.08963368,0.6859784,-0.37021062,0.44818953,-0.31525692,-0.2869482,0.019559126,-0.1356935,0.1950995,-0.11730031,-0.009520249,0.2579837
-0.039652172,0.44106546,-0.12653627,-0.65664846,0.028562998,-0.027813965,0.058678925,0.63019305,0.039057534,0.14414828,0.31776202,0.04059139,0.47211704,0.5039265,-0.34997475,0.23933347,0.11137634,-0.005029122,-0.58279735,0.105178475,-0.10711738,-0.64822286,0.3601547,-0.07703796,0.013688728,-0.0010876546,0.7498994,0.20740406,-0.07861975,0.017323846,0.30333537,0.14428742,-0.08529152,-0.08208982,-0.39407673,-0.13097084,-0.11509563,-0.14114052,-0.024871154,-0.041243978,-0.52042776,-0.14753065,0.0763826,-0.84315014,0.086776316,0.34093404,-0.037800796,0.04364516,-0.30492172,-0.37306368,0.2003067,0.10099833,0.002896512,-0.04732678,-0.18658775,0.10941229,-0.026506286,-0.09081785,-0.5233563,-0.21318093,0.10499118,-0.15851624,0.62395936,-0.07529747,-0.091128565,0.20196985,-0.07193919,-0.52488977,0.43085897,0.55829465,-0.5249551,-0.063341096,0.05559453,-0.42756316,0.29044878,-0.19847429,-0.12369664,0.09602257,0.13475332,0.32373914,-0.06731703,0.09335108,-0.43003854,-0.16590051,0.5820814,0.09856577,-0.20622852,0.8151968,-0.23629916,-0.0044148723,-0.28079867,0.05999392,0.022858426,0.3557977,0.08866918,0.0046020024,0.08312311,-0.009845113,-0.7630344,0.5502628,0.12268697,-0.13984264,0.17952201,0.09845478,0.08857954,0.005079129,-0.06038885,0.39217046,-0.06841463,-0.20008913,-0.1744764,0.032167837,-0.3133131,0.44127053,0.013952716,0.061638165,-0.10500932,-0.45370716,-0.16447891,0.063833065,-0.070125826,0.12808889,-0.133718,-0.7591932,0.45122057,0.003067263,0.0065705134,-0.15015206
-0.0757139,-0.33308995,0.020467939,0.78332204,0.016835222,-0.5362586,-0.49160603,-0.54082954,-1.8575381,-0.18743777,-0.6256269,0.022260278,-1.3551207,0.07226586,0.21984953,-2.53571,-1.7816417,-0.049013916,-0.71510583,0.037826907,0.4355029,0.08863425,-0.8377693,0.10575556,-7.937552e-05,-0.8298013,-0.35189313,-1.4830456,-2.0621665,-0.038507037,-0.6372882,-1.682362,0.056805544,-0.3670223,-2.0128486,0.04456024,0.053794354,-1.0557408,0.03929102,-0.009821962,-3.214563,-0.8701964,0.030798843,0.055829987,0.04627655,-0.3368022,0.054160982,0.017488414,-1.0071878,-2.4570782,-0.35254496,-0.17239386,0.0042776624,-0.039657027,-6.100057,0.025068803,-0.4074789,-0.17335778,-0.11730236,-2.9901514,0.1111289,-0.052763373,-0.40419966,-1.416186,0.0065963413,-1.2530841,-0.13662128,-0.4713612,-0.29468808,-0.86640304,-0.9501808,0.07420869,5.8937063,-0.1955474,0.48033282,0.42199403,0.081658036,-0.04025966,1.5149316,-0.3483594,0.078916326,-0.72287565,-1.1954437,-1.7221903,1.9324607,-0.27698696,-1.3306769,-2.9629173,8.605697,0.051203236,-0.055473525,-0.07694462,0.041511923,0.0067081978,-0.09877754,-0.001971827,0.058378413,-0.03572689,-0.5833456,-0.3016387,-0.3012943,0.04121825,0.03689597,-0.118970886,-0.11371755,0.58288854,-0.018071858,0.00055336166,-0.026479332,-0.3124336,-1.178801,-0.09851565,-0.6880606,-1.5068818,0.0771984,-0.09135726,0.11494253,-1.2653941,-0.2806054,-0.9717742,0.6422643,-0.28576615,-0.036123827,0.3502186,-3.1610572,-0.025793456,0.07596981,0.05721087
0.062820904,0.09623198,-0.1236518,-0.07078184,0.013251394,0.009494265,-0.056792017,0.13611671,-0.10380686,0.30965105,0.0804411,-0.09264118,0.35148486,0.50166,-0.3376425,0.55041254,-0.37385336,-0.05691447,0.15175489,-0.11292919,0.30423617,-0.40458727,0.2335307,-0.044726465,0.0023901686,0.08085353,-0.15173934,0.30139485,0.046187624,0.103396066,0.22472899,0.023672339,-0.013272548,-0.2146461,0.03157707,0.031641502,0.037605304,-0.26599577,-0.1026201,-0.10323186,0.17123954,0.036067925,-0.11340914,-0.14487635,-0.06860795,-0.07694407,-0.10752742,-0.13838692,-0.10463911,-0.16973978,0.091786854,-0.46387422,-0.007982215,0.09825678,-0.047568034,-0.092960514,-0.01150562,0.11045211,0.09248643,-0.39111012,-0.008930995,0.015774453,0.054182842,-0.18896268,-0.030192968,-0.33996207,0.026498808,-0.09924227,-0.07534009,-0.6037899,0.17837825,-0.09550478,0.120890826,-0.070611924,-0.45487392,0.10939,0.012564766,-0.0016634553,0.23387009,-0.3879223,0.0809159,-0.08150719,-0.104815744,-0.2287932,0.33164057,0.12022617,-0.10202287,-0.36231676,-0.08225222,-0.10638194,0.04319768,-0.038329527,-0.06860731,-0.13677035,0.0134917265,-0.0074010147,0.083731405,-0.060346466,-0.14863506,-0.21497464,-0.27448973,0.112735644,-0.23137976,-0.081653945,0.013720646,0.079366766,0.057290226,-0.2878684,0.012688576,-0.08974666,-0.038607568,0.028631957,0.03912018,-0.79181844,0.09032976,-0.1496115,0.035501793,0.045596097,0.3385371,0.055265494,0.49528992,-0.46814358,0.08013006,-0.1390757,0.4555745,-0.13411684,-0.12784714,0.16132939
-0.022134434,0.6368573,-0.11185739,-1.1684748,-0.03813391,-2.2528808,0.9041961,-1.7792234,0.29150507,1.0205586,-1.0833296,0.011391956,0.06617743,-1.0039166,-0.27543324,-0.10272241,0.6078242,0.06802316,0.15844966,0.068938024,0.23959629,-0.7453427,-1.5172226,-0.059599172,0.037022643,-0.1872678,-0.021126963,-1.1761296,-0.07786863,-0.3838028,-2.907038,-0.96686304,-0.0013699497,-8.257676,0.7628078,0.006199011,-0.115286015,-0.06150866,0.059853557,0.13779818,-0.056916732,-2.7930028,-0.07619079,-0.7881189,-2.0503764,-2.1396863,-0.13112201,-0.056307267,0.13722385,-0.5771278,-1.4711456,0.81736165,0.00072990643,-0.11026608,0.07108783,-0.018187555,0.6382184,-0.5898808,-1.651285,-2.4283278,0.09408755,-2.48084,-0.54700756,-0.12934735,0.07219367,0.06204246,-0.0036585168,1.8618295,-2.7083502,-0.9092875,-1.347793,0.108913906,-0.11965422,0.78842247,0.48700574,1.2444946,-0.10683526,-0.053773817,-1.0024691,-1.1109906,-0.12940595,-0.07974795,-0.43643817,0.9175809,-0.22957343,-0.6235579,0.074897364,0.56042,-0.8607638,-0.07526073,-0.71393543,-0.077935435,-0.022083877,-0.17430104,-0.10834858,0.0019988013,-0.11749053,0.09703515,0.18257543,0.1667134,-3.5086293,-0.09270002,-14.467673,-0.107837856,-0.03329308,-1.1860738,0.09604372,0.008369346,0.027324617,-0.2592081,-0.06456422,-0.082238816,-1.094466,0.10253216,-0.10357465,0.05079244,-0.112234995,0.039573148,-1.2177589,-1.5160909,0.17991367,-0.010050506,-0.09574973,-4.986881,-1.1172055,-0.13590696,-0.101190016,-0.30120352
0.07632032,-1.4062133,0.06072352,-0.690242,0.012485865,-0.11553737,0.6300595,0.43481937,-0.58822095,0.8029313,-0.95722634,0.11103898,0.077217765,-0.40767714,0.261623,0.49057207,0.109603755,0.105145216,0.058644556,0.030358374,0.05618258,-0.04636371,0.059706125,0.124212086,0.11521122,-0.5769243,1.0672109,1.66612,0.22162573,0.32126072,0.087080985,0.40481156,0.052918427,-0.2134527,-0.59335726,0.12327173,0.027867308,-0.019856982,-0.051208463,-0.11399066,0.21764016,0.006203139,-0.05031537,0.89706814,-0.28295606,1.2897011,-0.017537236,-0.08940792,0.81840056,0.032106027,-0.31280342,-0.60266817,-0.012833187,0.054682262,1.169709,-0.06232815,2.1341624,-0.060795255,0.40734705,0.43490115,-0.08166004,0.10884576,0.39461905,-1.3677658,-0.08309411,-0.8724818,-0.115106896,-0.4674053,-0.16102257,-0.7061989,-0.01185868,-0.0648709,-0.4460391,-0.5932659,0.17768356,-0.16976707,0.09379077,-0.065212935,-0.06624373,0.6112852,-0.11347778,1.1813557,0.6555076,0.56174725,0.41118175,0.24921846,1.1849449,-0.14649871,-0.9207269,0.12074957,0.17428152,-0.0930521,-0.05649968,-0.1342978,0.1108705,-0.002795988,0.05661409,-0.056132518,-0.41562286,0.71116704,-0.14925076,-0.07114044,0.12061676,0.033979267,-0.017484646,0.20676218,-0.086832315,-0.35204014,-0.048445936,0.16079198,0.22467405,0.06834428,0.31519356,0.026649721,-0.092145264,0.026956499,0.08465764,1.3402184,0.4867956,-0.013257281,0.44082907,0.36645597,-0.11731079,-0.31458288,0.4933966,0.080687314,0.031638443,0.38034782
0.013239141,-0.039644077,0.08525145,0.884963,-0.08080886,-0.18081123,0.20586823,-0.289809,0.28272069,-0.05428844,0.30376458,0.09137183,0.26981878,0.57588714,-0.77055705,0.07269084,-0.05773217,0.08420299,0.06146486,0.0108908415,1.1368845,0.7590604,0.49895746,-0.07707128,0.08667713,0.22796759,0.70881057,-0.6204782,0.2590662,0.010844146,0.5980873,-0.44098395,0.078915134,-0.19719945,0.32472813,-0.034043398,-0.08280033,0.3274741,0.10198519,-0.50793,0.4480298,0.12071457,-0.11776728,-0.73943204,-0.34182388,-0.3942223,0.105663896,0.058545515,0.28069872,0.60117257,0.78999394,0.432965,0.0051923622,-0.11982416,0.31214994,-0.043566275,-3.9238465,0.17761363,-0.20025997,-0.38897216,-0.105035886,0.4453791,0.20716433,0.8053238,0.011752383,-0.09524292,-0.118308544,-0.5562025,0.09034126,0.37530342,0.2788197,0.020378515,0.6933321,0.28904128,-0.29021958,-0.10126009,-0.035494607,0.07753567,1.031165,0.4757747,-0.09696849,0.810936,-0.09222555,-0.24162282,0.21916005,-0.21165322,1.0518229,0.32354155,0.2025918,0.025756717,-0.10600324,-0.1258072,0.034485936,-0.114017546,-0.065957874,-0.0125696855,-0.11714385,-0.10254908,0.4016892,0.0084510185,-0.4021333,0.0996125,0.72327256,-0.013994245,-0.0013522796,-0.111233726,0.05125037,-0.031667247,0.076038025,0.18092641,-0.015569275,-0.101740174,0.10087133,1.3230733,-0.1045024,-0.017590316,-0.10841733,0.71972466,-0.32609433,-0.17013676,-0.60107434,0.1609069,0.094957806,0.26674557,0.6724249,0.045886375,0.020249564,-0.19920103
0.065683134,1.2659314,-0.088608265,0.31781945,-0.11037382,-0.07335308,-0.047215577,-1.4309766,0.5479599,0.4260149,0.6102273,-0.09353013,0.48399216,-0.11065723,-0.5279048,-0.04486017,-0.5174739,0.009385384,0.0103003085,-0.09576624,-0.4650388,0.24397014,-0.07212417,0.010998483,0.05067853,0.07172169,-0.8600075,0.03225495,-2.6152177,0.08113995,-0.3443124,0.10241868,-0.069699846,0.45268252,0.39982784,0.0960752,-0.096916065,-1.0211432,0.028958555,-0.17364302,-0.8293016,0.0023402313,-0.033831455,-0.61796004,-0.27399087,1.6092976,-0.030040517,-0.054251768,0.12750748,2.040862,0.034207955,0.012198271,0.016177978,0.08494671,0.16549963,0.042167753,0.045908503,-0.50952315,-0.56490207,1.9386151,-0.069257,0.046805687,-0.12092733,0.17125951,-0.09902502,-0.3825224,-0.04196206,0.52562624,0.18640873,0.19589587,-0.038220607,0.032696016,-0.50122726,-0.03467703,-0.33956808,-0.17284706,-0.08950885,0.072991885,0.56475526,-0.058116324,-0.08776472,0.4813058,0.09088561,-0.09399098,-1.4121974,-0.029828398,-0.35197502,0.7910717,-0.98827094,0.008352356,-0.23867817,-0.073385246,0.04945335,-0.10642971,0.061779518,-0.007196504,0.060836695,-0.045732655,0.45165163,-0.29009715,-0.27392772,0.079085074,-0.9797001,-0.07948788,0.103010856,-0.028410356,-0.067323565,0.36408108,-0.113345586,-0.03160635,-0.16766192,0.0023860757,-0.6047126,-0.107064545,0.039633717,-0.10867558,-0.044705078,0.034558892,0.3422509,-0.25562733,-0.09993046,-0.44667515,-0.043633644,0.022992069,-2.4804428,-0.026549272,0.019210313,0.05949342
