0,1,2,3,4,5,6,7,8,9,10,11,12,13,14,15,16,17,18,19,20,21,22,23,24,25,26,27,28,29,30,31,32,33,34,35,36,37,38,39,40,41,42,43,44,45,46,47,48,49,50,51,52,53,54,55,56,57,58,59,60,61,62,63
-0.8215418,0.062345743,-0.240931,-0.027860466,-0.04887732,0.008185516,0.007766683,-0.0976887,-0.345122,-9.701436e-05,-0.123059705,-0.032281756,0.086332954,-0.022608694,-0.0076843267,-0.006195113,0.046581466,0.104632914,-0.08522461,-2.0643458,-0.04547252,-12.289319,0.0062603033,-0.20529419,-0.07360823,0.1378017,-0.2772254,0.021548465,-0.059588756,-0.023849571,-0.0020435348,-0.0148976,-0.0033185733,0.05750897,0.024906311,0.02964334,-0.31759617,-0.0035114258,-0.138084,0.028360454,0.0531101,0.015291392,-2.6414988,-0.006582925,-5.191687,-0.15406242,0.030114053,0.004652061,-0.005728786,-0.021821469,0.024037724,-0.024362838,0.081217915,-0.40880656,-0.010996051,0.031675726,-0.10916628,0.048735607,-0.014046855,-0.05836727,-0.045814943,-0.061469506,-0.040582743,-0.122139245
-5.842865,0.00013521445,0.0065481225,0.03125713,-0.091459185,0.023478717,-0.003176896,-1.1894436,-0.54407513,0.0026693647,-0.1307407,-0.37886998,-9.145674,-0.057971,0.013166397,0.010145601,-0.008004654,0.031249177,-0.055179548,-1.4054619,0.006455137,-0.120527826,-0.010708834,0.013268797,-0.03145724,-0.100009896,-0.72741234,0.0024889228,-0.23891534,-9.873173,-0.00022327068,0.025794094,-0.04737458,-0.20372747,0.02092242,-0.0059900833,-0.10532533,-0.0013618467,0.015118662,0.005888468,0.08868342,0.011729371,-0.04904522,0.018341228,-0.052354798,-0.096804835,-0.014384383,-0.009364049,0.021279838,0.027599547,-0.00017616681,-0.029796809,0.003077319,-0.21721049,-0.024544185,0.00087592367,-0.060254328,-0.1574949,0.04077776,-0.11857175,0.0026283793,0.043611567,-0.004226852,-0.012116523
-0.005202331,-0.0011826046,-0.043032177,-0.05620025,-0.22700767,-0.008450076,-0.028696563,-0.61505055,-2.3736217,0.0023826475,-0.012508535,-0.047380734,-0.030051,-0.0022449277,0.008029032,-1.5153749,-0.17055541,-0.10947398,0.00018208279,-6.75034,-0.012237753,0.0023288764,-0.0038108535,0.0074499515,-0.009786561,-0.08786459,-0.014227895,0.0076033017,-0.047320046,-0.018732179,-0.002395872,-0.35464388,-0.3461729,-0.043480687,-0.054110497,-0.34626538,-0.0016000463,-0.21634205,0.002976999,0.008625792,-0.00923674,-0.009976857,0.0016886385,0.011206553,-0.01338806,-10.96278,-0.03242345,-0.08810775,0.0031180677,-0.016854404,0.0033253834,-0.008742322,-0.025237601,0.004297114,-0.043775387,0.0121155875,-0.013105242,-0.024525275,0.009017491,-0.020220034,-0.0015797463,0.010059185,-0.009147033,0.00615476
-0.2238862,0.034073684,0.017838791,0.096970506,-0.036423437,0.0061055063,0.112906404,0.0132027315,-0.1264482,0.1380308,-0.002551372,0.047062706,0.16669433,-0.04715864,0.11015474,-0.036999613,-0.0026690003,0.110777,0.014378505,0.080429144,0.17533273,-0.3442701,0.1024717,-0.07563393,-0.0044264896,-0.11798784,0.09176961,0.018236656,-0.11004537,0.30034855,0.034304526,-0.06146769,-0.0007828419,0.114910364,0.08046371,-0.011508202,0.119706735,-0.05524458,-3.087084,0.062222783,-0.076325804,0.09920357,-0.13986644,0.10389671,0.09156663,-0.3241451,0.10495271,0.13941514,0.08774758,0.006035634,0.015404868,-0.06719445,0.091500685,-0.05579397,-0.19154319,0.11140149,0.35123423,0.060634468,-1.3946465,0.006155424,-0.08720544,0.25721544,0.039725218,0.02474153
0.00055447326,-0.0066045695,-0.008430223,-0.2673663,-0.011495312,-0.08737428,-0.07634895,-0.006053613,-6.082052,-0.031469528,-0.015989289,0.006083015,0.009045207,-0.01810776,-0.047665957,-0.312217,0.00554325,-0.088580936,-0.052612506,-0.400935,-0.18306758,0.0021837105,-0.027428031,0.012534264,-0.0030594156,-0.028986027,-0.0068647345,-0.055538997,0.022391757,0.0038833579,0.0019788481,-0.48630136,-0.08555098,0.0029306202,-0.05892713,-0.12577388,0.0024832229,-0.11924936,-5.5260127e-05,-0.06184211,-0.14222111,-0.06013386,0.019490113,-0.58153915,-0.008259773,-14.895738,-0.0812641,-0.07060441,-0.07034651,-0.006656635,-0.0008258605,-11.501687,-0.049564887,0.002233945,-10.136342,-0.04987656,0.00010956454,0.020778097,0.013798655,-0.026822507,0.0021344777,-0.0057680686,-0.30658877,0.011511206
-0.0041084145,0.0036177887,-0.008129191,-0.023573885,0.047499746,0.041355323,0.031454,0.016397107,0.11072964,0.005791207,0.050792012,0.014151836,-0.01879618,-0.022746906,-0.04303524,0.050887257,-0.06728513,-0.120717645,-0.022002598,-0.005438173,-1.3778877,0.04301989,-0.23967087,-0.08053888,0.071840964,-0.15396075,0.008124639,-0.001999703,0.01862405,0.0054165972,-0.01515909,-0.06589977,0.025439622,-0.051545784,-0.021276135,0.037906002,0.004321057,-0.100457184,-6.932148,-0.062089693,-0.080704264,-0.042488262,-0.04707151,-0.5853408,0.090229906,-0.02067293,-0.09697392,-0.22043549,-0.04592244,0.04343961,-0.002612977,-12.206165,-0.038382147,0.030775176,-4.126694,-0.040266965,-0.0040805703,-0.042516388,-0.16169138,0.04469583,-0.034562275,-4.797732,-0.68881035,-0.062110994
0.0038518652,-0.002316774,0.0026666187,-0.7797707,-0.00032176395,-0.007662633,-0.10770233,0.0012395967,-0.047940176,-0.0743973,0.00917295,-0.0005055342,-0.0039370144,0.0066673188,-0.082418606,-0.02144833,0.010540968,-0.079374224,-0.0030745233,-0.02158019,-0.009897436,0.0022114362,0.01158898,0.02011373,0.0045676865,-0.09576161,-0.00064523926,-0.0056025237,-0.04219135,0.0029768867,0.0025015948,-1.8021231,-0.0040595406,0.012737114,-0.42324242,0.0025714373,0.009520902,0.012171709,0.008407775,-0.03809809,-0.042136893,-0.033069324,0.01431286,-0.049612194,-0.0003120901,-7.568175,-0.00811821,0.03705373,-0.20680857,0.0018000469,-0.00010380124,-0.3323495,-0.018835071,0.0043213083,-8.553833,-0.033593625,0.002753954,-0.08882236,0.015474947,-0.008070443,0.0016878011,-0.009907141,0.019586997,0.01910423
-0.06583875,-0.031103747,0.11781632,-0.06972884,0.07181931,-0.00058974285,-0.03856171,0.1321221,0.19069432,0.005967515,0.048065733,0.041326918,0.04528033,0.069421045,-0.002352881,0.1212629,-0.02858398,-0.1727419,0.030401463,0.14957269,-0.086745545,0.49813634,0.048448045,-0.02784561,0.035777736,-0.036225438,-0.019035736,-0.005417059,-0.12884042,0.02033855,-0.07113874,0.025396498,-0.008319674,0.022730181,-0.00013492105,0.037972312,0.0039156415,0.1380351,0.02906546,-0.032332197,-0.09013677,-0.036491998,-0.018437708,0.0072297696,0.20517467,0.2196723,-0.064830184,0.014366007,-0.034068067,0.06456577,-0.03162641,0.02709097,-0.07542157,0.45316482,-0.03130455,0.03769935,0.011180694,-0.08571978,-0.020304702,0.014100833,-0.03221651,-0.6260818,0.11150396,-0.020547275
-0.010189139,0.0030463052,-0.31318867,-0.1466863,-8.032491,-4.0099754,-0.13889205,-1.0976264,-0.8754664,0.0051655127,-0.2554574,-0.33083346,-0.15280099,-0.641698,-0.16741687,-0.6710731,-3.4116259,-0.10131847,-0.9794071,-3.2947063,-0.039647967,0.0047829617,-0.043247927,0.011632181,-0.25026348,-0.16253477,-0.046891697,-6.1431932,-0.06589909,-0.04353416,-0.012309154,-3.565277,-5.3584824,-0.16025367,-0.86972255,-3.2543824,-0.02708804,-1.2467401,0.013904697,-2.386288,-0.14600705,-0.77566254,0.014906412,-0.032555643,-0.020334942,-0.5595322,-0.07176968,-0.050439693,-0.010379114,-0.23214181,0.0026706988,0.1528384,-5.072074,-0.011885634,0.045139648,-0.012629068,-0.06492267,-0.04951133,0.0011582283,-9.391799,-0.002216629,0.014291859,-0.10686094,0.0014490115
0.03601563,0.031703454,-0.010124204,0.03745519,-0.048809014,0.023295214,0.17281683,-0.063170426,-0.010962588,0.21664463,-0.018798469,0.020379364,0.06248832,0.037384138,0.24286602,-0.08714399,-0.053714346,-0.15143554,0.05315985,-0.029809002,0.041145273,-0.3658446,-0.11331919,-2.3707137,-0.0015882,-0.09118255,-0.10195561,0.010223619,-0.08639702,0.08196211,0.004312832,-0.14007337,-0.013012491,-0.03355607,0.074030615,-0.029614821,0.0077991723,-0.16395473,-0.8902459,0.07700119,-0.20151678,0.21972737,-2.7504783,-0.024313824,0.029623754,-0.057430457,0.124824025,0.014840602,0.18122199,-0.021126045,0.001479742,-0.06287136,0.09593717,-0.12521349,-0.07126829,0.17191452,0.03497334,-0.17574824,-4.275312,-0.002052938,-0.011742809,0.37002385,-0.0023945705,-2.6146998
-0.003143551,0.004706969,-0.038512275,-3.0614846,-0.005565233,-0.10275583,-4.8955216,-0.012376393,-0.9652048,-7.6986384,-0.017333405,0.012204687,-0.0010648844,-0.03076685,-5.790889,-3.185694,-0.015750363,-0.028713346,-0.043449044,-0.08959781,-1.7570665,-0.0016060588,-0.16983618,0.041869257,-0.005025133,0.108294874,0.007423171,-0.115095876,-0.00023698587,0.006434582,-0.0055996217,-0.78574276,-0.077440925,-0.010580446,-2.8336148,-0.25658044,0.003155574,-0.1576545,-0.0033212933,-0.39007026,-0.04677595,-8.458168,0.043436352,-2.243903,0.0035130137,-1.3703964,-7.94748,-0.2981503,-4.6885448,-0.004006337,-0.006544507,-0.5132229,-0.21415646,0.0047842525,-0.007545939,-0.4549193,0.00012554663,-0.19937229,0.03148807,-0.0174666,-0.0011976388,-0.028556723,-2.77613,0.041167945
0.0063464018,0.107695244,-0.03135381,-0.024238808,0.011429602,0.043068264,-0.025277354,-0.024179036,-0.024313703,-0.0019439129,-0.0038055084,0.0067435103,-0.0067591798,-0.03883407,-0.028454723,0.022561451,0.03481428,-0.026393458,0.038511265,-0.10263367,-0.0155399805,0.009053662,-0.03290353,-0.01127677,-0.037510898,0.034217063,0.01262821,-0.087479256,-0.15366241,0.0065469397,0.18120082,0.025568487,0.00030643804,-0.025268052,0.009148751,0.014414659,-0.021064194,0.014827702,0.023647718,0.033814486,-0.006337502,0.014334422,-0.02487629,0.02824651,-0.066325404,-0.1466816,-0.023862246,0.0089085195,-0.0077065555,0.004508501,0.16095577,0.0034465503,-0.003990003,0.0071093463,0.022373796,-0.015413507,-0.03567581,0.06738622,-0.017953742,-0.018352445,-8.018118,-0.0020099878,0.029438,-0.019262683
-0.37387827,-0.022908282,0.015453754,0.061085127,-0.07037068,0.09027945,0.10691275,0.01450547,0.26169914,-0.00028137572,-1.3510144e-06,0.025693119,-0.1599568,-0.029417284,0.010606274,0.016660865,-0.078620866,-0.053845685,5.4156888e-05,0.23987857,0.098546505,-0.7511367,-0.042205628,-0.041121252,-0.005752558,-0.059175063,-0.13435237,-0.034617707,0.049122438,-0.42418402,-0.0043717683,0.1252093,-0.030290438,-0.03489464,0.045997035,-0.0693959,-0.13614212,-0.059582744,0.17466015,-0.07531978,0.04209471,0.011990579,-0.09284111,0.10169527,-0.08351232,0.22952823,-0.01869616,0.0007046924,0.002436552,0.0048227585,0.06842788,0.11185538,-0.061202615,0.10001485,0.071196556,-0.040044654,-0.09204046,-0.06188607,-0.04938963,-0.03391811,-0.010698716,0.19486625,0.04322883,-0.015667193
0.16178715,0.040355258,-0.05991075,-0.013699101,0.03497226,0.0047970866,0.014138316,0.0014112159,0.11898481,0.00911369,0.057227816,-0.0063761845,0.097610086,0.018609859,-0.013714985,0.04352497,0.053576104,-0.21056713,0.03208828,-0.15293281,0.006905745,-0.19417062,0.018292481,0.01326821,0.09828024,-0.15578596,0.08439216,0.031215467,-0.017245164,0.36146393,-0.013846956,0.027205626,0.08703012,-0.0033305143,-0.0064504985,0.08571102,0.33041838,0.076271154,-6.7232933,-0.06366326,-0.04754034,0.002874434,0.07209199,0.0055012484,-0.14658938,0.20712644,0.03656514,0.055693477,0.01335233,0.03843235,-0.011494824,-0.0017933624,0.029294806,-0.07627359,-0.04939987,-0.03007353,0.3473104,-0.17014085,0.09929694,0.06625186,0.019919217,-0.2525173,0.03162947,0.039950542
0.002169535,-0.03217863,-0.0038088833,-0.15594462,0.16022742,0.12907988,0.0031132125,-0.08042102,-0.22615533,0.029573055,0.0059477985,-0.037041284,0.0906008,0.13094456,0.111295454,0.04089431,0.20284948,0.099567704,0.12371276,0.07496556,0.09049757,-0.08048626,0.053309042,-0.24598756,0.1104063,-0.10139327,-0.10017988,0.16131423,-0.12202999,-0.059296276,-0.056173615,-0.23408481,0.20317769,-0.031869717,-0.097077325,0.1301572,-0.07169527,0.060938686,-0.4757854,0.17844722,-0.18781401,0.09349251,-1.5275469,-0.09701425,0.080429845,-0.36007607,0.10387156,0.09125913,-0.094375744,0.04104783,-0.031161837,-0.10153767,0.079949275,-0.22777323,-0.53777987,0.1157824,0.04353815,-0.14562362,0.0035367173,0.14796297,0.017452013,-1.1788591,0.018736463,-0.124001786
0.014741031,0.041513957,-0.19143349,-0.07073531,0.08726175,-0.024058858,-0.05705468,-0.09466298,-0.025855405,0.011947375,-0.009088506,0.021880332,0.016420988,0.02467588,-0.0007497934,0.0112186745,-0.011771173,-0.08229371,0.048887614,-0.7359005,-0.1135452,-0.2609845,-0.0145687405,0.04096922,-0.03859333,-0.15070482,-0.0036778352,-0.06382148,0.00021479436,-0.013165366,0.023867382,-0.07572198,0.036927436,-0.019523587,-0.0115685975,0.06574351,0.026550334,0.072016306,0.003089005,0.036360696,-0.16187696,-0.010702465,0.056259673,-0.03469097,-0.69379276,-0.35547015,-0.052463476,-0.044622112,0.008197457,-0.109999985,-0.014505813,-0.08761507,0.0035623794,-0.0843647,-0.40728077,-0.059758905,0.030808572,-0.09382008,0.03724304,0.011343654,-0.08918964,-0.117696784,-0.045879263,0.016781231
-0.00668231,-0.0020524056,-0.016818479,-0.5212728,-0.02431491,0.0011784444,-0.021509238,-0.051973302,-0.1836356,-1.3055929e-05,-0.0033991768,-0.0034694003,0.00088055944,-0.010195904,-0.017324174,-0.41481024,-0.0428396,-0.05785953,-0.027227677,-0.2882897,-0.057419516,0.0007451764,-0.03591812,0.011836493,-0.0036687593,-0.21721375,-0.0063416846,0.00025958556,-0.13226835,0.0037045274,-0.0025734024,-1.1816831,-0.116100274,0.0025917364,-0.11925705,-0.11531277,0.0034799695,0.0011134502,0.003695871,-0.0054287645,-0.06991185,-0.008603293,0.017720047,-0.15965426,0.00048381736,-5.270984,-0.028086651,-0.08635681,-0.025725814,-0.006244378,-0.00044498564,-0.18946029,0.002779072,0.0006520758,-1.163337,-0.001616428,-0.012271426,-0.053842988,0.008503424,0.0027263144,0.0020991722,0.004649171,-0.10526541,0.003885911
-0.46653718,-0.021290032,-0.06492207,-0.013018275,0.008744869,-0.026400624,-0.018722538,-0.1473101,-0.4066675,0.020177541,0.0427928,0.01381838,-0.024495319,0.011604463,-0.004684898,-0.09145736,0.005171834,-0.21862823,0.009886138,-1.6637619,0.023349665,-1.9179139,0.03350663,-0.024967104,0.04308774,-0.062423814,-0.029943349,-0.00670051,-0.088223845,-0.091885775,-0.008213481,-0.036111183,-0.00994981,0.007966006,-0.010553335,-0.026009576,-0.17123199,-0.016673665,0.02984587,-0.016137632,-0.17079176,-0.005699577,-0.0130086085,-0.004174666,-0.24844462,-0.87371314,-0.00015210477,-0.0015004356,0.01834206,0.0038119107,0.021558147,-0.035576176,-0.0017703611,-0.03704103,-0.044584952,0.0029308836,-0.03355169,-0.046617653,0.015336563,-0.025274156,-0.0014108275,0.028828785,-0.03673574,-0.01097326
-0.49536273,0.0071217716,-0.012777072,0.18421495,0.03191642,-0.068635345,0.09130731,-0.0014576389,0.11715191,0.09380899,-0.22372815,-0.40827018,-0.72812724,-0.09423213,0.1209038,-0.063899554,-0.123151466,-0.17905365,-0.097813845,0.058947805,0.2777145,-0.20445901,-0.1528749,-0.6581976,-0.11145959,0.019878322,-3.862959,-0.05179466,-0.17356814,-4.6989975,-0.039272804,0.11371681,-0.082914345,-0.030206548,0.19403814,-0.1490402,-1.0350052,-0.09025057,-0.56562436,-0.02488165,-0.1404306,0.04196326,-0.5879496,0.24137451,-0.027808696,-0.051187254,-0.014350309,0.019288303,0.141268,0.016454132,0.08486764,0.14884855,-0.070628114,-1.437104,-0.06779094,0.024556652,-7.4858017,0.055377956,-1.2702351,0.019916307,-0.040556423,-0.3338787,0.17713264,-0.46347848
-10.873078,0.023612885,0.054785546,0.030536562,0.14071392,0.021335734,-0.017535554,-0.09790994,-0.07045094,-0.035918072,0.021425359,-0.019271115,0.071521156,0.16481501,0.0024143665,-0.018211912,0.15126854,-0.16986336,0.2230709,0.00035733965,-0.06091293,-5.7911105,0.04340543,0.17251034,-0.03475036,-0.019371279,0.0054777986,0.033860095,-0.11052261,-0.39948156,-0.008142811,-0.011148881,0.060592093,0.27965358,0.006401172,-0.026855458,-1.0883765,-0.03518483,-4.131781,-0.03745753,0.014002165,-0.026215086,0.12564413,-0.097259775,-0.015523789,0.1291773,0.015226019,-0.055895355,0.010678355,-0.033877082,-0.042836547,-0.047692318,0.018177938,0.033609383,-0.35991675,-0.06273874,-0.112508625,-0.15023226,-0.55952203,0.023417167,0.013115631,-0.7885484,-0.083374105,-0.3321487
-0.04952883,0.034512892,-0.028729714,0.07259587,0.02145455,0.07050172,0.19745165,-0.10068523,-0.2927908,0.2544684,0.014324745,0.11417838,0.10676615,0.0037626985,0.18215741,0.0134766055,0.08843295,-0.18190563,-0.029556502,-0.042272754,0.03152008,-0.2945089,-0.08681571,-0.15234564,-0.16758612,-0.06885092,0.012952853,0.047375336,-0.040590998,-0.008880817,0.012271229,0.013275964,0.008475437,-0.06873966,0.12601113,0.0523116,-0.030785458,-0.06931699,-0.96008635,0.09920244,-0.11032345,0.18496548,-1.6936594,0.09072872,0.04316008,-0.09533785,0.10998516,-0.0336234,0.16541016,0.037347537,0.03199837,-0.08466389,0.11208329,-0.062317107,-0.057988342,0.16770482,0.02220066,-0.027332533,-0.15972786,-0.033310894,-0.049650475,0.1391009,-0.06716254,-0.42217463
0.13849841,-0.076736376,0.054555226,0.05497784,-0.15594721,-0.015853165,-0.032192107,0.15043037,-0.1435219,-0.19029966,-0.12297128,0.05467158,0.12843071,-0.19051118,0.15490244,-0.13234603,-0.08768284,-0.13631937,0.07181939,0.11701505,-0.03705958,-0.14911918,-0.14494732,0.026565999,0.116992824,-0.13047855,-0.026798137,-0.018676044,0.099025145,-0.09810694,0.021082284,-0.10967333,0.15078937,0.13432187,0.007895306,0.12901293,-0.061662775,-0.021868123,-0.073784396,0.1537555,-0.030361464,0.027492091,-0.016802752,0.15646368,0.12564653,0.05814281,-0.06291737,-0.043063715,-0.16027355,0.16186857,0.051453315,0.086289205,-0.10792918,0.18543923,0.16223396,0.11339828,-0.045590717,0.039383486,-0.16124387,-0.11020211,0.036162928,-0.1307496,0.1568072,0.13004495
0.012003899,-21.667772,0.017836155,0.007712612,-0.0028845444,-0.0076443376,-0.0027053752,-0.0017581194,-0.0015124278,0.0008974423,0.0012648514,-0.007836497,0.00029838923,0.02649291,0.008858956,0.008117622,-0.0039642015,-0.24308838,-0.08136111,0.026946265,-0.015027461,-0.011072688,0.010306977,0.007012185,0.0051703574,0.048346855,-0.010261734,0.047225084,-0.19588855,-0.00023438162,-0.80196583,0.018018283,-0.021656,0.004890166,-0.017892336,0.0010838739,0.010054884,-0.010262629,0.012936856,-0.028942311,-0.07018954,0.001533168,-0.025259087,-0.0044228304,-0.02829628,0.018522067,0.004738476,0.017459417,0.00278349,-0.008383248,-0.5610933,-0.0092602335,-0.0011691556,-0.0039863656,1.15937e-05,-0.0004901796,0.017304432,-0.10081018,0.0004907228,0.013580443,0.08673879,0.012400191,-0.026028777,0.00142703
-0.032041777,0.0021548253,0.06826038,0.046293344,0.014485609,0.045531083,-0.005396889,0.022751894,-0.0070044817,-0.009927969,0.06870646,0.03294393,0.11418436,0.017324325,-0.024223736,0.034885757,-0.009420581,-0.13527171,0.0062496606,-0.13808669,-0.006156073,0.13812357,-0.010748868,-0.1326058,0.12696138,-0.045716688,0.08549369,0.091336034,-0.18021503,0.07414488,0.031809982,0.052876886,0.031731375,-0.009133756,0.018073488,0.04207768,-0.008029609,0.095053166,-0.5086001,-0.02304084,-0.13628908,0.004513121,-0.049999695,0.0049748565,0.04392677,0.12014903,0.048340682,-0.009390583,-0.044951435,0.14497656,-0.026488366,0.062475696,-0.051893484,0.24845089,0.26346195,-0.004174279,0.10715411,0.08121374,-0.15051042,0.018152522,-0.035352636,-0.26966128,0.123085715,-0.063982375
-0.006258568,-0.0003852785,-12.519803,-0.011539412,-0.057682108,-0.17771675,-0.0244784,-1.7439182,-2.4305093,-0.008643307,-0.047625005,-0.061507665,-0.014538207,-0.038218275,-0.018588344,-11.170865,-0.022781739,-0.14307179,-0.0133781545,-2.4188724,0.017933562,-0.0015138503,0.0043270723,0.013542386,-0.0946316,-0.19937651,-0.04393466,-0.059240144,-0.08363812,-0.034417663,0.005144269,-0.27366838,-0.09505709,-0.0075629414,-0.073880084,-0.066541955,-0.012949394,-0.15296459,0.007902424,-0.042151254,-0.13222766,-0.034441974,0.0014538101,-0.005237403,-0.065624,-4.9472537,-0.0013956043,0.031558722,-0.008337112,-0.2595744,-0.0034058546,-0.031598385,-0.019114595,-0.0026459857,-0.033933453,-0.054107957,-0.0073621375,0.05172606,0.0054165786,-0.11148763,0.0006832075,0.01270934,-0.002420261,0.014502766
-0.6323379,0.058298185,0.015513766,0.035970364,0.08919834,0.009765347,0.15124519,0.05307116,0.13718201,0.18206304,-0.015552691,-0.034070335,-0.08223003,0.20996067,0.17016815,0.1061938,0.16299143,-0.08894392,0.090366796,0.037659086,-0.11029514,-1.1082796,-0.011228085,-0.19717932,0.02723336,0.0054055965,-0.07582026,0.11277778,0.14727643,-0.08118289,-0.03186435,-0.010515044,0.12163446,0.049196605,0.15725568,0.13963027,-0.042485386,-0.041741554,-0.25240767,0.063940465,0.09622876,0.07535195,-0.24563082,-0.08190677,-0.07231671,-0.27772325,0.11178723,0.014818278,0.10206707,-0.047901962,0.028806122,-0.25317237,0.12140659,-0.69199234,-0.17048408,0.0715331,-0.16877498,-0.08388883,-0.14758801,0.013766983,0.01765098,-0.45219833,-0.1283868,-0.13706656
-12.265003,-0.11476026,0.0018893981,0.032784943,-0.010850474,-0.041332055,-0.033379108,0.0049922992,0.012494627,0.06510678,0.007145093,-0.023986893,-0.21916154,-0.04693926,0.010421312,0.038488954,0.030065825,-0.1169808,-0.0098130815,0.006854506,0.052031547,-6.383926,0.13390937,-0.020301804,0.0042307316,0.05074887,-0.12892087,0.014136843,-0.0359736,-1.2625966,-0.13265942,0.032415204,-0.0024193083,0.04199144,0.0175588,0.0006478428,-1.1184362,0.012207091,-0.02676895,-0.012169003,-0.0040113404,0.03332722,-0.10465668,0.013983321,-0.19955729,0.2038481,0.0037532628,0.03166817,0.045900095,0.031030012,0.04569895,-0.071276456,-0.0637118,-0.22916162,-0.018828586,-0.026913742,-0.44636634,0.09177303,-0.40288228,0.024950135,0.01061878,-0.006139325,-0.03619508,-0.12793691
-0.32597682,0.03957309,-0.043348964,0.07448878,-0.048453916,0.08863368,0.10773748,-0.100270726,-0.15687743,0.034920383,-0.07159939,0.040283438,-0.090670355,-0.006373438,0.073612034,0.11174659,0.009052325,-0.15765303,-0.00028923957,-0.20469272,-0.04235229,-0.28110665,0.115247495,-0.2341666,-0.05929453,-0.14188117,-0.5973756,0.07374082,0.07305089,-5.542876,0.020492436,0.13801266,0.036531217,-0.015922466,0.09478655,0.108057834,-3.7148788,0.1059407,-0.3877164,0.0999561,-0.0558068,0.07444405,-0.2863362,0.15630409,-0.007955312,-0.12720503,0.09428027,0.18321395,0.088035114,0.054365918,0.048297923,-0.040068433,0.15052019,-3.165906,-0.26083228,0.028813057,-0.42748782,0.048262026,-0.12937973,-0.11308005,0.019756982,-0.07418648,0.15020268,-0.17588615
0.10251057,-0.02569875,0.058408495,-0.0038633747,-0.06915819,-0.018490145,0.038705125,0.08117801,0.13846087,0.03853431,-0.015280647,-0.0025487489,0.056144968,0.005164176,0.011635115,0.05276779,-0.050727326,-0.15738483,0.017689139,0.15692271,-0.015487091,0.35211474,-0.09933306,-0.031332925,-0.0127643375,0.10577948,0.080566466,0.06992699,-0.032509517,-0.08134529,0.003054887,0.06121162,-0.05781855,0.06211813,0.004156844,0.0048809843,0.031243198,0.005325537,0.0046994025,-0.074743934,-0.21140324,0.0043748845,-0.024159022,0.035337012,0.2484519,0.1257669,-0.038863078,0.012479539,0.030333115,0.020552063,-0.06606863,0.1505101,0.010217557,0.33545142,0.26375937,-0.024764229,0.006954268,-0.086028196,0.018279195,-0.11887066,0.037666377,-0.0021196313,0.06992172,0.016566478
-0.0057283356,0.0014481323,-0.04224106,0.067994714,-0.45642272,-1.2294055,-2.25657,-0.19005334,-5.6520534,-0.01552632,-0.022485306,-0.29219425,-0.11042664,-0.019536328,-0.018805398,-4.922959,-0.56556505,0.013507426,-0.020872915,-1.1127199,-0.03369436,-0.0005061049,-0.038324285,0.0062625227,-0.026468227,-0.09882037,-0.015481119,-0.018543908,0.046257727,-0.046980396,-0.0030978164,-1.7250148,-1.6392843,-0.22743334,-2.753254,-5.5027146,-0.007528644,-1.6099492,0.00464309,-0.002102248,-0.20189779,-0.009327832,7.8886704e-05,-3.689195,-0.006266561,-0.06933766,-5.5201054,-1.0781393,-0.012921975,-0.046816356,0.0036956219,-1.8142338,-3.9631078,0.0033276398,-1.2451679,-0.0035874886,-0.025761161,-0.05298478,0.010160337,-0.6268972,-0.0018307904,0.005612125,-4.1241026,0.0044054957
0.06835474,-0.010044487,0.002738398,0.07579154,0.034365673,0.050203316,0.06850771,0.11641196,-0.114826165,0.010732579,0.03374261,0.07615598,0.17871363,0.0020250303,0.07442357,0.048210118,0.049484044,-0.11362082,-0.061921123,-0.037695263,0.10035844,-0.13103035,0.05147479,0.09700123,-0.03292889,-0.019635133,0.11788889,0.048827715,0.12700634,0.33800966,0.044199783,0.13003717,0.048547007,0.08236642,0.023277698,0.044659406,0.20307101,-0.008079685,-2.4084408,0.022952238,0.033317048,0.090205856,-0.016138848,0.08954822,-0.089020886,-0.093451776,0.08341242,0.026081895,0.11355307,-0.009824462,-0.030664552,0.043496903,0.018208764,-0.0161302,0.031908628,0.05114336,0.24174881,-0.059902474,-2.561662,0.012593495,-0.006189408,0.011683661,0.008141246,-0.1514588
-0.023675071,0.017117908,-0.21561815,0.03495619,-4.1961517,-1.1267693,-0.018522704,-5.4822397,-1.9280387,-0.03505762,-0.07172272,-0.2642685,-0.05014601,-0.103996344,-0.0136704715,-0.2546461,-0.16495216,-0.08025206,-0.048636917,-2.5296786,-0.0127432775,-0.01951089,0.016186994,0.05603466,-0.11143751,-0.21776289,-0.009110087,-0.11916997,0.018186485,-0.03794894,-5.3106545e-05,-0.17565739,-3.3587554,-0.15614891,-0.09988151,-0.1966755,-0.027632864,-0.71018666,0.05914785,-0.07422793,0.05131792,-0.09835199,0.04402462,0.015546637,-0.030266482,-1.5460181,-0.031794995,-0.002113424,-0.020206781,-0.08079509,-0.0018787478,0.0352937,-0.17641225,-0.02462504,-0.040807866,-0.043627076,-0.07157706,-0.14873144,0.04644415,-6.6889844,-0.0034468982,0.050452385,0.048620883,0.055079296
-0.004415593,-0.0009463885,-0.009021223,0.008447317,-0.27021232,-0.18963206,-0.16634922,-0.33807385,-12.097559,-0.011133729,-0.00084313547,-0.10357798,-0.06905979,-0.0035249325,-0.008117834,-1.9928168,-0.18470533,-0.070504755,-0.002023803,-1.373965,-0.011931093,-0.00085292954,-0.02352797,0.007983106,-0.006416472,-0.089836344,-0.0073831067,-0.0014721046,-0.22490759,-0.03368036,0.003028955,-7.3851576,-0.53955597,-0.09703076,-0.34744772,-1.1246598,-0.001502328,-3.7866278,0.004100893,-0.0064005577,-0.17488602,-0.011204449,-0.000587201,-0.12445135,-0.0010475816,-2.680976,-0.18895765,-0.14731383,-0.006947193,-0.026215889,0.0036834558,-0.049508095,-0.19083302,0.0018526197,0.0034285097,0.0007341802,-0.013951534,-0.13151138,0.0011929268,-0.17420927,-0.0025110613,0.009173712,-0.11732263,0.0026872165
-0.14639358,0.011301717,0.044718754,0.056156944,0.07348361,0.0025773707,0.12546825,-0.012905851,-0.06480569,0.10544675,-0.015864128,0.03329989,0.17884973,-0.057606373,0.16794614,-0.037584025,0.09330342,-0.07580311,0.045416947,0.09380034,0.20673305,-0.33429492,0.18391904,-0.71502453,-0.03722764,0.07314975,0.065945365,-0.024096865,0.033011064,0.19707307,0.015936349,-0.10274883,0.061505966,0.12410507,0.017959097,0.14069894,0.012329818,0.074805394,-1.3481839,0.07810852,0.07373733,0.18355006,-2.3331342,0.048276756,0.06916142,-0.40287995,0.19138242,0.14546473,0.16062301,-0.057494488,0.024583733,-0.008653036,0.07361373,-0.021510445,-0.04676285,0.14028288,0.12822026,-0.2011792,-1.343323,0.016104853,-0.020562386,0.59618074,0.077269174,-0.70610654
-0.0007550692,0.004377558,-0.02554423,-0.20084447,-0.04733179,-0.010700552,-0.0019284729,-0.095304586,-0.38348076,0.008729753,-0.023820743,-0.0010617139,0.0057734493,-0.015535983,0.0019709026,-0.93508863,-0.0762914,-0.14459065,-0.015240113,-0.6035824,-0.057161786,0.001765992,-0.10755542,0.010323523,-0.0052862214,-0.008532633,-0.0069160564,0.004193745,-0.2257783,0.0014790765,0.0007125416,-9.242311,-0.09049643,-0.016619332,0.0011905234,-0.40232253,0.0036402459,-0.27636018,0.010838228,0.010472738,-0.08346663,-0.012257381,0.0065228106,-1.3822886,-0.008646647,-4.720059,-0.0035609466,-0.4213632,0.0027521993,0.004314717,0.0035431865,-1.3038449,0.017062139,0.0017602553,-4.1312037,0.019083569,-0.0005588674,-0.053770155,0.0065154326,-0.00768308,-0.0033988445,0.0026706043,-0.7800158,-0.0026986077
-0.02247231,-0.0048226197,-0.26767308,-0.022175148,-0.021601336,-0.030642489,-0.018321069,-0.27700427,-0.56288534,0.00088382326,0.015099282,-0.0075792205,-0.019439206,0.0023555541,0.006773428,-0.5397056,0.005558493,0.015848652,0.016015124,-13.1085205,0.0045388285,-0.046245597,0.02159074,0.0061319824,-0.0057490626,-0.16482581,-0.016601013,-0.015084525,-0.18426107,-0.021966733,-0.0037050582,-0.23354438,-0.036786176,-0.006529603,-0.04141398,-0.054404806,-0.016003303,-0.03041436,0.03027408,-0.0113535235,-0.03318919,-0.001718035,0.018111264,-0.011621784,-0.34362534,-7.595161,-0.0016700119,0.0016376117,0.007651827,-0.037477776,0.0061845863,-0.041516785,0.0032153705,-0.05264563,-0.10679723,-0.016715497,0.012919288,-0.105762124,0.004445568,-0.015272579,0.0012521476,0.015830638,-0.03972938,0.006914364
0.118924,0.027833285,-0.0233252,-0.10555602,-0.04957142,0.050022487,0.012261648,0.06233746,0.23726371,-0.011709449,-0.0069353147,-0.004576119,-0.018739674,-0.030577695,-0.042699073,0.072098024,-0.13908751,-0.07083769,0.031083541,0.02351796,-7.5822606,0.0216872,-0.4949267,-0.0037236614,-0.0336362,-0.08907112,0.05339858,0.012869885,-0.1872898,0.005017817,0.0062179994,-0.08064407,0.0003934504,-0.14716862,-0.035504907,-0.023627419,0.15828265,-0.2938285,-0.022764802,0.0015986804,-0.14225432,-0.007249148,-0.030720841,-1.4061136,-0.016517833,-0.021918459,-0.09279387,-0.7056516,-0.024812475,-0.039129548,-0.033245113,-7.272814,-0.020888768,0.005739963,-1.8870022,0.05930099,-0.03039434,0.073339626,-0.0343065,0.004814082,-0.014164881,-3.341431,-3.1919286,-0.021738565
0.28611487,-0.010257643,0.008797905,-0.0010144769,-0.019338457,0.033138607,-0.044832613,0.103471905,-0.0692641,-0.03646873,0.1079909,0.043414112,0.25899276,0.022912374,-0.008522676,0.0047231787,0.049973134,0.064865,0.05041003,-0.03053034,0.10634364,-0.185371,0.17524374,0.00097053894,-0.021984085,0.12358482,0.084940076,0.027145458,-0.062418353,0.2425844,-0.012853134,0.009076653,0.079316,0.14947277,-0.041273426,0.08038742,0.1342705,0.083276056,-0.10422484,0.031940304,-0.10961109,-0.036653865,-0.21402074,0.05383211,0.0058631897,-0.05058897,0.08218745,0.14604522,0.057329815,-0.04311123,0.031191476,0.08653322,0.06867536,-0.088399805,-0.057345387,-0.01100538,0.33712283,-0.15989576,-2.217511,0.103002794,0.024238268,-0.03180991,0.05724506,-0.7709254
-0.29853383,0.02334962,0.047991645,0.014407558,-0.06634015,0.016796615,0.0072027845,-0.8472256,-0.26054683,0.028025063,-0.33391446,-4.959779,-12.332515,-0.07417446,0.020605838,0.052405696,-0.09940024,0.027776796,-0.071651995,0.046868227,0.08298454,-0.2878282,-0.09284663,-0.38246858,-0.1084605,-0.034023426,-7.682289,-0.028238708,-0.05365192,-1.6531268,0.0084195305,0.0395077,0.010999073,-0.40057963,0.036024503,-0.0094202235,-1.5747349,-0.012570785,-0.040368944,0.05145143,-0.10794487,0.05768769,-2.9915903,-0.031772003,-0.011313605,0.0027113105,-0.032500647,-0.07030121,0.019795932,-0.017464403,0.0027105699,-0.04965019,0.016501043,-0.5404936,-0.042114366,0.06541956,-6.5649667,0.019188294,-0.29600427,-0.08434546,-0.01624276,0.12754731,-0.010014444,-0.3852782
-0.030174922,-0.010152219,-12.196885,-0.010208393,0.010168049,-0.2214364,-0.022496903,-0.52422583,-0.6285216,-0.02617252,-0.09859243,-0.037787348,0.046422005,-0.08237567,0.003723699,-0.42981187,0.0061194906,-0.19401905,-0.02085763,-5.869905,0.036297973,-0.07818539,0.044156738,-0.0011578982,-0.31181365,-0.06114018,-0.29298458,-0.10423026,-0.17210841,-0.028874489,-0.013769598,-0.08376587,-0.012107078,0.030393243,-0.02991216,-0.043525442,-0.063265614,0.037789233,0.018961169,-0.019451013,0.040444337,-0.01133606,0.0074635553,0.0020482747,-8.104067,-2.5732982,-0.0021719518,0.021879423,0.014151577,-10.414357,-0.007025761,-0.005078818,-0.02684134,-3.4069107,-0.027888166,-0.08141,-0.030659799,-0.17048556,0.012221418,-0.12811771,0.0007040185,0.030243957,-0.0017655296,0.012189333
-0.23824866,0.02181465,0.06348633,-0.039681498,0.14558254,0.06914805,-0.049887296,0.2657531,-0.0074396213,-0.035513513,0.074185066,0.16456185,-0.1197247,0.21977097,-0.0008635069,0.06827871,0.17417859,0.13311005,0.12685272,0.15684429,-0.03805149,-3.7977757,0.06881717,0.008789055,0.11046294,-0.08761748,-0.20106083,0.08455483,-0.055310488,-0.008465131,-0.03411382,-0.050181553,0.13323916,0.19268937,-0.12367466,0.08386337,0.04227783,0.030464867,-0.188169,0.024374552,-0.08760356,0.07779099,-2.7569509,0.048788186,-0.0300338,-0.18602255,-0.058104042,0.007764474,-0.11510837,-0.016960759,-0.028845405,0.008836239,0.11615018,-0.27724674,-0.3394093,0.03366977,-0.07786903,-0.06480284,-0.1651105,0.123612136,0.030872254,-6.38208,0.022477508,-0.10351777
-1.2889549,0.0394942,0.07661777,-0.006076521,-0.022759087,0.1190044,-0.0026550477,-0.04103569,-0.12469996,0.06679723,-0.06958863,-0.19925581,-0.7660152,-0.19948396,0.0167462,0.05054963,-0.03353622,-0.17263752,-0.10284216,-0.10854037,-0.10953472,-0.81054187,0.14666541,-3.4302022,-0.06043509,0.06667948,-0.13703762,0.09014728,-0.09018008,-7.1018324,0.03901001,0.03318881,0.08836209,-0.2890547,0.03243063,0.037359536,-4.016262,0.074617274,-4.5784006,0.2494021,-0.18514305,0.091625094,-2.1565263,-0.038587425,-0.018142423,-0.007253405,0.1468589,0.13441023,0.048190128,0.06134113,-0.03292672,-0.06758534,0.1655611,-0.37316942,-0.061176307,0.19514225,-5.7017703,-0.10906092,-3.5273647,0.097714014,-0.015966278,0.08681367,-0.04197803,-3.1212058
-0.6076241,0.056141343,-0.012476981,0.17245314,0.11253982,0.016516423,0.1016496,-0.04160659,-0.0379441,0.14453332,-0.027318347,-0.0049634553,0.0799436,0.1052874,0.068089135,0.18357973,0.09743723,0.08041237,0.07230565,-0.1161062,-0.04053245,-1.886443,0.037655503,-0.101649396,-0.04004272,0.024800008,0.005768246,0.043124877,0.05005192,0.19901438,0.0758802,0.2217756,0.11048246,-0.033064082,0.13127083,0.122184604,-0.16793123,0.040007886,-0.061744582,0.030151775,-0.05742108,0.051169157,-0.13198724,0.07370466,-0.006890933,0.12503903,0.14093022,-0.012552137,0.15093356,-0.10218042,-0.0065839756,-0.19103955,0.10745448,-2.9735777,-0.17999016,0.18957265,0.11072021,0.15749659,-0.09291892,-0.07817327,0.0024750768,0.22033827,-0.057500616,-0.027618527
-0.00018825193,0.007655463,-0.0061450885,-6.686991,-0.0025714855,-0.04537744,-10.209767,0.024301982,-0.23191415,-1.0926962,-0.0038671982,0.017341483,0.011654353,-0.019267568,-6.6037307,-0.7355352,-0.024997132,-0.13730028,-0.017046453,-0.026953021,-8.39905,-0.007891264,-0.15057674,0.02435112,-0.00046249235,-0.17190616,0.000100817575,-0.0594874,-0.10477915,0.0022325318,0.003465662,-2.7444665,-0.021568606,-0.012029261,-5.9677925,-0.066744424,0.005031105,0.009711671,0.0048045684,-0.13756286,-0.048216127,-0.37473124,0.029284772,-7.268579,0.0008552524,-1.5521247,-0.2965635,-0.15862839,-9.916011,0.009704105,-0.0042583174,-2.2302427,-0.09600778,0.005281489,-0.5720329,-0.19225432,0.00057431555,-0.118410334,0.02378959,0.013535082,-0.013745708,-0.011150218,-0.68943787,0.03711679
-0.7728452,-0.047443263,-0.18075788,0.095743634,0.016128555,-0.04540748,0.04311608,-0.09579535,-0.061810084,0.08744604,0.062376693,0.082092755,0.17810178,0.13338454,0.059536222,-0.052626118,0.07849191,-0.20962356,0.052770462,-0.21886984,0.0033113281,-0.87297297,-0.03764483,-0.026031783,0.014881096,-0.016779033,0.025173694,0.097497106,-0.10209954,-0.15759659,0.026645044,-0.01046542,-0.026788242,0.13294284,0.08312225,0.016167866,-0.2910471,0.015194654,-1.556017,0.066443376,0.022109833,0.05458761,-0.011399383,0.024348088,-0.061352618,-0.04115739,0.05000664,-0.044888318,0.054833647,-0.09950672,-0.060813516,0.12677181,0.019543111,0.018405776,0.09660345,0.03747209,0.054309696,0.098640546,-0.04954048,-0.047990307,0.029987788,-0.17243826,0.04148743,-0.025878677
0.014981692,-0.0022526397,0.057667036,-0.023770677,0.07098186,0.1477264,0.024973758,0.090783656,-0.136195,0.0020938967,0.10284241,0.06942315,0.056203626,0.043896902,-0.014492232,0.15331043,0.042482328,0.04945814,0.012121765,-0.08761867,-0.06920929,0.0863908,0.044838928,-0.08939857,0.17592624,-0.009830245,0.040776003,0.0737762,-0.026560491,-0.022085547,0.058457706,0.01614574,0.10838001,-0.019894596,0.08951506,0.08556386,-0.019194433,0.05316448,-0.4107501,-0.026333075,0.012637493,-0.020568872,-0.001628957,0.024442412,0.011411265,0.016716542,-0.06372572,0.0931649,-0.010066807,0.09644625,-0.041313924,0.12637162,-0.003146714,0.16626899,0.20916967,-0.008169902,0.035767443,-0.13490285,-0.10852228,0.17393209,-0.02389928,-0.18627526,0.027633097,-0.11245042
-0.004136216,-0.0008504799,-0.21396285,0.03278219,-0.64814687,-0.08598725,0.021657264,-7.733128,-6.524626,-0.027870234,-0.15725029,-9.928548,-0.1531616,-0.12611267,-0.013888053,-0.076093316,-0.06810193,0.035978816,-0.13263845,-1.596842,-0.005580157,0.0028053625,-0.026746577,0.005855062,-0.15603389,-0.09222643,-0.057850305,-0.06244585,-0.16001308,-0.074932985,-0.0033075735,0.04559451,-0.33289945,-0.0726121,0.045798287,-0.03641106,-0.022603704,-0.22575329,0.01157455,-0.057313204,-0.21617046,-0.05472604,0.015926447,0.048520993,-0.018165605,-0.33029455,0.015939778,0.019732147,-0.016794374,-0.09343896,-0.0013561046,-0.013703923,-0.02753767,-4.8489863e-05,-0.021861587,-0.029339984,-0.06674322,-0.03713195,0.010789888,-2.5416467,-0.0011726049,0.013339845,0.013767545,0.0051258123
-0.006399805,-0.0021941292,-0.03651313,0.008619786,-0.05413578,-0.21327159,-0.27463904,-0.09337734,-0.0672773,-0.0057435064,-0.0028680763,-0.08026518,-0.046455666,-0.0042245896,-0.008801579,-0.65733856,-0.13213296,-0.054168254,-0.0016257362,-0.38155097,-0.0121484725,-0.00045879392,-0.010308663,0.0023641614,-0.0061443266,-0.178669,-0.003898192,-0.006501441,-0.040400922,-0.020596059,-0.0066695027,-2.1515138,-0.13997132,-0.06578522,-0.50754446,-0.04212776,0.0027201157,0.021523535,0.004316951,0.00036374037,-0.030654103,-0.005254106,-0.0016072557,-0.13178502,-0.00428739,-9.315279,-0.21628934,-0.14909263,-0.008558687,-0.024914656,0.0044406024,-0.16963974,-0.19879611,0.0086664045,-0.32661527,0.005805207,-0.015695952,0.015968423,0.0020330616,-0.14120835,0.00032667525,0.00711635,-0.089131914,0.0028995683
-0.005781494,-0.0035088905,-13.557021,-0.024354858,0.02902383,-0.12236532,-0.0028354195,-0.12973976,-0.3524934,-0.015414477,-0.031337373,-0.0027913,0.0390216,-0.02021848,-0.008233616,-0.30189472,0.015379625,0.097382,0.005898267,-9.582006,0.016835315,-0.040213518,0.033918295,0.012230555,-0.12668248,0.011873987,-0.07793372,-0.092236176,-0.13830374,0.008091006,0.0031374334,-0.121730834,0.006128269,0.036768176,-0.028198546,-0.026298098,0.009513729,0.01739373,0.02630216,-0.0075246077,-0.18475533,-0.031657197,0.019816358,0.006529211,-7.165822,-1.0999118,0.0012183631,-0.003902916,0.0010499086,-0.74095464,-0.0012616129,-0.02272524,-0.004043396,-0.22379455,-0.037586033,-0.061384156,-0.0006423874,-0.0012008961,0.0056557916,0.0013012375,-0.00031295104,0.020061737,-0.027794195,0.007657586
-0.107648484,-0.0117885275,-0.11064968,-0.008387849,0.017703636,0.053166706,-0.022333223,0.057898473,-0.18174994,-0.044263694,0.004747713,-0.029864758,0.024561247,-0.042856924,-0.006597437,0.0073728124,-0.0076664565,-0.0024200303,0.0016113464,-0.59107244,0.03934754,-0.9457358,-0.027047645,-0.25065526,-0.029591257,-0.15325011,-0.0585868,0.022681953,-0.062036756,-0.023532912,-0.012371242,-0.014411773,0.006674623,-0.015625594,0.0012192908,0.026423007,-0.07752811,-0.055978872,-0.13279586,0.001832739,-0.16875768,0.0313836,-0.71829134,-0.002750398,-0.79376686,-0.15209623,0.03594744,0.04495946,-0.034931965,-0.017881082,0.0017507629,-0.026711568,0.04467332,-0.19964987,-0.051820412,-0.022739861,-0.10457149,0.034596767,-0.21780005,0.06920567,-0.002019083,0.110158935,-0.045126162,-0.29251808
-6.9854956,-0.008175132,-0.05918448,-0.06853602,0.26140833,0.011856782,-0.109823786,-0.022307713,-0.077205114,0.012931727,0.022655906,-0.044594143,-0.07515245,0.11362413,-0.03737895,0.07564574,0.24842928,-0.0018617398,0.21536718,-0.060657788,0.10708307,-1.3731686,0.08895795,-1.2283568,-0.0075462996,0.010904545,-0.100058824,0.10206904,0.030180227,-0.3831556,-0.02302829,0.031605277,0.1291179,0.18711187,-0.08050093,0.1457497,-1.1199032,0.14221002,-0.259577,0.030526483,-0.020035738,-0.06327422,-4.2720985,-0.102595285,0.00283403,-0.15665314,0.06421963,0.026331736,-0.09025491,-0.044852205,-0.0074908156,0.04224031,0.10077026,-0.28811583,-0.13234256,0.07693995,-0.08569311,-0.121778265,-0.105366684,0.15951388,0.040831346,-1.301828,-0.025147531,-0.348967
-0.61513495,0.04694953,0.042269226,0.12052649,-0.11463584,0.13083002,0.08190888,0.2243602,-0.81943315,0.11858766,0.19794302,0.07523293,-8.01648,0.1696638,0.10903896,-0.011765404,-0.053703286,-0.061851885,0.1284086,-0.19175158,0.026418267,-0.014734583,-0.09933828,0.1863286,0.07553819,-0.17644295,0.146115,0.03815589,-0.09454672,-0.375722,0.06294418,0.019809699,-0.018869098,-1.7435756,0.09984759,-0.057744622,0.22596513,-0.6442913,-0.3168294,0.0033570607,0.03447201,0.104497336,0.15244542,-0.06925688,-0.801923,-0.18064164,0.019753499,-0.085023925,0.09980491,-0.000997573,-0.051530916,-0.13599788,0.004262106,-0.4465385,-0.09757441,0.06946478,0.07096103,0.021741588,0.03901059,0.041569214,-0.027354157,-0.32133922,-0.22294517,0.09406271
-0.11994681,0.22758633,-0.0630053,-0.013946225,0.014879379,0.037826825,0.015231425,-0.004610463,0.101882085,-0.056615107,0.114395015,0.025380693,-0.043396108,0.026930435,-0.031788655,-0.024862397,-0.00032613473,-0.16477378,0.097545005,0.15458156,-0.19185737,-0.014624332,-0.05096939,0.051034123,0.10614894,-0.11101718,-0.021334657,0.013864449,0.026197225,0.046584684,0.1983494,-0.11906557,0.04336775,0.05084307,-0.06126407,0.06753213,0.07958857,0.12838359,-0.016950587,-0.08181255,-0.0061969412,-0.02196476,0.11464765,-0.024010869,0.28164387,0.08701502,-0.07408885,0.08135811,0.011581448,-0.049254637,0.24585381,-0.16585791,-0.054159984,0.024869014,-0.2171578,0.0011286723,0.037498165,-0.124094956,0.07404093,0.051398117,-1.796976,-0.06704545,0.07492667,0.053944603
0.2060132,0.009067047,0.13522738,0.073513515,0.091793545,0.11358844,-0.01504895,0.14115815,-0.08691845,0.1314922,0.018608002,0.0562855,0.20499314,0.01686765,0.032929998,0.08804505,0.11267517,0.13551691,0.019689752,0.08655144,0.0745624,0.045410097,0.1647902,0.19426304,0.06837443,-0.19320956,0.23400384,0.015356193,0.09818916,0.30649614,-0.01647536,0.05722219,0.05067312,0.017830698,-0.049661253,0.030861886,0.34582737,0.037670348,-0.014297828,0.10015242,0.04890431,0.007184992,0.29358947,0.031620502,-0.103412405,-0.027641827,0.06926677,0.019505158,-0.08031901,0.00013813001,-0.06849479,-0.114285015,0.065015554,0.112001866,-0.041703116,0.020811502,0.09118848,0.0009068825,-0.44085675,0.14143556,0.020743012,-0.08543382,0.027477108,-1.7409849
-0.67727864,-0.0040855883,-0.105671994,-0.013814111,0.05582206,-0.07299941,0.015542805,-0.059639953,-0.32439902,-0.0025569538,0.15633146,0.20308843,0.11796826,0.26793402,0.06321322,-0.0019943938,0.12971734,0.08249567,0.16743419,-0.059964117,-0.41809118,-0.7012134,0.16140276,0.16552946,0.07668029,-0.15738101,-0.011647184,0.018664237,-0.03843264,-0.098069295,-0.01652544,-0.027135,0.022583164,0.26535356,0.020331545,0.054423515,-0.10577214,-0.027796892,-3.3804765,-0.047578625,0.04072776,-0.025667783,0.10919266,-0.023531932,0.017583743,-0.3062225,0.021074872,-0.08846703,0.034067962,-0.061243095,-0.03151396,-0.90328604,-0.031669203,0.055071816,-7.5102077,-0.03566447,0.031790502,-0.05021382,0.107692294,0.005208358,-0.03070441,-4.579491,-0.2852155,0.08698973
-0.0028480054,-0.0028825689,-0.01119994,0.055406947,-0.017069798,0.012556591,0.030398317,-0.07894896,-8.118665,-0.00050263444,-0.009126548,-0.013631614,-0.0049359584,-0.0050067594,0.0023641477,-0.17300245,-0.025354479,-0.21828376,-0.00837715,-0.2914083,-0.019722521,0.0011557864,-0.03155624,0.029933702,0.012034316,-0.068651125,0.0041513517,6.836669e-05,-0.15437073,0.005471533,0.0023623426,-0.2098598,-0.0016947882,-0.012461919,0.023362719,-0.15306056,-6.376584e-05,-0.8285821,-0.0011277718,0.027017124,-0.10676806,-0.007317004,0.026878433,-0.40676332,-0.0029618093,-9.870238,-0.006283052,-0.13992451,5.6971534e-05,-0.00096509256,-0.009048053,-11.10524,0.022306284,-0.0097802505,-8.105168,-0.005541323,-0.0063837124,-0.06555789,0.020620286,-0.016483499,-0.0024858462,0.0010594667,-3.079691,0.018850833
0.20515068,-0.034140304,-0.036674857,0.012184267,0.052476745,0.09325918,0.060307857,-0.024667718,-0.08523046,0.04157205,0.11286439,0.083788276,0.06942949,0.08721904,-0.006140439,-0.0479485,0.01638504,0.04524121,0.020224413,-0.29339844,0.044564523,0.027636368,0.016350009,-0.06562909,0.14663118,-0.20850787,0.08924176,0.08230972,-0.2181724,0.1353283,0.047251742,-0.03575645,0.03151583,0.06116376,0.027190126,0.047200024,0.14713316,-0.02997933,-6.765486,0.04947265,-0.06974041,0.014699794,-0.07091709,0.05219039,-0.0023428667,-0.080068626,0.056504827,0.02506691,0.06839362,0.11994293,-0.062072366,0.072084256,0.10528396,0.011983639,0.11287264,0.027257426,0.13130818,-0.032623757,-0.17038287,0.07272628,0.016393693,-0.047969166,0.06457255,-0.08525032
-0.120784946,-0.004696865,0.09887311,0.004613435,0.011970088,0.042246524,0.0028763441,0.33027157,-0.41180307,-0.11880497,0.34139907,0.34160167,0.328271,0.11439169,-0.058087423,0.096933186,-0.056091875,-0.14449102,0.0902439,0.23968251,-0.1555392,-1.1778624,-0.1495053,-1.070329,0.20369366,-0.0062422776,-0.14828812,0.08834446,0.028035654,-0.30435726,-0.025132254,0.19522005,0.098218486,-0.07588461,0.075273246,-0.008491893,-0.30222467,-0.24105658,-0.06860355,0.0032881354,-0.13027836,-0.1557926,0.0006436216,-0.029906202,-0.04477605,-0.048290268,-0.028721262,-0.116707526,-0.087340206,0.15277804,-0.004741483,-0.14964932,0.07647513,-0.28709334,-3.557388,-0.057103302,-0.10758374,-0.009353719,-0.01070539,0.14046869,0.029016083,-2.0101922,-0.29196745,-0.73441005
-4.913351,0.038507707,0.06625294,-0.17553966,0.08539504,0.08433448,0.07811337,-0.23421109,-0.29946074,0.073113404,-0.14461742,-0.11806653,-0.05670632,-0.032010373,0.051444918,-0.00037707784,0.25850764,-0.17235726,0.124598294,-0.06910315,-0.019669397,-0.39866012,0.32202283,-0.4616449,-0.05778137,0.11406594,-0.17981556,0.10405717,0.14005527,-1.3382275,-0.053671263,-0.17379443,0.1672318,0.01871302,-0.04764468,0.10334954,-8.679891,0.17244306,-2.2646966,0.20460258,0.0065876604,0.16341148,-1.8992693,-0.16905348,-0.018759834,-0.28737873,0.15734987,0.20331873,0.023315253,0.03857123,0.010753301,-0.2771587,0.21545684,-0.5755248,-0.115846135,0.1342536,-0.5293228,0.087784916,-0.27036047,-0.018374257,0.011663301,-0.030771095,-0.09076387,-0.18293624
0.35198832,-0.017070103,0.03304107,-0.007973475,0.05177886,0.040114157,-0.042076632,-0.046428505,0.12964123,0.042107176,0.16700582,-0.0091499,0.013541019,0.19123434,0.021937083,-0.042775176,0.049816906,-0.09469545,0.06829883,-0.22095074,-0.06313348,0.31735072,-0.013257731,-0.08166515,0.23212256,-0.18935765,0.2305501,0.082832985,-0.029336775,0.028379383,0.005065023,-0.045426458,0.040193304,0.01413256,-0.0050282404,-0.010733698,0.22592558,0.03485286,-0.055264223,0.07454663,-0.018916924,0.03740877,-0.10096665,-0.0061503355,-0.17679395,0.094736904,0.07059851,0.06234321,-0.0017435886,0.18916085,-0.038568787,0.09726737,0.021288812,0.1367161,0.031413186,0.045935508,0.07144023,-0.1970472,-0.019857174,0.077410735,0.056039203,-0.031269014,0.042030457,-0.039824367
0.047654476,0.001090271,-0.016392624,0.08731933,-0.03434486,0.029997617,0.017408537,0.053839825,-0.05345068,-0.07764838,0.21213005,0.18799637,0.22076654,0.016880447,-0.042607535,0.008332563,-0.06576211,-0.2109407,-0.022471998,-0.1006013,-0.24192445,-0.37163138,-0.16554335,0.13903953,0.2065172,-0.10255879,0.070345625,0.014809104,-0.15458457,0.08100437,0.0012809192,0.069828935,0.022406017,-0.027063802,0.064761296,-0.042739376,0.05596837,-0.19852668,-4.0432897,0.0341342,-0.052632686,0.044515684,0.11283402,-0.034603134,0.056889612,0.046265014,-0.008310606,-0.074741594,-0.005880057,0.0024553488,-0.056193393,-0.60366476,0.021349913,-0.06955418,-5.3345947,0.0036555983,0.18036433,0.08094074,-0.25814658,0.014746645,-0.08691602,-2.4479108,-0.3998568,0.14968868
-0.0002474616,0.00075423205,-0.022507465,-0.18416698,-0.13167408,-0.0020543586,-0.0016759038,-0.14787313,-0.60703045,0.012004522,-0.015559618,-0.0052522784,0.004683296,-0.011734845,-0.003194709,-2.0285788,-0.09788074,-0.075668275,0.0032432876,-0.72044516,-0.02155702,-0.0011721507,-0.026711913,0.0058481316,-0.0017650531,-0.11891549,-0.0038295798,0.010019012,-0.08559869,-0.0048740353,-0.0037333625,-9.550639,-0.17536527,-0.01607364,-0.0316298,-0.74570596,0.0056024115,-0.24899346,-4.67427e-05,0.009125828,-0.0283973,-0.013646269,0.017488513,-1.0673368,0.0018345348,-7.616219,-0.0274698,-0.2564117,0.007666752,-0.004876627,-0.002538357,-8.164733,0.017989596,0.0034936029,-4.4129252,0.014571615,-0.00232286,-0.041366674,0.007590539,0.0062505724,0.004981971,0.0014317678,-0.7018504,0.004856854
-0.59732664,-0.008258523,-4.2735524,-0.0054016183,-0.031807903,-0.05306024,-0.007894472,-0.26016495,-0.5382555,-0.022106012,-0.11184063,-0.02925083,0.07506234,-0.03594812,-0.015063342,-0.06721392,0.051491544,-0.13037282,-0.031095235,-12.622238,-0.007990212,-9.605357,0.03703821,0.008622144,-0.10951698,-0.16881032,-0.40750617,-0.04491358,0.060861614,-0.023849545,-0.03398812,-0.015467941,-0.015765795,0.06733139,0.009430843,0.0014644854,-0.21295987,-0.012886624,0.033602405,0.014262025,-0.07035883,0.009907893,-0.0034351558,-0.012514619,-10.733179,-0.2858428,0.011878478,-0.009017554,0.004677309,-0.3776372,0.025957843,-0.02990687,0.010708306,-6.89099,-0.043957632,-0.022753367,-0.023260998,0.029485116,0.016347492,-0.07854412,-0.009011462,0.019166255,-0.009794964,0.021471681
0.2507629,-0.0053839204,0.100672945,0.08703709,0.017094333,0.042510718,0.06400715,0.06049108,0.30233577,0.0778556,-0.020640787,-0.05600934,-0.23666619,-0.038349554,-0.008249284,-0.041598458,-0.14540362,0.031501375,-0.04394855,-0.07236704,-0.01723275,-0.07793764,-0.0648544,0.051540677,-0.0463493,-0.10225801,0.08596496,0.08457663,0.13614453,0.009005997,-0.008080102,0.037839662,0.044398542,-0.43877643,0.056298204,-0.105333336,0.24534923,-0.043635607,-0.03483824,0.07343132,0.12678288,0.018595668,0.08000874,0.07927497,0.07378061,0.5467606,0.054722134,-0.004535689,-0.004664009,0.10399224,-0.03477877,0.034757055,0.07238907,0.13691872,-0.24383147,0.16325153,-0.061907385,-0.10978647,0.0052451906,0.03245828,0.03084677,-0.1506265,0.005679618,-0.010150942
-0.018402105,-0.011254553,-1.19147,-0.011187003,0.0015584566,-0.046852667,-0.0066046175,-0.056674525,-0.51482296,-0.018343305,-0.0056997654,-0.0102673825,0.02202133,-0.02209781,-0.008931594,-0.048201576,0.012302821,-0.12561229,-0.01357508,-10.904976,0.018320553,-0.0411193,0.02003301,0.009135529,-0.06543346,-0.077790596,-0.07876096,-0.028417058,0.103677824,-0.013236628,0.00026102414,-0.030946683,-0.025804589,0.03445857,-0.009867509,-0.007636042,-0.037645604,-0.025071422,0.019922443,-0.007938968,0.0022075835,-0.009049159,0.016909877,-0.010892433,-16.512094,-0.52078915,0.004425233,0.00017004406,-0.018556759,-0.24101831,0.003125857,-0.024100658,-0.0014895393,-0.22068502,-0.03938443,-0.033766057,-0.0028942588,-0.07281377,0.020182736,-0.030988099,0.0038828219,0.021985302,-0.005271283,0.01706901
-0.21081139,-0.016938398,-0.044981066,0.15025243,-0.1478973,0.057056185,0.20573547,-0.037688497,-0.05344174,0.1946817,-0.08359747,-0.6672739,-7.751597,-0.15042682,0.21167904,0.020260494,-0.2062721,-0.028724762,-0.058930017,-0.03623974,0.14941043,-0.16554055,-0.24475154,-0.58574253,-0.034332998,-0.032173246,-7.225386,0.011299058,-0.0035508492,-0.59817934,0.0019459788,0.07433198,-0.03149393,-0.46443042,0.16263251,-0.050596755,-0.36090818,-0.20294064,-3.6157906,0.08424775,-0.087469175,0.1506391,-0.35992086,0.102836534,-0.12828994,-0.15072697,0.053364877,-0.059475146,0.15774429,0.0616874,0.01111432,0.011208205,0.020980591,-1.0854813,-0.095072046,0.10831005,-4.621975,0.041896824,-0.78084874,0.07177832,-0.060118817,-0.2453341,0.118058614,-0.39189824
-0.0323749,-0.0026105891,-0.06276563,-0.049880184,0.040162425,-0.03303448,0.022306629,-0.015830204,-0.20213155,-0.015122155,-0.005770274,-0.0074901334,0.0031430328,0.004395151,-0.025459252,-0.022155685,0.020181064,0.039542623,0.000825429,-0.26105222,-0.06449251,-0.20917936,-0.07146666,0.008782599,-0.0074821375,-0.15033591,0.008051864,-0.012590687,0.0758024,0.004526575,0.025891474,-0.13940002,0.008939221,0.0058051953,-0.02472283,0.028102478,-0.012694236,0.02727747,-0.10103877,-0.012723566,0.0053769853,-0.009641454,0.01865057,-0.0731408,-0.11632778,-3.4910018,0.009305974,-0.015709786,-0.024235936,-0.043279205,-0.036887825,-0.3277207,0.033149924,-0.021623738,-1.8933657,-0.020682117,0.0029635676,-0.11566576,-0.0036377977,0.0016379267,-0.0144519275,-0.2758084,-0.10151856,0.011602605
-0.16780773,-0.012448167,0.01396571,-0.00607989,0.09391064,-0.09536025,0.10054893,-0.00957638,0.011010607,0.039418776,0.03245239,0.07086348,0.20769277,0.09226515,0.0972574,0.10144917,0.22193179,-0.096906275,0.1380905,0.03605632,0.062453985,-1.5231858,-0.004859167,0.065206975,0.018553885,0.039007787,0.054587107,0.04108962,0.062373236,0.057893224,0.05131422,0.029240541,0.08394735,0.13196397,0.036718573,0.20175275,0.081045344,0.031387076,0.01687154,0.04710705,0.07375544,0.09565896,-1.8684618,0.008701887,0.03610331,-0.023803,0.07353099,0.033183154,0.07736165,-0.004941102,-0.0736896,0.021216381,0.109417185,-0.18138833,0.18308462,0.006888106,0.11969257,-0.10602505,-0.035472278,0.083612196,0.015094922,0.5308556,0.1066641,-0.17859362
-0.036510054,0.05058074,0.037317913,-0.002644965,0.054773644,-0.03704833,0.008576055,-0.008308723,0.06827315,-0.010379788,0.01301227,0.028133215,0.03092358,-0.08129719,0.010764357,-0.05896495,0.0597964,-0.12166809,0.14518191,0.15030332,-0.040862866,0.0034376134,-0.04613137,-0.0008522758,-0.027823463,-0.0942907,0.008781135,-0.15422939,-0.052386522,0.0159629,0.33731276,-0.027357282,0.0370417,-0.01996765,0.013237877,0.0325397,-0.038245477,0.02125104,-0.040201444,0.047425237,-0.042397384,0.06931283,0.03959253,0.046647675,0.0143319825,0.1110553,-0.051368367,0.014955569,0.0044435156,0.033529498,0.40935954,0.05857589,-0.0019993903,-0.007987304,0.07894843,0.0029276297,-0.012685024,0.09719627,0.037998714,0.0041202004,-14.389542,0.028974459,0.011925121,0.029695181
-0.25493157,0.00265545,-0.08934013,-0.031246863,-0.01890168,0.009166449,-0.0003835913,-0.15592161,-0.15301874,-0.017324513,0.009410078,-0.04411965,-0.056870315,-0.035590958,0.008484806,-0.057607554,-0.0070837312,-0.050946046,0.012891752,-0.9247829,-0.02384535,-0.44314432,0.003089097,-0.065797985,0.033189032,0.067199595,-0.107385695,0.014261913,-0.12446163,-0.067317024,0.002331379,-0.11939613,0.01712632,-0.055344332,-0.01941778,0.034747656,-0.10018185,0.0077318437,-0.14967804,-0.014910868,0.027450185,0.0028707904,-0.13286167,-0.021339644,-0.046339925,-1.5203004,-0.011019414,0.00015762361,-0.032017473,0.048195194,0.0017390357,-0.12232819,0.002925849,0.12679294,-0.38240096,0.030684736,-0.053826988,0.010948254,-0.18963902,-0.0006463184,-0.020168267,0.02123803,-0.016950766,-0.094938226
0.16767862,0.003260623,-0.10626297,0.04876271,0.053530656,0.056313984,0.070886314,0.033676136,-0.09811833,0.0005772205,0.079601355,0.07517258,0.14018276,0.105994195,0.0057033086,0.026966011,0.050348964,0.08848935,0.03729541,-0.13912667,0.06605941,-0.118997976,0.033258297,0.08129138,0.05499609,-0.08424641,0.15410991,0.0028491118,0.096753895,0.21586843,0.031929985,0.07867846,0.08773878,0.011379853,0.13854162,0.039570358,0.20403002,-0.017648358,-3.2817793,0.099930555,-0.18020004,0.025906887,0.043723673,0.025445672,-0.07827854,-0.11161298,0.0609131,0.028852457,0.0063401936,-0.018915074,-0.0025789281,0.082570076,0.055381604,-0.03420786,0.104567565,0.05287827,0.28875133,-0.13867036,-0.569198,0.049960002,0.013195129,0.046158433,0.016675754,0.048636623
-0.0044191056,0.005328291,-0.08403518,0.010044403,-0.022128947,-0.17808197,-0.065613896,-0.7077064,-0.7595614,-0.0072659855,-0.016080048,-0.13448744,-0.06309779,-0.0034128074,0.0010234392,-0.3948636,-0.022291737,-0.17662172,0.0071597067,-5.6148715,-0.014507567,6.1681494e-05,-0.015424046,0.0034664853,-0.007292654,-0.020148927,-0.015470591,-0.011949737,-0.045272402,-0.03568764,-0.000433766,-0.28219706,-0.023936495,-0.038388878,-0.06857816,0.011512731,-0.001245899,0.015363772,0.0051736096,-0.00314997,-0.12746288,-0.0025388072,0.002448689,0.011491274,-0.010454194,-1.5848659,-0.041289322,0.005882475,0.00086488185,-0.04285501,0.0021755514,-0.10620706,-0.067857586,-3.3980672e-05,-0.17512089,0.00093282294,-0.0137057165,0.016553735,0.0048505855,-0.17803249,-0.0019055551,0.008128168,-0.0242275,0.0068453746
-0.007457065,-0.032666843,0.10173323,-0.041403454,-0.016078848,0.11845788,-0.039909758,-0.083041266,-0.009360815,-0.06989412,0.064840466,0.05122496,0.047512934,0.109672256,-0.038645197,-0.18551405,0.048163846,-0.07091125,0.09102395,-0.13257216,-0.33636478,-0.016994461,-0.048853602,-5.051969,0.10203297,-0.06196591,-0.04925857,0.13266213,0.0449337,0.008328277,-0.009776204,-0.121661164,0.00040627245,-0.03286509,-0.03213357,-0.072356716,0.013350878,-0.006121548,0.060016725,0.107690096,-0.17914546,0.029251182,-0.1994982,-0.22868036,0.08257621,-0.15865658,-0.01269623,0.06742417,-0.088704094,0.098941214,-0.058558833,-0.8108324,0.08829108,-0.081404544,-2.3654957,0.1215913,0.05011872,0.10160717,-1.2997843,0.07021044,-0.020201625,-8.649671,-0.06728509,-5.98206
-0.15205668,-0.031041447,0.15326127,-0.08938169,-0.0571755,0.046178073,-0.059734795,0.1110115,0.29821792,0.08234274,-0.003277959,-0.013695051,-0.06746021,-0.022739764,-0.054320548,-0.06959179,0.11710638,-0.013388494,0.008559441,0.21646121,-0.07739796,0.39265236,0.14584723,0.0139229465,-0.011966603,-0.048795912,-0.05956926,0.009892207,-0.071285784,-0.14485611,-0.064342946,-0.030827744,-0.04983495,0.12694894,-0.03618887,0.07525985,-0.1468354,0.21346472,-0.04878701,-0.038730387,0.051473077,-0.018596452,-0.011999577,-0.021156657,0.38475433,0.12170429,-0.012621571,-0.0028110135,0.009318233,0.07553268,0.014407243,0.02055084,-0.0052646874,0.4301046,-0.01984599,0.07165913,0.0021127034,-0.09382819,0.005574864,0.04297512,0.106216535,-1.1766462,-0.04330206,0.044669278
-11.755273,-0.03729515,-0.014629268,0.0020349799,-0.042349365,-0.0149554415,-0.0089858435,-0.7907171,-0.65547377,0.010327978,-0.071724504,-0.083574526,-0.03754031,-0.025801972,0.012315107,-0.0002633382,0.007857729,-0.03212253,-0.03393933,-3.9183457,1.9721434e-05,-0.43270594,0.005831076,-0.015401753,-0.016770575,0.14036733,-0.76128376,0.009361246,-0.16536959,-0.4277354,-0.048972007,0.0022177917,-0.061574616,0.02128716,0.02215463,-0.020906558,-0.20577765,-0.024596523,0.030854374,-0.0014139947,-0.014678583,0.011577585,-0.042875677,0.0006740418,-0.0967721,-0.15900737,0.011177256,0.004624208,0.0114072375,0.027667051,0.0034999764,-0.0083909,-0.003851445,0.09294315,-0.025134077,0.0007847849,-0.07627198,-0.17124254,-0.0019076816,-0.13153791,0.013276356,0.025880013,-0.0046419585,-0.0021659452
-0.0014757382,-0.003923154,-0.011704489,-1.6881148,-0.0069128578,-0.013631091,-0.18502884,0.00065772654,-0.08214085,-0.08664526,0.006733802,0.009064151,0.0024992786,0.0050518145,-0.12157061,-0.10786036,0.008063671,-0.15017316,-0.009295239,-0.0056027924,-0.027719894,-0.005703303,-0.005326163,0.020844834,0.0027809697,-0.22122854,0.0042203586,-0.007956312,-0.070431866,0.00037605595,0.0026323418,-12.419823,-0.01027706,0.009874319,-0.6793446,-0.017577473,0.008467899,0.007002161,0.010998385,-0.04500553,-0.15265974,-0.040841676,0.008166149,-0.1255272,-0.008846572,-6.677462,-0.018087205,0.00547244,-0.26385173,-0.0005968541,-0.000102807026,-0.5360162,-0.0049220715,0.0023010017,-9.279882,-0.044167493,0.0050762948,-0.11474517,0.013089696,-0.0068109254,0.006141731,-0.003906597,-0.0075328923,0.013391611
-1.2330128,0.040177114,-0.044342488,-0.06584904,0.016926404,0.023707444,0.13706797,-0.17486386,-0.19398202,0.112380356,-0.15456313,-0.21529563,-0.27091688,-0.058384288,0.05613291,0.05687612,0.17281717,0.10419316,0.014171323,-0.12849475,-0.06966756,-0.09837845,0.2826015,-0.038175073,-0.04087327,-0.019433884,-0.76785135,0.10812544,-0.14190246,-8.985206,-0.033883087,-0.03123395,0.08993504,-0.06964663,0.07590975,0.117532335,-4.7653646,0.19213593,-0.5379947,0.16485657,0.022445126,0.12885475,-0.40509164,-0.0024694675,-0.015453777,-0.31312642,0.12862727,0.16649091,0.075112104,0.07159802,0.045754116,-0.21854179,0.16470197,-2.4051628,-0.26214892,0.12720461,-2.02858,-0.1495581,0.065167256,-0.02557335,-0.024733895,-0.16634414,0.0067906985,0.04587189
0.038975094,-0.00083777704,0.0035666537,0.014028716,0.025567077,-0.006636679,0.025518233,-0.060238827,-1.284258,0.05447585,0.0060629216,0.011839193,-0.011912786,0.026261311,0.03277558,-0.11460884,0.00029745573,0.045419276,0.008186056,-0.09824027,0.038413405,0.0006970265,-0.05078112,0.018709594,0.008412571,0.055425964,0.021473935,0.04892454,0.0502548,0.031827334,0.011245951,-0.050242167,0.0037673728,-0.047752548,0.013389812,-0.01217479,0.052923463,-0.49061623,-0.29739004,0.032384112,-0.13843687,0.044420898,0.020794844,-0.15731683,0.049391907,-3.2213616,0.017393557,-0.053702116,0.030922819,0.01898167,-0.024221502,-3.3708184,0.026331076,0.002269068,-8.032384,0.029411014,0.037577607,-0.068237565,-0.060337607,0.021128884,0.014118903,-0.3274136,-1.2256857,0.02402929
-0.17311,-0.0199472,0.17321487,-0.17840384,0.081672356,-0.15640953,0.1270498,0.04382904,0.18282288,0.13686842,0.052713472,0.13599294,-0.028034301,-0.0923638,-0.13597672,0.12277813,0.010613884,0.1255058,-0.020713758,-0.091567665,0.113081254,-0.0084856525,0.080792695,-0.1288476,-0.009120743,0.12645115,-0.017370706,-0.103666246,-0.04714052,-0.041567385,-0.10656476,0.15670286,-0.060019463,0.1073006,-0.14344104,-0.03406937,-0.04859846,-0.14186907,-0.06696584,0.036858078,-0.13662131,-0.03615896,-0.09848703,-0.15904287,-0.14391936,-0.09210461,0.1496925,-0.119386636,-0.079305075,-0.07292264,0.1327323,0.14027622,-0.00787349,-0.022673618,-0.015334773,0.037232913,-0.06701898,0.09763624,0.042884957,0.070442155,0.006318011,-0.14795257,0.067955725,0.13181366
-0.23826559,-0.06202722,0.072214685,0.12646359,-0.04256534,-0.07014227,0.055156276,0.17723536,0.10628736,0.061236754,0.045601238,0.22534959,0.24643452,-0.04091409,0.026780792,0.03953651,-0.061262883,-0.058425937,-0.05280385,0.3453817,0.22488545,-1.3921608,-0.16639462,-1.5877482,-0.07473906,-0.10522428,0.15589197,-0.081904806,0.12848704,0.073089056,0.031306505,0.035159577,-0.056245,0.0512557,0.046617966,-0.05412773,-0.044559468,-0.082559764,0.44076258,-0.11163906,-0.1041335,0.027268058,0.028718289,0.091979586,0.10140349,0.21146531,-0.06558818,-0.0049604354,0.0511317,-0.14229864,-0.0072992276,0.1174797,-0.076608375,-0.036805034,0.11797262,-0.009425548,0.16402014,0.08524085,-1.3521129,0.0126208905,-0.015119234,0.4003702,0.06376181,-1.2397833
-0.16232349,0.033239625,-0.10850451,0.05033479,0.088252924,0.002033518,0.12207812,-0.007129015,-0.29546943,0.031995844,0.10188246,0.040630266,0.25845304,0.09459867,0.075450964,-0.0516693,0.11255983,-0.15913117,0.05474695,-0.16527018,0.10835687,-0.15467657,0.10277096,-0.13773464,0.032056328,0.050353855,0.059416752,0.058946315,-0.11117064,0.11962984,0.016280642,0.12413362,0.07220859,0.14821431,0.08511334,0.060027797,0.004034592,0.018406829,-5.9152474,0.046441313,0.061569583,0.08744458,-0.06386288,0.03177475,0.05692821,-0.2818292,0.115353495,0.046442,0.06607462,-0.0010443901,-0.019341027,0.075634494,0.047889184,0.013025855,0.023132747,0.05139986,0.2407032,-0.17218302,-0.63500464,0.044861622,0.006772424,0.1195997,0.021150293,-0.1761875
0.09526606,0.0033813843,0.055142134,-0.037410732,0.13197699,0.073047005,0.013871516,0.065713495,0.024349,0.05066759,0.039049733,0.09860771,-0.041873086,0.17695141,0.047146376,0.05551628,0.039077856,5.216903e-05,0.07946432,0.0155954985,0.14524874,-0.0556324,-0.02319772,-1.4580575,0.040138047,0.030408045,0.11647211,0.16776167,-0.098713845,0.04331531,0.047114924,-0.054318987,0.052609958,-0.018930187,0.016100649,0.055501074,0.11390128,-0.027292384,-0.3515008,0.083573245,0.021049919,0.06415651,-1.7295612,0.019692177,-0.07826587,-0.09394102,0.028264446,0.050337695,-0.049244236,0.06151124,-0.059835058,0.09594677,0.10050473,-0.04435208,0.38669074,0.06531678,-0.052097145,0.0074822847,-0.3268874,0.15839049,0.036987588,0.341266,-0.049943265,-0.7383621
-0.00022972413,0.0012785367,-0.0008250469,-11.866831,0.017067585,-0.025013806,-1.2578601,0.014637702,-0.16986385,-0.3189871,0.006675019,0.014816994,0.00079527835,-0.00087036786,-0.55191636,-0.29850182,0.005929506,0.05797636,-0.014019222,-0.01917396,-0.16750501,-0.0015428992,-0.010925167,0.01524082,0.010073701,0.0030969088,0.006666261,-0.023346232,-0.15587342,0.005627056,-0.005093981,-6.4042106,-0.019255506,0.012943539,-9.687842,-0.028356351,0.0027240247,-0.00013963538,0.011738456,-0.077776395,-0.035890166,-0.1515495,0.013158002,-2.9942424,0.0010294283,-2.6869264,-0.09076162,-0.014199204,-15.015941,-0.015826834,-0.0016187276,-5.967018,-0.05433747,0.005473859,-2.1280901,-0.10953243,0.0060501564,-0.055748925,0.027684707,-0.010297959,-0.00084086036,-0.017040325,-0.22730586,0.017655855
0.005015949,0.1257689,0.011047074,-0.005410837,0.03347821,0.023318138,-0.021581538,0.027510814,0.036579076,0.01608542,0.0049587907,-0.02331195,0.031628735,-0.046690464,-0.0014552153,-0.009528392,0.014246314,-0.13646562,0.047087617,-0.033163585,0.02047156,0.004195624,-0.00875718,-0.0015861803,-0.011208622,-0.031032722,-0.021148061,-0.072746255,0.009620057,0.026414664,0.20415682,-0.0034826673,-0.0016899814,-0.020593455,-0.010351055,-0.009421437,-0.026616273,0.026080105,0.016934017,0.06551172,0.054018255,-0.005070519,0.006434347,0.055344917,-0.02945497,0.03353806,-0.007324997,0.028437026,-0.034425125,0.02351452,0.16400996,0.040208485,-0.017959053,0.017728066,0.066448666,-0.029027294,-0.029901419,-0.045145147,0.013607838,0.0054267994,-6.2219973,0.025836019,0.023468789,-0.011555966
-3.0127375,0.005798624,-0.010691427,0.067160115,-0.005307125,0.050263103,0.035258066,-0.0944152,-0.13325673,0.07303674,-0.00879561,-0.2026681,-0.5454441,-0.08256101,0.09268732,-0.10318808,-0.02161239,0.03962931,0.03156936,-0.48052895,0.06484982,-1.7598959,0.060110174,-0.31993225,0.023054166,-0.10299832,-0.08081944,0.037291065,-0.15622921,-12.896061,-0.021228177,-0.09387401,-0.048611462,-0.09227576,0.022830326,-0.10116652,-8.777442,-0.026681917,-0.20915385,0.082135454,-0.025545295,0.08435735,-0.3385481,0.0042132563,-0.07102917,-0.26370314,0.057995014,0.055290446,0.11180699,0.062131934,0.025150608,-0.09628028,-0.0057919594,-0.28213575,-0.036945008,0.06673376,-0.9217213,-0.061293498,-1.5447601,0.16572008,-0.0015652091,0.109619774,-0.04192085,-0.23870786
-0.32483074,-0.04233971,-0.6645269,-0.0049308273,0.012185018,-0.026332935,0.003652449,-0.13921426,-0.3839304,0.002142947,-0.036403593,-0.014494424,0.034573436,-0.014491262,0.009794914,-0.040676966,-0.009748063,-0.150647,-0.016498012,-4.067551,-0.0031688695,-1.4536535,0.035971984,-0.029125331,-0.049573187,-0.0025448524,-0.1300791,-0.0058415253,-0.041526157,0.008332862,-0.036631286,-0.012952005,-0.0026178048,0.046932887,0.0016634313,-0.023260426,-0.07578273,-0.0013696202,0.04050494,0.0051857773,-0.12274997,-0.011609239,-0.006508538,0.00039261256,-20.295313,-0.30403426,0.011818212,0.014410787,-0.00031644868,-0.13100626,0.028153235,-0.020498581,-0.0065008285,-0.27957982,-0.051308222,-0.00435768,-0.002792333,-0.12130036,-0.009808472,-0.02871752,0.007811393,0.037139304,-0.018727342,-0.014981884
0.011942411,0.00047122108,0.012261826,-0.0018482074,-0.08740257,0.055900335,-0.023535585,-0.12323635,0.07583207,0.011158896,0.18463056,0.09208492,-0.0048664873,0.10140335,0.031802073,-0.10948968,-0.021625662,-0.0063371793,0.050353963,-0.33676434,-0.44565782,-0.03270205,-0.15809408,-0.116615556,0.20517929,-0.13418464,0.21285968,0.123098746,0.05342294,0.11754449,0.039638694,-0.0041634366,-0.06770504,0.07451016,0.019113494,-0.044396218,0.06934066,-0.018850483,-4.173163,0.020470597,-0.08845043,0.01635021,-0.02022204,-0.15897585,-0.033188824,-0.096604116,-0.00221417,-0.12857777,-0.021651842,0.1963092,-0.04388079,-1.5474899,0.020240666,-0.075673975,-6.4420094,0.017115982,0.039756633,-0.1685538,-7.176613,0.055877395,0.011909925,-3.3715062,-0.44818944,-0.0721215
-0.05581651,-0.023457674,0.07005835,-0.031102713,-0.035233036,-0.012758997,0.052881397,-0.19302143,-0.32623896,-0.009334186,-0.000884126,-0.02428487,-0.8407241,-0.030660652,0.011646601,-0.16764854,-0.053782813,-0.029512297,0.02796841,0.085477695,0.034240674,0.0059485603,0.005622879,0.01728269,-0.029775767,0.06163533,-0.06012262,-0.005371815,0.052024227,-0.12249164,-0.008888277,-0.0070160357,-0.064429104,-1.2674965,0.001884892,0.05365345,-0.045617085,-1.381676,0.054255884,-0.026754972,0.15321411,0.008068547,0.011557195,-0.16687074,0.09911806,0.28083977,-0.030694261,-0.03136245,-0.03127754,0.029538326,0.010160932,-2.526393,0.039041165,0.041396357,-0.17291753,-0.028690193,-0.07124587,-0.033068616,0.031537566,-0.015435907,-0.004203382,0.06884324,-1.7337867,0.0182866
0.0025370605,0.0010660759,-0.0106981285,-18.808544,-0.00033669348,-0.017763602,-0.4398527,0.013080726,-0.076406196,-0.1620939,0.011159366,0.010444547,-0.001242664,0.005539739,-0.24993862,-0.09724647,0.022195656,-0.13671914,-0.009167375,0.007829684,-0.072813876,-0.0058971588,0.017675215,0.017935323,0.005027745,-0.10173946,-0.0020236347,-0.021473313,0.059563186,0.0015327,-0.006898934,-11.397789,-0.019264566,0.011850696,-2.2874217,-0.0078804055,0.0031370455,0.01449561,-0.00029640942,-0.0537928,0.03192074,-0.07201658,0.011450154,-0.42255118,-0.007531195,-7.4130073,-0.057138763,0.010475495,-0.79313314,-0.0056332005,0.0013316232,-1.705946,-0.046310663,0.0015028212,-4.4010196,-0.06409096,-0.0032495281,-0.15857923,0.0192423,-0.0063544153,0.009382112,-0.03171489,-0.07880694,0.013771584
-0.079561815,0.011281359,-0.036922,0.10206083,0.0037372794,-0.038147777,0.09302042,-0.0911012,-0.032577608,0.016841764,-0.07379093,-0.05120547,0.08762992,-0.022313885,0.09510379,0.1233921,0.13396436,0.10000827,0.10050044,-0.037025124,-0.041226808,-0.341809,0.11541591,0.015714364,-0.009670222,-0.05967802,0.1928868,0.039798472,0.04807903,0.030356824,-0.01184194,0.01891132,0.051003795,0.09352617,0.011538845,0.16044183,0.058910713,0.084949285,0.109087475,0.044469293,-0.098167814,0.11429505,-0.17473239,0.031031959,0.011972066,-0.021071047,0.17220412,0.11549069,0.10073857,0.068466835,0.004833648,-0.05023465,0.0809577,-2.2437794,-0.043271568,0.08843788,0.102749795,0.11607503,-0.19132882,-0.023702819,-0.047962528,0.20297861,-0.084846966,0.054704603
-0.025218243,0.02335874,0.036137298,-0.0140967015,-0.017367015,-0.00432134,-0.017202914,0.0042547765,-0.20774865,-0.008224997,-0.014446592,-0.0045701917,0.03254296,0.01091666,0.026324654,-0.051891502,-0.00935356,0.05544223,0.02263939,-0.0881127,0.002779728,-0.21572967,0.06424918,-0.04708675,-0.0023739801,-0.0076578557,-0.0063158246,0.01565663,-0.13359046,0.038033064,0.023256652,-0.07445553,-0.025307292,0.026882267,-0.0025336733,-0.016850753,-0.041471034,-0.052098624,-0.21258011,0.026825838,-0.06480652,0.027401598,0.004103605,-0.015898453,0.038421772,-2.7975645,0.007529326,-0.0020832028,0.015711486,-0.0052227504,-0.024205469,-0.31629956,0.006130945,-0.07988234,-1.3886667,0.0028895526,-0.009167795,-0.16048612,-4.2189736,-0.0054740137,-0.019893305,0.027555173,-0.07766062,-0.20519008
-1.6371485,0.020998448,-0.020750511,-0.033946656,0.20750445,0.08293897,-0.036616184,-0.025116716,-0.15989794,-0.04669035,0.13584687,0.14488418,0.07470413,0.17690381,-0.041577864,-0.022250984,0.1480625,0.080104195,0.22137065,-0.1029994,-0.121462725,-6.563906,-0.010523791,-0.25790194,0.11479146,0.0977163,-0.22032134,0.093126446,-0.1599083,-0.0929047,0.012792322,-0.049875498,0.10874678,0.21990201,-0.026154926,-0.06291439,-0.33144587,-0.12203243,-1.2812394,-0.0021852406,0.043862715,0.012923327,0.16492106,-0.055907313,-0.05334364,0.0331208,-0.023578262,-0.13573344,0.01812906,-0.056714773,-0.010487069,-0.077596165,0.05215738,-0.040316634,-0.7166777,-0.0010489852,0.08211231,-0.09866674,-3.4009275,0.15064104,-0.03237001,-8.433397,-0.034938578,-2.0930169
-0.6711154,0.004322166,-0.06516734,0.031881046,0.013212677,-0.021886308,0.0055571813,0.02989668,0.051657975,-0.056264315,0.1940535,0.23968905,0.19582713,0.16246663,0.048112936,-0.0010008074,-0.06742891,-0.110435136,0.10522451,0.0511105,-0.01979763,-2.463052,-0.08888184,0.0859077,0.036572468,-0.17157072,-0.22305258,-0.022894384,-0.057225395,0.054696307,-0.0025710089,-0.022172384,-0.012230754,0.09721953,0.009223516,-0.0017616464,-0.122369036,-0.103329994,-3.8811355,-0.044890482,0.08756579,-0.003754169,0.20932174,-0.044262335,-0.02087583,0.09191519,-0.044444922,-0.020754958,0.024809605,-0.09831073,-0.10040968,-0.14627717,0.055810925,-0.16564114,-0.45785293,-0.044984307,0.14868173,0.10001392,-0.21344319,0.057506613,0.022365246,-3.615034,-0.12767488,-0.016085446
-4.097142,0.027940001,-0.05407606,0.011896039,0.19848388,0.09321274,-0.0904293,-0.20289312,-0.1237072,-0.051276222,-0.01415929,-0.104619704,-0.30449972,0.10218761,-0.12380652,0.011119011,0.21804616,-0.13100174,0.15873632,-0.10845012,-0.071666606,-0.6758382,0.14605436,-2.9955688,0.049836285,-0.034703374,0.06342699,0.10473811,0.01817745,-1.5421253,-0.029662117,0.057070483,0.12844914,0.08282377,-0.07262913,0.07577157,-10.3986225,0.2855344,-1.0262792,0.1286616,-0.08624193,-0.02328593,-0.26242378,-0.020927029,-0.06462617,-0.019065069,0.013290727,0.050790682,0.010107689,-0.027403174,-0.072469465,0.027857268,0.13926215,-0.1651998,-0.11365983,-0.0022904412,-0.5216858,-0.10668572,-0.617847,0.13103427,0.06223247,-0.18042979,-0.12287111,-2.1493335
-0.49700105,-0.03114252,0.0639391,0.03957537,-0.19344124,-0.028077712,-0.0064732865,-4.0822706,-0.71939725,0.026885552,-1.8613474,-8.882437,-5.656218,-0.0591407,0.030802378,0.0032068577,-0.065929264,-0.12556817,-0.07540194,-0.20741677,0.0063490453,-0.61882067,-0.0674899,0.0017203132,-0.048975337,-0.02852136,-4.050599,0.0012933898,-0.013263903,-1.0876681,0.003914835,0.060030017,-0.074227765,-6.7489038,0.03022511,0.005047606,-1.302481,-0.1331079,-0.020426024,-0.035704244,-0.062374905,0.029466407,0.019750765,0.00166311,0.044033524,-0.043290276,-0.042531613,-0.07395992,0.022386206,0.08390421,-0.007814726,-0.00084848027,-0.0042031584,-1.4342319,-0.0059095123,-0.013163534,-2.8504887,0.045898225,-0.10854843,-0.3008094,0.005855334,0.05820645,-0.008799988,-0.01749376
0.011046422,-0.0030031372,-0.0062420326,-0.018895319,0.06901887,0.12983991,0.098151416,-0.08422182,-0.0040170164,0.13551491,0.043211974,-0.06628536,-0.092118695,0.07982502,0.13911882,0.01778857,0.0121966,-0.13427757,0.1253958,-0.21101885,0.01872437,0.05574754,-0.07745189,-1.0219637,0.09287619,-0.02440247,0.066374674,0.078382015,-0.030584008,0.091247134,-0.042389475,-0.109624796,0.08599769,-0.13308878,-0.013276777,0.05578463,0.15435715,-0.070585735,-1.2169886,0.19125262,-0.051913828,0.21257438,-1.7981753,-0.025579736,-0.037700526,0.07716992,0.12529564,-0.054657098,0.05700255,0.07851038,-0.055112623,-0.063683555,0.12226312,0.13894221,-0.03882697,0.17569362,-0.035227243,0.042608462,-0.70918113,0.15727133,0.028789014,0.22520211,-0.0062912325,-1.0513831
0.22282371,-0.012418918,0.11166654,0.0027393594,-0.057541076,-0.023097403,-0.023914441,0.15327838,0.29185516,0.1063659,0.09576558,0.02532341,-0.12235909,0.03263086,0.07442702,0.1711843,-0.021558234,-0.06737372,-0.04113305,0.19328439,-0.09361975,0.48204342,-0.29015532,0.032159716,0.078899,0.1178016,-0.027961789,0.07765528,-0.10274979,-0.25648415,-0.004111946,0.036935728,0.028089695,-0.045147248,-0.0019587951,-0.040379465,0.01775274,-0.2058437,0.034847848,0.0062605003,-0.05772952,0.04389891,0.07204472,0.037039347,0.102713145,0.17290291,-0.020827405,-0.11936792,-0.03468984,0.093253255,-0.1032744,-0.19433418,-0.043058258,0.40015787,-0.5319366,0.06094628,-0.22865923,-0.13168173,-0.088707015,0.002559754,0.06479079,-3.1827,-0.26970986,0.0045487704
-0.29399523,0.012164043,-0.03867402,0.0045302934,0.15452476,0.066187136,-0.040159598,0.014766071,-0.027875612,0.00085075636,0.029110326,0.07725601,0.24274328,0.12188378,-0.016515281,-0.0045784325,0.17115228,-0.03541493,0.11576695,-0.032687727,0.061622802,-1.1897793,0.20198087,0.035313487,0.04095871,-0.069354445,0.10503589,0.11795138,-0.09351176,0.20840985,-0.056687653,-0.031809013,0.07733697,0.1440356,-0.034736883,0.1230917,-0.023162294,0.1319207,-0.52526534,0.07206392,0.051352818,0.0034138928,-1.1348903,0.044878393,-0.023119895,-0.11611712,0.01444902,0.1397658,-0.049402904,0.00929368,0.007363907,0.1544673,0.035113353,-0.11534525,0.19473678,0.12460857,0.09095991,0.11192455,-0.048516113,0.047352042,0.004997201,0.3336305,0.11093862,0.006646266
-11.183974,-0.03400422,0.23539622,-0.017846467,0.0544049,-0.109526254,0.014281459,0.09283937,0.20427983,0.0010147697,-0.2082583,-0.038329456,-0.17216586,-0.07058535,-0.02671811,0.08058491,0.022674631,-0.08472292,-0.040648423,0.4020952,0.01967496,-3.565864,0.06430973,-0.030061916,-0.27551892,-0.078822106,-1.5563121,-0.07491971,-0.17779519,-0.7832982,-0.06660697,0.049634017,-0.03530444,0.06026414,-0.03220675,-0.09587222,-9.983657,0.06613492,0.08628238,-0.0099231545,-0.17854705,0.003980294,-0.1098395,-0.024899468,-0.137312,0.40068695,0.04324245,0.019891646,0.012554493,-0.13222696,0.04258224,-0.03141523,-0.061119452,-1.4055433,-0.06541256,-0.048421405,-0.3771641,0.027415873,0.012055287,-0.10926948,-0.007991455,0.15347168,-0.02160826,0.008168026
-0.03233454,-0.09153998,0.023478074,0.0077709127,0.04641502,0.035994533,0.030299583,0.07066275,-0.060607977,0.028031604,0.07403821,0.10110582,0.09348474,0.06308802,0.03960996,0.04325848,0.02716496,-0.052302122,0.010694142,-0.04041493,0.08893887,-0.29758626,0.14286612,-0.18062074,0.047324654,-0.028453387,0.078813486,0.016527839,0.11562966,0.16525002,0.0037640876,0.09497861,0.07672388,0.021252468,0.036375586,0.065632164,0.03621684,0.04694576,-4.0273433,0.022745918,0.04597322,-0.0049292333,-0.19278397,0.06344389,-0.012569935,-0.2991431,0.0112809315,0.071235985,0.053177524,0.06067686,-0.00090709445,0.10432501,0.08680608,-0.07604465,0.16017528,-0.02012166,0.15619196,-0.17923217,-1.1148669,0.046419397,-0.0027507686,0.29112297,0.07785188,-0.33354753
-0.0094324965,0.004682186,-0.090139255,-0.024991974,-5.2405715,-0.15440586,-0.032972384,-1.5870676,-4.4935155,-0.011352778,-0.058621563,-0.17698859,-0.07374083,-0.05837185,-0.0284054,-0.18077824,-0.05287039,0.062823944,-0.04039173,-7.751142,0.007592589,-0.004781291,-0.0076602534,0.014514082,-0.053909075,-0.10748318,-0.010464005,-0.034281407,-0.124139674,-0.032176375,-0.00097525865,-0.043903366,-16.282505,-0.041306034,-0.041742563,-0.050535966,-0.026136657,-0.20683597,0.0190621,-0.029845376,0.014020198,-0.028224451,0.013898625,0.0040629823,-0.0116307875,-0.86426824,-0.031291287,0.027341932,-0.0090442635,-0.04684316,0.008505947,0.024372127,-0.038904022,0.0021766706,-0.028715137,-0.030619817,-0.03661494,-0.09217726,0.012663055,-0.17294295,-0.0045045335,0.017413326,0.007093173,0.012609864
0.11274164,0.029043747,-0.013874381,-0.121088624,0.075931616,-0.11317972,-0.058626406,-0.12601449,-0.119148284,-0.06563477,-0.0824832,0.007031097,-0.08484463,-0.051481206,-0.06325912,-0.08825962,-0.004510443,0.15012662,-0.10245083,-0.11526776,0.10570978,-0.1182067,-0.069831595,0.049134303,-0.05543665,0.13993473,0.016748374,-0.06566455,-0.13482174,-0.08876302,-0.06453614,0.20626722,-0.11667057,0.14713642,0.13918033,0.17649712,-0.08906771,-0.1323605,-0.122198805,0.18404467,0.091392644,-0.09368107,-0.11483835,0.05700235,0.11905325,-0.11584353,-0.1451372,0.0689774,-0.12439547,-0.14424437,-0.1326448,-0.08258349,0.11471656,-0.07810967,0.1469002,-0.0119454805,-0.058312073,0.16311476,-0.048111845,0.13390039,-0.0095533,0.04621754,0.05115556,-0.07459084
0.0061645936,0.0013826833,0.0022487212,0.010745183,-0.007845695,0.007897664,0.0065619578,-0.02709391,-2.1588364,0.007818329,-0.0006497561,0.0076565435,-0.021994729,-0.0053867423,0.008494454,-0.06544504,-0.019717159,0.03553831,-0.020500362,-0.09154478,-0.0011617158,-0.026249556,-0.0348059,-0.004284885,0.0014592163,-0.07423322,0.003907944,0.0014433095,-0.04055225,0.0013478927,0.011157958,-0.018255308,0.008921018,-0.033318933,0.005297162,-0.04222086,0.011988746,-0.3003965,-0.20827793,-0.0008320782,-0.11939951,-0.0014671661,-0.0016866205,-0.09042418,0.009986764,-11.148638,0.0038043978,-0.051475,0.0060407068,0.020852724,-0.012381991,-1.6649077,-0.0071795476,0.016458629,-6.88821,-0.009548201,-0.021616017,-0.12665229,-0.03986543,0.0020482114,0.0069692577,-0.09659641,-0.73639303,-0.025408192
0.5478095,-0.025337188,-0.07633767,0.051125962,-0.035365496,0.13554443,0.06193984,-0.046696883,0.17491497,0.039212927,0.04624442,0.019954158,0.06999559,-0.015672306,0.029336233,-0.009712736,-0.0517213,-0.18912488,0.03748262,-0.16427216,0.04713022,-0.06174887,-0.061350737,-0.088802084,0.080704875,-0.08604876,0.082457826,0.06153046,-0.017722914,0.31797573,0.0508364,0.032181535,0.010030661,0.008879037,0.027555017,-0.012082796,0.45759276,-0.031996027,-0.29700854,0.034335468,0.06427645,0.037052374,-0.05063736,-0.038772624,-0.25476584,0.08959568,-0.01744356,0.009343276,0.055973906,-0.0037343754,-0.07061902,0.056305084,0.041940197,-0.39819437,0.021385299,0.09437461,0.19754988,0.06636607,-0.22323535,0.01724475,0.049696796,-0.06639988,0.07887394,-0.091502056
-0.59887743,-0.023310952,0.07551748,0.12585096,0.07265005,0.051420335,0.08185987,-0.010129065,0.09645466,0.11963335,0.07685015,0.055339985,0.09911553,0.028478537,-0.025519695,0.095453076,0.024177618,-0.19484392,0.018225534,0.06019822,-0.12523381,-0.011833755,-0.041105393,-0.089248635,0.045198433,0.042005986,-0.06658222,0.011691419,-0.027420113,-0.11877954,0.026565416,0.037687737,-0.012343493,0.09718203,0.06456891,0.12080864,-0.074346855,0.107342675,-0.2489617,0.04214269,0.06006941,0.12047216,-0.054905668,0.007674852,0.083811924,-0.07196239,0.09417929,0.05620764,0.05034907,-0.005692926,-0.017636731,0.07026643,0.014179782,-3.0316787,0.2935908,0.039315082,0.044406027,-0.11597455,-0.141321,-0.0051417975,-0.0059179785,0.5368015,0.029762985,-0.32799348
0.47829974,0.002380124,0.08053014,-0.024557875,0.009028047,0.025801085,-0.029104708,0.122257784,0.033303957,-0.07290845,-0.050611384,0.011605275,0.07261513,-0.017955627,-0.048293155,0.13661888,0.050074916,0.062577695,0.00041194528,0.06350225,0.020255497,0.27346036,0.04048355,0.053485937,-0.017521909,-0.09234737,0.2235104,0.04323583,-0.14533363,0.17037682,-0.0008345911,-0.0064880364,-0.028835567,0.070544764,-0.023911888,0.04765627,0.29196227,-0.109334484,-1.4281733,-0.014043917,0.036427706,-0.0113476785,0.0017882842,0.04693428,-0.051880103,0.10126515,0.07415813,0.0364819,0.036820114,0.05426572,-0.07998236,0.15589842,0.047414277,-0.05428339,0.33388773,0.026455255,0.07045855,-0.050983917,0.09188902,-0.017552504,0.0102893235,0.09237278,0.04940826,0.19063573
-0.010271097,-0.0040637664,-0.023683148,-0.09963322,-0.03444081,0.0009635773,0.0076982486,-0.11554406,0.074861184,-0.025299389,0.073677495,-0.019001475,0.07141406,0.03227785,0.027478868,-0.033866398,-0.13887045,-0.06067204,0.027808134,-0.09224377,-11.831144,0.010222166,-0.32357964,-0.017312689,0.044959757,0.0425463,0.091133155,0.025923714,-0.067209885,0.057244934,0.0057469024,-0.12032689,-0.004373758,-0.06803863,0.034033153,-0.0031622609,0.029088823,-0.19794293,-0.0058310945,0.028314643,0.050094888,0.007273688,-0.053156782,-1.6204824,0.07130642,-0.33133757,-0.045213014,-0.63141394,-0.03823712,0.040311135,-0.009076075,-6.3531275,0.034767475,0.013402023,-0.8624992,0.029562881,0.1070723,0.040110543,-0.067906536,-0.07552222,-0.019542351,-3.5085893,-7.426666,0.009138367
-0.13374943,0.034257956,0.063386284,0.0884856,0.15193847,0.09025213,-0.013332229,0.27324346,-0.3131058,-0.04998251,0.17225727,0.27997285,0.114267714,0.26020774,-0.028968215,0.051905494,0.029681478,-0.060314234,0.12457583,0.0114645045,0.01952631,-0.80913377,-0.05658396,-2.4280713,0.05342629,-0.0443283,-0.31121492,0.15667972,-0.13614157,-0.20770623,0.025659436,0.049731974,0.08128913,0.14108726,0.014526461,0.06498573,-0.085061036,-0.28404364,-0.13032143,0.0036378948,-0.16275004,0.01228003,-1.0112145,-0.031332143,0.0113593135,-0.1793067,-0.102211855,0.0032662882,-0.06354485,0.0631528,-0.006925797,-0.083738744,0.13268526,-0.11782931,-0.9366933,0.038673114,-0.18845458,-0.010030656,-0.088487975,0.08071393,-0.020765858,-4.2196465,-0.27698708,-1.0148968
-0.006125457,0.012929382,0.058930013,-0.59446865,-0.10619996,-0.0013526023,-0.049066976,0.111741625,-0.084290996,-0.05731678,-0.018900285,-0.003180607,-0.0003394729,-0.063007444,-0.10943731,0.26875743,-0.21592352,-0.040373206,-0.049398255,0.20341933,-7.232624,-0.003753001,-1.3680006,0.08611534,0.021552088,0.060450636,0.009728067,-0.07770732,-0.17168674,0.033159968,0.0034165904,-0.43549228,-0.03867901,-0.12787785,-0.04317332,-0.06388261,0.0065049166,-0.43983287,0.00048036204,-0.093537346,-0.22308554,-0.07594027,0.08428167,-9.667961,0.022763947,-0.28485125,-0.32183427,-4.87379,-0.24306278,0.053376168,-0.010110276,-1.8722808,-0.090756,-0.0023656003,-0.3826957,-0.065981224,0.0020566336,-0.15108831,0.076547325,-0.042040695,-0.03650468,0.004247645,-6.9122915,0.08928209
-2.1228724,-0.0030799566,0.024376607,-0.0019560673,0.23979613,-0.07165127,0.05798766,0.0179068,0.07584633,-0.090624705,0.33886328,0.16117905,-0.053267203,0.31934524,0.0060527422,-0.05995085,0.19945906,0.096288554,0.22997193,-0.031749006,0.099383704,-4.377173,0.09764609,-0.21066862,0.20156582,0.0015511687,0.113955654,0.03407163,-0.19881997,-0.3526681,0.03173759,0.0018646764,0.00488332,0.39461073,0.0891808,0.039007194,-0.49449778,0.01227972,-0.13212395,-0.11510012,-0.14006191,-0.12535308,0.24720621,0.050032835,-0.016706165,0.025691552,-0.018777031,-0.022388902,0.03646435,0.048273914,-0.025447192,0.032124784,0.0018826226,0.23627295,-0.14007768,-0.018660614,-0.14486547,0.036323935,0.024338076,0.109670915,-0.014301488,-2.2650955,-0.13983017,-2.8184032
-0.059812233,0.020169646,0.0948437,-0.13510834,0.012414158,0.117025524,-0.06458555,0.11479191,0.30985355,-0.010984753,0.06433507,-0.08335663,-0.16220298,-0.020008205,-0.04092987,0.23081338,0.0834123,0.07279754,0.0016669289,0.028785005,-0.11361094,-0.25190753,-0.061623346,-4.3680954,0.14294729,0.027629228,0.0032999183,0.059670243,-0.028311487,-0.04728108,0.0590488,-0.21321924,0.16415933,-0.12433419,-0.08921363,0.18723966,-0.08735979,0.082051575,-0.45434293,-0.015892643,0.06364383,0.00802223,-0.22812815,-0.055374887,-0.008176469,0.043951668,0.00028714648,-0.00826029,-0.027097972,0.12851074,-0.020567268,-0.09587119,0.0678488,-0.080441415,-0.21102858,0.078072116,-0.022911824,-0.16304082,-0.37184322,0.09008853,-0.053862344,-0.30468217,0.025723636,-5.4619284
-0.27237916,0.038417187,-0.067281,0.12960488,-0.12761751,0.018160751,0.121425025,-0.006332665,-0.15735173,0.10840829,-0.1327531,-0.28153303,-0.88614535,-0.10827892,0.17384022,0.015452593,-0.03868065,-0.10026561,-0.11960543,-0.035424057,0.09769106,-0.13743003,0.13348822,-0.49789554,-0.10850522,-0.1959118,-3.5743115,0.0004939916,-0.002067963,-3.2997153,0.00018876555,0.04984642,-0.078760765,-0.11798675,0.10526993,0.058931537,-0.7099502,0.041020837,-4.3563433,0.09253298,-0.01491427,0.13830611,-0.5524248,0.19029534,-0.013506259,-0.23013191,0.12570903,0.16017544,0.12971742,0.041371778,0.04033534,-0.051960483,0.009433886,-2.6566772,-0.29755506,0.12295371,-9.793518,-0.18834572,-0.67406815,-0.12549436,-0.070851006,-0.3303741,0.20208697,-0.37180337
-6.010184,0.056855965,0.006079543,-0.033026345,0.0654215,0.05694451,-0.021115279,-0.05628073,-0.4008318,0.061073598,-0.07858881,-0.067324206,0.013451759,-0.03456531,0.055800032,-0.1123984,0.21156313,0.08120452,0.08116175,-0.4618353,-0.00685854,-1.7304877,0.24465142,-2.5067098,-0.030738395,-0.057627626,-0.1273069,0.13264523,-0.09947996,-0.17262152,-0.029671812,-0.13401736,0.04707527,0.1361722,-0.04988251,0.07138637,-0.8762308,-0.0038179955,-4.3689156,0.17120428,-0.015613802,0.09800163,-3.817902,-0.19762583,-0.0027195069,-0.50506246,0.11987253,0.034235027,0.029715251,0.06126677,-0.011254689,-0.17240019,0.1887513,-0.052720584,-0.3607328,0.10466784,-0.21410616,-0.06930917,-2.0818036,-0.029550316,-0.009734663,0.14705224,-0.22044776,-1.8013971
0.018811814,-27.297817,0.014795216,0.028603561,-0.028546521,-0.0041830516,-0.01662776,-0.0012998659,-0.0030393826,-0.020123774,-0.030262366,-0.02128116,-0.0038174614,0.0488971,-0.0074121747,0.039269127,-0.035857026,-0.11740545,-0.12549695,0.0032860986,0.011792376,-0.03544241,-0.0047523337,0.0068571027,0.031293295,-0.14499168,-0.004988836,0.047438767,-0.1806403,-0.0044735004,-1.2506303,0.0044320915,-0.02307975,0.011573261,0.010236121,-0.04809184,0.023811668,-0.026469335,0.026338128,-0.042030517,0.02601685,0.016596144,-0.052732766,-0.0052204006,-0.115716636,-0.0024854827,0.023279574,-0.0141412215,0.011457722,0.0049956483,-1.2058309,-0.03600137,0.0136166625,-0.03513302,-0.020577729,0.006648138,0.021025492,0.082273796,-0.009570441,-0.001240512,0.12495235,-0.0054441476,-0.0031278923,0.00080751686
0.18598056,-0.03139639,-0.064684965,0.033646535,0.06173814,0.07069912,0.05740493,0.034584884,-0.131587,0.029434836,0.098731056,0.059390653,0.07253948,0.1348732,0.027611604,-0.06183615,0.0450432,0.045489192,0.095110625,-0.26760688,0.119868286,0.13313471,0.033330258,-3.3300636,0.05269288,-0.07519059,0.12944785,0.1342536,-0.16616015,0.15395084,0.006491857,0.018527396,0.07802801,0.037028577,0.027958015,-0.010911117,0.13616988,0.020586923,-2.9197135,0.07613161,0.047264192,0.023091383,-0.15927164,0.09994838,-0.09462872,-0.24150713,0.05623354,0.045574456,0.007774589,0.06280317,-0.013496309,0.10561175,0.14977483,-0.07637025,0.10320871,0.08085331,0.14511399,-0.17494401,-3.4632983,0.13616101,0.024385886,0.1107291,0.053379953,-0.29541287
-2.832249,-0.0041515357,-0.0024414102,0.12345213,-0.022371419,0.075137876,0.1540158,-0.07748878,-0.05029092,0.1511031,-0.060067333,-0.011912292,0.012793748,-0.09916534,0.23277742,0.0016345363,-0.046133395,-0.19342518,0.052727047,-0.022897473,0.106852375,-0.09341321,0.06587284,-2.6003587,-0.067951255,0.0016946502,-0.2045088,0.1541577,-0.09458336,-0.5215648,0.014205208,-0.05193724,0.03210413,-0.006768988,0.12943946,0.0038368357,-2.5769389,0.013987928,-2.39466,0.13930973,-0.17654252,0.12568903,-1.3730869,0.033043437,-0.016230928,-0.43801913,0.14515688,0.079543985,0.19990091,0.023034656,-0.0035455693,-0.07199078,0.121117294,-3.2359312,-0.2445431,0.17025712,-0.14706169,-0.10198589,-3.6862578,0.07334439,-0.01165955,0.35974365,0.00048483477,-2.5951355
-0.6924711,0.021571912,-0.0025114974,0.15288664,-0.082722515,0.018474637,0.18998072,-0.063800395,-0.15493242,0.26075703,-0.04256598,-0.01964012,0.0936573,-0.0584008,0.21846691,-0.052682593,0.054849137,0.012502614,-0.047957256,0.056779258,0.09916035,-1.7231613,-0.012291655,-0.6345893,-0.06944715,-0.07756668,-0.08603311,0.098777056,0.056970187,-0.122142486,0.009226161,-0.0069209333,-0.009333025,-0.021738486,0.20056242,0.041817047,-0.29178587,-0.015911516,-5.0094624,0.1783468,0.03809884,0.17664587,-0.8455446,0.066571906,-0.056350484,-0.4257138,0.12632838,0.050075553,0.19573206,0.028350292,0.029570367,-0.14075899,0.13480167,-0.17044148,-0.2598463,0.16214037,0.02074899,-0.06672883,-1.3037866,-0.061609317,-0.038682748,0.26156902,-0.016676133,-0.6333911
0.023333088,-3.3165927,0.0051551885,-0.0023759482,-0.0025040112,-0.014056448,-0.0020566334,0.011353758,0.0015152268,0.0032904446,-0.0134878205,-0.0073340344,0.0056424113,0.017615706,-0.002365552,0.0026707405,0.005175562,0.055049695,-0.057286635,-0.02800921,-0.006942561,-0.018215274,-0.0037021274,-0.0014219017,0.018404875,-0.17758384,-0.0012530552,0.027603352,-0.159084,-0.010092177,-0.633141,0.013868961,0.0073522627,0.013959935,-0.0021959401,-0.013250568,0.012350964,-0.011433649,0.016243938,0.0005331967,-0.0674462,0.008971268,-0.009515301,-0.0026384478,-0.0032709185,-0.03800774,0.021921318,0.001559735,0.014572567,-0.0015456158,-0.6248393,0.007502055,0.00023251941,-0.005183964,-0.027183302,0.002034648,0.021045465,-0.16668192,0.0067139734,0.00631176,0.09379471,-0.011141681,0.009570064,-0.00028766855
0.057036012,-0.015226426,0.11547607,0.009135387,0.035866003,-0.0038598655,0.006434514,0.06295966,0.08346278,-0.014357366,0.04152801,0.04531853,0.03208806,0.02495366,-0.022656227,0.071651846,0.047607847,0.08193027,0.02595731,-0.0848968,-0.023822004,0.31077427,-0.0021435306,-0.016868271,0.08679499,-0.10310167,0.16956915,-0.0019076371,-0.060342412,-0.004608206,-0.04619755,0.013928039,0.05796948,0.0031476244,-0.009079127,-0.008270924,0.0782525,0.083550535,-6.037769,-0.026818978,-0.19832173,0.09120599,0.038144503,-0.07542558,0.06457723,0.07352607,-0.08730541,0.04580704,0.034839816,0.12789609,-0.049327083,0.107653394,-0.004597716,0.25258645,0.15846974,0.002558317,-0.023912981,-0.16487534,0.25756502,0.034032356,-0.017108403,0.0502001,0.097103484,0.07865972
0.04748474,0.036772303,0.017205916,0.11404188,-0.024048258,0.13461095,0.050704565,-0.02733565,-0.18542834,0.04735329,0.08054201,0.10634262,0.21752489,0.04874729,0.036934674,0.03683065,-0.06331309,-0.15326367,0.065189846,-0.11278826,0.13857852,-0.57617307,0.002360599,0.09414807,0.10177594,-0.16151524,0.16260505,0.063536555,-0.10533904,0.22711211,0.03357028,0.14586674,-0.0025828413,0.03774465,0.07819863,0.066800185,0.03720572,-0.041642766,-0.92404634,0.0849374,-0.018137358,0.030249335,-0.04142273,0.12104368,-0.03628357,-0.10799632,0.0061678602,0.02138237,0.12066001,0.015481158,0.019385958,-0.028523836,0.053436387,-0.06413913,-0.12514965,0.042061083,0.34688848,-0.11320526,-2.7489142,0.12748997,-0.079817854,-0.08121635,0.07692147,-1.6246908
-4.372381,-0.0049511967,0.20624246,-0.22354469,0.08810421,0.14160086,-0.064221434,-0.23869015,0.057827014,0.023604775,-0.13925062,-0.08787255,-0.053822707,0.055756927,-0.06126388,-0.0136044,0.22480687,-0.16154628,0.0565744,0.06955995,-0.110999234,-0.2696589,0.25762504,-0.012402205,-0.04021749,-0.020496262,0.1369307,0.12794566,0.03578842,-0.4355454,0.009240603,-0.10440937,0.1056133,0.06378873,-0.07443053,0.10439161,-2.6641977,0.39350292,-1.0072548,0.14264703,-0.100187674,0.08464165,-2.2180595,-0.027697584,0.108980775,-0.102813385,0.09342404,0.16985433,-0.11914787,0.09855057,-0.031130927,0.018726857,0.03604139,-0.2867937,0.2415924,0.057914242,-0.17879742,-0.14111768,-0.63562876,0.025972549,0.031566657,0.1603588,0.18343133,-0.5085162
0.35174474,-0.0459461,0.110649996,0.019149497,0.047463056,0.095855154,-0.0006254147,0.27366915,0.09379177,-0.05772442,0.14901221,0.13464105,-0.018341113,0.046669163,-0.05770151,0.081623286,0.11567184,-0.037199453,0.12149271,0.07416132,0.017448356,0.13816398,-0.039765578,0.016364919,0.1681223,-0.028836682,0.027117066,0.04649651,-0.077483855,0.112104006,0.0014434588,-0.035338826,0.07992281,0.0057577626,-0.0040734797,-0.012641312,0.3096015,-0.13600565,-0.37212098,0.05510763,-0.02370007,0.016558079,0.27500093,-0.06257074,-0.049465638,-0.051739883,0.031976163,-0.0012401128,-0.030176636,-0.014873698,-0.023176935,-0.08251655,0.054086786,0.008529896,-0.27762702,0.04863639,-0.07809699,-0.13811965,-3.7728171,0.12728637,-0.00038487223,-2.4704316,-0.10957996,-0.16116361
-0.030291572,0.022386039,0.057061143,-0.016313532,-0.1187154,0.029006977,0.013827431,-0.054312218,-0.2993479,0.001002561,-0.015520279,-0.023095982,-0.23119903,-0.008518743,0.0034170747,0.10207981,-0.27067652,-0.15155306,-0.025032328,0.06656742,-0.16612004,0.0056354925,-5.4523516,0.008105162,0.0070658573,-0.07114426,0.017442133,0.025515124,-0.07953317,-0.00414755,-0.019374454,0.08383833,-0.041916642,-0.6891147,-0.031192292,-0.08988773,-0.0271947,-6.1073947,0.068776086,-0.026346011,-0.013488176,0.0149834985,0.027751727,-0.13797247,0.056345284,0.047415443,-0.09286647,-0.05629984,-0.0021854988,0.08427659,0.030053569,-2.7591121,-0.0106173735,0.06480364,-1.2317319,0.017830057,-0.059384834,-0.08229046,0.030133795,0.009806891,-0.027421398,0.08091513,-4.572414,0.033306222
-0.0067052087,-0.0027172838,-0.021224327,-0.0013883399,0.00468925,-0.00058452477,-0.0016847797,-0.03162749,-2.2053244,0.0013862441,0.019401377,0.0142858075,-0.040799607,0.0055920696,0.006905774,0.010015671,-0.04901594,-0.06372178,-0.024436759,-0.10429755,-0.058021244,-0.036079694,-0.10144076,-0.024930915,0.013330064,-0.010904894,0.010171224,0.0038659298,-0.090174034,-0.0032713402,0.016045729,-0.06113829,0.0064822594,-0.06970858,0.019290224,-0.097847834,-0.014303722,-0.8718818,-0.2406341,0.0003664598,0.054954324,0.0046471623,-0.019190455,-0.62129986,0.03306706,-3.4246452,-0.0039088167,-0.21567082,-0.001364324,0.029087897,-0.023595834,-9.868847,-0.008730849,0.020572009,-4.7142763,0.004266853,-0.02637956,-0.16887324,-0.0653134,0.015707297,-0.010350004,-0.32144463,-8.358598,-0.024176674
-0.009281824,-0.00771457,0.015511099,-0.020378625,-0.012253979,0.057981063,-0.014027844,-0.006185027,-0.81617594,-0.048657954,-0.019500587,-0.007085587,-0.021107292,0.022875072,-0.026012113,-0.033284634,0.0027777173,-0.06932941,-0.010413486,-0.057517,-0.005336991,-0.029658737,-0.006370844,-0.076125145,0.024425413,-0.087390035,-0.009531574,0.032193612,0.052465368,-0.0079084,-0.0013548806,-0.041101363,0.017496098,-0.05925034,-0.0037478583,0.0616482,-0.018374452,-0.13006341,-0.1736731,-0.00182723,-0.19984217,0.0005434539,-0.1198533,-0.039865978,0.0071863895,-2.4164443,0.03481536,0.016011445,-0.041693278,0.05973017,3.5462814e-05,-0.54853976,0.031214664,-0.024155624,-3.3000283,-0.03733632,-0.056447428,-0.07240512,-0.121474,0.0018856406,-0.009642376,-0.019430226,-0.16405293,-0.06887539
-0.033834655,0.0074316366,-0.024548467,-0.12705597,-0.10682106,-11.13475,-0.101097986,-0.37668335,-1.4694424,-0.06425791,-0.05839723,-0.20743234,-0.011564251,-0.120020874,-0.09205269,-7.3045826,-0.052817315,-0.0502049,-0.18723388,0.096672155,-0.063269295,0.0030895884,-0.046129007,0.04226581,-0.06393799,-0.19957437,-0.04212995,-0.1941118,-0.070902094,-0.014271732,0.011374769,-8.339344,-2.9924338,-0.054561406,-0.42089668,0.0069075376,-0.016760873,-0.34410122,0.039740805,-0.1261219,-0.04345772,-0.08765873,0.03971303,0.04675595,-0.02347577,-1.9118822,-0.12397373,-0.016170591,-0.07452262,-0.07719968,-0.0061945803,0.07892608,-0.08533785,0.0010627371,0.004042372,-0.09696768,-0.048569646,0.04427342,0.040217068,-1.2840726,0.006310341,0.03810731,0.038668375,0.044351462
-0.03194555,0.0056305914,-0.15496556,0.009130038,-0.043111835,-0.022136252,0.003765643,-4.1428704,-1.0599643,-0.00079373905,-0.17302702,-0.20735404,-0.15271969,-0.04782342,0.005315288,-0.023326756,0.0007987869,-0.11318501,-0.039760824,-4.7227015,0.0077298395,-0.03223757,0.014613407,0.008600798,-0.08111599,-0.071897335,-11.807464,-0.013074628,-0.09897893,-3.801596,-0.014374886,0.021206558,-0.05063274,0.0041716998,0.008073339,-0.0067739356,-0.084144585,-0.01989076,0.029894682,-0.014888976,0.015679816,-0.0075695924,0.0024169537,0.0082828505,-0.27602142,-0.16390571,0.0049444353,-0.0041949307,0.0059465934,0.06416716,-0.0071790987,-0.033235047,0.00713681,-0.12287681,-0.018874275,-0.025650676,-0.19742583,-0.07339217,0.015637849,-0.27061045,0.004081908,0.025025487,0.008123013,0.014088578
0.021744512,-26.541384,0.023700053,0.00952339,-0.013733587,0.01738729,-0.010549211,-0.0038974017,0.0086809555,0.0034042685,-0.008608308,0.0073229354,0.002189976,0.041481033,-0.0050091376,-0.007864972,-0.0061239987,-0.057805236,-0.111587465,0.008200092,0.005439112,-0.018527946,0.003054209,0.0037209622,0.01858062,-0.080317296,0.0047849063,0.033591595,-0.16684532,-0.014813095,-1.1580113,0.020200688,0.0057486277,0.010799765,-0.010216248,-0.0024309761,0.004601265,-0.010132516,-0.003065466,-0.038307257,-0.13430355,0.011506369,-0.04686699,-0.012942727,-0.037119567,0.025866326,0.01943092,0.015336292,0.008133346,-0.03739719,-0.9905317,-0.0071324566,-0.021770254,-0.018484225,-0.01422202,0.015431277,0.014901807,-0.1571774,-0.009528352,-0.008633685,0.121492006,-0.0044055255,-0.008090604,-0.0007320699
