0
0.36791342
0.26767775
0.33465865
-0.040973302
0.085708275
-0.008115507
-0.07124258
-0.023367152
0.0
-0.11987241
-0.11894993
-0.0094939
0.09403207
0.13343148
-0.2613726
0.0
0.46325585
0.44587708
0.59077483
0.3140145
-0.29350424
0.012598369
-0.01073556
-0.23227961
0.051476363
0.6028563
-0.68352246
0.33019456
0.36658323
0.30472156
0.16162455
0.3956872
0.3139824
-0.016793123
0.0
-0.8126895
0.16698512
-0.0033144115
-0.15213907
0.1648933
0.3132011
-0.33409083
0.2819614
0.04973196
0.10632573
0.39713103
0.38993308
0.22481765
0.56262
0.50492793
-0.018109636
-0.03835415
-0.21603161
0.418698
-0.041076154
-0.49020705
0.48101935
0.039296653
-0.034191936
0.01337189
0.16944768
-0.025626164
0.26702544
0.10979859
0.26176724
-0.582676
0.41724935
-0.027273906
0.31757343
0.22489843
-0.19199522
-0.023823222
-0.07976684
0.062918365
-0.13979101
-0.7982562
-0.090631425
0.0
-0.17762358
0.44738707
-0.67769694
-0.12171015
-0.49268743
-0.011107051
0.26664135
0.12921791
0.123711236
0.118804894
-0.9182157
0.2967302
0.3671236
-0.0127671035
0.031708147
-0.119235694
0.64997905
0.31959888
0.07616202
0.0
-0.010807191
0.71404564
-0.18297465
-0.019640902
0.07527196
-0.23031154
-0.008858275
-0.006412548
0.012694579
-0.04861679
-0.07907073
0.12707594
-0.0080765365
-0.10083256
-0.10070716
-0.26149184
-0.06103016
0.042127643
0.0
0.07141127
0.013581068
0.21244636
0.0
0.3944702
0.27688286
0.5734691
0.023148237
0.5868154
0.064580664
-0.008126052
0.08656457
0.3786212
-0.13074075
-0.043736104
0.34968024
0.17526516
0.16911784
0.014203443
-0.057826582
0.29844156
-0.005204641
0.0
0.111514665
-0.094775595
-0.022523373
0.109878644
-0.22546607
-0.080303974
0.25292957
-0.18961939
0.0037212262
0.0
0.03961809
0.123779595
0.316525
0.41588014
-0.019197326
-0.66546047
-0.058382567
0.0
0.080384925
0.2528246
0.47778508
-0.009829099
-1.2744904
0.26912904
0.06830239
0.42008084
0.06326032
-0.046296623
0.016401011
-0.48654875
-0.076192394
0.29400074
0.10315178
-0.6074165
-0.0059994096
0.32878134
-0.026060885
-0.011422892
0.19156456
-0.103756584
0.35242382
0.13215859
0.18928702
-0.43485498
-0.00092035637
0.14622827
-0.12454577
0.078816466
0.0
0.1113884
-0.018361881
-0.03252793
-0.08351542
0.0
0.48246863
-0.0057039377
-0.2416061
0.052018564
-0.14114557
-0.024186281
-0.08069519
-0.051864486
-0.20878266
0.29994377
0.5378626
-0.21210586
-0.09152313
-0.015221249
0.68383497
-0.1642388
0.35967338
-0.07373202
-0.010972315
-0.0147212595
0.24629886
-0.16408801
0.18939942
0.71527237
0.5704332
0.17824921
0.12587154
-0.17913902
0.25373572
0.121541485
-0.18246658
0.3442421
0.3951516
-0.3734929
-0.3674993
0.029246554
-0.005806234
-0.10919037
-0.14532024
-0.17339759
-0.060163688
-0.0076699494
-0.0059501245
0.001030249
0.14394335
0.04172125
0.32620272
-0.036227696
0.017935975
0.38031596
0.043371946
0.14126562
0.0
0.43096352
0.52287
-0.07426509
-0.58526367
-0.47893393
0.014759276
0.43180326
-0.02829304
-0.060880683
