0
-0.16396628
-0.025442287
0.13588575
-0.14162385
-0.06909991
0.11297384
-0.045154385
-0.08369634
-0.023363717
0.39679593
0.15894157
0.07609334
-0.051154144
0.0764283
-0.007868614
-0.09826057
-0.08149778
0.21936598
0.3175069
-0.04376862
-0.050326273
0.06157288
0.23097403
-0.045431852
0.08571414
-0.0612887
-0.07986793
-0.08643992
-0.091428936
-0.14078099
-0.054571997
0.06331927
-0.0033438494
-0.0595845
0.43279773
-0.024478469
0.19681828
-0.030715924
0.008618111
-0.066508114
-0.23180746
-0.02688373
-0.04589876
-0.052258436
-0.13521364
-0.37327212
0.040987577
-0.34961894
-0.0601372
-0.060354434
0.029140668
0.14979962
0.10840756
0.20879896
-0.061808348
-0.0055803526
0.43222624
-0.08385279
0.032928385
-0.01433598
-0.05934637
-0.025292857
0.044538755
-0.01891049
-0.16000226
-0.102478914
-0.07579795
-0.06610902
-0.15133932
0.35396063
0.082927704
0.005928012
-0.096497856
-0.096344195
0.29294688
-0.071301624
-0.09455039
-0.09525388
0.117647566
0.03158092
0.12202963
0.09085779
-0.06718278
0.110535875
0.09499615
-0.19604412
-0.120517865
-0.046673037
-0.028696982
-0.0794018
0.06415571
-0.085017376
-0.042050272
-0.07719097
0.35563377
-0.081309415
-0.23938493
-0.061452586
-0.04012469
-0.06438148
0.14280106
-0.039499477
-0.013652043
0.10928714
-0.08569534
0.0637421
-0.09980976
-0.06273155
-0.10547173
0.037837747
-0.04031987
-0.008717067
-0.10058778
-0.06377365
0.14091937
-0.075911544
-0.065062836
-0.038520534
0.054958668
0.33144653
-0.050595686
0.43621585
-0.0861913
0.022300357
-0.09169536
-0.21792017
-0.11338377
0.16950525
