0
0.22274534
0.23829421
0.30045354
0.12578529
-0.12507816
0.076505035
0.124931276
0.06302571
0.15536962
0.11652332
0.048443787
-0.033322267
0.0
0.26539636
-0.0075966762
0.0017881083
0.2137964
0.08334734
-0.46645
0.40245068
-0.38511395
-0.055105206
-0.045911778
0.18375121
-0.019133618
0.11734185
-0.26190543
0.0
-0.18007854
0.030855387
0.27662456
-0.019106112
-0.08862248
0.37512824
0.35045487
-0.008841097
0.6306492
0.26505744
0.0889304
0.1401211
-0.026356183
0.36051342
0.3355557
0.13676552
0.29299337
0.2386816
-0.6005586
-0.034924798
0.6406236
0.33649892
-0.034157977
0.34852397
-0.03575665
0.3345295
0.101565726
0.05251576
0.29064947
-0.24804145
-0.102382064
0.31008294
0.061301585
0.31643072
-0.063846156
-0.008890386
-0.044776294
0.2714172
0.042673286
0.55898887
0.0476427
0.41277418
0.0
-0.121839404
-0.00086669606
-0.020766117
0.1879391
0.04265546
0.35779804
-0.008396061
0.17263384
0.511289
-0.11192016
0.041307334
-0.092286706
-0.23022799
-0.41022956
0.2796266
0.101598404
0.44155094
0.12681265
0.13232633
0.28769016
0.39507368
-0.012451985
-0.060743235
0.23180853
0.32101107
0.3106616
-0.14627133
-0.7561213
0.4215325
0.29813465
-0.13921423
-0.02069967
-0.1400582
0.3231586
-0.7224864
-0.13583961
-0.74922556
0.3969903
0.3874113
-0.03000626
0.24734801
0.956418
0.19364703
-0.07655618
0.49281153
0.32972658
0.07867673
0.533116
0.60136473
-0.00100188
0.40792862
-0.049344867
0.087876774
-0.135696
0.28212526
-0.04295954
0.2711961
-0.014564624
0.4429238
0.5327073
0.36228248
-0.1718751
-0.5651417
-0.34377128
0.317429
-0.60452044
0.007827869
0.080362774
0.16713208
0.3982983
0.38325337
0.12941289
-0.88794476
-0.123302214
0.028490977
0.4360819
0.20852472
0.26601827
-0.35385424
-0.026407901
0.0
-0.20909172
0.123392254
0.089965515
-0.1392082
0.5054438
-0.6859826
0.039125707
0.61146015
0.21424714
0.029619318
-0.22706117
0.3335258
0.013105842
-0.0067906766
0.0
0.0044400855
0.1545331
0.26029074
0.041103344
0.2234178
0.023054192
-1.3298599
-0.22629969
0.21726549
0.31159356
0.057549875
-0.17700443
-0.1647034
0.32220876
0.4071665
0.22246486
-0.0062589487
0.24824649
0.25947744
0.3633889
-0.21153343
0.24115574
-0.08742858
-0.0071775513
0.41372162
0.2761729
0.7004788
0.24514356
0.11567244
0.08452058
0.5038745
0.44641382
0.0
-0.17028385
0.30817428
-0.22458269
-0.008021935
-0.32505462
-0.04597035
-0.78904486
0.0
0.022259358
0.34024018
0.4638266
0.25518125
0.2271171
-0.013024752
0.58577883
0.04113232
-0.16816346
0.24222426
-0.030360812
0.0
0.10468532
0.29852274
-0.7856328
-0.090109155
0.52836955
0.28191903
0.3352927
0.05409092
0.34627002
-0.14300735
0.36753196
-0.62407947
0.008764485
0.0
-0.2532046
0.0048002866
0.14037529
0.10937624
-0.37324563
-0.009734413
0.0218121
0.4225675
0.07723946
-0.4762335
0.09220812
0.15830882
0.2973628
0.30925632
0.027631912
0.27118552
0.05437607
-0.30882883
0.042168252
0.48846114
0.20907573
0.27430344
